Neural Network File Format by Kyle Julian, Stanford 2016
3,5,5,50,
5,50,50,5,
0,
0.0,-3.141593,-3.141593,100.0,0.0,0.0,-3.0,
60760.0,3.141593,3.141593,1200.0,1200.0,100.0,3.0,
1.9791091e+04,0.0,0.0,650.0,600.0,35.1111111,0.0,7.5188840201005975,
60261.0,6.28318530718,6.28318530718,1100.0,1200.0,100.0,6.0,373.94992,
5.40062e-02,-2.61092e+00,-1.80027e-01,2.42194e-01,1.41407e-01,
-1.12374e+00,2.63619e-02,-9.17929e-03,5.56230e-02,-3.27635e-01,
1.96019e-01,2.42159e-01,6.38452e-01,-4.78265e-01,1.42577e-01,
-1.63015e+00,-3.44447e-02,-6.05492e-03,1.12076e-02,-1.04997e-02,
-3.55133e-01,5.65969e-01,2.28267e-01,1.77342e-01,-2.08078e-01,
-3.41918e-02,1.49570e+00,-1.53371e+00,4.05053e-02,1.64350e-01,
4.02002e-01,2.24022e-01,-4.67160e-02,1.63890e-01,-1.60826e-01,
-1.41575e+00,-7.47429e-02,6.04386e-02,4.82656e-02,-5.60096e-02,
-1.44498e+00,4.48403e-02,8.88916e-03,-2.50230e-01,6.53312e-02,
-1.12740e+00,2.39891e-02,-9.56711e-03,8.92796e-03,-4.58007e-03,
6.13717e-01,-5.57820e-01,-5.19507e-02,1.60852e-01,-9.71775e-02,
9.33699e-01,2.03647e-01,1.66178e-01,-1.52163e-03,-2.09448e-01,
-4.08026e-02,5.48666e-01,5.74868e-02,1.42985e-01,9.48681e-02,
-2.12265e-01,-3.28003e-01,3.57536e-01,-3.89715e-01,-4.59337e-01,
3.20180e-02,4.22455e-01,-5.68833e-01,-2.10782e-01,7.57506e-02,
-1.24055e-02,2.28453e+00,5.34617e-02,5.80561e-02,1.18652e-01,
-1.22430e-01,-7.12042e-01,9.15904e-03,-3.91123e-01,3.39849e-02,
6.01742e-02,-6.39072e-02,-2.50281e+00,4.99702e-02,-3.77898e-02,
8.33034e-02,-4.07486e-02,-7.52101e-01,-1.18798e-01,-2.18044e-01,
-1.18804e+00,1.44630e-01,-1.49280e-01,-3.60766e-02,-1.18933e-01,
-1.03537e-01,6.99915e-02,2.42373e+00,2.26499e-02,3.19605e-02,
-8.53903e-02,1.75215e-01,-8.74009e-02,-7.31836e-01,-2.20850e-01,
-1.93838e-02,3.99390e+00,1.17807e-01,7.84146e-02,-1.45183e-02,
1.66866e-02,-6.54405e-01,5.60096e-01,1.96579e-01,-4.49805e-01,
1.67639e-03,5.38434e-03,-7.26639e-03,4.18084e-03,1.78105e-03,
-8.97525e-01,-1.27606e-01,1.62803e-01,-4.81184e-02,7.85461e-02,
-9.33220e-01,-2.43277e-02,2.30273e-01,-2.09033e-01,-9.43662e-02,
1.60333e-01,3.69291e-03,2.62149e-01,2.81943e-01,-5.51476e-01,
8.34021e-02,2.01281e+00,3.55310e-01,3.60065e-02,-9.96482e-02,
2.84019e-01,-4.65741e-02,7.47930e-03,-8.40513e-01,-4.81789e-01,
1.37295e+00,5.88150e-03,1.30908e-02,-7.41005e-02,-1.55849e-01,
-1.44445e-01,6.07591e-04,-2.11642e-02,-6.47714e-01,-1.82691e-02,
-1.36290e+00,-2.07197e-02,4.45642e-02,3.94107e-02,9.35691e-02,
-1.55178e+00,8.38021e-02,-3.52086e-02,6.05953e-03,8.28404e-03,
1.29659e+00,9.38274e-02,1.75474e-01,1.33440e-01,2.98777e-01,
1.58680e-02,3.29773e-01,-2.65353e-01,-1.03541e-01,7.65932e-02,
-4.15857e-02,-1.47674e+00,-5.79324e-02,-2.06667e-01,2.01547e-01,
-8.26992e-02,2.55120e-03,9.87215e-03,6.89708e-02,-8.78938e-01,
-1.59025e+00,4.75710e-02,7.63074e-03,-1.42601e-02,2.85048e-03,
2.83388e-02,-2.30824e-02,-7.63311e-02,-7.71610e-01,4.99034e-01,
1.39212e-01,-5.72182e-01,4.26805e-01,-3.30029e-01,2.80864e-01,
2.57852e-01,-6.26802e-02,-3.31132e-01,3.29905e-01,-8.56315e-01,
6.86480e-02,2.45863e-03,-1.42610e-02,2.79897e-02,-1.85103e+00,
-7.44590e-01,3.11863e-03,-1.87879e-01,1.36177e-02,-1.59550e-02,
-4.16569e-01,1.20669e-02,-4.81611e-02,-3.64603e-01,2.88194e-01,
-6.32539e-01,-3.58635e-02,2.83509e-02,7.37678e-02,6.49997e-02,
3.92007e-02,5.64469e-01,2.62818e-01,-1.39606e-02,-3.57883e-01,
-3.85883e-02,-1.23878e-01,-7.62627e-01,4.23037e-02,4.98901e-02,
-1.57631e+00,4.40016e-04,-8.32176e-03,-9.26607e-02,-4.93705e-03,
6.20367e-01,7.50374e-02,-1.46141e-02,2.62575e-01,-2.57948e-01,
2.27630e-01,
-1.88762e-01,
5.34094e-02,
-3.77861e-01,
-8.12531e-02,
-5.88651e-01,
7.46065e-02,
-3.92887e-01,
-3.56303e-01,
-1.67712e-01,
5.87109e-02,
1.83917e-01,
1.31957e-01,
-3.08681e-01,
1.96929e-01,
2.06664e-01,
-3.11696e-01,
3.06576e-02,
-1.38822e-01,
-3.47434e-01,
-4.51840e-03,
-3.90616e-01,
9.69635e-02,
9.83266e-03,
-1.88585e-02,
-2.31919e-01,
-2.38165e-01,
7.10148e-02,
-1.41913e-01,
-4.42307e-01,
5.59084e-01,
1.35483e-01,
-3.73217e-01,
-4.15390e-01,
7.59638e-01,
1.32825e-01,
2.35566e-01,
2.14858e-01,
-4.40841e-01,
-7.72968e-02,
2.21606e-01,
-6.50873e-03,
-6.34843e-01,
-1.53833e-01,
-5.73027e-02,
-1.09229e-01,
3.70344e-02,
5.38087e-02,
-4.47550e-01,
1.75917e-01,
-1.84202e-01,3.43834e-02,-1.15142e-01,1.84753e-01,-1.37148e-01,-1.89317e-01,-7.48695e-01,5.75849e-01,-1.33157e-02,1.43641e-01,1.33067e-01,-2.24418e-01,3.02148e-01,4.08489e-02,-3.39559e-01,6.49170e-02,7.31692e-02,-4.59231e-01,4.74744e-01,3.77226e-01,-1.11407e+00,-5.71853e-01,4.99151e-02,-2.54206e-01,-2.52440e-02,2.25768e-01,1.49962e-01,-1.55202e-01,-1.72013e-02,9.90686e-01,7.83843e-02,-1.44198e-01,-1.79075e-01,-3.40037e-01,2.12321e-01,8.25806e-03,6.84292e-02,5.87946e-01,-1.70712e-01,-5.43690e-01,1.18932e-01,-4.95853e-01,-1.66652e+00,-3.24074e-01,-1.54229e-02,5.10100e-01,9.40898e-02,3.37388e-01,3.95671e-01,-2.23473e-01,
1.71639e-02,-3.44739e-02,-8.69311e-03,3.81665e-02,2.14070e-02,4.21881e-02,2.15526e-02,-3.36170e-02,-4.74388e-02,2.13502e-02,9.94309e-03,2.77698e-02,4.92707e-03,-4.27201e-02,-2.40032e-02,-3.22351e-02,1.33943e-02,-4.23694e-02,-4.01146e-02,-1.74541e-02,-4.23118e-02,1.46571e-02,-3.13675e-02,3.84782e-02,4.64228e-02,2.18262e-02,1.59546e-02,4.17461e-03,1.74008e-02,-1.78484e-02,-4.79125e-02,-4.08486e-03,-4.18420e-02,1.45460e-03,-5.08771e-02,-4.63350e-02,2.14261e-02,-5.32753e-02,-5.73137e-02,2.89767e-02,-3.29390e-02,-3.19730e-02,-3.33988e-02,-2.27086e-02,-1.54722e-02,-4.84061e-02,-7.11550e-03,-3.71157e-02,1.96442e-02,-3.51744e-02,
6.98282e-02,-4.08911e-03,-2.77997e-01,2.58790e-01,1.55820e-01,-1.33151e+00,-1.31188e+00,-8.93189e-01,1.95445e-01,3.84027e-01,4.27115e-02,-5.39398e-01,8.12943e-02,4.01288e-01,-2.74514e-01,3.67932e-01,-7.60605e-01,-1.29349e+00,1.47110e+00,9.77806e-02,-7.90099e-01,-5.34664e-01,7.20768e-03,-5.53668e-01,-2.19908e-02,2.65326e-01,2.03953e-01,4.09155e-01,-8.59508e-01,1.87561e-01,2.42437e-01,-1.12824e-01,5.26523e-01,-4.63904e-01,-3.64338e-01,5.36935e-02,4.43625e-01,9.19664e-01,6.39951e-01,-8.78768e-01,-9.78508e-01,-3.91997e-02,1.42149e-01,-7.98507e-01,-1.76701e+00,1.52952e-01,2.61030e-01,-1.87652e+00,-5.92208e-01,4.40622e-01,
7.94837e-01,-3.62980e-01,-1.71911e-01,9.75946e-02,2.71402e-02,-4.15327e-01,-9.24507e-02,-6.02603e-01,-3.20925e-01,4.35330e-01,5.27630e-01,-4.15412e-01,-1.95773e-01,-3.72765e-02,-1.00783e+00,1.33426e-01,2.48356e-01,-1.69865e+00,2.01099e+00,-7.07126e-01,1.15497e+00,5.27052e-01,-1.69422e-01,3.63558e-01,-3.01804e-02,7.70538e-01,-3.77548e-01,-1.37244e-02,-4.87739e-01,2.26330e-01,3.83543e-01,2.81900e-01,-4.76764e-01,9.03008e-03,-1.01426e-01,-6.20982e-01,4.45635e-03,-1.44175e-01,-1.32467e-01,3.56608e-01,5.80446e-02,-4.55311e-01,-7.07104e-01,-4.05381e-01,-4.23059e-02,5.96877e-01,-2.17635e-01,-1.28899e-01,-1.26611e-01,-1.72846e-01,
-5.85128e-02,7.08394e-03,2.68116e-01,-6.59521e-03,3.15806e-01,-5.37580e-02,3.65686e-01,3.60562e-02,-4.74430e-02,-3.71296e-01,1.53974e-01,-2.15701e-01,1.46240e-01,4.14588e-01,-5.22092e-02,-1.22101e-01,-2.38432e-01,-1.09953e+00,-3.20509e+00,-4.38948e-01,-2.60557e-01,-2.69236e-01,-4.09149e-02,3.69151e-01,-4.35317e-02,-3.44475e-01,-3.70995e-01,-3.68811e-01,-3.48575e-02,3.83794e-01,-1.04012e-01,-3.45975e-01,5.25536e-01,1.40227e-01,1.56070e-01,5.73022e-01,-1.64260e-02,-1.34221e-01,-1.33525e-01,9.89791e-03,-2.18030e-01,-1.56527e-01,-6.39669e-01,6.67558e-01,4.14996e-01,3.24016e-01,-6.59676e-02,8.59081e-01,-6.19551e-01,-1.11750e-02,
3.32535e-02,-8.10360e-02,-5.34410e-01,6.67956e-01,-8.12530e-01,1.29677e+00,1.26870e+00,7.04389e-01,1.17820e-01,3.14183e-02,3.45893e-01,-1.27676e+00,2.59326e-01,7.55813e-01,5.58989e-01,-1.23610e-01,-3.16966e-01,-1.38929e+00,-2.33073e+00,6.84739e-01,4.19089e-02,-6.41408e-01,-2.20248e-02,-8.15136e-01,3.62659e-02,-3.32806e-01,-1.74175e-01,-6.64114e-01,2.15466e-01,4.14545e-01,-3.16214e-01,4.10880e-01,6.56423e-01,1.71721e+00,-3.50390e-01,7.43160e-02,3.74249e-01,2.39212e-01,1.45042e+00,-3.21268e-01,2.45178e-01,-7.17588e-01,-1.78710e+00,1.14188e+00,2.82764e-01,7.94952e-01,-2.99762e-01,-7.73011e-01,-4.11885e-02,8.19762e-01,
-2.08300e-01,8.35133e-01,-1.51215e-01,1.15162e+00,2.21574e-01,1.08233e-01,6.51310e-02,1.45465e-01,6.31930e-01,1.08889e-01,5.08279e-01,-2.69129e-01,-1.98187e-01,1.72319e-01,3.25839e-01,6.12855e-02,-6.35311e-01,-4.35558e-01,5.90671e-01,9.23703e-02,-9.91100e-03,-2.27569e-01,-3.91220e-01,4.31908e-02,-4.57549e-02,2.00247e-01,1.27429e-01,-3.26969e-01,5.94883e-01,-4.12727e-01,1.78482e-01,5.78636e-03,-6.61192e-01,1.03202e-02,-1.10329e-01,5.42060e-01,1.58893e-01,4.66656e-01,-2.70218e-01,-2.23880e-01,-3.13375e-02,-2.38189e-01,-3.99878e-01,7.28962e-01,1.09875e-01,-5.18820e-01,2.80440e-01,3.65676e-01,1.36290e+00,-1.38101e-01,
-1.10533e+00,2.78798e-01,-1.34995e+00,-6.96007e-02,7.54957e-01,2.57716e+00,8.65201e-02,5.11288e-01,-5.77744e-02,-1.04050e-01,-4.23933e-01,-2.13807e-01,2.63156e-02,3.16730e+00,7.05454e-01,1.56442e-01,1.15742e-01,8.89692e-01,4.85605e-02,-3.29414e-01,-7.39524e+00,-5.87756e-01,6.79489e-01,4.04011e-01,3.53466e-02,-1.80159e+00,-3.95659e-01,1.97522e-01,-2.88667e-01,-8.30536e-01,3.18075e-01,-8.18103e-01,-7.43075e-01,3.68427e-01,2.33990e-02,4.07831e-01,-1.04199e+00,4.83819e-01,8.28921e-02,3.57220e-01,-1.50174e+00,-1.96254e-01,7.25435e-01,2.22741e-01,3.39974e-02,-5.83928e-01,9.31427e-02,3.28158e-01,8.23124e-01,5.10477e-02,
1.80697e-02,-1.20998e-01,-1.93342e-01,8.57790e-01,-1.75996e+00,-1.45697e-01,2.56764e+00,7.82773e-01,4.50378e-01,-9.82587e-02,-1.24700e-01,-7.26380e-01,-7.32309e-01,1.53515e-01,-3.26798e-02,8.59862e-02,-5.69807e-01,3.94019e-01,1.17462e-01,2.51221e-01,8.45853e-01,8.47721e-01,4.21144e-01,5.73381e-01,2.50970e-02,-1.70790e-01,-1.27728e-01,8.31425e-03,7.87938e-02,2.57700e+00,-1.29938e+00,6.91162e-01,-3.32454e+00,-1.35713e+00,-2.20211e+00,3.92762e-01,3.73119e-01,2.80267e-01,-6.10076e-01,1.03084e-01,-2.77629e-01,1.42858e+00,4.73211e-01,-6.73607e-01,1.21082e+00,-1.35457e+00,1.01984e-01,-1.70226e+00,1.08811e+00,-8.12626e-01,
2.34612e-01,-8.65116e-03,4.04159e-02,2.51350e-01,6.55618e-01,-1.87835e-01,-6.28119e-01,5.18079e-01,-3.96670e-01,-7.89420e-01,1.75555e-01,-3.92038e-01,2.77756e-01,-1.05727e+00,5.26056e-01,5.10797e-01,-1.06047e-01,-1.67583e+00,1.80736e+00,-2.33950e-01,7.01526e-01,-5.41358e-01,1.05999e-01,-1.67828e-01,-2.92290e-02,1.14975e+00,-1.59650e-01,-2.27614e-01,-1.35554e-01,1.56454e+00,7.80779e-01,-7.24606e-01,-5.93993e-01,-9.98891e-01,9.19827e-02,4.50594e-01,-5.38901e-01,5.47649e-01,-3.13118e-01,-1.04741e-01,4.10557e-01,7.51659e-01,4.94966e-01,-8.58162e-01,-2.38985e-01,-2.39199e-01,4.23537e-01,-2.73949e-01,2.23215e-01,-1.29985e-01,
-5.82788e-03,1.64447e-02,-4.98632e-02,-5.81705e-02,2.44792e-02,1.57947e-02,-3.55860e-02,3.95222e-03,-2.16416e-02,1.12976e-02,1.00584e-02,-6.41057e-02,2.40168e-02,5.82842e-03,-3.51634e-02,1.37765e-02,-4.20780e-02,-3.48972e-02,-3.75012e-02,-2.57387e-02,-5.46805e-02,-3.58484e-02,2.08489e-03,-3.63354e-02,2.47895e-02,3.34971e-02,2.16527e-02,1.98412e-02,-4.71676e-02,-7.06080e-03,-9.30937e-03,-4.94431e-02,-6.18612e-02,3.00086e-02,-3.00961e-02,1.39052e-02,-4.82571e-02,-4.51284e-03,-1.89375e-02,4.02270e-02,1.81820e-02,3.75883e-02,-2.70563e-02,3.37168e-02,-1.98271e-02,-1.65858e-02,2.09145e-02,-4.22434e-02,-2.60662e-02,-2.49860e-02,
2.80057e-01,3.77801e-01,-4.41952e-01,-1.27845e+00,-2.98068e-01,1.28171e+00,-5.42560e-01,-3.46468e-01,2.75764e-01,5.25215e-01,-2.95772e-01,-5.82597e-01,1.66079e-01,1.62596e-01,3.90477e-01,1.61276e-01,4.51447e-02,-1.26315e-01,-1.20241e+00,5.63122e-01,4.10249e-01,-1.77284e+00,-2.19624e-01,-1.24339e-01,4.54759e-03,1.00602e-01,-5.20950e-01,3.38173e-02,-2.92270e-01,1.67408e-01,-3.39629e-01,4.23217e-01,1.01269e+00,7.83648e-01,-3.31597e-01,-6.33130e-01,7.39286e-02,9.52432e-01,2.41880e-01,-2.77457e-01,4.53979e-01,-7.81443e-02,4.90360e-01,-1.46128e-01,-8.36312e-01,-7.99947e-01,-4.45305e-02,-5.92702e-02,-5.23676e-01,5.13579e-01,
1.08762e-01,-2.42730e-02,4.39208e-01,6.50574e-01,1.96522e-01,-8.38404e-01,1.21426e-01,1.17039e+00,2.32818e-01,3.04609e-01,-5.35919e-01,-1.06514e+00,8.69641e-01,4.96056e-01,1.54152e-01,5.77726e-02,8.89730e-02,4.88296e-01,-7.07301e-01,-8.93437e-02,-4.56395e+00,1.74036e-01,-2.11087e-01,-4.79564e-01,-8.46360e-03,1.23712e+00,2.90910e-01,5.13551e-02,3.97437e-01,2.63076e-01,-8.62292e-01,-6.08200e-02,5.80493e-01,3.20663e-01,-7.83696e-01,3.66165e-01,-2.44925e-02,-9.81926e-02,5.74510e-01,-5.96800e-01,5.89238e-01,-7.04496e-01,-5.60862e-01,-8.39649e-02,1.47986e-02,1.43185e-01,-1.12592e-01,1.15690e-01,2.41843e-02,7.82381e-03,
-8.76624e-02,6.00703e-01,-3.93411e-01,1.05088e+00,2.60039e-01,-1.38641e-01,3.19135e-01,-5.97047e-01,-7.05588e-01,6.16510e-01,-4.61600e+00,2.72411e-01,4.31970e-01,-1.57418e-01,-3.28696e-01,5.19095e-01,-8.74161e-01,-9.52020e-02,1.00020e+00,-2.96085e-01,-1.76376e-01,-2.44104e-01,4.01531e-01,-9.50305e-01,1.73988e-02,-1.43802e+00,1.33824e+00,1.53640e-01,-4.57963e-01,9.47199e-01,-1.31592e+00,2.79487e-01,-7.73742e-01,8.22072e-01,-1.33803e+00,-5.67244e-01,4.53384e-01,2.50774e-01,4.29138e-01,2.23368e-01,1.01085e+00,-9.84222e-01,2.31651e-01,1.79550e-01,-3.07755e-01,4.97636e-01,3.84138e-01,-1.42933e-01,-4.80406e-01,-1.60580e+00,
-2.62059e-01,6.61248e-01,-4.25415e-01,9.88594e-01,-2.63324e-01,-8.54719e-02,7.27248e-01,5.19006e-02,-4.11030e-02,1.03413e+00,2.94721e+00,-6.02879e-01,6.64402e-01,1.78682e+00,-1.78073e+00,4.42521e-01,-1.94133e-01,6.21769e-01,3.88468e-01,-2.22371e-02,4.64028e-02,7.26418e-01,4.31174e-01,-1.12577e+00,-1.64030e-02,-4.31634e-01,-7.13739e-01,7.68949e-01,-1.80023e-01,2.37554e+00,-1.70709e+00,4.66608e-01,9.57275e-01,1.54362e+00,-1.45329e+00,-7.21497e-01,3.16534e-01,-6.04271e-01,1.53063e+00,-5.03255e-01,-1.04254e-01,7.15042e-01,4.91117e-01,1.50418e-02,1.52789e-01,1.63822e-01,6.65924e-01,-1.19095e+00,-5.36305e-01,-6.52880e-01,
-6.67995e-01,-2.02133e-02,-4.30260e-01,-5.98796e-01,3.53495e-01,-4.64602e-01,-1.20080e-01,-4.41756e-02,1.61297e-01,1.19578e+00,1.63675e-01,2.39733e-01,4.60481e-01,1.54292e+00,5.90185e-01,5.53050e-01,3.33647e-02,1.09549e+00,-1.82515e-01,1.73915e-01,-2.19077e+00,2.26521e-01,2.62419e-01,9.95612e-01,4.17400e-02,5.25167e-01,-4.44440e-01,-2.92628e-01,-1.97206e-01,-4.60871e-01,-4.52132e-01,-2.61302e-01,2.26308e-01,-2.47908e-01,-1.58471e-01,3.86675e-01,-1.02155e+00,2.47639e-01,2.61188e-01,2.67750e-01,-3.67003e-01,-3.02024e-01,-1.06073e+00,2.55533e-01,1.47995e-01,-1.31401e-02,2.16371e-01,6.64270e-01,6.47565e-01,-2.01000e-02,
-5.22074e-01,-3.92761e-01,2.90612e-01,-1.02772e-01,7.12970e-01,-2.28415e+00,1.42424e+00,4.41092e-01,2.97105e-01,-1.19794e-01,-6.75246e-01,1.32939e-01,1.43614e-01,-5.90757e-03,3.19779e-01,6.28752e-01,5.04229e-01,8.07083e-01,-1.69530e+00,-2.90579e+00,5.04308e-02,6.62540e-01,-8.22735e-01,3.09652e-01,4.41201e-02,7.03183e-01,1.73302e-01,-7.32583e-02,1.27966e+00,1.57619e-01,3.91756e-03,2.42925e-01,-1.64199e-01,-1.02042e+00,-5.41494e-02,-2.39780e+00,9.37846e-02,-2.75557e-01,-4.88527e-01,1.01718e+00,-3.22546e-01,-4.31858e-01,-5.44703e-01,-1.18591e+00,-6.46282e-01,-3.52960e-01,1.00002e+00,7.02456e-01,4.10456e-01,6.14669e-02,
-2.95839e-01,4.87490e-01,-2.50767e-01,-7.97391e-01,-2.32384e-01,4.18462e-01,3.87235e-01,9.60061e-01,-1.91897e-01,1.04525e+00,-6.51756e-01,-2.79784e-01,7.16194e-01,3.42236e-01,8.29823e-01,1.48468e-01,-1.13137e-01,-4.46995e-01,-3.01331e-01,1.13571e-01,-5.45101e-02,-2.62550e-01,-1.23184e+00,1.84642e-01,-4.26401e-02,1.19245e+00,-4.33336e-01,7.57407e-02,6.65245e-01,-3.97853e-01,2.37394e-01,-4.69161e-01,-6.26106e-01,1.41971e-01,-1.67829e-01,2.75424e-01,-7.58347e-01,5.09359e-01,-2.18216e-01,-6.62873e-01,-5.95916e-02,-2.70402e-02,5.24964e-01,-2.32100e-01,-3.89608e-04,1.35245e-01,-4.61896e-01,9.98813e-01,-3.03257e-01,2.64833e-02,
-5.97724e-02,-1.81510e-01,2.34351e-01,1.16461e+00,9.71876e-02,2.14008e-01,2.09933e-01,3.29580e-01,-6.68421e-01,2.93814e-01,-9.88543e-01,-2.89137e-01,1.52218e-01,-3.27873e-01,-1.00006e+00,6.50972e-03,5.41077e-01,4.09312e-01,-1.00315e+00,-6.68993e-01,-6.59849e-02,3.14336e-01,-3.55661e-01,-5.08591e-02,3.79435e-02,5.00943e-01,-1.10721e-01,4.74046e-01,1.44216e-01,-6.87312e-01,-4.77000e-01,4.35318e-01,5.71804e-01,1.82638e+00,-9.29956e-01,-1.18372e-01,-3.49745e-01,1.94177e-01,1.54933e+00,2.45301e-02,-1.84153e-01,2.93282e-01,-9.71090e-02,-6.32774e-02,2.27440e-01,8.72606e-01,-6.01146e-01,-9.85058e-01,-6.16452e-01,-7.30357e-01,
2.25581e-01,-1.34550e-01,2.60395e+00,-2.79820e-01,-3.26815e-02,2.94465e+00,-3.79955e-01,1.06743e+00,2.57016e-01,-2.46081e-01,6.26051e-03,1.00429e+00,4.44224e-01,1.98882e+00,4.56873e-01,1.01207e-01,2.91307e-01,4.82486e-01,6.28707e-02,-6.34902e-01,-8.57219e-01,3.46260e-02,-6.56198e-01,-1.54894e-01,2.63009e-02,-8.38850e-02,3.12576e-01,-4.03916e-01,1.92752e-01,1.17637e+00,-4.46298e-01,1.14046e+00,-4.22477e-01,4.41757e-01,-1.75056e-01,2.37513e-01,3.62371e-01,-1.08390e+00,7.91569e-01,-2.88636e-01,1.52320e-01,1.65710e-01,-5.58503e+00,-2.92178e-01,-6.09799e-01,3.59772e-03,5.98140e-02,3.37497e-01,-4.56116e-02,-5.15602e-02,
-7.66084e-02,1.20952e-01,1.59317e-01,-3.76492e-01,-7.40785e-02,-8.27363e-01,-5.77585e-01,-3.41195e-01,2.02595e-01,2.09397e-01,7.13967e-02,2.21236e-01,2.67677e-01,-2.77037e-01,-7.28074e-02,-1.21906e-01,3.80108e-01,6.87495e-01,-8.51540e-01,1.48517e-01,2.43052e-01,-1.86309e-01,-2.68694e-01,1.37717e-01,-1.12855e-02,-2.91454e-01,-4.38027e-02,-1.38478e-01,3.47759e-01,7.19136e-03,-3.42292e-01,-6.78048e-01,-8.10642e-01,2.24682e-01,2.83760e-01,2.40818e-01,3.68557e-01,1.66734e-01,-5.84406e-01,-1.18577e-01,-5.50049e-01,2.13712e-01,4.06012e-01,6.33921e-01,3.75635e-02,-2.14717e-01,-4.48754e-01,8.53068e-01,3.68057e-01,-2.34969e-01,
5.34380e-03,-5.37545e-03,-1.84408e-01,-1.42157e-01,-4.16168e-01,3.63014e-01,3.45105e-01,2.96037e-01,-1.24654e-01,3.22052e-01,-2.35292e-01,-9.80614e-02,4.09397e-01,-4.97859e-02,-3.75388e-01,-2.50969e-01,-9.81585e-02,7.22905e-02,5.40131e-01,2.66987e-01,3.18570e-01,3.89736e-01,-5.87657e-03,-5.37369e-01,2.25036e-02,1.45929e-01,4.56102e-01,4.35384e-01,-4.20618e-01,-9.04436e-01,-1.37007e-01,-5.32021e-01,9.03367e-02,-1.04481e-01,6.78861e-02,-5.40483e-02,-5.40282e-01,5.18167e-01,-4.79564e-03,-7.99260e-03,4.67129e-01,1.56733e-03,3.49694e-01,-1.80226e-01,-2.96438e-01,-4.24088e-01,6.35508e-01,-6.04676e-01,2.09662e-01,-3.02630e-01,
3.16588e-01,9.41569e-01,3.42191e-01,-7.28312e-01,1.44769e+00,1.59755e+00,3.78296e-01,-2.48756e+00,1.75363e+00,1.64103e+00,6.51603e-01,8.95939e-01,1.06020e+00,3.32887e-01,-3.89880e-01,-1.51751e+00,1.95401e-01,6.82005e-02,5.72131e-01,3.57140e-01,-1.76745e-01,-6.18688e-02,-5.12659e-01,-1.00565e+00,-1.73481e-02,7.93942e-01,1.57766e+00,7.05860e-01,-1.05442e+00,1.96552e+00,2.25863e-02,3.06499e-01,-3.89977e-01,6.13327e-02,-1.23246e-01,2.01544e-01,-5.14118e-01,3.57744e-01,-1.03978e+00,-2.52856e+00,-8.26274e-01,-1.96177e-01,1.85538e+00,2.43761e-01,-8.36826e-01,-1.63097e+00,5.26890e-01,-1.88275e+00,9.66183e-01,-6.30417e-01,
-3.17647e-01,-3.19918e-01,-7.11323e-01,1.59191e+00,8.41627e-02,1.87923e+00,1.01007e+00,7.89384e-01,5.03349e-01,5.48707e-01,6.15919e-01,3.95558e-01,-6.97982e-01,-2.67981e-01,-2.10715e+00,2.95865e-02,1.39486e-01,-5.01845e-01,5.97106e+00,-7.28299e-02,3.34278e-01,2.52699e-01,-2.77681e-01,-2.73976e-01,-2.13905e-02,5.80596e-01,-8.41813e-01,-2.93286e-02,7.77785e-02,-1.38661e+00,-2.26683e+00,8.69926e-01,9.79455e-01,8.52165e-01,-7.51046e-01,-1.04523e+00,1.83031e-01,-6.72466e-02,1.70925e+00,-6.95859e-02,6.28563e-01,-6.52828e-01,-1.73043e+00,-9.54673e-01,-5.61551e-02,8.79025e-01,6.34687e-01,-1.52376e+00,6.25199e-01,-8.10672e-02,
-3.86614e-02,3.00274e-02,-4.06126e-02,1.06733e-02,-1.54052e-02,4.42192e-02,1.97890e-02,-1.04466e-02,-2.95513e-02,-4.15195e-04,-1.14132e-02,-3.39540e-02,9.67678e-03,2.19783e-02,-5.82937e-02,2.27223e-02,1.64509e-02,-2.88010e-02,-2.46728e-02,3.00411e-02,1.94892e-02,-2.42723e-03,-3.88959e-02,-4.76972e-02,3.00196e-02,-1.41949e-02,-1.70786e-03,3.37114e-02,-5.34261e-03,-3.99127e-02,-2.09442e-02,-4.18985e-02,2.35862e-02,-1.60574e-02,-1.07141e-02,1.16523e-03,-1.92918e-02,-1.32972e-02,2.90592e-02,2.37985e-02,2.51870e-02,-8.45821e-03,-3.90293e-02,-4.94291e-02,-3.08208e-02,-2.64815e-02,-1.19143e-02,-4.04856e-02,3.49375e-03,-2.53465e-04,
-4.42498e-02,-2.24060e-02,3.95571e-02,2.81488e-02,7.56830e-03,1.48697e-02,3.82801e-02,-2.41124e-02,1.36336e-02,2.69792e-02,3.96601e-02,-2.36657e-02,-2.39268e-02,4.00947e-02,-5.36841e-02,1.64122e-02,-3.89649e-02,3.11577e-02,9.23819e-03,-1.69541e-02,-2.13906e-02,-3.42286e-02,-3.89736e-02,-2.28373e-02,1.49021e-03,-4.60210e-02,-4.19726e-02,-2.80963e-02,2.71984e-02,-5.04214e-02,-5.03820e-02,-2.75260e-02,2.35949e-02,-3.05105e-03,2.23165e-02,-2.84985e-02,-5.36751e-02,9.79007e-03,4.00998e-02,-2.18434e-02,3.10683e-02,-9.41760e-03,1.99976e-02,-3.12057e-02,-1.54904e-02,-2.38395e-02,3.88896e-02,-9.14617e-03,-5.05772e-02,-2.07484e-02,
-6.17362e-02,1.96832e-01,7.75808e-01,-5.48274e-01,7.13229e-01,-9.43687e-01,-8.26375e-01,1.35313e+00,-3.92385e-01,-3.73778e-01,3.91178e-01,1.71131e+00,1.77278e-01,1.11293e-01,-2.96716e-01,4.08424e-01,-5.50011e-01,-5.06212e-01,-6.98154e-01,-9.20523e-01,-8.04038e-01,3.47287e-01,4.92696e-01,-3.90561e-01,2.03369e-02,1.91853e+00,1.70492e+00,-2.44196e+00,3.26480e-01,2.37850e+00,-9.26582e-01,2.74002e-01,-6.13919e-02,-1.75036e-01,-3.87735e-01,1.23933e-02,1.69013e+00,-5.50539e-01,2.52672e-01,1.94250e-01,-1.71223e+00,-2.07596e+00,-2.51066e+00,-6.37380e-01,3.84115e-01,-1.56875e+00,-4.31412e-01,1.48980e+00,1.45973e+00,2.88254e-01,
6.94637e-02,2.34293e-01,-3.84624e-02,1.88544e+00,2.63936e-02,-1.40758e-01,-2.94075e-01,6.50119e-01,1.87138e-01,1.05286e+00,-3.92044e-01,-2.88931e-02,2.93739e-01,-3.15151e-03,1.19241e-02,-5.80794e-02,-1.75109e-01,1.53388e-01,-2.37627e-01,2.18168e-01,1.07495e-01,-8.54477e-02,2.82669e-02,6.76320e-02,4.19083e-03,1.68374e-01,5.15999e-02,-2.15841e-01,-1.63693e-01,3.40874e-01,-3.03106e+00,3.74973e-02,2.36892e-01,2.03238e+00,-1.29320e+00,-1.71070e-01,-9.47622e-02,1.08934e-01,2.77119e+00,2.31219e-02,1.62733e-01,2.27226e-02,-3.55209e-02,1.91682e-01,-9.59096e-03,8.78061e-01,1.39756e-01,-3.84920e-01,9.75160e-01,4.28244e-02,
9.56433e-02,4.34045e-01,-1.12437e-01,1.01573e+00,2.10701e-01,-6.62638e-01,-1.03677e+00,1.21557e+00,2.15330e-01,1.99962e-01,1.57218e-01,-1.75469e-01,3.07791e-01,2.95498e-01,4.24079e-01,-7.01214e-01,6.20567e-03,-6.81584e-02,3.59171e-01,9.56768e-01,2.39628e-01,1.80519e-01,7.32215e-02,8.70791e-02,-2.14856e-02,-8.60337e-03,1.75838e-01,-1.10670e+00,7.13413e-01,1.05371e+00,-1.61344e+00,2.53375e-01,1.10626e+00,1.82714e+00,-2.09182e+00,5.24782e-01,9.83768e-02,6.00907e-01,1.90327e+00,-8.71044e-02,-2.46973e-01,-7.06184e-01,5.76315e-02,2.91424e-01,-1.98773e-02,9.40403e-01,3.22904e-01,-9.02529e-01,1.04154e+00,4.79672e-01,
1.89924e-01,2.60059e-02,-2.67103e-01,7.70939e-01,-9.07456e-01,-1.08298e+00,-1.32564e-01,-5.95572e-02,-3.79226e-01,-1.76419e-01,1.32885e-01,2.35959e-02,-4.27154e-01,4.12024e-02,-1.24642e+00,6.94870e-01,-1.86457e-01,7.87567e-01,3.01205e-01,4.87338e-01,1.98397e-01,-1.17986e+00,4.09079e-01,-1.66769e-01,4.72508e-03,4.62992e-01,4.02926e-02,1.03018e-01,2.78331e-01,7.87222e-02,7.47431e-01,-1.43410e+00,-3.04184e-02,2.12685e-02,1.26610e-01,-5.00546e-01,7.65586e-02,1.74537e+00,-1.12925e-01,-5.76047e-02,2.83635e-01,6.36282e-03,1.30834e+00,6.43967e-01,-2.49990e-01,5.99640e-01,-2.05021e-01,1.04004e-01,-6.00384e-01,-1.55705e-04,
-6.95974e-01,-1.29607e-01,6.00306e-01,3.04015e-01,5.64409e-01,1.62210e+00,-2.86626e-01,8.96510e-01,-3.70437e-01,7.83919e-02,-1.56796e-01,1.15489e-02,-5.46074e-01,-3.13870e-01,4.23087e-01,4.40643e-01,1.96042e-01,7.63858e-02,1.04211e+00,4.34497e-01,1.10865e+00,1.14416e+00,-3.38450e-01,6.97608e-01,-4.30303e-02,-1.60625e-01,1.75219e-01,-2.19286e-01,1.38402e-01,-5.32377e-01,4.91973e-01,2.80262e-01,-9.19107e-02,-9.77611e-01,-1.44309e-01,1.32977e+00,9.28962e-01,-2.64523e-01,-3.25696e-01,5.06461e-02,-6.71854e-02,9.20420e-01,1.52524e+00,-1.15185e-02,1.23646e+00,3.83555e-01,1.11470e+00,-1.21328e+00,-2.33483e-01,2.60875e-01,
8.89581e-01,4.27730e-01,1.02021e-01,-6.90815e-02,-5.01090e-01,9.94008e-02,7.77038e-02,3.55447e-01,1.22223e-01,-3.30119e-01,-4.18854e-01,1.05862e-01,-3.96614e-01,-3.52080e-01,-1.00883e+00,-6.46376e-01,-1.43750e-01,-5.94317e+00,6.36260e+00,7.67676e-01,1.06944e+00,-2.52855e-02,-5.45631e-01,3.82134e-01,-3.21749e-02,-3.54430e-01,8.32172e-02,2.26229e-01,-3.45264e+00,-8.11095e-01,-2.66894e-03,-4.37992e-01,2.98922e-01,-2.60096e-01,-6.47190e-02,-4.21387e-01,2.64886e-01,1.88394e-01,-5.36335e-01,-9.19568e-02,3.44194e-01,2.39629e-01,1.56315e-01,2.88174e-01,6.15565e-02,-3.32355e-01,-2.27838e-01,-9.69060e-01,3.39535e-01,6.69412e-02,
-3.12797e-01,5.20245e-01,-2.47811e-01,6.06060e-01,-3.08867e-01,3.90312e-02,3.85516e-01,2.28354e-01,3.33615e-01,-6.07636e-01,-7.25812e-01,-5.11116e-01,-1.26520e+00,5.69628e-02,8.47665e-01,-1.95323e-01,-2.17945e+00,4.45048e-01,2.72476e-01,-2.39627e-03,8.78727e-01,-3.02210e-01,9.28734e-02,-2.38151e-02,1.43469e-02,-3.65801e-01,-1.22928e-01,3.54199e-01,1.06878e-01,1.15028e+00,3.48079e-01,2.74576e-01,-6.15380e-01,7.47706e-01,-1.10295e-01,4.04983e-01,-4.72655e-01,-6.26858e-03,-1.05629e+00,-3.32901e-01,-3.36936e-01,3.02657e-01,1.45289e+00,8.61287e-01,2.41594e-01,-1.39795e+00,-6.89364e-01,1.71802e-01,-6.12382e-01,2.70854e-01,
1.93564e-01,1.44523e+00,6.59922e-01,1.59422e+00,1.12143e+00,1.54426e-01,-3.20650e-01,1.95374e+00,1.13126e+00,7.48786e-01,1.11294e-01,1.05834e+00,1.77860e-01,1.73992e-01,5.91047e-01,-1.56400e-01,1.00194e+00,-5.50980e-01,4.21743e-01,4.74903e-01,2.32618e-01,7.67089e-01,-8.72520e-02,-6.44955e-02,3.17547e-03,5.04545e-01,8.66105e-01,-1.29073e-01,-6.67322e-01,2.21090e+00,-9.28405e-01,-7.75013e-01,6.48402e-01,1.99629e+00,-2.22688e+00,2.00229e-01,-4.51636e-01,-1.15499e+00,2.49395e+00,-2.15081e-01,-3.55066e-01,7.24267e-01,1.15448e+00,5.98434e-01,-7.22057e-01,3.55473e-01,-1.57440e-01,4.82168e-01,1.85246e+00,-1.33023e-01,
-1.53071e-01,1.85324e-02,4.96609e-01,-1.76242e-01,1.32520e-01,-3.68707e-01,-3.74178e-01,-6.66281e-01,7.84158e-01,9.72886e-02,-1.92852e-02,3.06120e-01,-8.32663e-01,-3.18517e-01,1.59466e-01,1.78360e-01,3.33991e-01,4.36896e-01,-1.07546e+00,2.88074e-01,-1.49633e-01,5.78693e-01,-1.63636e-02,-3.00377e-02,-5.23577e-03,1.71676e-01,2.70649e-01,1.19062e+00,-1.46285e-01,1.77465e+00,3.33948e-01,7.01942e-01,-3.40734e-01,-1.82913e-01,-4.23262e-01,4.06886e-01,3.46195e-01,2.78865e-01,-9.25859e-02,-1.19779e+00,1.25343e-01,-1.09969e-01,-1.27216e-01,1.50708e-01,5.37367e-01,2.01625e-01,3.34242e-01,2.66590e-02,-1.16610e-01,7.14312e-01,
1.47091e-01,-9.20817e-01,-6.70497e-01,2.76299e-01,-5.95598e-02,-1.80043e+00,4.82210e-01,1.18207e+00,1.63645e-01,1.15554e+00,2.08565e-01,1.23033e-01,1.45719e-02,4.83299e-01,-3.70696e-01,1.16619e-01,-2.02445e-01,-3.19707e+00,4.62030e+00,-3.80048e-01,6.01541e-02,1.74440e-01,5.36912e-01,-1.04387e+00,4.14812e-02,1.18798e-01,2.00287e-01,3.21081e-01,-8.68847e-01,4.20665e-01,-3.96356e-03,4.96525e-01,2.65315e-01,5.51630e-01,1.37533e-01,-9.18724e-02,-6.42299e-01,1.44151e-01,3.35251e-01,2.66440e-02,-3.91610e-01,-3.06894e-01,-2.18482e+00,-4.69382e-01,1.55484e-01,3.29642e-01,4.99698e-02,-2.67322e+00,1.09758e+00,-7.59099e-01,
5.20240e-01,-2.52208e-01,6.10368e-01,8.69977e-01,-1.05383e-01,-5.88515e-01,-3.66213e-01,3.02230e-01,1.01059e-01,-2.78991e-01,-3.07602e-01,3.97712e-02,1.49832e-01,5.43451e-01,-6.66054e-02,4.53521e-01,1.48984e-02,-4.55494e-01,1.27761e+00,7.23849e-02,-2.01327e+00,2.53964e-01,5.30549e-01,2.62947e-01,-4.02599e-03,8.44994e-01,4.87316e-01,-1.29872e+00,3.78600e-01,1.78970e+00,-1.62888e-01,1.22249e+00,1.73516e+00,-4.18335e-01,1.39107e-03,-2.07300e-01,2.14810e-01,-5.80094e-01,-4.44339e-01,-5.24151e-01,-8.77953e-02,-1.35841e+00,-2.08125e+00,-2.87998e-01,2.65565e-01,-6.88904e-02,-6.14191e-01,-4.74938e-01,6.49689e-01,2.98627e-02,
3.37957e-03,3.58123e-03,-5.23126e-02,-4.35683e-02,-1.21571e-02,3.89191e-02,-2.44973e-02,8.33114e-03,-3.09726e-03,-1.67869e-02,-7.53699e-03,-1.39463e-02,-5.15684e-02,-1.34991e-02,-5.00966e-02,3.18874e-02,1.18100e-02,-3.74396e-02,-6.61598e-03,-4.71460e-02,2.11228e-02,4.19343e-02,-2.87218e-02,-2.41813e-02,-2.16306e-03,-1.63612e-02,-2.72640e-03,-2.33119e-03,-4.56672e-02,3.97102e-02,3.69856e-02,-4.38300e-02,-3.07999e-02,-3.11257e-02,4.59582e-03,-2.22941e-02,-4.66089e-02,-4.10443e-02,1.14919e-03,-2.75192e-02,2.01718e-02,1.73984e-02,-1.35623e-02,-4.21613e-02,3.54616e-02,-4.66780e-02,-2.30274e-02,1.85662e-02,-5.93874e-03,-4.32285e-02,
3.94096e-02,5.51210e-01,-3.74195e-02,2.12755e+00,3.27126e-02,-5.53920e-03,1.31943e-01,1.44832e+00,3.98095e-01,1.15941e+00,-9.85198e-02,-2.10324e-01,3.54951e-02,1.11342e-02,4.01923e-02,6.71328e-02,-6.69259e-02,-1.97069e-01,-1.07930e-01,1.15893e-01,1.93412e-01,-1.86414e-01,-1.41833e-02,-1.09271e-01,-4.62505e-04,4.08058e-01,2.07189e-01,1.20423e-02,-8.33266e-02,2.56778e-02,-3.82905e+00,-5.71050e-02,1.00422e+00,2.08877e+00,-1.69096e+00,3.73892e-02,4.79907e-02,5.36657e-02,2.58227e+00,-1.78714e-02,-1.26188e-01,-4.69560e-02,-2.08863e-02,6.45768e-01,4.34935e-02,6.52171e-01,1.88168e-02,1.34778e-01,1.72043e+00,-9.39978e-02,
5.44524e-01,6.11729e-02,-1.00278e-01,-4.16678e-01,3.86408e-02,-1.43012e-01,2.05194e-01,-2.02811e-01,-1.43623e-01,7.22468e-01,-2.72663e-01,5.66484e-02,-4.64974e-01,-5.57419e-02,-9.35183e-01,-4.87267e-01,6.60513e-02,-1.14682e+00,7.51996e-01,7.76297e-01,9.99378e-01,4.15307e-01,-2.59069e-02,1.74351e-01,1.08560e-02,-5.81010e-02,-8.98991e-02,-2.10220e-01,-6.49379e-01,-4.43088e-01,8.40818e-02,2.59013e-02,2.61792e-01,4.33581e-01,-3.18584e-01,-6.49173e-01,6.92869e-01,-1.59344e-01,8.41141e-01,9.55951e-02,-2.89821e-01,-2.50892e-01,-1.68588e+00,1.52792e-01,3.14845e-01,5.03401e-01,-9.60577e-02,-5.62290e-01,6.01555e-01,-5.09082e-03,
6.72764e-02,-4.78893e-01,8.34231e-01,-2.72691e-01,1.20782e-01,-2.35060e+00,4.05975e-01,-9.26539e-01,4.69639e-01,1.74590e-01,4.00554e-02,2.96408e-01,-2.39350e-01,1.19698e+00,1.14479e-01,1.18828e-01,-7.26833e-01,-3.84486e-01,-6.30676e-01,-8.02355e-01,-1.88252e+00,1.50989e+00,-6.27703e-01,3.12084e-01,8.42059e-03,-7.47298e-01,2.42916e-01,-4.17442e-01,-6.27678e-02,4.35047e-01,-4.35611e-01,1.01109e+00,1.16521e+00,-4.81582e-01,3.93550e-02,-4.36070e-01,4.40735e-02,-8.46213e-01,4.95375e-01,2.15144e-01,2.38547e-02,-2.01547e-01,-2.21498e+00,-3.03679e-01,6.35450e-01,-2.30395e-01,7.04447e-01,8.17042e-01,1.36926e+00,4.97661e-02,
-9.28640e-01,-8.05053e-02,6.40302e-02,-2.63019e-01,1.66090e-01,-1.66211e+00,-1.32093e-01,-1.32705e+00,1.66086e-01,-1.29865e-01,-3.34594e-01,6.61127e-02,6.33007e-01,3.79516e-02,-3.87032e-01,-1.28015e-02,1.01307e+00,-3.84665e-01,7.50208e-03,4.83827e-01,-3.00168e-02,9.70970e-01,-5.16422e-01,-1.18488e-05,-2.39806e-02,-9.91065e-02,-4.51664e-01,-5.08915e-01,8.69450e-02,-1.37244e+00,-5.66116e-02,8.45539e-01,-2.48938e-02,7.52465e-02,2.83255e-01,5.03731e-02,-6.35955e-01,-6.33855e-01,-4.63081e-01,3.66167e-01,-4.43574e-01,-3.03306e-01,-4.55209e-01,-4.37595e-01,4.77966e-01,4.34585e-01,-1.27842e-01,-1.30902e+00,1.76107e-01,1.03521e-01,
-8.76844e-02,-3.94447e-02,6.51309e-02,1.97424e+00,-2.47538e-01,-1.78240e-01,3.70758e-01,4.38517e-01,-5.27650e-02,9.38755e-02,-1.62234e+00,3.72372e-01,6.52717e-01,-3.38896e-01,6.85237e-01,-4.67079e-02,9.35516e-02,-5.01777e-01,-8.20838e-02,1.79616e-01,1.03024e-01,3.65015e-02,-1.94073e-01,5.34099e-01,-2.51719e-02,-7.63432e-01,1.16582e-01,-6.43583e-01,-1.73197e-02,6.90473e-01,-6.85065e-01,-2.40548e-01,4.16865e-01,2.45208e+00,-1.05540e+00,3.06108e-01,1.25049e-01,2.16560e-01,2.45733e+00,-4.56824e-02,-1.41824e+00,3.89472e-01,-4.67001e-01,3.01731e-01,8.58388e-01,9.01823e-01,-4.27594e-01,6.84289e-01,1.18938e-02,-2.03476e-01,
-1.36948e-01,9.49599e-03,-1.38863e-01,1.45009e-02,2.00551e-02,-2.40808e-01,-1.23084e-01,3.25245e-02,7.88718e-02,2.04245e-02,-1.36803e-01,-5.74912e-02,1.01873e-02,7.59982e-02,-1.46138e-01,-9.10074e-02,5.73273e-02,-6.59210e-02,1.47955e-01,7.03083e-02,-6.61596e-02,1.05562e-01,-7.55332e-02,-8.48411e-02,-4.75373e-03,6.60235e-02,7.83520e-02,-7.48353e-02,-1.36368e-01,4.35885e-02,-1.47388e-01,6.36972e-02,9.17308e-02,1.61574e-03,-1.12873e-01,-1.44428e-01,-5.74710e-02,6.99405e-02,5.93641e-02,-1.69008e-01,-9.48852e-02,-3.03798e-02,-6.45098e-02,5.36553e-02,3.68449e-02,6.18894e-02,6.67266e-02,9.57317e-02,6.67804e-02,-1.16074e-01,
4.69926e-01,4.08884e-01,1.85463e-01,8.68883e-01,-9.47657e-01,-8.57920e+00,-3.50731e+00,1.14030e+00,5.18583e-02,3.13976e-01,4.31151e-01,1.84579e+00,2.44769e-01,-1.79830e-02,-1.12137e-01,1.09834e+00,4.79314e-01,-4.32428e-01,1.70457e+00,-6.86710e-01,-2.69506e-01,-3.30778e-01,-6.58605e-01,-2.24633e-01,2.04342e-02,5.21441e-01,9.13928e-01,7.91134e-01,-7.32973e-01,1.01704e-01,-6.23539e-01,-7.17065e-01,7.27761e-01,-7.28795e-01,-1.79780e+00,1.08374e+00,6.66371e-01,7.65811e-02,1.86647e-01,-1.71360e-01,6.21338e-01,-3.58866e-01,2.82117e-01,-1.37108e-01,-2.10127e-01,3.60947e-01,4.00460e-01,4.37648e-01,8.84444e-01,-1.52199e+00,
5.17693e-01,-1.88861e-01,-1.10653e-01,6.10181e-01,3.57651e-01,1.10959e+00,2.13089e-01,1.38339e-01,-5.98133e-01,3.33181e-02,-2.86477e-01,4.09145e-02,-8.96520e-01,5.63481e-01,1.05493e-01,-1.18442e+00,-1.16413e+00,4.42435e-01,-1.35846e+00,5.99078e-01,-4.04175e-02,1.98201e+00,-2.90362e+00,6.23524e-01,9.86964e-03,4.91189e-01,-3.93000e-01,3.94516e-01,-5.09288e-01,-1.07220e+00,4.56513e-02,-4.90500e-01,-3.57225e-01,-4.29378e-01,1.69915e-01,1.53339e-01,3.53380e-01,9.76487e-01,-6.93323e-01,-7.23389e-01,-2.32865e-01,9.09224e-02,5.22503e-01,-4.99166e-01,-4.39303e-01,-1.79512e-01,5.07023e-01,4.46633e-01,9.71412e-02,-4.23109e-01,
-1.64987e-01,-8.33527e-02,2.42473e-01,8.50368e-01,-4.79460e-01,5.82513e-01,9.82952e-01,1.07879e+00,7.26892e-01,5.29269e-01,-4.18537e-01,-7.80971e-01,3.65121e-01,7.17431e-01,2.65642e-01,-8.55164e-02,-6.24654e-02,-4.33837e-02,-4.74597e-01,2.63688e-01,3.66676e-02,1.05476e+00,-1.84634e-01,3.42488e-01,-7.13987e-03,7.95176e-01,1.19533e+00,5.41726e-01,6.09728e-01,1.73506e-01,-2.57625e+00,-1.21161e+00,1.01440e+00,1.15735e+00,-1.40846e+00,8.10331e-01,1.29969e-01,5.32479e-01,2.04186e+00,1.37569e-01,-1.64729e-01,-5.30415e-01,2.25923e-01,6.52957e-01,-1.65551e-01,6.86438e-01,1.99711e-01,8.20853e-01,1.69850e+00,-9.24089e-01,
3.96691e-01,-9.66309e-02,5.24738e-01,2.90395e-01,-1.41133e-01,-1.89133e+00,-1.61072e+00,1.25004e-01,-4.60584e-01,9.90398e-01,1.49935e-01,-4.03642e-01,-2.08745e-01,-3.96032e-01,-1.32516e+00,-2.29743e-01,-7.85902e-01,1.20239e-01,-4.74980e-01,5.98314e-01,-2.38218e+00,1.42707e+00,2.47473e-01,-1.41231e-01,-2.68979e-02,2.71052e-01,-9.50764e-01,-4.88094e-01,7.89393e-01,-6.25228e-03,-1.23165e-01,1.10131e-01,-1.70346e-01,4.73505e-01,-5.67374e-02,-1.98819e-01,-4.13459e-02,3.35743e-01,2.29650e-01,-1.05583e-01,-3.42492e-01,9.80278e-02,-7.32316e-01,6.09348e-02,6.04883e-01,5.81011e-01,-1.76308e+00,-7.42039e-01,-1.69620e-01,-5.81466e-01,
-1.24508e+00,5.62699e-01,2.60105e-01,-2.36235e-01,-3.67931e-01,-2.26799e-01,2.39146e-01,6.63539e-01,-8.59104e-01,-8.28027e-01,-1.14967e-01,4.52936e-01,-2.38205e-02,4.82179e-01,8.25268e-01,1.61358e-01,-3.38258e-02,5.68360e-01,-1.88275e+00,7.45016e-01,-1.19559e-02,-1.04783e+00,1.10075e+00,3.31847e-01,-3.44808e-02,2.38694e-01,1.53113e-02,1.14493e-01,3.54661e-01,4.53307e-01,-1.66063e-01,-7.10224e-01,-6.56524e-01,-2.07768e-01,-2.61955e-01,3.24339e-01,-7.28687e-02,7.26105e-01,-4.55242e-02,-1.26913e+00,-6.32906e-01,4.17452e-01,1.43878e+00,-3.90330e-01,-6.54117e-03,-1.00863e+00,5.09374e-02,6.46698e-01,-1.59838e-01,-2.31139e-01,
-3.48713e-01,9.89373e-02,1.76364e-01,1.00371e+00,2.17003e-01,2.44686e-01,5.74970e-02,5.66870e-01,-3.48277e-01,2.12931e+00,2.62162e-01,-5.17690e-01,-1.12407e-01,-3.09114e-01,1.19633e-01,2.83863e-01,3.79286e-01,9.09194e-02,-2.07329e-02,6.66918e-01,2.88551e-01,-4.61617e-02,-1.56872e-01,4.30320e-02,-2.35660e-02,3.68011e-01,4.01163e-02,2.13342e-01,2.91498e-02,1.91933e-01,-3.80400e-01,6.49060e-02,1.40289e-01,1.38621e+00,-3.87508e-01,-4.34461e-01,-9.81892e-02,-6.13056e-01,6.17226e-01,1.71985e-01,-2.66164e-01,4.84587e-02,3.31019e-01,3.21773e-01,5.07049e-01,8.95311e-01,-1.50759e-01,-6.02380e-01,-1.42155e-01,1.60951e-01,
8.35500e-02,
-2.13261e-02,
7.56291e-01,
-1.25082e+00,
1.78469e-01,
-3.39158e-01,
1.09226e-01,
-1.26214e+00,
-3.56488e-01,
-8.29379e-03,
-2.01183e-02,
-1.92039e-01,
-8.92578e-02,
-2.06319e-01,
1.05053e-01,
-9.32226e-02,
-2.45924e-01,
1.59416e-01,
4.65794e-01,
-7.60039e-01,
1.27213e-01,
3.93189e-01,
-7.17872e-02,
3.19831e-01,
-1.41183e-02,
-6.60377e-03,
-7.03714e-01,
4.40894e-01,
-4.03874e-01,
-5.50258e-01,
-1.33355e+00,
-1.11956e+00,
-7.31673e-01,
2.37415e-01,
-8.27488e-01,
3.17529e-01,
-7.41801e-01,
-1.74412e-02,
-3.02206e-01,
-9.96994e-02,
6.55079e-01,
1.25241e+00,
3.90987e-02,
-2.42382e-02,
-3.85696e-01,
-3.59071e-01,
-1.55856e-01,
2.85971e-02,
-4.26623e-01,
7.80925e-01,
1.46062e-01,-5.49069e-03,7.93907e-01,1.30888e+00,2.24081e-01,-1.36410e+00,-1.09635e-01,8.98539e-01,3.10022e-01,6.82475e-03,-3.62062e-03,1.49834e-01,-2.35071e-01,1.57890e-01,-1.78135e-03,4.84720e-01,3.23807e-01,-5.98065e-01,-4.91531e-01,3.24435e-01,-6.68401e-01,3.04915e-01,4.19003e-01,2.98746e-01,2.34912e-02,5.49653e-03,-1.79487e-01,-1.50386e+00,3.08066e-02,3.37636e-01,3.40796e-01,1.64739e+00,1.50481e-02,3.39050e-01,3.95486e-01,-7.85359e-01,-6.33538e-01,-3.84620e-02,-3.22461e+00,6.24705e-01,-8.80133e-01,-1.00503e+00,-5.20676e-01,3.33464e-02,4.96559e-01,1.13749e-01,-1.11590e+00,-1.15657e+00,5.15279e-01,-1.32622e-01,
-1.15900e+00,-8.27789e-03,-4.78648e-01,-4.85165e-01,1.43533e+00,1.08912e+00,3.48308e-01,-4.84346e+00,4.27388e-02,3.70465e-01,-1.92723e-02,-6.73709e-01,1.60745e-01,6.50405e-01,8.56348e-01,3.71640e-02,2.55892e-02,-2.62880e-01,-1.08544e+00,-3.63110e-01,-1.62061e+00,-7.89267e-01,3.73978e-01,-9.78965e-01,2.76093e-02,3.13649e-02,5.36809e-01,-1.14920e+00,-9.40774e-02,-3.33346e-02,-2.57751e-01,1.96950e+00,5.01485e-02,7.33369e-02,-8.66354e-01,7.79935e-01,7.60352e-01,-2.17517e-02,-2.00374e+00,-8.01014e-01,2.14337e-01,1.15480e+00,-9.67842e-01,2.54242e-02,1.58038e-01,-1.84218e-01,-5.93141e-02,-2.33211e+00,-5.17898e-01,-3.17556e-01,
1.01583e+00,2.82395e-02,1.11866e-01,-5.24130e-01,3.73136e-01,-1.15599e-02,-1.16923e-01,-7.87078e-01,-1.54454e-01,6.78869e-02,-3.53034e-03,2.63966e-01,-9.61603e-02,5.44680e-01,1.48624e-01,1.15876e-01,-4.90365e-02,-6.46944e-01,8.01084e-01,-1.02975e-01,6.47824e-01,2.10518e-01,1.34414e-02,7.18505e-02,4.19941e-02,-2.86356e-03,-1.88786e+00,-5.09127e-01,3.96081e-01,2.35139e-01,-2.34269e-01,-5.94599e-01,-8.88495e-02,6.63104e-01,-1.10467e-01,-6.33579e-01,-7.40803e-01,3.17191e-02,1.29543e-01,3.61322e-01,-1.00759e-01,-5.03037e-01,-1.97447e-01,1.01419e-03,2.36294e-01,3.12905e-01,-3.51823e-01,7.69389e-02,-4.90059e-01,-3.05079e-01,
1.71550e-01,2.82890e-02,4.77124e-03,2.51563e-02,5.62535e-01,-8.17147e-02,1.07524e+00,-1.49315e-01,3.33289e-01,-2.67687e-01,2.51055e-02,6.81931e-02,-6.94010e-02,3.54327e-01,-1.32719e-01,1.93532e-01,1.64038e-02,-2.62618e-01,4.27665e-01,-2.74604e-01,-5.26276e-01,3.69284e-01,2.87887e-01,-1.81297e-01,-2.81393e-02,-3.09896e-03,8.11781e-02,7.71188e-01,2.67360e-01,-1.77761e-01,1.51055e-01,-6.83415e-01,3.47794e-01,6.74580e-01,1.04303e+00,-3.56357e-02,2.54170e-01,-4.00246e-02,1.76959e+00,2.31712e-01,-2.73251e-02,1.16641e-01,3.76222e-01,3.95626e-02,3.62095e-01,-1.35576e-01,1.86865e-01,-3.63663e-01,-1.92850e-01,-3.04186e-01,
9.55485e-01,2.54362e-02,1.02830e+00,-3.71288e-01,3.74185e-01,-4.67278e-01,-3.56728e-01,-2.64583e-02,-1.61747e-01,5.01191e-01,5.11949e-02,-1.32808e-01,-7.26330e-01,-6.93849e-01,7.69499e-01,-4.07224e-02,2.51933e-02,9.79278e-03,-5.32192e-01,-2.57975e-01,-1.66326e+00,-1.15386e+00,1.95759e-01,-4.42527e-01,4.14540e-02,4.96907e-02,9.68233e-01,-8.19594e-01,-5.15786e-01,5.03378e-01,5.34120e-01,-1.93176e+00,5.46852e-01,2.17526e-01,1.59655e-02,6.95426e-01,-4.29430e-01,4.47726e-02,-9.76005e-02,3.80133e-01,2.74513e-02,-8.08610e-01,1.04804e+00,-5.30910e-03,2.72228e-01,8.17947e-01,9.77107e-01,1.37715e-01,-6.36124e-01,-5.01804e-01,
-4.08486e-01,
1.06875e+00,
-1.01351e-01,
2.91739e-01,
3.61906e-01,
