Neural Network File Format by Kyle Julian, Stanford 2016
2,5,5,5,
5,5,5,
0,
0.0,-3.141593,-3.141593,100.0,0.0,0.0,-3.0,
60760.0,3.141593,3.141593,1200.0,1200.0,100.0,3.0,
1.9791091e+04,0.0,0.0,650.0,600.0,35.1111111,0.0,7.5188840201005975,
60261.0,6.28318530718,6.28318530718,1100.0,1200.0,100.0,6.0,373.94992,
5.40062e-02,-2.61092e+00,-1.80027e-01,2.42194e-01,1.41407e-01,
-1.12374e+00,2.63619e-02,-9.17929e-03,5.56230e-02,-3.27635e-01,
1.96019e-01,2.42159e-01,6.38452e-01,-4.78265e-01,1.42577e-01,
-1.63015e+00,-3.44447e-02,-6.05492e-03,1.12076e-02,-1.04997e-02,
-3.55133e-01,5.65969e-01,2.28267e-01,1.77342e-01,-2.08078e-01,
2.27630e-01,
-1.88762e-01,
5.34094e-02,
-3.77861e-01,
-8.12531e-02,
-1.84202e-01,3.43834e-02,-1.15142e-01,1.84753e-01,-1.37148e-01,
1.71639e-02,-3.44739e-02,-8.69311e-03,3.81665e-02,2.14070e-02,
6.98282e-02,-4.08911e-03,-2.77997e-01,2.58790e-01,1.55820e-01,
7.94837e-01,-3.62980e-01,-1.71911e-01,9.75946e-02,2.71402e-02,
-5.85128e-02,7.08394e-03,2.68116e-01,-6.59521e-03,3.15806e-01,
8.35500e-02,
-2.13261e-02,
7.56291e-01,
-1.25082e+00,
1.78469e-01,
