// Neural Network File Format by Kyle Julian, Stanford 2016
2,5,5,50,
5,50,5,
0,
0.0,-3.141593,-3.141593,100.0,0.0,0.0,-3.0,
60760.0,3.141593,3.141593,1200.0,1200.0,100.0,3.0,
1.9791091e+04,0.0,0.0,650.0,600.0,35.1111111,0.0,7.5188840201005975,
60261.0,6.28318530718,6.28318530718,1100.0,1200.0,100.0,6.0,373.94992,
5.40062e-02,-2.61092e+00,-1.80027e-01,2.42194e-01,1.41407e-01,
-1.12374e+00,2.63619e-02,-9.17929e-03,5.56230e-02,-3.27635e-01,
1.96019e-01,2.42159e-01,6.38452e-01,-4.78265e-01,1.42577e-01,
-1.63015e+00,-3.44447e-02,-6.05492e-03,1.12076e-02,-1.04997e-02,
-3.55133e-01,5.65969e-01,2.28267e-01,1.77342e-01,-2.08078e-01,
-3.41918e-02,1.49570e+00,-1.53371e+00,4.05053e-02,1.64350e-01,
4.02002e-01,2.24022e-01,-4.67160e-02,1.63890e-01,-1.60826e-01,
-1.41575e+00,-7.47429e-02,6.04386e-02,4.82656e-02,-5.60096e-02,
-1.44498e+00,4.48403e-02,8.88916e-03,-2.50230e-01,6.53312e-02,
-1.12740e+00,2.39891e-02,-9.56711e-03,8.92796e-03,-4.58007e-03,
6.13717e-01,-5.57820e-01,-5.19507e-02,1.60852e-01,-9.71775e-02,
9.33699e-01,2.03647e-01,1.66178e-01,-1.52163e-03,-2.09448e-01,
-4.08026e-02,5.48666e-01,5.74868e-02,1.42985e-01,9.48681e-02,
-2.12265e-01,-3.28003e-01,3.57536e-01,-3.89715e-01,-4.59337e-01,
3.20180e-02,4.22455e-01,-5.68833e-01,-2.10782e-01,7.57506e-02,
-1.24055e-02,2.28453e+00,5.34617e-02,5.80561e-02,1.18652e-01,
-1.22430e-01,-7.12042e-01,9.15904e-03,-3.91123e-01,3.39849e-02,
6.01742e-02,-6.39072e-02,-2.50281e+00,4.99702e-02,-3.77898e-02,
8.33034e-02,-4.07486e-02,-7.52101e-01,-1.18798e-01,-2.18044e-01,
-1.18804e+00,1.44630e-01,-1.49280e-01,-3.60766e-02,-1.18933e-01,
-1.03537e-01,6.99915e-02,2.42373e+00,2.26499e-02,3.19605e-02,
-8.53903e-02,1.75215e-01,-8.74009e-02,-7.31836e-01,-2.20850e-01,
-1.93838e-02,3.99390e+00,1.17807e-01,7.84146e-02,-1.45183e-02,
1.66866e-02,-6.54405e-01,5.60096e-01,1.96579e-01,-4.49805e-01,
1.67639e-03,5.38434e-03,-7.26639e-03,4.18084e-03,1.78105e-03,
-8.97525e-01,-1.27606e-01,1.62803e-01,-4.81184e-02,7.85461e-02,
-9.33220e-01,-2.43277e-02,2.30273e-01,-2.09033e-01,-9.43662e-02,
1.60333e-01,3.69291e-03,2.62149e-01,2.81943e-01,-5.51476e-01,
8.34021e-02,2.01281e+00,3.55310e-01,3.60065e-02,-9.96482e-02,
2.84019e-01,-4.65741e-02,7.47930e-03,-8.40513e-01,-4.81789e-01,
1.37295e+00,5.88150e-03,1.30908e-02,-7.41005e-02,-1.55849e-01,
-1.44445e-01,6.07591e-04,-2.11642e-02,-6.47714e-01,-1.82691e-02,
-1.36290e+00,-2.07197e-02,4.45642e-02,3.94107e-02,9.35691e-02,
-1.55178e+00,8.38021e-02,-3.52086e-02,6.05953e-03,8.28404e-03,
1.29659e+00,9.38274e-02,1.75474e-01,1.33440e-01,2.98777e-01,
1.58680e-02,3.29773e-01,-2.65353e-01,-1.03541e-01,7.65932e-02,
-4.15857e-02,-1.47674e+00,-5.79324e-02,-2.06667e-01,2.01547e-01,
-8.26992e-02,2.55120e-03,9.87215e-03,6.89708e-02,-8.78938e-01,
-1.59025e+00,4.75710e-02,7.63074e-03,-1.42601e-02,2.85048e-03,
2.83388e-02,-2.30824e-02,-7.63311e-02,-7.71610e-01,4.99034e-01,
1.39212e-01,-5.72182e-01,4.26805e-01,-3.30029e-01,2.80864e-01,
2.57852e-01,-6.26802e-02,-3.31132e-01,3.29905e-01,-8.56315e-01,
6.86480e-02,2.45863e-03,-1.42610e-02,2.79897e-02,-1.85103e+00,
-7.44590e-01,3.11863e-03,-1.87879e-01,1.36177e-02,-1.59550e-02,
-4.16569e-01,1.20669e-02,-4.81611e-02,-3.64603e-01,2.88194e-01,
-6.32539e-01,-3.58635e-02,2.83509e-02,7.37678e-02,6.49997e-02,
3.92007e-02,5.64469e-01,2.62818e-01,-1.39606e-02,-3.57883e-01,
-3.85883e-02,-1.23878e-01,-7.62627e-01,4.23037e-02,4.98901e-02,
-1.57631e+00,4.40016e-04,-8.32176e-03,-9.26607e-02,-4.93705e-03,
6.20367e-01,7.50374e-02,-1.46141e-02,2.62575e-01,-2.57948e-01,
2.27630e-01,
-1.88762e-01,
5.34094e-02,
-3.77861e-01,
-8.12531e-02,
-5.88651e-01,
7.46065e-02,
-3.92887e-01,
-3.56303e-01,
-1.67712e-01,
5.87109e-02,
1.83917e-01,
1.31957e-01,
-3.08681e-01,
1.96929e-01,
2.06664e-01,
-3.11696e-01,
3.06576e-02,
-1.38822e-01,
-3.47434e-01,
-4.51840e-03,
-3.90616e-01,
9.69635e-02,
9.83266e-03,
-1.88585e-02,
-2.31919e-01,
-2.38165e-01,
7.10148e-02,
-1.41913e-01,
-4.42307e-01,
5.59084e-01,
1.35483e-01,
-3.73217e-01,
-4.15390e-01,
7.59638e-01,
1.32825e-01,
2.35566e-01,
2.14858e-01,
-4.40841e-01,
-7.72968e-02,
2.21606e-01,
-6.50873e-03,
-6.34843e-01,
-1.53833e-01,
-5.73027e-02,
-1.09229e-01,
3.70344e-02,
5.38087e-02,
-4.47550e-01,
1.75917e-01,
-1.84202e-01,3.43834e-02,-1.15142e-01,1.84753e-01,-1.37148e-01,-1.89317e-01,-7.48695e-01,5.75849e-01,-1.33157e-02,1.43641e-01,1.33067e-01,-2.24418e-01,3.02148e-01,4.08489e-02,-3.39559e-01,6.49170e-02,7.31692e-02,-4.59231e-01,4.74744e-01,3.77226e-01,-1.11407e+00,-5.71853e-01,4.99151e-02,-2.54206e-01,-2.52440e-02,2.25768e-01,1.49962e-01,-1.55202e-01,-1.72013e-02,9.90686e-01,7.83843e-02,-1.44198e-01,-1.79075e-01,-3.40037e-01,2.12321e-01,8.25806e-03,6.84292e-02,5.87946e-01,-1.70712e-01,-5.43690e-01,1.18932e-01,-4.95853e-01,-1.66652e+00,-3.24074e-01,-1.54229e-02,5.10100e-01,9.40898e-02,3.37388e-01,3.95671e-01,-2.23473e-01,
1.71639e-02,-3.44739e-02,-8.69311e-03,3.81665e-02,2.14070e-02,4.21881e-02,2.15526e-02,-3.36170e-02,-4.74388e-02,2.13502e-02,9.94309e-03,2.77698e-02,4.92707e-03,-4.27201e-02,-2.40032e-02,-3.22351e-02,1.33943e-02,-4.23694e-02,-4.01146e-02,-1.74541e-02,-4.23118e-02,1.46571e-02,-3.13675e-02,3.84782e-02,4.64228e-02,2.18262e-02,1.59546e-02,4.17461e-03,1.74008e-02,-1.78484e-02,-4.79125e-02,-4.08486e-03,-4.18420e-02,1.45460e-03,-5.08771e-02,-4.63350e-02,2.14261e-02,-5.32753e-02,-5.73137e-02,2.89767e-02,-3.29390e-02,-3.19730e-02,-3.33988e-02,-2.27086e-02,-1.54722e-02,-4.84061e-02,-7.11550e-03,-3.71157e-02,1.96442e-02,-3.51744e-02,
6.98282e-02,-4.08911e-03,-2.77997e-01,2.58790e-01,1.55820e-01,-1.33151e+00,-1.31188e+00,-8.93189e-01,1.95445e-01,3.84027e-01,4.27115e-02,-5.39398e-01,8.12943e-02,4.01288e-01,-2.74514e-01,3.67932e-01,-7.60605e-01,-1.29349e+00,1.47110e+00,9.77806e-02,-7.90099e-01,-5.34664e-01,7.20768e-03,-5.53668e-01,-2.19908e-02,2.65326e-01,2.03953e-01,4.09155e-01,-8.59508e-01,1.87561e-01,2.42437e-01,-1.12824e-01,5.26523e-01,-4.63904e-01,-3.64338e-01,5.36935e-02,4.43625e-01,9.19664e-01,6.39951e-01,-8.78768e-01,-9.78508e-01,-3.91997e-02,1.42149e-01,-7.98507e-01,-1.76701e+00,1.52952e-01,2.61030e-01,-1.87652e+00,-5.92208e-01,4.40622e-01,
7.94837e-01,-3.62980e-01,-1.71911e-01,9.75946e-02,2.71402e-02,-4.15327e-01,-9.24507e-02,-6.02603e-01,-3.20925e-01,4.35330e-01,5.27630e-01,-4.15412e-01,-1.95773e-01,-3.72765e-02,-1.00783e+00,1.33426e-01,2.48356e-01,-1.69865e+00,2.01099e+00,-7.07126e-01,1.15497e+00,5.27052e-01,-1.69422e-01,3.63558e-01,-3.01804e-02,7.70538e-01,-3.77548e-01,-1.37244e-02,-4.87739e-01,2.26330e-01,3.83543e-01,2.81900e-01,-4.76764e-01,9.03008e-03,-1.01426e-01,-6.20982e-01,4.45635e-03,-1.44175e-01,-1.32467e-01,3.56608e-01,5.80446e-02,-4.55311e-01,-7.07104e-01,-4.05381e-01,-4.23059e-02,5.96877e-01,-2.17635e-01,-1.28899e-01,-1.26611e-01,-1.72846e-01,
-5.85128e-02,7.08394e-03,2.68116e-01,-6.59521e-03,3.15806e-01,-5.37580e-02,3.65686e-01,3.60562e-02,-4.74430e-02,-3.71296e-01,1.53974e-01,-2.15701e-01,1.46240e-01,4.14588e-01,-5.22092e-02,-1.22101e-01,-2.38432e-01,-1.09953e+00,-3.20509e+00,-4.38948e-01,-2.60557e-01,-2.69236e-01,-4.09149e-02,3.69151e-01,-4.35317e-02,-3.44475e-01,-3.70995e-01,-3.68811e-01,-3.48575e-02,3.83794e-01,-1.04012e-01,-3.45975e-01,5.25536e-01,1.40227e-01,1.56070e-01,5.73022e-01,-1.64260e-02,-1.34221e-01,-1.33525e-01,9.89791e-03,-2.18030e-01,-1.56527e-01,-6.39669e-01,6.67558e-01,4.14996e-01,3.24016e-01,-6.59676e-02,8.59081e-01,-6.19551e-01,-1.11750e-02,
8.35500e-02,
-2.13261e-02,
7.56291e-01,
-1.25082e+00,
1.78469e-01,
