// The contents of this file are licensed under the Creative Commons
// Attribution 4.0 International License: https://creativecommons.org/licenses/by/4.0/
// Neural Network File Format by Kyle Julian, Stanford 2016
7,5,5,50,
5,50,50,50,50,50,50,5,
0,
0.0,-3.141593,-3.141593,100.0,0.0,0.0,-3.0,
60760.0,3.141593,3.141593,1200.0,1200.0,100.0,3.0,
1.9791091e+04,0.0,0.0,650.0,600.0,35.1111111,0.0,7.5188840201005975,
60261.0,6.28318530718,6.28318530718,1100.0,1200.0,100.0,6.0,373.94992,
-7.91752e-02,-8.05586e-01,-2.31979e-02,6.49247e-01,-3.97765e-01,
8.31648e-02,-5.36296e-03,-1.06399e-02,2.75283e-01,-1.11862e+00,
-1.21543e-02,-2.25282e-02,3.07771e-03,1.73961e-01,-9.89381e-01,
-1.88319e-02,-5.91901e-01,5.74422e-01,1.33294e-02,1.57198e-01,
7.61831e-03,-6.83650e-01,7.69109e-01,1.94096e-02,6.25865e-02,
-1.46541e-02,4.48687e-01,-9.30574e-03,7.67494e-02,-1.25253e-01,
2.54960e-02,-1.22473e-01,2.84814e-01,-1.63065e-01,3.78460e-01,
-1.75174e-02,-6.88039e-01,-7.52055e-01,1.50861e-01,5.86098e-02,
-8.37946e-01,5.08856e-03,2.54875e-03,2.98656e-04,4.78515e-04,
-3.04969e-02,3.73020e-01,3.23848e-01,2.06257e-01,-7.38219e-02,
1.10145e-02,2.03139e-01,-6.84705e-03,5.34789e-03,-1.77648e-01,
1.83578e-01,-1.59554e-01,-2.17952e-02,-7.60196e-02,-4.31161e-01,
-6.01081e-01,-3.74512e-01,1.21080e-01,1.11087e-01,6.74687e-02,
4.38981e-01,-2.60015e-02,4.87298e-03,9.45177e-03,-1.02797e-01,
-2.56736e-01,4.14723e-02,2.50760e-02,2.29962e-02,-6.24653e-01,
4.29594e-02,-2.33959e-01,7.09691e-01,3.90600e-01,-4.60539e-02,
-2.73826e-02,3.94765e-01,3.18927e-02,-1.30928e-01,3.09174e-02,
3.88179e-02,8.74781e-01,8.88455e-03,1.79743e-01,-4.22731e-01,
4.84017e-03,-2.55742e-01,6.98719e-03,1.55484e-02,2.85873e-03,
5.31157e-02,5.54462e-01,-1.02182e+00,-7.42762e-02,5.13616e-01,
-3.15907e-03,6.09536e-01,1.32753e-03,-1.72786e-02,1.17837e-01,
-8.25552e-03,4.08410e-02,2.62856e-01,-5.70148e-02,7.56399e-02,
-1.73142e+00,-6.65205e-03,3.20557e-03,-4.54895e-03,2.89768e-04,
-2.51479e-03,1.19069e-02,-2.56087e-01,1.75635e-02,-8.34991e-03,
1.08709e-01,1.34745e-01,2.35604e-02,3.92530e-01,-3.65840e-01,
-4.08553e-03,-6.28590e-03,-2.64389e-02,-2.79970e-01,8.33438e-02,
-6.76018e-03,-1.71673e-02,-1.00484e-02,2.25269e-01,-4.76677e-01,
1.76115e-01,-1.55748e-02,-5.90033e-02,-2.48187e-01,-1.01645e-02,
-8.45320e-03,8.43473e-03,5.08809e-03,-6.35845e-02,-6.96720e-02,
1.44315e-02,7.18093e-01,-3.36172e-01,2.71960e-02,-3.51015e-02,
5.17675e-02,5.00177e-02,3.73710e-03,-6.54720e-01,-1.80086e-01,
4.09603e-01,2.49574e-02,1.09672e-02,-2.43713e-02,-4.34406e-01,
3.37989e-02,3.49239e-02,6.66955e-02,-1.01738e-01,-2.17292e-01,
-5.78848e-02,3.93485e-03,-2.69771e-03,1.00731e-01,1.06821e-01,
-1.12271e-01,3.66513e-03,-3.15669e-03,-1.47540e-01,2.99288e-01,
-1.94027e-02,-5.15007e-03,-7.88210e-01,9.92864e-03,1.73510e-03,
-2.71006e-02,4.01140e-04,-5.89764e-03,1.45491e-03,-3.30244e-03,
1.16766e-02,5.36009e-01,-2.75709e-02,1.53474e-01,1.76859e-01,
3.62883e-02,-8.12828e-01,5.14242e-01,1.68309e-02,-1.04650e-01,
-2.85223e-02,2.92113e-02,-4.63719e-01,7.11289e-02,2.01273e-02,
-2.57338e-03,6.32263e-01,-6.44232e-01,7.18871e-02,-4.80325e-03,
-2.99355e-03,-6.14648e-02,-1.56156e-01,-8.91657e-02,6.21360e-02,
1.37855e-03,-5.27378e-02,8.82954e-02,6.77458e-02,-1.28976e-01,
3.69547e-03,-5.93438e-01,1.85851e-03,3.27480e-03,-7.15705e-03,
-1.16468e-03,-7.68908e-02,-1.46471e-01,1.29823e-01,-8.37275e-02,
-2.96256e-02,7.59409e-01,-7.77065e-01,8.33563e-02,9.68516e-02,
5.29100e-01,-2.75017e-02,5.83377e-03,-6.71252e-03,6.01098e-02,
1.30951e-03,1.81797e-02,-3.62931e-03,1.07549e-03,-8.98949e-04,
6.48364e-01,1.13473e-02,1.06991e-02,1.56587e-04,-2.43903e-03,
-7.58897e-01,-2.56498e-02,-7.94754e-02,8.86265e-02,1.71621e-01,
2.05448e-01,
-1.52932e-01,
-2.97323e-01,
-7.00899e-02,
-2.30472e-01,
2.44775e-02,
-6.23234e-02,
-1.04626e-02,
-2.33270e-01,
-3.81586e-02,
-1.04768e-01,
-2.40810e-01,
8.14816e-04,
5.71169e-02,
-3.08284e-01,
1.03302e-01,
-8.97029e-02,
-1.10181e-01,
1.49063e-02,
7.65153e-02,
7.65613e-02,
-4.81030e-04,
-2.36244e-01,
1.77100e-02,
4.96335e-02,
5.15165e-02,
9.34228e-02,
-8.31395e-02,
-1.78516e-02,
-1.64834e-01,
-2.49524e-01,
-1.24334e-01,
-1.28458e-01,
8.46317e-02,
4.63441e-02,
-5.68897e-03,
-1.64534e-02,
2.15437e-01,
-1.95483e-01,
6.81447e-02,
-2.58348e-01,
-2.60155e-03,
2.35460e-02,
-8.75714e-03,
5.78874e-02,
-1.02231e-01,
-1.73825e-02,
-1.30097e-02,
1.75094e-01,
-7.30618e-02,
-1.66240e+00,6.00409e-01,8.37230e-01,-1.87050e-01,-6.99883e-01,-1.27475e+00,-1.57912e-01,-6.72991e-01,-4.30855e+00,-4.88174e-01,-1.03980e+00,-1.97415e+00,-1.75933e+00,-3.17407e+00,8.10995e-01,1.83452e-01,-1.19396e+00,-1.21806e+00,-1.77004e+00,2.52961e-01,-1.51076e+00,3.08235e-01,4.98327e-01,1.40034e-01,-2.20193e+00,5.13496e-01,3.91262e-01,-4.00433e-01,4.89266e-01,-2.32763e+00,7.12366e-01,-2.47442e+00,6.18265e-01,-8.62462e+00,-2.97478e+00,5.08015e-02,4.40257e-02,-1.77733e+00,-9.43990e-01,7.42073e-02,2.43055e-01,3.55990e-02,-2.79167e-01,-1.91363e+00,-3.04686e-02,-4.19245e-01,-5.11673e-02,5.68435e-02,-4.13702e+00,-2.62874e+00,
3.17495e-01,1.99562e-01,4.44869e-01,1.03625e+00,4.61063e-01,1.05150e-01,5.96668e-01,-2.35650e-01,-9.35177e-01,-6.21923e-01,-4.35426e+00,-2.87785e-01,-4.22882e-02,-4.05712e-01,1.26539e+00,7.30596e-02,-3.37458e+00,-7.92229e-01,-1.42437e+00,5.18574e-01,-1.92499e+00,-2.72892e-01,5.43537e-01,-1.42288e-01,-1.11066e-01,-4.42604e-01,3.12953e-01,-7.66076e-02,6.45864e-02,-2.65836e+00,3.46535e-01,-2.54293e-02,1.36547e-01,2.91948e-01,-3.01918e-01,5.01793e-02,3.49753e-02,-3.14899e-01,-1.03540e+00,-4.61141e-01,8.31187e-01,-5.69399e-01,3.45451e-01,-2.51821e+00,-2.95564e-01,4.51162e-01,2.34710e-01,1.28539e-02,5.54303e-02,3.81163e-02,
7.48026e-03,-3.28552e-02,-3.42654e-02,-3.46346e-02,1.25948e-02,9.76269e-03,-9.46031e-03,-1.27444e-03,5.47382e-03,4.26337e-02,-5.21494e-02,2.80824e-02,-4.80202e-02,-4.02214e-02,-7.80358e-03,-5.29439e-04,1.45430e-02,4.46493e-02,-6.41004e-02,-3.92327e-02,-4.72644e-02,5.41049e-03,-3.47590e-03,-1.32844e-02,-3.08557e-02,2.72854e-02,1.93407e-02,1.47670e-03,-4.18737e-02,-8.34207e-03,-3.82358e-02,3.55996e-02,-3.34360e-02,-6.44004e-02,-5.67421e-02,1.84382e-02,5.76561e-03,-1.27343e-02,-1.92676e-02,-1.71769e-02,9.34191e-03,3.56295e-02,-3.44266e-02,2.31784e-02,-1.83199e-02,-4.07840e-02,-1.13816e-02,6.35617e-03,1.51175e-02,2.34867e-02,
1.31359e-01,6.59280e-02,-1.25738e-01,-5.10810e-01,-9.72882e-02,2.94326e-01,-4.49141e-01,-2.38818e-01,9.94052e-01,-3.32319e-02,4.87655e-01,-1.01623e-01,1.23259e-01,2.39346e-01,-1.42019e-01,2.77803e-01,2.87765e-01,-2.26604e-02,2.90325e-01,-3.63171e-01,4.22254e-01,-1.99128e-01,-1.52828e-01,7.67985e-01,-6.17403e-01,1.46447e-01,1.34495e-02,-1.56659e-01,-1.11725e-01,2.11032e-01,-7.74859e-02,-1.00138e-02,5.39960e-01,-3.89115e-01,2.67883e-01,4.90781e-01,-5.92427e-03,1.23076e-01,4.68757e-01,6.67499e-01,6.87988e-01,-6.52094e-01,-6.14384e-02,3.70788e-02,6.28399e-02,-6.22422e-01,1.92683e-02,-5.37123e-03,-2.61650e-02,-9.19633e-02,
4.28962e-02,-3.74688e-02,1.60203e-01,-6.13839e-01,-1.30971e+00,6.45085e-02,-2.05575e-01,3.08859e-01,2.32308e+00,6.83642e-01,1.77980e-01,5.98207e-02,9.80812e-02,-1.59498e-02,-1.20185e+00,4.07716e-02,-2.63344e-01,-3.09549e-02,6.70362e-01,-1.12978e-01,7.55872e-01,6.78893e-01,1.49312e-01,-1.40025e-01,-1.20221e-01,-6.29808e-03,2.70603e-02,1.59344e-01,-2.63840e-01,8.20953e-01,-1.43937e-01,-4.83052e-02,2.12720e-01,5.15290e-02,5.17678e-01,6.01272e-02,3.40761e-02,-1.09752e-01,-3.93434e-01,2.24398e-01,2.36294e-01,-6.03543e-01,7.72027e-02,4.00940e-01,-2.98994e-01,-3.84730e-01,-1.93854e-01,1.80793e-02,3.89601e-01,1.53588e-01,
2.42937e-01,2.84682e-01,5.71483e-01,1.06352e+00,-1.07460e-01,-7.46013e-01,-1.07000e+00,1.11378e-01,-2.73440e+00,6.71388e-01,-6.24832e-01,1.11042e+00,-3.60025e-01,-4.26620e-01,-3.13483e-01,-5.67813e-01,1.03751e+00,-1.17551e-02,-1.52168e+00,8.98664e-01,5.93003e-01,1.58031e+00,2.30809e-01,3.67567e-01,1.33971e-01,-2.06760e-01,-3.48405e-01,-2.22291e-01,-2.53322e-01,-1.45757e+00,-3.43293e-01,6.74329e-01,-1.59330e+00,-3.34849e+00,-7.78938e-01,4.32213e-01,3.58610e-02,7.19328e-01,-4.13054e-01,3.00356e-01,-6.31734e-01,3.18712e-02,1.89709e-01,-2.50005e+00,4.05961e-01,1.15353e+00,1.37580e-01,-2.12919e-02,-5.27345e-01,6.41154e-01,
9.01192e-02,-2.77403e-02,-2.15728e-01,-2.56655e-01,3.65804e-02,1.52868e-01,-3.44422e-02,-3.32770e-01,3.38156e+00,-6.07363e-01,2.52805e-01,3.18996e-01,5.93318e-01,9.97416e-02,2.64456e-02,2.13670e-02,3.38169e-01,6.73567e-01,2.87665e-01,-1.63472e-01,4.14683e-01,2.88867e-01,1.22383e-01,3.09409e-02,-5.40839e-01,-4.59610e-02,1.79197e-01,5.69545e-02,6.68000e-02,-1.44221e+00,1.30079e-01,6.10683e-01,3.45655e-01,-1.74684e-02,2.33080e-01,3.20847e-01,2.58956e-02,-3.44914e-01,-1.76125e-01,2.41886e-01,-3.84039e-01,1.43661e-01,1.40337e-01,2.91645e-01,3.25744e-01,-4.50265e-01,-8.14438e-01,-4.85940e-02,3.86798e-01,3.98691e-01,
-6.17274e-01,8.36032e-02,2.57566e-01,8.35769e-01,5.58022e-01,1.95488e-01,1.71709e-01,-5.98610e-01,1.84493e+00,-1.50866e-02,-2.10816e-01,-1.14235e-01,-7.26916e-02,-1.73879e-01,1.31955e-01,-2.64360e-01,3.01799e-01,5.51250e-01,-4.83637e+00,-1.73845e-01,-5.62038e-02,3.13451e-01,-2.17004e-01,5.42255e-01,8.35240e-01,-1.27746e-01,4.45139e-02,3.46317e-02,5.45435e-02,9.09218e-03,-1.41516e-01,1.87790e-01,6.49153e-01,1.33732e+00,-8.18757e-01,3.61803e-01,2.24626e-02,-3.11974e-01,-5.21907e-01,1.69356e-01,-1.01889e+00,5.12305e-01,7.32811e-01,-2.74810e+00,4.64878e-01,4.51259e-01,-7.94774e-02,-4.07900e-02,1.10733e-01,-2.59144e-02,
-5.08689e-01,2.07009e-01,2.39680e-01,6.21339e-01,1.97571e-01,-5.15262e-01,1.08949e-01,-2.42530e-01,-1.58707e+00,-5.69359e-01,2.43078e-01,-6.70762e-01,-5.34863e-02,-1.65345e+00,4.98747e-01,6.74453e-01,-5.94790e-01,1.61098e-01,-8.31581e-01,5.17297e-02,-1.89174e-01,-3.99346e-01,1.57481e-01,9.90085e-02,1.62709e-01,-1.99559e-01,3.26205e-02,8.53214e-02,2.12600e-01,5.39119e-01,2.63595e-01,-1.82912e+00,8.26771e-02,3.73244e-01,-9.87038e-01,1.46236e-01,5.25443e-03,4.79386e-02,-8.24678e-02,-4.54254e-02,-4.89911e-01,-2.99839e-01,7.76689e-03,-1.75912e+00,-1.31968e-01,5.82943e-01,5.37947e-02,-2.29962e-02,-1.28043e+00,-6.87526e-02,
-2.37169e-01,-8.40681e-02,3.06071e-01,8.65128e-03,-9.68777e-02,-4.51108e-01,-1.82749e-01,1.37013e-01,6.62212e-02,4.04583e-01,9.06806e-02,-5.94727e-01,-8.36159e-02,-1.93039e-02,4.15630e-01,2.21401e-01,-6.79861e-01,6.80475e-01,3.70643e-01,-3.02906e-01,3.65981e-01,1.61049e+00,-2.51486e-02,2.50384e-01,4.20394e-01,-4.98333e-01,3.86534e-02,2.05083e-01,-2.24881e-01,-1.23522e+00,-2.31658e-01,8.82689e-02,1.38273e-01,5.09715e-02,1.05260e-01,6.86242e-01,-4.30110e-02,-1.84423e-01,-4.32849e-01,-2.38156e-01,6.15297e-01,-1.05496e-01,1.14361e-01,5.72884e-01,-8.23324e-01,-5.29253e-02,7.06324e-02,1.98409e-02,-3.54945e-01,1.72577e-02,
-4.95060e-03,-2.62812e-02,-2.79284e-02,2.69358e-02,4.02161e-02,1.45784e-02,1.93529e-02,3.07014e-03,-3.36963e-02,1.08218e-02,-2.01564e-02,2.96659e-02,3.10158e-02,-5.26409e-02,1.65847e-02,2.37500e-04,-5.49850e-03,2.17832e-03,-5.25973e-02,1.98344e-02,-4.43976e-02,-4.83561e-02,-3.31141e-02,4.54347e-03,2.34686e-02,3.48794e-03,-1.41378e-02,3.73484e-02,-5.25376e-02,-2.83521e-02,-1.50559e-02,-4.01629e-02,4.11796e-02,-5.40754e-02,-1.92431e-02,2.16726e-02,-4.63700e-02,5.00731e-03,-4.02902e-02,1.65448e-02,3.63628e-02,2.29712e-02,-1.38812e-02,-4.08620e-02,-2.85646e-02,-2.14250e-03,-2.09999e-02,3.19677e-02,-2.22577e-02,-5.17600e-02,
-6.78221e-02,8.75314e-02,1.16438e-02,-9.70798e-02,7.72936e-01,-5.45624e-01,-1.41051e-01,7.44865e-02,2.70945e+00,-3.43198e-02,-7.92180e-01,-1.35030e+00,3.68429e-01,-2.57499e+00,2.64945e-01,-4.61333e-02,-1.77640e-01,1.21850e-01,-3.86161e-01,9.20428e-02,8.56842e-02,1.21725e-01,1.64052e+00,-9.74691e-02,4.84034e-01,-3.25745e-02,-1.01318e-01,-4.28794e-01,-3.16571e-01,-3.62592e-01,2.23983e-01,-2.50776e+00,-1.15647e+00,-2.01586e+00,-1.92809e-01,1.04566e-01,-1.20101e-02,2.68732e-01,-6.35893e-01,-2.88623e-01,6.48476e-01,-6.51778e-02,-1.50950e-01,1.13257e-02,-4.95935e-01,-6.32651e-02,-4.46597e-02,-3.64008e-02,-2.24868e+00,7.11986e-01,
-2.88463e-01,-3.00355e-01,-2.88328e-01,8.55300e-01,-7.33420e-01,2.49280e-01,-1.00062e-01,4.01702e-02,-2.65624e+00,-6.10204e-01,6.77930e-01,8.02906e-01,1.55610e-01,-5.47835e-03,-4.38159e-01,3.41035e-01,3.99257e-01,8.31196e-02,-1.33670e-01,-4.35247e-02,2.47276e-01,-6.48787e-02,7.93357e-02,2.35545e-01,1.86269e-01,1.32027e-01,-1.46395e-01,-1.23951e-01,2.61328e-02,-1.11903e-01,4.55557e-01,-5.50636e-02,-3.46530e-01,-1.63479e+00,-2.04317e-01,3.79477e-01,3.03098e-02,-4.77353e-02,1.99559e-01,4.27920e-02,-2.43688e-01,3.55704e-01,4.64547e-01,8.52336e-02,2.11458e-01,-1.45759e-01,5.92002e-02,-4.30049e-03,-1.54795e-01,-9.62302e-01,
-2.07249e-01,-9.67890e-02,2.17780e-01,3.57217e-01,-2.26889e-01,-2.53511e-01,4.86459e-02,1.13025e-01,5.29830e+00,1.30913e-01,-5.06925e-01,-7.95803e-01,-1.35449e-01,-4.40190e-01,2.61129e-01,3.60467e-01,4.47295e-02,-2.88769e-01,-2.66809e-01,-1.93546e-01,-1.25908e-01,6.59286e-01,1.09533e+00,3.25847e-01,2.54548e-01,-8.05392e-02,-1.57186e-01,-1.20299e-01,-2.64154e-01,1.59796e-01,-9.45474e-02,-1.60354e-01,-6.84857e-02,-3.43570e-01,-1.73229e-01,5.88139e-01,6.08326e-02,1.46147e-02,-1.24427e-01,-2.98633e-01,-1.04353e+00,3.53295e-01,2.43243e-01,-5.60206e-01,-2.45326e-01,2.27610e-01,3.34666e-01,9.75338e-03,5.17962e-02,4.27006e-01,
-6.49568e-02,-3.98549e-01,2.83998e-01,-5.80601e-01,-5.75339e-01,-3.12978e-02,-3.80950e-01,7.82903e-02,-1.41758e+00,7.33965e-02,8.48431e-01,-1.70681e-01,7.64858e-02,4.68250e-02,2.71587e-01,-2.21287e-01,1.00044e-01,1.35967e-02,3.48899e-01,-2.12512e-01,-7.00160e-02,7.00228e-01,-1.13931e-01,2.23457e-01,-2.99588e-01,2.57564e-01,-1.83583e-01,1.15226e-01,3.38061e-01,-7.68598e-01,3.09430e-01,-4.23157e-02,7.13661e-01,-4.03108e-01,6.66421e-01,-1.87677e-01,-4.04267e-02,3.41893e-01,-2.34687e-01,3.62793e-01,1.45169e+00,1.56260e-01,-4.86023e-01,4.35563e-01,-7.81989e-02,-4.88456e-01,-1.08356e-01,-2.43637e-02,1.53409e-01,5.55718e-02,
1.19628e-01,1.16278e-01,3.31754e-01,1.61042e-01,1.64664e+00,-1.06002e-01,3.06120e-01,-3.51285e-01,3.47469e-01,-8.45896e-01,5.95424e-01,2.68813e-01,2.15639e-01,-1.87109e-02,3.44899e-01,-1.22601e-01,-1.27669e+00,2.84055e-01,1.29381e-01,2.94156e-01,2.13309e-01,-5.48314e-01,-4.47301e-02,3.95103e-01,-2.31306e-01,-8.78530e-01,4.31788e-01,-2.75227e-01,-2.55797e-01,1.21375e+00,-2.85120e-01,9.71700e-02,-8.49007e-02,-1.37748e-01,-1.95797e-01,4.10469e-01,-1.28422e-02,-2.11068e-01,4.45219e-01,3.57826e-01,1.34862e+00,-4.86272e-01,3.70893e-01,5.71927e-01,4.25748e-01,3.73677e-01,9.92524e-02,4.39027e-02,-5.70875e-02,-1.74904e-01,
1.12860e-01,-2.93449e-02,-6.21066e-02,-5.15425e-01,5.22321e-05,-3.84339e-02,1.18708e-01,-2.22847e-01,3.59226e-01,-2.78010e-01,6.29255e-01,7.28469e-02,1.13217e-01,9.88369e-02,2.53395e-01,-2.73629e-01,3.16258e-01,-1.30029e-01,1.56869e-01,-2.10085e-01,-1.05867e-01,1.58300e-01,-1.66534e-01,1.27633e-01,-2.08760e-01,2.01812e-02,-5.10530e-02,-6.54119e-02,8.35238e-02,-6.63669e-01,1.47577e-01,-2.87702e-02,-2.49459e-02,2.67001e-01,1.66689e-01,2.21483e-01,-4.83156e-02,1.35355e-01,-5.68225e-02,2.16876e-01,-5.96602e-01,2.79521e-02,6.25357e-03,1.86286e-01,-1.58872e-01,-1.62796e-01,-4.85343e-02,2.32645e-02,3.39006e-01,-1.58769e-01,
-3.90560e-03,2.88782e-03,1.33720e-02,-4.08285e-02,6.55618e-03,-5.37703e-02,1.45830e-02,-5.50954e-02,-9.99849e-03,2.40699e-02,2.09653e-02,-1.39502e-03,-3.68613e-02,1.30199e-02,3.60120e-02,-4.05892e-02,-5.58499e-03,-1.73896e-02,-3.00710e-02,-3.93414e-02,2.88826e-02,-4.36332e-03,-4.35909e-02,2.95683e-02,-3.18165e-02,9.37534e-03,5.77356e-03,-3.86423e-02,3.21255e-02,3.45780e-02,-6.86259e-03,2.44421e-02,-1.85031e-02,-4.27987e-02,4.43616e-03,-1.78007e-02,-1.45995e-02,-1.77453e-02,-2.31744e-03,-5.63210e-02,4.21168e-02,2.47125e-02,-3.32195e-02,3.24101e-02,3.13089e-03,4.04586e-02,-4.36072e-02,2.49205e-02,-4.27439e-02,-1.53902e-02,
-2.76158e-01,5.14833e-01,5.25638e-01,5.11742e-01,1.17405e+00,-3.20903e-01,5.33250e-01,2.30865e-01,-5.52951e+00,-5.65514e-01,-1.09832e+00,1.60749e+00,-1.01756e+00,7.87661e-01,7.17483e-01,4.69818e-01,-1.06431e+00,-2.84677e-02,-3.83786e-02,5.26844e-01,8.55487e-02,-4.49712e-01,-7.84328e-01,2.37544e-01,3.46055e-01,-1.13568e-01,6.41900e-01,6.06661e-01,3.01733e-01,3.34638e-01,8.08438e-01,4.40717e-01,1.06430e+00,3.07139e-01,-1.11995e+00,1.38273e-01,-1.38277e-02,-3.34468e-01,4.40023e-01,-2.91714e-02,1.40602e+00,-3.48178e-01,1.10972e+00,-3.11574e-01,2.52014e-01,2.53455e-01,-7.53681e-01,-1.44338e-02,5.30189e-01,-2.74792e-01,
-3.72012e-03,1.80531e-01,5.29740e-01,-6.82669e-02,-2.98344e-01,2.35376e-02,9.77713e-02,-1.33170e-01,1.90810e+00,-4.22180e-01,3.02864e-01,3.68479e-02,1.19289e-01,-4.69983e-02,4.05282e-01,5.85585e-02,-6.02050e-02,2.55050e-01,4.82761e-01,8.32428e-02,4.41406e-01,9.35278e-02,-1.80612e-01,-1.60449e-02,-6.13045e-02,-2.31904e-02,6.30266e-02,7.44425e-02,2.69271e-02,-2.65231e-01,-2.91742e-02,-5.35636e-02,-1.62938e-02,-5.81097e-01,-8.18759e-01,2.09985e-01,3.97716e-02,-6.59838e-02,1.14018e-01,-3.23540e-01,-7.82579e-03,2.69473e-01,1.38820e-01,5.18540e-01,7.58185e-02,9.64170e-02,-3.49074e-01,6.19766e-03,2.99048e-01,-2.89851e-01,
-1.32726e-03,-2.74749e-02,-4.94290e-02,-2.60085e-02,1.26392e-02,-5.07136e-02,-7.50487e-04,2.69326e-02,-1.67722e-02,-2.46316e-02,-1.37325e-02,-2.52923e-03,-4.96046e-03,2.57720e-02,3.93321e-02,-1.01105e-02,1.74254e-03,3.43147e-03,-3.03036e-02,-8.99383e-03,-3.82894e-02,3.31632e-02,-8.19188e-03,3.33315e-02,-1.38525e-02,-9.69726e-03,-4.78274e-02,-4.80398e-03,-3.48900e-02,1.36535e-02,3.75721e-02,-1.77501e-02,4.07428e-02,-9.23988e-03,-4.34969e-02,-2.25774e-02,-5.63138e-03,-4.90947e-02,-4.79704e-02,1.28160e-02,2.83796e-02,-5.71774e-04,-3.45308e-02,-7.79596e-03,-5.43503e-02,-4.21590e-02,2.86811e-03,1.37756e-02,2.92642e-02,1.10485e-02,
-2.14051e-02,7.11848e-02,4.41676e-02,4.23984e-01,5.24544e-01,1.59603e-01,4.80203e-02,-3.00236e-01,1.74893e+00,1.11433e-02,1.97014e-01,9.23543e-01,-6.08398e-02,6.38251e-02,7.21173e-01,-7.27212e-02,-3.12495e-02,5.58343e-02,-9.80138e-02,2.86964e-01,-3.09031e-01,2.86704e-01,8.05276e-01,4.55501e-02,1.33872e-01,1.53573e-01,1.70853e-02,-1.95601e-01,2.01314e-01,-2.43211e-01,1.02009e-01,-4.50034e-01,-4.30391e-01,1.90981e-01,-1.71647e-01,1.37376e-01,-1.45371e-02,1.97769e-01,8.80365e-02,1.80877e-02,-3.44280e-03,1.71449e-01,3.10189e-01,-3.37586e-01,1.78720e-01,-6.14445e-02,-1.45323e-01,2.80074e-03,-3.72021e-01,5.31983e-02,
2.21524e-01,7.06378e-01,8.39521e-01,2.15812e-01,5.31657e-01,-4.33689e-02,-1.98945e-01,9.65842e-01,2.23924e+00,7.40040e-01,1.08999e+00,1.77085e+00,-1.56053e-01,5.74351e-02,1.11044e+00,3.98294e-01,-3.58516e-02,4.83472e-01,7.63619e-01,-2.67262e-01,-6.24070e-02,1.63306e-01,1.17859e+00,9.57300e-03,-4.11388e-01,2.65255e-01,9.09279e-01,-4.00867e-01,3.08405e-01,-7.83983e-02,2.50622e-01,1.49366e-01,9.00177e-01,3.23234e+00,2.70751e-03,-4.77991e-01,2.86257e-02,2.07449e-01,6.26681e-02,2.90669e-01,1.37814e+00,7.88173e-01,7.06977e-01,-8.62723e-02,5.52498e-01,-1.44532e-01,1.89113e-01,1.49021e-02,2.58981e-01,8.32026e-01,
-2.24947e-01,-3.30178e-02,8.05607e-01,2.76098e-01,4.33855e-01,-5.98374e-01,3.39054e-01,3.57108e-02,-1.74363e+00,2.37512e-01,4.26961e-01,2.16654e-01,9.84003e-02,1.31158e-01,5.22431e-02,-8.41855e-02,1.50122e+00,-5.51317e-01,-2.93780e-01,-4.07217e-01,6.98210e-01,2.89451e-01,-1.09801e-01,-5.25458e-01,3.26885e-01,1.59637e-01,-1.29183e-01,4.72868e-01,1.72998e-01,5.35080e-01,1.20634e-02,1.79581e-01,-5.48574e-01,-4.65444e-01,-2.13767e-01,1.37041e-01,6.60050e-03,3.32073e-02,3.23161e-01,-4.06661e-01,-2.02495e+00,-8.92030e-02,3.58881e-01,1.33903e-01,7.52073e-01,-5.68433e-01,-3.38208e-01,-1.03280e-02,-4.01752e-02,-4.41022e-01,
-1.62657e-01,2.69416e-02,-5.92071e-03,4.04090e-02,-6.32487e-02,2.11012e-01,-5.70551e-03,6.17079e-02,-1.48062e-01,3.21632e-04,-5.67887e-02,-2.13911e-01,-1.19200e-01,1.71615e-01,1.88656e-01,1.69172e-01,-4.10003e-01,2.38174e-01,-1.44307e-01,-2.85625e-01,3.89913e-01,-7.68084e-02,-7.14310e-03,2.97661e-02,-1.46486e-02,1.06559e-01,9.22650e-02,1.81322e-01,-4.79720e-02,-2.56024e-01,1.40112e-01,-8.79543e-02,-6.58660e-01,7.09482e-02,1.96539e-01,-6.98451e-02,2.14678e-02,3.44419e-01,3.91766e-01,-1.65910e-01,-6.88283e-01,-9.64599e-02,-4.39058e-01,-5.67010e-02,2.56541e-01,-4.48255e-01,-8.98670e-02,-1.01746e-02,4.68667e-03,4.81961e-02,
-5.62069e-01,-6.52562e-01,-9.06447e-01,6.41671e-01,2.89012e-01,1.44193e-01,-5.49795e-01,-1.03256e-01,-1.74927e+00,-6.86339e-01,1.04203e-02,3.34146e-02,-2.48568e-01,-5.20704e-01,-4.37044e-01,4.40648e-01,-2.67214e-01,-2.97446e-01,2.54247e-01,-1.27470e-01,3.00272e-01,5.88962e-01,5.61720e-01,3.89754e-01,8.49413e-01,4.42166e-01,-8.67254e-01,7.31720e-03,-2.89582e-01,6.23072e-01,2.99294e-01,-6.16331e-01,5.84085e-01,-7.42654e-01,-1.77569e-01,1.80501e-01,1.63131e-03,1.03265e-01,7.91120e-02,2.49087e-01,-1.68705e+00,3.89685e-01,-5.58422e-01,6.92871e-01,1.65350e-01,8.04991e-01,3.31574e-01,3.06042e-02,-6.38799e-01,8.24105e-02,
-5.22923e-02,1.84861e-03,-1.55445e-02,-8.88211e-03,-4.23245e-02,-3.54298e-02,-3.61790e-02,-3.33245e-02,-2.43396e-02,-1.40070e-02,-6.05677e-03,-3.24102e-02,-3.02088e-02,-1.53718e-02,3.38280e-02,2.35742e-02,4.00973e-02,-5.43651e-02,-3.32964e-02,-2.13359e-02,4.33305e-02,-1.03490e-02,-1.92177e-02,1.77799e-02,1.27845e-02,-2.76736e-03,2.07512e-02,-4.48035e-02,-9.82918e-03,4.22103e-03,-3.58527e-02,-6.34719e-03,1.61987e-02,5.95428e-03,-4.59544e-02,2.64702e-03,-2.54746e-02,2.57615e-03,-1.55733e-03,-1.04020e-02,3.31584e-02,-2.66543e-02,2.67417e-02,-4.96300e-02,-6.97034e-03,2.98630e-03,6.06807e-04,-2.77472e-03,-1.49881e-02,-1.82209e-03,
1.83028e-01,1.18754e-01,-1.38305e-01,-1.41058e-01,1.82684e+00,2.36145e-01,2.49538e-01,-4.37800e-01,1.81883e+00,-9.71854e-01,3.94383e-01,6.23449e-01,1.42075e-01,-1.88415e-01,-1.31141e+00,2.74824e-01,-1.36506e-01,-6.60491e-02,-6.02890e-01,6.16666e-02,-2.19002e-01,-2.07481e-03,-3.12195e-01,7.03688e-01,-5.21945e-02,-3.37182e-01,8.02589e-02,6.52171e-01,-6.16087e-01,7.64552e-01,-1.21925e-03,-1.41650e-02,-2.80418e-01,-6.85832e-01,2.10972e-01,3.94419e-01,4.13575e-02,2.60205e-01,8.09888e-01,1.47490e-01,2.77715e+00,-3.56566e-02,3.16925e-01,-4.43612e-01,1.93395e-01,-5.10113e-01,3.58713e-01,4.34483e-02,-3.62400e-01,-2.75692e-02,
3.26766e-02,9.81174e-02,1.00184e-02,-2.15124e-01,2.08781e-01,-9.29685e-01,3.76257e-01,8.90347e-03,-1.01916e-01,1.81842e-01,-1.58191e+00,-1.45149e-01,-1.84735e-01,2.30820e-01,8.98909e-02,-1.40125e-01,-1.01809e-01,-6.97009e-01,4.07042e-01,1.09476e-01,-3.17421e-01,4.20133e-02,-8.78543e-02,6.04008e-02,-2.01643e-02,-7.69754e-02,2.25562e-01,-3.24858e-02,-5.82055e-02,-1.65773e+00,4.08354e-02,2.89451e-02,1.62210e-01,7.84222e-01,-2.70099e-01,-7.98351e-02,-1.14031e-02,-1.61752e-01,3.55470e-01,2.41391e-01,-1.09894e+00,-2.45116e-01,7.49781e-02,2.18563e-01,4.83690e-01,-1.51712e-01,-2.13852e-01,3.20677e-02,1.14353e-01,2.16201e-03,
3.20516e-01,-1.40274e-01,-6.14656e-01,1.40349e+00,-1.08187e+00,5.32751e-01,-3.38517e-01,2.41094e-01,-2.15155e-01,2.48939e-01,6.82228e-01,-7.28491e-02,1.96975e-01,1.83376e-01,-9.05355e-01,-4.33116e-01,3.80616e-01,-1.22699e-01,4.58576e-02,-1.36272e-01,2.85372e-01,4.73790e-01,-4.96563e-03,1.33058e-01,-2.06585e-01,5.84705e-01,-2.53092e-01,3.88551e-02,4.89511e-01,-1.38452e+00,7.67565e-02,-1.61210e-01,6.52601e-01,-7.50351e-01,2.15861e-01,-3.96480e-01,2.37346e-02,1.05002e-01,1.05678e-01,-2.54853e-02,-1.93761e+00,2.00335e-01,-8.18364e-02,6.46253e-02,3.18121e-01,1.35373e+00,1.41369e-01,-3.47680e-02,-3.47533e-02,-1.43595e-01,
2.11399e-01,6.90854e-02,2.37797e-01,2.61459e-01,4.97464e-01,-5.74870e-01,5.19737e-02,1.21272e-03,3.69249e+00,-4.41898e-01,2.78505e+00,3.83336e-01,-5.30825e-02,5.09947e-03,4.95998e-01,-4.16300e-02,-3.23304e-01,-4.17429e-01,-1.09399e-01,1.44584e-01,-4.92550e-02,-2.22124e-01,2.85879e-02,2.89997e-01,-1.72794e-01,7.22204e-02,2.06634e-01,-2.07947e-01,-5.47226e-03,1.02206e+00,8.77704e-03,8.48922e-03,5.01614e-01,1.03058e+00,-1.52777e-01,3.80129e-01,3.97173e-02,-4.96618e-01,6.55509e-01,8.38904e-03,-1.66834e+00,-2.08665e-01,3.55290e-01,-3.13177e-01,2.87379e-01,-2.21793e-01,-5.26910e-02,1.97572e-02,1.16074e-01,-7.57014e-02,
-2.02978e-02,-4.54639e-02,2.01889e-02,3.09532e-02,-3.12355e-02,-2.03498e-02,-3.79270e-03,-4.48247e-02,-4.02365e-02,-4.45042e-02,1.86899e-02,3.91422e-03,-3.13823e-02,3.26569e-02,3.53074e-02,-1.55120e-02,-1.19520e-03,1.83358e-02,-4.05123e-02,-1.15252e-02,-1.38372e-02,3.01999e-02,-4.55052e-03,4.28189e-02,-5.05259e-02,5.41553e-03,-1.19807e-02,3.62480e-02,-1.29183e-03,-3.81496e-02,-4.56021e-02,-1.29904e-02,-2.96187e-02,3.65160e-02,-1.72417e-02,1.48345e-02,-3.20484e-02,-3.46021e-02,1.79681e-02,-9.23148e-03,-1.90496e-02,-4.40467e-02,-2.84443e-02,-3.02567e-02,5.99613e-04,1.21688e-02,-2.39802e-02,-3.25375e-03,-4.40831e-03,-9.92748e-03,
-4.91417e-02,3.72621e-02,2.95431e-02,2.42808e-02,-3.53743e-02,-5.20351e-02,-8.03418e-03,2.23633e-02,-3.78554e-02,-2.48534e-02,1.97947e-02,-9.78103e-03,4.63354e-03,-2.89331e-02,-1.51073e-02,6.21627e-03,-5.95264e-02,2.84874e-02,1.46498e-03,-1.51124e-02,2.15691e-02,-2.62976e-02,-5.13857e-02,5.14284e-02,-5.10876e-02,-6.87426e-02,-1.59464e-02,-4.13595e-02,-8.06595e-02,-4.58655e-02,2.44551e-02,2.69717e-02,-6.37320e-02,-1.14445e-01,-4.13687e-02,2.73868e-02,2.93830e-02,2.73765e-03,-2.86849e-02,-3.95066e-02,2.88952e-02,-6.56248e-02,-1.31013e-02,2.60297e-02,2.16205e-03,-4.98101e-03,2.89325e-03,-1.82480e-02,-3.81718e-02,-3.91231e-02,
-1.21496e-01,-7.04567e-01,-7.84994e-01,6.83079e-01,9.83359e-01,3.46885e-01,6.09240e-02,1.80059e-01,-2.28088e+00,2.13689e-01,7.32961e-03,-5.91522e-01,4.17499e-02,1.74534e-01,-9.39632e-01,-1.66417e-02,-1.41280e+00,1.18616e+00,3.86544e-01,-4.53959e-01,-6.81728e-01,-4.06766e-01,4.12417e-01,-3.45506e+00,8.77222e-01,-5.11218e-02,-7.29485e-01,6.15302e-02,8.05479e-02,-1.57378e-01,5.55481e-01,-4.04776e-01,-3.36274e-01,-1.83381e+00,4.62879e-01,-2.41848e+00,-3.03985e-03,3.52423e-01,9.04489e-01,-5.02513e-01,-2.13078e-02,-4.63184e-01,1.87472e-01,4.08560e-01,-2.43005e-01,-3.76614e-02,-2.52042e-01,1.36387e-02,8.76136e-04,7.53425e-02,
1.31718e-01,-6.27861e-02,8.86234e-02,-2.15681e-01,2.40793e-01,-2.98192e-01,-7.28230e-01,3.22354e-01,1.15271e-01,4.03677e-01,7.83359e-01,7.27290e-02,-1.11610e-01,1.27228e-01,-7.11870e-01,-3.02578e-01,7.27903e-01,1.04456e-01,-2.30683e-01,-9.07753e-02,-3.21483e-01,9.51222e-01,-1.47601e-02,1.01256e-01,4.47140e-01,1.28568e+00,-8.51974e-01,-2.01114e-01,2.09145e-01,-4.23355e-01,-2.42058e-02,1.18738e-01,3.81767e-01,9.94036e-01,2.00813e-01,6.92140e-01,-1.61488e-02,1.83875e-01,1.95336e-01,-4.87298e-01,8.84076e-01,4.95284e-01,-1.07293e+00,-4.82513e-01,-8.26290e-02,-6.26833e-01,4.88731e-02,3.86628e-03,-8.52957e-02,1.60101e-02,
1.18726e-01,5.57777e-02,-4.65031e-02,5.20922e-01,5.04208e-01,-1.21123e-02,5.10061e-01,-3.04661e-01,-7.88149e-02,-3.22081e-01,-6.27695e-02,-5.47663e-02,-3.18706e-02,-9.28886e-02,2.79786e-01,-1.91649e-01,2.23783e-01,-1.09191e-02,-3.67380e-01,1.38425e-01,8.38745e-02,-5.77839e-01,-4.51322e-02,5.04246e-01,-3.49297e-01,-1.13162e+00,7.18398e-01,-9.76719e-02,-5.71769e-01,1.60479e-01,-6.82647e-01,-7.52519e-02,-3.28195e-01,1.82541e-01,-3.90638e-01,4.61333e-01,1.53698e-02,-8.69300e-02,9.07199e-02,1.05762e-01,-1.37384e-01,-1.15030e-01,9.63776e-01,-4.19162e-01,2.95742e-02,-8.41584e-02,6.21019e-02,2.13939e-02,4.87238e-02,1.73752e-02,
-7.42649e-02,-5.27562e-01,9.29224e-01,8.84514e-01,5.79743e-01,3.65185e-01,9.70159e-02,-2.28510e-01,-6.42014e-01,9.50863e-03,-3.40641e-01,-7.86525e-01,2.16272e-01,1.29639e-01,9.20945e-01,-4.28847e-01,1.29382e-01,1.39804e-01,1.25719e+00,-6.92286e-01,1.27217e-01,-2.64513e-01,-9.42851e-02,-1.49945e+00,-5.10347e-01,-7.46417e-02,-1.76450e-01,1.59840e-02,-1.57018e-02,-9.32162e-01,4.48181e-01,-1.82768e-01,4.00141e-02,4.48987e-01,-9.78104e-02,-1.14905e+00,-2.86098e-02,1.67500e+00,3.06963e-01,-2.56696e-01,-2.34413e+00,3.37146e-02,2.61494e-01,3.34413e-01,-3.37273e-01,1.41771e-01,-1.65944e-03,-1.53040e-02,-2.00601e-03,1.13477e-02,
-2.02357e-01,5.27575e-02,4.60887e-01,1.54272e-01,-4.48886e-01,-1.51226e-01,-1.62182e-01,3.29984e-02,2.01192e-01,-5.53344e-02,6.77937e-01,-6.05672e-01,4.39346e-02,2.28644e-01,2.85718e-01,1.12715e-01,1.84876e-01,1.29289e-02,1.71671e-03,-7.32973e-03,8.99820e-02,1.10873e-01,5.52613e-03,1.12555e-01,-1.26020e+00,1.21457e-01,-9.38216e-02,-1.38127e-02,-5.48336e-02,7.78855e-02,7.25923e-01,-3.35075e-01,-1.52917e-01,-7.67727e-01,-5.33902e-01,6.66613e-02,4.67659e-03,-1.18981e-01,3.16473e-01,-1.23364e-01,-8.83034e-01,-9.34581e-02,5.47123e-02,7.39057e-02,-1.32754e-01,2.51855e-01,-8.07286e-02,-9.85845e-03,4.21930e-03,4.24092e-01,
-2.33831e-02,2.66105e-02,2.65018e-02,1.00612e-02,2.23637e-02,-7.48476e-03,-1.57573e-02,-1.79220e-02,-1.27971e-02,4.25681e-02,-4.22378e-02,-8.43786e-03,-2.75693e-02,-3.96180e-02,3.50924e-02,-1.71464e-02,-3.76275e-02,-3.17645e-02,-4.32646e-02,-9.11338e-03,-3.59589e-02,-2.52534e-02,1.10859e-02,4.13248e-02,-5.18821e-02,2.71890e-02,5.52034e-03,3.87946e-02,-2.38713e-02,3.61370e-02,1.23311e-02,-3.86112e-02,-3.08397e-02,-1.52322e-02,-9.08487e-03,-3.00280e-02,2.75658e-02,-3.53255e-02,1.22659e-02,-1.08852e-02,2.62770e-02,2.31654e-02,-1.91745e-03,-3.01709e-02,-2.91726e-02,-9.08790e-03,3.68843e-02,-3.78145e-03,-1.84604e-02,-3.38699e-02,
-9.21919e-02,-1.47970e-01,1.75865e-01,-2.13415e-01,-2.48086e-01,4.94536e-01,1.55678e-01,1.76972e-01,1.54189e-01,-3.70300e-02,1.64632e-01,-5.89771e-01,-1.91835e-01,3.40916e-01,1.05349e-01,-5.57027e-02,-2.14308e-01,-3.36576e-01,-9.39920e-01,-1.79785e-01,9.51914e-02,4.07241e-01,-4.67055e-02,-4.07537e-01,-1.24711e-01,-2.29503e-02,1.97648e-01,-2.77951e-01,3.50711e-02,4.15963e-01,2.04460e-01,-9.41932e-02,3.11563e-01,1.07625e+00,-2.18759e-01,-1.13176e+00,1.24263e-02,-1.60523e-01,-2.56812e-01,-6.35574e-01,-3.08739e-01,1.32273e-01,3.08120e-01,-1.82546e+00,-1.55223e-02,1.44955e-01,1.71497e-01,-1.97202e-03,-6.63148e-02,4.84112e-02,
7.96350e-03,-3.08895e-02,-4.59753e-02,-2.86251e-02,2.65320e-02,1.51648e-02,3.23985e-02,-3.31053e-02,3.17018e-02,-4.70702e-02,-3.64772e-02,1.83170e-02,-3.03275e-02,-4.81791e-02,-3.30014e-02,-5.26128e-02,4.05709e-02,-5.58165e-02,-4.92793e-03,-1.12245e-04,-2.45305e-02,-2.11412e-02,-1.39768e-02,-3.59785e-02,-1.16347e-02,-4.71607e-03,2.73920e-03,1.56032e-02,-4.07740e-02,-3.70695e-02,-2.62075e-02,-3.85525e-02,-4.65704e-02,-2.92345e-02,1.84076e-02,-4.53868e-02,1.07846e-02,1.12894e-02,2.31499e-02,-3.86149e-02,3.38632e-02,1.65135e-02,-3.97115e-02,2.69940e-02,3.91351e-02,-5.15499e-02,-2.48172e-02,4.16515e-02,-1.54765e-02,5.97119e-03,
-1.72232e-02,-6.98065e-02,-5.26405e-01,-5.39518e-01,5.78680e-01,7.85490e-02,6.69394e-02,1.22971e-01,-1.98043e-01,3.91094e-01,-2.05912e-01,1.08125e-01,-3.79269e-02,-1.95867e-02,-4.97366e-02,-1.00151e-01,-1.38612e-02,1.47412e-01,-4.25743e-01,-4.36501e-02,-1.15980e-02,-1.24386e-01,1.29832e-02,-1.97360e+00,1.02623e-01,-1.27622e-01,1.15393e-01,-5.08944e-02,-4.69314e-02,1.50950e-01,-2.48714e-01,9.86571e-03,9.99423e-02,1.20171e+00,-1.25212e-01,-3.99059e-01,4.01261e-02,6.50811e-02,-1.80443e-01,1.10304e-01,2.82302e-01,1.07650e+00,2.29965e-01,-3.90405e-01,-8.41558e-01,-5.82603e-01,5.12247e-02,-2.16785e-02,1.23177e-02,1.18768e-01,
1.63115e-01,3.40728e-01,-1.05622e-02,2.63251e-03,-1.85762e-01,-9.30189e-02,-2.16982e-01,-3.84340e-02,-1.79728e-01,-3.60857e-03,-1.14609e-01,-5.09087e-01,6.78658e-02,4.01867e-02,-4.67311e-01,1.89330e-01,2.31526e-01,1.01716e-01,2.15964e-02,-1.99866e-01,-8.21424e-02,2.39491e-01,1.40773e-01,-1.42446e+00,-2.63001e-01,-2.81122e-02,1.53804e-01,-1.12614e-01,-1.39501e-01,-3.95304e-02,-3.49384e-01,-1.27322e-01,2.61229e-01,5.77899e-01,1.78655e-01,-1.57520e-01,-2.87357e-02,1.23720e-01,-5.30046e-02,-1.02932e+00,-1.01645e+00,-8.68809e-01,1.39252e-01,-2.93072e-01,-9.99208e-02,2.35218e-01,9.10177e-02,1.44014e-02,2.32313e-02,-1.44744e-01,
-1.90028e-02,-2.01269e-02,4.36591e-02,2.00741e-02,-2.24424e-02,6.58919e-03,-4.08961e-02,-2.90105e-02,-3.50561e-02,5.86366e-03,2.97205e-02,-3.97887e-02,-3.42188e-02,-5.14203e-02,-4.54355e-02,4.58263e-02,-3.79616e-02,2.14433e-03,5.50025e-04,1.23461e-02,-8.35529e-03,-2.07890e-03,-3.36117e-02,-1.36546e-02,-3.25466e-02,-4.28492e-02,-4.25204e-02,1.14395e-03,-3.40992e-02,3.02936e-02,-5.17288e-02,9.07139e-03,3.74807e-02,-5.22613e-02,-4.47654e-02,2.74122e-02,-2.13943e-02,-2.75108e-02,2.51790e-02,-4.10131e-02,-1.66919e-02,-1.98680e-03,-5.20336e-02,3.51316e-03,-3.40331e-02,1.53714e-02,4.33568e-02,3.84234e-02,-7.28094e-03,1.09747e-02,
8.50679e-01,4.02001e-01,1.09943e+00,-2.47619e-01,2.65782e-01,1.51748e-01,-1.37013e+00,1.40174e-01,-1.35113e+00,3.91853e-01,-5.53260e-01,-3.03108e-01,-5.04397e-02,4.30349e-01,2.68073e-01,3.00276e-03,-1.92202e-01,4.08268e-01,-1.76470e+00,-9.72029e-02,-3.24217e-01,3.82940e-01,-3.90775e-01,3.77556e-02,-2.45518e+00,1.08263e-01,2.94577e-01,-1.63270e-01,-1.72342e-01,5.78341e-01,5.52614e-01,3.50545e-01,-7.41933e-02,-3.15432e-01,-4.54022e-01,3.22751e-02,1.53834e-02,-3.92487e-01,-2.90087e-01,2.07886e-01,1.25450e-01,-9.97849e-01,-4.70353e-01,-4.61079e+00,-3.01206e-01,-1.76614e-01,-3.44975e-01,-1.94357e-02,3.03344e-01,2.51140e-01,
-8.72491e-02,8.01766e-03,-1.25714e-01,-1.59970e-01,-3.67815e-01,-1.42764e-01,-1.00903e-01,1.02022e-01,2.95183e-01,-8.39929e-02,1.88544e-01,2.83873e-01,-4.72360e-02,8.06049e-03,-9.55454e-02,-7.05182e-02,9.30758e-02,-4.03115e-02,2.00050e-02,-1.33084e-01,-3.46169e-02,-1.57022e-02,-4.24768e-02,-4.87894e-02,1.57557e-02,1.78540e-01,-7.79860e-02,-8.22448e-02,4.83291e-02,6.24417e-02,1.62130e-01,6.95881e-02,2.16506e-01,3.49753e-01,1.05429e-01,-5.23228e-03,-1.22715e-02,2.93489e-02,-1.79653e-01,-2.79787e-01,-8.72410e-01,4.08243e-01,6.74201e-02,-1.53822e-01,-1.10820e-01,-1.29318e-01,-7.02345e-02,2.26285e-04,9.68054e-02,2.25748e-02,
-1.90439e-01,1.50820e-01,3.86733e-01,5.31958e-01,3.14902e-01,-7.84747e-02,8.79735e-01,-8.83966e-01,9.72408e-01,5.74481e-03,2.25921e-01,-3.75314e-01,-6.37905e-01,2.36854e-01,6.45161e-01,5.92802e-01,1.00854e-01,1.31732e-01,-4.02082e+00,-1.81742e-02,-1.62546e-01,5.75560e-01,2.67652e-01,5.61673e-01,-3.93579e-01,-2.12530e-01,4.25627e-02,-5.05397e-01,-9.26365e-02,5.80120e-01,2.03136e-01,-5.65826e-01,1.05723e+00,-1.55528e+00,-3.91513e-01,4.09773e-01,-3.35211e-02,-2.70469e-01,-1.49385e+00,5.70717e-01,-3.65832e-01,-5.43463e-02,8.70878e-01,-1.19037e+00,8.89449e-01,4.38530e-01,-1.09693e+00,-1.08596e-02,5.83024e-03,4.88181e-02,
-1.70495e-01,-2.95050e-01,-7.12324e-01,2.52228e-03,2.87553e-02,3.48561e-01,-4.25441e-02,-2.58961e-01,2.89163e-01,-6.93566e-02,-5.91285e-02,1.43617e+00,4.57084e-01,-1.12324e-01,2.14804e-01,-8.56008e-01,-3.88732e-01,-1.69601e-02,-9.31433e-01,3.98195e-01,2.56100e-01,1.26263e-01,3.76745e-02,2.02281e-01,8.00689e-01,6.10493e-01,-7.15969e-01,8.60661e-01,-8.98541e-02,4.61060e-01,2.01046e-01,-2.00722e-01,-1.50779e-01,-1.77806e+00,-7.10033e-01,5.28255e-01,-3.62940e-02,2.46230e-01,-8.23783e-02,-1.65019e-01,5.08165e-01,5.37641e-01,-2.21736e-01,1.90540e-01,-1.14307e-01,1.22094e+00,-2.79002e-01,8.19996e-03,-6.37884e-02,-1.42848e-01,
3.95729e-02,-1.78856e-02,-1.24440e+00,1.20912e-02,1.32369e-01,1.51044e-01,-1.18606e-01,4.46959e-02,-1.21777e+00,4.12088e-01,-2.65231e-01,8.66573e-02,-1.70522e-01,-2.32516e-01,-1.22388e+00,3.59927e-01,-1.58276e-01,-2.41260e-01,3.29468e-02,6.72447e-02,-3.05954e-02,1.43139e-01,-6.97394e-01,1.47067e-01,2.02604e-01,5.92432e-01,-2.40298e-01,2.63507e-01,-2.15858e-02,3.22796e-01,-2.85573e-01,-2.75818e-01,-1.12730e+00,1.30294e+00,-2.57434e-02,3.29444e-01,1.23720e-03,2.37921e-01,1.80692e-01,2.07421e-01,8.14665e-01,1.70121e-01,-3.79903e-01,-5.69310e-01,-2.62911e-01,-6.84016e-01,-1.87478e-01,4.82392e-02,4.40305e-01,-1.32303e-02,
2.12341e-02,-8.00508e-02,-2.57530e-01,1.17046e-01,-1.30130e-02,-1.75259e-01,-5.81474e-02,-5.79808e-02,-1.53350e+00,-1.43032e-01,2.48419e-01,7.73075e-02,-1.24135e-02,-1.20421e-01,1.45677e-02,-4.76586e-03,-3.45544e-01,-1.34876e-01,2.28510e-02,-2.59735e-02,-3.41165e-02,3.55660e-01,1.74245e-01,3.38198e-01,1.75189e-01,9.69881e-02,-1.62425e-01,2.60334e-01,-1.14348e-01,-4.59504e-01,-7.73729e-02,-3.68554e-02,-4.39612e-01,-6.59227e-01,1.13425e-01,3.95001e-01,1.91525e-02,2.44851e-01,-5.98632e-02,1.22356e-01,-6.43888e-01,8.70369e-02,2.47718e-01,-3.28921e-01,2.91406e-01,-1.33286e-01,-1.55520e-02,-3.13212e-02,-1.08520e-02,-1.48571e-01,
4.18217e-01,
1.08164e-01,
4.28471e-04,
-7.34899e-02,
5.81334e-03,
-5.59228e-01,
-2.12099e-01,
-1.54947e-01,
3.64135e-02,
1.40984e-01,
-2.18594e-02,
-6.42797e-02,
-6.09079e-02,
-2.75522e-02,
-1.92413e-02,
-9.36820e-02,
6.33510e-03,
-1.40007e-02,
3.20783e-01,
-1.78735e-01,
-2.09368e-02,
-2.82835e-02,
1.04353e+00,
-6.42598e-02,
-2.53698e-02,
2.16662e-02,
-4.46305e-03,
-6.17820e-02,
-8.32066e-03,
-1.62173e-01,
-1.41039e-01,
-1.64645e-02,
5.32310e-03,
-8.40590e-02,
2.65669e-02,
7.86691e-02,
-4.90850e-01,
-2.89568e-02,
-1.50531e-02,
-7.44966e-03,
-5.95521e-03,
9.44564e-02,
4.43348e-02,
-3.18921e-03,
-7.63256e-02,
4.85370e-02,
-3.16175e-01,
-3.65957e-01,
3.45880e-01,
5.76997e-02,
-1.87278e-01,1.16281e-01,4.35397e-02,1.20710e-01,1.93271e-01,1.11092e-01,3.61231e-01,-3.02672e-01,-3.49736e-01,3.37760e-01,-1.98538e-02,2.65706e-01,-1.52398e-01,-3.56894e-01,-3.05986e-01,-3.09373e-02,5.00818e-01,4.35676e-02,-8.19309e-02,-5.74944e-02,-1.97085e-02,-6.37003e-02,-2.74364e-01,-3.82296e-01,3.13436e-01,2.24930e-01,-3.82664e-02,2.02494e-01,1.89043e-01,-2.81928e-01,-2.72110e-01,4.74690e-03,-2.00122e-02,-3.01503e-02,9.78749e-02,1.42937e-01,-5.77790e-02,8.11247e-02,2.11237e-02,-1.34003e+00,-3.32875e-02,-6.89960e-01,7.60800e-02,-3.70310e-02,-2.18408e-01,4.91543e-01,5.90963e-02,-4.13225e-01,-4.61527e-02,8.16437e-02,
8.72142e-01,-1.18264e+00,-1.12162e-03,-2.31480e-01,5.99050e-01,-3.29921e-01,2.31345e-01,-1.07674e-02,-2.90647e-01,-3.31522e-01,-2.42436e-02,-1.78508e-01,-7.58613e-02,2.78257e-01,-2.42796e-01,-2.17881e-01,-9.29817e-02,-1.45605e-02,1.67221e-01,-6.16631e-01,-3.11897e-02,-2.24535e-01,-1.25433e-01,-1.13660e+00,5.02205e-02,-8.98015e-02,-4.08841e-02,-4.02884e-01,2.38054e-01,3.82998e-01,-2.00839e-01,-8.47049e-03,-9.65600e-03,-2.88650e-01,-2.34121e-02,-8.46478e-01,-4.13153e-01,2.81826e-01,4.37489e-02,-1.35777e-01,1.42933e-03,6.30052e-01,-1.83783e+00,1.23506e-02,1.39556e-01,2.50847e-01,1.35074e+00,-1.05606e-02,3.30151e-02,2.97400e-01,
4.23610e-01,1.04958e+00,2.72702e-02,-2.03579e-01,5.80000e-02,9.31815e-02,1.76653e-01,1.30214e+00,-2.70495e-01,3.51718e-01,4.12841e-02,-4.39099e-01,-2.77367e-01,9.10960e-02,1.12700e-01,5.49864e-01,-1.73578e-01,-1.88293e-02,1.76214e-01,1.16334e-01,-3.89889e-02,2.65245e-01,3.48982e-02,-4.31350e-01,7.16892e-01,-4.05465e-01,-1.79023e-02,-2.40304e-02,-1.21526e+00,1.15171e-02,3.98775e-01,3.14417e-02,3.15355e-03,-1.78460e-01,8.00510e-02,4.19339e-01,2.57284e-01,-4.56730e-01,-4.94879e-02,6.26787e-02,3.50875e-03,-1.16355e-01,-1.62787e-01,-1.61994e-02,5.91407e-01,-8.74913e-01,-4.78850e-01,-2.69244e-01,-2.88369e-01,5.96688e-01,
-4.75976e-02,4.56790e-03,4.15457e-02,2.95863e-02,-3.12530e-02,-3.45496e-03,-2.13249e-02,-1.59068e-02,-2.31246e-02,-5.23629e-02,1.68748e-03,-2.49123e-02,-1.13336e-02,2.47321e-02,2.97440e-03,-1.97627e-02,-3.54912e-02,4.27155e-02,1.19854e-02,-3.82820e-02,3.01031e-02,-1.85834e-03,-2.44445e-02,-1.65744e-02,-4.55389e-02,-4.88853e-02,-3.87636e-02,-1.67957e-02,-5.30933e-02,-4.50497e-02,5.25395e-02,-1.75777e-03,-4.36929e-02,3.83113e-02,-4.57809e-04,-4.27792e-03,3.35721e-02,2.00247e-02,5.06677e-02,2.52355e-02,3.52990e-02,5.04125e-03,-4.42170e-02,4.56574e-02,-5.23055e-02,-3.28147e-02,-1.53036e-02,2.68258e-02,-3.55581e-02,-3.16396e-02,
-8.39919e-01,3.80530e-01,-1.79004e-02,-1.32530e-01,-4.64274e-01,4.25688e-01,-5.93936e-01,2.24506e-01,1.31894e-01,5.43018e-01,-1.90999e-02,-2.60828e-01,-5.77844e-01,-2.18456e-02,-1.17719e+00,1.03807e-01,7.01557e-01,2.15199e-02,1.92866e-01,2.50327e+00,3.70804e-02,-1.26260e-01,1.22137e-03,-8.86652e-01,-5.14184e-01,8.21039e-02,2.98320e-02,2.27645e-01,1.86612e-02,-4.59959e-01,-3.61565e-02,-3.72000e-02,1.07831e-03,5.31720e-01,5.54569e-01,4.26850e-01,-1.08721e+00,-1.78885e+00,5.05983e-02,-2.20182e-02,-2.74596e-02,4.59157e-01,-4.16523e-01,1.61188e-02,-2.01463e-01,-1.08366e+00,-1.82173e+00,-4.17472e-02,-4.29216e-01,1.25273e-01,
1.46995e-01,-2.26735e-01,-2.51284e-02,-6.76102e-01,-1.00276e+00,6.04184e-01,-2.19257e-01,-5.98509e-01,2.92155e-01,-1.22314e-01,-2.99037e-02,3.85116e-01,-4.37973e-01,1.44306e+00,-3.32702e-01,1.15306e+00,6.99711e-01,-1.39995e-03,2.74437e-01,8.10089e-01,-4.37945e-02,-3.44657e-01,3.36177e-01,3.22318e-01,-1.31902e+00,-2.95157e-01,2.06091e-02,5.92629e-02,3.72963e-01,-5.49489e-01,-4.72564e-01,-3.61557e-02,1.67464e-02,2.24547e-01,3.21936e-01,9.69708e-01,1.00321e+00,2.83963e-01,1.38261e-02,5.44994e-01,3.30130e-02,1.79172e+00,8.59777e-02,2.06275e-02,5.37085e-01,4.64958e-01,7.76339e-02,3.13247e-01,-8.99583e-01,4.51397e-01,
1.15389e-01,1.01288e-01,1.85854e-02,5.65920e-03,-2.28994e-02,-5.54867e-02,-2.29294e-01,-8.21029e-02,-4.26260e-01,-1.38998e-01,3.34644e-02,1.53484e-02,2.64511e-01,2.16226e-02,-2.70705e-01,-7.94414e-02,2.19514e-01,9.89363e-03,-5.38873e-02,1.68878e-01,-3.45883e-02,-6.29073e-02,-3.48974e-02,2.54920e-01,-1.49577e-01,-9.32560e-02,2.50150e-02,-4.39027e-01,-1.62416e-01,-4.08659e-01,4.53204e-01,3.64088e-02,8.19358e-03,-1.83686e-01,2.07117e-01,5.71034e-03,3.37163e-02,8.63599e-02,-3.80073e-02,2.85500e-01,1.93928e-03,9.36781e-02,4.02413e-02,-1.18564e-02,1.14350e-01,3.57322e-01,1.62455e-01,-1.10919e-01,1.47410e-01,5.09974e-01,
3.61605e-01,-1.00055e-01,4.21374e-02,4.89788e-01,1.98918e-01,1.23553e-01,-4.17429e-01,-5.05778e-01,5.69842e-01,2.96050e-01,-3.24188e-02,-1.47378e-01,5.58108e-01,-3.74896e-01,2.43182e-01,-1.33721e-01,5.42120e-02,-3.43943e-02,8.72621e-02,-4.92970e-01,-1.88046e-02,7.33824e-02,-2.51017e-01,-2.11868e-01,5.21304e-01,-1.06293e-01,-1.22399e-03,6.32224e-01,2.11504e-02,1.10015e-01,-1.34968e-01,1.57455e-02,4.04483e-02,-5.11782e-01,8.76954e-02,-2.25739e-01,-9.23218e-01,2.83459e-01,-1.19796e-02,-1.02952e+00,-1.63548e-02,4.89363e-01,4.12197e-02,-3.39595e-03,-9.11907e-02,8.71994e-01,4.20825e-01,-4.37884e-01,-2.16382e-01,2.27117e-01,
8.21645e-02,5.65820e-03,6.76701e-03,1.08413e-01,5.10379e-02,-2.83643e-02,2.58738e-01,2.79315e-01,9.92325e-02,-7.13252e-02,-4.08049e-02,1.21488e-02,-9.11685e-02,-1.64932e-01,-8.19697e-02,-2.09902e-01,4.20546e-01,4.60938e-02,-1.42405e-02,6.24973e-03,4.08017e-02,-3.56582e-01,5.79642e-02,-4.93197e-02,2.52293e-02,-1.37882e-01,3.28443e-03,-2.06224e-01,3.69722e-01,5.47509e-02,-4.27899e-03,3.34428e-02,-1.08948e-03,1.57740e-02,-6.13266e-02,-3.84614e-01,-3.25183e-02,-1.94009e-01,-2.99876e-03,4.03759e-01,1.19912e-02,5.33675e-02,-3.36259e-01,-4.87538e-02,7.80103e-03,5.45924e-01,-4.04957e-01,-1.18832e-01,-2.91155e-02,4.23123e-01,
1.29110e-01,2.71581e-01,2.41069e-02,7.08031e-02,-8.03399e-01,-4.96937e-01,3.45583e-01,2.82615e-01,1.11476e-01,8.41313e-01,7.92804e-03,1.79472e-01,5.96458e-01,-5.36282e-01,4.19235e-01,2.82737e-01,1.06508e+00,2.69355e-02,-6.27576e-02,1.15542e+00,9.58541e-03,6.78308e-01,-2.76385e-01,-2.39074e+00,1.23346e+00,3.28273e-01,1.70455e-02,-1.99903e-01,1.30455e-01,-1.06484e-01,2.30345e-01,-1.94832e-02,7.60894e-03,-2.35424e+00,-3.07985e-01,-4.66971e-01,-9.31608e-02,2.31229e-01,-3.67593e-02,-2.60536e-01,-2.02617e-02,8.71902e-03,-1.21679e+00,2.60140e-02,3.93074e-01,-2.11091e-01,1.66031e-03,-2.16546e-01,7.94761e-01,3.59545e-01,
1.86360e-01,5.09501e-01,5.68519e-03,5.30970e-03,5.94627e-02,-4.48484e-01,-9.48074e-02,-1.26652e+00,-1.15897e+00,-9.30537e-01,1.44163e-02,1.52830e-01,1.66887e-01,8.64958e-03,2.57572e-01,2.70935e-01,-6.48834e-01,-2.74679e-02,1.67700e-02,-2.97446e-01,3.60814e-02,-3.54501e-01,6.64459e-02,4.22720e-01,-1.24397e-01,7.15659e-01,-1.34638e-02,-9.91247e-01,-7.69266e-02,7.23920e-01,-2.99143e-01,-1.89472e-02,2.92376e-02,-7.68553e-02,5.98394e-01,-8.06740e-01,-5.80669e-01,-6.28254e-02,-2.75209e-02,2.16066e-01,-4.75687e-02,1.07263e-01,-8.63460e-01,4.93195e-02,-3.94287e-01,-1.06183e-01,8.56533e-02,5.95366e-01,-5.27903e-01,-1.19584e+00,
1.15138e+00,-3.00622e-03,1.90961e-04,-4.16345e-01,2.65083e-01,2.44596e-01,7.12828e-03,4.49013e-01,-8.08320e-02,-1.37551e-02,-8.56958e-03,5.59670e-01,-3.89246e-02,4.19163e-01,-4.80715e-01,2.20797e-01,-2.51777e-03,-3.43081e-02,8.29918e-02,-1.61744e+00,-3.64641e-02,4.01627e-01,1.44868e-01,-3.85912e-01,2.17414e+00,-1.89110e-01,-2.85889e-02,7.73767e-03,-1.19544e+00,-1.78128e-01,1.16831e-01,2.03347e-02,-3.04023e-02,-4.90665e-01,-4.36029e-01,2.40049e-01,-8.86297e-02,-1.63721e-02,-7.39083e-03,-3.21998e-01,-3.89199e-02,4.07838e-02,2.98540e-01,-3.71369e-02,3.36538e-01,5.39446e-01,2.63484e-01,-1.87487e-01,1.68552e-01,1.84776e-01,
1.06658e+00,-8.36742e-01,4.83793e-02,1.61066e-01,3.09366e-02,2.17203e-01,-6.48541e-02,9.48646e-01,-2.54091e-01,3.19142e-01,4.74072e-02,-3.12346e-01,9.53567e-02,-4.83980e-01,9.04116e-01,-1.07767e-01,-5.04250e-01,-6.20473e-03,6.64635e-02,3.45975e-03,2.42363e-02,2.42790e-01,-2.70843e-01,-6.70451e-02,1.25709e+00,-2.82671e-01,3.94466e-02,8.47568e-01,7.04254e-01,1.21934e-01,6.37276e-01,4.76530e-02,-2.38629e-02,3.51796e-01,-5.84221e-01,1.62328e-01,5.13181e-03,4.12365e-01,1.68270e-03,2.93381e-01,1.32136e-02,-2.37186e-01,1.06216e+00,-4.08976e-02,4.32709e-01,1.02987e+00,8.15980e-02,2.85879e-01,8.43774e-02,1.24273e-01,
3.55245e-01,-4.78193e-01,-4.65542e-02,-8.07457e-02,-9.09792e-01,4.98545e-01,4.51491e-01,-2.97511e-01,2.18238e-01,7.38629e-01,7.90383e-03,2.00477e-01,-7.39306e-01,3.26409e-01,1.63198e+00,1.09601e-01,-3.33199e-01,-2.47690e-02,-2.33954e-01,6.35371e-01,1.87581e-02,6.89755e-01,-1.38078e-01,1.21959e-01,-1.39213e-01,9.48385e-01,-2.87527e-02,-5.51585e-02,-2.30524e-01,3.34695e-01,2.25226e-02,7.94025e-03,9.94336e-03,7.63662e-02,5.01518e-01,-5.26175e-02,-6.34940e-01,5.69564e-02,5.88988e-03,3.08126e-01,4.85151e-02,-1.39695e+00,4.33546e-01,-9.99223e-03,-5.39658e-01,-1.46525e+00,2.37261e-01,3.47896e-01,6.75478e-01,4.59304e-01,
3.78111e-01,6.11097e-01,4.25015e-02,1.04014e+00,1.43355e-01,-2.38033e-01,8.24071e-01,1.00870e+00,2.25887e-01,2.44887e-01,-4.23307e-02,3.45568e-01,5.88118e-01,3.00617e-02,5.31754e-01,-2.52886e-01,2.73687e-01,1.97149e-02,-2.43809e-01,8.91978e-01,3.41416e-02,-5.97262e-03,-1.49848e-01,2.56025e-01,-4.78358e-02,1.13426e-01,1.23159e-02,1.87819e-01,9.37988e-01,-1.20507e-01,-3.84004e-01,-3.75556e-02,3.62341e-03,4.41501e-01,-7.68923e-01,-3.59449e-01,-1.01030e+00,5.80002e-01,6.93444e-03,-2.75289e+00,-3.63409e-03,-4.40742e-01,-6.68720e-01,1.43354e-02,-1.89580e-01,-6.73056e-01,7.92223e-01,2.86937e-01,4.19078e-01,2.80863e-01,
3.96085e-01,-6.59903e-01,4.35722e-02,1.52843e+00,1.30267e+00,-5.25418e-01,8.00799e-01,-2.23106e-02,2.89328e-01,3.07476e-01,-2.35911e-02,-2.21654e+00,7.94117e-01,-3.85588e-01,1.79777e+00,1.61105e+00,-1.66172e-01,2.47594e-03,-2.08763e-01,-7.85875e-01,-1.89387e-02,-8.79302e-02,-4.71569e-01,4.22630e-01,-6.11480e-01,2.23761e-01,-4.15590e-02,4.61428e-01,8.18207e-01,-9.06231e-01,1.36029e+00,9.64640e-03,-1.38225e-02,5.10276e-01,8.02170e-01,-8.99359e-02,8.94771e-02,7.68566e-01,2.87612e-02,9.08344e-01,4.20804e-02,7.84794e-01,1.48051e+00,-3.62697e-02,2.70115e-01,5.11956e+00,2.99300e+00,-8.22644e-01,9.26924e-01,4.72730e-01,
8.81128e-02,2.58282e-01,2.82406e-02,2.14855e-01,-3.25943e-02,3.95274e-01,-5.21658e-01,5.83127e-01,-1.25094e-01,6.59003e-01,-1.31989e-02,-1.88016e-01,-2.70834e-01,6.98826e-01,6.22574e-01,4.49055e-01,-3.83804e-02,2.74118e-02,5.92544e-02,2.02376e-01,2.92874e-02,2.17103e-01,-2.77757e-01,-7.54331e-02,7.86662e-01,-4.83726e-02,2.98980e-02,1.42022e-01,2.77538e-01,-1.74891e-01,9.94962e-01,2.30357e-02,-1.15255e-02,2.86698e-01,1.87521e-01,-1.32957e-01,1.09272e-01,8.12752e-02,1.80847e-02,-2.93462e-01,1.78076e-02,4.18433e-01,1.30335e+00,1.11612e-02,-4.14882e-01,-1.52325e-01,2.95649e-01,2.01961e-01,5.82516e-02,-1.94240e-01,
-2.80232e+00,-8.76096e-01,2.60735e-02,-5.98361e-01,-6.59305e-01,1.12602e-01,-7.84211e-01,-1.52572e+00,8.24579e-01,-8.90880e-01,6.18072e-03,-8.55795e-01,-3.46165e-01,4.84303e-02,-2.34833e+00,-7.38528e-01,-9.66897e-01,2.79607e-02,-3.93198e-02,-7.64036e-01,6.69731e-03,-1.98669e-01,1.82187e-01,7.08868e-01,-8.87895e-01,5.21462e-01,-6.83339e-03,4.63538e-03,4.81463e-01,-7.34950e-01,-7.43883e-01,4.11280e-02,3.97822e-02,6.72432e-02,-1.30557e+00,-1.16594e+00,2.60838e-01,-2.80756e-01,5.46198e-03,-1.77666e+00,2.30684e-02,-1.44621e-01,4.36192e-01,-3.25381e-02,-6.87353e-01,-1.68810e+00,-1.07797e-01,-5.63051e-01,2.86101e-01,-1.38666e-02,
-1.62011e-01,1.19356e-01,-2.85967e-02,5.75868e-03,2.16107e-01,-4.41959e-02,3.33162e-01,5.40274e-01,4.69511e-01,-2.79430e-01,4.26678e-02,2.42958e-02,1.01610e-01,-1.31291e-01,5.47385e-01,-8.50752e-02,2.70301e-01,2.95432e-02,-1.51047e-01,8.65125e-01,-2.94251e-02,1.39604e-02,-4.45099e-02,-6.47247e-01,-2.04616e-01,-6.25121e-02,4.76330e-02,2.38915e-01,5.65189e-01,-2.39051e-01,-2.53524e-01,-5.14086e-02,-1.23500e-02,-5.83558e-02,4.59929e-01,-1.32006e-01,-2.31370e-01,1.36130e-01,-4.71757e-02,2.30857e-01,-2.95796e-02,-1.72021e-01,-3.15055e-01,-4.83507e-02,1.80985e-01,1.30360e+00,3.01049e-01,-4.00972e-01,3.24417e-02,2.26866e-01,
-6.00769e-02,2.41120e-01,2.06289e-02,-7.10446e-02,-1.00623e-01,-9.22252e-02,2.51999e-02,5.21899e-01,1.95514e-01,2.21145e-01,-6.85672e-03,-2.78007e-01,1.90403e-01,-4.30033e-01,1.74023e+00,-3.20453e-02,4.42593e-01,3.40836e-02,-1.66929e-01,3.19743e-01,3.27128e-02,3.43432e-01,-1.75982e-02,-2.58067e-01,8.25409e-01,9.97513e-02,5.51600e-02,9.33540e-02,5.47640e-01,-2.52489e-01,3.57380e-02,-2.99856e-02,2.39137e-02,-1.42821e-01,9.41802e-02,6.73593e-01,-3.37755e-01,-8.74056e-01,-1.00055e-02,5.83389e-01,4.57668e-02,-1.70584e-01,-3.72486e-02,-1.74075e-02,-1.74094e-01,9.78855e-01,5.34800e-01,1.81753e-01,2.24429e-02,-9.10740e-02,
-2.90228e-01,1.07294e+00,1.82315e-02,6.84839e-01,9.11446e-01,2.76443e-01,1.06527e-02,4.11482e-02,7.34863e-02,-1.38936e-01,1.30948e-02,-1.99744e-02,3.23399e-01,1.37861e-01,-2.62840e-01,-2.49026e-01,-1.14106e+00,4.69822e-02,2.26081e-01,-5.38166e-01,-3.60651e-02,-5.69099e-01,-1.07118e-01,2.49580e-01,7.78009e-02,2.24645e-01,5.10857e-02,4.81212e-01,-4.17387e-01,-2.35742e-01,6.51375e-01,2.98977e-02,-4.15421e-02,1.13126e+00,1.51679e-01,2.13283e-01,2.22838e-01,-4.91750e-01,1.60725e-02,1.89471e-01,-2.72858e-02,-1.25502e+00,-5.06515e-01,4.22895e-02,5.29076e-01,2.33449e+00,1.20030e-01,4.79918e-01,5.90393e-01,7.55733e-01,
4.21814e-01,-5.21596e-01,-5.71335e-02,-1.76531e-01,1.10586e+00,-4.26640e-01,-4.14159e-01,8.56587e-01,2.29944e-01,3.16516e-01,1.20647e-02,-1.07727e+00,-3.44372e-01,-3.96947e-01,1.55640e+00,4.82114e-01,-1.25631e-01,1.98699e-02,6.50140e-01,1.76755e-01,-4.44977e-02,-5.97367e-01,-1.16637e-02,-3.49558e-02,1.64628e+00,-3.72308e-01,-5.68208e-03,-3.03083e-01,7.36044e-01,-1.15618e+00,9.66829e-01,1.09700e-02,8.59056e-03,-2.60797e-01,3.67751e-01,-5.66845e-01,3.22499e-01,5.47024e-01,1.21523e-02,1.09563e+00,4.24950e-02,-4.26201e-01,-8.00073e-01,7.69538e-03,2.24845e-01,9.66214e-01,1.72307e+00,-5.01399e-01,2.53917e-01,-6.73565e-01,
-4.78984e-02,-3.33319e-01,4.03069e-02,2.37512e-02,-7.58992e-01,-2.53654e-01,2.82705e-01,-5.73397e-01,6.36371e-01,-1.61207e-01,-3.58279e-02,1.92209e-01,3.12004e-01,-3.88657e-01,-1.35716e+00,-1.08741e+00,2.16671e-01,1.22401e-03,-2.58090e-01,-1.93508e-02,-3.98746e-02,-2.08361e-01,1.01281e-01,8.39058e-01,-4.40909e-01,-1.80756e-01,4.58214e-02,-3.64257e-01,5.43733e-01,2.02515e-01,6.13891e-01,-4.74021e-02,-3.98690e-02,5.63843e-01,-8.54336e-01,-1.73824e+00,1.84483e-01,-2.42188e-01,1.16560e-02,1.07654e+00,3.85796e-02,-3.37008e-01,8.45417e-01,-3.12475e-02,-3.11732e-01,-2.16317e-01,1.16025e-01,4.12739e-01,4.48784e-01,-4.78387e-01,
1.01327e-01,3.17163e-02,-8.28235e-03,-4.00897e-02,-4.95965e-02,1.58123e-01,-1.91965e-01,1.22641e-02,-5.90107e-01,-9.31195e-02,4.60470e-02,6.71717e-01,5.82709e-01,-7.97913e-01,5.11574e-01,-6.10461e-01,-2.55783e-01,1.97705e-02,-2.92230e-01,7.80165e-01,1.13823e-02,1.13945e-02,7.30789e-03,1.05413e-01,8.24371e-01,1.03293e-01,-6.35092e-03,-1.03115e-01,-1.57773e-03,2.66472e-01,4.09974e-01,2.77954e-02,-9.95713e-03,4.03572e-03,-1.14910e-02,-8.03955e-02,-1.19572e+00,1.49341e-01,-4.25295e-02,6.90159e-01,8.78739e-03,-2.30643e-01,6.81192e-01,-8.44783e-03,4.88062e-02,1.12198e+00,6.49268e-01,1.24835e-01,-1.30302e-01,-3.72809e-01,
1.31160e+00,3.93616e-01,1.85886e-02,3.19767e-02,6.26807e-01,-1.11741e+00,7.81194e-01,6.41832e-01,-4.15504e-01,6.30241e-01,-3.11980e-02,-2.90986e+00,-7.91915e-01,7.22234e-01,1.97349e+00,4.01297e-01,2.92713e+00,4.24519e-02,-9.18648e-02,1.68800e+00,-1.92926e-02,3.58331e-01,-3.65595e-01,3.84730e-01,1.62728e+00,1.45277e-01,2.10562e-02,3.65444e-01,1.30893e+00,1.64231e+00,1.26645e+00,2.18619e-02,2.07591e-02,-3.74773e-01,3.74521e-01,1.73386e-01,-1.82829e+00,1.04845e+00,-2.84587e-02,2.06530e+00,-2.60604e-03,1.11894e+00,8.72400e-01,4.03310e-03,-6.70665e-01,2.24768e+00,1.59412e+00,9.24937e-01,-1.21784e+00,1.05228e+00,
-4.90025e-01,-7.53959e-02,-9.83490e-03,-1.87733e-01,-1.46730e-01,-2.96507e-01,1.99411e-01,3.95109e-01,-1.56548e-01,7.70613e-02,-6.81111e-03,-1.31926e-01,8.40797e-02,4.08750e-03,1.03870e+00,1.55956e-01,1.76583e-01,5.55136e-02,4.76182e-02,1.30348e+00,-3.14599e-02,-3.22077e-01,2.69482e-01,2.64708e-02,4.64463e-01,7.74557e-02,-3.88121e-02,1.92453e-01,1.73989e-01,3.67372e-01,6.38982e-01,2.03869e-02,-2.66969e-02,-5.04345e-01,1.85925e-01,-2.61247e-01,1.23487e-01,-2.66463e-01,-4.28927e-02,-3.73981e-01,-7.56878e-03,2.44910e-01,-2.81221e-01,-4.27338e-02,-1.02844e-01,1.15489e+00,1.75011e-01,3.00598e-01,2.37807e-01,-1.02272e-01,
-2.63316e-02,8.89921e-02,-2.18697e-03,5.55978e-02,7.34450e-03,4.15682e-02,1.06336e-01,1.74942e-01,1.23685e-01,-5.12502e-01,-2.24647e-02,1.40755e-01,-3.22229e-01,-3.22317e-01,-1.59532e-01,1.00415e-01,2.11296e-03,-4.80635e-02,-9.94302e-02,5.16151e-01,4.29486e-02,-9.64809e-02,3.05357e-02,-3.60489e-01,2.90942e-01,-7.44655e-02,3.38040e-02,-4.43825e-01,8.65395e-02,1.12201e-01,1.74896e-01,-1.35936e-02,3.05274e-02,1.81859e-01,-4.99470e-01,-8.15341e-01,-3.41642e-01,-9.57148e-02,1.81690e-03,5.25679e-02,2.15749e-02,2.48959e-01,-1.26838e-01,-4.75731e-02,-1.72525e-01,-1.77705e-01,-3.09622e-01,1.35128e-02,1.35739e-01,2.22355e-01,
4.24623e-01,-3.20011e-01,2.23435e-02,-3.01717e-01,-3.01466e-01,-1.96723e-01,5.36358e-01,3.61290e-01,-7.61559e-02,8.16841e-02,-4.91842e-02,-2.59442e-01,-1.98584e-01,-1.14940e-01,3.29777e-01,9.34712e-01,-4.93087e-01,-2.25445e-02,1.32968e-01,-1.41839e-02,-3.73448e-02,2.36723e-01,-2.01396e-01,-5.06223e-02,7.38247e-01,-1.01034e-01,-8.74326e-03,-6.26211e-01,-5.83182e-01,-2.48168e-02,-1.83653e-02,-2.26658e-02,1.12024e-02,1.23905e-01,-3.97558e-01,-3.32145e-01,-1.09709e-01,1.72712e-01,3.95678e-03,2.08021e-01,1.27096e-02,7.75001e-01,4.31860e-01,-2.74774e-02,3.22641e-01,2.05188e+00,-4.89196e-02,2.96031e-01,1.90906e-01,-4.59145e-01,
5.74284e-01,-2.32163e-02,-2.39160e-02,-2.81645e-01,-4.07729e-01,2.91602e-01,-2.73218e-01,-1.89796e+00,4.64723e-01,7.40528e-01,7.68308e-03,1.41488e-01,-4.29606e-01,2.92455e-01,5.70502e-02,-4.01914e-01,-4.97445e-01,-4.14559e-02,2.76976e-01,-1.16201e+00,2.72214e-02,-9.22782e-02,3.86730e-01,3.08285e-01,-1.26951e+00,-2.96724e-02,2.68768e-02,2.17497e-01,2.38028e-02,-4.18385e-01,6.61433e-02,4.05394e-02,-3.49376e-02,-1.88685e-01,1.39034e-01,7.82578e-01,1.09944e+00,-5.12838e-01,1.19828e-02,-3.31718e-01,4.10919e-02,-1.29223e+00,4.17552e-01,2.22546e-02,2.21928e-01,-6.65560e-01,1.11382e+00,-5.29842e-01,-1.38743e-01,3.82160e-02,
3.97921e-02,1.20590e-01,-1.48280e-02,5.16546e-01,7.85032e-02,1.66356e-02,4.62616e-02,-2.99385e-01,-1.07824e-01,5.08238e-01,-3.97818e-03,1.86066e-01,1.76483e-02,-2.89676e-01,-4.04812e-01,-5.41325e-02,1.31135e-01,-3.28881e-02,1.54584e-02,-9.67672e-02,9.03340e-03,2.54072e-01,-1.34834e-01,2.09141e-01,-2.50367e-01,-2.19060e-02,-2.12260e-02,1.60470e-01,4.25426e-01,2.17369e-02,-3.48048e-02,4.83544e-03,3.51320e-02,-1.45074e-01,3.59410e-01,1.02558e-01,-1.48449e-01,2.31263e-01,-2.37708e-02,-2.28471e-01,-2.51725e-02,2.99991e-01,1.43790e-01,-1.17118e-02,-2.28657e-01,4.78865e-01,-7.04381e-02,3.95739e-02,-1.59811e-01,5.08110e-01,
-2.74409e-01,4.63351e-01,-4.70806e-02,1.28911e-01,-1.44916e-01,-8.56557e-02,5.15178e-01,-6.99971e-01,7.46368e-02,8.68181e-01,1.59366e-02,1.64480e-01,2.38266e-01,-5.74540e-02,3.05020e-02,3.24129e-01,-2.40160e-01,-3.33003e-02,-5.30387e-02,-7.49661e-01,-2.31247e-02,5.53266e-01,-1.37401e-01,-1.23399e+00,9.64366e-01,6.16808e-01,2.16528e-02,-5.13721e-01,-4.79581e-01,4.72031e-01,-2.18960e-01,-3.81193e-02,-3.60883e-02,1.40505e-01,-5.60549e-02,2.74914e-01,-2.84318e-01,-2.43096e-01,-2.05258e-02,5.37068e-01,3.35612e-02,-7.77289e-01,-3.02311e-01,2.64530e-02,2.90876e-01,4.71324e-01,-2.67278e-01,-2.52720e-01,1.34200e-01,-3.63981e-01,
7.56856e-01,3.65532e-01,-4.20807e-02,4.80319e-01,8.44523e-01,7.93005e-01,1.46889e-01,-1.80466e+00,-5.25574e-01,2.20474e-01,4.39559e-03,2.77330e-01,7.30001e-01,-7.63304e-01,3.70648e-01,-9.87596e-02,1.24398e+00,1.79436e-02,4.33439e-03,2.14108e+00,-8.91237e-03,-1.18128e-01,-2.76711e-01,7.90304e-01,-1.08544e+00,-6.74611e-01,-2.19582e-02,4.11309e-01,4.95989e-01,3.31075e-01,-1.39129e-01,2.74390e-02,6.24776e-02,3.41453e-01,7.39685e-01,4.14413e-01,4.47650e-01,7.50853e-01,-2.34047e-03,-1.19312e+00,4.36324e-02,-1.54733e+00,1.21876e+00,-2.55455e-02,2.14509e-02,1.46724e+00,6.87853e-02,-6.15873e-01,-5.65360e-01,2.38143e-01,
-9.93888e-02,-6.90693e-01,5.37862e-02,1.87918e-01,-1.70154e-01,4.83399e-02,-1.52597e-01,1.01237e+00,-5.93564e-01,4.72392e-02,-3.30707e-02,2.61976e-01,-4.75310e-01,2.00045e-01,-8.68824e-01,2.81392e-01,-3.80412e-01,8.99215e-03,7.47211e-02,1.71445e-01,-1.33330e-02,-1.14276e-01,2.04844e-01,8.35992e-02,4.24866e-01,-6.03838e-02,-2.94731e-02,2.27951e-01,-1.16530e-01,-4.27633e-02,5.53822e-01,3.76816e-02,-2.69061e-02,-1.98851e-03,-4.09549e-02,-7.44732e-03,5.48455e-01,-4.29774e-01,4.00415e-02,3.76335e-02,8.50705e-03,-1.66883e-01,3.05322e-01,4.55822e-02,1.33703e-01,-7.80292e-01,-3.03744e-01,4.59752e-01,6.03472e-03,-6.88707e-01,
1.68361e-01,3.13327e-02,2.23799e-02,6.95790e-01,-9.07125e-02,-1.15291e-01,3.06009e-01,1.15371e-02,3.93079e-01,1.18961e-01,5.95980e-04,3.93067e-01,-2.81231e-01,-3.18313e-02,2.76217e-01,1.31021e-01,-5.06706e-01,6.84557e-03,1.00930e-01,1.21939e+00,1.06005e-02,2.52167e-01,-3.25911e-01,-2.01614e-02,2.20308e-02,-1.70863e-03,-9.71430e-03,-1.18510e-01,4.52242e-01,2.15427e-01,1.27746e-01,9.49473e-03,2.43308e-02,1.00506e-01,-2.09121e-02,-1.04851e-01,-3.06801e-01,2.79450e-03,2.45131e-02,-2.44639e-01,-2.26559e-02,2.56560e-01,3.14769e-01,-1.88838e-02,1.62539e-02,1.62986e-01,5.55891e-01,6.37123e-02,-1.55455e-01,4.99833e-01,
-3.60322e-01,9.07084e-02,-2.55634e-02,-2.42107e-01,1.94347e-01,3.04514e-01,2.09536e-01,2.74103e-01,3.72456e-01,7.14915e-02,5.00219e-03,-1.59489e-02,4.47964e-01,-2.58497e-01,7.17239e-01,-2.30081e-01,3.74672e-01,-3.82714e-02,-5.09157e-02,8.15196e-03,-2.80324e-03,-3.21215e-02,-1.29933e-01,6.11414e-02,8.42124e-01,-7.00469e-02,4.01511e-02,-4.23399e-01,-2.22230e-01,2.46703e-01,7.66103e-01,4.94393e-02,-1.25331e-02,-4.17714e-01,5.12688e-02,7.58133e-02,-3.38551e-01,-3.25454e-01,-4.83105e-02,1.67148e-01,1.56196e-02,1.05771e+00,3.96860e-01,1.06859e-02,2.77442e-02,1.28643e+00,1.88345e+00,-5.36696e-01,-2.42043e-01,4.05648e-01,
-4.89235e-01,4.92183e-01,-2.15500e-02,8.73484e-01,-1.58555e-01,-6.13890e-01,-2.21769e-02,6.20699e-01,-7.76978e-01,-4.79259e-01,-1.79044e-02,6.10730e-01,2.30125e-01,-1.07412e+00,-1.56101e+00,-3.91848e-01,7.41185e-01,1.65559e-02,-2.36653e-01,1.18084e-01,5.16787e-02,4.37077e-01,-8.51793e-02,-4.78103e-01,2.82872e-01,-7.43092e-01,2.39955e-02,-5.60243e-01,-1.94735e-01,4.26587e-01,2.08558e-01,4.80263e-02,1.83432e-02,1.39112e-01,-6.23192e-01,1.27999e-01,1.28670e-01,1.12743e+00,-7.76148e-03,-2.70640e-01,1.47875e-04,-6.70143e-01,6.56280e-01,1.17327e-02,5.14171e-01,2.63505e-01,4.75629e-01,7.65216e-01,2.06809e-01,-7.28193e-03,
-1.80872e-02,-2.95853e-02,-2.15418e-02,9.50155e-04,-4.33683e-02,1.77668e-02,1.40818e-02,8.22458e-03,-3.46455e-02,-2.73581e-02,-1.19664e-02,2.25097e-02,1.26145e-02,2.11643e-02,-4.01365e-03,1.13090e-02,-8.55644e-03,1.69639e-02,-4.83721e-02,-4.45034e-02,-1.32594e-02,-1.55436e-02,-3.82024e-02,1.30677e-02,-1.01736e-02,1.23768e-02,-3.77619e-02,-3.45829e-02,3.70712e-02,-3.34433e-02,-1.80129e-03,3.88441e-02,1.39155e-02,-4.67388e-02,-3.51706e-02,-4.08881e-02,-8.94169e-03,4.38172e-02,-3.51746e-02,3.77768e-02,4.04014e-02,-5.62357e-03,5.40724e-03,4.61209e-02,-4.21067e-02,3.77881e-02,-1.31723e-02,1.36448e-02,7.32754e-03,-1.98466e-02,
-2.52575e-01,2.06083e-01,-3.05557e-03,1.34807e-01,1.40095e-01,8.63721e-02,3.27311e-02,-8.96246e-01,5.84541e-01,-3.33641e-01,-3.84007e-02,5.65392e-01,-4.70395e-01,1.54786e-01,-6.01904e-01,-3.66641e-01,7.81655e-01,4.20946e-02,-5.64187e-02,7.43439e-02,-1.56896e-02,-3.41608e-01,1.44763e-01,-1.69978e-01,-2.82814e-02,5.13818e-01,1.38507e-02,-5.85359e-01,-1.83526e-01,1.35959e-01,-1.81763e-01,-2.35469e-02,-1.93666e-02,-3.35633e-01,6.37011e-02,8.40141e-01,-2.13663e-01,-7.98516e-01,6.97574e-03,-3.31819e-01,-4.12789e-02,4.08845e-01,-4.59648e-01,3.14789e-03,5.91118e-01,5.76690e-01,1.35728e-01,-5.82535e-01,-1.34965e-03,3.70539e-01,
5.19848e-01,7.79803e-02,2.10347e-02,-4.23296e-02,-5.49688e-01,9.63620e-01,-3.39317e-01,2.74671e-01,-3.29340e-02,5.94573e-01,1.76692e-03,-1.14756e+00,-5.03035e-01,-7.24955e-02,-2.29952e-01,3.01438e-02,-3.06320e-01,-1.48421e-02,8.34669e-01,-5.23276e-01,-5.00283e-02,-6.67065e-01,2.11021e-01,2.23261e-01,2.87978e-01,-6.61280e-02,2.40803e-02,1.59958e-01,-1.36189e+00,-4.73349e-01,-1.83831e-01,-4.45602e-02,-4.49348e-02,-1.36337e-01,3.36715e-01,6.53084e-01,6.96909e-01,3.44806e-01,1.12311e-02,8.00574e-01,-3.82705e-02,-4.10134e-01,-1.31622e-02,4.17334e-02,9.71007e-01,1.46163e+00,-4.36793e-01,-2.10101e-01,2.49446e-01,-2.08806e-02,
7.14223e-01,1.76688e-01,-1.12080e-02,3.21520e-01,-7.90731e-03,4.93507e-01,8.75106e-01,1.07489e+00,3.86333e-01,-3.84985e-02,-3.71105e-02,-7.95978e-01,6.82761e-01,-7.26462e-01,6.00999e-01,1.48579e-01,1.13678e+00,5.79511e-02,-1.54314e-01,-7.12581e-01,-3.50040e-02,-1.11008e-01,-1.94655e-01,1.96092e-01,1.37169e+00,-2.67997e+00,4.01788e-02,3.46685e-01,1.21332e+00,4.22846e-01,-7.23257e-02,-2.27790e-02,1.31683e-02,2.98188e-03,-1.08496e-01,3.30066e-01,-1.30376e+00,8.02094e-01,6.61094e-03,1.37229e+00,-9.53078e-03,-4.75288e-01,1.13388e+00,-1.89682e-02,2.84384e-01,-6.08969e-01,7.07768e-01,-4.33879e-02,-2.48690e-01,7.48977e-01,
1.05706e+00,4.60784e-01,1.27942e-02,-7.46540e-02,-1.18620e-02,-1.01749e-01,-9.53598e-02,-1.50627e+00,4.69779e-01,-4.15840e-01,-2.66473e-05,4.63886e-02,6.08111e-01,4.09479e-01,8.92614e-01,-3.73022e-01,1.54391e+00,-6.51408e-03,-3.55972e-01,3.40063e-02,-4.30811e-03,2.53847e-01,-2.66682e-01,-1.65798e-01,5.18734e-02,2.58475e-02,-2.52221e-02,6.84785e-01,-2.90255e-01,1.24364e-01,7.39429e-01,1.38257e-02,3.93057e-02,2.77256e-01,8.65175e-01,-1.10498e+00,-3.46865e-01,7.38125e-01,3.41368e-02,9.58134e-01,-2.22300e-02,-8.45954e-01,-1.56021e-01,4.34101e-02,-1.04062e-01,2.70990e+00,1.98753e+00,-1.72641e-02,4.86634e-01,1.13024e-01,
5.26946e-02,-6.43734e-02,2.17060e-02,-4.35255e-01,2.00191e-01,3.00231e-02,5.71307e-02,6.79969e-02,1.19361e-02,2.76909e-01,5.57254e-03,9.81919e-03,-4.41095e-01,1.57838e-01,-6.44525e-02,1.33004e-01,-2.19982e-02,-7.16114e-03,-4.58668e-02,4.76956e-02,-4.58019e-03,-4.04005e-02,-4.12017e-02,-1.73889e-01,3.41177e-01,7.74870e-02,-2.75130e-02,-4.05853e-02,-8.60293e-03,-7.91272e-02,8.10078e-03,1.00865e-02,4.49805e-02,-6.41995e-02,2.80349e-01,3.06802e-01,-1.06838e-01,-6.82412e-01,-2.59847e-02,-1.99090e-01,7.20687e-03,1.24543e-01,1.31074e-01,-1.35232e-02,-6.62234e-02,-4.39699e-01,-1.22344e-01,-4.09716e-02,5.96024e-02,-4.19709e-02,
7.98785e-02,1.59134e-01,1.30725e-02,-3.61349e-02,2.10999e-01,-6.98663e-02,2.80301e-02,-5.79215e-01,2.27297e-01,7.07948e-01,-9.17556e-03,-3.02566e-01,6.28528e-01,1.13209e-01,-3.17957e-01,1.01396e+00,-1.18655e+00,1.42584e-02,-3.10023e-01,1.09738e+00,-2.97170e-02,4.30368e-01,-2.77291e-02,-2.86425e-01,-5.91137e-01,1.15115e-02,9.17376e-04,2.46051e-01,4.17561e-01,-2.56428e-01,-3.58712e-02,-2.04743e-02,-9.14485e-03,6.80017e-01,9.39567e-01,7.44948e-01,3.00035e-01,2.88509e-02,-1.91997e-02,8.48732e-01,-3.96136e-02,-7.21595e-01,5.74841e-01,-9.70394e-03,2.27253e-02,-3.67390e-01,-6.68486e-03,3.75323e-02,3.46728e-01,3.09416e-01,
-7.80872e-03,1.42300e-01,4.63889e-02,1.06851e+00,-1.36242e-01,3.67345e-01,6.63896e-01,1.15549e+00,-4.03128e-01,2.81026e-01,3.73112e-03,5.65120e-01,4.59557e-01,-2.40749e-01,1.40952e+00,3.85307e-02,-6.14360e-01,4.31222e-03,7.50812e-02,5.52773e-01,1.81074e-02,3.71430e-01,-4.65850e-01,8.08124e-01,2.13981e-01,4.09467e-01,-5.03183e-02,-7.39104e-01,6.77047e-01,-2.41824e-01,7.33975e-01,-1.91107e-02,1.79235e-02,-1.23807e-01,-8.71987e-01,-1.99932e-01,4.70095e-02,1.30320e+00,-3.90859e-02,-3.15959e-01,2.41200e-02,9.52484e-01,9.89811e-01,4.59859e-03,-9.11036e-02,1.72749e+00,8.09738e-01,8.38962e-01,-7.31113e-01,-1.71530e-01,
9.93431e-02,5.82215e-02,3.96544e-02,-4.29628e-02,2.04609e-02,3.88468e-01,-6.42823e-01,-5.81239e-01,3.15858e-02,-6.29816e-01,-7.76072e-03,-1.06378e-01,-5.54558e-01,-6.03769e-02,2.77643e-01,1.40065e-01,-1.73249e-01,1.42509e-02,4.54887e-02,9.27240e-02,4.53021e-02,-2.41954e-01,2.60316e-01,4.39206e-01,-5.62996e-02,3.65157e-01,1.74872e-04,4.94753e-02,1.10209e+00,-5.78004e-01,1.12983e+00,4.37527e-02,4.51228e-03,-3.46806e-01,-7.77184e-01,5.89699e-03,9.88932e-01,-2.98313e-01,1.75452e-02,-7.94481e-01,4.47060e-02,-1.33107e+00,-2.78978e-01,-1.32536e-02,-2.69523e-01,-3.77068e-01,-7.25807e-01,3.68444e-01,-2.35986e-01,-7.14673e-01,
6.51052e-01,2.21837e-01,-3.00970e-02,1.16397e-01,-3.29070e-01,-1.16575e-03,7.03535e-01,-2.43902e-01,3.00084e-01,-3.42025e-01,2.15404e-03,2.50293e-01,2.32989e-01,9.26752e-01,3.04441e-01,2.82606e-01,-7.98114e-01,-4.08157e-02,3.00093e-01,-2.10761e-01,2.24777e-02,2.49166e-01,-2.12690e-01,1.15336e+00,-6.03767e-01,-1.87808e-01,-4.25930e-02,-2.36205e-01,-1.14041e+00,-8.58050e-02,3.70887e-02,-3.50228e-02,2.34192e-02,-4.72537e-01,2.58388e-01,1.73530e-01,-4.61561e-01,8.37750e-01,2.89167e-02,-3.26210e-01,-2.05372e-02,-8.62873e-03,4.93257e-01,4.47373e-02,-1.37078e-01,-2.06924e+00,-4.37840e-01,2.57459e-01,3.81534e-01,3.37763e-01,
-1.48643e-01,-2.91710e-01,-1.70278e-02,-5.97828e-02,9.97127e-01,3.86600e-01,-5.86692e-02,-6.65437e-02,4.18971e-02,-1.11350e-01,-2.85629e-02,-2.29698e-01,-1.35859e-01,7.87490e-01,-6.35899e-02,-7.51540e-02,-5.68857e-01,2.90608e-03,9.31211e-02,-2.39899e-01,2.38067e-02,1.39448e-02,1.10191e-01,-3.83054e-01,4.26226e-01,-6.29243e-01,-1.79625e-02,4.71143e-01,9.38645e-02,-2.61080e-01,6.53065e-01,1.64668e-02,2.49951e-03,8.96962e-03,7.10717e-01,-9.61136e-01,1.63988e-01,-3.54820e-01,3.86114e-02,-6.17273e-03,1.38757e-02,-1.42477e+00,-8.47276e-01,3.14280e-02,6.14613e-01,-2.37315e-02,-4.25228e-01,1.03478e-01,-3.48023e-02,-4.71271e-01,
-5.58511e-01,4.45190e-01,1.08959e-02,-1.80428e-01,7.48029e-01,-5.23072e-02,2.29551e-01,-4.97232e-01,1.05064e-01,-3.09240e-01,-1.34160e-02,6.40955e-01,7.15906e-01,4.80462e-01,1.39249e+00,1.42049e-01,2.99899e-01,-1.86682e-02,-1.98896e-01,8.90931e-01,2.92981e-02,3.91342e-01,8.99016e-03,-2.36169e-01,6.75908e-03,-6.07404e-01,-2.05274e-02,3.21726e-02,3.23405e-01,9.75439e-02,-9.61419e-01,6.91347e-03,2.04408e-02,-1.42683e-01,9.76974e-01,5.23505e-01,5.97503e-02,-3.57621e-01,-1.93948e-02,1.58880e+00,-2.83772e-02,-6.30325e-01,-2.89842e-01,4.11350e-02,-7.84309e-02,2.76803e+00,7.87634e-01,-7.89782e-01,3.69581e-01,1.17662e-01,
-5.86829e-01,-8.62449e-02,4.12092e-03,2.84825e-01,8.69037e-02,2.32304e-01,-2.41979e-02,5.15522e-01,-4.26050e-01,-6.55961e-01,-2.56950e-02,3.87722e-01,-1.52595e-01,7.26751e-01,7.19707e-01,7.18321e-01,5.83080e-01,3.83660e-02,-8.14205e-02,2.28791e+00,2.16648e-02,5.05269e-02,2.08434e-01,3.43313e-01,5.88945e-02,3.24760e-02,-3.28480e-02,9.39227e-01,-4.63915e-01,-3.03201e-01,1.00419e+00,-9.05125e-03,1.82818e-02,4.03101e-01,-7.41051e-01,4.72203e-01,1.41649e-01,-8.67238e-01,-3.66466e-03,5.01440e-01,3.64143e-02,5.04094e-01,9.33454e-01,-2.59492e-02,-7.06006e-01,-3.64290e-02,-9.47114e-01,5.20903e-01,-4.40598e-01,-8.88901e-01,
-5.30349e-01,3.33162e-01,-3.49193e-02,7.79470e-01,2.62024e-01,2.86209e-01,-3.99092e-01,6.50128e-01,-7.66886e-01,-4.19233e-01,1.23917e-02,-2.62495e-01,2.60564e-01,3.73124e-02,-5.42451e-01,-2.75129e-01,1.32761e-01,1.49033e-02,6.79920e-02,-2.01222e-01,1.75145e-02,2.41119e-01,-7.87562e-02,-1.53713e-01,6.09902e-01,-9.77391e-02,2.71771e-02,-1.51688e+00,6.08528e-01,2.98215e-01,3.03014e-01,2.48380e-04,-1.56917e-02,1.27650e-01,5.71650e-01,-7.99535e-01,4.28646e-03,1.82839e-01,2.98731e-02,1.00739e+00,-5.12409e-02,8.39495e-01,-5.73017e-01,-3.29235e-02,2.40838e-01,5.01984e-01,7.71891e-03,2.69783e-01,-1.76643e-01,-4.26337e-01,
5.79304e-01,
1.28103e-01,
-1.74801e-01,
-2.97032e-03,
-5.72326e-02,
-2.57136e-01,
-1.75343e-02,
2.34544e-01,
-7.81701e-04,
-5.47455e-03,
-4.52027e-02,
-2.58370e-01,
-8.31357e-02,
6.99296e-02,
-4.58862e-02,
-1.62263e-01,
3.53694e-04,
2.17604e-01,
1.18055e-01,
4.48578e-02,
-6.52601e-01,
4.37063e-01,
6.94955e-02,
-5.63135e-02,
-2.00569e-01,
-6.19008e-01,
7.57925e-02,
1.64618e-01,
-6.35327e-01,
1.86143e-02,
1.81311e-01,
4.72835e-02,
-3.40189e-01,
4.39072e-01,
2.63168e-01,
1.79799e-02,
-6.01458e-03,
8.39292e-02,
5.99211e-01,
1.02203e-01,
3.03765e-01,
1.63653e-01,
-2.98705e-02,
1.90640e-01,
1.54844e-02,
-2.50510e-01,
-1.78098e-01,
-2.26413e-01,
-4.88983e-02,
-1.21596e-01,
-2.49370e-01,4.32026e-02,-4.59267e-01,-1.77396e-02,2.00052e-01,-2.02746e-01,4.98841e-01,-3.34277e-01,-4.19623e-01,-2.97426e-01,-4.17993e-01,-4.00670e-01,-2.69544e-01,-1.30716e-01,-6.07304e-01,1.10137e-01,2.06162e-01,-5.86200e-01,5.21508e-01,6.60391e-01,4.63510e-01,3.27423e-01,-3.11284e-01,-3.42814e-02,6.24057e-01,-1.13293e-01,7.31261e-03,6.23904e-01,-3.45374e-01,6.54344e-02,1.00270e-02,2.42640e-01,5.52714e-01,-3.63172e-01,2.70513e-01,6.84133e-01,3.22839e-02,-1.30449e-01,-4.97572e-02,-1.88175e-01,3.85101e-01,1.13273e+00,8.11336e-02,5.48483e-01,2.95917e-01,-2.44010e-01,-1.79873e-01,1.18962e-01,1.53256e-01,-2.84760e-01,
6.78196e-01,6.62644e-01,1.13652e-01,-6.86942e-03,2.29367e-01,1.92535e-02,2.10784e+00,1.08936e+00,1.26683e+00,4.74004e-01,-2.10135e-01,5.17202e-02,9.18320e-01,-1.23176e-01,-1.20400e-01,-6.06030e-02,4.36644e-02,-4.31703e-01,6.93110e-01,4.21966e-01,-6.39243e-01,-7.07467e-01,6.08303e-01,3.34963e-01,-1.70069e-01,9.61775e-02,6.93277e-01,6.73441e-01,-7.44045e-01,2.86933e-01,9.13550e-02,-2.66238e-01,3.68195e-01,5.01763e-01,-3.01769e-01,-3.57288e-01,-1.44660e-02,-5.48268e-02,4.34522e-01,-2.18188e-01,-1.58489e-01,6.27268e-01,-2.65484e-01,1.28928e+00,1.22789e-01,4.86190e-01,-3.06530e-01,1.93711e-01,-6.21046e-01,-2.89037e-01,
5.44761e-01,1.03269e-01,1.31619e+00,-4.67495e-02,-1.93879e+00,6.16085e-01,-2.34804e-01,5.76078e-01,1.18398e+00,-4.62646e-01,-1.19340e-01,6.18478e-01,-1.89167e-02,-2.83959e-01,-2.75042e-01,-1.52707e-02,-9.27934e-01,2.79397e-02,5.10802e-01,1.72563e-01,-1.14670e+00,-4.51267e-01,6.64681e-01,-1.14645e+00,-3.47037e-01,-7.09084e-01,4.24276e-01,1.60735e+00,-2.85438e-01,5.12908e-01,6.47304e-01,4.09966e-01,-2.15487e-01,1.04619e+00,1.57516e+00,7.52559e-01,1.60264e-02,2.22770e-01,9.96860e-01,1.03406e+00,2.34243e-01,-9.91934e-01,-9.03271e-02,-1.01389e-01,-4.23876e-01,6.31011e-01,8.05159e-01,-1.09485e+00,-1.42430e-01,9.50564e-01,
-1.45892e-01,-2.34607e-01,-1.07690e-02,3.38388e-02,2.51857e-01,-1.85297e-01,-5.36314e-01,1.85130e-01,-3.24320e-01,1.63313e-01,1.21377e-01,5.48659e-02,8.32212e-02,-3.05876e-01,1.74582e-01,3.14668e-01,-4.57068e-02,1.20926e-01,7.68401e-01,1.29940e-01,-6.03852e-02,-6.20030e-02,-2.11189e-01,-4.54864e-01,4.90576e-02,-3.13700e-01,5.00369e-01,3.24689e-03,-2.29849e-01,-6.94843e-02,2.05743e-01,-1.81073e-01,3.15150e-01,1.61771e-01,9.87485e-02,2.14122e-01,-1.46473e-03,1.71724e-01,2.16612e-01,-1.28195e-01,3.39437e-01,2.63314e-01,-2.76108e-01,4.15865e-01,9.77774e-02,-4.24139e-01,2.36617e-02,2.20994e-02,-6.71115e-02,-7.38517e-01,
5.03249e-01,-4.14205e-01,-4.04102e-01,-3.80474e-03,4.40203e-01,-4.64649e-02,1.55708e+00,-2.12163e-01,4.77638e-01,5.51045e-01,-1.64251e-01,2.53878e-01,-6.39683e-01,-1.57728e-01,7.18769e-01,2.83431e-02,3.09073e-02,4.92310e-01,1.06178e+00,8.21628e-01,1.60935e-01,-5.46697e-02,-5.86481e-01,3.29562e-02,6.77677e-02,-9.16166e-01,9.21849e-01,7.87201e-01,1.14602e-02,1.12866e+00,6.10111e-02,1.39459e-01,4.45805e-01,7.82675e-01,-1.37690e+00,-5.02764e-01,2.37044e-03,-1.75572e-02,-7.82381e-02,3.80972e-01,-1.95264e-01,5.38871e-01,-1.42943e-01,-1.00179e+00,2.79470e-01,2.29664e-01,-4.10421e-01,6.51555e-02,-2.08381e-01,-5.65376e-01,
-6.86423e-01,1.40302e-01,1.67564e-01,2.85923e-02,4.67392e-01,-1.02875e-01,7.85952e-01,-1.46310e+00,1.32858e+00,5.70002e-01,1.87731e-01,-3.14326e-01,-2.96134e-01,4.47290e-02,-6.79479e-02,-7.98802e-01,-7.23108e-01,-4.66951e-01,1.07285e+00,8.95213e-02,6.81691e-01,-7.62104e-02,-4.94851e-03,-2.95596e-02,1.10223e-01,8.23367e-01,2.21057e-01,-5.53326e-01,6.43059e-01,2.45573e-01,-6.55675e-01,2.66772e-01,-5.64169e-01,-2.26511e-01,-1.59078e+00,5.99364e-01,-1.59480e-02,7.55213e-01,-9.06535e-02,4.68255e-01,-6.52577e-02,-6.97531e-01,-1.82622e-01,-1.43671e-01,-5.06959e-01,-1.87335e-01,-1.92107e-01,-1.13689e+00,-9.56293e-02,1.50694e-01,
-9.29889e-01,1.06221e+00,1.81003e-01,1.30958e-02,-4.71411e-01,1.67656e-02,1.27626e+00,3.78684e-01,5.84899e-01,1.00161e+00,-9.14431e-01,3.25048e-01,1.37168e+00,-4.53069e-01,-2.47981e-01,2.87439e-01,8.16455e-02,8.14211e-01,4.38956e-01,1.90479e+00,-1.34739e-01,-3.63998e-02,5.39264e-01,-8.80732e-01,7.69102e-01,-2.86648e-01,5.95847e-01,5.08559e-01,-7.21247e-01,3.27534e-01,5.84022e-01,3.30143e-01,5.81155e-01,-6.30916e-02,4.36360e-01,1.26690e+00,4.74707e-03,1.07706e-01,-2.06924e-01,6.99541e-01,-5.99917e-01,-1.85593e+00,3.84211e-01,-4.95782e-01,3.75291e-02,3.26442e-01,8.86280e-01,-2.23623e+00,-7.01484e-01,-1.79917e+00,
2.02887e-01,1.69831e+00,-1.26599e+00,2.24392e-02,6.00148e-01,-3.49675e-02,-7.38805e-01,-6.96142e-01,-1.22813e+00,9.86860e-01,3.12249e-01,-4.44008e-01,7.07901e-01,2.37149e-01,4.81712e-01,-1.63975e-01,-3.79494e-01,5.38476e-01,5.83180e-01,-2.68993e-01,-9.94465e-02,1.16755e-02,-2.47397e-01,2.69585e-01,4.24562e-01,-7.20306e-02,-1.94602e-01,-1.45538e+00,2.28042e-01,7.39460e-01,3.18435e-01,-7.73989e-01,2.73601e-01,-6.75442e-01,1.45994e-01,-4.74495e-01,1.65794e-03,6.62915e-02,-2.18566e-01,-3.03953e-01,5.37209e-01,7.16361e-01,2.17312e-01,4.18906e-01,1.28153e-01,9.31968e-01,-2.00488e-01,1.70046e-02,1.42455e-01,2.33401e-01,
2.57535e-01,-3.60279e-01,4.15205e-02,-5.59051e-03,-7.11151e-01,-9.10616e-02,1.73176e+00,1.21082e+00,2.34203e-01,-9.72706e-02,3.64558e-03,7.93167e-02,-6.91746e-01,8.70694e-02,6.25760e-01,-3.53477e-01,-5.00725e-01,2.45161e-01,1.60634e-02,-5.11370e-01,-1.67825e-01,-1.31326e-01,1.77651e-01,-9.37794e-02,9.73588e-02,4.19422e-01,6.00658e-02,2.75393e-01,2.33359e-01,2.87593e-01,-7.67844e-02,-7.06451e-01,-8.68389e-01,-5.09453e-02,2.62069e-01,-1.65273e-01,-1.74326e-02,-5.76411e-01,2.31468e-01,-1.27862e-02,-9.19463e-02,1.11257e+00,-2.20021e-01,1.16229e-01,-2.64848e-01,-5.53984e-01,-5.74198e-01,2.51355e-01,3.58057e-01,9.02220e-01,
-3.88774e-01,-4.48337e-01,-2.32542e-01,-9.18741e-04,-2.72272e-01,5.56760e-02,5.09513e-01,5.28259e-01,-3.43334e-01,-3.79296e-01,-1.48027e-01,-6.48721e-01,3.53663e-01,-8.15115e-02,2.86104e-01,2.70031e-02,-2.22871e-02,-3.03720e-01,2.14933e-01,2.54026e-01,1.04642e-01,8.69798e-02,2.85829e-01,-6.50717e-03,4.95031e-01,-1.74892e-01,2.40780e-01,7.49736e-01,-2.11954e-01,-2.09489e-01,-2.64216e-01,4.53287e-01,1.79355e-01,1.22723e-02,1.30171e-01,3.75370e-01,1.90259e-02,-2.13686e-02,1.73558e-01,-5.67835e-02,1.21048e-01,1.66276e+00,-2.27924e-01,3.29243e-01,2.55414e-01,-2.42491e-01,-1.19941e-01,1.19103e-01,1.53925e-01,-4.43828e-01,
-3.68322e-01,-5.60772e-01,-6.33607e-01,3.73617e-02,6.53804e-02,-3.80119e-01,2.00029e+00,9.09089e-01,-3.86649e-01,-5.82088e-01,-6.14606e-01,-6.13509e-01,2.25100e-01,-3.54216e-01,-1.09572e-01,6.59313e-01,3.28115e-01,-6.07999e-01,5.30476e-01,2.96456e-02,8.90069e-01,6.76692e-01,-5.21764e-01,-3.68659e-01,4.32448e-01,3.44481e-02,5.69091e-01,1.58801e+00,-5.20779e-01,1.22368e+00,-2.55703e-01,9.38859e-01,9.22004e-01,2.39479e-01,1.04367e+00,1.30596e-01,-2.74512e-02,-3.16117e-01,-1.19587e-01,7.93007e-02,2.54086e-01,6.53960e-01,-3.34691e-01,2.85951e-01,8.30319e-01,-2.64024e-01,-3.98371e-01,4.57809e-01,3.54060e-01,-1.04965e+00,
1.25589e-01,-2.03835e+00,-4.62735e-01,3.17867e-02,2.48376e-01,9.15840e-02,1.77806e+00,-7.48797e-01,-2.37690e-02,-4.11716e-01,8.28703e-02,-5.41715e-01,7.25848e-01,8.45695e-02,4.82231e-01,9.85924e-03,7.03532e-03,-1.73244e-01,-2.90457e-01,2.11795e-02,2.09244e-01,1.74989e-01,-1.09725e-01,-7.38735e-02,1.15559e-01,-2.26224e-01,1.23354e-01,8.30690e-02,1.08987e-01,3.84300e-02,-7.56152e-01,1.86170e-01,-1.51872e-02,1.92014e-01,-8.36965e-02,-8.44544e-01,-3.42026e-02,-4.51618e-01,-3.61219e-01,9.98418e-02,4.03356e-01,9.57802e-01,3.04119e-02,-4.32452e-01,6.72278e-01,-2.74855e-01,-4.50376e-01,6.04884e-01,1.04444e-01,6.56278e-01,
8.95973e-03,2.23052e-01,-1.57534e-01,-3.11849e-03,-3.89211e-01,4.78222e-02,-1.79054e-01,-3.31609e-01,1.35169e+00,-7.51479e-02,-3.80821e-01,5.79327e-02,2.86886e-01,5.90241e-02,4.98017e-01,-4.96560e-02,1.53266e-02,1.14501e-01,-4.32280e-01,4.16021e-01,-1.70723e-01,1.33794e-01,-6.82919e-01,-3.66870e-01,3.53668e-02,6.02006e-02,7.94575e-01,1.04230e-01,2.28372e-01,8.70897e-02,-3.66720e-01,1.69958e-01,-3.09874e-02,-1.16613e+00,-1.23441e-01,6.76957e-02,-3.73874e-02,6.41077e-01,3.68144e-02,3.60730e-02,-4.45890e-01,5.10983e-01,2.88431e-01,1.03410e+00,-1.08306e-01,-4.32813e-01,3.93232e-01,2.15891e-02,3.82770e-01,-6.93248e-01,
2.79515e-01,-9.98238e-02,-3.31869e-01,-4.74027e-02,-2.92361e-01,2.23367e-01,2.82371e-01,-9.91951e-01,1.94330e-01,1.31957e+00,5.61684e-01,3.30869e-01,-3.17977e-01,2.72264e-01,1.21066e-01,-3.89529e-02,-4.29159e-01,6.44795e-01,1.00873e+00,7.78050e-01,-1.66281e-01,-2.69437e-01,4.83532e-01,5.53005e-01,3.34027e-01,2.07286e-01,8.75068e-01,6.33871e-01,1.93038e-01,-5.21391e-01,4.01837e-02,6.43742e-01,2.54902e-01,-7.90681e-01,3.73192e-01,7.13081e-01,-3.17037e-02,-6.33741e-02,-3.20275e-01,-3.99528e-01,3.69965e-02,5.44196e-02,3.03457e-01,9.93747e-01,-8.54972e-02,-9.39404e-01,3.93501e-01,3.17359e-01,4.61116e-01,2.56282e-01,
-1.14511e-02,6.59246e-01,-3.73261e-01,-4.43628e-02,-3.41647e-01,1.33756e-01,-3.66510e-01,-5.33251e-01,4.99570e-01,6.96710e-01,4.62331e-01,-1.93291e-01,-5.34376e-01,2.68831e-01,2.67265e-01,1.26894e-02,-1.65521e+00,2.82181e-01,6.19138e-01,-4.91527e-02,-3.67344e-02,-3.65807e-02,1.59929e-01,-4.02387e-01,1.14582e-01,3.43963e-02,9.56347e-01,-3.91298e-01,8.12953e-01,1.02702e-01,-5.79606e-01,4.58001e-01,-1.09745e+00,-1.68823e-01,3.71635e-01,4.12450e-01,-4.65844e-02,-6.99071e-01,-7.52359e-02,3.66159e-01,1.50518e-01,1.77558e-01,-4.04627e-01,-2.15053e+00,-2.72493e-02,3.53990e-01,-3.36910e-01,2.53205e-01,1.79250e-01,-6.20628e-01,
-1.41856e-01,-2.48266e-01,-1.20616e-01,4.64978e-02,5.67705e-02,-5.39897e-02,1.48781e+00,-2.00689e-01,-2.65477e-01,1.16605e-01,-3.35663e-01,1.07458e-01,-1.62253e-01,-2.57967e-01,-7.43014e-01,1.97918e-01,-4.02847e-02,-6.13337e-02,4.39527e-01,1.46284e-01,2.66629e-02,3.76604e-01,-4.01599e-02,-6.86637e-01,-1.32398e-01,-7.39727e-01,-4.79952e-01,1.11228e+00,-4.16554e-01,3.91607e-01,3.51044e-01,6.70738e-01,7.47435e-01,1.71351e-01,2.80781e-01,6.79187e-01,4.54586e-02,5.29518e-02,-3.30557e-01,-6.54236e-01,5.19218e-01,1.11342e+00,-2.36293e-01,3.81853e-01,8.77145e-02,7.92479e-01,2.20966e-02,2.77917e-01,3.28493e-01,-4.09682e-01,
-4.27541e-01,-4.69516e-02,-3.59873e-01,-1.89472e-02,-3.79152e-02,-2.38003e-01,-1.55482e+00,-9.21955e-01,-6.74426e-02,-7.52268e-02,4.33269e-01,4.40288e-01,-2.38748e-01,6.61338e-02,-1.65879e-01,1.28398e-01,-2.43774e-01,-9.45520e-01,1.33603e+00,-2.73973e-01,5.17054e-01,3.49765e-01,-2.83429e-01,-4.76652e-01,2.31281e-01,1.17708e+00,1.66622e+00,-5.52129e-02,-2.54856e-01,-1.23481e+00,3.60153e-02,2.34108e-01,-7.38123e-02,-2.75600e+00,-5.09622e-01,1.32506e+00,1.28291e-02,-5.69401e-02,9.24194e-02,2.16781e-01,-3.40321e-01,1.15993e-01,5.32089e-01,9.28866e-01,-1.35843e-01,-7.41506e-01,-3.04116e-01,3.48185e-02,1.66460e-01,-7.04188e-01,
-4.54586e-02,4.37783e-01,3.91983e-01,-1.14398e-02,-2.17449e-02,-3.22250e-01,-2.61830e-01,9.35833e-01,3.94197e-02,7.66177e-01,5.14020e-01,-6.55424e-02,-8.70623e-01,2.54824e-01,3.71151e-01,-3.04844e-01,7.86034e-03,5.20904e-02,-1.60815e+00,1.70410e-01,-3.68950e-01,-1.90966e-01,1.31268e-01,2.31822e-01,4.78439e-02,3.73648e-01,1.21337e-01,-1.66052e-01,7.38397e-02,1.35583e-01,-1.28500e-01,5.66492e-01,-9.59022e-01,-5.41073e-02,-4.24106e-01,-1.52657e-01,4.42873e-02,2.77466e-01,2.32815e-01,-4.48273e-01,2.19792e-01,-1.32399e-01,5.54592e-01,6.22948e-01,-1.51449e-01,3.74045e-01,-4.08483e-01,3.05587e-02,9.43859e-02,3.09281e-01,
-1.07450e-01,-7.27049e-02,5.95708e-01,4.88532e-04,-2.14430e-01,1.99711e-01,-1.76220e-02,-1.05430e+00,-1.73829e-01,5.07356e-01,-4.73308e-01,1.60684e-01,-7.82984e-01,-3.14935e-01,-5.46154e-01,8.59736e-03,4.03463e-01,-1.28508e-02,-3.58740e-01,2.45086e-01,-1.90212e-01,2.07894e-01,2.74654e-01,-7.02567e-01,-1.81741e-02,-4.83116e-01,5.32144e-01,-4.51538e-01,-6.61667e-02,7.05328e-01,-6.63122e-01,6.96574e-01,-6.39347e-01,-1.69899e-01,-7.84856e-01,2.09327e-01,-3.80039e-02,-5.24668e-01,-1.23151e-01,-1.17177e-01,-1.17169e-02,-8.97720e-01,-3.56377e-01,-7.50273e-01,-6.22016e-02,5.39401e-01,3.06703e-01,2.53235e-01,-5.26409e-01,4.61801e-01,
1.69131e-03,-2.48215e-02,3.05026e-04,-3.30140e-03,6.49349e-03,1.65239e-02,1.14530e-02,4.69550e-02,-9.09585e-03,2.71373e-03,2.31363e-04,8.90883e-03,2.42375e-02,-2.80662e-02,1.55524e-02,4.20030e-02,2.36561e-02,-4.88389e-02,-2.17026e-02,-4.91790e-02,1.80479e-02,-9.56421e-03,-1.34408e-02,-1.29553e-02,-4.83949e-02,-1.75948e-02,1.37551e-02,-1.76949e-02,8.57606e-03,-4.71592e-02,-1.11024e-02,1.17570e-02,1.60892e-02,-5.33253e-02,-3.80681e-02,2.82616e-02,-3.89104e-02,-4.82671e-02,-1.64285e-03,-1.73514e-02,2.94489e-02,-5.18655e-02,-2.19534e-02,1.71589e-02,-2.83476e-02,-1.74449e-02,-3.95546e-02,-4.43206e-02,-3.78410e-02,3.95147e-02,
-4.42520e-01,8.50963e-02,-4.25745e-01,-3.12771e-03,5.41179e-01,-1.04958e-01,1.36758e+00,-2.14392e-01,-4.96947e-02,-3.29546e-01,-3.57353e-01,-3.11064e-01,-7.06021e-04,-5.01824e-01,1.37924e+00,5.24431e-01,-5.73254e-02,4.49270e-01,-3.81833e-01,-6.64173e-01,-3.51798e-01,-1.78433e-01,3.90949e-01,1.40309e-01,-5.58925e-02,4.61201e-03,4.92245e-01,-1.20916e-01,2.86783e-01,3.12411e-01,1.01559e-01,-5.13913e-01,1.84047e-01,1.57705e-01,1.28862e+00,-6.00008e-01,-3.87152e-02,-1.81995e-01,2.17153e-01,-1.33180e-01,1.20223e-01,2.89939e-01,1.20301e-01,1.28121e-01,2.34780e-03,5.84134e-01,2.08808e-01,2.46956e-02,4.21831e-02,8.35962e-02,
2.36247e-01,3.88372e-01,8.53066e-02,3.98838e-02,5.73054e-01,3.11800e-01,-7.25336e-01,4.21959e-01,-3.21755e-01,8.88571e-02,2.47563e-01,5.00399e-02,1.23777e+00,-2.08797e-01,-5.90403e-01,-1.33128e-01,-3.64908e-01,1.52761e-01,7.73006e-01,-4.33773e-01,-1.13920e+00,5.80431e-02,3.95208e-01,2.10274e-02,6.96787e-02,4.97815e-01,6.51328e-01,-8.17646e-01,-1.20393e-01,-5.97596e-01,7.58110e-02,-3.17713e-02,-5.46468e-01,4.09803e-01,1.75314e-01,-7.61176e-02,-3.37364e-02,-1.61519e-01,-2.37192e-02,-1.78728e-01,1.46149e-01,1.53113e+00,-3.99808e-01,-2.41591e-01,-8.14051e-01,1.51364e-01,8.35807e-02,1.26979e-01,-1.71269e-01,-3.26918e-01,
-2.60743e-01,-9.09768e-01,-5.80830e-01,4.76980e-02,1.78306e-01,-3.59588e-01,2.81540e+00,-4.38074e-01,-4.78529e-01,4.96424e-02,-5.15093e-01,-1.27729e+00,6.76711e-01,-6.82965e-01,9.38346e-02,3.75366e-01,6.43630e-01,-1.65396e-01,5.77659e-01,1.47816e-01,1.02498e+00,6.16700e-01,-3.42389e-01,1.65792e-01,6.74878e-01,-7.54586e-02,8.60547e-01,1.16314e+00,-6.09724e-01,-8.95291e-01,2.41253e-01,1.08726e+00,1.45952e+00,-8.25067e-01,8.98254e-01,-1.80437e-01,4.26407e-02,1.96075e-01,-1.10658e-02,-1.00356e-01,3.45677e-01,1.77437e+00,-7.82318e-01,-8.85929e-01,5.71125e-01,4.32563e-01,-3.18140e-01,9.53340e-01,4.18012e-01,-1.14025e+00,
2.03797e-02,3.77457e-02,-4.26919e-02,2.60576e-02,-2.69997e-03,-1.48431e-02,-2.22991e-02,3.58022e-02,-2.39594e-02,-1.81414e-02,-3.38065e-02,2.81941e-02,-5.10922e-02,8.71913e-03,-4.46310e-02,-3.08392e-02,-2.47757e-02,-8.56986e-03,2.78910e-02,-3.06574e-02,-3.32116e-03,-4.76072e-02,4.95700e-03,1.80256e-02,-4.40888e-02,-4.61514e-02,-2.44463e-02,-3.33755e-02,-1.21739e-02,3.53615e-02,-4.57813e-02,-2.10368e-02,-1.01115e-02,-5.30714e-02,-1.08448e-02,2.89577e-02,2.43094e-02,-5.77745e-02,8.51066e-03,-6.53244e-03,-1.96244e-02,1.79400e-02,1.96290e-02,-4.92127e-02,-4.43216e-02,-2.11080e-03,1.42734e-02,4.03853e-03,-4.63009e-02,-2.30474e-02,
-4.97565e-01,6.16181e-01,2.08276e-01,8.80707e-03,2.37379e-01,1.18872e-01,2.28989e-02,2.67645e-01,-5.46536e-01,7.38434e-01,9.73466e-01,4.47210e-01,1.16898e+00,-2.44406e-01,4.52008e-02,-8.41022e-01,-1.26071e-01,1.48588e-01,-1.88101e-01,-2.29087e+00,-1.34668e-02,-1.60734e-01,1.29354e+00,-1.20870e+00,5.35986e-01,1.03616e+00,1.49950e+00,-5.68369e-01,9.25699e-01,-4.86150e-01,-7.52771e-01,1.16639e+00,-1.91352e+00,7.59561e-01,-1.50148e+00,1.49579e+00,4.04638e-02,1.01721e-01,1.03083e+00,5.32308e-01,3.50809e-01,-2.99821e+00,-4.57011e-01,-1.10112e-01,-2.37243e-01,8.02689e-02,-2.94331e-01,-5.02856e-01,-7.24437e-01,1.55703e+00,
-2.08558e-01,5.04415e-01,-8.09145e-02,-8.24335e-03,-1.90963e-01,5.71080e-02,-5.70586e-03,1.31160e-02,1.60567e+00,1.21632e+00,2.83481e-01,-3.95541e-01,2.02201e-01,1.46466e-01,8.55985e-01,-4.56229e-01,2.14083e-01,1.30093e-01,4.51687e-01,6.09969e-01,-1.38494e-01,1.11231e-02,-3.14352e-01,-8.42978e-01,-7.35681e-01,-2.29474e-01,-1.39355e-01,-5.93901e-01,5.40170e-01,-1.34761e+00,-3.74913e-01,1.75185e-01,-3.50002e-02,-6.73682e-02,-3.25853e-01,-2.82797e-01,-3.72956e-02,1.12306e-01,-1.05918e-01,2.33370e-01,4.92078e-02,8.40046e-01,2.97547e-01,-5.46556e-01,3.00714e-02,-2.50514e-01,-3.44505e-02,2.09471e-01,-2.59306e-02,-5.56973e-02,
2.34962e-01,3.97967e-01,1.19761e-02,-2.04314e-02,-2.80555e-01,-3.60781e-03,-9.93181e-01,-9.78615e-01,1.13333e-01,-1.24216e-01,-4.97097e-02,-4.06574e-01,-4.04921e-01,-4.11782e-01,-3.52443e-01,-1.41485e-01,-1.81829e-01,-5.18060e-02,-7.22527e-01,-2.22191e-01,1.04398e-01,-9.97688e-03,-4.67553e-02,-1.03933e-01,-7.46578e-02,5.20061e-02,-5.06541e-02,-2.70079e-01,-1.47545e-01,-6.32361e-02,2.49383e-01,5.46138e-01,-1.81696e-01,1.46668e-01,1.83965e-01,4.22172e-01,-4.25273e-02,-7.42776e-01,6.79984e-02,1.18999e-01,-1.17338e-01,8.47243e-01,-2.73521e-01,5.54174e-02,-6.98943e-02,-9.74010e-02,-8.59578e-02,2.25558e-01,1.83307e-02,1.61315e-01,
8.85922e-03,6.90820e-02,-1.76400e-01,-3.76863e-02,3.26470e-02,-5.75588e-02,4.24779e-01,7.44420e-01,-6.01721e-01,-4.25830e-01,2.19374e-01,3.19416e-01,2.46922e-01,3.17567e-01,3.31195e-01,4.38586e-01,-4.45992e-01,-1.17125e-01,5.63177e-01,-3.72209e-01,-2.91744e-01,5.54533e-02,4.67483e-01,6.02047e-01,-4.65954e-01,-5.89255e-02,-8.01416e-01,5.51446e-01,-1.72187e-01,5.46708e-01,-3.10478e-03,-1.40711e-01,-7.57977e-02,-3.00460e-01,5.17347e-01,3.19109e-02,-2.09331e-02,-9.17035e-02,1.02264e-01,2.66203e-01,3.13692e-01,7.34399e-01,4.91978e-01,-2.50684e-02,-9.20375e-02,-5.19669e-01,-8.77932e-02,-2.33976e-01,4.47923e-02,3.90739e-02,
2.41739e-01,-1.23808e-01,-1.68652e-01,2.77807e-02,1.55276e-01,3.83259e-02,-3.14110e-01,9.17019e-01,-2.22417e-01,8.26831e-02,6.88428e-02,2.88844e-01,2.45424e-01,1.56802e-01,8.94330e-02,2.01978e-02,-2.64569e-01,-9.10946e-03,-3.56942e-01,6.99951e-02,-1.02104e-01,-9.97171e-03,5.93217e-02,1.28416e-01,2.17356e-01,1.56676e-01,5.67693e-01,1.87575e-01,1.62892e-01,8.74903e-01,-1.95701e-01,-7.67867e-02,-2.26676e-01,1.35508e-01,5.93238e-02,1.92025e-02,-4.34133e-02,-1.74488e-01,-2.45925e-02,-1.39937e-01,-2.75890e-01,-6.20531e-01,1.21426e-01,6.02391e-01,-1.51436e-01,-3.08710e-01,1.41137e-01,-6.13260e-02,-5.25397e-02,-1.46307e-01,
1.19379e-02,-4.05108e-02,-4.61737e-02,4.08235e-02,4.24984e-02,-1.93057e-02,1.92759e-02,-5.98588e-02,-1.44414e-02,1.35301e-02,-5.41522e-03,-9.13579e-03,-5.68358e-03,4.53284e-03,-1.94027e-02,-4.44434e-02,-2.12121e-02,3.78633e-02,6.35400e-03,-1.88028e-02,3.35759e-02,-1.16581e-02,-4.17801e-02,-4.46457e-02,1.48335e-02,1.33925e-02,-9.99068e-03,-3.38377e-02,-3.21067e-02,-1.44909e-02,-1.92288e-02,-2.92686e-02,-2.19077e-02,-4.20035e-02,-1.40561e-02,-3.81464e-02,3.54332e-02,2.63848e-02,-6.60600e-03,3.59980e-02,2.05651e-02,4.57365e-03,-5.59312e-02,-5.30221e-03,-4.11624e-02,2.36690e-02,3.77378e-02,-3.65861e-02,2.02161e-02,4.40453e-02,
-3.41064e-02,-2.85946e-01,1.21492e-02,-3.45904e-02,8.33693e-02,-2.26569e-01,1.01900e+00,2.98449e-01,8.04703e-01,1.19876e-01,1.41528e-01,-4.61669e-02,-3.55970e-03,9.17040e-03,1.06530e+00,2.03994e-01,4.46882e-01,-1.83694e-01,-6.25457e-01,-1.50411e-01,2.09347e-01,6.06347e-02,1.21887e-01,6.65188e-01,-1.35734e-02,9.61429e-02,-3.50701e-01,4.87007e-01,-2.15069e-01,5.44153e-01,-5.52882e-02,2.69117e-01,-6.92486e-02,-6.21168e-01,6.13107e-01,-2.48782e-01,-5.73577e-03,-1.34232e-01,2.12044e-01,-2.74169e-02,-4.92615e-02,-9.16743e-02,-3.36614e-01,4.78524e-01,5.20479e-01,2.24929e-02,3.20159e-01,-7.51762e-02,-7.65507e-02,-2.46047e-01,
3.41143e-01,1.12242e+00,9.52786e-01,-2.06722e-02,-1.24691e+00,-1.26383e-01,-1.97368e+00,2.31189e+00,6.74200e-01,3.87305e-01,-6.06111e-01,-3.91995e-01,4.29247e-01,1.84743e-01,1.02235e-01,2.72487e-01,-3.74020e-01,1.05050e-01,7.94944e-01,4.66877e-01,8.66944e-01,-1.35941e-01,1.50959e+00,5.59766e-01,5.91754e-01,7.60827e-01,1.07374e+00,6.86874e-01,-4.79421e-01,5.34770e-01,7.05934e-01,6.00184e-01,-9.87659e-01,-4.39716e-01,3.66941e-01,-3.50101e-01,4.28339e-02,3.57632e-02,2.40010e-01,3.18645e-01,-7.78022e-01,5.64639e-01,-4.94566e-01,4.19327e-01,3.44198e-01,-5.44590e-01,7.20501e-01,-6.68448e-02,2.79995e-01,-2.94944e-01,
-3.32612e-01,1.31308e-01,3.79739e-02,-3.85074e-03,-4.30791e-01,1.75223e-03,7.80426e-02,2.86861e-01,-1.12067e+00,2.20032e-01,-3.44200e-01,-4.21346e-02,-9.07346e-02,1.76468e-03,-1.57868e-02,-1.96375e-03,-1.67042e-01,1.77911e-01,-8.86931e-02,3.13661e-02,1.62165e-01,-4.11071e-03,8.89936e-02,-4.13378e-01,1.54999e-01,6.45285e-02,-6.88452e-01,-2.89175e-01,-1.05442e-01,5.42029e-01,2.17990e-01,1.74148e-01,-2.13010e-01,2.78535e-01,-1.71281e-01,-4.37264e-02,-4.42849e-02,-8.41567e-03,5.99474e-02,-1.19518e-02,3.73663e-02,-5.90286e-01,-2.06080e-01,-2.33817e-01,-7.30408e-02,-1.45982e-01,-2.50531e-01,1.98361e-02,2.89969e-02,7.11598e-01,
-7.50042e-01,1.35125e-01,1.51864e-01,-4.54445e-02,-3.72218e-01,-7.64027e-02,5.14572e-01,9.52510e-01,1.64332e+00,5.72147e-01,-1.02470e+00,9.00398e-02,6.94625e-01,-2.81831e-01,4.29622e-01,-1.31173e-01,1.81398e-01,5.13785e-01,1.09175e+00,-2.98041e-01,-8.63215e-02,9.61986e-02,-4.72509e-01,2.98923e-01,3.95955e-01,-3.55718e-01,-7.07838e-01,2.81882e-01,-9.17845e-01,5.97830e-02,5.08467e-01,-6.68334e-01,1.01688e+00,2.91202e-01,3.96048e-01,-1.40895e-01,-3.51468e-02,-2.43744e-01,-1.41542e-01,6.23242e-01,-9.41275e-02,2.24280e+00,-7.97693e-02,8.42987e-01,4.94238e-01,9.42439e-02,2.20709e-01,1.78590e-03,8.57169e-02,-3.41106e-01,
-2.10279e-02,-4.45547e-02,-4.69292e-02,-4.05358e-02,2.94662e-02,-3.90211e-02,9.45909e-03,-3.38256e-03,5.04315e-03,-3.95551e-02,-2.72649e-02,-3.60474e-02,-4.96820e-02,2.16628e-03,7.11211e-03,-4.22217e-03,-9.12231e-03,-4.70887e-02,-3.56051e-02,-3.94605e-02,-2.06584e-02,-2.57951e-02,-3.13470e-02,-1.81559e-02,3.18398e-02,4.19911e-02,-3.15756e-02,3.22988e-02,-4.56339e-02,4.23268e-02,4.48569e-03,-4.52773e-02,5.74000e-03,-3.80172e-03,-1.17492e-02,2.54341e-02,3.78047e-03,-3.11447e-03,-4.01544e-02,-1.89280e-02,1.92058e-02,3.32924e-02,1.02114e-02,9.34696e-03,1.59034e-02,-3.25947e-02,-3.92639e-02,-5.13301e-02,-1.67438e-02,-7.02206e-03,
-1.95162e-01,5.27051e-02,2.96053e-01,4.29807e-02,-1.12682e-01,-2.18679e-02,-7.62149e-01,5.22917e-01,-5.00787e-01,1.24648e-01,4.71258e-01,-8.85883e-02,3.44368e-01,4.47090e-01,3.64681e-01,-2.30859e-01,-2.80214e-01,9.82598e-02,-3.07924e-01,7.16517e-01,-1.04276e-01,-2.17405e-01,2.11716e-01,4.24581e-02,2.18843e-01,-2.74205e-01,-1.10718e+00,2.96789e-01,-2.99602e-02,3.77872e-01,-8.84113e-02,1.43922e-01,3.00797e-01,4.76137e-01,2.65502e-01,-4.47619e-02,-4.43550e-02,2.34095e-02,-1.24739e-01,-2.53800e-01,-1.26964e-01,6.85373e-01,3.18135e-01,7.31819e-01,-6.87692e-02,-4.07359e-01,-3.52283e-01,1.67134e-01,-2.99146e-02,3.34273e-01,
-3.15569e-01,-1.77849e-01,-3.98839e-02,6.02233e-03,2.40583e-01,-1.02897e-02,-6.08487e-01,3.64426e-01,-5.03212e-01,4.36315e-01,3.88070e-02,2.33759e-01,-6.57690e-03,1.84439e-01,4.78642e-01,-1.04209e-01,-6.51173e-02,-2.39855e-01,-5.39887e-01,2.59904e-01,-2.00973e-01,-4.07342e-01,5.88945e-01,4.80494e-01,4.81202e-02,-7.98484e-02,1.22666e-01,1.47437e-01,-1.10420e-01,-4.25875e-01,-4.19479e-02,-7.25495e-01,1.25635e-01,-2.76036e-01,2.95882e-01,-4.81392e-01,2.38333e-04,1.39756e-01,3.11982e-01,-2.32259e-01,-1.65785e-01,-5.51429e-01,3.75420e-02,9.40706e-01,3.69976e-02,5.45223e-02,2.12672e-01,-1.23919e-01,-2.79038e-01,4.62538e-01,
1.08640e+00,-7.84054e-02,-2.54420e-01,-4.99840e-02,-3.73418e-01,3.67413e-01,-5.91459e-01,-3.26764e-01,1.10849e+00,3.05056e-01,4.91883e-01,-2.33289e-01,-1.42510e+00,2.04156e-01,8.24411e-01,-9.01416e-02,-1.89995e-01,7.73868e-01,1.20190e+00,-1.14976e-01,1.08748e+00,-2.29603e-01,-2.65835e-01,-1.84903e+00,4.95286e-01,1.66181e-01,1.08969e+00,1.25109e+00,5.69505e-01,1.47221e+00,-3.10371e-01,-3.98421e-02,2.12113e-01,-6.23489e-01,1.68534e-01,4.10829e-01,5.91197e-03,-8.99420e-02,-9.82845e-02,1.77599e-01,-1.75808e-01,-6.04720e-01,-2.56535e-01,-5.10616e-01,1.19544e-01,3.98529e-01,2.16394e-01,-9.51875e-03,-2.48991e-01,-9.40649e-01,
2.04449e-01,6.48787e-01,-4.74029e-02,-3.16606e-03,-1.04321e-01,-1.13393e-02,2.20422e+00,2.54740e-01,4.44143e-01,4.00469e-01,3.80880e-01,3.14796e-01,-8.20625e-01,-1.82998e-02,-8.48051e-02,-1.55709e-01,-2.69929e-01,-2.17529e-02,2.54474e-01,-3.72354e-01,2.43129e-01,-1.76882e-01,-4.24270e-02,1.03912e+00,1.56123e-01,7.84291e-01,1.19329e+00,-5.12612e-01,-3.11169e-02,-6.12295e-01,-3.63206e-03,3.65334e-02,-2.92462e-01,-7.42868e-01,-1.62749e-01,-8.50426e-01,2.17845e-02,-3.51659e-01,-6.20096e-02,1.94418e-01,8.44593e-02,5.97501e-01,1.70611e-01,1.27520e+00,2.31114e-01,-3.38482e-01,-2.37909e-01,3.92076e-01,-4.81003e-01,2.66529e-01,
2.23138e-01,4.32062e-01,6.74931e-02,-1.96263e-02,-2.96647e-01,-3.20112e-01,-5.80394e-01,-4.69803e-01,1.43203e-01,-2.30731e-01,1.30510e-01,3.32688e-01,6.29946e-02,-3.23726e-01,1.37516e-01,-1.12876e+00,-6.58664e-01,3.55592e-01,8.41349e-01,-7.82228e-01,-3.01470e-01,2.00640e-01,3.21542e-01,-2.62356e-01,-9.39747e-02,-1.22859e+00,2.66007e-01,2.37195e-01,1.68086e-01,1.59848e-01,6.17223e-01,1.35927e+00,-1.55471e+00,-1.05619e-01,-1.45317e-01,1.30291e-01,-8.56923e-04,-6.24121e-02,6.24458e-02,3.41460e-01,-1.89713e-01,-5.76755e-01,4.12456e-01,-7.92640e-01,-4.80707e-01,2.26278e-01,-8.60806e-02,-5.64998e-02,4.33783e-01,-1.41920e-01,
1.15307e-01,-2.41603e-01,-4.51520e-02,-7.76747e-04,-3.30265e-02,-1.76568e-01,-7.43238e-01,6.51358e-01,-1.07862e+00,5.23799e-01,2.89729e-01,-6.07406e-02,4.28905e-01,-1.04170e-01,3.55129e-02,-1.09220e-01,-5.76706e-01,-1.05216e-01,-5.68547e-02,3.54432e-01,3.75887e-01,5.70910e-02,-2.16482e-01,-1.26966e-01,3.99869e-01,-1.85103e-02,5.64743e-01,-2.30025e-01,-1.28221e-01,-8.12061e-03,-1.91654e-01,-3.34555e-01,-6.80665e-02,-2.28705e-01,1.94161e-02,1.71632e-01,-4.45392e-02,1.77310e-01,-1.45301e-01,1.19926e-01,-1.98262e-01,-3.45933e-01,-2.62755e-01,-1.75259e-01,-2.06939e-01,3.63314e-01,-1.97254e-01,1.07758e-01,1.60480e-01,-5.09152e-01,
-1.35999e-01,-7.95731e-02,-3.99640e-02,2.99377e-02,1.33829e-01,-7.29335e-02,4.68621e-01,-5.30359e-01,9.90331e-02,1.76688e-01,4.91409e-02,-8.33723e-02,2.31572e-01,-3.87017e-02,1.26000e-01,-8.39279e-03,1.61350e-01,-9.54044e-03,3.27719e-01,-4.85220e-02,5.57172e-02,-1.31938e-02,-1.66819e-01,-2.58623e-01,8.15231e-03,-5.09135e-02,-1.99293e-01,-1.73990e-01,6.27476e-02,-9.53022e-02,-2.58202e-02,5.01937e-02,5.83939e-02,1.39331e-02,-1.41532e-01,6.81367e-03,4.51650e-02,7.56266e-02,-5.45398e-02,7.85408e-02,2.10603e-02,-8.60305e-02,2.50507e-02,2.13149e-01,1.35293e-01,3.57069e-02,1.55279e-02,-2.39753e-02,-2.57288e-02,-5.50470e-02,
-2.18526e-01,-1.61645e-01,3.97928e-03,-3.52265e-02,-1.03216e+00,1.04851e-01,2.48923e+00,1.04412e+00,1.15170e+00,8.08445e-02,-5.37766e-01,-3.61621e-01,1.48725e+00,-1.02184e+00,-1.06356e+00,1.79701e-01,2.81882e-01,1.43286e-01,-2.69111e-01,5.80615e-01,1.27008e-01,-4.88674e-01,4.70333e-01,-1.63066e+00,8.30305e-01,-1.62999e-01,2.24126e-01,2.07419e+00,1.20228e-01,1.30030e+00,-2.40730e-01,1.30654e+00,3.59465e-01,6.75829e-01,8.70785e-01,1.39067e+00,-2.59255e-02,2.79730e-01,-8.88029e-02,-1.31922e-01,-2.31589e-01,-5.95354e-01,-8.48234e-02,-3.32972e-01,9.29280e-02,4.06822e-01,4.35992e-01,-2.00956e+00,-3.46892e-01,-6.83033e-01,
1.33589e+00,5.84053e-01,8.74222e-01,-3.95852e-02,-2.90229e-01,-8.43604e-02,2.98777e+00,5.27355e-01,7.47406e-01,1.99130e+00,7.47451e-01,8.50181e-01,1.19596e+00,6.30281e-01,-2.75924e-01,-3.30046e-01,-9.69704e-01,1.45838e+00,6.20811e-02,1.11288e+00,-3.57025e-01,-3.83496e-01,8.11972e-01,7.58305e-02,1.67729e-01,-7.79426e-01,5.46379e-01,8.35324e-01,-2.03522e-01,3.41366e-01,1.55542e-01,-4.15283e-01,-5.50409e-02,9.52625e-02,2.81171e-01,2.00509e-01,-4.70076e-02,-4.26199e-01,-2.75333e-01,-7.00723e-02,-8.86370e-01,-2.35746e+00,1.02128e-01,-9.43837e-01,5.15679e-01,-1.35530e+00,2.80146e-01,3.49079e-01,-9.22005e-01,6.79464e-01,
9.35078e-01,2.74921e-01,-8.29167e-01,1.97176e-02,-3.08929e-01,-1.40558e-01,-1.40743e+00,-2.01394e+00,4.80773e-01,-6.27600e-01,-7.67156e-01,5.23254e-01,5.53255e-01,-9.67071e-02,-6.01049e-01,-7.47258e-01,-2.14498e+00,8.39542e-01,8.31887e-01,8.90239e-01,4.66880e-01,-2.06785e-01,2.68334e-01,-1.24841e+00,-7.49551e-01,-5.21631e-01,4.86250e-01,6.49642e-01,4.15161e-01,4.24137e-01,2.42168e-01,-7.89351e-02,2.96808e-01,3.28330e-01,3.95197e-01,-5.80655e-01,-1.61968e-02,-3.33287e-01,-4.16723e-02,-4.53187e-02,-2.54127e-01,-1.19740e+00,-1.59063e+00,-4.93503e-01,-8.68031e-01,8.62567e-01,3.14251e-02,5.43225e-01,-1.02126e-01,-7.13025e-01,
-2.03111e-01,-2.95264e-01,2.54254e-01,5.29871e-02,-4.20006e-01,1.06524e-02,-7.37298e-01,-6.23416e-01,-1.23274e+00,-4.75445e-01,-7.90546e-02,-3.49832e-01,1.02292e-01,-1.07802e-01,1.43624e-01,1.65119e-01,-3.62397e-01,2.06972e-02,-7.57085e-01,-7.07342e-02,4.80367e-02,7.79787e-02,4.17525e-01,-2.88193e-01,8.76521e-02,-1.57225e-01,-4.81184e-01,7.78777e-01,-1.87008e-01,1.65960e-01,1.12650e-01,3.95496e-01,3.67642e-01,1.59222e-01,4.23533e-01,1.00840e-01,-1.08368e-02,1.01585e-01,4.56070e-02,-1.14625e-01,1.91281e-01,6.15942e-01,-8.37196e-02,7.56378e-02,-4.85391e-02,1.90129e-01,-2.76046e-01,1.93993e-01,2.00366e-01,4.23455e-01,
-6.46395e-02,2.91115e-01,2.21402e-01,-3.42299e-02,-1.07526e+00,-5.06495e-02,3.75747e-01,-5.36860e-01,-1.03747e+00,1.11777e+00,-5.20154e-01,-1.65744e-01,1.17281e-01,-6.38641e-02,6.47535e-01,-2.28662e-01,-4.72703e-01,3.13315e-01,4.48449e-02,6.99538e-01,-4.00716e-02,9.95316e-02,6.38309e-01,1.34732e-01,-4.79725e-01,-1.41417e-01,-9.63754e-02,5.39756e-01,1.54604e-01,2.52525e-03,5.21141e-01,8.61746e-01,-4.62275e-01,5.00590e-03,-9.79518e-02,4.97848e-01,-2.45918e-02,-3.85810e-01,-1.32001e-01,2.48188e-01,-2.47124e-01,7.19144e-01,-3.39928e-01,-3.26514e-01,1.56396e-01,5.43736e-01,6.36577e-02,1.69128e-01,2.87881e-01,-5.12919e-01,
2.09826e-02,4.05758e-02,-3.73101e-02,1.21668e-02,1.93170e-02,-1.11857e-03,-1.14047e-02,-1.16900e-02,-3.93189e-02,3.17931e-02,-3.73302e-02,-1.18318e-02,3.41842e-02,1.99885e-02,-1.71402e-02,-4.76033e-02,5.09987e-04,1.23916e-02,-1.36344e-02,-3.87353e-02,-2.80574e-02,1.19866e-02,-3.34767e-02,-1.12853e-02,-1.71320e-02,-7.55387e-04,-1.98035e-02,-1.47582e-02,-3.01202e-02,1.95868e-02,-3.00615e-02,-1.52424e-02,-1.26866e-02,-3.82632e-03,-1.89064e-02,2.57291e-02,3.52735e-04,-1.53848e-02,-2.32242e-02,-3.22762e-04,3.95238e-03,-5.21874e-02,-2.61391e-02,3.12946e-02,-3.50596e-02,-2.41762e-02,-1.76734e-02,2.26490e-02,2.87076e-02,6.96302e-03,
-5.58216e-01,1.16161e-01,-7.77368e-01,-4.31353e-02,-1.58837e-01,1.82883e-01,-4.07228e-01,3.96947e-01,-2.45559e-01,3.94510e-02,3.59285e-01,-3.05317e-01,-1.01412e-02,-2.63634e-01,2.92462e-01,-9.99094e-01,-7.23660e-01,-1.66816e-01,-1.62289e+00,-8.82781e-01,-2.67233e-01,-3.68717e-03,6.42110e-01,2.12793e+00,6.57436e-01,-1.27967e-01,1.65491e+00,-1.27071e-01,1.46342e-01,-2.54616e-01,-5.23811e-01,5.73537e-02,-1.33216e+00,1.05534e+00,-1.04557e+00,3.73659e-01,2.55687e-02,-6.85669e-01,2.97432e-01,1.69158e-01,6.77184e-02,-1.04244e+00,-1.27481e-01,-1.77880e-01,-9.24755e-02,4.72213e-01,4.32632e-02,-3.75094e-02,-8.55426e-01,-1.68793e-01,
-2.75015e-01,-7.34672e-02,1.84426e-01,5.36255e-03,-2.86094e-01,7.05654e-03,6.56280e-01,-1.64677e-01,6.42022e-01,1.45668e-01,-1.17872e-01,-2.17659e-01,1.55332e-01,-2.55605e-02,4.18290e-01,-2.32033e-02,2.68302e-01,3.64908e-01,1.56612e-01,-2.78659e-01,1.72354e-01,-9.72744e-04,-9.60905e-02,-4.14400e-01,-9.77780e-02,-1.61292e-01,-4.26712e-01,-1.10472e-01,-2.04460e-01,1.68382e-01,3.49991e-01,5.04478e-02,2.95400e-01,-1.36092e-01,2.03739e-01,2.11552e-01,2.44646e-02,2.69487e-01,-3.41465e-02,4.60354e-01,1.70000e-01,2.09967e-01,-2.61244e-01,5.34654e-01,2.45165e-01,7.74151e-02,1.67459e-01,-7.58003e-02,7.58050e-02,-1.52410e-01,
9.52038e-03,
-3.43938e-01,
1.17782e+00,
-2.28142e-01,
-2.94988e-01,
-3.57871e-02,
-2.57523e-01,
-2.55493e-01,
-2.80859e-01,
-2.44372e-01,
-1.86254e-01,
-8.71022e-02,
-5.05961e-02,
-4.54913e-02,
-1.14590e-01,
-1.09015e-01,
-8.18204e-01,
-2.52141e-01,
4.37121e-01,
-1.66663e-02,
-3.17574e-01,
-6.49419e-02,
-8.84762e-01,
-2.53047e-02,
7.96853e-02,
-2.00398e-01,
3.20223e-01,
-3.33703e-01,
1.67162e-01,
-1.41451e-02,
-3.75398e-01,
-9.04706e-01,
5.01437e-02,
-2.57812e-01,
-6.07064e-03,
3.44036e-01,
-2.42754e-02,
