// The contents of this file are licensed under the Creative Commons
// Attribution 4.0 International License: https://creativecommons.org/licenses/by/4.0/
// Neural Network File Format by Kyle Julian, Stanford 2016
7,5,5,50,
5,50,50,50,50,50,50,5,
0,
0.0,-3.141593,-3.141593,100.0,0.0,0.0,-3.0,
60760.0,3.141593,3.141593,1200.0,1200.0,100.0,3.0,
1.9791091e+04,0.0,0.0,650.0,600.0,35.1111111,0.0,7.5188840201005975,
60261.0,6.28318530718,6.28318530718,1100.0,1200.0,100.0,6.0,373.94992,
-4.26116e-01,-1.36682e+00,1.82537e+00,-3.59894e-01,7.81783e-01,
1.41898e-02,-1.74668e+00,2.10078e+00,1.99607e-01,-6.25995e-01,
2.36925e-01,-3.87744e-01,3.35238e-01,-7.08328e-02,-8.72241e-01,
1.89836e-01,1.80645e+00,2.28501e-01,1.39699e+00,-1.70341e+00,
3.36428e+00,-9.59754e-03,-2.82900e-02,-1.82374e-03,-3.21689e-03,
-1.16646e-03,-1.30479e+00,-6.46313e-01,3.84975e-01,-1.72187e-01,
5.95040e-02,-1.04445e+00,1.15267e+00,-4.91381e-02,2.74068e-01,
-8.85259e-02,-6.00468e-01,-1.68808e-01,3.20975e-01,-1.99850e-01,
-3.60641e-01,7.23289e-01,-1.27592e+00,3.65215e-02,-9.16054e-03,
1.74352e-02,-3.77868e-01,-1.15205e-01,3.97747e-01,-4.57395e-01,
1.19381e-01,-1.40394e+00,1.73194e+00,2.14848e-01,-5.30800e-01,
5.10919e-01,-1.45736e-02,7.27201e-02,-2.72957e-01,-5.83180e-01,
8.92236e-02,-9.12425e-02,-5.36878e-01,-1.93087e-01,2.59249e-01,
-1.06965e-01,2.92023e-01,-2.81651e-01,-3.79942e-01,3.51947e-01,
3.13856e-01,-8.41286e-01,-2.35311e-01,1.31289e-02,9.61032e-02,
-8.07936e-03,-5.63769e-04,-7.12403e-03,1.85073e-03,6.15519e-03,
1.42517e-01,9.97765e-02,-2.34522e-01,6.41164e-02,1.73711e-02,
1.20767e-01,-6.21179e-01,8.40395e-01,-9.66762e-02,7.38722e-01,
-1.20072e-01,-2.51172e-01,2.61240e+00,1.54528e-01,3.78212e-01,
1.71677e-01,2.17068e+00,-9.49588e-01,2.92661e-01,1.30445e-01,
-1.18201e-01,9.05917e-01,6.13212e-02,-5.08156e-01,6.41137e-01,
1.98566e-01,-1.69141e+00,6.35503e-01,4.44259e-01,-6.41840e-01,
-8.35745e-02,2.01827e-02,1.31306e-01,-4.65076e-01,-9.31595e-02,
-8.89577e-03,1.47801e+00,-1.76060e+00,-2.73348e-01,6.85236e-01,
-9.94530e-01,2.23245e-01,7.80545e-02,-9.29289e-03,-2.56348e-01,
6.38617e-03,-1.91506e-01,5.14769e-01,-8.52697e-01,8.48115e-01,
-2.97726e-01,-2.42926e-01,2.74442e-01,9.99968e-01,-1.18450e+00,
-4.84978e-02,8.98421e-01,9.47518e-01,2.80254e-01,-8.64377e-02,
-1.78505e-02,-1.84101e-01,-2.22805e-01,1.17964e-01,1.54774e-01,
3.33232e-02,1.36975e+00,-1.61050e+00,-1.07663e-01,4.95742e-01,
9.88630e-01,4.16651e-01,6.79299e-03,2.68351e-01,1.81104e-01,
4.98813e-04,3.57345e-01,1.12966e+00,-2.24096e-01,2.02364e-01,
5.63342e-02,3.65707e-01,4.77882e-01,-3.73783e-01,1.45331e-01,
8.52371e-02,-1.11661e+00,-2.96353e-01,3.85203e-01,-1.72235e-01,
1.01593e-03,9.71395e-01,7.92908e-01,3.48388e-01,-2.10291e-01,
2.50681e-03,1.24018e+00,-1.09202e+00,-2.73149e-01,1.62231e-01,
-1.35747e-01,-9.01627e-01,-5.81315e-01,-2.78672e-01,2.23302e-01,
-1.49513e-02,1.65010e-02,8.74109e-04,8.29948e-03,1.08247e-02,
1.29122e-01,-1.53063e+00,1.50180e+00,1.12170e-01,2.43414e-01,
1.03370e-01,5.82161e-02,-7.13023e-02,-1.59570e-01,-2.17338e+00,
-1.08974e-02,1.36867e-02,1.99981e-03,-1.92423e-03,-1.66569e-03,
3.00335e-01,1.40717e+00,-8.56730e-01,2.27232e-01,-1.62827e-01,
1.99644e-02,-2.69606e+00,9.83252e-01,5.15997e-01,-7.62190e-01,
2.06727e-02,-4.76237e-01,-1.22935e-01,-1.66794e-01,-2.55800e-02,
-3.72325e-02,-1.68642e+00,-3.42497e-02,4.62046e-02,-7.03736e-01,
9.19305e-02,1.05597e+00,-1.07173e+00,-3.41911e-01,4.11172e-01,
3.55212e-01,1.22531e+00,4.38395e-01,7.65531e-01,-3.77483e-01,
-2.08839e+00,-3.38612e-02,2.63981e-03,3.26788e-01,1.90740e-01,
1.46660e-02,5.75711e-01,-7.50375e-01,1.29255e+00,-1.54350e+00,
-1.97753e-01,2.14334e+00,-2.00387e+00,7.74846e-02,-6.12016e-01,
-3.74503e-01,
-3.77042e-01,
-3.55780e-01,
-1.67096e-01,
9.16086e-01,
-2.07760e-01,
-5.05616e-01,
1.28134e-01,
-1.01471e-01,
-5.78752e-02,
1.38487e-01,
7.15103e-02,
2.87682e-02,
-7.55066e-03,
1.51556e-01,
-1.39750e-02,
-2.08452e-02,
1.63808e-01,
2.81265e-01,
2.18265e-01,
1.72861e-01,
-3.26585e-01,
-1.81639e-02,
-3.51004e-01,
-5.89766e-02,
9.67817e-02,
-2.62423e-02,
1.08033e-01,
7.14921e-02,
-5.61560e-01,
4.30960e-01,
1.43072e-02,
-6.35451e-02,
6.52215e-02,
-1.75972e-01,
3.58678e-01,
2.28314e-01,
-2.75654e-02,
-4.94982e-01,
-8.51079e-01,
-1.36558e-02,
-3.19273e-01,
-1.50788e-01,
4.68159e-02,
-2.75378e-01,
-5.82062e-01,
1.24071e-01,
-3.14303e-01,
4.61445e-01,
-1.18388e-01,
-2.57284e-02,-2.36522e-02,5.33226e-03,-4.79611e-03,-4.35576e-02,-2.49690e-02,-1.48108e-02,3.34024e-04,-5.50894e-02,3.56814e-02,-1.63375e-02,3.01327e-02,-2.55920e-02,-1.74910e-04,4.43188e-02,-2.19289e-02,-1.49489e-02,1.78137e-02,7.72056e-03,-2.70143e-02,-4.61690e-02,2.51348e-02,-3.61942e-02,-5.61861e-02,-1.78958e-02,-5.70119e-02,-5.74254e-02,-5.00563e-02,-2.56907e-02,2.70760e-02,-1.53894e-02,-9.49664e-03,-4.00265e-02,-5.10351e-02,-1.60994e-02,1.88030e-03,-4.81571e-02,7.33657e-03,-1.31476e-02,-4.95243e-02,1.69441e-02,-1.78048e-02,3.65598e-02,2.79935e-03,3.62920e-02,-1.57837e-02,-7.07921e-03,-1.20638e-02,3.16389e-02,2.37082e-02,
-2.18614e-01,9.11912e-01,-8.40650e-01,-1.91406e-01,-2.75153e-02,-7.17804e-01,2.22887e+00,5.44677e-02,-1.36135e-01,1.22709e+00,1.12116e+00,-3.98822e-01,-4.32472e+00,1.31661e+00,-2.49738e-01,3.33424e-02,-2.69600e+00,5.17701e-01,2.84631e-01,-2.49039e+00,-1.48678e+00,1.30570e+00,-1.01538e+00,-1.13392e-01,-8.60383e-01,1.64189e-01,-2.45024e+00,-5.99888e-01,-6.55457e-01,-6.35909e-02,-6.07489e-02,-2.41051e+00,-1.18908e+00,3.52026e-01,-3.22535e-01,-9.52107e+00,-1.47902e+00,-4.35137e-02,1.01652e+00,3.90305e-01,3.09371e-02,-2.78082e-02,5.42248e-01,-1.57047e+00,-5.63086e-01,-3.00980e-02,-7.72958e-01,-2.79747e-01,4.13284e-01,-4.88297e-02,
-1.24761e+00,-3.76502e+00,2.28054e-01,4.84981e-01,-9.49598e-02,-2.14886e-01,-4.82349e-03,-1.42252e+00,-2.40014e-01,-5.77037e-01,-3.87157e-01,9.01200e-01,-5.41884e-02,1.26610e-01,-1.48385e-02,3.12515e-02,-7.19599e-03,-1.01879e+00,-2.86248e-01,-1.98213e-01,-1.05835e+00,5.05825e-02,5.03439e-01,-8.10826e-02,-1.82306e-01,1.70427e+00,2.76436e-01,-7.55162e-01,-2.05155e-01,2.26262e-02,-6.04663e-01,-4.14774e-01,1.51849e+00,-3.77182e-01,-9.68095e-01,3.72761e-01,2.27600e-02,-8.36215e-03,3.23890e-02,8.59652e-02,2.32219e-02,2.95857e-01,-6.87449e+00,3.62839e-01,-6.14322e+00,1.80236e-01,1.07394e-01,-3.55305e-01,8.52593e-02,4.16041e-01,
1.81947e-01,1.33912e-02,1.03495e-01,-9.62433e-02,8.69602e-03,9.39933e-01,-6.33676e-01,-1.80077e-01,-1.17958e+00,-1.68241e+00,-8.93241e-02,-1.61418e-01,5.18808e-01,6.53232e-01,-5.72633e-02,2.90303e-02,1.45386e-01,-1.33834e-01,-1.38091e-01,-4.82874e-01,7.32869e-02,1.53897e-01,1.37266e-03,-1.60221e+00,1.16977e-01,2.26952e-01,-1.18551e+00,-4.90157e-02,7.03996e-01,-1.29455e+00,2.34296e-01,2.95583e-01,5.13513e-01,-3.82809e-02,1.22411e+00,-1.28774e+00,7.53411e-01,3.23903e-02,-4.84612e-01,-3.67858e-01,-4.52730e-02,-1.34693e-01,2.80383e-01,2.92483e-01,3.83694e-01,-9.66331e-02,-1.06955e-01,-1.68910e-01,-9.75694e-02,6.25205e-01,
2.85755e-02,2.03540e-02,3.89254e-02,-2.36538e-02,-6.36706e-03,-1.54541e-02,3.70287e-02,-2.66411e-02,2.01518e-02,4.26160e-02,-4.82446e-02,2.34702e-02,-3.01620e-03,-2.55933e-02,1.00413e-03,-3.94010e-02,-4.46734e-02,-4.23408e-02,-2.63079e-02,-1.15215e-03,-4.47546e-02,-3.93619e-02,1.85248e-03,-1.47432e-02,-3.51660e-02,-2.25495e-02,-2.32481e-02,-2.11972e-02,-6.31384e-03,3.25048e-02,-3.62754e-02,-2.28891e-02,-1.60627e-02,-4.69298e-02,-1.59726e-02,2.19532e-02,6.08702e-03,2.39822e-02,-2.73162e-02,-2.06056e-02,-4.93693e-02,1.16715e-02,-1.17775e-02,-2.87723e-02,-4.65621e-02,-3.03078e-02,-3.91812e-02,2.29039e-02,-2.82879e-02,1.40313e-02,
4.93017e-01,1.43351e-02,2.45149e-01,-1.07882e-01,-1.95085e+00,1.68048e-01,2.85775e-01,1.17999e-01,5.40144e-01,-3.10951e-01,4.38126e-01,1.51776e-01,1.34173e+00,-1.23517e-01,-4.49784e-01,-2.58406e-02,-1.99643e-01,1.02084e-02,-1.39773e-01,1.47925e-01,-2.69643e-01,-3.84435e-01,1.11361e-01,3.06792e-01,8.04705e-01,1.85627e-01,3.90124e-02,-3.57800e-01,4.16984e-02,2.96584e-01,-7.33394e-01,-2.60333e-02,1.54698e-01,1.54683e-01,-3.16917e-01,-2.26008e-01,1.09207e-01,2.21259e-02,-1.13578e-01,-1.84804e-01,3.02034e-02,-1.00608e+00,1.52615e-01,-5.44608e-01,4.03871e-02,-7.02331e-01,4.33181e-02,8.62143e-01,2.18350e-01,-1.64736e-01,
-5.16212e-02,2.46022e-02,5.19701e-03,7.24102e-03,-4.73381e-02,2.51793e-02,1.99445e-02,3.43440e-02,8.00710e-03,4.14869e-02,-1.84450e-02,-4.35374e-02,1.51831e-02,2.28355e-02,-3.47420e-02,-3.79114e-02,-4.69185e-02,4.03494e-02,4.09838e-02,-1.25394e-02,-2.79292e-02,-3.80984e-02,-5.45312e-03,2.96224e-04,2.10915e-02,-4.50871e-02,-2.71307e-02,-5.11078e-02,-2.63413e-02,-3.59262e-02,-1.47429e-02,3.30501e-02,-2.33863e-02,-5.72868e-02,-2.02109e-02,-4.67218e-02,2.70974e-02,-1.23151e-02,-2.23750e-02,-1.36509e-02,1.04860e-02,1.05293e-02,-1.52921e-02,2.54299e-02,-5.09740e-02,-4.83808e-02,3.38038e-03,-5.56381e-03,-2.83271e-02,3.58513e-02,
-5.28303e-03,2.49541e-02,2.09734e-02,-4.80755e-02,-3.09410e-02,3.91869e-02,-6.27359e-03,2.35716e-02,4.00039e-02,-1.98866e-02,2.26435e-04,1.38433e-02,-4.17196e-02,-4.29130e-03,-4.06745e-02,-1.45939e-02,-2.54334e-02,-5.15734e-03,-5.75585e-03,-6.43996e-03,-6.72878e-02,3.08640e-02,-3.74008e-02,-2.19419e-02,-5.64866e-03,-6.10638e-02,-3.32324e-02,1.49923e-02,-4.13367e-02,-4.76608e-03,-5.78900e-02,-3.51982e-02,-3.85890e-02,-5.15918e-02,1.94671e-02,2.14930e-02,-6.95410e-02,-3.58305e-02,2.51617e-02,-3.66418e-02,3.62111e-02,4.46305e-02,3.26386e-02,-2.19629e-02,-4.80049e-02,-2.54594e-02,-1.72470e-02,-8.87547e-03,1.30608e-02,3.01065e-02,
-8.98927e-01,4.72883e-03,5.22706e-01,6.23907e-01,1.42219e-01,7.86602e-01,-1.48794e+00,4.91280e-01,-2.17655e+00,2.81461e-01,-3.29406e-01,-1.43633e-01,-4.65748e-01,-2.20217e-01,1.44516e-01,-5.11429e-02,-1.13122e-01,3.51922e-01,-7.04466e-02,-5.61738e-01,-5.99853e-01,-1.02209e+00,1.30604e-02,-1.46225e+00,1.77485e-01,-1.24472e-01,-1.21973e-01,-4.30393e-02,6.42517e-01,-9.81604e-01,-2.46051e-01,-5.75903e-01,4.60478e-01,5.27176e-01,1.04021e+00,2.23835e-01,5.14630e-01,4.35097e-02,-1.06927e+00,-1.68283e+00,3.52901e-02,1.87504e-01,3.02498e-01,-1.04112e-01,-7.65211e-01,-5.73511e-02,-3.70950e-01,9.15851e-02,-7.26989e-01,-4.58983e-01,
-5.80623e-02,-7.79515e-02,-3.16925e-02,-3.46005e-02,2.37032e-02,-2.89218e-02,-2.67494e-02,4.46033e-04,-3.66345e-02,-2.69112e-02,-4.61343e-02,2.34608e-02,-3.60126e-02,-3.32605e-03,9.78560e-03,-4.51929e-02,2.03525e-02,-8.17221e-03,2.95701e-02,-6.04792e-02,-1.90657e-02,-2.94761e-02,-5.88744e-02,-4.45010e-02,1.74705e-02,-2.13109e-02,-6.48355e-03,-4.13397e-02,2.59425e-02,4.02069e-02,-1.88782e-02,-9.33547e-03,1.59795e-02,-5.93466e-02,-4.71702e-02,-4.99768e-03,-3.45422e-02,-1.37362e-02,-7.50357e-02,1.00905e-02,1.48185e-03,3.49869e-02,9.81968e-03,-5.84987e-02,1.23556e-02,-5.82697e-02,-2.11336e-02,1.74229e-02,-5.44889e-03,-4.72347e-02,
-1.94415e+00,1.08152e-01,1.35860e+00,3.12200e-02,3.08969e-03,-1.67468e-01,3.89657e+00,-1.30883e+00,5.51658e-01,-4.02315e-01,5.26558e-01,-8.06038e-01,-4.57137e+00,-2.37311e+00,6.65095e-02,-2.07176e-02,-1.48914e-01,-8.96568e-01,4.67112e-01,4.48850e-01,-1.68308e+00,-4.10364e-01,8.03518e-01,7.00237e-01,-1.46089e+00,-3.19608e-01,-1.08754e+00,-3.27656e-01,-2.87844e-01,-2.91775e-01,3.52467e-01,-1.15292e+00,7.69056e-01,3.65517e-02,8.61723e-01,5.58341e-02,-1.06786e+00,1.94991e-02,-9.17678e-01,-1.19898e+00,-2.06523e-02,-2.07864e-01,-2.39039e-01,9.42427e-01,1.53247e+00,-4.16183e+00,2.65229e-01,-4.77628e-01,3.50585e-01,4.52674e-01,
-1.83125e-02,3.20378e-01,-1.15505e-01,-9.30479e-02,-1.64447e-01,4.80443e-01,-4.88888e-02,-7.67532e-02,4.57989e-01,-8.15251e-01,3.14548e-02,-1.82253e-01,5.77106e-01,-1.55790e-01,-2.19907e-01,-2.30765e-02,3.44513e-01,-1.63670e-01,-4.73365e-01,-4.90897e-01,-9.32829e-01,6.96761e-01,3.25764e-02,-4.26647e-01,6.78254e-01,5.89487e-01,-6.53831e-01,-6.58782e-01,1.34226e+00,8.91403e-01,4.60309e-01,6.40799e-01,9.12725e-02,1.38055e-01,-6.28141e-03,3.74024e-01,1.45911e-01,-2.38799e-02,3.77100e-01,1.00651e+00,-5.22094e-02,-7.03559e-01,1.03762e-01,-1.24165e-01,-4.65263e-02,2.57205e-01,-2.04245e-01,2.62627e-02,1.16313e-01,2.83628e-01,
1.59090e-01,-1.88380e-01,6.41448e-01,-2.95341e-02,1.19719e-01,2.20659e-01,5.10480e-01,8.94634e-01,-9.83582e-02,-1.85679e-01,-4.05998e-02,6.45929e-01,6.21616e-01,-1.57488e-01,-4.85417e-01,-9.13958e-03,-1.94370e-01,2.74740e-01,5.83202e-03,-2.41775e-01,-2.16323e-01,3.17239e-01,2.04999e-01,-2.21947e-01,4.09354e-01,-3.80617e-01,7.60568e-02,5.78883e-01,-3.30752e-01,8.86849e-01,-8.18042e-01,4.37303e-01,-2.84698e-01,1.05596e-01,1.87023e-01,6.52995e-02,-9.68753e-02,-1.10851e-02,2.18100e-01,3.68294e-01,-2.23655e-02,8.60314e-01,-1.38437e-01,2.29273e-01,-9.91697e-01,-5.49812e-02,-2.90090e-01,-1.09741e-03,2.07045e-01,-1.75226e-01,
3.74878e-02,-5.48155e-02,-9.86702e-03,-2.45540e-02,-3.39577e-02,-5.10877e-03,-1.49537e-02,1.12766e-02,-4.32606e-02,1.20577e-02,-1.39701e-02,1.94517e-02,-2.26774e-02,-2.95449e-02,-5.65623e-02,-2.21340e-02,5.87596e-03,-4.72326e-02,9.95960e-03,-3.73884e-02,-2.92512e-02,-2.07364e-02,-1.05453e-02,-3.41247e-02,2.61407e-02,-2.98462e-02,-4.99264e-03,3.53888e-02,-5.16737e-02,-8.74756e-03,-3.21149e-02,3.69732e-02,1.82126e-02,3.63329e-02,-4.25803e-02,-4.58908e-02,-1.69549e-03,2.22258e-02,-4.80389e-02,-3.89699e-02,2.06133e-02,-1.15413e-02,-2.07032e-02,3.16678e-02,7.27836e-03,-6.86307e-04,-4.27982e-02,-3.41163e-02,3.75396e-02,-4.05458e-02,
-6.68513e-01,-2.63481e-01,3.75073e-01,-3.77028e-01,-5.62438e-02,-5.98853e-01,2.11848e+00,1.56223e-02,2.26724e-01,-2.03557e-01,-2.37466e-01,2.06427e-01,8.52102e-04,-1.15671e-02,-2.26258e-01,1.61302e-02,2.22341e-01,1.52059e-01,1.20787e-01,-2.61488e-01,-1.67539e-01,-2.58114e-02,-4.67315e-01,-5.09366e-01,7.62500e-02,7.63535e-02,4.42077e-02,-7.04559e-01,5.50282e-01,2.35639e-01,6.53328e-02,6.41963e-02,1.16646e+00,3.99983e-02,2.22018e-01,-1.66754e-01,-2.60518e-01,-1.89819e-02,-6.62188e-01,7.45152e-01,4.41149e-02,4.39434e-01,4.74698e-01,-3.26409e-01,-1.81479e-01,1.80077e+00,-1.85967e-01,3.03360e-01,7.30206e-01,-3.09409e-01,
3.56083e-01,-1.66289e-01,-3.30672e-01,1.71554e-01,-5.60877e-01,2.17132e-01,4.54068e-01,2.69823e-01,3.50188e-01,8.10512e-01,1.12174e+00,-1.85371e+00,9.31311e-01,2.02704e-01,-6.51971e-01,2.92326e-02,5.50383e-01,-3.35565e-01,5.09629e-01,3.49096e-01,-3.28448e-01,-5.34995e-01,3.63329e-01,7.89053e-01,-5.52385e-02,2.11419e-01,-7.64228e-04,-5.72605e-01,2.81303e-02,-3.91765e-01,1.86953e-01,7.39373e-01,-1.19322e+00,-1.93607e-01,-7.71292e-01,2.87132e-01,2.77789e-01,3.03455e-02,-7.40141e-01,-9.64613e-01,-1.42070e-02,-1.24935e+00,-4.27367e-02,-1.11523e+00,6.49113e-01,6.40596e-01,3.43844e-01,-1.02042e+00,-2.09031e-01,4.68517e-01,
-8.87987e-01,-5.50376e-01,1.25381e+00,-1.92264e+00,8.97411e-02,1.28857e+00,3.86286e-01,8.53700e-01,-8.03530e-01,8.40659e-01,2.55623e-01,-8.68299e-01,-1.08809e+00,1.54181e+00,-1.52854e-01,1.22292e-02,9.59838e-02,4.09991e-01,3.83845e-01,-5.74188e-01,8.68968e-01,9.93326e-01,-1.71355e+00,-2.94630e-01,-1.07725e+00,9.92432e-02,-1.88672e-01,-1.01254e+00,4.75092e-01,7.25338e-01,7.60680e-01,9.04287e-01,-1.69016e+00,1.44969e+00,-1.17612e+00,-6.45589e-01,-9.93996e-01,4.17662e-03,-1.73099e+00,4.89594e-01,-2.77712e-02,1.73963e+00,3.37638e-01,-1.01134e+00,2.18539e-01,-2.14946e+00,1.79774e-01,3.09288e-01,1.73184e-01,2.49349e-01,
2.87202e-02,2.88002e-02,2.60945e-02,-4.53287e-02,-5.70258e-03,-3.90286e-02,-4.90901e-03,-4.88346e-02,-2.32626e-02,2.55117e-02,-5.10363e-02,-4.26236e-02,2.83755e-02,6.92044e-03,8.91948e-03,1.49667e-02,-3.13598e-02,1.50736e-03,-7.66892e-03,3.08137e-02,-2.16647e-02,-3.63750e-02,-4.23792e-02,-2.89542e-02,6.17469e-03,2.51601e-02,-5.06805e-02,-2.68023e-02,-2.39686e-02,-2.43447e-03,-1.07074e-02,3.53977e-02,-5.96140e-02,-9.58364e-03,-1.31518e-02,-6.43921e-03,-1.43681e-02,-4.30858e-02,-2.68779e-02,3.59920e-02,-4.74450e-02,3.14404e-02,8.60871e-03,-8.77121e-03,-3.51048e-02,-4.12653e-03,-1.81986e-02,2.05805e-02,-7.91166e-04,2.89075e-02,
-1.02549e+00,1.50753e-01,-1.54348e-01,-1.33095e+00,-5.69362e-02,-5.71980e-01,2.79489e-01,9.04894e-01,-7.93351e-01,2.07543e+00,-1.38123e+00,-3.47851e-02,8.23562e-01,3.49375e-01,1.17210e+00,2.59001e-02,1.52336e-01,1.52933e-01,1.07739e-01,-1.28092e-01,4.12569e-01,8.94551e-01,-4.12729e-02,-1.07238e+00,-5.68532e-01,1.48682e+00,8.69444e-01,-8.12789e-01,-8.90985e-02,-1.90273e+00,1.33435e-01,1.98995e+00,1.09333e+00,1.40278e+00,2.37280e-01,7.53611e-01,6.37317e-01,-3.81658e-02,2.50620e-01,-1.63409e+00,2.17916e-02,-1.18544e+00,7.29782e-01,-6.32815e-01,-1.61789e+00,-2.98806e+00,-8.50394e-02,-5.21259e-01,-4.58435e-01,-7.76997e-01,
-2.27228e+00,-3.32660e+00,-1.14085e+00,2.37977e+00,1.31295e-01,-1.86394e+00,-4.74115e+00,-3.18604e+00,3.01468e-01,-2.82724e+00,-1.90541e-01,5.93894e-02,-1.04167e+00,-6.61619e-01,-1.88743e+00,-1.91931e-02,-8.13247e-01,1.20872e+00,1.26041e+00,-1.60428e+00,-1.07739e-01,-2.31110e+00,7.97234e-02,-2.39026e+00,5.76918e-01,1.10188e+00,-6.27542e-01,1.45959e+00,-6.98206e-01,1.32288e+00,4.01732e-01,-1.25618e-01,-1.15238e+00,-1.69601e+00,2.06209e+00,-2.47841e+00,1.82957e-01,6.15536e-04,-4.37963e+00,3.47165e-01,-5.80705e-03,-6.18551e-01,-1.27022e+00,-1.12715e+00,-1.22147e+01,-3.74374e+00,4.19186e-02,-3.66160e-02,-6.81778e-02,1.18132e+00,
5.67226e-03,2.31214e+00,1.04188e+00,-1.07850e+00,1.48593e-02,8.48571e-01,3.77018e-01,8.67987e-01,-1.67617e-01,1.57278e+00,-4.09157e-01,-3.29723e-01,1.20327e+00,7.57628e-01,8.64911e-01,-3.76572e-02,9.75203e-03,-1.50882e-01,-1.23859e+00,-6.09628e-01,1.46916e+00,7.73507e-01,-5.37592e-01,-1.50927e+00,-3.63730e-01,-3.11264e-01,-1.15235e-01,-1.55002e+00,1.44276e+00,-2.46965e+00,3.81472e-01,5.82017e-01,1.75090e+00,1.64051e+00,5.29464e-02,1.02609e+00,8.02246e-01,-1.33993e-02,1.22871e+00,-4.09523e-01,4.25458e-02,-1.01171e+00,1.27743e+00,5.34427e-01,2.45295e+00,-2.41838e-01,-3.85475e-01,-1.03593e-01,1.98291e-01,-1.44173e+00,
2.18739e-02,3.03584e-02,-1.32183e-02,-2.43837e-02,-4.80908e-02,-9.04813e-03,-4.36688e-02,-4.14628e-02,1.28869e-03,-8.44737e-03,1.01749e-02,-2.36118e-03,-1.68351e-02,-2.93993e-02,2.43873e-02,6.00525e-03,7.09038e-04,7.79196e-04,-1.51310e-02,-3.82479e-02,-5.39292e-02,-4.89452e-02,5.54548e-03,-1.06795e-02,-1.56432e-02,-4.76216e-02,2.22159e-02,1.46924e-02,8.77263e-03,-3.31815e-02,-3.42321e-02,-1.42801e-02,-1.34835e-02,-4.09547e-02,-1.41023e-03,1.56947e-02,-2.37651e-02,-3.89680e-02,2.57910e-02,2.16340e-02,-1.27640e-02,-4.45715e-02,-1.37429e-02,-2.70177e-02,-6.27564e-03,-3.68917e-02,-2.38057e-02,3.74070e-03,2.88691e-02,6.60387e-03,
3.39090e-01,-1.69380e-01,5.65010e-01,8.48341e-03,-7.47105e-02,3.70272e-01,2.24526e-01,7.64996e-02,3.40361e-02,3.78514e-02,-2.67713e-01,5.52341e-02,-1.00566e-01,1.11170e-01,-7.58507e-03,3.87690e-02,-1.91761e-01,4.91858e-02,-4.44644e-02,-2.07631e-01,-5.00150e-01,4.99691e-02,4.20328e-01,-5.74240e-02,1.15088e-01,8.39947e-02,-1.45549e-01,-2.81406e-01,1.82474e-02,-7.18140e-02,3.87516e-02,-3.35688e-01,-1.72403e-01,1.74095e-01,-3.74405e-02,-1.18235e-01,4.80017e-02,3.16090e-02,9.22737e-02,-2.90575e-01,-4.72016e-02,7.83358e-02,8.04214e-02,-1.64953e-02,3.60520e-01,-6.08427e-01,-8.60110e-01,2.59659e-01,-1.40192e-02,4.11975e-01,
-1.99987e-01,2.74749e-02,8.68621e-01,-3.50053e-01,-1.66134e-01,6.43934e-01,-7.82989e-01,5.43567e-01,-1.41980e+00,-6.60410e-01,7.24962e-02,4.74064e-02,4.78484e-01,2.37829e-01,9.55269e-02,-2.88495e-02,-2.13240e-02,-2.45610e-01,2.59883e-01,4.03755e-01,5.99252e-01,-1.65023e-01,-3.44170e-01,8.43119e-02,4.61055e-01,5.92992e-01,3.34239e-01,1.96569e-01,-2.78131e-01,-4.16152e-01,-2.91800e-01,3.55169e-01,5.03225e-01,4.86460e-01,1.54081e+00,2.84538e-01,4.73610e-01,-2.28252e-02,-5.68548e-02,-9.88694e-01,9.58222e-03,-6.96932e-01,-2.67247e-01,6.29476e-01,4.32635e-01,-1.56455e-01,2.61976e-01,-2.41156e-01,-1.39131e-01,3.79031e-01,
5.64797e-01,1.33635e+00,2.45347e-01,5.97155e-02,-1.18893e-01,-1.36996e+00,3.57272e+00,-4.91175e-01,1.22699e-01,-2.05029e-02,8.08012e-01,-1.72770e-02,-1.38318e-01,1.09192e-01,4.98727e-02,4.39416e-03,-1.60063e-01,7.66016e-02,-4.74233e-01,-1.23738e-01,-2.40067e-01,1.87567e-01,3.53011e-01,5.70307e-01,-2.73449e-01,-4.43753e-02,-1.87019e-01,-5.21631e-01,-4.48079e-01,1.37104e+00,-2.34400e-01,-4.52560e-01,-1.34123e+00,-5.74799e-01,-1.86209e+00,2.41475e-01,-1.13385e+00,4.63777e-04,2.72035e+00,2.01967e+00,-2.46443e-02,2.08925e+00,3.85397e-01,-1.06406e-01,2.82591e-02,9.11045e-01,-3.55712e-01,-3.31723e-01,6.38205e-01,2.09462e-01,
5.02401e-01,2.60652e-01,-8.59954e-02,1.20427e-02,1.21619e-01,3.66400e-01,-2.49590e-01,7.35966e-01,-4.57906e-01,1.04680e+00,5.04591e-01,9.11819e-01,-7.45202e-01,1.01492e+00,-3.43027e-01,6.21856e-03,3.26127e-01,2.39554e-01,1.86213e-01,3.37119e-02,3.13295e-01,-7.83608e-01,7.85634e-01,1.10305e+00,2.50873e+00,-3.71808e-01,1.63023e-01,3.86692e-01,-1.60978e-01,-9.78990e-02,-1.92917e+00,-3.90385e-01,-6.39673e-01,3.97206e-01,-6.29038e-01,3.95233e-01,2.47945e-01,-3.36803e-02,-4.87544e-02,8.63012e-01,4.14545e-02,-1.26794e-01,-6.74091e-01,1.00440e+00,5.97904e-01,-2.98315e-01,7.20187e-02,1.62389e+00,-8.74539e-02,1.42422e-01,
-1.63520e+00,-1.99862e+00,2.65507e-01,8.98045e-01,1.05921e-01,2.76810e+00,-3.58180e+00,-6.58056e-01,-1.04929e+00,1.53181e+00,-1.70120e+00,-1.39677e-02,1.14560e+00,-7.43782e-01,3.47493e-01,-1.32018e-02,-1.06715e-01,6.99727e-01,3.03777e-02,-4.09361e-01,5.00291e-01,-8.14148e-01,1.13816e+00,-4.76956e-01,2.58575e-01,5.68247e-02,-3.66258e-01,1.75243e+00,2.52282e-01,6.38168e-01,5.24156e-03,1.68427e+00,1.68389e+00,1.73396e-01,3.05825e+00,-6.87236e-01,2.18308e+00,-2.56276e-02,-3.77911e+00,1.23928e-01,-2.33177e-02,7.87640e-01,-5.59539e-01,1.20623e+00,2.38102e-02,4.16482e-01,7.15701e-01,1.87817e-01,-7.37717e-01,-3.79647e-01,
1.17403e-02,4.99993e-03,1.49551e-02,-4.37553e-02,-2.35646e-02,3.76718e-03,1.61457e-02,1.87161e-02,1.04201e-02,-4.49501e-02,-2.29238e-03,2.27218e-02,-2.72604e-02,4.40093e-02,-4.37945e-02,4.18779e-02,-3.70829e-02,1.79713e-02,-1.21517e-02,-3.79202e-02,-3.69800e-02,-3.68689e-02,2.65466e-02,-2.51392e-02,-2.54131e-02,-1.79743e-02,-3.63811e-03,1.27760e-02,-1.97088e-03,2.71270e-02,-2.63960e-02,1.55901e-02,1.40541e-03,-1.68386e-02,-2.89901e-04,-1.01866e-02,1.97864e-02,-3.03635e-02,-1.91630e-02,-6.65198e-03,-5.06372e-02,-1.50932e-02,-2.76117e-02,-5.23533e-02,2.45961e-02,-2.09341e-02,8.52437e-04,-2.61906e-02,7.84706e-03,3.04723e-03,
-1.31177e+00,5.12831e-01,7.67398e-01,-2.08452e-01,-1.72548e-01,1.28918e+00,-1.92097e+00,4.61890e-01,2.49170e-01,-6.07468e-01,-7.85284e-01,-1.42970e+00,-3.24570e-01,-2.51831e+00,9.70914e-01,3.02020e-02,-1.14209e+00,-3.17074e-01,-1.43835e+00,6.19221e-01,-1.53863e-01,4.05214e-01,-2.13429e+00,-2.33992e+00,-1.26564e+00,-1.80709e+00,-2.79684e-01,8.34568e-01,3.12488e-01,-4.61396e-02,-6.16648e-01,1.64548e+00,2.90379e-04,1.09646e+00,3.12024e-03,-2.27768e+00,1.74483e-01,8.68875e-03,-3.89346e-01,1.42664e+00,2.26618e-02,7.59585e-02,7.01761e-01,-1.26551e-01,7.16534e-01,1.92851e-02,5.92908e-01,-9.26480e-01,-3.68165e-01,-6.56115e-01,
1.97984e-01,-1.37075e-01,-9.11982e-02,-1.04324e-01,-3.01220e+00,4.63318e-03,-8.30029e-01,-3.26131e-01,1.62557e-01,-7.00183e-02,5.47012e-01,5.56732e-01,-3.09127e-01,1.79728e-02,1.14175e-01,-4.54680e-02,1.22966e-01,2.11206e-01,-1.81433e-01,-1.14519e-02,2.09721e-01,-1.95767e-01,2.42268e-01,8.92852e-02,-1.80224e-01,-3.06501e-01,2.70196e-01,1.68749e-01,6.25378e-02,-3.78046e-01,-2.30600e-01,-1.51859e-01,-2.23518e-02,1.43260e-01,-5.15763e-03,2.50489e-01,-5.37305e-02,-2.00237e-02,1.53880e-01,2.26893e-01,1.95915e-02,-7.24361e-02,-2.20446e-01,4.83731e-01,5.74362e-02,-2.23914e-01,-5.73422e-02,-2.51572e-01,-3.40187e-02,6.58108e-02,
1.90482e-01,1.36881e-01,4.50375e-02,-5.21081e-01,-3.55777e-01,-3.38529e-01,-5.56249e-01,4.79434e-01,1.27633e-01,8.22327e-01,2.87414e-01,-1.20388e-01,2.19416e-01,-5.44815e-01,-8.61290e-01,3.64523e-02,9.55709e-02,1.57596e-01,-2.02820e-01,-1.01205e-01,2.40763e-01,-4.64204e-01,-2.26282e-01,8.49086e-02,2.53271e-01,2.18635e-01,5.29496e-01,1.18816e-01,9.38377e-01,8.00158e-02,-3.25287e-02,1.66249e-01,-6.43578e-01,-2.20065e-01,-2.32663e-01,1.19816e-01,2.57112e-02,-1.05709e-02,-8.59868e-02,-5.16572e-01,8.47649e-03,-7.15328e-01,9.81168e-02,-7.60023e-01,7.62237e-01,2.50861e-01,-3.21125e-01,-8.51529e-02,2.30256e-01,4.67061e-02,
7.17200e-03,-5.84403e-03,-4.71351e-03,-2.23815e-02,-3.46043e-02,-2.16301e-02,-2.62812e-02,2.42659e-02,-1.79238e-03,3.21524e-02,-6.06827e-02,3.89170e-02,-5.89701e-02,3.11063e-02,-1.15694e-04,-5.03720e-02,-2.81215e-02,7.66693e-03,1.18365e-02,8.99186e-03,-1.98207e-02,-1.40312e-02,-2.84749e-02,-5.26840e-02,6.33015e-03,-1.36322e-03,-4.41580e-02,-1.33795e-02,-3.31374e-02,3.52004e-02,8.88535e-03,-2.07074e-02,8.31374e-04,3.31627e-02,-2.46125e-02,2.91591e-02,3.80250e-03,1.53991e-02,3.12045e-02,-5.92047e-02,1.13324e-02,3.20535e-02,-6.62661e-02,-2.33667e-02,1.41720e-02,-3.22545e-02,5.40383e-03,-2.37872e-02,-1.15863e-02,-2.75096e-02,
-6.01047e-02,3.41852e-02,1.83182e-02,3.27307e-02,7.86158e-03,-2.97820e-03,-1.43035e-02,1.09523e-02,2.10200e-02,-2.62664e-02,-1.98543e-02,2.27644e-02,1.84984e-02,-2.19479e-02,1.42672e-02,2.73715e-02,-3.85840e-02,1.91620e-02,4.04291e-03,-1.90055e-02,-3.09148e-02,-2.12304e-02,-6.24301e-02,-5.99565e-02,1.81217e-02,-2.79992e-02,-3.62665e-02,-1.21729e-02,-6.19742e-02,-3.89139e-02,-1.56513e-02,-2.81298e-02,-3.71952e-02,4.08372e-02,-3.52631e-02,-6.30416e-03,-1.77304e-02,-3.84537e-02,9.57117e-03,-5.13430e-02,3.38715e-02,3.41269e-02,-2.76933e-02,2.22924e-02,-3.03612e-02,-4.24885e-02,2.44240e-02,-4.27218e-02,-3.59456e-02,3.41672e-03,
-5.68488e-01,-4.48740e-01,2.22244e+00,1.11069e+00,4.05298e-01,-2.03596e-01,8.85333e-01,-1.71332e+00,8.16626e-03,6.25584e-02,3.66233e-01,1.05086e+00,8.24899e-01,1.70977e+00,-4.04916e-01,-1.22668e-02,-1.35936e-01,8.65119e-02,4.58963e-01,5.75907e-01,2.81505e-01,-7.62461e-01,-1.21874e-01,-1.41289e+00,-8.66916e-02,4.81851e-01,-6.08640e-01,4.05153e-01,-1.17655e+00,-3.67753e-02,-3.09656e-01,-6.55696e-01,-1.73369e-01,8.11735e-02,-3.01468e-01,1.18501e+00,-4.47811e-01,-1.72909e-02,2.18936e-01,2.06505e-01,4.18341e-02,-1.16486e+00,1.72157e-01,3.03636e-01,-7.40693e-01,-1.10109e-01,-3.86292e-01,1.95682e-01,4.30530e-01,-3.50440e-01,
-4.85148e-02,-4.71553e-02,-4.27733e-02,-4.60679e-04,-2.66104e-02,2.39159e-02,-1.87727e-02,7.31958e-03,-3.96946e-02,2.07607e-02,-3.65249e-02,1.13421e-02,5.65577e-03,-9.81202e-03,1.42709e-02,-1.94340e-02,-4.12031e-02,3.98877e-02,3.39291e-02,-2.55596e-03,2.39996e-03,-5.80414e-02,-8.89156e-03,4.71231e-03,1.26730e-02,-4.64885e-02,2.44648e-02,-5.28666e-02,4.79654e-03,1.39407e-02,1.95259e-02,1.56220e-03,2.86102e-02,2.66905e-03,-7.63059e-03,-4.65563e-02,-4.26139e-02,-4.36223e-02,-4.48051e-02,-7.91547e-03,-5.43685e-02,3.95654e-02,-3.17223e-02,-2.55765e-02,-4.49242e-02,-4.44561e-02,-4.61650e-02,-1.94217e-02,8.53064e-03,-3.05609e-02,
3.81804e-02,-2.06938e-02,-5.58094e-02,7.64152e-03,-4.83327e-04,-4.43827e-02,-1.90607e-02,-2.65205e-02,-2.53768e-02,9.52051e-03,-2.75276e-02,-5.35802e-02,9.09742e-04,-2.52551e-02,-2.48838e-02,-4.35619e-02,-4.25312e-02,9.83822e-03,-3.76990e-03,-1.13188e-02,-2.43072e-02,2.13736e-02,-2.29772e-02,-1.41042e-02,1.62670e-02,-3.67359e-02,-4.35239e-02,-1.86214e-02,3.58591e-02,-4.99210e-02,2.54871e-03,6.01613e-03,1.93139e-03,-2.34551e-02,2.60850e-02,-5.17614e-02,4.44303e-02,2.80459e-02,2.49392e-02,-9.74921e-03,-4.94414e-04,-4.74364e-02,-4.84254e-02,1.97057e-02,1.64639e-02,2.95584e-02,2.99495e-02,1.42873e-02,-4.35343e-02,-2.02663e-02,
-2.08029e-02,-1.89684e-02,-5.97766e-02,-1.15063e-02,1.64780e-02,1.37051e-02,-2.27721e-02,1.55838e-02,-5.05748e-02,1.64550e-02,4.99084e-03,-1.47939e-03,-1.38452e-02,-3.86720e-02,1.78778e-02,2.75364e-02,8.85550e-03,1.94542e-02,1.96169e-02,-4.66658e-02,-4.26343e-02,-1.19972e-02,-3.98912e-02,-1.87768e-03,1.55820e-02,2.00017e-02,-3.39697e-03,-1.13563e-04,2.20536e-02,1.05879e-02,-6.63129e-02,4.86326e-04,9.53346e-03,-3.69987e-02,-4.08970e-03,-6.97180e-04,-1.15940e-02,-1.97582e-02,-3.40819e-02,-4.26626e-02,4.04000e-02,3.24461e-02,5.72699e-03,-3.64340e-03,-5.14482e-02,1.38062e-02,2.86291e-02,-3.59307e-02,-3.75370e-02,-5.12492e-02,
7.85761e-03,4.43267e-02,-3.95186e-02,-6.90911e-02,-4.01618e-02,3.37981e-02,-4.89358e-02,-1.66595e-02,4.18337e-02,-1.09773e-02,-3.45844e-02,-2.68456e-02,-4.02057e-02,-4.53551e-02,-4.29568e-02,-5.26389e-02,3.15594e-02,3.46516e-02,-4.89895e-03,-9.71759e-03,1.97644e-02,-1.74719e-02,8.47762e-03,-2.89792e-02,-4.77493e-02,-2.42043e-02,2.25091e-02,3.59951e-02,-2.72114e-02,-5.07480e-02,2.62211e-02,-4.88640e-02,-4.09840e-02,2.76797e-02,-8.19760e-03,-1.68488e-02,-4.24369e-03,1.71972e-02,6.20689e-03,-4.34054e-02,-4.39900e-02,3.75241e-02,-3.94995e-02,3.26346e-02,-1.25294e-02,-5.10550e-04,2.73236e-02,-2.06294e-02,-4.93676e-02,6.34697e-03,
4.01254e-01,2.79494e-01,7.48806e-01,-5.63421e-01,1.24558e-01,5.60432e-01,-1.41024e-01,2.27296e-01,-5.25907e-01,2.14834e+00,-5.63311e-01,5.66627e-01,5.62461e-01,8.71090e-01,-3.60943e-01,1.79288e-02,3.28896e-01,-1.28468e+00,1.72357e-01,2.91823e-01,6.52498e-02,9.14598e-01,3.07901e-01,-5.23197e-01,3.12124e-01,-2.81975e-01,1.12194e-01,1.13934e-01,3.98129e-01,-3.04958e-01,2.98157e-01,4.95414e-02,5.68469e-01,-9.67880e-01,9.49257e-02,-9.69172e-01,4.20836e-01,-2.80317e-02,-1.44731e-01,2.95283e-01,5.90189e-03,5.91595e-02,1.46843e-01,-5.44983e-01,7.36454e-02,-3.44034e-01,-7.10421e-01,-9.63147e-01,-1.34688e+00,-2.02092e-01,
-1.63596e-01,-3.85572e-02,-3.76541e-01,-6.38823e-03,-4.70318e-03,-9.75500e-01,-3.02985e-01,-1.20211e-01,-7.32882e-01,-5.18925e-02,-1.11532e-01,-1.34120e-02,-2.77750e-01,-6.19946e-01,2.45364e-01,-2.86975e-02,-4.73959e-01,3.21620e-01,3.33558e-01,-9.52634e-01,-1.46546e-01,2.11390e-01,-1.98212e-02,6.91547e-03,5.72772e-02,2.74089e-01,-3.96096e-01,-5.57582e-02,1.30364e-01,-5.36735e-03,-2.08558e-01,-3.70596e-01,6.58952e-02,-1.90436e-01,3.78694e-01,-1.12847e+00,-3.96973e-02,7.60866e-03,-6.27647e-01,-1.44373e+00,-2.09985e-03,9.16994e-02,2.25213e-01,7.99905e-01,1.29381e-02,2.69888e-01,5.88344e-04,3.11630e-01,1.36727e-01,-1.44931e-01,
-1.50689e+00,5.31863e-01,1.04448e+00,6.58292e-02,2.61798e-01,-1.16721e+00,-3.89456e+00,-6.61575e-01,-9.91270e-01,4.46841e-01,-1.92099e+00,-1.43716e-01,-1.16721e+00,8.28353e-01,2.06493e-01,-2.75914e-02,-2.96827e-01,-3.64637e-02,4.03466e-01,-6.02809e-02,5.59395e-01,1.04646e+00,2.93052e-01,-2.19288e-01,-1.42489e-01,5.77655e-01,-3.70445e-01,-1.30493e-02,-9.83715e-02,-1.37078e+00,-6.05530e-02,7.13896e-02,-5.22940e-01,7.50478e-01,2.00297e-01,-1.52777e-01,5.18255e-01,-3.19782e-02,-2.59451e+00,-3.32360e+00,-3.80560e-02,-1.56612e+00,-2.42287e-01,7.03787e-01,3.22074e-01,-2.12654e+00,-8.71571e-02,3.87691e-01,-7.39384e-02,-9.77510e-01,
-1.10338e+00,-6.15184e-02,-7.67001e-01,-1.39940e+00,-1.11061e-01,-1.27580e-01,9.61590e-02,-2.26892e-01,-1.37889e-01,-1.08840e+00,-6.43976e-01,5.11616e-01,-1.24360e+00,-1.23624e+00,-1.81403e-01,2.31406e-02,-5.86996e-01,-2.12373e-01,6.77068e-01,-1.10163e-01,-4.84947e-01,3.75069e-02,2.72008e-01,4.58967e-01,-2.26351e-01,9.87938e-01,-2.23649e-01,3.10929e-01,-9.49527e-01,-6.21633e-01,7.68220e-02,4.03384e-01,-4.31802e-01,-1.30485e-02,-3.78993e-01,-5.34596e-01,6.03292e-01,1.88939e-02,-3.29104e-01,5.49409e-01,-2.19441e-04,4.71417e-01,-7.82425e-02,5.68009e-01,6.73912e-01,-2.35879e+00,6.55022e-01,2.57655e-01,3.38474e-01,-3.86431e-01,
5.95133e-01,-1.50721e-01,8.02788e-02,1.67304e-01,-1.43521e+00,-5.75227e-01,-1.91350e+00,1.84598e-02,5.93432e-01,6.73080e-01,7.83197e-01,2.59641e-02,4.52744e-01,1.41831e-01,2.97948e-01,-4.14787e-02,-2.29389e-01,1.33965e-01,-1.06526e-01,1.04074e-01,1.26029e-03,-4.74928e-01,-1.25281e-02,-1.00956e-01,-6.08540e-01,-2.72196e-02,-9.30955e-02,6.44315e-02,-3.72332e-01,-4.02674e-01,4.90599e-01,-2.88804e-01,3.01188e-01,-1.00852e-01,-2.34375e-01,2.73850e-01,-7.15480e-02,-2.11378e-02,-1.84866e-01,-1.63337e+00,-3.54627e-02,-6.17810e-01,-1.65273e-01,1.12230e-01,1.26700e-01,-1.24150e-01,3.17328e-01,1.40233e-01,-1.12024e-01,1.16639e-01,
-2.49639e+00,-3.31035e-01,-5.88267e-02,1.12556e-01,2.99268e-01,4.95213e-01,2.24447e-02,9.31044e-01,-7.60720e-02,2.27374e+00,-8.16142e-02,9.24521e-02,2.30340e-01,3.16434e-01,-1.88822e-02,7.76739e-03,1.46228e-01,-1.32193e-01,2.31762e-02,8.45961e-02,7.55128e-01,8.23508e-01,4.12943e-01,1.40469e-02,7.02920e-01,-1.77427e-01,-4.24485e-01,6.20240e-01,1.83092e+00,5.53606e-01,-4.44385e-01,1.07682e+00,1.20219e+00,-5.81200e-01,1.12718e+00,6.47955e-02,5.87842e-01,-4.32925e-02,-2.72241e+00,-7.03572e-01,-4.25310e-02,-2.97675e-01,-3.67545e-01,2.07131e-01,7.71083e-01,6.02722e-01,-6.50655e-01,1.81533e-01,-6.96239e-01,1.04558e+00,
3.77060e-01,5.77377e-03,4.90774e-01,-2.70099e-01,-1.99624e+01,-1.89686e-02,-5.62227e-01,3.92669e-01,4.19986e-01,6.01189e-01,5.91727e-01,-2.29127e-01,6.51934e-01,6.78413e-01,2.69488e-01,1.37958e-02,4.46056e-01,3.62336e-01,-2.56960e-02,1.97138e-02,-3.07772e-01,2.03549e-01,-2.71649e-01,3.49838e-01,-8.15180e-01,1.29318e-01,5.45761e-01,9.89652e-02,1.50252e-01,-1.87218e-01,9.10253e-01,6.18087e-01,-1.13756e-01,-7.16198e-02,-7.51719e-01,4.05477e-01,1.29812e-02,4.28236e-03,-2.24565e-01,3.78183e-01,4.31108e-02,-4.68841e-01,-3.08471e-01,7.76524e-02,4.18103e-02,3.28236e-02,-3.09034e-01,-8.64360e-01,3.37951e-01,-2.02257e-01,
-1.21077e-02,2.58695e-02,2.19028e-02,-6.21380e-02,-3.28463e-02,2.73361e-02,1.82794e-02,-2.98738e-02,1.32032e-02,-2.28461e-02,-1.81692e-02,-3.62109e-02,-5.62282e-02,2.47228e-02,-1.57045e-02,-5.72700e-03,-6.81466e-02,-2.34393e-02,-2.05418e-02,2.04177e-02,1.09809e-02,2.18192e-02,1.31876e-03,-2.27974e-03,-5.65218e-02,-4.01733e-02,2.44076e-02,3.05189e-02,-4.79203e-02,4.26425e-03,-3.20321e-02,-5.21121e-02,-3.91899e-02,-1.81160e-02,-5.28863e-02,2.77528e-02,-2.62610e-02,-1.88954e-03,1.93601e-02,8.39447e-04,1.99014e-02,1.32764e-02,1.58155e-02,-4.42029e-02,3.13895e-02,2.40479e-02,-1.42053e-02,2.59844e-03,-3.81128e-02,-3.05906e-02,
-5.68811e-01,-5.74039e-01,1.05900e+00,1.20430e-01,-3.44801e-01,6.67762e-01,-5.06993e-01,-2.33287e-02,-1.75498e-01,6.63714e-01,5.16913e-02,1.32079e+00,5.87422e-01,-8.73761e-02,-1.74817e+00,2.35063e-02,1.32167e-01,1.22813e-01,-2.01615e-02,-1.24675e-01,-9.18647e-01,-5.51732e-01,-1.57350e-01,2.01240e-01,-9.44097e-01,-3.77025e-01,5.49733e-01,8.51897e-02,-6.79896e-02,1.35397e+00,-5.41424e-01,5.33656e-01,8.39558e-01,-3.35116e-01,-5.33488e-02,2.87171e-01,3.08471e-01,-2.50819e-02,5.05499e-01,7.29282e-01,4.38702e-03,-3.82306e-01,4.50309e-01,9.51726e-01,2.07047e-02,4.85847e-01,-5.64820e-02,-6.68428e-02,2.71555e-01,1.91754e-01,
1.53863e-02,-3.15182e-01,1.01545e+00,1.22308e+00,-1.26130e-01,-1.78458e+00,-3.18538e-02,-3.22923e+00,7.13745e-01,-1.58056e+00,7.87637e-01,1.66439e-01,-1.25029e-01,7.40306e-02,-2.12178e+00,4.46917e-02,1.85617e-01,-6.53138e-01,-8.03737e-01,6.50343e-01,-1.81499e+00,6.09104e-02,-8.91179e-01,1.78269e+00,-9.68413e-01,-1.94346e+00,-8.60764e-03,-5.75552e-01,-2.08936e+00,3.70143e+00,-8.74972e-03,-4.07967e+00,-3.74575e+00,-2.02771e+00,-2.28249e+00,4.00279e-01,-3.60279e+00,1.64003e-03,5.31646e-01,-7.70575e-02,1.21736e-02,2.22962e+00,-5.97888e-01,-7.27424e-01,-4.62708e+00,4.04212e+00,2.22802e-01,-6.80344e-01,8.89044e-01,1.74953e+00,
-7.84615e-01,-9.79148e-01,1.01939e+00,1.35270e+00,4.06700e-01,-9.23257e-01,2.16950e+00,-3.36751e+00,-4.22139e-02,-1.85876e+00,-9.21532e-01,-6.78311e-01,-1.98314e+00,-1.20565e-01,1.28781e-01,-1.38073e-02,-3.20141e-02,-1.26867e+00,4.04421e-01,-8.44825e-02,-1.50920e+00,7.05940e-01,1.03450e+00,-1.87982e+00,1.29600e+00,-1.32470e-01,-1.07518e+00,1.53446e+00,-4.55098e-01,-2.87362e+00,7.25711e-01,9.83426e-01,-9.92915e-01,-5.11975e-02,1.16760e+00,-1.62559e-01,5.01885e-01,-5.10114e-02,-1.45787e-01,1.19208e+00,-3.72321e-02,-2.49131e+00,6.88451e-02,-2.78116e-01,-1.11703e+00,-1.37698e+01,-2.63881e-01,-9.58283e-01,1.24828e+00,-3.94323e-01,
-1.50458e-01,1.02663e-01,2.70785e+00,1.82447e-01,3.48880e-01,2.66757e-01,1.83748e+00,2.43910e-01,4.68914e-01,1.53591e-01,2.22866e-01,-2.00981e-01,1.34590e-01,1.20850e+00,3.02321e-01,-1.06064e-02,2.54473e-01,1.05350e-01,-3.20003e-01,-2.51303e-01,-6.06811e-01,-1.31177e-01,-3.22115e-02,4.73366e-01,1.07214e+00,-6.08870e-01,-2.27807e-01,-2.66566e-01,6.67286e-01,6.40801e-01,-4.52032e-01,1.76337e-01,8.31382e-01,1.51065e-02,2.23244e-01,9.18782e-02,-2.24615e-01,1.11779e-02,1.43758e+00,1.61223e+00,-1.52001e-02,-2.32088e-01,3.87333e-01,1.89998e-01,-2.61859e+00,3.25043e-01,-2.01062e-01,-6.27219e-01,4.55492e-01,2.21422e-01,
-1.47248e-02,
-1.05000e-01,
-3.08238e-01,
-3.64308e-01,
-1.41081e-02,
5.36622e-01,
-1.16608e-02,
-3.25230e-02,
5.65793e-01,
-1.79296e-02,
2.15021e-01,
-7.30708e-01,
-3.90158e-01,
-2.61394e-02,
1.86719e-01,
-8.41625e-02,
1.18372e+00,
-3.26030e-02,
3.77496e-01,
1.18370e+00,
-2.26951e-01,
-2.09087e-02,
-1.89787e-01,
-1.08950e+00,
-6.62778e-01,
-1.07208e+00,
8.65684e-01,
-1.07423e-02,
2.20411e-02,
7.85329e-02,
3.12034e-03,
-1.06298e-02,
-2.17697e-02,
-1.67578e-01,
-1.48285e-02,
-1.48570e-02,
-2.26250e-02,
-1.13948e-02,
1.97804e-01,
-9.43360e-03,
1.39954e+00,
5.65342e-01,
-8.45020e-02,
-1.66756e+00,
7.69542e-01,
-2.14214e-02,
-4.03726e-01,
-1.10964e+00,
1.19984e+00,
-1.62314e+00,
-3.59738e-02,-1.89991e+00,-1.36236e+00,-3.78191e-01,4.35644e-02,-1.42318e+00,-6.72007e-04,-4.29966e-02,-8.49422e-01,-8.21514e-03,-4.27583e+00,-1.67019e+00,1.30687e+00,2.74242e-03,-7.69265e-01,-1.30098e+00,-2.99916e-01,1.85040e-03,-2.38595e+00,-1.04644e+00,-3.25727e+00,-4.69461e-02,1.60457e-01,-3.61080e+00,-1.82606e+00,-1.13804e+00,-2.15746e+00,4.77280e-03,-3.15591e-02,2.14416e+00,-3.05158e+00,3.84030e-02,1.62922e-03,-3.22168e-02,1.23738e-02,1.93390e-03,2.85279e-02,-1.31730e-02,-9.84221e-01,2.44371e+00,-2.10116e+00,-2.56210e+00,-3.32430e+00,-5.97497e+00,9.13486e-01,-6.15605e-04,2.60070e+00,3.32605e-01,8.67684e-01,-6.84845e-01,
-3.47463e-03,-1.07289e-01,1.68111e+00,5.94974e-01,9.64304e-03,3.04864e-01,2.99366e-03,-4.38306e-02,6.12265e-01,-2.53045e-02,-1.21483e-01,-7.40738e-01,3.44282e-01,-1.23959e-02,2.90893e-01,6.75699e-01,9.93693e-02,-3.54205e-02,-5.14779e-01,4.87321e-01,-1.07780e-01,-1.40306e-02,2.44034e-01,-1.99065e-01,-3.88589e-01,6.69631e-01,-1.53010e-01,6.12489e-03,4.81122e-01,6.68738e-01,3.04505e-01,-2.31446e-02,-1.05128e-02,-5.14765e-01,1.47434e-02,-5.14888e-02,1.17196e-03,4.31390e-02,-2.95203e-01,5.93595e-01,-1.80535e-02,5.68866e-01,-1.56713e+00,4.85926e-01,5.35542e-01,-2.51047e-02,-3.56859e-01,-1.60857e-02,2.88454e-02,1.88339e-01,
-6.61965e-03,1.67822e+00,3.78142e-01,2.88595e+00,3.03884e-02,9.17958e-02,-2.67223e-02,4.48307e-02,-1.17479e+00,-3.60791e-02,-5.53576e-01,4.83195e-01,2.24139e+00,4.34333e-02,6.54676e-01,2.67834e-01,-7.38199e-01,2.77790e-02,-2.80157e-01,1.32536e+00,2.30664e-01,2.38084e-02,2.41649e-01,-8.67985e-02,6.70435e-01,-4.71981e-01,-7.96956e-01,-3.51978e-02,-1.83339e-01,9.88677e-01,-4.41726e-02,-2.08270e-03,3.27717e-02,-1.20310e-01,-2.58022e-02,-2.93281e-02,2.05150e-02,-2.92553e-02,-1.62885e+00,-2.70930e+00,2.06439e-01,2.58117e-01,-1.98573e+00,2.57890e-01,2.34964e+00,2.77707e-02,7.94730e-01,4.88990e-01,-3.40817e-01,-1.62455e+00,
3.29685e-02,-5.68933e-01,-9.83344e-02,1.84921e+00,-1.41511e-02,5.20958e-01,2.20104e-02,-4.02067e-02,5.64105e-01,-4.71500e-03,-1.08080e+00,-5.16544e-02,-4.17112e-01,-4.70420e-02,-2.07338e-01,2.90479e-01,2.25522e-01,2.94760e-02,-3.12916e-01,-6.59878e-01,-4.16453e-01,1.03907e-02,2.17548e-01,7.03397e-02,-1.29474e-01,1.08666e+00,-1.11933e-01,-1.42409e-02,2.23603e+00,-1.10549e-01,4.64978e-01,6.34032e-02,-2.14300e-02,1.37570e-01,-1.95646e-02,3.85131e-02,-2.86876e-02,-4.32676e-02,-2.09071e-01,9.58556e-01,-2.86909e-01,7.35340e-01,6.46229e-01,6.97564e-01,-3.00743e+00,4.94135e-02,-4.62865e-01,-5.75425e-02,2.99310e-01,9.28845e-01,
-2.53565e-02,-4.95395e-01,1.12916e-01,5.24686e-01,-4.73214e-02,2.51501e-01,1.92754e-02,-4.34097e-02,3.34329e-01,-2.72442e-02,-2.20488e-01,4.73014e-01,1.43947e+00,5.96883e-03,-5.97522e-01,2.05588e-01,1.12332e-01,-1.35144e-02,4.50009e-01,-1.14934e+00,1.58009e-01,1.04196e-02,4.21368e-01,-3.52158e-01,5.95345e-02,-1.85850e-01,-5.79233e-01,-3.66642e-02,6.55191e-01,2.42164e-01,-4.27416e-01,-2.76399e-02,2.17817e-02,-9.10695e-02,3.67486e-02,4.54809e-02,9.66396e-03,3.82105e-02,-2.18112e-01,-1.02129e+00,1.97214e-01,3.62624e-01,7.11714e-02,4.29693e-01,-6.84943e-01,-4.29559e-02,-3.80476e-01,1.07686e-01,2.04639e-01,-8.44832e-02,
-2.74381e-02,9.13440e-01,-9.21513e-01,2.14565e+00,-3.97467e-02,-4.09519e-01,-1.01518e-02,-4.10205e-04,-1.13000e+00,1.25901e-03,1.19393e+00,1.51168e+00,2.49694e+00,-3.38405e-02,-4.25372e-01,7.34554e-01,-9.37839e-01,-1.69165e-04,-2.79948e-01,-1.19487e-01,-1.28722e-01,3.43687e-02,1.00988e+00,2.53544e+00,-3.46383e-02,1.51395e-01,-1.56728e+00,2.24075e-02,7.80488e-01,1.03644e+00,2.62585e+00,-2.07027e-02,-3.11575e-02,4.97702e-01,-4.59961e-02,2.51051e-02,-5.40756e-03,-3.55397e-02,1.36262e+00,1.96431e+00,1.70811e+00,7.17310e-01,8.04658e-01,-8.23773e-01,-4.23726e-01,1.04753e-02,1.35967e+00,-6.56097e-01,-2.11068e-01,8.17330e-01,
-3.79227e-02,-5.57898e-01,-1.66441e+00,6.93527e-01,7.00146e-03,-2.94878e-01,-2.64075e-02,-3.64079e-03,1.02724e+00,-8.89500e-03,7.58599e-01,4.36671e-01,-4.42305e+00,3.10582e-02,-4.57596e-02,3.36493e-01,-1.99338e-01,4.97225e-02,3.21564e-01,1.04793e-01,-2.21487e-01,-3.01730e-02,-2.56057e-01,-1.38692e+00,1.18212e-01,-1.92942e-01,3.15258e-01,-1.25593e-02,-9.32125e-01,5.83056e-01,-1.39632e+00,5.85770e-02,2.00422e-02,-1.02267e-01,1.04658e-02,-5.64755e-03,-5.19514e-03,7.23918e-03,-9.38379e-01,1.19077e+00,2.54481e-01,6.39185e-01,-1.11725e+00,2.51143e-01,2.89830e-01,1.19514e-02,1.06372e+00,1.58991e-01,2.50822e-02,1.94795e+00,
4.54645e-02,2.80173e-01,1.80910e+00,1.46084e+00,2.80044e-02,-2.13723e+00,3.42168e-02,4.98771e-02,1.68004e+00,9.83126e-03,2.17325e-02,1.78166e-01,2.01199e+00,-2.53408e-02,1.86363e-01,1.96626e-01,-7.29992e-02,-4.49388e-03,-2.57320e-01,2.06746e-02,-3.73136e-01,-3.13315e-02,-5.76423e-01,6.32413e-01,9.67718e-01,5.50294e-01,3.40851e-01,-3.09737e-02,-5.54694e-01,3.16166e+00,6.39005e-01,2.67603e-02,3.00583e-02,-1.40238e-01,-2.94172e-03,-1.62112e-02,3.04875e-02,5.13955e-04,8.21658e-01,-2.63365e+00,1.29575e+00,-3.40104e-01,-5.44655e-01,2.05806e-01,2.71487e-02,1.26918e-02,-1.14559e+00,2.96795e-02,2.36711e-02,-3.64151e-02,
-4.40978e-02,7.71406e-01,1.21680e+00,1.11480e+00,1.49204e-02,4.34711e-01,1.87342e-03,-2.05370e-02,-4.34057e-01,3.99545e-02,3.67494e+00,7.42651e-02,-5.74154e-02,-1.31495e-02,-2.07284e-01,-2.20558e-01,-7.13758e-01,-1.13369e-02,1.20600e+00,2.43423e-01,-2.36331e-01,1.16816e-02,-2.62918e-01,-2.06385e+00,-9.02233e-01,6.83268e-01,-6.79422e-01,1.91401e-02,9.50163e-01,1.18748e+00,2.95382e-01,1.63367e-02,3.43932e-02,-4.21543e-01,3.99314e-02,2.64808e-02,-5.90541e-04,-1.66010e-02,-1.75778e-01,1.90736e-01,-2.87581e-01,1.05492e+00,8.35265e-01,1.04359e+00,6.06079e-02,1.81647e-02,1.91046e+00,-4.01173e-01,1.38658e-01,1.85722e+00,
-4.99985e-02,-1.36667e-01,-1.19363e+00,-3.90154e+00,-2.03072e-02,-1.17134e+00,-1.16428e-02,3.19904e-02,-6.31137e-02,-6.57674e-02,7.35004e-02,-1.09729e+00,1.83946e-01,-8.71274e-03,-1.99613e+00,2.69126e-01,1.65212e-01,1.57040e-02,9.68676e-02,3.33131e-01,4.88877e-01,3.43038e-02,1.57476e-01,-7.28361e-01,-9.80942e-02,-1.94053e+00,4.30239e-01,2.44917e-02,-5.84498e-01,-1.84150e+00,-2.83700e-01,1.90699e-02,2.93383e-02,-5.02840e-01,2.37926e-03,-3.49298e-03,3.59037e-02,-3.70803e-02,-3.02891e+00,7.27491e-01,-1.07568e+00,-8.23866e-01,4.80205e-01,-3.12326e-01,1.81121e+00,-2.21661e-02,-3.04044e-02,2.74179e-01,-1.03881e-01,-7.23448e-01,
-9.19374e-04,1.56316e-01,-2.37006e-01,7.11193e-01,-2.24733e-02,-7.75510e-03,-7.78170e-03,-1.54886e-03,6.37088e-01,-4.19301e-02,2.12364e+00,7.30776e-02,-4.45084e+00,1.26213e-02,1.67997e+00,-4.56532e-01,-6.76106e-01,3.95125e-02,-8.37653e-01,-7.57719e-02,1.36163e-01,-1.46407e-02,7.85401e-02,1.08598e+00,-2.78467e+00,-5.12442e-01,3.81760e-01,4.36950e-02,9.43866e-01,1.05952e+00,6.22376e-01,-5.30415e-02,3.76439e-02,1.15783e-01,2.38236e-02,-1.59246e-02,-2.66245e-02,-7.69462e-03,1.15264e+00,9.77438e-01,4.04669e-02,-4.02486e-01,1.15929e+00,1.15409e+00,3.73925e-01,-5.46977e-03,9.66163e-01,-1.91787e+00,-4.01381e-01,4.93390e-01,
-1.12421e-02,4.81813e-01,3.18009e+00,2.73269e+00,-1.23741e-02,2.66523e-01,1.04025e-02,-2.56534e-03,-1.61129e+00,1.06964e-02,9.54938e-01,-4.28353e-01,2.88683e+00,9.72674e-03,1.13692e+00,5.73687e-01,-6.26589e-01,1.65064e-02,2.28169e-01,6.63873e-01,-1.86567e-01,-1.72517e-02,-2.60051e-02,2.01544e+00,-7.67533e-01,2.97454e-01,-1.30724e-01,-3.30037e-02,-6.07232e-01,1.42208e+00,3.88992e-02,5.50421e-02,-6.14929e-03,-1.22734e+00,2.93173e-03,5.59769e-02,-3.84775e-03,-3.50583e-04,1.22379e+00,8.29705e-01,-9.84497e-01,-3.95542e-02,1.70429e+00,1.17472e+00,2.18867e+00,-1.74801e-02,8.69080e-01,2.52514e-02,-6.28148e-01,3.09871e-01,
2.03826e-02,-2.43033e-01,9.80795e-01,-4.22422e-01,-2.41727e-02,-3.87218e-01,-4.94218e-02,-3.86833e-03,-7.26323e-02,-3.83864e-02,2.73301e-01,-6.84678e-01,6.93372e-01,-3.12585e-03,6.45474e-01,4.09062e-01,-4.40808e-02,-3.43443e-03,-3.99182e-01,-5.30861e-02,2.48528e-01,3.61343e-03,-1.25553e-01,1.89945e+00,2.49492e-01,6.33563e-01,-3.67686e-01,-1.18740e-02,4.94704e-01,-1.09142e+00,-7.43040e-01,3.36358e-02,3.38324e-02,-2.52290e-01,2.88210e-02,4.06548e-02,2.58671e-02,3.61832e-02,2.62532e-01,9.50135e-01,-3.00156e-01,1.61235e-01,-3.06130e-01,-3.88292e+00,-6.19390e-01,-3.08267e-02,3.27294e-01,-1.32182e-01,-1.53880e-02,-1.41042e+00,
6.07640e-03,1.39644e+00,1.03114e+00,-1.56092e+00,-2.46689e-02,6.15119e-01,2.42114e-02,-1.02058e-03,2.21486e+00,8.34170e-03,-2.70549e-01,6.46790e-01,9.38065e-01,3.78427e-02,8.07519e-01,-5.06228e-01,-2.02203e-01,-1.82204e-02,-1.07346e+00,-1.92257e-01,-3.59016e+00,2.61088e-02,1.09166e-01,3.78050e-01,-2.08669e-01,2.56832e-01,5.23863e-01,3.51783e-03,3.23655e-02,9.59540e-01,1.50188e-01,-1.61513e-02,-1.07887e-02,-1.53619e-01,-4.47624e-02,1.49995e-02,5.02245e-02,1.03251e-02,-1.00045e+00,-1.63516e+00,-4.07909e-01,8.41659e-01,-1.41587e-01,3.80747e-01,-4.99646e-01,1.86806e-03,-1.50045e-01,1.10404e-01,-2.68231e-01,1.06119e+00,
-4.32856e-03,1.54413e+00,3.44532e-01,-1.32159e-01,-3.54062e-02,1.82526e+00,-2.05417e-02,4.20311e-02,-1.37395e+00,4.88525e-02,6.90004e-01,-1.02436e-01,4.92056e-01,-3.66566e-02,1.74129e+00,-1.18385e+00,-1.96891e-01,-4.48278e-02,2.73457e-02,3.95782e-01,-2.92709e-01,9.08765e-03,-8.87791e-02,1.02962e+00,5.82652e-01,4.80307e-01,1.17039e-02,-4.09036e-02,-1.36971e+00,1.52792e+00,-5.93691e-01,-2.07861e-02,-9.45358e-03,-4.95228e-01,1.16873e-03,-1.58392e-02,1.05420e-02,-9.14926e-04,1.27168e+00,4.27108e-01,8.40826e-01,-9.90542e-01,3.79673e-01,1.07169e+00,3.39456e-01,2.87727e-03,2.77317e-01,3.81287e-01,-6.87219e-02,-2.82911e+00,
-2.28827e-02,-2.63419e+00,1.44989e+00,-6.95782e-02,4.04284e-02,-3.85970e-02,-5.09697e-03,1.51841e-02,-4.64618e+00,-2.92479e-03,7.60992e-01,1.22490e+00,-6.78641e-01,2.76756e-02,-3.38037e-01,-2.53122e-01,5.32651e-02,3.39422e-02,-5.75865e-01,-1.12261e+00,-1.70511e-01,-3.16763e-02,-1.54992e-01,1.22477e+00,3.36959e-01,1.33564e-01,-4.94490e-01,-4.73312e-02,1.90158e-02,-3.48931e-01,-1.94172e+00,-1.65962e-02,6.36717e-03,4.12886e-01,8.88765e-03,4.41996e-02,-4.20996e-02,1.02762e-02,-2.75365e-01,-7.67273e+00,-4.19127e-01,1.42121e-01,-3.87701e-01,-2.68882e-01,-3.21764e+00,-4.92813e-02,-2.34552e-01,6.21998e-01,-1.84206e-01,-4.29727e-01,
4.18920e-02,-1.74956e+00,-3.15272e-01,8.11147e-01,1.20085e-02,8.98899e-01,4.11399e-03,-4.45658e-03,-6.08946e-01,-1.75775e-02,-2.71261e-01,-1.79736e+00,-9.88782e-01,-2.51498e-02,-5.45613e-01,-2.89361e-01,6.64248e-01,2.75437e-02,3.05310e-01,-3.03158e-01,1.65355e-01,3.96961e-02,3.78947e-01,-1.48680e+00,-7.72658e-01,1.62178e+00,-5.49737e-02,1.74642e-02,-5.74570e-01,-2.32800e+00,1.20297e+00,3.11799e-02,-6.60703e-02,4.68739e-01,3.29656e-02,4.52176e-02,1.02895e-02,3.13924e-02,-9.74970e-01,-2.51947e+00,-4.36816e-01,-6.87795e-02,-1.23003e+00,9.77792e-01,-1.89978e+00,-2.47645e-02,-2.31607e+00,-2.85516e-02,2.84590e-02,2.80198e+00,
2.75361e-03,3.44196e-01,-3.01038e-01,2.20738e+00,1.76073e-02,-8.06517e-01,-1.17690e-02,4.62775e-02,1.16472e+00,5.27351e-02,-1.22498e+00,1.19288e+00,1.01782e+00,-3.59494e-02,4.49343e-01,-8.36419e-01,-1.09147e+00,2.79738e-02,-6.14234e-02,-3.92296e-01,-1.98803e-01,1.85699e-02,-3.14373e-01,-1.44834e+00,2.83212e-01,3.64053e-01,2.36055e-01,2.31526e-02,1.59479e+00,1.01405e+00,1.73062e+00,3.27680e-02,-1.72087e-02,-2.24884e-02,7.93531e-03,-2.01680e-02,4.21672e-02,-1.03241e-02,4.30062e-01,2.02587e+00,7.20490e-01,-5.56273e-01,1.05489e+00,-8.28972e-01,-4.29886e-01,-3.69756e-02,4.95875e-01,2.80977e-01,6.48739e-02,2.48805e-01,
-3.79182e-02,6.87185e-01,1.39460e-02,1.63820e-02,-3.45090e-02,1.60295e-01,-4.45942e-02,-7.18149e-04,1.57045e+00,-4.21071e-02,3.55049e-01,-4.72569e-01,-3.59488e-01,-4.02815e-02,-5.10433e+00,-6.10462e-01,2.74002e-01,1.59115e-02,3.47971e-01,-6.43061e-01,3.35562e-02,-1.85241e-02,-1.35495e-01,-1.32064e+00,3.02644e-01,-3.71866e-01,-1.17134e+00,-3.76665e-03,1.17070e+00,5.07549e-01,-1.41791e+00,2.53794e-02,-1.02307e-02,-4.79076e-01,-4.22402e-02,-3.11275e-02,-4.92061e-02,8.66274e-03,7.53374e-01,-6.52227e-01,-1.42356e-01,1.11316e-01,4.20774e-01,1.19752e+00,-6.99908e-01,4.40878e-02,-1.13549e-01,2.54001e-01,1.23521e-01,3.94865e-01,
2.68087e-02,1.54421e+00,3.35278e+00,1.13623e+00,-3.20317e-03,-6.35255e-01,-5.48511e-03,5.75662e-03,-1.85773e-01,3.13849e-02,2.22299e+00,-5.29406e-01,1.04142e-01,1.17052e-02,2.59129e-01,-2.10132e-01,-6.81825e-01,4.06298e-02,8.20157e-01,-2.67136e-01,2.87268e-02,-2.46214e-02,4.16747e-01,3.20775e-01,-6.01911e+00,4.86715e-01,-2.39567e-01,-4.02877e-02,3.21123e-01,1.38118e+00,5.93197e-02,-7.93588e-03,-3.82596e-02,1.53689e-01,3.92847e-02,2.93300e-02,3.89619e-02,-2.85071e-02,1.32600e+00,1.02492e+00,-8.58765e-01,1.35816e+00,2.13178e+00,2.09230e+00,5.27717e-01,-4.56001e-02,-3.38456e+00,-1.75122e+00,-1.58247e-01,7.33790e-01,
-4.81280e-02,2.37138e-01,-6.57395e-01,4.87882e-01,-4.22520e-02,-3.12241e-01,-9.18135e-04,-1.54268e-02,9.30959e-01,-4.63721e-02,-2.17925e+00,-1.41339e+00,3.40718e+00,4.70191e-02,-1.89130e+00,-4.35768e-01,-4.63620e-01,3.37135e-03,1.00269e+00,9.58184e-01,5.97336e-01,-3.68789e-02,8.64089e-01,-2.62417e-01,6.85625e-01,-4.24530e-01,-1.38014e-01,-2.82933e-02,1.03146e+00,1.17249e+00,-3.95892e-01,-8.59715e-04,1.09813e-02,1.21251e+00,4.70986e-02,4.68083e-02,-1.29823e-02,4.39897e-02,3.54229e+00,-1.26674e+00,3.58202e-01,2.52837e+00,-1.38150e-01,-2.77967e+00,-4.43656e-01,-1.83213e-02,-3.75490e+00,-1.59566e-01,1.21659e-01,-1.28370e+00,
5.03867e-02,2.31881e+00,2.68023e+00,2.04704e+00,4.66154e-02,1.03126e+00,3.18954e-02,3.54238e-02,-7.23572e-01,-1.77253e-02,8.95357e-01,8.55048e-01,-1.56763e+00,-9.54467e-03,-8.25195e-01,-2.95353e-01,-9.35186e-01,-3.54423e-02,1.20401e+00,4.63979e-01,9.78736e-01,-1.55556e-02,6.63784e-01,1.91724e+00,1.19616e+00,1.77144e+00,1.17301e+00,4.99976e-03,3.68409e+00,7.33422e-01,2.16067e+00,7.00258e-03,1.43325e-02,-5.06127e-02,2.55480e-02,-2.02640e-03,-1.03838e-02,2.55799e-03,3.10655e-01,-9.55318e-01,2.99845e-01,-9.76939e-01,1.17747e+00,1.22921e+00,3.53405e-01,-2.09380e-02,-5.47960e-01,1.48438e+00,-1.55225e-01,-4.72013e-01,
-2.62929e-02,-7.89084e-01,2.60191e+00,-2.64107e+00,-2.74400e-03,5.70071e-01,5.10874e-04,-5.15111e-02,-3.90180e-01,-2.16742e-02,-9.72561e-02,1.42810e+00,-2.56179e-01,-3.74819e-02,-2.01213e+00,-1.07160e+00,5.99350e-01,2.76972e-02,3.34420e-01,-1.54874e-01,1.94348e-01,4.45142e-02,-1.90100e-01,1.15416e-01,1.51064e+00,-5.09751e-01,8.37829e-01,8.76768e-03,8.00251e-01,-2.16713e+00,-2.05663e+00,-1.95263e-02,9.16917e-03,-2.75857e-01,3.32084e-02,-4.26653e-02,-9.37326e-03,-2.26324e-02,4.30314e-01,-2.62489e+00,1.25890e-01,5.44120e-01,-1.17579e+00,-1.62150e+00,-6.57384e-01,-2.96173e-02,8.31214e-01,-1.85392e-02,1.33461e-01,9.78655e-01,
-3.95774e-02,1.57823e-01,3.08217e-02,2.55821e-01,-3.71533e-02,2.62729e-01,5.00185e-02,-1.06062e-02,2.36729e-01,-3.44059e-02,-5.46124e-02,-5.28422e-01,-1.38940e+00,-2.04014e-02,-3.63502e-01,1.99153e-01,-2.17973e-01,2.49494e-03,-1.30186e-02,-8.53507e-02,1.59045e-02,-3.46150e-02,-1.36959e-01,5.95423e-01,-5.45149e-01,-2.38611e-02,-5.05266e-01,-5.57986e-03,5.08103e-02,-3.64141e-01,5.86299e-01,2.45715e-02,3.13882e-02,8.50252e-02,-1.26576e-02,-1.46419e-02,-1.18667e-02,-2.12255e-02,3.30008e-01,1.07352e+00,4.39854e-02,7.62502e-02,3.38004e-01,2.44568e-01,9.57955e-02,-1.95767e-02,-2.79841e-02,-4.86649e-02,-6.45313e-02,6.45361e-01,
-2.04050e-02,5.06909e-01,-2.33143e-01,1.80031e-01,2.83552e-02,-1.27598e-01,2.07320e-03,3.28079e-02,2.80809e-01,1.43706e-02,-6.04378e-01,2.82796e-01,-1.54820e-01,2.28346e-02,1.16285e+00,4.56639e-01,-6.97142e-01,-2.10653e-02,-3.04215e-02,-5.52303e-02,1.25559e-02,1.69081e-02,4.02161e-01,3.54770e-01,-1.61727e-01,-8.81310e-01,-5.07108e-01,-2.64001e-02,8.75827e-01,1.09133e+00,-4.85465e-01,-2.14949e-02,-3.26807e-02,-1.00592e-01,3.48335e-02,-3.53411e-05,-1.26090e-02,-1.64943e-04,3.16160e-01,1.31946e-01,1.39805e-01,1.27214e-01,4.23789e-01,-1.41768e-01,5.36723e-01,-1.10016e-02,-5.42677e-01,-7.78915e-02,2.52547e-01,4.32141e-01,
-1.33355e-02,9.37200e-01,3.49677e-01,4.22409e+00,-2.70857e-02,1.38005e+00,-3.72722e-03,3.78875e-02,-5.24607e-01,-2.47693e-02,1.93882e+00,-9.25097e-03,1.03575e+00,-4.31619e-02,1.08286e+00,1.39104e-01,5.30717e-02,3.17242e-02,-2.74341e-01,3.24304e-01,-8.61111e-01,8.81111e-03,7.48017e-02,2.47347e-01,-2.47597e-01,-4.68766e-02,-4.15025e-03,-3.41383e-02,1.45619e+00,1.85152e+00,6.10761e-01,-3.26988e-02,-2.74576e-02,-6.54045e-01,-3.56123e-02,-2.42646e-02,-3.61404e-02,-6.79462e-03,1.53648e+00,-6.70486e-01,-4.28700e-01,-3.05799e-01,-4.50967e-01,3.59462e-01,1.13946e+00,2.13058e-03,3.51741e-01,-1.16157e-01,-1.65262e-01,1.39000e+00,
-1.11391e-03,-2.88404e+00,1.75869e+00,-1.01478e-02,-1.12333e-02,-1.11454e-01,3.30137e-02,4.29610e-02,-4.29819e+00,-2.52648e-02,-7.58768e-01,-2.94679e+00,-2.27698e+00,-2.17042e-02,-1.47933e+00,-4.55940e-01,-2.50506e+00,-5.11768e-02,-5.04721e+00,-2.73022e-01,-7.37588e+00,2.83935e-02,-3.76832e-01,2.22901e+00,-7.61846e-01,-6.08452e-01,2.87651e-01,1.18871e-02,2.88453e-02,-1.18955e+00,-3.02636e+00,3.97863e-02,-3.92839e-02,7.35033e-01,-3.18243e-02,1.45691e-02,3.68862e-02,2.53287e-02,1.09749e+00,-2.89181e+00,-2.32916e+00,-5.73835e-02,-6.06857e-01,3.55655e-01,-3.21400e+00,2.59116e-02,1.42325e-01,-3.93645e-01,1.49890e+00,1.74310e+00,
5.30704e-02,-3.71603e+00,1.57537e+00,1.74706e+00,-2.39557e-02,-1.70939e-01,-4.70003e-02,2.13281e-02,4.69906e-01,-8.47214e-04,2.25815e-01,-1.29502e+00,1.52260e+00,3.02474e-02,-3.51827e-01,6.07397e-01,3.47771e-02,-1.82564e-02,-6.82274e-01,-7.78476e-01,2.13915e-01,-2.42648e-02,-1.79059e-01,-4.79325e+00,-1.19098e+00,-4.83186e-01,2.16283e-01,-4.82367e-02,5.09147e-01,-2.95415e+00,8.86006e-01,3.88307e-02,3.81688e-02,-5.19950e-01,-4.34915e-02,3.09134e-02,2.95482e-03,-3.58649e-02,-2.12625e-04,-1.98375e+00,5.86739e-01,7.18054e-01,3.97105e-01,-9.90487e-01,-4.61705e-03,-2.23495e-02,-7.97898e-01,1.86811e-01,4.20262e-01,-1.04431e+00,
2.85750e-02,2.68940e-02,8.91451e-02,3.24761e+00,4.23669e-02,3.66474e-02,-9.09388e-03,-1.34887e-02,9.88655e-01,1.25924e-03,-1.32595e+00,1.15589e+00,2.64879e-01,-4.29410e-02,1.57118e-01,8.06980e-02,1.35768e-01,4.69179e-03,-4.94929e-02,7.77560e-01,-3.80802e-01,4.14462e-02,2.14687e-01,1.16845e-01,2.85458e-01,6.16403e-01,-5.75750e-01,-4.01452e-02,-1.16816e-01,1.16181e+00,-1.37633e-01,1.29473e-02,-4.12567e-02,-1.17873e+00,-1.81201e-02,3.49595e-02,3.77308e-02,-1.04880e-02,1.60188e+00,-8.28425e-01,8.17315e-01,8.25431e-01,1.28833e+00,-5.16247e-01,2.50932e-01,5.45165e-02,-6.47819e-01,-5.46922e-01,2.40814e-01,-8.82520e-01,
2.30500e-02,-2.92664e-01,-1.30329e+00,-3.38191e+00,4.44332e-02,-6.81707e-01,-3.69541e-02,-3.33189e-02,-6.35224e-01,3.83787e-02,-1.28583e+00,-5.55015e-01,1.64091e+00,4.05462e-02,1.88356e+00,-1.40699e+00,-7.30324e-01,3.84696e-02,9.51287e-01,-6.73961e-01,9.47277e-01,9.62098e-03,-4.67078e-01,7.29237e-01,6.95152e-01,-8.92052e-01,6.67317e-01,-3.19053e-02,-1.96924e+00,5.97809e-01,-1.90999e+00,3.98830e-02,-5.18682e-02,4.14432e-01,2.08327e-02,-9.65639e-03,-3.85310e-02,-2.55316e-02,-3.97529e-01,6.06821e-01,-2.13013e-01,-2.30522e-01,-2.01994e+00,-3.69226e+00,9.16976e-01,-3.71581e-02,1.68356e+00,1.26525e-01,3.54731e-01,3.65064e-01,
2.02278e-02,-1.57501e-01,-2.70255e-01,-2.46735e-01,-4.74218e-03,-7.16691e-01,-1.85442e-02,5.10776e-03,-7.95882e-01,1.01819e-02,1.16940e+00,1.24902e+00,-9.59391e-01,-2.39759e-02,-3.13357e+00,4.61204e-01,-7.37844e-01,-6.00879e-02,7.10398e-01,1.93973e-01,-5.86914e-01,2.82958e-02,5.07647e-01,-1.15451e+00,1.71472e+00,-4.11900e-01,1.37024e+00,9.69365e-03,5.57779e-01,-4.99491e+00,-1.99084e-01,-5.57333e-02,4.09599e-02,-4.69502e-02,-2.57241e-02,-4.39331e-02,-5.90541e-03,2.70409e-02,-1.28283e+00,-2.06556e-01,1.30010e+00,1.05893e+00,-1.07295e+00,-4.33295e-01,-7.73900e-01,-1.93310e-03,-8.51193e-01,-4.90564e-01,4.07485e-02,-3.75861e-01,
-5.78482e-02,3.73295e-02,3.31368e-01,6.68294e-01,6.13183e-03,-5.30092e-01,-1.55310e-02,1.04125e-02,6.40993e-01,-2.08012e-02,3.25764e-01,5.89171e-01,-3.17780e-01,-2.55209e-02,7.58076e-01,2.08832e-01,-1.52728e-01,-4.21349e-02,1.53165e-01,1.09221e-01,-1.95369e-01,-5.19971e-03,-5.07461e-02,-1.16347e-02,4.06737e-01,3.20781e-02,5.77096e-02,8.52391e-03,4.62996e-02,1.05802e+00,-2.82610e-03,-3.52740e-02,-2.63333e-02,-7.99569e-02,-3.51814e-02,-3.63905e-02,4.42396e-02,6.22255e-03,1.60289e+00,-7.88782e-01,-2.14276e-01,-4.34310e-01,5.83349e-01,-3.28320e-01,-5.27691e-01,-2.30334e-02,-5.35538e-01,6.15959e-02,-3.68211e-01,-2.33973e-01,
-5.57068e-03,5.71251e-03,-1.74779e-01,-1.72864e+00,-1.75931e-02,1.00729e+00,-3.64929e-02,1.99275e-02,1.36629e+00,-6.86466e-03,9.72916e-01,4.57174e-01,-1.62892e+00,2.82821e-02,-2.95862e+00,3.14060e-01,3.26480e-01,-2.29965e-02,2.56667e-01,9.82770e-01,6.33004e-01,-1.93221e-02,3.94959e-01,-2.84470e-01,1.37106e-01,2.66729e+00,3.39466e-01,4.97122e-02,1.50750e+00,-5.19568e+00,5.29296e-01,3.28975e-02,-4.43128e-02,5.66659e-01,2.71515e-02,-4.20373e-02,-3.63362e-03,-1.21877e-02,8.96197e-01,-1.93113e+00,-1.16464e-02,-8.84000e-01,-9.27316e-01,-3.97251e+00,-2.17148e+00,2.70890e-02,-1.46479e+00,7.24621e-01,2.44412e-01,-1.06140e+00,
-1.20708e-02,-6.68467e-01,-4.28205e-01,5.81445e-01,-3.42526e-02,4.17301e-02,-6.75452e-03,-1.38074e-02,2.67417e-01,2.17711e-02,8.95628e-02,4.13852e-01,1.29484e-01,-6.50754e-03,-4.55188e-01,7.63738e-02,1.29605e-01,6.37506e-03,-1.15914e-01,-3.62133e-01,-3.02874e-01,-4.56040e-02,-4.99359e-02,3.82056e-04,-3.38247e-01,-2.75953e-01,-3.83841e-01,4.20964e-02,6.51010e-01,2.15893e-01,7.64041e-01,-6.38168e-03,-3.48836e-02,2.11672e-01,-4.42731e-02,9.80624e-03,1.59855e-02,2.08223e-02,-2.64148e-01,1.07947e+00,-1.45636e-01,2.24883e-01,5.35135e-01,2.49730e-01,1.44687e-01,9.65574e-03,3.74671e-02,-4.94293e-01,-2.21239e-02,3.65127e-02,
-3.27679e-02,-6.25093e-02,5.66841e-01,-1.05752e+00,-2.49120e-02,-1.03491e+00,-1.49921e-02,-5.02275e-02,5.05778e-01,-1.92000e-02,-1.13625e+00,6.25315e-01,-1.37769e+00,1.23434e-02,-3.95581e-01,1.16223e-02,4.22450e-01,2.63112e-03,1.11135e+00,1.07256e-01,1.01149e+00,1.76411e-02,-1.52799e-01,-7.77497e-01,9.80702e-01,4.72689e-01,4.64605e-01,3.04525e-02,2.07695e+00,-2.37735e+00,1.20245e+00,5.83520e-03,-1.43608e-02,-1.87171e-01,-3.15536e-02,-1.00299e-02,1.71672e-03,-6.48068e-03,6.72096e-01,9.33977e-01,-1.47685e-01,9.07103e-02,-1.62119e+00,8.29886e-03,-1.26032e+00,-2.35440e-02,-1.40914e+00,1.30243e+00,2.43512e-01,-1.48844e+00,
1.03464e-02,5.97066e-02,-8.57376e-01,5.06654e-03,1.54182e-02,-3.94926e-01,-1.73352e-02,-3.10812e-03,1.31113e+00,1.57399e-03,-4.49287e-01,-1.44861e+00,-1.65377e+00,-4.12088e-02,-1.92326e+00,2.87395e-01,-1.71362e+00,-5.42411e-02,-6.13478e-01,2.15271e-01,-6.77446e+00,-4.39666e-02,-1.81983e-01,-6.94108e-01,-4.74604e-01,-1.70495e-01,3.05582e-01,-1.15169e-02,-2.43614e-02,-1.76958e+00,1.09728e-01,-2.35965e-02,2.54026e-02,-2.08822e-01,7.88026e-03,-2.71917e-02,2.32063e-02,-2.49202e-02,-1.22201e+00,-1.06748e+00,-7.06569e-01,-5.73930e-01,-2.44574e-01,5.42953e-01,-2.88505e-01,2.43856e-02,8.81448e-01,4.86645e-01,6.48929e-01,1.12128e+00,
-2.12616e-02,-8.58628e-01,-1.29368e-01,-4.34846e-02,4.83373e-02,5.23928e-02,-8.78249e-03,-4.80519e-02,5.25032e-01,2.64768e-03,-4.69076e-01,6.73990e-02,-2.10896e+00,3.15196e-03,-6.57581e-01,1.34076e-01,4.97965e-01,-1.68659e-03,-1.31890e+00,1.35990e-01,-5.82165e-01,4.52661e-02,-3.37386e-01,-1.96493e-01,-2.10036e-01,-3.33690e-01,-3.06309e-01,-1.43000e-02,1.62172e-03,-3.05181e+00,-1.27668e-01,2.16637e-02,1.20187e-02,-4.65145e-01,3.98533e-02,2.00363e-02,-3.83818e-02,-5.02572e-02,-5.39783e-01,-4.11377e-01,-2.26861e-02,1.61061e+00,-1.00043e+00,1.52059e+00,-4.59951e-01,1.89855e-02,9.06975e-01,5.86617e-01,4.49759e-01,-1.47417e+00,
-3.27989e-02,2.35387e-01,-9.84695e-01,5.25023e-01,4.62148e-02,-5.40136e-02,1.61324e-02,-1.47093e-02,9.96726e-01,2.56061e-02,5.50523e-02,3.08374e-01,-1.85342e-01,2.42433e-02,9.28843e-03,2.31116e-01,2.01573e-01,-7.02715e-03,-3.69461e-01,-2.52416e-01,-2.57542e-01,1.72890e-02,-4.95775e-01,-2.65370e-02,3.87815e-02,7.62017e-03,2.05567e-01,-2.93590e-02,5.77413e-01,-4.29487e-01,1.02800e+00,-2.39819e-02,5.20379e-02,3.15361e-01,-3.70432e-02,4.01981e-02,1.43620e-02,-2.20065e-02,-3.68047e-01,3.51758e-02,3.56787e-02,1.41616e-01,3.63090e-02,-3.11969e-01,-8.89036e-01,-3.96314e-02,-4.31425e-01,-2.07994e-01,1.86124e-02,6.19925e-01,
3.50948e-02,7.10190e-01,6.81859e-01,5.51090e-01,2.99055e-02,-2.11705e-02,2.52966e-02,-1.63660e-02,-5.49348e-02,1.63762e-02,4.20514e-01,2.30173e-01,-5.11205e+00,-2.97896e-02,5.05897e-01,-4.56108e-01,-4.98226e-01,-1.63397e-03,5.57667e-02,-1.45032e+00,3.67920e-01,-2.37663e-02,7.18449e-02,3.85247e-02,-8.42028e-01,2.30566e-02,2.14140e-01,4.18089e-02,-1.67825e-01,-1.67287e+00,6.09848e-01,6.87226e-03,-3.86968e-02,6.20129e-01,-3.73534e-03,1.98235e-02,-4.00995e-02,-1.68603e-02,4.24407e-01,-3.05118e+00,-7.88079e-01,-9.91259e-01,-1.58333e-01,-6.17214e-01,-2.36539e-01,2.88206e-03,1.18815e-01,-2.97193e-01,-2.08992e-01,9.45137e-01,
-4.55225e-02,-2.24285e-01,-5.23019e-01,-3.61377e+00,3.74045e-03,-7.71372e-01,-2.00929e-02,-4.29526e-02,-1.00710e+00,1.68424e-02,1.20056e+00,-2.63580e-01,-9.42732e-01,1.40546e-02,5.17607e-01,9.28374e-01,1.78798e-01,-8.98088e-03,-8.12773e-02,9.93269e-01,1.08910e+00,-3.34432e-02,-2.06409e-01,3.63835e-01,8.03811e-01,-4.66795e-01,1.85957e-01,4.25046e-03,-9.18801e-01,-1.90586e+00,1.56465e+00,2.54854e-02,-3.41129e-03,-2.02489e-02,-2.24290e-02,-4.94434e-02,-3.56944e-03,1.83071e-02,-9.96495e-01,-1.72164e+00,3.27473e-01,-4.39783e-01,-6.70606e-02,3.27250e-01,-2.18492e+00,-1.60416e-02,-1.01702e+00,4.37793e-01,-2.02972e-01,-3.20217e-01,
-4.65721e-02,-5.99448e-02,-1.80959e+00,-2.40219e+00,-3.58126e-02,1.99039e-01,2.92448e-02,1.15665e-02,-1.80998e+00,2.61773e-03,-9.52079e-01,-7.45553e-01,2.03644e+00,5.12753e-03,-9.94425e-01,3.36714e-01,1.10407e+00,-1.69729e-02,-5.16938e-01,4.67095e-01,6.90226e-01,3.50209e-03,-3.06675e-01,1.12304e-01,-1.43275e+00,-7.71874e-01,-4.97624e-01,1.47944e-02,-2.03011e+00,1.11276e+00,-7.27905e-01,2.92667e-02,1.63658e-02,-4.15557e-01,-7.45466e-03,1.46604e-02,-4.18897e-02,3.67012e-02,-1.36843e+00,-1.55063e-01,-1.40624e+00,-2.30547e-01,-1.45261e+00,-1.19306e+00,-3.51825e-01,3.41859e-02,-1.46997e+00,8.26513e-01,8.50369e-01,3.02861e+00,
2.89512e-03,4.87272e-01,4.94345e-01,1.57712e-01,-3.92040e-02,1.03856e-01,3.26672e-02,5.83555e-03,-1.67897e+00,-1.98367e-03,-3.26674e+00,4.62704e-01,-3.86055e-01,4.90339e-02,-1.01192e+00,8.92721e-02,-4.73168e-01,2.42443e-02,2.47591e-01,2.64846e-01,5.07056e-01,3.74866e-02,3.02696e-02,-4.84093e-01,-4.42260e-01,-2.55667e-01,-3.14138e-01,3.57693e-03,5.19100e-02,2.17635e+00,2.05953e-01,3.16811e-02,-3.87773e-02,3.96603e-01,1.69946e-02,3.28903e-02,-1.89387e-02,-1.89218e-02,6.86452e-01,8.79072e-01,-4.51077e-01,3.72065e-01,-1.51748e-01,7.53793e-01,2.53536e-01,-9.65688e-03,-4.27334e-01,-5.45424e-02,-9.53934e-02,6.03148e-01,
-4.75244e-02,-8.75224e-01,3.78673e-01,-4.19931e-01,-5.77746e-03,1.12511e-01,3.90564e-02,-4.34337e-02,-2.31101e-01,2.02822e-02,4.97509e-01,-3.94865e-03,2.51755e-01,-1.72138e-02,6.79658e-01,-3.01013e-01,4.96414e-01,2.60617e-02,5.36689e-01,2.14238e-01,-1.53689e-01,6.50514e-03,-9.51784e-02,-3.27155e-01,4.52050e-01,5.96844e-01,-6.49436e-01,2.89940e-02,1.50527e+00,-3.12058e+00,-3.25173e-01,5.10997e-02,-1.56337e-02,-2.03650e-01,-8.41539e-03,6.09405e-03,1.14753e-02,2.34951e-03,-2.11124e+00,1.24128e+00,-1.33712e-01,-7.42383e-01,5.96839e-01,-4.99353e-01,5.54250e-01,-1.38303e-02,1.05126e-01,-5.02650e-02,4.36330e-01,-2.79897e-01,
-2.30280e-02,3.00842e-01,1.52153e+00,2.42545e+00,-3.09136e-02,3.34028e-01,3.65253e-03,1.74292e-02,1.20912e+00,-4.81812e-02,3.32641e-01,6.48097e-01,1.23677e-02,2.86910e-02,1.39054e+00,-1.20377e-01,-1.42374e+00,-3.95023e-02,5.29902e-01,4.63328e-01,-8.52448e-03,3.45778e-02,1.98561e-01,-2.59539e-01,4.33772e-01,-3.63003e-01,-1.98176e-01,-4.30115e-02,-1.90572e-01,1.46489e+00,2.78335e+00,1.05494e-02,6.95854e-03,-4.60321e-01,1.68249e-02,-4.72981e-02,2.67661e-02,4.45067e-02,-4.66979e-01,1.73898e+00,-3.80156e-01,-5.72579e-02,-1.16942e+00,-2.78708e+00,-5.63468e-01,-4.30338e-02,-4.72181e-01,3.04307e-01,8.12168e-01,1.47676e+00,
2.01444e-02,4.48362e-02,6.12561e-02,2.29805e-01,-1.03200e-02,5.56728e-01,-3.03357e-02,-4.24607e-02,-3.24561e-01,-3.94843e-02,-5.86734e-01,-5.98185e-01,5.93006e-01,-2.31816e-02,1.45975e-01,3.67265e-02,6.99704e-02,9.55152e-03,8.08501e-02,1.46974e-01,-2.15602e-01,-3.98421e-02,-7.28455e-02,3.70639e-04,-3.64179e-01,3.51275e-01,-1.19808e-01,3.73198e-02,2.51226e-01,-3.92040e-01,4.97607e-01,-2.04148e-02,-3.40817e-02,-5.39018e-02,7.44990e-03,8.54089e-03,6.20629e-03,-3.21445e-02,1.50413e-01,4.92777e-01,-2.28879e-01,-2.43829e-01,8.95617e-01,1.62861e-01,1.50444e-01,-3.25833e-02,-5.07291e-01,-7.42585e-02,-1.93203e-01,4.20525e-01,
-3.99298e-02,-1.60791e-01,-1.64534e+00,-7.28921e-02,-2.41924e-02,-1.83461e-01,5.17541e-02,2.81494e-02,2.55716e-01,-2.99177e-04,4.83936e-01,-6.70528e-01,3.96284e-01,-1.70279e-02,7.29914e-01,-1.43572e-01,2.46801e-01,-2.58603e-02,-5.37637e-02,-3.25320e-01,-2.09470e-01,-1.25198e-02,-5.05278e-01,-2.42933e-01,3.91098e-01,-6.00526e-01,8.52734e-02,2.15924e-02,6.73447e-01,-2.55758e+00,1.53233e+00,3.08491e-02,-2.79815e-02,-3.28160e-01,3.85755e-02,-3.96860e-02,1.96127e-02,3.99346e-03,-2.54687e-01,-1.93827e+00,8.88582e-01,-3.70178e-01,6.64590e-01,-6.50194e-01,6.47480e-01,4.62192e-02,1.60030e+00,-3.42460e-01,2.47622e-01,7.61790e-01,
-2.68342e-02,7.36618e-01,-1.39178e+00,-1.67731e+00,1.92024e-02,2.50213e-01,-6.09996e-03,-3.83780e-02,-1.10570e+00,2.79352e-02,3.98493e-01,1.11965e-01,9.31143e-01,-4.50902e-02,5.00499e-01,1.28659e-01,1.18096e-01,3.05596e-02,1.26204e-01,1.99029e-02,1.12481e-01,2.96772e-02,-5.36450e-01,7.73870e-01,8.91260e-01,-1.17602e+00,6.28185e-01,-3.94950e-02,5.79338e-01,-9.08915e-01,-1.58710e+00,-7.39638e-03,2.32288e-02,-2.59017e-01,4.47966e-02,1.38152e-02,-2.07746e-03,-3.81429e-02,-1.32542e+00,-6.96877e-01,-1.46039e+00,-5.74376e-01,2.01254e-01,-1.97957e+00,-1.81632e+00,1.62850e-03,-1.14182e+00,2.74444e-01,2.49355e-01,1.14392e-01,
1.37234e-02,-2.98759e-01,1.45307e-01,-6.69253e-01,-1.82017e-02,1.29391e+00,-1.62509e-02,-3.26526e-02,-1.46647e+00,3.49456e-02,1.60369e-01,8.41634e-02,-1.41604e-01,3.55003e-02,5.65210e-01,1.35785e+00,-1.42198e-01,-4.16466e-02,8.89626e-01,6.68989e-01,-1.06094e-01,-2.02139e-02,4.51685e-01,8.45492e-01,-3.49641e-01,-4.21348e-01,-6.62000e-01,1.68586e-02,8.71120e-01,-9.09013e-01,5.38334e-01,-1.31160e-02,1.35841e-02,-8.79968e-01,5.97632e-03,3.44624e-02,9.65910e-03,-1.32964e-02,-1.16982e+00,9.74506e-01,-5.57184e-01,-7.27760e-01,7.68749e-01,1.25121e-01,8.97144e-01,9.07982e-03,-1.38386e-01,1.64880e-01,1.52880e-01,1.08081e+00,
-1.41428e-02,-2.47554e+00,1.91489e+00,-2.78759e+00,2.74880e-02,-8.92649e-01,4.30940e-02,3.88209e-02,-7.82266e-01,-1.71986e-02,7.27373e-01,-3.70487e-01,-2.43241e+00,8.08163e-03,8.07660e-01,4.70022e-03,4.69044e-01,-1.01348e-02,8.17747e-02,6.23081e-01,1.02074e+00,-1.65870e-02,-5.15687e-01,-1.02383e+00,5.74041e-01,3.29522e-01,-3.96235e-01,2.27271e-02,7.82273e-01,-1.02030e-01,-8.04627e-01,-1.29473e-02,1.55635e-02,4.18618e-01,3.51287e-02,-3.81198e-02,-8.73375e-04,-3.12268e-02,-1.57850e+00,-1.51751e+00,-1.08943e-01,-3.31377e-01,4.30540e-01,6.76162e-01,-6.15932e-01,-1.76281e-02,5.93505e-02,3.55619e-01,-6.93161e-02,1.57961e+00,
2.22746e-02,-1.76603e-01,-7.52620e-01,1.00940e+00,1.38328e-02,2.87991e-01,-5.31684e-03,1.09060e-02,-2.06835e-01,2.57621e-02,-2.73983e-02,3.55128e-01,-1.73240e+00,-1.65595e-02,-1.98373e-01,1.20975e-01,-5.17838e-01,-2.74293e-02,-1.23095e-01,-6.80727e-01,2.58633e-02,2.86920e-02,3.23742e-01,-5.56896e-02,-6.85104e-01,-1.02950e-01,2.41375e-01,2.61407e-02,-1.00173e-01,5.02528e-02,5.93374e-01,-3.29190e-02,3.59897e-02,1.70106e-01,-2.39604e-02,3.25824e-02,-8.03466e-03,-3.58370e-02,-1.30706e-01,-2.61515e-01,-1.05537e+00,-2.97600e-01,4.78970e-01,6.86132e-02,1.52260e-01,-1.63525e-02,5.19579e-01,-1.73326e-02,-1.07297e+00,1.03981e-01,
1.47626e+00,
6.00989e-01,
-1.48535e-01,
1.51678e-01,
-4.85297e-01,
-2.48411e+00,
-1.30675e+00,
-1.13041e+00,
-3.69945e-01,
5.62040e-01,
-5.22179e-01,
5.63402e-01,
-2.10035e-02,
3.42328e-01,
-8.92954e-01,
-8.19450e-02,
-6.82016e-01,
-1.91946e-01,
-7.48805e-01,
-2.00851e+00,
4.37345e-01,
-2.57222e-01,
7.60044e-01,
3.80221e-01,
9.08202e-02,
6.28428e-01,
-1.92026e+00,
-6.61522e-01,
-2.50350e+00,
-9.99376e-01,
1.57659e-02,
4.62182e-01,
-6.75923e-01,
5.45938e-01,
-9.44387e-01,
-6.87703e-01,
-6.07560e-01,
-2.52679e-01,
-4.67016e-01,
-5.72973e-01,
8.00432e-01,
-1.05698e+00,
-1.00811e+00,
-2.01187e+00,
6.49495e-02,
1.13815e+00,
8.58227e-01,
1.02366e+00,
-3.69491e-01,
-1.98588e-01,
-1.26470e+00,-4.53085e-01,2.41760e-01,-2.65307e-01,9.84600e-01,1.50366e+00,1.78124e+00,-1.33614e+00,1.56163e+00,1.69551e+00,-1.32606e+00,3.32180e-01,1.35932e+00,1.31704e+00,1.79604e+00,5.89258e-01,-9.13848e-01,-6.83592e-01,-1.58579e+00,-7.63534e-01,-1.66433e-01,-7.70358e-01,7.39418e-03,1.57991e+00,1.17569e+00,-1.86191e+00,6.49294e-01,-2.73300e+00,-1.77395e+00,2.18153e-01,4.39270e-01,1.02583e+00,4.14140e-01,7.87488e-01,4.16091e-01,1.88268e+00,1.05691e+00,2.72597e+00,2.69565e+00,9.33568e-01,8.72825e-02,1.82305e+00,-1.76948e+00,1.58115e+00,2.97471e+00,-2.02654e+00,9.95154e-02,-8.01785e-01,-4.10881e-01,-2.61832e-01,
-1.08303e-01,1.26108e-01,-2.62487e-01,3.14924e-01,2.36337e-01,-1.40802e+00,1.27538e+00,1.28733e-01,-6.90157e-02,2.40777e-01,-8.22226e-01,-3.13339e-03,-7.19135e-01,4.55497e-02,-2.94961e-01,4.94784e-01,4.72424e-01,1.70865e+00,1.27077e+00,3.97645e-01,3.76330e-02,1.54732e-02,3.53776e-01,1.03787e-01,-5.84824e-01,7.70842e-01,6.71807e-02,1.52846e+00,-1.60902e+00,4.72374e-01,-6.00797e-01,3.76270e-01,1.25633e-02,-4.09807e-01,-1.52408e-01,4.63247e-01,1.16591e+00,1.16448e+00,9.95985e-01,9.63937e-01,-9.47684e-02,-2.07867e+00,1.90047e+00,4.45363e-01,8.96384e-01,2.66949e-01,-4.72137e-01,-1.59993e-01,-1.68101e+00,3.76701e-01,
3.07948e-01,-4.89621e-01,-2.16738e-01,-3.66308e-01,-2.48286e+00,-2.01006e-01,-3.96585e-01,-2.34202e+00,-4.03241e-01,-1.93165e+00,-9.60323e-01,-4.75862e-01,-1.45106e+00,1.51751e-01,6.23088e-01,2.27449e+00,-2.53139e-01,-1.06151e+00,-1.41703e+00,1.08431e+00,1.44169e-01,3.69571e-01,7.00155e-01,-1.38633e+00,5.37934e-01,-6.19359e-01,1.17736e+00,-1.91322e-01,-1.73292e+00,3.54702e-01,4.75196e-01,1.85317e-01,6.93159e-01,-6.96103e-01,9.38289e-01,-5.54724e-01,1.58946e+00,-1.73084e+00,1.78404e+00,9.14707e-01,-7.05651e-02,-2.47765e+00,-2.81021e-01,-1.39616e-01,-6.31397e-01,3.38533e-01,1.30225e+00,-4.40672e-01,5.93229e-03,-1.04713e+00,
2.29765e-02,3.40115e-01,-2.76744e-01,-1.98395e-02,2.82846e+00,7.70556e-01,-2.88609e-01,-7.79862e-01,-4.23494e-01,-6.95192e-01,4.26273e-01,-6.72668e-02,-7.79630e-01,1.57630e-01,3.97323e-01,-4.64779e-01,4.83472e-02,-4.55559e-01,1.77539e-01,1.19012e+00,-5.58602e-02,-3.51346e-01,-1.57824e-01,1.14189e-01,2.28949e-01,4.37619e-01,-5.59364e-01,-1.51652e+00,1.64025e+00,-3.09340e-01,-8.36647e-01,7.85183e-01,4.91925e-01,1.05452e+00,9.55436e-02,-8.41894e-01,-2.89777e-01,2.51104e+00,3.62439e-01,3.42116e-02,-1.17083e-01,3.95488e-01,-5.06726e-01,8.79870e-01,1.43010e+00,9.20416e-02,3.05499e-01,1.46050e+00,1.10538e-02,-1.12875e-01,
-3.86820e-01,-8.05317e-02,7.85214e-02,-2.94157e-01,-3.14964e-02,-1.31408e-01,-1.70556e-01,-1.88865e+00,7.21038e-02,-8.43220e-02,-1.21218e+00,1.37613e-01,-1.96252e+00,2.47083e+00,-3.18573e+00,1.57659e+00,7.59615e-01,-7.88463e-01,1.77724e+00,-2.23671e+00,4.78132e-01,5.05924e-03,1.57469e-01,-7.19681e-02,8.60318e-01,-1.27392e-02,6.46652e-01,-1.74371e+00,-2.66395e+00,2.76986e-01,-3.79298e-01,2.48904e-01,-3.14642e-01,2.23232e+00,3.31836e-02,2.37991e+00,-6.37543e-01,5.98927e-01,1.58754e+00,-5.52575e-01,1.10404e-01,3.27476e+00,-7.00693e-01,-1.59188e+00,6.38938e-01,-9.04787e-01,8.05044e-01,-1.71234e+00,8.65867e-01,4.22862e-01,
-1.52966e-02,-4.42321e-02,-4.53962e-02,3.02891e-03,2.14036e-02,-8.38293e-04,4.23776e-02,-4.14444e-02,2.33970e-02,-2.28087e-02,-3.98366e-02,1.88120e-02,-7.62523e-03,1.40488e-02,-2.71254e-02,-3.39341e-03,3.47555e-02,2.25830e-02,4.78947e-02,5.62436e-02,-5.24134e-02,-5.53758e-02,-2.09801e-02,-5.11696e-02,4.28687e-02,-5.63165e-02,3.81981e-03,5.07478e-03,-1.40935e-02,3.16272e-02,-1.60128e-02,1.95094e-02,-1.49141e-02,-4.04847e-02,1.11952e-02,-2.59062e-02,-3.18671e-02,-1.91789e-02,4.11899e-02,-2.08675e-02,-4.76683e-02,4.65658e-02,-4.47964e-03,3.14908e-02,8.39722e-03,-7.73420e-02,-7.15523e-03,7.73175e-04,4.10446e-02,7.14318e-03,
4.68572e-02,-2.49180e+00,-9.59729e-01,4.77978e-01,-1.65120e+00,-6.62816e+00,-1.04993e+00,-7.44019e+00,3.99905e-01,2.03371e+00,-7.81361e-01,-2.69810e-01,-3.99029e+00,-1.00843e+00,-1.39846e+00,1.25377e-01,-3.22044e-01,-1.90274e+00,-1.38928e+00,-7.26991e+00,-3.37807e-01,-3.75745e-01,3.21957e-01,2.64014e-01,1.34115e-01,-1.08773e+00,-1.31086e-02,-1.37047e+00,1.83689e+00,5.77079e-02,-3.68559e-01,8.93505e-01,7.12175e-01,5.54545e-01,4.23330e-01,-3.51323e-01,-8.81917e-02,1.78401e+00,-1.79830e+00,5.39783e-01,6.17986e-01,1.59276e+00,1.29633e+00,-1.82223e+00,-1.95586e+00,-2.10650e+00,-5.15295e-01,1.13111e+00,9.50424e-01,1.05465e+00,
6.67037e-01,1.16936e-01,-5.75276e-01,4.78261e-01,1.43616e+00,-1.21307e+00,2.04769e-01,-4.20237e-01,-7.79456e-02,-6.89875e-01,-1.90762e-01,1.34834e+00,2.42048e-01,6.27338e-01,-8.01487e-01,-1.63132e+00,1.23668e-01,-8.66229e-01,-2.67659e+00,8.26000e-01,-7.87799e-01,-6.01896e-01,-2.40576e-01,1.99658e+00,8.24134e-01,-3.85654e-02,3.07445e-01,1.60582e+00,2.72021e+00,-4.59507e-01,4.01681e-01,-7.56933e-02,2.10466e-01,1.92209e+00,1.64827e-01,-2.27359e+00,6.64013e-01,9.47106e-01,5.13765e-01,-5.60539e-01,-1.52059e-01,-1.17778e+00,-1.59143e-01,-3.57727e-01,6.42361e-01,1.09992e-01,8.32229e-01,1.93288e-01,5.10682e-02,-8.85611e-02,
1.28689e+00,6.04425e-01,5.72856e-01,-1.53396e+00,-2.12831e+00,8.77685e-02,3.47119e+00,2.38107e+00,1.72117e-01,3.09176e+00,1.20842e+00,-7.52469e-01,1.22045e+00,1.16052e+00,1.11622e+00,4.12136e+00,1.25735e+00,2.37670e+00,3.83642e+00,7.38327e-01,1.31094e+00,2.08813e+00,2.40699e+00,4.89868e-01,-9.65009e-03,5.11277e-02,2.60006e+00,2.62957e-01,4.20942e-01,1.67929e+00,1.35587e+00,1.32336e+00,7.31314e-02,4.55102e-01,1.23679e+00,3.36241e+00,6.52822e+00,-7.50962e-01,2.53544e+00,2.33325e+00,3.55964e+00,5.37781e-02,3.20610e+00,2.95888e+00,6.08105e-01,3.52931e+00,2.74345e+00,-2.92625e-01,2.75628e+00,1.30923e+00,
5.02753e-01,-7.57931e-01,5.78459e-01,9.51184e-01,3.20234e+00,1.20306e+00,-2.75918e+00,9.66453e-01,-5.89012e-01,2.07292e+00,4.72948e-01,1.43957e+00,1.93471e+00,-9.70424e-01,3.07678e-01,2.29080e+00,1.20546e+00,1.46551e+00,1.98091e+00,2.38104e+00,-8.33552e-01,-8.93357e-01,-1.85032e-01,2.50237e+00,7.71429e-01,1.23746e+00,1.50297e+00,3.37765e+00,1.32081e+00,-2.83065e+00,-1.78599e+00,6.13640e-02,-8.58704e-01,3.23024e+00,-1.01760e+00,-1.88259e+00,-9.91462e-01,2.51661e+00,1.52109e+00,9.98804e-02,-2.50988e-01,-3.53828e+00,1.51444e+00,3.09413e+00,1.33451e+00,1.75061e-01,-1.06633e+00,1.04163e+00,-3.69444e+00,1.55792e-01,
-8.40979e-03,-1.09328e-02,-5.28553e-02,6.15647e-03,-1.53294e-02,7.38152e-04,3.50354e-03,-3.21066e-02,-1.08831e-02,3.44211e-02,-2.51157e-02,-4.58020e-02,4.53384e-02,-2.24197e-02,2.84642e-02,1.97817e-02,1.48055e-02,1.19698e-03,-5.32314e-02,2.50498e-02,-2.06024e-02,-1.17600e-03,-5.09661e-02,-5.13267e-02,-4.52365e-02,2.95956e-04,1.82350e-02,2.20886e-03,9.74089e-03,-1.43803e-03,1.42851e-02,-2.33501e-02,-4.25286e-02,1.67362e-02,-4.05469e-02,7.36479e-03,-4.00603e-02,-3.52449e-02,-8.79044e-03,-5.01369e-02,-1.96617e-02,-3.61279e-02,-3.74016e-02,-1.35522e-03,1.73797e-02,-1.38314e-02,-4.41094e-02,-1.12600e-02,5.02884e-03,1.95070e-02,
-1.46450e-01,1.08099e+00,-4.17214e-01,1.12038e-01,-3.79349e+00,3.29290e-01,-2.96050e+00,8.18351e-01,-3.95717e-02,1.01506e+00,4.98568e-01,-1.39927e+00,-5.54850e-02,9.62273e-01,-9.10544e-01,2.82789e+00,1.59850e+00,-5.99015e-01,1.65687e-01,-2.46441e-01,6.08030e-01,3.06528e-01,-4.92273e-01,-3.01481e+00,-3.92808e-01,6.64714e-01,1.45850e+00,-3.77735e+00,-3.96741e+00,-1.20128e-01,5.00997e-01,-4.52929e+00,4.00982e-02,6.64253e-01,3.36680e-01,-1.36871e+00,-2.60619e+00,3.61806e+00,9.90546e-01,-2.94201e+00,3.97734e-01,1.38395e+00,-2.47060e+00,1.63352e+00,8.56415e-01,-2.98779e-01,-9.72104e-01,2.57575e-02,4.70903e-01,-3.64819e-01,
-2.21957e-01,7.85223e-02,2.99774e-01,1.05003e+00,-2.69365e+00,1.18668e+00,8.15547e-01,5.60505e-02,2.84755e-01,1.02911e+00,2.65792e-01,4.54543e-01,-2.07404e+00,1.57744e-01,2.28334e-01,3.01504e-01,1.94212e-01,-1.22912e-01,1.43752e+00,1.15193e+00,-1.81768e-01,-1.60149e-01,3.38693e-01,1.20433e+00,1.57491e-01,9.25392e-02,-2.93794e-01,-5.86494e-01,2.21124e+00,3.83800e-01,5.96047e-02,1.35050e+00,-1.18138e-01,-1.25672e-03,-6.85316e-01,-4.71164e-01,-1.23127e+00,1.83439e+00,-6.89598e-01,-3.52297e-01,8.88574e-02,-9.07229e-01,7.88867e-01,1.25586e-01,1.50502e+00,2.21632e-01,3.39568e-02,5.26697e-01,-8.34049e-01,-1.46616e-01,
7.04185e-01,-1.42743e-01,5.31161e-01,-1.28181e+00,-3.09412e+00,5.33445e-01,1.11217e+00,2.69018e-01,2.68255e-01,-4.58731e-02,1.42375e+00,-5.31919e-01,1.87022e+00,1.01251e+00,2.47881e-01,-1.18683e+00,-2.52075e-01,-4.04538e-02,2.65314e+00,5.67135e-01,-1.39979e-01,-1.10814e-01,-8.65804e-01,1.56874e-01,-9.63038e-01,2.07987e-01,6.46355e-01,1.09906e+00,1.33436e+00,-1.35408e+00,-3.85691e-01,2.38020e+00,-1.83783e-02,-1.02562e-01,-3.86641e-01,-8.97790e-01,9.74779e-01,-1.21326e-02,-9.77170e-01,2.40309e-01,2.51062e-01,-7.35783e-01,5.13343e-01,1.61970e+00,2.63989e+00,6.40382e-01,-2.78628e-01,3.60775e-02,-1.13417e+00,-1.97838e-01,
-7.01246e-02,2.68119e-01,3.09471e-01,-4.80410e-01,-2.14457e+00,-1.18731e+00,3.36533e+00,-3.89885e-02,1.17210e-01,5.26290e-01,6.38701e-01,-4.93287e-01,2.22236e+00,1.53858e+00,2.68944e-01,1.15760e+00,-6.14877e-01,1.30932e+00,2.20482e+00,-3.19354e+00,5.11585e-03,-4.60806e-01,4.12427e-01,3.64850e-01,1.00176e+00,-5.89264e-01,1.22454e-01,2.31763e+00,-1.31361e-01,-7.38132e-02,-4.30456e-01,2.08952e+00,2.00565e-01,-1.72957e+00,-7.70165e-01,4.22898e-01,2.82865e-02,-1.83081e+00,1.44029e+00,-6.83092e-01,2.53624e-01,2.31168e+00,1.18971e+00,9.52035e-01,8.09520e-01,2.05331e-01,6.20129e-01,9.16455e-01,-1.98682e-01,6.69895e-01,
-5.25406e-02,-6.53693e-02,-4.64271e-01,-1.59086e-01,7.14768e-02,-3.50206e-01,-1.96796e-01,8.92477e-01,-6.39081e-01,-2.89501e-01,4.48642e-01,-9.37355e-02,1.09834e-01,-9.14279e-01,1.36714e+00,-5.47057e-01,5.17370e-01,4.36682e-01,-1.35447e-01,-1.01615e+00,9.33158e-02,-5.91272e-02,3.98980e-01,-7.25560e-02,4.40972e-02,-4.43030e-01,-2.18324e-01,6.40506e-01,-1.48659e+00,-2.18963e-01,-9.36701e-02,1.08605e+00,-3.43978e-01,9.17697e-01,6.91651e-02,9.30825e-01,-1.43427e+00,-8.67658e-01,3.51339e-01,4.46007e-01,3.57880e-01,-7.57728e-01,-4.42181e-01,1.11668e-01,8.07827e-03,1.93203e-01,-1.58126e-01,-3.95297e-01,2.32775e-01,1.97261e-02,
4.82529e-01,9.22148e-01,8.84277e-01,1.56102e+00,1.13988e+00,2.52868e+00,1.50829e+00,1.34169e-01,-5.46070e-01,1.18727e-01,8.78303e-01,3.66854e-01,-2.26639e-02,-2.32991e-01,5.15205e-02,-7.90740e-01,-4.44096e-01,1.56729e+00,1.68450e+00,2.28120e+00,-2.48860e-01,-5.02113e-01,1.35135e-01,2.90773e+00,5.17868e-01,5.84033e-01,-6.64721e-02,4.79935e-01,1.65746e+00,-6.81664e-03,-5.51360e-01,9.31851e-01,-6.22400e-01,5.95307e-01,-9.90714e-01,-3.61713e-01,-1.56137e+00,2.14915e+00,1.06263e-01,-1.27753e+00,-2.75888e-01,3.67749e-01,1.11699e+00,7.95426e-01,1.34650e+00,1.53879e-02,6.02475e-02,1.22324e+00,-1.55868e+00,3.66429e-01,
-5.35199e-01,6.99309e-01,-4.65574e-01,-3.91348e-01,-3.12829e-01,-2.88500e+00,-7.73876e-01,4.12189e-02,-8.68625e-01,-2.40269e-01,1.75429e-01,1.07752e-03,3.68506e-01,-7.83299e-01,-3.12699e-02,-1.78723e+00,-4.05412e-01,-7.47363e-03,7.56330e-01,7.52648e-02,-4.77342e-02,1.66992e-01,5.31429e-02,-1.82801e+00,-1.63694e+00,1.97055e-01,3.47290e-01,-4.17363e-01,-5.26181e-01,2.70354e-01,5.49197e-01,3.86895e-01,-1.89541e-01,-1.16126e+00,4.54952e-01,-5.66457e-02,-3.21430e+00,-1.81985e+00,-1.62143e+00,-1.21867e+00,1.09774e-01,-1.20288e-01,3.68558e-01,3.49038e-01,-1.63114e+00,-1.30861e+00,1.35528e+00,-1.83293e-02,-8.54663e-02,-6.74146e-01,
4.47320e-01,5.33088e-01,3.34376e-01,-4.55744e-01,3.80852e-01,5.17070e-01,1.69959e+00,1.29903e+00,-3.95038e-02,5.77251e-01,-4.32013e-01,4.75048e-02,1.62699e+00,2.53696e-03,-4.03672e-02,7.64707e-01,1.68759e-01,-1.30684e+00,1.01793e+00,-1.06097e+00,-3.12672e-01,2.11460e-01,3.26935e-01,6.07936e-01,2.68860e-01,-3.29906e-01,-6.07469e-01,7.04745e-01,-2.94732e-01,5.53729e-01,-7.62757e-03,-6.15641e-01,1.36407e-01,9.76736e-01,-1.86833e-01,-1.05325e+00,2.94740e-01,-3.39950e+00,-5.14158e-02,5.52917e-01,2.79485e-01,9.55977e-01,1.60912e+00,-4.87405e-01,1.28437e-01,-1.57618e+00,-5.30323e-02,-4.79691e-01,-3.96994e-01,-1.36465e+00,
2.05429e-01,4.77133e-01,6.10363e-01,1.04379e+00,-4.49317e-03,1.36614e+00,9.88913e-02,9.86087e-01,1.73705e-01,-2.51808e-01,3.33454e-01,4.80595e-01,-1.95716e+00,5.70144e-01,-1.17081e+00,6.04827e-02,-1.98478e-01,-2.79545e-01,-1.56218e+00,5.46193e-02,-2.07724e-01,-4.89354e-01,3.77109e-01,7.29384e-01,-6.89526e-01,3.86775e-01,5.65690e-01,-9.93282e-01,-1.53859e+00,-3.87793e-01,-5.58474e-02,1.32643e+00,-4.96891e-01,8.90644e-01,-2.04367e-01,-3.06184e-01,-1.22418e+00,-3.26252e-01,5.32181e-01,4.29496e-03,-4.50138e-02,1.56706e+00,1.46608e+00,7.51449e-01,1.36942e+00,5.39378e-02,-1.71915e-01,-5.95345e-02,-7.50679e-01,-7.56662e-02,
-4.25689e-04,-3.49450e-02,-3.91529e-02,2.30264e-02,-4.85000e-02,-2.88671e-02,-5.28859e-02,-3.13986e-02,2.95731e-03,-3.90855e-02,3.14326e-02,-1.02420e-02,-4.20250e-02,-5.62668e-02,-3.30147e-02,-2.02423e-02,2.14653e-02,-4.15081e-02,-3.24280e-03,-5.09568e-02,-3.70360e-02,-5.89128e-02,-4.06550e-03,-1.44120e-02,-3.26223e-02,3.10148e-02,-1.18497e-02,-9.22974e-04,2.54820e-02,1.13396e-03,-5.69398e-02,2.03066e-03,-4.73233e-02,-1.11400e-02,8.19794e-03,4.40478e-02,2.09125e-02,1.58337e-02,2.36026e-02,-1.50921e-02,9.11465e-04,1.14375e-02,2.59995e-02,-8.65403e-03,3.00796e-02,-5.22117e-02,1.97769e-02,-6.50352e-02,-5.08573e-02,1.63163e-02,
3.39339e-01,-5.89204e-01,7.04246e-01,8.19885e-01,7.15346e-01,-5.80189e-01,1.34942e+00,-2.83448e-01,-1.61235e-01,2.45779e-01,4.06238e-01,1.77867e-01,-6.96030e-01,7.39934e-01,-2.00265e+00,-2.97316e-01,6.28663e-01,1.34752e+00,6.55178e-01,8.03843e-01,-7.74445e-02,-2.18716e-01,-4.02393e-01,5.86351e-01,-1.36219e+00,1.04112e-01,3.39417e-01,1.20064e-01,-1.85052e-01,-1.56877e+00,4.57521e-01,2.68531e-01,-2.86865e-01,-1.45119e+00,1.82436e-01,1.32872e-02,3.74177e-01,-1.53759e-01,1.68189e+00,1.95384e-01,-3.44328e-01,1.53290e+00,-1.74694e-01,9.45768e-01,-5.68341e-01,1.96830e-01,8.09628e-01,6.06571e-01,-6.42440e-01,-1.67191e-01,
1.92170e-01,-4.14289e-01,-2.62388e-01,-2.29188e-01,2.97334e-02,-3.60669e+00,1.15745e+00,-5.78703e-01,-1.50064e-01,-4.56723e-02,4.79745e-01,-5.35335e-01,-4.61686e-01,1.55248e+00,6.31447e-01,6.63496e-02,-3.52968e-01,-1.26658e-01,1.06651e+00,-6.57428e-01,-2.36234e-01,-3.34200e-01,1.66687e-01,-5.21275e-01,5.97325e-01,-4.43828e-01,1.48294e-02,1.33383e+00,-1.40880e-01,-4.79834e-01,-3.40167e-01,-4.13719e-01,-1.12976e-01,6.17456e-01,5.98796e-02,-1.68359e+00,-7.39727e-01,-5.23184e-02,-1.79830e-01,-1.15066e+00,5.66854e-01,1.44160e+00,7.01746e-01,-1.79970e-01,-1.02331e+01,5.40212e-01,3.28851e-01,-1.54906e-01,1.63055e-01,8.28839e-01,
-5.37816e-01,3.04623e-01,9.80378e-01,8.23439e-01,2.41198e-01,6.79472e-02,7.49952e-01,-3.19867e-01,2.59064e-01,1.37837e-01,-5.34346e-02,6.61710e-01,1.09855e+00,-8.46345e-01,7.04634e-02,1.04816e+00,-1.28040e+00,3.58697e-01,-2.43057e+00,1.06455e-01,-3.15425e-01,-3.27675e-02,2.98669e-01,-1.01634e+00,2.48069e-01,-4.48945e-01,-3.43551e-02,8.20013e-01,5.36327e-01,-1.59268e-01,3.86554e-01,4.51473e-01,-1.66905e-01,-7.99267e-01,-7.06789e-01,8.22864e-01,-1.48248e-01,1.11849e+00,1.85274e+00,5.12233e-02,8.10041e-01,4.55214e-01,-5.87811e-01,3.23646e-01,-7.81234e-01,4.69188e-01,1.64264e-01,-3.71007e-01,3.18060e-01,8.17628e-01,
-4.25989e-01,-4.30753e-01,1.59827e+00,-1.60187e-01,2.45972e+00,1.39930e+00,1.96559e+00,4.36301e-01,-9.91870e-01,1.56438e+00,1.32361e+00,-5.16806e-01,3.17220e+00,2.97141e+00,3.66083e-01,2.39836e+00,8.74711e-01,1.05402e+00,2.74687e+00,3.62745e+00,-3.33164e-01,-1.56625e+00,-1.96593e-01,-6.89048e-01,-6.11381e-01,6.29051e-01,8.22166e-01,-7.07589e-01,-1.81231e+00,3.46861e-02,-1.06217e+00,7.64075e-01,8.85309e-01,6.48032e-01,-2.36053e-01,-5.24914e-01,2.35573e+00,2.45315e+00,2.64576e+00,1.23039e+00,-1.08377e+00,5.06293e+00,1.23560e+00,7.53139e-01,1.45068e+00,3.80924e-01,-2.64198e-01,2.18742e-01,-2.77505e-01,6.25475e-01,
-5.28128e-01,-5.99756e-01,-4.59548e-01,-6.70698e-01,2.58187e+00,2.53970e-01,2.74625e+00,9.76567e-01,3.17283e-01,7.44727e-02,1.60827e-01,-5.40475e-01,1.02549e+00,2.40894e-01,6.04543e-01,-9.08146e-01,-7.41668e+00,-3.09530e-01,-4.58728e+00,-1.60760e-01,1.37852e-01,-6.49871e-02,-5.40843e-01,1.42329e+00,1.03198e-01,7.53793e-02,3.83643e-01,1.12381e+00,4.18667e-01,6.57781e-01,-3.44481e-01,2.40343e+00,-6.33840e-01,2.06566e-01,-1.79430e+00,1.28981e-01,1.32004e+00,3.99761e-01,2.13163e-01,3.49468e-01,4.73109e-01,1.14672e+00,3.17502e-01,-4.08259e-02,1.39143e+00,6.83526e-02,3.04335e-01,5.49674e-01,3.84775e-01,7.84689e-01,
2.08093e-01,2.49498e-01,-6.83660e-01,-5.09791e-01,-8.27096e-01,1.48082e-01,5.77174e-01,9.66715e-02,3.37784e-01,5.93047e-01,6.77903e-01,-1.78696e-01,3.36379e-01,-1.09027e+00,2.11474e-01,-4.30899e+00,2.22611e-01,-1.84031e-01,-6.61347e-01,3.38008e-01,5.09990e-02,9.31852e-02,2.15664e-01,6.65825e-01,-2.34686e-01,-1.03146e-01,-1.37865e+00,-6.60658e-02,1.13493e-01,-1.16325e-01,-3.24513e-01,-6.54147e-01,2.87127e-02,1.56720e+00,1.38165e-01,3.82828e-01,-4.54990e-01,-3.26331e-01,4.47159e-01,-3.12186e-01,1.66489e-01,-9.56951e-01,2.07378e-01,6.32371e-01,1.38304e-01,9.25387e-02,-4.44887e-01,-1.64894e-02,-4.54074e-02,-1.82084e-01,
-1.80778e-01,5.81542e-01,-5.58945e-01,-1.12934e-01,-2.92707e-01,1.11469e+00,-5.48959e-01,-2.54411e+00,3.66245e-01,5.23347e-01,4.84236e-01,6.92677e-01,8.76871e-01,4.02134e-01,-2.30299e+00,6.69038e-01,8.41510e-01,1.18346e-01,1.50855e-01,1.33127e+00,-1.62439e-01,-3.02053e-01,-2.99011e-01,2.04396e+00,-2.81671e+00,-4.44007e-01,-4.83011e-01,6.40389e-01,4.51582e-01,5.22132e-01,6.66353e-01,-1.36639e-01,1.02316e-01,7.64568e-01,3.15592e-01,-4.33054e+00,-6.63547e+00,-1.04276e+00,-7.11332e-01,-2.55034e-01,-3.97540e-01,1.08956e-01,-3.87990e-01,1.64700e+00,1.81621e-01,-2.16977e+00,-5.10727e-01,-8.75766e-01,1.84465e-01,1.19129e+00,
-2.04000e-01,7.65898e-01,-8.31273e-01,6.08848e-01,1.23560e+00,5.16256e-01,3.55478e-01,1.19086e+00,3.54754e-01,-6.36326e-01,-1.36843e+00,4.08708e-01,-1.21355e-01,7.60117e-01,2.00852e-01,2.20974e-01,-4.73654e-01,1.25513e-01,1.12314e-01,1.70000e+00,-1.55929e-02,-7.72712e-01,1.15642e-01,-7.03515e-01,-2.35998e-01,-1.98081e-01,3.05390e-01,8.55134e-01,6.22871e-01,-6.14532e-02,1.70801e-01,1.56353e+00,6.16132e-02,4.58275e-01,7.53433e-02,-6.59129e-01,5.65176e-02,1.61465e-01,4.19606e-02,-1.34649e+00,-1.06284e-01,2.19066e+00,-2.26957e-01,1.47616e-01,-1.93223e+00,4.54184e-01,2.93168e-01,7.17280e-01,6.49828e-01,9.55360e-01,
-1.12124e-01,2.49684e-01,3.25866e-01,3.60357e-01,7.93354e-01,1.48099e-01,3.23632e-01,7.37853e-01,2.64008e-01,-4.37311e-01,6.05070e-02,2.04249e-01,1.22435e+00,1.60646e+00,3.53845e-01,9.69295e-01,2.09253e-01,-4.75279e-01,-1.23447e+00,1.67175e+00,6.99601e-02,-6.66548e-01,2.04039e-01,7.29156e-01,1.31332e+00,6.79280e-01,4.13439e-01,6.95484e-01,6.46281e-01,5.47239e-02,-7.99094e-01,2.60799e-01,2.97032e-01,-7.83775e-01,1.54758e-01,1.01544e+00,8.22586e-01,-8.49612e-01,3.06853e-01,-1.83595e-01,-5.02578e-01,1.22217e+00,1.32864e+00,-1.27441e+00,-2.00959e+00,-8.56808e-01,-4.57966e-01,-3.72778e-01,-1.19022e-01,6.90264e-01,
-2.03774e-01,9.90577e-02,5.19009e-02,3.12928e-01,9.84423e-01,1.90762e+00,1.26097e+00,-9.92240e-01,9.15333e-01,-2.11046e+00,-6.78869e-01,1.53862e-01,8.72015e-01,1.37584e-01,1.96969e-01,3.50566e-01,8.13813e-01,1.33457e+00,-9.75348e-01,1.01131e+00,-2.76986e-01,-5.30891e-01,1.65069e-01,1.22107e+00,-2.32208e-01,7.11806e-01,4.11354e-01,1.09037e+00,1.74844e+00,8.12854e-02,-2.50431e-01,2.40708e+00,1.18313e-01,8.71932e-02,-1.05752e+00,-1.36746e+00,-1.03134e+00,1.51542e+00,4.71541e-01,-8.02777e-01,-1.15172e+00,1.89811e+00,-1.07584e+00,-2.56966e-01,6.20107e-01,-3.00921e-01,-3.77552e-01,5.78242e-01,-6.35135e-01,4.07009e-01,
-3.65471e-01,-2.74277e-01,2.63832e-01,5.94898e-01,1.59835e+00,1.22414e+00,6.72062e-01,1.18612e+00,-8.11126e-01,-8.45592e-01,-3.42332e-01,4.10223e-01,3.72616e+00,1.71911e+00,2.22346e+00,1.62646e+00,1.14882e+00,-4.11606e-01,1.68038e+00,8.75699e-01,-1.54332e-01,-1.05207e+00,-1.16217e+00,1.91116e+00,-3.98670e+00,-2.26185e+00,-2.30019e-01,5.52261e-01,3.07514e+00,5.48585e-01,-6.78515e-02,1.47717e+00,-5.38328e-01,3.86429e-01,1.30767e-02,1.13186e+00,2.60901e-01,8.57183e-01,9.32934e-01,-6.75854e-01,-7.29025e-02,1.87044e+00,1.73962e+00,-3.89964e+00,3.14485e+00,-2.54948e+00,-9.24977e-01,2.35005e-01,1.01216e+00,-7.44618e-02,
4.59083e-01,1.57556e+00,-2.77949e-01,-5.05118e-01,4.86545e-01,2.36653e+00,8.81136e-01,-1.55428e+00,2.14976e+00,4.05696e-02,1.29233e+00,-1.09821e+00,5.15908e-01,1.65550e+00,-6.02286e-01,-2.34661e+00,8.24462e-01,-2.56556e+00,-3.22487e-01,-1.24338e+00,-5.14240e-01,5.35218e-01,-1.41325e+00,-1.69454e+00,2.76003e-01,1.23449e+00,-1.66102e+00,-1.22122e+00,-1.17193e+00,-1.77192e+00,-1.46266e+00,-2.37424e+00,-1.30809e+00,-1.17965e+00,3.32652e-02,4.44926e-01,1.12369e+00,-1.29331e+00,1.91602e+00,1.94411e+00,8.27722e-01,-5.02975e+00,1.77144e+00,-1.75484e+00,-9.42405e-01,-8.12602e-01,-4.15356e-02,-8.85402e-02,-6.92625e-02,3.14523e-01,
-3.96893e-01,3.03752e-01,3.07544e-01,-3.13884e-01,7.54998e-01,-3.10822e+00,1.16513e+00,-4.16307e-02,-3.32326e-01,8.26219e-01,1.04401e-01,-5.79250e-01,-2.82297e+00,-4.62011e-01,4.77891e-01,1.56293e+00,-3.37446e-01,1.85091e+00,1.57818e+00,1.38724e+00,2.73452e-01,-4.31397e-01,2.52264e-01,3.53684e-03,-5.09451e-01,-5.37279e-01,7.45224e-01,-1.89887e-01,1.80895e+00,-1.17482e+00,2.50447e-01,7.59178e-01,-3.32160e-01,4.09328e-01,-4.38925e-01,-3.85748e-01,-9.13063e-02,7.70831e-01,-1.53883e+00,2.02534e-01,-4.18091e-01,7.23003e-01,1.25715e+00,-7.04835e-02,5.28718e-01,1.11045e-01,-1.22836e-01,-4.04330e-01,4.48716e-01,-1.20809e+00,
4.43215e-01,-1.25134e-01,1.84308e-01,-4.80487e-01,1.18064e+00,1.03786e+00,2.73733e-01,7.46832e-01,2.42298e-01,-2.04640e-01,-8.05734e-01,3.14248e-01,2.57439e-01,-1.22188e+00,2.68880e-01,1.37150e+00,-5.43482e-01,1.64475e-01,5.37165e-01,-2.24154e-01,1.47487e-01,-6.89711e-02,1.17424e-01,4.63786e-01,2.40089e-01,3.52112e-01,6.87823e-01,1.11462e+00,9.44903e-01,2.69583e-01,-8.35722e-02,2.20458e-01,-6.20572e-01,2.16637e-01,-3.38396e-01,9.46845e-01,-1.51439e+00,8.97079e-01,8.07378e-01,2.58166e-01,-1.67537e+00,-9.48739e-02,3.68187e-01,-2.72878e+00,8.70687e-01,-3.50954e-01,2.35059e-01,-5.53151e-01,4.62570e-01,1.19890e+00,
1.20096e-01,-3.65437e-01,-5.75497e-01,-5.03573e-01,-7.52883e-01,-1.44635e+00,-1.30235e+00,-3.66615e-01,7.26094e-01,4.57970e-01,-7.14418e-01,4.61950e-01,-3.57254e-01,4.72564e-01,-1.66111e-01,8.45762e-01,-3.05983e-01,-5.39785e-01,-3.18495e-01,-7.36924e-01,1.45585e-01,2.19732e-01,-2.55293e-01,-4.90089e-02,2.95364e-01,-4.36236e-01,-7.52931e-02,6.62187e-01,-5.60391e-01,-2.90256e-01,3.97927e-01,-1.17332e+00,-2.33637e-02,-1.23555e+00,3.80556e-01,-7.65674e-01,1.19795e+00,4.32324e-01,-5.94284e-02,-4.02444e-01,5.33054e-01,8.66707e-01,1.05387e-01,1.29261e+00,4.15939e-01,1.43773e-01,2.14478e-01,2.56415e-01,4.52497e-02,4.21411e-01,
-8.69984e-02,6.31071e-01,-1.61227e-01,-2.32215e-01,-2.87662e+00,2.37029e-01,6.47084e-01,5.10763e-01,4.81380e-01,-2.02623e+00,4.51917e-01,-1.24865e-01,-8.29633e-01,-1.36932e-02,9.87289e-01,-2.34454e+00,-1.17560e-01,1.28372e-01,1.43691e+00,-1.24105e+00,-1.12413e-01,6.41305e-01,9.72622e-01,-1.32519e+00,-7.40149e-01,-3.82436e-01,5.71803e-02,1.03011e+00,1.99493e+00,4.41072e-01,-3.66774e-01,-6.08036e-01,6.88074e-01,-4.79732e-02,3.64999e-02,6.61238e-01,5.39878e-01,-3.92320e+00,4.00745e-01,1.92595e-01,3.20441e-01,-8.76289e-01,4.28503e-01,5.45669e-01,1.22789e+00,3.93343e-01,-4.66872e-01,-1.07818e+00,9.90484e-01,3.18596e-01,
-2.28758e-01,-8.68928e-02,-5.71780e-01,9.62600e-01,5.90907e-01,-1.05695e+00,-3.59937e-01,8.93358e-01,7.42671e-03,3.77919e-01,1.55408e-01,-1.18242e+00,-2.10028e+00,4.46625e-01,-2.23872e+00,6.87229e-03,-5.42687e-01,-4.65980e-01,-5.03490e-01,-8.60741e-01,-2.14748e-01,-3.42851e-01,8.43711e-01,-1.10551e+00,-9.68141e-01,-7.48995e-01,5.52060e-02,-8.78037e-01,-2.58234e+00,1.27602e+00,-2.51047e-01,-8.11923e-01,-7.57481e-01,1.32580e-01,-3.45689e-01,-1.95616e+00,8.97429e-01,1.95885e+00,-1.03128e+00,6.39621e-01,1.11209e-02,-5.24699e+00,1.07512e+00,8.32787e-01,-2.83557e-01,-4.90558e-01,-1.21508e+00,-8.55663e-01,-5.14525e-01,-2.02133e-01,
5.48817e-01,6.07049e-01,6.72004e-01,-6.61994e-01,-3.44200e-01,9.70294e-01,1.23358e+00,-3.30606e-01,1.05567e+00,8.54148e-01,1.68890e+00,-4.16730e-01,-6.36968e-01,-3.84219e-01,5.26690e-01,1.04419e+00,8.53632e-01,4.02915e-01,1.32051e+00,-3.94160e-01,-2.73259e-01,-2.66487e-01,-1.86135e-01,2.15894e+00,8.93532e-01,-4.66214e-01,1.05990e+00,-1.04500e+00,1.83422e+00,-1.31307e+00,-3.65634e-01,6.43211e-01,6.89958e-01,1.57890e+00,-1.60259e-01,-8.16039e-01,2.68050e+00,5.48073e-01,1.13082e+00,-8.04494e-01,4.69485e-02,1.55468e+00,1.25365e+00,-3.00418e+00,-2.65579e-01,7.18742e-01,-2.09897e+00,-1.05896e+00,3.90939e-02,-5.48690e-01,
-1.60742e-01,-4.90138e-01,1.16542e+00,1.33769e+00,3.37929e+00,-2.43147e-01,-1.69582e+00,9.08578e-01,-2.58229e-01,4.14646e-01,3.22629e-01,7.42852e-01,7.52786e-01,1.17636e+00,1.41039e+00,-1.17794e-01,4.99893e-01,1.37471e+00,-1.38411e+00,2.09033e+00,-4.69682e-01,-7.02104e-01,-1.49340e-01,1.08612e+00,2.16612e-01,8.54033e-01,-1.07824e+00,-8.29045e-01,5.49299e+00,3.05955e-01,-4.11454e-01,-1.62854e+00,3.82268e-01,1.30418e+00,-7.91567e-02,6.76080e-01,-8.83081e-01,2.02868e+00,-2.78317e-01,-1.20426e+00,1.88271e-01,-3.67454e-01,-3.50322e-01,-2.10550e-01,6.45667e-01,1.58456e-01,-8.19087e-01,9.17416e-01,-1.12607e+00,-4.98303e-01,
9.10533e-01,-4.44163e-01,8.48638e-01,2.05655e-01,-1.08881e-01,1.90569e+00,2.10234e+00,3.13703e+00,2.34105e-01,2.04099e+00,1.35298e+00,-7.79650e-01,2.78603e+00,1.11111e+00,-1.29713e+00,1.20766e+00,1.26982e+00,2.11527e+00,-2.40233e+00,1.34190e+00,-3.90891e-01,-1.10290e+00,-2.08570e+00,1.06195e+00,-7.10624e-01,2.03453e+00,4.99698e-01,3.38077e+00,-3.20942e-01,9.28177e-01,1.04654e-01,3.76700e+00,-1.58645e-01,-1.88879e+00,-6.34546e-01,5.23672e-02,2.04359e+00,1.20710e+00,2.86683e+00,4.89094e-01,-4.71472e-01,8.99404e-01,4.00363e+00,7.41319e-01,1.01127e+00,-1.43855e-01,-9.13358e-02,1.93142e-01,-9.08469e-01,-9.42649e-01,
-8.72091e-01,4.00272e-01,-4.17216e-01,3.45583e-01,2.56935e+00,3.29104e+00,8.58658e-01,7.88035e-02,-1.57676e-01,-1.39974e-02,-9.86203e-01,-1.06327e+00,1.21771e+00,-5.66596e+00,1.33957e+00,1.42625e+00,5.99599e-01,8.75600e-01,2.62138e+00,1.28119e+00,-3.68430e-01,-4.59241e-01,4.90258e-02,-7.09556e-01,-1.21137e+00,2.20460e-02,3.63679e-01,2.05453e+00,-2.78640e-01,1.67444e-01,9.17830e-01,-2.38030e+00,1.95392e-02,-1.58984e+00,-7.16640e-02,7.10727e-01,6.67620e-02,1.21875e+00,6.12306e-01,-1.20817e-02,-4.88283e-01,1.05547e+00,-1.32382e+00,5.55072e-01,4.34135e+00,1.89695e-01,1.12699e+00,5.95271e-01,1.02515e+00,-1.66850e-01,
6.15985e-01,9.35347e-01,2.49999e-01,-1.79526e-01,-4.64714e+00,3.37652e-01,-2.93056e+00,-2.38119e-01,-3.95288e-01,-9.35039e-01,2.28925e-01,-7.76929e-01,9.31793e-01,-3.44176e-01,-1.12897e+00,1.34237e+00,3.87263e-01,2.58947e+00,-9.25667e+00,-3.05808e-02,-1.97480e-01,2.59708e-01,-3.81972e-01,-9.92666e-01,1.22162e-01,9.26638e-01,1.97196e-01,-7.57174e-01,-1.52279e+00,-7.51695e-01,2.46637e-01,-2.38735e+00,-3.83573e-01,1.62257e+00,-4.56769e-01,-5.10827e-01,9.41516e-01,-2.04821e-01,-8.20671e-02,-4.22189e-01,3.06361e-01,6.71993e-01,-2.47615e+00,-1.31660e+00,9.12615e-02,6.19642e-01,6.93647e-01,-1.18926e+00,-7.95986e-01,1.04073e-01,
-4.08005e-01,-2.14058e-01,-5.93842e-01,-1.11140e+00,-1.32568e-01,1.34712e+00,6.13734e-01,-1.06010e+00,6.16757e-01,-4.57115e-01,4.05062e-01,-2.39399e-01,1.55361e+00,1.32273e-01,-3.17508e-01,1.45920e+00,2.82493e-01,-1.18447e-01,1.90008e-01,4.94312e-02,-2.43068e-01,-1.21074e-01,-2.84894e-04,-5.28947e-01,6.65388e-01,-5.59155e-01,-4.07682e-01,-1.00405e+00,3.73963e-01,-1.76195e-01,2.61438e-01,1.47743e-01,6.77102e-02,-2.07176e-01,3.93048e-01,8.29226e-01,1.09159e+00,1.81486e-01,-9.05613e-01,-2.40901e-01,9.33800e-02,2.16288e-01,7.65836e-01,-6.22347e-01,5.88100e-01,1.00174e+00,1.73332e-02,7.04547e-01,-7.39633e-03,7.43701e-01,
6.33613e-03,3.11352e-01,9.02195e-01,1.01406e+00,8.60905e-01,2.10379e+00,-1.45726e+00,1.84637e+00,1.55627e+00,-7.44258e-01,-5.43296e-02,3.51163e-01,2.27366e+00,3.23043e-01,8.35041e-01,1.65427e+00,1.09705e+00,5.58704e-01,4.09999e+00,1.17475e+00,-1.24282e-01,-7.26771e-01,-1.57936e+00,2.03387e+00,1.51233e+00,-1.26064e+00,1.24238e+00,1.12602e+00,2.64112e+00,-6.61756e-01,8.33656e-01,3.10191e+00,-6.05398e-01,1.78415e-01,-5.95322e-01,-8.50676e-01,-1.69205e+00,-8.18650e-01,1.85227e+00,-3.50939e-01,-5.55682e-01,-4.21065e-01,1.63697e-01,2.24115e+00,2.37150e+00,-3.91000e+00,1.75549e-01,-3.13463e-02,7.71770e-01,1.19087e+00,
1.21030e+00,1.81840e+00,-7.70108e-01,-1.84381e+00,-8.48151e-01,-2.97966e+00,-2.09212e+00,1.22865e+00,-5.09153e-02,3.04083e-01,6.56632e-01,-1.21396e+00,1.16687e-01,-1.51661e+00,-2.74610e+00,-3.45200e+00,-1.66547e+00,-4.06665e+00,8.71422e-01,2.36022e-01,1.72594e-01,6.01558e-01,5.48444e-01,1.72074e+00,2.76249e-01,-1.82377e-01,-3.73207e+00,-1.67350e+00,-2.60849e-01,4.80483e-01,-1.24051e+00,-1.81962e+00,-3.00131e-01,-3.33395e+00,-5.60419e-01,-2.33702e+00,-1.78997e+00,-7.53371e-01,-3.06657e+00,6.07315e-01,5.72003e-01,7.10450e-02,-9.13311e-03,-1.12927e+00,-1.20721e+00,6.94977e-01,-1.62439e+00,4.59628e-01,1.84461e-01,-7.19037e-01,
-5.09562e-02,2.74806e-02,-2.95380e-02,4.39728e-03,3.09931e-02,-5.16749e-02,-3.40150e-02,-1.65129e-02,-4.13532e-02,2.77317e-02,2.59336e-03,1.83568e-02,-2.94652e-02,-3.99124e-02,4.71448e-03,2.16759e-02,-4.45341e-02,-3.21625e-02,-2.68205e-02,-5.01158e-02,-1.83720e-02,-4.32182e-02,-3.89966e-02,-2.01148e-02,4.23783e-02,-1.79247e-02,2.80943e-02,-2.74525e-03,1.31101e-03,-3.24738e-02,-4.43104e-02,-2.74227e-02,-1.69110e-02,-2.20723e-02,-4.14821e-02,-5.58483e-03,-1.61210e-02,3.87192e-02,1.40896e-02,-2.88812e-02,-4.62375e-02,-2.97631e-02,-2.27896e-02,-4.13290e-02,1.81451e-02,-4.22195e-02,3.80863e-02,-2.16147e-02,4.60983e-02,3.53366e-02,
4.88670e-01,3.97754e-01,4.09398e-01,-9.88649e-02,3.84527e-01,4.98958e-01,1.20701e+00,3.05174e-01,-2.21940e-01,6.54353e-01,4.79572e-01,-4.51414e-01,6.72763e-01,-1.42988e-01,-4.00984e-01,-1.59142e+00,5.86819e-01,9.12496e-02,2.28525e+00,-8.32820e-01,1.02236e-01,2.43839e-01,-3.49950e-01,-1.61426e+00,-4.75315e-01,-3.13071e-01,-2.16650e+00,6.73377e-01,1.80819e+00,9.63865e-01,-4.59900e-01,1.29701e-01,-3.14734e-01,-8.58296e-02,-3.58234e-01,1.33353e-01,1.15776e-01,-1.78872e+00,-1.02948e+00,1.18693e-01,-3.04883e-01,-1.11803e+00,5.69161e-01,-3.17809e-02,-1.96843e+00,2.26338e-01,-2.46102e-01,1.64127e-01,3.18216e-01,-3.15147e-01,
-7.85730e-01,-3.22682e+00,1.36701e+00,1.70948e-01,-2.97211e-01,-1.21607e+00,3.09780e-01,-1.35376e+00,-1.15532e+00,-1.89966e+00,-1.97167e+00,-4.74926e-01,8.11316e-01,-8.97262e-01,-4.57236e-01,-1.45501e-01,2.73022e-01,-5.28461e-01,-2.49869e+00,-2.03484e+00,1.10516e-01,7.96637e-01,8.65473e-01,-3.41676e+00,-1.14352e+00,-9.08243e-01,-1.33153e+00,1.18407e+00,-7.35595e-01,1.92962e-01,4.62106e-01,-8.56554e-01,5.75159e-01,-2.67622e+00,3.73793e-01,1.58238e+00,-5.18498e+00,-3.06625e+00,6.72927e-01,-2.05365e+00,-9.00157e-01,-1.04433e+00,9.56673e-01,5.23924e-01,-3.60364e+00,-1.90262e+00,1.52900e+00,-6.12652e-01,3.27077e-01,-1.24835e+00,
6.44534e-01,1.85755e-01,7.17957e-01,-3.84959e+00,-8.55529e-01,-3.60061e-01,-4.54456e+00,7.67192e-01,-7.06356e-01,3.65109e-01,3.04124e-02,-3.16075e-01,3.58531e+00,-5.52948e-01,-7.37778e-01,6.73664e-01,-2.13084e-01,2.43293e+00,-1.53889e+00,-3.74901e+00,6.97627e-01,1.21923e+00,5.00743e-03,-7.27706e-01,9.16197e-02,-3.61667e-01,1.79820e-01,-2.69720e+00,-6.96510e-01,1.10908e-01,-4.31562e-01,8.16796e-01,-1.24773e+00,-5.15748e+00,2.21692e-01,1.25082e+00,6.14879e-01,-2.64769e+00,-1.66838e+00,6.72916e-01,1.28787e+00,-1.08774e+00,-5.80349e-01,-1.48840e+00,-3.63109e+00,1.32671e+00,6.50344e-03,-6.01891e-02,1.43726e+00,1.85955e-01,
-2.15674e+00,
-3.22495e+00,
-1.02033e+00,
9.50154e-01,
8.40506e-02,
-1.86542e-02,
2.93301e-01,
-1.00072e+00,
1.79445e+00,
-1.18848e+00,
-2.61749e-02,
4.62902e-01,
8.26451e-02,
-4.66388e-01,
-2.29081e+00,
1.54523e-01,
1.07079e+00,
9.36854e-02,
-2.04768e+00,
1.20679e+00,
-1.89353e-02,
-5.82104e-01,
-8.06404e-01,
-2.41985e+00,
-4.54864e+00,
-1.11030e+00,
-6.71971e-01,
8.90811e-01,
-1.04141e+00,
2.08079e+00,
