// The contents of this file are licensed under the Creative Commons
// Attribution 4.0 International License: https://creativecommons.org/licenses/by/4.0/
// Neural Network File Format by Kyle Julian, Stanford 2016
7,5,5,50,
5,50,50,50,50,50,50,5,
0,
0.0,-3.141593,-3.141593,100.0,0.0,
60760.0,3.141593,3.141593,1200.0,1200.0,
1.9791091e+04,0.0,0.0,650.0,600.0,7.5188840201005975,
60261.0,6.28318530718,6.28318530718,1100.0,1200.0,373.94992,
1.60550e-01,-1.93743e+00,2.16966e+00,1.41850e-01,4.57920e-01,
1.02468e-01,1.47801e+00,-1.77639e+00,1.36121e-01,-6.52599e-01,
2.17760e-02,8.12071e-01,1.00970e-01,6.01396e-01,-6.50466e-01,
-9.50781e-03,5.14973e-01,1.63132e+00,-1.47942e-01,1.89796e-01,
9.05549e-03,-9.83640e-01,1.10534e+00,-9.39109e-02,1.84957e-01,
-3.35828e-01,-2.45704e+00,2.51648e+00,-1.40635e-02,-7.91120e-01,
-5.24343e-02,1.75508e+00,-2.13176e+00,-7.00412e-02,5.59414e-01,
1.57758e-01,-1.60981e+00,1.31247e+00,1.09598e-01,-2.36515e-01,
9.93427e-03,-1.07234e-02,-1.37423e-02,1.18399e-02,-8.45800e-04,
4.81964e-03,2.30415e-02,-3.82064e-03,8.15532e-05,9.61506e-03,
-5.96997e-02,2.49071e-01,4.31907e-01,-4.42480e-01,-9.31362e-02,
4.54656e-02,-7.21140e-02,2.15416e-01,-8.17889e-02,-1.86461e+00,
7.34947e-01,-8.48052e-03,-1.05886e-02,1.42879e-01,8.04103e-02,
2.22717e+00,-3.76500e-02,4.21522e-02,2.36535e-02,3.94441e-02,
2.46505e-02,5.88099e-01,8.49283e-01,4.29980e-01,-4.53454e-02,
-5.03312e-02,1.16585e+00,-1.40683e+00,-8.22027e-02,2.59667e-01,
-2.24080e-02,-2.97150e-01,-9.42976e-01,8.17271e-02,7.24324e-02,
-2.99618e-02,3.99278e-01,-2.70132e-01,-1.61721e-02,-1.10913e+00,
2.49462e-03,-2.45844e-01,1.05074e+00,-5.55420e-02,-6.64153e-01,
5.63379e-03,-1.44155e+00,1.95187e+00,-1.73351e-01,6.41072e-01,
-6.12014e-02,-5.55451e-01,-1.33673e+00,5.09084e-01,-3.30187e-01,
3.62268e-02,1.43650e+00,-1.79658e+00,2.76646e-01,-6.10691e-01,
-1.54587e-01,8.03696e-01,9.72237e-01,7.35818e-01,-7.89723e-01,
5.84895e-02,-2.99756e-01,4.76021e-01,1.07472e+00,-1.11700e+00,
3.72501e-01,8.74059e-01,-9.53925e-01,8.40965e-03,1.70885e-01,
5.92025e-02,4.96511e-01,-1.00330e-02,1.85213e-01,3.79766e-01,
-4.73153e-02,-1.09769e+00,-4.35223e-01,5.29828e-01,-2.27492e-01,
7.21142e-02,2.03450e+00,2.93713e-01,1.26860e-01,-1.44498e-01,
4.70876e-03,-1.23624e+00,1.59784e+00,-1.39188e-01,3.92080e-01,
1.11645e-01,-4.53259e-01,1.14149e+00,4.60199e-01,-5.30753e-01,
-8.30952e-02,1.85342e+00,-2.25459e-02,2.09698e-02,-6.86452e-01,
-1.70882e-02,4.45536e-03,-3.20548e-02,3.25966e-01,9.88783e-02,
-1.26202e-01,-6.32900e-01,-1.63662e-02,-4.97119e-01,6.16975e-01,
9.51966e-02,-1.25394e+00,-1.43282e+00,1.69484e-01,2.81459e-01,
-2.54539e-02,-9.21215e-01,-5.71918e-01,3.95195e-01,-3.05011e-01,
-5.61084e-02,-5.95043e-01,-7.30692e-01,-3.57000e-01,5.34088e-02,
4.59689e-03,7.94308e-01,2.61040e-01,-1.19769e-01,5.87317e-02,
1.80918e-01,-2.05884e-01,5.18442e-01,-6.42233e-01,7.26140e-01,
-3.00941e-02,-6.63809e-01,-1.18960e-01,-2.71273e-01,1.33629e-02,
2.01892e-02,-5.64035e-01,5.91202e-01,-4.31970e-01,4.66915e-01,
-1.10763e+00,-1.04696e-01,-6.27237e-02,6.04764e-02,-4.40033e-02,
-6.40180e-02,-4.07361e-02,3.86754e-03,-7.04302e-01,7.03241e-01,
-2.48828e+00,-2.13725e-01,1.47825e-01,1.57724e-02,-1.64491e-02,
1.99359e-02,8.62705e-04,1.44215e-03,-1.70411e-02,3.06012e-03,
8.31467e-02,-1.35103e+00,-7.46848e-02,9.72335e-02,-3.55858e-02,
-7.04046e-01,1.60448e-01,8.59789e-01,2.63744e-01,1.53123e-01,
-1.70612e-01,2.31342e+00,-2.86201e+00,-1.52773e-01,9.02843e-01,
8.87804e-05,-1.98099e+00,2.09834e+00,9.72495e-01,-8.60263e-01,
1.22332e-01,-1.09439e+00,-2.02138e-02,7.33083e-01,-8.52861e-01,
1.48678e-01,-1.45188e+00,4.51811e-01,3.20701e-01,-4.41691e-01,
3.06229e-02,
2.44152e-01,
1.33718e-02,
2.88753e-02,
-5.35883e-01,
-1.02602e-01,
-6.44674e-01,
-4.49700e-01,
-2.75754e-02,
-2.19069e-02,
-1.10854e-02,
-7.54237e-01,
2.31571e-01,
6.52223e-01,
-1.40033e-03,
-5.43980e-01,
-4.12755e-02,
-4.95190e-01,
-2.93582e-01,
-5.26703e-01,
-2.22066e-02,
-3.77710e-01,
6.17968e-02,
2.30671e-01,
-3.95854e-01,
2.92626e-02,
1.77872e-01,
-9.98932e-02,
-5.96660e-01,
2.29830e-01,
-2.03298e-01,
1.10547e-01,
1.06396e-01,
-1.52288e-01,
-2.70308e-02,
1.20276e-01,
3.97293e-02,
1.00904e-01,
2.99061e-02,
1.28694e-01,
-9.25063e-02,
1.46498e-03,
-5.65617e-01,
-2.54389e-02,
-1.99489e-02,
-1.05925e-01,
-3.90361e-01,
-2.57498e-01,
-1.26947e-01,
-2.32132e-01,
-1.00992e+00,-9.72259e-01,-8.96375e-02,1.42594e+00,1.13969e+00,-9.97028e-01,-5.29877e-01,2.07285e+00,-4.33804e-02,-1.40184e-02,2.60731e-01,-1.20925e+00,1.00026e-02,6.03408e-01,1.43794e+00,4.08145e-01,8.67734e-01,1.08515e+00,8.51034e-01,-4.66417e-01,-1.82557e-02,1.19225e-02,2.64918e-02,-8.09281e-01,3.67300e-01,-4.10726e-01,6.66128e-01,4.91479e-01,-1.91790e-01,-2.25307e-01,-1.05765e-01,7.17460e-01,3.03928e-01,5.12574e-01,2.71449e-01,1.36935e+00,7.79905e-01,3.04166e-01,7.44547e-01,1.54391e-01,-3.04542e-02,7.18146e-01,2.03514e+00,3.97703e-02,2.49627e+00,1.89292e-01,-1.08650e+00,8.92380e-02,2.52777e-01,5.13409e-01,
2.33752e-02,3.06728e-02,3.44369e-03,-2.49603e-02,4.09448e-02,2.78939e-02,-4.81839e-02,-5.37117e-03,-1.00825e-02,2.94559e-02,-1.91859e-02,3.32020e-03,9.60662e-03,-2.78179e-02,1.97037e-02,3.34849e-03,-1.61443e-04,-1.66474e-02,-2.41360e-02,-3.02382e-02,2.00400e-04,3.32023e-02,-5.50496e-02,6.58589e-04,3.72588e-02,1.54727e-02,2.07944e-02,1.74178e-02,-2.39184e-03,-6.72062e-02,-3.37287e-02,1.51901e-02,6.23407e-03,-4.53781e-02,-2.07456e-02,-1.99905e-02,-1.68657e-02,3.32167e-02,-1.14973e-02,-2.24724e-02,-1.78474e-02,-1.86499e-02,-3.19812e-02,1.49759e-02,1.14815e-03,-1.62575e-02,-3.44341e-02,-4.50493e-03,-3.66895e-02,1.42191e-02,
-6.75437e-01,-2.86637e-01,-5.28635e-01,2.09462e-01,-3.94424e+00,-1.10032e+00,4.62909e-01,-1.49294e+00,-3.05652e-02,3.18839e-02,1.27609e+00,5.68516e-01,-3.13215e-01,1.86646e-01,1.24606e+00,2.16869e+00,1.45513e+00,-3.12413e-01,-3.42304e-02,-9.03055e-01,1.58939e+00,3.39235e-01,1.58690e-01,3.93922e-02,1.69423e+00,1.01051e+00,-6.04255e-01,2.93258e+00,-1.83613e+00,-1.23533e-01,1.46444e+00,2.37462e-01,1.45939e-01,5.33922e-01,4.57679e-01,1.37305e+00,2.34742e+00,-3.66968e-02,3.09706e-01,2.62533e-03,-1.00013e+00,4.76591e-01,3.87612e-01,4.08307e-02,-5.05520e-01,-3.66659e-01,-6.72962e-01,-3.42037e-01,2.75907e-01,4.77022e-01,
-7.56648e-02,5.39068e-01,-1.25078e+00,1.03356e+00,-1.41979e+00,4.93626e-01,6.42993e-01,1.11353e+00,2.48129e-02,3.45978e-02,5.22166e-01,2.80349e-01,-1.58453e-01,1.49787e-01,-5.96788e-01,1.44650e+00,3.33036e-01,-1.38414e+00,1.26272e+00,3.64476e-01,-1.08097e-01,-1.23064e+00,2.42891e-01,-1.38112e+00,1.19733e+00,-1.08167e+00,1.57918e-01,9.84665e-01,-7.54887e-01,-8.18492e-02,4.65067e-01,-2.50816e-01,1.57594e-01,-1.76744e-02,8.50849e-01,8.24925e-01,5.45423e-02,2.33275e-01,1.25028e+00,-2.11830e-02,-2.74923e-01,7.58444e-01,-2.11055e-01,3.35303e-02,1.20414e+00,2.93915e-01,2.66587e-01,-6.53470e-01,-7.33948e-01,1.71823e+00,
2.60800e-02,-6.75066e-03,-3.85016e-02,-4.21030e-02,-1.59291e-02,-4.48228e-02,-5.73644e-03,3.13355e-02,7.59041e-03,-3.79009e-02,1.55911e-02,-5.93526e-02,3.27529e-02,-3.24860e-02,2.82615e-02,2.49180e-03,-4.22504e-02,-6.40498e-03,-4.35284e-02,-8.11767e-03,2.11895e-02,-4.05306e-02,-3.65209e-02,-1.72247e-03,9.74803e-03,1.18196e-02,-8.50493e-03,-2.25333e-02,-8.86268e-03,1.61999e-03,2.31528e-02,3.49456e-02,-2.94791e-02,-4.81677e-02,-1.48353e-02,-2.86254e-02,1.60134e-02,-7.87880e-04,-4.54024e-02,7.18907e-03,-1.98955e-02,1.54766e-02,3.71624e-02,-4.84243e-02,-4.64059e-02,-1.96673e-02,-1.28905e-02,-2.44858e-02,2.99948e-02,1.01604e-02,
1.29983e+00,8.31878e-01,-1.10160e+00,-1.88593e+00,4.02649e+00,9.46383e-01,2.71181e-03,1.18227e+00,-1.97163e-03,3.09401e-02,3.50544e-01,1.17019e+00,-2.16877e-01,-3.49900e-02,-1.93781e+00,8.85741e-02,-3.86243e+00,-6.23274e+00,-3.14593e-02,1.14163e+00,-6.45283e-01,2.99402e+00,-7.60903e-01,7.08386e-01,-5.17795e-01,1.34621e-01,5.32705e-01,-3.98022e+00,2.50261e+00,-2.39484e-03,-5.56735e+00,-1.30647e+00,-6.63916e-01,-6.76147e-01,1.38009e-02,-2.05895e+00,-1.32783e+00,-4.09894e-01,-9.69619e-01,-2.64367e-01,-1.39663e+00,-1.23210e+00,-3.35190e-01,3.44205e-02,4.20862e-01,-7.73427e-01,-6.13848e-01,7.05201e-01,9.15116e-01,9.51805e-01,
-5.47598e-01,-1.10838e-01,-1.64508e+00,-1.41635e+00,-1.56658e+00,8.49468e-01,-2.48694e+00,1.53691e+00,6.02787e-03,-1.78574e-02,2.32018e-01,3.37197e+00,-3.02476e-02,-5.74955e-02,-2.29280e+00,-1.50074e+00,7.80608e-01,-4.11798e+00,2.37480e+00,1.94583e+00,1.47048e+00,-1.71972e+00,-1.54077e+00,-3.48566e-01,3.42261e-01,1.39235e+00,1.19592e+00,-2.33451e+00,-1.45053e+00,4.00384e-01,-5.84338e+00,-1.05363e+00,-1.79249e+00,7.41182e-01,1.97057e+00,4.28895e-02,-2.12412e-02,-2.08104e+00,1.07983e-02,-2.42489e+00,-1.20679e+00,-9.67072e+00,3.51013e-01,-4.31708e-03,4.70552e-01,-1.03045e-01,-8.27476e-01,1.63171e-01,8.94445e-01,2.24545e+00,
-2.21125e-02,2.00950e-02,1.54429e-02,-4.37997e-02,4.23610e-02,-4.22057e-02,-1.99397e-02,-4.78999e-02,-4.82877e-02,3.13708e-02,1.58491e-02,-5.73645e-02,-3.61526e-02,-2.49921e-02,-5.33284e-02,-3.59949e-02,-5.65215e-02,-6.11266e-02,2.59666e-02,-4.98510e-02,2.83959e-02,-6.05710e-02,-5.20221e-02,1.68046e-03,-3.14170e-02,6.97689e-03,-1.48372e-02,2.82390e-02,4.13921e-02,3.75912e-02,2.57491e-02,-5.07373e-02,-2.40717e-02,-5.23196e-02,-2.69077e-02,-3.07660e-02,2.64467e-02,-5.03167e-02,1.68457e-02,-1.30617e-02,-5.94718e-02,-4.51591e-02,1.91644e-02,-2.83160e-02,-2.56178e-02,2.16890e-02,3.34189e-03,-1.83369e-02,2.76760e-02,1.02107e-02,
-1.05567e+00,-5.36540e-01,6.80743e-01,-4.37129e-01,-3.04558e-01,-3.81773e-01,-5.24089e-01,-1.15497e+00,-4.48954e-02,-4.59813e-02,-2.18124e-01,3.03144e+00,-2.63540e-02,-7.04294e-02,-4.07997e-02,-4.35636e-01,9.69947e-01,-1.14193e+00,1.08493e-01,-2.26262e-01,2.60533e-01,8.95048e-02,-1.18541e-01,-9.56481e-01,-6.12420e-01,-1.46195e-01,9.07522e-02,4.15321e-01,3.69392e+00,-1.82822e-01,1.80753e-01,8.29453e-01,6.32813e-01,2.54127e-01,3.30134e-01,1.06848e-01,3.42957e-03,-3.57922e-01,-2.72419e-01,-4.91773e-01,8.64628e-01,9.44323e-01,7.62324e-02,-1.42906e-02,-7.58868e-01,-6.02718e-01,-3.36562e-02,9.45414e-01,-1.74537e-01,-1.01838e+00,
-1.48277e+00,-1.72962e-01,-9.51779e-01,7.18738e-01,-3.61720e+00,2.01224e-01,-2.22328e+00,5.02503e-01,-5.58393e-03,-2.52810e-02,7.66529e-01,-4.39827e+00,3.33712e-01,2.23076e-01,-1.17613e+00,-3.58301e+00,-4.45154e-01,-5.59178e+00,2.31208e+00,-8.65569e-01,1.46572e+00,-2.58162e+00,-7.17106e-01,-1.98161e+00,-1.01558e+00,2.87320e-01,7.70306e-01,-1.72013e+00,-9.08914e-01,-2.01164e+00,-6.92963e-01,6.45192e-01,2.49838e-01,-8.54946e-03,2.13842e+00,2.98511e-01,4.40535e-01,6.36717e-01,-5.24619e-01,-1.25688e+00,-6.55998e-01,2.78990e+00,-1.55750e-01,-3.18312e-02,-6.58005e-01,1.22400e-01,-4.93987e-01,3.82915e-01,1.54624e+00,-1.46763e+00,
-4.17286e-01,-5.98364e-01,4.61563e-01,-9.07651e-01,-2.41303e+00,-7.13150e-01,-1.24834e+00,4.14804e-02,-7.27156e-03,-7.61128e-03,2.39730e-01,-1.55788e+00,5.17164e-02,1.15938e-01,2.42451e-01,-1.75107e+00,9.72665e-02,-1.04395e+00,5.14461e-01,-7.35245e-02,1.59988e-01,3.16200e-01,1.19563e-01,-7.96632e-01,1.68905e+00,4.67008e-01,3.15715e-02,2.51570e-01,6.90939e-02,-6.43515e-01,-5.79791e-01,-3.16687e-01,-2.21494e-01,5.14842e-01,-3.41151e-01,1.35955e-01,2.74168e-01,-1.14936e-01,-5.50771e-01,6.46102e-01,-1.27718e+00,-2.17488e+00,-1.97956e-01,9.26524e-03,1.20281e-01,2.32252e-01,-7.34514e-01,2.46484e-01,2.58496e-01,-1.06818e-01,
-8.03644e-03,-3.11612e-02,5.51509e-02,4.58475e-02,1.73887e-02,-1.15715e-03,1.90676e-02,-2.97957e-02,-4.04235e-02,-3.51904e-02,1.99222e-02,2.09703e-02,-5.06015e-02,-6.78284e-02,-1.53184e-02,1.15602e-02,-3.22523e-02,-4.75200e-02,-2.38002e-02,-3.08970e-02,8.97526e-03,1.93077e-02,3.81953e-03,-1.97521e-02,-3.88931e-02,-3.47501e-02,3.90337e-03,-2.80699e-02,-2.66398e-02,6.95436e-03,-3.38085e-02,-5.63969e-02,-1.28452e-02,3.15345e-02,-1.53626e-02,-1.41911e-02,2.99834e-02,-1.10318e-02,-1.68740e-02,8.18506e-03,-3.57173e-02,-4.00463e-02,3.22757e-03,-3.54200e-02,1.32290e-02,3.82655e-02,2.69819e-02,-7.19659e-02,-6.09082e-03,-1.76424e-02,
-1.09594e+00,-3.54638e-01,6.29719e-01,8.83236e-01,-3.10577e-01,-1.85089e-01,-3.86756e-01,-7.76606e-01,-1.70454e-02,-2.97510e-03,2.74833e-01,-1.65623e+00,4.17146e-01,-4.55301e-02,2.96595e-03,-1.12652e-01,9.21257e-01,-1.48600e+00,-2.55598e+00,-7.69599e-01,-2.86437e-01,6.95203e-01,6.48502e-01,-4.03345e-01,1.50570e+00,-4.74727e-02,-9.85624e-01,4.54628e-01,-3.38406e+00,-1.28625e+00,8.30635e-01,4.07533e-01,-1.60545e-02,-7.70199e-01,-1.38254e+00,3.60656e-01,4.68013e-01,-1.12907e-01,1.14693e+00,-9.48284e-01,4.58510e-01,7.74049e-01,9.81362e-02,4.14209e-02,-1.32188e+00,-1.16545e-03,-5.58667e-01,-1.22128e-01,2.68946e-01,-6.89488e-01,
-1.69303e+00,-7.48885e-02,-1.12321e+00,-9.84900e-01,2.39122e+00,8.15926e-01,4.53871e-01,-6.50264e-01,-5.95673e-03,-1.95453e-02,-1.01539e+00,3.50847e+00,-6.25030e+00,-9.30534e+00,2.10890e-01,-1.51483e+00,7.66322e-01,8.63655e-01,3.37132e-01,-7.29669e+00,7.95318e-01,6.29251e-01,-7.95606e-01,3.01183e-01,-2.55490e+00,6.54861e-01,7.77782e-01,3.61465e-01,2.32206e+00,7.71093e-02,-2.49145e-01,-2.43297e-01,-4.64164e-01,4.04962e-01,-2.50027e-02,-1.51392e-01,1.44411e+00,-1.91001e-01,-6.48354e-03,-7.44603e-01,1.02847e+00,1.08562e+00,4.60240e+00,2.79195e-02,-1.37953e+00,4.01258e-01,6.22102e-01,1.40535e+00,4.53861e-01,-2.07793e+00,
2.42941e-02,-2.22583e-02,-4.64823e-02,-6.28329e-02,2.93747e-02,-4.20580e-02,-1.72896e-02,7.24352e-03,-1.73264e-02,4.07972e-02,-1.01877e-02,8.73362e-03,1.45392e-02,-2.56831e-02,5.12456e-04,-3.02729e-02,1.61710e-02,4.45600e-03,-1.52545e-02,3.07240e-02,-4.51707e-02,-2.90071e-02,-4.47806e-02,2.92555e-02,-4.78411e-02,-2.99177e-02,-4.27355e-02,1.19792e-03,-3.79154e-02,-2.46362e-02,3.62523e-02,3.17314e-02,2.47774e-02,-1.11084e-03,-5.47964e-02,-3.80185e-02,-1.23603e-02,2.82961e-02,-3.48681e-02,1.54265e-02,-1.34731e-02,-3.26158e-02,-2.70998e-02,3.55372e-02,-3.60254e-04,-4.28537e-02,3.94580e-02,2.20927e-02,-1.04701e-02,-3.75323e-02,
2.52398e-02,-1.90688e-02,-3.28387e-02,2.67939e-03,1.01996e-02,-3.45748e-02,-1.37503e-02,-8.88466e-03,-1.81717e-02,3.30143e-02,-4.73503e-02,4.58288e-03,-2.17980e-02,-5.22610e-03,-1.33585e-02,1.99834e-02,-5.29128e-02,4.47734e-02,-4.83349e-02,-3.49503e-02,1.06012e-03,4.16929e-02,-3.77784e-02,5.29367e-02,1.33833e-02,-4.21385e-02,1.17483e-02,-3.28983e-02,-2.82953e-02,1.86807e-02,4.21080e-02,-2.60087e-02,-2.65680e-02,-2.70898e-02,-1.35151e-03,-7.87201e-03,-6.13165e-02,-3.68681e-02,-1.91184e-02,-2.54258e-02,1.13213e-02,-3.95018e-02,-6.70449e-04,3.73173e-02,6.94259e-03,-2.21538e-03,2.35110e-03,2.34143e-02,-3.35552e-02,-2.44486e-02,
-1.07483e-02,3.37635e-02,7.99032e-03,-8.21573e-03,8.35060e-03,3.48647e-03,-2.93491e-02,-4.31667e-02,1.46155e-02,-4.33619e-02,-2.48441e-02,1.41128e-03,-5.62347e-02,1.85070e-03,6.08401e-03,4.18681e-02,3.09123e-02,-4.01861e-02,-2.25747e-02,3.58743e-02,-5.84349e-03,-2.77358e-02,-2.86839e-02,-4.90838e-03,4.30848e-02,-3.22246e-02,2.78495e-02,3.38021e-02,9.13043e-03,-1.07319e-02,1.02087e-02,1.36493e-02,-3.33379e-02,1.42893e-02,-2.68434e-02,-1.38070e-02,1.14920e-03,4.25809e-03,-3.71066e-02,1.40461e-02,-5.81622e-02,1.95371e-02,-4.49847e-03,2.22526e-02,1.21649e-02,8.33803e-03,-4.05677e-02,3.76227e-02,-4.61347e-02,-5.75567e-02,
-3.69591e-02,6.35614e-03,-2.98821e-02,-2.03477e-02,-5.26245e-02,-3.76851e-02,-1.49574e-02,3.98125e-02,-3.03364e-04,2.83069e-02,-5.73463e-02,2.75685e-02,-1.24320e-02,1.17375e-02,-2.23272e-02,-3.57904e-02,-1.09623e-02,2.51618e-02,-2.73666e-02,-3.87341e-02,-4.54971e-02,4.11429e-03,-1.78558e-02,1.03290e-02,-6.49998e-03,-4.03070e-02,-5.43174e-02,-2.19472e-03,8.81123e-03,-1.53847e-02,-7.58697e-03,1.66557e-02,-1.58119e-02,-5.81612e-02,-1.61494e-02,-6.00365e-03,-4.09543e-02,-4.19299e-02,3.20151e-02,9.96878e-03,1.97037e-02,2.95735e-02,3.22799e-02,1.81417e-02,-4.89744e-02,1.89791e-03,5.12389e-03,3.75851e-02,8.41500e-03,-2.42881e-02,
2.37678e-02,-4.03847e-02,-1.59932e-02,1.96281e-02,-1.83223e-03,2.61814e-02,-2.87568e-02,1.33955e-02,-5.43065e-02,2.52012e-02,2.97146e-02,-4.66478e-02,-5.17622e-02,2.40288e-02,-4.29182e-02,-1.06949e-03,-4.11759e-02,2.03947e-02,-2.40750e-03,2.13656e-02,-6.59192e-03,-6.29204e-03,-1.13977e-02,-4.31153e-02,2.31158e-02,-2.79553e-02,2.62959e-03,3.39443e-04,-4.16811e-02,-2.36919e-02,2.07352e-03,-3.81542e-02,2.07443e-02,9.97594e-03,1.92777e-02,2.24280e-02,-5.86253e-02,-4.61020e-02,-1.61775e-02,-4.82190e-02,-1.02823e-02,3.12587e-02,-6.13561e-02,4.10719e-02,-1.50433e-02,-1.08710e-02,-2.71874e-02,-3.30096e-02,-4.78977e-02,-6.88924e-02,
4.31078e-01,3.08244e-01,7.28477e-02,-2.20173e-01,4.01036e-01,1.52480e-01,-1.71266e-01,3.47536e-01,4.40654e-02,4.33505e-02,-2.33193e-01,1.18163e-01,-2.79605e-01,2.06410e-01,6.56595e-01,-2.93333e-01,-2.51543e-02,8.67231e-01,-2.30284e-01,2.42081e-01,-1.05399e-01,-6.71638e-01,-3.22454e-01,7.08322e-02,8.76245e-01,1.66610e-01,-5.04503e-02,-3.70836e-01,-8.83929e-01,-4.09077e-01,-2.79905e-01,-3.62438e-02,-2.34916e-01,4.39701e-02,-3.47462e-01,5.74634e-02,4.78213e-01,-2.19770e-01,-3.60403e-01,-1.50945e-01,2.75304e-01,-1.55723e-01,2.01728e-01,1.28428e-03,-2.24273e-02,-5.54278e-01,-1.64318e-02,-1.75534e-01,-1.55825e-01,1.63043e-01,
-3.06339e-01,-3.67089e-01,3.36457e-01,1.08539e+00,-2.46747e-01,-3.35185e-01,-7.60641e-02,2.25866e+00,-2.94880e-02,2.63743e-02,1.40916e+00,3.12596e+00,-3.38182e-01,4.18176e-02,7.33664e-01,1.35142e+00,-8.24743e-02,7.64534e-01,-2.70164e+00,1.40385e+00,3.25894e-01,5.90780e-02,1.41962e-01,7.22485e-01,1.47952e+00,-6.04794e-01,2.91932e-01,-8.99795e-02,6.53196e-01,4.12940e-01,-3.39932e-01,-1.84480e+00,-2.31633e+00,-2.34278e-01,1.03988e+00,1.32478e+00,-1.82425e-01,-7.55444e-01,7.65309e-01,-6.00510e-01,-9.10086e-01,-1.49354e-02,-3.39357e-01,2.87088e-02,4.53500e-01,9.44223e-01,6.74611e-01,-8.45057e-01,4.02474e-01,-3.57989e-01,
-7.05972e-01,-7.46729e-01,4.68033e-01,1.29600e+00,1.86701e-01,-8.44230e-01,2.29852e-01,1.48633e+00,1.04398e-02,-5.34531e-02,6.37376e-01,-1.19028e+00,-1.85757e-01,8.33566e-02,1.20843e+00,-1.77638e+00,-7.90176e-03,-1.79761e+00,-1.13765e+00,-6.72554e-01,-1.78291e-01,-9.28483e-01,4.38811e-01,7.16470e-02,2.67977e-02,-9.56462e-01,6.34905e-01,-2.60017e-01,-7.78211e-01,-7.24160e-01,8.21520e-02,-9.54066e-01,5.09934e-01,8.41501e-01,-4.32457e-01,7.33127e-01,3.13572e-01,-2.73061e-01,-8.96964e-01,6.71041e-01,-6.66226e-01,-5.84078e-01,-6.29154e-01,2.39118e-02,2.69568e-01,-1.68700e-01,-4.00922e-01,-1.49014e-01,-1.02793e-01,4.62615e-01,
2.61032e-02,-3.09812e-02,-4.42831e-02,-6.80638e-03,-2.75386e-02,-3.80169e-02,2.39329e-02,2.50201e-02,-2.34491e-02,1.50919e-03,1.00286e-02,2.20954e-02,-2.81776e-02,-4.63148e-02,-3.32262e-02,-1.85184e-02,2.68224e-02,-5.08243e-02,-2.18768e-02,-3.39909e-03,-7.05216e-02,-1.92952e-02,-2.93518e-02,1.01815e-02,2.92762e-03,2.42245e-02,3.70649e-02,-2.96830e-02,-1.04160e-02,4.50842e-03,1.29690e-02,-3.57958e-02,-3.33324e-02,-3.53773e-02,2.26230e-03,-1.12374e-02,-2.68882e-02,1.20655e-02,-1.98748e-02,-2.19566e-02,-2.16436e-02,8.81422e-03,-3.21325e-02,-5.18247e-02,1.97286e-02,3.08886e-03,2.97511e-02,2.32763e-02,-2.36530e-02,-3.13632e-02,
-1.32724e+00,2.21969e-01,-6.91559e-01,6.26953e-01,-1.32493e+00,2.01677e-01,4.17923e-01,-5.48667e-01,4.45510e-02,3.23292e-02,3.91409e-01,1.71229e+00,-2.59191e-02,5.19500e-02,1.60770e-01,6.42437e-02,2.15640e-01,-3.83921e-01,4.40044e-01,1.24381e+00,1.95816e-01,-1.66084e-03,-2.15399e-01,3.66093e-01,-3.12762e-01,2.77058e-01,2.81311e-01,-2.86328e-01,5.76862e-01,-3.40197e-01,2.30093e-01,9.25935e-01,-3.57238e-01,2.66914e-01,1.27026e-01,6.12836e-01,-8.04197e-02,-6.36866e-01,2.08217e-01,1.44845e-01,1.14806e+00,-1.43563e+00,5.96170e-02,-7.81077e-03,-1.13737e+00,7.15414e-01,-6.87669e-01,-2.57940e-01,-1.99702e-01,1.34295e+00,
-8.58556e-01,3.27041e-01,-3.86341e-01,-4.65982e-01,1.37606e+00,6.33916e-02,1.59194e-02,1.89719e+00,4.88782e-03,-4.11444e-02,8.66621e-01,1.40147e+00,1.38341e-01,-1.32999e-01,3.14711e-02,-4.18790e-01,-8.21471e-01,-1.76936e+00,1.49418e+00,7.47974e-01,8.28116e-01,-3.09897e-01,-2.95716e-01,1.57497e-01,-6.69597e-02,-1.29037e-01,5.80653e-01,-1.50664e+00,9.65884e-01,2.92087e-01,-1.62661e+00,3.22167e-01,1.05097e-01,1.80261e-01,4.54025e-01,6.57766e-01,-2.44117e-02,8.33458e-01,-1.20785e+00,-5.91024e-01,8.92214e-01,1.06808e+00,-2.36645e+00,-4.29976e-02,-1.19659e+00,-1.42225e-01,-2.07060e-01,2.42455e-01,6.20604e-02,7.77963e-01,
-9.18156e-01,-5.40421e-01,-1.31302e-01,-1.31415e-01,-7.53045e-01,-1.85989e-02,-3.68400e-01,4.54747e-01,2.54030e-03,-4.83241e-03,-8.76060e-02,1.81155e+00,1.60373e-01,7.79479e-02,-5.20878e-02,1.91081e-01,3.75445e-01,9.13474e-01,8.43882e-01,-6.31916e-01,-4.86669e-02,3.99412e-01,7.81923e-02,-3.73327e-01,1.05217e+00,4.23781e-01,-2.16140e-01,6.97506e-01,6.29846e-01,-2.78457e-01,7.84576e-01,9.62543e-01,3.10655e-01,-1.15034e-01,1.88933e-01,6.31604e-01,-2.34140e-01,-2.92733e-02,2.87194e-01,4.87329e-01,-2.36329e-02,-2.22006e-01,-1.14355e-01,-3.86190e-03,6.29724e-01,-1.07834e-02,-3.34662e-01,5.15735e-02,4.15112e-01,5.34980e-01,
1.02337e-03,-1.90642e-02,-2.14571e-02,3.01674e-02,6.22137e-03,-4.35895e-02,-3.28102e-02,2.46838e-02,3.59312e-02,-2.14432e-02,1.52174e-02,-3.76714e-02,-4.72798e-02,-2.43408e-02,1.58360e-03,-1.27909e-02,2.70683e-02,-3.30965e-03,3.11262e-02,5.15669e-03,-8.46497e-03,-7.22729e-03,-2.39753e-02,-1.05094e-02,-5.08857e-02,-3.54327e-02,-6.15109e-02,-3.15168e-02,1.39920e-02,2.79961e-02,-1.56101e-03,2.76111e-02,-3.00324e-03,-5.27676e-02,2.42102e-02,-1.34914e-03,-5.10236e-02,1.54788e-02,-4.29763e-02,-1.72008e-02,-2.53880e-02,-4.09006e-02,-4.37402e-02,-1.14686e-02,3.49024e-02,2.86721e-02,-1.13299e-02,-3.76660e-02,1.57619e-02,4.01056e-02,
-5.20800e-02,5.91289e-03,1.27385e-02,4.02808e-03,1.41900e-02,2.13440e-02,-1.73513e-02,-2.14775e-02,-5.47616e-03,-3.06476e-02,7.58405e-03,-4.27842e-02,8.80117e-03,-2.73039e-02,-4.35979e-02,-5.01308e-02,-2.65282e-02,-1.95129e-02,-4.22272e-02,-1.90441e-02,-3.46055e-02,-4.05473e-02,-1.81750e-02,-1.57117e-02,3.39705e-03,3.05130e-02,-1.64784e-03,-3.39006e-02,1.37284e-02,1.70314e-02,-2.71037e-04,-4.67575e-02,2.61099e-02,3.38944e-02,4.07349e-02,-5.48522e-02,5.90806e-03,-3.92317e-02,-3.22053e-02,2.43765e-02,5.52647e-04,-2.39581e-02,3.51909e-02,4.30603e-02,-3.70290e-02,-1.80242e-02,2.63318e-02,7.13140e-03,-1.99260e-02,-1.31334e-02,
1.25335e-02,-9.33084e-04,6.08477e-03,3.39835e-02,2.64272e-02,2.53190e-02,-6.12419e-02,-2.64754e-02,3.63261e-02,1.91912e-02,-5.49443e-02,-6.51572e-02,-6.08562e-02,2.24228e-02,-1.77340e-02,-2.28384e-02,2.82286e-02,1.37306e-02,4.85112e-03,-2.21447e-02,1.37456e-02,-2.55679e-02,1.74305e-02,1.80686e-02,-4.00421e-02,-4.91128e-03,1.64387e-02,1.48466e-02,7.64326e-04,-2.08402e-02,-3.17010e-02,1.36385e-03,-5.11903e-02,8.66931e-03,1.84036e-02,-5.65270e-02,-4.08670e-02,3.06561e-02,-4.18386e-02,-3.97627e-02,-3.02152e-02,-2.68641e-02,2.47433e-02,5.61788e-02,8.80217e-03,-4.17597e-02,-4.19641e-02,-9.66885e-03,-3.13332e-02,-2.24135e-02,
-2.82741e-02,3.46015e-02,-4.71761e-02,-1.64256e-03,-2.96993e-02,-3.53503e-02,-5.12040e-02,-5.55137e-04,-3.15397e-02,-2.59915e-02,2.43845e-02,2.93206e-02,1.02265e-03,-1.08243e-02,4.31921e-03,2.65491e-02,-5.96698e-03,1.30653e-02,-1.14275e-02,1.48701e-02,2.46601e-02,-1.31649e-02,-3.54718e-02,-1.81682e-02,-2.81702e-02,-3.10705e-02,1.91567e-02,-6.06508e-03,1.64325e-02,8.58229e-03,-3.85876e-02,-2.44393e-03,3.08586e-02,-4.21123e-02,1.31571e-02,-4.37416e-02,-5.53587e-02,-7.11415e-03,-5.40574e-02,2.58246e-02,8.20498e-03,3.49940e-02,-1.92043e-02,-2.27768e-02,-5.80034e-02,-2.31870e-02,-3.58540e-02,-3.94386e-02,3.16279e-02,2.06191e-02,
-1.62295e-02,2.04705e-02,1.34158e-02,-2.23161e-02,-4.32769e-02,4.38930e-03,-5.65231e-02,-3.08688e-02,4.04771e-02,-5.54238e-02,2.38347e-02,-3.14538e-02,-4.02772e-02,-3.69168e-02,2.70894e-02,2.58206e-05,-2.97309e-02,4.85602e-03,8.68651e-03,-3.54758e-03,-1.23458e-02,4.89442e-03,5.94108e-03,-2.30612e-02,2.29839e-02,-1.60375e-02,-4.39312e-02,-4.58910e-02,8.81991e-03,-2.04069e-02,4.95914e-04,1.37469e-02,-2.11982e-02,-1.29110e-02,-1.49359e-02,-1.42497e-02,-2.40512e-02,2.11610e-02,-4.75837e-02,3.47104e-02,-3.21206e-02,6.83374e-05,3.08926e-02,-3.92853e-02,-3.42965e-02,-1.73075e-02,2.93179e-02,-4.03666e-02,3.48565e-02,-4.93393e-02,
6.11376e-01,-8.02475e-01,1.82826e+00,4.83821e-01,-5.92853e+00,-1.00510e+00,7.37136e-02,-2.37835e+00,-5.16040e-02,-4.04726e-02,-3.62753e-01,-2.78671e+00,1.20638e-02,5.93102e-02,1.62303e+00,2.33785e-01,1.00759e+00,5.15814e-01,-7.94920e-01,-2.23343e+00,-7.94360e-01,2.50065e+00,1.29600e+00,4.76258e-01,1.46689e+00,-9.14491e-01,-1.53448e+00,3.52058e-01,-3.12940e+00,-8.68274e-02,-3.59592e-01,-1.39651e-01,1.57247e+00,4.51012e-01,-1.23043e+00,-5.27907e-02,2.49289e-01,1.06261e+00,-2.74539e-01,1.20768e+00,-7.96846e-01,-5.29877e-01,7.28794e-01,-2.39926e-02,-2.11033e+00,-1.02658e+00,-5.66125e-01,-1.81998e+00,-9.38075e-01,-1.52649e+00,
4.74740e-03,-5.31218e-02,4.39494e-03,-4.46811e-03,1.97306e-02,-3.83266e-02,-1.53402e-02,8.52803e-03,3.94229e-02,-5.56959e-03,-1.93061e-02,3.90426e-02,-1.95482e-02,-4.74039e-02,-3.54293e-02,3.07827e-02,3.65267e-02,-3.04703e-02,-2.24546e-03,4.87090e-04,-4.35720e-02,1.60735e-02,-3.99785e-02,4.35562e-02,1.18483e-02,-2.68028e-03,-5.15513e-02,-1.54604e-02,-2.10729e-02,-5.32703e-02,-1.10433e-02,2.51945e-02,3.25811e-02,1.08249e-02,-2.09322e-02,1.20325e-02,3.10628e-03,3.07981e-02,-5.08580e-02,-1.58055e-03,-5.83034e-02,-4.06261e-02,-1.32258e-02,-6.21962e-03,-3.34845e-03,1.64879e-02,2.00014e-02,4.57145e-02,3.96097e-02,3.50103e-03,
4.13620e-01,8.13792e-01,1.52905e-01,-1.80519e-01,-3.83038e-01,8.53815e-02,6.29385e-01,-5.89029e-02,-2.73835e-02,3.88016e-02,3.11309e-01,5.85477e-01,3.01496e-02,-1.21030e-01,-4.80034e-01,2.41766e-01,-6.81272e-01,-6.19312e-01,4.75269e-01,4.65418e-01,-4.14379e-01,7.21081e-01,-3.23983e-01,1.12352e-01,4.98749e-01,-5.40112e-01,-2.85218e-01,-2.88756e-01,-4.85547e-01,1.98682e-01,6.43130e-02,-2.66253e-01,9.40387e-02,1.14106e-01,5.31662e-02,-6.52639e-01,-8.22671e-01,-2.04631e-01,4.43345e-01,-3.05016e-01,-3.66684e-01,-4.84500e-02,-4.36727e-01,1.37251e-02,-2.39033e-01,-4.83072e-01,2.01068e-01,5.96379e-02,4.39564e-02,1.04163e+00,
3.38742e-01,1.29050e-02,-1.28508e-01,-2.27786e-01,-7.22238e-01,5.93147e-01,1.74684e-01,-7.83008e-01,-3.87229e-02,8.28766e-03,-7.54646e-01,1.60304e-01,7.47471e-01,3.53932e+00,-2.21586e-02,-3.67302e-01,-9.09783e-01,1.21600e-01,-4.26887e-01,2.05896e-01,1.21704e-01,-1.99757e-01,2.17942e-01,-1.16990e-01,-3.22593e-01,-2.71411e-02,3.18721e-01,-1.85355e-01,-2.14424e-02,9.22710e-02,-1.99177e-01,5.08365e-01,-4.09106e-01,2.11713e-01,4.56333e-02,3.82622e-01,2.70226e-01,2.11657e-01,-1.42957e-01,-2.34030e-01,-1.96977e+00,2.83690e-02,-3.65457e+00,-8.97485e-03,-8.43509e-01,-9.34435e-01,-2.13297e-01,-6.04667e-02,-2.64226e-01,-1.83620e-01,
9.19865e-01,6.93045e-02,-9.09081e-01,4.16088e-01,-7.73994e-01,-4.49786e-02,-1.36324e-01,-7.11251e-01,2.35763e-02,-4.61947e-02,5.26343e-01,-2.06074e+00,4.95883e-02,2.62827e-02,1.11918e+00,-8.70763e-01,6.38885e-01,5.37595e-01,1.16652e-01,-4.83745e-01,4.49153e-01,-6.88770e-01,-8.20580e-02,-8.78942e-01,-5.68725e-01,-3.58783e-01,6.50605e-01,7.58301e-01,-6.86565e-01,-2.96372e-01,6.51745e-01,5.17395e-01,1.33424e-01,2.35949e-01,1.00321e+00,4.44111e-01,4.38981e-01,2.26065e-01,5.84552e-01,-1.47359e-01,1.30568e-01,7.74696e-01,-8.99070e-01,-1.54944e-02,-5.63627e-01,-2.86663e-01,-1.76604e-03,2.58918e-01,4.07838e-01,-4.18235e-01,
-9.93407e-01,-8.32898e-01,-5.49946e-02,3.39447e-01,2.36369e+00,-7.93641e-01,-1.88264e-01,4.70795e-01,-2.25141e-02,-3.80055e-02,4.25421e-02,-6.45647e-01,-1.72745e-01,7.46560e-02,5.42165e-01,1.30470e+00,-1.44627e+00,-2.09041e+00,4.26866e-01,-3.48213e-01,-1.12134e-01,8.69245e-01,-2.01253e-01,-3.81741e-01,1.17269e-01,-9.04051e-02,-1.09936e+00,-3.57901e-01,-9.74262e-01,-7.11992e-01,-2.73782e-01,5.30548e-01,4.72028e-02,-2.60994e-01,9.50186e-01,5.01298e-01,-8.88876e-02,2.46274e-01,1.17105e+00,4.19544e-01,-1.00840e+00,-2.24346e-01,-9.08975e-01,-2.87125e-02,-7.04940e-01,4.36808e-02,-3.86553e-01,9.14355e-02,-1.37101e+00,7.61265e-01,
4.72085e-01,-2.05868e-01,2.63998e-01,8.32160e-02,1.67476e+00,8.58770e-02,5.29444e-02,-1.89479e-01,-5.30970e-02,2.19099e-02,3.46684e-01,8.27429e-02,-7.60239e-02,5.40604e-02,-3.12912e-01,1.23232e+00,7.01660e-01,-2.19925e-01,3.16705e-02,3.19329e-01,-7.24884e-02,-1.13250e-01,1.92449e-01,8.66891e-02,1.66559e+00,1.13473e+00,5.72044e-01,-6.22366e-01,2.71307e-01,1.68613e-02,7.78866e-01,-4.21977e-01,-8.87160e-01,-1.93742e-01,4.95381e-01,8.71281e-01,5.60212e-01,-2.93666e-01,4.67012e-01,-2.17600e-04,5.63730e-01,-9.90089e-01,1.56041e-01,-2.89436e-03,-1.96960e+00,-6.59198e-01,-6.32437e-01,-2.90038e-01,-1.78795e-01,-5.31925e-01,
-4.08427e-02,-3.00461e-02,2.34354e-02,2.85574e-02,-1.28378e-02,-2.40659e-02,-2.32512e-02,-3.24133e-02,-1.38594e-02,-1.11018e-02,-3.14351e-02,-4.58551e-02,-6.03891e-02,1.82819e-02,-3.51852e-02,8.36053e-03,1.11674e-02,-8.27048e-03,1.90287e-02,2.38575e-02,7.97226e-04,-1.97312e-02,-4.02534e-02,2.90201e-02,3.17555e-02,3.54727e-02,-1.36361e-02,4.39283e-02,1.14298e-02,9.19207e-03,-3.00865e-02,-3.27789e-02,-1.74431e-02,-1.14866e-02,-6.74681e-03,-1.76900e-02,-3.80981e-02,-2.33101e-02,-5.92776e-02,1.98383e-02,1.73023e-02,-4.26793e-02,4.38696e-03,-2.91357e-02,8.33881e-03,2.15358e-02,2.40112e-02,-5.68057e-02,2.27551e-02,2.08145e-02,
-4.69615e-03,1.17129e-02,-1.64987e-02,2.91449e-02,1.57001e-03,6.53040e-03,-2.36251e-02,-5.04132e-02,-1.17378e-02,-3.68358e-02,-2.12555e-02,-3.05095e-02,-3.08210e-02,-3.53926e-02,1.72672e-03,-8.93566e-03,4.19332e-02,-2.98213e-02,3.31623e-02,-3.11136e-02,-4.20156e-02,2.41545e-02,-1.21788e-02,-4.04370e-02,-4.66831e-02,-2.31424e-03,-3.66522e-02,-2.39303e-02,-5.30915e-02,-1.39161e-03,-1.70937e-02,2.17694e-02,-4.56716e-02,2.35801e-02,-7.85339e-03,3.44549e-03,3.29214e-02,-4.61854e-02,8.82585e-03,-3.39894e-02,-2.33527e-02,5.11159e-03,-5.33785e-02,1.39354e-02,-1.51138e-02,1.61690e-02,1.37809e-04,2.62262e-02,3.16790e-02,1.60276e-02,
1.67395e-01,-5.32451e-02,4.00069e-01,4.34504e-01,8.83438e-01,7.64796e-02,2.70852e-01,-5.56807e-01,-3.88117e-02,-1.66927e-02,-6.23150e-01,7.96525e-01,1.02819e-01,2.31322e-01,3.29767e-01,7.05851e-01,7.20430e-01,-5.31289e-01,-8.61298e-01,-1.98197e+00,-7.36923e-01,4.71354e-01,-3.50305e-01,1.12134e-01,1.33819e+00,7.98524e-01,1.49098e-01,5.68720e-01,1.90512e-01,-4.74886e-01,2.92632e-01,-1.77145e-01,5.85478e-01,-3.44371e-01,2.44868e-01,-3.93209e-01,2.03387e-01,-1.19137e+00,6.10952e-03,-2.76198e-01,-1.64651e-01,-8.45593e-01,7.83233e-01,-3.32218e-02,2.13580e+00,-7.55731e-02,1.27664e-01,-2.73341e-01,-3.00989e-02,6.55458e-01,
-1.89655e+00,2.45288e-01,1.53783e-01,1.11218e+00,-9.12715e-02,1.46417e-01,-4.87662e-01,-2.76486e-03,-5.89109e-03,1.55872e-02,1.65921e+00,-4.00232e+00,1.79526e-01,4.73924e-01,5.88211e-01,4.99997e-01,-2.62309e-01,9.01251e-01,-2.23130e+00,-3.02876e+00,-3.51458e-01,3.49441e-01,-9.41650e-02,-3.13204e+00,-8.53268e-01,5.82573e-01,1.55412e+00,3.73348e-01,-9.51879e-02,-1.23217e+00,8.79787e-01,1.17462e+00,4.03974e-01,1.52041e-01,1.63631e-01,1.00807e+00,8.46072e-01,-1.39263e-01,-1.20205e-02,-5.26717e-01,-2.74966e-01,1.84890e+00,3.01794e-01,-2.70504e-02,-3.71062e+00,4.78037e-01,-4.36998e-01,1.67113e-01,-7.00694e-02,2.72557e-01,
-1.70604e-02,-4.36327e-02,-3.70237e-02,-2.66929e-02,-3.88136e-02,1.24096e-02,3.14247e-02,2.37068e-02,-2.96363e-02,-1.56937e-02,-1.31749e-02,-1.25914e-02,-4.25142e-03,-2.03756e-02,-2.30860e-03,2.49714e-02,4.24529e-03,-2.20772e-02,2.11661e-02,2.01864e-02,-1.70521e-02,-4.33563e-02,-3.43279e-02,-5.46774e-02,-4.60069e-02,1.47003e-02,1.77057e-02,-4.99722e-03,2.18104e-02,-8.76411e-04,-2.14262e-02,2.14654e-02,1.51933e-02,-1.39583e-02,-7.42540e-03,-5.04058e-02,-2.56535e-02,-1.46674e-02,-2.30847e-02,-2.25555e-02,-7.13864e-03,-2.02065e-04,9.87761e-03,1.54513e-02,-4.64708e-02,9.46400e-05,-4.08463e-02,-3.63811e-02,-2.67871e-03,-4.20915e-02,
-4.21585e-01,2.07226e-01,5.93789e-01,-1.67431e-01,-1.62561e+00,-1.63438e-01,-5.70583e-01,-2.33017e-02,4.28847e-03,1.07305e-02,6.01930e-01,-2.26613e-01,1.91784e-01,-3.77305e-02,5.51442e-01,-2.38547e+00,-9.41135e-01,2.08572e+00,-3.31339e-01,-6.38183e-01,2.09090e-02,2.35716e-02,7.20295e-01,-6.27755e-01,-2.64167e-01,-4.07722e-01,-2.09634e-01,6.87920e-02,-2.76905e-01,6.53869e-01,3.47276e-01,-1.68599e-02,1.21437e+00,4.22092e-01,-2.91288e-01,7.12129e-01,-6.53483e-01,9.60325e-01,-4.14587e-01,4.37359e-01,-4.94463e-01,-4.43979e-01,1.46782e-01,-7.41795e-03,-1.31725e-02,5.96241e-01,-1.75155e-01,2.17591e-01,-3.46207e-01,-2.21789e-01,
-3.74263e-01,-6.69461e-01,-7.72983e-01,-4.95841e-01,4.09271e-01,1.80286e-01,-2.13275e-01,2.98587e-02,-2.43200e-02,-1.33840e-02,1.18328e-01,-8.47872e-01,-1.04410e-01,9.08873e-02,-6.43316e-01,-1.10189e+00,7.84398e-01,2.30022e-01,-3.21662e-01,-7.72405e-02,2.72252e-01,7.43195e-02,-2.30371e-01,-2.19797e-01,-1.48148e-01,-3.58170e-01,3.22360e-02,4.19899e-02,1.18037e-01,2.23406e-01,-1.14502e-01,4.78357e-01,5.72841e-02,1.30322e-01,1.44623e-01,-2.54580e-02,5.16548e-01,5.06461e-02,7.66316e-02,-2.21568e-01,-1.29649e-01,6.23694e-01,3.58682e-02,-5.26421e-03,6.57246e-01,-2.76434e-01,-1.52732e-01,3.49885e-01,1.67116e-01,5.79003e-01,
-2.28007e-02,1.31030e-02,-3.64491e-02,1.94828e-02,-4.00675e-02,1.32101e-02,-3.56496e-02,2.98670e-03,-3.08767e-02,2.78284e-02,-2.36842e-02,1.15485e-02,-5.28514e-02,-4.96250e-02,3.45061e-02,4.16569e-02,-3.36139e-02,2.06637e-02,1.87134e-02,-5.90126e-03,9.83478e-03,-5.87618e-03,-5.20459e-02,-3.91292e-02,-4.22417e-02,-2.33635e-02,-9.93209e-03,-4.03363e-02,2.55848e-02,-2.59526e-03,-3.75526e-02,1.05194e-02,8.28976e-03,1.56587e-02,-6.10618e-03,2.19330e-02,4.56615e-03,-3.60903e-02,-3.46433e-02,3.84890e-02,-1.46833e-02,-2.14552e-02,1.42582e-02,-3.27578e-02,-2.16333e-02,-4.83022e-02,-4.35128e-03,-4.34500e-03,2.13608e-02,1.33010e-02,
-4.18045e-02,1.93573e-02,-9.44822e-03,-5.79065e-04,-5.18409e-02,-5.12437e-02,-1.95363e-02,5.09822e-03,-9.01320e-03,-3.09816e-02,-4.24261e-02,1.12965e-02,-5.78608e-02,-2.38516e-02,1.24201e-02,1.90029e-02,-1.42758e-02,-2.63519e-02,6.68672e-03,-4.23830e-02,2.30805e-02,-5.03718e-02,2.78295e-02,2.64790e-02,4.05977e-02,3.52508e-02,9.04217e-03,-3.26773e-02,-4.55798e-02,-2.57042e-02,-3.77035e-02,-4.26212e-02,-3.24494e-02,2.96712e-02,-5.08125e-02,4.69940e-03,-7.07523e-03,2.36147e-02,3.02145e-02,1.75829e-02,-2.56194e-02,-5.15267e-02,-1.18458e-02,1.96627e-03,-3.10622e-02,-1.75499e-02,-3.83304e-03,4.49732e-02,-3.52263e-02,1.43966e-02,
-7.22921e-02,6.68211e-01,9.29724e-02,-2.11001e-02,3.77673e-02,3.32272e-01,-9.99449e-02,4.05208e-02,-4.80229e-02,3.91921e-03,-5.72263e-02,-5.30519e-01,-1.66573e-01,-1.86138e-01,-2.12294e-01,-1.81023e-01,-2.16293e-02,-6.04580e-01,5.23551e-01,-2.44470e-01,-1.37659e-01,-3.19821e-01,-1.92332e-01,-2.00716e-01,-6.84018e-01,2.49132e-01,9.69521e-02,-6.84800e-02,8.66262e-02,-5.86557e-02,-1.77476e-01,7.04027e-01,1.54103e-01,-2.54746e-01,-2.09704e-01,4.25843e-01,6.12083e-01,-1.20908e-01,-2.45375e-01,-1.41497e-01,2.82150e-02,5.96448e-01,-9.49802e-02,-1.14976e-02,1.29105e-01,-1.80790e-01,-2.32238e-01,-9.74075e-02,2.73797e-01,-1.25641e-01,
-4.76897e-02,1.81016e-02,-6.06131e-02,-2.60056e-02,2.76370e-02,-8.29339e-03,-2.91034e-02,3.23712e-02,-1.08865e-02,-1.10146e-02,-1.98237e-02,1.55918e-02,3.04685e-02,-5.80263e-02,-3.28415e-02,-2.21260e-02,-4.84737e-03,-2.47911e-03,1.53838e-02,1.79313e-02,-2.44096e-02,3.56207e-03,-5.38292e-02,-4.95555e-02,-4.09845e-02,-1.67472e-02,3.11311e-02,-4.26327e-02,2.33801e-02,4.14450e-02,-1.22445e-03,3.78530e-02,-2.83465e-02,-7.13219e-03,-3.09683e-02,-4.63762e-02,4.34645e-02,-5.54948e-02,-5.38212e-02,-5.80414e-02,3.62061e-02,-1.06746e-02,-1.93664e-02,4.76503e-02,2.90278e-02,-1.06375e-04,-2.34156e-03,-3.95399e-02,-2.68015e-02,2.23829e-02,
-4.47956e-01,-5.55373e-01,-7.44449e-01,-1.09895e-01,9.62665e-01,1.19416e-02,-4.82789e-01,1.20905e-01,5.31247e-02,-2.42114e-02,1.22966e+00,3.31581e-01,7.56198e-01,-8.35871e-02,6.49232e-01,6.60164e-01,2.21413e-01,2.10577e+00,1.89311e-01,-5.10872e-01,1.29904e-02,-2.30218e-01,-3.83748e-01,-2.73531e-01,-1.55886e+00,4.58942e-02,-6.17275e-01,-6.92546e-01,5.10708e-01,-1.20220e+00,3.52961e-01,1.39200e+00,-1.09505e-01,1.41228e-01,-1.37264e-01,-1.80021e-01,3.40215e-01,-2.72429e-01,9.64330e-01,-1.35955e-01,8.77200e-01,-1.32995e-01,5.38277e-01,-1.47749e-02,-5.50980e-02,5.03405e-01,-5.32554e-01,5.78130e-01,-1.13639e-01,-7.65806e-01,
1.13047e+00,
-2.02776e-02,
1.58845e+00,
-1.93460e+00,
-2.15263e-02,
-1.02658e+00,
3.73671e-01,
-2.09797e-02,
1.37884e-01,
9.80621e-01,
1.73276e+00,
-4.66252e-02,
2.90382e-01,
-4.03724e-01,
-1.84930e-02,
-2.72173e-02,
-3.60368e-02,
-2.10025e-02,
-3.26671e-02,
-1.85415e-02,
-1.30019e+00,
1.02476e+00,
-3.04184e-02,
-5.20676e-01,
3.06745e-01,
2.08153e-01,
-1.22609e-02,
-1.34612e-02,
-3.11606e-02,
-2.08548e-02,
-2.18689e-02,
8.90311e-01,
-1.30861e-02,
-1.15550e-02,
1.01635e+00,
-2.95967e-01,
1.49704e+00,
-4.67090e-01,
-1.89643e-02,
-1.09682e-02,
-2.19321e-01,
-1.52919e+00,
-1.22690e-02,
-2.09067e-01,
7.42153e-01,
-1.37931e-02,
-1.69068e-02,
-3.77433e-01,
-1.14755e-02,
7.38626e-01,
5.07194e-01,3.11144e-02,-1.82362e+00,9.96806e-01,3.12524e-02,-1.22688e+00,5.56469e-01,-3.39417e-02,-3.17173e-01,-5.85646e-01,-9.99708e-01,1.82847e-02,-3.11286e-02,4.38820e-02,8.06553e-03,4.61943e-02,1.97166e-02,-2.00747e-02,8.78393e-03,-1.14187e+00,3.98909e-01,-1.48607e+00,5.19450e-02,2.83162e-01,3.93569e-01,-2.70238e-01,2.54221e-02,6.98603e-03,-4.08141e-02,-1.48970e-02,-4.27553e-02,-6.31433e+00,9.32979e-04,-1.14483e+00,-1.58821e+00,3.89679e-01,5.84859e+00,2.95713e-01,-1.09644e-02,5.07736e-02,3.22789e-01,-4.80981e-02,-3.34729e-02,1.00317e+00,5.58915e-01,-3.66691e-02,-1.00723e-02,-3.23106e+00,-9.98978e-03,-3.16751e+00,
8.95335e-01,-8.17128e-03,3.43723e-01,-9.10138e-02,4.36494e-03,-4.69995e+00,8.66620e-01,-4.32657e-03,1.18294e-01,-5.51085e-02,5.97122e-01,4.82976e-02,-7.87634e-01,-3.61727e-01,3.86609e-02,-4.39462e-02,-1.86768e-02,1.13593e-02,9.29625e-03,-3.07440e+00,1.49263e-01,-4.37406e-01,3.91664e-02,-1.54125e+00,-9.17680e-01,2.16578e-01,3.74480e-02,-6.81764e-03,2.32016e-02,3.27374e-02,2.68534e-02,-7.80282e-01,4.55727e-02,6.91614e-01,-1.50012e-02,3.81712e-01,-3.00154e+00,2.37295e+00,-1.75375e-02,-2.90217e-02,-1.02229e+00,1.47786e-01,9.20505e-03,-2.90140e-01,-1.39276e+00,-2.25645e-02,2.91190e-03,-1.35535e+00,-2.22557e-02,-3.39180e+00,
-2.90788e-01,1.91048e-02,-1.72512e-01,-1.17544e-01,3.49606e-03,-9.46524e-02,6.42908e-02,1.83898e-02,1.20835e+00,5.33893e-01,4.73539e-01,1.04892e-02,5.21109e-01,-3.65751e-01,-2.99776e-02,7.59610e-03,-2.12078e-02,-4.01507e-02,2.08261e-02,8.17670e-01,-3.61110e-01,-5.11406e-01,-1.62591e-02,-4.66456e-01,7.87283e-01,-6.94507e-02,8.43902e-03,3.69302e-02,-2.22465e-02,1.95645e-03,-2.28280e-02,-6.22975e-01,-3.68331e-02,5.79999e-01,9.79429e-03,-3.28084e-01,4.90615e-01,-2.11598e-01,2.28156e-02,-4.41487e-02,3.57159e-01,-3.71424e+00,2.40371e-02,-1.54226e+00,3.69191e-01,3.35761e-02,1.55677e-02,-2.13170e+00,-3.94357e-02,2.58295e-02,
-2.34868e+00,5.16137e-03,9.72017e-01,1.70793e+00,4.62729e-02,3.25649e-02,-2.42186e+00,1.42485e-04,-1.24009e+00,-3.96709e+00,5.72379e-01,2.36997e-02,-2.14450e-01,-2.12528e-01,2.04816e-02,2.70415e-02,1.94164e-02,-8.72286e-03,4.61152e-02,-1.13110e+00,-2.29980e+00,-9.28146e-01,-4.98507e-02,5.72290e-01,-8.72364e-01,-2.10126e-01,9.95116e-03,-3.90284e-02,-4.24387e-02,3.34080e-02,2.11028e-02,3.29735e-01,-4.52011e-02,1.14196e+00,3.61684e-01,-3.59430e+00,-5.61148e-01,6.44996e-01,1.75276e-02,1.85164e-02,1.05093e+00,-1.37338e+00,-4.44067e-02,1.23348e+00,-4.26687e+00,5.93466e-04,-1.35695e-02,-3.20050e+00,-2.21821e-02,4.49556e-01,
2.68627e-01,-3.94023e-02,-1.19412e-01,6.79630e-01,-2.57383e-02,3.77216e-01,2.31650e-01,2.04597e-03,-7.57554e-01,2.45523e-01,-1.30221e+00,-7.23590e-03,3.01138e-01,-2.09934e-03,-4.26099e-02,-2.33914e-02,2.68209e-02,-4.22124e-02,9.93770e-03,-1.85469e-01,-4.38040e-01,6.87740e-01,5.07808e-03,-1.04019e+00,-8.91724e-02,-1.83705e-01,-3.47709e-02,1.08883e-02,-2.01567e-02,-1.82696e-02,2.56893e-02,5.07248e-01,4.58188e-02,1.09002e+00,-6.78937e+00,-4.49308e-01,-4.30298e-01,1.13769e+00,-1.12188e-02,2.86413e-02,4.25686e-01,-5.64771e-02,1.49953e-03,5.79653e-01,-2.08433e-01,3.26097e-02,2.94462e-02,1.98508e+00,-4.14659e-02,7.57405e-01,
2.88087e-01,-8.43677e-03,1.15108e-01,-8.04875e-01,2.21064e-02,4.24185e-02,-2.14844e-01,-4.45649e-02,-1.10126e+00,6.63298e-01,2.61721e-01,5.36594e-02,1.07299e+00,-1.24311e-01,-4.40842e-02,3.59359e-03,-5.04002e-02,-4.33104e-02,-5.28183e-03,-1.91552e+00,2.22196e-01,-4.17356e-01,3.36228e-03,-9.08547e-02,-4.65643e-01,5.81044e-01,9.96864e-03,-2.55417e-02,1.72893e-02,1.89406e-02,-3.27410e-02,1.97325e-01,-3.16067e-02,-2.88550e-01,3.02023e-01,-7.59696e-01,4.40417e-01,-4.12578e-01,2.12093e-02,3.24956e-02,-1.53287e+00,-1.09856e+00,-2.67390e-02,-5.82548e-01,3.16534e-01,-3.39923e-02,-3.57698e-02,3.09095e-01,1.93413e-02,9.25676e-02,
2.91628e-02,1.15698e-02,-5.93133e-01,5.20241e-02,-5.69733e-03,-1.45300e-01,-7.14684e-02,-3.40749e-02,5.07904e-03,1.31856e-01,-5.01953e-01,-1.06739e-02,1.23887e+00,-1.20881e-01,-1.70455e-02,2.03556e-02,-1.47077e-02,3.30043e-02,-4.42700e-03,4.66015e-02,6.48703e-01,2.99756e-01,-3.07337e-02,7.03158e-01,-1.08102e-01,-1.25892e-01,-4.40006e-02,-4.74287e-02,4.31180e-02,1.64184e-02,1.19588e-02,-9.73767e-02,2.03617e-02,5.67070e-02,3.02095e-02,-1.64217e-02,-4.35704e-01,-1.72439e-01,1.41420e-02,-4.82651e-02,5.55690e-02,1.55216e-01,2.72864e-02,5.10847e-01,1.62436e-01,6.55999e-03,4.28234e-02,3.80458e-01,-6.69366e-03,-6.66321e-02,
2.55781e-03,4.29307e-02,-5.73459e-02,-4.81633e-03,-3.88140e-02,-5.35287e-02,-4.11023e-02,-1.91085e-02,2.92480e-02,-6.07515e-03,1.42841e-03,2.35079e-02,1.33890e-02,-1.88010e-02,-2.50975e-02,4.21774e-02,-2.60826e-02,3.82423e-02,-2.01589e-02,4.15292e-02,6.78277e-03,6.35002e-03,-4.94549e-02,-2.39425e-02,-5.29751e-02,-4.11375e-02,-3.92488e-02,-5.05299e-03,-5.19855e-02,-2.51212e-02,-3.84408e-02,1.46805e-02,-2.97360e-02,-3.10280e-02,2.11516e-03,-4.22980e-02,-1.16141e-02,-3.74233e-02,2.23089e-02,3.48888e-02,-2.59161e-03,-4.25559e-03,-4.77314e-02,-6.02927e-02,-7.43131e-03,3.81859e-02,-2.25307e-02,-9.44788e-03,2.87916e-02,-2.79202e-02,
-3.21982e-02,-3.85220e-02,-3.95725e-02,-3.49415e-02,-4.45946e-02,1.29550e-02,-3.49354e-02,2.54082e-02,2.19150e-02,4.08045e-04,-3.75894e-02,-1.52156e-02,-6.65867e-04,1.01217e-02,-1.34588e-02,-4.60070e-03,-1.66079e-02,-4.54611e-03,1.76855e-02,8.38887e-03,3.51765e-02,1.66233e-02,-3.00232e-02,1.09297e-03,1.74220e-02,-5.04480e-02,-2.16649e-02,-4.16787e-02,-2.24113e-02,3.38240e-02,-4.68871e-02,-3.46848e-02,3.13229e-02,-4.84564e-02,-3.87205e-02,-9.59950e-03,9.24873e-03,1.24710e-02,-4.97803e-02,1.81633e-02,3.62937e-03,-3.82412e-02,2.48517e-02,-2.72125e-02,-2.94416e-02,-1.90370e-02,-2.81309e-02,-1.06430e-02,1.97039e-02,-5.02985e-02,
-1.58955e-01,3.55163e-02,-1.71427e-02,7.66257e-01,-3.94980e-02,4.38192e-01,-1.68243e-01,-4.96899e-03,1.83406e-01,-3.88657e-01,3.18803e-01,1.68479e-02,1.42644e-01,4.66862e-01,4.45199e-02,-2.59082e-02,3.92537e-03,4.99632e-02,-4.55703e-02,6.90711e-01,-2.28551e+00,3.70517e-01,2.11224e-02,-1.32801e+00,-3.02588e-01,-1.36617e+00,3.72596e-02,-3.80638e-02,-5.25438e-02,3.88076e-02,3.02646e-02,-8.02980e-01,3.91771e-02,-1.47648e-01,1.06436e-01,3.14528e-01,1.32659e+00,-2.44744e-01,-2.56828e-02,-4.59777e-02,5.58546e-02,-3.99880e-01,5.06023e-02,2.30020e-02,-5.47101e-02,4.95709e-02,1.83519e-02,6.90236e-01,1.79430e-02,3.15686e-01,
-3.32853e-01,-2.00906e-03,-1.09747e+00,6.98336e-01,4.31583e-02,-3.64872e-01,-2.25228e+00,-2.73949e-02,-1.14272e+00,5.32816e-01,8.11067e-01,-1.93390e-02,-1.16104e-01,-7.47349e-02,-3.48060e-02,1.87640e-03,-2.60556e-02,1.00792e-03,9.26087e-04,-4.52922e-01,9.39947e-01,1.26883e+00,3.02305e-02,1.99688e-01,-2.07898e-01,-6.04953e-01,4.53410e-03,-2.82526e-02,2.99136e-02,-2.33259e-02,7.99449e-03,-8.86067e-01,-2.43659e-02,5.71168e-01,1.13874e-01,4.54224e-01,1.11359e-01,2.10313e-02,-1.93315e-02,5.68060e-03,7.85658e-01,8.21312e-04,-4.57447e-02,-5.15155e-01,-1.01379e-01,-2.76953e-02,-4.75672e-02,4.96797e-01,-1.67013e-02,3.49082e-01,
3.58826e-01,7.70946e-04,-1.94782e-01,-1.27546e-01,-4.32084e-04,-9.48967e-01,-1.31870e-01,-1.60578e-02,-6.68718e-01,-4.64752e-01,-2.91357e-01,-2.41712e-02,8.93869e-01,6.22107e-01,-2.61429e-02,-4.61898e-02,3.41237e-02,2.40372e-02,-3.28200e-02,4.41208e-01,8.23471e-01,-7.76768e-01,2.30236e-02,-6.90891e-01,3.37824e-01,1.96886e+00,1.98888e-02,-2.62035e-02,2.16607e-03,-3.49656e-02,-6.70626e-03,-6.13988e-01,-3.10010e-02,1.42923e+00,-9.63105e-02,3.29880e-01,1.20895e-01,1.14981e+00,2.46862e-02,-3.73730e-02,-5.07358e-01,5.04354e-02,7.75001e-04,1.20796e+00,-4.92682e-01,4.51866e-02,2.46258e-02,-1.22331e-02,2.64386e-02,1.04743e+00,
4.16025e-01,-2.89462e-02,3.11864e-01,6.57954e-01,2.94209e-02,1.12787e+00,1.61234e-01,4.98189e-02,-9.76299e-01,-4.26145e-02,4.34083e-01,1.07138e-02,-4.30170e-02,2.82461e-01,-1.34040e-02,4.49879e-02,3.50555e-02,-3.66231e-02,-2.00957e-02,-1.04824e+00,2.30810e-01,5.54746e-01,-4.00387e-02,-9.05154e-01,-4.58919e-02,8.90408e-01,3.61883e-02,-3.39573e-03,-8.18487e-03,3.01527e-02,-1.82735e-02,3.57652e-01,2.74889e-02,6.21585e-01,8.34151e-01,-4.96760e-01,4.54201e-01,4.74105e-01,-3.59728e-02,-7.31978e-03,1.33628e+00,-1.19271e+00,4.59074e-02,1.04393e+00,9.01828e-01,-4.39375e-03,-3.54639e-02,-5.69358e-01,-4.09767e-02,7.90610e-01,
4.10436e-01,4.46833e-02,7.41415e-02,-1.18097e+00,-1.74927e-02,-1.43433e+00,-1.67166e-02,-4.72065e-02,3.46535e-02,5.64159e-01,5.76693e-01,-2.17005e-03,6.40922e-01,2.28603e-01,1.13772e-02,-3.19726e-02,1.24936e-02,-4.32523e-02,-2.08220e-02,-1.57355e+00,-1.35375e+00,7.06215e-01,5.43817e-03,-8.43043e-01,-4.71145e-01,7.75001e-01,3.17335e-02,-2.30913e-02,-5.04284e-02,1.48775e-02,4.00552e-02,1.66320e-01,3.01634e-03,-2.97342e+00,4.47394e-02,-1.59008e+00,-8.93698e-02,5.16245e-02,-3.15278e-02,-2.52855e-02,1.47915e+00,7.82196e-02,1.64071e-03,-2.06372e-01,1.36135e-01,4.27292e-02,-3.66523e-02,-2.59693e+00,4.55523e-02,1.18422e+00,
2.69427e-01,-2.60779e-02,3.30649e-01,-5.21117e-01,5.29513e-03,-3.70326e-01,-5.18187e-01,-2.89991e-02,-4.31294e+00,-4.60188e-01,1.86069e+00,-1.47259e-02,1.65838e-01,7.99911e-01,-2.31815e-02,-1.77855e-02,-3.19495e-02,-2.97454e-02,-2.81534e-02,-9.28120e+00,-7.65485e+00,-2.72482e-01,-2.59097e-02,-2.24081e+00,5.45947e-02,-1.18667e+00,-3.66054e-03,-2.36025e-02,-1.97342e-03,4.00157e-02,-3.60843e-03,-4.23043e-01,6.42472e-03,-1.71876e+00,-6.55160e+00,-1.58542e-01,-2.31908e+00,-6.21369e+00,-4.07005e-02,-2.72643e-04,-6.27079e-01,-2.60154e-03,-3.70635e-02,-1.53720e+00,2.88205e-02,-1.09466e-02,-7.98275e-03,-2.38621e+00,-7.71206e-03,3.99652e-01,
-2.95121e-01,8.04597e-03,-5.33859e-02,7.28648e-01,3.73693e-02,3.03330e-01,-5.19961e-01,3.22416e-02,6.61951e-01,2.67404e-01,2.12092e-01,-2.89641e-02,-1.15744e+00,1.24421e-01,-1.92977e-03,2.16123e-02,-2.42958e-02,-3.52472e-02,-4.05492e-02,-4.96274e-01,-7.81634e-01,2.37322e-01,-3.72353e-02,1.13887e+00,3.22577e-02,3.45790e-01,3.21309e-03,3.10372e-02,-4.64521e-02,3.35651e-02,4.65212e-02,-1.64447e-01,-5.09341e-02,7.37805e-02,9.72403e-02,4.74468e-01,1.28285e-01,8.84998e-01,3.07023e-02,2.73515e-02,-1.33348e+00,-2.22930e-01,-1.09321e-02,3.42810e-01,-1.77581e-02,4.38497e-03,-4.70566e-02,-6.79110e-02,-3.43028e-02,-1.86090e-01,
-5.77387e-01,3.30894e-02,-8.20149e-01,-1.62028e+00,3.68390e-02,-1.66064e+00,2.72420e+00,3.16508e-03,9.80103e-01,-1.05201e+00,1.01490e+00,-3.56927e-02,3.45763e-02,-5.30973e-01,-3.60729e-02,-2.61921e-02,1.29951e-02,-4.13910e-02,-1.05975e-03,-3.92541e-01,-4.63774e+00,-2.79994e+00,1.40275e-02,-1.07069e+00,2.14237e-01,1.81836e-01,-1.20459e-02,-3.12988e-02,4.32927e-02,2.68141e-02,6.10492e-03,-2.64524e+00,3.50115e-02,4.10694e-01,1.42497e-01,-3.01343e+00,-1.01745e+01,-5.56214e-01,-4.44547e-02,-4.02271e-02,-6.63303e-01,-5.20343e-02,2.85624e-02,-4.69817e+00,5.16632e-01,-1.06056e-02,-2.40466e-02,1.91762e+00,-2.73179e-02,8.81696e-01,
9.62091e-02,4.72362e-02,-1.94648e-01,3.72239e-01,4.53608e-02,-2.23040e-01,-4.08692e-01,-8.46374e-04,-2.07337e+00,1.41640e-01,-4.25562e-01,2.52924e-02,-8.16268e-01,-2.97372e-02,-1.45503e-02,3.88030e-02,3.54066e-02,3.20618e-02,-2.17141e-02,-1.81136e+00,-1.47429e+00,9.45101e-02,-2.74473e-02,-1.38244e+00,1.69417e-01,3.12546e-01,1.38431e-02,-4.73090e-02,3.69343e-02,4.15187e-02,-1.13422e-02,-2.57645e-01,-3.37681e-02,-1.98526e+00,-3.76283e-03,3.85310e-01,7.22271e-01,2.28136e+00,3.30095e-02,-3.31832e-02,1.92057e-02,-1.01235e+01,4.00719e-02,8.38644e-01,3.35112e-01,4.90252e-02,-3.99334e-02,1.11756e+00,4.70731e-02,8.31874e-02,
5.45587e-02,-1.31019e-02,6.44898e-02,-2.57702e-01,-9.09843e-03,9.78399e-02,-1.47066e-01,-3.15115e-02,6.33154e-01,-2.07173e-02,-3.72915e-01,-3.98033e-02,4.31273e-01,-1.58661e-03,-5.74883e-03,8.86462e-03,3.36988e-02,-5.13112e-03,-2.81651e-02,2.66362e+00,-8.09418e-01,-8.85953e-01,-2.01524e-02,-3.82097e-01,3.00368e-01,-1.34112e+00,-3.53420e-02,-3.55752e-02,3.77547e-02,-3.92502e-02,5.66133e-03,-5.77084e-01,1.01542e-02,9.55141e-02,-1.44565e-01,-1.91973e-02,-2.18195e-01,-3.22714e+00,-2.52800e-02,3.93000e-02,2.08162e-01,7.88875e-01,-1.27701e-02,1.11077e-03,8.76162e-02,3.00735e-02,-2.54575e-02,8.35745e-01,2.11824e-02,9.81828e-01,
2.36418e-01,2.55353e-02,2.54499e-03,5.24324e-01,4.20058e-02,8.79217e-03,-5.86810e-02,1.17688e-02,2.46808e-01,4.06640e-01,1.71625e-01,-1.58034e-02,1.14797e-01,3.97879e-01,-3.16616e-02,2.38872e-02,-1.20130e-02,-3.37162e-02,-4.01849e-02,-2.51131e-01,-3.95424e-01,-6.89630e-01,-3.57304e-02,-1.94083e-01,5.23945e-01,-1.19427e+00,-1.08943e-03,4.26093e-02,-3.61864e-02,-3.79493e-02,-4.33374e-02,-1.75648e-01,-4.72271e-02,-5.45505e-02,6.88682e-02,-3.48345e-01,2.66938e-01,-4.20549e-01,-1.85583e-02,-3.64600e-02,-1.71798e-01,-3.83286e-01,-4.30529e-02,-2.38510e+00,-1.42249e+00,2.04996e-02,-4.96979e-02,-3.26685e+00,-4.19071e-03,3.31255e-01,
3.98026e-01,2.03074e-02,-9.52490e+00,8.63139e-01,1.01526e-02,3.09240e-01,-5.49793e-01,-2.66346e-02,4.99085e-03,-1.70915e+00,-3.60390e+00,2.29102e-02,7.96232e-03,-1.10074e+00,1.55719e-02,-2.48363e-03,3.11310e-04,3.03232e-02,3.03158e-02,-1.67235e+00,-3.32448e+00,-1.63726e+00,-2.87514e-02,-1.69117e-01,1.51409e+00,3.56846e-01,4.78852e-02,-1.58406e-02,2.47273e-02,2.16288e-02,-4.64799e-03,-1.05055e+00,1.21218e-02,-3.58208e+00,-5.94390e-03,-8.77218e-02,-2.30492e+00,-1.63103e+00,-6.54787e-03,-5.10523e-02,-2.58113e-03,-1.04555e-02,-5.84497e-04,-1.00934e-01,-1.14119e+00,5.09797e-02,-4.08602e-02,-1.29183e+00,2.63067e-02,-4.89769e-01,
-1.52266e-01,3.50479e-02,-1.94139e-01,-3.57059e-01,-7.78029e-03,-1.42306e-01,-3.14642e-01,-6.23645e-03,3.57699e-01,-9.31470e-01,7.10823e-01,9.22486e-03,4.74644e-01,-1.68051e-02,-8.37489e-03,-4.69010e-02,1.67678e-02,-2.94054e-02,-3.12409e-02,7.51007e-02,4.30169e-01,2.72710e-01,2.00671e-02,6.41207e-01,1.79843e-01,-8.27402e-02,-2.79519e-03,1.98583e-02,4.07577e-02,-5.15585e-02,-3.77870e-02,-2.93604e-01,-9.01281e-03,-1.89411e-01,-2.93517e-02,1.97267e-02,3.76910e-02,9.55617e-01,3.21379e-03,2.39697e-02,2.90364e-01,-1.40128e-01,3.11700e-02,2.10762e-01,6.57989e-01,-1.78516e-02,1.33304e-02,1.23298e+00,5.63379e-03,2.91694e-01,
1.82205e-01,-1.71276e-02,-3.67319e-01,2.40722e-01,-8.55018e-03,-5.36641e-02,-1.38598e+00,-2.31563e-02,2.92587e+00,-1.27427e-01,5.59520e-01,8.03820e-03,-1.41560e-01,-3.60803e-01,-8.77544e-03,8.39003e-03,1.69171e-02,-2.46711e-02,4.96688e-02,2.63177e+00,1.17356e+00,5.35783e-01,1.30050e-02,8.44458e-01,-2.45599e-01,-7.92773e-01,-4.65092e-02,1.09018e-02,-2.81179e-02,-6.71681e-03,-1.31461e-02,5.49526e-01,-3.83142e-02,1.91900e+00,-1.38502e-01,-8.00917e-01,5.12826e-01,1.31717e+00,-2.38585e-02,-4.82420e-02,4.46302e-01,1.21707e-01,9.61936e-03,7.57918e-02,-1.08752e+00,1.48023e-02,5.22453e-02,3.37480e+00,-2.52735e-02,1.70250e-01,
-6.48645e-02,2.94877e-02,-1.16906e-01,1.27517e-01,-2.03229e-02,-2.76350e-02,3.98876e-02,2.91319e-02,1.39101e-01,-1.96850e-01,1.14492e-01,3.43044e-02,-3.33145e-01,3.34441e-01,-1.86579e-02,3.61822e-02,1.68212e-02,2.62236e-02,-2.76989e-02,1.10234e+00,-2.06514e-01,-4.95698e-02,2.32796e-02,7.93258e-02,-5.34627e-02,1.27363e-02,3.17240e-02,-2.31544e-02,5.29182e-04,8.29909e-03,-2.08515e-02,-4.87890e-02,-1.30100e-04,-1.77065e-01,-6.78261e-01,5.96106e-02,-1.56594e-01,8.07393e-01,1.52672e-02,1.77173e-02,-5.84170e-02,2.51945e-01,-1.47400e-03,6.02811e-02,-4.17645e-02,1.86276e-02,3.02603e-02,3.39984e-01,-2.09143e-02,-1.31056e-01,
1.30967e-02,-2.88205e-02,-1.93824e-02,-2.51354e-02,4.71748e-02,-1.56578e-02,-4.12976e-02,-3.87938e-02,2.67939e-03,6.13872e-03,7.65614e-03,-4.57192e-02,-1.51145e-02,5.93663e-03,1.46933e-02,1.73718e-02,3.11328e-02,-3.42813e-02,-4.04855e-02,-6.44470e-02,-1.50300e-03,-6.62692e-02,1.87210e-02,-5.55233e-04,1.37881e-02,-4.88642e-02,-3.01565e-02,4.43259e-02,-2.33729e-02,4.26516e-02,-3.40541e-02,2.69651e-02,3.68904e-02,-2.90525e-02,-1.19093e-02,-6.92662e-04,1.39283e-02,4.56486e-03,9.04799e-03,2.63481e-02,-5.85566e-02,5.05548e-02,-3.76930e-02,-4.00991e-02,2.02483e-02,-4.08862e-02,2.00296e-02,-3.73395e-02,-7.79970e-03,-7.48387e-02,
-2.55884e-02,1.74636e-02,-1.59104e-02,5.28843e-02,-5.20272e-03,-2.72609e-02,-3.36375e-02,6.99052e-03,-5.05329e-03,3.47850e-02,3.98691e-02,-7.31156e-03,4.09896e-02,2.90193e-02,4.23900e-02,3.86313e-02,-1.82844e-02,1.23081e-02,8.15536e-03,-5.37703e-02,-1.35752e-02,-3.01317e-02,1.35263e-02,3.12247e-02,-5.22936e-02,-2.13463e-03,1.76160e-02,3.65056e-02,5.36700e-03,-5.47954e-02,7.05145e-03,-4.16915e-02,-4.47262e-03,3.35344e-02,-2.00829e-02,3.22375e-02,-1.39633e-02,-3.74912e-02,-2.82983e-02,2.98749e-02,-4.06609e-02,-4.40029e-02,4.38443e-02,-1.57936e-02,2.26358e-03,-3.11110e-02,1.16051e-02,3.27891e-02,-4.76222e-02,-2.83242e-02,
-1.12774e+00,4.10642e-02,-3.06601e-01,9.02987e-01,-4.82127e-02,9.01899e-01,-1.67144e-01,2.46181e-02,-5.63733e-01,1.29602e-01,6.28398e-01,3.65398e-02,4.23703e-01,4.46089e-01,-2.20461e-02,2.12888e-02,-5.27459e-02,4.26994e-02,-2.08124e-02,2.96726e+00,9.70094e-01,1.09712e+00,4.39462e-02,-8.25492e-01,-1.43873e+00,8.13160e-02,7.24128e-03,1.28381e-02,2.53619e-02,-3.33081e-02,1.55547e-02,4.97889e-01,-9.69786e-03,-1.28711e+00,-3.64694e-01,1.06044e+00,-1.07461e-01,3.33255e+00,3.01395e-02,1.62897e-02,6.41946e-02,3.43483e-01,-4.67014e-02,1.06274e+00,1.04398e+00,3.89034e-02,-4.78950e-02,2.12285e+00,7.22516e-03,1.04906e+00,
7.21476e-01,4.31380e-02,-1.33340e+00,4.14370e-01,3.47555e-02,-3.44719e+00,1.42448e+00,3.99314e-02,4.99047e-01,-4.31130e-01,2.74695e-01,4.56183e-03,-2.23800e-02,9.89042e-02,-8.27104e-03,-3.87809e-02,-3.88476e-03,-7.03590e-03,4.85112e-02,-8.93251e-01,-3.39722e+00,2.38257e-02,3.74593e-02,-2.50843e-01,2.83706e-01,1.16826e+00,1.50043e-02,-3.42931e-02,2.26452e-02,-3.28117e-02,3.34037e-02,-3.17626e+00,-3.41035e-03,-3.68770e+00,-5.23258e+00,-2.58169e-01,-2.00925e+00,-9.27518e-02,2.91250e-02,-3.27804e-02,-4.37563e-01,-4.48121e-02,-2.10971e-02,-5.85150e-01,8.08919e-01,-1.93980e-02,-1.31356e-02,1.71473e-02,1.94503e-02,-1.93317e+00,
1.65152e-01,-2.98966e-03,3.83511e-01,-2.28186e+00,-3.32936e-02,7.55526e-01,6.72044e-01,-4.61049e-03,-1.15881e+00,-3.24439e-01,-6.31842e-01,2.90680e-02,-2.19375e-01,-4.33733e-02,1.71246e-02,3.41770e-03,-1.90727e-02,2.58265e-02,-4.84929e-02,-2.02680e+00,-1.19103e+00,2.21245e+00,5.69566e-02,6.54144e-01,5.11454e-01,6.79253e-01,-1.04572e-02,2.71916e-02,1.68396e-02,-5.84005e-02,7.45491e-03,3.05325e-01,1.51375e-02,-1.02229e+00,3.80289e-02,9.62068e-01,4.37433e-01,-2.31287e+00,1.81679e-02,3.03063e-03,1.28312e+00,-1.22256e+00,1.74455e-02,-7.95918e-02,5.29650e-01,2.06115e-02,1.01377e-02,-1.81899e+00,-2.90394e-02,-1.61201e+00,
2.46303e+00,-1.47064e-02,-5.22378e-01,-2.22979e+00,4.86492e-02,1.70648e+00,3.77991e-01,3.37647e-02,-6.28189e-01,4.32365e-01,-3.24566e-01,1.00552e-04,2.89298e-01,-3.63175e-01,-4.24375e-02,-4.64396e-02,-5.55490e-02,1.49050e-02,3.55220e-02,-1.24697e+00,1.77292e+00,1.60448e+00,-3.20135e-02,-8.11281e-01,3.16424e-01,9.00067e-01,4.00322e-02,-1.81144e-03,-8.33112e-03,1.58238e-02,7.29791e-03,-5.50796e-01,-4.14649e-03,-2.11785e+00,1.12916e-01,7.19572e-01,1.49837e+00,-9.80414e-01,-2.44130e-02,-4.18840e-02,-7.46249e-01,-2.03519e-01,-3.74501e-02,6.23683e-01,1.72625e+00,3.91305e-02,5.21496e-02,1.05112e+00,-3.12098e-02,-8.99430e-01,
-5.69538e-01,-9.79644e-03,-1.85074e-01,2.18968e-01,1.28211e-02,-1.64679e+00,-1.19964e+00,1.35538e-02,9.22163e-01,-1.40717e+00,8.51880e-01,1.18632e-02,4.65907e-01,-6.12083e-01,-1.60654e-02,1.33941e-02,-3.81754e-02,-2.63608e-02,3.85090e-02,4.35831e-01,7.91697e-01,2.87934e-02,-2.85704e-02,8.42676e-01,8.56116e-01,6.44109e-02,-2.84843e-03,-4.94696e-02,3.12507e-02,-2.89371e-02,2.25022e-02,-6.52234e-01,-2.29481e-02,4.60307e-01,1.64137e-01,6.89616e-02,5.72208e-01,7.88034e-01,2.10595e-02,1.73236e-02,2.45167e-01,9.21503e-01,4.36026e-02,-1.14666e-01,3.63172e-01,-6.60057e-03,1.92835e-02,3.28065e-01,-1.33587e-02,-2.47392e-01,
-1.05344e-01,-2.65469e-02,2.84166e-03,-4.99846e-01,-3.26690e-02,-9.14802e-01,-6.51526e-01,-7.71667e-03,-1.35165e+00,-3.74962e-02,4.17952e-01,3.35522e-02,-1.27281e+00,-5.02438e-03,-2.16455e-02,3.89013e-02,7.13126e-04,3.27131e-03,-5.50596e-02,-1.05807e+00,-4.01684e-01,7.21123e-01,-1.65127e-02,4.01811e-01,4.22606e-01,-5.44502e-02,-3.53764e-03,1.67431e-02,-2.31853e-02,1.54078e-02,-5.35135e-02,-2.86736e-01,2.77236e-02,-7.87107e-01,3.08793e-01,-2.98869e-01,2.40143e-01,-6.41591e-01,3.59317e-02,2.82801e-02,9.06469e-01,-1.89823e-01,2.08109e-02,-1.46417e+00,-1.21725e+00,-9.37491e-03,-1.68348e-02,1.16746e+00,3.58064e-02,-1.12811e-01,
2.50870e-01,4.59132e-02,1.86098e-01,-3.40908e+00,-6.91752e-03,5.93306e-01,2.30758e-01,2.72448e-02,6.38190e-01,1.06748e+00,-9.16808e-01,-3.29667e-02,4.06878e-01,-3.91666e-01,2.22402e-02,4.99242e-03,3.02943e-02,4.51871e-02,-1.20431e-02,-2.52040e-01,8.29096e-02,-1.02122e+00,-2.05597e-03,1.27513e-01,1.50837e-01,1.28443e+00,2.30681e-02,4.62481e-02,3.98041e-02,2.64781e-02,2.44214e-03,-3.57812e-01,3.68178e-02,3.88696e-01,-4.68226e-01,-3.75373e+00,-4.35396e-01,1.86198e+00,-2.58735e-02,-5.75530e-03,-7.79331e-01,-1.51033e+00,2.27810e-02,5.70102e-01,-1.21867e+00,1.72393e-02,9.00236e-03,1.37073e+00,3.51921e-03,-4.06995e-01,
-2.11893e-01,-2.51392e-02,1.62463e-01,-3.15665e+00,4.33342e-02,-3.05632e-01,2.11585e-01,-1.63170e-02,8.86244e-01,-1.87089e+00,-7.60229e-01,-4.01281e-02,-2.84723e+00,1.49017e-02,4.62378e-02,-2.46216e-02,-4.09687e-03,-1.74104e-02,-2.66650e-02,1.77910e+00,8.70467e-01,-9.24418e-04,3.44454e-02,-2.25043e-01,3.35267e-01,1.06396e+00,-2.57907e-02,4.90978e-02,-1.17942e-02,7.42853e-04,-2.39097e-02,-3.29143e-01,3.61718e-02,-6.71012e-01,3.73366e-02,-1.20544e+00,3.05056e-01,9.09018e-01,2.81947e-02,1.04453e-02,-9.72444e-01,1.80870e+00,-1.14145e-02,6.30739e-01,-4.43796e-01,-1.75749e-03,4.66886e-02,-7.35704e-01,-4.27068e-02,2.58205e-01,
-2.60984e-01,-1.89173e-02,-4.58643e-01,5.38466e-01,-1.78106e-02,-2.53782e-01,5.77199e-01,4.28315e-02,1.24156e+00,-1.35631e-01,-1.67386e+00,1.97154e-03,-3.49784e-01,-2.19179e-01,-8.64323e-03,4.45005e-02,1.65605e-03,4.15189e-03,-2.09246e-02,5.51892e-01,-3.22957e-01,4.95586e-01,1.23248e-02,1.77947e+00,5.67163e-02,6.50649e-01,4.11766e-03,-1.25037e-02,-3.47732e-02,7.71260e-03,-7.06793e-03,7.42220e-01,-1.38716e-02,5.77633e-01,-3.05274e-01,1.20594e+00,-5.82999e-01,5.38627e-01,-8.21497e-04,-4.76055e-02,6.28437e-01,7.08355e-01,-3.14976e-02,7.54629e-01,-1.29228e+00,-5.09603e-02,-6.46543e-03,2.33028e+00,3.18866e-02,7.43515e-01,
8.07867e-02,4.59297e-03,-2.58275e-01,4.18381e-01,3.67125e-02,3.63728e-02,-5.28893e-02,6.91192e-03,-3.26348e-01,1.65810e-01,-3.37827e-01,-4.18464e-02,7.68387e-01,1.79314e-01,3.64821e-02,4.26773e-02,-2.15899e-02,-1.22457e-02,4.66786e-02,2.64365e-01,-4.77253e+00,-4.09331e-01,-3.52408e-02,-4.86081e-01,-6.44848e-02,4.41610e-01,1.00583e-02,-3.41459e-02,-4.18845e-02,3.63255e-02,2.44217e-02,1.61897e-01,-2.76652e-02,6.74032e-01,-1.90294e-02,3.18316e-01,-4.49335e-01,9.22421e-01,8.18404e-03,-3.27935e-02,-1.64198e-01,-1.21873e+00,-7.52422e-03,-6.97435e-03,3.90262e-01,-1.99456e-02,3.47939e-02,2.53626e-01,2.52142e-02,7.64569e-01,
-5.21970e-01,-2.41528e-02,-4.41998e-01,-5.88691e-01,4.34228e-02,5.82748e-01,-3.60094e-01,5.52812e-02,1.06394e+00,-3.35314e-01,1.93513e-01,1.87783e-02,1.16797e+00,1.63736e-01,-1.31150e-02,-1.09608e-02,-1.93956e-02,-3.68821e-02,1.46292e-02,4.10932e-01,5.65597e-01,9.10179e-01,-1.61813e-02,-1.41267e+00,4.58652e-01,-6.32390e-01,4.38379e-03,-4.28895e-02,-1.75192e-02,-5.32186e-02,-3.95761e-02,-4.40073e-01,4.06571e-02,-3.79706e-01,1.29222e-01,2.97141e-01,9.34999e-01,-3.80066e-01,-3.44154e-02,8.77081e-03,1.08915e+00,-1.15801e+00,9.80066e-03,5.07465e-01,-1.34795e+00,7.64331e-03,1.86035e-02,8.49497e-01,7.10126e-03,9.23210e-01,
3.63007e-01,3.31890e-02,2.45061e-01,-1.38785e+00,-5.75444e-03,5.99460e-02,-2.44913e-02,-1.55656e-02,-7.04933e-01,3.02051e-02,-1.48178e-01,7.95554e-03,3.94924e-01,-8.75496e-01,-4.94977e-02,4.90620e-02,8.44765e-03,-2.54171e-02,-3.51221e-02,-2.08060e+00,-1.19051e+00,1.85705e+00,3.55873e-02,-1.76385e+00,-1.01719e+00,3.02058e+00,2.49977e-02,3.47743e-03,8.83137e-03,-5.38882e-02,3.41444e-02,-1.48687e-02,2.57252e-02,2.13607e+00,-7.00998e-02,-8.51533e-01,-7.47443e-01,-1.82557e+00,4.92639e-02,-2.56598e-02,9.61510e-01,-2.74698e+00,4.32003e-04,1.37412e-01,1.86856e+00,3.05598e-02,2.45828e-02,-2.28680e+00,3.05160e-03,-1.35081e+00,
-6.36605e-01,-4.25468e-02,-1.49192e-01,-4.85866e-02,-8.17178e-03,-3.82043e-01,-1.57133e-01,4.72203e-02,3.98349e-02,-2.23830e-01,-6.49233e-01,-4.04829e-02,6.32737e-01,1.64684e-01,-1.87449e-02,-4.51841e-02,-9.36675e-03,2.56138e-03,-2.67861e-02,1.10704e+00,1.77088e+00,3.93947e-02,-1.32682e-02,-1.30278e+00,3.41913e-01,-1.28927e-01,4.32757e-02,3.60776e-02,-4.33562e-02,-3.01607e-02,-4.67954e-02,-2.03020e-01,-9.74604e-03,-4.23919e-01,2.58198e-02,3.68072e-01,2.58794e-01,1.02157e+00,1.25081e-02,-1.28538e-02,7.08545e-01,7.92908e-01,-1.19553e-02,-5.47955e-02,1.30044e+00,4.29792e-03,-3.74007e-02,5.30984e-01,-2.41778e-02,6.26299e-01,
-4.52108e-02,-2.60850e-02,-2.31012e-02,-2.41547e-02,2.45684e-02,-2.84874e-02,-3.41625e-02,1.66641e-02,-4.17424e-02,-9.66178e-03,-8.15866e-03,2.31129e-02,-1.25969e-02,1.14238e-02,1.06005e-03,-3.56384e-03,-2.99835e-02,-2.68928e-02,1.71641e-02,-1.88808e-02,8.85701e-03,1.84630e-02,-4.18894e-02,3.99047e-02,-1.20037e-02,-4.90496e-02,2.39388e-03,-2.36858e-02,-3.02289e-02,-4.22452e-02,3.79699e-02,2.77164e-02,3.28409e-02,-1.59858e-02,6.95148e-03,-4.86323e-03,-4.37397e-02,3.17480e-02,-2.00869e-02,2.95439e-02,-3.39988e-02,3.70584e-03,2.66945e-02,-5.34314e-02,2.34646e-02,1.39571e-02,6.71250e-03,-2.98965e-02,1.07780e-02,-2.88437e-02,
1.14397e-01,-2.52035e-02,-9.61229e-03,-7.70102e-01,-4.35850e-02,2.20678e+00,1.99806e-01,4.39978e-02,-4.44719e-01,5.57177e-01,-5.61262e-01,-2.88563e-02,-1.25467e+00,-1.32564e+00,-1.08176e-02,-4.07458e-02,-1.94572e-02,3.56003e-02,-8.20404e-03,9.94104e-01,7.64795e-02,1.21176e+00,-2.92896e-02,1.18046e+00,-4.99893e-01,-1.16285e+00,-9.79351e-03,-2.23931e-02,-3.97076e-02,2.84268e-02,-1.24792e-02,5.83642e-01,3.27201e-02,-7.10531e-01,-5.68209e-02,-1.00107e+00,-1.24059e+00,-1.12054e+00,-5.68674e-03,-4.46496e-02,-1.35702e-01,1.41391e-01,4.51193e-02,1.05879e+00,-4.73037e-01,-3.43792e-04,-8.10405e-03,1.93157e+00,-3.72135e-02,2.12964e-02,
-2.04700e-01,-1.59288e-03,-4.26138e-02,-4.46954e-02,3.97291e-03,-4.66424e-01,-1.39898e-01,-2.72816e-02,1.78194e-01,-3.26955e-01,1.71391e-01,-1.47780e-02,3.40361e-01,-1.03180e-02,-4.38469e-02,-1.72486e-03,4.31209e-02,2.11523e-02,-4.47737e-02,2.53256e-01,9.28852e-02,-3.74456e-01,4.39202e-02,4.07178e-01,1.53051e-01,-1.67063e-01,-3.22541e-02,4.06638e-02,-2.53590e-02,8.15639e-03,4.86630e-03,-2.77101e-01,-4.06196e-02,-1.96721e-01,1.29622e-01,1.94483e-01,2.19941e-01,-1.17474e-01,-4.58343e-02,1.03166e-02,-7.09364e-02,-5.93961e-01,-2.01072e-02,-2.20922e-01,-8.79286e-02,4.59478e-02,3.97547e-02,-1.50101e-01,-2.78413e-02,-3.38849e-01,
-2.88628e-01,-4.52330e-03,-3.01364e-01,1.81432e-01,-4.90012e-02,1.59388e-01,2.38208e-01,1.07964e-02,-1.08632e+00,2.36174e-01,1.46448e-01,-1.07295e-02,1.14547e-01,-1.01777e+00,-4.39777e-02,-3.89541e-02,-4.35480e-02,1.91524e-03,2.70381e-02,6.18821e-01,-4.97818e-01,1.77048e-01,1.65058e-02,3.81535e-01,-1.60089e-02,-4.54742e-01,2.07832e-02,1.65186e-02,-4.23525e-03,1.33567e-02,-2.26853e-02,-8.01920e-01,1.14093e-02,9.47523e-02,7.41496e-02,8.72953e-01,9.40006e-01,-1.25053e-01,-2.49973e-02,8.02218e-03,4.22364e-01,7.20334e-01,1.06208e-02,-5.97155e-01,7.54091e-02,1.33690e-02,-2.85382e-02,-2.82442e+00,-1.61969e-02,5.05444e-01,
-4.25091e-02,2.95177e-02,-1.86121e-02,-1.09230e-02,-3.47923e-02,-1.53442e-02,-3.79748e-02,2.74359e-02,1.12636e-02,2.42247e-02,2.42175e-03,-8.33579e-03,1.49813e-02,-1.24109e-02,3.10710e-02,3.56875e-02,1.41292e-02,3.84026e-03,4.43005e-02,-1.39370e-02,-1.03895e-02,-6.91368e-03,2.11342e-02,-1.03172e-02,-4.88903e-02,-1.51324e-02,2.88668e-02,-4.49911e-02,-4.32841e-02,3.25465e-02,-2.02665e-02,-3.09018e-02,-1.49033e-02,-5.17437e-02,-6.30155e-03,8.23364e-03,1.86977e-03,-7.16060e-03,-1.22449e-02,3.23244e-02,-4.68178e-02,-2.90477e-03,-6.24322e-03,-1.45701e-02,-4.43195e-02,-2.46148e-02,-1.14359e-02,-3.08485e-02,-1.55347e-02,-1.20997e-02,
2.24999e-01,3.57649e-02,1.74270e-02,3.31588e-02,3.05366e-02,-1.33589e+00,5.31170e-01,1.20607e-02,2.59207e-01,-1.08271e+00,-9.75840e-01,-3.49765e-02,8.86477e-01,1.32055e-01,-2.29374e-02,3.05779e-02,3.37269e-02,-3.07126e-02,3.88358e-02,-1.03960e+00,-4.14039e-01,-2.22341e-01,-2.51746e-02,-1.15970e+00,3.44145e-01,4.89112e-01,2.25065e-02,4.23182e-02,-2.80338e-02,-1.29274e-02,-1.83352e-02,-6.47491e-01,3.41136e-03,2.36305e-01,-5.17728e-01,5.98315e-01,1.58124e+00,-6.15002e-01,-4.14223e-02,-4.79995e-02,-1.82787e-01,-3.66337e-01,-3.34223e-02,-1.19472e-01,-8.71709e-01,1.90513e-02,2.95682e-02,9.90494e-01,6.81818e-03,1.41899e-04,
-7.62458e-01,4.17119e-02,-3.09852e-01,-8.47780e-01,2.56397e-02,2.89699e-01,1.77689e-03,-1.24801e-02,1.90444e-01,2.07775e-01,7.32180e-01,5.98848e-03,-6.90008e-01,8.23612e-01,2.22430e-02,3.89037e-02,-5.25205e-02,-3.84117e-02,-1.67246e-02,-8.93718e-01,-1.48610e-01,4.88112e-01,-2.14828e-02,-2.75160e-01,7.45811e-01,1.44541e+00,2.51378e-02,-1.24318e-02,-2.57056e-02,4.40666e-02,-2.76648e-02,2.55220e-01,3.96348e-02,-7.07690e-02,2.95942e-02,6.07847e-01,2.16119e-01,1.76782e+00,2.27382e-02,3.55814e-03,-1.69954e+00,8.88705e-01,-1.37688e-02,-1.44083e-01,-1.87904e+00,2.60533e-02,-4.02997e-02,4.97650e-01,-2.51011e-02,-1.18083e-01,
-4.96541e-02,2.33988e-02,-4.19449e-02,-3.35537e-02,2.21524e-02,-1.31122e-02,-1.62550e-02,-4.89060e-02,-4.66785e-02,1.47902e-02,1.87252e-03,-1.20243e-02,-3.92058e-02,4.94650e-03,2.88974e-03,6.45150e-03,-6.25988e-03,2.52269e-02,6.16438e-04,-4.58196e-02,-4.94102e-03,2.64643e-02,2.01285e-02,-4.28994e-02,5.96263e-03,1.55791e-03,-3.49215e-02,5.23709e-03,-2.96515e-02,-2.23072e-02,2.71329e-02,-3.27411e-02,3.28951e-02,-4.78531e-02,2.17711e-03,-7.24143e-04,-6.22795e-03,1.26552e-02,-2.79032e-02,-3.21036e-02,1.57414e-02,-1.99870e-02,-2.63319e-02,2.27907e-02,-1.23954e-02,-8.50741e-03,-4.86784e-02,1.26707e-02,3.41576e-02,1.01945e-02,
4.97650e-01,1.11145e-02,2.18031e-01,-6.74323e-01,1.23443e-02,1.52058e-02,-8.04239e-02,-2.12195e-02,-1.78730e-01,1.91218e-01,-3.79818e-01,3.83032e-03,3.30504e-01,-5.95226e-01,-5.05359e-02,1.33699e-02,2.17659e-03,-2.62540e-02,3.91231e-04,-1.13010e+00,-1.18692e+00,-1.84035e-01,-3.17216e-03,2.17846e-01,-2.80692e-02,4.14311e-01,-7.09750e-03,2.32966e-02,-4.82323e-03,8.66410e-03,4.90116e-03,1.43893e-02,-3.04471e-02,4.56118e-01,1.81489e-01,-1.55924e+00,-1.00635e+00,5.55871e-01,-1.41126e-02,2.33550e-02,-1.52035e-01,1.38806e-01,-5.09167e-02,-5.96608e-01,9.50256e-01,1.07885e-02,6.37426e-03,-2.55301e+00,2.45810e-02,-1.32180e-01,
-1.80739e-01,-1.50973e-02,-7.09802e-02,-8.10199e-01,7.64186e-04,4.75271e-01,2.28782e-01,1.32952e-02,3.45804e-01,-2.95091e-01,3.25720e-01,2.33624e-02,5.21004e-01,2.27317e-01,-2.14308e-02,3.63192e-02,-3.79177e-02,1.90616e-02,-3.58980e-02,7.36426e-01,1.21447e-01,8.58423e-02,1.10833e-02,1.14019e+00,-1.51539e-01,-9.51638e-01,3.82335e-02,-2.74335e-02,2.07263e-02,-5.35272e-02,4.26583e-02,1.39775e-01,4.29434e-02,4.42111e-01,-3.89003e-01,-3.22047e-01,-2.27984e-01,5.28341e-01,2.21795e-02,-4.76982e-02,-1.70007e-01,-7.42428e-02,-1.50904e-02,8.61402e-01,8.30069e-01,4.55441e-02,-3.10857e-02,-7.01667e-01,-3.28358e-02,8.85378e-01,
-9.44672e-01,-5.10492e-02,1.66168e-01,-3.24690e+00,1.63816e-02,-5.92812e-01,3.53574e-01,2.19375e-02,1.26107e+00,-1.82807e+00,-1.15841e+00,3.92902e-03,1.73860e+00,-3.01921e-01,2.47532e-02,-5.27029e-03,-1.84353e-02,6.03946e-03,4.15602e-02,4.72179e+00,-6.58996e-01,-1.72971e+00,-3.68351e-03,-1.88514e+00,5.93074e-02,8.54095e-01,-4.04377e-02,2.07786e-02,8.90217e-03,-1.39508e-02,-4.10415e-03,8.93819e-01,-2.97250e-02,-4.48328e-01,-1.57525e+00,-8.82239e-01,-3.24902e+00,-1.97060e-01,-5.95527e-02,3.71485e-04,-1.25094e+00,5.72696e-01,4.44996e-02,-1.73739e+00,2.38474e+00,-6.17871e-04,4.00809e-02,-2.67797e+00,6.95316e-03,1.08793e+00,
-9.40152e-01,
-5.76253e-01,
1.35058e-01,
-9.59974e-01,
-4.05695e-01,
2.82358e-01,
5.50596e-01,
-1.90258e-02,
-2.20899e-02,
-9.40892e-01,
3.50431e-02,
-1.86477e-01,
-3.60106e-01,
-5.68107e-01,
1.30177e+00,
-7.06881e-01,
3.25825e-01,
-8.05309e-01,
-4.17132e-01,
-3.27362e-01,
-1.42743e+00,
5.20682e-02,
-1.20555e+00,
1.82806e+00,
-4.65577e-02,
-3.95666e-02,
-7.27403e-01,
-1.22361e+00,
-1.49032e+00,
9.27208e-02,
5.28900e-01,
-9.47843e-01,
-6.20888e-01,
6.72177e-01,
-6.04776e-01,
-1.10460e+00,
-3.68531e-01,
-8.67185e-01,
-2.48366e-01,
-2.55894e-02,
1.93771e+00,
9.93855e-01,
-3.41596e-01,
-6.03874e-03,
-2.00336e-01,
1.01579e-01,
-1.00161e-02,
-5.78079e-01,
-9.11568e-01,
-1.04393e+00,
-1.01821e+00,1.14587e+00,5.66856e-01,-8.38509e-02,-4.13061e-01,7.96799e-01,1.03304e+00,2.97449e-03,1.31959e-02,-2.04653e+00,2.10670e+00,3.39749e-01,-7.34282e-01,6.08496e-01,6.72708e-01,1.11576e-01,-4.92555e-02,-1.53245e+00,-3.29645e-01,4.91570e-01,1.60375e+00,1.12209e+00,1.62864e-01,-1.07077e+00,6.73094e-03,3.75563e-02,-9.57674e-01,-1.77268e-01,4.12969e-02,-2.41986e-01,1.13900e+00,-2.67416e+00,-5.57049e-01,1.02501e+00,-1.84908e+00,2.21694e+00,1.16972e+00,2.65435e-01,-2.46572e-01,-4.98498e-02,6.41919e-01,6.42396e-01,-1.21627e+00,-2.95920e-02,2.08547e+00,8.80723e-01,4.34398e-02,5.91885e-01,9.15499e-01,5.60409e-01,
-1.47253e+00,1.55165e+00,-1.72620e-01,-1.46605e-02,6.06216e-01,-2.78544e+00,3.06817e+00,6.48113e-03,4.09072e-02,2.22330e+00,-2.99468e+00,-3.71682e-01,1.60756e-01,7.13204e-01,6.07799e-01,-1.98199e+00,1.03818e+00,-1.43781e+00,4.44252e-01,-9.42505e-02,-1.22495e+00,2.09741e+00,2.66485e-01,-3.14218e-01,4.20744e-02,8.12242e-03,1.83149e+00,-3.02787e+00,-9.55240e-01,-1.02934e+00,1.94613e+00,-1.16191e-01,7.37163e-01,2.60876e-01,-9.80558e-03,2.81688e+00,-4.69450e+00,3.67750e-01,1.18755e-02,-1.31461e-03,8.13554e-01,-3.40283e-01,1.04484e+00,4.27525e-02,7.98783e-01,-8.85269e-01,3.92228e-02,-1.34791e+00,-3.49361e-02,4.08291e-01,
-6.55016e-01,-1.07887e+00,-6.94858e-01,-7.81138e-01,7.47334e-01,6.24014e-01,2.14073e+00,-4.13235e-02,3.44029e-02,-1.07083e-01,1.51695e+00,-5.33950e-01,-7.72947e-01,-8.23105e-01,1.41596e+00,4.99877e-01,2.87870e-02,3.52105e+00,7.07759e-01,1.04213e+00,-1.70023e+00,2.24661e+00,9.15319e-01,-9.81794e-01,-4.34225e-03,1.26441e-02,3.20249e+00,1.47321e+00,-3.99080e-01,-9.63054e-02,2.08520e+00,1.80049e+00,2.29173e+00,1.86999e-01,-2.06343e-01,3.74179e-01,-6.84852e-01,7.59430e-01,2.30359e+00,-5.52992e-03,1.29857e-01,2.22604e+00,1.96603e-01,5.71936e-03,-2.17150e+00,-6.07822e-01,1.55425e-02,3.17280e-01,1.16216e+00,2.82590e+00,
1.23242e+00,-7.26025e-01,-9.64705e-01,-5.88138e-01,8.82070e-01,-8.45741e-02,1.67898e+00,-3.93894e-02,2.06275e-02,-9.24063e-01,1.61047e+00,-4.90686e-01,-4.75623e-01,-3.70620e-01,1.11556e+00,8.39969e-01,-1.91676e-01,9.12654e-01,-6.08340e-02,1.08718e+00,-7.00539e-01,6.72894e-01,3.37460e-01,1.99908e+00,6.49896e-02,3.53759e-03,7.78487e-01,2.04533e-01,-1.21369e-01,-1.49430e-01,1.12079e+00,-4.63911e-02,1.40895e-01,1.84776e-01,1.25076e+00,1.91981e+00,6.53064e-02,-3.85592e-02,4.47919e-01,2.99798e-02,1.85639e-01,2.69525e+00,4.00835e-01,-1.05309e-02,-1.53782e+00,2.42609e-01,3.28976e-03,2.10731e-01,3.89202e-01,7.58737e-01,
-9.48041e-01,-1.70635e+00,-2.53932e+00,-4.43430e-01,2.68062e+00,-1.00979e+00,-1.51739e+00,3.04338e-02,-3.29160e-02,7.57271e-01,-2.90856e+00,-2.00992e-01,1.20430e+00,-4.24793e-01,-1.08093e+00,-6.27050e-01,-3.08350e-01,-2.79753e+00,-5.83579e-01,-3.46490e+00,-2.22594e+00,-6.86795e-01,-2.25324e+00,3.23155e-01,2.35038e-02,5.43721e-03,4.34456e-02,1.49712e+00,1.73446e-01,-1.18075e-04,-3.87256e+00,1.87879e+00,1.12368e+00,-2.57428e-02,-1.07712e+00,-2.33598e-01,-3.12928e-01,-1.86136e-01,-1.01451e+00,-1.70067e-02,-7.14711e-01,-3.08320e+00,1.01379e+00,-3.43464e-02,-1.13494e+00,-3.44460e+00,-1.58140e-02,-1.15246e+00,1.83194e-02,7.47467e-01,
-6.10188e-01,6.55878e-02,2.89333e-01,4.21734e-02,3.13023e-01,-1.65898e-01,4.45929e-01,-2.95504e-02,-1.51471e-02,-6.91300e-01,1.87368e+00,-2.04570e-01,-1.25268e+00,-8.76989e-02,-9.11934e-02,2.95180e-01,-1.07557e-01,1.32210e+00,-2.30625e-01,1.39830e-01,1.07416e-01,4.19072e-01,1.62339e-01,1.70966e+00,-8.48182e-03,1.08015e-02,4.09111e-01,-1.18436e-01,4.47758e-02,-1.05723e-01,4.33498e-02,1.87401e+00,-9.55694e-02,3.92916e-02,7.19622e-01,6.67328e-01,2.18083e-01,1.82658e-01,5.09951e-01,1.95796e-02,4.03722e-01,1.45184e+00,4.06458e-01,-4.23530e-02,-1.90708e-01,4.38178e-01,-3.68289e-02,1.38681e-01,3.17897e-01,-3.26548e-01,
3.61708e-02,-9.16556e-02,-1.09545e+00,4.46902e-01,-1.62585e-01,-8.13463e-02,8.95374e+00,-3.98828e-02,-4.50616e-02,1.28510e+00,1.41883e+00,3.06591e-01,1.97913e-01,1.50010e-01,-3.18991e+00,-2.27190e+00,1.71743e+00,-1.32953e-01,-1.63658e+00,-1.24856e-01,6.61383e-03,-5.92276e+00,5.60422e-02,-2.38874e+00,3.10535e-02,3.77498e-02,-6.66322e+00,-8.42523e-03,2.93861e-01,-2.08467e+00,1.84663e+00,4.59420e-01,-7.48314e-01,-7.83226e-01,-7.55677e-01,-4.22014e-01,-2.61256e-01,2.68902e-02,-8.59463e-01,-3.02955e-02,-4.77523e-01,4.11728e-01,2.69690e-01,-2.62247e-02,-1.27350e+00,2.50580e-01,-3.54319e-02,-1.31259e-01,-2.32624e+00,3.13641e-01,
8.99462e-04,-3.29791e-02,2.55048e-02,1.55873e-02,2.57362e-02,-4.57093e-02,1.89798e-02,4.14369e-02,-5.94952e-03,1.08388e-03,-7.40706e-03,-3.57738e-02,-6.06567e-02,2.58021e-03,-4.52981e-03,-4.96104e-02,-2.15401e-02,4.01370e-02,1.95279e-02,4.37212e-02,2.87383e-02,-2.71368e-02,-2.52118e-02,-3.37408e-03,-2.69843e-02,-4.34134e-02,1.46838e-02,-2.46789e-02,3.88828e-02,-5.41644e-02,9.33553e-03,4.30879e-02,-8.20866e-03,9.80595e-03,1.30438e-02,-5.35703e-02,1.27387e-02,-3.91740e-02,1.16908e-03,-1.59377e-02,1.52442e-02,-3.28947e-02,4.10026e-02,6.30627e-03,-4.99290e-02,-3.73365e-02,2.17720e-02,-4.39395e-02,-1.51951e-02,3.13878e-02,
-4.93012e+00,7.68330e-01,6.66100e-01,-3.24237e-01,1.05732e+00,4.08624e-01,8.89610e-01,-1.27357e-02,-3.12702e-02,1.93967e+00,-3.25160e+00,3.40549e-01,2.10522e-02,4.84203e-02,-7.60394e-02,-6.04956e-03,9.43624e-02,1.11653e+00,-8.38766e-01,-1.67617e-01,8.33978e-01,-3.15996e-01,-1.91231e-01,-3.14872e-01,-1.01973e-03,-2.43512e-02,1.89345e-01,-5.80582e-01,-7.04140e-02,-7.22314e-01,-3.61456e-01,2.94339e-01,-1.44946e-01,-6.29222e-01,-9.98701e-02,-3.75466e+00,8.78021e-01,-6.69151e-02,8.40232e-01,-3.17069e-02,-2.17326e-01,5.56014e-01,4.97467e-01,-1.23882e-02,3.31941e-01,-2.89849e-01,-2.82141e-02,7.83206e-02,-5.94690e-02,-5.60941e-02,
1.78613e-01,7.69818e-01,1.66254e-01,5.75133e-01,-1.85581e+00,-7.37479e-02,-5.52538e-01,-4.06576e-03,-3.37470e-02,-1.45956e+00,1.08905e+00,-1.07645e-01,7.39347e-02,5.85082e-01,7.27199e-01,7.70939e-01,2.00197e-01,4.63473e-01,-4.82094e-01,1.44450e-01,1.02316e+00,2.10059e+00,-1.14216e+00,-1.79817e+00,-6.54180e-02,2.59915e-02,7.21694e-01,-7.19068e-01,2.70565e-01,1.09874e-01,-9.47186e-01,-1.66216e-01,-1.24619e+00,7.56597e-01,2.93137e-01,-7.40957e-01,-5.13065e-01,3.56291e-01,-3.43833e-01,-3.24936e-02,4.36405e-01,-1.02043e+00,7.64475e-01,-3.78620e-02,2.36992e-01,6.09670e-01,2.90073e-02,-9.97100e-02,1.00008e-01,-2.65337e-02,
4.84950e-01,3.38684e-01,6.90711e-02,2.26491e-01,7.13292e-01,-7.68582e-01,2.55881e+00,-3.12251e-02,4.23931e-02,4.87016e-01,2.52815e+00,2.00515e-01,-1.15028e+00,4.24993e-02,-1.72127e-01,7.40603e-01,-1.77594e-01,9.47500e-01,1.57296e+00,-5.74885e-01,-5.06206e-01,-9.60371e-01,9.29791e-01,2.34801e+00,1.41622e-02,-2.12012e-02,1.79982e-01,-4.56403e-01,7.80131e-02,-1.83323e-01,-7.01199e-01,2.30549e+00,1.31397e-01,6.93590e-01,-9.63748e-02,1.62945e+00,4.97801e-02,-3.20854e-01,3.62404e-01,-2.00442e-02,1.36603e-01,9.40304e-01,-3.09102e-01,-2.20954e-03,-3.33895e-01,7.55532e-01,1.34384e-02,-3.63546e-01,8.44416e-01,-4.12029e-01,
-5.56872e-01,9.90773e-01,-2.81873e+00,2.33755e-01,2.54952e-01,-1.63298e-01,-1.46374e+00,-4.09815e-02,3.41759e-02,2.24488e-01,4.01885e-01,-4.05747e-01,-2.34158e-01,2.92953e-01,-3.98455e-02,8.84765e-01,3.19112e-01,-1.51362e+00,1.46761e-01,9.29066e-03,6.71102e-01,1.62195e+00,1.50992e-01,-2.91061e-01,5.80972e-02,-3.15055e-02,3.59019e-01,-1.58470e-01,-7.99471e-02,1.77159e-01,-2.09405e-01,1.49061e+00,1.19007e+00,4.38583e-02,2.77866e-01,-2.23895e-01,-3.42760e-02,4.41970e-01,5.82111e-01,-3.28909e-02,-1.42377e-01,-3.59439e-01,6.01740e-02,2.25053e-02,5.62559e-01,2.18367e-01,-3.26488e-02,9.28395e-03,6.05026e-01,4.19323e-01,
-8.15960e-02,8.43195e-01,-9.28544e-01,-1.41865e-02,-2.12308e-01,9.04154e-01,-1.75439e+00,-1.74702e-02,-2.57838e-02,3.70961e+00,-8.33221e+00,7.91465e-01,-6.32748e-01,-6.13255e-01,7.49212e-01,7.29784e-01,7.94030e-01,-9.04053e-01,1.23617e+00,-1.36785e-03,-2.17615e+00,-1.55431e+00,7.96490e-01,7.57052e-01,-9.12451e-03,-7.50919e-03,6.30165e-01,6.59813e-01,-2.42664e-02,2.42355e-01,-4.76864e-01,-1.68789e+00,-9.72812e-01,3.33416e-01,7.06580e-01,-3.29393e+00,-8.10659e-01,4.87135e-02,-1.42708e+00,1.31882e-02,-9.67965e-03,2.68830e-01,6.28326e-01,-2.35815e-02,-1.57763e-01,-8.75839e-01,-3.55160e-02,-4.47016e-01,9.87724e-02,5.52078e-01,
7.49773e-01,5.66125e-02,-1.96064e-01,4.01118e-01,7.91210e-01,5.11762e-01,-4.05331e+00,4.30523e-02,1.47660e-02,-3.80587e-02,-2.13735e+00,-8.00580e-02,1.02990e-01,-4.76209e-01,1.06325e+00,3.56019e-01,1.15374e-01,-2.38305e+00,-5.92405e-01,2.92752e-01,5.91756e-01,-8.22629e-01,3.87752e-02,-2.36445e+00,1.08412e-02,1.89875e-02,3.58578e-01,1.15254e+00,2.43519e-01,1.22377e-02,-6.72709e-01,5.90309e-01,-1.27960e+00,-3.65378e-01,-5.48879e-02,2.79756e-01,-1.33586e-01,1.23544e-01,-2.71868e-01,-4.41106e-02,3.00722e-01,-5.42301e-01,9.19576e-01,1.87598e-02,-2.31567e+00,6.95008e-01,4.41497e-02,3.81595e-01,8.20216e-01,-3.06924e-01,
9.18160e-01,-2.70747e-01,-2.67562e-02,-4.51074e-01,5.56610e-02,-4.97703e-02,1.24893e+00,-2.61532e-02,-2.49986e-02,-2.83190e+00,-8.20776e-01,7.25715e-01,-7.20358e-01,4.55723e-01,-8.95541e-01,-3.04750e-01,-1.08890e-01,4.21391e-02,-6.03776e-01,8.82848e-01,-1.65027e-01,2.84649e+00,-1.24300e+00,1.10958e+00,3.61434e-02,9.36449e-03,6.09027e-01,7.05607e-01,-4.07442e-02,-1.39620e-01,1.55768e+00,9.99954e-02,1.27161e-02,-1.98921e-01,1.44459e+00,2.04217e+00,1.04646e+00,-1.12166e-01,-2.80571e-01,-8.54432e-03,2.79081e-02,1.63850e+00,1.88620e-01,-2.63205e-02,-1.92647e+00,2.33086e-01,1.64232e-03,2.70243e-01,4.86728e-01,9.45777e-01,
-2.47346e-01,2.14563e-01,-1.34974e+00,1.02233e+00,1.78564e-01,1.25462e-01,2.08517e+00,4.54284e-02,-4.06799e-02,1.49251e+00,3.20406e+00,-2.76091e-01,-1.60744e+00,2.80314e-01,1.20126e+00,-1.19264e-01,7.91937e-01,-9.88966e-01,-5.69918e-02,4.13456e-01,5.86647e-01,9.15815e-01,6.16170e-02,-1.58434e+00,-3.31346e-02,-3.20539e-02,5.66997e-01,-7.69689e-01,8.04028e-01,2.30629e-01,5.13772e-01,-2.81358e+00,8.01469e-01,2.61569e-01,-1.75751e-02,5.52385e-01,1.94414e+00,2.36111e-01,6.42787e-01,6.19927e-03,-9.07227e-01,9.27138e-01,-2.42264e-01,4.27765e-02,1.74574e+00,9.13733e-01,3.68510e-03,6.53928e-01,1.97850e+00,-2.81589e-01,
7.27978e-01,-9.86556e-01,9.83651e-01,1.25658e-01,3.54643e-01,3.29210e-01,7.00429e-01,8.74063e-03,4.63777e-02,1.17638e+00,1.07146e+00,7.69256e-01,2.76213e-01,-2.69370e-02,5.22319e-01,-6.17624e-01,-1.30643e-01,-2.07840e+00,-7.43797e-01,-7.32604e-01,4.38873e-01,-1.30719e+00,2.61628e-03,-9.92358e-01,1.45708e-02,-1.97431e-02,-1.00853e+00,-1.21503e-01,5.43622e-01,3.05721e-01,7.74905e-01,-6.41181e-01,-4.36246e-01,-1.61308e-01,-5.08710e-01,7.09887e-01,-7.21173e-02,-3.45964e-03,-7.05293e-01,2.44086e-02,-5.19257e-01,-1.86235e+00,9.50499e-01,3.54600e-02,-4.49066e-01,-1.33944e+00,-3.28440e-02,1.08813e+00,-4.91144e-01,-3.20221e-02,
3.66749e-02,-9.39254e-03,-2.46400e-02,-4.24294e-02,1.87334e-02,-1.12608e-02,6.16639e-03,2.17724e-02,2.67570e-02,-1.18195e-03,-4.71130e-02,-2.38224e-02,-2.69384e-02,3.89832e-02,-2.07382e-02,-2.49979e-02,1.01778e-02,-4.49878e-02,1.53355e-02,4.70333e-02,1.79314e-02,3.82068e-02,-3.15251e-02,-4.08405e-02,5.61732e-04,1.28094e-02,1.15336e-02,-3.90945e-02,1.62264e-02,-4.49746e-02,-2.89820e-02,-4.45230e-02,-3.73769e-02,3.12306e-02,1.64691e-02,1.52014e-02,1.18394e-02,-5.18773e-02,-2.08521e-02,3.62811e-02,-4.26926e-02,-8.52084e-03,-4.97974e-02,1.70623e-02,-1.15620e-02,3.30431e-02,-2.72339e-02,-1.67422e-02,-1.19858e-02,3.73109e-02,
-7.10239e-01,-2.44887e-01,-1.55150e-01,-1.76192e-02,-2.14138e-02,-2.88808e-01,5.14540e-01,3.07006e-02,-4.38274e-02,-4.16216e-01,-1.21304e+00,-1.81204e-01,1.65948e-01,-1.55838e-01,-1.03338e-01,-2.76799e-01,-1.32277e-01,-2.65723e-01,-2.82694e-02,-7.66222e-01,2.33344e-01,-5.09526e-01,-8.66789e-02,2.30088e-01,4.82509e-02,-4.68744e-02,6.49029e-02,5.35711e-02,2.03766e-01,4.34335e-02,-3.88090e-02,4.21722e-01,4.36885e-01,-7.63737e-02,-3.35303e-01,3.78628e-01,-4.43864e-01,-5.69403e-02,-6.14580e-01,-2.49680e-02,2.16840e-02,-2.07138e-01,-6.99542e-01,-4.11684e-02,1.01302e-01,-7.78865e-01,1.41223e-02,-3.28547e-01,-5.80723e-01,1.83637e-01,
2.52919e-01,-5.11932e-02,-1.16355e+00,2.35094e-01,1.77688e+00,2.86048e-01,-5.02100e+00,-4.44981e-02,1.82818e-02,7.76024e-01,2.27667e+00,-3.19284e-01,1.71495e-02,5.92066e-01,1.70999e+00,5.68825e-01,-8.00112e-02,-1.77236e+00,9.60813e-01,-2.65164e-01,2.01917e-01,2.39461e-01,2.93286e-02,1.13269e+00,-3.01101e-02,-1.58319e-02,-5.20621e-03,7.56405e-01,6.28747e-02,3.16942e-01,1.55343e+00,9.56613e-01,-2.03633e-02,-1.41866e-01,8.51301e-01,-9.19967e-01,9.22119e-02,3.47802e-01,-1.61595e+00,5.35616e-02,-5.49341e-01,-3.02653e-01,5.46458e-01,3.80806e-02,-5.02317e-02,-3.76736e-01,6.01326e-04,-5.93639e-01,5.66787e-01,1.04147e+00,
-2.37173e+00,2.40068e-01,3.80210e-01,5.67599e-01,-5.66290e-01,1.97357e-01,-2.75396e+00,2.82981e-02,-2.51290e-02,-2.06806e+00,-3.52260e+00,-5.79233e-02,6.07088e-01,-9.82442e-01,-2.92128e+00,-1.37545e+00,1.30534e-01,7.62900e-01,-4.40162e+00,2.10425e-01,1.49093e+00,2.12255e-01,2.12373e-01,-2.49621e+00,2.02998e-02,-6.59532e-02,-3.52653e+00,-2.14722e+00,2.98831e-01,1.70545e-01,-1.63667e+00,3.32737e+00,-1.59104e+00,3.45387e-01,-1.93802e+00,-3.78144e+00,-8.34375e-01,-2.12010e-01,2.29393e+00,5.91926e-02,6.60439e-01,-2.58896e+00,-1.33482e-01,-4.71248e-02,3.23495e-01,-6.69374e-01,-3.47136e-02,1.57693e-01,-4.56699e+00,4.19690e-02,
1.26510e+00,8.52479e-01,2.05426e+00,7.06120e-02,-7.99572e-01,4.89552e-01,-6.63052e-01,3.68790e-02,-2.24778e-02,-6.59205e-02,2.44048e-01,7.86175e-01,-6.19223e-01,3.74747e-01,1.14184e+00,1.37339e+00,2.32707e-01,-2.60687e+00,-1.42597e+00,1.23972e-01,3.60542e-01,-7.34445e-01,5.14540e-01,4.87885e-01,-1.95358e-02,-4.09003e-02,1.17464e+00,-3.45453e+00,1.04108e+00,-7.01582e-01,7.93165e-01,-1.66467e-01,5.38836e-01,-5.21562e-01,-5.98635e-02,3.39194e-01,5.10507e-01,-2.35346e-01,-9.82076e-01,3.68332e-02,3.81619e-01,4.64442e-01,-9.72880e-01,-1.34211e-02,2.81500e-01,6.96055e-01,1.40119e-02,-1.18208e+00,-2.17811e+00,-1.05833e+00,
3.85613e-01,2.12494e-01,2.55227e-01,1.37404e+00,7.99456e-01,-1.44848e-01,1.89164e+00,3.22110e-02,-4.66401e-02,-3.11381e+00,1.42570e+00,-8.53589e-02,-1.58372e+00,1.41882e+00,-2.60970e-01,1.84966e-01,3.42147e-01,2.21284e+00,1.51696e+00,-7.16109e-01,-3.73640e-02,7.17306e-01,4.90434e-01,2.31610e+00,-8.25149e-03,-3.84675e-03,-5.24176e-01,-4.39605e-01,3.63261e-01,4.57327e-01,-7.15538e-01,7.52153e-01,5.72600e-02,7.45568e-01,3.23616e-01,1.16411e+00,2.80651e-01,2.39499e-01,-1.75731e+00,2.08933e-03,6.23334e-01,1.43802e-01,-3.92711e-01,8.06307e-03,4.42725e-01,6.05770e-01,6.81020e-03,-7.50003e-01,1.31297e+00,-2.13141e-01,
1.36318e+00,-5.87772e-01,4.21452e-01,1.46294e-01,-6.27948e-01,1.52212e-01,4.32904e+00,-1.27171e-02,1.34855e-03,-1.71905e-01,4.58508e-01,-3.27144e-01,-8.29925e-02,1.81414e-01,-1.11315e-01,-3.62187e-01,-1.06056e+00,-6.35804e-01,7.56347e-01,4.11468e-01,8.41442e-01,3.12404e+00,1.40716e-01,-5.41349e-02,2.16978e-02,-9.21604e-03,3.84147e-01,4.50120e-01,8.93238e-02,-2.67855e-01,-6.46997e-01,2.50482e-01,6.61651e-01,-9.36107e-01,8.59263e-01,2.26673e+00,2.39676e-01,-6.14906e-03,-4.48541e-01,-1.90189e-02,-1.45547e+00,9.11234e-01,-5.45728e-01,3.27601e-02,-1.10992e-01,1.73141e+00,1.36301e-02,2.79820e-01,-6.62259e-01,-3.55768e-01,
4.36671e-01,7.01031e-02,4.26766e-01,5.52390e-01,2.01169e-01,-1.73806e-01,4.04936e+00,3.54488e-02,-1.62401e-02,-6.71523e-02,1.37211e+00,5.09206e-01,-1.79528e+00,2.25241e-01,1.09195e+00,1.75145e-01,4.96225e-01,5.78190e-01,1.25478e+00,2.46718e-01,-2.27128e-01,1.34202e+00,8.65409e-01,1.75297e+00,-1.67862e-02,-1.74614e-04,2.54795e-01,-2.52102e-01,-9.17590e-02,-5.71364e-02,3.26215e-01,7.13751e-01,9.50940e-01,5.14924e-01,1.61229e+00,-1.14056e+00,1.09553e+00,-1.66532e-01,2.24379e+00,2.91916e-02,6.74838e-01,1.74150e+00,9.78948e-01,4.75930e-02,1.70859e-01,1.54123e+00,2.33292e-02,-5.18010e-01,1.68382e+00,1.40498e-01,
-3.14014e-01,9.71583e-01,1.50886e+00,-1.56005e-01,1.74063e+00,-3.46357e-01,4.17286e+00,2.89474e-02,-4.02105e-02,1.71145e+00,-1.12691e+00,1.31249e+00,-1.96124e-01,-1.54580e+00,-1.76002e+00,1.01557e+00,1.02051e-01,-2.93144e-01,1.59321e+00,-4.99053e-01,2.02343e-01,1.33820e+00,-1.23538e+00,-8.76892e-01,1.82599e-02,-1.25871e-03,3.94240e-01,8.07685e-01,5.34586e-01,-5.50179e-01,-1.66030e+00,-1.04834e-01,-6.06985e-01,8.82471e-02,1.14927e-01,1.19846e+00,1.26932e+00,-3.18747e-01,-1.90014e+00,-1.96629e-02,2.08030e-01,-7.15572e-01,1.03002e+00,-3.14572e-02,9.68468e-02,1.02453e+00,4.43152e-02,7.72950e-01,-8.50352e-03,4.21707e-03,
-1.84332e-01,6.18214e-01,7.23295e-01,-5.59087e-01,-4.93123e-01,2.28694e-01,1.51067e+00,4.92830e-02,-6.70864e-03,5.64201e-01,-7.87990e-01,2.24540e-01,-3.18527e-01,-2.71433e-01,1.77735e-01,2.16482e+00,7.45910e-02,2.03343e+00,-8.75857e-02,-1.37765e+00,9.85731e-01,-2.70929e-01,4.43687e-01,1.79533e+00,1.36800e-02,-2.94862e-02,1.48117e+00,2.13967e-02,1.18183e-01,-8.79513e-01,2.85033e-01,6.49526e-01,1.38886e-01,-4.41986e-01,-5.05231e-01,1.47637e+00,1.36259e+00,-5.09987e-01,1.24625e+00,-3.88596e-02,3.96641e-01,1.54737e+00,-1.16994e+00,-2.72889e-02,7.35372e-01,2.01396e+00,-4.14696e-02,-8.93370e-02,-8.62409e-01,1.28696e+00,
-4.38211e-01,-3.04259e-01,-8.72673e-01,-3.35636e-01,8.73753e-02,1.04044e-01,1.40868e-01,1.60380e-02,-3.97924e-02,-9.52474e-01,-6.73831e-01,4.08045e-01,-1.65144e-01,1.58631e-01,-1.02395e-01,7.94425e-01,-2.33475e-01,5.93271e-02,-1.05213e+00,5.42245e-01,-9.23930e-01,2.90365e-01,5.61196e-02,5.33572e-01,-4.63514e-02,-8.17784e-03,3.02477e-01,1.13710e-01,-1.33817e-01,6.42248e-02,7.47115e-01,-1.56658e-01,-4.45609e-01,1.12520e-01,-5.53901e-02,3.77938e-02,1.07824e+00,3.42506e-01,-2.09104e-01,-2.40516e-02,-5.37978e-01,3.56157e-01,6.88393e-01,-4.66571e-02,3.80537e-01,-4.88783e-01,-4.81316e-02,4.00241e-01,-7.21501e-01,-6.88784e-01,
-8.12979e-01,1.87347e-01,4.23732e-01,5.44138e-01,-1.05853e-01,-7.16971e-01,3.33418e+00,-3.86565e-02,-2.41252e-02,-2.09147e+00,1.42172e+00,-6.84503e-02,-6.63273e-01,1.05853e+00,1.12680e+00,2.30934e-01,6.56321e-01,1.34773e+00,-4.99228e+00,-2.06686e+00,-7.21392e-01,1.55034e+00,-9.11327e-01,-8.43702e-01,2.46427e-02,-2.06244e-02,-1.71239e+00,-5.40876e-03,2.44018e-01,-1.69114e-01,1.33539e+00,-1.17687e-01,7.24058e-02,6.63786e-01,-1.06279e+00,-4.75380e-01,4.03259e-01,7.85140e-01,1.64350e+00,-2.19406e-02,-1.57011e+00,1.19285e-01,2.07412e+00,1.53855e-02,5.29762e-01,-1.37574e+00,3.32334e-02,6.78773e-01,2.54775e+00,1.29905e+00,
9.45346e-01,4.53149e-01,-3.98323e-01,-1.09031e+00,5.52464e-01,5.46292e-01,2.88520e+00,-2.26462e-02,-2.35539e-02,-6.11660e-01,1.45396e+00,-1.42174e+00,-9.54000e-02,-2.62807e-02,1.80475e-02,2.41468e-02,-4.68131e-01,1.53034e+00,8.85557e-01,1.96154e-01,-4.79653e-01,3.09148e+00,1.70018e+00,2.45423e-01,3.52748e-02,3.03096e-02,3.75286e-01,5.38060e-01,5.94888e-02,-1.91017e-01,8.75933e-01,6.30726e-01,-8.79700e-01,6.13805e-01,3.03238e-01,3.26133e+00,1.98009e+00,1.78636e-01,1.71957e+00,1.06896e-02,-6.36289e-01,4.28709e-01,6.19355e-01,-3.86664e-02,-5.88929e-01,2.34857e+00,-4.17763e-02,2.90702e-01,-5.72787e-02,-1.88322e-01,
-2.43956e+00,1.16397e+00,8.56727e-01,-4.27324e-01,-8.54158e-01,2.92787e-01,2.77691e+00,-2.21309e-02,-3.54366e-04,2.20132e+00,2.13606e+00,-6.29242e-01,3.31744e-01,-1.16048e-01,1.12518e+00,-3.59714e-01,3.09369e-01,4.18698e+00,-4.28912e+00,-7.79051e-01,-8.61536e-01,7.04048e-01,-1.49353e+00,1.96123e-01,4.84740e-02,-6.37392e-02,2.49917e+00,1.56016e+00,-4.07524e-01,-8.95252e-01,-4.35219e-02,1.07215e+00,1.80155e+00,-7.42624e-02,5.20343e-01,2.83736e+00,1.62244e+00,-3.88590e-01,2.41383e+00,-4.37266e-02,-1.98837e-01,1.71930e-01,2.38307e+00,-6.34158e-04,-1.90679e+00,-3.80829e-01,-2.03046e-02,-2.55550e-01,7.58181e-01,1.11259e+00,
1.87393e+00,-4.64922e+00,-1.74104e-01,-1.17038e+00,3.03557e-01,-3.05163e-01,-7.33924e+00,4.43964e-02,-5.96505e-03,5.59603e-01,-2.84816e+00,-4.75697e-01,8.91272e-01,-5.33693e-01,1.21066e-02,5.16918e-01,-3.37602e-01,-1.37634e+00,9.66373e-01,1.05360e+00,7.08426e-01,3.28669e-01,-1.29986e+00,-2.77270e-01,-1.08019e-02,-2.60951e-02,1.93013e+00,-7.55358e-01,4.23831e-01,-5.21493e-01,-2.09526e+00,2.02529e+00,6.49247e-01,1.97400e-02,-1.20744e+00,-3.35420e+00,9.38437e-01,1.15211e+00,1.52913e+00,3.78949e-02,-3.38079e-01,-5.64911e+00,-6.72588e-02,-4.95101e-02,3.60960e-02,-2.93531e-01,-3.73881e-02,-5.72327e-01,3.40210e-01,1.15133e+00,
-5.50436e-01,8.10559e-01,1.51074e+00,-3.02634e-01,1.42013e+00,2.59007e-01,2.49149e+00,-2.36664e-03,-2.29580e-02,-2.24722e+00,5.94422e-01,6.13652e-01,-1.54183e-02,-1.09436e+00,-2.03400e-01,-3.00438e-01,2.69406e-01,-2.49067e-01,2.11579e+00,1.20322e-01,-8.17737e-02,2.81767e+00,3.97403e-02,8.53073e-01,-2.48023e-02,7.32243e-02,-1.54062e-01,1.69128e-01,7.22702e-02,1.06252e-01,-5.67497e-01,2.88381e+00,5.23660e-01,-4.19045e-01,-2.28279e-01,-5.81054e-01,2.24647e-01,8.48838e-02,-5.00951e-01,1.49824e-02,-3.71542e-01,-5.63316e-01,-8.07972e-02,2.03275e-02,6.55122e-02,-9.58982e-01,-4.62881e-02,-7.34335e-01,8.34335e-01,-1.89627e+00,
2.49547e-01,-4.75791e-01,3.87485e-02,8.93535e-02,2.17093e-01,1.21212e-02,2.67987e+00,-3.28179e-02,-3.13911e-02,-2.77783e-01,-1.11634e+00,2.08817e-02,-1.15897e-01,5.42615e-02,1.36971e-01,2.21785e-01,7.92622e-02,-1.44007e+00,-2.38796e-01,-1.23262e+00,1.42708e-01,1.96878e+00,-1.19766e-01,5.56974e-01,3.92324e-04,1.13680e-02,-1.26266e+00,-5.06991e-02,8.24795e-02,-6.42972e-02,5.74338e-01,-9.89462e-01,1.16330e+00,1.79771e-01,1.07054e+00,1.03834e+00,7.50403e-01,1.00899e-01,1.59182e+00,1.29698e-02,-1.62221e-02,2.06159e-01,1.04259e+00,-2.61680e-02,3.21076e-01,-1.18317e+00,3.43291e-02,4.53088e-01,3.97575e-01,-3.20747e+00,
4.60990e+00,-3.49168e+00,7.62426e-01,-5.32195e-02,5.09020e-01,-1.36815e+00,1.42714e+00,-1.81366e-02,-2.13275e-02,1.53267e+00,-3.08695e+00,1.03800e+00,-3.63154e-01,1.02214e+00,-1.12657e+00,-1.99546e-02,1.89542e-01,-6.41392e+00,-3.69869e-01,-1.91785e+00,-1.27446e-01,-6.38023e-01,-3.57280e-01,-2.35325e+00,-4.48100e-02,-1.60671e-02,-6.09633e-01,1.52481e-01,-4.64134e-01,-6.93251e-01,3.07380e-01,2.14162e+00,4.11069e-01,4.08152e-01,5.12650e-01,-2.92491e+00,5.35238e-01,-3.31635e-01,-1.19778e+00,-1.67437e-02,1.25554e+00,7.79652e-01,9.04558e-01,-3.09458e-02,5.68295e-01,2.45064e-01,8.38201e-03,4.81608e-01,5.37911e-01,-8.98217e-01,
2.23837e+00,6.55970e+00,5.67531e+00,3.84403e+00,-1.64110e-01,1.92737e+00,-2.75862e+00,-3.24700e-02,-1.73277e-02,3.97620e+00,2.18138e+00,4.72430e+00,5.80485e+00,3.16868e+00,5.08448e-01,2.75901e+00,3.37237e+00,-5.39299e-01,-6.03277e-01,5.07857e+00,3.02200e+00,9.15109e-01,5.53757e+00,-7.48793e-01,1.86137e-02,-3.78481e-02,1.71128e+00,3.56569e+00,3.47232e+00,2.63693e+00,2.58325e+00,3.10340e+00,3.05534e+00,2.37429e+00,4.15583e+00,8.79519e-01,2.69287e+00,9.30217e-01,4.05941e+00,8.42294e-03,-6.67203e-01,2.23697e+00,1.30186e+00,-5.57735e-03,3.70375e+00,2.13607e+00,4.45847e-02,2.13200e+00,-1.85872e+00,1.10232e+00,
-2.24917e+00,1.01095e+00,2.57600e-01,-4.37879e-01,3.32817e-01,5.55603e-01,1.73818e+00,3.25101e-02,-2.61004e-02,2.25095e+00,-5.23357e-01,-7.72096e-01,8.67951e-03,1.10040e+00,-1.35831e+00,2.50669e-01,1.01903e+00,-2.98427e+00,-2.85773e+00,1.73514e+00,-2.18979e+00,-1.55368e+00,1.26984e+00,1.26332e+00,8.14219e-03,1.78350e-02,-4.04860e-01,-1.92289e-01,-1.60692e-01,-4.00245e-02,1.36166e+00,-7.21052e-01,-6.33790e-01,-1.16223e+00,5.37845e-01,-6.80923e-01,-1.39954e+00,-5.82798e-01,1.66178e+00,-1.56126e-02,1.91384e-01,-1.06828e+00,-2.30584e+00,-3.60418e-03,1.32952e+00,-2.58822e+00,2.40445e-02,-1.00236e+00,-1.92871e+00,8.97325e-01,
-1.90645e+00,-3.33952e-01,-1.29209e+00,-6.01016e-01,-3.05619e+00,3.44415e-01,1.27931e+00,9.01067e-03,5.92346e-03,1.75035e+00,-3.34641e-01,-5.17150e-01,-9.62631e-02,-7.31283e-02,7.50015e-01,-1.23681e+00,1.79147e-02,7.62702e-01,-4.42757e+00,4.49990e-01,-3.88437e-01,7.17846e-01,5.45548e-01,-8.13168e-01,4.62986e-02,2.94788e-02,3.23258e-01,-5.47283e-01,2.19315e-01,-2.86530e-01,1.15189e+00,-1.39801e-01,1.19025e+00,4.89477e-01,1.24270e-01,2.39459e+00,3.29372e-01,-3.19811e-02,-9.58426e-01,-1.94130e-03,-1.97286e-02,8.82227e-01,1.06019e+00,-9.65600e-04,6.04017e-02,9.41064e-01,-1.95971e-02,4.73155e-01,-7.05467e+00,5.73567e-01,
-4.73702e-01,1.36788e+00,-5.94505e-01,1.07796e+00,-3.80965e-01,5.36168e-01,-2.80619e+00,2.13326e-02,3.60240e-02,1.55248e+00,-4.32449e-01,-1.63069e-01,1.41632e-01,-2.69033e-02,-7.25872e-01,9.81150e-01,5.28266e-02,-8.01138e-01,3.66049e-01,-3.38281e-01,-1.70311e+00,-5.45935e+00,5.19055e-01,-2.04327e+00,-1.87417e-02,-1.60498e-03,-2.77179e+00,1.01543e+00,-4.67580e-01,4.43005e-01,-1.07912e+00,-1.73939e+00,2.10725e+00,-1.77115e-02,-6.64495e-01,-1.30195e+00,1.82829e-02,6.80358e-04,1.05137e+00,2.12761e-02,2.47002e-01,1.14124e+00,-1.46728e+00,2.36743e-02,-2.94376e-01,-1.11930e+00,-6.27694e-03,-5.61533e-01,-9.73640e-01,2.88437e+00,
7.86373e-02,7.20955e-02,-1.17573e-01,6.21177e-02,-3.93464e+00,-3.05510e-02,1.81376e+00,-3.10531e-02,-3.20380e-03,2.57849e+00,8.25063e-01,-4.12167e-01,-3.21903e-01,-2.31824e-01,-1.28947e+00,3.45507e-01,-5.92770e-03,6.58444e-01,-1.08002e+00,4.68341e-01,3.81839e-02,7.87190e-01,9.13247e-01,1.61837e+00,3.34590e-03,-4.97857e-02,-4.11039e-01,3.85369e-01,-1.33325e-01,-2.08105e-01,-3.30209e-02,-5.61812e-01,6.54638e-01,-1.75719e-01,6.00379e-01,1.53098e+00,1.02162e+00,-5.39262e-01,1.27406e+00,-7.06085e-03,2.04962e-01,6.12825e-01,5.83956e-01,-3.38767e-02,-4.81376e-01,5.85229e-01,2.03490e-02,-2.35412e-01,-3.42550e-01,3.01882e-02,
-2.92314e-01,1.23135e+00,5.31468e-01,-2.26473e-01,5.46177e-01,2.11074e+00,4.11896e+00,2.65977e-02,1.37263e-02,2.35232e+00,-9.74501e-01,7.38908e-01,-2.78931e-01,-1.96046e-01,1.72338e+00,-1.83281e+00,6.78202e-01,-1.51804e+00,2.11767e+00,-3.70671e-01,1.44262e+00,-2.90696e+00,-5.70641e-02,-1.01898e+00,4.45725e-03,4.14687e-02,-1.97961e-01,-3.53901e+00,-1.57496e+00,-8.34999e-01,6.57363e-01,7.28142e-01,3.85372e-01,1.26176e-01,1.56913e+00,-2.14085e+00,3.18586e+00,-1.74744e-01,1.16383e+00,-7.25173e-03,7.16899e-01,2.22746e-01,4.76830e-01,-3.19535e-02,-1.09587e-01,4.65996e-01,3.93542e-02,-7.80251e-02,9.24702e-01,7.80488e-01,
-2.05321e-01,6.86445e-01,-2.33350e-01,5.39298e-02,4.66875e-01,3.26272e-01,1.67699e+00,1.71705e-02,-4.19713e-02,-7.73142e-01,3.75224e-01,8.19106e-01,-3.34946e-01,-7.58486e-02,6.96503e-01,-3.14553e-01,-3.12022e-01,7.50282e-01,1.30577e+00,4.17955e-02,7.06322e-01,4.31809e-01,9.61611e-01,-7.88924e-01,-6.57300e-03,-4.16433e-02,2.52817e-01,-1.28105e+00,-1.56396e-01,-2.83347e-01,4.12854e-01,1.09044e+00,-2.10558e+00,4.89536e-01,1.84208e-02,-1.38556e-02,-8.05719e-01,-6.30199e-02,8.57820e-01,-4.14740e-02,4.98462e-01,-5.78641e-02,-1.28287e+00,2.32800e-02,-3.81737e-04,2.56160e-01,3.03258e-02,-7.79937e-01,-8.05348e-01,7.50665e-01,
1.11205e+00,-3.94267e-01,-3.91781e-01,2.59164e+00,-1.21441e+00,8.49963e-01,-4.94371e+00,-2.41674e-03,-3.50562e-03,1.88208e+00,-3.86661e-01,-4.25251e-02,-8.95092e-02,6.57737e-02,-6.94857e-01,1.00637e+00,-1.81862e-01,-2.08359e+00,1.32186e+00,9.20022e-02,1.82411e+00,-1.24399e-01,-4.64553e-01,-2.51834e+00,-1.91944e-02,5.27948e-03,-7.39296e-01,-3.12905e+00,7.77809e-01,6.49121e-01,-3.39403e-01,2.56732e+00,-1.95360e+00,1.73931e-01,1.73614e+00,1.20544e+00,1.35432e+00,-2.14509e-01,-3.12223e+00,4.16952e-02,-7.71419e-02,4.60515e-01,8.45937e-01,1.76955e-03,-1.84015e+00,-4.02149e+00,4.10233e-02,-1.08824e+00,1.14876e+00,5.50756e-01,
1.14126e+00,7.36769e-01,-2.17853e-02,4.37549e-01,-1.18458e-01,9.33432e-01,-2.38945e-01,-4.92271e-02,-2.63188e-02,-4.86686e+00,-2.31710e+00,7.65179e-01,-1.37757e+00,5.16033e-01,-2.94115e-01,-3.70085e-01,8.11895e-03,-1.37684e+00,-2.52268e+00,1.59727e+00,1.39515e+00,2.87509e+00,-1.68000e+00,5.65137e-01,-3.87217e-02,-2.36670e-02,1.85957e+00,-6.47534e-01,-1.44080e+00,-3.74235e-02,-4.75767e-02,4.39931e+00,-1.20111e+00,5.45140e-01,7.79153e-01,5.74536e+00,8.78677e-01,-4.92813e-01,3.93118e+00,-4.52174e-02,8.48576e-01,1.15369e+00,1.72457e+00,3.01015e-02,3.07856e-01,-1.30709e-01,1.48995e-03,7.62496e-02,1.43526e-01,1.08473e+00,
2.58479e-01,9.18639e-01,-2.66790e-01,-1.07483e+00,5.19063e-01,-2.93692e-01,7.58449e-01,-2.36906e-02,3.40192e-02,-1.27046e+00,1.39656e+00,-8.15068e-01,1.37893e-01,1.58764e-01,-1.38107e-02,5.95032e-01,-2.61010e-01,1.70168e-01,-4.40601e+00,-3.99456e+00,-3.59728e-01,2.09893e+00,-1.37492e+00,6.34155e-01,2.11994e-02,-2.11635e-02,7.38652e-01,-4.17600e-01,1.39723e-01,-1.06735e-01,-8.86332e-01,-1.05339e+00,6.40393e-01,4.38203e-01,-2.51361e-01,2.05043e+00,1.11384e-01,-2.05729e-01,6.59332e-02,-2.44313e-02,-1.78143e+00,2.28091e+00,-4.55104e-02,-8.75160e-03,6.03906e-01,-3.35992e-01,4.73804e-03,-1.71602e-01,2.03831e+00,1.74077e+00,
-2.10111e-04,-5.23694e-01,-3.47064e+00,-5.42456e-01,-4.79542e-01,5.50205e-01,3.07189e+00,2.89164e-02,2.85825e-02,2.37178e+00,1.78497e+00,-8.81955e-01,5.00950e-02,6.52744e-01,-1.64365e-01,7.40451e-01,-8.40898e-01,9.02563e-02,-4.57064e+00,1.79601e-01,-5.57147e-01,2.78460e+00,1.20280e+00,-1.42639e-01,-2.61516e-03,2.01283e-02,-4.43990e+00,1.75198e-02,2.40073e-01,-7.57217e-01,7.88257e-02,5.81571e-01,-2.98759e+00,-8.39208e-01,-3.79630e+00,5.36051e-01,2.04827e+00,-1.57858e-01,-9.82581e-03,4.07781e-02,1.22152e-01,-5.09490e-01,2.39884e-01,3.80700e-02,-9.72283e-01,9.85896e-01,-1.80905e-02,5.43010e-01,8.71303e-01,-2.86176e+00,
8.85470e-01,3.99952e+00,1.27306e+00,1.14225e+00,-2.29384e+00,6.39256e-01,6.44363e+00,-3.38696e-02,-3.35488e-02,4.37406e-01,-4.54683e+00,-1.10059e+00,-2.16462e+00,1.71503e+00,1.74379e+00,1.53775e-02,5.29191e-01,1.81319e+00,2.03070e+00,1.18819e-01,3.45450e-01,1.12752e+00,8.77473e-01,8.60448e-01,2.38327e-02,2.69162e-02,-8.67745e-01,1.50338e+00,1.61293e-02,-3.57053e-02,1.50877e+00,3.05961e+00,-2.30677e-01,-8.11612e-01,-1.27264e+00,4.78176e+00,6.83154e-01,-1.61467e+00,1.91381e+00,-8.75377e-04,1.22197e+00,-3.77842e-01,-2.39632e+00,1.22191e-03,-3.75135e-01,2.30683e+00,3.61333e-02,1.22175e+00,1.23669e+00,2.63776e+00,
7.37966e-01,1.33022e-02,2.01877e+00,1.16364e-01,-2.72898e-01,8.51460e-02,2.39512e-01,4.66412e-02,-4.16741e-02,-6.17251e-01,6.90948e-01,-1.70442e+00,-3.00380e-01,-7.82087e-01,2.17521e-01,9.86466e-01,-6.87197e-01,4.54639e-01,8.34225e-01,-5.48572e-01,8.34052e-01,1.38957e+00,-5.49539e-01,2.61403e-01,2.96746e-02,-1.19555e-02,9.05558e-01,-1.98130e-01,-8.88121e-02,3.26256e-01,5.46554e-02,1.55431e+00,-3.27069e+00,5.48410e-01,1.21320e+00,2.94197e+00,-1.22066e+00,3.73729e-02,1.95573e+00,3.15783e-02,-4.63795e-01,4.46050e-01,9.95568e-01,3.87742e-02,-1.54050e-01,-2.84790e+00,-1.68684e-02,-5.12562e-01,-3.43189e-01,1.43844e+00,
-2.53752e-01,-6.79502e-01,-4.22308e-01,-1.07121e+01,1.50059e+00,-1.49345e-01,-2.23387e+00,-1.45751e-02,1.19686e-02,7.90967e-01,-8.21538e-01,-3.54229e-01,-1.31202e-02,-3.58115e-01,1.21988e+00,4.67344e-01,-3.99679e-02,2.19134e+00,-2.64857e+00,-4.30738e+00,-2.93472e+00,-3.49230e+00,4.00491e-01,-3.20468e-01,3.50317e-03,-1.03646e-02,-8.26559e-01,1.77473e-01,5.92005e-01,1.64817e-01,1.78069e+00,1.48149e+00,1.15952e+00,-4.47613e-01,1.54973e-01,-2.38151e+00,1.18731e+00,1.29641e-01,-2.24223e+00,1.39399e-02,-3.27162e+00,1.30897e-01,1.36716e+00,-1.47631e-02,-4.55532e-01,1.18100e+00,1.48499e-02,6.44932e-02,1.49134e-01,1.69483e+00,
-5.07325e-02,-3.54034e-02,4.14703e-02,-1.79005e-02,1.17841e-02,-2.08541e-02,3.60512e-02,3.17308e-02,-7.68551e-03,-2.27322e-02,-4.68630e-02,-1.50891e-02,-5.28772e-02,-5.09332e-02,-4.50608e-02,2.46658e-02,1.12933e-02,-3.99592e-03,1.97861e-02,3.47671e-02,1.75848e-02,-1.53813e-02,1.18395e-02,-4.55579e-02,4.25389e-02,-2.27486e-02,2.88499e-02,2.22373e-02,-5.92894e-03,-2.18596e-02,-1.37000e-02,3.05235e-03,-1.01221e-02,2.59210e-02,2.75588e-02,2.11229e-02,-1.51088e-02,-4.93410e-03,-4.67030e-02,3.96977e-02,-4.90331e-02,-1.03139e-02,1.23710e-02,-3.74611e-02,2.42404e-02,2.09241e-02,-5.24550e-02,-2.44142e-02,-3.47289e-02,4.16589e-02,
-1.78067e+00,
-1.37106e+00,
-2.34382e+00,
5.05243e-01,
-3.99294e+00,
3.93953e+00,
-1.67684e+00,
-2.18335e-02,
1.20096e+00,
4.15585e-01,
3.70686e+00,
-1.44794e+00,
1.14756e+00,
-1.58154e+00,
1.36399e+00,
7.86737e-01,
-3.29526e+00,
-1.74672e-02,
2.80473e-01,
-2.61798e+00,
4.35119e-01,
9.22158e-01,
-1.28480e+00,
1.55584e+00,
3.29283e+00,
-6.15459e-01,
1.08513e+00,
-2.29015e-01,
