// The contents of this file are licensed under the Creative Commons
// Attribution 4.0 International License: https://creativecommons.org/licenses/by/4.0/
// Neural Network File Format by Kyle Julian, Stanford 2016
7,5,5,50,
5,50,50,50,50,50,50,5,
0,
0.0,-3.141593,-3.141593,100.0,0.0,
60760.0,3.141593,3.141593,1200.0,1200.0,
1.9791091e+04,0.0,0.0,650.0,600.0,7.5188840201005975,
60261.0,6.28318530718,6.28318530718,1100.0,1200.0,373.94992,
8.40894e-01,-2.85268e-02,4.08581e-02,-3.00944e-01,-5.67237e-01,
-5.32651e-01,6.48152e-03,7.78808e-03,-1.54037e-01,1.05616e-01,
-2.89033e-02,7.02812e-03,3.23454e-03,-4.82995e-04,1.85547e-03,
1.58102e-01,8.10524e-01,-6.77775e-02,3.35769e-02,-5.67938e-02,
-3.01389e-02,-4.28714e-01,4.06677e-01,-4.27956e-03,-1.80918e-01,
-1.90172e-01,-7.73171e-03,1.70847e-03,1.96668e-01,1.93922e-01,
1.10925e-01,-1.19050e-01,-3.12655e-01,2.36553e-01,1.19626e-01,
3.61131e-02,3.07208e-01,4.08198e-01,-1.60427e-01,-4.39205e-02,
5.54269e-01,2.02873e-01,1.92203e-01,2.28589e-01,1.58361e-01,
-7.33649e-02,1.86347e-01,-1.34595e-01,2.37718e-01,-3.36064e-01,
-6.99940e-01,-4.18811e-02,-4.69100e-02,1.22553e-01,2.45293e-01,
-7.17877e-01,1.83390e-02,-5.65185e-03,2.30572e-02,-3.34382e-01,
9.40336e-04,-6.06178e-03,-1.02730e-03,1.03502e-03,1.37943e-02,
6.36873e-02,-8.52641e-01,-5.27007e-02,2.29844e-01,-2.46025e-01,
-3.99347e-01,2.68446e-01,2.61157e-02,1.17431e-01,1.11249e-01,
-2.70186e-02,-6.28441e-01,8.50920e-01,1.11354e-01,-2.83554e-01,
3.97872e-01,3.69656e-02,-2.98722e-02,1.00223e-01,-6.89239e-01,
-1.56551e-01,-4.80330e-02,-5.81511e-03,4.59280e-01,-3.61357e-01,
1.43792e-02,-4.33366e-02,-1.72300e-02,-5.82334e-01,-4.57718e-01,
-1.07725e+00,9.34480e-03,-2.78965e-03,1.52406e-02,2.85033e-03,
-3.68687e-02,1.72046e-01,9.31752e-02,-4.23765e-01,-4.93802e-01,
-1.32260e-01,-9.60557e-03,1.60069e-01,-3.86669e-01,4.63179e-01,
9.20622e-04,1.43213e-02,9.88242e-03,2.72810e-01,-2.04630e-01,
3.21029e-02,7.25829e-01,-3.18453e-01,2.26246e-01,-1.68149e-01,
6.65777e-01,5.67571e-02,8.03373e-02,-5.60859e-02,-1.01151e-01,
-1.87577e-02,1.48850e-01,-6.26569e-01,1.37176e-01,-2.89726e-01,
1.27011e-01,1.44818e+00,-4.16684e-02,2.10088e-02,-1.01178e-01,
2.71855e-02,8.18542e-01,-9.05424e-01,9.29532e-02,1.03022e-01,
3.26604e-02,7.28594e-01,-7.40161e-01,4.13413e-02,9.55012e-02,
3.64546e-01,-9.98042e-04,4.09634e-03,3.49192e-01,-2.20484e-01,
3.59600e-01,-3.11559e-02,-8.41839e-02,1.14925e-01,-1.88629e-01,
6.07897e-01,2.15222e-03,1.03931e-03,6.92606e-02,-4.71573e-03,
2.32127e-03,-8.17434e-01,8.31366e-01,1.73234e-02,1.22020e-01,
5.68452e-02,-3.17741e-01,-3.91407e-01,-1.69100e-01,1.65663e-01,
2.22433e-03,7.57100e-04,2.02886e-03,1.87949e-01,2.63382e-04,
2.19694e-02,-6.24330e-01,6.25713e-01,1.35543e-01,1.44540e-01,
-1.42310e-01,7.16455e-02,1.37793e-01,2.54823e-01,5.50259e-02,
6.88393e-01,2.19402e-03,-2.72566e-04,2.14667e-02,8.80397e-03,
5.57383e-02,4.65574e-03,-1.06902e-03,9.00817e-03,-8.62107e-01,
-5.66163e-02,-6.75157e-02,-1.41684e-01,-7.32515e-01,-1.67412e-01,
7.44879e-02,-8.76676e-01,8.31231e-01,1.12904e-01,3.06133e-02,
-8.30337e-03,3.04004e-01,2.76877e-01,-1.60580e-01,1.40838e-01,
-4.86176e-03,-7.55977e-03,1.04729e-02,3.79836e-03,4.47246e-03,
-1.21763e-01,8.55558e-01,9.99222e-01,4.74358e-01,-1.13848e-02,
-5.07097e-02,-6.95036e-02,1.81924e-01,1.45477e-01,-2.17801e-01,
2.21036e-01,4.78400e-02,2.17304e-01,4.74807e-01,-6.78520e-01,
-7.93836e-02,-3.62160e-02,1.53153e+00,2.97833e-02,-2.94009e-03,
-1.35985e-01,-2.61896e-02,-1.43573e+00,-1.11365e-01,1.99979e-01,
1.38328e-02,-1.23982e+00,1.69680e-02,1.54190e-03,5.78849e-04,
-9.64068e-01,4.48371e-02,3.65949e-02,3.51554e-02,-3.21845e-02,
2.71393e-02,
-5.79071e-02,
-1.78582e-02,
9.06859e-02,
-8.16655e-03,
1.03588e-01,
-2.21096e-02,
3.56573e-02,
-9.43082e-02,
1.40443e-02,
1.27148e-02,
-3.05819e-01,
-1.49865e-02,
1.05222e-02,
-2.32075e-02,
-1.79591e-01,
-1.02724e-01,
1.37847e-01,
-3.97034e-01,
-1.53956e-01,
-4.07327e-01,
4.17696e-03,
2.14530e-02,
-1.11223e-01,
2.56584e-02,
1.02262e-01,
3.71568e-02,
-2.39761e-01,
-2.78136e-01,
1.81376e-01,
5.07431e-02,
2.31702e-01,
-3.23989e-01,
3.49969e-02,
9.15077e-02,
-1.09220e-01,
-2.57337e-02,
2.39476e-01,
-3.08112e-01,
-2.80652e-01,
-2.60210e-01,
2.47523e-02,
-1.49422e-02,
-1.34983e-01,
1.96171e-02,
1.07494e-01,
3.61257e-02,
1.82700e-02,
-5.06965e-03,
-2.22165e-01,
-2.07499e-01,-4.40119e-01,2.87580e-02,-2.29274e-02,-4.72219e-01,-2.72114e-01,-3.24253e-01,1.84883e-01,1.13217e-01,-4.71859e-01,3.22360e-01,-1.45309e-01,4.08185e-02,-1.00410e+00,7.82917e-02,-4.79839e-01,-6.29267e-01,-2.04125e-01,-6.15216e-01,-1.55628e-01,-6.02754e-01,5.09751e-01,2.07820e+00,2.48009e-01,2.12110e-01,-2.96611e-01,-6.79943e-02,-2.48182e-01,7.89789e-01,4.96568e-02,2.34790e-01,1.51541e-01,-1.86477e+00,-2.75316e-01,-6.21657e-01,-8.85417e-01,1.00326e-01,3.15957e-01,-4.53657e-01,5.79880e-01,-1.41739e+00,5.32684e-02,-1.54434e-02,-5.17967e-01,-4.26534e-01,-1.37321e-01,1.20705e-02,9.55173e-02,-4.03638e-02,-3.48667e-02,
-2.76487e-01,8.11228e-02,4.90329e-02,2.20381e-02,1.27381e-01,-1.73718e-01,2.15721e-01,6.83361e-02,5.16872e-02,-1.90103e-01,1.97724e-01,-3.58921e-01,-3.35461e-02,5.10430e-01,-6.12468e-02,6.98897e-02,-1.84756e-01,-1.76861e-01,5.01654e-01,-1.76315e-01,-1.77755e-01,-6.67951e-01,1.04785e-01,2.03920e-01,1.83802e-01,2.03608e-01,1.44325e-01,1.15432e-01,-2.51831e-01,-2.14405e-01,-7.81398e-01,3.44799e-01,-4.66637e-01,-9.07994e-02,1.24720e-01,-3.71931e-01,1.16975e-01,4.92301e-01,-5.55676e-01,-2.31415e-01,-2.83867e-01,5.06885e-03,5.47152e-02,-3.10988e-02,1.95351e-01,-8.36142e-02,5.67756e-02,-3.83764e-01,1.34879e-01,2.50775e-01,
-2.08075e-01,1.76063e-01,-5.42639e-02,-1.16194e-01,-1.54161e-01,-4.28295e-01,-1.27181e-01,-1.75070e-01,1.11158e-01,1.15678e-01,8.59381e-02,4.03149e-03,-3.72820e-03,-1.75713e-01,9.86449e-02,-1.60991e-01,-1.02580e-01,-3.27094e-02,5.08900e-01,-4.65238e-01,2.83861e-01,-1.69327e-01,6.11011e-01,-1.40407e-01,-3.32011e-01,5.70201e-01,2.70263e-02,7.02535e-02,5.24911e-01,-3.73570e-01,9.29442e-02,-9.77252e-02,1.80145e-03,3.17537e-01,2.86956e-01,-3.94617e-01,-2.60598e-01,2.55433e-01,1.93207e-02,-3.90127e-01,5.37691e-01,-2.17447e-01,-3.61272e-02,5.99515e-01,2.12046e-01,-1.17248e-02,1.39937e-01,-2.77601e-01,1.14281e-01,-3.18697e-01,
-1.34389e-01,1.98995e-01,-2.44837e-02,3.04966e-01,2.42174e-02,6.03970e-01,9.62513e-01,-2.10420e-01,4.30224e-01,1.64478e-01,3.60132e-02,1.96261e-01,-2.19415e-02,-4.66115e-02,4.17315e-01,-4.65523e-01,4.10774e-02,1.11366e-01,1.59240e-02,-1.86115e-01,-9.19877e-01,-5.90924e-01,1.84041e-01,2.04393e-01,-2.45259e-01,-1.59700e-01,-1.87214e-01,9.31728e-02,-4.67116e-01,3.73415e-01,-3.23855e-01,1.50295e-02,-7.63669e-02,7.88826e-02,4.60317e-01,3.23972e-01,3.71274e-02,-3.51248e-02,6.31277e-01,-1.34052e-01,3.82720e-01,6.17423e-01,-2.59542e-02,-4.85182e-03,1.53230e-01,2.17323e-01,9.16359e-02,-6.83591e-02,5.15659e-02,-4.86012e-01,
3.09438e-02,4.41277e-01,1.65794e-02,4.03719e-02,1.92028e-01,-2.22455e-01,-1.25823e+00,-2.17987e-02,-3.98067e-01,-2.88556e-02,-1.58843e-01,-3.47821e+00,2.25188e-02,2.77607e-01,-8.22776e-02,1.60866e-02,3.32228e-01,1.76575e-01,-5.64425e-01,-6.24284e-01,-8.41220e-01,-2.02979e-01,1.37342e-01,2.60942e-01,-1.89563e-01,9.99253e-02,3.59923e-01,1.38813e+00,1.50308e+00,4.98677e-01,4.08703e-01,3.82871e-02,1.77712e+00,-1.34928e-01,-1.13188e-01,5.74799e-02,-6.84193e-02,-9.77847e-03,-1.21028e+00,1.79996e-01,1.13799e+00,-1.21231e-01,-2.31221e-03,-7.27000e-01,-1.65840e-01,1.99044e-01,3.61632e-01,9.78160e-02,1.84752e-01,-9.03738e-01,
-1.37058e-01,2.59543e-01,-3.73838e-02,-1.09177e-01,-2.49113e-01,1.14663e-01,9.19497e-02,1.92533e-01,-1.62823e-01,2.55886e-01,5.53057e-01,-2.63297e-02,1.62023e-02,2.33874e-01,1.81147e-01,-1.95419e-01,-1.58746e-01,1.33564e-01,-7.57006e-01,1.27567e-01,1.63694e-01,-2.81473e-01,-5.59847e-01,7.67189e-03,-2.10663e-01,-1.44112e-02,-9.79951e-02,1.07812e-01,2.46006e-01,-3.89856e-02,5.07451e-02,2.16893e-01,1.42639e-02,-2.37052e-01,4.82558e-01,-3.12428e-02,-1.64451e-01,2.27285e-01,5.44392e-02,-1.55012e-01,-2.17553e-01,-7.60025e-02,5.10351e-02,1.62223e-01,-2.46084e-01,1.24912e-01,8.84303e-02,3.33420e-02,1.42795e-01,-6.79335e-02,
-6.17586e-01,3.10839e-02,-4.34966e-02,6.69910e-01,8.73183e-01,-9.04726e-02,3.23754e-01,-3.09790e-01,5.75406e-01,2.02262e-01,3.15513e-01,3.69103e-02,-9.16779e-03,8.89005e-02,6.31615e-01,1.01017e-01,3.91242e-01,-9.07076e-02,-4.07267e-01,3.35124e-01,-4.29254e-01,-3.89489e-01,-2.38146e-01,-7.10365e-01,2.39817e-01,3.23691e-01,2.49830e-01,9.57984e-02,2.20379e-01,-5.81159e-02,-3.75820e-01,-3.41274e-02,1.02400e+00,1.41549e-01,-1.04932e-01,2.55683e-01,-2.67592e-01,-7.80064e-02,-2.26846e+00,4.11470e-02,7.97976e-01,-2.96996e-01,-8.15524e-03,5.07261e-01,6.24433e-01,-3.73279e-01,8.02113e-01,6.24162e-01,1.01078e-02,-3.98025e-01,
3.94098e-01,-2.29108e-01,2.64042e-02,2.38085e-01,2.37244e-01,-2.39153e-01,8.45584e-01,-1.03280e-01,-1.25637e-01,1.15769e-01,-8.07852e-01,4.42763e-01,-4.32124e-02,4.90878e-01,3.09548e-01,-3.61558e-01,2.29919e-01,3.72498e-01,1.44738e+00,3.63510e-01,-3.95626e-01,2.26707e-01,-2.23736e+00,-4.33438e-01,2.03127e-01,6.21217e-01,-9.82638e-02,1.77071e-01,-1.30329e-01,-5.78352e-01,4.31274e-02,-2.56561e-03,9.87320e-03,-2.13284e-01,-4.26878e-01,-1.98992e-01,-1.72450e-01,7.35900e-02,4.91403e-01,1.90629e-01,5.09350e-02,2.77551e-01,-2.15088e-02,2.08844e-01,3.09090e-01,-2.34502e-02,1.96830e-01,-7.77388e-02,1.78418e-01,-3.06814e-01,
-8.08833e-02,-1.09023e-01,-1.11417e-02,7.35127e-02,3.98467e-02,-2.32046e-01,-1.00086e+00,-7.42525e-02,-2.32185e-02,-1.48767e-01,1.79136e-01,3.19262e-01,3.55848e-02,-1.47473e-01,-2.20228e-01,-1.87638e-01,3.36196e-02,-4.60116e-01,-6.79760e-01,3.03923e-02,-2.16601e-01,2.08176e-01,-2.95702e-01,-3.05344e-01,-3.59659e-01,-1.11867e-01,-1.02885e-01,-3.68113e-01,-1.48229e-01,-4.80682e-01,1.98256e-01,1.36231e-01,-2.50915e-01,2.21851e-02,-5.43707e-01,-8.37442e-01,3.17048e-01,1.98634e-01,5.28259e-01,2.88070e-01,1.45785e-01,-9.95484e-02,-4.24995e-02,7.94728e-02,-1.72110e-01,3.51831e-02,-1.19178e-02,-1.23844e-01,-3.21772e-01,-5.53352e-01,
-3.59885e-02,-2.21562e-01,9.88076e-03,9.80579e-02,-1.59982e-02,-9.22206e-02,-7.30370e-02,-1.20386e-01,1.51148e-02,3.89953e-01,6.98031e-02,5.82124e-01,-1.49839e-02,2.44875e-01,-2.35516e-01,4.79166e-01,1.56061e-01,4.88690e-01,2.97999e-01,-2.64582e-02,-7.90679e-01,-4.89069e-01,-2.66245e-02,5.07322e-01,1.53619e-01,4.87686e-01,2.46654e-01,1.74827e+00,2.07856e+00,1.11318e-01,2.24711e-02,-1.30937e-01,1.72975e+00,-3.24921e-01,2.13747e-01,4.00680e-01,-1.32860e-01,-2.51968e-01,2.88138e-01,-3.84797e-01,1.28862e+00,-1.93252e-01,3.14989e-02,-3.86013e-01,1.94421e-01,1.10021e-01,2.24059e-01,-1.33398e-01,2.89747e-01,6.96336e-02,
-1.00127e-02,-2.00584e-02,3.74124e-02,1.42069e-03,-1.41261e-03,-8.14931e-03,2.18538e-02,-2.75551e-03,1.51789e-02,2.06079e-02,-1.85658e-02,-1.44829e-02,-5.45965e-02,-2.42985e-02,-5.77363e-02,2.06250e-02,-1.69686e-02,-4.90994e-02,-5.23363e-02,1.75027e-02,6.68399e-03,2.58453e-02,-1.43675e-02,-4.67473e-02,-5.72687e-02,-1.79089e-02,3.26316e-02,2.81578e-02,-2.46212e-02,-5.27407e-02,-9.36334e-03,-6.00987e-02,-5.49634e-05,1.30765e-02,-4.40414e-02,-3.28134e-02,9.30023e-03,-1.32019e-02,-3.46528e-02,-2.12300e-02,-8.12502e-03,1.10967e-03,3.55025e-02,-4.44662e-02,-3.49391e-02,1.55221e-02,2.26646e-02,-9.72878e-03,-5.47616e-02,2.65496e-02,
1.03880e-01,6.14357e-01,-4.20529e-02,7.76263e-02,1.58280e+00,3.98814e-01,4.25765e-01,-2.06875e-01,1.09011e-01,-9.91587e-02,-2.41007e-01,-5.05645e-02,-2.34786e-02,-2.18578e-01,1.97638e-01,1.61740e+00,6.98823e-02,-6.40380e-02,-1.34493e-01,3.79200e-01,-8.35411e-01,-4.31107e-01,-1.58653e-01,-4.00294e-02,-6.74789e-02,8.04240e-01,4.56373e-02,1.22260e-01,-6.08840e-01,2.62901e-01,-4.70618e-02,2.00279e-02,1.26324e+00,-3.40750e-01,7.87421e-01,-2.08434e-01,1.36419e-01,-4.92009e-02,4.09079e-02,2.47859e-01,1.31074e+00,-3.15645e-02,2.05686e-02,-2.04185e-01,5.08661e-02,-1.85840e-01,-1.37884e+00,1.02679e+00,-2.42170e+00,2.19031e-01,
-1.50948e-01,1.28866e-01,-4.46339e-02,1.36748e-01,-3.50899e+00,8.60249e-01,-7.68070e-02,5.04179e-01,-1.07510e-01,2.58261e-01,-2.52397e-01,5.81361e-01,-5.46704e-02,3.35108e-03,-1.01774e+00,-2.08361e-01,1.26282e+00,2.64316e-01,-1.62971e-01,-4.20800e-01,-5.87231e-01,1.34009e-01,-4.63236e-01,-1.09133e-01,-3.02670e-01,-1.31559e-01,-2.62906e-01,-9.84001e-01,-4.73611e-02,6.56542e-01,1.81631e-01,6.56942e-01,-1.37275e+00,3.11691e-01,8.60012e-01,-3.62662e+00,1.28410e-01,6.31623e-01,-2.17885e+00,3.37974e-01,-8.97139e+00,2.38892e-01,-5.34227e-02,2.87248e-01,-1.65559e+00,-1.18704e+00,-3.99598e+00,-3.93574e-01,-2.85590e+00,-6.15618e-01,
7.52138e-02,-7.29334e-02,1.69006e-02,4.62743e-01,6.86730e-01,-6.24384e-01,4.81269e-01,3.46204e-01,6.96469e-01,5.09021e-01,6.43953e-02,-1.52107e+00,1.46837e-02,7.26935e-02,-2.87755e-01,7.63686e-01,-8.15043e-02,-2.62673e-01,5.93198e-01,1.30058e-01,-1.96966e-01,-4.09000e-02,1.34726e+00,7.76884e-01,3.85920e-01,3.71220e-01,5.09452e-01,1.38670e-01,-1.03417e+00,-1.03660e+00,4.25960e-01,-3.25064e-01,-9.19604e-01,6.83420e-01,-8.99262e-02,8.33508e-01,-1.74631e-01,-2.69388e-01,-2.50646e+00,2.20437e-01,-3.70536e-01,-1.25812e-01,3.20196e-03,-4.42467e-01,-3.34094e-01,-5.87405e-01,5.43432e-01,2.98988e-01,2.76888e-01,-4.59654e-01,
-4.91152e-02,-1.92741e-03,4.21646e-02,-4.84569e-02,3.86034e-02,-3.28017e-02,-1.29902e-02,4.26638e-02,-4.06761e-02,1.74973e-02,-3.29796e-02,-2.16183e-02,-4.48385e-02,4.83782e-05,-3.30173e-03,-4.21672e-02,-3.46020e-02,-8.23385e-03,1.00209e-02,-4.46996e-02,1.16453e-02,-4.30411e-02,-2.30514e-02,-2.68789e-03,-1.95858e-02,-3.42449e-02,-3.95071e-02,1.60534e-02,2.65490e-02,-3.74872e-02,-1.61205e-02,-3.99785e-02,3.39442e-02,-2.61369e-02,-2.14833e-02,-4.91196e-02,-3.60111e-02,-4.77831e-03,2.73903e-02,1.21874e-02,3.53096e-02,4.82827e-03,6.41810e-03,1.94531e-02,-2.63846e-02,-3.44785e-02,-1.20121e-02,1.05584e-02,2.93417e-02,-4.92152e-02,
-8.42461e-02,-9.59908e-04,2.95925e-02,3.46128e-01,2.34754e-01,5.33686e-01,-2.17181e-01,8.56330e-01,2.74640e-01,4.86734e-01,4.82763e-01,-1.65386e-01,2.90267e-02,5.71755e-01,-6.46744e-02,5.03477e-01,-5.37476e-01,3.53759e-03,4.93646e-01,2.48824e-01,-1.57569e-01,-2.46528e-01,-1.21552e+00,5.42529e-01,-6.52617e-01,8.94028e-02,4.17033e-01,-6.86751e-01,3.74560e-01,-1.41088e+00,5.61698e-01,7.02097e-02,8.80058e-01,3.72295e-01,8.34908e-01,1.78361e-01,-3.05859e-01,3.70323e-02,-8.13280e-01,-5.45390e-01,2.67742e-01,5.83391e-01,-2.46851e-03,6.01864e-01,5.87666e-01,-3.57641e-01,-1.06580e+00,-2.56178e-01,6.85789e-01,-3.24043e-01,
7.86287e-02,4.37197e-01,-3.08130e-02,2.23012e-01,-5.98502e-01,2.15866e-01,-5.66842e-02,-1.17237e-02,-1.49797e-01,-1.09387e-01,-1.84217e-01,-6.96735e-01,-1.84175e-02,-7.06611e-01,1.99568e-02,-7.31835e-01,2.33894e-02,-5.96846e-03,3.80413e-01,-3.24038e-01,3.13237e-01,1.54479e-01,-2.17817e-01,-5.49629e-01,-2.65886e-01,-5.18106e-01,4.43815e-02,-1.12016e+00,-1.36991e+00,9.44176e-03,-5.88252e-02,2.83644e-01,-1.73327e+00,4.82067e-01,1.78078e-01,-4.34729e-01,9.60281e-02,3.44324e-01,-5.54859e-01,2.33597e-01,-1.28011e+00,6.26712e-02,3.70015e-02,5.48090e-01,3.54896e-03,2.38906e-02,2.78542e-01,-7.04853e-01,-9.60867e-01,-4.20497e-02,
5.94086e-02,-1.93664e-01,2.89627e-02,7.36874e-02,7.86189e-02,-1.86992e-01,9.90337e-02,1.30366e-02,1.27448e-01,7.49898e-02,2.18467e-01,-3.50655e-01,-2.32872e-02,4.27047e-02,-1.96893e-02,4.19522e-02,1.37201e-01,2.55077e-02,-1.96549e-02,-1.14859e+00,-1.62606e-01,5.86266e-02,2.42202e-02,-7.31935e-03,-8.10241e-01,7.05917e-02,1.09860e-01,6.28445e-02,1.68582e-01,4.65680e-02,-6.03252e-02,5.11811e-01,1.33404e-01,-2.01937e-01,-1.53604e-01,2.24541e-02,-7.38389e-02,1.27630e+00,6.62190e-02,1.94443e-02,-2.00541e-02,-5.49590e-02,2.50502e-02,-1.22359e-01,2.03007e-01,-8.68539e-02,1.25227e-01,2.41104e-02,3.28603e-02,-1.15079e+00,
1.62854e-02,7.58979e-03,-1.07495e-02,-1.47487e-02,-1.73348e-02,-5.58942e-02,6.15381e-03,-3.54800e-02,1.79677e-02,-4.37717e-02,-3.14613e-03,-1.66271e-02,3.00565e-02,-1.67069e-02,-2.16220e-02,9.44108e-03,1.31148e-03,-4.99788e-02,-4.86846e-02,-2.06670e-02,4.09737e-02,-3.95153e-02,1.11445e-02,3.69712e-03,-3.01729e-02,-4.00130e-02,2.52153e-02,2.71682e-02,-4.50802e-02,-4.94328e-02,2.82793e-02,1.70130e-02,1.01633e-02,-1.29344e-03,-4.73179e-02,1.29403e-04,-3.54700e-02,-5.41487e-02,4.23301e-02,-4.52736e-02,3.23849e-02,-1.55591e-02,-3.41638e-02,2.12396e-02,-8.12883e-03,-1.62197e-02,6.31249e-03,1.01693e-02,-5.49673e-02,-6.31768e-03,
-7.67204e-02,5.44779e-02,1.11860e-02,-8.86816e-01,-3.27649e-02,9.02620e-02,4.12836e-02,1.66934e-02,-1.26942e+00,-1.37341e-01,1.68122e-01,7.10122e-02,-3.47003e-02,-5.50397e-02,3.01640e-01,-7.69042e-02,3.98909e-02,-9.23148e-02,7.49265e-02,1.86512e-01,4.63649e-02,1.11711e-01,-5.52787e-02,8.22408e-01,-1.35270e-01,1.25999e-01,-1.68259e-01,-1.54719e-02,-4.64252e-01,-2.15904e-01,1.48174e-02,-1.47767e-01,-1.69886e-01,-1.08431e-01,-1.89824e-02,-1.93617e-02,-1.17524e-02,-1.38083e-01,-5.62798e-03,-6.73233e-02,-1.18339e-01,-6.46253e-02,1.74698e-02,1.10819e-01,-3.78285e-02,-2.64588e-01,1.36689e-01,-4.26580e-01,1.94809e-02,1.93329e-01,
4.36654e-01,-4.37416e-01,3.97453e-02,-3.78770e-02,-1.03632e-01,-1.27539e-01,-3.26128e-01,2.89393e-01,9.45701e-02,1.42569e-01,-4.54044e-01,-1.51927e+00,2.93750e-02,1.37730e-01,1.72301e-02,-5.09248e-03,1.34979e+00,-9.29505e-02,-3.59396e-01,-3.16806e-01,6.49426e-01,-2.77147e-01,6.99442e-01,9.98566e-01,-2.74527e-01,8.71562e-02,-1.01160e-01,5.07985e-01,-1.96222e-01,-1.85602e-01,-9.54947e-03,1.65965e-02,1.14341e+00,5.06246e-01,-4.37534e-01,2.55059e-01,-4.07598e-03,-1.11347e-01,2.60846e+00,5.97564e-02,2.36256e-01,-3.21812e-03,-2.26805e-02,-1.29294e-01,3.41990e-01,1.00828e+00,-6.07404e-01,1.60988e-01,1.33888e-01,-2.35906e-01,
-1.06145e-01,5.27701e-01,-9.42250e-03,-6.24930e-01,-4.95308e-01,2.44627e-02,3.30820e-01,2.62376e-01,-3.60037e-01,4.13804e-01,-1.85202e-01,-7.21388e-01,1.35931e-02,-4.07867e-02,1.34351e+00,-9.19342e-01,1.26404e+00,-5.01541e-01,-8.38778e-02,-7.77127e-01,2.63100e-01,1.35571e-01,-1.19399e+00,-7.36002e-01,3.23991e-01,2.48807e-01,-9.85578e-01,1.57943e-01,-1.20605e+00,-7.07375e-02,3.24641e-01,9.25344e-02,-2.06639e+00,4.06603e-01,-2.29731e-01,-5.33639e-01,-1.17655e-01,5.24453e-02,5.45931e-01,5.34441e-01,-1.24046e+00,4.46070e-01,-3.65755e-02,1.13983e+00,-7.23865e-01,4.56045e-03,-3.67462e-01,-3.07826e-03,-6.32386e-02,-7.30730e-01,
-3.59056e-02,3.78263e-02,-3.94832e-02,-3.67281e-02,3.27508e-03,-3.99022e-02,-4.56659e-02,-5.06602e-02,-2.95132e-02,-6.87359e-03,1.41962e-02,-1.93254e-02,3.19337e-02,-5.00998e-02,-5.20420e-02,-3.01363e-03,2.58941e-02,-4.74461e-02,-9.19012e-03,-1.60626e-02,-2.10492e-02,-1.89219e-02,-4.45005e-03,-3.74552e-03,-1.04358e-02,-3.38504e-02,4.14513e-02,2.62580e-02,-5.79586e-03,1.16811e-04,-2.46942e-02,-2.38842e-02,-1.56275e-03,-5.12283e-02,-4.22103e-02,7.22589e-03,-7.96702e-03,-1.77602e-02,2.16389e-02,4.18404e-02,-1.04551e-02,-8.01010e-03,3.98556e-02,1.13644e-02,-1.45318e-02,2.26100e-02,2.89943e-03,-4.24767e-02,-4.97484e-02,-2.22106e-02,
3.33133e-01,-4.07101e-01,-9.16904e-03,2.79377e-01,-2.29065e-01,-2.15324e-01,2.64791e-01,-7.32789e-01,1.48216e-01,5.60629e-01,-5.12984e-01,-1.34548e+00,-2.72280e-03,-4.67463e-01,3.48672e-01,1.48344e-01,1.63993e-01,-4.87723e-02,1.80486e-01,-2.62173e-01,5.58746e-01,-1.02347e-01,-7.11730e-01,1.91909e-01,-8.16100e-01,1.73316e-01,7.75453e-01,2.81864e-01,6.08995e-01,-2.95102e-01,6.99083e-02,-6.00080e-03,3.43444e-01,3.38666e-01,-6.82202e-01,1.17358e-01,1.71154e-01,6.86915e-02,7.35557e-01,1.85017e-01,9.80896e-01,-5.24669e-02,4.79941e-02,4.60929e-01,5.10103e-02,4.90112e-01,-1.42868e-01,2.72061e-01,4.80835e-01,2.48542e-01,
2.40949e-01,4.32411e-01,9.79632e-03,-5.79395e-01,-3.16147e-01,-2.03871e+00,5.52884e-01,4.23824e-01,1.88949e-01,3.38305e-01,-7.34490e-01,2.14295e-01,-7.77844e-03,-6.03404e-01,1.11002e+00,-2.37402e-01,5.58443e-01,-8.20408e-02,7.42188e-02,3.04756e-01,4.46855e-01,-5.12783e-01,7.74288e-01,7.79039e-01,-1.06964e+00,-2.25522e-01,-8.41528e-01,-1.28417e-01,-5.25496e-02,-9.86124e-04,7.25961e-01,-3.38733e-01,1.29555e+00,-2.33255e-01,-7.06661e-01,4.13747e-01,-4.92009e-02,-2.79756e-01,7.20857e-02,3.37381e-01,1.94009e-01,-3.72250e-01,-7.12496e-03,2.75474e-01,-3.02960e-01,4.04433e-01,2.92127e-01,-2.60756e-01,5.70661e-02,1.32370e-01,
-8.68330e-02,5.54986e-02,3.07396e-03,3.38412e-01,5.06876e-01,-3.79691e+00,-1.56902e+00,8.28174e-04,-7.97757e-01,5.22519e-01,-3.08435e-01,1.98428e+00,1.65726e-03,2.06097e-01,-2.80773e-01,4.41473e-01,7.38718e-01,1.97877e-01,-2.85997e-02,1.81937e-01,2.72405e-01,-7.65491e-02,-3.90188e-01,2.04150e-01,-1.30881e+00,2.74054e-01,2.92710e-01,6.68744e-01,-1.17368e-01,5.84411e-02,2.62028e-01,-1.97973e-01,-3.49955e-01,-5.66674e-01,-9.16364e-01,6.83187e-01,1.27240e+00,-9.77477e-02,5.57606e-01,3.29523e-01,-3.14827e-01,-8.95441e-02,-2.14152e-02,-1.13812e-01,-1.95070e-01,-5.07991e-01,4.81537e-01,3.47172e-01,3.78777e-01,4.78961e-01,
9.42168e-03,-1.32298e-02,3.41243e-02,1.31427e-02,-4.28167e-02,-3.62813e-02,1.92850e-02,-4.89426e-02,-4.25796e-02,-1.17031e-02,1.00965e-03,-7.98046e-03,-3.70587e-03,-3.21533e-02,-2.83969e-02,8.14250e-03,-4.16511e-02,3.47134e-02,1.27041e-02,-5.19183e-02,-3.37984e-02,1.23642e-02,-2.18932e-02,7.90994e-04,-2.09492e-02,3.90954e-02,3.29880e-02,-4.52150e-02,4.42350e-02,-6.28332e-02,-3.12453e-02,-6.35868e-02,4.61751e-02,-3.97259e-02,-2.24954e-02,-1.45839e-02,-5.36784e-02,-2.64067e-02,-5.49506e-03,-2.09322e-02,1.98546e-02,-2.74610e-04,1.48809e-02,-6.10565e-02,-1.90949e-02,-4.12707e-02,-8.56040e-03,-3.55248e-02,2.28634e-02,3.40905e-03,
-7.46627e-02,8.89001e-02,-4.64022e-04,-3.95296e-02,4.13225e-01,-4.14439e-01,-1.54075e-01,-7.20318e-02,1.26962e-01,2.63557e-02,1.79207e-01,1.14141e-01,-3.59390e-02,-4.27146e-01,1.89835e-01,-3.46230e-01,-6.26316e-02,1.30517e-01,-9.51390e-01,-9.76329e-02,-1.93284e+00,1.56969e-01,1.32330e+00,-4.36227e-01,-2.07871e-01,2.14632e-01,-5.39858e-01,5.20858e-02,-2.47897e-01,-2.55222e-01,-1.83973e-01,1.44483e-01,-4.79140e-01,-6.44766e-01,4.07948e-01,7.77783e-01,-2.13771e-02,2.14727e-01,-3.64698e-01,-2.36648e-01,-3.27667e-01,-3.07527e-02,-7.48217e-03,-3.74755e-01,2.89480e-01,-8.98090e-02,4.16578e-01,3.42057e-02,-9.45796e-01,-1.02045e+00,
2.89993e-01,5.98718e-02,-8.04682e-04,-8.09806e-02,-2.58644e-01,3.63462e-01,-5.04858e-01,6.42942e-02,4.73624e-02,4.04821e-01,-1.01489e+00,-5.01462e-01,-8.45120e-03,-2.58260e-01,-1.33685e-01,-3.24599e-01,4.37523e-03,-2.68432e-01,-1.31472e+00,-1.13350e-01,-5.58558e-01,-1.40594e-02,-4.30336e-01,-6.31820e-03,-2.62322e-01,1.79484e-01,5.23495e-02,-2.73258e-01,-5.32983e-01,-2.29900e-01,-2.94485e-01,-1.92176e-02,-5.24403e-01,2.06200e-01,-1.08644e-01,1.93644e-02,2.51503e-01,1.30767e-01,-1.30595e+00,2.01955e-01,8.50814e-02,-2.96188e-04,-1.56236e-02,-7.48435e-01,1.02828e-01,3.99414e-01,3.36565e-01,1.11359e-02,-4.30377e-01,4.56491e-01,
-5.19139e-02,-2.54046e-02,-7.34461e-04,-3.35802e-02,-1.91995e-02,-4.27104e-02,-2.50337e-02,-4.19053e-02,-2.40633e-02,-3.99728e-02,-2.61080e-02,4.09066e-03,1.77526e-02,-3.12365e-02,-2.68511e-02,-2.00801e-02,-2.13935e-04,-9.24334e-03,-2.75385e-02,1.59476e-02,1.34033e-02,2.47516e-02,-2.82370e-02,3.55060e-02,-1.84356e-02,-3.95281e-02,-4.74798e-02,-5.73874e-03,-4.98890e-02,-3.20364e-03,-1.16924e-02,8.96868e-03,-1.47019e-03,-6.01734e-02,-5.95482e-02,1.26214e-02,-2.27407e-02,-4.12737e-02,2.11313e-02,2.45142e-02,3.25010e-02,1.26182e-02,1.19619e-02,3.01661e-02,-1.99353e-02,-3.50557e-02,3.25211e-02,-3.07967e-02,-4.56510e-03,3.28594e-02,
1.31355e-01,3.83059e-01,-3.93635e-02,5.80801e-01,6.12441e-01,-7.34289e-02,1.49604e-01,-8.31788e-01,8.67445e-02,8.29542e-01,2.19850e-01,-1.19495e+00,-1.83644e-02,9.20893e-02,-3.54088e-01,6.06068e-01,1.19680e-01,4.03984e-01,-1.51276e-01,3.01651e-02,8.36082e-01,8.84669e-01,4.28235e-01,-5.47838e-02,6.12798e-02,1.05053e-01,4.31860e-01,-6.80434e-01,-1.14920e+00,-6.26029e-01,-2.59570e-01,1.83230e-01,6.48646e-01,-9.01207e-02,-3.83089e-01,-2.74363e-01,2.27794e-02,2.83168e-01,-2.82499e-01,-6.22856e-02,-8.32835e-02,-8.15745e-01,2.07983e-02,-4.51007e-01,-2.72798e-01,-3.61745e-01,8.68965e-02,-6.97682e-02,4.58762e-01,-1.77383e-01,
-7.83968e-02,2.03794e-01,1.11242e-02,2.72559e-01,-5.70037e-01,1.14296e+00,1.26529e+00,-6.26839e-01,7.33775e-01,-4.78152e-02,-5.44767e-02,-3.87931e-02,2.57940e-02,-8.06619e-01,2.04952e-01,-4.37378e-01,-2.73423e-01,-1.04182e-01,-2.42317e-02,-6.24315e-01,-5.93809e-02,2.85339e-01,1.07860e+00,-1.04218e+00,-5.58656e-02,-1.34437e+00,1.05063e-02,8.99101e-01,-7.82875e-02,-9.46485e-01,-1.97701e-01,5.21065e-01,-2.45153e-01,1.81276e-02,6.68598e-01,4.63451e-01,6.04764e-01,3.63994e-01,-7.78249e-02,6.10341e-01,1.09723e+00,-2.70203e-02,3.67557e-02,1.25665e-01,-7.94125e-01,-1.21652e+00,-1.54538e-01,-8.82391e-02,-6.28687e-03,-4.97911e-02,
-2.25716e-02,3.28631e-01,3.04366e-02,-7.48260e-03,1.01106e-01,3.02657e-01,1.22991e-01,2.45652e-02,2.06296e-01,5.23684e-02,2.29292e-01,5.10743e-03,5.52664e-02,-4.83935e-02,2.59393e-03,2.47953e-02,-1.20823e-01,8.62568e-02,7.60439e-02,9.20325e-01,-5.32896e-02,-3.91432e-02,2.09485e-01,-9.70833e-02,-2.20243e-01,1.00525e-01,5.16253e-02,1.41813e-02,1.17554e-01,-1.51840e-01,1.77948e-01,-2.52488e+00,2.87954e-02,-1.86973e-01,5.80476e-01,7.27247e-02,1.93051e-02,-4.28248e+00,6.78011e-02,4.01197e-02,3.78330e-03,-1.38950e-01,-3.37862e-03,-2.73082e-02,1.96062e-01,-5.54210e-02,1.01270e-02,1.99852e-02,6.02704e-02,9.62654e-01,
-2.81169e-01,1.60059e-01,-2.79495e-02,1.49283e+00,-1.01869e-01,2.75239e-02,-8.58388e-02,1.51688e-01,2.03250e-01,-1.96826e-01,2.58610e-01,2.28719e-01,2.45085e-03,-2.99143e-01,8.91429e-02,-1.53236e-01,3.60740e-01,-2.30060e-01,-3.16122e-01,2.87856e-01,-8.97122e-01,2.58637e-01,3.71252e-01,8.36200e-02,3.35375e-01,-2.28848e-01,1.41588e+00,-1.56710e-01,-4.03825e-01,-1.82870e-01,5.25261e-01,-1.60155e-01,-9.33793e-01,-1.25525e-01,3.64482e-01,-2.99733e-02,7.57260e-02,-2.35981e-01,1.83461e-01,-1.56076e-01,-6.66220e-02,1.96230e-01,6.09618e-02,2.28685e-01,6.74315e-02,-9.74367e-02,1.05657e-02,-1.88698e-01,-6.42960e-02,-1.12519e-02,
-2.57293e-01,2.52168e-02,1.66240e-02,1.00600e-02,-4.83574e-02,1.22415e-01,6.42748e-02,1.33274e-02,9.14807e-02,-4.95559e-01,1.39400e-01,7.63097e-02,1.74596e-02,-5.59274e-01,1.62379e-01,-1.18788e-01,-6.22180e-02,-2.93380e-01,5.28583e-02,4.10356e-02,-2.63626e-01,7.61260e-02,-6.52035e-01,-1.40850e-01,-4.24634e-02,-2.96125e-01,-1.59085e-02,1.08349e-01,4.91361e-02,-5.16341e-02,-2.28688e-01,-9.07985e-02,1.08161e-01,-2.09180e-01,1.32929e-02,6.97853e-02,3.02559e-01,-1.03533e-01,-7.02534e-02,-2.60483e-01,7.90980e-02,5.50467e-02,-4.85202e-03,2.41848e-01,-1.20134e-01,-4.21986e-01,3.92693e-02,-2.80991e-02,-8.42376e-02,1.18601e-01,
1.91478e-01,-1.68360e-01,-3.71922e-02,9.93495e-02,3.89918e-01,-6.73491e-01,-3.45160e-01,-2.89234e-01,-1.82462e-02,9.21590e-02,-4.53792e-01,9.80872e-01,4.53787e-02,-5.63428e-02,2.04477e-01,2.19376e-01,8.08401e-01,-1.61197e-01,-1.13430e+00,-7.31978e-01,-2.36638e-01,-1.94779e-01,-3.38902e-01,5.10889e-01,-5.84049e-01,6.88767e-01,-8.52235e-03,-5.20534e-01,-5.74326e-01,-1.68248e-02,1.16330e-01,7.33549e-01,-1.29571e+00,-6.10018e-02,1.15931e-01,8.62010e-01,2.29283e-01,7.71809e-01,-7.57085e-01,-2.47177e-02,1.53433e-01,-8.69200e-02,4.41514e-02,3.51111e-01,5.19917e-01,3.79996e-01,-6.74702e-02,3.32248e-02,1.36779e-01,3.12173e-01,
2.40688e-01,8.55688e-02,1.93938e-02,-2.10626e-01,2.63511e-01,-5.19819e-01,6.99177e-01,5.92904e-01,-4.02475e-01,1.61322e-02,-9.68308e-02,1.03715e+00,8.95404e-03,-2.35169e+00,2.42819e-01,-7.88641e-01,7.92242e-02,-1.79837e-01,-8.55756e-01,-1.56373e-01,-1.99485e-02,2.82568e-01,2.57402e+00,1.74146e-01,-2.52428e-01,2.77213e-01,-2.23069e-03,5.72898e-01,1.32542e+00,5.50227e-01,-4.50133e-01,-9.49367e-02,1.12826e+00,7.91923e-01,-9.14588e-01,-8.59124e-02,-1.38722e-01,7.84239e-03,3.71011e-01,-8.09924e-02,5.15068e-01,4.83531e-02,3.04425e-02,-8.35229e-02,9.57839e-02,5.06181e-01,2.90598e-01,-1.34445e-01,-2.59550e+00,-4.36885e-01,
1.36835e-03,-2.52305e-02,-5.37688e-02,-2.76111e-02,-1.32154e-01,-4.75294e-01,-9.45543e-01,-1.84904e-01,-1.55256e-02,2.27676e-01,5.98343e-02,-2.54779e-01,3.25685e-02,8.71070e-02,2.53575e-01,3.47227e-01,-1.25152e-01,1.16884e-01,2.25674e-02,8.34113e-02,8.44105e-02,-5.50386e-01,-2.27029e-01,-5.05926e-01,1.19869e-02,1.44964e-01,-3.48451e-01,5.35387e-02,4.54127e-01,-7.92333e-02,1.37748e-01,-1.80593e-01,-2.72476e-01,6.26796e-02,3.29120e-02,-1.23672e-01,7.07844e-01,-2.12705e-01,-2.24790e-01,-5.73845e-02,-9.41431e-02,1.74995e-02,-3.83940e-02,-6.68539e-01,4.79649e-03,1.13551e-01,8.90698e-02,6.26427e-02,-1.75224e-01,1.76757e-01,
3.08641e-01,-1.80814e-01,3.20798e-02,-1.33928e-01,1.22046e-01,2.53819e-01,-3.55129e-01,6.76696e-02,-3.56219e-01,1.11350e-01,-3.86914e-01,1.87395e+00,-7.18377e-03,-2.81939e-02,3.60041e-01,-9.17270e-03,-5.79359e-02,-3.12260e-01,7.61684e-01,-2.95584e-02,3.32382e-01,-4.13488e-01,-5.82128e+00,-3.02129e-02,-1.71206e+00,2.67384e-01,-3.83026e-01,9.20520e-01,-5.55137e-01,-1.23924e-01,-1.51013e+00,-1.48276e-01,5.32624e-02,-5.85493e-02,-3.35444e+00,-1.06115e-01,1.16267e-01,-2.43068e-01,1.00064e+00,3.38025e-01,6.60074e-01,-3.43009e-01,-3.06167e-02,-7.15641e-01,9.77060e-02,-1.99215e-01,3.83770e-01,1.39417e-01,-3.22545e-01,2.21668e-02,
-1.30953e+00,6.78526e-02,-2.25436e-02,2.91536e-01,5.22239e-01,8.08461e-02,5.72304e-02,-9.29970e-01,-3.37335e+00,-1.03086e+00,-8.30482e-02,-4.74197e-01,-2.71835e-03,-2.55935e-01,4.23943e-01,-7.54544e-02,-2.53263e+00,-5.42460e-01,-1.04996e+00,-5.04276e-01,-3.38329e+00,-2.46697e-01,5.91377e-01,-7.12468e-01,-2.20684e+00,5.82405e-01,1.44034e-01,4.70783e-01,4.81701e-01,-3.88149e-01,3.83780e-01,-2.85181e-01,1.20636e+00,2.33682e-01,-1.04816e-02,1.29212e-01,1.74145e-01,-2.46769e-01,-6.94151e-01,4.99776e-01,8.16542e-01,-5.06413e-02,-3.15267e-02,-6.42911e-02,-1.04515e+00,-1.65544e-01,1.44760e-01,-2.81081e-01,-1.76887e-01,1.08488e-01,
-1.65863e-01,1.55731e-02,-4.42792e-02,5.21748e-01,5.41093e-01,-6.33589e-01,4.34708e-01,2.95455e-02,-4.97319e-01,-2.19681e-01,-2.34757e-01,2.22305e-01,3.92070e-02,5.84333e-01,-2.00313e-01,-2.61660e-01,-5.45944e-01,-4.62610e-01,-1.19076e+00,-3.56618e-01,-1.35534e-01,4.92863e-01,1.21788e+00,5.65395e-02,7.83537e-01,-5.61602e-01,7.07523e-01,1.57060e-01,4.33779e-01,-2.37282e-01,-4.70299e-01,-4.85844e-01,-1.20598e-01,3.27395e-01,-6.71909e-01,5.99156e-01,2.13327e-01,-3.76667e-01,1.69283e-01,8.49553e-01,-3.39532e-01,2.79174e-02,2.60368e-02,2.79113e-01,-6.06219e-02,-4.11249e-01,-2.49159e-01,-2.05394e-01,4.78242e-01,2.31394e-01,
3.58485e-01,-1.05584e-01,1.19325e-02,8.83281e-02,-1.94124e-01,-3.22605e-02,-2.65748e-01,-3.41661e-02,-4.06997e-01,-2.00027e-01,-4.32562e-01,1.28576e+00,4.88451e-02,-2.14280e-01,-1.91496e-01,-1.78573e-01,-9.80020e-02,3.52130e-01,-4.70036e-01,-2.73612e-01,-4.44266e-01,-1.05051e+00,-2.49963e-01,-4.97857e-02,1.69688e-01,8.71386e-02,2.06933e-01,-2.91646e-01,-1.16402e+00,8.76435e-02,-6.57293e-01,-1.45872e-02,-4.51461e-01,-5.59525e-01,7.26674e-01,2.03627e-01,-2.40421e-01,-1.43133e-01,3.95550e-01,8.51382e-02,3.41592e-02,-4.67470e-01,-1.96150e-02,4.62625e-02,6.50326e-02,4.82070e-01,-3.65932e-01,-2.15230e-01,4.33752e-01,-7.29593e-02,
-7.06295e-03,-3.30931e-01,-3.47406e-02,1.33584e-01,-9.38957e-01,-5.46106e-01,1.89102e-02,2.55570e-01,-1.92085e-01,1.21562e-01,6.70797e-01,-2.00723e-01,3.96614e-02,5.80499e-02,-9.16744e-01,6.89790e-01,2.83417e-02,-1.08810e-01,7.20406e-01,6.32400e-03,2.80706e-01,3.00292e-02,2.26154e-01,-1.29908e-01,1.30651e-01,-2.43012e-01,-2.13530e-01,-1.22753e+00,1.41124e-01,-5.09935e-01,-2.03531e-01,2.41383e-01,2.29868e+00,-3.98057e-01,2.26612e-01,-7.78915e-01,2.29753e-02,2.37902e-01,-1.41487e+00,-3.98556e-01,5.15431e-01,-3.68463e-01,3.32386e-02,1.78755e-01,-1.96392e-01,-5.79127e-01,-3.40162e-01,-1.49717e-01,-6.53833e-01,4.21354e-01,
1.46928e-01,-3.92486e-02,-1.09686e-02,-4.87421e-01,-7.88576e-02,2.32184e-01,3.14821e-01,3.75856e-01,1.71295e-01,-8.18735e-01,-8.92238e-02,-1.17275e+00,-1.74804e-02,9.38147e-04,1.83322e-01,5.35825e-02,-8.49216e-01,4.69372e-02,4.37699e-01,-3.03782e-01,3.84480e-01,2.10358e-01,9.42640e-01,-8.39272e-01,-2.40818e-01,1.22296e-01,-1.00050e+00,-1.41309e+00,-2.52037e+00,-1.00891e-01,-2.90480e-01,3.98210e-01,-6.42374e-01,-5.22270e-02,-8.88748e-03,-6.18374e-01,-7.20161e-02,5.01994e-01,-1.31557e+00,9.15619e-02,-1.09214e+00,6.65760e-01,-2.43954e-02,-4.01641e-01,-1.03016e-01,9.58447e-02,-1.35226e+00,4.79667e-01,3.12267e-01,-1.77404e-01,
-4.18929e-02,-3.01753e-02,3.82093e-02,-9.48077e-04,3.42243e-02,1.55953e-02,-6.57355e-03,1.34066e-02,5.85426e-03,-7.70825e-02,-1.11812e-03,-2.62029e-02,3.29311e-02,-4.06067e-03,8.24789e-03,7.57163e-03,-5.46304e-02,-1.52005e-03,-2.42972e-02,2.23393e-02,2.62734e-02,4.72265e-03,-2.88751e-02,2.70623e-02,-6.35123e-02,1.36359e-02,-4.87585e-03,5.76673e-05,1.11145e-02,-7.77218e-02,-1.29052e-02,-5.22544e-02,2.41798e-02,2.16504e-02,-3.51133e-02,-3.38554e-02,-6.90799e-02,-1.78674e-02,-1.81205e-02,-3.87701e-02,4.69738e-03,-5.92047e-02,-6.26320e-03,-8.81846e-02,3.52062e-03,-6.98634e-05,-3.04893e-02,-1.56412e-02,1.69023e-02,1.59002e-02,
5.42282e-01,-1.20229e-01,1.92160e-02,9.68142e-04,7.30153e-01,-6.78362e-01,-8.52325e-01,6.53102e-01,2.42286e-01,2.17244e-01,-3.37321e-01,-3.11769e-01,-6.02738e-03,-7.24053e-01,-3.88725e-01,-2.49463e-01,-6.53041e-01,3.92964e-01,-5.01750e-01,-1.80867e-01,1.26166e+00,2.89361e-01,1.00027e+00,2.37961e-01,2.79263e-01,-6.28627e-02,-2.31123e-01,-3.99529e-01,1.36639e+00,-6.35505e-01,-2.09585e-01,-2.61581e-01,7.98842e-01,3.69470e-02,-2.00144e+00,3.40172e-02,2.71870e-01,-7.54342e-02,-5.03580e-01,-1.40470e-01,6.19177e-01,4.05657e-01,-8.35916e-03,2.12912e-01,-2.78643e-01,7.43854e-01,-9.18625e-01,4.24811e-01,3.92311e-01,8.83381e-02,
7.75810e-01,-5.16144e-01,-3.53143e-02,-1.32337e-01,7.13014e-02,8.01031e-01,-5.57859e-01,-8.73478e-02,-7.82436e-02,3.42325e-01,-9.89724e-01,-1.00590e+00,3.45893e-02,2.87717e-01,9.08365e-02,6.84017e-01,6.26808e-01,-2.26005e-01,7.96541e-01,-1.15350e+00,6.51585e-01,-5.63704e-02,-1.52214e+00,5.94533e-01,-3.00595e-01,1.96819e-01,1.15955e-01,-4.47569e-02,-2.17754e-01,-1.08447e+00,-9.73012e-03,4.15361e-01,-6.20732e-01,-2.87886e-01,-1.84707e+00,-9.24604e-03,5.35683e-01,5.54802e-01,3.10825e-01,5.92697e-01,-3.90737e-01,-5.65155e-02,3.41078e-03,-8.16520e-02,-1.20070e-01,5.36545e-01,-1.58840e-01,-7.29319e-02,2.69779e-01,1.53822e-01,
2.93456e-01,-2.13112e-01,3.48281e-02,2.09368e-01,-3.67589e-01,1.04523e-01,-2.64677e-01,-3.32590e-02,-8.79738e-02,2.28089e-01,9.79709e-02,-3.64775e-01,2.76500e-02,1.12273e-01,-6.19266e-01,2.23099e-01,3.45872e-01,4.28241e-01,1.15466e-01,-2.71499e-01,5.35698e-01,4.49353e-03,-5.73475e-01,4.53004e-01,-6.17902e-02,-3.80855e-02,-1.25962e+00,-3.51912e-03,2.59144e-01,1.05864e-01,-2.15828e-01,3.33550e-01,3.08249e-01,-2.52763e-01,-1.26371e-01,1.60682e-01,-8.89872e-02,5.78814e-01,-3.71479e-02,-3.44364e-02,-3.08818e-01,-4.33735e-01,-2.48325e-02,-6.77406e-02,-3.11450e-01,-2.35148e-02,1.44371e-01,-1.94336e-01,-1.79818e+00,-1.60242e-01,
3.21466e-02,-1.30564e+00,-3.42065e-02,1.58131e-01,-8.85922e-02,1.32902e-01,2.88780e-01,-3.88595e-01,2.19711e-01,-5.08418e-01,-3.91837e-02,-7.39256e-01,1.74830e-02,-1.49134e-01,-2.54021e-01,-2.26608e-03,8.22103e-01,-2.83514e-01,9.74079e-01,-4.08892e-01,5.50957e-01,-2.42931e-01,-2.99488e-01,6.52952e-02,-1.17635e-01,-1.27295e-01,1.68506e-01,1.50166e-01,-7.12991e-02,8.76437e-02,2.87586e-02,1.18769e-01,-4.57213e-01,-2.92544e-01,4.86067e-02,-4.90223e-02,3.46391e-01,9.63987e-02,2.98805e-01,2.13788e-02,1.00116e-01,-1.78734e-01,2.00394e-02,1.46049e-01,-5.83818e-01,-2.81266e-01,-6.72556e-02,-1.36984e-01,2.42615e-01,1.26043e-01,
-1.04852e+00,1.46359e-01,2.78833e-03,4.51109e-01,-2.02099e-01,-4.56855e-01,3.01883e-01,-8.23808e-01,-6.23630e-02,-6.57699e-01,-3.81165e-01,4.27018e-01,-2.28334e-02,-1.14166e-01,-5.77562e-01,-9.50158e-02,-6.61856e-02,-3.38224e-01,-1.94061e-01,4.72355e-01,-7.98040e-01,7.51855e-01,1.49073e+00,4.97420e-01,-9.48136e-01,-2.50496e-01,4.06826e-01,-1.94130e-01,-5.11784e-01,1.34088e+00,-9.60649e-01,-1.32976e+00,-9.36507e-01,2.31822e-01,-2.93150e-01,2.27923e-01,-2.16140e-04,-1.53280e+00,5.64878e-01,-5.93766e-03,-2.31254e-01,-1.88317e-02,-5.25386e-03,-3.44770e-01,-2.24574e-01,-2.20361e-01,8.59714e-01,5.36804e-01,3.68480e-01,7.98760e-01,
4.03499e-01,
9.87666e-02,
1.01295e-01,
-4.03473e-01,
-2.83682e-01,
-1.42410e-02,
-3.52300e-01,
-3.19337e-02,
1.39876e-01,
-2.02497e-01,
-1.78082e-02,
1.19936e-01,
1.25391e-01,
-4.61673e-01,
-5.27838e-03,
-4.55257e-01,
2.66665e-01,
2.75508e-01,
-5.54497e-03,
-4.30607e-03,
2.35672e-02,
4.90679e-01,
-5.56259e-03,
-1.69883e-01,
2.99754e-02,
-3.97007e-01,
-8.65872e-03,
3.31771e-01,
1.33201e-01,
-2.40026e-02,
-9.47102e-02,
-2.60296e-01,
-6.43500e-02,
1.96223e-01,
-6.62939e-02,
-1.21700e-01,
-2.42356e-01,
-2.48542e-03,
-1.42344e-01,
-1.10969e-02,
-1.07943e-01,
2.26369e-01,
4.72928e-01,
3.05106e-01,
-2.02601e-02,
-1.01488e-01,
-2.02299e-01,
3.02782e-01,
-1.32553e-02,
8.28081e-02,
-3.81458e-01,4.26274e-01,1.02813e-01,-4.46328e+00,2.23951e-02,5.38542e-01,-8.58813e-01,3.20269e-01,-5.60721e-01,-1.16944e+00,4.60560e-02,-4.53971e-01,1.53704e-01,1.97170e-01,-1.62210e-02,-5.28195e-01,-3.73453e-01,5.74702e-01,-2.11090e-03,1.24925e-01,-5.96048e-01,-4.67613e-02,3.85189e-02,2.50591e-01,5.19177e-01,8.82087e-02,-2.43705e-04,-4.76013e-01,-2.32527e-01,1.39372e-02,5.11982e-01,-3.30497e-01,-1.11886e-01,5.89562e-01,2.02889e-01,2.31001e-01,1.16922e-01,-2.23384e-01,-7.99729e-01,8.33693e-01,3.01203e-01,2.01556e-01,-6.69923e-02,-7.30818e-02,-4.02166e-02,-9.01320e-01,2.98028e-01,-9.65260e-01,-5.93226e-01,1.87292e-01,
6.90107e-01,-9.18324e-01,3.32855e-01,9.32293e-02,5.14447e-01,-3.38194e-01,-2.60424e-01,2.68586e-01,1.09770e-02,3.90079e-01,-1.80330e-02,-4.36957e-01,5.08520e-01,1.58088e-01,2.22323e-02,-4.58605e-01,2.91701e-01,-1.71287e-01,-1.32741e-02,1.29768e-01,-1.14189e-01,1.91431e-02,2.19877e-02,-6.97394e-02,-6.48319e-01,4.31588e-03,-5.00327e-02,-4.68163e-02,2.34121e-01,-2.05676e-02,3.25870e-01,1.06651e-01,9.99771e-02,1.22269e-01,-2.36088e-02,2.47921e-01,1.16078e-01,-2.04155e-01,-4.49067e-01,-6.89668e-02,-3.59183e-01,4.42932e-02,-8.52652e-02,3.89000e-01,4.76905e-03,4.82268e-01,7.74579e-02,-2.16480e-01,4.82652e-01,8.01172e-01,
2.82106e-01,-4.88055e-01,2.32516e-01,8.59226e-01,-2.67473e-01,6.96690e-01,-1.20980e-01,-2.00502e-01,1.35075e-01,-6.02594e-01,4.58643e-02,7.99212e-02,4.05361e-01,-1.12684e-01,-1.05154e-02,-4.53985e-01,2.41047e-01,-8.54903e-04,3.39223e-03,1.05190e-01,-5.14054e-01,1.47464e-01,7.55612e-03,-1.96974e-01,-1.72034e+00,2.19893e-01,3.94360e-02,-2.92396e-01,1.84100e-01,-2.17392e-02,2.50175e-01,-3.98417e-01,4.70163e-01,-1.65211e-02,3.60518e-01,2.63745e-01,6.45495e-01,3.01941e-01,-1.59030e+00,-2.99861e-01,-4.31151e-01,2.97898e-01,5.63402e-01,-1.00054e-01,9.22617e-03,-3.63245e-02,-3.86987e-01,-3.08520e-01,-2.75506e-01,-9.77738e-02,
-2.59131e-02,-2.27101e-02,3.60473e-02,-3.98602e-02,-4.77294e-02,-2.07597e-02,1.57343e-03,-3.31049e-03,9.81599e-03,-4.01775e-02,1.56404e-03,1.04517e-02,-4.14074e-02,1.22840e-03,-2.12996e-02,3.48071e-02,1.56653e-03,-9.90163e-03,-1.16385e-02,3.02791e-02,-4.28834e-02,-1.98086e-02,3.05345e-02,-6.46811e-02,-5.06614e-02,1.56700e-02,2.48685e-03,-1.12030e-02,1.41957e-02,3.74026e-02,2.56839e-02,3.12762e-02,-5.10537e-02,1.64389e-02,-2.98546e-02,-3.50029e-02,2.33728e-02,-5.84080e-03,-1.20323e-03,-4.62100e-02,1.82555e-05,3.58998e-02,-3.97516e-02,-9.90627e-03,-5.16634e-02,2.78672e-03,4.12905e-02,2.25431e-02,1.62139e-02,-5.14618e-02,
1.32483e-01,6.96478e-02,8.33950e-02,-1.27036e+00,5.60802e-01,8.14475e-01,2.17923e-01,-2.47540e-01,-1.42057e-01,1.68640e+00,-3.84492e-02,-5.37281e-01,-4.91696e-03,-3.12328e-01,-3.68032e-02,-6.00995e-01,8.33087e-01,1.66433e-01,1.84158e-02,-3.32686e-01,3.54311e-01,2.60413e-01,-1.51692e-02,3.33987e-01,-5.63004e-01,-1.21522e-01,-3.85152e-02,-2.49353e-01,-1.69912e-01,-2.72763e-02,-7.59898e-02,3.98249e-01,-3.42778e-01,3.85404e-01,-1.78045e-01,4.69004e-02,4.41966e-01,2.01343e-01,-3.56769e-01,7.73606e-01,-4.52180e-01,5.35277e-01,-5.45742e-02,2.43704e-01,-3.69033e-02,-2.09544e-01,3.28682e-01,-8.85644e-02,3.47535e-01,6.67235e-01,
-6.65973e-02,-5.24206e-01,-2.78748e-01,-1.12109e+00,-4.61350e-01,1.50989e-01,-1.02857e-01,-4.18672e-01,6.76221e-01,2.57862e-01,-3.94323e-02,-1.57035e-01,-1.30662e-01,-1.57441e-01,5.21937e-03,-1.02309e-01,6.85401e-01,4.27869e-01,-2.65245e-02,-1.87697e-01,1.76260e-01,-1.34324e-01,1.67546e-02,2.13305e-01,-1.29255e-01,-6.29870e-02,7.13606e-03,-8.53282e-01,4.31377e-01,4.30775e-02,-2.31599e-01,7.44265e-01,-6.27178e-01,-8.68395e-02,-3.81805e-01,-3.07976e-01,-4.66898e-01,1.39318e-01,4.14681e-01,6.72687e-01,-1.94455e-01,-6.49128e-01,-2.42685e-01,-2.23403e-01,6.53289e-03,-2.95948e-01,1.01260e-01,-1.71854e-01,-2.00702e-03,2.78157e-01,
2.38827e-01,-1.05258e+00,-6.87075e-01,-2.10507e-01,-1.44183e+00,-7.17737e-01,-1.75286e+00,-2.54646e-01,7.24090e-02,-1.48109e+00,-2.25633e-02,-5.30227e-02,1.08290e-01,-1.11823e-01,3.22084e-02,-1.81918e-01,-7.20968e-01,2.68752e-01,1.02389e-02,-2.96445e-01,-1.18815e-01,1.12975e+00,-1.62048e-02,-4.03501e-01,-1.47842e+00,-8.15922e-02,3.59755e-02,-3.48158e-01,2.48710e-01,-1.40188e-02,3.86356e-01,-7.23202e-01,-2.65973e-01,1.36703e-01,5.45400e-02,-6.17472e-01,-5.14751e-01,-1.38732e+00,-1.06688e+00,-1.13690e-01,4.00290e-01,4.19348e-02,7.39987e-01,-3.93342e-01,4.58187e-03,6.72379e-02,-4.26089e-01,3.59126e-01,2.97647e-01,-3.42044e-01,
1.75024e-02,4.12724e-02,3.70462e-02,1.57091e-02,1.56587e-02,-3.12931e-02,-1.69782e-03,-1.67730e-02,1.49463e-03,-2.93699e-02,1.95164e-02,-2.26232e-02,-2.83887e-02,-4.93770e-02,4.44542e-02,2.52081e-02,-3.26989e-02,-4.52226e-02,-4.84249e-02,2.04245e-02,3.81865e-02,-1.28126e-02,-1.77042e-02,1.27787e-02,-5.24979e-02,3.59293e-02,-2.30172e-02,-1.39893e-02,-4.16612e-03,2.09392e-03,-3.02240e-02,5.78686e-03,2.86916e-02,-5.18211e-02,3.18939e-02,-3.85848e-02,-3.35429e-02,4.06722e-02,1.98699e-02,1.95750e-03,-4.78760e-02,-2.51007e-02,-1.45058e-02,-3.63371e-02,-3.92691e-02,-2.61974e-02,2.36172e-02,-1.47261e-02,4.15999e-02,-2.91209e-02,
-1.06815e+00,1.56711e-01,-2.44323e-01,-2.89617e-01,-3.94134e-01,-1.41766e-02,-3.38972e-02,1.89699e-01,2.21979e-01,2.98464e-01,-3.73858e-02,1.52422e-01,6.86633e-01,-1.81459e-01,2.15448e-02,1.14537e-01,-8.30352e-01,1.24113e-01,1.08648e-03,8.37637e-02,1.56088e-01,4.91070e-01,-2.25661e-02,-1.24596e+00,2.80315e-01,2.05113e-01,1.67616e-02,1.83187e-01,-2.48074e-01,-2.33099e-02,-4.43717e-01,2.33358e-01,-5.71500e-01,-1.22906e+00,-4.95757e-02,1.14547e-01,-2.93338e-01,1.02192e-01,4.64485e-01,-4.28542e-01,-2.59437e-01,2.06715e-01,-1.03633e-02,1.55222e+00,-2.63527e-02,-7.01550e-01,-1.94325e-01,1.55053e-01,1.20725e-01,-2.93019e-01,
-2.47776e-01,2.02329e-01,-5.27079e-01,6.22983e-01,-5.58160e-01,2.08892e-02,-1.05792e+00,1.40217e-01,6.69379e-01,-9.30322e-01,3.54664e-02,-1.33798e-01,-2.48370e-02,-2.55318e-01,-2.36104e-02,1.66783e-01,-2.91369e-01,4.35254e-01,-3.67910e-02,3.93171e-02,-2.95779e-01,4.63583e-01,-4.26491e-02,-5.86209e-01,3.56868e-01,-7.31563e-01,-3.44280e-02,-6.83563e-01,4.67452e-01,1.28258e-02,-7.30720e-01,1.07095e-01,-1.24219e+00,-9.58339e-02,-4.71956e-01,-1.01491e-01,-4.98920e-01,3.39126e-01,-3.93518e-01,-1.23253e-01,-3.60916e-02,-6.39695e-02,3.82219e-01,1.89355e-01,4.16858e-02,-1.96082e+00,4.00348e-02,2.20326e-02,-6.60875e-01,-3.28191e-02,
2.42848e-01,5.60655e-01,2.34516e-01,-3.46744e-02,6.23326e-01,5.74525e-01,4.42853e-01,1.95162e-01,1.66945e-01,-7.07092e-01,-2.51015e-02,1.66696e-02,-4.94212e-01,-4.17031e-02,-4.08516e-02,6.76725e-01,3.75408e-01,1.40651e-01,2.50834e-02,-5.02973e-01,3.63513e-02,-1.19631e-01,2.40925e-02,1.24942e-01,-4.07815e-01,5.54446e-03,5.05409e-03,-4.28913e-01,1.99278e-01,-4.03453e-02,2.52368e-01,9.49093e-02,-3.15340e-01,-1.63641e-01,2.35884e-01,2.33430e-01,8.19743e-01,-3.16200e-01,2.88353e-01,8.79732e-02,1.82219e-01,3.00850e-01,-5.34830e-01,-8.37763e-03,-1.05023e-02,-2.66755e-01,-1.05148e-01,1.14078e-01,-2.46432e-01,-2.98320e-01,
4.13787e-01,3.39865e-01,-1.99208e-01,1.15791e-01,5.74554e-01,1.71391e-01,-2.64235e-01,-4.98114e-02,2.89203e-02,-1.31941e+00,3.22749e-02,1.20672e-01,-3.97962e-01,-5.75962e-03,4.45231e-02,7.38307e-02,-7.11909e-01,3.78614e-01,1.89695e-02,1.88562e-01,9.35570e-02,1.05874e-01,2.29407e-02,4.07538e-02,-4.55077e-01,9.52019e-02,-3.57854e-02,-4.68533e-01,1.65911e-01,-1.80338e-02,2.88019e-01,-1.75984e-02,5.61415e-01,4.86369e-01,-1.92507e-02,-9.98766e-02,-1.71460e-01,8.79382e-01,-1.61858e-01,1.42526e-01,4.06525e-03,-2.29875e-01,1.77046e-01,2.78164e-02,-2.69950e-03,-2.01971e-01,-9.05358e-02,-5.44692e-01,-4.05046e-01,-2.24238e-01,
1.76297e-01,-1.41195e-01,1.29682e-01,-2.20797e-02,-2.43821e-01,-3.63713e-04,-2.87591e-01,1.76563e-01,5.00522e-01,5.42485e-01,-3.53752e-02,-4.14039e-01,-3.71714e-01,-2.37977e-01,-6.36365e-03,-7.53028e-01,6.93596e-01,1.12984e-01,-2.70182e-02,-5.93603e-02,-6.64261e-02,6.07026e-01,-3.86521e-02,-4.75091e-03,1.11271e-01,2.05419e-01,-2.89383e-02,-3.79475e-01,5.62297e-02,3.82655e-02,-3.96293e-02,2.99688e-01,-9.10058e-01,-1.46379e-02,-1.58215e-01,2.97468e-01,-5.16865e-01,3.73015e-01,9.50906e-01,2.79091e-01,1.21038e-01,-8.13405e-02,2.36919e-01,3.08876e-01,-1.73566e-02,-4.23323e-01,-6.62240e-02,3.19407e-01,-1.09936e-01,1.94758e-01,
4.11185e-01,3.72717e-01,-1.01931e-01,6.85380e-02,3.08676e-01,6.26453e-01,-2.82898e-01,7.93891e-02,-3.48306e-01,-1.28544e+00,-5.10739e-02,3.76726e-02,-3.66283e-02,4.21015e-01,-2.71250e-02,-2.04057e-01,1.35975e+00,6.17873e-02,4.99733e-02,-6.14361e-01,-8.22187e-01,3.79723e-02,2.73037e-02,4.15971e-02,-5.92417e-01,1.66740e-01,6.49828e-04,2.39210e-01,2.22604e-01,2.55077e-02,6.76731e-02,9.21977e-02,-3.31625e-01,-5.96590e-01,7.65954e-02,1.86896e-01,-6.69802e-01,-8.52762e-02,-1.11747e-01,-6.04348e-02,-8.84245e-01,-1.39753e+00,-1.37431e-02,1.09927e-01,1.21879e-02,4.69108e-03,1.05989e+00,8.14191e-01,5.97093e-02,-6.25053e-01,
2.09037e-01,4.24910e-01,-1.47982e-01,2.85474e-01,-1.20060e-01,-1.90480e-01,6.94899e-02,1.28257e-01,7.80233e-02,1.72704e-01,2.53494e-02,-6.78919e-02,-4.63347e-02,-3.37635e-01,1.36304e-03,-1.11209e-01,1.45921e-01,-1.06965e-01,4.50603e-02,2.20105e-02,-1.43811e-01,2.01505e-01,2.06343e-02,-1.30006e-01,-2.55048e-01,2.59234e-01,9.96250e-04,1.16530e-01,4.88133e-01,2.16888e-02,3.39254e-01,-1.07444e-01,-1.43217e+00,2.15466e-01,2.44014e-02,-2.26564e-01,7.05331e-02,-1.80756e-02,-2.03596e-01,1.80079e-02,-2.85228e-01,1.83482e-02,1.44536e-01,1.07259e-01,-4.07315e-02,7.22322e-02,8.11183e-01,5.94915e-01,1.47157e-01,-2.61996e-01,
4.58287e-01,3.63976e-01,-4.97459e-02,-1.28329e-01,-3.66731e-01,1.09017e-01,2.01300e-01,-2.42389e-01,-4.02204e-01,1.00648e-01,-3.48109e-02,9.41648e-02,4.80631e-01,4.22431e-01,-3.85952e-02,1.87345e-01,-4.22710e-02,3.25964e-01,3.49025e-02,1.12057e-02,1.71274e-01,2.87574e-01,1.01638e-02,4.22985e-02,-1.32248e+00,-2.06871e-01,2.29931e-02,4.82122e-01,5.28632e-02,2.34839e-04,4.75481e-01,1.91762e-01,1.24504e+00,-5.34555e-01,-1.51707e-02,-1.09896e-01,-5.14785e-01,-1.19279e-01,-1.92809e-01,-1.67307e-01,2.34312e-01,-3.24163e-01,-2.25270e-01,-1.53748e-01,5.65403e-02,-3.52427e-01,3.03215e-01,-1.04158e-01,3.94382e-01,2.20236e-01,
-5.24206e-01,7.70844e-01,2.51558e-02,2.98071e-01,-2.18598e-01,2.79804e-01,-2.30962e-01,3.34250e-01,-3.41823e-01,-3.05910e-02,-1.33024e-02,2.89140e-01,-3.75421e-01,3.67785e-01,-4.55572e-02,-3.65975e-01,-9.60772e-02,2.15646e-01,1.00400e-02,2.73109e-03,-1.46822e-01,-7.79670e-02,3.15945e-02,3.94183e-01,2.07278e-02,-2.00886e-01,-3.83430e-02,-7.77789e-03,2.15488e-01,4.26266e-02,4.03653e-02,-1.97347e-01,-1.47647e-01,1.03897e-01,4.45987e-02,-1.37345e-01,-8.21354e-02,-4.28057e-01,-8.35959e-02,7.71700e-01,9.95591e-02,8.54981e-02,5.18950e-01,-2.51725e-02,1.86763e-02,2.10481e-01,5.96744e-02,4.31393e-01,-1.14051e-01,4.76630e-01,
-2.08751e-01,-2.80859e-01,-1.51755e-01,1.04223e+00,4.53628e-02,8.45822e-02,-2.30061e-01,-4.22495e-01,-1.38516e-01,-3.13227e-01,1.78141e-02,-3.00528e-03,2.98737e-03,4.86121e-01,2.62413e-02,1.51799e-01,2.36204e-01,2.31486e-01,-2.94862e-02,-8.57193e-01,-2.93211e-01,2.88265e-01,-1.03467e-03,3.56899e-01,6.58448e-01,-2.37461e-02,-3.47008e-03,1.64924e-01,-4.55741e-01,-1.92519e-02,9.01361e-02,-2.50267e-01,1.78391e-01,2.87266e-01,9.32911e-02,1.74637e-01,-2.49284e-01,-5.80254e-02,-3.54465e-01,-1.21890e-01,8.96078e-02,1.47506e-01,-9.78504e-01,-5.79483e+00,-5.87875e-02,-1.18704e-01,4.53358e-01,-9.45345e-01,-3.56380e-01,6.38579e-02,
2.67740e-01,2.67014e-01,-3.51052e-01,-2.08854e+00,-4.21228e-01,2.44146e-01,-5.70087e-01,-9.32924e-02,-1.44468e-01,5.57665e-01,-3.62775e-02,-2.50349e-01,4.85314e-01,5.25829e-01,-7.74791e-03,-3.35883e-01,-6.26194e-01,-1.69303e-01,-1.77614e-02,-4.99440e-02,-1.87688e-01,-7.25733e-01,-2.71315e-02,2.08980e-01,7.35533e-03,1.03160e-01,-1.96243e-02,-1.86634e+00,-2.36620e-01,2.14593e-03,-2.16298e-01,-4.13874e-01,-6.82860e-02,2.40625e-01,2.26319e-01,-7.67071e-01,6.25977e-01,1.99777e-01,-8.63759e-01,5.97441e-01,5.32726e-01,2.23650e-01,-3.16229e-01,4.41026e-01,-4.40812e-02,6.14520e-01,5.20276e-01,1.24941e+00,-3.42502e-02,-2.30510e-01,
-1.40445e-01,-2.70390e-01,4.46141e-01,-1.17334e+00,-2.60027e-01,-9.00036e-01,5.24663e-01,1.98422e-01,8.00563e-01,1.13102e+00,-7.71172e-03,2.54315e-01,2.21178e-01,2.31424e-01,-1.67437e-02,5.81109e-01,3.20941e-01,-3.13166e-01,-4.21539e-02,-3.82746e-01,1.74511e-01,3.64335e-01,1.19361e-02,-7.45384e-01,-1.64216e-01,-1.77875e-01,3.93826e-02,1.62464e-01,-2.41756e-01,1.39359e-02,-6.03086e-01,3.45328e-01,-2.40264e-01,2.25488e-01,-9.51239e-02,-1.77128e-01,1.24175e+00,-2.71469e-01,1.08098e+00,4.09965e-01,-2.42982e-01,6.59213e-01,-6.77406e-01,1.85099e-01,2.40769e-02,4.23798e-01,-4.42291e-01,1.00642e+00,-1.45028e-01,3.20252e-01,
9.03329e-03,2.50263e-01,-2.55816e-01,-1.16819e-01,1.02598e-01,6.31172e-01,-2.39782e-02,3.57651e-01,-3.00006e-01,4.03123e-01,3.24084e-02,4.83803e-02,6.23587e-01,9.71527e-02,-3.87936e-02,2.32755e-01,1.01606e+00,7.22835e-02,1.26367e-02,1.65458e-01,-2.75240e-01,-2.15991e-01,-1.10587e-02,2.99364e-02,-2.70676e-01,-6.06490e-01,-8.96031e-03,-2.15540e-01,1.66515e-01,-3.99657e-02,3.11600e-01,2.46981e-01,-2.97122e-01,-1.67145e-01,-9.66024e-02,9.23061e-02,-4.80770e-01,3.69756e-01,-3.03363e-01,1.49089e-01,4.34048e-03,5.74328e-01,1.01594e-01,-1.02735e+00,-3.74068e-03,5.33252e-01,-7.69658e-02,-2.50366e-01,2.70204e-01,1.77066e-01,
5.33081e-01,-5.41527e-01,2.72116e-01,2.94707e-01,2.20019e-01,3.30798e-01,2.32947e-01,-3.67361e-01,-5.81519e-01,-2.89348e-02,-2.21365e-02,1.03413e-01,4.54287e-01,5.76488e-01,-4.69213e-02,-2.25998e-01,2.17125e-01,1.08827e-01,-4.42142e-02,1.21560e-01,3.82004e-02,2.97110e-01,4.59372e-03,-2.67654e-01,1.31128e-01,2.66590e-01,3.87192e-02,3.90224e-01,3.22026e-01,-1.07107e-02,5.20158e-01,-4.51388e-01,-2.00977e+00,-3.56667e-01,-3.02614e-01,-3.47038e-01,2.89230e-01,-1.82854e-01,-9.01063e-01,-5.39145e-01,2.15106e-01,-7.74323e-01,1.22493e+00,4.66884e-01,-1.05807e-02,2.60068e-01,2.01472e-02,6.49800e-01,1.37228e-01,7.35393e-03,
-1.16419e-01,1.93382e-01,-1.47758e-01,-3.26416e-01,2.38955e-01,-1.66483e-02,3.61101e-01,-1.98511e-01,-1.19631e+00,2.02679e-01,-5.36384e-02,-7.13889e-02,1.39599e-01,-6.37400e-01,3.53610e-02,1.44683e-01,1.43568e-02,7.13955e-02,-5.86240e-03,-3.60504e-01,1.48231e-01,-4.28268e-02,2.06982e-02,4.01168e-01,-4.20098e-02,2.09549e-01,-5.39757e-02,2.61724e-01,4.84038e-01,-1.35165e-02,-1.99834e-01,3.76892e-02,1.64029e-01,-6.51059e-02,2.05209e-01,-1.53134e-01,1.98475e-01,7.38988e-01,-6.34346e-01,-8.57499e-02,-6.96692e-02,1.22008e-01,7.86063e-03,-1.20807e-01,-6.51453e-03,-3.57697e-01,2.02871e-01,-3.37432e-02,-4.18371e-01,8.56018e-02,
-1.05078e-01,-9.01076e-02,-4.61575e-01,-5.39515e-01,5.40755e-01,-5.93287e-01,2.24919e-01,7.32455e-02,-2.59461e-01,9.06213e-01,1.16543e-02,-2.38710e-01,-8.96604e-01,-5.61980e-01,-1.43462e-02,-3.01069e-01,-1.59613e+00,4.63991e-01,1.86978e-02,2.79522e-01,6.18177e-03,2.03304e-01,-9.17399e-03,2.82100e-01,3.18031e-01,-7.24306e-01,3.73929e-03,-2.38999e-02,7.54312e-02,-4.04031e-02,-3.84148e-01,9.50293e-02,-4.92835e-01,5.75182e-02,9.33946e-02,-2.53036e-01,-2.11662e-01,5.45831e-01,-5.99567e-01,2.10600e-02,1.36206e-01,6.20515e-01,-3.03273e-02,-1.19988e+00,-3.05517e-02,1.03100e+00,3.78107e-01,-2.92890e-01,1.69808e-01,2.72185e-01,
-2.77866e-01,-1.43931e-01,-7.79280e-01,4.17547e-01,-1.47285e-02,2.39387e-01,-4.34443e-02,-6.18019e-02,-2.54811e-02,1.14671e-01,4.88401e-02,-5.18391e-01,-1.93767e+00,-3.08198e-01,1.37105e-02,4.87794e-02,-1.14116e+00,2.30908e-01,-6.37716e-03,1.07755e-01,-1.91809e-01,5.59528e-01,3.44113e-02,-1.36427e+00,-1.22664e-01,-2.23005e+00,1.57030e-02,1.54787e-01,4.42833e-01,3.67591e-03,-8.32695e-03,-4.56946e-02,5.73921e-01,3.38386e-01,-1.74764e-01,-3.15915e-01,1.82903e-01,4.01301e-02,-2.50824e+00,-1.08294e-01,1.43786e-01,2.80607e-01,-2.71988e-01,1.51789e-01,3.05432e-02,9.20895e-01,-1.74441e+00,1.05706e-01,1.94697e-01,1.38426e-01,
2.35408e-01,4.31041e-01,1.39402e-01,-1.57394e+00,-3.14713e-02,-1.28928e-01,-6.50607e-01,9.16131e-02,4.84835e-01,-2.05056e+00,-2.24468e-02,4.93193e-01,5.53011e-01,6.85688e-01,-2.36835e-02,1.98601e-01,-1.73476e-01,4.91852e-02,1.82942e-02,5.97055e-02,-1.67540e-01,-5.52429e-01,2.04059e-02,-2.64361e-01,-2.34227e-01,4.73029e-01,-9.70578e-03,5.48485e-01,-1.18203e-01,3.08907e-02,4.96645e-01,8.96152e-01,-6.35159e-01,-7.21494e-02,-2.92447e-01,-1.22121e-02,-2.15609e-01,4.94810e-01,-8.62930e-01,5.85639e-01,-9.33396e-02,3.30364e-01,-6.43608e-01,-2.70007e-01,-2.45659e-03,1.96531e-01,8.15617e-01,4.77704e-01,-4.47287e-01,4.83745e-02,
-4.81457e-02,-3.92941e-01,1.13840e-01,9.38506e-01,-1.60488e-01,1.50108e-01,1.05138e-01,-2.84862e-01,3.40643e-01,-7.37221e-01,8.99349e-03,1.06621e-01,-5.72644e-01,3.23707e-01,-4.43344e-02,1.02737e-01,-2.04462e+00,5.98593e-02,-3.91831e-02,-3.27594e-01,-4.15879e-01,-1.40077e-01,-2.76132e-02,3.29292e-01,3.63213e-01,1.22019e-01,4.06318e-02,-1.09242e-01,-1.12255e-02,-4.83743e-02,3.63757e-01,-3.81834e-01,1.66724e-01,7.50748e-01,2.07158e-01,-6.89062e-01,1.01088e+00,-2.95455e-02,-3.90346e-01,-3.83045e-01,1.28964e-01,-6.28458e-01,6.32228e-01,1.14306e+00,4.63457e-02,-7.84070e-02,1.93466e-01,8.10557e-01,-5.32501e-01,-8.01226e-02,
1.95604e-01,-2.29327e-01,-3.58154e-02,6.12778e-02,-9.32181e-02,-1.22221e+00,2.17038e-01,2.86848e-01,-1.24984e-01,4.97909e-01,2.54391e-02,-1.45469e-01,2.40291e-01,3.81596e-01,1.94209e-03,-5.96378e-01,9.18117e-01,1.15351e-01,2.66575e-02,-6.41528e-02,-1.91469e-01,-5.60748e-02,-4.09568e-02,2.07258e-01,-7.52734e-01,-1.19044e-02,-1.28626e-03,-1.58646e-01,-2.18557e-01,-4.77657e-02,6.70618e-01,-2.17961e-02,-5.79682e-02,2.52695e-01,1.89606e-02,5.69116e-02,4.58729e-01,-3.41364e-01,4.94308e-01,-9.48520e-02,-3.08023e-01,2.03040e-01,4.08832e-02,-3.78599e-01,1.23865e-02,7.74484e-01,3.75430e-01,-7.77707e-01,-3.58621e-01,-2.64161e-01,
1.39716e-01,3.56247e-01,-3.85440e-02,-1.65407e-01,-5.69252e-01,1.10027e-01,-3.20037e-02,7.20072e-02,5.03569e-01,2.23061e-01,-5.19777e-02,-1.80377e-01,2.73255e-01,-4.56736e-01,-2.96362e-02,-6.15352e-02,1.31658e+00,-1.91070e-01,-4.83527e-02,7.52892e-03,2.14522e-01,-2.38011e-02,-3.00221e-02,-9.89454e-02,-1.83550e-01,-2.12614e-02,-2.06861e-02,-2.97180e-01,1.18433e-01,7.15214e-03,2.13158e-01,2.38481e-01,-5.04526e-01,1.97173e-02,1.04239e-01,5.65893e-01,1.12648e-02,-4.51806e-01,4.06805e-01,-7.95933e-01,-2.69951e-01,1.21219e-01,2.49004e-01,3.90545e-01,-2.45537e-02,4.97797e-01,4.33528e-01,-5.26289e-01,-3.53279e-01,-4.82368e-01,
-8.29204e-02,3.58568e-01,3.92911e-01,5.39338e-01,-3.16523e-01,-7.38924e-01,-3.58298e-01,4.19542e-01,-9.74498e-01,1.38608e-01,-4.63457e-02,-2.97501e-01,9.87750e-02,-5.86762e-02,-3.35144e-02,-1.15656e-01,-4.19090e-02,-5.95981e-01,2.23695e-02,-3.57848e-01,-2.41326e-01,2.08031e-01,-4.05043e-02,3.21352e-01,-4.79960e-01,6.87854e-01,-5.64904e-03,4.24170e-01,-3.11223e-01,-1.74088e-02,1.76869e-01,-3.09908e-01,1.17853e-01,2.88776e-01,-3.63699e-02,-1.68857e+00,-4.64688e-01,-2.30428e-01,3.56501e-01,-1.36978e+00,1.01978e-02,-2.17467e-01,6.30649e-01,3.88173e-01,-2.15480e-03,3.33760e-01,-1.18102e-01,-9.59991e-02,-1.15394e+00,-9.05515e-01,
2.83151e-01,3.05808e-01,-2.34784e-02,3.16725e-01,4.85345e-01,1.01292e+00,-2.00444e-01,-3.93269e-01,-8.03433e-01,-2.76205e-01,-4.64025e-02,2.91180e-01,-1.09332e-01,-7.29589e-02,7.80341e-03,7.65751e-03,-3.89421e-02,-2.09237e-01,4.41206e-02,-8.62240e-02,-4.02279e-01,-4.07769e-01,-4.74396e-02,-3.29917e-01,2.42596e-01,3.69998e-01,4.96038e-03,-2.35476e-01,1.50248e-01,3.45746e-02,3.94419e-01,-3.18280e-01,3.84630e-01,-1.76622e-01,4.34177e-01,4.14542e-01,1.68361e-01,5.40240e-01,7.73734e-01,7.10705e-01,-3.88019e-01,1.85712e-01,-2.95443e-01,2.06269e-01,-4.59689e-02,-1.25304e-01,5.99394e-01,2.31738e-01,3.00288e-02,-1.26426e-01,
-1.73526e-01,-5.46610e-01,-4.59611e-01,2.61321e-01,-3.45215e-01,2.36907e-01,1.95272e-01,-3.15813e-01,4.94191e-01,-2.53195e-01,-1.35640e-02,1.79556e-01,-1.19197e-01,2.56844e-02,-1.03553e-02,-3.52831e-01,-5.58499e-01,1.76547e-01,2.40534e-03,2.24446e-01,1.47145e-01,1.74941e-01,1.62870e-02,1.11920e-01,3.15279e-02,-2.93578e-01,1.51806e-02,4.30110e-01,-7.01153e-01,-2.04462e-02,1.78557e-01,-6.11443e-01,4.88205e-01,-8.32545e-02,-1.18914e-01,-3.07591e-01,9.77766e-02,1.11076e-02,-9.19071e-02,5.02340e-01,2.88406e-01,-5.27445e-02,-2.28948e-01,-6.86943e-01,1.96973e-02,4.83469e-01,2.19804e-01,-3.85984e-01,-1.03442e-01,1.41359e-01,
-4.56972e-02,2.21280e-01,-1.78196e-01,5.33066e-02,-4.03217e-02,1.55148e-01,5.59800e-02,3.86736e-02,-7.39221e-01,1.42430e-01,8.50320e-03,4.85444e-02,4.13093e-01,1.72484e-01,-4.86992e-02,1.44371e-01,1.28515e-01,-1.99060e-01,-2.31174e-02,-4.58567e-02,9.20014e-03,4.55966e-02,3.57876e-02,7.52401e-02,2.41853e-01,8.62799e-03,1.40985e-02,1.55972e-01,4.13669e-01,3.09745e-03,-7.14198e-02,3.70205e-03,-7.32969e-01,-9.12943e-02,-3.04160e-02,-5.49944e-02,-6.56512e-02,-7.09397e-02,-2.18820e-01,-5.88337e-02,1.61028e-02,8.60074e-02,-2.40390e-02,-9.22152e-02,-3.84071e-02,-5.81820e-02,1.95522e-02,-2.24804e-01,-1.65475e-01,-2.71152e-02,
-2.19541e-01,4.87732e-01,3.51181e-02,1.05944e-01,-9.85456e-02,5.41511e-01,-1.00175e-01,5.67394e-02,-1.32396e+00,-2.16129e-01,3.31121e-02,-4.33786e-01,8.99781e-02,1.58626e-01,-4.80199e-02,1.70128e-02,7.54051e-01,-3.90846e-01,-4.47584e-02,4.27566e-02,-2.04652e-01,-1.77025e-01,1.07534e-02,-5.14551e-03,-3.21573e-01,-6.07056e-01,-2.35430e-02,6.88146e-01,-2.57030e-01,-4.38669e-02,-1.57132e-01,1.14376e-01,1.34471e-01,2.07750e-01,-2.81729e-02,3.13411e-02,9.19935e-02,4.84458e-01,4.22968e-01,-6.25962e-01,6.38451e-01,3.32670e-01,-3.71148e-01,2.98764e-01,-3.05869e-02,2.49712e-01,-2.18905e-02,4.68647e-01,-2.14030e-01,-2.72048e-01,
2.43904e-01,1.47911e-01,2.85645e-01,2.09220e-02,2.01406e-02,7.84110e-01,-5.08233e-01,-3.20863e-01,3.79324e-01,2.01271e-01,-4.74833e-03,-5.31066e-01,1.27157e-01,3.23129e-01,-3.72881e-02,2.32604e-01,-5.25530e-02,-1.36934e-02,1.69077e-03,-4.61138e-01,-1.81434e-01,3.60442e-01,2.15761e-02,-2.35417e-01,-8.18003e-01,1.30292e-02,-5.89957e-02,-3.21206e-01,3.37074e-01,1.86267e-02,-1.30195e-01,-2.46698e-01,2.13832e-01,1.54473e-01,-1.93991e-02,-1.28065e-01,1.42688e-01,-5.98246e-01,-7.42422e-01,5.96521e-02,-4.66092e-01,-3.03445e-01,3.34548e-01,7.81101e-01,5.83667e-02,-4.69852e-01,-2.70011e-01,2.29040e-01,-3.81148e-01,-5.11075e-02,
6.68701e-02,4.09554e-01,9.38753e-02,-8.05580e-02,-4.81464e-01,5.59259e-01,-3.50223e-01,1.27360e-01,2.57347e-01,-4.74651e-01,1.82659e-02,1.43301e-01,-7.69118e-01,-2.01236e-01,-4.70568e-02,1.14198e-01,1.08818e-01,3.97195e-02,-5.90176e-03,-9.07976e-03,-8.15217e-02,-1.27976e-01,-1.89076e-02,-6.28859e-01,6.69872e-01,-5.24432e-01,-3.30959e-02,-1.95647e-02,9.34671e-02,-3.61997e-02,2.20645e-01,1.64126e-02,4.00486e-01,-4.40262e-02,3.28097e-01,-2.29389e-01,4.98900e-01,2.19135e-02,-1.96573e-01,3.12276e-01,4.17497e-02,-2.90522e-01,3.27494e-01,-1.59711e-01,-2.23943e-02,-2.27566e+00,-1.65532e-01,-2.75453e-01,-6.77725e-01,-9.58855e-02,
2.66770e-01,-3.95544e-01,3.52709e-01,1.41783e+00,-1.09286e+00,-1.25768e-01,-3.58748e-01,-1.64451e-01,4.80507e-01,-8.81635e-01,1.01225e-02,3.03526e-01,8.63271e-01,-2.79629e-01,-1.85478e-02,9.97418e-01,-5.82222e-01,-1.78674e-01,-3.03128e-02,-2.46981e-01,-5.28008e-01,6.23900e-02,-3.78923e-02,-5.32838e-01,2.17997e-01,-6.08024e-01,4.64718e-02,8.64751e-03,8.59382e-02,4.74370e-03,3.09361e-01,-3.81251e-01,-5.99047e-01,1.73461e-02,-1.82421e-01,3.74810e-01,-5.03939e-01,3.25286e-01,-7.94367e-01,-3.87464e-01,9.40748e-02,-4.41481e-01,-2.60685e-01,1.20439e+00,4.24670e-02,-5.74741e-01,4.32527e-01,-1.98743e-01,-2.63669e-01,-3.73606e-03,
3.40927e-01,-5.68659e-02,4.98073e-01,-2.23192e-01,2.06416e-01,2.13769e-01,-2.78853e-01,-4.50221e-01,1.32816e-01,4.81910e-01,3.95624e-02,8.59907e-02,-4.31496e-01,-2.06182e-01,-1.84399e-02,-1.15443e-01,4.02268e-01,3.29369e-02,-4.37066e-02,-3.55630e-02,2.00488e-01,-3.81299e-02,-4.00069e-02,2.26620e-01,7.53400e-02,5.87777e-01,2.63789e-02,-2.90666e-01,-1.42041e-01,1.32973e-02,5.20179e-01,-7.75586e-02,-2.09595e+00,-1.94795e-01,-3.51646e-02,1.34215e-01,2.76799e-01,1.76598e-01,1.80323e-01,-7.92104e-01,2.64471e-02,5.66113e-01,2.05637e-01,-2.19492e-01,-5.26823e-03,2.37195e-01,7.52616e-01,5.48799e-01,3.05042e-01,-6.52460e-01,
1.88035e-01,2.28117e-01,5.93146e-02,-4.40947e-01,3.03108e-01,8.27604e-01,6.79952e-02,3.82653e-02,4.31518e-01,3.19447e-01,-5.04704e-02,1.00593e-02,6.07611e-01,4.94019e-03,-2.30585e-02,6.02008e-01,6.14343e-02,-5.80097e-01,-2.03998e-02,1.57979e-01,6.88686e-01,-1.48607e-01,-3.49826e-02,-1.50851e-01,3.46578e-01,4.47785e-02,4.07679e-02,7.92594e-01,-8.43025e-01,2.69758e-02,-7.13683e-01,1.36077e-01,1.75486e-01,-7.60130e-01,-1.11534e-02,2.23600e-01,-2.75450e-01,-1.77128e-01,7.90231e-02,-4.19856e-01,4.46069e-01,1.21239e-01,3.06706e-02,2.63476e-01,3.72816e-02,1.09052e+00,-2.87474e-01,-5.60445e-02,2.65933e-01,-9.30898e-02,
-1.49517e-02,-4.60362e-02,-4.56831e-02,1.75000e-02,-1.05511e-02,-2.82346e-03,-4.74150e-04,-6.45169e-03,1.92679e-02,2.23141e-03,-2.85272e-02,-9.03376e-03,-3.29292e-02,-3.84890e-02,-3.27203e-03,-2.87087e-03,-5.47389e-03,4.91409e-03,-2.14752e-02,-1.68624e-02,2.67710e-02,1.96995e-02,3.73418e-02,-4.71513e-02,-5.01309e-03,-3.97155e-02,1.57031e-03,-1.07610e-02,1.58049e-02,2.36007e-02,9.08507e-03,1.52753e-02,-5.30439e-02,-4.05273e-02,3.69561e-02,-1.91414e-02,-9.68569e-03,-5.01327e-02,3.98916e-02,-3.54744e-02,1.09308e-02,-5.04036e-02,-2.42847e-02,-7.25226e-03,4.96313e-02,4.03538e-02,-3.49327e-02,-1.14384e-02,-4.56144e-02,-2.91862e-02,
-1.79189e-01,-2.16069e-01,-1.58478e-01,-2.31137e-03,-2.76166e-01,5.45251e-01,3.35490e-01,9.25603e-02,-5.52761e-01,-2.06717e-01,8.43053e-05,2.65353e-01,-2.39281e-02,3.68707e-01,-1.34462e-02,-7.64583e-02,-2.11611e-01,-3.24640e-01,-3.77472e-02,-2.32910e-01,-3.38696e-02,-3.12648e-01,-2.49476e-02,-1.68306e-01,-8.49983e-02,-2.30350e-01,2.32152e-02,3.48393e-01,2.46922e-02,5.05544e-02,-1.33145e-02,-9.18802e-02,9.85339e-01,7.40044e-02,2.73624e-01,-8.71844e-02,2.03168e-01,-3.09253e-01,-1.84743e-02,2.36238e-01,-2.78566e-01,2.55269e-01,-2.07594e-01,-3.40112e-01,1.23635e-02,2.25159e-01,-3.19438e-01,-4.71440e-01,6.99142e-01,2.68968e-01,
-1.77887e-01,-9.80480e-01,-1.07546e-01,-3.70880e-01,-2.45996e-01,2.27725e-01,1.92488e-01,-5.95259e-01,-3.86997e-01,6.40267e-01,-2.54855e-02,8.10457e-02,-1.67399e-01,-1.40425e-01,-4.29068e-02,-6.49932e-01,5.51692e-01,-2.31763e-01,-2.55311e-02,1.65173e-01,-1.85726e-01,1.82917e-01,-1.63718e-03,-5.25445e-01,-7.68405e-01,-3.36406e-01,2.39197e-02,3.99022e-01,-3.20928e-01,-4.46698e-03,3.29978e-01,6.96846e-02,-5.00596e-01,1.53810e-01,-1.46906e-01,-1.16251e-01,-2.44005e-01,8.77183e-02,2.36172e-01,3.21335e-01,1.86449e-01,-2.43315e-01,-2.35015e-01,2.28684e-01,-1.04880e-02,1.07263e-01,3.47575e-01,3.67906e-01,2.44585e-01,4.34989e-01,
-1.63432e-01,7.45433e-01,3.38963e-01,-4.91603e-01,-7.98442e-02,-1.29465e-03,3.36646e-01,-2.55526e-01,-1.30355e-01,-3.18084e-01,2.86033e-02,2.62087e-01,2.00627e-01,-9.52645e-03,6.40922e-03,-3.12505e-01,-1.63923e-01,1.88458e-01,-4.90431e-02,-2.33840e-01,8.27392e-02,-4.65768e-01,-2.52141e-02,6.50130e-02,9.74076e-02,3.17997e-01,-1.45866e-02,2.17877e-01,-3.08747e-02,-3.56618e-02,6.07015e-01,1.68417e-01,-2.18088e-01,1.31452e-01,1.78586e-02,-1.72673e-03,2.91869e-01,2.16168e-01,-8.85859e-03,3.24331e-01,-2.11291e-01,3.14033e-01,-5.83871e-01,-6.14576e-01,-3.05882e-03,-4.96709e-01,-5.38021e-01,-5.39188e-01,-4.61694e-01,-2.16762e-01,
4.76798e-02,-7.98550e-02,1.88666e-01,-1.37580e-02,-3.39072e-02,-1.30111e-01,-2.06908e-02,-5.14572e-02,2.23189e-01,-3.30650e-02,1.11172e-02,6.31295e-03,2.74418e-02,2.45769e-02,3.23306e-02,-9.53188e-03,4.61669e-02,1.20776e+00,4.80397e-02,-1.52374e-02,-2.47845e-02,2.54105e-02,3.49187e-02,-2.58953e-02,6.34327e-03,-5.49865e-03,2.06297e-02,2.11343e-02,-1.94350e-01,1.92466e-02,-8.94638e-04,1.82453e-02,-1.22264e+00,-1.06305e-03,-1.46623e-02,3.26965e-02,-2.38023e-03,-4.03516e-02,5.00738e-02,6.00470e-03,7.75271e-03,7.25320e-02,2.11281e-02,-1.98021e-02,1.87344e-02,9.32430e-02,3.33148e-02,-1.45848e-01,-3.47476e-01,-8.68083e-02,
-3.28341e-01,8.32227e-01,-4.82871e-01,1.14243e+00,1.34758e-01,-5.65365e-01,-2.96549e-01,1.44810e-03,-1.03952e+00,-4.72475e-02,2.69930e-02,-7.35719e-02,3.07584e-01,-1.26927e-01,6.43973e-03,3.27325e-02,7.81271e-02,-3.77445e-01,-2.96924e-02,6.85729e-02,-1.25970e-01,6.30832e-02,-3.68031e-02,3.46676e-01,1.40915e-01,1.19572e-01,4.82328e-02,-4.64190e-01,-9.70468e-01,1.01716e-02,1.40176e-01,-1.01337e-02,3.21377e-01,-7.07427e-02,2.91609e-01,-9.99751e-01,3.77330e-01,2.25236e-01,5.09046e-01,-1.59962e-01,-1.29953e-02,1.83476e-01,2.88154e-01,-2.06166e-01,-2.00821e-02,-1.02190e-01,2.50242e-01,6.53269e-01,-8.51752e-01,-6.84580e-02,
4.77976e-01,4.35023e-01,1.37847e-01,-1.65285e-01,5.16009e-01,-2.16139e-01,-6.32399e-01,4.03864e-01,2.57900e-01,-8.94439e-02,-1.13893e-02,-4.56900e-02,1.87212e-01,8.32254e-01,-2.99895e-02,7.70497e-01,-1.97402e-01,2.45995e-01,-4.01696e-02,-1.63599e-01,-2.68113e-01,2.66158e-01,-5.03244e-02,-8.77326e-01,1.16355e-01,-4.66011e-01,4.31149e-02,-1.79700e-01,3.87186e-01,5.97195e-03,2.33821e-01,6.67897e-01,-9.32028e-03,-9.62494e-02,3.76689e-01,9.12249e-01,3.27216e-01,6.17532e-01,8.37517e-01,-2.84197e+00,-1.23662e+00,1.08207e-01,1.52863e-01,-2.67084e-01,-2.09460e-02,-3.10294e-01,1.51599e-01,-9.53165e-04,7.98783e-02,3.49928e-01,
-1.51943e-02,-6.10060e-02,-6.96701e-02,-2.14761e-02,2.46506e-02,-6.05225e-02,-1.20824e-01,9.26500e-03,-1.86739e-02,-2.95964e-02,3.39353e-02,7.78465e-03,-3.83925e-02,2.59130e-02,-2.83805e-02,-1.37805e-02,1.15367e-02,-3.78046e-02,4.52707e-03,-1.32483e-03,-2.78438e-02,-1.86624e-02,-3.11307e-02,2.52645e-02,3.18528e-02,5.93066e-03,4.43071e-02,-6.56561e-02,-4.09683e-02,-1.05304e-02,-1.25282e-02,-1.95750e-02,-3.86923e-02,2.06875e-02,-1.09744e-02,-8.66174e-02,4.10158e-02,3.20942e-02,2.65827e-02,-7.73845e-03,-3.94264e-02,-1.85365e-02,-6.40129e-02,1.59874e-02,-3.47304e-02,4.45954e-03,5.57566e-02,2.02616e-02,-2.49408e-02,-2.25230e-02,
9.29934e-02,1.82997e-01,-1.85675e-01,1.80040e-01,2.62488e-01,-5.61486e-03,-5.68207e-02,-5.34726e-02,1.96307e-01,3.65266e-01,-2.27271e-02,-1.77147e-01,-3.71555e-01,-2.09560e-01,-1.32294e-02,-3.31078e-01,2.52235e-01,5.39199e-01,4.23353e-02,-2.76438e-01,-4.30076e-03,1.52537e-02,2.28483e-02,4.51614e-02,-2.34478e-01,-4.37807e-02,3.81083e-02,-5.16540e-01,1.07738e-01,1.28618e-02,-1.51506e-02,-7.70271e-02,-9.41201e-01,8.93858e-02,2.81726e-01,7.00939e-02,6.94439e-02,-5.56475e-02,1.02376e-01,3.01651e-01,-5.10717e-01,7.91637e-03,8.65689e-02,4.06431e-01,1.89080e-02,-2.21405e-01,5.56096e-01,-3.48072e-01,-4.21818e-01,1.05978e-01,
-3.57441e-01,1.05427e-01,1.54759e-01,-3.83164e-01,1.60654e-01,4.12090e-01,6.34579e-02,9.54226e-02,4.85912e-01,-4.93485e-01,-5.46800e-03,1.69891e-01,1.64051e-01,2.29947e-01,-4.37865e-02,-2.73682e-01,-4.15184e-01,-1.21078e-02,6.60287e-03,4.47443e-02,-4.52734e-01,5.09292e-02,-1.18634e-02,-5.47804e-01,-2.72577e-01,2.18489e-01,3.26286e-02,5.04496e-01,2.87940e-01,4.43322e-02,7.37533e-02,2.95015e-01,-4.95709e-01,-4.83723e-01,-1.69514e-01,4.36898e-01,-4.25496e-02,6.62589e-03,7.92349e-03,-8.40867e-02,-3.68002e-02,1.76448e-01,4.42424e-02,-3.39630e-01,1.98901e-02,2.30908e-02,4.96752e-01,-2.86185e-01,3.16163e-01,1.51710e-02,
5.22387e-01,2.96457e-01,-2.30236e-01,1.41772e+00,-8.75521e-01,1.11535e-01,-2.80503e-01,-4.75621e-01,5.13902e-01,-1.97855e+00,2.61786e-02,-8.25500e-01,-2.89996e-01,3.02005e-01,-1.63474e-02,9.30149e-02,9.35997e-01,-1.50313e-01,-4.81771e-03,7.45193e-03,5.74382e-02,-1.94777e-01,-4.94625e-02,-1.75451e-02,5.14513e-02,-4.19262e-01,4.03737e-02,5.56502e-01,5.11941e-01,-1.71509e-02,-8.12399e-02,-4.51636e-01,-5.00100e-01,4.70039e-01,-5.71804e-02,3.35439e-01,-1.17190e+00,5.52407e-01,-6.75593e-01,-1.20420e+00,2.48045e-01,-2.63694e-01,3.40013e-01,-2.13996e-01,-4.01247e-02,-9.09080e-02,-2.06920e-02,2.29067e-01,4.85474e-02,2.06133e-01,
-4.17031e-01,
5.14170e-02,
-1.92200e-01,
-2.47399e-02,
3.21873e-01,
5.48720e-02,
1.38219e-01,
-8.63862e-03,
2.21917e-01,
2.79427e-01,
-1.24957e-01,
-4.01002e-01,
-5.84683e-03,
-1.96719e-01,
-1.10633e-01,
-5.03530e-01,
-2.78268e-01,
-3.26999e-01,
-4.20536e-01,
-4.99791e-01,
-2.74785e-03,
-5.95558e-01,
-2.47802e-01,
-4.93604e-02,
-2.94870e-01,
1.96781e-02,
-2.26843e-01,
3.23293e-01,
1.60880e-01,
-3.85993e-02,
-2.18260e-01,
2.69466e-01,
1.49888e-01,
-3.32400e-01,
2.42362e-01,
-7.57378e-02,
1.71473e-01,
-8.56460e-02,
-1.25595e-01,
-1.88447e-02,
-1.39528e-01,
2.91113e-01,
-3.87667e-02,
3.17320e-01,
4.04408e-02,
-4.07877e-01,
-4.29780e-02,
1.06694e-01,
1.60088e-01,
7.63025e-02,
-1.11567e+00,-9.24212e-01,-5.21843e-01,2.27815e-02,7.64513e-02,-2.03148e-01,-1.24612e+00,-2.92247e-02,2.85186e-01,-5.49943e-01,-3.53993e-01,8.93334e-02,-1.19135e-01,2.95163e-01,1.64017e-01,9.48537e-02,-2.60037e-01,-7.74066e-02,2.80068e-02,-3.39323e-01,-1.50651e-01,-3.87736e-01,-8.03271e-01,9.69518e-01,1.63560e+00,-1.23767e-01,1.30142e-01,1.63134e-01,-4.93884e-01,4.96601e-01,1.00821e+00,-3.35275e-01,1.91326e-01,-2.22625e+00,1.44244e-01,-2.65619e-01,-4.77522e-01,-4.94592e-01,-2.96343e-01,-3.11291e-02,2.39802e-01,3.08330e-01,4.20629e-01,3.69614e-01,5.89389e-01,5.31853e-01,4.89470e-02,1.09846e-01,-9.27096e-01,5.44055e-02,
-1.21398e-01,-4.05213e-01,2.43292e-01,-2.91933e-02,-8.46766e-01,-8.48348e-01,1.07270e-01,2.85579e-02,-6.63234e-02,1.73819e-01,-2.79849e-01,5.23405e-01,4.59066e-01,2.22627e-01,-5.87101e-01,-4.15797e-01,1.60326e-01,4.23738e-01,-5.63548e-01,2.76248e-01,2.21608e-01,-5.52477e-01,4.54840e-01,4.78620e-01,1.85779e+00,5.31883e-01,2.85567e-01,2.51202e-01,9.00915e-01,4.37710e-01,-2.42935e-01,-6.04633e-01,3.34271e-01,-5.59206e-01,1.62528e-01,-4.88937e-01,-3.74033e-01,-4.78184e-01,1.28886e-01,4.09970e-02,-1.62754e-01,-3.15690e-01,1.48650e-01,-1.15924e-01,3.02817e-01,-2.59453e-03,-8.07253e-02,3.97528e-01,-7.81536e-02,-3.25635e-01,
2.55425e-01,-3.55206e-01,1.51044e-02,7.63654e-03,-5.17180e-02,-1.62266e+00,6.34553e-01,-2.84366e-02,-1.31429e-01,-5.91994e-01,-5.46932e-01,3.87979e-01,-3.61329e-01,-2.88896e-02,-2.93802e+00,4.18793e-01,-4.52500e-02,4.39512e-01,2.89494e-01,2.84206e-01,-1.25437e-01,-1.94042e-01,2.62179e-02,2.59380e-01,8.98908e-01,7.93319e-01,-2.75876e-01,-2.06893e-01,2.14000e-01,-1.11874e-01,-2.37687e-01,3.55220e-01,-2.06831e+00,5.45592e-01,-1.69492e-01,3.13242e-01,4.69998e-01,1.07606e-01,-3.93670e-01,-3.77803e-02,-1.67377e-01,-5.10825e-01,-1.95352e-01,-2.65110e-01,3.04763e-01,-1.77925e-01,-1.15062e-02,-2.06122e-01,-1.28326e+00,1.42709e-01,
-4.94632e-01,8.86792e-02,2.22514e-01,-6.78392e-03,2.41130e-01,1.74253e-01,1.95138e-01,4.27811e-02,1.08037e-01,7.58411e-02,1.60755e-01,2.62804e-02,1.77720e-01,-1.80412e-01,3.75061e-01,-2.29299e-01,4.19912e-01,-2.41623e-01,-2.03776e-01,-9.92466e-02,1.92170e-01,1.56305e-01,1.94137e-01,2.51946e-01,2.31254e-01,9.23889e-02,-1.09476e-01,-7.27731e-02,5.29633e-01,4.54843e-01,-5.81660e-02,-4.29165e-01,6.11807e-02,1.75833e-01,-5.52312e-02,-5.44182e-01,7.59868e-03,-1.93684e-01,-1.91578e-01,-1.36793e-02,-2.01815e-01,-3.52115e-01,1.44773e-02,7.21098e-02,2.07385e-01,4.00212e-01,-6.53733e-03,2.92058e-02,-5.30678e-01,-1.26289e-01,
-1.23671e-01,5.93692e-02,2.19429e-01,4.84106e-04,1.98410e-01,-1.71474e-01,3.39243e-01,-1.74492e-02,1.98590e-01,2.00463e-01,-2.01564e-01,-1.09559e-01,1.27481e-01,-2.37207e-01,-6.25115e-01,1.31574e-01,-1.51541e-01,1.29752e-01,-1.77211e-01,-6.10406e-02,3.01906e-02,7.09891e-02,-1.13608e-01,1.66593e-01,3.35765e-02,-2.71121e-02,-1.27799e-01,1.44837e-01,3.16226e-01,9.76514e-02,1.75583e-01,-1.71404e-01,-8.29943e-01,-2.62929e-01,1.03182e-01,-9.54430e-03,8.70804e-02,-4.35628e-02,-2.08591e-02,4.19614e-02,1.66378e-01,-2.06254e-01,3.54959e-02,-6.04763e+00,1.88662e-01,-3.17443e-01,4.81589e-02,-7.32466e-01,-7.92451e-01,4.08546e-02,
4.39142e-02,4.57776e-01,-4.03575e-01,-4.21451e-02,-8.30567e-01,-3.28795e-01,6.33211e-01,3.60620e-02,-3.37264e-01,-2.83839e-01,-1.10316e-01,5.86629e-01,4.65985e-01,-7.00001e-02,2.18306e-01,8.76120e-02,-2.32160e-01,4.27661e-01,-4.19533e-01,4.76555e-01,3.35786e-01,-2.34405e-01,1.08422e+00,-1.14365e+00,-3.36440e-01,5.90000e-02,-1.17790e-01,-1.50581e-01,-5.91480e-03,5.21717e-01,-3.72696e-01,3.58526e-01,-3.21948e-01,-7.07722e-02,5.27586e-01,1.02242e+00,8.17639e-01,-1.96048e-01,3.36367e-02,2.53570e-02,3.32608e-01,-2.11034e-01,-8.82542e-01,5.07906e-01,-2.14869e-01,-5.93972e-01,6.15500e-02,2.15660e-01,4.87248e-01,5.06511e-01,
-1.96197e-01,-4.77503e-01,8.22844e-01,-6.75142e-03,2.93359e-01,3.75655e-01,9.07102e-02,-6.49922e-03,8.82188e-01,-1.16894e+00,-4.54953e-01,-8.66051e-02,-5.24841e-02,-4.85809e-01,-3.88264e-01,-2.22895e-01,-4.15524e-01,-6.51931e-01,4.65750e-01,-5.07028e-01,-1.03907e-01,3.90589e-01,-4.51621e-01,6.01997e-01,-1.16505e+00,-2.98286e-01,5.24040e-01,3.36203e-01,-1.66093e-01,-3.47155e-01,2.77545e-01,-4.44056e-01,-3.26273e-01,-1.48700e+00,1.31606e-01,-5.62101e-01,4.16793e-01,-6.42685e-01,7.30439e-01,2.10237e-02,-6.17721e-01,-1.11674e-01,-3.71215e-01,-6.65113e-02,-9.50708e-02,2.20543e-01,-3.57200e-02,2.26073e-01,9.52006e-01,-9.29131e-01,
-1.30345e-01,7.73796e-02,-4.76403e-01,-4.74694e-03,-3.39420e-01,3.65162e-01,2.79881e-01,-4.76450e-02,2.52139e-02,-2.54133e-01,-1.97754e-02,2.43903e-01,-1.62352e-01,-2.55565e-02,2.45448e-01,1.52969e-01,1.42135e-01,1.71417e-02,5.28602e-01,-2.60430e-01,-2.46383e-01,-3.05350e-01,2.01081e-01,-1.49838e-02,-8.68708e-01,1.53707e-01,-8.01945e-02,-2.72812e-01,-3.09842e-01,2.95233e-01,-4.93541e-01,-2.30601e-01,2.18440e-01,-5.18231e-02,-1.59079e-01,1.15801e+00,4.17384e-01,-1.32471e-01,8.55145e-02,1.56245e-02,2.03246e-01,-1.02070e-01,2.15027e-01,3.41278e-01,3.99532e-01,-2.55984e-01,1.79502e-02,3.75734e-02,3.98237e-01,3.59204e-01,
-8.57481e-02,1.12731e-01,1.26032e+00,-3.50801e-02,-4.52174e-01,-3.74379e-01,-1.36836e+00,3.91893e-02,5.88924e-02,2.12326e-01,-1.55265e-02,1.34919e-01,-1.13811e-01,-2.00170e-01,2.87844e-01,-5.87456e-01,-4.93018e-01,-6.66098e-02,-4.91992e-01,1.69261e-01,4.04585e-01,3.35834e-01,5.81398e-02,-1.33473e-01,-1.96355e+00,-2.06173e-01,3.52611e-01,2.83613e-01,-1.69130e-01,5.28938e-01,-2.22013e-01,3.03796e-01,-2.14681e-01,-1.23502e+00,-1.44227e-01,-3.41773e-01,-1.51190e+00,4.83625e-01,-1.38020e-01,2.30922e-03,6.23650e-01,-1.10593e-01,4.72171e-01,2.95614e-01,7.20733e-01,-3.59730e-01,2.81176e-02,1.92236e-01,3.97159e-01,-2.42618e+00,
2.94134e-01,-6.05437e-01,-1.26344e+00,1.81155e-03,2.20510e-01,4.57710e-01,-4.67186e-01,6.09080e-03,-1.19618e+00,1.58666e+00,-2.94018e-01,4.44002e-01,-1.07853e+00,2.42525e-01,-9.04002e-02,-7.90756e-01,3.30998e-01,-9.58550e-01,7.82308e-01,-5.21091e-01,5.09947e-01,1.57935e-01,7.41213e-02,1.17230e-01,-2.70925e+00,-6.53048e-02,4.87267e-01,4.19018e-02,1.88372e-01,-3.54558e-01,4.00635e-01,-8.38776e-02,2.12306e-01,-4.19835e+00,-4.22851e-01,-2.03731e-01,-1.15743e+00,-9.15899e-02,-3.28834e-01,4.82550e-02,2.91295e-01,-5.08761e-01,7.93955e-01,9.55291e-02,1.46480e+00,2.78590e-01,-3.41672e-02,4.69431e-02,1.00388e+00,-1.47555e+00,
9.92311e-02,-4.30119e-01,4.00532e-01,-2.15080e-02,-1.81724e-01,5.24186e-01,-1.95552e+00,-4.29011e-02,-6.46122e-01,7.31995e-01,-9.89886e-02,2.80977e-02,-2.23529e-01,-4.40443e-01,4.02140e-01,2.27227e-01,-6.84514e-02,6.87112e-01,-1.16769e-01,3.33780e-01,-6.84431e-01,-1.82480e-01,-2.42685e-02,-7.09660e-02,-1.70404e+00,-1.65616e-01,5.30172e-01,-5.13608e-01,-3.28224e-01,1.08718e+00,-1.74357e-01,2.36505e-01,3.54532e-02,4.99236e-01,4.81011e-01,8.87683e-02,-5.63760e-01,-3.15205e-02,8.20664e-01,1.00333e-02,-3.54314e-01,-1.07670e-01,-6.21159e-01,2.36161e-01,-1.54689e-01,9.34734e-01,-3.76384e-02,-9.46203e-02,4.03938e-01,-1.42391e-01,
5.30766e-03,-3.13663e-02,2.24259e-02,-2.70091e-02,-5.83437e-02,-3.15552e-02,1.62828e-02,-2.22532e-02,-4.02215e-02,3.22572e-02,-2.21375e-02,-2.58162e-02,-3.46684e-02,1.92582e-02,-3.92662e-02,-6.67929e-03,-1.07336e-02,-3.60657e-02,-1.57104e-03,-3.56055e-02,3.59536e-03,-2.68798e-02,2.01882e-02,-1.28641e-02,1.68314e-03,1.51714e-02,-2.74612e-03,-4.28810e-02,-3.12671e-02,1.09672e-02,-4.92148e-02,1.51370e-02,2.05830e-02,1.08023e-02,-5.84262e-02,3.21021e-02,-4.18656e-02,3.24012e-02,2.24548e-02,3.43768e-02,-1.16288e-02,-6.70756e-03,-2.66617e-02,-2.78192e-02,3.88113e-02,-4.54156e-02,-2.67391e-03,3.68645e-02,2.37064e-02,4.03912e-02,
3.39118e-01,1.83402e-02,-4.89585e-01,-4.19239e-02,-4.73584e-01,-1.48388e-02,1.41149e-01,4.70031e-03,-3.36467e-02,-3.96394e-01,2.03203e-01,-8.36357e-02,-3.25239e-01,8.23721e-02,6.89408e-02,3.07728e-01,-1.47494e-01,1.49991e-01,2.46180e-02,9.15558e-02,4.64940e-02,1.09234e-01,-3.82622e-02,-2.65606e-01,2.04218e-01,3.39609e-02,9.42121e-02,1.34660e-01,2.04907e-02,3.18411e-02,-5.04779e-01,-8.97111e-02,-2.38153e-01,-5.15390e-02,-6.28376e-02,8.45364e-01,-2.20498e-01,-2.67841e-02,2.24881e-01,1.51421e-02,1.54215e-01,-2.75692e-01,-3.34627e-02,2.11252e-01,2.99785e-01,-1.31455e-01,-2.66297e-02,3.03420e-01,-3.70618e-02,-1.35227e-01,
6.70996e-01,-3.61570e-01,-1.70640e-01,-1.24308e-02,6.92815e-02,-7.92737e-01,1.46476e-01,-1.63885e-02,-3.18385e-02,6.65039e-02,1.34378e-01,2.87822e-04,3.34083e-01,-1.53928e-01,1.71328e-01,-2.16515e-01,-6.00592e-02,-2.82543e-01,2.24742e-01,3.65594e-01,-1.73135e-02,2.20939e-01,-1.44765e-01,1.15874e-01,4.78452e-01,7.41812e-02,-1.68615e-01,-1.76403e-01,-2.08137e-01,-8.60884e-02,-2.14358e-01,-1.57084e-01,-1.95178e-01,6.74045e-02,-5.13446e-01,-1.05423e+00,5.51406e-01,2.30596e-01,-1.94927e-01,-3.18562e-02,-2.20516e-01,-6.11523e-02,-4.44286e-01,-2.85871e-01,1.63808e-01,-3.73794e-01,2.31277e-02,-4.17784e-01,-1.53443e-01,6.25152e-02,
3.15369e-01,2.58945e-01,2.98826e-01,-3.66406e-02,-1.56253e-01,-8.00468e-02,5.53757e-01,3.50265e-02,5.87143e-01,-3.18013e-01,1.57610e-01,3.17995e-01,4.77294e-01,-2.38895e-01,-2.40146e-01,-2.60970e-01,-2.05946e-01,2.90420e-01,6.81110e-01,-3.34067e-02,1.62485e-01,-4.59865e-02,1.68890e-01,3.90310e-01,-1.09384e+00,-1.18100e-01,3.76934e-01,-1.88790e-01,1.99212e-02,-2.77120e-01,4.55223e-01,7.41571e-01,5.68289e-01,-8.41637e-01,1.82829e-02,7.48049e-02,3.29404e-01,-2.02272e-01,3.72856e-02,5.51399e-02,1.58213e-01,5.11789e-01,-1.13669e-01,-7.42227e-02,7.27784e-01,3.87894e-01,-6.79783e-03,8.10932e-03,5.52982e-02,-3.49720e-01,
2.57612e-02,1.02117e-01,-1.77412e-02,-8.51839e-03,-8.84402e-02,-5.89878e-02,-2.23386e-01,-2.28069e-02,3.62796e-02,-1.19463e+00,3.35699e-01,2.01106e-01,-1.01173e-01,-3.69607e-01,1.27600e-01,-4.37630e-02,2.33779e-02,4.93595e-01,-1.90983e-01,1.02263e-01,9.84130e-02,-2.87753e-03,2.28583e-01,6.25524e-02,2.65456e-01,8.21076e-02,5.18178e-02,-2.42836e-02,-1.07747e+00,1.89771e-01,-6.39690e-01,4.39085e-01,-1.87219e-01,2.45317e-01,2.69395e-01,-1.83900e-01,1.21465e-01,-1.08769e-01,1.41138e-01,2.94475e-02,4.00257e-02,-5.17849e-02,-2.58029e-01,1.27141e-01,2.07323e-01,1.13533e-01,3.34365e-02,-3.77002e-02,5.34573e-02,-2.01602e-01,
-6.79130e-02,-3.37798e-02,-3.09778e-01,7.69990e-03,-4.90301e-01,-9.04862e-02,-3.24393e-01,1.03741e-02,-4.66168e-02,-7.38128e-02,-2.33949e-01,-4.00249e-01,1.74057e-01,-2.28602e-01,2.70302e-01,-5.59199e-01,-1.47493e-01,6.70744e-01,1.27142e+00,-4.74928e-01,3.46460e-02,2.43865e-02,-3.18798e-01,-3.12373e-02,7.25370e-01,-1.60079e-01,-7.69810e-01,-1.19881e-01,7.02632e-02,2.28940e-01,6.24298e-02,2.58592e-01,-2.80096e-03,3.54854e-01,2.78854e-01,1.00922e+00,9.02725e-02,5.58783e-02,3.14614e-02,2.87519e-03,-1.82454e-01,5.54078e-01,-1.26920e-01,3.00177e-01,4.98812e-01,-1.37050e-02,1.52419e-02,2.82353e-01,2.33212e-01,1.00237e-01,
-8.35135e-02,-2.70230e-01,2.92498e-01,5.23765e-02,-8.76994e-02,2.34577e-01,1.41944e-01,-9.63748e-03,4.13359e-02,-1.31069e-01,1.72883e-01,2.77707e-01,4.06533e-02,1.52126e-01,7.95891e-02,-1.51782e-01,3.14976e-01,2.90340e-02,5.57340e-01,4.86708e-02,-1.53112e-01,1.46776e-01,1.37053e-01,1.72124e-01,-4.73189e-01,-1.19783e-01,-2.59036e-01,-5.84669e-02,-2.15974e-01,1.33986e-01,1.85198e-01,1.21422e-01,2.16538e-01,2.37495e-01,1.06173e-01,4.27234e-01,6.80166e-03,5.95076e-02,-3.80620e-01,-2.35432e-03,3.72359e-01,-2.29928e-01,1.95950e-01,1.64200e-01,2.46757e-01,2.14199e-01,-2.38978e-02,-1.75029e-01,2.85086e-01,-2.30339e-02,
1.78293e-01,7.57313e-02,5.99677e-01,4.54307e-02,-2.44656e-01,3.48994e-01,-6.63720e-01,-5.29814e-03,-7.95188e-01,4.40051e-01,-2.65932e-01,4.97720e-02,-5.87911e-01,-1.61196e-01,-1.72279e-01,2.66236e-01,5.09076e-02,2.08650e-01,2.49120e-01,1.54715e-01,4.15063e-01,3.61905e-01,-2.24261e-01,3.68756e-01,-1.97308e-01,-1.10745e-01,-1.16119e-01,-5.10365e-02,-2.52066e-01,-1.05333e-01,-8.79689e-01,-7.79439e-01,2.21546e-01,-1.79288e-01,2.69265e-01,8.18491e-02,-1.02885e+00,2.71979e-01,-7.51955e-02,2.44488e-02,1.46812e+00,3.99909e-02,3.43637e-01,5.65080e-01,-1.28389e+00,-5.28213e-02,3.15673e-02,5.00070e-01,2.54222e-01,-1.13924e+00,
-1.33258e-01,3.18447e-01,-4.28396e-01,2.38298e-02,2.94107e-01,1.95813e-01,1.74555e-01,3.30678e-02,1.64681e-01,4.18133e-02,-9.55831e-02,-2.90655e-01,6.26053e-02,6.79066e-02,-8.50193e-02,-2.97022e-01,-8.70182e-03,-4.52933e-01,4.23838e-02,-1.04612e-01,1.54484e-01,5.56516e-02,-2.34872e-01,1.93896e-01,-1.40509e-01,-9.52591e-02,6.07357e-02,-3.19198e-02,1.44843e-01,-5.15422e-01,2.12072e-01,4.19848e-01,7.56576e-02,3.05646e-01,2.71110e-02,-4.04547e-01,6.56436e-02,-6.33197e-02,-1.90582e-01,5.14050e-02,1.11726e-01,2.88329e-01,1.54190e-01,-5.70785e-01,-8.95338e-02,2.28742e-01,3.07699e-02,-1.37907e-01,-5.64132e-02,6.61509e-03,
2.48670e-01,1.84436e-01,-6.58575e-01,-2.64567e-02,-7.63518e-01,7.58345e-01,6.18636e-02,-2.31029e-02,-1.17159e-01,-3.34853e+00,2.68928e-01,-2.82217e-01,1.46747e-02,-3.70348e+00,3.86696e-02,-2.13821e+00,1.00974e-01,8.19138e-01,4.92749e-01,-4.86539e-01,-2.22376e-01,4.56159e-01,5.88569e-01,3.78613e-01,4.54563e-01,2.18674e-01,-2.58894e-01,2.30965e-01,3.31267e-01,3.79396e-01,-3.01061e+00,9.40980e-01,3.86678e-01,-1.11798e+00,-3.59612e-01,-5.41144e-01,-3.75493e-02,-2.20249e-02,-3.80892e+00,-3.30908e-02,2.04541e-01,1.17877e-02,2.60062e-01,6.61999e-02,-7.86393e-01,-5.96338e-01,5.91316e-02,-3.92301e-03,-1.87846e+00,1.76156e-01,
-1.66167e-01,1.91057e-01,-3.01647e-01,-7.77869e-03,-3.97186e-01,-2.14605e-01,-1.08665e-01,-4.16353e-02,-2.11711e-01,3.03263e-01,1.61531e-01,5.90021e-01,1.43770e-01,-9.95274e-02,-2.13868e-01,-3.59632e-01,1.92818e-01,1.36675e-01,8.82288e-01,2.49041e-01,3.65008e-01,-2.85573e-01,5.00172e-01,-4.05599e-02,2.92725e-01,9.23114e-02,-3.14210e-01,-2.87837e-02,-2.39874e-01,1.36721e-01,-1.19426e-01,5.33723e-02,4.21272e-01,1.04842e-02,5.49217e-01,5.64992e-03,-1.70276e-01,-3.67338e-01,-6.86154e-03,-1.40322e-02,-7.26686e-02,1.36904e-01,1.83317e-01,-8.22562e-02,4.78450e-01,-1.81569e+00,-2.76924e-02,-3.91128e-01,2.34765e-01,-2.42392e-02,
-3.71604e-01,-1.36710e-01,-9.08167e-01,-3.10290e-02,-1.09554e-02,-2.26855e-01,-3.35686e-01,-4.10026e-02,-1.29539e+00,-9.71212e-02,3.20904e-01,5.46383e-02,-7.75378e-01,4.96124e-01,-3.83545e-01,-3.92832e-01,1.86564e-02,8.26111e-02,-9.97430e-01,8.93940e-01,3.03680e-01,-4.10970e-01,1.90913e-01,-4.67783e-01,1.14452e+00,9.34749e-02,-6.04779e-01,6.51228e-02,4.55566e-02,-3.47253e-02,-5.08444e-01,7.85607e-02,-5.06809e-02,1.07685e+00,-2.13968e-01,2.10745e-01,-9.05229e-01,1.24339e-01,-1.09930e+00,-3.98935e-02,-5.14367e-01,1.94160e-02,1.73690e-02,3.08619e-01,7.46934e-01,-7.37938e-02,1.41961e-02,-3.35049e-01,-1.01969e+00,6.37405e-01,
5.48709e-02,-6.73731e-02,2.39655e-01,7.90127e-03,-1.08436e-01,-6.47922e-01,2.76205e-01,-1.75978e-02,-5.08213e-02,-2.38456e-01,-7.14688e-01,1.53290e-01,2.72853e-01,-2.10426e-01,8.73560e-01,-4.10298e-01,-2.85917e-01,7.37193e-01,-5.75498e-01,1.53224e-01,2.69487e-01,-3.44167e-01,-3.28988e-01,-7.11287e-02,1.81086e-01,-1.28136e-01,1.12304e-01,2.24696e-01,7.46738e-02,-1.37312e-01,5.77555e-01,-1.74616e-02,2.79575e-01,-4.31497e-01,6.26356e-01,2.84565e-01,5.41628e-01,-9.96689e-02,9.44674e-02,-5.60005e-02,-4.88009e-01,-2.48924e-01,-2.69006e-01,1.75203e-01,-7.13184e-02,1.46688e-01,-5.66741e-02,-2.87847e-01,-1.87157e-02,-4.49965e-01,
-4.34099e-02,3.49426e-01,-1.07648e+00,-4.06116e-02,-1.76856e-01,-2.81570e-02,5.00907e-01,2.00546e-02,-9.97694e-01,-8.13256e-02,-1.65555e-01,-3.88194e-01,-5.21065e-01,1.10553e+00,-1.52662e-01,1.53275e-01,-1.50636e-01,-3.29665e-01,-1.16703e+00,8.45231e-01,5.45270e-01,-5.53128e-01,3.47943e-02,-4.19831e-01,9.62291e-01,-8.33603e-02,-6.29453e-01,1.53768e-02,9.34452e-02,-2.02004e-01,-2.14424e-01,-8.52804e-02,5.93292e-02,9.41564e-01,9.64312e-02,5.73978e-01,-9.82898e-01,3.70974e-01,-9.23479e-01,2.41428e-02,-8.43825e-01,-2.08564e-01,1.18930e-01,2.69970e-01,8.14475e-01,-3.88304e-01,2.46233e-02,-5.33935e-02,-9.19801e-01,7.43091e-01,
4.07405e-01,5.14136e-01,-3.70975e-01,-1.74272e-02,-1.46072e-01,6.10216e-02,6.58489e-02,-1.69842e-02,4.29152e-01,3.90887e-01,5.34865e-01,-3.30813e-01,-1.23444e-01,1.03521e-02,4.92153e-01,-6.63076e-01,-4.02602e-01,1.70591e-01,-2.17547e-01,6.42494e-03,2.66934e-01,-2.95711e-02,-4.32666e-01,1.12844e-01,2.92608e-01,-2.84256e-01,-6.74895e-03,3.40233e-02,-7.54906e-02,2.40362e-01,3.13551e-01,4.14655e-02,2.46827e-01,1.07979e-01,-3.33002e-02,7.03030e-01,-2.54844e-01,4.12440e-02,3.25466e-02,4.92028e-02,-2.46598e-01,2.58838e-02,2.17350e-02,-2.56647e-01,2.33642e-01,-2.37672e-01,3.42247e-02,4.87823e-02,3.75481e-01,2.85747e-01,
1.54144e-01,-1.34453e-02,1.51586e-01,2.33927e-02,1.83418e-01,-3.83140e-01,-5.03427e-02,1.17836e-02,-1.52767e-01,-1.84202e-02,-2.74787e-01,8.73877e-02,-3.85001e-01,1.15905e-01,-9.50918e-02,-6.16893e-02,-5.87760e-01,1.30473e-01,1.21154e-01,-9.39388e-02,-2.94899e-01,-5.59934e-02,-3.07793e-01,-1.67408e-01,-4.07239e-01,-2.49459e-02,1.42098e-01,-7.62738e-02,-1.68796e-01,-5.59908e-01,1.02743e-01,3.31334e-01,1.47371e-01,-7.30157e-03,-4.20690e-01,-1.66093e-01,1.44434e-01,-4.52718e-02,1.64271e-01,2.86586e-02,1.40985e-01,5.02816e-01,3.36067e-02,-2.51126e-01,6.62955e-03,-5.36153e-01,-5.35927e-02,-3.83201e-01,1.46336e-01,2.72374e-02,
-1.03797e-01,-8.28939e-02,-8.15057e-02,8.58820e-03,-5.90020e-04,7.64761e-01,4.61024e-01,3.85594e-02,-2.24413e-01,-1.55540e-01,3.55425e-01,2.10901e-01,6.57377e-01,1.38499e-01,-3.92327e-01,-5.16517e-01,5.13034e-03,1.41022e-01,6.61295e-02,6.23628e-02,-2.57312e-01,7.54663e-02,-3.20901e-01,-1.41474e-01,-1.61463e+00,1.00161e+00,-2.38690e-02,8.80138e-02,-2.18015e-01,-9.48722e-01,-5.80404e-02,-7.87043e-02,4.13612e-01,-3.88459e-01,2.38599e-01,4.70575e-01,5.65274e-02,-1.08757e-01,-7.81622e-02,-3.05494e-02,8.49811e-01,4.43795e-01,-4.71077e-01,-1.38403e-01,-3.07763e+00,-3.68492e-01,2.79097e-02,2.21814e-01,1.35782e-01,-1.28008e-01,
3.25807e-01,-2.39028e-01,-2.67763e-01,1.41379e-02,-1.07799e-01,1.98286e-01,3.10476e-01,5.00755e-02,-2.64470e-01,-1.84950e-01,-9.88720e-02,2.08869e-01,-3.28913e-01,-6.88020e-02,4.96011e-01,-4.03633e-01,1.98940e-01,8.45222e-02,-5.93487e-01,1.65431e-01,3.57553e-01,-1.08011e+00,3.84915e-02,-4.02015e-01,-2.65499e+00,3.35600e-01,-2.15595e-01,-3.07639e-01,2.28327e-01,4.96817e-01,-5.67021e-01,-4.48025e-01,1.75359e-01,-2.25546e-01,3.35600e-01,-1.36353e-01,-1.77634e-01,-3.56594e-02,1.42982e-01,-1.41246e-02,-4.07267e-01,-1.44282e-02,9.85561e-02,1.87984e-01,3.49906e-01,1.61637e-02,-2.08952e-02,3.54715e-01,-4.00387e-01,1.87371e-01,
-2.91874e-01,8.17463e-02,5.09188e-02,-2.18625e-02,4.43103e-02,-1.19479e-01,-2.72245e-02,2.86251e-02,5.32480e-02,3.97283e-01,6.50742e-03,-6.49618e-02,-1.78130e-01,-1.69145e-02,2.65213e-01,-1.00093e-01,-6.23344e-03,1.43480e-01,-8.98817e-02,6.23432e-02,2.97975e-01,-1.18240e-02,-2.12266e-01,9.29677e-02,2.90293e-01,-1.69038e-01,5.29603e-02,-9.29691e-02,1.52188e-01,-1.59369e-01,1.18847e-02,1.98817e-02,-3.63224e-01,5.35729e-02,3.62769e-01,4.33863e-01,1.72061e-01,1.65209e-01,2.50466e-02,-5.34219e-02,-1.07437e-01,-3.49692e-01,2.13878e-01,-2.60226e-01,-4.02445e-01,-2.30272e-01,5.51910e-02,-2.77802e-01,1.27434e-01,1.84189e-01,
6.80158e-02,-1.65352e-01,5.95142e-01,-3.59383e-03,2.33284e-01,-8.52028e-01,-4.08278e-02,3.19116e-02,8.87319e-02,-1.30435e-01,-3.28925e-01,4.36514e-01,9.54326e-02,-4.91327e-01,7.52771e-03,-4.47455e-02,4.55716e-02,5.21730e-01,-2.04971e-01,2.91122e-02,-4.02362e-02,4.84851e-02,-3.03023e-02,-2.27562e-01,-1.97022e-01,1.40558e-01,-9.95859e-02,-1.39973e-01,3.15773e-01,-1.63172e-01,4.25214e-01,-7.09791e-01,-7.02719e-01,-6.30197e-01,7.88549e-02,-4.93638e-01,4.23548e-01,1.62756e-02,1.15934e-01,9.68816e-03,-6.22968e-01,1.43751e-02,4.07246e-01,-2.22195e-01,2.20347e-01,1.04697e-02,3.85991e-02,-3.41979e-01,-5.62181e-02,1.84402e-01,
-2.61607e-01,-4.15022e-01,2.45252e-02,1.80553e-02,3.97072e-02,5.34731e-01,4.49080e-01,-4.84330e-02,-1.71968e-01,-2.22366e+00,3.89874e-01,-4.72414e-01,-2.19399e-01,-2.33301e-01,-1.11862e-01,1.60169e-01,7.66099e-03,-5.69483e-01,-5.13602e-01,2.42542e-01,-1.88972e-01,-3.09639e-01,-1.95103e-01,1.10915e-02,-5.24393e+00,-1.00947e-01,1.37619e-01,3.17559e-02,1.36710e-01,2.57832e-01,-1.46744e+00,2.00896e-01,4.99729e-01,9.76045e-01,1.47804e-02,2.18345e+00,-1.21433e+00,2.57452e-01,-2.12999e-01,-4.44280e-02,7.71251e-02,-8.68100e-01,-3.60239e-01,8.15407e-01,9.34429e-01,-5.82602e-01,5.69461e-02,4.17861e-02,-2.57175e-03,1.20593e-01,
1.25750e-01,2.16469e-01,-1.09633e+00,1.27066e-02,5.26502e-02,-1.65158e-01,-1.41702e-01,-3.20104e-02,-5.64955e-01,3.72840e-01,-2.64064e-01,-3.46648e-01,-2.83131e-01,4.24100e-01,1.13477e-01,-3.77386e-02,-2.59574e-01,2.52005e-01,-5.80880e-01,5.95095e-01,2.76125e-01,-5.75305e-01,1.84920e-01,-2.13546e-01,4.63659e-01,2.51885e-02,-4.94345e-01,-3.99306e-02,1.78579e-01,3.54284e-01,-1.76448e-01,9.05205e-02,-2.17903e-02,9.02687e-01,-9.34694e-02,2.83830e-01,-4.51442e-01,4.17910e-01,-1.04768e+00,4.97602e-02,2.05594e-01,3.24426e-02,-4.17287e-01,3.88699e-02,-4.03433e-01,-4.54814e-01,-1.56190e-02,6.20900e-03,-7.99873e-01,9.41713e-01,
-1.58205e-01,2.24026e-01,-4.58511e-01,4.78135e-02,3.71571e-01,-9.79367e-03,1.07193e-01,-1.96049e-02,8.44559e-01,5.15815e-01,1.14647e-01,-8.55111e-01,1.56286e-01,2.10481e-01,2.33523e-01,-5.24804e-01,9.15196e-02,-5.86710e-01,-2.76729e-01,-2.90316e-01,2.93296e-01,3.92116e-01,-3.25336e-01,5.73310e-01,-6.92417e-02,-2.52277e-01,6.97107e-02,2.24869e-01,3.21296e-01,1.57833e-01,4.83510e-01,1.60590e-01,-2.90916e-01,1.29555e-01,-6.20460e-02,4.27571e-02,3.35707e-01,-3.67443e-01,-2.94728e-01,-3.44835e-02,1.29243e-01,-7.29393e-01,2.80763e-01,6.68982e-01,4.04265e-01,-1.60912e-01,-3.72068e-02,3.84863e-01,-2.04356e-01,1.61771e-01,
-9.88838e-03,-4.83183e-02,-1.28672e-02,1.93328e-02,-4.75255e-02,1.49405e-02,-3.07330e-02,4.34067e-02,-1.30028e-02,-3.81377e-02,3.82285e-02,1.65445e-02,-5.34618e-02,-4.46895e-02,3.12904e-02,1.96066e-02,-1.28241e-02,-3.51584e-02,-2.14158e-02,1.43426e-02,2.21579e-02,1.38044e-02,-1.96467e-02,4.24343e-02,-1.25905e-02,2.85525e-02,-3.70617e-03,-2.38977e-02,8.62495e-03,2.27053e-02,-2.58692e-02,-1.12635e-03,2.65555e-03,-1.79285e-03,-3.43519e-02,1.27990e-02,-2.79352e-02,-2.69281e-02,-3.17992e-02,-3.94214e-02,-3.15397e-02,-5.59445e-02,-8.92285e-03,-2.12396e-02,-1.38644e-02,-3.46668e-02,-2.98142e-03,2.50683e-02,-3.06751e-02,-4.64686e-02,
-1.79499e-01,-4.68659e-02,-1.16925e-01,5.39063e-02,7.36181e-01,3.72923e-02,2.83603e-01,3.69406e-02,4.26412e-01,1.76974e-01,9.04055e-02,-5.77990e-01,4.34188e-01,8.16559e-02,3.78253e-01,1.11309e-01,-1.79792e-01,-2.71029e-01,-4.81402e-02,-4.11723e-01,8.19556e-02,1.76582e-01,-2.72028e-01,4.31197e-01,1.09346e+00,2.85289e-03,8.01196e-02,-8.73081e-02,4.97201e-01,1.92878e-01,-6.09350e-03,2.14003e-01,-2.34542e-01,-2.27970e-01,3.28237e-01,-8.49555e-02,3.39725e-02,9.09318e-03,-1.17619e-01,-2.93268e-02,3.15902e-01,2.51872e-01,2.60018e-01,7.34776e-01,-3.13002e-01,4.16550e-01,-8.34513e-03,4.75969e-01,-3.03299e-01,-1.35963e-02,
-2.22943e-01,3.00067e-01,-1.57766e-01,3.93109e-02,-2.50445e-01,-1.71459e-01,-2.96109e-01,2.21599e-02,-8.97602e-01,6.04786e-02,5.02512e-01,2.43823e-01,-1.75904e-01,-3.51397e-01,3.35492e-01,-4.58670e-02,4.41709e-01,2.74682e-01,2.17969e-01,1.48740e-01,-1.38318e-01,-3.70593e-01,-6.72220e-01,4.05460e-02,-1.18530e-01,1.58594e-01,-4.97386e-01,-2.19300e-01,2.83762e-01,5.91541e-01,-4.86088e-01,-3.85581e-01,5.54908e-01,-7.63945e-01,3.22823e-01,2.81891e-01,3.41244e-02,-1.49771e-01,1.27374e-01,-3.08673e-02,8.82055e-01,-1.13486e-01,-1.22216e-01,5.25582e-01,8.81858e-01,-1.01763e-01,-2.10686e-02,1.18207e-01,-8.08997e-01,7.05775e-02,
1.97196e-01,-6.47173e-02,-8.68032e-03,2.48925e-02,1.03314e-01,3.27506e-01,-1.61635e-01,1.96318e-02,-1.35924e-02,-6.71925e-01,-3.39518e-01,2.17910e-01,5.44303e-02,1.27107e-01,-3.92956e-01,1.13989e-01,-3.09561e-01,-5.26905e-02,-7.29009e-02,-1.49146e-02,-6.87291e-02,-1.65615e-01,3.05981e-01,-2.43883e-01,-4.03958e-01,2.95377e-01,-3.64800e-02,2.42885e-02,5.25839e-03,-3.11460e-01,2.02306e-01,5.60228e-01,-2.90545e-01,2.81651e-01,-1.77661e-01,-4.50698e-01,2.10752e-01,1.46855e-01,1.05022e-02,-3.76710e-02,-4.01075e-02,5.39746e-02,-7.51715e-02,-1.99247e+00,-4.50967e-01,5.74913e-01,-7.72326e-02,-6.76102e-01,-4.12128e-02,-4.63311e-02,
3.09505e-02,-4.65185e-03,2.77806e-03,1.93530e-02,-2.63297e-02,-4.86930e-02,-4.24930e-02,-3.64753e-03,-2.87253e-02,-4.53594e-02,2.37063e-02,-1.17222e-02,1.63250e-02,3.84917e-02,8.46596e-04,-2.86232e-02,2.63864e-02,-3.72681e-02,-2.87162e-02,-4.69673e-03,-3.39617e-02,-3.72421e-02,3.14946e-02,8.61508e-03,3.51785e-02,-9.68061e-03,3.19969e-02,-5.51983e-02,1.18120e-02,-1.52276e-02,4.15899e-02,-5.50644e-02,-6.81912e-02,-8.63937e-03,-3.34806e-02,2.15568e-02,-2.67397e-02,2.72578e-02,-3.34247e-02,-4.01226e-03,8.37946e-03,-4.28930e-02,1.27833e-02,2.61622e-02,-1.66724e-02,-5.55052e-02,3.93163e-02,-4.74006e-02,3.28365e-02,-2.39599e-02,
1.11277e-02,2.05031e-01,-2.44589e-01,-4.69311e-02,2.05461e-01,-1.35820e+00,4.68444e-01,-2.93949e-02,2.93480e-01,4.23194e-01,-4.67600e-01,-9.72756e-02,1.22291e-01,4.42754e-01,1.15708e+00,-2.00584e-01,-2.63184e-01,-9.30816e-03,-4.41779e-01,3.29669e-01,2.43212e-01,-3.68575e-01,-5.17386e-01,1.11212e-01,7.51595e-01,-1.09683e+00,-2.21392e-01,1.95526e-01,4.60176e-02,1.24536e+00,4.11100e-01,3.76785e-01,7.20396e-03,-3.57600e-02,-6.96961e-02,8.51141e-01,3.31769e-01,-3.40950e-01,-9.57218e-02,-8.74901e-03,-6.91932e-01,-5.84087e-01,6.42117e-01,-2.50212e+00,9.58248e-01,3.80393e-01,1.72869e-02,-1.07535e-01,-9.11042e-01,1.16228e-01,
-2.22114e-01,-7.64163e-02,-2.13553e-01,-3.41556e-02,2.74514e-01,8.63946e-01,3.67113e-01,-1.28813e-02,-6.62072e-02,-2.47146e-02,1.09002e-01,-3.42896e-01,-3.16422e-02,3.28870e-01,-3.08557e-01,3.67826e-01,1.22939e-01,-5.75707e-01,1.33133e-01,-2.99934e-01,-1.19578e-01,1.11090e-01,-2.59696e-01,-1.98905e-03,-1.15762e+00,-3.59996e-01,3.80501e-02,1.17138e-01,3.99095e-01,1.96665e-01,7.10153e-02,-1.31891e-03,2.44557e-01,-3.40954e-01,-1.87676e-01,6.88335e-02,-1.76749e-01,-1.54764e-01,-7.62934e-02,5.15319e-02,-4.05805e-01,5.64175e-02,2.49299e-01,2.25402e-01,-2.95215e-02,-2.33412e-01,-4.80004e-03,2.26196e-01,-2.60837e-01,2.65282e-01,
-2.27386e-01,-2.85874e-01,2.93315e-01,-2.71374e-02,-3.98500e-01,-2.49560e-01,-2.77626e-01,-5.14744e-02,-5.40279e-03,-6.86302e-01,-1.01727e-01,-8.97119e-02,-2.06334e-01,-3.37046e-01,3.40354e-01,4.79719e-02,1.99694e-01,4.09333e-01,-3.46913e+00,3.88109e-02,-4.94998e-02,-4.78782e-02,7.10402e-02,-7.10744e-01,-6.56121e-01,1.37492e-01,-1.85144e-01,-2.01781e-01,-3.54483e-02,-2.64346e-01,-2.03945e-01,-3.25964e-02,-2.46523e-01,5.37897e-02,2.34978e-01,5.08368e-02,4.16635e-01,-2.92140e-02,3.62419e-01,-4.52845e-02,-1.45256e-01,4.76715e-01,-7.99330e-01,1.53831e-01,1.20568e-01,-2.05801e-02,1.30219e-03,2.54844e-01,-3.67431e-01,3.37231e-01,
-8.46123e-01,5.12168e-01,-7.47198e-01,-2.52148e-02,-3.21388e-01,-1.15199e+00,4.97767e-01,-4.01556e-02,7.50473e-02,6.63272e-01,-2.71022e-01,-1.32961e-01,3.63366e-02,7.44655e-02,2.22553e-01,-6.76698e-01,2.25782e-01,-9.84690e-02,5.58365e-01,2.50985e-01,2.13322e-02,-5.55657e-02,-3.59501e-01,5.59946e-01,-8.65660e-01,1.35618e-01,-1.05113e-01,6.38714e-01,-3.58786e-01,2.77960e-02,-4.14534e-01,6.21372e-01,-2.89691e-01,7.31317e-01,-2.71312e-01,-3.59415e-01,2.61428e-01,-2.18150e-01,1.14124e-01,-4.73550e-02,-3.94432e-01,-8.49835e-02,-3.94754e-01,-4.53740e-02,-1.55693e-01,1.05832e+00,1.94112e-03,3.31408e-01,-1.05247e-01,3.29014e-01,
8.29948e-02,-1.67614e-01,3.46297e-01,8.47016e-03,2.03361e-01,1.33757e-01,-1.52683e-01,1.58116e-02,-1.49302e-01,-4.68059e-01,4.20623e-02,5.99946e-02,1.27315e-01,-9.30517e-02,-6.21913e-01,3.84255e-02,-9.36553e-02,-2.69666e-01,-1.50362e-01,-1.79126e-01,-3.45478e-02,-2.60922e-01,1.91376e-01,-2.86403e-01,-2.69184e-01,5.64497e-01,3.45952e-02,-7.85579e-02,-3.47121e-01,1.58322e-01,1.06481e-01,2.70506e-01,-1.91886e-01,1.23643e-01,-9.31396e-02,-4.14623e-01,1.52582e-01,8.84248e-02,1.19784e-01,-4.11981e-02,5.67106e-01,2.99101e-01,-4.08705e-01,-1.92144e-01,5.18085e-01,3.13889e-01,-2.44567e-02,-2.52879e-01,2.80579e-01,-1.70017e-02,
9.07891e-02,-5.47415e-01,1.30509e-01,1.32520e-02,7.58857e-02,-1.24863e-01,-1.56364e-01,-4.48324e-02,3.03428e-01,5.47164e-01,1.95203e-01,-1.58623e-01,1.99864e-01,-3.40756e-01,1.70978e-01,-4.30976e-01,-5.46965e-02,5.70748e-02,4.82539e-01,-9.03257e-02,-1.03571e-02,3.67297e-02,3.09609e-01,2.28564e-01,-3.01573e-01,2.30437e-01,-9.94885e-02,-2.51507e-01,3.29732e-01,3.04812e-01,3.20911e-01,-4.85288e-01,-1.15492e-01,-1.29808e-01,1.54139e-01,7.47077e-01,1.39013e-01,-1.14223e-02,-7.23271e-02,4.03887e-02,-4.84781e-01,-2.79603e-01,-3.27815e-01,4.78041e-01,4.02284e-03,7.08367e-01,1.44230e-02,-1.06965e-01,-4.72192e-01,-2.29713e-01,
2.43818e-01,-3.23775e-01,-1.12439e-01,6.58753e-03,-1.37223e-02,-1.63254e-01,1.30576e-01,-1.05201e-02,-2.89345e-02,2.16528e-02,-1.60181e-01,1.02641e-01,-2.29748e-01,-2.11951e-01,4.12168e-01,1.46267e-02,-1.35160e-01,1.03062e-01,-1.12504e+00,-9.04068e-03,-2.13137e-01,-5.60762e-02,-5.86474e-01,-9.24267e-02,-1.33012e-01,3.01165e-01,-2.21594e-01,-2.72284e-02,4.30504e-01,1.57923e-01,-8.68767e-01,-5.81235e-01,-2.07575e-01,-6.92258e-01,1.85184e-01,1.07434e-01,7.04068e-02,-1.28816e-01,2.61701e-01,9.43402e-03,-3.71559e-01,2.66082e-02,-7.93026e-02,-1.64530e-01,-2.44125e-01,3.72669e-01,-4.92261e-04,-7.77141e-02,-1.15863e-01,5.02693e-02,
-8.48944e-02,-1.24903e-01,-2.18115e-01,1.16348e-02,3.01659e-01,-7.47778e-01,1.15364e-01,-3.20132e-02,2.23272e-01,1.13717e-01,-6.64880e-02,-6.74163e-01,3.36406e-01,1.73761e-02,1.37930e-01,-2.13494e-02,-1.63750e-01,-2.26265e-01,-2.09987e-01,-2.51561e-01,-2.37082e-01,7.44753e-02,-1.53267e-01,1.27749e-01,4.19809e-01,2.73823e-02,1.18742e-02,3.51185e-01,-1.33016e-01,5.12160e-01,-5.53239e-02,2.06278e-01,3.32216e-01,-7.92793e-02,-1.13183e-01,2.60698e-01,-6.28589e-02,4.22551e-02,-9.48057e-02,-3.89373e-02,-1.02858e-01,-3.14807e-01,2.19218e-01,-3.12974e-01,-5.35124e-01,-1.08287e-01,-1.95647e-02,3.99039e-01,-6.98240e-02,7.13915e-02,
-1.69124e-01,1.59363e-01,1.93869e-01,2.96130e-02,-3.56597e-01,4.89914e-01,-4.75839e-02,1.00973e-02,-2.63982e-01,4.79850e-02,7.38515e-02,2.25341e-01,-2.35421e-01,-5.02284e-02,-1.38769e-01,4.82624e-02,2.02870e-01,-6.36183e-02,-5.65947e-01,1.56932e-01,-2.32491e-02,-2.29859e-01,1.32397e-01,-1.68474e-01,-7.39100e-02,-3.89707e-03,-7.25382e-02,-3.07430e-01,5.85222e-02,1.36505e-01,1.91437e-01,1.26458e-01,6.55761e-02,-1.12331e-01,-3.12002e-02,2.63963e-01,-2.20991e-01,-8.11116e-02,1.67819e-01,-3.97565e-02,-3.52634e-01,1.09288e-01,1.37218e-01,3.69831e-01,-2.73495e-01,-5.93815e-02,4.35805e-02,4.01500e-02,1.48408e-01,-3.91311e-02,
-6.06568e-01,-6.23582e-02,5.25360e-01,-1.05789e-02,5.26847e-01,-6.40969e-01,-2.69247e-01,-2.10231e-02,7.82180e-01,-2.43890e-01,3.98795e-01,-8.64196e-01,-1.62141e-01,-2.96564e-01,2.75922e-01,6.43985e-01,-5.46982e-01,5.61747e-01,-2.76705e-01,-5.36362e-01,1.17457e-01,2.67504e-01,-1.20120e-01,6.60573e-01,6.99859e-01,1.62610e-01,1.31983e-01,1.88250e-01,4.01832e-01,-6.00885e-02,1.42887e-01,-4.14587e-01,-1.80397e+00,-6.27262e-01,2.10611e-01,2.76228e-01,1.90834e-01,-2.69150e-01,2.44038e-01,-1.62641e-02,1.53888e-01,-8.85213e-02,-2.30945e-01,-1.60390e-01,-1.22294e+00,-4.67280e-01,-8.33652e-02,1.94325e-01,-1.37659e-01,5.33523e-01,
-5.73967e-01,3.27195e-01,1.68477e-01,2.66032e-02,-7.56883e-02,1.42731e-01,9.85501e-02,2.76023e-02,-1.07390e-01,-3.11167e-01,-7.95061e-01,5.69246e-01,-7.81543e-02,1.04419e-01,-4.81999e-02,5.63388e-03,5.89964e-01,-4.72562e-01,6.47121e-01,1.31063e-01,-1.05519e-01,-3.91426e-01,5.12270e-01,-2.34712e-01,-1.28093e+00,-1.05971e-01,3.97051e-01,-3.16932e-01,-9.11916e-03,-2.61190e-01,3.74384e-01,-2.41509e-01,1.76749e-01,-1.16202e-01,-6.20049e-01,-3.21013e-01,-1.32767e-01,-2.42824e-01,6.70327e-02,4.97738e-02,5.35633e-01,7.96422e-01,5.26743e-02,-1.47667e-01,-2.05457e-01,4.37400e-01,-1.29728e-04,-6.41538e-01,-3.63006e-01,-1.64041e-01,
-3.80714e-01,
7.69237e-01,
1.12942e-01,
-2.98996e-01,
-1.37694e-01,
-2.20087e-01,
-6.67924e-02,
-1.03572e-01,
-4.38194e-01,
-1.97092e-01,
-2.34353e-02,
-1.31679e-02,
2.95812e-01,
2.06774e-01,
-8.25669e-01,
-1.48973e-01,
-1.21241e-01,
-1.64738e-01,
-5.28072e-01,
2.46094e-01,
1.11023e-01,
8.86637e-02,
4.47465e-01,
4.99511e-02,
4.77865e-01,
-1.71527e-01,
