// The contents of this file are licensed under the Creative Commons
// Attribution 4.0 International License: https://creativecommons.org/licenses/by/4.0/
// Neural Network File Format by Kyle Julian, Stanford 2016
7,5,5,50,
5,50,50,50,50,50,50,5,
0,
0.0,-3.141593,-3.141593,100.0,0.0,
60760.0,3.141593,3.141593,1200.0,1200.0,
1.9791091e+04,0.0,0.0,650.0,600.0,7.5188840201005975,
60261.0,6.28318530718,6.28318530718,1100.0,1200.0,373.94992,
5.40062e-02,-2.61092e+00,-1.80027e-01,2.42194e-01,1.41407e-01,
-1.12374e+00,2.63619e-02,-9.17929e-03,5.56230e-02,-3.27635e-01,
1.96019e-01,2.42159e-01,6.38452e-01,-4.78265e-01,1.42577e-01,
-1.63015e+00,-3.44447e-02,-6.05492e-03,1.12076e-02,-1.04997e-02,
-3.55133e-01,5.65969e-01,2.28267e-01,1.77342e-01,-2.08078e-01,
-3.41918e-02,1.49570e+00,-1.53371e+00,4.05053e-02,1.64350e-01,
4.02002e-01,2.24022e-01,-4.67160e-02,1.63890e-01,-1.60826e-01,
-1.41575e+00,-7.47429e-02,6.04386e-02,4.82656e-02,-5.60096e-02,
-1.44498e+00,4.48403e-02,8.88916e-03,-2.50230e-01,6.53312e-02,
-1.12740e+00,2.39891e-02,-9.56711e-03,8.92796e-03,-4.58007e-03,
6.13717e-01,-5.57820e-01,-5.19507e-02,1.60852e-01,-9.71775e-02,
9.33699e-01,2.03647e-01,1.66178e-01,-1.52163e-03,-2.09448e-01,
-4.08026e-02,5.48666e-01,5.74868e-02,1.42985e-01,9.48681e-02,
-2.12265e-01,-3.28003e-01,3.57536e-01,-3.89715e-01,-4.59337e-01,
3.20180e-02,4.22455e-01,-5.68833e-01,-2.10782e-01,7.57506e-02,
-1.24055e-02,2.28453e+00,5.34617e-02,5.80561e-02,1.18652e-01,
-1.22430e-01,-7.12042e-01,9.15904e-03,-3.91123e-01,3.39849e-02,
6.01742e-02,-6.39072e-02,-2.50281e+00,4.99702e-02,-3.77898e-02,
8.33034e-02,-4.07486e-02,-7.52101e-01,-1.18798e-01,-2.18044e-01,
-1.18804e+00,1.44630e-01,-1.49280e-01,-3.60766e-02,-1.18933e-01,
-1.03537e-01,6.99915e-02,2.42373e+00,2.26499e-02,3.19605e-02,
-8.53903e-02,1.75215e-01,-8.74009e-02,-7.31836e-01,-2.20850e-01,
-1.93838e-02,3.99390e+00,1.17807e-01,7.84146e-02,-1.45183e-02,
1.66866e-02,-6.54405e-01,5.60096e-01,1.96579e-01,-4.49805e-01,
1.67639e-03,5.38434e-03,-7.26639e-03,4.18084e-03,1.78105e-03,
-8.97525e-01,-1.27606e-01,1.62803e-01,-4.81184e-02,7.85461e-02,
-9.33220e-01,-2.43277e-02,2.30273e-01,-2.09033e-01,-9.43662e-02,
1.60333e-01,3.69291e-03,2.62149e-01,2.81943e-01,-5.51476e-01,
8.34021e-02,2.01281e+00,3.55310e-01,3.60065e-02,-9.96482e-02,
2.84019e-01,-4.65741e-02,7.47930e-03,-8.40513e-01,-4.81789e-01,
1.37295e+00,5.88150e-03,1.30908e-02,-7.41005e-02,-1.55849e-01,
-1.44445e-01,6.07591e-04,-2.11642e-02,-6.47714e-01,-1.82691e-02,
-1.36290e+00,-2.07197e-02,4.45642e-02,3.94107e-02,9.35691e-02,
-1.55178e+00,8.38021e-02,-3.52086e-02,6.05953e-03,8.28404e-03,
1.29659e+00,9.38274e-02,1.75474e-01,1.33440e-01,2.98777e-01,
1.58680e-02,3.29773e-01,-2.65353e-01,-1.03541e-01,7.65932e-02,
-4.15857e-02,-1.47674e+00,-5.79324e-02,-2.06667e-01,2.01547e-01,
-8.26992e-02,2.55120e-03,9.87215e-03,6.89708e-02,-8.78938e-01,
-1.59025e+00,4.75710e-02,7.63074e-03,-1.42601e-02,2.85048e-03,
2.83388e-02,-2.30824e-02,-7.63311e-02,-7.71610e-01,4.99034e-01,
1.39212e-01,-5.72182e-01,4.26805e-01,-3.30029e-01,2.80864e-01,
2.57852e-01,-6.26802e-02,-3.31132e-01,3.29905e-01,-8.56315e-01,
6.86480e-02,2.45863e-03,-1.42610e-02,2.79897e-02,-1.85103e+00,
-7.44590e-01,3.11863e-03,-1.87879e-01,1.36177e-02,-1.59550e-02,
-4.16569e-01,1.20669e-02,-4.81611e-02,-3.64603e-01,2.88194e-01,
-6.32539e-01,-3.58635e-02,2.83509e-02,7.37678e-02,6.49997e-02,
3.92007e-02,5.64469e-01,2.62818e-01,-1.39606e-02,-3.57883e-01,
-3.85883e-02,-1.23878e-01,-7.62627e-01,4.23037e-02,4.98901e-02,
-1.57631e+00,4.40016e-04,-8.32176e-03,-9.26607e-02,-4.93705e-03,
6.20367e-01,7.50374e-02,-1.46141e-02,2.62575e-01,-2.57948e-01,
2.27630e-01,
-1.88762e-01,
5.34094e-02,
-3.77861e-01,
-8.12531e-02,
-5.88651e-01,
7.46065e-02,
-3.92887e-01,
-3.56303e-01,
-1.67712e-01,
5.87109e-02,
1.83917e-01,
1.31957e-01,
-3.08681e-01,
1.96929e-01,
2.06664e-01,
-3.11696e-01,
3.06576e-02,
-1.38822e-01,
-3.47434e-01,
-4.51840e-03,
-3.90616e-01,
9.69635e-02,
9.83266e-03,
-1.88585e-02,
-2.31919e-01,
-2.38165e-01,
7.10148e-02,
-1.41913e-01,
-4.42307e-01,
5.59084e-01,
1.35483e-01,
-3.73217e-01,
-4.15390e-01,
7.59638e-01,
1.32825e-01,
2.35566e-01,
2.14858e-01,
-4.40841e-01,
-7.72968e-02,
2.21606e-01,
-6.50873e-03,
-6.34843e-01,
-1.53833e-01,
-5.73027e-02,
-1.09229e-01,
3.70344e-02,
5.38087e-02,
-4.47550e-01,
1.75917e-01,
-1.84202e-01,3.43834e-02,-1.15142e-01,1.84753e-01,-1.37148e-01,-1.89317e-01,-7.48695e-01,5.75849e-01,-1.33157e-02,1.43641e-01,1.33067e-01,-2.24418e-01,3.02148e-01,4.08489e-02,-3.39559e-01,6.49170e-02,7.31692e-02,-4.59231e-01,4.74744e-01,3.77226e-01,-1.11407e+00,-5.71853e-01,4.99151e-02,-2.54206e-01,-2.52440e-02,2.25768e-01,1.49962e-01,-1.55202e-01,-1.72013e-02,9.90686e-01,7.83843e-02,-1.44198e-01,-1.79075e-01,-3.40037e-01,2.12321e-01,8.25806e-03,6.84292e-02,5.87946e-01,-1.70712e-01,-5.43690e-01,1.18932e-01,-4.95853e-01,-1.66652e+00,-3.24074e-01,-1.54229e-02,5.10100e-01,9.40898e-02,3.37388e-01,3.95671e-01,-2.23473e-01,
1.71639e-02,-3.44739e-02,-8.69311e-03,3.81665e-02,2.14070e-02,4.21881e-02,2.15526e-02,-3.36170e-02,-4.74388e-02,2.13502e-02,9.94309e-03,2.77698e-02,4.92707e-03,-4.27201e-02,-2.40032e-02,-3.22351e-02,1.33943e-02,-4.23694e-02,-4.01146e-02,-1.74541e-02,-4.23118e-02,1.46571e-02,-3.13675e-02,3.84782e-02,4.64228e-02,2.18262e-02,1.59546e-02,4.17461e-03,1.74008e-02,-1.78484e-02,-4.79125e-02,-4.08486e-03,-4.18420e-02,1.45460e-03,-5.08771e-02,-4.63350e-02,2.14261e-02,-5.32753e-02,-5.73137e-02,2.89767e-02,-3.29390e-02,-3.19730e-02,-3.33988e-02,-2.27086e-02,-1.54722e-02,-4.84061e-02,-7.11550e-03,-3.71157e-02,1.96442e-02,-3.51744e-02,
6.98282e-02,-4.08911e-03,-2.77997e-01,2.58790e-01,1.55820e-01,-1.33151e+00,-1.31188e+00,-8.93189e-01,1.95445e-01,3.84027e-01,4.27115e-02,-5.39398e-01,8.12943e-02,4.01288e-01,-2.74514e-01,3.67932e-01,-7.60605e-01,-1.29349e+00,1.47110e+00,9.77806e-02,-7.90099e-01,-5.34664e-01,7.20768e-03,-5.53668e-01,-2.19908e-02,2.65326e-01,2.03953e-01,4.09155e-01,-8.59508e-01,1.87561e-01,2.42437e-01,-1.12824e-01,5.26523e-01,-4.63904e-01,-3.64338e-01,5.36935e-02,4.43625e-01,9.19664e-01,6.39951e-01,-8.78768e-01,-9.78508e-01,-3.91997e-02,1.42149e-01,-7.98507e-01,-1.76701e+00,1.52952e-01,2.61030e-01,-1.87652e+00,-5.92208e-01,4.40622e-01,
7.94837e-01,-3.62980e-01,-1.71911e-01,9.75946e-02,2.71402e-02,-4.15327e-01,-9.24507e-02,-6.02603e-01,-3.20925e-01,4.35330e-01,5.27630e-01,-4.15412e-01,-1.95773e-01,-3.72765e-02,-1.00783e+00,1.33426e-01,2.48356e-01,-1.69865e+00,2.01099e+00,-7.07126e-01,1.15497e+00,5.27052e-01,-1.69422e-01,3.63558e-01,-3.01804e-02,7.70538e-01,-3.77548e-01,-1.37244e-02,-4.87739e-01,2.26330e-01,3.83543e-01,2.81900e-01,-4.76764e-01,9.03008e-03,-1.01426e-01,-6.20982e-01,4.45635e-03,-1.44175e-01,-1.32467e-01,3.56608e-01,5.80446e-02,-4.55311e-01,-7.07104e-01,-4.05381e-01,-4.23059e-02,5.96877e-01,-2.17635e-01,-1.28899e-01,-1.26611e-01,-1.72846e-01,
-5.85128e-02,7.08394e-03,2.68116e-01,-6.59521e-03,3.15806e-01,-5.37580e-02,3.65686e-01,3.60562e-02,-4.74430e-02,-3.71296e-01,1.53974e-01,-2.15701e-01,1.46240e-01,4.14588e-01,-5.22092e-02,-1.22101e-01,-2.38432e-01,-1.09953e+00,-3.20509e+00,-4.38948e-01,-2.60557e-01,-2.69236e-01,-4.09149e-02,3.69151e-01,-4.35317e-02,-3.44475e-01,-3.70995e-01,-3.68811e-01,-3.48575e-02,3.83794e-01,-1.04012e-01,-3.45975e-01,5.25536e-01,1.40227e-01,1.56070e-01,5.73022e-01,-1.64260e-02,-1.34221e-01,-1.33525e-01,9.89791e-03,-2.18030e-01,-1.56527e-01,-6.39669e-01,6.67558e-01,4.14996e-01,3.24016e-01,-6.59676e-02,8.59081e-01,-6.19551e-01,-1.11750e-02,
3.32535e-02,-8.10360e-02,-5.34410e-01,6.67956e-01,-8.12530e-01,1.29677e+00,1.26870e+00,7.04389e-01,1.17820e-01,3.14183e-02,3.45893e-01,-1.27676e+00,2.59326e-01,7.55813e-01,5.58989e-01,-1.23610e-01,-3.16966e-01,-1.38929e+00,-2.33073e+00,6.84739e-01,4.19089e-02,-6.41408e-01,-2.20248e-02,-8.15136e-01,3.62659e-02,-3.32806e-01,-1.74175e-01,-6.64114e-01,2.15466e-01,4.14545e-01,-3.16214e-01,4.10880e-01,6.56423e-01,1.71721e+00,-3.50390e-01,7.43160e-02,3.74249e-01,2.39212e-01,1.45042e+00,-3.21268e-01,2.45178e-01,-7.17588e-01,-1.78710e+00,1.14188e+00,2.82764e-01,7.94952e-01,-2.99762e-01,-7.73011e-01,-4.11885e-02,8.19762e-01,
-2.08300e-01,8.35133e-01,-1.51215e-01,1.15162e+00,2.21574e-01,1.08233e-01,6.51310e-02,1.45465e-01,6.31930e-01,1.08889e-01,5.08279e-01,-2.69129e-01,-1.98187e-01,1.72319e-01,3.25839e-01,6.12855e-02,-6.35311e-01,-4.35558e-01,5.90671e-01,9.23703e-02,-9.91100e-03,-2.27569e-01,-3.91220e-01,4.31908e-02,-4.57549e-02,2.00247e-01,1.27429e-01,-3.26969e-01,5.94883e-01,-4.12727e-01,1.78482e-01,5.78636e-03,-6.61192e-01,1.03202e-02,-1.10329e-01,5.42060e-01,1.58893e-01,4.66656e-01,-2.70218e-01,-2.23880e-01,-3.13375e-02,-2.38189e-01,-3.99878e-01,7.28962e-01,1.09875e-01,-5.18820e-01,2.80440e-01,3.65676e-01,1.36290e+00,-1.38101e-01,
-1.10533e+00,2.78798e-01,-1.34995e+00,-6.96007e-02,7.54957e-01,2.57716e+00,8.65201e-02,5.11288e-01,-5.77744e-02,-1.04050e-01,-4.23933e-01,-2.13807e-01,2.63156e-02,3.16730e+00,7.05454e-01,1.56442e-01,1.15742e-01,8.89692e-01,4.85605e-02,-3.29414e-01,-7.39524e+00,-5.87756e-01,6.79489e-01,4.04011e-01,3.53466e-02,-1.80159e+00,-3.95659e-01,1.97522e-01,-2.88667e-01,-8.30536e-01,3.18075e-01,-8.18103e-01,-7.43075e-01,3.68427e-01,2.33990e-02,4.07831e-01,-1.04199e+00,4.83819e-01,8.28921e-02,3.57220e-01,-1.50174e+00,-1.96254e-01,7.25435e-01,2.22741e-01,3.39974e-02,-5.83928e-01,9.31427e-02,3.28158e-01,8.23124e-01,5.10477e-02,
1.80697e-02,-1.20998e-01,-1.93342e-01,8.57790e-01,-1.75996e+00,-1.45697e-01,2.56764e+00,7.82773e-01,4.50378e-01,-9.82587e-02,-1.24700e-01,-7.26380e-01,-7.32309e-01,1.53515e-01,-3.26798e-02,8.59862e-02,-5.69807e-01,3.94019e-01,1.17462e-01,2.51221e-01,8.45853e-01,8.47721e-01,4.21144e-01,5.73381e-01,2.50970e-02,-1.70790e-01,-1.27728e-01,8.31425e-03,7.87938e-02,2.57700e+00,-1.29938e+00,6.91162e-01,-3.32454e+00,-1.35713e+00,-2.20211e+00,3.92762e-01,3.73119e-01,2.80267e-01,-6.10076e-01,1.03084e-01,-2.77629e-01,1.42858e+00,4.73211e-01,-6.73607e-01,1.21082e+00,-1.35457e+00,1.01984e-01,-1.70226e+00,1.08811e+00,-8.12626e-01,
2.34612e-01,-8.65116e-03,4.04159e-02,2.51350e-01,6.55618e-01,-1.87835e-01,-6.28119e-01,5.18079e-01,-3.96670e-01,-7.89420e-01,1.75555e-01,-3.92038e-01,2.77756e-01,-1.05727e+00,5.26056e-01,5.10797e-01,-1.06047e-01,-1.67583e+00,1.80736e+00,-2.33950e-01,7.01526e-01,-5.41358e-01,1.05999e-01,-1.67828e-01,-2.92290e-02,1.14975e+00,-1.59650e-01,-2.27614e-01,-1.35554e-01,1.56454e+00,7.80779e-01,-7.24606e-01,-5.93993e-01,-9.98891e-01,9.19827e-02,4.50594e-01,-5.38901e-01,5.47649e-01,-3.13118e-01,-1.04741e-01,4.10557e-01,7.51659e-01,4.94966e-01,-8.58162e-01,-2.38985e-01,-2.39199e-01,4.23537e-01,-2.73949e-01,2.23215e-01,-1.29985e-01,
-5.82788e-03,1.64447e-02,-4.98632e-02,-5.81705e-02,2.44792e-02,1.57947e-02,-3.55860e-02,3.95222e-03,-2.16416e-02,1.12976e-02,1.00584e-02,-6.41057e-02,2.40168e-02,5.82842e-03,-3.51634e-02,1.37765e-02,-4.20780e-02,-3.48972e-02,-3.75012e-02,-2.57387e-02,-5.46805e-02,-3.58484e-02,2.08489e-03,-3.63354e-02,2.47895e-02,3.34971e-02,2.16527e-02,1.98412e-02,-4.71676e-02,-7.06080e-03,-9.30937e-03,-4.94431e-02,-6.18612e-02,3.00086e-02,-3.00961e-02,1.39052e-02,-4.82571e-02,-4.51284e-03,-1.89375e-02,4.02270e-02,1.81820e-02,3.75883e-02,-2.70563e-02,3.37168e-02,-1.98271e-02,-1.65858e-02,2.09145e-02,-4.22434e-02,-2.60662e-02,-2.49860e-02,
2.80057e-01,3.77801e-01,-4.41952e-01,-1.27845e+00,-2.98068e-01,1.28171e+00,-5.42560e-01,-3.46468e-01,2.75764e-01,5.25215e-01,-2.95772e-01,-5.82597e-01,1.66079e-01,1.62596e-01,3.90477e-01,1.61276e-01,4.51447e-02,-1.26315e-01,-1.20241e+00,5.63122e-01,4.10249e-01,-1.77284e+00,-2.19624e-01,-1.24339e-01,4.54759e-03,1.00602e-01,-5.20950e-01,3.38173e-02,-2.92270e-01,1.67408e-01,-3.39629e-01,4.23217e-01,1.01269e+00,7.83648e-01,-3.31597e-01,-6.33130e-01,7.39286e-02,9.52432e-01,2.41880e-01,-2.77457e-01,4.53979e-01,-7.81443e-02,4.90360e-01,-1.46128e-01,-8.36312e-01,-7.99947e-01,-4.45305e-02,-5.92702e-02,-5.23676e-01,5.13579e-01,
1.08762e-01,-2.42730e-02,4.39208e-01,6.50574e-01,1.96522e-01,-8.38404e-01,1.21426e-01,1.17039e+00,2.32818e-01,3.04609e-01,-5.35919e-01,-1.06514e+00,8.69641e-01,4.96056e-01,1.54152e-01,5.77726e-02,8.89730e-02,4.88296e-01,-7.07301e-01,-8.93437e-02,-4.56395e+00,1.74036e-01,-2.11087e-01,-4.79564e-01,-8.46360e-03,1.23712e+00,2.90910e-01,5.13551e-02,3.97437e-01,2.63076e-01,-8.62292e-01,-6.08200e-02,5.80493e-01,3.20663e-01,-7.83696e-01,3.66165e-01,-2.44925e-02,-9.81926e-02,5.74510e-01,-5.96800e-01,5.89238e-01,-7.04496e-01,-5.60862e-01,-8.39649e-02,1.47986e-02,1.43185e-01,-1.12592e-01,1.15690e-01,2.41843e-02,7.82381e-03,
-8.76624e-02,6.00703e-01,-3.93411e-01,1.05088e+00,2.60039e-01,-1.38641e-01,3.19135e-01,-5.97047e-01,-7.05588e-01,6.16510e-01,-4.61600e+00,2.72411e-01,4.31970e-01,-1.57418e-01,-3.28696e-01,5.19095e-01,-8.74161e-01,-9.52020e-02,1.00020e+00,-2.96085e-01,-1.76376e-01,-2.44104e-01,4.01531e-01,-9.50305e-01,1.73988e-02,-1.43802e+00,1.33824e+00,1.53640e-01,-4.57963e-01,9.47199e-01,-1.31592e+00,2.79487e-01,-7.73742e-01,8.22072e-01,-1.33803e+00,-5.67244e-01,4.53384e-01,2.50774e-01,4.29138e-01,2.23368e-01,1.01085e+00,-9.84222e-01,2.31651e-01,1.79550e-01,-3.07755e-01,4.97636e-01,3.84138e-01,-1.42933e-01,-4.80406e-01,-1.60580e+00,
-2.62059e-01,6.61248e-01,-4.25415e-01,9.88594e-01,-2.63324e-01,-8.54719e-02,7.27248e-01,5.19006e-02,-4.11030e-02,1.03413e+00,2.94721e+00,-6.02879e-01,6.64402e-01,1.78682e+00,-1.78073e+00,4.42521e-01,-1.94133e-01,6.21769e-01,3.88468e-01,-2.22371e-02,4.64028e-02,7.26418e-01,4.31174e-01,-1.12577e+00,-1.64030e-02,-4.31634e-01,-7.13739e-01,7.68949e-01,-1.80023e-01,2.37554e+00,-1.70709e+00,4.66608e-01,9.57275e-01,1.54362e+00,-1.45329e+00,-7.21497e-01,3.16534e-01,-6.04271e-01,1.53063e+00,-5.03255e-01,-1.04254e-01,7.15042e-01,4.91117e-01,1.50418e-02,1.52789e-01,1.63822e-01,6.65924e-01,-1.19095e+00,-5.36305e-01,-6.52880e-01,
-6.67995e-01,-2.02133e-02,-4.30260e-01,-5.98796e-01,3.53495e-01,-4.64602e-01,-1.20080e-01,-4.41756e-02,1.61297e-01,1.19578e+00,1.63675e-01,2.39733e-01,4.60481e-01,1.54292e+00,5.90185e-01,5.53050e-01,3.33647e-02,1.09549e+00,-1.82515e-01,1.73915e-01,-2.19077e+00,2.26521e-01,2.62419e-01,9.95612e-01,4.17400e-02,5.25167e-01,-4.44440e-01,-2.92628e-01,-1.97206e-01,-4.60871e-01,-4.52132e-01,-2.61302e-01,2.26308e-01,-2.47908e-01,-1.58471e-01,3.86675e-01,-1.02155e+00,2.47639e-01,2.61188e-01,2.67750e-01,-3.67003e-01,-3.02024e-01,-1.06073e+00,2.55533e-01,1.47995e-01,-1.31401e-02,2.16371e-01,6.64270e-01,6.47565e-01,-2.01000e-02,
-5.22074e-01,-3.92761e-01,2.90612e-01,-1.02772e-01,7.12970e-01,-2.28415e+00,1.42424e+00,4.41092e-01,2.97105e-01,-1.19794e-01,-6.75246e-01,1.32939e-01,1.43614e-01,-5.90757e-03,3.19779e-01,6.28752e-01,5.04229e-01,8.07083e-01,-1.69530e+00,-2.90579e+00,5.04308e-02,6.62540e-01,-8.22735e-01,3.09652e-01,4.41201e-02,7.03183e-01,1.73302e-01,-7.32583e-02,1.27966e+00,1.57619e-01,3.91756e-03,2.42925e-01,-1.64199e-01,-1.02042e+00,-5.41494e-02,-2.39780e+00,9.37846e-02,-2.75557e-01,-4.88527e-01,1.01718e+00,-3.22546e-01,-4.31858e-01,-5.44703e-01,-1.18591e+00,-6.46282e-01,-3.52960e-01,1.00002e+00,7.02456e-01,4.10456e-01,6.14669e-02,
-2.95839e-01,4.87490e-01,-2.50767e-01,-7.97391e-01,-2.32384e-01,4.18462e-01,3.87235e-01,9.60061e-01,-1.91897e-01,1.04525e+00,-6.51756e-01,-2.79784e-01,7.16194e-01,3.42236e-01,8.29823e-01,1.48468e-01,-1.13137e-01,-4.46995e-01,-3.01331e-01,1.13571e-01,-5.45101e-02,-2.62550e-01,-1.23184e+00,1.84642e-01,-4.26401e-02,1.19245e+00,-4.33336e-01,7.57407e-02,6.65245e-01,-3.97853e-01,2.37394e-01,-4.69161e-01,-6.26106e-01,1.41971e-01,-1.67829e-01,2.75424e-01,-7.58347e-01,5.09359e-01,-2.18216e-01,-6.62873e-01,-5.95916e-02,-2.70402e-02,5.24964e-01,-2.32100e-01,-3.89608e-04,1.35245e-01,-4.61896e-01,9.98813e-01,-3.03257e-01,2.64833e-02,
-5.97724e-02,-1.81510e-01,2.34351e-01,1.16461e+00,9.71876e-02,2.14008e-01,2.09933e-01,3.29580e-01,-6.68421e-01,2.93814e-01,-9.88543e-01,-2.89137e-01,1.52218e-01,-3.27873e-01,-1.00006e+00,6.50972e-03,5.41077e-01,4.09312e-01,-1.00315e+00,-6.68993e-01,-6.59849e-02,3.14336e-01,-3.55661e-01,-5.08591e-02,3.79435e-02,5.00943e-01,-1.10721e-01,4.74046e-01,1.44216e-01,-6.87312e-01,-4.77000e-01,4.35318e-01,5.71804e-01,1.82638e+00,-9.29956e-01,-1.18372e-01,-3.49745e-01,1.94177e-01,1.54933e+00,2.45301e-02,-1.84153e-01,2.93282e-01,-9.71090e-02,-6.32774e-02,2.27440e-01,8.72606e-01,-6.01146e-01,-9.85058e-01,-6.16452e-01,-7.30357e-01,
2.25581e-01,-1.34550e-01,2.60395e+00,-2.79820e-01,-3.26815e-02,2.94465e+00,-3.79955e-01,1.06743e+00,2.57016e-01,-2.46081e-01,6.26051e-03,1.00429e+00,4.44224e-01,1.98882e+00,4.56873e-01,1.01207e-01,2.91307e-01,4.82486e-01,6.28707e-02,-6.34902e-01,-8.57219e-01,3.46260e-02,-6.56198e-01,-1.54894e-01,2.63009e-02,-8.38850e-02,3.12576e-01,-4.03916e-01,1.92752e-01,1.17637e+00,-4.46298e-01,1.14046e+00,-4.22477e-01,4.41757e-01,-1.75056e-01,2.37513e-01,3.62371e-01,-1.08390e+00,7.91569e-01,-2.88636e-01,1.52320e-01,1.65710e-01,-5.58503e+00,-2.92178e-01,-6.09799e-01,3.59772e-03,5.98140e-02,3.37497e-01,-4.56116e-02,-5.15602e-02,
-7.66084e-02,1.20952e-01,1.59317e-01,-3.76492e-01,-7.40785e-02,-8.27363e-01,-5.77585e-01,-3.41195e-01,2.02595e-01,2.09397e-01,7.13967e-02,2.21236e-01,2.67677e-01,-2.77037e-01,-7.28074e-02,-1.21906e-01,3.80108e-01,6.87495e-01,-8.51540e-01,1.48517e-01,2.43052e-01,-1.86309e-01,-2.68694e-01,1.37717e-01,-1.12855e-02,-2.91454e-01,-4.38027e-02,-1.38478e-01,3.47759e-01,7.19136e-03,-3.42292e-01,-6.78048e-01,-8.10642e-01,2.24682e-01,2.83760e-01,2.40818e-01,3.68557e-01,1.66734e-01,-5.84406e-01,-1.18577e-01,-5.50049e-01,2.13712e-01,4.06012e-01,6.33921e-01,3.75635e-02,-2.14717e-01,-4.48754e-01,8.53068e-01,3.68057e-01,-2.34969e-01,
5.34380e-03,-5.37545e-03,-1.84408e-01,-1.42157e-01,-4.16168e-01,3.63014e-01,3.45105e-01,2.96037e-01,-1.24654e-01,3.22052e-01,-2.35292e-01,-9.80614e-02,4.09397e-01,-4.97859e-02,-3.75388e-01,-2.50969e-01,-9.81585e-02,7.22905e-02,5.40131e-01,2.66987e-01,3.18570e-01,3.89736e-01,-5.87657e-03,-5.37369e-01,2.25036e-02,1.45929e-01,4.56102e-01,4.35384e-01,-4.20618e-01,-9.04436e-01,-1.37007e-01,-5.32021e-01,9.03367e-02,-1.04481e-01,6.78861e-02,-5.40483e-02,-5.40282e-01,5.18167e-01,-4.79564e-03,-7.99260e-03,4.67129e-01,1.56733e-03,3.49694e-01,-1.80226e-01,-2.96438e-01,-4.24088e-01,6.35508e-01,-6.04676e-01,2.09662e-01,-3.02630e-01,
3.16588e-01,9.41569e-01,3.42191e-01,-7.28312e-01,1.44769e+00,1.59755e+00,3.78296e-01,-2.48756e+00,1.75363e+00,1.64103e+00,6.51603e-01,8.95939e-01,1.06020e+00,3.32887e-01,-3.89880e-01,-1.51751e+00,1.95401e-01,6.82005e-02,5.72131e-01,3.57140e-01,-1.76745e-01,-6.18688e-02,-5.12659e-01,-1.00565e+00,-1.73481e-02,7.93942e-01,1.57766e+00,7.05860e-01,-1.05442e+00,1.96552e+00,2.25863e-02,3.06499e-01,-3.89977e-01,6.13327e-02,-1.23246e-01,2.01544e-01,-5.14118e-01,3.57744e-01,-1.03978e+00,-2.52856e+00,-8.26274e-01,-1.96177e-01,1.85538e+00,2.43761e-01,-8.36826e-01,-1.63097e+00,5.26890e-01,-1.88275e+00,9.66183e-01,-6.30417e-01,
-3.17647e-01,-3.19918e-01,-7.11323e-01,1.59191e+00,8.41627e-02,1.87923e+00,1.01007e+00,7.89384e-01,5.03349e-01,5.48707e-01,6.15919e-01,3.95558e-01,-6.97982e-01,-2.67981e-01,-2.10715e+00,2.95865e-02,1.39486e-01,-5.01845e-01,5.97106e+00,-7.28299e-02,3.34278e-01,2.52699e-01,-2.77681e-01,-2.73976e-01,-2.13905e-02,5.80596e-01,-8.41813e-01,-2.93286e-02,7.77785e-02,-1.38661e+00,-2.26683e+00,8.69926e-01,9.79455e-01,8.52165e-01,-7.51046e-01,-1.04523e+00,1.83031e-01,-6.72466e-02,1.70925e+00,-6.95859e-02,6.28563e-01,-6.52828e-01,-1.73043e+00,-9.54673e-01,-5.61551e-02,8.79025e-01,6.34687e-01,-1.52376e+00,6.25199e-01,-8.10672e-02,
-3.86614e-02,3.00274e-02,-4.06126e-02,1.06733e-02,-1.54052e-02,4.42192e-02,1.97890e-02,-1.04466e-02,-2.95513e-02,-4.15195e-04,-1.14132e-02,-3.39540e-02,9.67678e-03,2.19783e-02,-5.82937e-02,2.27223e-02,1.64509e-02,-2.88010e-02,-2.46728e-02,3.00411e-02,1.94892e-02,-2.42723e-03,-3.88959e-02,-4.76972e-02,3.00196e-02,-1.41949e-02,-1.70786e-03,3.37114e-02,-5.34261e-03,-3.99127e-02,-2.09442e-02,-4.18985e-02,2.35862e-02,-1.60574e-02,-1.07141e-02,1.16523e-03,-1.92918e-02,-1.32972e-02,2.90592e-02,2.37985e-02,2.51870e-02,-8.45821e-03,-3.90293e-02,-4.94291e-02,-3.08208e-02,-2.64815e-02,-1.19143e-02,-4.04856e-02,3.49375e-03,-2.53465e-04,
-4.42498e-02,-2.24060e-02,3.95571e-02,2.81488e-02,7.56830e-03,1.48697e-02,3.82801e-02,-2.41124e-02,1.36336e-02,2.69792e-02,3.96601e-02,-2.36657e-02,-2.39268e-02,4.00947e-02,-5.36841e-02,1.64122e-02,-3.89649e-02,3.11577e-02,9.23819e-03,-1.69541e-02,-2.13906e-02,-3.42286e-02,-3.89736e-02,-2.28373e-02,1.49021e-03,-4.60210e-02,-4.19726e-02,-2.80963e-02,2.71984e-02,-5.04214e-02,-5.03820e-02,-2.75260e-02,2.35949e-02,-3.05105e-03,2.23165e-02,-2.84985e-02,-5.36751e-02,9.79007e-03,4.00998e-02,-2.18434e-02,3.10683e-02,-9.41760e-03,1.99976e-02,-3.12057e-02,-1.54904e-02,-2.38395e-02,3.88896e-02,-9.14617e-03,-5.05772e-02,-2.07484e-02,
-6.17362e-02,1.96832e-01,7.75808e-01,-5.48274e-01,7.13229e-01,-9.43687e-01,-8.26375e-01,1.35313e+00,-3.92385e-01,-3.73778e-01,3.91178e-01,1.71131e+00,1.77278e-01,1.11293e-01,-2.96716e-01,4.08424e-01,-5.50011e-01,-5.06212e-01,-6.98154e-01,-9.20523e-01,-8.04038e-01,3.47287e-01,4.92696e-01,-3.90561e-01,2.03369e-02,1.91853e+00,1.70492e+00,-2.44196e+00,3.26480e-01,2.37850e+00,-9.26582e-01,2.74002e-01,-6.13919e-02,-1.75036e-01,-3.87735e-01,1.23933e-02,1.69013e+00,-5.50539e-01,2.52672e-01,1.94250e-01,-1.71223e+00,-2.07596e+00,-2.51066e+00,-6.37380e-01,3.84115e-01,-1.56875e+00,-4.31412e-01,1.48980e+00,1.45973e+00,2.88254e-01,
6.94637e-02,2.34293e-01,-3.84624e-02,1.88544e+00,2.63936e-02,-1.40758e-01,-2.94075e-01,6.50119e-01,1.87138e-01,1.05286e+00,-3.92044e-01,-2.88931e-02,2.93739e-01,-3.15151e-03,1.19241e-02,-5.80794e-02,-1.75109e-01,1.53388e-01,-2.37627e-01,2.18168e-01,1.07495e-01,-8.54477e-02,2.82669e-02,6.76320e-02,4.19083e-03,1.68374e-01,5.15999e-02,-2.15841e-01,-1.63693e-01,3.40874e-01,-3.03106e+00,3.74973e-02,2.36892e-01,2.03238e+00,-1.29320e+00,-1.71070e-01,-9.47622e-02,1.08934e-01,2.77119e+00,2.31219e-02,1.62733e-01,2.27226e-02,-3.55209e-02,1.91682e-01,-9.59096e-03,8.78061e-01,1.39756e-01,-3.84920e-01,9.75160e-01,4.28244e-02,
9.56433e-02,4.34045e-01,-1.12437e-01,1.01573e+00,2.10701e-01,-6.62638e-01,-1.03677e+00,1.21557e+00,2.15330e-01,1.99962e-01,1.57218e-01,-1.75469e-01,3.07791e-01,2.95498e-01,4.24079e-01,-7.01214e-01,6.20567e-03,-6.81584e-02,3.59171e-01,9.56768e-01,2.39628e-01,1.80519e-01,7.32215e-02,8.70791e-02,-2.14856e-02,-8.60337e-03,1.75838e-01,-1.10670e+00,7.13413e-01,1.05371e+00,-1.61344e+00,2.53375e-01,1.10626e+00,1.82714e+00,-2.09182e+00,5.24782e-01,9.83768e-02,6.00907e-01,1.90327e+00,-8.71044e-02,-2.46973e-01,-7.06184e-01,5.76315e-02,2.91424e-01,-1.98773e-02,9.40403e-01,3.22904e-01,-9.02529e-01,1.04154e+00,4.79672e-01,
1.89924e-01,2.60059e-02,-2.67103e-01,7.70939e-01,-9.07456e-01,-1.08298e+00,-1.32564e-01,-5.95572e-02,-3.79226e-01,-1.76419e-01,1.32885e-01,2.35959e-02,-4.27154e-01,4.12024e-02,-1.24642e+00,6.94870e-01,-1.86457e-01,7.87567e-01,3.01205e-01,4.87338e-01,1.98397e-01,-1.17986e+00,4.09079e-01,-1.66769e-01,4.72508e-03,4.62992e-01,4.02926e-02,1.03018e-01,2.78331e-01,7.87222e-02,7.47431e-01,-1.43410e+00,-3.04184e-02,2.12685e-02,1.26610e-01,-5.00546e-01,7.65586e-02,1.74537e+00,-1.12925e-01,-5.76047e-02,2.83635e-01,6.36282e-03,1.30834e+00,6.43967e-01,-2.49990e-01,5.99640e-01,-2.05021e-01,1.04004e-01,-6.00384e-01,-1.55705e-04,
-6.95974e-01,-1.29607e-01,6.00306e-01,3.04015e-01,5.64409e-01,1.62210e+00,-2.86626e-01,8.96510e-01,-3.70437e-01,7.83919e-02,-1.56796e-01,1.15489e-02,-5.46074e-01,-3.13870e-01,4.23087e-01,4.40643e-01,1.96042e-01,7.63858e-02,1.04211e+00,4.34497e-01,1.10865e+00,1.14416e+00,-3.38450e-01,6.97608e-01,-4.30303e-02,-1.60625e-01,1.75219e-01,-2.19286e-01,1.38402e-01,-5.32377e-01,4.91973e-01,2.80262e-01,-9.19107e-02,-9.77611e-01,-1.44309e-01,1.32977e+00,9.28962e-01,-2.64523e-01,-3.25696e-01,5.06461e-02,-6.71854e-02,9.20420e-01,1.52524e+00,-1.15185e-02,1.23646e+00,3.83555e-01,1.11470e+00,-1.21328e+00,-2.33483e-01,2.60875e-01,
8.89581e-01,4.27730e-01,1.02021e-01,-6.90815e-02,-5.01090e-01,9.94008e-02,7.77038e-02,3.55447e-01,1.22223e-01,-3.30119e-01,-4.18854e-01,1.05862e-01,-3.96614e-01,-3.52080e-01,-1.00883e+00,-6.46376e-01,-1.43750e-01,-5.94317e+00,6.36260e+00,7.67676e-01,1.06944e+00,-2.52855e-02,-5.45631e-01,3.82134e-01,-3.21749e-02,-3.54430e-01,8.32172e-02,2.26229e-01,-3.45264e+00,-8.11095e-01,-2.66894e-03,-4.37992e-01,2.98922e-01,-2.60096e-01,-6.47190e-02,-4.21387e-01,2.64886e-01,1.88394e-01,-5.36335e-01,-9.19568e-02,3.44194e-01,2.39629e-01,1.56315e-01,2.88174e-01,6.15565e-02,-3.32355e-01,-2.27838e-01,-9.69060e-01,3.39535e-01,6.69412e-02,
-3.12797e-01,5.20245e-01,-2.47811e-01,6.06060e-01,-3.08867e-01,3.90312e-02,3.85516e-01,2.28354e-01,3.33615e-01,-6.07636e-01,-7.25812e-01,-5.11116e-01,-1.26520e+00,5.69628e-02,8.47665e-01,-1.95323e-01,-2.17945e+00,4.45048e-01,2.72476e-01,-2.39627e-03,8.78727e-01,-3.02210e-01,9.28734e-02,-2.38151e-02,1.43469e-02,-3.65801e-01,-1.22928e-01,3.54199e-01,1.06878e-01,1.15028e+00,3.48079e-01,2.74576e-01,-6.15380e-01,7.47706e-01,-1.10295e-01,4.04983e-01,-4.72655e-01,-6.26858e-03,-1.05629e+00,-3.32901e-01,-3.36936e-01,3.02657e-01,1.45289e+00,8.61287e-01,2.41594e-01,-1.39795e+00,-6.89364e-01,1.71802e-01,-6.12382e-01,2.70854e-01,
1.93564e-01,1.44523e+00,6.59922e-01,1.59422e+00,1.12143e+00,1.54426e-01,-3.20650e-01,1.95374e+00,1.13126e+00,7.48786e-01,1.11294e-01,1.05834e+00,1.77860e-01,1.73992e-01,5.91047e-01,-1.56400e-01,1.00194e+00,-5.50980e-01,4.21743e-01,4.74903e-01,2.32618e-01,7.67089e-01,-8.72520e-02,-6.44955e-02,3.17547e-03,5.04545e-01,8.66105e-01,-1.29073e-01,-6.67322e-01,2.21090e+00,-9.28405e-01,-7.75013e-01,6.48402e-01,1.99629e+00,-2.22688e+00,2.00229e-01,-4.51636e-01,-1.15499e+00,2.49395e+00,-2.15081e-01,-3.55066e-01,7.24267e-01,1.15448e+00,5.98434e-01,-7.22057e-01,3.55473e-01,-1.57440e-01,4.82168e-01,1.85246e+00,-1.33023e-01,
-1.53071e-01,1.85324e-02,4.96609e-01,-1.76242e-01,1.32520e-01,-3.68707e-01,-3.74178e-01,-6.66281e-01,7.84158e-01,9.72886e-02,-1.92852e-02,3.06120e-01,-8.32663e-01,-3.18517e-01,1.59466e-01,1.78360e-01,3.33991e-01,4.36896e-01,-1.07546e+00,2.88074e-01,-1.49633e-01,5.78693e-01,-1.63636e-02,-3.00377e-02,-5.23577e-03,1.71676e-01,2.70649e-01,1.19062e+00,-1.46285e-01,1.77465e+00,3.33948e-01,7.01942e-01,-3.40734e-01,-1.82913e-01,-4.23262e-01,4.06886e-01,3.46195e-01,2.78865e-01,-9.25859e-02,-1.19779e+00,1.25343e-01,-1.09969e-01,-1.27216e-01,1.50708e-01,5.37367e-01,2.01625e-01,3.34242e-01,2.66590e-02,-1.16610e-01,7.14312e-01,
1.47091e-01,-9.20817e-01,-6.70497e-01,2.76299e-01,-5.95598e-02,-1.80043e+00,4.82210e-01,1.18207e+00,1.63645e-01,1.15554e+00,2.08565e-01,1.23033e-01,1.45719e-02,4.83299e-01,-3.70696e-01,1.16619e-01,-2.02445e-01,-3.19707e+00,4.62030e+00,-3.80048e-01,6.01541e-02,1.74440e-01,5.36912e-01,-1.04387e+00,4.14812e-02,1.18798e-01,2.00287e-01,3.21081e-01,-8.68847e-01,4.20665e-01,-3.96356e-03,4.96525e-01,2.65315e-01,5.51630e-01,1.37533e-01,-9.18724e-02,-6.42299e-01,1.44151e-01,3.35251e-01,2.66440e-02,-3.91610e-01,-3.06894e-01,-2.18482e+00,-4.69382e-01,1.55484e-01,3.29642e-01,4.99698e-02,-2.67322e+00,1.09758e+00,-7.59099e-01,
5.20240e-01,-2.52208e-01,6.10368e-01,8.69977e-01,-1.05383e-01,-5.88515e-01,-3.66213e-01,3.02230e-01,1.01059e-01,-2.78991e-01,-3.07602e-01,3.97712e-02,1.49832e-01,5.43451e-01,-6.66054e-02,4.53521e-01,1.48984e-02,-4.55494e-01,1.27761e+00,7.23849e-02,-2.01327e+00,2.53964e-01,5.30549e-01,2.62947e-01,-4.02599e-03,8.44994e-01,4.87316e-01,-1.29872e+00,3.78600e-01,1.78970e+00,-1.62888e-01,1.22249e+00,1.73516e+00,-4.18335e-01,1.39107e-03,-2.07300e-01,2.14810e-01,-5.80094e-01,-4.44339e-01,-5.24151e-01,-8.77953e-02,-1.35841e+00,-2.08125e+00,-2.87998e-01,2.65565e-01,-6.88904e-02,-6.14191e-01,-4.74938e-01,6.49689e-01,2.98627e-02,
3.37957e-03,3.58123e-03,-5.23126e-02,-4.35683e-02,-1.21571e-02,3.89191e-02,-2.44973e-02,8.33114e-03,-3.09726e-03,-1.67869e-02,-7.53699e-03,-1.39463e-02,-5.15684e-02,-1.34991e-02,-5.00966e-02,3.18874e-02,1.18100e-02,-3.74396e-02,-6.61598e-03,-4.71460e-02,2.11228e-02,4.19343e-02,-2.87218e-02,-2.41813e-02,-2.16306e-03,-1.63612e-02,-2.72640e-03,-2.33119e-03,-4.56672e-02,3.97102e-02,3.69856e-02,-4.38300e-02,-3.07999e-02,-3.11257e-02,4.59582e-03,-2.22941e-02,-4.66089e-02,-4.10443e-02,1.14919e-03,-2.75192e-02,2.01718e-02,1.73984e-02,-1.35623e-02,-4.21613e-02,3.54616e-02,-4.66780e-02,-2.30274e-02,1.85662e-02,-5.93874e-03,-4.32285e-02,
3.94096e-02,5.51210e-01,-3.74195e-02,2.12755e+00,3.27126e-02,-5.53920e-03,1.31943e-01,1.44832e+00,3.98095e-01,1.15941e+00,-9.85198e-02,-2.10324e-01,3.54951e-02,1.11342e-02,4.01923e-02,6.71328e-02,-6.69259e-02,-1.97069e-01,-1.07930e-01,1.15893e-01,1.93412e-01,-1.86414e-01,-1.41833e-02,-1.09271e-01,-4.62505e-04,4.08058e-01,2.07189e-01,1.20423e-02,-8.33266e-02,2.56778e-02,-3.82905e+00,-5.71050e-02,1.00422e+00,2.08877e+00,-1.69096e+00,3.73892e-02,4.79907e-02,5.36657e-02,2.58227e+00,-1.78714e-02,-1.26188e-01,-4.69560e-02,-2.08863e-02,6.45768e-01,4.34935e-02,6.52171e-01,1.88168e-02,1.34778e-01,1.72043e+00,-9.39978e-02,
5.44524e-01,6.11729e-02,-1.00278e-01,-4.16678e-01,3.86408e-02,-1.43012e-01,2.05194e-01,-2.02811e-01,-1.43623e-01,7.22468e-01,-2.72663e-01,5.66484e-02,-4.64974e-01,-5.57419e-02,-9.35183e-01,-4.87267e-01,6.60513e-02,-1.14682e+00,7.51996e-01,7.76297e-01,9.99378e-01,4.15307e-01,-2.59069e-02,1.74351e-01,1.08560e-02,-5.81010e-02,-8.98991e-02,-2.10220e-01,-6.49379e-01,-4.43088e-01,8.40818e-02,2.59013e-02,2.61792e-01,4.33581e-01,-3.18584e-01,-6.49173e-01,6.92869e-01,-1.59344e-01,8.41141e-01,9.55951e-02,-2.89821e-01,-2.50892e-01,-1.68588e+00,1.52792e-01,3.14845e-01,5.03401e-01,-9.60577e-02,-5.62290e-01,6.01555e-01,-5.09082e-03,
6.72764e-02,-4.78893e-01,8.34231e-01,-2.72691e-01,1.20782e-01,-2.35060e+00,4.05975e-01,-9.26539e-01,4.69639e-01,1.74590e-01,4.00554e-02,2.96408e-01,-2.39350e-01,1.19698e+00,1.14479e-01,1.18828e-01,-7.26833e-01,-3.84486e-01,-6.30676e-01,-8.02355e-01,-1.88252e+00,1.50989e+00,-6.27703e-01,3.12084e-01,8.42059e-03,-7.47298e-01,2.42916e-01,-4.17442e-01,-6.27678e-02,4.35047e-01,-4.35611e-01,1.01109e+00,1.16521e+00,-4.81582e-01,3.93550e-02,-4.36070e-01,4.40735e-02,-8.46213e-01,4.95375e-01,2.15144e-01,2.38547e-02,-2.01547e-01,-2.21498e+00,-3.03679e-01,6.35450e-01,-2.30395e-01,7.04447e-01,8.17042e-01,1.36926e+00,4.97661e-02,
-9.28640e-01,-8.05053e-02,6.40302e-02,-2.63019e-01,1.66090e-01,-1.66211e+00,-1.32093e-01,-1.32705e+00,1.66086e-01,-1.29865e-01,-3.34594e-01,6.61127e-02,6.33007e-01,3.79516e-02,-3.87032e-01,-1.28015e-02,1.01307e+00,-3.84665e-01,7.50208e-03,4.83827e-01,-3.00168e-02,9.70970e-01,-5.16422e-01,-1.18488e-05,-2.39806e-02,-9.91065e-02,-4.51664e-01,-5.08915e-01,8.69450e-02,-1.37244e+00,-5.66116e-02,8.45539e-01,-2.48938e-02,7.52465e-02,2.83255e-01,5.03731e-02,-6.35955e-01,-6.33855e-01,-4.63081e-01,3.66167e-01,-4.43574e-01,-3.03306e-01,-4.55209e-01,-4.37595e-01,4.77966e-01,4.34585e-01,-1.27842e-01,-1.30902e+00,1.76107e-01,1.03521e-01,
-8.76844e-02,-3.94447e-02,6.51309e-02,1.97424e+00,-2.47538e-01,-1.78240e-01,3.70758e-01,4.38517e-01,-5.27650e-02,9.38755e-02,-1.62234e+00,3.72372e-01,6.52717e-01,-3.38896e-01,6.85237e-01,-4.67079e-02,9.35516e-02,-5.01777e-01,-8.20838e-02,1.79616e-01,1.03024e-01,3.65015e-02,-1.94073e-01,5.34099e-01,-2.51719e-02,-7.63432e-01,1.16582e-01,-6.43583e-01,-1.73197e-02,6.90473e-01,-6.85065e-01,-2.40548e-01,4.16865e-01,2.45208e+00,-1.05540e+00,3.06108e-01,1.25049e-01,2.16560e-01,2.45733e+00,-4.56824e-02,-1.41824e+00,3.89472e-01,-4.67001e-01,3.01731e-01,8.58388e-01,9.01823e-01,-4.27594e-01,6.84289e-01,1.18938e-02,-2.03476e-01,
-1.36948e-01,9.49599e-03,-1.38863e-01,1.45009e-02,2.00551e-02,-2.40808e-01,-1.23084e-01,3.25245e-02,7.88718e-02,2.04245e-02,-1.36803e-01,-5.74912e-02,1.01873e-02,7.59982e-02,-1.46138e-01,-9.10074e-02,5.73273e-02,-6.59210e-02,1.47955e-01,7.03083e-02,-6.61596e-02,1.05562e-01,-7.55332e-02,-8.48411e-02,-4.75373e-03,6.60235e-02,7.83520e-02,-7.48353e-02,-1.36368e-01,4.35885e-02,-1.47388e-01,6.36972e-02,9.17308e-02,1.61574e-03,-1.12873e-01,-1.44428e-01,-5.74710e-02,6.99405e-02,5.93641e-02,-1.69008e-01,-9.48852e-02,-3.03798e-02,-6.45098e-02,5.36553e-02,3.68449e-02,6.18894e-02,6.67266e-02,9.57317e-02,6.67804e-02,-1.16074e-01,
4.69926e-01,4.08884e-01,1.85463e-01,8.68883e-01,-9.47657e-01,-8.57920e+00,-3.50731e+00,1.14030e+00,5.18583e-02,3.13976e-01,4.31151e-01,1.84579e+00,2.44769e-01,-1.79830e-02,-1.12137e-01,1.09834e+00,4.79314e-01,-4.32428e-01,1.70457e+00,-6.86710e-01,-2.69506e-01,-3.30778e-01,-6.58605e-01,-2.24633e-01,2.04342e-02,5.21441e-01,9.13928e-01,7.91134e-01,-7.32973e-01,1.01704e-01,-6.23539e-01,-7.17065e-01,7.27761e-01,-7.28795e-01,-1.79780e+00,1.08374e+00,6.66371e-01,7.65811e-02,1.86647e-01,-1.71360e-01,6.21338e-01,-3.58866e-01,2.82117e-01,-1.37108e-01,-2.10127e-01,3.60947e-01,4.00460e-01,4.37648e-01,8.84444e-01,-1.52199e+00,
5.17693e-01,-1.88861e-01,-1.10653e-01,6.10181e-01,3.57651e-01,1.10959e+00,2.13089e-01,1.38339e-01,-5.98133e-01,3.33181e-02,-2.86477e-01,4.09145e-02,-8.96520e-01,5.63481e-01,1.05493e-01,-1.18442e+00,-1.16413e+00,4.42435e-01,-1.35846e+00,5.99078e-01,-4.04175e-02,1.98201e+00,-2.90362e+00,6.23524e-01,9.86964e-03,4.91189e-01,-3.93000e-01,3.94516e-01,-5.09288e-01,-1.07220e+00,4.56513e-02,-4.90500e-01,-3.57225e-01,-4.29378e-01,1.69915e-01,1.53339e-01,3.53380e-01,9.76487e-01,-6.93323e-01,-7.23389e-01,-2.32865e-01,9.09224e-02,5.22503e-01,-4.99166e-01,-4.39303e-01,-1.79512e-01,5.07023e-01,4.46633e-01,9.71412e-02,-4.23109e-01,
-1.64987e-01,-8.33527e-02,2.42473e-01,8.50368e-01,-4.79460e-01,5.82513e-01,9.82952e-01,1.07879e+00,7.26892e-01,5.29269e-01,-4.18537e-01,-7.80971e-01,3.65121e-01,7.17431e-01,2.65642e-01,-8.55164e-02,-6.24654e-02,-4.33837e-02,-4.74597e-01,2.63688e-01,3.66676e-02,1.05476e+00,-1.84634e-01,3.42488e-01,-7.13987e-03,7.95176e-01,1.19533e+00,5.41726e-01,6.09728e-01,1.73506e-01,-2.57625e+00,-1.21161e+00,1.01440e+00,1.15735e+00,-1.40846e+00,8.10331e-01,1.29969e-01,5.32479e-01,2.04186e+00,1.37569e-01,-1.64729e-01,-5.30415e-01,2.25923e-01,6.52957e-01,-1.65551e-01,6.86438e-01,1.99711e-01,8.20853e-01,1.69850e+00,-9.24089e-01,
3.96691e-01,-9.66309e-02,5.24738e-01,2.90395e-01,-1.41133e-01,-1.89133e+00,-1.61072e+00,1.25004e-01,-4.60584e-01,9.90398e-01,1.49935e-01,-4.03642e-01,-2.08745e-01,-3.96032e-01,-1.32516e+00,-2.29743e-01,-7.85902e-01,1.20239e-01,-4.74980e-01,5.98314e-01,-2.38218e+00,1.42707e+00,2.47473e-01,-1.41231e-01,-2.68979e-02,2.71052e-01,-9.50764e-01,-4.88094e-01,7.89393e-01,-6.25228e-03,-1.23165e-01,1.10131e-01,-1.70346e-01,4.73505e-01,-5.67374e-02,-1.98819e-01,-4.13459e-02,3.35743e-01,2.29650e-01,-1.05583e-01,-3.42492e-01,9.80278e-02,-7.32316e-01,6.09348e-02,6.04883e-01,5.81011e-01,-1.76308e+00,-7.42039e-01,-1.69620e-01,-5.81466e-01,
-1.24508e+00,5.62699e-01,2.60105e-01,-2.36235e-01,-3.67931e-01,-2.26799e-01,2.39146e-01,6.63539e-01,-8.59104e-01,-8.28027e-01,-1.14967e-01,4.52936e-01,-2.38205e-02,4.82179e-01,8.25268e-01,1.61358e-01,-3.38258e-02,5.68360e-01,-1.88275e+00,7.45016e-01,-1.19559e-02,-1.04783e+00,1.10075e+00,3.31847e-01,-3.44808e-02,2.38694e-01,1.53113e-02,1.14493e-01,3.54661e-01,4.53307e-01,-1.66063e-01,-7.10224e-01,-6.56524e-01,-2.07768e-01,-2.61955e-01,3.24339e-01,-7.28687e-02,7.26105e-01,-4.55242e-02,-1.26913e+00,-6.32906e-01,4.17452e-01,1.43878e+00,-3.90330e-01,-6.54117e-03,-1.00863e+00,5.09374e-02,6.46698e-01,-1.59838e-01,-2.31139e-01,
-3.48713e-01,9.89373e-02,1.76364e-01,1.00371e+00,2.17003e-01,2.44686e-01,5.74970e-02,5.66870e-01,-3.48277e-01,2.12931e+00,2.62162e-01,-5.17690e-01,-1.12407e-01,-3.09114e-01,1.19633e-01,2.83863e-01,3.79286e-01,9.09194e-02,-2.07329e-02,6.66918e-01,2.88551e-01,-4.61617e-02,-1.56872e-01,4.30320e-02,-2.35660e-02,3.68011e-01,4.01163e-02,2.13342e-01,2.91498e-02,1.91933e-01,-3.80400e-01,6.49060e-02,1.40289e-01,1.38621e+00,-3.87508e-01,-4.34461e-01,-9.81892e-02,-6.13056e-01,6.17226e-01,1.71985e-01,-2.66164e-01,4.84587e-02,3.31019e-01,3.21773e-01,5.07049e-01,8.95311e-01,-1.50759e-01,-6.02380e-01,-1.42155e-01,1.60951e-01,
8.35500e-02,
-2.13261e-02,
7.56291e-01,
-1.25082e+00,
1.78469e-01,
-3.39158e-01,
1.09226e-01,
-1.26214e+00,
-3.56488e-01,
-8.29379e-03,
-2.01183e-02,
-1.92039e-01,
-8.92578e-02,
-2.06319e-01,
1.05053e-01,
-9.32226e-02,
-2.45924e-01,
1.59416e-01,
4.65794e-01,
-7.60039e-01,
1.27213e-01,
3.93189e-01,
-7.17872e-02,
3.19831e-01,
-1.41183e-02,
-6.60377e-03,
-7.03714e-01,
4.40894e-01,
-4.03874e-01,
-5.50258e-01,
-1.33355e+00,
-1.11956e+00,
-7.31673e-01,
2.37415e-01,
-8.27488e-01,
3.17529e-01,
-7.41801e-01,
-1.74412e-02,
-3.02206e-01,
-9.96994e-02,
6.55079e-01,
1.25241e+00,
3.90987e-02,
-2.42382e-02,
-3.85696e-01,
-3.59071e-01,
-1.55856e-01,
2.85971e-02,
-4.26623e-01,
7.80925e-01,
1.46062e-01,-5.49069e-03,7.93907e-01,1.30888e+00,2.24081e-01,-1.36410e+00,-1.09635e-01,8.98539e-01,3.10022e-01,6.82475e-03,-3.62062e-03,1.49834e-01,-2.35071e-01,1.57890e-01,-1.78135e-03,4.84720e-01,3.23807e-01,-5.98065e-01,-4.91531e-01,3.24435e-01,-6.68401e-01,3.04915e-01,4.19003e-01,2.98746e-01,2.34912e-02,5.49653e-03,-1.79487e-01,-1.50386e+00,3.08066e-02,3.37636e-01,3.40796e-01,1.64739e+00,1.50481e-02,3.39050e-01,3.95486e-01,-7.85359e-01,-6.33538e-01,-3.84620e-02,-3.22461e+00,6.24705e-01,-8.80133e-01,-1.00503e+00,-5.20676e-01,3.33464e-02,4.96559e-01,1.13749e-01,-1.11590e+00,-1.15657e+00,5.15279e-01,-1.32622e-01,
-1.15900e+00,-8.27789e-03,-4.78648e-01,-4.85165e-01,1.43533e+00,1.08912e+00,3.48308e-01,-4.84346e+00,4.27388e-02,3.70465e-01,-1.92723e-02,-6.73709e-01,1.60745e-01,6.50405e-01,8.56348e-01,3.71640e-02,2.55892e-02,-2.62880e-01,-1.08544e+00,-3.63110e-01,-1.62061e+00,-7.89267e-01,3.73978e-01,-9.78965e-01,2.76093e-02,3.13649e-02,5.36809e-01,-1.14920e+00,-9.40774e-02,-3.33346e-02,-2.57751e-01,1.96950e+00,5.01485e-02,7.33369e-02,-8.66354e-01,7.79935e-01,7.60352e-01,-2.17517e-02,-2.00374e+00,-8.01014e-01,2.14337e-01,1.15480e+00,-9.67842e-01,2.54242e-02,1.58038e-01,-1.84218e-01,-5.93141e-02,-2.33211e+00,-5.17898e-01,-3.17556e-01,
1.01583e+00,2.82395e-02,1.11866e-01,-5.24130e-01,3.73136e-01,-1.15599e-02,-1.16923e-01,-7.87078e-01,-1.54454e-01,6.78869e-02,-3.53034e-03,2.63966e-01,-9.61603e-02,5.44680e-01,1.48624e-01,1.15876e-01,-4.90365e-02,-6.46944e-01,8.01084e-01,-1.02975e-01,6.47824e-01,2.10518e-01,1.34414e-02,7.18505e-02,4.19941e-02,-2.86356e-03,-1.88786e+00,-5.09127e-01,3.96081e-01,2.35139e-01,-2.34269e-01,-5.94599e-01,-8.88495e-02,6.63104e-01,-1.10467e-01,-6.33579e-01,-7.40803e-01,3.17191e-02,1.29543e-01,3.61322e-01,-1.00759e-01,-5.03037e-01,-1.97447e-01,1.01419e-03,2.36294e-01,3.12905e-01,-3.51823e-01,7.69389e-02,-4.90059e-01,-3.05079e-01,
1.71550e-01,2.82890e-02,4.77124e-03,2.51563e-02,5.62535e-01,-8.17147e-02,1.07524e+00,-1.49315e-01,3.33289e-01,-2.67687e-01,2.51055e-02,6.81931e-02,-6.94010e-02,3.54327e-01,-1.32719e-01,1.93532e-01,1.64038e-02,-2.62618e-01,4.27665e-01,-2.74604e-01,-5.26276e-01,3.69284e-01,2.87887e-01,-1.81297e-01,-2.81393e-02,-3.09896e-03,8.11781e-02,7.71188e-01,2.67360e-01,-1.77761e-01,1.51055e-01,-6.83415e-01,3.47794e-01,6.74580e-01,1.04303e+00,-3.56357e-02,2.54170e-01,-4.00246e-02,1.76959e+00,2.31712e-01,-2.73251e-02,1.16641e-01,3.76222e-01,3.95626e-02,3.62095e-01,-1.35576e-01,1.86865e-01,-3.63663e-01,-1.92850e-01,-3.04186e-01,
9.55485e-01,2.54362e-02,1.02830e+00,-3.71288e-01,3.74185e-01,-4.67278e-01,-3.56728e-01,-2.64583e-02,-1.61747e-01,5.01191e-01,5.11949e-02,-1.32808e-01,-7.26330e-01,-6.93849e-01,7.69499e-01,-4.07224e-02,2.51933e-02,9.79278e-03,-5.32192e-01,-2.57975e-01,-1.66326e+00,-1.15386e+00,1.95759e-01,-4.42527e-01,4.14540e-02,4.96907e-02,9.68233e-01,-8.19594e-01,-5.15786e-01,5.03378e-01,5.34120e-01,-1.93176e+00,5.46852e-01,2.17526e-01,1.59655e-02,6.95426e-01,-4.29430e-01,4.47726e-02,-9.76005e-02,3.80133e-01,2.74513e-02,-8.08610e-01,1.04804e+00,-5.30910e-03,2.72228e-01,8.17947e-01,9.77107e-01,1.37715e-01,-6.36124e-01,-5.01804e-01,
-1.20828e+00,-3.03847e-02,4.36792e-01,3.35091e-01,-1.73446e-01,4.10784e-01,3.69784e-01,-3.09007e-01,-3.60549e-01,-5.24694e-02,1.12505e-02,-7.91586e-01,6.35683e-01,-7.33220e-01,1.06559e+00,1.06831e+00,-2.83025e-01,1.87090e+00,-1.04886e+00,5.04083e-01,-2.93927e-01,1.90397e-01,7.13050e-01,1.26695e-02,1.16692e-02,-7.02797e-03,2.24872e-01,-9.04221e-01,-6.25775e-01,-1.43618e-01,-1.47374e-01,1.06813e+00,5.56923e-01,-2.14550e-01,1.35698e-01,-2.61860e+00,1.18405e-01,1.45899e-02,1.47995e+00,5.65217e-01,4.50213e-01,-9.72123e-01,7.01766e-01,-1.56905e-03,5.46697e-01,4.84728e-01,-6.90185e-01,-5.92518e-01,1.40418e-01,-6.36279e-01,
-4.22953e-01,2.22066e-02,3.38828e-01,1.27635e+00,-9.92700e-01,1.86136e+00,-2.55366e-01,2.35268e-01,-6.44658e-01,-2.28869e-01,-8.60178e-03,4.94966e-01,7.12184e-01,-2.16503e-02,1.73294e-01,4.41220e-01,-4.12607e-01,1.11625e+00,-8.42493e-01,4.96495e-01,-6.57396e-01,2.17746e-01,-5.25635e+00,5.85211e-02,3.64919e-02,-1.27628e-02,-5.18883e-01,-1.13222e-01,2.03969e-01,-5.07175e-01,9.99772e-01,4.59076e-01,-3.51577e-01,-2.37441e-01,-2.15900e-01,-4.56683e-01,2.79574e-01,-1.87747e-02,-6.89664e-02,-4.71874e-01,-4.09932e-01,4.49981e-01,-3.02601e-01,-4.75218e-02,-7.12586e-01,1.10293e-01,-1.63186e+00,1.51175e-01,7.41153e-01,-1.30518e-01,
-7.99142e-01,8.16988e-03,5.53741e-02,-5.59372e-01,4.00247e-01,3.17241e-01,1.19910e-01,-8.09255e-02,-4.16870e-01,3.19947e-01,2.16162e-02,7.65637e-02,4.78367e-01,1.18377e-01,-1.37534e-02,8.71742e-02,-2.22959e-01,1.21210e-01,5.16931e-01,-1.46308e-01,4.91406e-01,5.12597e-01,6.23626e-02,1.62539e-01,1.29173e-02,1.06943e-02,1.17349e+00,-9.46097e-01,-5.17743e-01,-2.28096e-01,-2.04102e-01,-2.01319e+00,2.31522e-01,3.37310e-01,5.13740e-01,-2.90217e-01,2.42341e-02,3.42037e-02,-2.14850e+00,6.28177e-01,6.31272e-02,7.07556e-01,-2.65911e-01,9.90055e-03,8.68733e-02,-1.29735e-01,3.94900e-01,-2.07967e-01,1.95495e-02,4.27805e-01,
2.00733e+00,-1.27730e-02,-2.32578e-01,1.59315e-01,3.90867e-02,6.19946e-01,5.09541e-01,3.07073e-01,1.60823e-01,-1.46549e-01,2.48556e-02,7.96208e-02,6.14687e-01,3.53465e-01,7.46948e-03,-5.93243e-01,-5.28530e-01,-2.00885e-01,-4.41188e-01,4.06136e-02,-3.82636e-01,-4.07389e-01,2.13565e-02,5.00072e-01,1.36711e-02,5.12252e-03,3.89010e-01,-1.71396e-01,-1.79847e-01,-2.60451e-01,1.69223e-01,-8.99478e-03,4.39930e-01,5.09578e-01,3.92761e-01,1.06603e-01,-3.94178e-01,8.15187e-03,-1.88212e-01,-2.66459e-01,4.98582e-01,2.73241e-01,3.95952e-01,4.77267e-02,4.04917e-01,2.80034e-02,3.54442e-01,1.04364e+00,2.01704e-01,1.53662e-02,
7.36684e-01,-3.49476e-02,-5.93136e-01,-6.60230e-01,-6.05671e-02,1.79066e-01,2.28669e-02,-7.24873e-01,-9.95080e-01,1.96620e-01,-3.82987e-02,-5.35398e-01,-1.70078e+00,-3.17144e-01,-6.50313e-01,6.94423e-01,2.32435e-01,-3.99975e-01,-1.30644e-02,-1.82340e-01,-1.42796e-01,6.92194e-01,-2.43510e-01,-2.86019e-01,2.67213e-02,-3.11121e-02,-2.68437e-01,-8.22044e-01,3.73082e-01,-7.51817e-01,-1.17626e-01,-2.79496e-01,-1.98716e-01,7.79035e-01,-3.51806e-01,4.72195e-01,-1.00530e+00,4.89097e-02,-2.11348e-01,7.65523e-01,1.53060e-01,-2.61150e-03,-1.46425e-02,-4.32454e-02,1.99387e-01,-1.37113e-02,9.70794e-01,-1.23406e+01,7.54137e-03,8.91815e-02,
1.45289e-01,1.85443e-02,3.92431e-01,6.83524e-01,-1.67875e-01,6.17611e-01,-2.61705e-01,1.65697e-01,1.22478e-01,-4.08404e-01,2.65899e-02,2.51481e-01,1.00811e+00,-1.62485e-01,-3.93967e-02,5.48562e-01,-1.01927e-01,-4.21665e-01,2.93742e-02,1.15174e-01,1.93213e-01,2.85337e-01,2.23236e-01,1.53470e-01,5.37730e-02,-3.83626e-02,-3.01958e-01,-1.74012e-01,2.98870e-01,1.58220e-01,3.87716e-01,-8.84214e+00,-4.97444e-01,1.34055e-01,3.49669e-02,3.24018e-02,-3.12263e-01,4.53832e-03,-3.80591e-01,9.48510e-02,-3.35861e-01,-7.06575e-01,6.20854e-02,2.50020e-02,-1.00599e-01,-4.45625e-01,1.91583e-02,1.21613e+00,2.60189e-01,-1.23328e-01,
-5.86311e-02,-3.25541e-02,2.12813e-02,-1.27002e-01,2.48770e-01,2.59232e-01,2.06535e-01,2.53648e-01,2.73293e-02,-3.89660e-02,3.27889e-02,-3.73718e-02,4.59418e-01,3.10978e-01,1.21522e-01,-2.19244e-01,-1.03901e-01,-4.17250e-01,2.84548e-01,5.70689e-02,5.09280e-02,-1.19908e-01,-1.23251e-01,9.70952e-02,1.40834e-02,-1.53388e-03,-9.55284e-03,1.74559e+00,3.05404e-02,9.25489e-02,-1.10095e-01,4.40722e-01,-1.70389e-01,1.15845e-01,-1.30184e-01,2.22611e-01,-2.51620e-01,-3.69903e-02,5.87174e+00,-2.53637e-01,1.07282e-01,2.09906e-02,3.10117e-01,1.42127e-02,2.99072e-01,2.13150e-01,3.85674e-01,3.11470e-01,2.50381e-03,4.90902e-01,
8.98132e-01,3.09214e-03,1.92508e-01,8.55317e-01,-7.62740e-01,-1.08065e-01,1.08849e-01,7.31708e-01,-9.99004e-01,2.91265e-01,3.58668e-03,-4.89437e-03,1.02984e+00,-1.89973e-01,1.10379e+00,2.98759e-01,3.64115e-01,-1.59853e-01,-3.90424e-01,3.57379e-01,-7.71181e-01,4.28050e-01,-9.66753e-02,3.34153e-01,-5.03492e-02,3.02441e-02,-1.22240e-01,-2.63457e-03,4.15853e-01,-6.37170e-02,1.61621e-01,-3.94565e-01,-4.58226e-01,1.49316e-02,7.66441e-01,-8.83442e-01,9.72034e-01,1.16764e-02,-7.78877e-02,1.24059e+00,-1.17544e+00,-2.64858e-02,-2.69490e-01,-1.26421e-02,-2.63898e-01,-9.54828e-01,7.90132e-01,-6.49859e+00,3.56417e-01,-9.02285e-01,
-2.03191e-01,3.54445e-02,-1.35743e-01,1.72597e+00,-5.60661e-01,1.44559e+00,-3.14939e-01,-8.18213e-01,-5.69982e-01,-3.13603e-01,-5.82217e-04,-6.49615e-02,2.66850e-01,4.68704e-01,1.54891e-03,2.67696e-01,-3.94840e-01,-1.38025e-01,-6.13058e-01,2.33437e-01,2.45356e-01,-3.98625e-02,-5.88535e-01,-3.85030e-01,-2.87808e-02,3.47579e-02,1.34580e+00,1.39366e-01,2.71717e-01,-1.18868e-01,4.62311e-01,-1.07635e+00,6.27303e-01,8.75428e-01,1.89252e-01,-6.40010e-02,6.18753e-01,4.44535e-02,-8.93462e-01,-3.77205e-01,4.99965e-01,2.53536e-01,-1.07397e+00,3.69999e-02,-3.08284e-01,1.94815e-02,-4.97418e-01,-7.94475e-01,-4.99362e-01,-3.33678e-02,
6.32305e-01,4.12482e-02,-5.40681e-01,-1.65997e-01,2.20873e-01,-1.29048e-01,1.68887e-01,-9.94412e-01,1.41814e-01,-2.19544e-01,-1.24984e-02,1.38516e-01,1.62982e-01,2.68959e-01,-5.57615e-01,2.74573e-01,-9.93238e-01,-9.18738e-02,6.15859e-01,-1.79101e-01,9.66425e-02,2.19819e-01,-1.45608e-01,-5.44013e-01,-2.90327e-02,-1.14326e-02,-2.13131e-01,1.66701e-01,3.33745e-02,1.72050e-01,-2.83350e+00,3.10848e-01,1.91265e-03,-4.48736e-01,-4.29262e-01,1.19225e-02,2.22933e-01,2.02681e-02,1.76466e-01,2.27715e-01,4.05280e-01,1.94034e-02,3.70197e-01,-5.36075e-02,-2.16867e-02,-6.05030e-01,-1.81651e-01,1.62705e-01,-1.95963e-01,-4.11197e-03,
2.95540e-01,1.34774e-02,-7.66397e-02,1.55444e+00,-1.56924e-03,-6.90961e-01,3.43543e-01,7.83698e-01,1.50708e-01,-2.65535e-01,4.80418e-02,4.46613e-01,-6.23718e-01,-9.68348e-01,-3.91631e-01,-1.77534e-01,1.59797e+00,-7.45347e-01,1.02228e+00,-1.31052e-01,4.84417e-01,-5.02683e-01,-4.93821e-01,7.05358e-01,-1.97819e-03,-3.33751e-02,1.20488e+00,-7.88768e-01,1.45751e+00,-2.15878e-01,2.63781e-01,-4.79928e-01,-3.43349e-01,-9.73586e-01,7.26654e-01,7.19119e-01,4.50342e-01,3.80341e-02,-4.12317e-01,-7.13630e-01,3.50072e-01,-6.76184e-01,7.05949e-01,-2.88373e-03,2.38811e-01,-4.33828e-02,8.75698e-01,3.55630e-01,-6.46988e-01,-2.69284e-01,
9.25119e-01,3.47794e-02,5.83957e-01,2.62754e+00,1.24780e+00,-2.35001e-01,3.16653e-01,7.27520e-01,1.99335e-01,-2.16497e-01,1.01935e-02,1.48690e-01,-1.10396e-01,-2.40330e-02,4.56126e-01,-4.90487e-01,1.96107e-01,5.46506e-01,-3.52632e-01,7.83501e-02,6.72063e-01,6.93502e-01,-8.19177e-03,1.51910e-01,-1.57389e-02,-3.73847e-02,-1.63118e+00,4.17357e-01,7.15541e-01,-3.81919e-02,5.54091e-01,-1.79529e+00,-1.07839e-01,-2.68705e-01,-4.96835e-02,1.46279e-01,-1.36102e-01,7.29548e-03,1.30949e+00,-8.74077e-01,3.43603e-02,1.33566e-01,-3.55562e-01,2.73204e-02,-8.38481e-03,-6.04518e-01,-1.02755e+00,3.75703e-02,-2.40937e-02,-2.22968e-01,
5.27795e-01,3.83142e-02,-2.62704e-02,-5.58835e-02,1.03953e+00,-4.52990e-02,6.19427e-01,3.88013e-01,1.96309e-01,9.95666e-02,2.50881e-02,-4.75638e-01,4.94389e-01,3.66606e-01,-6.01781e-02,-3.26281e-01,3.20777e-01,-9.14559e-01,-2.37588e-01,-9.36699e-02,-2.11966e-01,-6.90574e-02,-2.71039e-01,-2.10916e-01,3.88060e-03,1.58154e-02,-3.72675e-01,-5.70993e-01,-3.04966e-01,4.42160e-01,-8.89994e-02,4.24015e-01,1.49365e-01,-1.30786e-01,6.93733e-01,2.18213e-01,-2.80842e-01,1.95526e-02,-3.54020e+00,-1.05933e+00,3.03139e-01,2.03008e-01,-7.89994e-01,-3.78943e-02,3.88755e-01,3.33951e-01,-5.58641e-01,9.23171e-01,3.73548e-03,-2.70135e-02,
-6.09429e-01,-2.67744e-02,-5.80239e-01,7.09073e-01,1.54059e+00,1.27831e+00,1.19364e+00,-8.52780e-02,-2.14036e-01,1.35961e-01,1.80170e-02,-9.29485e-01,2.45321e-01,3.50963e-01,-5.27670e-01,3.12389e-01,-6.94840e-01,-8.88829e-01,9.89515e-01,6.86288e-02,5.11784e-01,7.77572e-01,4.83711e-01,5.93932e-01,-1.76397e-02,-8.07724e-03,4.78705e-01,-2.72688e-01,9.31793e-01,-1.08836e+00,-2.28822e-01,1.79002e-01,-2.08995e-01,-9.70445e-02,-2.22130e-01,-3.50161e-01,3.35524e-01,-3.59516e-02,-1.12456e+00,3.49130e-02,-4.66457e-02,5.10957e-01,5.74043e-02,-4.93969e-02,4.62243e-01,-5.68002e-01,1.45591e-01,-4.48148e-01,-3.90142e-01,-4.35030e-01,
2.81987e-02,5.66582e-04,-3.31900e-02,2.21532e-02,-8.49354e-03,-1.80649e-02,-5.65698e-02,-1.19536e-02,3.27668e-02,1.18744e-02,-3.85735e-02,-3.14957e-02,-1.86819e-02,-2.45256e-02,-3.09155e-02,-1.17556e-02,-7.60115e-03,5.68355e-03,-4.77713e-02,-1.85308e-02,-1.68257e-02,-3.25391e-02,-4.12281e-02,3.57343e-02,2.92336e-03,-1.78145e-02,4.38456e-02,1.84717e-02,-2.19421e-02,-2.54984e-02,-3.24205e-02,-4.93456e-02,9.90545e-03,-4.01097e-02,-3.24605e-02,-2.12912e-02,-1.94038e-02,-4.00194e-02,5.35880e-03,-2.63758e-02,-8.01250e-03,-2.10690e-02,9.91700e-03,4.46544e-02,3.45754e-02,-1.17978e-02,3.09422e-02,-1.97059e-02,-2.86900e-02,2.84456e-02,
4.98226e-01,-2.12754e-03,-3.00608e-01,-1.30814e+00,-1.94194e+00,2.54332e-01,-1.45014e-01,-7.69556e-01,-2.93914e-02,2.05862e-01,-1.93495e-02,9.12017e-01,3.95964e-01,-1.09370e-01,-1.65953e-01,2.19708e-01,-9.99070e-01,1.00183e+00,1.53223e-01,7.10201e-01,-3.56056e-01,4.72834e-01,-1.50369e-01,9.07250e-01,-1.08754e-02,-1.56438e-02,-6.44223e-01,7.45345e-02,1.92381e+00,4.98027e-01,-2.60848e-02,-8.32925e-01,1.39549e-01,-9.29577e-01,-7.09852e-01,-9.00559e-01,3.20868e-01,-1.62844e-03,-1.09856e-01,4.65536e-01,-4.23107e-01,5.31479e-01,3.83489e-01,7.33732e-02,3.27893e-01,-4.98930e-01,2.39318e-01,-8.81306e-01,1.59369e-01,-3.60308e-01,
2.65352e-01,-3.07186e-02,4.62529e-02,-1.81781e-01,7.33043e-01,-1.93816e-01,2.81904e-01,-6.99689e-01,1.86055e-01,-9.36909e-02,2.38121e-02,-9.34531e-02,2.64831e-01,-1.77657e-01,4.20084e-02,3.74126e-01,-1.72945e-01,9.28257e-02,4.39511e-01,-4.65424e-02,-8.80043e-01,-4.76758e-01,-7.76608e-02,1.66694e-01,-3.12025e-02,-4.23739e-02,-4.13975e-01,-6.78724e-02,1.30769e-01,-7.48384e-01,2.87819e-01,-1.11993e+00,3.31507e-01,-2.69191e-01,-7.12341e-03,2.62485e-01,-2.08505e-01,4.27367e-02,-9.31398e-01,5.79382e-01,-3.01603e-01,-1.57170e-01,3.65364e-01,-2.36449e-02,1.33663e-01,4.01716e-01,-7.58450e-02,-9.66528e-02,1.55062e-01,-2.64658e-01,
-2.52108e+00,2.90909e-02,-2.01700e+00,-3.73543e+00,-4.04761e+00,-5.62509e-01,-1.99905e-01,1.40298e+00,-2.51244e-01,6.55591e-01,-4.31569e-03,-7.04431e-01,8.46059e-01,-7.93253e-01,1.19701e+00,-1.70021e+00,6.26717e-01,-7.17111e-01,1.41032e-01,5.58686e-01,2.98765e-01,-7.90634e-01,-5.92991e-01,-1.09094e+00,3.77733e-02,2.84864e-02,-1.43141e-01,4.82417e-01,5.85517e-01,1.09315e+00,-4.69709e-01,-5.97111e+00,-1.72166e-01,-5.77610e-01,6.11873e-01,1.22430e+00,3.91898e-02,-2.15232e-02,-3.36316e-01,-1.70098e+00,1.57578e+00,1.69731e+00,-1.11178e+00,-3.97061e-02,5.56967e-01,-5.36328e-01,2.21273e-02,1.63250e+00,-6.56437e-01,1.03972e+00,
3.95581e-02,-3.26162e-02,-4.05857e-03,-1.02651e+00,-1.07761e-01,1.38699e-01,-9.46598e-03,-2.80400e+00,-2.04017e-01,-7.75859e-01,9.47907e-03,-3.27877e-01,6.78573e-01,5.76370e-01,-5.58828e-01,-4.26074e-01,-1.62050e+00,7.91128e-01,-1.34279e-01,-9.16140e-01,8.01432e-01,-8.60391e-01,8.42009e-02,-3.24098e-01,3.48720e-02,-2.24831e-03,-6.24006e-01,-9.08793e-01,-3.63467e-01,-3.69129e-01,6.74471e-01,-2.98808e+00,-2.14513e-01,1.51582e-01,-5.37565e-01,-8.99473e-01,5.03065e-01,-3.47963e-02,4.42589e-01,-1.17465e+00,1.04381e+00,2.12021e-02,7.74294e-01,2.75866e-02,6.30269e-01,-4.35067e-01,2.72839e-01,1.03739e+00,-6.77481e-01,-5.70449e-01,
-7.50542e-01,-2.18864e-02,8.47197e-02,-7.04043e-01,-4.85713e-03,3.05485e-01,-5.85694e-02,-4.90719e-01,4.74623e-01,9.64657e-02,1.15016e-02,2.41220e-01,-3.82614e-01,2.23110e-01,-2.31176e-01,6.87190e-01,3.29334e-01,-3.91206e-02,-3.47505e-01,3.40976e-01,-2.67964e-01,-5.33978e-01,1.73983e-01,-3.22495e-01,-4.85967e-02,2.71819e-02,-5.11946e-01,-1.52064e-01,7.43975e-02,-7.27767e-02,-4.81172e-02,-9.70282e-01,9.36253e-02,-6.81210e-02,-2.76842e-01,8.81781e-02,-1.90790e-01,-5.94462e-03,6.78953e-01,1.27712e+00,-2.06637e-01,2.41272e-01,-2.03420e-03,1.53705e-02,3.19087e-01,-3.88181e-01,-2.45889e-01,1.56800e-01,1.40698e-01,-4.09218e-01,
7.97069e-01,-1.94802e-02,3.16095e-01,2.85329e-01,-1.17365e-01,-6.32377e-02,-2.32592e-01,-4.75468e-01,-1.70941e-01,-3.10699e-01,-2.32985e-02,1.60642e-01,6.27335e-02,2.14435e-01,4.18008e-01,2.32314e-01,1.97494e-01,6.45641e-01,5.46500e-02,2.29725e-01,-3.05095e-01,-4.50711e-03,7.29770e-03,7.28562e-01,-1.40871e-02,3.11146e-02,-5.21048e-01,3.78378e-01,3.69133e-01,9.29027e-02,2.21504e-01,5.71580e-01,3.02709e-01,1.76794e-01,4.54705e-01,-5.25633e-01,8.73920e-02,2.29355e-02,1.72701e+00,-2.58743e-01,-6.49615e-01,-4.74960e-01,2.06950e-01,4.77512e-02,3.70692e-01,4.48857e-02,1.15091e-01,1.01085e+00,1.67652e-01,2.67723e-01,
7.52650e-01,-3.76294e-02,6.69118e-01,6.52661e-01,5.92636e-01,-5.60977e-01,1.30308e-01,8.51664e-02,1.63121e-01,-2.24185e-01,-1.82982e-02,1.31956e-01,2.81181e-01,1.54090e-01,6.60591e-01,6.46505e-01,4.21292e-01,-2.82950e-01,-1.24709e-01,1.91452e-01,-6.43629e-01,-7.41481e-01,-1.14439e-01,1.25842e-01,2.62423e-02,-3.12195e-02,-5.37618e-01,1.43949e-01,-2.57022e-01,6.58437e-01,5.65879e-01,6.66786e-01,-3.88398e-02,1.61569e-01,-4.51911e-01,-4.19057e-02,-2.23400e-01,-4.45499e-02,4.28439e-01,4.48001e-01,-1.02652e-01,-1.02271e+00,-2.48774e-01,3.79576e-02,2.47530e-01,-8.89271e-02,-4.74276e-01,-1.44519e-01,4.95624e-01,-9.68043e-02,
9.51803e-02,-1.87257e-03,-7.65131e-01,1.77984e-01,-2.84895e-03,-2.58364e-01,4.20046e-01,5.30761e-01,-2.90080e-01,-3.04580e-01,-3.21534e-02,-2.69594e-01,2.45471e-01,1.41296e-01,-1.34130e+00,-6.47862e-01,-1.14806e+00,-2.21185e-01,-4.22511e-01,-5.81615e-02,-9.34520e-02,5.29483e-01,-7.85954e-02,3.67973e-01,-2.37267e-02,-3.44987e-02,3.81297e-01,-1.09712e-01,7.51840e-01,-1.32968e+00,-5.76448e-02,-1.10399e+00,1.29584e-01,8.76565e-02,2.70392e-01,-6.02751e-01,3.60743e-01,-2.02855e-02,-1.57789e-03,-7.77420e-01,-1.07373e-01,3.75024e-01,-6.69179e-01,-4.12196e-02,-4.95119e-02,2.44512e-02,1.72365e-01,7.85415e-01,-1.41102e-01,-3.51960e-01,
-1.25352e+00,2.42106e-02,-2.01039e-01,1.20524e-01,-6.17982e-01,-5.97499e-01,5.45033e-01,2.64499e-01,-1.58410e-01,2.20350e-01,1.07195e-02,-8.74233e-01,-1.23166e-01,-8.82070e-01,1.78922e-01,-2.80296e-01,-2.86000e-01,-2.96518e-01,-1.25048e+00,-2.16888e-01,-8.09658e-02,-3.45123e-01,3.40223e-02,-3.17927e-01,2.86623e-02,4.76056e-02,-2.51601e-01,3.81293e-01,-3.17358e-01,2.26015e-01,-1.37131e-01,6.53059e-02,-6.46779e-02,4.41959e-01,-8.38587e-01,5.62255e-02,3.52452e-01,-7.29792e-03,6.06619e+00,5.46006e-02,2.40395e-02,-1.75076e-01,-5.52587e-01,-1.85979e-02,1.88826e-01,1.51210e-01,3.87068e-01,1.08374e-01,-1.45425e-01,1.02106e+00,
-4.64270e-01,-2.09486e-02,-1.61542e-01,7.64034e-01,-4.84822e-01,-3.31698e-01,1.36631e-01,-6.02292e-01,3.31718e-01,5.72579e-01,-2.33067e-02,5.72474e-01,9.87870e-01,1.07068e+00,1.79763e-01,-4.71947e-01,-6.69245e-01,2.26630e-01,-5.02685e-03,-4.05876e-01,7.76654e-01,3.76396e-01,3.43438e-01,2.08682e-01,2.33998e-02,6.73103e-04,6.04754e-01,7.78545e-02,-2.84744e-01,2.82232e-01,-3.24121e-01,3.06166e-01,-3.19713e-01,-3.54589e-01,-9.05442e-01,1.45754e-01,3.28999e-01,1.85485e-02,1.04418e+00,-2.90714e-01,-8.61877e-02,-1.01418e-01,4.77102e-01,-2.92807e-02,-3.19395e-01,5.37465e-01,-5.09263e-02,-4.49279e-01,-4.29729e-01,-4.71050e-01,
1.07584e-01,-1.49620e-02,-3.59278e-02,-3.72482e-01,7.02955e-01,7.62629e-01,3.58010e-01,5.03258e-02,-3.82309e-01,-2.60286e-01,-2.63229e-02,2.81257e-01,1.21750e-01,9.35972e-02,-1.97187e-01,1.25212e-01,4.00383e-01,-3.95041e-01,5.65861e-01,3.60610e-02,-1.77937e-01,1.37943e-01,-1.93347e-01,6.02310e-02,8.32568e-03,3.19692e-02,-1.70368e-02,-2.77048e-01,4.09735e-01,-6.27620e-02,2.61019e-02,-8.68398e-02,-1.04258e-01,1.13326e-01,1.18536e-01,-4.15733e-01,-1.28723e-01,-5.05919e-03,4.17283e+00,-3.25291e-01,-1.92767e-01,2.32578e-02,-8.73312e-01,1.25965e-02,2.02984e-01,9.39274e-02,-2.33993e-01,-1.02740e-01,1.58707e-01,5.37479e-01,
7.79768e-01,4.60521e-03,-1.07788e-01,4.13416e-01,9.50057e-02,-5.66790e-01,-8.79277e-03,-4.98294e-02,-1.50367e-01,-3.20293e-01,-3.91555e-02,-2.71165e-01,-3.21204e-01,3.52898e-01,2.56446e-01,-1.61893e-02,-3.61139e-01,3.37897e-01,-2.64790e-01,-2.99872e-01,-2.54086e-02,-2.54315e-01,1.55235e-01,-9.92112e-02,-1.36903e-02,-6.55971e-04,7.62300e-02,-7.03230e-02,-2.85394e-01,-7.73502e-02,2.87147e-01,2.24083e-01,-1.36703e-01,8.87629e-02,-4.75407e-01,-3.98168e-01,1.08211e-01,-9.39561e-03,6.36019e-01,-4.67488e-01,2.03305e-02,-1.01326e-01,4.97173e-01,3.05703e-04,2.53283e-01,3.52609e-01,1.91200e-01,-2.33907e-02,-9.36437e-02,3.76748e-03,
9.07045e-01,-2.00609e-02,-5.42313e-02,2.56682e-01,-2.73609e-01,-8.16323e-02,-8.19423e-02,-6.67430e-01,6.48148e-02,-3.71169e-01,-2.07716e-02,5.44816e-01,-4.02844e-02,8.18872e-02,2.44291e-01,9.26370e-01,6.80757e-04,-5.76869e-02,1.18569e-02,-3.63323e-02,2.67232e-01,4.37904e-01,-3.64664e-01,-8.08204e-01,5.93985e-03,-2.88534e-02,4.50273e-01,4.51901e-01,6.04125e-01,-3.23262e-01,9.28226e-02,-7.42443e-01,-2.45976e-01,-2.98309e-01,2.28993e-01,-7.34490e-02,1.04942e-01,-2.41614e-02,7.78216e-01,5.68608e-01,8.23384e-02,2.62053e-01,4.33182e-02,5.43064e-02,3.59142e-02,2.49233e-01,-6.58138e-01,-1.19324e+00,6.58258e-02,-1.73405e-01,
5.53672e-02,9.76905e-03,-9.71502e-01,-3.58402e-01,-1.04272e+00,6.10096e-01,-2.56809e-01,6.51194e-02,-6.62467e-01,-1.46877e-01,2.58337e-02,-3.34675e-01,-2.20834e+00,-2.59262e-01,9.31660e-01,4.53330e-01,-7.04270e-01,7.86025e-01,-5.35643e-01,-2.15562e-01,8.47485e-01,4.45442e-01,4.55008e-01,4.35540e-01,-1.80971e-02,-2.26917e-02,-4.41285e-01,2.09312e-01,-1.83792e-01,-3.32497e-01,1.49790e+00,-4.23652e-01,-1.46970e+01,-3.44224e-01,5.02204e-01,1.06786e+00,1.10770e+00,-2.81584e-02,1.92195e-01,1.00017e+00,-2.55278e-01,7.59057e-01,9.22768e-01,-3.67276e-02,1.12207e+00,-1.31168e+00,-4.71507e-01,-4.65215e+00,2.72306e-02,-6.85682e-01,
2.34000e-01,2.93159e-02,3.32882e-01,1.24706e+00,-7.73563e-01,1.16577e-01,-5.72868e-01,2.59173e-01,-3.37544e-01,1.59413e-01,2.36097e-03,5.41645e-02,-9.39995e-01,4.36153e-02,4.54926e-01,3.35852e-01,1.42115e+00,-3.60640e-01,1.46185e-01,-5.22267e-02,-9.31296e-02,5.94653e-01,2.74627e-01,9.27465e-02,1.61132e-02,3.32546e-02,-4.02924e-01,3.38912e-02,1.87877e-01,-4.04615e-01,1.59843e-02,5.41749e-01,4.92309e-01,4.04674e-01,-5.69183e-01,-4.42260e-01,1.78113e-01,-1.11348e-02,-2.23976e-01,-1.08061e-01,3.67642e-01,-1.31615e+00,4.06011e-01,1.56123e-02,2.27071e-01,-5.19789e-01,-5.13706e-01,4.62135e-01,7.78425e-02,7.73384e-02,
8.62983e-01,-4.67611e-02,2.06960e-01,4.34222e-01,5.76017e-01,1.14255e+00,5.66379e-02,-6.36594e-01,5.01918e-02,-3.28482e-01,6.89944e-03,-3.40273e-01,2.06483e-01,-1.12446e-01,4.31302e-01,-8.05058e-02,6.44224e-02,8.03858e-01,-1.45712e-01,-5.86431e-01,-6.12225e-03,8.76199e-01,3.55141e-01,-4.33557e-02,-4.26076e-02,-2.98103e-02,8.04772e-01,-4.29625e-01,1.44828e-01,-5.50955e-01,-2.46674e-01,-3.44367e-01,1.42266e-02,9.30318e-02,-2.47999e-01,2.88773e-02,7.05361e-01,-4.28293e-03,1.87929e+00,-1.30860e-01,-3.42430e-02,6.76066e-02,3.35097e-01,6.53250e-02,2.23728e-01,2.37086e-01,-1.32441e-01,1.47274e-01,6.66699e-02,-7.68807e-02,
-1.36454e-01,-3.01639e-02,2.11548e-01,4.00702e-01,-1.63457e-01,-1.02936e-01,-1.72071e-02,-1.43847e-01,-1.54709e-01,-2.05657e-01,5.62801e-03,-1.10026e-01,-6.70649e-01,-2.70103e-01,2.20789e-01,8.69835e-02,-3.89593e-01,-1.34786e-01,6.78404e-02,-4.38653e-01,4.16810e-01,-1.93901e-01,4.65170e-02,4.16242e-01,-3.24072e-02,4.17997e-02,7.25792e-01,6.16304e-02,-2.89006e-01,-1.33309e-01,2.32118e-03,1.00188e+00,-1.74772e-01,3.33639e-01,-6.19060e-01,-2.56912e-01,1.78977e-01,-3.62103e-03,3.48713e+00,1.71989e-01,4.39339e-03,-2.17781e-01,9.94489e-02,2.42226e-02,1.72693e-01,5.64508e-01,5.91217e-01,-8.21346e-01,-2.19971e-01,1.43907e-01,
3.67219e-01,-1.47802e-02,2.48119e-01,-1.60884e+00,3.81106e-01,1.10237e+00,-3.12325e-01,5.09428e-01,2.14846e-01,-1.41547e+00,-3.17061e-02,-1.08086e+00,6.57740e-01,2.43525e-01,2.80457e-02,7.85658e-02,1.25390e+00,-2.05988e-01,9.34208e-03,1.34740e-01,-6.99491e-01,-3.29449e-01,-6.10931e-01,-3.75192e-01,2.42696e-02,3.22354e-02,1.14848e+00,-4.39431e-01,-2.66475e-01,4.11069e-01,1.22500e-01,1.74076e+00,-3.84156e-01,5.58477e-02,8.26983e-01,-2.78778e-01,4.26810e-01,1.66626e-02,1.57558e+00,4.38477e-01,-4.20085e-02,1.06259e+00,5.65576e-01,1.56828e-02,-7.25162e-01,4.68068e-01,4.55621e-01,7.18144e-01,-5.30784e-03,-9.25064e-02,
-2.57706e-01,-3.31422e-02,2.76224e-01,1.37799e+00,-8.25000e-01,-5.98808e-01,6.68442e-01,-2.05590e-01,5.80261e-02,3.05880e-01,-1.50193e-02,2.32805e-01,9.03098e-01,8.31136e-01,1.00353e+00,7.85750e-01,1.89079e-01,3.15500e-01,1.52567e+00,8.52690e-01,7.40944e-01,1.60904e+00,5.23976e-01,-5.23105e-02,5.29722e-03,-1.98361e-02,-9.22446e-01,-5.32310e-01,3.82764e-01,8.87215e-02,3.28277e-01,9.25958e-01,3.45025e-01,-6.30245e-02,2.57892e-01,-3.63016e-01,7.49874e-01,-4.06652e-02,1.35525e-01,-1.40709e-01,9.79396e-01,-6.23986e-02,9.22492e-02,-1.33643e-02,-1.28191e-01,-1.80386e-01,1.29015e-01,2.60500e+00,-2.99233e-01,-8.00569e-01,
-5.77885e-01,2.15591e-02,1.48933e-01,-1.70277e-01,-3.86151e-01,3.42367e-02,-2.08452e-01,-1.46794e+00,3.98508e-01,1.65686e-01,-3.08293e-02,1.84304e-01,7.72126e-02,1.58258e-01,-3.96262e-01,1.24672e+00,-6.69484e-02,1.62623e-01,3.21119e-01,-1.27742e-01,3.15959e-01,3.98816e-01,3.57758e-01,-5.63836e-01,4.03536e-02,2.51802e-02,5.77722e-02,1.11992e-01,1.71346e-01,-8.05749e-02,2.62344e-01,-1.81049e+00,-1.11044e-01,-3.41043e-01,-4.79481e-01,1.21563e-01,8.85163e-02,-2.33549e-02,2.81266e-01,1.53269e+00,2.34276e-01,-2.80060e-01,1.61315e-01,3.54072e-02,5.73879e-01,-4.21220e-01,-3.25846e-01,2.56980e-01,-8.52825e-02,-2.10470e-01,
-3.52779e-01,3.73517e-02,4.49918e-01,2.75572e-01,-8.97830e-02,-1.86809e-01,-1.19094e-01,-8.99151e-01,-2.42046e-01,-2.29647e-01,4.32978e-02,-2.60913e-01,6.10268e-01,1.38198e+00,2.17736e-01,-2.81995e-01,5.49524e-01,6.11103e-01,1.10584e-01,1.67533e-01,1.25721e+00,3.84696e-01,-6.63257e-01,9.64344e-01,4.21780e-02,3.71448e-02,-1.08815e+00,-4.35193e-01,9.69010e-01,-1.52442e-01,-3.44656e-01,1.06736e+00,4.22155e-01,6.20929e-01,-3.07627e-01,7.81426e-01,-5.10016e-01,3.78419e-02,1.19682e-01,-1.60629e-01,3.20461e-01,-1.11042e-01,1.65071e-01,-4.13847e-02,-4.89200e-01,-2.55905e-03,-1.26075e-01,-3.20052e-01,-2.72004e-01,-3.39264e-01,
7.51743e-01,8.02776e-03,1.27171e-01,7.64413e-01,-6.49843e-01,4.27717e-01,-2.82083e-01,2.42726e-01,5.09590e-02,-3.74061e-01,3.08597e-03,3.27112e-01,5.06960e-01,-1.23995e-01,-7.81009e-01,6.04333e-01,-1.48293e-01,-4.23364e-01,2.18764e-01,-2.09530e-01,2.19464e-01,4.37041e-01,3.90218e-01,3.64812e-01,3.78370e-02,4.06732e-02,3.25407e-01,1.97235e-01,1.22919e-01,2.28857e-01,3.86305e-01,3.45948e-01,-4.60632e-01,2.09441e-01,-4.54688e-01,-7.67626e-01,-4.33038e-01,2.85780e-02,-1.87010e+00,-7.43135e-02,-6.41173e-01,-2.44149e-01,5.49823e-01,3.87929e-02,4.78138e-02,7.77570e-01,-5.11342e-01,-1.63986e-01,2.31896e-01,7.73283e-02,
-4.05981e-01,-1.71778e-02,-3.48640e-01,-2.74881e+00,-1.24885e+00,9.14388e-01,-1.34013e-01,-3.36847e-02,-2.68316e-02,5.62683e-01,6.19498e-03,-2.44515e-01,-7.84575e-01,1.47544e-01,-5.53004e-02,-5.57527e-01,-1.17063e+00,-3.08496e-01,-3.15810e-01,1.54522e-01,2.28761e-01,6.11872e-01,-5.36644e-02,1.51532e-02,-2.05841e-02,1.41396e-02,2.23693e-01,-6.21742e-01,6.12758e-01,1.15760e-02,-2.04615e-01,-4.61737e+00,3.88798e-01,2.05391e-01,-3.35703e-01,-1.46788e-01,-3.56230e-01,-1.64430e-02,4.55901e-01,-3.45588e-02,2.91943e-01,1.44346e+00,4.36454e-01,5.37305e-02,4.45731e-01,-1.62904e+00,-3.11250e-01,-1.06973e-01,2.11625e-01,3.30819e-01,
-1.14860e+00,-2.81092e-02,-3.16401e-01,-1.12960e+00,8.26642e-01,3.82134e-01,6.88130e-01,-1.63025e-01,-5.57976e-02,1.38514e-01,-3.65683e-02,9.73853e-02,-1.44558e+00,2.24838e-01,-9.99610e-02,1.46680e-01,-2.49790e-01,1.76700e+00,-5.78091e-01,-8.17435e-02,-1.26794e+00,-6.23008e-01,-3.35716e-02,-4.08247e-02,-6.88724e-03,-3.75689e-02,8.11307e-01,9.22394e-02,1.99597e-01,2.14643e-02,-5.96357e-01,-4.92639e+00,1.09188e-01,-4.11938e-01,5.12725e-01,4.44544e-01,2.88814e-01,-4.39124e-02,9.63210e-01,-1.11357e-01,-4.09851e-02,-4.28231e-02,4.48917e-01,2.14068e-02,1.34141e-01,-4.21486e-02,7.39620e-01,-6.25875e-01,-1.89217e-01,1.09901e-02,
1.46934e+00,-4.13740e-02,2.75000e-01,-6.19663e-03,2.38130e+00,7.15543e-01,-2.72463e-01,-4.30873e-03,1.25947e+00,3.37887e-02,-1.80364e-02,-6.95254e-01,-1.25222e+00,5.00506e-01,3.87588e-01,3.32265e-01,-6.16884e-01,3.97569e-01,4.71094e-01,-2.17455e-01,8.02973e-01,-7.19571e-01,1.03382e+00,-1.86794e-01,-4.30558e-02,-2.08258e-02,-6.08952e-01,5.37565e-01,1.04086e+00,1.61572e-01,9.70269e-01,-2.57122e-01,-5.85654e-01,-3.50263e-01,-8.28426e-01,-1.38084e-01,1.37207e-01,7.66544e-03,3.08400e-01,1.27726e-03,2.11288e-01,-3.12649e-01,-7.86458e-02,6.21266e-02,2.36371e-01,-3.10552e-01,-7.71824e-01,4.89374e-01,-7.74861e-02,2.16944e-01,
-2.77425e-01,1.08970e-02,-5.76476e-02,-4.26415e-01,-1.02631e+00,-4.48160e-01,-1.81656e-01,-1.24534e-01,1.19235e-02,1.46823e-01,2.00086e-02,1.07208e-01,4.80191e-01,-1.22292e-01,-3.52585e-01,4.26267e-01,-3.23987e-01,8.17028e-02,8.16936e-02,-2.87567e-02,3.82427e-01,9.11346e-01,1.05378e-01,8.27236e-01,-2.39208e-02,-3.80447e-02,2.22424e-01,-4.74559e-01,1.24340e-02,1.08757e-01,-1.95532e-01,-4.39178e-01,-2.23122e-01,4.54058e-01,-1.26136e-01,-4.02087e-01,5.13452e-01,3.14696e-02,-2.08173e+00,5.25546e-01,-2.19227e-02,-2.09821e-01,3.40916e-01,9.44964e-03,-2.52425e-01,-4.03715e-01,-1.31234e-01,5.23331e-02,-3.90229e-01,8.89130e-01,
1.92611e+00,-1.27626e-02,3.30936e-01,-4.56887e-01,1.56485e+00,9.52867e-01,-1.80495e-01,-2.42666e+00,-1.14075e+00,5.56439e-01,2.97273e-02,-5.45335e-01,-3.03130e+00,-3.55863e-01,1.32186e-01,9.60997e-02,3.17961e-01,1.31321e+00,6.68503e-01,-2.45106e+00,-6.03412e-01,1.20234e+00,4.71963e-01,7.37565e-01,-2.48176e-02,2.54776e-02,-5.70893e-02,-3.64992e-01,-4.14172e-01,-2.12310e-02,-3.63983e-01,-1.14991e+00,9.94633e-01,2.67449e-01,5.06773e-01,4.22117e-01,2.00082e-01,-4.54036e-02,-1.39989e+00,-2.55192e-01,-9.52639e-01,3.63158e-01,2.79913e-01,6.91381e-02,-1.47051e-01,-6.62875e-01,1.07298e+00,1.04943e+00,5.65965e-01,-3.34300e-01,
4.70127e-02,2.60384e-02,-2.39061e-03,-3.56783e-02,-2.38743e-02,5.64661e-03,-1.05979e-02,-2.11757e-02,-6.74181e-03,6.82966e-03,-3.95341e-03,-1.08038e-02,2.22569e-02,4.58250e-02,1.04983e-02,6.63437e-03,2.02816e-02,3.24120e-02,5.16674e-03,-4.33068e-02,-2.40783e-02,-4.21443e-02,1.65029e-02,-1.99256e-02,3.16068e-02,-1.80217e-02,-2.00766e-02,7.77581e-04,-2.75547e-02,-4.55195e-02,1.80881e-02,1.11859e-03,-1.59610e-02,-3.27818e-02,-4.62522e-02,-1.55022e-02,-1.33376e-02,3.58468e-02,-1.70342e-03,-1.31310e-02,-2.75671e-02,-4.43745e-02,-7.83186e-03,3.60081e-02,-1.35700e-03,-4.41400e-02,9.90426e-03,2.45569e-02,-2.76082e-03,-6.87225e-03,
-1.14982e+00,8.00037e-03,-2.43698e-02,4.82854e-01,6.09077e-01,-3.86207e-01,-7.80233e-03,7.01715e-01,-1.43196e-02,-2.87645e-01,5.93701e-02,-3.26503e-01,4.89246e-02,4.01491e-01,-1.90081e-01,1.30831e-01,5.82395e-01,7.27206e-01,-2.72989e-01,3.36276e-01,-1.02791e+00,-1.93169e-02,1.37146e-02,5.53962e-02,3.14208e-02,-4.37471e-02,-1.05749e+00,2.06949e-01,1.62541e-01,-6.56043e-02,-1.08613e-01,1.37692e+00,7.50832e-02,8.87287e-02,-1.83961e-01,-3.33367e-01,2.47980e-01,2.84351e-02,-3.89784e-01,3.14240e-01,-4.77889e-01,-1.41480e-01,-7.68716e-01,1.53934e-02,-3.61928e-02,4.99979e-02,9.51208e-02,-1.17371e+00,4.14968e-01,7.32138e-01,
-6.84643e-01,2.66207e-02,-2.70434e-02,-4.93580e-01,8.54302e-02,1.98905e-01,1.14418e+00,2.07908e-02,3.17710e-01,-2.20484e-01,-3.48167e-02,-1.14956e-01,3.35976e-02,1.62506e-01,1.63331e-01,-6.62378e-03,-3.98837e-01,-3.96104e-01,-3.77506e-01,-2.32625e-01,9.43345e-02,1.91123e-01,1.68899e-01,2.92205e-02,-3.41844e-02,-3.30708e-02,-2.47395e-02,-9.55125e-01,2.65533e-01,9.19870e-02,-6.90644e-02,-1.37127e-01,-9.86899e-02,3.03722e-01,-2.07898e-01,-2.18725e-01,1.52049e-01,3.73919e-02,-5.27501e+00,3.19976e-01,-1.59305e-02,-4.18828e-01,-4.51054e-02,1.97838e-02,4.48791e-01,-4.43644e-02,3.37174e-01,-6.47330e-02,-1.86417e-01,1.32784e+00,
-4.08486e-01,
1.06875e+00,
-1.01351e-01,
2.91739e-01,
3.61906e-01,
-1.17598e+00,
-1.08494e+00,
-5.25396e-01,
-4.85121e-01,
-5.63451e-01,
-4.30958e-01,
-3.75102e-01,
-2.99369e-01,
-3.00263e-01,
-5.28058e-01,
-6.20032e-02,
-6.53790e-01,
7.30181e-01,
-8.49961e-01,
-1.57298e-02,
-2.89808e-01,
2.78940e-01,
1.47078e+00,
2.10793e+00,
-3.10170e-01,
-5.38444e-01,
-1.45919e-01,
1.01049e+00,
-3.74156e-01,
-5.27222e-02,
-1.48790e-01,
2.55464e-01,
-7.72198e-01,
-1.76047e+00,
6.22966e-02,
2.54439e-01,
-1.50744e-01,
-7.57264e-01,
-2.46425e+00,
-9.13194e-01,
-5.63058e-01,
-2.17101e-01,
5.70546e-01,
-5.23408e-01,
-1.49997e+00,
-2.61921e-01,
-5.26109e-01,
-5.98984e-03,
-4.64336e-01,
1.14195e-01,
-7.75044e-01,-4.15395e-01,-3.24942e-01,1.12048e-01,-7.43170e-01,-7.84722e-01,-7.78083e-01,-3.57055e-01,-3.57092e-01,-2.25596e-01,8.96540e-01,-5.52908e-01,-1.36944e-01,-2.32227e-01,-4.98618e-01,4.33755e-01,1.43314e+00,-7.40146e-01,-1.05938e+00,-2.29214e-02,3.35653e-01,-5.93277e-01,-3.74214e-01,-2.31097e+00,2.92584e-01,1.00206e+00,1.50349e-01,-1.89577e+00,-1.38339e-01,-4.87172e-01,-6.85847e-01,-2.05561e+00,5.18935e-01,3.05489e-01,1.71208e-01,9.61368e-02,7.97444e-01,-1.24470e+00,-7.36054e-01,8.05096e-01,-1.74525e-01,-1.09511e-01,-2.08033e-01,-1.69550e+00,-1.00053e+00,-2.12945e-01,-8.80842e-01,2.88769e-03,-5.87614e-02,3.93332e-01,
-2.89933e-01,-3.90589e-02,-2.35392e-01,-3.41524e-02,-1.01442e-01,-1.04391e-02,-1.53227e-01,1.46170e-01,2.03408e-02,2.05047e-02,-2.04445e-01,2.29674e-01,-9.64483e-02,6.87688e-02,5.06923e-03,-1.89823e-01,2.59219e-01,-2.71825e-01,1.34500e-02,-2.36374e-02,-1.00425e-03,7.08480e-02,-7.60077e-02,-1.58165e-01,8.34323e-02,-7.05742e-03,-2.95734e-02,-9.18318e-02,-7.83515e-03,1.57236e-02,-3.68545e-01,2.59276e-01,5.12330e-01,4.70324e-02,2.45031e-02,1.39921e-02,-2.49023e-01,-1.41486e-01,6.33367e-02,1.64842e-01,-1.58553e-01,1.54392e-01,-1.45494e-01,-1.85129e-01,-2.43234e-02,5.46112e-01,-5.10707e-02,2.89771e-02,9.43521e-02,2.44394e-01,
-9.91630e-02,-3.66602e-02,7.55007e-02,4.46032e-01,-1.79006e-01,-3.02970e-03,1.33774e-01,-1.11621e-01,3.82412e-01,4.19510e-01,-1.64855e-01,-1.11633e-01,1.40495e-02,-1.63988e-01,-2.73372e-01,-5.03863e-02,-1.59384e-01,-1.28305e-01,-1.27405e-01,2.83343e-02,-8.52565e-02,-3.39762e-01,-1.01792e-02,-4.74959e-02,-2.95914e-01,-4.23524e-02,2.83382e-02,-1.70574e-01,-1.99672e-01,-7.86060e-02,-3.04747e-02,1.41624e-01,1.15279e-01,4.24489e-02,-8.96282e-02,7.71229e-03,-4.68138e-02,-2.93026e-01,5.92837e-02,1.69743e-01,-2.59172e-02,-1.34006e-01,-1.15559e-02,4.12064e-02,7.57857e-02,-1.77031e-01,-1.25494e-02,-1.74408e-02,1.35628e-01,3.85604e-02,
6.05937e-01,-2.85093e-01,1.46327e+00,-3.55091e-01,3.62924e-01,2.27066e-01,-7.67363e-01,-2.10343e+00,-3.95873e-01,1.31398e+00,-1.75569e+00,1.21543e+00,3.04692e-01,6.79581e-02,-4.33435e-01,1.42359e+00,-4.96077e-01,1.76303e-01,1.37501e-01,3.02901e-03,-7.43782e-01,-2.75058e-01,1.60956e-01,4.50417e-01,9.43343e-01,2.08146e-01,-4.13542e-01,1.15751e+00,-1.35771e-01,-2.48231e-01,2.60131e-01,-1.36444e+00,-1.37311e+00,5.28376e-01,1.48232e-01,1.62377e-01,1.70921e-01,-1.89102e-01,-9.34121e-02,-2.73202e-02,3.47112e-01,2.96986e-01,4.34758e-01,1.45867e+00,6.08835e-01,-1.53797e+00,2.30557e-02,4.09570e-02,3.26100e-02,3.62523e-01,
6.70455e-01,7.10898e-01,1.28744e+00,-8.82045e-01,2.58417e-02,9.03023e-01,-5.38200e-01,-1.74708e-01,2.08279e-01,-2.93290e-01,5.18818e-01,-6.22398e-01,4.09716e-01,1.54737e+00,1.27005e+00,1.69510e-01,-1.90741e+00,-1.46998e+00,2.79246e-02,4.50144e-02,3.55137e-01,-6.28051e-02,-6.83266e-01,3.09326e-01,-6.00533e-01,-1.01948e+00,6.79086e-01,-2.22737e+00,5.18847e-01,8.82435e-02,-9.20202e-01,-2.58760e+00,1.18247e+00,-2.26148e-01,3.61083e-01,-1.85547e+00,6.91654e-01,3.65051e-01,-5.37776e-01,1.60241e-01,9.05421e-02,-6.97790e-01,9.62715e-01,8.66893e-01,1.89278e+00,-1.29419e+00,9.39011e-01,-1.33065e-02,7.55068e-01,-3.72955e-02,
-1.21062e-01,-1.12551e-01,-3.31936e-01,5.76856e-02,-9.52833e-02,6.41034e-02,-3.80395e-02,6.91370e-02,3.94384e-02,4.32422e-02,1.77619e-01,-3.23053e-01,-7.72591e-02,1.12817e-02,-4.07238e-02,7.82790e-02,3.17250e-01,-4.02553e-02,-1.32371e-01,4.85819e-02,5.20028e-02,-8.93810e-02,-1.21834e-01,-2.20348e-01,1.72532e-01,2.10572e-02,-1.05575e-01,-1.29419e-01,3.10569e-02,-7.14138e-02,1.60757e-01,1.88270e-01,3.97979e-01,2.59080e-02,-1.85127e-01,2.40188e-01,4.24864e-02,-1.66795e-01,8.79923e-02,3.21831e-01,-4.52026e-03,-6.63753e-02,-5.43892e-02,3.73707e-02,1.80538e-01,3.73327e-01,-7.75681e-02,2.30342e-02,-9.41502e-02,2.07511e-01,
-2.48874e-01,9.82728e-02,8.46956e-02,4.86966e-01,5.46425e-02,2.13559e-01,1.20736e-02,4.49745e-01,-2.86530e-01,-4.57988e-01,-1.87885e-01,-2.26453e-01,1.86660e-01,1.17949e-01,-1.20727e-02,2.56540e-01,-1.73109e-01,-1.34126e-01,-5.60314e-02,-4.53110e-03,-1.92302e-01,-8.84756e-02,4.02012e-02,3.98664e-02,7.37175e-01,-1.72223e-01,-6.84839e-02,-7.51940e-04,8.52525e-02,2.12977e-01,3.70546e-01,-3.65634e-01,3.22437e-01,1.88932e-01,1.59048e-01,-1.06006e-01,-4.46813e-02,-2.41570e-01,1.56972e-02,3.92898e-02,5.76905e-02,-1.27836e-02,-2.35329e-01,-3.17162e-01,-2.16470e-01,-3.05702e-01,4.41344e-02,3.36897e-02,-7.22653e-02,1.24496e-01,
-3.93225e-01,-2.05191e-01,-3.58310e-01,-1.81810e-01,-2.08585e-01,-2.65514e-01,3.38443e-01,3.87592e-01,8.03458e-01,2.97769e-02,2.44932e-01,-2.12447e-01,-3.30273e-01,-1.94288e-01,6.85385e-01,-2.12339e-01,7.26721e-02,-5.24380e-02,8.99994e-02,-2.00148e-02,1.81243e-01,9.36649e-01,9.74104e-02,-2.63275e-01,-6.55607e-02,-2.56915e-01,-6.18897e-02,-9.68321e-02,3.03331e-01,4.29135e-02,-1.09106e-01,4.80513e-01,5.52930e-01,1.37135e-01,4.82449e-01,-3.27180e-02,1.53575e-01,-1.65924e-02,-2.23499e-01,7.09982e-01,4.22823e-02,-1.10095e-01,-1.14181e-01,1.10540e-01,-3.75481e-01,1.42812e-01,-1.60258e-01,-2.12633e-02,1.34853e-01,-4.06273e-01,
8.18828e-02,-1.77643e-01,-2.91979e-01,3.58953e-01,-2.06239e-02,-1.54736e-01,-5.78907e-02,7.36091e-02,-1.16992e-01,-3.71863e-01,-2.72881e-01,-3.61285e-01,1.08221e-01,1.82450e-01,2.52614e-01,-2.33528e-01,3.57438e-01,1.91190e-01,-1.49432e-01,-2.38803e-02,6.50345e-02,4.19219e-01,-9.35929e-02,-1.20685e-01,1.11962e+00,3.70422e-01,-1.82359e-01,6.58890e-01,9.98101e-02,-1.43984e-01,2.68125e-01,-2.89762e-01,5.31907e-01,-1.48363e-01,1.77573e-01,-1.30263e-01,2.91982e-02,-3.76395e-01,-2.21834e-01,-8.00251e-02,-4.95121e-01,-5.37386e-02,-3.05319e-01,6.25073e-01,-2.09418e-02,1.50732e-01,-1.56614e-01,2.11654e-02,-3.58304e-01,5.00660e-02,
1.94819e-01,3.72706e-01,-1.36073e-01,1.15637e-01,-5.64466e-01,4.57853e-01,2.28400e-01,6.15822e-01,4.20017e-01,-4.00167e-01,2.25497e+00,3.87347e-01,-1.02186e+00,-3.17851e-02,-1.05273e+00,2.35340e-01,-1.99973e-01,4.53475e-01,1.14129e-01,-3.07462e-02,-7.12554e-02,6.54712e-01,1.97267e-02,-1.11745e+00,2.78202e-01,-7.15725e-02,1.30393e-01,4.17971e-01,-4.96835e-01,-5.87662e-01,4.72645e-02,-2.34516e-01,-9.25567e-02,-5.80341e-01,2.18873e-01,2.44211e-01,8.16749e-01,-6.04895e-01,-5.94381e-01,-5.04349e-01,-1.77115e+00,-7.60193e-01,1.45655e-01,-3.41681e-01,-2.92623e-01,3.88744e-01,6.76587e-01,2.16446e-02,-2.09792e-02,-6.32221e-02,
-6.57673e-01,-2.36014e-01,-4.78229e-01,-3.04675e-02,-3.73831e-01,1.97733e-01,8.21276e-03,4.71799e-01,7.00843e-01,1.30614e-01,-1.41459e+00,9.18417e-02,-1.03947e-01,4.48295e-02,-1.42033e-01,4.04678e-01,5.22869e-01,6.62575e-01,-3.56512e-01,4.64266e-02,1.95922e-01,6.84416e-01,-2.03029e-01,-2.22214e-01,1.34309e+00,-4.19150e-01,-1.05085e-01,-5.07511e-01,5.91906e-02,-7.14123e-02,-1.37054e-01,5.34257e-01,1.61110e-01,-3.64770e-01,-2.15097e-01,5.85106e-01,-1.63710e-02,-1.38725e-01,4.82136e-01,-4.88709e-02,-6.17627e-01,1.62392e-01,-1.86088e-01,-1.21071e-01,9.82127e-01,2.79216e-01,-3.42331e-02,-4.28749e-02,3.73818e-01,-4.10173e-01,
5.10451e-01,9.03219e-02,3.73484e-01,1.94804e-01,-1.38909e-01,1.82357e-01,1.33604e-01,-5.79168e-01,2.87305e-01,-1.27490e-01,2.54668e-01,-6.73831e-01,2.92064e-01,-4.16716e-01,-5.61937e-01,4.07125e-01,-5.67616e-01,4.93629e-01,2.04314e-01,3.56814e-02,-3.10524e-01,-2.05341e-01,1.41982e-01,2.90271e-01,-8.09781e-01,2.44646e-01,1.99171e-01,6.16405e-01,-4.16208e-01,2.47175e-01,-1.26878e-01,5.49306e-02,-5.18508e-01,-2.10130e-01,-2.16053e-01,-1.37394e-01,1.01024e-01,1.03484e-01,-2.11573e-01,-3.33884e-02,-3.06798e-03,-3.39154e-01,3.44033e-01,6.27817e-03,5.92674e-01,-7.14540e-01,3.63575e-02,-1.82024e-02,-1.87944e-01,-1.23645e-01,
-6.56003e-01,-3.81218e-01,-2.85268e-02,-1.57473e+00,8.87882e-01,-3.24637e-01,-8.84505e-01,6.47650e-01,-2.82155e+00,-5.91421e-01,1.08632e+00,2.50452e-01,6.02489e-02,5.71120e-01,1.09003e+00,-5.12318e-01,2.44307e-01,-1.52983e+00,2.53200e-01,8.33969e-03,-8.71244e-01,-8.34247e-01,2.42425e-01,-1.96197e-02,-1.34091e+00,-5.50358e-01,-4.91890e-01,8.82809e-02,7.53980e-01,3.64376e-01,-1.27734e-01,-2.16948e-01,-1.16729e-01,-1.03958e-01,5.84057e-01,-5.57886e-01,6.81637e-01,3.95944e-01,-6.68885e-01,-5.36029e-01,6.17283e-01,2.52462e-01,1.78879e-01,4.68078e-01,-2.09306e-01,1.01430e+00,3.10979e-01,-3.85302e-02,3.63922e-01,-1.35633e+00,
-6.28853e-02,1.51351e-01,8.76364e-02,-4.98453e-01,4.15273e-01,1.13420e-01,9.53064e-02,6.53031e-03,7.22149e-01,5.73603e-01,1.10456e+00,-3.83111e-01,2.60280e-02,7.95328e-01,-6.66633e-01,3.50581e-01,-1.48380e-01,1.70301e-02,6.93605e-02,-3.84607e-03,-1.70770e-01,-2.40819e-01,1.45452e-01,-1.10345e+00,3.00824e-01,-3.71266e-01,3.45430e-01,4.28167e-02,4.28564e-02,4.04053e-01,-9.65074e-02,1.08281e+00,-6.63150e-01,1.70895e-01,3.37159e-01,-8.71081e-01,-4.01024e-02,-1.87738e-01,-2.19213e-01,5.67089e-02,-7.01377e-02,-4.55001e-01,-4.56851e-01,8.37982e-01,5.35647e-01,8.96233e-03,-1.25932e+00,3.67693e-02,1.47398e-01,-4.43510e-01,
-2.34828e-02,2.76350e-02,1.63625e-02,-7.58906e-03,3.16789e-02,-5.41716e-02,8.98624e-03,-3.54943e-02,2.00910e-02,-2.41550e-02,3.40372e-02,-4.31777e-02,-5.12662e-02,7.38836e-03,1.12524e-02,-2.46442e-02,-4.44820e-02,-5.44778e-02,5.28917e-02,-4.70315e-02,-3.34089e-02,-2.41598e-02,-5.87141e-02,-3.78300e-02,1.56910e-02,4.00717e-02,-4.79465e-02,-1.88539e-02,3.46601e-02,-3.98029e-02,2.91043e-03,-6.69336e-03,3.06953e-02,-1.46713e-02,-4.21742e-02,-4.50507e-02,-5.61382e-03,1.14165e-03,-1.49391e-02,-6.42788e-03,-3.05618e-02,1.99839e-02,3.48052e-02,3.84791e-02,-3.52448e-02,-5.02785e-02,-4.05233e-02,4.96328e-02,6.56141e-03,7.06524e-03,
-5.60505e-01,-1.06136e+00,-1.03050e+00,4.17539e+00,-1.20403e+00,1.19415e+00,-4.60227e-01,6.02673e-01,2.45267e+00,-4.25074e-01,-8.64798e-01,-6.17433e-01,-5.18578e-01,-1.73708e+00,8.25487e-01,-3.14659e-01,1.77760e+00,1.90020e-01,-8.74712e-01,-8.73546e-03,1.14952e+00,2.21113e+00,-7.25265e-01,-1.31452e+00,9.03581e-01,1.24322e+00,-4.90874e-01,-1.63952e+00,-7.05805e-01,-3.50019e-01,1.21628e+00,1.48070e+00,2.15898e+00,7.25125e-01,-8.88909e-01,2.51391e+00,-8.42818e-01,-5.55289e-01,1.08218e+00,1.75632e+00,-1.88991e-01,-5.23448e-01,-7.72194e-01,1.47146e+00,1.97701e+00,1.71650e+00,-3.32548e-02,3.87848e-02,-8.15259e-01,1.45621e+00,
6.62013e-02,-2.83445e-01,2.44095e-01,-5.27514e-02,1.64633e-01,-1.89482e-01,7.48146e-01,-1.36407e-01,2.45438e-01,7.55481e-01,-1.27957e+00,-1.03408e-01,3.12589e-01,-4.54410e-02,1.82315e-01,-6.49753e-01,-4.80084e-02,3.77751e-01,5.14055e-02,1.68861e-02,-7.44912e-02,-3.99220e-01,5.66199e-02,5.88136e-01,5.68239e-02,5.97862e-01,-8.32633e-01,-2.29754e-01,-1.14481e-01,3.76802e-01,4.25195e-02,-1.41544e-01,3.10787e-01,6.31996e-01,-2.86965e-01,8.69064e-02,-3.04457e-02,-1.68996e-01,-9.20756e-02,1.48827e-01,5.04422e-01,4.34531e-01,-9.00321e-01,1.90626e-01,-3.09980e-01,-7.64852e-02,-2.84561e-01,-5.00230e-02,3.41940e-01,4.99636e-02,
-1.45275e+00,-4.31664e-01,-2.44945e+00,-5.37688e-02,-1.71025e+00,7.55960e-01,-1.34352e+00,1.27299e+00,-4.61038e-03,-8.80558e-01,-1.09352e+00,2.59272e-01,-1.50566e-01,4.10594e-01,-1.50891e-01,-6.84248e-03,-8.03483e-01,1.28966e+00,-4.50070e-01,-1.60990e-02,5.79515e-01,1.07050e+00,-5.57186e-01,-4.10094e-01,9.63538e-01,-4.71047e-01,7.03595e-01,-6.13629e-01,-2.58537e-01,1.32904e-01,-2.11851e-01,-3.34136e+00,-1.59025e+00,-3.48500e-01,5.30203e-01,7.62842e-01,-1.03041e-01,-3.52818e+00,2.81480e-01,-7.86444e-01,-1.36872e-01,-1.04739e+00,9.46986e-01,-8.46495e-01,7.76997e-01,-7.03112e-02,3.24285e-01,-2.24274e-02,-6.11006e-01,-3.33065e-01,
-1.97084e-01,-7.51798e-01,7.52054e-02,-3.03508e-04,9.47408e-02,-2.25901e-01,3.62113e-02,-9.67704e-02,1.61913e-01,-7.30865e-01,-9.86402e-01,2.40000e-01,1.14256e-01,-7.93848e-01,4.04072e-01,4.79840e-02,4.60459e-01,6.57656e-01,-4.05925e-01,-4.15795e-02,-2.30993e-01,5.22012e-01,-2.41278e-01,1.91419e-01,-6.79629e-01,-3.92210e-01,-5.19757e-02,-1.98617e+00,-4.78738e-01,1.37538e-01,2.27640e-01,1.78041e-01,3.38771e-01,-7.63771e-02,3.06951e-01,3.45456e-01,5.02152e-01,-1.00751e-01,-3.76282e-01,-1.48090e-01,-1.08919e+00,6.00825e-02,-8.55034e-01,6.54758e-01,4.13072e-03,5.23704e-01,-3.45701e-01,-1.57347e-02,2.93174e-01,6.84700e-02,
6.06654e-02,6.61857e-02,-1.28430e-01,-4.77622e-02,2.00595e-01,-1.67225e-01,1.79903e-01,-1.25281e-01,-6.78608e-02,-9.60700e-03,-2.90273e-01,1.19800e-01,-9.15363e-02,4.89478e-02,-8.57171e-02,5.79715e-02,4.73607e-02,-1.08350e-01,2.71226e-02,-2.42339e-02,1.17790e-02,2.95349e-01,-4.38312e-02,-1.49945e-01,-1.62454e-01,4.27161e-01,-1.61175e-01,-3.30562e-01,-9.43050e-02,-1.12317e-01,1.03801e-01,5.29166e-01,3.55691e-01,-3.69037e-01,-2.44132e-01,-3.89390e-01,-3.76939e-01,-2.76659e-02,-3.10553e-01,-3.63724e-01,2.26993e-01,-8.67482e-02,4.48723e-02,1.08905e-02,1.89240e-01,-2.36489e-01,-1.39798e-01,-3.84602e-02,9.59229e-02,1.58214e-01,
2.38801e-01,-4.91399e-01,-3.54474e-01,-3.97221e-01,-2.77335e-01,2.12120e-01,6.37370e-01,7.17802e-01,3.68699e-01,-8.33915e-01,6.80279e-01,-1.62258e-01,-4.27654e-01,-2.28830e-01,-4.20752e-01,-1.29448e-01,-6.61415e-01,9.06932e-01,-7.33522e-01,-8.25282e-03,1.18991e-01,-7.93334e-01,-2.17769e-01,-1.36196e+00,-8.67316e-01,8.03535e-02,1.17286e-01,7.70928e-01,3.80504e-01,-4.22049e-01,-9.39379e-01,1.79382e-02,-2.33438e-01,-2.29743e-01,1.33693e-01,1.03164e+00,1.29585e-01,-2.28044e-02,-2.36394e-01,2.68923e-01,-4.36232e-01,-2.44745e-01,2.93481e-01,6.80715e-02,3.52720e-01,3.64194e-03,3.12645e-01,4.09737e-02,3.09289e-01,-2.47261e-01,
-1.21575e+00,4.49087e-01,2.49439e-01,3.09514e-01,-1.54501e-01,5.03957e-01,-3.22033e-01,6.34370e-01,3.93685e-01,-3.46950e-01,2.03183e+00,-4.32027e-02,-2.26656e-01,-5.39902e-01,1.06543e+00,-1.76505e+00,-2.01859e-01,1.97859e-01,-3.50888e-02,1.08464e-02,-2.14659e-01,1.75444e+00,-3.00968e-01,-3.10804e-01,3.58077e-01,-7.06662e-01,-1.92034e+00,-4.39510e-01,2.02320e-01,-2.37194e-01,-3.77917e-01,1.43554e+00,1.73703e-01,-1.02989e+00,2.04454e+00,2.74640e-01,-3.10126e-01,3.51944e-01,-5.36820e-01,-4.85225e-01,7.88112e-01,-9.06389e-03,9.73464e-01,-2.59068e-01,4.91009e-01,1.69289e-01,-5.18636e-01,4.55357e-02,-1.74121e-01,-4.64932e-01,
-2.23541e+00,-4.58402e-01,-3.19774e-01,-6.33092e-02,5.46590e-01,9.85179e-02,-1.11078e+00,-1.31025e+00,1.43288e-01,-7.11395e-01,-1.97578e-01,-4.16182e-01,-1.71095e-01,-1.06508e+00,4.69443e-01,-9.25066e-01,1.10559e-01,4.97869e-02,5.86375e-01,-1.77624e-02,-5.87860e-01,8.88857e-01,-5.20054e-01,9.07125e-01,6.22783e-01,9.78324e-01,-4.55470e-01,-4.27055e-01,4.36649e-01,2.38284e-01,4.73012e-01,1.54228e-01,4.27761e-01,-8.33591e-01,-1.51238e-01,-6.31209e-02,-1.86869e+00,6.01082e-01,-1.57332e+00,-7.48514e-01,-2.88454e-01,-1.70216e-01,3.77991e-01,5.03980e-01,4.08840e-01,5.35796e-03,-6.95899e-01,2.08394e-02,7.53034e-01,-1.32631e-01,
6.05307e-01,3.42678e-01,-1.00909e+00,5.69165e-01,-3.83039e-01,5.09523e-01,1.56161e-01,-6.11943e-01,1.03024e+00,-8.68851e-01,1.17270e+00,-1.41379e+00,-6.90441e-01,6.81866e-02,-1.38408e-01,9.43524e-01,-2.40280e-01,5.45333e-01,-4.52705e-01,-1.22658e-02,-3.09840e-01,3.50799e-01,-2.67231e-02,-9.71671e-01,4.47978e-01,3.60080e-01,2.29880e-01,3.99402e-01,-6.43716e-01,-3.62943e-01,9.72768e-01,1.10395e+00,3.49803e-01,-1.81774e-01,-3.70613e-02,4.25544e-01,1.28197e+00,-2.79878e-01,-8.48611e-01,-5.08956e-02,-8.72622e-01,-7.30939e-01,4.80184e-01,-2.85616e-01,9.39667e-01,4.92958e-01,5.33890e-02,-1.18824e-02,-5.87805e-01,-3.98562e-01,
-4.05345e-01,-3.38088e-01,6.14009e-01,2.10703e-01,-8.27776e-03,-2.00165e-01,-6.31591e-01,3.77220e-01,9.52167e-01,-9.20535e-01,7.75159e-01,-1.93896e-01,-4.35035e-02,-2.13291e-01,-1.80015e+00,1.45137e-01,-8.02842e-01,-5.67691e-02,-2.65722e-01,3.63699e-02,-2.93597e-01,4.34843e-01,-3.33999e-02,-2.58374e-01,7.03040e-01,-1.17573e-01,-1.12863e-01,-3.10153e-01,1.09610e-01,-1.94365e-01,-1.06663e-01,-4.39327e-02,3.25925e-01,-4.35418e-01,1.23166e-01,4.36552e-01,-1.04613e-02,-2.94266e-01,-1.71192e-02,1.26690e-01,8.94581e-01,2.44453e-01,3.10829e-01,-2.61443e-02,-5.25678e-03,8.58039e-02,1.91185e-01,4.77699e-02,2.12174e-01,-7.31390e-02,
-6.67115e-01,2.72085e-01,2.06603e+00,3.04316e-01,7.86943e-01,6.59822e-01,-1.28775e+00,2.04636e-01,-2.51649e-01,5.07715e-01,-2.50400e+00,7.79536e-02,-6.57514e-02,2.39782e-01,1.28622e+00,1.43220e+00,5.92515e-01,1.40892e-01,-1.02873e-02,-2.89341e-02,1.28416e-01,-4.50707e-01,-8.54043e-01,-1.07011e+00,-1.37047e+00,-9.21964e-02,-6.35011e-01,-1.15659e+00,-3.53333e-01,2.34242e-01,-4.59152e-01,-9.88332e-01,-2.05516e+00,1.13126e+00,-1.32933e+00,1.00817e-01,7.29941e-01,1.04416e+00,6.25432e-01,1.92998e+00,-6.66949e-01,8.22895e-01,-5.26359e-01,-7.65458e-01,4.28089e-01,-4.90093e-01,-5.40448e-01,3.22234e-03,-1.12692e-01,-8.86127e-02,
9.77216e-03,-3.42523e-01,-8.72946e-02,2.30972e-02,-3.23026e-01,-2.98662e-01,2.01942e-01,-3.53832e-01,1.15654e-01,3.44209e-01,-5.52985e-01,3.21902e-01,-4.19788e-01,5.22262e-01,1.87418e-01,-2.72610e-01,1.09003e+00,-2.63803e-01,4.70332e-01,1.92327e-02,3.60490e-01,7.67469e-01,1.01505e-01,-5.12296e-01,9.86824e-01,8.84440e-01,-4.71179e-01,-4.37218e-01,-2.84961e-01,-2.19898e-01,-3.06688e-01,-1.27035e-01,4.08768e-01,-2.62403e-03,-2.05742e-01,-8.73750e-02,-2.15254e-01,4.97640e-02,-6.64017e-02,4.16739e-01,-3.21448e-02,-8.00622e-02,-1.29858e-01,2.42438e-01,5.59172e-02,-4.79419e-01,-2.16971e-01,-4.51983e-02,4.45020e-01,7.75423e-01,
-5.38100e-01,1.52444e-01,-5.18378e-01,2.66488e-01,-3.36120e-01,3.11189e-01,2.73686e-01,6.34266e-01,1.63662e-01,-8.81277e-02,1.44311e+00,4.77400e-01,-2.54491e-01,4.72530e-01,7.29854e-01,5.05351e-01,7.90110e-01,-6.22607e-01,2.88186e-01,-2.20575e-02,1.55291e-02,-9.67892e-02,-1.45973e-01,-6.26459e-01,1.82057e+00,5.75281e-01,7.60229e-02,-3.70475e-02,7.55401e-01,2.03729e-01,1.08302e+00,8.66553e-01,9.17021e-01,-2.02721e-02,-8.60918e-02,-5.16556e-01,2.36194e-01,-4.73561e-01,3.11525e-02,6.88991e-01,-1.54321e-01,-4.01835e-01,-9.73801e-02,-1.15584e-01,1.80103e-01,4.71343e-01,3.69985e-01,8.93261e-03,-2.07877e-01,-5.46421e-01,
1.99686e-01,-4.68696e-02,-2.48863e-01,6.87756e-02,1.09249e-01,-4.85577e-02,2.29045e-01,1.41679e-01,-1.57866e-01,-2.67454e-01,4.11094e-01,-2.43498e-01,-1.36858e-01,-2.27627e-01,-1.09358e-01,-6.00469e-01,1.00117e-01,-2.08292e-01,5.80127e-01,4.27373e-02,1.66702e-01,-2.25622e-01,-3.84125e-02,5.17869e-02,2.36266e-01,2.87142e-01,-8.65247e-01,-3.31421e-01,5.32353e-02,-1.16743e-01,-1.35779e-01,2.68757e-01,2.80862e-01,4.76134e-02,3.51076e-01,1.04664e-01,1.69813e-01,1.58160e-01,1.17862e-01,7.39293e-02,1.20841e-01,5.74131e-03,-1.21106e-01,-1.41991e+00,3.25678e-01,-8.89758e-02,8.22857e-03,-1.73830e-02,-2.89849e-01,4.15902e-02,
-2.74636e-02,2.12535e-01,2.62578e-01,7.58312e-02,1.56597e-01,5.12809e-02,-2.35887e-02,2.82179e-01,4.00617e-01,1.05628e+00,-7.01181e-02,-1.97562e-01,2.15339e-02,-3.51660e-01,1.36636e-01,-2.95315e-01,2.09285e-01,-6.32509e-02,-1.35929e+00,2.75848e-02,-3.23440e-01,3.16989e-02,-2.90122e-02,1.54666e-01,-1.01932e+00,6.33542e-01,-2.69311e-02,-5.27212e-01,5.91076e-02,3.87040e-02,-1.81629e-01,-5.19363e-01,3.72357e-01,-9.66934e-02,6.14291e-02,3.22659e-01,1.86362e-01,-1.71104e-02,-3.57704e-02,3.56423e-01,-3.16942e-01,-2.49282e-01,6.63134e-02,-1.43419e-01,5.63067e-01,-9.90355e-02,-1.57202e-01,-4.11924e-02,1.70868e-01,2.75753e-01,
3.52598e-01,1.75683e-01,4.99300e-01,6.93423e-02,1.40148e-01,-1.56257e-01,6.42121e-02,-4.22796e-01,1.71631e-01,7.11817e-01,-4.09707e-01,1.32868e+00,1.28552e-01,1.74651e-01,4.49173e-02,9.69203e-02,-3.14001e-01,-5.99927e-02,9.13280e-02,-2.95815e-02,1.15981e-01,2.03632e-01,-6.23232e-02,9.47363e-02,-3.78381e-01,4.31889e-01,-1.22662e-01,6.33276e-01,9.21544e-01,-2.38261e-02,3.29459e-01,-2.27433e-01,-2.50930e-01,-1.07661e-01,9.81795e-02,-3.02093e-01,-1.24267e-01,2.24445e-01,-2.00082e-01,-2.36294e-01,6.83952e-02,-2.78303e-01,-6.32587e-02,-6.02085e-02,1.67785e-01,-6.24224e-01,8.74415e-02,1.21920e-02,-5.91805e-02,-8.26848e-01,
4.74551e-01,1.75400e-01,2.24568e-01,-5.34589e-02,-6.47308e-02,4.86298e-01,-1.13396e-02,-8.23785e-03,2.70267e-01,-7.52251e-01,3.73830e-02,-3.79938e+00,-7.53188e-02,-7.24909e-01,9.63233e-03,6.13890e-01,-5.56213e-01,9.03574e-01,-2.45728e-01,-1.32753e-03,-1.95621e-01,1.44236e-01,-4.25432e-03,1.02586e-01,-6.27785e-01,-9.74280e-01,-1.13961e-01,-1.44736e-01,-4.61996e-01,2.30518e-01,3.53598e-02,-6.01188e-01,-2.14671e-01,-5.20341e-02,-2.95305e-01,4.61066e-01,5.84576e-02,1.08117e-01,-2.23926e-01,4.59336e-01,-3.94309e-01,-5.93100e-02,2.42234e-01,-2.46367e-01,6.15051e-01,4.80675e-02,3.31153e-02,-1.76990e-02,1.99287e-01,-1.98854e-02,
3.78866e-01,1.19511e-01,7.59654e-01,4.73347e-01,3.27117e-01,6.02863e-02,4.65428e-01,-4.77588e-02,-1.10636e+00,-8.40885e-01,9.96421e-01,-1.37086e+00,2.48669e-01,1.37678e-01,-2.85648e-02,2.05375e-01,-8.26598e-01,5.38384e-01,2.42110e-01,-1.57577e-02,3.91042e-01,-5.71886e-01,2.19781e-01,2.98648e-01,-1.71906e+00,-4.36983e-01,3.91508e-01,9.92503e-01,3.78992e-01,5.19142e-01,-1.54716e+00,-3.61045e-01,-7.57864e-01,-3.86037e-01,-1.49885e-03,-1.13833e+00,3.10359e-02,9.54513e-02,-3.42938e-01,1.96976e-01,1.72854e-01,-8.37823e-02,1.74551e-01,-9.01511e-01,-6.74744e-03,-1.03391e+00,3.41731e-01,2.97450e-02,-1.27203e-03,-2.39378e+00,
6.02261e-01,3.40364e-01,-2.81864e-01,1.09726e-01,1.94238e-01,1.47549e-01,-8.24819e-01,-9.38134e-04,1.17072e-02,-5.28400e-01,8.54359e-01,-1.45425e-01,-2.35794e-01,-9.85602e-02,2.51230e-02,6.86417e-01,-5.09701e-01,4.59821e-01,9.16296e-02,3.81790e-03,7.51452e-02,-3.74089e-01,3.62093e-01,3.41907e-01,-6.10804e-01,-4.44818e-01,4.59927e-01,-7.88684e-02,5.81982e-02,-1.02356e-01,2.62421e-01,4.24248e-01,6.36367e-02,2.71719e-03,1.30094e-01,-1.83785e-01,7.19449e-02,4.58673e-01,-5.81760e-01,-2.43737e-01,2.24754e-01,-2.43209e-01,4.85908e-01,-7.43969e-01,-9.12507e-02,-2.95317e-01,3.96835e-01,6.01381e-03,5.95125e-01,1.84360e-01,
-7.48403e-01,-6.36772e-01,-2.16349e+00,-2.05706e-01,-7.80755e-01,-1.20756e+00,6.39786e-01,6.27262e-01,-2.41441e-02,-1.28659e+00,-4.04626e-01,-1.27775e-01,-4.24341e-01,1.43805e+00,-8.85656e-01,5.43801e-01,5.41701e-01,-1.05881e+00,-6.53064e-01,-4.17738e-02,3.24252e-01,-1.36274e+00,-5.75038e-01,-8.53475e+00,7.49136e-01,7.88073e-01,1.43796e+00,1.08880e-01,-2.05932e-01,1.77382e-01,8.44831e-01,-3.21259e-01,1.52147e+00,5.25308e-01,-2.93000e-01,-5.65865e-01,-7.42914e-01,-2.06844e-01,-2.97990e-01,-5.09172e-01,-1.41563e+01,2.19941e-01,-8.74053e-01,-3.72685e-01,3.70511e-02,1.05929e+00,1.50817e-01,3.22220e-02,-6.82674e-02,-2.96650e-01,
-1.24741e-01,-1.62926e-01,1.70552e-01,3.28912e-01,6.69338e-02,1.56576e-01,-2.57625e-01,-5.31151e-02,3.52068e-01,1.69212e-01,-1.82598e-02,5.28942e-01,-7.79359e-02,1.55586e-01,-5.30677e-02,-1.56831e-01,7.38825e-02,-3.46359e-01,-3.07599e-02,-1.78460e-02,1.15668e-01,-2.85405e-01,-4.70935e-02,7.52342e-02,-1.08558e-01,1.93448e-02,-1.85526e-02,-3.12935e-01,1.23768e-01,6.95548e-02,1.16973e-01,9.87867e-02,7.91165e-02,1.85121e-01,-2.99353e-02,2.96564e-01,4.18700e-02,-9.09792e-02,-9.42280e-02,-6.35512e-02,4.95894e-02,-1.61180e-01,5.69596e-02,2.89036e-01,-6.93617e-02,3.86388e-01,1.05208e-01,1.44340e-02,2.07483e-01,-2.72354e-02,
2.24740e-02,2.35287e-01,-2.44008e-03,2.35307e-01,-3.12756e-01,2.16859e-01,-2.11950e-01,1.43821e-01,4.53539e-02,7.74843e-02,5.33602e-01,7.81961e-02,-1.27602e-01,-1.11669e-01,4.41877e-02,-1.99833e-01,3.87378e-01,1.71377e-01,-5.39647e-02,-1.16704e-02,2.16837e-01,3.36169e-01,-1.91136e-01,-5.64440e-02,-9.18126e-02,-8.71454e-02,-1.91685e-01,-8.75547e-02,-1.95604e-02,-4.54604e-02,1.53692e-01,8.35261e-02,4.35516e-02,4.98551e-02,8.46846e-02,-6.76435e-02,3.16315e-01,-2.71633e-01,1.64263e-01,9.54315e-02,-2.31237e-01,-2.97758e-01,-3.70829e-02,-3.40845e-01,9.53337e-02,2.55785e-03,-3.91291e-02,-1.03593e-02,-1.72753e-01,-8.76668e-02,
-1.65839e+00,-2.68514e-01,-4.15726e-01,-3.85764e-01,-9.20057e-02,3.49136e-01,-1.46134e+00,9.37033e-01,-3.11980e-01,1.93159e+00,-1.58408e+00,4.61003e-01,2.26604e-01,-4.38775e-01,6.52080e-02,-1.65409e+00,1.66776e+00,-4.88228e-01,-2.20680e-01,4.94186e-02,-6.81928e-01,1.43588e+00,-3.18333e-01,-5.33017e-01,9.21669e-01,3.42468e-01,-3.68655e-01,7.22269e-01,-1.70020e-01,-7.10636e-01,2.31924e-01,-2.61649e+00,-1.73347e-01,1.98605e-01,9.51148e-01,7.43259e-01,-4.09588e-02,-1.71718e+00,-1.06482e+00,1.12392e-01,8.46093e-01,-6.40338e-01,-3.91106e-01,3.16363e-01,9.72669e-01,-1.09461e+00,-6.80755e-01,-2.84211e-02,-1.46380e+00,7.68668e-01,
2.37330e-01,-1.01165e-01,8.89848e-01,-6.52041e+00,-1.65906e+00,-8.55736e-01,-3.17789e-01,1.53120e+00,-9.18091e-01,2.70647e+00,-2.64735e-01,1.04403e+00,5.26854e-01,6.71854e-01,1.23744e+00,1.91285e-01,-1.21167e-01,-1.54639e+00,3.88371e-01,2.55405e-02,-7.82519e-01,3.89872e+00,6.87486e-01,-4.55295e-01,-1.77547e-02,3.49858e-01,3.18582e-01,-8.56809e-01,5.03059e-01,7.42881e-01,-6.32954e-01,-9.49051e-01,-2.30582e+00,-8.14793e-01,4.79076e-01,-3.55939e-01,-5.43608e-01,2.22556e-01,-8.06105e-01,-3.69808e-01,6.63737e-01,-9.42454e-02,-1.70493e-01,-1.99632e+00,-2.70297e+00,-3.41367e-02,-8.75875e-01,-3.15950e-02,-2.15703e-01,-2.31290e+00,
5.50891e-02,-2.24943e-02,-6.22061e-02,-1.80562e-01,1.20773e-02,-9.36254e-03,5.69820e-02,2.19266e-01,-3.41622e-03,-1.56384e-02,-5.08868e-02,2.86212e-01,-6.20782e-02,-1.34647e-01,1.38551e-01,-1.84282e-01,-1.53711e-01,-1.78060e-01,-2.07550e-01,-1.76937e-02,2.52140e-02,2.83303e-01,-1.58772e-01,-7.91035e-02,2.69124e-01,1.19783e-02,-1.44684e-01,-7.63744e-02,4.36833e-02,-2.13378e-01,-2.47521e-03,4.56591e-01,1.89497e-01,-1.56866e-02,-2.95005e-02,-2.34373e-02,-9.99273e-02,2.49284e-02,1.65312e-01,3.62619e-02,1.27952e-01,-1.02860e-01,-1.71889e-01,-5.92073e-02,-3.64682e-01,3.64585e-01,-2.58498e-03,-2.70025e-02,-1.26934e-01,7.34512e-02,
3.25453e-01,1.43056e-01,2.79404e-01,-4.35766e-01,1.58735e-01,-5.89792e-02,5.76084e-01,-9.31796e-02,-5.05909e-01,2.36991e-01,-6.63749e-01,-3.74276e-01,-8.38953e-02,1.19638e-01,-1.42504e-01,2.51342e-01,-1.40083e-01,-1.62470e-01,3.90923e-01,-3.93040e-02,1.70326e-03,-2.47500e-01,1.97728e-01,1.40430e-01,1.15669e-02,-3.69747e-01,8.79365e-02,-2.59219e-02,-6.73674e-01,-8.61135e-02,-7.10569e-01,1.11063e+00,-7.91780e-02,-1.28023e-02,-2.24507e-01,-3.26976e-01,-3.92109e-01,-5.94843e-01,-2.07398e-03,-4.87741e-01,-2.10719e-01,8.61112e-02,9.42854e-02,3.43088e-01,4.39210e-01,-2.25662e-01,4.44574e-02,-1.93008e-02,4.52509e-01,1.04528e+00,
-6.03652e-01,-5.82643e-02,-1.19465e-01,3.48017e-01,-1.64347e-01,4.33565e-01,-8.74386e-01,-7.31428e-01,-9.07185e-01,-1.23778e+00,1.50107e+00,-2.73878e+00,-5.66513e-02,1.04193e+00,5.74915e-01,-4.06978e-02,-1.20908e+00,5.29825e-01,1.64847e+00,-1.71819e-02,-1.47332e-01,7.17936e-02,-3.00766e-02,3.02866e-01,9.06337e-01,-3.55731e+00,-8.10585e-01,-1.49828e-01,-1.60910e+00,-7.07194e-01,3.39607e-02,1.60526e+00,-5.72666e-01,-3.51652e-01,-1.98230e-03,-3.16028e-01,1.10957e+00,-8.69783e-01,-3.54948e-01,-2.34748e-01,4.86653e-01,3.68461e-01,5.08104e-01,2.72281e-01,-6.60046e+00,-2.83617e-01,4.65647e-01,2.56762e-02,2.55826e-01,-3.40032e-01,
-6.23510e-02,-1.77152e-01,-4.04799e-01,2.95261e-02,-7.03788e-02,2.34803e-02,-3.41069e-01,-7.63415e-02,3.18256e-02,9.36421e-02,-9.28283e-02,-3.49344e-02,-1.69364e-01,-6.99109e-02,4.76759e-01,-8.28952e-02,2.28247e-01,-3.91308e-02,1.78382e-01,2.23180e-03,-2.58059e-01,2.98705e-01,1.57171e-01,-1.56554e-01,2.79488e-01,2.72931e-01,6.12662e-02,-2.15012e-01,-2.10551e-01,8.33694e-02,1.83520e-01,-3.61832e-02,2.24509e-01,1.39065e-01,7.45194e-02,2.89014e-01,-7.65317e-02,4.86983e-01,-6.91808e-02,-2.62537e-01,-2.25232e-01,1.79907e-01,-1.65886e-01,-1.39819e-01,-3.38371e-01,3.23547e-01,1.22383e-01,-2.78158e-02,-8.10340e-02,-2.92421e-01,
5.08427e-01,-1.24275e-01,-8.67165e-02,3.54505e-01,-1.09316e+00,1.96925e-02,-1.34485e-01,-5.01109e-01,-2.15090e-01,1.22663e-01,-3.16240e-01,-3.86874e-01,1.09047e-01,-2.31796e-01,-1.02438e+00,7.51964e-02,2.52371e-01,-8.11082e-02,5.99882e-02,2.87320e-02,-6.69159e-02,-3.39303e-01,-2.10554e-02,2.71696e-01,7.51932e-02,3.53524e-02,3.44054e-01,-1.80746e-01,-7.15953e-02,2.38540e-01,1.61234e-01,-6.56802e-02,-5.76674e-01,-9.65278e-02,-5.20240e-01,-9.24975e-02,4.20706e-01,8.08923e-02,-2.66712e-01,2.72718e-02,-2.99912e-01,-4.82643e-01,2.84087e-02,1.82375e-01,4.09490e-01,2.62549e-01,-3.34968e-01,8.15188e-03,-4.44624e-01,-2.96792e-01,
-2.82334e-01,-5.69569e-02,5.28054e-02,3.82469e-01,5.26490e-01,-1.55319e-01,-2.02552e-01,4.14113e-01,1.46260e-01,-1.26211e-02,-1.09038e+00,-4.71215e-01,-1.12372e-01,1.32039e-01,1.33998e-01,-4.13003e-01,1.21597e-01,3.65070e-01,-2.38511e-01,-4.72868e-02,4.70372e-01,-1.04940e-01,-2.80033e-02,-1.36032e-01,-1.38553e-01,-4.46243e-01,2.00626e-01,-4.15288e-01,1.19994e-01,-2.40411e-01,-6.36612e-01,-8.40083e-01,-7.77176e-01,-5.76848e-01,1.65343e-01,-2.81037e-01,4.27433e-01,-1.88837e+00,7.78203e-02,-1.62863e-02,1.58633e-01,3.72961e-01,-4.36342e-01,5.67338e-01,4.89186e-01,-4.21379e-01,-1.37374e-01,2.21045e-02,1.33323e-01,-1.29448e-01,
-3.66222e-01,-1.03950e-01,-3.46030e-01,5.20252e-01,-2.30381e-01,2.98069e-01,-6.86636e-01,-4.14843e-01,-2.69338e-01,3.61321e-01,1.40693e+00,-5.66339e-01,-7.27639e-02,7.66474e-01,-3.50154e-02,3.22129e-01,7.64387e-01,7.20203e-01,-4.50675e-01,3.03459e-02,5.33235e-01,-5.00824e-01,-3.57372e-01,-1.10112e+00,-9.82520e-03,3.34337e-01,3.21741e-01,5.36346e-01,-2.59435e-01,-5.29117e-01,-5.60165e-01,-2.91179e-02,-3.37819e-01,-4.55375e-01,-1.81991e-01,4.38639e-02,7.87007e-01,-1.41074e+00,1.08745e-01,1.21200e+00,-2.19863e+00,-2.00723e-01,5.23096e-01,-6.16652e-02,1.87049e-01,-8.93700e-02,5.31759e-01,-4.42423e-02,2.00114e-01,-5.46411e-01,
-5.20737e-01,-1.76785e-01,2.54045e-01,-3.26380e-01,2.46891e-01,3.01375e-01,-1.45712e-01,-3.74463e-01,2.02509e-01,-1.72363e-01,-1.68382e-01,-3.63204e-01,6.27762e-02,9.52615e-02,7.37360e-01,-6.93804e-01,2.63089e-01,-2.34419e-02,1.59914e-01,2.70274e-02,2.37174e-01,5.44743e-01,-2.66163e-01,-3.57387e-01,8.18160e-03,-3.14011e-01,-1.03174e-01,-8.11156e-02,-3.08056e-01,-3.46690e-01,6.93405e-01,6.98153e-01,-1.54509e-01,8.75965e-02,-2.42145e-02,6.02263e-01,-5.89097e-01,2.82018e-01,-8.43388e-02,2.81944e-01,-3.28064e-01,-1.26423e-01,1.88118e-01,-3.67329e-02,-2.37476e-01,1.64019e-01,-5.11404e-02,-1.81719e-02,-1.82414e-01,5.35811e-01,
-2.79318e-02,-6.10613e-02,-1.01412e-02,-5.52915e-02,4.04394e-02,-5.73593e-02,6.20857e-03,-2.22377e-03,2.38538e-02,-1.48151e-02,1.55230e-03,-3.67412e-02,1.62746e-02,2.11872e-02,4.90808e-03,4.70154e-03,4.24634e-02,-2.41571e-02,-6.55395e-03,2.82217e-02,-5.46177e-02,-3.18534e-02,-2.82441e-02,-3.24262e-02,1.30020e-02,-2.00125e-02,1.85364e-02,-1.12108e-02,-3.34813e-02,-1.31698e-02,-1.73139e-02,1.50257e-02,-3.91308e-02,1.72660e-02,8.79118e-03,2.63917e-02,-2.60935e-03,-1.24847e-02,1.09101e-02,-5.47726e-02,-5.33904e-02,-6.69221e-02,-3.83629e-02,2.44426e-02,-3.24389e-03,-7.02762e-03,-4.50720e-02,3.06992e-02,1.09265e-02,2.25712e-02,
1.24486e-01,-1.14356e-01,-2.13392e-01,1.41302e+00,-6.73417e-01,-2.33246e-01,3.70673e-01,-3.14506e-01,5.94128e-01,-2.55665e-01,-3.15504e-01,3.15920e-01,-1.74700e-01,-5.59300e-02,-3.59449e-02,5.28949e-01,-3.36890e-02,5.63513e-01,-1.88641e-01,3.33402e-02,1.51033e-02,1.95994e-03,-5.64992e-02,-2.34697e-01,7.04199e-01,4.32101e-01,2.15732e-01,3.10275e-01,-4.51169e-01,-1.52856e-01,4.07915e-01,8.34554e-01,3.96813e-01,1.06043e-01,-4.48964e-01,3.86099e-01,-1.86383e-01,-4.94229e-01,4.11979e-02,5.43700e-01,-2.82080e-01,-2.33760e-01,-1.59808e-01,3.45462e-01,6.29489e-01,9.09301e-02,2.62915e-01,-1.40547e-02,7.03901e-02,8.70268e-02,
8.62763e-02,2.14661e-01,-2.05132e-01,-5.09698e-01,-2.82893e-01,-3.35409e-01,-2.81651e-03,-3.87833e-02,3.60551e-01,-1.61184e-01,1.61555e-01,1.68777e-01,-3.86635e-01,4.89530e-01,-1.43622e-01,-5.48127e-02,-8.23233e-01,4.57209e-02,3.37856e-01,-9.16430e-03,-2.45709e-02,3.11056e-01,1.58591e-01,5.88856e-02,2.91222e-02,6.48995e-01,-8.92552e-02,-6.87620e-03,-2.16610e-01,-3.59363e-01,-2.04125e-01,8.73177e-01,-1.54894e-01,-2.44434e-01,8.70704e-02,-2.51864e-01,2.41553e-01,-6.36653e-01,-4.19285e-01,-8.52114e-02,-2.73586e-02,-2.45365e-01,3.15057e-01,-3.96354e-01,-1.72202e-01,-7.04930e-01,4.88111e-01,2.19731e-02,-4.03008e-02,1.98957e-01,
1.48416e+00,
-3.92727e-02,
-9.07838e-02,
-2.47397e+00,
-2.26864e+00,
2.89911e-01,
8.49784e-02,
-2.16935e-02,
-6.88173e-01,
-2.45358e-01,
-4.08883e-01,
3.45316e-01,
-1.17538e+00,
-1.29693e-01,
-1.53813e-02,
2.30298e+00,
4.72199e-01,
-4.66609e-01,
-1.12351e+00,
4.95937e-01,
-5.70643e-01,
-7.88515e-01,
1.01652e+00,
4.62602e-01,
-1.62913e+00,
-5.84215e-01,
1.24253e-01,
-7.74607e-02,
2.88896e-01,
-1.92722e+00,
-1.86128e+00,
5.07499e-01,
