// The contents of this file are licensed under the Creative Commons
// Attribution 4.0 International License: https://creativecommons.org/licenses/by/4.0/
// Neural Network File Format by Kyle Julian, Stanford 2016
7,5,5,50,
5,50,50,50,50,50,50,5,
0,
0.0,-3.141593,-3.141593,100.0,0.0,
60760.0,3.141593,3.141593,1200.0,1200.0,
1.9791091e+04,0.0,0.0,650.0,600.0,7.5188840201005975,
60261.0,6.28318530718,6.28318530718,1100.0,1200.0,373.94992,
8.76627e-03,-1.95839e-01,-7.68201e-01,-3.16726e-01,2.16877e-01,
-2.97393e-02,8.70108e-01,-2.37032e-01,-4.03549e-01,-4.34696e-01,
2.14951e-02,-7.85835e-02,1.21503e-01,7.93447e-01,-9.26096e-01,
-2.20379e-02,-8.55695e-02,1.03280e-01,6.42320e-01,-6.48112e-01,
7.41374e-02,-1.47883e+00,-1.38450e-01,3.08309e-01,-5.44794e-01,
8.82166e-02,1.21099e+00,-1.38618e+00,2.78092e-01,-3.73040e-01,
-1.54114e-02,3.30284e-01,-1.98080e-01,-1.27317e+00,-7.95018e-01,
-1.06114e+00,-2.38089e-02,-9.21854e-03,-2.90451e-01,8.14934e-03,
-1.17116e-02,-3.69105e-01,9.40785e-01,5.76054e-02,-5.98175e-01,
-1.64359e+00,-1.44428e-02,1.74761e-02,-4.94450e-02,9.66169e-02,
2.12471e-03,1.41137e-03,4.66519e-04,5.82987e-03,1.40357e-04,
-3.25360e-02,1.15473e+00,9.20167e-01,6.88718e-01,-5.02695e-01,
-4.69433e-01,-8.56380e-02,1.75428e-01,-1.04633e-01,-2.29818e-01,
5.66461e-02,1.09845e+00,-1.10816e+00,2.99810e-02,-1.41422e+00,
8.21468e-03,-1.36450e-01,-1.71025e+00,-8.36329e-03,-9.96099e-03,
-1.47140e+00,5.79290e-02,-8.51379e-02,1.84141e-02,7.02457e-03,
-1.48927e+00,6.47416e-02,-7.73266e-02,4.12109e-02,-1.89844e-01,
-6.11732e-01,1.57377e-01,-6.43196e-01,-4.44584e-01,3.45056e-01,
-2.86215e-02,-9.34837e-01,-1.09729e+00,6.70310e-01,-3.08242e-01,
-4.44146e-01,-4.92874e-03,-1.61396e-02,-8.94870e-01,-4.67808e-01,
-8.22296e-01,2.18042e-01,-1.44015e-01,9.41202e-02,-8.77766e-03,
-1.34567e-01,-2.03231e-01,3.54483e-01,-4.03496e-01,-1.04403e+00,
-2.37781e-02,-5.35101e-02,-4.88490e-01,3.57084e-01,-8.57541e-01,
5.33201e-02,-1.20425e+00,1.50210e+00,-9.37057e-02,5.82317e-01,
-6.16863e-02,5.97902e-01,-6.29215e-01,-1.06125e-01,-1.47699e+00,
-9.79110e-01,4.42266e-01,1.54651e-02,-2.29768e-01,-7.20305e-01,
-7.69416e-01,-2.40021e-01,1.46707e-01,2.80714e-02,3.45814e-02,
6.36459e-03,-2.61511e-01,2.23119e-01,-1.10018e+00,6.26429e-01,
-8.49958e-03,3.50994e-01,-3.73907e-01,-1.15068e+00,-8.18600e-01,
-1.40555e-01,1.89290e+00,-1.65011e+00,5.74526e-02,3.23332e-01,
-5.59113e-02,1.54382e-02,8.42489e-01,-3.58749e-02,4.62021e-02,
-1.52377e+00,-8.15711e-02,7.92947e-02,-5.77222e-03,-4.43127e-03,
-1.23047e-01,8.80306e-01,-1.04157e+00,3.51375e-02,-6.20273e-01,
5.90035e-02,-2.21548e-02,8.64671e-01,4.80368e-02,-9.69857e-02,
-2.99685e-01,-9.10538e-01,1.00354e+00,-5.87046e-02,-2.56869e-01,
7.49159e-01,-1.39871e-02,2.47401e-02,2.84717e-01,-6.15255e-01,
1.10211e-02,1.26483e+00,-1.35735e+00,9.20976e-02,9.81147e-02,
-4.99502e-02,1.49026e+00,4.59057e-02,2.31723e-01,-6.32318e-03,
-1.72467e+00,9.80289e-02,-2.44410e-02,2.83851e-02,-4.96183e-02,
-1.04240e+00,-2.95140e-01,3.21732e-01,1.19413e-01,-1.01964e-02,
3.81962e-03,8.40537e-01,-8.69434e-01,9.98597e-02,-1.41636e-02,
9.32061e-02,1.58990e+00,-1.46102e-02,1.55906e-01,-2.48674e-01,
-1.45598e-01,-8.85493e-02,-7.93132e-02,7.61487e-01,2.18990e-01,
8.71167e-03,3.06966e-01,7.92472e-02,-4.23148e-01,9.75877e-02,
-9.40417e-03,-1.18621e-01,1.31868e-01,-7.35048e-01,-1.33551e-01,
-4.78295e-02,3.33785e-02,1.43013e-03,-2.44057e-01,-1.87071e+00,
-1.90297e+00,-1.39126e-02,3.01942e-03,-5.95608e-03,1.17780e-02,
-3.12582e-02,4.23027e-01,1.05228e-01,-1.48047e+00,1.90835e-01,
1.23683e-01,-2.43994e+00,9.10040e-01,7.40359e-02,-3.19861e-01,
3.86250e-01,1.01575e-03,4.29802e-03,-8.27912e-01,-1.16899e+00,
2.83023e-02,
-3.01012e-01,
1.19938e-01,
2.31600e-01,
-1.12279e-01,
-4.17827e-01,
-6.56321e-01,
-2.00220e-01,
-3.88518e-01,
-4.78993e-01,
-2.09766e-02,
-9.76452e-03,
-1.78453e-02,
-1.51143e-01,
1.00265e-01,
-2.85273e-01,
-3.03666e-01,
-1.96285e-01,
-1.11543e-01,
-6.90798e-01,
-2.16846e-02,
-5.38942e-01,
2.40161e-01,
-4.69312e-01,
-4.43499e-01,
-6.61279e-01,
-1.23966e-02,
-1.60160e-01,
-2.59078e-01,
3.17876e-02,
1.72610e-03,
-2.95569e-01,
1.51246e-01,
7.17070e-02,
1.31056e-02,
1.24820e-01,
-4.86670e-01,
1.38616e-01,
-4.85951e-01,
-1.79061e-01,
4.61325e-01,
-1.06092e-02,
4.56527e-01,
9.73708e-02,
1.79002e-01,
-8.56347e-01,
-5.27295e-01,
-6.91849e-01,
-1.94915e-01,
-6.42388e-01,
1.10957e+00,4.40670e-01,4.51863e-01,-1.26756e+00,4.44251e-01,-2.07768e-02,4.42676e-01,5.60292e-01,-3.26611e-01,1.36736e+00,4.15756e-02,-1.97694e-01,7.24728e-02,-8.72843e-02,1.60496e-01,6.21405e-04,-1.70946e-01,5.54349e-01,5.95123e-02,-1.36855e+00,-1.21310e-01,4.61141e-01,-2.49619e-01,-9.87263e-01,-5.08597e-01,1.94828e+00,-7.77441e-01,2.75260e-01,-2.04262e-01,8.47349e-01,-1.10472e-01,4.52318e-01,-6.29244e-01,1.60403e-01,1.47730e+00,1.24947e-01,-1.97627e+00,3.39160e-01,2.36985e-01,-6.75886e-01,7.89454e-02,1.86939e-01,-8.76054e-01,6.25259e-01,-9.65591e-02,-1.47524e+00,-1.66167e+00,-1.35241e+00,-5.07568e-01,1.97520e-01,
-8.55688e-01,1.02261e+00,1.11372e+00,5.42093e-01,2.14538e-01,9.92387e-01,-1.51581e-01,9.87037e-02,-7.93004e-01,-4.07183e-01,8.50484e-03,-8.69370e-01,2.00273e-01,2.28343e+00,-1.58186e+00,-4.41605e-01,2.76309e-01,2.02538e-01,-5.31366e-02,-1.06938e+00,-4.37348e-01,5.24542e-01,-9.68935e-02,2.20218e-01,8.37326e-01,-8.59814e-01,-9.89660e-02,-6.47140e-01,-2.51456e-01,-2.17758e-01,1.82486e-01,4.01048e-01,7.43241e-01,2.48177e-01,1.22758e-01,-1.75729e-01,1.47823e+00,-1.30716e+00,-4.36345e-01,-1.96427e-01,-3.38123e+00,-1.70489e+00,3.54603e-01,2.00462e-01,-6.55025e-01,-1.00320e-01,4.32557e-01,-3.06393e-01,7.97627e-01,3.72199e-01,
6.73027e-01,-2.24642e-01,-7.67489e-01,-7.44439e-01,5.91819e-01,-1.95534e+00,4.97251e-01,-3.10694e-01,-7.95382e-01,7.70536e-01,-2.69996e-02,8.18531e-01,3.66240e-01,1.02104e-01,-1.43067e+00,7.68638e-01,8.83734e-02,2.35029e-02,3.12485e+00,7.37139e-01,-8.22346e-02,-1.48351e+00,-5.90507e-01,5.82947e-01,1.31373e-01,-4.30631e-01,-1.84462e-01,1.08467e-02,-3.64254e-03,1.04894e+00,4.93524e-01,-5.27273e-02,-4.17820e-02,-6.28579e-02,5.15081e-01,-8.24378e-02,-2.20925e+00,1.21812e+00,2.44240e-01,-1.36107e-01,1.26760e-01,5.09147e-01,-1.33667e+00,4.10899e-01,-8.90333e-02,-3.05895e-01,7.69495e-01,-1.73167e-01,6.86019e-01,-1.66271e-01,
-7.74076e-01,-8.63613e-01,6.80299e-01,7.53394e-02,-2.83180e-01,-7.67822e-01,-2.63748e-03,-4.78929e-01,2.51104e+00,5.65218e-02,-2.85265e-02,-8.40986e-01,-6.08699e-01,5.96356e-01,2.17105e-01,5.53627e-01,1.57720e-01,-1.95410e-01,-7.93878e-01,9.13270e-01,2.81920e-01,1.87871e+00,-1.04347e+00,6.03825e-01,1.21542e+00,-4.65123e-01,3.36838e-01,-2.50119e+00,-2.24583e-02,1.20210e-01,7.80718e-01,-5.85840e-02,1.41258e+00,-8.38073e-02,5.86987e-01,1.99475e-01,-1.55391e-03,-2.61084e-02,-5.86633e-01,-6.40198e-01,-9.30053e-02,-4.71374e-02,2.46293e-01,-1.35208e+00,-6.06253e-01,2.19663e+00,1.54980e+00,-9.79523e-01,-5.16965e-01,3.09952e-01,
2.29699e-02,-3.83021e-02,-1.10442e-02,-3.86848e-02,-2.81288e-02,3.37690e-02,-3.05632e-02,4.76528e-03,2.64992e-02,-4.06206e-02,-1.61270e-02,-5.20638e-02,-3.40417e-02,-5.32316e-02,1.96622e-02,1.43885e-02,1.86618e-05,-1.51532e-03,-3.36958e-03,-2.56141e-03,-8.97623e-03,-3.70279e-02,-4.84972e-02,3.15257e-02,1.07059e-02,2.04604e-02,8.37983e-03,-4.70372e-02,-1.49530e-02,7.64259e-03,-1.73861e-02,-4.65683e-02,2.17330e-02,1.04120e-02,-3.29061e-02,-2.58551e-02,-2.11988e-02,-2.21760e-02,1.07372e-02,-3.77234e-02,9.55306e-03,-1.17745e-02,-4.78678e-02,-5.54330e-02,-2.06961e-02,-3.14089e-02,-2.13043e-02,3.93789e-02,-5.47700e-02,-2.07804e-02,
1.47747e+00,9.75101e-01,-9.51836e-01,-1.11574e+00,2.26433e-01,-6.82055e-01,7.79455e-01,1.15197e-01,-9.82163e-01,6.50952e-02,-4.56341e-03,1.03452e+00,9.44228e-02,-4.03189e-01,-1.13484e+00,-3.55924e-02,-8.80299e-02,2.82731e-01,-3.13934e-02,-2.94546e-01,9.28720e-03,-2.91663e-02,-1.78755e-02,-1.70042e+00,-6.01959e-01,7.28016e-01,-5.31110e-02,1.97764e-03,6.75606e-02,-1.06682e+00,-7.14689e-02,-7.73133e-02,-7.17675e-01,4.59038e-01,-9.53280e-01,-6.59306e-02,-7.07457e-01,7.54907e-02,1.86831e-01,-3.44835e-01,-1.30695e-01,-3.60077e-01,4.82873e-01,2.18766e-01,7.80568e-01,-5.23686e+00,-2.95127e-01,-8.63583e-01,-1.67808e+00,4.97444e-02,
9.07718e-01,6.73189e-01,-1.58259e+00,-6.50916e-01,3.75276e-01,7.51534e-01,6.22568e-01,2.98005e-01,1.27561e+00,1.73545e-01,3.76808e-02,4.21961e-01,-3.28010e-01,-9.41629e-01,-2.11759e-01,-1.90309e-01,-4.24227e-02,1.64050e-01,-1.33077e-01,8.59364e-01,-6.63032e-02,-4.61022e-01,-1.47425e-01,4.61942e-01,-5.72180e-01,7.27658e-01,1.63002e-01,-7.37636e-01,4.38124e-01,1.18002e-01,-1.01808e+00,4.49435e-02,4.99784e-01,-4.76828e-01,5.29126e-01,-8.56134e-02,-1.00541e+00,-2.61182e-01,-1.09517e+00,-4.60310e-02,1.31810e-01,-9.23052e-02,-9.45724e-01,1.65133e+00,-1.38033e+00,-8.81603e-01,9.11839e-01,-6.33891e-01,4.02844e-01,-1.06590e-02,
5.17770e-01,-3.66896e-01,-8.05148e-02,-1.19668e+00,1.16615e-01,2.65451e-01,-5.73986e-02,-2.16125e-01,-4.05848e-01,-3.52677e-01,-5.65781e-03,7.60454e-01,-2.08179e-01,-1.87326e-01,5.69220e-01,1.74195e-01,-1.24769e-01,-7.67435e-02,1.17117e+00,9.07350e-02,3.76273e-01,-7.03619e-01,-8.29226e-02,-1.07857e+00,8.13126e-03,-7.19797e-01,-8.73331e-02,3.06983e-01,2.87258e-01,-1.66820e+00,8.46168e-01,6.45379e-02,-7.12603e-01,5.05405e-01,-1.26727e+00,-1.15315e-01,-2.08878e+00,5.35652e-01,-1.42454e-01,8.98537e-02,1.29446e-01,4.91925e-01,6.11807e-01,8.53776e-01,4.27928e-01,3.17609e-01,1.17420e+00,2.89158e-01,2.92485e-01,7.76608e-01,
-3.80208e-01,-3.39468e-01,-1.44448e-01,1.80062e+00,-1.76661e-01,3.06962e-01,2.39941e-01,3.38126e-01,-6.21526e-01,5.75552e-01,5.59297e-03,-3.36839e-01,3.01542e-01,-7.03840e-01,2.96764e-01,-4.35069e-01,3.28725e-01,-5.27097e-02,-4.11789e-02,-1.70683e-02,5.21309e-02,-7.73680e-01,6.89378e-01,3.48766e-01,6.67329e-01,7.72560e-01,1.62157e-01,1.50304e-01,-4.48965e-01,-5.86965e-01,4.96609e-01,-2.03721e-02,1.30113e+00,-9.05460e-02,7.18254e-01,1.10755e-02,5.74126e-01,9.71022e-01,-1.89735e-01,-1.53783e-01,-3.91496e-01,-6.20297e-01,-1.20443e+00,-6.19387e-01,-6.12120e-01,3.28583e+00,-4.77890e-01,3.22862e-01,-2.93042e-01,8.43925e-02,
-1.92206e-01,1.20691e-01,4.00534e-01,-6.72129e-01,8.89987e-01,6.80266e-01,1.21400e-01,3.47414e-01,-3.16557e+00,1.83464e-01,2.81496e-02,-1.67152e-02,1.98708e-01,-1.01892e+00,1.50012e-01,-5.83362e-01,1.68511e-01,-5.22366e-02,4.31522e-02,8.67027e-01,8.48743e-02,-4.66781e-01,4.18712e-01,-3.31847e-01,-8.04170e-01,-2.03519e-01,-6.46167e-02,5.38267e-01,5.78572e-01,-9.35976e-01,-2.83678e+00,4.88524e-02,-2.02830e-01,-3.54737e+00,-9.34894e-01,1.54516e-02,-2.34732e+00,-2.16482e-01,-4.29764e-01,-4.10042e-01,-4.65075e-01,-9.14192e-01,3.35080e-01,1.92260e-01,6.60147e-01,-1.84384e+00,-4.44331e-03,1.66237e+00,-1.11984e+00,1.64582e-01,
-2.67682e-01,-9.74865e-01,-3.14667e-01,2.45372e-01,2.21288e-01,-1.40392e-01,1.87297e-01,-1.92453e-01,-3.31676e-01,-9.65941e-01,6.85268e-03,-8.38042e-04,4.28156e-01,1.71262e+00,-9.99908e-01,1.75424e-01,-2.62534e-01,-7.38170e-02,-3.57551e-01,1.12700e+00,-5.71630e-02,7.06328e-02,9.59595e-02,9.35519e-01,9.12437e-01,3.12925e+00,-3.35209e-02,-3.87368e-01,3.05828e-03,6.01560e-02,-9.45628e-01,1.30647e-01,-3.58364e-01,-3.44053e-01,1.09395e-01,-2.20952e-02,-1.57907e-01,-4.46194e-01,1.48144e+00,-5.09198e-02,-2.22475e+00,-3.57464e+00,2.54887e-01,-3.93690e-02,-5.25452e-01,-2.02340e+00,8.59754e-01,1.51127e+00,7.15164e-01,4.05155e-01,
-1.09321e-01,-1.12954e-01,2.25408e-01,-1.74343e-01,1.53511e-01,1.79748e-01,9.27931e-03,3.11041e-01,-3.04131e-02,2.27092e+00,3.25018e-02,1.26755e-01,8.56534e-02,1.35665e-01,-1.22276e-02,8.04442e-01,8.16681e-01,-1.38797e-02,5.62566e-02,7.15920e-01,2.03926e-01,-5.80595e-02,-4.13684e-02,4.04332e-02,7.95489e-02,2.13178e-01,3.79288e-01,-3.75588e-02,7.72165e-02,-7.13334e-02,6.71171e-03,1.06012e+00,7.92900e-02,-1.26603e-02,3.87460e-02,-1.12457e-01,4.46357e-02,-1.36871e-01,2.18779e+00,3.22492e-01,-2.56487e-01,1.00310e-01,1.75826e-01,9.66984e-02,-1.13893e-01,-4.91519e-01,4.53219e+00,8.13231e-02,-1.11156e-01,-1.40537e+00,
-3.84020e-02,-1.30926e+00,9.70605e-03,-2.28871e-01,8.23421e-01,8.79414e-02,6.66253e-02,-2.16463e-02,7.97277e-01,-1.21789e-01,-2.45580e-03,-7.68584e-02,-3.06107e-01,3.21397e-01,-6.78839e-01,-1.22368e-01,-7.45127e-02,3.18261e-01,2.23996e-02,3.06844e-01,-1.71104e-02,8.11785e-02,1.29169e+00,1.35738e+00,-4.96623e-01,-1.41185e+00,1.19506e-01,-1.02786e+00,8.38785e-01,-1.08452e-01,-3.37671e-02,8.95407e-02,6.33831e-01,8.69231e-01,1.13214e-01,-9.73225e-04,1.26016e+00,-8.82652e-01,1.28530e-01,-1.05458e-03,-9.08996e-01,-1.15304e+00,-2.72028e-01,-1.10742e+00,-7.10528e-01,1.22979e+00,2.92253e-01,3.54457e+00,-5.54633e-02,3.30604e-01,
-2.41776e-01,-1.11534e+00,4.78576e-01,1.81123e-01,5.88843e-01,1.05904e-01,-5.60023e-02,7.29556e-01,1.72666e-01,1.76630e+00,-1.21406e-02,-2.68582e-01,-6.18875e-01,-3.10638e-02,-3.92476e-01,-4.80251e-01,-3.92111e-01,-1.85367e-01,2.90653e-01,1.03330e+00,-4.95036e-01,-7.97923e-01,-4.30021e-01,-2.79643e-01,6.01544e-01,2.59549e-02,-8.79389e-01,-3.73375e-01,6.46847e-01,2.35851e-01,-6.86571e-01,-4.29206e-01,2.01976e-01,1.23525e+00,1.31566e-01,6.83306e-01,1.44284e-01,-5.40139e-02,-9.97996e-02,-4.38581e-01,-7.08880e-01,3.72938e-01,4.48773e-01,1.19439e+00,-1.22749e-01,-3.94039e-01,-3.75077e-01,-1.79983e-01,-4.04712e-01,2.25720e-01,
2.08578e-01,8.68332e-01,5.74574e-01,-5.68756e-01,3.59025e-01,2.27888e-01,-1.44691e-01,8.16904e-01,2.87536e-02,4.80422e-01,9.51215e-03,-4.44062e-01,1.98887e-01,9.25495e-02,2.94225e-01,3.10400e-01,4.56558e-01,3.58329e-01,5.53740e-01,9.74104e-01,1.76298e-01,6.22539e-02,3.09493e-01,-4.83139e-02,4.43595e-01,2.03807e+00,4.98877e-01,-9.98582e-01,2.28999e-01,-3.80924e-02,1.32520e-04,9.22522e-01,5.89798e-02,2.76644e-01,6.66407e-02,-2.78788e-01,5.76974e-01,1.57046e-03,-2.02194e+00,2.82137e-01,-7.96983e-01,-4.58610e-01,-3.68309e-01,2.51373e-01,-5.79711e-01,2.01900e+00,1.35396e+00,4.75218e-01,2.27274e-02,6.28897e-01,
-4.34815e-02,1.92598e-02,-1.29344e-01,4.32952e-02,5.45349e-02,-1.79407e-01,5.92946e-03,-2.55996e-02,1.61526e-01,-2.23150e-02,-2.68273e-02,2.26744e-02,8.76094e-03,6.46909e-02,-2.29092e-01,1.75299e-02,-4.22563e-02,5.87527e-03,2.45663e-03,9.30178e-02,7.92668e-02,1.30358e-01,-1.46765e-02,-1.75174e-01,1.14286e-01,1.31039e-01,2.77100e-02,6.43813e-02,1.51461e-02,1.40883e-01,-1.81156e-02,-3.41680e-02,9.44495e-02,-1.55840e-01,9.24353e-02,-1.93215e-01,-1.40357e-01,-5.16862e-02,5.43291e-02,1.94077e-02,-2.17897e-01,-1.08478e-01,-3.74732e-02,-1.48123e-01,-1.30026e-02,3.70713e-03,3.79075e-02,8.02740e-02,-2.10183e-01,2.69818e-02,
8.74188e-02,-3.35806e-01,5.68761e-01,1.31958e+00,-1.02218e+00,6.47587e-01,-4.96024e-01,-6.65837e-01,1.15105e+00,-9.85830e-02,-3.63046e-02,-3.01199e-01,1.16740e+00,-1.56164e-01,-2.60422e-02,4.67848e-01,4.76673e-01,6.73324e-02,-2.51255e-01,-6.06384e-01,5.54683e-01,-1.34806e-01,2.39822e-01,1.23473e+00,1.90503e-01,-1.08283e-01,6.55754e-01,-2.99101e-01,8.47764e-02,8.04470e-01,3.60180e-01,6.14450e-01,-1.03706e-01,-1.13699e+00,-3.92937e-01,1.60740e-01,-1.45288e-01,5.93590e-01,-5.48246e-01,-1.65798e-01,4.45826e-01,2.60036e-01,6.16450e-02,6.06152e-01,2.98071e-01,1.17934e+00,-1.22493e+00,7.30023e-01,8.13232e-02,4.79173e-01,
-2.58922e-02,5.55772e-01,5.98795e-03,1.68263e-01,-8.54113e-02,3.79615e-02,4.10636e-01,-4.69647e-01,-6.09816e-01,8.29626e-01,-2.54770e-02,-2.24408e-01,1.33374e+00,-3.39463e-01,4.82154e-01,9.05119e-01,-1.22078e+00,9.55609e-01,8.31358e-02,9.15566e-01,1.95396e-01,5.51190e-01,-2.74015e-03,-9.16787e-02,-4.72495e-01,-8.45964e-01,9.12397e-01,-6.71127e-01,1.36766e-01,5.25563e-01,4.48909e-01,1.02681e+00,-2.20996e-01,-4.97174e-01,1.01322e-01,2.19977e-01,-2.31242e-01,3.09614e-01,-9.68242e-01,-5.06194e-02,1.87293e-01,1.33876e-01,2.34941e-01,-1.36984e-01,6.03067e-01,-1.35786e+00,1.64602e+00,8.06286e-01,-1.34764e-02,-1.00754e+00,
-2.39424e-01,-2.56771e-01,5.13336e-01,3.48178e-01,-3.90297e-01,1.59721e-01,-1.15322e-01,1.54408e-01,6.60913e-01,6.85331e-02,-1.78141e-02,-2.42697e-01,4.33909e-02,-6.78434e-02,-2.99197e-01,1.36660e+00,7.83878e-01,2.92628e-01,-3.36117e-01,-1.66059e+00,5.81755e-01,-6.44139e-01,-2.24385e-02,-3.25134e-01,4.25152e-01,-5.38942e-01,3.55078e-01,-1.57205e-02,-2.08198e-01,6.91022e-02,5.15587e-01,1.26860e+00,3.60236e-01,2.12829e-01,4.60887e-01,-2.55318e-01,-1.96886e-01,-5.00355e-02,3.01970e+00,-1.50541e-01,4.80031e-01,-2.24227e-01,2.93314e-03,2.26119e-01,-1.34763e-01,3.56154e-01,3.84972e+00,-7.05302e-01,-4.72971e-01,-2.87111e-01,
-7.73872e-01,-1.79057e-01,-7.09318e-03,1.29264e-01,5.55021e-01,8.72102e-02,1.17103e-01,1.10683e+00,1.46058e-02,-9.35649e-01,-7.57198e-03,-4.08345e-02,4.39629e-01,-1.53068e-02,-6.50694e-02,4.79252e-01,1.21768e+00,9.77808e-01,-1.12140e-01,-6.18119e-01,4.52174e-01,-1.90462e-01,-7.19686e-01,-5.66940e-01,-9.30554e-02,2.14404e-01,6.93137e-01,3.68398e-01,2.81707e-01,4.12391e-01,-1.32518e-01,1.20374e+00,8.46529e-01,-8.65963e-01,6.81688e-01,-4.11775e-01,-5.19403e-01,2.57817e-01,-1.26420e+00,2.99191e-01,-2.70601e-01,-2.98903e-01,6.17392e-02,6.77995e-01,1.96981e-01,-8.85331e-01,4.35478e-01,2.82296e-01,-2.54813e-01,-1.05259e+00,
4.68259e-01,8.94455e-01,-9.46008e-02,1.45120e+00,2.34469e-01,7.92901e-01,1.04314e+00,-2.60329e-01,1.73548e+00,1.14909e+00,-3.44223e-02,-1.35670e+00,-6.76367e-02,-1.35226e-01,5.60544e-01,-5.08261e-01,5.17133e-01,-4.19348e-01,4.00737e-01,1.61592e+00,-8.04348e-01,-3.61316e-01,-1.65953e-01,-1.59317e+00,2.51411e-02,1.51155e-01,-2.45339e-01,4.09772e-01,-9.44656e-01,-7.49438e-01,-7.93989e-01,3.26829e-01,-1.13595e+00,-1.46476e+00,2.50272e-01,8.77773e-01,1.53757e+00,-1.40973e-01,-7.79882e-01,1.45264e-01,2.26580e-01,6.41667e-01,-3.26894e-01,1.27042e+00,4.50866e-01,5.15740e-01,-5.67518e-01,1.80644e+00,-6.11557e-01,8.58428e-02,
5.14368e-03,-6.49088e-02,8.10613e-02,-2.60688e-01,-2.16707e-01,1.49521e-01,2.76528e-01,4.23875e-01,-4.46522e-01,-1.47579e+00,-1.93852e-02,1.93966e-01,2.64493e-01,5.00706e-02,-7.00037e-02,6.83560e-01,8.18169e-01,-3.38290e-02,-1.90445e-01,7.28065e-01,2.60727e-01,1.78100e-01,4.97386e-01,1.76211e-01,1.66866e-01,-4.42564e-01,-2.58897e-01,-2.56784e-01,1.10597e-01,1.97512e-02,2.10816e-01,6.85343e-01,-5.42378e-01,3.62143e-01,-3.73213e-01,-1.86804e+00,-1.80245e-01,-1.96233e-01,3.99329e-01,-4.86029e-02,2.67300e-01,1.92418e-02,-8.50372e-01,-1.74627e-01,3.78453e-01,-1.62352e+00,2.09409e-01,4.91721e-01,3.48945e-01,1.79937e+00,
1.05422e-03,-4.54854e-02,-2.30790e-02,3.63160e-02,-3.11065e-02,-2.85512e-02,4.96771e-03,-3.18509e-02,3.27703e-02,-2.60692e-03,-2.28930e-02,-2.75792e-02,-5.32667e-02,-5.08977e-03,-2.91464e-03,2.09766e-02,-4.18010e-02,1.96922e-02,-2.80142e-03,2.12227e-03,-1.24072e-02,2.83956e-02,2.03977e-02,-1.25808e-02,-1.09321e-02,-3.23545e-02,1.02328e-02,-2.53515e-02,-5.10935e-02,-3.24089e-02,-8.22577e-03,6.88706e-03,-1.23808e-03,1.42260e-02,-3.24735e-02,-4.62358e-03,-5.20710e-02,-3.08496e-02,-7.19806e-03,3.86389e-02,-3.00128e-02,3.28746e-02,5.49599e-03,1.08032e-02,1.44545e-04,-6.78317e-03,-4.96916e-02,3.18007e-02,-2.39314e-03,-4.06201e-02,
2.73615e-01,-5.11750e-01,-6.37032e-02,-3.48329e-01,1.94338e-02,7.09621e-01,-8.67550e-01,5.56111e-02,1.17600e+00,1.16255e+00,-9.41814e-03,1.56302e-01,3.56421e-02,-6.14478e-01,-7.54969e-02,-2.89160e-04,4.08546e-01,7.36919e-01,4.16392e-01,-1.38444e+00,-2.39848e-01,-7.62543e-01,6.82079e-01,-6.54733e-01,4.64195e-01,1.85472e-01,6.14489e-01,2.60256e-01,1.09919e-01,-1.24313e+00,5.35946e-01,3.71743e-01,3.81419e-01,1.65735e-01,-1.47107e+00,3.28826e-01,-1.69760e+00,2.78340e-01,-1.17558e+00,-1.65909e-01,9.47997e-03,6.26847e-01,-1.57866e-01,3.84600e-01,-4.18747e-01,7.79172e-01,1.05071e+00,1.27020e-01,5.41457e-02,5.67359e-01,
-1.44120e-01,3.04543e-01,2.48138e-01,-2.81681e-01,-3.41612e-01,8.59204e-01,2.75193e-03,1.28045e-02,-6.31652e-02,-6.28364e-01,6.60845e-03,-3.12069e-01,2.66053e-01,7.01668e-01,-1.05374e+00,-2.48926e-01,3.78055e-01,-4.48642e-01,4.78274e-01,4.23600e-01,-1.17177e-02,-1.42769e-02,6.83877e-05,-3.82227e-01,4.14552e-01,-1.31343e+00,1.96663e-01,-2.83495e-02,7.78030e-03,1.09008e-01,1.75307e-01,1.72659e-01,-9.63343e-01,-1.71641e-01,4.92711e-01,-5.03550e-02,4.16855e-01,-4.75722e-01,-2.71584e-01,3.22077e-01,-4.93238e-01,3.35500e-02,-2.41744e-02,2.45279e-01,-5.45484e-01,3.31364e-01,1.17231e+00,-6.74419e-02,-7.55901e-01,-2.55325e-01,
-1.47333e-02,-2.79649e-03,1.16368e-02,-2.84006e-02,-5.89308e-02,-2.93412e-02,2.64525e-02,-3.03236e-02,-3.61201e-02,-3.74343e-02,1.81230e-02,4.19960e-03,2.02977e-02,1.49923e-03,-1.60921e-03,1.60487e-02,-4.05082e-02,-2.28790e-02,-2.19246e-02,3.56586e-02,1.38981e-02,-5.17596e-02,-3.76493e-02,2.54541e-02,6.67409e-03,3.30348e-02,-2.56592e-02,7.51465e-04,3.03682e-02,3.04109e-02,2.91676e-05,3.04615e-02,-2.95517e-03,-4.02929e-02,2.12355e-02,-3.88691e-02,-2.97528e-02,-3.80109e-02,-3.21502e-03,-1.64367e-02,-3.19457e-02,3.53139e-02,3.09774e-02,-2.24965e-02,1.70823e-02,8.67183e-04,-9.58631e-03,-5.34329e-02,-2.61181e-02,1.11761e-02,
-1.81579e-01,1.02864e+00,1.84754e-01,1.86705e-01,-4.52611e-03,2.47716e-02,2.86735e-02,7.71644e-01,6.15219e-01,-3.25306e+00,-1.38633e-02,-1.23009e-01,-6.62015e-01,-1.39859e-01,-1.76463e+00,-7.42043e-01,-4.52651e-01,-6.38694e-01,3.10116e-01,-7.17819e-01,-8.37281e-01,-4.85878e-01,-3.18865e-01,-3.46472e-02,-4.35019e-03,7.53906e-01,3.66498e-01,-5.88083e-01,-1.21762e-01,3.03273e-01,-6.81271e-01,-1.92866e-01,1.01661e-01,1.44873e+00,4.24941e-01,-3.83696e-02,1.66514e+00,-7.58250e-01,-9.90651e-01,-6.29685e-01,1.01078e+00,6.64278e-02,-4.67585e-01,2.58229e-01,-2.91943e-01,5.37670e-01,-2.75660e+00,6.42201e-01,-5.98747e-01,5.30798e-02,
-7.56835e-02,5.68563e-01,-3.84054e-01,6.43654e-01,2.47762e-02,4.60092e-01,5.34210e-02,-4.40355e-03,1.34379e+00,-7.92163e-02,-3.40740e-02,-4.15286e-02,-1.08767e-01,-1.07221e-01,-8.80939e-01,-3.01997e-01,-1.12971e-01,2.86858e-01,-1.81408e-01,-1.34923e-01,3.37189e-01,4.54403e-01,-9.52514e-02,-2.34452e-01,6.14644e-01,-1.86081e-01,2.28359e-01,-8.33420e-02,-1.42370e-01,-1.60107e+00,-2.41900e-01,-5.13645e-02,3.24139e-01,4.58510e-01,-5.51812e-02,3.72112e-02,1.16823e+00,-1.75396e-01,8.35952e-01,5.46025e-01,5.07158e-01,-2.40530e-01,1.47874e-01,-1.29323e-01,9.72121e-02,1.53777e+00,-5.40689e-01,-1.69697e-01,-4.95545e-01,-1.07568e-01,
9.91768e-02,4.35570e-01,-9.02381e-01,-1.93697e-02,1.39325e-01,2.93333e-01,-3.13897e-01,2.06552e-01,-3.69314e-01,4.62321e-01,-1.33482e-02,6.86018e-01,1.61107e-01,-3.24245e-01,-1.40052e+00,7.33773e-01,2.12997e-02,-2.79695e-01,2.05274e-01,6.61793e-01,4.07344e-01,5.12964e-01,5.50779e-01,5.76722e-02,9.34990e-02,-1.74203e+00,2.00143e-01,-3.45617e-01,-2.02152e-01,9.02526e-02,-2.50707e+00,8.24308e-01,-4.35195e-02,-1.00456e+00,-2.73795e-01,-1.27065e+00,-3.52768e-01,2.57054e-01,-2.82282e-01,5.75803e-01,-4.42352e-01,-1.84472e-01,3.88828e-01,-2.20650e-01,4.86703e-01,-3.50479e+00,1.03333e+00,-5.19604e-01,1.31257e-01,3.41698e-01,
-1.95161e-01,3.05185e-01,-6.09735e-02,-1.52579e+00,5.38801e-01,5.55343e-02,-4.12339e-01,-1.63045e-01,7.95370e-01,-3.94275e-01,-9.51217e-03,5.82132e-01,-5.47577e-01,6.15298e-02,-2.38980e-01,-2.18867e-02,-3.28857e-02,9.34181e-02,-1.29168e-01,-1.76066e+00,4.46465e-01,5.09987e-01,8.21643e-01,-2.23133e-01,-1.01164e-01,-1.62408e-01,7.77161e-01,-6.04593e-01,1.48577e-04,9.83676e-02,3.24245e-01,8.15152e-02,2.94298e-01,9.89563e-01,-3.32326e-01,-2.76240e-01,-1.14962e+00,-4.48773e-01,4.65962e-01,2.38095e-01,4.82683e-01,-3.37095e-01,7.58600e-01,-3.48708e-01,-7.54602e-01,-2.21950e-01,-9.09093e-01,1.73449e-01,1.79737e-01,1.25740e-01,
3.92102e-02,2.16514e-01,-6.91997e-01,1.43632e-01,4.27525e-01,-1.03276e-01,-2.35652e-01,7.20322e-01,1.18817e-01,8.30370e-01,-2.93428e-02,1.92214e-01,8.22623e-01,2.60575e-01,3.10905e-01,-2.01355e-01,5.25501e-01,1.93801e-01,-1.25057e-01,2.30194e+00,-2.41942e-01,1.17547e+00,1.73862e-03,-4.96977e-01,-4.30518e-02,5.61212e-01,-2.27911e-01,-8.07179e-01,-9.14536e-02,-2.14586e-01,4.72172e-01,1.28982e-01,7.52396e-01,9.62530e-01,9.46583e-02,-3.80933e-01,6.56435e-02,-4.95759e-01,1.08835e+00,1.95960e-01,2.05953e-01,3.38584e-01,-4.13003e-01,-3.96332e-01,2.87824e-01,8.33061e-01,3.02330e-01,5.50063e-01,1.07611e-01,-7.42134e-01,
-2.87602e-01,-1.31017e-01,7.81221e-02,1.56341e+00,-9.34619e-01,-3.73663e-01,2.67955e-01,-2.14041e-02,-3.13087e-01,-2.60970e-01,2.77697e-02,-7.25929e-02,6.23081e-02,3.03737e-01,-1.88884e-01,1.74869e-01,1.82690e-01,9.96174e-02,-1.22087e+00,-1.94313e+00,-6.34029e-02,7.40801e-01,-2.09179e-01,-1.23636e-02,-2.59038e-01,5.87704e-01,-4.93175e-01,-5.70827e-01,2.37203e-01,9.04025e-01,1.11828e+00,-1.07858e-01,2.32883e-01,1.51390e+00,-5.73816e-01,1.24392e-01,4.05919e+00,3.80724e-01,6.26374e-01,3.12810e-01,2.18790e-01,-3.95492e-01,-7.36525e-01,-3.65875e-01,-7.95175e-01,1.06367e+00,-3.42876e-01,-1.21336e+00,-1.75311e+00,-4.70423e-01,
-1.67023e-02,-1.47951e-02,9.60765e-03,2.19391e-02,-5.01371e-02,-7.43449e-02,1.38246e-02,-4.20709e-02,9.98768e-03,6.65452e-03,3.89538e-02,-2.70996e-02,-8.81268e-03,4.70552e-03,-2.15058e-03,9.07527e-03,2.01537e-02,-4.10742e-02,-3.22536e-02,-2.20841e-02,-1.49036e-02,1.14007e-02,-2.79541e-02,-6.55700e-02,-5.05479e-02,2.27267e-02,2.64522e-03,1.72900e-02,2.10370e-02,-6.99584e-02,-3.43949e-02,2.17910e-02,2.10798e-02,-5.93933e-02,4.05768e-02,-3.52456e-02,-1.12979e-02,-3.20121e-02,-6.37426e-03,-6.61769e-03,1.96347e-02,-2.61994e-02,-6.17455e-02,2.40674e-02,-8.32392e-03,1.02191e-02,2.52827e-02,1.56102e-02,-1.64465e-02,1.80468e-03,
-1.82113e-01,1.35971e-01,1.67199e-01,3.92256e-01,-3.21246e-02,1.08023e+00,5.10859e-01,8.11142e-03,-1.73673e-01,1.39972e+00,2.68462e-02,-4.86143e-01,3.87594e-01,-2.86467e-01,-1.05226e+00,1.35642e-01,-3.54047e-01,-2.08305e-01,-2.75096e-01,9.01961e-01,3.20070e-01,3.19592e-01,-2.32907e-01,-1.54944e-01,-4.65660e-01,1.01723e+00,7.13228e-01,-3.70357e-01,4.54942e-02,-1.79489e-01,-1.49659e+00,1.41455e-01,-4.83460e-02,-1.77711e-01,-3.94135e-01,-5.04520e-01,-4.07438e-01,1.16049e-01,-9.38132e-02,-1.03809e-01,2.30340e-01,9.29159e-02,1.47509e-01,1.70039e-01,1.73203e-01,-3.04077e+00,1.14713e-01,-1.60481e+00,1.72338e-02,-1.46708e+00,
-1.45185e+00,1.98178e-01,1.81488e+00,2.08022e-01,-8.30480e-02,4.63573e-01,-5.47392e-01,2.02888e-01,-3.37567e-01,7.56921e-01,-1.52995e-02,3.34724e-01,8.22806e-02,-4.62981e-02,4.14780e-01,-5.49682e-01,2.21712e-02,-2.15800e-02,-4.51493e-01,-1.63912e+00,-5.31468e-01,-4.00065e-01,-3.48692e-01,4.94476e-01,-3.81728e-01,5.09463e-02,1.96599e-02,9.73658e-01,-7.46953e-02,1.79125e-01,-1.05624e+00,3.10116e-01,9.80900e-01,-5.42155e-01,2.38475e-01,1.92090e-01,4.41801e-01,1.65615e-01,9.21599e-01,-3.83052e-01,3.09612e-01,-4.74243e-01,5.08488e-01,-6.84491e-01,7.99423e-01,-1.39688e-01,-7.83622e-01,2.47512e-01,5.31576e-01,3.66822e-01,
-1.04036e+00,4.99401e-01,-6.34957e-01,2.22838e-01,-2.23439e-01,-1.32385e-01,1.32813e+00,4.45145e-01,-1.19687e+00,-1.16264e+00,3.63540e-02,-3.75404e-02,4.49769e-01,2.45890e-01,6.40193e-01,-1.36717e-01,4.38534e-01,-1.31749e-01,5.31187e-02,2.10610e+00,2.18058e-01,-3.54260e-03,-6.10740e-01,-1.03593e+00,8.12526e-02,1.82292e-01,-4.84407e-01,-5.64534e-01,-4.01394e-01,-3.13149e-01,-3.00221e-01,-1.42837e-03,1.98503e-01,9.56845e-01,6.57934e-01,5.43156e-02,-6.03210e-01,5.51748e-01,5.01459e-01,-6.61193e-02,4.03742e-01,-1.29180e-01,-8.94509e-01,-1.10600e+00,1.34255e+00,5.78030e-01,5.88922e-02,-1.11370e+00,3.94145e-01,-1.24354e+00,
-9.60460e-01,-1.22439e+00,-1.00359e+00,-1.30396e+00,1.26494e+00,2.62823e-01,-7.13366e-01,6.06508e-01,7.55833e-01,-7.54010e-01,-1.46821e-02,1.73731e-01,3.97623e-01,3.72034e-03,-2.30397e+00,2.07224e-01,-3.53535e-01,-9.90032e-02,-5.27853e-01,-4.14513e-01,3.39629e-01,6.57647e-01,4.19799e-01,8.95547e-02,4.26559e-01,6.35599e-01,-5.08739e-01,-2.54394e-01,1.13030e-01,8.22280e-01,1.01287e-01,-4.72480e-01,1.77554e-01,1.49973e+00,6.94657e-01,3.63911e-01,1.68053e-01,-9.85160e-02,-2.36131e-01,-8.31573e-04,3.60113e-01,5.03358e-01,1.09504e-01,4.20391e-01,4.13776e-01,-8.63251e-01,3.63430e-01,-2.51879e-01,-5.02024e-01,4.09623e-01,
1.74058e-01,-1.44146e-01,-2.14691e+00,1.19299e+00,1.33038e-01,-6.66629e-01,1.13078e+00,4.01402e-01,1.27518e-01,7.63164e-01,-4.03150e-02,3.86698e-02,-3.76668e-01,7.91920e-02,3.16868e-01,-2.54567e-01,1.43668e-01,-7.65216e-02,7.19195e-03,-6.43913e-01,5.97627e-02,9.09831e-01,7.73395e-01,-2.90634e-01,-7.47908e-01,4.87809e-02,-1.19002e-01,1.00650e+00,-1.75640e+00,3.84788e-01,-2.02532e-01,-1.55284e-01,2.78729e-01,-6.89292e-01,5.96056e-01,6.70435e-02,-2.00187e-01,5.10934e-01,4.01001e-01,-2.24787e-01,1.25139e-01,-9.97226e-02,-8.07602e-01,3.57935e-01,1.17844e+00,-1.82819e+00,-8.41820e-01,6.23870e-01,-2.10875e-01,2.55845e-01,
-2.56304e-01,-1.24858e+00,-2.27896e-01,2.74406e-01,9.57646e-03,-9.73803e-01,-4.12951e-03,3.62023e-01,9.16703e-01,-1.44497e-01,-4.86654e-02,-2.95681e-01,-2.53191e-01,1.48758e+00,4.06478e-01,-2.00709e-01,-1.47070e-01,4.10797e-02,9.26392e-01,8.99605e-01,5.99728e-02,-2.32701e-01,-1.80155e+00,-8.21110e-02,-9.10533e-02,-1.90212e+00,-2.98507e-01,2.95692e-01,-3.19786e-02,-1.65469e-02,4.05629e-01,6.18454e-01,-1.16842e-02,-7.64213e-01,3.19336e-02,4.95347e-02,9.33105e-01,-2.92303e-01,-3.38835e-01,1.16591e+00,2.30266e-01,-3.01844e-01,-2.75568e-01,8.90838e-01,5.00751e-01,2.48764e+00,3.65590e-01,-1.65778e+00,-2.42189e-02,7.51600e-02,
-7.16617e-01,-3.33175e-01,-6.39936e-01,-8.26987e-01,-7.83972e-01,-2.00062e-01,-1.22885e-01,-3.43605e-02,-6.59370e+00,-3.38364e-01,-1.70743e-02,2.12540e-02,-9.12633e-01,-2.83519e-02,-1.28074e-01,4.57132e-01,1.27218e+00,1.06150e-01,-1.37231e-01,5.82300e-01,-2.22171e-01,-3.32986e-01,1.04886e+00,-5.44996e-01,-1.41676e-01,-1.31863e-01,-1.57930e-01,-1.42318e+00,5.82745e-01,-7.65152e-01,-3.68407e+00,-3.10055e-01,-7.39932e-02,-2.50977e+00,2.38986e-01,-4.69424e-01,-4.98047e-01,6.01688e-01,1.59604e-01,1.27458e-01,-1.36181e+00,1.88365e-01,8.78054e-01,1.42482e+00,-3.41984e-01,-1.25944e+01,-4.86206e-02,-6.41142e-01,-1.15123e-01,-8.25944e-02,
-6.32926e-01,-5.53099e-01,5.31048e-02,9.12013e-01,-4.27480e-02,3.76571e-01,-7.36381e-01,4.12578e-02,6.13686e-01,1.85090e-01,4.14319e-02,-4.57038e-01,-2.52398e-01,-2.42649e-01,-5.99223e-01,-1.91789e-01,1.96385e-01,-1.77778e-01,-6.43416e-01,2.81181e-01,-1.19407e-02,2.06476e-01,1.02999e-01,1.37698e+00,1.17255e+00,-1.50569e-01,3.31090e-01,-1.64075e-01,-4.25583e-01,3.92962e-01,4.30756e-01,-4.95704e-02,7.51787e-01,4.45081e-01,7.33035e-01,-1.15522e-01,-2.11560e+00,-8.84187e-01,3.07233e-01,5.45715e-02,1.38779e+00,1.02237e+00,-6.57567e-01,-5.82641e-01,-2.93334e-01,2.21584e+00,-2.50923e-01,-1.72482e-01,1.09520e+00,2.69821e-01,
6.33803e-01,-1.18863e-01,-1.80266e-01,-7.51291e-02,-6.83936e-02,8.46407e-01,-6.54914e-01,-2.33165e-01,-1.77112e+00,-3.06009e-01,3.99113e-02,2.73073e-01,9.29610e-02,1.61185e-01,-5.02081e-01,2.93263e-01,-2.81520e-01,2.51807e-01,-1.34529e-02,1.48939e-01,-2.32199e-01,-2.13541e-01,-3.23039e-01,-6.18650e-01,1.31699e+00,-5.32365e-01,1.33446e-01,4.41067e-01,-2.16053e-01,-3.53493e-01,8.28900e-01,7.11186e-01,-1.22238e-01,9.44807e-02,4.40060e-01,1.56266e-01,-9.52368e-03,-2.41569e-01,-7.93392e-01,3.36653e-01,-1.47300e+00,2.89008e-01,1.45921e-01,9.04305e-02,1.17728e-01,-1.36139e+00,3.52249e-01,1.56520e-01,-1.88697e-01,6.86860e-01,
-6.81433e-01,7.89486e-01,9.63274e-01,1.12284e+00,-7.62879e-02,3.70766e-01,-1.05851e+00,-9.54293e-02,3.44509e-02,-3.12018e-01,7.94850e-03,-1.04815e+00,4.16351e-01,-9.12806e-01,2.04158e-01,5.61454e-03,-1.86463e-02,-5.33061e-01,4.61762e-01,1.56345e+00,2.37089e-01,-4.75738e-01,-3.94893e-01,-5.53521e-02,1.64595e+00,-2.03742e+00,-1.51464e-01,-1.46481e+00,-1.85432e-01,9.91992e-02,6.06724e-01,-2.41491e-02,7.89094e-01,6.34529e-01,3.53909e-01,7.38408e-02,-2.08501e-01,-1.53833e-01,4.76101e-01,-1.80954e-01,-1.28525e-01,-4.32514e-01,-6.41802e-01,-2.50643e-01,-3.18143e-01,1.91023e+00,-5.31619e-02,-2.42623e+00,-6.61078e-01,1.43663e-01,
1.24524e-01,6.18643e-03,-1.57599e-01,9.05668e-02,9.48583e-03,-8.99881e-03,-9.54233e-02,1.52793e-01,1.40412e-02,1.34432e+00,1.61928e-02,-9.08993e-03,7.69682e-02,1.00099e-02,6.76993e-02,1.08912e+00,6.21868e-01,-1.13239e-01,-4.52523e-02,3.04069e+00,2.18505e-01,6.87597e-02,-9.53864e-02,-3.36957e-04,-5.21165e-02,3.57227e-01,-8.14087e-02,1.19926e-01,-5.62883e-02,-1.52376e-01,-4.35067e-02,3.71961e-01,1.06556e-01,-7.20471e-02,2.08372e-01,-1.78222e-01,8.30207e-02,1.19181e-01,1.62554e+00,-6.45677e-02,-4.27740e-02,-6.49998e-02,1.41531e-01,1.36849e-01,5.75266e-03,3.15783e-01,7.62593e+00,5.74124e-02,1.05480e-01,-1.61891e+00,
-2.48554e-01,-3.18674e-01,-3.36102e-01,1.03117e-01,6.96420e-01,2.36296e+00,-9.85588e-01,2.33534e-02,-2.99608e-01,3.86185e-01,4.53870e-02,-7.02732e-01,-2.13222e-01,-1.20860e+00,-4.08758e-01,4.52136e-01,-7.66637e-01,-3.55453e-01,1.93319e-01,-5.87342e-01,-1.13546e-02,-1.20140e-02,1.23094e+00,-2.43589e-01,1.06949e+00,8.99842e-01,4.86246e-01,1.39990e-01,4.31873e-02,-5.61004e-01,6.93150e-02,2.68709e-01,9.90346e-01,-1.75433e-01,-4.81106e-01,-3.02963e-01,-1.71499e+00,-8.08544e-02,9.26458e-03,-2.83930e-01,-7.50885e-01,9.28239e-01,-2.49651e-01,-4.94657e-01,-2.01810e-01,-3.79700e-01,1.45582e-01,2.87498e-01,6.31685e-01,3.73405e-01,
-5.71530e-01,1.96623e-01,-9.74823e-01,-4.28271e-02,-1.00016e-01,-6.53826e-01,-2.01384e-01,6.07165e-01,-6.44240e-01,3.60695e-01,3.38578e-02,4.29754e-01,9.70090e-02,4.69903e-01,-7.07820e-01,-2.73509e-01,-4.88722e-01,4.59300e-01,3.29368e-01,-5.77997e-02,1.41096e+00,5.64350e-01,5.99429e-01,4.35289e-01,-1.21699e-01,-9.36807e-01,2.10024e-02,-5.50901e-01,-4.25857e-01,3.46265e-01,-4.86021e+00,3.15087e-01,-5.43239e-01,-4.06896e+00,-7.14750e-01,-2.12495e+00,-2.01992e-01,-5.36133e-01,-1.60455e-01,7.91507e-01,1.01736e-01,1.79909e-01,8.59235e-01,-7.65636e-02,1.42277e+00,-3.65106e+00,1.08931e-01,4.76909e-01,4.86280e-01,-2.33046e-01,
-9.03633e-01,2.30320e-01,6.63607e-01,-4.24643e-02,-1.34171e-01,5.02770e-01,4.08807e-01,-9.27580e-02,-1.35871e+00,1.73205e+00,2.11069e-02,-4.13807e-01,6.12944e-01,-7.19197e-02,9.56739e-01,-2.97761e-01,1.31985e-02,-2.97495e-01,-1.58139e-01,-1.09160e+00,-5.04940e-02,3.10028e-01,-8.49177e-01,7.84290e-02,8.49241e-02,2.11417e-01,-4.38268e-01,1.88830e-01,8.19377e-03,8.10156e-01,5.81482e-01,-3.44212e-01,-2.32992e-01,7.12456e-01,3.31361e-02,3.17717e-01,-9.46663e-02,-5.11239e-01,-7.97843e-01,2.84418e-01,4.08383e-01,-2.06128e-01,-1.05524e-01,1.06879e+00,-4.66132e-01,-3.62346e-01,-1.25037e-02,-7.57610e-01,1.91896e-01,-1.96452e-02,
-1.37477e-01,2.74359e-01,5.55715e-01,1.77241e-01,-7.98953e-01,9.31257e-01,-3.43288e-01,7.33816e-01,-1.35681e-01,4.96452e-01,-2.71165e-02,9.64272e-02,7.48737e-02,3.57588e-01,-1.20348e+00,-3.91110e-01,-2.13897e-01,-3.42750e-01,-2.45904e-01,-7.35964e-01,5.36389e-02,-9.15901e-01,-2.88167e-01,-9.77364e-02,4.68422e-01,3.59740e-01,-1.51353e-01,-4.83505e-02,-2.47831e-01,7.99672e-01,7.49484e-01,2.61665e-01,9.86429e-02,8.99934e-01,-2.99831e-01,7.49138e-02,1.45646e+00,9.03595e-01,-4.99496e-01,1.48583e-01,2.80908e-01,3.74181e-01,-5.85921e-01,-1.16356e+00,1.36679e-01,1.02545e+00,-6.23964e-01,-5.55090e-01,-9.76472e-01,3.94442e-01,
6.42468e-03,3.19130e-02,-8.11033e-03,-4.02717e-02,-1.90065e-02,-1.79270e-02,6.06484e-03,-4.34603e-02,-2.28821e-02,-1.70452e-02,-4.13303e-02,-5.08991e-02,-4.47133e-02,8.60840e-03,1.72714e-02,1.25796e-02,-5.54658e-03,-8.34705e-03,2.47695e-03,4.13951e-02,-3.51203e-02,-3.00061e-02,1.50249e-02,3.14804e-02,-5.13396e-02,-7.43051e-03,-1.19219e-02,-1.28370e-02,-3.16300e-02,1.86412e-02,-1.21708e-03,-1.54725e-02,2.13193e-02,3.56639e-02,3.73955e-03,-3.80697e-02,-5.80445e-03,-2.89486e-02,-1.15245e-02,-1.70109e-02,-5.10570e-03,-1.56453e-03,-3.47264e-02,4.31964e-04,-4.44724e-02,-4.96527e-02,-4.05220e-02,-8.84979e-03,-4.42098e-02,1.84808e-02,
6.97227e-01,5.23458e-01,-1.15282e+00,1.46152e+00,-4.69473e-02,-8.11205e-01,-7.47566e-01,-4.63662e-01,4.67783e-01,1.72218e+00,4.65750e-02,-8.28170e-01,1.84989e-01,-9.21012e-02,6.34352e-01,2.34725e-01,3.00507e-01,-8.96621e-01,-2.94453e-01,1.83571e+00,1.15594e+00,-2.07308e-01,4.40806e-01,6.29859e-01,5.53916e-01,1.20993e+00,6.39006e-01,-8.12187e-01,-4.43584e-01,1.24978e-01,8.35908e-01,9.17278e-02,4.80384e-01,4.84806e-01,1.08806e-01,6.06161e-02,1.04498e+00,5.23598e-01,-1.49729e+00,-1.20876e-01,-4.99363e-01,-1.00554e+00,4.13579e-01,-7.39175e-01,4.31400e-01,3.86126e-01,-7.17283e-01,4.20873e-01,-8.72133e-01,2.53173e-02,
-5.78085e-01,
9.88003e-02,
-5.21733e-01,
-6.77440e-01,
-1.56640e-02,
1.11964e+00,
3.18241e-01,
5.23379e-01,
3.43233e-01,
1.44550e+00,
2.44362e-02,
-8.38797e-01,
-5.46769e-03,
2.12249e-01,
-5.32881e-01,
-6.93035e-02,
-1.10068e+00,
-1.01368e+00,
-1.95641e-01,
7.95465e-02,
6.64528e-01,
-3.43538e-01,
-1.46450e-02,
6.23264e-01,
6.83725e-01,
-1.95709e-02,
-9.86391e-02,
4.42062e-01,
-2.53741e-01,
4.42378e-01,
-1.13131e-01,
-5.18155e-01,
-2.37069e-02,
2.07740e-01,
-6.98842e-01,
1.21782e-01,
-9.77743e-01,
-1.00943e+00,
-6.92021e-01,
9.66655e-01,
-9.46939e-01,
2.07312e-01,
-1.00554e-01,
-2.71943e-01,
5.74715e-01,
-4.81668e-01,
4.29176e-02,
4.83873e-01,
-2.65281e-02,
-2.95138e-01,
-7.43275e-02,1.63160e-01,3.26876e-01,5.95008e-02,-1.23918e-02,1.99394e-01,-8.48214e-01,-2.66163e-01,2.28782e-01,-8.32993e-03,-2.86561e-01,-1.29027e-01,-8.56965e-02,-6.96651e-02,2.24793e-01,9.86852e-02,-6.28337e-02,-6.80977e-03,-1.01513e-01,3.62148e-01,8.25116e-02,-4.10163e-02,-4.49176e-02,-3.08042e-01,2.94816e-01,-3.56348e-02,-2.01891e-01,1.22009e-01,2.53688e-01,4.71382e-01,3.64627e-01,2.30681e-01,3.46512e-02,2.05132e-01,-1.59247e-01,-9.46338e-02,9.20849e-02,-5.78433e-01,4.65642e-01,1.06712e+00,-9.05836e-02,-7.55983e-01,1.17102e-02,2.97874e-01,4.11188e-01,-1.51686e-01,-2.90806e-01,-1.45259e-01,-3.11129e-02,-5.45866e-01,
5.67329e-01,-5.75839e-01,-7.94603e-02,4.41146e-01,-3.93451e-02,-4.03105e-01,3.43377e-01,-5.61998e-01,5.02026e-01,-2.15664e-01,-9.79453e-02,-2.34079e-01,-1.61396e-01,-3.52435e-01,2.37961e-01,-3.82051e-04,-3.75219e-01,5.97753e-02,5.29773e-01,4.49500e-01,-2.31044e-01,9.65029e-01,9.86580e-04,-3.33121e-01,8.04215e-01,3.91637e-02,-3.36815e-01,4.23553e-01,-1.11224e+00,2.88829e-01,4.78110e-01,-1.55424e-01,-3.98983e-02,1.86804e-01,9.47136e-02,4.60624e-01,3.26105e-01,5.26117e-01,-1.49427e-02,-3.32457e-01,-4.99065e-01,-1.51529e-01,-5.65474e-02,3.87201e-01,1.49063e-01,-1.09910e-01,-1.09854e-01,-6.93509e-02,-2.39006e-02,-1.26240e-01,
1.75497e-02,2.54779e-02,-7.95085e-02,2.16026e-02,-4.56265e-02,-1.73799e-02,-1.58370e-02,8.85273e-05,1.02815e-02,2.86258e-03,-2.56459e-03,2.35391e-02,-4.18620e-03,-5.20496e-02,7.36104e-03,-5.52976e-03,-4.77863e-02,-2.40150e-02,-3.54302e-03,1.35419e-02,-2.26618e-02,6.59555e-03,-3.81305e-02,-4.60196e-02,-5.80056e-02,-3.99690e-02,-3.64391e-02,1.13584e-02,6.73378e-03,-6.37503e-02,-1.16733e-02,-7.78812e-04,-5.49400e-02,-8.34440e-04,2.59890e-02,8.79196e-03,-6.59122e-02,-4.46330e-02,-4.64282e-02,2.29185e-02,-4.01843e-02,-2.95154e-02,3.28590e-02,1.16416e-02,3.74062e-03,-5.55470e-02,1.09520e-02,-3.87522e-02,-4.35775e-02,-6.46100e-02,
1.12029e+00,-5.97462e-01,-1.04745e-01,9.72227e-01,-1.82689e-02,-6.41000e-01,8.21492e-02,-4.22708e-01,-7.34100e-02,-9.00701e-02,-3.00741e-01,-1.30247e+00,-2.28366e-01,1.43817e+00,2.42761e-01,1.13756e-01,-1.89708e-01,5.57213e-01,6.68817e-03,1.79426e-01,1.11962e-01,4.58217e-02,3.43240e-02,-9.74242e-01,4.72157e-01,-3.05801e-02,5.21198e-03,7.24717e-01,1.95610e-01,6.75766e-01,-4.17269e-01,-9.48463e-01,-1.48628e-03,9.55706e-01,6.60397e-01,2.69317e-02,5.88126e-02,1.16125e-01,5.55317e-01,-2.98360e-01,-7.28736e-01,8.31296e-01,-1.39912e-01,1.30218e-01,2.68561e-01,1.13039e-01,-4.82304e-01,1.61037e-01,2.18181e-02,3.10319e-01,
-2.58868e+00,-2.13620e-01,2.63878e-01,-1.76360e-01,1.99123e-02,2.90071e-01,-3.02019e-01,6.30985e-02,2.46427e-01,1.51163e-01,-1.51515e-01,-5.31659e-01,1.87366e-01,2.74498e-01,6.96691e-01,1.05922e-01,1.43172e-01,-1.61970e-01,1.32148e-01,-2.78383e-01,-4.38834e-02,7.43106e-01,2.97550e-02,4.47102e-02,3.29294e-01,4.58244e-02,1.28687e+00,6.66537e-02,1.22263e+00,-9.20729e-01,-1.57853e-01,-1.83018e-01,6.42303e-04,-1.26991e+00,5.53964e-02,-7.15636e-02,-1.36310e-01,5.32975e-01,9.71395e-02,-9.37152e-01,4.65942e-01,-2.12693e-01,-4.89075e-01,5.02054e-01,-1.67148e-01,-3.33782e+00,2.45161e-01,-1.58196e-01,7.14268e-03,2.49752e-01,
-8.41445e-01,7.17076e-01,-1.04046e+00,3.38080e-01,-4.55444e-02,-1.74478e+00,1.57548e+00,-2.42706e-01,-7.38552e-01,-1.46848e+00,-2.07801e-01,2.37660e-02,-1.25534e+00,-8.96791e-02,1.93366e-02,-1.92065e-02,1.27179e+00,4.44435e-01,-1.06637e-01,-7.13451e-01,-1.69011e-01,-1.71851e-01,1.55500e-02,2.15805e-01,3.49749e-01,-5.26330e-03,-4.67985e-01,1.37776e+00,-2.64302e-01,-1.99183e-02,2.68901e-01,1.36012e+00,-7.03408e-03,-1.58372e-01,6.22333e-01,3.52728e-01,-7.31899e-01,1.95195e+00,1.18299e+00,4.62778e-01,7.22332e-01,5.72067e-01,-2.35610e+00,1.28723e-01,1.48662e+00,-8.65924e-02,-7.15443e-02,6.37050e-01,3.72256e-02,-6.07263e-01,
-9.63215e-01,3.93837e-01,1.39503e-01,1.88863e-01,-1.72891e-02,-8.08388e-01,-4.79732e-01,2.09242e-01,4.27937e-01,2.36933e-01,-8.10294e-01,-3.91468e-01,6.93006e-02,-2.35016e-01,-3.51742e-01,-4.56090e-02,-1.92656e-01,-7.62063e-01,-7.52733e-02,-1.52621e-01,2.06055e-01,9.48135e-02,2.08090e-02,-9.22863e-02,-1.46843e-01,4.10724e-03,4.02082e-01,-1.57355e-01,-1.54507e+00,-2.98132e-01,5.96818e-01,-5.41274e-01,-3.43023e-03,6.03645e-01,-6.06377e-01,-9.78838e-01,5.47888e-01,-1.51122e+00,-1.66517e-01,-2.98780e-01,4.23599e-02,1.84563e-01,5.82845e-01,3.41676e-01,-2.87500e-01,-1.22153e+00,-2.81454e-01,3.38762e-01,-2.05477e-02,-1.71825e-01,
5.17073e-03,-5.33123e-02,1.62645e-02,1.09605e-01,-1.01792e-02,-1.05530e-01,2.88975e-02,-1.33876e-01,-2.41444e-02,4.93244e-02,4.11662e-02,-6.58020e-02,4.99325e-02,-2.71584e-01,5.27195e-02,5.39037e-02,-4.64892e-02,3.02484e-02,-7.32733e-02,-1.33096e-02,-2.12332e-01,3.94327e-02,4.14391e-02,-7.39317e-02,-1.41997e-03,1.47596e-02,2.12072e-02,1.46988e-02,5.21999e-02,-1.54952e-03,1.02052e-01,-8.34850e-02,-2.75170e-02,6.31936e-02,-8.97558e-02,1.94293e-02,2.06794e-02,4.32278e-02,-2.60472e-02,1.42124e-02,-6.31772e-02,-2.26695e-02,-1.64116e-02,-3.06979e-02,5.76532e-02,5.60867e-02,-1.95720e-01,3.99625e-02,2.20595e-02,8.58723e-03,
1.09071e+00,-1.55483e+00,1.27111e+00,-4.31797e-01,-5.08820e-02,4.82094e-01,-5.86126e-01,1.44748e+00,1.63092e+00,-1.00113e+00,6.88115e-02,8.04867e-02,-8.97910e-01,-7.69470e-01,-2.83926e-01,-1.62165e-02,-9.18160e-01,-1.08617e+00,4.43882e-01,-5.55818e-01,1.91991e-01,-4.58744e-01,4.57171e-02,4.44513e-01,-1.24904e+00,2.40280e-02,1.70396e-01,-7.31705e-01,6.33490e-01,1.16296e+00,2.45693e-01,7.57044e-01,7.89667e-03,-1.05868e+00,-1.12607e+00,-7.13611e-02,7.19783e-01,-4.88393e-01,-3.87441e+00,-2.98266e-02,-8.18760e-01,-3.51679e-01,5.05358e-02,-2.22316e-01,-4.02895e-01,4.67926e-02,-1.71629e+00,-9.58896e-02,-1.97497e-03,-7.55470e-01,
-2.27656e-01,5.78288e-02,-3.06115e-03,1.52209e-01,-6.73937e-04,-1.63553e-01,-3.11782e-01,3.69695e-02,-2.74957e-01,-1.25306e-02,2.80400e-01,-5.81648e-02,1.14619e-01,1.53682e-01,-2.90745e-01,-3.81578e-03,-1.86305e-01,2.69255e-02,-3.82197e-02,-1.40268e-01,-8.68343e-02,4.20978e-02,-3.54187e-02,1.95096e-02,1.99323e-02,3.88821e-03,1.23762e-01,1.05787e-01,-1.66256e-01,1.56968e-01,6.09201e-02,3.99546e-02,-5.94253e-03,-1.97239e-02,-1.63709e+00,2.08341e-02,4.47761e-01,-2.55822e-01,2.46526e-01,6.63842e-02,-5.56926e-02,-2.44058e-02,-2.76711e-01,-5.26701e-02,-4.59387e-02,-3.40767e-02,-3.42532e-03,-1.66566e-01,3.84378e-02,6.15197e-02,
-1.01122e+00,-2.29161e-01,2.15191e-01,1.33332e-01,-1.28410e-02,-7.88877e-01,1.04908e+00,2.91875e-02,-1.86736e-01,-2.08262e-01,-3.06025e-01,1.58097e+00,-1.00681e-01,-1.65365e-01,-9.28848e-02,4.58678e-02,3.09441e-01,-1.39847e-01,-2.90827e-01,4.86733e-01,2.20872e-02,1.09848e-01,-3.26417e-02,4.40843e-02,-1.58151e-01,1.56929e-02,5.24193e-02,5.84958e-01,9.44265e-04,-6.16114e-01,1.04606e-02,-8.27647e-02,-3.15223e-03,5.92541e-01,-2.22884e-01,-1.52788e-01,2.24497e-02,-3.37712e-01,3.07405e-01,-2.20025e-01,-3.37132e-01,3.43082e-01,3.76877e-01,1.99015e-01,9.06919e-02,-3.16328e-01,-4.43457e-01,-2.08642e-01,-2.07022e-02,-1.19012e-01,
3.86125e-01,2.49820e-01,1.76375e-01,-9.33900e-01,-1.92816e-04,2.50683e-01,7.90425e-01,-1.58619e-01,2.32000e-01,3.49448e-01,3.05712e-01,-1.15601e-01,2.38205e-01,8.36456e-01,1.41432e+00,-4.29592e-02,-9.80278e-01,8.60572e-01,7.54274e-01,1.88427e-01,-1.52320e+00,1.44298e+00,-1.54468e-02,-3.68064e-01,6.00004e-01,8.63919e-03,-6.86941e+00,-2.00453e-01,-3.46201e-01,-1.30953e+00,6.56607e-01,2.60549e-01,-5.18382e-03,1.13368e+00,6.42893e-01,-2.20068e+00,-1.21511e+00,-9.11208e+00,-8.17410e-01,1.77501e+00,9.49764e-01,3.94235e-01,-1.15058e+00,-7.12671e-01,4.00048e-03,1.01255e-01,2.72720e-01,-4.75531e-01,3.10663e-02,-1.46330e-01,
-2.91451e-01,6.69901e-01,-2.57636e-01,-1.28539e+00,1.33774e-02,8.12955e-01,-1.09446e-01,-1.89513e-01,-1.27454e+00,-5.28550e-02,-1.17069e-01,-1.39760e-01,3.30529e-01,6.30064e-01,-1.20660e+00,1.62698e-02,1.51530e-02,-5.41685e-02,3.26374e-01,3.13854e-01,2.96488e-02,-2.99559e-01,-2.25647e-02,-4.36885e-01,4.81849e-01,-1.39049e-03,4.37107e-01,1.29973e-02,3.41812e-02,-4.59525e-01,-5.72982e-02,-2.04576e+00,-3.31834e-02,1.20489e+00,-7.54194e-01,4.75708e-01,-1.26774e+00,4.49281e-02,2.54802e-01,-3.60863e-01,-4.90093e-01,3.09960e-01,1.12592e+00,-1.61521e-02,7.77721e-01,2.93752e-01,2.30479e-01,-2.99602e-01,3.23651e-02,-1.63730e-01,
-1.14645e+00,-7.02632e-01,-2.28617e-01,-1.15993e+00,-4.58259e-02,8.31553e-01,-1.84328e-01,1.28915e+00,-7.37840e-01,6.99825e-01,1.05308e-01,-4.70617e-02,-9.95734e-01,-6.80795e-01,2.03061e-01,3.14918e-01,-9.67695e-02,1.84983e-01,-9.32103e-02,1.67315e-01,7.08817e-02,4.98095e-01,-2.52093e-02,2.35769e-01,-2.60894e-01,2.57719e-02,-3.65687e-01,-3.02390e-01,-6.21647e-01,-1.17570e+00,-7.04247e-02,-1.11946e-01,-2.98990e-02,-2.79741e-01,2.08394e-01,-7.48278e-01,1.71643e-03,-9.00034e-02,-3.07266e-01,-1.05378e+00,3.06919e+00,-1.53278e-01,3.65510e-01,-1.93667e-02,-8.98284e-01,5.12305e-01,-8.41857e-02,1.27529e-01,-1.25365e-02,8.80538e-02,
-2.59263e-02,3.28930e-01,-1.07234e-01,4.69333e-01,-1.21576e-02,8.68594e-01,-6.93550e-01,1.00890e+00,-4.42331e-01,1.46625e-01,-1.13958e-01,1.90207e+00,4.07952e-01,-1.80307e-01,-2.14538e-01,7.05322e-02,-1.34370e-01,2.60724e-01,-3.09295e-01,-9.47025e-02,1.15898e-01,-1.94300e-01,2.81895e-02,2.36689e-01,-9.37714e-01,-3.73928e-02,4.08752e-01,7.25462e-02,-1.13804e+00,-2.32465e-01,-7.63908e-01,5.20180e-01,4.69180e-02,-1.42218e-01,5.22106e-02,5.93509e-01,-8.43113e-01,3.53893e-02,-1.62379e-01,-4.10847e-01,9.37203e-01,-1.17296e+00,-1.56805e-01,2.54025e-01,-6.33862e-02,1.74304e-01,9.08566e-02,2.36040e-01,2.05726e-02,1.29655e-01,
-1.23959e+00,7.10168e-01,-3.86513e-01,-1.19788e+00,3.45573e-02,-2.77118e-01,2.22749e-01,3.15903e-01,1.05855e-01,3.98077e-01,-6.12009e-01,7.51025e-02,-1.63746e+00,-1.64033e-01,-1.18372e-01,5.29405e-02,-4.27164e-01,4.44726e-01,5.95343e-01,1.42221e-02,-4.75639e-01,2.13262e-01,3.85846e-02,-3.39448e-01,-1.88830e-01,-1.47223e-02,1.23052e+00,-1.22209e-01,1.45450e-01,-4.33666e-01,-2.48309e-01,-1.91390e-01,2.53109e-02,6.94384e-02,2.44736e-01,9.10996e-02,-2.56099e-01,8.91167e-01,-1.70967e+00,5.41222e-02,7.16097e-01,1.07233e+00,-2.01167e+01,-4.45029e-01,-4.03293e-01,-1.03443e-01,1.06423e+00,4.98918e-01,-2.16531e-02,-8.46907e-01,
-5.02296e-02,-1.14044e-01,2.24589e-02,-1.41344e-01,-4.11490e-02,4.71220e-02,3.07095e-01,3.57215e-03,2.82027e-02,6.55489e-02,-4.70279e-02,4.58721e+00,-8.32631e-02,2.85376e-01,-1.70771e-02,3.84592e-02,1.69929e-01,-4.83165e-01,-9.11267e-01,-1.39595e-01,-1.63440e-01,-3.99971e-01,-2.90653e-02,-1.93289e-01,-4.70786e-01,1.48368e-02,-1.67338e-01,2.48223e-01,-3.41516e-02,-1.49412e-01,-9.26671e-03,-5.91840e-02,-1.09263e-02,-3.18570e-01,1.25196e-01,7.56027e-02,-1.41846e-01,1.53475e-01,7.08694e-02,-1.79535e-01,1.94361e-01,-6.22368e-02,-1.10774e-01,-4.33042e+00,-1.28826e-02,6.25245e-03,2.52729e-01,3.69020e-02,-2.26171e-03,1.54350e-01,
5.93661e-02,3.24610e-01,1.30799e+00,6.69733e-02,-1.95629e-02,1.09046e+00,1.93213e+00,-6.74681e-03,-3.12188e-01,-2.80957e-03,-7.69352e-01,-3.06679e-02,9.25456e-01,3.60546e-01,-2.47005e-01,3.08200e-03,-6.15280e-01,1.03938e-01,5.90766e-01,-6.46507e-01,-2.88154e-01,7.02204e-01,-4.04674e-02,-9.13734e-03,4.25816e-01,-1.77745e-02,4.95738e-01,4.49508e-01,1.96103e+00,-6.97212e-01,2.90617e-01,5.27349e-01,-3.93190e-02,2.50564e+00,9.58036e-01,1.47511e-01,2.50607e+00,1.35055e+00,-4.82003e+00,4.22318e-01,-8.80444e-02,2.05386e+00,1.35510e-02,-3.67968e-01,-2.00737e+00,-3.25290e-01,-1.32768e+00,-3.47603e-02,9.41255e-03,5.87209e-01,
9.99162e-01,-6.21560e-01,9.11883e-02,9.84848e-02,4.83015e-02,-7.85591e-01,9.85055e-01,3.74755e-01,-3.40097e-01,-2.15534e-01,-1.48928e+00,-2.36125e-01,7.40040e-01,-6.17082e-01,6.28931e-01,4.87575e-02,3.00421e-01,-1.67998e+00,4.62680e-01,-1.50664e-01,1.20054e-01,6.50051e-01,1.20573e-02,5.54766e-02,4.42268e-01,2.66536e-02,-4.67555e+00,2.57090e-01,8.51141e-01,-1.02390e+00,-1.61908e-01,-2.54781e-01,-2.07153e-02,5.87697e-01,-3.16766e-01,-4.80336e-01,2.79335e-01,-7.94359e-01,1.41058e-01,-6.41315e-01,-3.38283e-01,4.75835e-01,5.55491e-01,3.17140e-02,2.92143e-01,1.54841e-01,-1.03388e+00,8.54427e-02,-3.36436e-02,-1.76657e-01,
-8.45294e-02,-9.74941e-02,-1.14513e-01,-4.95684e-01,-3.34800e-02,2.86832e-01,-3.81247e-01,-7.62861e-02,7.04815e-02,-9.59976e-02,1.40954e+00,-2.35942e-01,-2.98199e-02,7.62960e-01,-3.52378e-01,-2.70031e-03,6.05793e-01,-7.04901e-01,-4.86725e-01,-1.56160e-01,1.41101e-01,-2.43952e-01,-7.57184e-03,5.83737e-01,-2.46673e-01,4.27113e-02,-2.25324e-01,-4.64894e-01,-1.40922e+00,5.59994e-01,-5.16164e-01,2.27010e-01,4.12129e-02,-1.57001e-01,4.73240e-02,9.28746e-01,-5.70725e-01,8.08110e-01,-4.03491e-01,1.86554e-01,4.03266e-01,-3.15319e-01,-4.78806e-02,7.51744e-01,-4.69786e-01,-4.98947e-01,-4.47593e-01,4.01953e-02,-3.78114e-02,1.15266e-01,
5.66237e-01,-2.36595e-01,-1.34660e+00,7.03845e-01,4.24438e-02,-4.79394e-01,3.42942e-01,-3.43581e-01,-3.83243e-01,-3.36864e-01,-6.56138e-01,2.68879e-01,3.01290e-01,2.59384e-01,-3.01152e-01,8.75880e-02,6.28772e-01,3.20730e-01,3.53744e-01,-3.83828e-01,-1.35411e-01,3.90509e-01,3.12128e-03,2.92173e-01,1.22383e+00,-3.16683e-02,-1.03643e+00,-2.63195e-01,-4.65741e-02,-2.56380e-01,1.86819e-03,-1.11535e+00,9.80442e-03,-3.15678e-02,3.04708e-01,2.86672e-01,-3.08753e-01,1.78264e-01,-4.08648e-01,5.76226e-01,-7.37866e-01,5.40567e-01,-1.21062e+00,-3.28252e-01,4.68503e-01,-4.97015e-01,1.20495e-01,-6.78221e-02,4.70127e-02,7.73935e-02,
2.22542e-02,-3.85986e-02,-2.14307e-02,3.55226e-03,-2.36719e-02,9.09412e-03,4.01285e-02,-4.59908e-02,-5.27626e-02,-2.06583e-02,1.44672e-03,1.48570e-03,3.03282e-03,-5.57023e-03,8.76358e-03,-1.27241e-02,-3.80384e-02,-3.65597e-02,-3.24154e-02,2.90588e-02,-3.46655e-03,-7.95334e-03,-3.03169e-02,-6.44779e-03,-4.78789e-02,2.68761e-03,-4.29850e-02,1.44530e-03,-4.52083e-02,-1.18965e-02,5.60855e-03,-4.26200e-02,-3.76949e-02,2.12019e-03,-2.74882e-02,2.31038e-02,-3.01341e-02,1.05711e-02,-3.76888e-02,3.17631e-02,-4.58155e-03,1.91176e-02,-2.85450e-02,-4.07478e-02,-5.35923e-03,2.73491e-02,-2.19177e-02,-1.86468e-02,1.42586e-02,-3.94847e-02,
-5.61173e-01,4.36629e-01,-1.36594e-01,-6.25285e-01,-4.63247e-02,-1.53323e-01,4.36806e-01,3.63901e-01,2.17494e-01,-6.80154e-01,4.33579e-01,8.43610e-02,-3.11146e-01,-5.25795e-01,-2.42329e-01,7.12371e-02,-2.62450e-01,9.09995e-01,3.09307e-01,2.00829e-01,-1.76220e-01,1.63523e-01,3.45420e-02,6.71266e-01,9.43359e-01,-2.25659e-02,2.08131e-01,2.94915e-02,1.33816e-01,1.82246e-01,3.10526e-01,9.13095e-01,-3.74133e-02,-1.91424e-01,3.12549e-01,-6.51692e-02,-5.07712e-01,1.21307e+00,-9.91586e-02,-6.24671e-01,7.88705e-01,6.09513e-01,-8.85009e-01,2.43975e-01,8.50271e-02,-7.93874e-01,6.26979e-01,-2.49693e-01,-3.67163e-02,6.76600e-01,
4.65440e-01,6.16938e-03,1.30040e-01,-6.12426e-01,2.69880e-02,-2.56036e-02,4.32447e-01,1.10205e-01,-7.72726e-01,6.50520e-01,-7.22260e-02,-1.18188e-01,-5.34127e-01,2.54425e-01,2.03030e-01,3.22912e-02,-6.19170e-01,5.49903e-01,-3.18199e-01,-1.79256e-01,-1.25572e+00,-6.70781e+00,-4.75699e-02,6.75587e-01,9.70646e-01,5.62657e-03,-1.29492e-01,6.38882e-01,1.35165e+00,3.13262e-01,-2.28125e+00,5.61073e-01,1.03924e-02,2.13567e-01,1.14730e+00,7.45771e-01,-3.11728e+00,6.22906e-01,-1.75224e+00,-5.62238e-01,-2.78898e-01,-1.06254e-01,-3.50370e-01,4.52647e-02,2.71627e-01,-8.77356e-02,2.42256e-01,-6.14576e-01,4.41925e-02,-5.51026e-01,
-1.85104e+00,-4.44698e+00,-6.26458e-01,8.25361e-01,3.62837e-02,8.67976e-01,6.83941e-01,7.13778e-01,2.54508e-01,-8.87654e-01,-6.96004e+00,2.57933e-01,-8.51149e-01,5.82225e-01,-1.16840e+00,3.51783e-03,1.11651e+00,2.38199e-02,-1.41232e+00,-4.04492e-02,-5.93068e-01,8.63911e-01,-3.44588e-02,1.07624e+00,1.82608e+00,1.59402e-02,1.24993e-01,1.27456e-02,6.24874e-02,-9.20766e-01,4.88763e-01,8.14388e-01,-4.68450e-02,1.76344e-01,2.25139e-01,-5.55855e-01,-1.37606e+00,-7.52427e+00,9.23640e-01,1.92773e-01,-1.27049e+00,-8.47933e-01,-9.50142e-01,6.39478e-02,9.91691e-01,1.52832e+00,8.57357e-01,-1.23534e-01,-8.72360e-03,-2.42620e-01,
1.93476e+00,2.24287e+00,7.10347e-01,-5.73484e-01,9.79609e-03,-2.07234e+00,-2.03234e+00,-1.00222e+00,4.31757e-01,1.44967e+00,-6.96584e-01,1.61021e-02,1.58268e+00,2.94506e-01,-1.98988e-02,-4.34206e-02,-1.37500e+00,-2.38981e-01,3.22053e-01,-5.75836e-02,3.13425e-01,-2.38904e-01,-3.38219e-02,-7.28824e-06,-9.81903e-02,3.49983e-02,-2.81860e+00,-1.51681e+00,-9.00793e-01,8.81361e-01,1.19422e-01,-3.62536e+00,1.62284e-02,9.42099e-01,1.57926e-01,4.82945e-01,3.95184e-01,-2.21997e+00,-1.34379e+00,-6.77875e-02,3.47688e-01,4.65235e-01,1.52185e+00,-2.10061e-01,-1.87391e+00,-3.25101e-02,9.32573e-01,-1.28136e+00,-1.07859e-02,2.80168e-01,
-3.51198e-01,-7.45879e-02,-6.61576e-01,6.83296e-01,3.51278e-02,4.27118e-01,5.11694e-01,-7.96240e-01,2.38579e-01,-1.44535e-01,-1.69527e+00,-6.26475e-01,-4.81634e-01,1.43532e-02,-1.68330e-01,8.81251e-02,1.81867e-01,-6.92499e-02,5.89981e-01,-4.84106e-01,-2.99756e-01,2.43906e-01,-3.01021e-02,6.34953e-01,2.13420e-01,3.79602e-02,6.14259e-02,5.34166e-01,-5.40188e-02,3.46811e-01,1.65913e-02,-3.56695e-01,1.96765e-02,-1.77383e-01,-6.14616e-02,3.30948e-01,3.34247e-01,6.34569e-01,9.19879e-02,6.61916e-02,-1.14889e+00,4.81190e-01,-1.33794e-01,-3.22668e-01,4.45977e-02,5.63906e-02,8.43314e-01,3.50476e-01,1.09791e-02,-2.54347e-01,
6.64590e-01,6.12932e-01,1.75844e-01,3.85234e-02,-4.56766e-02,-6.26849e-01,-4.98706e-01,-1.95863e-01,2.10308e-01,2.28119e-01,-5.49357e-01,-2.61997e-01,3.72137e-01,1.29004e-01,-3.07733e-01,1.07213e-01,2.03296e-01,1.37961e-02,1.36200e-01,-6.64934e-02,3.10460e-01,-2.50341e-01,3.18519e-02,3.46318e-01,-1.03433e-01,1.70967e-02,-6.30818e-01,-2.55293e-01,-2.80491e-03,8.30908e-01,3.19759e-01,-1.52159e-02,1.91774e-02,6.05088e-02,-2.16588e-01,1.77271e-02,-2.72810e-01,-7.01065e-01,-2.95307e-01,-2.52704e-01,-7.64832e-01,1.03984e+00,9.58369e-01,2.21364e-01,-2.11360e-01,2.84755e-01,-4.48544e-02,-9.81212e-01,1.53516e-02,1.87604e-01,
1.70309e-01,2.05348e-01,1.49699e-01,-3.57560e-01,-5.05273e-02,2.10352e-01,9.17528e-01,1.61178e-01,-1.24137e-01,-5.18294e-01,-4.80224e-01,2.13581e-01,5.40579e-01,5.04457e-01,1.33767e-01,-9.91012e-03,-2.99624e-01,5.04040e-01,9.67411e-02,-2.14666e-01,1.78281e-01,-3.95198e-01,2.32470e-02,1.81406e-01,2.53238e-01,4.41310e-02,-4.01142e-01,-5.12590e-01,1.96120e-01,-8.08168e-02,7.41303e-02,5.14455e-01,-5.02289e-03,3.55970e-01,5.20970e-01,4.45470e-01,4.17729e-01,1.19887e+00,3.34683e-01,-1.04594e+00,9.86549e-01,3.96240e-01,-6.36196e-01,-2.56839e-01,1.47097e-01,-8.55400e-02,-3.37452e-02,-4.11879e-01,3.35944e-02,4.77434e-01,
4.34218e-02,-1.78348e-02,2.08825e-02,1.36936e-01,4.48606e-02,-1.31076e-01,-7.26047e-04,-9.63498e-02,-2.35987e-03,1.35684e-02,7.27970e-02,7.94235e-03,4.26916e-02,-2.26382e-01,4.84852e-02,8.44101e-02,-5.80431e-02,1.07899e-02,-3.17038e-02,8.50740e-03,-1.46894e-01,6.88912e-02,6.27180e-03,-8.05734e-02,1.15673e-03,-5.37237e-02,1.83763e-02,4.49807e-02,2.49811e-02,2.79746e-02,2.78159e-02,-4.64890e-02,2.68544e-02,5.76614e-02,-1.79634e-01,6.52562e-02,4.37079e-03,1.33341e-02,2.40577e-02,2.83560e-02,-1.27528e-01,5.49819e-03,-5.02573e-02,-3.60411e-03,1.74301e-02,7.54986e-02,-1.27500e-01,6.43545e-03,2.56579e-02,-1.93758e-02,
1.63339e-01,-7.81678e+00,6.40469e-01,-2.96657e-01,3.76352e-02,3.95101e-02,-5.52935e-02,1.52119e-01,8.96237e-02,9.64735e-01,-6.44517e-02,-2.93096e-02,-3.75945e+00,2.40278e-01,-5.81490e-01,-3.91278e-02,-5.60919e-01,-4.73965e-01,-1.51331e-01,3.70826e-01,-8.32636e-02,-9.41975e-02,3.25854e-02,-1.61249e-01,-2.37649e+00,-2.25282e-02,-7.19275e-01,-1.76746e+00,1.67209e-01,-1.48441e+00,-6.25817e-01,-2.75158e+00,-9.02852e-03,1.27650e+00,-1.69314e+00,-4.19224e-01,1.09177e+00,-1.97013e+00,1.07361e+00,-2.69793e-01,-1.70185e+00,-1.07622e+00,-1.16951e+00,1.17703e-01,-1.48735e+00,-3.39677e-01,-7.65100e-01,1.82688e-01,1.07223e-02,-8.44096e-01,
-3.97596e-01,-1.29716e+00,-6.16788e-01,-1.17186e-01,1.85703e-02,1.50079e+00,-1.49972e+00,3.24371e-01,5.09933e-01,-1.47542e-01,-1.10256e+00,7.91787e-02,-3.23359e-01,-1.74945e-01,6.78565e-01,2.45649e-02,-1.52768e+00,1.35664e-02,-1.62509e+00,7.29613e-01,6.95546e-01,2.56889e-01,4.50680e-02,7.04456e-02,-4.90855e-01,-1.31917e-02,3.68547e+00,-8.26592e-01,-4.08832e-01,-9.44008e-01,-4.65548e-01,-1.65154e+00,-4.12174e-02,-1.00260e+00,-6.28617e-01,-1.26722e+00,-2.17859e+00,-2.98912e+00,-1.52981e+00,8.83653e-01,-2.98053e+00,-2.44075e+00,7.58935e-01,-7.83781e-01,1.16612e+00,-1.42882e-01,-3.45619e-01,-4.29015e-01,1.04469e-02,3.41790e-01,
-5.55680e+00,-3.32559e-02,2.61408e-01,9.92880e-02,3.20801e-02,2.75331e-01,6.51095e-02,-4.70410e-01,-1.06910e-01,2.25435e-01,6.03651e-01,4.02948e-01,4.62790e-01,-1.30605e-01,7.49103e-01,3.92310e-02,1.19149e-01,-3.99936e-01,-4.17456e-01,-1.69543e-01,4.44523e-01,7.18851e-01,-2.70214e-02,3.13150e-01,-5.67492e-01,-4.88691e-02,3.36935e-01,-1.17265e-01,2.70059e-01,-8.47914e-01,-8.14791e-02,3.26611e-01,1.66412e-02,1.33331e+00,-3.86473e-01,-1.29122e-01,-1.08676e+00,-3.33676e+00,6.24312e-01,7.62809e-01,1.15425e+00,-1.28078e-01,2.00475e-01,2.10668e-01,-5.12234e-01,-2.91726e-02,5.60266e-02,1.78235e-01,-2.11709e-02,-4.69121e-01,
-6.86185e-01,-8.22725e-01,-8.28321e-02,8.56870e-01,-3.05657e-02,-1.18869e-01,-9.61211e-02,-1.92878e-01,-4.10417e-01,8.83799e-02,1.06052e+00,-3.74549e-01,1.68554e-01,-5.89633e-01,-5.43651e-01,6.55681e-02,7.88696e-01,8.41746e-02,5.30860e-02,-3.55398e-01,5.96815e-02,2.03722e-01,1.34325e-02,-9.96290e-02,-6.91925e-01,-7.09509e-03,-7.83243e-01,4.70969e-01,-5.64216e-01,1.30637e-01,3.21873e-01,-1.78523e+00,-3.17255e-02,3.34563e-01,-6.63818e-02,-8.65410e-02,1.83472e-01,9.44431e-01,4.70943e-01,-9.43793e-01,-2.23391e+00,9.24027e-01,-8.81073e-01,2.59962e-01,8.77002e-01,2.42820e-01,4.47094e-01,-1.45441e-03,-3.62010e-02,-3.53672e-01,
1.01865e+00,-4.23491e-01,1.12133e-01,5.34336e-01,2.38593e-02,4.81804e-01,-6.10174e-02,2.14899e-01,5.19586e-01,-2.41465e-01,-2.92498e-01,1.09421e-02,7.31178e-02,-2.08150e-01,-6.06815e-01,-1.10467e-02,3.12243e-02,1.04517e+00,7.35705e-02,3.05029e-01,-1.44489e-01,-3.72570e-01,-2.64027e-02,-8.28287e-01,2.39249e-01,3.92233e-02,1.63761e-01,2.20139e-01,-8.60598e-01,6.03162e-01,-4.59289e-01,-1.65783e-01,8.99762e-03,-9.15139e-01,-2.39521e-01,-1.73368e-01,1.20693e-01,-1.83120e-02,2.66992e-01,-3.54929e-01,-5.01110e-01,9.02172e-02,-1.12003e-02,3.31931e-01,2.85601e-01,-1.09760e-01,-6.70519e-02,-1.46895e-01,2.38465e-02,1.32556e-01,
9.37572e-01,6.30046e-01,-3.94813e-01,-2.34320e-01,3.85200e-04,-1.85244e-01,1.12888e+00,7.02475e-01,3.68780e-01,-4.20646e-02,-9.39740e-01,-3.38602e-01,-2.07332e-02,4.68213e-01,-1.75081e-01,-6.37886e-02,-4.72759e-01,-1.50625e-02,1.03346e+00,-7.93201e-01,-2.04215e-01,2.64316e-01,3.42414e-02,4.61790e-01,1.34048e+00,3.34623e-02,-8.67403e-01,-1.14850e-01,4.55149e-01,1.02245e-01,3.59521e-01,6.03929e-01,2.26836e-02,4.42671e-01,9.36032e-01,7.59294e-01,-8.11295e-01,1.85577e-01,-5.00695e-02,1.87017e-01,1.23628e+00,-6.74755e-01,-8.45961e-01,-8.29079e-01,-2.46958e-01,-1.96314e-01,4.71376e-01,-4.93737e-01,2.08362e-02,6.10301e-01,
-8.23277e-02,-5.91465e-01,-1.48689e+00,-4.64818e-01,-8.35135e-03,-1.69625e+00,-2.16056e+00,8.32462e-01,4.22404e-01,-4.16195e-01,-2.16226e+00,-1.41663e-01,2.07996e+00,-8.50428e-01,1.27860e+00,-3.02299e-02,-1.81601e+00,8.53997e-01,2.10793e-02,6.07352e-01,1.08331e+00,-1.45516e+00,4.91259e-02,-4.14484e-01,-2.80841e-01,-1.87180e-02,2.83553e-01,6.33806e-02,-4.63866e-01,6.81800e-01,2.55796e-01,-3.95865e+00,-1.15495e-02,-7.64774e-01,1.16549e+00,-1.29435e+00,-1.46817e+00,-1.30394e-01,6.71057e-01,-1.18834e+00,-4.83297e-01,-1.17483e+00,-7.40426e-01,-2.77736e-01,1.30336e+00,8.05431e-01,1.66224e-01,-1.53439e+00,6.55649e-03,1.68679e-01,
-3.25654e+00,1.50963e-01,-4.29114e-01,-2.90106e-01,4.65421e-02,-5.16895e-01,-1.59906e+00,2.22809e-02,-1.79385e-01,-9.10437e-02,-8.97005e-03,1.26563e+00,5.84776e-01,2.98774e-01,1.00182e+00,3.02685e-02,-4.36577e-01,-7.44324e-01,-3.07459e-01,-3.97518e-01,-1.79184e-01,9.85223e-01,-4.73753e-02,8.22023e-01,-3.29976e-01,-1.52643e-02,-4.06760e-01,-2.95170e-01,-1.24501e+00,-9.69177e-01,4.57220e-01,4.56317e-01,4.96981e-02,7.32616e-01,-1.66471e-01,1.01573e-01,-3.08419e-01,-2.93589e+00,-1.51357e-01,-1.25025e+00,4.38788e-01,-1.28970e+00,-3.47964e-01,4.75059e-01,1.77772e-01,-9.33486e-02,-6.94247e-01,4.20116e-01,-2.11451e-02,-3.25598e-01,
-9.83005e-01,1.36787e-01,1.04340e-01,5.08460e-01,3.88548e-03,-1.46843e-03,1.64849e-01,2.59390e-01,-1.89711e+00,-2.61340e-02,-3.43797e-01,-1.02694e-01,-8.41416e-02,1.26966e-01,2.70294e-02,4.26518e-02,4.29694e-01,2.95769e-01,-5.78931e-01,1.80823e-01,-3.96387e-01,1.25301e-01,-3.73773e-02,-5.16369e-01,5.39768e-01,-2.29710e-04,4.17955e-01,-1.00426e-01,7.49388e-01,-6.95848e-01,6.94678e-01,-4.19243e-01,-8.15804e-03,3.84489e-01,7.51874e-01,5.08895e-02,-5.78865e-01,3.59747e-01,2.07889e-01,1.81951e-01,-8.55497e-02,1.54580e+00,3.54721e-01,2.89470e-01,-5.35635e-02,3.66321e-01,5.76987e-01,-3.12126e-01,3.18451e-02,3.31401e-02,
-8.99366e-02,-1.92793e-01,-8.45940e-03,-3.18793e+00,-1.73140e-02,-6.01482e-01,-2.47360e+00,-1.21781e+00,1.88479e-01,-8.86363e+00,-4.03416e-01,4.76368e-01,8.78490e-01,4.33258e-01,-8.41782e-01,-3.83445e-02,2.83101e-01,-7.12581e-02,-1.68098e+00,1.54348e-01,-1.18200e+00,9.54638e-01,-6.33757e-03,-2.96618e+00,-1.41712e+00,-2.59874e-02,9.83578e-01,1.13035e+00,4.99874e-03,1.94586e-01,8.10052e-03,4.93769e-02,-3.92957e-02,-1.37980e+00,-1.16019e+00,-7.07907e-04,1.70357e-01,-1.25763e+00,-3.54797e+00,1.13789e+00,-1.59293e-01,1.68793e-01,8.19998e-01,5.16559e-01,-1.10794e+00,8.87588e-02,1.54562e+00,6.24431e-01,-4.97231e-02,-6.22828e-02,
-3.08956e-01,-3.08820e-02,-1.53874e-02,-1.32156e-01,-1.16661e-02,-8.90089e-01,4.93115e-01,-4.95612e-01,2.57923e-01,-4.92070e-01,-5.28618e-02,1.40922e+00,-3.91849e-01,4.85199e-01,-2.81434e-01,1.02563e-01,-1.86000e-02,8.41098e-01,5.77990e-01,1.13426e-01,1.82906e-01,-1.00120e-01,-3.15953e-02,7.69839e-02,1.75763e-01,-7.94994e-03,-4.25227e-01,-3.96140e-01,-1.09285e+00,1.35137e-01,-1.75292e-01,-5.83666e-01,-2.55492e-02,-1.40072e-01,-4.94196e-01,-2.49725e-02,-4.99884e-02,-1.09958e-01,-1.34723e-01,2.29387e-01,-2.46199e-01,2.10840e-01,-3.64438e-01,-3.40608e-01,7.29502e-02,1.32516e+00,3.26147e-01,1.02177e-01,-3.28562e-02,-5.67436e-01,
1.92299e+00,-1.04907e-01,-1.71606e-01,-4.06970e-01,-8.55859e-03,3.20840e-01,-6.88699e-01,-4.40409e-01,-4.55040e-01,-7.11535e-02,-5.54375e-01,6.59189e-01,5.55232e-02,-3.27953e-01,8.71228e-01,7.59126e-02,7.82403e-02,6.21081e-01,-3.53591e-01,-2.31101e-01,5.72753e-02,1.34286e+00,2.27398e-02,4.44524e-01,5.67773e-01,-3.07555e-02,-2.42557e+00,-1.61235e-01,2.02862e-01,5.94436e-01,-2.70241e-01,-8.33716e-01,-5.65524e-02,-1.11361e+00,2.58579e-01,6.75191e-01,8.99636e-01,-1.34628e+00,4.69785e-02,5.95504e-01,3.35103e-01,-2.16490e-01,-1.42650e-01,1.47673e-01,1.28352e-01,-3.57984e-01,-6.57261e-01,1.07588e-01,-1.29356e-02,-1.47246e-01,
-3.41750e-01,1.21248e-01,3.08919e-02,7.33801e-01,-7.37579e-03,5.00967e-02,1.33278e-01,4.11298e-01,-6.65883e-02,2.19721e-02,6.47306e-01,-7.84511e-01,-1.47551e-01,-4.79397e-01,-5.68897e-01,2.56535e-02,1.17994e-01,1.80268e-01,-1.73617e-01,4.56368e-01,1.05792e-01,-6.59345e-01,2.41137e-02,-9.35796e-02,8.03010e-02,7.76320e-03,-4.92944e-01,2.68576e-01,-7.65652e-01,-7.58572e-01,3.54923e-01,-2.99924e-01,-4.29971e-03,2.25013e-01,-7.39911e-02,-2.58068e-01,5.22148e-01,8.84238e-02,2.81948e-01,-6.40437e-01,-2.93702e-01,-1.93954e-01,6.22498e-01,1.37807e+00,-3.31933e-02,-9.16133e-02,1.74510e-01,1.75323e-01,4.07315e-02,-1.31318e-01,
-4.17582e-01,-5.52880e-01,7.82479e-01,-1.46836e-02,3.85871e-02,5.75592e-01,2.45760e-01,2.62315e-01,1.14903e-01,-5.86729e-01,2.13878e+00,-2.96297e-01,-1.12405e+00,7.27025e-01,-2.55018e-01,7.94797e-02,1.07252e-01,-5.80154e-01,2.37367e-01,-2.49485e-02,-1.07507e-01,-3.38506e-02,2.57643e-02,2.58538e-01,3.22438e-01,-1.99145e-02,-5.67565e-01,6.35022e-01,1.18746e-01,-5.80671e-01,7.33999e-01,3.78105e-01,2.04358e-02,8.51909e-01,4.81914e-01,-5.23327e-01,-6.46561e-01,-2.01177e-01,2.61447e-01,-2.15193e-01,1.49225e-01,-4.30195e-01,-8.26906e-02,-1.25559e-01,-6.05974e-01,-2.14697e-01,3.99283e-01,2.71687e-01,-2.64135e-02,-1.93061e-01,
-9.22035e-02,2.44892e-02,3.84874e-02,1.74672e-01,-3.22272e-02,-6.36640e-02,1.16133e-01,1.21879e-01,6.82049e-02,-1.64179e-03,1.63829e-01,-1.07989e+00,-5.70225e-02,5.38414e-02,5.79483e-02,-4.00788e-02,4.27077e-02,-1.67601e-01,-1.93790e-01,3.60432e-01,2.75094e-02,7.28960e-02,2.88585e-02,1.88301e-02,-2.02725e-02,4.52645e-02,-3.19957e-01,2.66686e-01,-5.01504e-04,1.35711e-01,-1.07660e-01,-3.49068e-02,-6.64108e-02,1.16693e-01,7.40254e-02,5.47431e-02,-9.24457e-02,7.41339e-02,6.00865e-02,-1.18691e-01,3.49794e-02,1.84733e-01,-2.25540e-03,-9.75575e-01,-6.55202e-03,3.19291e-02,8.10921e-02,3.29223e-02,-8.14025e-03,1.17282e-01,
-3.14741e-01,1.71207e-01,-2.62474e-01,2.28810e-01,2.57071e-02,5.80067e-01,8.60318e-02,7.03938e-01,8.50634e-02,2.92815e-01,4.38380e-01,-1.15710e+00,4.79122e-01,1.76525e-01,-3.59864e-01,1.57154e-01,-5.51001e-01,2.96230e-01,-2.04585e-01,-6.02063e-01,2.13799e-01,7.48891e-01,3.98488e-03,3.42719e-01,-1.55325e-01,3.06056e-02,4.71297e-01,-3.09880e-01,-5.00530e-01,-9.09316e-03,1.20239e-01,7.49716e-01,-4.17047e-02,1.95501e-01,-2.14766e-01,6.53734e-01,-1.19615e-02,2.46701e-01,5.27697e-03,3.57278e-01,1.00287e-01,-1.01646e+00,-3.72669e-01,4.64198e-01,5.05119e-01,2.66817e-01,4.38199e-01,2.70807e-01,-1.31563e-03,-2.73945e-01,
8.36450e-01,-5.01247e-02,1.46901e-01,3.28484e-01,3.55602e-02,-1.08853e-01,-1.84553e-01,-2.11223e-01,-9.18534e-02,1.40726e-03,-1.06109e-01,-3.74619e-01,1.63730e-01,6.66749e-01,-2.82380e-02,6.99606e-02,2.17972e-01,-3.22640e-01,2.70081e-01,4.34542e-01,-1.35877e-01,1.08040e+00,4.32558e-02,-1.58835e-01,3.18204e-01,2.69381e-03,-5.71022e-01,-4.99713e-01,9.16314e-01,-2.25455e-01,6.04826e-01,-5.67425e-01,-3.59314e-02,6.10142e-01,-4.72606e-02,6.62968e-02,-6.12737e-02,-7.73944e-01,-5.19122e-01,-2.95078e-01,-5.71832e-01,3.34246e-01,-1.72097e-01,7.03028e-01,-3.11707e-01,4.96588e-02,-1.75260e-01,-6.62611e-02,-8.07433e-03,1.56471e-01,
4.34957e-02,6.21146e-01,5.48030e-01,-7.90575e-01,-2.76844e-02,-7.25063e-01,-4.96549e-01,-1.09762e+00,6.74674e-01,-2.38458e-02,-8.51070e-01,-6.95707e-01,1.60436e-01,-2.32211e-01,-1.55593e-01,1.19978e-02,-2.75471e-01,3.01446e-01,4.43433e-02,-4.10053e-01,-5.43120e-01,1.94100e-01,-2.94551e-02,1.01801e+00,1.43414e+00,1.93403e-02,8.70557e-01,-3.70033e-02,5.86126e-01,1.01841e-01,5.36270e-01,6.72690e-01,-3.35076e-02,-3.12728e-01,1.17708e-01,-2.26958e-01,4.24416e-01,2.91556e-01,1.89088e-01,-5.24577e-01,2.37589e-01,4.21457e-01,-9.32128e-01,-2.82096e-01,-9.29230e-02,-5.56839e-01,5.75842e-01,-2.85488e-01,-2.26119e-02,4.70997e-01,
8.67593e-01,-2.11235e-01,2.76086e-01,1.64814e+00,-2.90415e-02,-4.34655e-01,-1.55862e+00,1.34908e-01,4.09192e-01,2.32637e-01,6.86874e-01,-9.02508e-02,-1.73001e-01,-1.16469e-01,2.90195e-01,8.90631e-02,-9.07719e-01,-9.56860e-01,2.33545e-01,-8.76631e-02,2.94080e-01,-1.72058e-01,-2.46527e-02,-5.86421e-01,-1.88860e-01,-3.28684e-02,-9.47756e-01,-3.97523e-01,1.13825e+00,3.25021e-01,5.17071e-02,-1.21391e+00,4.64892e-02,1.01330e+00,-3.30454e-01,1.64344e-01,3.49290e-01,-1.98872e+00,-4.48412e-01,-3.49637e-01,-3.98338e-01,-9.52130e-01,5.20292e-01,3.59844e-03,-1.19685e-01,-5.12825e-01,-6.99149e-01,1.15706e+00,-4.11477e-02,-6.52585e-01,
-1.57191e-01,8.24400e-02,6.52156e-02,3.10342e-01,2.37036e-02,-3.69541e-01,4.88505e-01,4.55367e-02,-2.59982e-01,3.02285e-01,3.52593e-01,3.25872e-01,-1.14164e-01,-3.92328e-01,2.98470e-01,-2.94073e-02,9.06916e-02,-8.64788e-03,1.42027e-01,1.01414e-01,-8.73037e-02,-2.38602e-01,-1.81836e-02,1.54933e-01,-7.50905e-02,3.81750e-02,4.91417e-02,5.09121e-01,-9.19097e-01,1.71300e-01,-3.20988e-01,-1.69892e-01,-2.25819e-02,-3.23224e-01,2.55804e-01,1.54659e-01,-2.08284e-01,1.85545e-01,-3.17894e-01,-1.18342e-01,1.16838e-02,5.65544e-01,2.10877e-01,1.11868e+00,-7.60494e-02,2.77202e-02,1.37049e-01,8.30010e-02,2.26755e-02,4.44685e-01,
2.32271e-01,
5.34414e-01,
-3.27950e-02,
-2.23612e-01,
-1.03897e+00,
-6.95218e-01,
2.21831e-01,
-1.54413e-01,
-4.27362e-01,
5.14390e-03,
8.98021e-01,
-3.24895e-01,
-1.42228e-01,
1.23991e+00,
-6.30525e-02,
-7.72072e-02,
1.44342e+00,
-1.87519e+00,
2.17395e-01,
1.07720e-01,
3.67704e-01,
-1.46191e-02,
-8.47265e-01,
-7.79651e-01,
-3.59458e-01,
9.60250e-01,
-3.33926e-02,
2.77122e-01,
-6.81578e-01,
-1.53266e-01,
2.06883e+00,
2.21380e+00,
-9.27011e-01,
-1.57602e-01,
2.94467e-01,
-1.50965e+00,
-9.97484e-01,
-1.29914e+00,
5.07720e-02,
1.49038e-02,
1.75624e-01,
-3.56165e-01,
-2.98904e-01,
2.23803e-01,
9.45407e-01,
5.96723e-01,
2.65276e-01,
5.96146e-02,
4.89691e-01,
-5.93940e-01,
-2.53005e-01,-4.47744e-01,3.49774e-02,4.50522e-01,-3.21862e-01,3.11422e-01,-9.75866e-01,1.87037e-02,8.98311e-01,-1.36611e-01,4.46141e-01,1.26168e+00,-3.68834e-01,-1.07789e-01,-1.77927e-01,-5.14825e-01,-1.07084e-01,-8.04507e-02,-4.57699e-01,-3.52520e-01,-3.88750e-01,-4.76985e-02,-5.63877e-01,2.72812e-01,1.27225e-01,-8.62878e-01,-4.47229e-01,5.10590e-01,-1.66169e+00,1.55889e-02,-1.08899e-01,4.59540e-01,9.84972e-01,5.21209e-01,3.66257e-01,-2.65408e+00,-6.47487e-01,2.26669e-01,7.66868e-01,1.38142e+00,-5.57732e-01,-1.24005e+00,-2.02056e-01,-1.55059e-01,-8.30745e-01,2.81473e-01,5.09327e-01,-1.17210e+00,3.96599e-01,-7.49884e-01,
7.57449e-02,1.19441e-01,7.68717e-03,-4.87187e-01,-2.78655e-01,-2.56892e-02,6.46508e-01,-6.99369e-04,-1.53323e-02,2.42235e-01,-1.83071e-01,-5.24438e-01,-2.94087e-01,3.58481e-01,-1.83277e-01,5.66176e-02,7.53309e-02,-2.44474e-01,7.15792e-01,-1.13986e-01,4.39852e-01,3.32706e-02,2.00830e-01,-1.94341e+00,-3.10725e-01,-6.36333e-02,1.37679e-01,-9.45002e-02,4.44301e-04,2.27313e-02,7.62517e-02,-1.66019e-01,5.88466e-03,-1.14732e+00,-3.62874e-01,1.14731e-02,1.01435e-01,-3.95338e-01,-6.32049e-01,1.38552e-01,-3.21526e-01,-6.62192e-02,-1.19454e-01,4.42093e-02,1.74844e-01,-1.02074e-02,-5.23635e-02,7.97606e-02,-2.06293e-01,1.61748e-01,
-5.45536e-01,-5.42563e-01,-3.83704e-02,-4.87050e-02,-8.15073e+00,4.25031e-01,-3.44229e-01,-4.92371e-02,4.67188e-01,-1.75339e-01,6.44900e-01,-6.66869e-01,4.00100e-01,9.53286e-02,-2.90963e-01,-1.48254e-01,4.16600e-01,2.36755e-02,1.81207e-01,-2.42390e-01,-5.07591e-01,1.19114e-02,1.18750e-01,7.29935e-01,6.91756e-02,3.46674e-01,-5.03463e-02,-4.55116e-01,3.19166e-02,-1.91558e-02,-2.07580e-01,-7.90973e-02,-3.64109e-01,-9.11735e-01,-5.18727e-02,6.37794e-02,2.30333e-01,1.02700e+00,-2.28916e-01,-9.68603e-03,-3.64228e-01,-1.18635e-01,3.80056e-01,-3.81390e-01,7.02497e-01,7.62931e-02,6.66047e-03,-3.25644e-01,-2.03434e-01,-5.89659e-01,
1.72315e-01,5.60240e-01,4.06084e-02,9.08279e-01,-8.93723e-01,-8.91747e-01,-4.11904e-01,-2.08359e-02,-1.48580e-01,-2.49509e-02,2.68107e-01,8.63725e-03,-4.47059e-01,4.29047e-02,8.98858e-02,1.07872e+00,6.04809e-01,5.10663e-02,-1.10699e-01,-4.91186e-01,-3.75157e-01,2.24731e-02,-1.64386e+00,2.79847e-01,-2.81519e-01,-2.06868e-01,-7.86488e-01,1.35762e+00,2.55221e-01,9.59748e-03,7.74975e-01,1.79638e-01,1.28643e+00,1.37154e-02,-1.72915e+00,4.17833e-01,-2.31362e-01,-6.21182e-03,-8.35978e-01,-1.93497e-02,1.99955e-01,-5.77374e-01,-1.39754e+00,-1.12044e+00,4.99854e-01,3.52237e-01,-8.08488e-03,1.18627e+00,-6.11407e-01,-9.73925e-01,
-1.05152e+00,-1.47593e-01,-3.62501e-02,-2.12855e-01,1.30529e+00,-2.28632e+00,-1.58866e+00,-1.05650e-02,1.08499e-01,-1.53063e-01,1.21034e-01,-1.10841e-01,1.44603e-01,1.14230e+00,-1.79468e-01,9.89916e-01,-9.99319e-02,-9.29633e-01,8.13553e-01,1.21035e+00,1.41722e-01,3.11935e-02,8.70835e-02,-1.06324e+00,9.61709e-02,7.46523e-02,-4.92716e-01,-1.24613e+00,1.86774e+00,2.42539e-02,-1.17737e+00,1.01380e+00,-4.56573e+00,-7.24253e-01,-3.07696e-01,-7.25534e-02,-2.61515e+00,3.94410e-02,-4.65933e-01,8.18928e-01,-5.02135e-01,-3.79851e-01,1.29939e+00,-1.26079e-03,-2.29533e-01,-7.40535e-01,8.15482e-01,-7.09717e-02,7.35111e-01,-1.30139e+00,
-1.37507e-01,2.52794e-01,-2.04387e-02,3.11295e-01,7.92202e-01,-8.43171e-01,-4.09051e-02,9.98124e-02,-7.62330e-01,-2.57547e-01,2.24921e-01,1.08097e+00,-8.48324e-02,-3.17212e-01,-4.04333e-01,-2.54805e-01,6.21006e-01,1.62908e-01,-8.82333e-01,2.45953e-01,-2.93385e-01,5.26649e-02,5.84324e-01,2.58487e-01,2.64257e-02,-7.20176e-01,-3.86302e-01,-3.09485e-03,1.12290e-01,1.41407e-01,-9.44212e-03,-2.48291e-01,6.16469e-01,4.78767e-01,-3.63962e-01,3.94892e-01,-1.88803e-01,-6.37487e-01,3.32408e-01,9.27193e-03,1.07027e-01,-1.01358e+00,-3.02802e-01,-2.18918e-01,2.26886e-01,1.86210e-01,-8.89037e-02,-2.71957e-01,2.45229e-01,-3.51799e-02,
4.45941e-01,8.42709e-01,3.02015e-03,7.55192e-02,-7.17678e-01,-1.38704e-01,1.31919e+00,6.71401e-03,6.12071e-01,1.29491e-01,-1.19389e+00,-1.57800e-01,-9.01771e-02,-7.72905e-01,-3.27143e-01,5.02748e-01,6.56991e-01,9.76277e-01,-1.45997e+00,9.42125e-01,-7.00411e-02,5.19263e-02,-7.05721e-01,1.61582e+00,-9.15052e-02,1.23044e-01,1.83225e-01,-7.24439e-01,1.59480e-01,1.73769e-03,-1.15950e-01,-4.76741e-02,-2.03170e+00,1.39213e+00,-4.40314e-01,-1.02406e+00,5.17894e-01,1.70400e+00,4.71653e-01,1.80568e-01,6.21053e-01,-3.18033e+00,-5.52440e-01,-6.22018e-01,4.33205e-02,-6.11503e-01,-5.28186e-01,1.30573e+00,1.49508e-01,1.05610e+00,
5.30456e-02,-3.77044e-04,2.91736e-02,4.48032e-01,-1.23127e+00,-3.02003e+00,7.42522e-01,1.38941e-01,-1.28183e+00,-6.86283e-01,-6.36522e-02,1.52307e+00,-5.32165e-01,-1.33312e+00,4.03586e-02,9.36018e-02,-6.94961e-01,5.34614e-02,2.62795e-01,5.18846e-01,7.24434e-01,-4.87974e-02,4.17112e-01,9.69899e-02,-2.55227e+00,-5.38277e-01,-4.78005e-01,-2.12813e-01,-2.25812e-01,1.41459e-01,-1.04458e+00,-1.37009e-02,8.58764e-01,9.43454e-01,-1.89555e-01,-3.68367e-01,-2.70030e-01,-3.33453e-01,6.56204e-01,7.93627e-01,6.49201e-01,7.48364e-01,4.15990e-01,4.03550e-02,4.29032e-01,-4.17011e-01,-3.30542e-01,8.99305e-02,-1.15648e-01,1.75991e-01,
-5.73578e-01,6.13942e-02,-2.35685e-04,-8.69930e-01,-1.13359e-01,-6.13343e-01,-8.08376e-01,3.98341e-02,4.26822e-02,7.00162e-02,1.93612e-01,-8.65876e-01,7.15519e-02,5.96341e-01,1.29804e-01,-2.54518e-01,-1.95044e-01,1.27795e-01,-4.00612e-01,-1.50916e+00,-1.19730e-03,-2.73747e-02,-4.68671e-01,-2.62118e-01,-1.60107e-01,-8.44142e-01,-6.13445e-01,7.21147e-01,1.65495e-01,-4.81866e-02,-5.44788e-01,-1.75170e-01,3.43020e-01,-4.70237e-01,-6.98273e-01,4.44751e-02,-2.53300e-03,9.46683e-02,-3.18002e-02,-1.66569e+00,2.35767e-01,1.01005e-01,-9.95981e-01,-1.20580e+00,-3.92625e-01,1.42500e+00,-9.16656e-01,-2.22576e+00,9.25310e-01,1.96083e-01,
3.67460e-01,-5.89717e-02,6.82352e-03,-3.05311e-01,-1.75187e+00,1.06271e+00,4.26549e-01,-6.32311e-02,9.83613e-01,3.50920e-01,-2.03048e-01,1.28087e-01,3.57299e-01,7.97942e-01,3.51981e-01,3.32269e-01,-2.60150e-01,-3.60797e-01,1.11962e+00,4.05636e-01,-4.83745e-01,2.88081e-02,5.27553e-01,-7.89781e-02,2.17968e-01,1.37317e-02,-5.32435e-01,-7.39947e-02,6.70031e-01,-1.52741e-03,5.01057e-01,-2.34085e-01,-4.78938e-01,-6.23555e-01,-1.02612e-01,-1.14420e+00,3.48626e-01,1.02240e+00,-4.56619e-01,-7.68905e-02,2.15468e-02,4.40888e-01,1.62496e-01,-6.62761e-01,1.88214e-01,-1.89069e-01,-3.85203e-03,-4.11676e-01,-4.68352e-01,-2.26365e-01,
5.42458e-01,-2.21994e-01,-4.84469e-02,-3.47901e-02,7.02451e-01,-5.40016e-02,2.63742e-02,1.51441e-01,-1.98263e-01,5.57257e-02,-4.57383e-01,-3.26816e-01,6.51393e-01,-4.29745e-01,3.64866e-01,3.06226e-01,-4.04305e+00,-1.58558e-01,5.59062e-01,1.00850e+00,-1.37735e-02,-1.07277e-02,1.20987e-02,-3.84928e-01,-3.24870e-01,-4.58297e-02,-8.63753e-02,-7.08294e-01,2.21332e-02,9.36226e-02,-2.39107e-01,-1.41380e-01,3.84516e-01,5.97903e-03,-3.56589e-01,-2.08352e-01,-3.66431e-02,8.74674e-03,-2.28480e-01,-2.41345e-02,-3.92382e-01,5.65769e-01,1.90664e-01,-3.06534e-02,3.29914e-01,1.30323e-01,5.74290e-01,-1.81841e-01,3.94944e-01,-7.43568e-01,
3.16531e-02,-1.57279e-01,5.28154e-02,-2.96416e-01,-1.94590e-02,-2.64338e-01,1.01528e+00,-7.73436e-02,-2.17816e-01,-8.97805e-02,4.54807e-03,5.43752e-01,6.15123e-01,1.07700e-01,6.28637e-02,-1.03160e+00,1.03530e-01,2.29873e-01,-8.90486e-01,3.09747e-01,3.18325e-02,2.60512e-02,1.08280e+00,1.65085e-01,2.17042e-01,-5.38231e-01,4.02826e-01,-6.68656e-01,2.32504e-01,-3.31060e-02,2.76258e-01,-3.93670e-01,-6.92526e-02,-3.15857e-01,1.53235e-02,-1.71897e-01,8.16869e-02,6.30979e-02,3.70396e-01,-1.02099e-01,-1.52778e-01,6.09610e-03,-1.06971e-01,1.64013e-01,4.59362e-01,2.11575e-02,-1.72657e-01,-5.80481e-01,1.08016e+00,-4.71397e-02,
6.27607e-02,-3.70439e-01,4.36022e-02,-4.72105e-01,9.19966e-01,-5.80852e-01,-3.62189e-01,-2.33302e-02,-3.55441e-01,3.03910e-01,1.77698e-01,-3.59680e-01,-2.22667e-01,2.52032e-01,-2.93716e-01,5.48537e-01,3.31744e-01,-1.73389e-01,4.60128e-02,3.88221e-01,-1.03937e-01,-4.37752e-02,-4.19383e-01,4.02107e-01,-7.84079e-02,-9.81435e-02,-1.57975e-01,4.19126e-01,4.21218e-01,-2.13443e-03,-3.54124e-01,8.80713e-02,-6.12298e-01,-7.32515e-01,1.70407e-01,-2.39422e-01,6.45111e-03,-3.49781e-01,-2.75625e-01,-1.98431e-01,1.91590e-01,2.03722e-01,4.43776e-01,-7.40025e-02,-2.89240e-01,1.18751e-01,1.33656e-01,1.12477e-01,5.68794e-01,-8.76121e-01,
2.45648e-01,7.80029e-01,2.88310e-02,-1.88109e-01,1.19533e+00,3.20324e-02,-6.00760e-02,1.78049e-02,5.91554e-02,-1.84815e-02,1.52263e-01,3.87354e-01,2.61064e-01,-8.53510e-02,-1.14348e-01,-4.19075e-02,-8.48956e-01,-1.19899e-02,1.59391e-01,2.59105e-01,-2.06703e-01,1.33839e-02,-4.02500e-01,3.02869e-01,-9.87734e-02,-8.47809e-02,-2.62480e-01,-1.68208e-01,2.58814e-01,9.39444e-02,-2.82813e-01,2.91076e-01,1.51136e-01,2.13036e-03,-5.13136e-01,1.26644e-01,2.21093e-02,-2.57849e-01,1.95038e-01,6.65960e-02,5.75331e-02,-2.16889e-01,3.12398e-01,-4.30796e-02,1.67039e-01,4.66118e-01,6.86497e-01,-1.38594e-01,-1.02471e-01,5.52318e-02,
2.83382e-01,8.87984e-01,-1.28688e-02,4.48364e-01,-2.43185e-01,-3.58382e-01,-1.60951e+00,1.02586e-01,1.18223e-01,2.92697e-01,-6.66886e-01,1.33761e+00,1.91372e+00,-3.07139e-01,3.02592e-01,3.55929e-01,-1.13632e-01,2.91045e-01,-1.74716e+00,1.78543e+00,1.22705e-02,4.14961e-02,2.31342e-02,1.01928e+00,5.97815e-01,-7.47582e-01,8.02881e-02,-1.84190e-01,-3.54044e-02,1.11836e-01,-1.02834e+01,-4.30289e-01,-1.35802e-01,-1.54479e+00,-1.53233e+00,6.70039e-01,1.25730e+00,-6.49880e-01,7.55448e-03,-7.53393e-01,2.48705e-02,3.35285e-01,-8.98108e-01,-1.92871e-01,-5.79215e-01,-1.26713e+00,-4.98836e-01,-8.81449e-01,1.44225e+00,-2.17465e-01,
-3.06765e-02,2.12601e-01,1.18948e-02,-4.33040e-01,3.35549e-01,8.99664e-02,-5.35387e-01,-3.96411e-04,1.01007e-01,3.34515e-02,5.21574e-01,-4.61866e-02,-6.53130e-02,1.76579e-01,8.75723e-02,-2.69606e-01,-5.82980e-01,-4.36314e-02,-1.68866e-01,9.42138e-02,-1.76277e-01,4.97055e-02,1.84710e-01,5.14930e-01,3.60099e-01,1.04743e-01,2.60123e-01,-1.55900e-01,1.29135e-01,-2.78656e-02,3.17758e-01,-3.10377e-01,-8.52032e-01,-5.05074e-01,-3.62371e-01,-2.46729e-01,2.08914e-01,-7.68128e-01,-1.84538e-01,-1.61802e-01,-4.01874e-02,6.40371e-01,7.61571e-02,-2.25583e-01,1.03759e+00,-1.72886e-01,1.48763e-01,-1.71505e-01,-1.44940e-01,-5.94688e-01,
1.03818e-02,1.27908e-01,-8.09029e-03,-2.50343e-01,8.86571e-01,-8.42364e-01,5.58663e-01,1.26596e-01,8.33823e-02,-9.29849e-02,-1.76427e-01,3.18378e+00,-7.41231e-01,-7.14821e-01,6.09458e-01,4.79042e-02,-9.72663e-02,7.49480e-02,7.42229e-01,4.47120e-01,1.61017e+00,3.24277e-02,-4.61785e-01,-1.50045e+00,1.37494e+00,-1.01872e+00,-2.60863e-01,-1.30239e-01,-1.23829e+00,1.55401e-01,2.93443e-01,-2.22116e-01,1.02706e+00,1.03881e+00,2.27597e-01,2.25177e-01,-4.02912e-01,-3.78592e-03,2.43058e-01,4.65501e-01,2.18085e-01,3.58606e-01,1.38663e-01,4.80916e-01,1.88039e-01,-1.01589e+00,5.40337e-02,5.87082e-01,2.62759e-01,-6.67312e-02,
2.77123e-01,-2.03597e-01,-4.34447e-02,-6.73178e-01,-5.46496e+00,-8.09935e-01,-3.28412e-01,-3.33910e-02,-1.95823e+00,1.98477e-01,-1.63556e-02,-2.72356e-01,-1.83779e+00,-3.54605e-01,-7.66713e-01,5.96404e-01,4.05180e-02,-4.78989e-01,-1.93885e+00,1.44660e+00,1.08744e+00,4.40358e-02,-7.89475e-01,-5.39636e-01,4.34359e-01,-8.18315e-02,-2.89970e+00,4.44233e-03,1.27345e+00,-2.95303e-02,-3.38221e-01,-6.97032e-01,-2.43409e+00,-3.91523e-01,-2.20663e-01,-3.00530e-01,3.13361e-01,4.22296e-01,-2.02124e-01,-2.03116e+00,8.39223e-01,-6.61006e-01,-1.11495e+00,-8.11644e-01,1.03724e+00,1.11261e+00,-1.70453e-01,-3.80078e-01,3.15350e-01,2.47137e-01,
5.81025e-04,-3.35857e-01,1.25958e-02,-6.83159e-01,1.15048e-01,4.80079e-01,2.50309e-01,-6.12600e-03,2.40133e-01,4.12093e-01,-6.37161e-01,-4.53478e-01,-1.09835e-01,3.86772e-01,-1.86472e-01,2.38716e-01,-3.55563e-01,-5.28320e-01,4.08731e-01,4.50419e-02,-3.95268e-01,6.40240e-03,-2.41047e-01,-8.16519e-01,-2.95244e-02,3.87994e-01,-2.52877e-01,-6.87458e-01,6.94477e-01,-2.93192e-02,2.81276e-01,9.29757e-02,-6.06862e-01,-7.72755e-01,-9.61071e-01,-4.47496e-01,4.12889e-01,-7.78240e-01,-4.55877e-01,6.40991e-02,-4.21724e-01,-2.69166e-01,-2.91912e-01,2.20292e-01,2.14463e+00,7.58802e-01,-1.11959e-01,-2.40703e-01,4.47861e-01,-7.43091e-01,
7.08056e-02,1.26226e-01,-3.00553e-03,1.88355e-01,4.17426e-01,-2.68536e-01,-5.14323e-02,1.49490e-01,-1.07823e-01,1.40740e-01,-3.01826e-01,3.81012e-01,-3.54669e-01,3.65819e-01,-7.08319e-01,4.54399e-01,-2.51006e-01,-9.71393e-02,3.90652e-01,-2.24900e-01,-2.34736e-01,-3.92410e-02,-2.86200e-01,-1.54784e-01,-2.13938e-01,8.71399e-03,1.07249e-01,3.62136e-01,-4.46827e-01,1.63951e-01,-1.26280e-01,-1.22263e-01,-2.79475e-01,-2.64860e-01,-4.01086e-02,6.76216e-01,-1.31603e-01,-9.49891e-02,3.68320e-03,-2.20446e-02,-1.97717e-01,-5.82015e-01,-7.73995e-02,-6.31173e-01,-2.52010e-01,-2.12438e-01,2.96755e-01,8.83598e-03,-7.20293e-01,1.70460e-02,
3.54966e-02,-8.82798e-01,5.23689e-03,-1.05312e-01,-5.94640e-01,-1.21623e-01,5.90619e-02,2.29190e-04,-7.76284e-02,2.19037e-01,-4.07287e-01,8.63954e-01,-6.39927e-01,-3.77640e-01,4.17293e-02,-2.24515e-01,4.59861e-01,-1.90452e-01,1.72355e+00,-5.61137e-01,-8.63141e-02,-1.41448e-02,5.07342e-03,6.66030e-01,-2.36308e-01,-4.58310e-02,3.19249e-01,-7.84267e-02,5.65080e-03,4.12802e-02,-1.11651e-01,2.20144e-01,2.40550e-01,-1.32477e-01,7.01066e-01,-6.49259e-02,-3.17232e-01,-1.24099e+00,6.04631e-01,-2.37775e-01,1.75426e-01,1.30206e+00,7.90619e-01,2.97656e-02,2.59162e-01,-3.32033e-01,-3.32714e-01,3.37834e-01,1.45984e-01,-8.26163e-03,
1.44321e+00,-1.82344e-01,6.21093e-02,5.88629e-01,3.23617e-02,4.06760e-01,-3.97397e-01,1.31927e-02,1.03730e-01,2.39133e-01,-4.40268e-01,3.02445e-01,1.24811e-01,2.14021e-01,8.99665e-01,1.43486e-01,1.79215e+00,-3.75571e-01,-2.43699e-02,-7.54843e-01,2.52327e-01,-3.59890e-02,-8.15932e-02,9.10957e-01,2.49155e-02,-2.45813e-01,-4.49198e-01,1.33589e-01,7.63821e-01,6.87329e-02,-2.76820e-01,2.33335e-02,-1.49497e-01,1.84103e-01,-1.45116e+00,-6.26770e-01,8.70786e-02,1.30500e+00,-6.65810e-01,-1.21824e+00,-2.98003e-01,1.30382e-01,3.57279e-01,4.89912e-02,-1.06493e+00,4.55968e-02,3.92740e-01,-1.07717e-01,5.91150e-01,-1.46894e-01,
2.09364e-01,-4.89772e-01,-7.74370e-03,-1.98718e-01,1.19946e+00,-2.20100e-01,-5.12843e-01,-5.24268e-02,-5.22399e-02,-6.43012e-02,3.61914e-01,4.28171e-01,-9.13884e-01,4.12510e-01,-3.77902e-01,-3.38858e-02,-2.62873e+00,-1.30860e-02,-4.28777e-01,1.70486e-01,-9.07107e-01,-1.32077e-02,-6.47633e-01,-1.08995e+00,2.69134e-01,1.74296e-01,8.00377e-01,-3.36715e-01,2.52551e-01,4.10834e-02,-2.80648e-01,1.99909e-01,-7.76306e-01,-6.09664e-02,4.69893e-01,2.98694e-01,2.16455e-01,-8.26511e-01,-8.82746e-01,-1.41372e-01,-1.23412e-02,-4.09308e-01,1.94355e-01,6.67070e-02,2.75351e-01,2.25133e-01,4.01360e-01,5.39408e-01,4.54723e-01,2.00347e-01,
1.94336e-01,-3.73769e-01,2.99859e-02,1.82875e-01,-3.25109e-01,-5.32997e-01,-2.36179e-01,4.38816e-02,-1.82491e-01,-4.83925e-01,1.87104e-01,3.84161e-01,-1.21339e-01,-6.31261e-02,-4.51612e-01,4.24596e-02,2.71537e-01,9.75347e-02,-6.23737e-02,5.73646e-01,-4.35794e-01,-3.94128e-04,1.69094e-01,8.24653e-01,3.59022e-01,-3.07638e-01,1.71742e-01,-4.27177e-01,-1.62401e-01,6.57346e-02,2.74049e-02,2.09191e-01,-1.33232e-01,-4.68416e-02,4.52238e-01,8.41401e-02,-4.77522e-02,-1.81288e-03,3.68786e-02,-2.34239e-01,2.99013e-01,9.57358e-03,-2.32515e-01,-6.36877e-01,6.35790e-01,1.94781e-01,5.48055e-01,5.33598e-01,7.07023e-01,3.62548e-01,
4.03587e-01,1.30429e-01,1.01517e-02,2.45586e-01,-1.22782e+00,4.58134e-01,2.21117e-01,1.30925e-01,-4.10712e-01,-4.78006e-02,-4.10551e-01,-4.69783e-02,-3.29218e-01,-3.31387e-01,1.14261e-02,5.47324e-01,7.22364e-01,1.47499e-01,1.49992e+00,-5.93096e-01,5.98901e-02,3.81736e-02,3.49700e-01,-1.44101e+00,-3.96365e-01,2.31026e-01,-9.06892e-01,3.26826e-02,-7.15817e-02,1.69990e-01,-1.26083e+00,8.06867e-01,-9.54568e-01,8.42255e-01,-3.14078e-01,1.35913e-01,-8.36046e-02,2.58716e-01,1.21155e-01,4.77463e-01,1.90489e-01,-1.34254e+00,4.22227e-02,3.40021e-01,8.02032e-02,-6.87684e-01,4.22283e-01,-6.31782e-01,2.19546e-01,-1.30836e-02,
-1.35362e-01,5.38941e-02,-1.42482e-02,2.83782e-02,-5.06778e-01,-2.21990e-02,5.79689e-02,8.63422e-02,-7.03760e-03,-9.88084e-02,-1.08890e-01,-2.76236e-02,2.70619e-02,1.94198e-02,-9.93846e-02,2.15385e-02,-1.51236e+00,2.27358e-02,-5.42682e-02,7.11245e-02,1.17548e-01,-4.76819e-02,-1.49302e-02,-2.57423e-01,3.74718e-02,1.67052e-02,2.24421e-02,2.53161e-02,-1.00982e-01,8.67809e-02,1.93740e-02,6.65616e-03,-7.19145e-03,-2.02418e-01,3.45778e-02,-2.93389e-02,-2.15402e-02,-1.05801e-01,1.56193e-01,-1.21766e-02,-1.13467e-02,-1.12681e-02,-8.75131e-02,1.67882e-02,1.36444e+00,1.12275e-02,-1.90109e-01,5.73588e-02,-2.93809e-02,-1.61726e-01,
-1.35333e+00,-1.09801e+00,1.24075e-02,2.77188e-03,-1.92810e+00,3.21855e-01,-6.47817e-01,1.73002e-02,1.89234e-01,2.85260e-02,-1.12987e+00,-1.23085e+00,7.35226e-02,3.13940e-01,-2.93930e-01,-9.10211e-02,-2.93156e-01,-3.04349e-01,3.24604e+00,9.17602e-04,-2.79762e-01,-5.04306e-02,3.93885e-01,2.28725e-01,-8.44709e-01,3.90704e-01,-1.63752e-02,-5.10891e-01,-3.37408e-01,2.29746e-03,5.01153e-01,-3.02069e-01,-7.91533e-01,-8.09911e-03,5.55253e-01,-3.63731e-01,2.79870e-01,7.19205e-01,-3.48159e-01,5.00027e-02,-1.57267e-01,-8.09539e-01,-3.79496e-01,1.05099e-01,7.13640e-01,-8.21903e-02,-1.07494e+00,1.40333e-01,2.89551e-01,-1.62668e-01,
4.10831e-01,2.50327e-01,3.48923e-02,2.62545e-01,-2.72943e-01,-4.02690e-01,2.74863e-01,3.45577e-02,-2.47926e-01,-2.77117e-01,-3.69390e-01,7.41173e-01,-2.36701e-01,-1.04022e-01,-6.50711e-02,-1.01000e+00,-1.85772e+00,2.12375e-01,-7.74069e-01,2.60293e-01,-6.38954e-01,-1.44006e-02,-4.94693e-01,6.44441e-01,2.39149e-01,-2.72857e-01,-5.10982e-01,5.49703e-02,3.38849e-02,3.81909e-02,-5.57281e-01,-1.64463e-01,-6.59296e-01,-2.29072e-01,-3.91687e-01,-1.97460e-01,2.77499e-01,-7.54996e-01,-4.00815e-01,-9.57520e-01,2.72812e-01,-7.14723e-01,-2.87729e-01,-1.01011e+00,9.39052e-02,5.48580e-01,1.65046e-01,5.80502e-01,-3.68745e-01,5.10294e-03,
-7.71493e-02,-1.77098e-01,-2.19291e-03,-2.82385e-01,8.11027e-01,3.27768e-01,-1.77899e-01,1.05562e-02,1.39692e-01,1.53162e-01,-9.69828e-02,8.69000e-03,-2.52681e-02,2.13990e-01,2.34562e-02,1.45487e-01,-1.24808e+00,-1.36655e-01,-4.02845e-01,2.97419e-01,1.33200e-01,3.25622e-02,-1.00869e-01,-1.38661e-01,3.42284e-01,1.91749e-01,-3.51399e-01,-2.04724e-01,4.18023e-01,-2.19461e-02,5.22068e-02,2.35606e-01,-5.00267e-01,-6.38740e-02,-7.56838e-02,-3.79255e-01,1.55727e-01,-4.82044e-01,6.02521e-03,-2.89453e-01,-1.40524e-01,-2.54894e-01,-3.32051e-01,-1.43243e-01,1.85899e+00,3.25256e-01,-5.61071e-02,-4.28899e-02,4.76087e-01,-7.24403e-01,
6.10997e-01,-1.99968e-01,2.23213e-02,1.73552e+00,-2.92291e+00,4.45510e-01,-1.95507e-02,4.65898e-02,5.91278e-01,1.17617e-01,5.57662e-01,1.88066e-01,9.16825e-01,3.09692e-01,4.22060e-01,5.94154e-01,-1.50679e+00,3.44381e-02,1.08666e+00,-3.43804e-01,1.54173e+00,4.14977e-02,-3.43734e-01,1.62557e+00,1.26388e+00,2.69549e-01,6.44179e-02,-1.21051e-01,5.96626e-01,-4.26395e-02,-7.80569e-01,6.18914e-01,-1.01826e+00,2.74815e-01,-4.00631e-01,-1.69836e-01,-3.66175e-01,1.34416e+00,-3.31934e+00,-4.12807e-01,-5.58388e-01,-1.33374e-01,6.37221e-01,-5.19649e-01,-6.57817e-01,-7.87888e-01,4.86049e-01,1.82127e-01,3.16765e-01,-6.22488e-01,
1.00984e+00,1.33096e-01,-3.08358e-02,3.69907e-01,-1.19045e+00,1.14413e-01,-2.53804e-01,4.68818e-02,-6.73886e-02,-6.78973e-01,-4.86564e-02,3.73916e-01,1.94235e-01,2.58981e-01,-1.14646e-02,2.33670e-01,-4.75576e+00,-1.63678e-01,1.29555e-01,1.95982e-01,-1.69966e-01,3.04657e-02,-2.91191e-01,-2.25603e-01,3.78498e-02,-1.53760e-01,-5.36688e-02,9.95892e-02,2.73398e-01,4.16811e-02,-8.14866e-02,-2.11817e-02,3.81612e-01,-1.40737e-01,-1.05120e+00,-1.86495e-01,5.14239e-03,2.97334e-01,-4.16227e-01,1.48871e-01,-3.22665e-01,2.83194e-01,7.77077e-02,2.07680e-01,-4.25171e-01,7.00511e-01,5.78353e-01,7.90117e-02,2.09266e-01,-6.13698e-02,
-5.13340e-02,-3.02778e-02,2.88358e-02,1.84989e-02,3.49181e-02,-5.01502e-02,-4.81209e-02,-5.26342e-02,3.04961e-02,7.80274e-03,-5.05513e-02,3.43263e-02,-4.50240e-02,-3.00176e-02,5.77645e-04,-2.40540e-02,-6.88009e-03,-7.93853e-03,4.69031e-02,-2.19789e-02,3.16606e-02,-5.21020e-04,-3.17247e-02,6.35332e-03,3.73706e-02,-6.58662e-02,-3.02772e-02,-8.82250e-03,2.61046e-02,-1.68359e-03,-1.33665e-02,-3.22843e-02,2.90333e-02,2.25754e-02,2.56657e-02,8.95352e-03,2.55182e-02,1.32479e-02,-4.62413e-02,-4.80235e-02,-2.41450e-02,3.38803e-02,-1.22978e-02,2.27137e-02,-8.91285e-03,-4.33116e-02,-1.89463e-02,1.35170e-02,-2.84497e-02,2.51928e-02,
4.79958e-01,7.00608e-03,-1.99311e-02,1.45311e-01,7.93128e-01,-3.82193e-02,3.91131e-01,1.13761e-01,5.63026e-02,1.23886e-01,6.05368e-03,1.00427e-01,-7.66603e-01,3.81853e-01,-6.15107e-01,2.37416e-01,1.85773e-01,-3.70547e-01,3.65693e-01,-2.19938e-01,6.01467e-01,2.12758e-02,2.20552e-01,1.28073e-01,-4.21282e-02,2.57381e-02,-2.60663e-01,3.59274e-01,3.66547e-02,9.62484e-02,-1.90594e-01,-1.04077e-01,-4.85446e-01,7.30632e-01,3.41192e-01,-3.34926e-01,-2.36872e-01,-4.66798e-01,-8.24560e-01,1.86348e-02,-3.44525e-01,-2.35707e-01,-4.02962e-01,3.47042e-01,-2.55746e-01,3.77820e-01,-9.03569e-02,4.66353e-02,-1.28032e-01,-9.52419e-02,
-1.86896e-01,-2.15449e-02,3.13446e-03,-2.25020e-02,-1.47962e-01,1.44807e-01,-2.50791e-01,3.32172e-02,5.42847e-02,5.96501e-02,-2.48915e-01,1.48099e-03,-1.13632e-01,2.21323e-01,-2.22538e-01,-1.37422e-01,-8.34404e-02,7.21403e-02,2.08834e-01,1.55207e-02,2.63898e-02,-3.10002e-02,2.15114e-01,-1.60923e-01,-1.48609e-01,6.18825e-02,7.23824e-02,3.01486e-02,-2.88034e-01,1.60675e-02,3.44903e-01,-2.49731e-01,-4.67586e-01,-2.00291e-01,5.94455e-02,-1.53317e-01,-4.39614e-02,7.88439e-02,1.06956e-01,-3.51430e-02,4.06235e-02,-2.44698e-02,-8.50326e-02,-9.47589e-02,-1.33754e-01,1.54860e-01,1.04306e-01,-1.15915e-01,5.35974e-03,2.49039e-01,
2.09852e-01,-3.39922e-01,4.88814e-02,3.48348e-01,-1.16375e+00,-3.92629e-01,-2.87010e-01,3.89276e-02,-4.77475e-01,1.95713e-01,1.47707e-01,-2.58995e-01,-3.30239e-01,2.11246e-01,5.30886e-01,-3.37587e-01,7.39668e-01,1.22648e-01,-2.98144e-01,-1.90144e-01,4.69768e-01,-1.14081e-02,1.07172e-02,-2.84112e-01,-1.02042e-01,1.08826e-01,-2.44738e-02,1.44654e-01,7.74772e-03,1.11420e-02,-8.11927e-01,4.91477e-02,3.44388e-01,3.53744e-01,-8.66656e-01,-2.51054e-01,-1.20845e-01,1.05222e+00,-4.45687e-01,-1.24276e-01,6.50697e-01,-7.00179e-01,-4.62986e-01,4.46345e-01,1.65670e-01,3.16810e-01,1.26973e-01,1.50426e-01,2.14640e-01,-6.32528e-01,
2.84454e-01,-4.28105e-01,-3.34640e-02,-7.47455e-01,-2.84280e-01,6.96564e-01,-6.43516e-01,-2.61767e-02,2.43384e-01,9.77437e-02,-1.98989e-01,1.84752e-01,2.15625e-01,6.66541e-01,-1.04331e-01,3.19717e-01,-1.70978e-01,-5.41735e-01,4.91843e-01,2.76745e-01,-4.83768e-01,-2.91604e-02,-4.80411e-01,-6.60419e-02,1.88245e-01,5.80290e-01,-9.71948e-02,-2.18039e-01,8.40018e-01,-3.06692e-02,3.22522e-02,4.01436e-01,-5.02919e-01,-7.38045e-01,-6.14790e-01,-8.10258e-01,3.84456e-01,-1.55722e-01,-8.84984e-01,3.35715e-02,-7.32824e-01,-2.19836e-01,-7.05135e-02,6.95264e-01,1.66402e+00,1.03011e+00,-5.44265e-01,1.00848e-01,6.48271e-01,-1.25728e+00,
-1.32734e-02,1.17066e-02,-1.88087e-02,-1.28951e-02,9.86027e-03,-1.99568e-02,3.84121e-02,-5.26793e-02,-3.69299e-02,2.89210e-02,-5.03668e-02,8.05583e-03,-5.10332e-02,1.37784e-02,1.64401e-02,1.88599e-02,-4.22042e-02,2.21673e-02,-1.23695e-03,-4.27955e-02,3.33211e-02,3.16156e-02,-4.69128e-02,1.74139e-02,3.15379e-02,-4.25066e-02,-1.12685e-02,-4.01275e-02,2.04473e-02,-9.08975e-03,3.44035e-02,-4.97949e-02,2.40101e-02,-5.33480e-02,4.17992e-03,-3.65407e-02,-4.12695e-02,3.30361e-02,4.28396e-05,3.40286e-02,2.24551e-02,-5.59771e-02,-2.20527e-02,4.56455e-03,-1.66339e-02,-1.51676e-02,-4.36465e-02,-2.56968e-02,-3.25750e-02,-1.33084e-02,
-4.36878e-01,-1.51113e-01,1.47698e-02,-8.21224e-02,-5.54372e-01,2.07414e-02,4.93003e-01,-6.20340e-02,1.01667e-02,1.21593e-01,9.34000e-02,2.60297e-01,1.98383e-01,-1.21109e-01,-9.77995e-02,1.67505e-02,-3.03012e+00,-1.37292e-01,-2.12490e-01,8.34914e-02,2.36472e-01,2.20563e-02,-1.01678e-01,-1.91958e-01,-5.75682e-01,2.66478e-02,-2.10205e-01,1.20406e-03,1.98901e-01,-5.00147e-02,-4.27706e-01,-8.42612e-01,1.87672e-02,2.72355e-02,5.79684e-03,3.28341e-02,-1.26643e-01,1.15283e-01,-2.17852e-01,3.43160e-01,-1.75779e-02,6.28699e-02,-2.15869e-01,3.25904e-01,1.51463e+00,-2.22639e-01,-9.08004e-02,-2.08877e-01,1.78687e-01,-6.59448e-01,
1.30986e-01,-1.81440e-01,-4.78448e-02,-3.44747e-01,-1.75448e+00,-1.74194e-01,6.23191e-01,1.51198e-01,-2.12200e-02,1.17738e-01,-2.88969e-01,-6.12665e-02,-8.21951e-02,-1.57697e-02,-2.60425e-01,-1.71475e-01,-3.27144e-01,-2.15603e-01,1.00457e-01,3.16123e-02,1.34985e-03,-9.92635e-03,-8.12034e-02,-3.86184e-01,-1.39783e-02,-2.05586e-01,2.73754e-01,-4.85038e-01,4.43671e-01,1.38828e-01,7.82862e-03,-1.32069e-01,-3.73750e-01,9.51057e-04,-9.62491e-02,-2.46295e-01,1.34435e-01,6.06796e-02,-9.02244e-03,2.59775e-01,3.04472e-01,5.69320e-01,-4.10148e-01,6.53467e-02,9.17118e-01,-4.16088e-03,4.09393e-01,5.48448e-02,-1.10700e-01,7.95889e-01,
5.26424e-01,1.93979e-01,1.01032e-02,1.31073e-01,-6.68996e-01,9.24753e-02,6.95110e-01,4.75679e-02,1.16168e-01,-2.72056e-02,-1.02479e-01,4.24590e-01,5.21713e-01,2.73658e-01,-7.37424e-01,3.28677e-02,2.00949e-01,-1.80843e-01,1.68130e-01,2.62915e-02,-4.14537e-02,-2.39107e-02,4.77761e-01,3.35724e-01,-1.04296e-01,-7.86167e-02,-3.41645e-01,6.08245e-02,-5.87016e-01,1.43209e-01,2.51465e-01,-1.64564e-01,-1.20694e+00,1.20810e-03,1.37671e-01,-1.84124e-02,-2.54317e-02,1.56037e-02,-1.02989e-01,6.29162e-01,-2.41494e-01,-1.09310e-01,-7.91105e-02,-1.82354e-01,-1.23090e-01,-1.12673e-01,-9.07765e-03,-5.62903e-01,-6.24714e-01,8.40500e-02,
-2.18215e-01,3.16175e-01,-5.85236e-02,-3.73807e-02,1.72609e-01,-1.26124e-01,5.75754e-02,9.62727e-02,-1.24782e-02,-1.54398e-01,1.57735e-01,-2.63249e-02,2.22549e-02,-1.15378e-01,6.89213e-02,-1.20617e-01,-8.00366e-01,1.28006e-01,1.80817e-01,-7.59392e-02,1.25378e-01,4.28469e-02,7.12059e-02,1.42015e-01,4.64686e-03,-9.84637e-02,-9.55480e-02,9.85344e-02,-1.22134e-01,1.52374e-01,-1.05924e-01,-6.79338e-02,8.89325e-02,1.21303e-01,2.43040e-01,1.26293e-01,-1.29115e-01,2.76708e-01,2.23132e-01,6.10238e-02,7.87197e-02,1.18523e-01,8.52820e-02,-8.62877e-02,5.35204e-01,-3.31929e-01,1.19895e-01,1.93120e-02,-1.91456e-01,2.16303e-02,
4.82386e-01,-1.06304e-01,3.83030e-02,-3.15094e-01,5.06295e-01,-3.89137e-01,7.01028e-01,1.07332e-01,-1.50833e-01,4.19029e-01,1.88239e-01,4.23818e-01,-2.46889e-01,-1.29589e-01,4.25435e-01,5.27897e-01,3.84018e-01,-2.85898e-01,5.75024e-01,-6.09151e-02,-2.28128e-01,-3.93572e-02,-1.77659e-02,4.79448e-01,3.58315e-01,-1.24324e-01,1.85887e-01,-4.65700e-01,5.08870e-01,8.74148e-02,-2.88254e-01,8.58521e-02,6.31402e-02,3.61524e-01,4.05473e-01,-3.68706e-02,1.73620e-02,-1.09289e+00,-7.70865e-03,-5.51332e-01,-1.36396e-01,-2.73065e-01,1.15616e-01,-4.34546e-01,3.68583e-01,-3.94432e-01,6.07736e-01,-2.55782e-01,-3.03352e-01,-5.72460e-01,
7.05348e-02,-1.59737e-01,-1.23078e-02,4.78029e-01,-1.80770e+00,-2.17835e-01,-1.61546e+00,-4.57099e-02,-6.97018e-01,1.26225e-01,4.37288e-02,-7.68422e-01,-1.39296e+00,4.19852e-01,-1.05075e-01,2.18519e+00,-4.86174e-01,-1.49506e+00,1.14017e+00,1.79334e-01,2.48534e-01,-1.85851e-02,3.14235e-01,5.31602e-01,-8.87777e-02,1.00577e+00,-1.16644e+00,7.13023e-01,-6.38035e-01,-9.20682e-03,-1.23801e+00,3.20635e-01,-7.60393e-01,9.66578e-02,-6.00700e-02,1.25890e-01,7.14358e-02,-6.80607e-01,-1.68459e+00,6.29012e-02,-1.85858e-01,-5.55390e-01,-1.81398e-01,-4.15922e-01,-1.25783e+00,4.99210e-01,1.79286e-02,-2.79462e-02,1.45554e-01,-7.69684e-01,
-7.70827e-02,-6.50478e-02,5.73934e-03,-1.99022e-02,-2.15703e-02,-8.68921e-03,5.05831e-03,-3.79670e-02,3.31178e-02,-1.71593e-02,-6.69223e-02,2.63185e-02,-1.15287e-02,-3.46378e-02,1.04891e-02,-4.12119e-02,2.11438e-02,2.54642e-02,3.13262e-02,1.33984e-03,-3.27253e-02,2.63049e-02,3.52591e-03,4.02614e-02,-4.84764e-02,-4.66097e-02,4.56546e-03,-2.26211e-02,1.52474e-02,-1.38003e-02,2.62606e-02,-3.13042e-02,4.62881e-03,-1.44912e-02,2.31833e-02,8.98771e-03,2.33714e-02,-1.38452e-02,-1.18460e-02,-3.01634e-02,1.43739e-02,-3.96405e-02,-2.66168e-03,-4.24003e-02,-4.25535e-02,-3.51667e-02,-4.95333e-02,5.90987e-03,-5.30922e-02,-1.58199e-04,
3.01664e-02,2.82229e-01,-6.29748e-03,-2.50699e-01,-7.18213e-01,-3.50908e-01,-1.72867e-02,4.23249e-02,-5.01441e-01,3.07707e-02,1.77327e-01,3.68702e-01,3.90133e-02,-7.94555e-02,-1.43829e-01,-4.33658e-01,3.39793e-01,2.45399e-02,2.14094e-01,-1.01098e-01,2.85045e-01,2.85934e-02,-1.89318e-01,-2.45674e-01,1.25101e-02,-2.49171e-01,2.60060e-01,-7.53049e-02,-3.62765e-01,8.32246e-02,-2.17311e-01,-1.69399e-01,-2.15085e-01,-3.34082e-01,1.14094e-01,2.86923e-01,1.46663e-03,-4.25385e-01,1.34590e-01,-1.98436e-01,6.93661e-02,2.85802e-01,-8.85638e-02,1.22853e-01,2.68042e-01,-9.30276e-02,-1.62313e-01,2.08380e-01,2.99065e-01,2.51653e-01,
8.98377e-02,2.42028e-02,-2.65474e-02,-1.98139e-01,-1.29542e+00,1.39891e-01,-5.58627e-01,2.40727e-02,2.40216e-01,1.42711e-01,-6.29221e-03,2.30863e-01,4.16902e-01,2.90241e-01,3.47011e-01,2.87895e-02,-1.18177e-01,-1.78910e-01,3.37854e-01,2.98444e-01,-5.12429e-01,4.42861e-02,1.16532e-01,-2.50527e-01,3.45985e-01,2.33128e-01,2.09126e-02,-3.62386e-01,2.16924e-01,-1.72472e-02,-1.59451e-01,4.97157e-01,-4.62112e-01,-5.28623e-01,3.37612e-01,-2.89596e-01,3.77802e-01,-1.61618e+00,-2.07834e-01,1.03222e-01,3.67010e-02,-6.69794e-02,2.40422e-01,9.91909e-02,-1.53452e-01,8.10167e-02,-6.65906e-02,2.30392e-01,-2.29618e-02,6.90908e-01,
-9.87738e-02,-7.13686e-02,2.48140e-02,-5.28140e-01,-3.08803e+00,-1.28614e-01,1.78706e+00,-3.77165e-03,-4.64650e+00,2.58032e-01,-1.40177e-01,1.88158e+00,-1.38558e+00,4.08538e-01,6.73056e-01,1.49014e-01,-7.81797e-02,1.32820e+00,1.28196e+00,9.77613e-01,2.37380e-01,9.69257e-03,-1.45973e-02,-3.09161e-01,4.59012e-01,-5.00988e-01,2.32885e-01,-6.98541e-02,-9.11337e-01,-4.04162e-02,-1.28731e+00,1.09435e-01,8.99910e-02,-1.58447e+00,4.28997e-01,1.39657e-01,3.80034e-01,-7.22998e+00,1.10227e+00,7.74412e-01,9.74830e-02,5.53059e-01,-8.15567e-01,-7.26525e-01,-4.35848e-02,-4.52581e-02,-5.27583e-01,1.05893e-01,1.02751e+00,-1.58007e-01,
-2.80379e-01,4.29554e-02,4.26528e-02,2.82470e-01,-6.46342e-01,-4.90005e-01,8.30412e-01,7.97675e-02,-4.56965e-01,-5.61987e-01,-2.17120e-01,-2.34123e-01,-1.84671e-01,-2.74207e-01,-3.14949e-01,-9.51977e-01,6.86717e-02,7.20704e-02,-4.34293e-01,-2.53628e-02,2.88213e-01,3.51548e-02,3.22882e-01,2.95194e-01,-2.26783e-02,-6.64749e-01,7.94342e-01,-3.59437e-01,-5.78262e-01,8.05418e-02,5.24825e-01,-2.39611e-01,-2.66263e-01,-4.39395e-03,-2.96306e-01,-1.66261e-01,-5.25338e-01,5.66293e-01,7.14700e-01,-3.18258e-01,2.65779e-01,-6.70753e-01,-1.59198e-01,3.31837e-01,3.66055e-02,5.63513e-01,-2.54983e-01,1.14217e-01,4.71713e-01,2.11832e-01,
-9.38835e-01,-1.64997e+00,-3.02894e-02,5.28929e-01,-4.66695e-01,4.77716e-01,-6.34298e-01,6.22473e-03,4.60938e-02,1.66074e-01,-2.94645e-01,-3.07378e-01,-5.74110e-01,2.71100e-01,4.80635e-01,3.66372e-01,-8.67584e-01,1.60178e-01,8.40202e-02,1.37085e-01,2.80387e-01,-6.83828e-03,1.33192e-01,6.68903e-01,5.59326e-01,4.57638e-01,-1.40345e-01,-6.60233e-01,3.45836e-01,5.03887e-02,-3.15725e-01,6.14839e-03,-3.89743e-01,-1.10070e+00,3.59154e-01,-4.83034e-01,4.73038e-01,-4.36800e-01,-1.05310e+00,-2.00940e-01,-2.46090e-01,4.78817e-01,-1.89233e-01,-1.28292e-01,4.28678e-01,-4.75528e-03,-1.54520e+00,7.72404e-03,4.69361e-01,-3.48179e-01,
1.24859e+00,-7.87709e-01,9.38187e-03,9.67814e-01,-1.15323e-02,-1.59522e-01,1.74509e-02,4.78562e-02,2.07198e-01,7.14014e-02,-1.23330e+00,-8.53932e-01,1.16737e+00,5.67745e-01,-2.03776e-02,-2.27364e+00,1.56832e-01,-5.20575e-01,-6.38056e-01,1.02918e+00,7.01291e-01,5.53237e-03,-6.61399e-01,2.88326e-01,4.18193e-01,-1.87180e-01,-2.47339e-01,4.97630e-01,1.21445e-01,-1.26691e-02,-3.24368e+00,2.15217e-02,-1.86771e+00,8.11465e-01,-2.32910e-02,1.42692e+00,4.89110e-01,-5.02872e+00,2.42078e+00,6.03993e-01,-4.94311e-01,-2.40705e+00,-1.04191e+00,6.99470e-01,-7.44350e-01,-1.50069e+00,1.91048e-01,-1.17417e-01,4.35909e-01,1.04867e+00,
-6.13410e-01,
-2.02567e-01,
2.04065e-01,
4.45569e-01,
-4.88409e-01,
5.37288e-01,
-1.02039e+00,
1.57639e-01,
-6.39876e-01,
7.25173e-01,
-2.03971e-01,
-2.00302e-01,
-4.17320e-01,
9.70804e-01,
-5.85410e-02,
2.85571e-01,
-4.65719e-01,
1.84395e-01,
-1.02197e-01,
8.54236e-01,
-2.02682e-01,
-1.51982e+00,
-1.35902e+00,
-6.15184e-01,
-1.54415e+00,
5.12655e-01,
-1.78915e-01,
2.36867e-01,
