// The contents of this file are licensed under the Creative Commons
// Attribution 4.0 International License: https://creativecommons.org/licenses/by/4.0/
// Neural Network File Format by Kyle Julian, Stanford 2016
7,5,5,50,
5,50,50,50,50,50,50,5,
0,
0.0,-3.141593,-3.141593,100.0,0.0,
60760.0,3.141593,3.141593,1200.0,1200.0,
1.9791091e+04,0.0,0.0,650.0,600.0,7.5188840201005975,
60261.0,6.28318530718,6.28318530718,1100.0,1200.0,373.94992,
7.57265e-02,3.90525e-01,5.36794e-01,3.72584e-01,-4.62552e-02,
3.47555e-02,1.67795e-01,-6.24365e-02,3.34343e-01,-4.30940e-01,
2.89983e-01,-4.14354e-02,-5.45657e-02,1.98848e-01,-1.89019e-02,
4.77393e-02,-9.25532e-01,-8.79031e-02,2.95315e-02,-9.29011e-02,
-1.29882e-01,1.61167e-01,8.37348e-01,4.36584e-02,2.29265e-02,
-8.59446e-03,-6.79297e-03,-1.88045e-02,-4.07778e-01,2.06749e-02,
1.75423e-02,2.37280e-03,-6.61160e-02,4.52170e-01,-5.46977e-01,
2.42976e-01,-7.09865e-03,8.19349e-04,4.56230e-02,-2.67820e-02,
1.16210e+00,-1.26711e-02,-3.06683e-03,-7.41918e-02,-8.09888e-01,
-9.21931e-03,-4.48443e-01,-1.68357e-01,-8.78082e-02,3.28136e-03,
-1.59976e+00,3.76406e-02,7.83161e-03,-4.57798e-03,-2.15620e-02,
1.67103e-02,-7.75372e-01,7.68174e-01,2.72442e-02,1.01190e-01,
-7.65333e-03,-9.31993e-03,-1.26365e-02,-5.63882e-02,9.92517e-01,
-1.35918e-01,-1.15076e-01,-6.50577e-01,1.86289e-01,2.39425e-03,
-3.85216e-03,-3.03199e-03,-2.86583e-02,5.75357e-03,4.06354e-04,
-5.36095e-02,-9.93565e-01,-9.85900e-01,5.57202e-01,-5.92903e-02,
-3.03326e-02,-6.45778e-01,7.81846e-01,1.22503e-01,-4.19255e-01,
3.18378e-03,-3.15137e-03,4.83857e-03,-1.56648e-02,-6.34133e-03,
-1.21507e-01,-8.19598e-02,-4.98118e-01,-8.32313e-02,3.87913e-02,
7.92433e-02,-6.18976e-01,4.44577e-01,-4.01577e-01,2.42794e-01,
-4.24615e-01,2.54654e-02,-2.64581e-04,1.02192e-01,3.81687e-01,
-1.74488e-01,-1.46493e-01,4.69507e-02,-9.84051e-02,-1.45497e-01,
2.07249e-02,7.82341e-01,-7.12456e-01,1.49260e-02,9.63037e-02,
-1.36611e+00,1.89408e-02,2.69447e-03,-1.12104e-03,1.05524e-02,
-4.38715e-01,1.19436e-01,-1.53675e-01,2.27327e-01,-3.20228e-01,
-5.49668e-04,-2.44677e-03,-3.56751e-04,2.37183e-03,3.32109e-03,
4.74630e-01,-1.47153e-01,-1.73533e-01,-1.35463e-01,-1.56339e-01,
2.25491e-02,9.73599e-01,-1.02810e+00,1.17340e-01,-1.42923e-01,
3.17758e-01,-2.30383e-01,3.40079e-02,6.39598e-02,-7.60226e-01,
6.44855e-03,9.45287e-01,-1.75071e-02,-7.76380e-04,-7.47360e-03,
1.56684e-02,7.46568e-01,1.46230e-01,6.10078e-03,1.31787e-02,
-1.15777e-01,5.11494e-03,-8.41278e-03,6.69437e-02,2.31459e-01,
6.77079e-03,-1.00572e+00,1.01539e+00,9.04698e-02,4.14083e-02,
-5.39082e-02,1.56371e-02,4.41452e-02,-7.33625e-01,-2.02825e-01,
1.52960e-03,-1.96340e-02,-8.27723e-01,3.70509e-03,3.91425e-03,
-1.44973e-01,1.15503e-02,7.76999e-04,1.26818e-01,2.06755e-01,
1.14423e-02,-7.45693e-02,-3.54879e-01,-2.09110e-01,7.62054e-02,
9.21445e-03,-2.78330e-01,-3.02597e-02,-5.58347e-02,1.35308e-01,
7.71795e-02,4.03666e-01,4.78096e-01,-8.24412e-02,3.53088e-02,
4.43571e-02,2.51078e-02,1.82318e-01,3.35166e-01,-2.74514e-01,
-7.81514e-02,1.39051e+00,1.27444e-01,3.11146e-01,-5.47451e-02,
-2.22504e-01,-1.16302e-01,4.30376e-02,-1.77220e-02,2.15843e-01,
6.43998e-03,-4.03491e-01,4.56314e-01,-4.38069e-02,6.91913e-02,
3.28049e-01,2.58069e-03,-1.33715e-02,2.03803e-01,-7.79019e-02,
6.55250e-03,1.45844e-03,-1.79705e-02,1.30668e-03,3.59425e-03,
-4.14642e-02,5.91386e-02,-5.79607e-03,-4.68602e-01,3.39233e-01,
1.80532e-01,1.86341e-01,-1.33492e-01,-1.77745e-01,-8.81704e-01,
3.12709e-02,8.99567e-01,1.80968e-01,5.67752e-02,-1.77884e-01,
2.97557e-03,-7.35367e-01,-3.36342e-01,3.23170e-01,-2.34152e-02,
-3.57875e-01,-1.55444e-01,1.39395e-01,2.36314e-01,-3.25258e-01,
2.94444e-02,
-1.54436e-02,
1.67328e-03,
-1.72477e-02,
3.05429e-02,
8.05958e-02,
9.02623e-02,
7.63289e-02,
1.41075e-03,
3.52100e-02,
-3.22150e-01,
-2.73978e-01,
-2.48473e-01,
7.27868e-02,
-2.07039e-02,
-1.95192e-01,
2.08743e-02,
-1.76616e-02,
-2.24842e-02,
-3.17893e-01,
1.11035e-01,
-8.79414e-02,
-2.69813e-01,
-1.81175e-01,
-3.37711e-02,
-1.45461e-02,
-1.76909e-02,
-5.08363e-02,
-1.90306e-01,
3.25915e-02,
1.30950e-01,
6.10069e-03,
-1.34762e-01,
-3.10597e-01,
1.11870e-02,
1.19552e-01,
4.91563e-02,
1.03368e-02,
6.50814e-02,
-1.16333e-02,
1.03975e-01,
7.55979e-03,
2.31028e-01,
2.08736e-01,
-2.08957e-02,
-4.65871e-02,
-3.13607e-01,
-3.11411e-02,
9.07556e-02,
-3.07049e-02,
-3.26625e-02,3.70903e-02,-8.37334e-02,-3.75633e-02,-1.80247e-02,-1.37576e-02,-4.86872e-02,1.43387e-02,8.63393e-03,-6.47141e-02,-2.73741e-02,1.18701e-02,-9.52416e-03,8.46763e-03,9.63528e-03,-2.33782e-02,2.82353e-02,4.35056e-02,3.02222e-02,-1.19817e-02,-3.05650e-02,-5.38374e-02,2.92134e-02,2.74648e-02,-2.28934e-02,-6.27860e-03,-1.12794e-02,-3.47718e-02,9.49978e-03,2.28404e-02,-2.30984e-04,-7.51558e-02,1.52449e-02,-3.61376e-02,-4.71747e-02,-4.37152e-02,5.38333e-03,2.33432e-02,-4.70954e-02,-5.59001e-02,-8.37433e-03,-5.58501e-02,2.36582e-02,-4.62657e-03,1.41121e-03,-7.82602e-03,1.82786e-02,-6.49094e-02,1.15024e-02,-2.66948e-02,
3.87500e-03,4.42176e-01,1.41636e+00,-2.40266e+00,3.39157e-01,3.37609e-01,9.42509e-01,-7.20679e-01,2.66722e-02,-9.58033e-01,3.06293e-01,-6.43893e-01,-9.34753e-02,3.57719e-01,-3.58780e-02,1.39005e-01,-3.27307e-02,-1.83687e-02,-2.99907e-01,-1.00246e+00,-6.13458e+00,1.22765e-01,3.10763e-01,6.19445e-01,1.06258e+00,-2.87832e-02,1.35059e-01,-8.47488e-01,1.55060e-01,-9.96224e-01,-1.29067e+00,-2.23140e-01,-8.78677e-01,7.29900e-01,1.66662e-01,-4.37311e+00,3.80830e-02,-1.37002e+00,-2.21319e-02,9.87599e-01,-9.11146e-01,-1.48161e+00,-9.11517e-02,-1.04261e+00,1.22546e-02,-3.33976e-01,1.71943e+00,-1.77735e-01,-7.37788e-01,7.57927e-01,
-1.40875e-02,5.88484e-01,1.80807e-01,-1.70736e-01,6.34298e-01,2.10769e-01,9.32247e-02,1.86418e-01,1.12124e-01,-8.23659e-02,-3.95019e-02,-1.33983e-01,2.17618e-02,-1.22574e-01,-3.42015e-03,-3.13401e-01,2.84779e-01,2.53621e-02,1.61573e-01,4.38272e-01,1.53899e-02,-1.35753e-01,2.15466e+00,1.71427e-01,2.48871e-01,3.41026e-02,-2.68365e-02,6.95657e-01,-1.61044e-01,8.84567e-02,-2.32024e-01,-3.44697e-01,1.15110e+00,-3.16744e-01,-1.81961e-02,-2.59211e-01,-2.00030e-01,4.34980e-01,-6.38194e-03,-5.17662e-02,-3.33357e-01,4.05919e-01,-1.62797e-01,-2.72908e-02,-4.03390e-02,6.10496e-01,-1.22364e-01,2.45319e-01,6.94145e-01,-3.06832e-01,
-7.18685e-02,-8.35511e-02,-1.07927e-01,1.40013e-01,2.05005e-01,-6.93148e-01,4.71733e-01,1.69163e-01,-1.19355e-01,-1.67226e-01,1.03089e+00,4.86141e-01,3.78688e-01,-9.82852e-03,-4.85773e-02,-1.21798e-01,5.86082e-01,-2.23388e-02,-3.36569e-02,-1.56950e-01,-3.54530e-01,-3.69886e-01,-7.13165e-02,7.87047e-01,4.80715e-01,-3.60265e-02,-4.89124e-01,2.06345e-01,6.51576e-01,1.80628e-01,-4.30227e-02,8.47111e-01,-3.34082e-02,-3.85281e-01,6.45749e-01,-2.55736e-01,-4.57713e-01,1.41378e-02,-9.48859e-02,-3.20718e-01,-1.22413e-01,-2.02046e-01,4.85264e-03,-5.03862e-01,2.39364e-02,1.27869e-01,8.08648e-01,-9.46398e-02,-4.35369e-02,1.42947e-01,
8.86979e-01,-7.36948e-02,1.29105e+00,-4.41745e-01,1.15492e+00,7.44783e-01,-6.51311e-01,-3.68234e-01,-3.89058e-02,1.31842e-01,-2.09265e-01,-8.36333e-01,-6.35927e-01,-9.18326e-01,-2.35080e-02,-3.46196e-02,-2.69960e-01,4.29227e-02,8.26737e-01,8.49071e-02,8.17267e-01,-2.00446e-01,-1.69848e-01,4.58059e-01,-6.61551e-01,8.60077e-03,-1.24848e-01,-2.23985e-01,-4.27035e-01,-7.73869e-01,3.99960e-02,-1.39655e+00,-3.15295e-01,3.04893e-01,2.68872e-01,8.26588e-01,-1.41084e-01,2.66626e-01,7.42907e-01,1.00039e+00,-4.70110e-01,1.39433e-01,2.97505e-02,-4.38618e-01,3.50463e-02,3.51724e-01,-5.96932e-01,2.21862e-01,1.56152e-01,-3.15454e-01,
-8.13604e-02,-4.52667e-01,-2.32929e-02,9.58377e-02,-7.33969e-01,2.56693e-01,-2.17392e-01,2.87891e-01,7.60186e-02,1.13175e-01,-2.33503e-01,-1.08652e+00,-9.84505e-02,8.60594e-01,1.23012e-02,1.65650e-01,-4.33138e-01,-4.50715e-03,-2.24250e-01,1.06254e-01,-2.05942e-01,-1.90419e-02,-9.59656e-01,-1.99437e-01,-9.45840e-03,-1.45484e-02,-6.64003e-02,-6.28377e-01,1.96275e-01,-4.84131e-01,8.70070e-02,-4.75394e-01,-7.76591e-01,2.71275e-01,-3.35562e-02,4.19825e-02,2.10712e-01,-1.77947e-01,-2.93873e-01,-6.55291e-01,3.83451e-02,-1.33905e-01,2.47737e-01,3.96633e-01,3.54111e-02,6.70126e-01,-5.92837e-01,-5.66621e-01,3.82973e-01,-1.94576e-03,
1.18713e-01,-7.14172e-01,-3.04059e-01,3.51548e-02,3.63530e-01,1.96254e-01,-3.40301e-01,-4.82933e-02,6.71643e-02,5.41961e-01,1.32875e-01,-1.42568e-01,-1.92205e-01,4.08082e-02,-2.11411e-03,-2.11250e-01,1.30390e-01,1.34424e-02,3.36696e-01,6.57458e-01,-3.14128e-01,-1.23710e-01,5.84494e-01,2.95115e-01,-4.60052e-01,1.47101e-02,1.70806e-01,4.65071e-01,-3.35529e-01,1.20218e-01,1.86277e-01,9.40047e-01,5.50716e-01,6.75858e-01,-1.60940e-01,-1.32272e+00,1.59835e-01,-1.15090e-01,1.36065e-01,-2.27752e+00,-6.88769e-02,2.40953e-01,-2.58301e-01,-3.37507e-01,1.29824e-02,1.07574e+00,2.36401e-01,1.55096e-01,2.68211e-01,4.85653e-01,
3.21721e-02,8.06901e-01,-3.66333e-02,1.34301e-01,-9.37580e-02,-4.21538e-01,3.53715e-01,-3.58155e-01,2.37446e-01,1.01089e+00,-2.90284e-01,2.63754e+00,1.77584e-01,7.76103e-01,1.35117e-02,-2.89840e-01,5.52744e-01,-5.56565e-03,1.75352e-02,-2.23310e-04,-2.83489e-01,3.28635e-01,1.66326e+00,-1.69953e-01,-4.43272e-02,-3.11300e-03,-3.05813e-01,6.10620e-01,1.83255e-01,1.37784e-02,3.18073e-01,3.79442e-01,3.71048e-01,-6.55595e-01,2.70411e-01,-2.72328e-01,2.90472e-01,3.45427e-01,-3.25781e-01,-8.88991e-01,6.32452e-01,2.73220e-02,-3.00795e-01,-5.31841e-01,-3.60949e-02,-4.37190e-01,2.93309e-02,-4.58278e-01,-6.78090e-01,3.84933e-01,
-2.50193e-01,-2.96251e+00,-1.03597e+00,1.49939e-01,1.05213e-02,2.81927e-01,-7.68450e-01,-1.05716e-01,1.01240e-01,1.93945e-01,-2.78788e-01,-8.44659e-02,6.19692e-01,1.35113e-01,-5.85822e-03,3.94863e-01,-8.53543e-02,-2.49076e-02,-1.60504e-01,1.86709e-02,-1.27300e+00,2.27773e-01,1.96874e-01,-9.03935e-03,2.12081e-01,-4.45747e-02,4.42513e-01,-1.04712e-01,-1.15418e-01,-1.56539e-01,4.71806e-01,5.94507e-01,-9.71316e-02,8.07836e-01,-2.49723e-01,-1.48799e+00,1.36210e-01,-2.40694e-01,-6.13813e-02,1.98345e+00,2.36083e-02,-1.13637e-01,8.85130e-02,-5.26117e-02,2.02226e-02,4.94137e-01,-3.68440e-01,-3.18525e-01,-6.13549e-01,-1.80264e-01,
-6.25611e-01,2.94389e-02,-2.18176e-01,-3.88734e-01,8.33597e-02,1.03236e-01,-3.62142e-01,2.22991e-01,-8.02118e-02,2.03521e-01,-1.81072e+00,1.84266e+00,-4.57697e-02,-1.26500e-01,-1.32348e-02,-2.64467e-01,4.86240e-01,-2.03474e-02,4.57042e-01,2.81377e-01,6.66751e-02,1.14906e-01,3.01122e+00,-1.48911e-01,-3.34060e-01,-3.47955e-02,2.44639e-01,4.90975e-01,-2.24444e-01,4.20521e-02,-9.32487e-01,-4.57242e-01,5.96048e-01,3.55010e-01,9.47963e-02,-1.26278e-01,-1.99702e-01,-1.20134e-01,2.67646e-01,-5.52363e-01,-9.06135e-02,-2.26478e-02,1.21646e-01,1.19519e-01,-3.35095e-03,1.58441e-01,-2.30259e-01,4.46350e-01,-3.51791e-01,-4.12090e-01,
4.16094e-01,-1.23402e-01,3.57088e-01,-1.02453e-01,-7.41077e-02,7.43293e-02,-5.48486e-01,2.77702e-02,-1.04496e-01,-4.99979e-01,-2.74544e-01,-5.11111e-01,-3.57481e-02,3.46349e-01,-2.67271e-02,4.20396e-01,1.60692e-01,4.37075e-02,7.66753e-02,-1.08076e-01,-1.07872e-02,-4.56348e-01,-1.19992e-01,1.44293e-01,-2.34734e-01,-2.22935e-03,1.12356e-01,8.52801e-01,-3.80807e-01,3.66328e-03,5.40740e-01,-6.48488e-01,1.35183e+00,5.63288e-01,3.13788e-01,-2.98801e-01,-7.30857e-03,-1.53793e-01,2.66441e-01,-4.23896e-01,4.95121e-01,3.67474e-01,-7.86021e-01,-2.67848e-01,-3.07769e-02,1.06922e+00,-3.06603e-01,-1.91570e-01,1.16484e-01,-2.05946e-01,
-1.55311e-01,4.81633e-01,2.88249e-01,-1.74896e+00,2.06459e-01,2.20347e-01,3.57178e-01,-3.32032e-01,9.98589e-02,9.62979e-02,-1.32356e-01,4.78046e-01,-1.34659e-01,-5.33389e-02,-8.85761e-04,8.18692e-02,-6.72108e-01,6.55062e-03,-1.30244e-01,6.86514e-02,-5.57582e-01,-4.39789e-03,4.52240e-01,9.41233e-02,3.35535e-01,4.79910e-03,5.31807e-02,-5.51366e-01,2.29413e-01,-2.55797e-01,-2.46140e-01,-2.88347e-01,-1.32214e-01,1.23156e-01,6.44953e-02,-1.53447e+00,1.31652e-01,-1.05421e+00,-2.27193e-02,1.57238e-01,1.70964e-01,-7.74003e-01,-9.25274e-02,-4.90794e-01,-1.99398e-02,-5.85400e-01,6.80169e-01,3.43023e-01,-9.01775e-02,3.12499e-01,
-7.60657e-02,9.65792e-01,9.52925e-01,-8.66220e-01,-5.72867e-02,-1.24341e-01,1.49614e-01,-2.94627e-01,3.13030e-02,2.32142e-01,-2.44521e-01,-4.05516e-01,-1.51286e-01,4.23765e-01,4.08277e-02,-2.32184e-01,2.74048e-01,-1.30003e-02,1.13825e-01,2.17464e-01,3.11466e-01,2.03520e-01,6.48406e-01,9.82456e-02,3.87159e-01,3.34887e-02,-1.34500e-01,-3.18334e-02,-4.15143e-01,-5.26672e-01,-4.55369e-01,3.61518e-01,9.18837e-03,-1.25084e-01,2.58059e-02,4.84353e-01,-2.74865e-01,-1.50994e-01,-4.63139e-01,4.75629e-01,-3.74402e-01,-1.24089e-01,5.71490e-02,-5.55032e-01,4.73992e-03,-4.48092e-01,-3.11975e-01,6.79889e-02,-4.13898e-01,1.05219e-01,
-2.66768e-02,-8.25097e-03,3.87468e-02,-3.72524e-02,-4.23643e-02,-5.13047e-02,-5.36479e-02,-2.95456e-02,-4.31677e-02,2.09966e-02,-3.33850e-02,-3.47086e-03,-8.35324e-03,-2.90647e-02,-2.47219e-02,1.49368e-02,9.95893e-03,-3.79412e-02,1.93171e-02,-3.94450e-02,-4.84455e-02,1.96718e-02,-1.87600e-02,-4.09312e-02,-1.52856e-02,-1.00962e-02,-1.47172e-02,3.80068e-02,1.60412e-02,-2.39902e-02,-5.57165e-02,3.25608e-02,-4.86275e-02,3.04606e-02,-1.53965e-02,2.28813e-02,-4.51237e-02,4.27086e-04,-4.80434e-02,-9.45760e-03,-1.29811e-02,-2.59686e-02,-1.59160e-02,3.14026e-03,-3.16566e-02,3.91059e-02,1.67259e-02,-6.80488e-03,3.69484e-02,-4.59857e-02,
-2.26155e-01,1.00559e+00,7.04980e-03,2.10282e-01,-2.50785e-01,-6.05636e-01,-9.35269e-01,6.11806e-01,6.49956e-01,8.55220e-01,-2.86741e-01,3.72133e-01,7.88975e-01,-1.40804e-01,2.14905e-02,-6.07357e-02,-2.37759e-01,-1.50182e-02,-2.43944e-01,-5.73943e-01,-1.96873e-01,-6.87038e-01,-1.36646e-01,-5.36463e-02,-3.12828e-01,-4.16501e-02,3.51352e-02,-9.21929e-02,-2.10724e-01,1.36614e-01,2.49677e-01,1.14592e+00,-8.17884e-02,3.92958e-01,-3.12167e-01,-8.28149e-01,-1.51669e-01,3.17873e-01,-5.73024e-03,1.95205e-01,-1.17572e-01,2.48211e-02,-1.84483e-01,6.51239e-01,-7.23394e-03,-3.40491e-01,3.10844e-01,1.36664e-01,-2.47020e-01,-5.72582e-01,
4.11188e-01,-7.15360e-01,-7.69334e-01,6.02099e-01,2.49116e-01,7.91796e-03,-4.08052e-01,2.72292e-01,5.02142e-03,-3.38355e-02,-6.14810e-02,-7.84746e-01,-9.33130e-02,3.47379e-02,-4.11223e-02,-1.07122e+00,-1.85887e-01,1.79867e-02,-4.12321e-02,-3.85351e-01,-4.43287e-01,-4.90707e-01,-1.18886e+00,-1.03967e-01,3.29183e-02,-2.44529e-03,1.58682e-02,-3.66099e-01,-6.87569e-02,2.27462e-01,2.48834e-01,8.13728e-02,-6.28746e-01,8.98414e-03,-9.24405e-01,-6.81813e-02,-3.87104e-02,-1.30856e-02,-9.18216e-02,5.18475e-01,3.47604e-01,4.31960e-01,4.01776e-01,2.49116e-01,-3.20944e-02,6.99142e-01,2.44398e-01,1.74603e-01,-5.69001e-01,1.25069e-01,
-1.01390e-01,4.86294e-02,-6.65930e-01,7.26263e-01,-8.46554e-02,-9.31486e-01,8.91555e-01,-4.75816e-02,-1.37469e-01,3.77273e-01,-4.15082e-01,-1.16224e+00,9.31531e-01,5.75808e-01,6.92532e-03,8.31898e-02,7.29690e-01,-2.75605e-02,-1.73846e-01,-5.33248e-01,-3.78697e-01,-1.70334e-02,5.58881e-01,-3.20469e-01,-5.17526e-02,-7.06272e-03,-1.88067e-01,1.37411e-02,-3.63545e-02,-6.02395e-01,-1.65885e+00,-4.34296e-01,-3.84904e-01,-9.56684e-01,3.56288e-01,-2.04654e-01,-1.49745e-01,-9.74029e-01,-2.21850e-01,6.12339e-02,-6.97456e-01,-2.66319e-01,2.11850e-01,1.03835e-01,1.29643e-02,-1.25456e+00,8.16777e-01,-4.32600e-01,-1.89383e-01,2.46524e-01,
-8.57142e-01,8.86848e-01,4.40586e-01,2.65597e-01,-1.23306e-01,-1.18308e-01,-1.43421e-02,1.40616e-02,3.32468e-01,4.80661e-01,-7.39278e-01,5.23818e-01,7.39038e-01,-4.95904e-03,-8.84483e-03,-4.76347e-01,5.21844e-02,4.01446e-02,2.28489e-01,1.58617e-02,-1.06242e+00,9.17796e-02,9.05348e-02,3.12703e-01,-7.95891e-01,3.52323e-03,2.02979e-01,1.75814e-01,-1.32832e-01,1.54966e-01,-3.03333e-02,2.51624e-01,-3.28945e-02,1.50038e-01,6.94592e-02,-9.51700e-01,3.05700e-01,-4.92631e-01,-5.39098e-01,1.83226e+00,-2.91294e-01,5.79854e-02,2.01460e-01,-1.57160e-02,2.38491e-02,8.93340e-02,-4.34383e-01,8.59946e-01,-2.25838e-01,-4.71398e-01,
-2.82771e-02,-2.12092e-02,-3.65813e-03,9.92689e-03,-5.46019e-02,-1.85588e-02,-2.45872e-02,-3.81559e-02,3.75728e-02,3.30942e-02,2.84032e-02,-3.17380e-02,-3.13596e-02,2.52115e-04,-3.46533e-03,-2.07060e-02,-3.18831e-02,-3.47068e-02,-2.88844e-02,8.64857e-03,1.45703e-02,-2.97864e-02,-3.93007e-03,-3.14038e-02,-3.51199e-02,3.91694e-02,-5.07778e-02,-3.37045e-02,-1.73242e-02,-1.00999e-02,-4.94245e-02,-1.96312e-02,2.56413e-02,1.59833e-02,-3.94288e-02,-1.37922e-02,-4.35518e-02,-2.38768e-02,-2.20382e-02,-1.88220e-02,3.64536e-02,2.37229e-02,2.04116e-02,-7.85460e-03,-2.68764e-02,-8.68345e-04,3.55480e-02,-2.19367e-02,2.60129e-02,-3.04653e-02,
-4.83298e-02,-5.34411e-02,-7.23468e-03,-1.68085e-02,1.43005e-02,-2.25458e-02,-1.73433e-02,-2.04095e-02,-5.01055e-02,1.72662e-02,1.47087e-02,-4.77662e-02,9.52658e-03,3.99505e-03,4.15615e-02,1.88927e-02,1.10073e-02,-4.57768e-02,4.00046e-03,-3.71500e-02,-5.55388e-02,-2.23504e-02,-4.20415e-02,2.67444e-02,2.79178e-02,-1.04221e-02,-6.13495e-02,2.97591e-02,1.52978e-02,1.09139e-02,-5.46753e-02,-5.82217e-02,-3.46276e-02,3.97938e-02,2.89379e-02,-2.28907e-03,-4.02301e-02,-5.83242e-02,1.26251e-02,7.21795e-03,-3.84373e-02,-2.77917e-02,3.43227e-02,-1.66046e-02,1.63388e-02,-3.33353e-02,9.64278e-03,-3.46156e-03,-5.20436e-02,-4.97759e-02,
-3.19853e-01,-7.83512e-01,-3.06024e-01,5.71606e-01,2.54799e-01,-8.19952e-01,7.18909e-01,5.96193e-03,2.21247e-02,-2.92902e-01,-1.05161e-01,1.31663e+00,5.78733e-01,6.07738e-01,-1.51527e-02,1.53827e-01,8.64479e-01,3.40768e-02,7.30969e-01,-1.72006e-02,-2.00185e-02,-1.57828e-01,3.70929e-01,2.21849e-01,2.69881e-01,3.20260e-03,3.64604e-02,-3.60086e-02,5.41659e-01,-6.25140e-01,-4.68314e-01,-8.66683e-02,3.20106e-01,-6.93944e-01,1.37145e+00,-7.50508e-02,-4.78751e-01,-7.83747e-01,-5.77214e-02,-7.78135e-01,3.50313e-01,-6.16892e-01,1.87451e-01,1.48050e-01,2.07654e-02,-4.03425e-01,7.21744e-02,1.15285e-01,2.84456e-02,-1.37571e-01,
-1.75510e-01,4.41239e-01,3.86022e-01,4.43365e-01,-1.63506e-01,7.85393e-02,-3.47779e-01,-7.83017e-02,4.14558e-02,-7.84242e-03,-6.76091e-01,1.29684e-01,1.02821e-01,1.31349e-02,8.20944e-03,-2.92546e-01,-1.89258e-02,-2.66768e-02,-4.23639e-02,5.83642e-02,1.34476e+00,3.77897e-02,1.14512e-01,-3.20197e-01,-4.65406e-01,5.07156e-02,-6.66569e-01,-2.46813e-01,4.89262e-01,-4.80114e-01,2.02917e-01,-6.26412e-01,-1.20429e-01,4.12953e-01,4.79801e-01,7.31366e-01,5.54844e-01,-4.62727e-01,3.07241e-01,1.38185e-02,1.37075e-01,-9.72868e-02,-3.76390e-02,-1.57587e-01,3.34584e-02,-1.34317e-01,-4.97063e-01,-1.49455e-01,-1.93496e-01,6.30156e-02,
3.23473e-01,-4.40756e-01,3.57335e-01,-3.89286e-01,9.79811e-02,-3.69294e-01,6.59358e-01,-2.11213e-01,-5.04367e-02,1.80956e-03,1.22900e-02,-6.26128e-01,-2.45438e-02,-4.23688e-01,4.14096e-02,8.61982e-02,-1.33624e-01,3.11860e-02,4.43289e-01,2.62055e-01,5.69857e-02,-7.74531e-01,2.70295e-01,4.57478e-01,-1.45836e-01,2.24077e-02,5.90167e-02,-2.06193e-01,-3.23516e-02,1.60694e-01,3.89281e-01,-1.57617e-01,-2.83713e-01,-7.13379e-01,-4.99157e-02,5.11801e-02,-4.25366e-01,-5.94880e-01,2.07247e-02,-5.21469e-01,-2.93493e-01,4.62533e-01,2.86802e-01,-2.26020e-01,4.30968e-02,-7.14991e-02,-2.90430e-01,1.91452e-01,1.14522e-01,-4.97528e-02,
9.66184e-02,-1.45338e-01,-3.58796e-01,-1.32503e-01,-1.64618e-01,3.53932e-01,3.41548e-01,-5.97378e-01,2.85141e-01,-1.47821e-01,1.85276e-01,1.18374e-01,-4.75740e-03,-1.35005e-01,-2.37236e-02,2.97749e-01,2.38795e-01,-1.74878e-02,1.30486e-01,-7.66926e-01,-1.64051e+00,2.32361e-01,-7.14303e-01,6.97665e-01,-1.15623e-01,1.09223e-02,1.24033e-01,3.11642e-03,-1.62215e-01,1.87464e-01,1.24027e-01,-3.96888e-01,-9.59152e-02,1.16367e+00,-9.75244e-03,-2.01974e+00,1.78627e-01,3.15333e-01,-1.08853e-01,-9.76839e-01,-5.23566e-02,1.05882e-01,-5.51659e-02,-6.86948e-01,2.71011e-02,6.43920e-02,3.15881e-01,-2.59145e-02,-3.25475e-01,8.16113e-02,
-7.34328e-02,5.61658e-01,6.25922e-04,-1.38063e+00,-1.28564e+00,-6.15779e-01,1.69969e-01,-4.39401e-02,7.83865e-02,-6.86387e-01,2.27700e-01,-2.88394e-01,3.57278e-01,4.10102e-01,-1.22226e-02,-4.08850e-01,1.49637e+00,-1.22904e-02,3.93996e-02,1.28528e-01,3.66381e-03,7.93925e-01,2.25767e+00,3.78724e-03,2.00761e-01,4.27149e-02,-1.65178e-01,9.59078e-01,6.14390e-02,1.74426e-01,2.21676e-01,-9.84112e-02,-3.49048e-01,-7.50044e-01,3.12002e-01,-2.39644e-02,2.53172e-02,-1.14476e-02,-4.47563e-01,-3.46187e-01,1.70728e-01,-2.47536e-01,-2.25729e+00,-1.52360e-02,-1.35490e-03,-6.63739e-01,-1.04283e-02,-1.98429e-01,-5.90694e-01,-6.69923e-02,
3.05551e-02,-1.74794e-02,-6.07648e-02,-3.08064e-02,-4.44055e-02,-4.08395e-02,-3.64780e-02,-2.12395e-02,-5.00552e-02,3.44495e-02,-5.72276e-02,-4.03753e-02,-2.56103e-02,1.96669e-03,-2.49244e-02,-5.27133e-02,-3.41744e-02,3.09057e-02,2.52491e-02,-3.12404e-02,7.82980e-03,-2.50129e-02,1.68991e-02,-2.59114e-02,3.79913e-02,5.12272e-02,-1.33813e-02,3.93013e-03,4.00970e-02,2.41570e-02,2.32886e-02,-4.73572e-02,-1.85740e-02,1.18521e-02,-2.45902e-03,-3.02037e-02,1.46863e-02,-4.49793e-02,-5.88785e-02,-2.96574e-02,-5.61812e-02,5.37440e-03,2.21578e-02,-2.62440e-02,1.16511e-02,2.36716e-02,3.45433e-02,-1.72670e-02,3.24172e-02,2.29972e-02,
4.21653e-01,-6.12853e-02,-2.42212e-01,5.63478e-02,3.46053e-01,1.07225e-01,5.98940e-02,-2.55523e-01,4.09563e-02,6.18486e-01,1.68133e-01,-1.31400e+00,-4.60123e-02,-5.33169e-01,3.35016e-02,-1.57314e-02,-8.39533e-01,-9.62062e-03,1.68924e-01,-5.05367e-01,-1.97194e-01,-2.68695e-01,-3.05972e-01,-1.70014e-01,-8.66004e-02,-4.13944e-02,1.64578e-02,-1.13974e+00,-2.15159e-01,-1.14468e-01,2.78951e-01,2.76514e-02,-1.49912e+00,1.74036e-01,1.84758e-01,-4.95498e-01,2.69572e-01,4.09465e-01,7.24069e-01,-4.37464e-02,3.43164e-02,6.20167e-01,4.18127e-01,2.31361e-01,1.84991e-02,8.86988e-03,-2.60350e-01,3.45603e-01,3.32035e-01,9.89238e-02,
7.69791e-02,-3.20239e-02,3.09773e-01,1.47305e-01,2.85036e-02,1.43572e-01,2.04996e-01,-2.27577e-01,1.43056e-01,4.94415e-01,1.50524e-01,-9.64699e-01,-8.38707e-02,-1.44117e-01,-1.94075e-02,-7.62283e-02,-1.24922e-02,-3.55770e-02,8.69774e-02,-2.48892e-01,-1.49469e+00,9.21135e-03,-7.11206e-01,1.47508e-01,3.49170e-02,-2.77795e-02,-3.56954e-01,-1.93378e-01,4.01964e-01,-1.68141e+00,-6.60237e-01,-1.81513e-01,7.95433e-04,2.32048e-01,1.22232e-01,-7.80734e-01,-7.54469e-02,-6.97227e-02,1.78963e-01,-6.61889e-02,1.74089e-01,-1.23252e-01,1.75803e-01,-2.92054e-01,6.43458e-03,-4.86456e-01,2.59848e-01,-1.10582e+00,2.20499e-02,4.34004e-01,
2.69928e-01,1.37966e+00,8.52425e-02,-1.82927e-01,2.68486e-01,2.53771e-02,5.96988e-01,-5.52676e-01,1.18088e-01,-7.25477e-01,1.83770e-01,1.28270e+00,-2.70863e-01,-3.72797e-01,-3.90575e-03,2.29170e-01,-1.34991e-01,3.00540e-02,2.91813e-01,1.04687e+00,-7.49250e-01,-3.90642e-01,2.71215e+00,2.71881e-01,2.72694e-01,1.79615e-02,-4.41258e-02,-7.61913e-01,-1.19515e-01,-2.07965e+00,1.95371e-01,1.66712e+00,-6.01579e-01,2.81729e-01,4.16004e-01,-8.86435e-01,1.78517e-01,-7.02517e-01,2.88160e-01,-3.94957e-01,-2.79541e-01,-4.43761e-02,3.46534e-03,-6.54295e-01,-1.96306e-03,-1.41231e-01,6.92071e-01,-1.65616e-01,-2.51694e-01,1.23535e-01,
8.77033e-02,1.07335e-01,-4.12265e-02,8.61867e-02,-6.22508e-01,-1.09711e-01,1.58548e-01,-2.00176e-01,2.53806e-01,-1.18174e-01,-1.95288e-01,9.63941e-02,1.52544e-01,4.36815e-01,4.67246e-02,1.15029e-02,-1.52712e-01,1.05804e-02,3.68233e-01,3.93099e-01,-1.09043e-01,-9.63397e-02,-1.20173e-01,-8.42167e-02,-2.22698e-01,-2.81558e-02,-1.50154e-01,-1.48260e-01,4.18001e-01,-1.48577e-01,2.34030e-01,2.27635e-01,-9.27351e-02,1.49410e-02,1.41578e+00,-5.06315e-01,5.59697e-02,1.49512e-01,1.63814e-03,-1.34762e-01,1.14754e-01,1.37110e-01,1.00257e-01,3.87407e-02,2.91296e-02,-1.63373e-01,-8.82555e-02,-5.96988e-02,-1.21729e-01,-2.27877e-01,
-1.47752e-02,-1.07904e-02,-1.32274e-03,-3.75878e-02,3.93391e-02,-3.01768e-02,-2.91688e-02,-1.27939e-02,-4.03912e-02,-6.81181e-02,-2.92429e-02,-2.65837e-02,3.16286e-02,-2.85663e-02,-1.94548e-02,-3.58336e-02,1.23154e-02,1.92921e-03,1.80816e-02,8.58474e-03,-7.76120e-03,1.45135e-02,2.90614e-02,-5.41615e-02,3.37632e-02,-3.52909e-02,-4.44554e-02,-4.64132e-02,2.03500e-02,1.73843e-02,-3.86198e-02,2.19042e-03,-1.16842e-02,3.98584e-02,-5.29979e-03,-4.33983e-02,-4.49375e-02,3.27423e-02,-5.10036e-02,-5.47278e-02,-5.03134e-02,-1.40010e-02,2.55291e-03,2.67588e-02,3.69600e-03,4.17740e-02,1.38998e-02,-1.66569e-02,-1.07694e-02,2.77678e-02,
1.56372e-02,-3.15696e-02,-2.70297e-02,-4.69123e-02,-3.30899e-02,-2.39286e-02,1.92202e-02,-5.86268e-03,-4.82057e-02,1.51407e-02,5.99311e-03,-5.55214e-02,1.79884e-02,3.38356e-02,3.50895e-02,-4.19999e-02,-2.82764e-02,-3.94041e-03,5.08286e-02,-4.63627e-03,-4.49001e-02,-4.70814e-02,-3.20501e-02,2.64983e-02,-3.00945e-02,-3.57770e-02,-3.55380e-02,-2.34438e-02,-6.42581e-02,-2.29419e-02,8.41149e-03,-1.38560e-02,7.96490e-03,1.77466e-02,4.32412e-02,-4.49836e-02,-4.19015e-02,-2.58721e-02,-1.34394e-02,-4.42196e-02,1.75924e-02,-6.27645e-02,1.74719e-02,1.15281e-02,-4.47528e-02,-5.76424e-02,2.14588e-03,-5.37080e-02,-3.95681e-02,1.26492e-02,
-5.91144e-01,5.51588e-01,1.53209e-01,-1.14824e+00,2.01787e-02,2.09575e-01,-9.42177e-01,-2.41001e-02,-8.40207e-02,-4.06175e-01,4.43419e-02,-4.81601e-01,-2.86804e-01,1.77561e-02,-2.21719e-02,2.76086e-01,-1.71676e-01,7.69668e-03,7.85252e-02,3.51051e-01,2.10370e-01,-1.18456e-01,-7.26094e-01,-1.20401e-01,-6.25098e-01,-1.03358e-02,1.48385e-01,-7.49089e-01,-3.57780e-01,-3.30333e-01,1.09079e-01,9.79905e-02,-6.43629e-01,4.67696e-01,2.57163e-02,-1.51145e-01,4.38715e-01,9.14196e-02,3.61058e-02,8.48373e-01,-9.78069e-02,-1.61225e-01,2.78174e-01,-2.30091e-02,-2.30623e-02,4.74476e-01,6.38535e-02,-1.30429e-01,-2.46916e-01,-1.14386e+00,
-2.93920e-01,-3.97721e-02,-2.46054e-01,2.37536e-01,-4.75317e-03,2.28247e-01,-4.62536e-01,-2.07766e-01,9.94669e-02,-4.83697e-02,-2.43376e-02,-1.76812e-01,-1.87908e+00,-2.48732e-01,3.85210e-02,-1.50076e-02,9.83753e-02,5.12512e-02,4.24852e-01,3.72839e-01,-5.41739e-01,2.28073e-02,3.28442e-01,1.47854e-01,3.66077e-01,-1.13590e-02,-5.45238e-02,-1.77547e-01,-1.22761e-01,1.72644e-01,-1.12070e-01,1.05707e+00,-9.29650e-03,7.76650e-02,4.24774e-01,-4.64481e-01,2.31077e-01,-4.30330e-01,1.25506e-02,1.29000e-01,9.20219e-02,-5.26203e-02,3.05213e-01,-2.09890e-01,4.75553e-02,-4.13164e-01,2.33875e-01,2.42399e-01,-2.76049e-01,-1.57458e-01,
-1.19400e-01,4.85410e-01,-1.20038e+00,4.11385e-01,5.48271e-02,3.78894e-02,-2.04876e-04,-5.51373e-01,-9.96362e-02,-2.31993e-01,5.38906e-01,-2.38617e-01,-7.45936e-01,-3.76886e-01,-1.40558e-02,7.78063e-02,-6.81533e-02,-5.31878e-02,2.50651e-01,5.04995e-03,1.26579e+00,2.12902e-01,-8.76133e-02,1.25023e+00,6.01643e-02,6.58809e-04,1.71667e-01,7.47038e-02,-6.07501e-02,4.21191e-02,-3.11946e-01,-3.43233e-01,4.26056e-01,-2.08097e-01,5.40070e-01,-3.29375e-01,1.04781e-01,-4.93405e-02,-1.61270e-02,7.05206e-01,3.38317e-01,1.27630e-01,9.57224e-02,-8.62505e-01,-4.07196e-02,8.64795e-01,-7.31172e-01,1.92338e-01,2.38066e-02,-3.27901e-01,
-6.19214e-01,-2.66837e-01,-3.43781e-01,-3.28343e-01,-3.57728e-01,-4.06696e-01,-3.43209e-02,2.35478e-01,-3.11884e-01,-7.77501e-02,-4.78851e-01,1.51576e+00,-1.23573e-01,-4.09677e-01,4.27099e-02,-3.29462e-02,5.69713e-01,-3.16820e-02,-2.29923e-01,-4.91363e-02,5.37568e-01,-6.56158e-02,1.38878e+00,-3.54454e-01,3.72222e-01,-4.50244e-02,1.60224e-01,1.28715e+00,7.57382e-01,2.98870e-01,2.06287e-02,-4.76206e-01,1.27153e+00,-2.20032e-01,-2.06731e-01,3.61379e-01,-4.87086e-02,-5.85098e-02,-6.76717e-02,6.64899e-01,-9.16988e-02,2.03413e-01,-3.30206e-01,1.02744e-01,-5.60135e-03,-4.66837e-01,-3.78131e-01,2.52728e-02,-3.96817e-01,1.19612e-01,
9.73335e-03,-2.63475e-01,3.99098e-01,4.96805e-01,-7.20941e-02,-6.70593e-02,2.72851e-02,6.30671e-01,8.53659e-02,2.66308e-01,-8.36417e-01,5.54681e-01,-1.64767e-01,-1.10426e-01,1.79891e-02,9.60893e-02,-3.50425e-01,4.39831e-03,-9.03259e-03,-2.01532e-01,-2.52652e-01,-8.32514e-02,6.35279e-01,-7.85616e-01,-7.12307e-02,-3.28702e-02,7.77742e-02,-4.31525e-01,3.63589e-01,1.57456e-01,3.73029e-01,2.65967e-01,-7.00071e-01,-3.49057e-02,1.48253e-01,-4.98792e-01,2.54162e-01,2.64540e-02,1.20803e-01,1.45976e-01,2.83847e-02,1.94664e-01,6.07732e-01,1.27132e+00,-1.07586e-02,3.33930e-01,2.32249e-01,2.89646e-01,5.98420e-02,-1.15592e-01,
2.82452e-02,4.78866e-02,1.29032e-01,-2.05626e-01,2.63456e-01,-7.38783e-01,1.89399e-01,1.63917e-03,6.45210e-02,-2.05164e-01,-1.02865e-02,1.48720e+00,1.24766e-01,-4.69377e-01,-2.20318e-02,-4.52860e-01,3.40579e-01,-2.49225e-02,-2.80161e-01,1.63786e-01,8.17072e-03,3.41182e-01,-1.95252e-03,-1.46122e-01,1.47126e-01,1.68263e-02,-2.96044e-01,9.31367e-03,-1.47486e-01,-1.50533e+00,-2.49507e-01,-4.90271e-02,9.58635e-01,-2.05305e-01,-5.32869e+00,-2.04758e-01,-1.09501e+00,5.65585e-03,1.02253e-01,1.15482e-01,-1.01978e+00,1.86618e-01,2.57943e-01,-2.51784e-02,5.13865e-02,-2.13028e-01,-3.68874e-01,-5.67814e-01,2.41959e-01,-1.89919e-01,
3.44092e-02,8.74676e-03,-3.85693e-04,2.37692e-02,2.82049e-02,-4.52431e-02,2.26141e-02,-5.06558e-02,3.65748e-02,5.95049e-03,-4.41290e-02,-2.65513e-02,-3.54098e-02,-5.63448e-02,4.44686e-02,-4.29803e-02,-3.40378e-02,-2.42255e-02,3.10248e-02,-3.41057e-02,1.30755e-02,-6.27875e-03,1.29227e-02,3.00271e-02,-1.97376e-02,7.53626e-05,-5.36312e-02,3.73341e-03,2.10234e-02,-1.46015e-02,1.93881e-02,-2.18184e-02,6.62842e-05,-3.70638e-02,-4.17260e-02,-1.53495e-02,-3.14314e-02,-5.88592e-02,4.54597e-03,-4.82531e-02,-5.74663e-02,2.95241e-02,-1.72792e-02,1.09428e-02,-4.04167e-02,2.53552e-02,-2.71062e-02,2.26244e-02,-2.57134e-02,4.67962e-03,
2.27071e-01,-8.39838e-01,1.51003e+00,2.22368e-01,-7.58830e-01,4.96543e-01,2.67864e-01,-5.79707e-01,-3.53832e-01,3.64545e-01,-4.78224e-01,6.29922e-01,-2.41754e-01,6.20922e-01,3.08699e-02,5.06760e-02,-3.65510e-02,7.98507e-03,-4.36375e-01,4.84045e-02,1.45939e-01,1.71987e-01,1.90120e+00,1.48450e-02,-4.75133e-01,1.52779e-02,2.91146e-01,2.61333e-01,-2.25874e-01,5.36136e-02,9.68147e-02,-2.16515e-01,-7.39841e-02,-2.15837e-01,-2.00998e+00,-1.36354e-01,2.35674e-01,1.46640e-01,6.82870e-02,8.52205e-01,2.08975e-01,6.12563e-01,6.89368e-02,-7.13280e-01,-3.55644e-02,-6.76146e-01,-7.45697e-02,4.41561e-01,7.17805e-01,-2.94552e-01,
4.03782e-03,-2.39479e-03,-4.48522e-02,-3.56606e-02,2.76923e-02,6.95417e-03,-1.58692e-02,1.39800e-02,-1.02904e-02,5.65536e-03,1.77747e-02,1.81837e-02,9.93734e-03,3.43994e-02,1.29896e-03,1.61611e-02,-1.99642e-02,4.13362e-02,-2.90958e-02,-4.26556e-02,-9.16780e-03,-3.76644e-02,4.15489e-02,1.65756e-02,-3.76055e-02,1.07620e-02,3.50418e-02,-1.13165e-02,-5.91456e-03,-9.92371e-03,-5.33650e-02,-1.24374e-02,3.20591e-02,3.26620e-02,-3.28898e-02,-5.21598e-02,2.10268e-02,-1.21562e-02,-4.96869e-02,-2.03304e-02,3.61378e-02,2.36347e-03,2.29553e-02,-2.42205e-02,-2.53968e-02,-1.65859e-02,-4.34128e-02,-8.11433e-03,-5.37734e-02,-3.31187e-03,
-3.79326e-01,-1.65888e+00,-1.28839e+00,2.91560e-01,2.88373e-01,-3.34575e-01,3.16877e-01,5.05124e-02,8.67635e-01,5.21982e-02,-2.66063e-01,-3.24503e-01,-2.62698e+00,5.35183e-02,-7.90557e-03,-2.36802e-01,2.32272e-01,-1.56253e-02,8.07067e-02,7.89189e-01,-3.97869e-01,4.26332e-01,6.09068e-01,-8.13241e-01,-2.17309e-01,-2.66521e-02,-4.51870e-01,1.77200e-01,7.19298e-01,-9.09029e-02,-1.85507e-01,-4.41022e-01,-8.38860e-02,8.94210e-01,-9.29816e-02,1.40454e+00,2.08697e-02,2.77711e-03,-2.47364e-01,-7.47438e-01,2.98290e-01,-1.60566e-01,-2.64399e-01,1.56865e-01,4.14923e-02,-2.35899e-01,7.75903e-01,-2.80138e-01,-3.35033e-01,1.35023e-01,
2.83653e-02,2.61124e-03,3.90801e-02,-1.57435e-02,1.23588e-03,4.75332e-03,-4.99126e-02,-1.87614e-02,-2.05012e-02,-3.77393e-02,-5.04166e-02,-2.78979e-02,2.67166e-02,-3.28124e-02,7.05431e-03,2.55912e-02,-3.10470e-02,-5.01655e-02,3.65643e-02,-3.45281e-02,3.84251e-03,5.43549e-03,2.57210e-02,-4.09516e-03,-1.16115e-02,4.68343e-03,-2.36773e-03,5.61630e-03,-1.19354e-02,-5.16111e-02,2.23973e-02,-2.36461e-02,-1.32009e-03,5.24931e-03,-4.01616e-02,-1.25245e-02,1.60797e-02,9.49096e-03,2.51477e-02,3.53339e-02,-2.42607e-02,-3.30091e-02,-5.20583e-02,9.07417e-03,-3.51981e-02,-3.90944e-02,-2.14254e-03,-1.95672e-02,-2.96877e-02,7.25700e-03,
-1.62778e-01,6.40589e-01,-7.85946e-01,-6.25903e-01,4.76085e-01,-8.80153e-01,4.44460e-01,9.90865e-02,9.54816e-02,-6.57092e-01,-5.43362e-01,-7.27452e-01,6.55827e-01,-2.57936e-01,2.25042e-02,-9.38014e-02,-5.00535e-01,-3.13144e-02,-8.54068e-02,7.59063e-02,-5.69177e-01,-6.46152e-01,-1.64427e+00,-3.27070e-01,1.68798e-01,-1.11819e-02,-3.21127e-01,-4.00876e-01,8.52418e-02,6.34464e-01,1.01324e-01,-7.32732e-01,-1.30057e-01,-1.43675e-01,-2.62011e-01,-6.22760e-01,-1.97318e-01,9.56213e-01,3.62322e-01,-5.25478e-01,3.51356e-01,8.44688e-02,4.30193e-01,2.17985e-01,2.76109e-02,-4.44250e-01,8.45078e-01,1.74772e-01,-5.85361e-03,2.98810e-01,
-2.61105e-01,3.10939e-01,1.46731e-01,2.40106e-01,-1.98576e-03,-5.77585e-01,5.14549e-01,-2.27261e-01,3.09068e-02,-2.04584e-01,2.15141e-01,2.21889e+00,3.19739e-01,-1.32265e-01,-1.87347e-02,-2.30198e-01,5.59871e-01,4.15350e-02,-7.75772e-01,8.38581e-02,-1.33792e-01,-1.53829e-01,4.00994e-02,-5.81669e-02,3.27415e-01,1.07731e-03,-1.90379e-01,-4.25075e-01,1.80000e-01,-1.15216e+00,-6.41729e-01,-1.01040e-01,1.16863e+00,-5.92131e-01,-4.63368e+00,-6.25625e-01,-1.22863e+00,3.90831e-02,-6.03512e-01,-2.06277e-01,-8.99725e-01,5.64822e-02,2.43402e-01,-2.17427e-01,4.79017e-02,-5.16134e-01,4.69606e-01,-1.15640e-02,1.17018e-01,3.91537e-01,
-2.13288e-02,-3.77688e-02,-3.14997e-02,-2.74784e-02,2.90075e-02,2.34546e-02,1.40199e-02,-2.89340e-02,1.71275e-02,3.53121e-02,-1.04415e-02,3.24205e-02,4.19986e-02,1.68837e-02,1.36454e-02,1.13554e-02,-4.01205e-02,-2.50285e-02,9.68826e-03,-4.54011e-02,1.82093e-02,1.59166e-02,-4.93594e-02,-2.98983e-02,-2.97989e-02,3.25649e-02,-2.79800e-02,-5.85235e-03,-2.93648e-02,-3.99953e-02,-4.70931e-02,1.15829e-02,3.89869e-02,-4.40781e-02,-1.92176e-02,-4.62056e-02,-6.92370e-03,-5.02989e-02,-2.31404e-02,1.05968e-02,1.86374e-02,-2.84306e-02,-1.99731e-02,-2.54128e-02,2.57697e-02,-4.88757e-02,-3.63952e-03,4.68538e-02,5.65034e-03,2.05015e-04,
7.19350e-01,-8.46374e-02,2.44822e-01,2.20071e-01,4.10990e-01,-1.92004e-01,1.61804e-01,-7.70147e-01,2.51705e-01,-3.25013e-01,2.80676e-01,4.30674e-01,1.29456e+00,-1.15484e-01,-4.01641e-02,-2.63437e-01,7.34514e-02,-2.29954e-02,1.15270e-03,7.94122e-01,-5.72826e-01,3.35410e-01,-1.60082e-01,5.45615e-01,5.78718e-01,4.93093e-02,-9.11247e-01,2.45256e-01,5.43316e-01,-1.11284e+00,3.75988e-01,2.88978e-01,2.74105e-01,8.22376e-02,-1.32821e+00,-1.82611e+00,-1.16673e+00,2.77162e-01,1.14857e-01,1.04049e+00,-3.26348e-01,-4.55640e-01,-2.23260e-01,-1.35277e+00,-3.40449e-02,-7.64109e-01,9.76569e-01,-2.34915e-01,-3.45010e-01,4.83600e-02,
5.10369e-01,9.46371e-01,6.02217e-01,-1.19400e+00,3.59757e-01,3.79436e-01,3.57460e-01,1.91107e-01,-2.27246e-01,8.56329e-01,-2.45953e-01,-3.63073e-01,1.93993e-01,-3.57274e-01,4.21878e-02,-1.08879e-01,-6.28471e-01,3.96448e-03,8.04847e-01,6.91171e-01,4.50868e-01,3.25244e-01,8.95768e-01,-5.46729e-02,4.18599e-01,1.45297e-02,1.16741e-01,1.64174e-01,-3.58156e-01,-1.63080e-01,-7.14317e-02,9.06478e-02,-7.22832e-02,-7.39385e-01,3.84815e-01,2.37935e-01,-1.63960e+00,-9.89796e-01,1.86745e-01,-3.61240e-02,8.89772e-02,4.52142e-01,1.75919e-01,3.50246e-01,-6.22205e-03,-1.13433e+00,-1.34677e-02,9.40983e-01,-8.61811e-01,-2.61909e-01,
5.32704e-02,1.06095e-01,-1.60497e-01,4.51055e-01,6.05952e-02,-2.50860e-03,-7.57618e-02,5.60192e-01,-1.55684e+00,1.63929e-02,2.41282e+00,6.31319e-01,-7.22062e-02,1.31486e-01,-1.45190e-02,3.84155e-02,-1.14939e-01,4.25210e-02,6.60450e-02,3.58701e-01,6.26570e-01,2.29493e-01,1.06825e+00,1.44682e+00,3.33801e-01,5.04420e-02,1.66356e-01,-8.20074e-02,1.73453e-01,1.13304e-01,-3.05493e-02,-2.42962e-01,-4.59367e-03,2.84304e-01,-1.27965e-01,1.84351e-01,-1.41041e-01,-1.31482e-01,-5.45919e-02,2.29182e-01,-3.28668e-02,2.36765e-01,-7.88022e-02,-1.72472e+00,1.08703e-03,-1.40468e-01,2.61539e-01,1.40319e-01,2.10872e-01,3.76764e-01,
-3.70260e-01,-1.01467e+00,-1.33861e-01,1.18186e-01,-3.34911e-01,7.90786e-02,-7.13957e-01,-2.57601e-01,1.75950e-01,-3.04299e-01,1.05776e+00,2.40159e-01,2.32159e-02,3.77797e-01,5.51753e-02,-4.22295e-03,6.36220e-01,2.77169e-02,4.81898e-01,4.64228e-03,-2.51732e+00,1.80659e-01,-2.05595e-01,8.39573e-01,-1.95297e-02,5.47909e-02,-3.69876e-01,1.73943e-02,3.52053e-01,1.18995e-01,2.01316e-01,-1.45582e-03,-1.50687e-01,5.34704e-01,5.64273e-01,-2.25185e+00,-7.74567e-02,-1.90438e-01,-1.16027e-01,1.57867e-01,1.55941e-01,-1.35831e-01,-1.44200e-01,-6.53727e-01,-1.69741e-02,-1.87177e-02,4.57861e-01,4.73011e-02,-8.21859e-01,-1.87747e-01,
-8.56845e-03,
9.56379e-02,
-3.17822e-01,
-2.40984e-01,
2.68840e-02,
2.27062e-01,
-4.67697e-01,
-2.25992e-01,
-6.20177e-02,
-3.31811e-01,
-3.03979e-01,
-1.92535e-02,
3.94790e-01,
-7.51795e-03,
2.13117e-01,
-4.54472e-02,
3.22588e-01,
-2.38291e-01,
-1.76011e-02,
-1.74304e-02,
-2.76555e-01,
9.61039e-02,
1.60050e-01,
-1.84641e-01,
-2.04785e-01,
-1.77105e-02,
3.03799e-01,
-8.54270e-02,
1.11470e-01,
2.15514e-01,
-1.27453e-02,
-1.40532e-02,
4.01512e-01,
-3.21646e-03,
-6.86030e-02,
-5.70710e-02,
1.76739e-01,
-2.78630e-01,
-1.71689e-02,
-7.09359e-02,
-1.94033e-02,
-2.09183e-01,
-5.76475e-03,
4.17277e-01,
-2.84660e-01,
-8.25037e-03,
-1.34326e-01,
-1.94798e-01,
-5.13957e-01,
-3.31450e-01,
-8.48550e-03,7.82626e-04,1.81726e-02,4.90073e-01,-1.53884e-01,-1.96699e-01,-1.22893e-01,3.14459e-01,6.09754e-01,3.22067e-01,-7.17180e-02,1.31227e+00,-1.72705e-02,-1.38803e-02,1.69120e-01,2.69437e-01,2.31004e-01,6.12733e-03,1.88248e-02,3.81722e-02,-2.21009e-01,-2.51481e-01,9.86868e-01,6.79762e-02,5.86105e-02,-2.80121e-02,2.02747e-01,1.67121e+00,7.23362e-02,3.22855e-02,-4.50437e-02,1.84736e-02,-5.99793e-02,-6.84753e-02,-2.94044e-01,-4.97894e-01,-4.16844e-01,1.30765e-01,1.19245e-02,2.37613e-02,-4.97807e-02,3.62297e-01,-8.51293e-03,5.41494e-01,1.79288e-02,-4.85850e-02,8.78438e-02,-1.35596e-02,2.44708e-01,-8.58034e-01,
-6.89495e-03,1.24719e-01,-2.72036e-01,7.48505e-01,-1.16539e-02,-4.44393e-02,-2.65818e-02,-3.52395e-01,5.43077e-01,-6.48496e-02,6.87701e-02,5.35227e-01,5.42302e-01,-1.68816e-02,-4.36297e-03,9.19922e-02,1.00116e-01,-1.12185e-01,-2.33923e-02,4.51024e-02,2.78269e-01,6.26977e-02,2.70349e-01,-3.98435e-01,5.78490e-01,-4.29701e-02,2.97352e-01,-5.47238e-01,-3.79941e-01,-1.58341e-01,3.20963e-02,3.45164e-02,1.15854e-02,-4.37194e-01,8.74491e-02,-2.71251e-02,1.22649e-01,7.49310e-02,-2.34356e-02,-7.63502e-01,-1.97075e-02,4.45992e-01,3.06908e-04,-1.35083e-01,6.99697e-03,2.29973e-02,-1.11401e-01,-1.83011e-01,7.26862e-01,-7.13052e-01,
-2.89127e-02,-1.73833e-02,-1.35080e-01,-2.65565e-01,-3.88965e-01,3.18055e-02,4.42944e-02,1.26447e-01,1.50795e-02,-2.07186e-02,2.10309e-01,-1.34714e+00,-2.99233e-01,-3.12099e-02,-3.97093e-03,8.82841e-01,5.76867e-01,-1.56673e-01,2.02054e-02,-4.01361e-02,3.76712e-01,2.01594e-01,-1.71745e-01,-8.42728e-02,-6.63722e-01,7.23540e-03,1.40962e-01,3.62520e-01,1.34873e-01,-4.69946e-01,9.08121e-03,8.19188e-03,7.10166e-01,-1.20943e-01,5.06847e-01,-1.38823e-02,3.46558e-01,1.19707e-01,-1.98856e-02,-5.10671e-01,-1.55300e-02,-3.13039e-01,-4.47506e-02,-1.52449e-01,-1.73049e-01,4.58324e-02,3.78618e-01,-2.58850e-01,-8.68350e-02,-3.01510e-01,
-4.00104e-02,-3.30538e-01,-5.68953e-01,3.95655e-01,1.78389e-01,-6.32089e-01,-4.72446e-01,5.29760e-01,8.34438e-02,-2.85372e-02,7.83863e-02,3.19822e-01,-3.18332e-01,1.35947e-02,-3.53281e-01,-3.12750e-01,-3.50224e-01,-1.12732e+00,2.07464e-02,-1.16409e-02,-2.44653e-01,-3.75708e-01,3.28998e-01,-8.30254e-02,2.96845e-01,-4.70484e-02,-1.17624e-01,4.47868e-01,-1.08300e-01,-1.04752e-01,4.30276e-03,-2.17411e-02,6.49409e-01,1.76220e-01,9.18116e-02,1.49780e-02,-7.72626e-02,-1.59118e-01,3.17248e-03,-1.24926e-01,4.70486e-02,-7.91195e-01,-2.65965e-02,3.77411e-01,1.07271e-02,-4.27247e-02,-1.92167e-01,-1.27973e-02,9.03456e-03,-8.85139e-02,
4.50001e-03,1.20080e+00,1.14854e-01,-6.06470e-01,1.07143e-01,2.07331e-01,-3.07259e-01,1.75557e-01,3.15194e-01,-3.03221e-01,5.33183e-01,-1.11447e+00,6.61879e-01,-2.53822e-02,-1.15669e-01,7.95053e-01,-1.76717e-01,2.56623e-01,2.26658e-02,3.67322e-02,1.04666e-01,-8.63147e-02,2.45783e-01,-3.53149e-01,-2.58753e-01,3.10628e-02,-1.03782e+00,-2.00655e-01,1.18777e+00,3.86147e-01,2.09112e-02,-8.76795e-03,-2.15088e-01,-7.07409e-02,-3.80378e-01,-4.46123e-01,-4.25797e-01,7.39190e-01,2.99915e-02,9.98339e-01,1.36085e-02,6.33912e-01,4.49254e-02,-2.10993e-01,-3.14689e-01,6.46385e-03,5.45830e-02,-2.96355e-01,-7.28909e-01,-2.59667e-02,
-1.30004e-02,3.28613e-01,3.95281e-01,-1.14378e-01,9.52465e-02,-3.44870e-01,4.45595e-01,-8.56714e-01,2.81162e-01,6.74723e-01,3.48873e-01,6.93528e-01,2.56123e-01,3.51984e-02,1.96326e-02,-4.17390e-02,7.70414e-01,3.58312e-01,-2.41683e-02,-5.19474e-03,1.12915e-01,-1.16158e-01,-3.09964e-01,-1.36723e-03,-7.74401e-02,-2.47420e-02,-1.04012e-01,-1.56610e-01,5.99222e-01,-2.16740e-01,6.04800e-03,-3.91472e-02,-7.25986e-01,-4.66605e-01,-5.70142e-01,4.04981e-01,-1.56136e-01,6.57318e-01,-2.16125e-02,-4.19232e-01,2.80971e-02,3.43771e-01,3.53681e-02,-3.15726e-01,1.23320e+00,-1.01366e-02,-6.95763e-02,-8.32109e-01,1.46017e-01,-1.30969e-01,
-4.86773e-02,3.98987e-01,2.50166e-02,3.61491e-02,1.65216e-03,1.18916e-01,-1.91122e-01,1.67753e-01,-4.15535e-01,5.46172e-02,-4.90041e-01,6.84191e-01,1.04905e-02,4.47621e-02,-5.81724e-01,3.55339e-01,4.86640e-02,-6.26934e-01,1.19455e-02,2.65817e-02,1.03888e-01,-3.12705e-01,-4.03834e-01,4.66190e-01,3.81415e-01,-5.35302e-02,1.37614e-01,-2.21031e-01,1.95835e-01,-7.17356e-02,6.80098e-03,3.08802e-02,-2.01031e-01,1.58184e-02,-3.93825e-01,-1.89605e-01,-1.63352e-01,2.13373e-01,1.58178e-02,3.48651e-02,4.72726e-02,2.62224e-01,3.31270e-03,1.12950e-01,-3.59876e-02,-2.78595e-02,4.38653e-01,-1.29713e-02,9.51542e-01,4.62707e-01,
-5.82224e-03,3.01739e-01,6.01181e-01,-8.94791e-01,-1.52264e-01,-6.35563e-01,8.87382e-01,4.06634e-01,1.01822e-01,9.74068e-01,5.95284e-01,1.31857e-01,-1.06071e-02,-1.73860e-02,-3.22851e-01,-4.05643e-01,-9.84804e-02,-3.68244e-01,9.14043e-04,1.84779e-02,-9.50886e-01,-1.67678e-01,-8.28682e-01,4.91232e-02,1.52323e+00,-5.42646e-03,-1.62188e+00,5.16220e-01,2.05356e-01,2.51755e-01,-2.69823e-02,-1.09162e-02,-1.23081e+00,-7.66014e-01,9.11636e-02,7.03956e-01,-6.09696e-03,8.96728e-01,3.83734e-02,6.59384e-02,-8.93709e-03,2.15359e-01,-3.79904e-02,-1.91361e-01,9.15374e-01,2.37491e-02,-1.30300e+00,-6.28713e-01,-2.74980e-01,-1.15540e+00,
-3.65821e-02,6.32005e-02,2.85297e-01,3.75345e-01,-5.88181e-01,-5.38581e-01,-6.68903e-01,-2.12078e-01,-2.88474e-03,1.03204e-01,4.03430e-02,-5.82650e+00,-3.05280e-01,4.53345e-02,3.68062e-01,-2.51825e-01,4.25529e-01,-1.45468e-01,-3.08123e-02,-2.54361e-02,4.29325e-02,-2.62969e-01,3.55119e-01,3.20730e-01,-3.95241e-01,1.20455e-02,7.77534e-02,-2.87955e-01,3.32483e-02,-4.05421e-01,1.40371e-02,-2.51635e-02,-3.98191e-01,1.72110e-01,-3.10004e-01,1.03868e-02,2.55296e-01,-1.67912e-02,-7.51809e-03,3.83429e-01,-1.51366e-02,-8.34612e-01,-1.80905e-02,-2.09013e-01,-8.78841e-01,-2.26310e-02,-3.96491e-02,-4.00541e-01,2.52735e-01,-2.22248e-01,
-4.76965e-02,4.65415e-01,2.67882e-03,4.58303e-02,8.55529e-02,4.12539e-02,1.31179e-02,-1.83759e-01,3.86010e-01,-1.41332e-01,-1.77973e-01,-2.73029e-01,-1.42441e-01,-4.70193e-03,-5.82625e-02,1.66354e-01,1.74989e-01,5.24678e-01,-2.91526e-02,-1.93434e-02,1.01430e-01,-6.04520e-01,-2.59285e-01,1.77351e-01,1.04671e-01,1.94175e-02,1.90014e-01,6.16937e-01,8.17212e-02,2.42480e-01,-1.97197e-02,2.74412e-03,5.50135e-01,-6.09848e-02,1.19063e-01,2.11442e-02,-7.63725e-02,1.77426e-01,1.69732e-02,1.44914e-01,3.29593e-02,-1.67225e-01,-2.99152e-02,1.37885e-01,2.82430e-01,-3.39204e-02,-1.63909e-02,1.07972e-02,1.27129e+00,4.37603e-01,
3.55245e-02,-3.69322e-01,2.69426e-01,1.16237e-01,1.27975e-01,1.38172e-01,-1.44497e+00,-7.94275e-02,-4.09781e-01,-2.67489e-02,1.09400e-01,1.19104e+00,1.70874e-01,1.96386e-02,-2.44709e-01,5.93918e-03,2.34529e-01,5.14049e-02,2.49631e-02,1.45966e-02,-3.02493e-01,1.31933e-01,4.82922e-01,4.99304e-01,-1.59767e-01,4.24391e-03,-4.13930e-01,1.78845e-01,-1.42726e-01,3.70369e-01,9.63879e-03,-3.04786e-02,-3.38336e-01,1.53746e-01,-2.77579e-01,-2.29208e-01,4.38827e-01,2.68932e-01,-1.31307e-02,-3.14761e-01,-4.53657e-02,-4.62573e-01,-3.83537e-02,3.44272e-02,-3.24318e-01,-3.29576e-02,4.66634e-01,-4.10655e-02,-3.91218e-01,-4.06606e-01,
3.30229e-02,-1.54747e-01,-3.98065e-01,3.56754e-01,1.24530e-01,-1.52233e-01,-1.85850e-01,-7.26699e-02,5.63338e-01,2.29210e-01,-4.34841e-01,3.96779e-01,3.58668e-02,-3.82127e-02,-7.16210e-02,-5.94580e-01,-3.50805e-02,1.32455e-01,1.66066e-02,-1.24785e-02,-7.95669e-02,-2.65314e-01,3.46268e-01,1.80154e-01,-2.52482e-02,8.04893e-04,3.63572e-01,-2.95046e-01,-8.16433e-02,-1.45059e-01,-6.22190e-03,1.74037e-02,2.00018e-01,2.56640e-01,-4.38331e-02,1.85837e-01,-1.95312e-01,2.03569e-02,-5.85589e-03,-1.86761e-01,4.04227e-02,-3.11720e-01,-2.21364e-02,2.85974e-01,1.68117e-01,3.22857e-03,-4.61010e-01,4.76074e-02,-2.68342e-01,-6.44152e-02,
2.34677e-02,1.00079e-01,-3.55312e-01,-3.27230e-01,-5.20107e-02,-5.67389e-01,-4.00610e-03,-2.39415e-01,1.58554e-02,-5.70571e-01,-4.77202e-01,6.04145e-01,-4.89057e-01,-8.58944e-04,2.43520e-01,-3.14853e-02,8.66209e-02,-3.15630e-01,5.62843e-02,2.92691e-02,5.05654e-01,-2.58007e-01,7.01583e-01,1.00468e-01,4.04934e-01,7.00850e-03,4.05673e-01,-9.24203e-01,3.06694e-01,-1.15156e-01,-1.67674e-02,2.02818e-02,4.50639e-01,-1.14525e-01,-4.02179e-01,-1.64301e-01,3.60938e-01,-4.83966e-01,-2.90100e-04,3.25685e-01,-2.86699e-02,-5.86837e-02,-1.20967e-02,1.13693e-01,4.92221e-01,-1.24825e-02,6.39447e-01,1.68190e-01,-3.20311e-01,-2.74902e-01,
-1.82669e-02,-2.07568e-01,-4.50152e-01,-2.88022e-01,7.08817e-02,-3.96637e-02,-1.00108e-01,-2.49262e-01,6.94453e-01,2.76328e-01,-9.17052e-02,5.16844e-01,-2.87692e-01,2.79689e-02,-3.93473e-01,-8.62443e-01,1.89675e-01,-7.68607e-01,-4.48016e-02,-4.54723e-03,2.04696e-01,-1.41591e-02,-5.90048e-01,5.95524e-01,1.82355e-01,3.32899e-02,2.84870e-01,-4.57047e-01,4.27310e-01,5.80665e-02,2.71609e-02,4.70260e-02,4.32423e-01,-2.12996e-02,4.29851e-01,-3.57901e-01,3.95809e-01,-1.24135e+00,-7.59837e-03,1.89388e-01,-3.53808e-02,4.19576e-01,-3.44750e-02,-2.33887e-01,2.67780e-01,-1.86942e-02,6.45322e-01,3.68432e-01,2.07434e-01,2.86133e-01,
4.78052e-03,4.57876e-01,-6.80369e-02,-2.80188e-01,4.30923e-01,-2.00643e-01,-9.31063e-02,4.09988e-01,5.80791e-01,1.37457e-01,-1.88266e-01,4.64104e-01,-7.75197e-02,6.71714e-03,-3.32700e-01,1.67546e-01,-1.69694e-01,1.31458e+00,9.95971e-03,-1.21261e-02,8.58946e-02,-4.19696e-02,4.31780e-02,4.64163e-01,6.54080e-01,-3.63217e-02,-5.77402e-02,-2.36660e+00,-3.08728e-01,-2.14869e-01,5.54931e-02,-2.00065e-02,8.39217e-02,-1.48093e-01,-6.16356e-02,-2.81909e-01,-4.18460e-01,-6.65912e-01,-2.22054e-02,1.51265e-01,3.73240e-03,-9.99750e-03,-1.23788e-02,3.85404e-01,4.85910e-01,-1.30836e-04,-4.25115e-01,-2.24050e-01,-2.30982e-01,8.49383e-01,
-5.28792e-02,-2.67358e-01,-4.71913e-01,3.13979e-01,-4.43237e-01,6.78026e-01,-1.28585e-01,-7.13454e-01,4.94996e-01,-7.25642e-02,-5.04314e-01,-2.08037e+00,4.01054e-01,-2.88785e-02,-3.04702e-01,4.92633e-01,5.05772e-01,-2.27049e-01,-4.31962e-02,-1.84456e-02,1.08016e+00,4.37060e-01,-2.87521e-02,-4.36792e-01,-1.57237e+00,-1.22013e-02,3.39212e-01,-3.07571e-01,-3.12122e-02,-4.52846e-01,-4.77003e-03,2.01182e-02,9.17613e-01,-3.56414e-02,4.86991e-02,-5.56795e-01,6.12625e-01,6.90883e-01,-4.92027e-02,1.74372e-01,-1.26190e-02,6.81263e-01,-3.33678e-02,-7.74360e-01,1.20329e+00,2.59938e-02,-4.57269e-01,-2.60309e-01,-6.61640e-01,-4.81035e-03,
-2.69914e-02,-7.93833e-01,2.65162e-01,-3.34137e-02,-2.68278e-01,9.28470e-01,4.59518e-01,-3.82767e-01,5.97222e-01,2.13974e-01,-7.62199e-01,1.95701e+00,5.45119e-01,-2.38670e-02,-5.39691e-02,1.74814e+00,-1.68576e-01,-8.98341e-02,-2.40331e-02,-1.77397e-02,-8.18280e-01,4.55512e-03,-3.26899e-01,-1.46943e-03,-5.65837e-01,-5.39378e-03,4.61532e-02,-2.42607e-01,1.21839e-01,6.83998e-01,9.97302e-03,-9.78361e-03,-7.40765e-01,1.79369e-01,-1.12506e-01,4.62325e-01,-1.01354e-01,1.50949e+00,1.94265e-02,1.00582e-01,3.60921e-02,6.74222e-02,-4.28157e-02,2.07871e-02,-1.05983e+00,4.04707e-02,2.34870e-01,-7.69655e-01,4.22983e-01,-3.52054e-01,
2.74516e-03,-3.12853e-01,-6.23476e-01,6.74809e-01,5.27894e-01,-2.47892e-01,-3.74944e-02,5.19134e-01,4.67050e-01,1.93409e-02,-1.66503e-01,2.15919e+00,1.67592e-01,-5.90457e-03,-2.52050e-01,-3.69301e-01,-7.78401e-01,-1.27349e-01,1.27281e-02,-3.49494e-02,-4.97332e-01,6.04514e-02,4.31210e-01,4.00274e-01,1.64176e+00,9.02165e-03,7.69043e-01,-5.99409e-01,-7.42060e-01,7.13458e-02,2.06606e-02,-2.72189e-03,2.94432e-01,2.06472e-01,-3.56795e-01,-2.32143e-01,3.68023e-01,-8.39911e-01,3.88077e-02,1.22518e-01,-1.80498e-02,-3.22264e-01,2.43066e-03,3.24347e-01,-2.96923e+00,-4.51672e-02,3.78525e-01,2.51559e-01,-6.08281e-01,-5.19459e-01,
-3.85655e-02,-5.58148e-02,-2.69554e-01,-2.28072e-01,4.73289e-01,3.42030e-01,-6.43691e-01,4.26154e-01,-1.27895e+00,6.08017e-01,-8.51909e-02,8.27128e-01,5.12199e-01,1.56437e-02,-7.25620e-01,6.02192e-01,7.23295e-02,7.98260e-01,-3.20038e-02,3.32459e-02,5.09805e-01,3.22885e-01,4.48724e-02,-4.30288e-02,9.88706e-01,-1.59924e-02,5.06626e-01,-2.88645e-01,-4.59683e-01,-2.00375e-01,-4.34665e-02,1.05846e-02,5.63104e-02,-1.45194e-01,-2.58464e-01,-2.14530e-01,2.92707e-01,2.12621e-01,1.78179e-02,-3.59464e-01,-2.07728e-02,4.39499e-01,-2.63423e-02,5.72027e-01,9.46769e-01,-4.69762e-03,-1.40567e-01,2.57831e-02,-4.35921e-01,3.14085e-01,
-4.11132e-02,-2.48734e-02,4.23367e-02,-1.24147e-01,-5.79081e-02,-3.47655e-01,-2.39414e-01,-4.68367e-01,5.41693e-01,-5.09389e-01,-1.13341e-01,-7.51339e-01,1.77501e-01,-4.42068e-02,3.32014e-01,2.32818e-01,-1.01209e-01,-1.16266e+00,-4.69253e-02,1.70201e-02,-3.13435e-01,2.60894e-01,-2.05029e-01,4.71848e-03,-5.99329e-01,-8.14502e-03,-1.23286e-02,4.24472e-01,-4.23483e-01,-2.05136e+00,-7.04517e-03,2.59750e-02,1.21627e-01,3.66845e-01,2.10446e-01,-1.15722e-01,-2.42139e-01,-1.59479e-01,-3.67143e-02,6.41352e-01,-2.94074e-02,-4.76029e-03,-4.05299e-02,5.66386e-03,4.52440e-01,3.29209e-02,-4.55866e-01,2.78870e-01,5.17140e-02,-3.92293e-01,
8.77223e-03,2.96563e-01,-1.73781e-01,-1.55536e-01,3.89854e-01,4.71193e-01,-2.92171e-01,-1.26041e-01,-4.51785e-01,-3.05193e-02,3.55516e-02,-3.78871e-01,1.48494e-01,-4.24485e-02,6.29466e-01,-1.44102e-01,1.30839e-02,-1.58332e-01,8.68252e-03,-3.34194e-02,2.70201e-03,6.46282e-01,3.91488e-01,-4.40946e-01,2.31966e-01,1.41409e-02,-2.43794e-01,-1.36425e-01,-3.67925e-02,2.61392e-01,-3.87986e-02,9.52734e-03,1.90010e-01,-1.06730e+00,5.74329e-01,2.03723e-01,2.31504e-01,1.34930e-01,-1.98544e-02,9.10067e-02,-2.26277e-02,4.83919e-01,1.33190e-02,2.19933e-01,3.18307e-01,3.96546e-02,7.52515e-02,-1.00341e-01,-1.32399e-01,1.59531e-01,
1.28477e-02,-3.58798e-01,-4.54719e-01,5.93647e-02,1.44972e-01,-1.30695e-01,-8.50428e-01,-1.99011e-01,1.14981e+00,2.32904e-01,-7.34884e-02,8.69744e-01,6.14037e-01,-3.60056e-02,1.14281e-01,-5.33877e-01,1.75564e-01,-8.95378e-01,-3.15189e-02,-3.93972e-04,3.70779e-01,3.33234e-01,6.53175e-01,-5.86974e-02,1.37114e-01,3.69768e-03,-4.27709e-01,-2.49628e-01,3.67449e-02,2.69144e-01,8.90953e-03,3.90930e-02,2.29344e-01,-5.46818e-01,4.63182e-01,4.73714e-01,-3.48167e-01,9.86506e-02,2.66422e-02,-7.99389e-01,-8.86982e-03,2.24183e-01,-5.33589e-03,-4.58653e-02,3.19967e-01,-6.22309e-03,-1.14598e-01,1.18645e-01,-3.61474e-01,3.72931e-01,
3.59632e-02,1.16253e-01,-3.18228e-01,-2.45501e-01,-7.68509e-01,2.65559e-01,1.04535e-03,-3.06298e-01,-2.85447e-01,1.99629e-01,-1.18552e-01,-3.54303e-01,2.90213e-02,-1.21448e-02,3.40116e-01,-1.37855e-01,3.97032e-01,-3.69336e-01,8.15100e-03,1.21451e-02,-4.87380e-01,3.37296e-01,1.00177e+00,5.08628e-01,-1.08584e-02,-1.81159e-02,2.63685e-01,4.28290e-01,-7.87401e-02,-2.04582e-01,1.30479e-02,3.94687e-03,-8.07809e-02,7.69164e-02,1.29237e-01,7.92452e-02,3.67552e-01,-7.40303e-01,9.42210e-03,5.25335e-01,-3.25554e-03,-8.02015e-02,-4.08319e-02,2.62270e-01,4.85042e-01,-4.40963e-02,7.85237e-01,-2.11314e-01,-9.47630e-02,5.81870e-01,
-2.10783e-02,-1.84379e-01,-5.56727e-02,-2.48398e-01,-3.12634e-01,3.07804e-01,-2.84952e-01,-1.59449e-01,1.69820e-01,2.58446e-01,-2.24979e-01,-3.62722e-01,2.01220e-01,4.26704e-02,6.00267e-02,-1.11827e-02,1.43386e-01,-5.21048e-01,4.55244e-02,-2.06821e-02,-2.30736e-01,-8.07837e-02,3.15248e-01,-2.90935e-01,2.17324e-01,1.12137e-02,-3.20010e-01,2.58702e-01,-6.81189e-02,1.16716e-01,-4.31761e-03,3.20906e-02,2.12766e-01,2.09133e-01,-1.09559e-01,-3.23980e-02,-6.88767e-03,-3.91663e-01,2.65700e-02,-7.16025e-02,2.50589e-02,3.74440e-01,4.49630e-03,-9.48384e-03,1.41568e-01,-3.18794e-02,-1.01162e+00,-1.95227e-01,2.80749e-03,4.93397e-01,
2.87255e-02,-7.51206e-01,-6.17098e-01,-9.06253e-01,3.72992e-01,-1.79244e-01,-3.69124e-01,-1.02473e-01,8.87727e-02,-3.81571e-01,7.18384e-03,2.44755e-01,-1.11820e-01,2.24721e-02,1.50922e-02,7.03549e-01,-1.13996e-01,1.02338e-01,-4.49616e-02,6.61678e-03,-7.96634e-02,1.90477e-01,-3.70871e-03,8.06003e-03,-8.02202e-01,-8.94322e-03,3.43924e-01,-1.24453e+00,-2.35417e-01,-8.87324e-02,3.60206e-02,-3.72250e-02,6.78116e-01,5.54424e-01,1.70945e-01,-5.13439e-01,1.95169e-01,2.17605e-01,4.09163e-02,9.45622e-02,5.44763e-03,-3.93825e-01,-1.37425e-02,-2.22077e-02,-2.63389e-01,3.21423e-02,-9.81863e-02,3.98430e-02,-1.46457e-02,-6.27673e-01,
4.72006e-02,-2.10775e-02,2.73580e-02,-6.26985e-03,1.09403e-02,-6.56435e-02,-3.94616e-02,-2.97206e-02,-1.51404e-02,3.19569e-03,-2.94797e-02,-2.65749e-02,-4.04150e-02,-2.86527e-02,-3.28251e-02,-6.62371e-02,-2.34955e-02,9.94467e-03,2.69333e-02,3.77438e-02,-6.91371e-03,-1.21728e-02,-2.90089e-02,-4.22879e-02,4.25750e-03,-4.02732e-02,-4.56670e-02,-1.78842e-02,-5.86543e-02,-2.44551e-02,4.44671e-02,-8.33129e-03,2.71937e-02,4.28038e-02,-2.09318e-02,3.10334e-02,-2.71716e-02,-5.14195e-02,-2.16973e-02,-1.18519e-02,-4.73804e-02,-2.02649e-02,2.34005e-02,-4.54517e-02,-4.61593e-02,-3.93776e-02,5.10040e-03,-3.94244e-02,-3.98068e-02,1.51370e-02,
-1.65534e-02,6.86936e-01,-1.59917e-01,-1.37587e-01,-2.85997e-01,-6.24419e-01,-8.09689e-01,-1.78069e-01,1.95186e-01,3.23755e-01,-7.01098e-02,5.82860e-01,-5.97277e-01,-8.95011e-03,6.76538e-01,-7.30271e-03,1.68448e-01,-3.24496e-01,2.29601e-02,5.47253e-02,-9.02182e-02,-3.38304e-01,-7.76198e-02,-4.74996e-02,5.05020e-01,-1.78599e-02,-5.48183e-02,1.20528e+00,-5.20949e-01,4.73089e-01,9.37191e-04,2.69605e-02,1.39008e-01,2.42798e-01,-3.12240e-01,-1.36972e-01,1.07381e-01,-3.13462e-01,3.68353e-02,-1.37257e-01,1.57405e-02,9.84042e-01,-3.22914e-03,1.86379e-01,6.14334e-01,-3.59622e-02,6.02220e-01,4.63286e-01,-7.92214e-01,-9.39860e-02,
-2.84544e-02,-4.51130e-01,1.17397e-01,5.41443e-01,2.37617e-01,-5.20713e-01,2.48398e-01,6.45162e-02,2.37141e-02,-5.93225e-02,-2.25874e-01,1.37069e+00,4.68979e-01,1.57040e-02,-3.59076e-01,1.77290e-01,-1.90122e-01,2.82540e-01,-4.14209e-02,-5.52005e-02,2.70305e-01,1.76881e-01,-5.69672e-01,3.20356e-01,-5.18430e-01,3.60249e-02,-5.80443e-02,-4.39901e-01,-5.91982e-01,1.55143e-01,3.21681e-03,2.43137e-02,-6.74740e-02,2.32040e-03,9.21572e-02,-1.76654e-01,-8.14798e-02,-3.50632e-01,4.91631e-02,-7.43522e-02,1.83664e-03,-2.49319e-01,-3.01649e-03,-1.80477e-01,-1.39152e-01,2.94495e-03,-2.39024e-01,-4.23063e-01,-5.32824e-01,-2.18842e-01,
1.42535e-02,-6.14061e-01,2.83167e-01,-4.06685e-01,1.82009e-01,-7.56635e-01,7.10377e-01,4.61935e-01,-1.72022e-02,3.78782e-01,3.67742e-01,1.05063e+00,-4.03380e-02,-2.64081e-02,6.75197e-02,5.52835e-01,-2.53015e-01,1.88852e-01,-2.31089e-02,-3.25865e-02,1.44987e-02,-3.31546e-02,5.44646e-01,-4.82655e-02,2.11629e-01,2.35030e-02,-3.11780e-01,3.62662e-01,-2.82550e-01,-1.82318e-01,3.64117e-02,2.20188e-02,-1.91001e-01,-3.08397e-01,-3.06299e-02,-2.17048e-01,3.37569e-01,-1.29648e+00,-9.38821e-03,2.54524e-01,2.30573e-02,1.89575e-01,-3.52344e-02,3.50499e-01,1.70412e-03,1.93745e-02,-5.56882e-02,2.22422e-01,-1.08057e+00,6.51013e-03,
1.83010e-02,-2.53921e-01,-1.61360e-01,2.08188e-01,1.40977e-01,9.24606e-02,8.04673e-02,-3.09875e-01,1.57209e-01,-1.56720e-01,-3.47482e-01,4.51854e-01,-2.22139e-01,-2.13483e-02,-4.86991e-01,-1.46262e-01,-1.09261e-01,7.55847e-02,1.37119e-02,-1.84065e-02,-2.40137e-02,-8.88529e-02,-5.88950e-02,-9.90941e-02,3.25259e-01,4.78343e-02,6.33348e-02,-5.13025e-01,-1.10329e-01,2.08856e-01,2.90271e-02,-3.34879e-02,2.15237e-01,1.49885e-01,1.81583e-01,1.01043e-01,1.07487e+00,-1.67009e-01,1.90209e-02,-5.99920e-02,-1.61629e-02,3.26641e-01,5.09298e-02,-1.15544e-01,5.07773e-01,2.85879e-02,-1.56872e-01,1.16188e-01,-3.42283e-01,3.38579e-01,
-3.45179e-02,8.97686e-02,-1.62413e-01,4.33770e-01,-4.18334e-02,2.11696e-02,-3.08804e-01,-2.15762e-01,8.46802e-02,-3.23171e-01,-2.14323e-01,-3.00154e-01,8.05625e-02,4.35511e-03,-3.26326e-01,-6.74770e-02,-2.22816e-01,-1.02049e-01,4.04846e-02,-2.60843e-03,5.84041e-01,-1.66563e-01,-5.14911e-03,-2.88881e-01,-5.14106e-01,6.17423e-03,-1.22250e-02,1.11199e-01,-3.27845e-05,1.57838e-01,2.04367e-02,2.32856e-02,-1.34904e-01,-4.75068e-01,2.00913e-01,1.99628e-01,2.38604e-01,-1.68872e-01,-2.44348e-02,-1.88949e-01,2.56935e-02,1.71057e-01,-7.18868e-03,3.01357e-01,2.06075e-01,-1.35936e-02,-4.73933e-01,3.49060e-01,4.66780e-02,-9.51663e-01,
-2.39505e-02,2.94093e-01,1.04998e-01,3.19559e-01,2.13361e-01,-3.00254e-01,4.30715e-01,-3.03168e-01,-1.41476e+00,-3.72967e-02,3.70302e-01,2.94268e-01,-4.88507e-01,4.28270e-02,-5.60460e-01,5.18829e-02,-4.51566e-01,-2.54087e-01,1.41844e-02,3.56363e-02,3.08889e-02,2.48877e-01,-1.87374e-01,-8.32241e-01,2.94299e-01,-4.61198e-02,-5.37955e-01,-3.45482e-01,-6.45597e-01,-1.41991e-01,3.50661e-02,1.84154e-02,-1.25424e-01,1.29929e-01,5.52521e-01,3.33231e-02,-3.86604e-01,-1.07380e-01,3.43333e-02,-4.19975e-01,1.07509e-02,-2.90901e-02,1.36474e-02,-3.10263e-01,1.19639e-01,-8.92562e-03,-3.31591e-01,-8.56683e-03,-2.52883e-01,-4.15030e-01,
-1.86826e-02,9.08949e-02,-8.77771e-02,-1.57102e+00,-5.94452e-01,-5.39547e-01,-1.08980e-01,-3.93551e-01,3.88257e-01,-1.29726e-01,3.72153e-01,1.54671e+00,-7.01141e-01,4.59301e-02,5.36348e-01,-9.01804e-01,3.32785e-01,-4.23805e-01,6.15808e-03,5.18739e-02,-6.70957e-02,-1.73815e-01,3.99178e-01,-2.95764e-02,-1.55244e-01,2.85020e-02,-4.75903e-02,-1.92034e-01,-7.26010e-01,8.46452e-02,9.82214e-04,9.23020e-03,-2.44152e-01,3.46414e-01,-7.80975e-01,-3.02298e-02,2.27410e-01,-1.11665e-01,-1.55262e-02,-9.62064e-01,-1.72286e-02,2.01696e-01,2.01064e-02,-1.30183e-01,5.75537e-01,2.98597e-02,1.42285e+00,7.46275e-01,-5.19108e-01,1.01834e+00,
4.28412e-02,5.47873e-01,-2.50259e-01,-7.30849e-01,-5.45673e-02,-6.45279e-01,-6.53182e-01,3.72141e-03,-4.47495e-01,-4.46754e-01,-2.37396e-01,-1.03372e+00,1.72773e-01,-3.36936e-02,-8.26316e-01,-1.04893e-01,-1.95337e-01,6.47346e-01,-1.49268e-03,-2.60035e-02,9.49351e-02,4.75740e-01,5.28782e-02,-2.19011e+00,5.16182e-01,-1.70738e-02,2.99287e-01,2.71578e-02,3.21142e-01,-7.19912e-01,7.43471e-03,-1.64877e-02,-6.01816e-01,5.59835e-02,2.75613e-03,-2.84921e-01,1.02421e-01,2.08067e-01,-5.32233e-02,-3.24460e-01,2.21067e-02,2.50410e-01,1.23686e-02,-1.27327e-01,-3.27766e-02,3.10684e-02,-5.57527e-01,5.49861e-01,8.50834e-01,-2.76759e+00,
3.61926e-02,4.01721e-01,3.36691e-01,1.42266e-02,-3.39803e-01,-4.10003e-01,6.08497e-01,5.66260e-01,-2.03103e-01,1.66411e-01,5.16399e-01,-1.15388e+00,-4.73086e-01,3.53220e-02,-3.46536e-01,-1.71077e-01,8.35577e-02,-1.23554e+00,2.61305e-02,-4.53158e-02,-3.37602e-01,-1.18624e-01,-5.98626e-01,1.33413e-01,-6.66126e-01,-2.73007e-02,3.23155e-01,7.78866e-02,-6.58344e-02,2.91962e-02,-1.45540e-02,2.41346e-02,-1.87090e-02,3.45123e-01,3.56358e-01,4.99324e-01,1.50713e-02,1.21268e+00,-2.68585e-02,1.08781e+00,-1.28795e-02,-6.59919e-01,-7.32053e-03,2.36300e-01,-1.21951e+00,4.70334e-02,-2.08131e-01,2.78066e-01,-6.02283e-02,-1.12657e+00,
1.35035e-02,3.11922e-01,1.69353e-01,-2.83390e-01,-5.26164e-01,-6.00855e-01,2.51884e-01,-5.26836e-01,-4.83737e-01,3.49877e-01,-5.22979e-01,1.35499e+00,-2.82946e-01,3.96161e-02,3.73458e-02,6.43226e-01,4.56695e-01,3.79819e-01,4.37746e-02,-3.33920e-02,-9.10303e-01,2.07663e-01,-9.73263e-01,1.00327e-01,-3.11354e-01,-1.66788e-02,-4.24947e-01,2.42875e-01,-5.76536e-01,1.93027e-01,-2.94579e-02,1.71966e-02,2.01909e-01,4.06664e-01,3.97677e-01,3.87912e-01,7.09023e-02,-2.27948e-01,-5.42568e-03,1.23797e-01,2.64331e-02,-2.63186e-01,-4.27858e-02,-1.88345e-01,8.33705e-01,-4.10569e-02,-3.67594e-01,3.37778e-01,-3.02067e-01,-1.04042e+00,
5.05090e-03,-1.25605e-01,1.87778e-02,1.92442e-01,9.32751e-02,-1.94849e-01,-4.12296e-02,2.20576e-02,6.22108e-01,-1.67802e-01,-8.18167e-02,1.05119e-01,-1.13484e-01,-2.33251e-02,5.48460e-02,-2.87078e-01,9.67016e-03,-1.04786e+00,3.14194e-02,-1.61250e-02,6.16560e-02,2.47706e-01,-2.63022e-01,2.04174e-01,1.63782e-01,-5.40290e-03,-1.69888e-03,-1.06722e-01,-3.56371e-01,1.36732e-01,4.32753e-02,3.04245e-02,5.65104e-01,-3.20341e-01,-2.44176e-02,2.03505e-01,1.30264e+00,-4.75973e-01,1.96849e-02,-3.12205e-01,3.13871e-02,9.98952e-02,1.80104e-02,9.58847e-02,3.49485e-01,3.59414e-02,-1.33460e-01,-1.03220e-01,-5.90653e-01,-1.06439e-02,
6.95752e-03,8.33823e-02,-2.04732e-01,-5.83056e-01,-1.45758e-02,-5.46488e-02,-1.11436e-01,-2.37034e-01,-1.43678e-01,1.12931e-01,2.48073e-01,-1.18536e-01,-2.64042e-01,-4.11703e-02,-2.89588e-01,-8.12629e-01,1.69187e-01,-1.35807e-01,-4.24186e-02,-3.56646e-02,-1.61660e-01,1.85874e-03,3.85141e-01,-3.10092e-01,-4.16747e-02,-2.55983e-02,-2.43783e-01,2.52746e-01,4.92681e-02,2.06099e-01,3.98651e-02,5.25243e-03,9.39753e-02,-6.51295e-02,-1.34911e-01,3.82241e-03,6.88126e-02,2.42392e-03,8.71334e-04,7.50492e-03,-3.51993e-02,-1.00426e-01,3.75043e-02,-1.16046e-01,6.74433e-02,1.87147e-02,5.64743e-01,7.93915e-02,4.21085e-02,4.04686e-01,
-3.78716e-02,3.32487e-01,-6.78821e-02,3.68220e-01,-9.05564e-01,-2.85377e-01,2.18789e-01,1.33420e+00,1.44464e+00,1.00031e-01,-2.17198e-01,-9.45518e-01,-9.51985e-01,-3.11748e-02,3.93708e-01,-1.30819e-01,-2.03123e-01,-7.80586e-02,-4.29481e-02,2.23231e-02,-7.60099e-01,-8.42648e-01,-2.19145e-01,7.29580e-02,-9.67513e-01,3.96177e-02,1.28794e-01,3.47927e-01,-1.30534e+00,-2.56537e-01,8.00264e-03,-4.02369e-03,-6.29190e-01,-1.43200e-01,3.62199e-01,-2.00842e-02,-8.35543e-02,-5.39078e-01,-1.08560e-02,-3.10481e-01,-2.03491e-02,1.24165e+00,-1.75757e-02,8.15513e-01,1.58105e-01,3.66939e-02,-6.13885e-01,1.29512e+00,-9.01274e-02,-4.43792e-01,
4.18531e-02,1.27946e-02,1.34315e-02,-4.45762e-02,3.25211e-02,-5.81046e-02,2.75842e-02,-4.08114e-02,3.54297e-02,-1.68223e-02,-4.29236e-02,-3.17817e-02,-2.68012e-04,4.99249e-02,-4.36667e-02,-2.76784e-02,-2.02491e-02,2.91972e-02,3.98563e-03,1.99390e-03,2.45619e-03,-2.01904e-02,-6.69832e-02,2.75729e-02,-4.70613e-02,-2.47648e-02,-1.59615e-02,3.39546e-02,-4.07961e-02,3.18050e-02,2.67688e-02,1.71054e-02,-1.04412e-02,-1.98299e-03,-1.93089e-02,-2.72002e-02,-1.73720e-02,-1.91276e-03,-3.21613e-02,2.41315e-02,9.28700e-03,7.62415e-03,1.12803e-02,-2.43605e-02,-2.80808e-02,3.89080e-02,-3.94519e-03,-3.26964e-02,-1.56121e-02,-3.26795e-02,
3.79718e-03,4.70147e-01,-2.60918e-02,-1.41630e-01,4.67811e-02,-1.43939e-02,-6.15346e-01,-2.42009e-01,1.18944e-01,-3.15062e-01,-4.01192e-01,1.33038e+00,-2.79978e-01,1.17133e-02,-2.61333e-02,-8.26304e-02,-1.63161e-01,5.57489e-01,2.27688e-02,2.17303e-02,5.51074e-01,-9.57626e-02,-1.59999e-01,-3.58673e-01,2.53029e-01,-1.41097e-02,9.59846e-02,-8.27561e-01,-5.86803e-01,-4.26174e-01,3.90993e-02,2.19418e-02,-1.19957e+00,-3.58960e-02,-7.12944e-02,2.20590e-01,6.99383e-02,2.08859e-02,1.73206e-02,2.97312e-01,-4.99812e-02,-4.23724e-02,-1.48642e-02,-6.41459e-01,-3.84693e-01,3.93254e-02,6.38470e-01,4.80686e-01,-2.28113e-01,2.94804e-01,
-4.77329e-02,-8.54302e-03,-2.10636e-02,-3.36733e-02,1.66466e-02,-5.03934e-02,-3.32903e-02,1.87046e-02,-6.33979e-02,3.28137e-02,1.35171e-02,-1.79755e-02,2.18610e-02,2.80167e-02,6.50567e-03,-2.23575e-02,-1.43793e-02,-7.54665e-03,-2.50874e-04,4.36804e-02,-4.61149e-02,2.58642e-02,-2.98319e-02,2.68160e-02,-5.41459e-02,-4.15447e-02,-3.12132e-02,-3.48486e-02,-8.29615e-03,8.84221e-03,-2.04312e-02,-4.70548e-03,-4.00015e-02,-1.83472e-02,-2.38100e-02,2.04328e-02,-2.50805e-02,-5.99155e-02,1.65123e-02,-1.74846e-02,1.14511e-02,8.10351e-03,2.77775e-02,-4.74079e-02,3.32666e-03,1.20967e-02,2.54952e-02,-6.62779e-03,1.12296e-03,-4.79298e-02,
-1.25475e-02,1.57206e-01,-3.43802e-01,-1.98921e-01,-1.63697e-01,4.18476e-01,-4.56043e-01,-1.41204e-01,2.29378e-01,-9.45247e-01,-6.81841e-01,-1.07757e+00,-4.31510e-02,1.01855e-02,-1.93950e-01,5.39551e-01,-4.71376e-01,4.23919e-02,-2.92632e-02,-1.60935e-02,1.07432e-01,8.96801e-02,-7.49231e-01,-1.89661e-01,-2.17727e-01,-2.33922e-02,2.88141e-01,1.11288e-01,-4.91773e-01,2.14535e-01,2.60784e-02,3.92238e-03,5.24744e-01,2.60288e-01,1.47632e-01,-3.71046e-01,1.34115e-01,-4.73319e-01,1.61993e-02,1.14528e-01,3.17133e-02,-1.88602e-01,-4.63344e-03,-4.31471e-01,-8.30947e-01,3.29062e-02,2.72318e-01,7.58871e-01,-1.75504e-01,-4.87371e-01,
-4.53899e-02,1.95217e-02,-7.30701e-01,-2.84808e-01,2.45771e-01,1.66930e-01,8.08095e-01,1.33304e-01,4.64405e-01,-1.24093e+00,-1.71713e-01,-9.74783e-01,1.94786e-01,-1.78747e-02,1.10891e-01,-2.92378e-01,6.47055e-01,6.57409e-01,-8.28338e-03,-1.93722e-02,-4.44196e-01,-5.85056e-01,1.95872e-01,1.68959e-01,-4.65191e-01,-2.80986e-02,5.47792e-01,2.53971e-01,-3.61036e-01,1.21614e-01,8.06341e-03,4.75556e-02,-1.96501e-01,-2.18438e-01,1.64888e-01,3.77760e-01,-5.66250e-01,-2.60884e+00,-2.92615e-02,4.01515e-01,-4.91913e-02,4.59974e-01,-2.93555e-02,-7.29286e-02,-5.01506e-01,3.11565e-02,1.37792e-01,2.57595e-01,-4.08003e-01,-1.19849e-01,
3.18593e-03,2.78706e-01,8.70422e-02,-4.99718e-01,-4.44434e-01,3.73404e-01,1.65091e-02,-2.78029e-01,1.91308e-01,-5.38282e-01,-5.55453e-01,-2.66921e-01,-4.46093e-01,-1.68004e-02,1.86551e-01,4.75346e-01,4.98147e-01,-6.75200e-02,-1.49038e-02,-4.53450e-02,1.26995e-01,-1.71368e-01,-3.33775e-03,7.73017e-02,-1.06323e-01,1.74078e-02,4.99091e-01,-2.25884e-01,9.53920e-02,2.81787e-02,2.89450e-02,1.64016e-02,7.81930e-01,5.88966e-01,-1.41940e-01,-3.36384e-01,3.36929e-01,-2.37641e-02,-4.02340e-02,-6.21901e-02,2.52521e-02,5.05267e-01,5.29761e-02,1.38192e-01,8.51789e-01,-4.59478e-02,-7.01865e-03,1.98801e-01,-6.57965e-01,-3.49300e-02,
2.08837e-02,2.72235e-01,8.02359e-02,2.83569e-01,3.53770e-01,8.54091e-02,9.03071e-01,-6.67995e-01,7.50418e-01,3.27002e-01,2.02323e-01,-3.78369e-01,-3.84306e-01,-8.29956e-03,-1.37589e-01,-3.49071e-01,4.34802e-01,-2.40721e-01,-6.77424e-04,1.10757e-02,6.52304e-01,1.20567e-01,2.59436e-01,6.76303e-01,-6.70191e-01,-1.69804e-02,-6.11327e-03,9.07883e-01,6.22977e-01,5.20074e-01,5.88890e-04,3.10436e-02,3.40035e-01,3.00950e-01,-2.92198e-01,-1.38382e-01,-1.04358e-02,6.06363e-01,4.11583e-02,-8.04049e-01,3.85907e-02,-9.17441e-01,-4.20564e-02,3.86458e-02,3.56379e-01,-1.07300e-02,-4.65541e-01,4.33611e-01,-1.15288e+00,3.36951e-02,
-1.61224e-02,-7.57481e-01,-1.20012e-01,-4.02381e-01,-3.32082e-01,-5.17142e-02,1.51114e-01,5.36223e-02,3.19032e-01,-1.64905e-01,2.66911e-02,-1.02648e-01,5.02189e-03,2.23395e-03,1.35521e-01,2.76759e-01,1.18966e-01,-1.16634e-01,-4.51965e-02,4.89823e-02,-3.94133e-01,-2.92633e-02,1.76610e-01,4.93821e-02,-4.09949e-01,7.91821e-03,-1.44369e-01,-4.02339e-01,-6.43992e-02,-3.86209e-01,-4.60763e-02,-1.52882e-02,1.88225e-01,6.77462e-04,-1.03929e-01,-5.60346e-02,5.72079e-03,1.81260e-01,-2.02093e-02,-2.82703e-01,-3.75231e-02,-2.29331e-01,-2.20714e-02,-2.05114e-01,-5.45104e-01,1.21600e-02,-7.27551e-01,-6.75739e-02,5.08056e-02,1.60437e-02,
4.66972e-02,-1.35534e-01,-9.26477e-01,7.55261e-01,-3.74146e-01,-9.53197e-01,7.22116e-02,6.68906e-01,7.40887e-01,3.20093e-01,1.00225e+00,5.69802e-01,1.15518e+00,3.58206e-02,-5.83965e-01,-9.71365e-02,1.15162e+00,-4.39813e+00,-4.65905e-03,-2.95265e-02,-9.31152e-01,3.89178e-01,2.26186e-02,-8.94583e-01,8.80782e-01,1.73076e-02,4.97157e-01,-1.34060e-01,7.40307e-01,4.99624e-02,2.13769e-02,1.06501e-03,-7.41878e-01,1.60197e-01,-3.66991e-02,-2.61275e-01,-1.06718e+00,1.89874e+00,2.10802e-02,2.70320e-01,-4.22251e-02,-2.36777e+00,3.92841e-02,4.20523e-01,-4.52485e-02,-3.60049e-02,1.15358e+00,-4.16043e-01,4.05233e-01,-8.68091e-01,
-1.83385e-02,-2.04149e-01,6.29234e-02,6.60082e-01,5.61649e-01,5.13419e-02,4.25195e-01,1.58568e-01,2.36234e-01,2.69925e-01,-1.73706e-01,1.96274e-01,-1.75585e-01,2.23615e-02,-1.03089e-01,5.10275e-01,2.77711e-02,3.03967e-01,-4.60417e-02,-4.62276e-02,-2.58987e-01,-5.27851e-02,-8.22155e-01,-7.43608e-01,4.92033e-01,-1.69967e-02,-1.39124e+00,-3.52962e-01,-9.23662e-01,3.63574e-01,-4.18832e-02,3.04880e-02,-5.16466e-01,8.73195e-02,5.89876e-02,-2.26280e-01,-9.69616e-02,-1.61515e-01,1.09976e-02,6.12490e-01,2.25514e-02,-3.79398e-01,4.45942e-02,1.92510e-01,5.50411e-01,4.77716e-02,1.11791e+00,3.75766e-01,-2.56823e-01,-2.11426e-02,
-1.10932e-02,-5.53540e-01,-1.87705e-01,1.17095e-01,1.54566e-01,5.29811e-01,-3.09620e-01,-3.89653e-01,-3.33319e-01,3.83811e-01,4.33156e-01,6.92863e-01,-5.80335e-01,1.23528e-02,3.03357e-01,-3.75161e-01,-1.04631e-01,-1.04274e-01,-4.65037e-02,-2.80074e-02,3.91540e-01,1.10789e-01,9.32442e-02,5.87921e-01,4.41158e-01,3.47984e-02,2.59387e-01,3.96567e-01,-3.76323e-01,-2.09187e-02,1.55640e-02,3.56981e-02,4.24521e-01,5.86446e-01,1.17312e-01,-3.20842e-01,-2.11487e-01,-7.61256e-01,-3.41987e-02,-4.16367e-01,-9.88599e-03,4.22791e-01,-3.09820e-02,3.42200e-01,8.40918e-01,4.84217e-02,-8.55944e-02,-1.27960e-01,8.61318e-02,-3.43407e-02,
-2.99686e-01,
-2.57513e-03,
-3.12812e-01,
-1.66993e-02,
4.39914e-01,
-3.74370e-02,
-3.26448e-01,
-1.95486e-01,
5.69669e-02,
-5.01916e-01,
-3.73766e-01,
8.52017e-02,
2.74336e-01,
-2.10739e-01,
-1.07462e-02,
2.32523e-01,
-4.25631e-01,
5.96546e-02,
-4.74075e-02,
2.36563e-01,
-2.00222e-01,
-2.64787e-01,
-3.64529e-02,
1.88611e-02,
-1.02708e-01,
-7.95707e-03,
3.34384e-01,
3.57792e-01,
2.34438e-01,
-2.30158e-01,
1.04600e-01,
3.75183e-01,
-6.59578e-02,
-1.13170e-01,
-4.50768e-02,
-7.65553e-02,
1.45857e-01,
1.87856e-01,
-1.55105e-02,
-1.93419e-02,
2.27651e-01,
-1.28275e-02,
2.15523e-01,
-2.23015e-01,
8.00240e-02,
8.10436e-03,
3.02148e-01,
-3.64743e-01,
-2.72953e-01,
7.77072e-02,
8.42495e-01,4.27230e-01,1.03180e+00,5.25571e-01,9.58661e-02,6.76523e-02,-1.55270e-01,1.67390e-01,-6.15961e-01,2.80113e-01,9.20784e-01,1.54462e-02,-1.05537e-01,-4.06026e-01,1.86012e-03,5.05263e-02,1.13006e+00,-7.63606e-02,-1.89240e-01,3.43387e-01,-2.76701e-02,9.68275e-02,-4.66169e-01,9.61183e-01,3.69717e-01,2.33595e-02,-2.60967e-01,1.15336e-01,2.03140e-02,-1.90252e-01,-1.47406e-01,2.62463e-01,4.75676e-01,5.01615e-01,-4.33631e-01,7.08597e-01,-2.44726e-02,9.06912e-03,2.11886e-01,2.66373e-03,6.68375e-02,3.09211e-02,-5.52387e-01,3.83028e-01,5.47505e-02,2.05702e-01,2.33836e-02,-9.70282e-02,-5.76899e-02,-6.00926e-02,
-1.37392e-01,-6.77836e-01,3.12923e-02,2.86284e-02,1.10559e-01,1.25200e-01,-1.83076e-01,7.48877e-02,-1.17003e+00,2.78381e-01,2.16504e-01,-1.75714e+00,-4.47520e-01,1.34448e-01,1.16932e-01,-4.53000e-01,-6.90544e-01,-2.62214e-02,-1.93623e-01,-4.74197e-01,5.50986e-03,-9.69578e-02,3.61970e-01,6.40553e-01,-5.61514e-01,4.35619e-02,2.19867e-01,5.83159e-02,-2.90911e-01,-3.94477e-01,7.34814e-01,5.71149e-01,-1.78729e-01,3.47782e-02,-1.67895e-01,-8.43807e-03,2.79404e-02,5.18014e-01,7.15093e-02,1.60334e-02,1.20092e+00,3.60323e-02,-7.36371e-02,7.62956e-01,-8.56906e-02,4.52975e-03,1.70592e-01,2.50767e-02,-1.39736e-01,4.53947e-01,
-4.59815e-01,-2.45780e-01,-9.43975e-01,5.29372e-01,-5.86895e-02,1.80000e-01,5.99311e-02,-2.21764e-01,6.27433e-01,-2.11741e-01,-6.55838e-01,-2.79141e-02,-1.78882e-01,-1.90221e-02,-4.40081e-01,-1.15533e-03,-1.86304e-01,-5.39221e-02,4.12936e-02,-2.89223e-01,-5.36252e-02,-1.09130e-01,-1.75979e-01,4.67704e-01,2.92639e-01,8.64191e-03,1.53062e-01,4.75766e-01,3.45084e-01,-5.89481e-01,8.33209e-01,-1.16812e-01,3.07463e-01,3.38969e-02,-5.41831e-01,-1.44799e-01,-3.56844e-01,4.82995e-01,-2.06975e-01,2.38972e-02,1.70818e-01,-5.64763e-03,1.02189e-01,1.51003e-01,2.34540e-01,4.39899e-01,-6.83689e-01,2.52037e-01,-2.21330e-01,-8.83889e-03,
-5.32109e-01,4.31933e-01,-2.23856e+00,-8.17313e-01,-1.00469e-01,2.99227e-01,5.49829e-01,-1.20754e+00,1.21602e+00,-1.50371e-01,6.50811e-01,4.43917e-01,-1.02869e+00,5.63719e-01,1.00698e+00,-1.88000e-01,-5.78766e-01,-2.43190e-01,-1.01048e-01,1.39007e+00,1.96575e-01,-1.70133e+00,-8.39114e-02,4.45730e-01,-2.26978e+00,-4.96193e-02,2.03645e-01,4.55516e-01,6.35286e-01,-1.25803e-01,7.03474e-01,2.55471e-01,-3.14539e+00,-4.37946e-01,1.39765e-01,-2.09531e-01,-4.82061e-01,4.95870e-01,-1.57174e-02,-9.92110e-03,7.11769e-01,-4.33613e-02,4.37468e-01,1.18222e+00,5.62786e-01,2.57705e-02,9.66307e-01,-1.67408e-01,9.91388e-02,2.50980e-01,
3.65515e-02,-5.08774e-01,2.11916e-01,1.25844e-01,1.83327e-02,-1.03349e+00,-9.59955e-01,1.05580e-01,7.48870e-02,2.94614e-02,1.17585e+00,2.39712e-02,-2.41242e-01,7.54902e-01,4.10233e-01,7.14015e-02,-7.98412e-01,2.39319e-01,-1.40650e-01,-7.23121e-02,-3.25428e-01,8.28124e-01,3.80752e-02,7.15205e-01,-2.19289e-01,-1.97649e-03,2.17554e-01,2.16742e-01,2.87467e-01,1.34465e-01,-8.54838e-02,-3.63415e-01,3.21843e-01,8.12059e-01,2.96422e-01,6.57640e-01,-2.26270e-01,6.39461e-01,-1.64649e-01,-4.53632e-02,-1.67771e-01,-2.89088e-02,2.78948e-01,3.36110e-02,-6.61872e-02,-2.70153e-01,1.07329e+00,-6.07337e-01,-1.44173e-01,-1.78268e-01,
1.19983e+00,5.37195e-01,1.03711e+00,1.41455e-01,1.35104e-01,-2.13345e-01,-6.20694e-01,-1.24619e-01,-3.22820e-01,1.20165e-02,-1.46023e+00,6.93266e-01,-3.36341e-01,5.33474e-01,1.56523e-01,-1.21713e-01,2.35468e-01,1.95981e-02,-1.07383e-01,-6.65405e-02,7.42158e-01,6.60779e-01,-7.03703e-01,5.98745e-01,2.59553e-01,6.00697e-02,-2.79040e-01,6.48769e-01,3.50426e-01,-5.56012e-01,6.76682e-01,5.53487e-01,-3.13922e-01,-6.37157e-02,-1.78303e-01,6.34634e-01,-1.17823e+00,1.16019e+00,-1.71777e-01,4.31422e-02,-7.04859e-02,1.17361e-02,-2.27309e-01,-1.45033e-01,2.86483e-01,-1.56017e-01,-1.37448e+00,4.10140e-01,2.57603e-01,-4.24676e-01,
4.83469e-02,-1.00348e+00,2.19336e-01,-4.25246e-01,1.08254e-01,6.67259e-01,-1.41805e+00,4.13228e-01,7.25184e-01,-4.42962e-01,5.61457e-01,3.77897e-01,2.37395e-01,-2.45446e-01,1.07697e+00,6.82665e-03,1.06987e+00,2.05918e-02,-8.86324e-01,-1.54716e-01,-1.06310e-01,6.39643e-01,-3.22116e-01,3.96954e-01,6.07673e-01,3.72079e-02,9.79613e-02,8.35113e-01,-9.08074e-02,4.91652e-01,2.58182e-01,5.84028e-01,-4.74283e-01,7.89443e-01,-8.62978e-02,3.72414e-01,-1.68431e-02,1.42841e+00,4.36562e-02,-2.72936e-02,-6.66426e-01,-6.64257e-02,-8.71934e-01,5.39686e-01,-8.52040e-01,-1.34489e-01,7.63755e-01,-9.83581e-02,-6.26585e-01,9.21002e-01,
6.08249e-01,3.06565e-02,5.45697e-01,7.54315e-01,-1.78121e-01,3.41294e-01,-3.37114e-01,4.26275e-01,9.94869e-02,9.14393e-01,-5.75710e-01,9.55258e-02,3.45080e-01,3.03491e-01,-6.60117e-01,4.18711e-01,5.99939e-01,-2.13986e-01,-2.11547e-01,7.05712e-01,6.21982e-02,3.11226e-01,-4.02655e-01,1.21334e+00,-4.41290e-01,-9.51218e-04,2.43121e-01,2.54952e-01,1.54387e-01,-1.18759e+00,-5.68128e-01,4.18079e-01,1.00124e+00,5.44641e-01,-4.83812e-01,-1.68353e-01,-6.23092e-01,2.01578e-01,2.35589e-01,-5.64294e-03,-7.17881e-01,7.42519e-03,1.33550e-01,1.27671e+00,-8.34812e-01,1.52861e-01,2.43810e-01,-3.21813e-01,-3.63936e-01,4.16581e-01,
1.11526e+00,-2.11208e-01,1.02696e-01,7.99053e-02,-7.01048e-01,3.29396e-01,-9.31023e-01,9.92299e-01,-1.10065e+00,-6.47473e-01,-1.37344e-01,1.06377e+00,-4.96417e-01,3.43606e-01,-1.26169e-01,-3.44505e-02,-4.29715e-02,1.51800e-01,1.11102e-01,-1.48396e-02,9.79603e-02,-3.53531e-01,-1.27809e-01,-1.53042e+00,3.70188e-01,4.45004e-02,-2.52730e-02,-2.90218e-01,2.12767e-01,-5.48170e-02,3.72623e-02,1.06279e-01,-8.27725e-01,1.15028e-01,4.26850e-01,-8.31681e-02,4.51933e-01,1.20460e-01,1.07911e-01,-2.95031e-02,7.79542e-01,-4.51170e-02,1.31834e+00,-4.24566e-01,-2.76582e-01,-9.93185e-03,1.10503e+00,-2.30651e-01,2.11448e-01,1.04293e-01,
-2.03786e-01,-4.84536e-02,-7.82604e-01,5.06255e-01,-2.74328e-01,-1.72308e+00,9.42071e-01,-2.25346e+00,-9.51860e-01,-1.70225e+00,7.66149e-01,-1.35498e-02,-2.32813e-01,-3.02983e-01,-5.53998e-01,-6.88893e-02,-4.60224e-01,-4.88728e-02,8.54161e-02,2.46803e-01,-2.90890e-01,-3.05043e-01,5.25585e-01,-5.88414e-01,1.64098e-01,1.78200e-02,-8.94428e-02,1.14722e-02,8.34738e-02,7.33431e-01,-8.62524e-02,-5.45052e-01,-8.67399e-01,4.69184e-01,2.08932e-02,-4.77806e-01,-4.06958e-02,1.05019e+00,-3.19853e-01,-7.63106e-03,1.94825e-01,-2.34426e-02,2.79571e-01,-7.87731e-01,-1.38186e-01,2.31075e-01,1.00335e+00,-1.02679e-01,-3.37091e-01,-8.86336e-03,
-1.20346e-02,-3.78260e-01,4.41792e-01,-2.33674e-01,4.23207e-02,-5.29599e-01,-3.17910e-02,3.96052e-01,-8.63948e-01,9.96638e-02,-1.06804e-01,5.07751e-01,2.42058e-01,-1.47945e-01,1.77967e-01,-1.08763e-01,-4.03153e-01,3.31337e-01,1.83067e-01,2.06032e-01,-3.73886e-01,6.67373e-02,1.36246e-02,-9.30193e-01,9.28733e-01,-1.05755e-02,2.51809e-01,9.44292e-02,3.43182e-02,-5.47969e-02,3.52048e-01,-1.36845e-02,3.73586e-01,7.68973e-01,-1.63547e-01,1.09787e+00,2.42166e-01,-5.05113e-02,5.71674e-02,5.40180e-03,-3.65787e-01,4.60824e-02,-1.04100e+00,-4.49986e-01,-3.46038e-01,-5.00213e-01,3.15257e-01,-8.90035e-02,4.53261e-01,2.90606e-01,
9.06161e-01,2.16096e-01,4.11543e-01,4.56123e-01,-2.14003e-01,3.86929e-01,3.00416e-01,-4.83176e-01,6.55666e-01,-2.89506e-01,-3.23177e-01,-3.21791e-01,-5.13362e-01,3.41684e-02,1.35472e+00,7.11886e-01,7.06151e-01,-4.29461e-01,-5.06394e-01,-4.46291e-01,1.13147e-02,8.50531e-02,-1.44843e-01,-7.71433e-01,3.37406e-02,6.14920e-03,1.91393e-01,-4.99675e-02,1.91510e-01,-1.18458e+00,5.60386e-01,-7.10689e-02,2.98276e-01,4.14999e-01,-2.92145e-01,6.32591e-01,1.82839e-01,3.15003e-02,1.95799e-01,3.75764e-02,-3.59351e-01,-1.84427e-02,-1.12644e-01,5.10180e-02,-1.04439e-01,-2.39110e-01,-1.04799e+00,-5.55512e-01,2.87159e-01,-3.19912e-01,
1.19121e+00,-2.40198e-01,2.93945e-01,7.50839e-02,-4.52145e-01,5.05912e-01,-9.59776e-01,9.73457e-02,6.17183e-01,-8.13584e-01,4.30622e-01,-1.43588e+00,-9.51179e-02,-7.19404e-02,8.64233e-01,1.05048e+00,4.94442e-02,6.75078e-01,-3.91037e-02,-4.70061e-01,-6.35143e-03,-2.37560e-01,-1.53584e-01,-8.26095e-01,3.52854e-01,-1.35618e-02,-9.72497e-02,4.04989e-01,-7.03133e-01,-1.02721e-01,-1.86687e-01,7.81091e-02,-4.31921e-02,3.93774e-01,3.03220e-01,-1.32865e-01,9.70523e-02,1.26460e-01,-1.53841e-02,2.10647e-04,-4.95203e-01,-3.52122e-02,6.98753e-01,1.60068e+00,3.00149e-01,1.38759e-01,-1.28672e-01,-3.33163e-01,-3.57823e-01,7.01154e-02,
-9.73747e-01,3.70423e-01,-9.14748e-01,2.24930e-01,-1.04200e-01,2.84431e-01,-3.94440e-02,-4.44300e-01,1.77053e-01,3.68362e-01,-3.44955e-01,7.02761e-01,2.84843e-01,-7.61174e-01,-5.95429e-01,-2.51690e-01,4.10144e-01,3.01353e-01,6.75748e-02,1.14593e+00,-3.20659e-01,1.42312e-01,1.23522e-03,-1.27201e+00,1.21513e-01,-9.46533e-03,4.81472e-01,-3.45431e-01,8.84309e-01,2.44128e-01,-2.92098e-01,-3.76643e-01,1.73251e-01,3.45508e-01,-2.85257e-01,1.27330e+00,-3.59336e-01,1.73685e-01,-2.30971e-01,-6.58719e-03,-7.85444e-02,-1.45885e-02,-3.44973e-01,-4.58053e-01,1.52724e-01,-4.88831e-01,2.62259e-01,1.91080e-01,1.89418e-01,4.16573e-01,
3.47002e-01,2.90976e-01,3.14351e-02,-1.39553e-01,-7.63800e-01,4.21840e-01,-2.56057e-01,4.35994e-01,-1.01793e+00,1.69487e-01,-2.30723e-01,7.58048e-01,3.36099e-02,9.70459e-01,2.59890e-01,9.14140e-02,7.43800e-01,2.74889e-01,3.73195e-01,7.08329e-01,-2.01669e-01,-3.60649e-01,-4.33692e-01,-9.69258e-01,-7.81057e-01,4.70876e-02,7.13177e-01,-4.16070e-01,2.64518e-01,-1.86430e-01,-5.26792e-01,4.66149e-01,9.55507e-02,8.32241e-01,1.73457e-01,3.53960e-01,3.59063e-01,-5.71046e-01,2.63303e-01,-4.59104e-02,-4.43189e-01,-1.47414e-02,-2.85798e-01,-6.03867e-01,-8.01428e-01,-3.38573e-01,-9.32559e-01,-2.42168e-01,-3.21153e-01,-3.63357e-02,
5.65592e-02,1.82392e-01,2.93407e-01,-2.10758e-01,1.13038e-01,1.66054e-01,1.37644e-02,9.41573e-02,-1.15452e+00,-5.51291e-01,5.58547e-01,8.41261e-01,5.03337e-01,6.14851e-01,1.39252e-02,-3.02769e-02,1.35329e+00,-2.66671e-02,-1.50276e-01,2.85711e-01,-3.35110e-01,7.91163e-02,-3.34929e-02,6.66333e-01,-1.59343e-01,4.23523e-02,1.71107e-01,-1.33078e-01,-1.42860e-01,3.05695e-01,4.18071e-01,2.52715e-02,-4.15928e+00,1.46006e-01,-2.94129e-01,-4.48968e-01,-5.22581e-01,6.42649e-01,-1.97439e-01,2.24274e-02,7.45024e-01,4.32434e-02,-3.26944e-01,3.34386e-01,-3.52515e-01,-3.62911e-01,-2.35673e-01,5.13381e-02,3.47981e-01,-1.62573e-01,
2.35312e-01,-9.73191e-02,-3.26377e-01,5.94681e-02,-4.85394e-01,1.06257e-01,2.24139e-01,-1.44784e-01,2.94297e-01,1.93142e-01,-8.58670e-01,-1.26654e-01,-2.69462e-01,-7.95898e-01,5.10175e-01,4.06802e-03,-1.15344e+00,-3.90578e-02,-1.97570e-01,3.96208e-01,-1.85385e-01,2.34975e-01,5.12861e-02,-1.51526e+00,-1.05659e-01,-2.05921e-02,-3.82055e-01,3.06572e-01,2.74734e-01,2.21214e-01,-6.47924e-02,1.58317e-01,-3.08876e-01,-2.14068e-01,-6.90796e-02,2.70466e-01,2.94257e-01,3.15858e-01,1.57778e-01,-2.24449e-02,3.01106e-01,2.59046e-02,-1.81629e-01,-1.06401e+00,1.07326e-01,-2.49307e-01,5.15291e-02,2.38162e-01,-1.10205e-02,-1.18605e-01,
-1.59823e-01,1.81823e-01,-1.59226e+00,2.78857e-01,5.27955e-02,8.41587e-01,-6.99263e-02,-8.74977e-01,7.28109e-01,6.14952e-01,5.81515e-01,-4.05803e-01,-3.45237e-01,-1.28348e-01,-8.53360e-01,2.95311e-01,-6.44362e-01,-7.69589e-01,-2.22127e-01,-8.82129e-01,9.53539e-02,1.19407e-01,2.62791e-01,1.08832e+00,-7.35417e-01,3.74439e-04,2.34093e-02,6.83867e-02,-4.35254e-01,-2.39570e-01,2.51548e-01,4.06057e-01,-7.64107e-01,-3.91186e-01,4.70061e-01,-1.23264e+00,1.78938e-01,1.26236e-01,-2.58089e-01,2.66428e-02,-6.99858e-03,1.20506e-02,1.06623e+00,-3.06487e-01,7.14561e-02,9.46590e-02,3.26541e-01,1.04517e-01,-1.14329e+00,-7.06412e-02,
4.42722e-01,-1.56740e-01,-7.82971e-01,3.67712e-03,-1.55609e-01,-2.12526e-01,6.04680e-02,-4.95481e-01,-6.93761e-01,2.55166e-01,7.02381e-01,7.39282e-01,-6.05451e-01,6.76664e-01,6.91574e-01,-1.54146e-01,-7.13286e-03,-1.51659e-01,-4.77116e-01,-1.20352e+00,-3.63477e-01,6.50797e-01,3.16914e-01,1.64226e+00,-2.04943e+00,2.94230e-02,-7.23337e-02,-9.13283e-01,1.31922e-01,3.61175e-01,-1.16220e+00,6.58760e-01,-2.52523e+00,-2.82811e-01,5.57361e-01,-3.27568e+00,3.78196e-01,4.16423e-01,1.10869e-01,2.45519e-02,8.26476e-01,1.87932e-02,-3.77652e-01,-1.11868e+00,-7.02821e-01,-2.28320e-01,2.76538e-01,3.17776e-01,-2.00639e-01,-2.56703e-01,
1.06470e+00,-7.31283e-01,6.11121e-01,-1.19318e+00,-4.86662e-01,-2.34388e-01,2.91186e-01,4.57688e-01,3.79326e-01,-9.91922e-01,6.18180e-01,-1.99156e-01,-8.30185e-02,-2.73458e-01,2.75136e-01,6.59436e-01,8.63823e-02,7.04197e-01,5.95667e-01,-2.53826e-01,-2.25440e-01,-3.45966e-01,-2.08558e-01,-9.31956e-02,2.06720e-01,4.95760e-02,-9.51153e-04,-6.39264e-01,-7.03037e-01,1.91077e-01,-1.46692e-01,-4.07162e-01,-1.10514e+00,-2.20946e-01,-7.29124e-02,1.84274e+00,2.72568e-01,1.24808e+00,4.02100e-01,-1.29827e-02,4.04850e-01,-2.09790e-02,-4.50492e-01,-1.43274e-01,1.38383e-03,4.68864e-02,1.03005e+00,-1.34329e-01,-3.14920e-01,2.77852e-01,
4.25925e-01,1.78039e-01,3.14400e-01,-8.45629e-01,-1.58385e-01,-4.01497e-01,-7.67576e-01,-9.93718e-01,-1.10820e-01,-4.27990e-01,3.41975e-03,-9.72751e-01,-1.98784e-01,2.75035e-01,2.33023e-01,1.01727e-01,9.63809e-01,5.77912e-02,-1.55978e-01,-3.30065e-01,2.55769e-01,-3.08550e-01,1.46017e-01,1.28920e+00,-2.46709e-01,-1.35263e-02,-1.90135e-01,6.92125e-01,6.76742e-02,-3.67898e-02,6.75665e-01,-5.57547e-01,3.31661e-01,2.98271e-02,4.01247e-01,3.03876e-01,-3.30051e-01,2.72619e-01,-7.27591e-01,6.93701e-03,8.78432e-03,1.99109e-02,3.52795e-01,4.14756e-01,7.86109e-02,1.85011e-01,-3.16518e-01,-1.29072e-01,1.82651e-01,2.13666e-01,
-8.99207e-01,1.23508e-01,-3.35461e-01,-6.72347e-02,-3.89384e-01,-7.42816e-01,4.93024e-01,1.37976e-01,-3.43227e-01,-5.00653e-02,-5.87461e-01,-3.94852e-01,-4.12819e-01,1.04669e+00,3.34413e-01,1.75364e-01,-1.99171e-01,-2.12099e-01,1.94948e-01,1.24660e-01,-2.47643e-01,1.58748e-01,1.07670e+00,-5.72428e-01,8.31309e-01,4.91166e-02,8.13920e-02,-2.90983e-01,-4.84550e-01,-1.84784e-01,8.97707e-01,4.71936e-01,-3.89584e-01,1.06190e-01,2.34751e-01,8.70704e-01,-6.21636e-01,-1.15594e+00,2.96157e-01,3.50549e-02,1.53706e-01,1.00689e-02,-8.07227e-02,-1.08216e+00,4.36360e-01,-3.12607e-01,6.64247e-01,3.58612e-02,6.01781e-01,4.83409e-01,
2.66575e-02,-5.42039e-01,1.00796e+00,-1.05192e-01,5.39625e-03,-8.20454e-01,2.63016e-01,-9.53974e-02,4.98278e-01,1.44100e-01,-1.68567e-02,7.98695e-01,-3.20839e-02,6.30524e-02,-2.43312e-01,-1.44204e-01,-2.04900e-02,-3.03703e-02,1.67517e-01,2.14536e-01,7.06147e-02,4.73798e-02,-1.16488e-01,6.99640e-01,-1.71481e-01,5.39234e-03,1.30362e-01,-1.52231e-01,1.88071e-01,-2.10126e-01,2.05110e-01,-6.72161e-01,3.60032e-01,-1.81490e-01,1.65133e-01,-2.33993e+00,-3.98523e-01,8.67723e-01,1.23660e-01,3.42200e-02,1.02528e-01,1.03954e-02,-7.62010e-02,-4.82342e-01,2.72491e-01,-3.58883e-01,1.31557e+00,2.29114e-01,-3.31929e-01,-3.48978e-02,
-3.99090e-01,-1.23141e-01,-5.98672e-01,3.53871e-01,-1.71967e-01,-1.58372e-01,-8.92711e-01,2.06258e-01,-1.75703e-02,6.85689e-02,7.58180e-02,1.71831e-02,-1.82820e-01,1.08191e-01,-3.47760e-01,-1.18478e-01,-6.57237e-01,-2.69149e-01,-1.34709e-01,-2.95970e-01,-4.63778e-02,3.98377e-03,4.63161e-01,6.84163e-02,3.59413e-01,4.12226e-02,3.17302e-01,-1.07885e-01,-2.52165e-01,-1.24296e-01,4.73314e-01,-8.63236e-02,-9.67039e-02,2.87614e-01,1.47218e-01,-2.99941e-01,1.50777e-01,8.14966e-02,-2.29158e-02,-1.81842e-02,6.48581e-01,-8.15468e-03,1.04502e-01,4.40344e-02,-1.51213e-01,-9.08020e-02,5.30910e-01,-1.10035e-01,2.80500e-01,5.70818e-03,
-9.23006e-02,-3.05357e-01,7.67691e-01,6.20225e-01,-2.94337e-01,3.02207e-01,-1.92105e+00,6.74071e-01,4.86900e-01,-5.59161e-01,1.15771e+00,-8.91721e-03,6.43402e-01,-3.14054e-01,-7.27166e-02,7.08654e-01,1.35150e-01,1.02734e-01,1.84330e-01,2.05369e-03,5.42216e-01,-7.21154e-01,-1.84174e-01,5.10349e-01,5.00518e-01,-1.59785e-02,4.23646e-01,-4.95799e-01,-1.26226e-01,6.16818e-01,-1.56160e-01,-1.29445e-01,-2.88145e-01,6.02562e-01,-1.89227e-02,7.29238e-02,4.95065e-02,-5.74617e-01,2.18986e-01,7.31873e-03,-4.37997e-02,6.79835e-02,4.88338e-01,1.16797e+00,-1.95318e-01,-5.30127e-03,-1.35932e+00,-2.27961e-01,-1.84764e-01,2.26239e-02,
-1.13484e+00,1.06948e-01,-2.71876e-01,-2.30047e-01,3.58740e-03,1.34287e-01,-1.21783e-01,5.39894e-01,-2.20527e-01,7.74726e-02,1.29054e-01,-9.51044e-02,6.31804e-01,5.21281e-01,-3.18292e-02,-2.01376e-01,3.31538e-01,-3.05521e-02,-2.44922e-01,1.08096e-01,5.12010e-01,2.46096e-01,-5.41403e-02,-1.18733e+00,3.77473e-02,-1.13512e-02,3.05833e-01,-1.36626e-01,9.59405e-02,1.39462e-01,1.95552e-01,2.13823e-01,-2.38990e-01,-1.97024e-01,-1.41917e-01,-1.58229e-01,-4.66705e-02,-7.24130e-02,-9.10052e-02,-3.49911e-02,1.78072e-01,-2.62330e-02,-1.19756e-01,9.70901e-01,2.48411e-01,-1.09120e-01,-3.55910e-01,5.32321e-02,-3.70457e-01,1.88713e-01,
-9.51130e-02,-9.20814e-02,-1.93317e-02,1.43829e+00,2.18624e-01,-2.15974e-01,-6.94880e-01,-4.24472e-02,6.49812e-01,-4.49250e-03,1.16609e+00,2.89609e-01,6.66836e-01,2.20645e-01,-2.58736e-01,2.91266e-01,-1.46526e+00,2.93269e-01,1.17328e-01,5.19129e-01,-3.65424e-01,4.81025e-01,4.62980e-01,4.56903e-01,1.31527e-01,-1.22341e-02,8.48427e-02,-8.83516e-01,-5.32450e-02,-5.71372e-01,-1.21864e+00,2.29651e-01,-1.52798e-01,7.24023e-01,2.46805e-01,5.19143e-01,-1.98331e-01,-1.44634e+00,-5.43006e-02,-5.33386e-02,4.50372e-01,2.34682e-02,-6.05074e-01,-2.23918e+00,-1.51664e-01,1.71031e-01,-1.38082e+00,-3.04478e-01,7.13036e-01,-4.98488e-01,
-8.18441e-01,1.02810e-02,-1.38643e-01,-4.60875e-01,-6.79211e-02,5.96301e-01,-1.38382e+00,4.48125e-01,6.29774e-01,-7.92262e-01,4.37460e-01,-1.25918e+00,-1.11259e-01,6.75139e-01,-9.28480e-01,2.19040e-01,1.65288e+00,-1.84400e-01,-3.73603e-01,6.67209e-01,3.04683e-01,8.14013e-01,4.20538e-01,1.07960e-01,-1.16938e-01,2.29309e-02,-1.60588e-01,7.68362e-01,2.17284e-01,3.82980e-01,-6.90604e-01,-5.99962e-01,-2.30403e-01,-1.15235e+00,-2.69253e-01,-7.82582e-01,-4.85275e-02,-1.20202e-02,2.24026e-01,-1.10794e-02,5.66457e-01,-2.02551e-02,2.58326e-01,-3.18495e-01,6.35018e-01,5.77767e-01,-2.20054e-01,1.58306e-01,-1.47497e-01,1.32532e+00,
6.42675e-01,2.09906e-01,6.14680e-01,3.77323e-01,-2.37439e-01,3.18877e-01,-3.66105e-01,6.41706e-01,3.52791e-02,3.89018e-01,-1.24112e-01,-8.69076e-02,2.12359e-01,-1.33594e-01,-1.56498e-01,4.94482e-01,3.59928e-01,4.17654e-01,1.92902e-01,-3.02436e-01,6.57863e-02,-7.05689e-01,1.50271e-01,5.94622e-02,3.03416e-01,2.84204e-02,-1.59411e-01,-1.36584e-01,2.17738e-02,7.79893e-01,-7.22468e-03,-1.78403e-01,-2.30340e-01,1.39999e-01,2.04339e-02,9.90608e-02,-1.27529e-01,-3.65492e-01,3.21522e-01,1.59594e-02,5.93779e-01,1.99213e-02,5.84434e-01,1.50213e+00,-2.54695e-01,1.06960e-01,-8.49909e-01,-3.56645e-01,-3.22759e-01,7.20672e-01,
4.36090e-01,7.14033e-01,-6.68625e-01,6.43987e-02,-4.07818e-01,1.48461e-01,1.22104e+00,-6.43050e-01,-1.76456e-01,4.15324e-01,1.30780e-01,6.18137e-02,-4.45767e-01,-2.94995e-01,3.80890e-01,2.63372e-01,-3.70270e-01,-2.37127e-01,2.50771e-01,1.23124e+00,-3.98058e-01,4.35995e-01,3.23975e-02,-8.04841e-01,-8.25885e-02,2.91455e-02,-5.04101e-02,2.78103e-01,5.53653e-01,9.29475e-01,-1.11013e+00,-2.79323e-01,-2.61281e+00,5.90734e-01,9.36295e-02,5.10832e-01,-1.98121e-02,2.39279e-01,5.43240e-01,-2.28475e-02,4.22357e-01,5.12079e-03,-9.42708e-01,-8.76860e-01,-6.68516e-01,-1.29266e-01,7.37519e-01,-5.22079e-01,-8.45244e-02,-7.14928e-01,
-1.45434e-01,-9.07838e-02,1.04227e-01,4.05461e-01,2.02741e-02,2.79589e-01,5.47912e-01,3.12194e-02,2.61481e-01,-6.14852e-01,3.39834e-01,3.43998e-02,-1.24971e-01,-1.90108e-01,-8.37926e-02,-1.04602e-01,3.57689e-01,6.16549e-02,-8.23755e-02,1.41636e-01,-3.17463e-02,-1.26235e-01,2.68791e-01,1.08434e+00,1.44127e-01,1.01709e-02,1.05445e-01,-1.92989e-01,-4.07881e-03,-1.23336e-01,2.33900e-01,-2.09959e-01,-8.35603e-01,9.40396e-02,-4.93138e-02,2.37663e-01,1.08903e-01,4.17082e-01,-1.60755e-02,1.58678e-02,-2.02786e-01,4.59585e-02,3.76307e-01,2.81699e-01,-1.20437e-01,-6.91508e-02,-5.97554e-01,-2.14495e-02,-1.41458e-01,1.97789e-01,
3.11263e-01,-2.36334e-01,2.90617e-01,6.45377e-01,-4.24654e-01,2.05760e-01,-2.40251e+00,1.23677e+00,-5.47483e-01,-1.26452e+00,-1.69078e+00,6.06911e-01,1.01591e+00,3.25317e-01,-5.49813e-01,-2.58957e-01,-6.91334e-01,3.18648e-02,3.40801e-02,-2.32175e-01,-1.02612e-02,1.91074e-01,-1.85646e-01,5.99795e-01,1.66899e+00,-2.59124e-02,-8.26956e-01,-1.29416e-01,3.69976e-01,4.53041e-01,-6.40524e-02,-1.75790e-03,5.67318e-01,7.24421e-01,7.41860e-03,4.26791e-01,3.79242e-01,3.98024e-02,4.90398e-01,1.44998e-02,5.68782e-01,2.32465e-02,-3.20068e-01,-1.57467e+00,-2.17431e-01,2.88107e-01,5.48611e-01,-5.74414e-01,4.72748e-01,-2.27863e-02,
1.23405e+00,2.60423e-02,6.88900e-01,-2.40105e-01,-1.34995e-01,-4.09597e-01,1.97208e-01,2.68453e-01,-9.78221e-02,-8.32373e-02,3.47640e-01,-1.94125e-01,-4.09972e-02,5.50024e-01,5.64965e-01,1.34031e-01,-6.85698e-01,3.01839e-01,2.44458e-01,2.59544e-01,4.10673e-01,-4.82362e-01,-3.08501e-01,-5.70754e-01,2.10739e-01,-1.38975e-02,-2.99235e-01,2.56940e-01,1.12115e-01,-5.92421e-02,-5.53818e-02,4.31110e-01,5.58831e-01,-9.66279e-01,-2.68931e-01,6.26748e-01,-8.63427e-02,-3.42955e-02,4.09528e-01,1.25410e-02,-8.99996e-01,1.74856e-02,-2.52048e-01,-6.90644e-01,-3.28391e-01,-3.95901e-01,-5.96464e-01,1.11489e-01,1.05990e-01,-3.99491e-01,
1.51267e-02,-3.35615e-02,-2.29872e-02,3.99837e-02,-1.34902e-02,-3.94348e-02,6.40381e-03,-4.72244e-02,6.71903e-03,-4.15231e-02,1.86934e-04,-2.83955e-02,1.32575e-02,4.32353e-02,1.02189e-02,-2.16920e-02,-3.49268e-02,-5.01363e-02,-2.75985e-02,-2.90836e-02,-4.52564e-02,-4.61735e-02,-5.03219e-03,1.23223e-02,-4.82041e-02,-2.54787e-02,1.76275e-02,-3.98735e-02,-3.92027e-02,3.38727e-03,-3.11190e-02,4.04606e-02,-3.71421e-02,-6.33046e-03,-4.54385e-02,-2.98628e-02,1.03478e-02,3.61373e-02,2.15640e-02,-4.58973e-02,-1.99056e-02,-3.99318e-02,3.88202e-02,3.12797e-04,-3.12203e-03,-2.31115e-02,8.02094e-03,-4.47164e-03,8.19917e-03,-2.39673e-02,
-9.08431e-01,5.36311e-03,4.17339e-02,-9.48905e-01,7.17174e-01,1.12914e-01,9.25194e-01,-1.34650e-01,-2.51206e-01,-1.36447e-02,1.11332e+00,8.12143e-01,9.95436e-01,1.01951e+00,1.13121e+00,-1.04939e+00,-1.16969e+00,-2.01285e-01,-5.40510e-01,8.06504e-02,-4.96377e-01,-5.80318e-01,7.25223e-01,1.51700e-01,2.55125e-01,2.35228e-02,7.39600e-03,9.51207e-01,-8.75566e-01,-1.12796e+00,6.24337e-01,1.38847e+00,-1.16989e-01,-8.91016e-02,-2.09661e-01,-2.48662e-01,-1.22124e-02,-5.78804e-01,-3.08826e-01,-2.83853e-02,-1.39409e+00,-1.85320e-02,9.88249e-01,-6.30611e-01,-4.21154e-01,-3.58721e-01,8.42900e-01,5.55640e-01,6.04893e-01,-7.29248e-02,
3.79415e-01,-4.83238e-01,-3.32154e-03,3.71156e-01,-1.81763e-01,1.18404e-01,-2.08016e-01,-1.72160e-01,5.95258e-02,-5.54617e-01,-2.21523e-01,-8.17984e-02,1.72802e-01,1.27129e-01,-9.38358e-02,4.11988e-01,6.25744e-01,-2.48297e-01,2.20100e-01,4.98467e-02,-3.13360e-03,-2.09938e-01,-1.46062e-01,4.84413e-01,-2.24177e-01,1.05992e-02,3.58986e-01,4.74874e-02,-1.68692e-01,-2.74315e-01,-4.39292e-01,1.32215e-01,-3.46819e-01,-1.05903e-01,-6.44936e-02,-3.07068e-01,2.18361e-01,2.37384e-01,3.40678e-01,-1.70714e-02,-1.15489e+00,-4.34313e-02,-6.24551e-02,-1.25349e-01,-4.67716e-01,-1.30125e-01,-6.30116e-02,-1.36271e-01,1.14306e-02,2.54412e-01,
1.28492e-01,4.04373e-01,-7.91387e-02,-2.34909e-01,1.10657e-01,1.11299e-01,-2.05085e-01,-5.14693e-01,-2.20226e-01,-6.93862e-02,1.65782e-02,-7.47558e-02,8.89757e-02,-2.06369e-01,7.69286e-02,-2.41000e-01,3.97947e-01,-2.06597e-01,-1.32577e-01,2.94027e-01,-2.03831e-01,4.51610e-02,-2.71825e-02,-2.85172e-01,-4.81464e-02,-3.41988e-02,1.30411e-01,3.27339e-01,2.08436e-01,2.38665e-01,-2.12412e-01,-2.94316e-01,6.82058e-02,-1.30128e-01,2.09395e-01,6.71002e-01,3.39791e-01,4.58507e-01,2.67739e-02,-3.01326e-02,-2.06493e-01,2.01768e-02,2.53119e-01,5.37494e-02,-4.97914e-01,7.60754e-02,1.06438e+00,-2.47446e-01,-6.18067e-01,2.38479e-01,
2.67655e-01,3.66374e-01,-8.04445e-01,3.17387e-01,6.06318e-02,-4.85271e-01,9.52243e-01,-1.47017e-01,-8.84354e-01,3.66929e-01,-9.25210e-01,4.58222e-01,-1.06850e-01,3.76759e-01,5.28569e-02,-2.76546e-01,-6.79621e-02,-4.57995e-02,-5.40682e-01,-2.04120e-01,1.45850e-01,7.86508e-01,-3.06588e-01,1.92985e+00,3.45859e-01,1.52490e-02,-2.96731e-01,2.00582e-01,-1.41231e-01,-2.29786e-01,-1.24833e-01,2.41212e-01,-7.85266e-02,5.00264e-01,4.86346e-01,8.24345e-01,-9.94475e-01,2.21389e+00,5.72949e-02,4.10887e-02,-8.99604e-01,-5.22504e-02,2.78147e-01,-2.33837e-02,-2.81406e-01,-5.51768e-01,1.77042e+00,-6.94417e-03,2.67413e-01,4.09919e-01,
-2.50131e-01,-2.07840e-01,9.63473e-01,-2.73400e-01,-1.18049e-01,2.32521e-01,-1.68252e-01,-3.49947e-01,1.39555e-01,-1.68049e-01,1.00342e+00,-5.73974e-01,1.09634e-02,9.19363e-02,8.03646e-01,4.12032e-01,5.27737e-01,2.90072e-01,-4.53060e-03,-1.11620e-01,-9.16757e-02,-3.93338e-01,4.74851e-01,8.44508e-01,7.60634e-01,-2.82706e-02,4.00887e-01,4.17896e-02,-1.76004e-02,-4.87601e-01,9.53244e-01,4.00510e-01,-2.87706e-01,-2.11741e-01,-5.69883e-01,-3.12385e-01,-1.13499e-01,-2.01298e-01,3.37032e-01,-3.18572e-04,-2.56899e-01,5.54341e-02,-5.40900e-01,2.83440e-01,2.25728e-02,-8.66215e-02,-6.64921e-01,1.11405e-01,9.87568e-02,4.46328e-02,
6.70115e-01,-6.61582e-02,-7.26064e-02,-4.46912e-02,1.14905e-01,-7.06679e-02,9.84940e-01,-8.67853e-02,6.10791e-01,6.37279e-01,-2.25239e+00,-1.94992e-01,-1.02743e+00,2.18739e-01,-9.39997e-01,2.81656e-02,-5.39514e-01,-1.96592e-01,4.02072e-02,5.45368e-01,9.22359e-02,-7.46861e-01,3.59341e-01,6.05094e-01,4.60896e-01,-2.55358e-02,-9.90836e-01,3.83334e-01,1.09114e-01,7.32565e-01,-7.33468e-01,7.83307e-01,4.04153e-01,3.10366e-01,4.02099e-01,-1.26888e-01,3.29092e-01,-2.93476e-01,-4.58512e-01,-4.51611e-02,-6.26952e-01,-3.17870e-03,1.97110e-01,-6.55475e-01,-7.26261e-01,-5.72125e-02,-4.89440e-01,-2.15532e-01,2.56156e-01,2.98677e-01,
1.83899e-01,1.06952e-01,-5.47926e-02,-2.27996e-02,7.74146e-02,-4.14366e-01,-1.26490e-01,-6.89999e-02,-1.29474e-04,2.10167e-01,-4.98473e-01,1.96491e-02,-3.51184e-01,-2.54697e-01,-1.12756e-01,6.49734e-02,7.98496e-03,-9.15069e-02,9.50148e-02,1.21081e-01,-3.03289e-01,-1.74387e-01,-9.30692e-02,-2.90859e-01,1.14745e-01,-2.06296e-02,8.32874e-03,1.52707e-01,1.69608e-01,-9.46687e-02,-1.95926e-01,-1.82205e-01,2.94102e-01,-3.25090e-02,1.96509e-01,2.49853e-01,-5.88363e-02,3.42412e-01,1.35989e-02,1.53809e-02,2.73494e-01,3.51846e-02,1.87785e-02,-1.66520e-01,4.00202e-02,-8.49391e-03,3.62017e-01,2.83325e-02,2.64286e-02,-7.90373e-02,
5.52102e-01,-7.36291e-01,-1.03204e+00,5.87660e-01,3.25188e-01,9.26622e-01,5.49052e-01,-1.20558e+00,4.46095e-01,3.53906e-01,1.71447e+00,5.37840e-01,-9.62245e-01,6.72875e-01,-2.09047e-01,-1.14766e-01,-7.51127e-01,2.48659e-02,-6.02366e-01,-1.66458e-01,-2.68263e-01,7.81469e-01,1.35471e-01,-1.62804e-01,-7.49241e-01,9.50107e-03,-1.26914e-01,-2.09915e-01,4.67464e-01,5.70464e-01,-4.64000e-01,2.00864e-01,-4.15550e-01,-9.13203e-02,1.39603e-01,1.83051e-01,8.86262e-02,4.47607e-01,-1.89228e-01,3.33388e-02,1.14080e-01,2.40886e-02,2.64526e-01,-1.35398e-01,-2.26133e-01,2.18253e-02,7.97081e-01,-3.53667e-01,-3.82817e-01,-6.54878e-02,
-1.67586e-02,2.47060e-01,2.09200e-01,1.23428e-01,-2.74858e-01,1.12130e-01,-9.74143e-03,2.11008e-01,3.99103e-01,5.98398e-01,1.93688e-01,-1.52780e-01,1.23598e-01,-2.41752e-01,6.06995e-01,3.84175e-01,8.08014e-01,4.37592e-01,-5.29009e-01,-1.93213e-01,-1.76538e-02,-2.10491e-01,2.03888e-01,3.12432e-02,3.77265e-01,1.66307e-02,3.43706e-01,-1.02866e-01,-2.40957e-01,-6.01436e-01,6.07616e-01,4.61656e-02,-1.04153e+00,-9.69491e-02,-1.29623e-01,1.73959e-02,-1.10137e+00,-2.89420e-01,1.74882e-01,3.88671e-03,2.84350e-01,3.16195e-02,6.28127e-01,7.80960e-01,-2.64885e-01,-1.47986e-01,-6.49884e-01,8.56875e-02,1.31077e-02,5.50947e-01,
1.60428e-02,3.05146e-01,-2.56783e-01,6.03872e-01,-5.24634e-01,4.99847e-01,-1.95416e+00,6.36068e-01,2.52902e-01,-6.83785e-01,1.18340e+00,-1.27854e+00,-1.49941e-01,4.85429e-01,4.35967e-01,6.33476e-01,6.85517e-01,3.29366e-01,1.33234e-02,-1.25903e-02,-1.05905e-01,-3.90532e-01,3.87511e-01,-1.69953e-01,7.62474e-01,-1.39667e-02,7.32260e-01,-5.42398e-01,1.92045e-01,7.25901e-01,4.70423e-01,-2.22390e-01,-3.57826e-01,-3.76368e-01,-9.56080e-02,-8.26135e-01,-1.39093e-01,-3.79766e-01,9.63439e-02,2.38455e-02,7.53452e-02,1.76566e-02,3.74433e-01,-3.95708e-01,4.37751e-01,3.85960e-02,3.98832e-01,-5.65108e-01,8.13180e-01,7.62899e-02,
-6.37017e-01,-5.80866e-02,-6.09279e-01,5.26584e-01,9.30033e-02,1.40434e+00,-4.93311e-01,-7.20405e-01,8.04507e-01,1.11543e-01,4.80276e-01,-4.70012e-02,-5.63636e-01,3.72215e-01,-1.11141e+00,2.44348e-01,-1.44264e-01,-8.23907e-01,-9.85841e-02,-5.76750e-01,2.65040e-01,2.29480e-01,4.90961e-01,4.93537e-01,-1.07293e+00,-1.07505e-02,2.46877e-01,2.36668e-01,-8.16581e-01,1.34164e-01,-3.81292e-01,-1.62740e-01,-2.50213e-01,-6.98536e-02,1.76016e-01,-5.03480e-01,-5.32003e-02,1.63997e-01,1.11300e-01,3.24270e-02,3.75635e-01,2.33899e-02,1.38549e+00,8.31927e-01,-1.66679e-02,5.26204e-01,1.84351e-01,1.49146e-02,-1.19261e+00,-2.91201e-01,
3.65757e-01,1.27916e-01,-4.03881e-01,6.12767e-01,1.74886e-01,-2.34999e-01,5.30741e-01,3.78394e-02,1.76756e-01,1.12590e+00,-1.63755e-01,1.62037e-01,1.97673e-01,1.38383e-02,-7.19678e-01,-2.61268e-01,-1.26561e-01,-4.42006e-02,-2.09910e-01,6.39419e-01,1.56651e-01,3.07769e-01,-1.88557e-01,2.02703e-01,4.61130e-02,-7.47181e-04,2.16680e-01,4.72463e-01,7.25670e-02,-5.75793e-01,3.33357e-01,5.07108e-01,-3.95437e-01,5.32854e-02,-6.32617e-01,7.53763e-01,-9.89194e-01,-1.47432e-02,-7.69560e-02,1.59625e-02,9.28787e-01,6.11113e-03,1.16720e-01,8.06508e-01,-1.02526e-01,2.38669e-01,-2.13204e+00,4.34630e-01,-2.50877e-01,3.42246e-01,
2.23873e-01,-2.47161e-01,2.81290e-01,8.28202e-01,2.56998e-01,3.58767e-01,-1.92181e-01,-7.05386e-02,2.78092e-01,-2.55442e-01,-1.06902e+00,-2.56670e-01,1.18017e-01,1.10239e+00,2.35346e-02,1.35243e-01,5.96614e-01,-6.83884e-02,4.17904e-01,6.39763e-01,-8.47077e-01,-1.65998e-01,-5.25945e-01,-3.55187e-01,-9.34829e-01,1.71372e-02,8.73141e-01,-1.02162e-01,3.22102e-01,7.98857e-01,5.95345e-01,6.03762e-01,1.72168e-01,-1.69767e-01,-1.41386e-01,2.19320e-01,-4.27529e-02,8.68733e-01,6.16005e-02,3.57592e-02,2.44913e-01,-2.38139e-02,-1.07176e-01,1.23241e+00,-3.33348e-01,-5.48907e-01,-4.19792e-01,2.64235e-01,-2.35735e-01,-1.66718e-01,
-3.18132e-01,-4.85840e-01,1.14790e+00,-6.60638e-01,3.09713e-01,-2.29262e-01,-3.41176e-01,-9.47187e-02,-9.13731e-02,-5.69265e-01,-3.95221e-01,8.04763e-01,7.38336e-01,-5.21045e-01,6.78949e-02,-2.12423e-01,4.04431e-01,1.10670e-01,2.52864e-01,-1.90120e-02,-2.66388e-01,-4.59431e-02,-1.76079e-01,9.53006e-01,-6.64902e-02,1.97334e-03,2.89308e-01,4.46384e-01,-1.05602e-01,1.48422e-03,3.10278e-01,-5.96870e-03,-6.51501e-01,7.83694e-02,-3.12669e-01,-1.02134e+00,3.34435e-02,-5.55072e-01,2.44770e-01,2.10058e-02,3.73686e-01,-1.65893e-02,-5.99829e-01,7.12260e-01,-3.27724e-01,2.70239e-01,9.15383e-01,8.54345e-02,3.25794e-02,2.37330e-01,
-2.28913e-01,-3.90494e-02,3.71262e-01,1.46940e-01,-4.45180e-01,-4.09211e-01,-2.22823e+00,-3.21003e-01,-4.98433e-01,3.80607e-01,1.21023e+00,2.67530e-01,-3.79863e-01,1.52171e-01,-1.29092e+00,-3.66922e-01,1.40548e-01,1.63575e-02,-3.53453e-01,2.18365e-01,2.25803e-01,6.69938e-01,2.16145e-01,1.20964e+00,-3.79448e-01,2.78677e-02,3.87711e-01,8.79091e-01,-6.24395e-01,3.71414e-01,1.65370e-01,4.36990e-01,-2.88781e+00,-3.73821e-01,7.14720e-01,-1.34865e-02,-6.35013e-01,-4.45189e-01,-5.63793e-01,2.38547e-02,2.86975e-01,-1.35064e-02,6.42509e-01,-1.14814e-02,8.29646e-01,4.90664e-02,-2.63341e-01,1.89282e-01,4.37329e-01,1.11981e-01,
-2.00202e-01,4.19308e-01,-2.22124e-01,3.15585e-01,1.62974e-01,2.13912e-01,-6.61347e-01,1.58122e-02,1.64483e-01,-1.69073e-01,3.93186e-01,2.16946e-01,1.35082e-01,4.51390e-02,3.08797e-02,-2.97154e-02,2.78854e-01,2.21762e-02,1.06808e-02,-1.48880e-01,3.90057e-01,8.09185e-02,8.85804e-02,3.24202e-01,9.61085e-02,-1.24246e-02,5.54869e-02,-1.41504e-01,-1.15775e-01,-3.06639e-01,4.91692e-01,2.49998e-01,3.28527e-01,2.03018e-01,2.72562e-02,8.41367e-02,-5.52484e-02,-6.55162e-02,-8.45832e-02,3.31450e-03,2.99956e-01,-2.86147e-03,2.23849e-01,-6.91456e-02,6.07006e-02,-8.36637e-02,1.17137e-01,8.51041e-02,-3.69640e-02,-2.08702e-01,
-3.15040e-01,
-3.30539e-01,
-1.60876e-01,
-8.46629e-01,
-3.06192e-01,
1.69306e-01,
3.56700e-01,
1.25304e-02,
-1.39788e-01,
5.68154e-02,
-2.31085e-02,
3.45211e-02,
-3.42376e-01,
-1.14426e-01,
-1.94269e-01,
9.09744e-02,
-3.12678e-01,
1.29142e-01,
-7.55599e-02,
-3.08036e-01,
-3.87208e-01,
5.55531e-02,
-2.55939e-01,
1.18645e-01,
-2.10556e-01,
-5.75825e-02,
-2.20594e-01,
-6.59519e-01,
