// The contents of this file are licensed under the Creative Commons
// Attribution 4.0 International License: https://creativecommons.org/licenses/by/4.0/
// Neural Network File Format by Kyle Julian, Stanford 2016
7,5,5,50,
5,50,50,50,50,50,50,5,
0,
0.0,-3.141593,-3.141593,100.0,0.0,
60760.0,3.141593,3.141593,1200.0,1200.0,
1.9791091e+04,0.0,0.0,650.0,600.0,7.5188840201005975,
60261.0,6.28318530718,6.28318530718,1100.0,1200.0,373.94992,
-8.51540e-03,1.57360e-01,1.39398e-01,-1.17152e+00,-1.68431e-01,
-8.27864e-03,7.56524e-03,-1.25339e-03,-4.48166e-04,3.29560e-02,
-6.29741e-02,2.26789e-01,-2.82138e-01,-1.06280e-01,2.36938e-01,
-4.29718e-02,1.02716e+00,-1.38225e+00,-2.25900e-01,6.33484e-01,
9.01986e-03,1.63870e-01,-1.65467e-01,-1.08093e-01,-9.76423e-01,
-8.22488e-02,1.04046e+00,4.77819e-01,3.75457e-01,5.89527e-03,
-3.70204e-01,-1.46413e-01,6.71842e-02,4.87213e-03,-1.95255e-01,
1.03777e-02,-5.17924e-01,2.55161e-01,2.13833e-01,-2.74169e-01,
-4.19237e-01,-2.56484e+00,2.99020e+00,-4.21912e-01,1.07540e+00,
1.42525e-01,1.53773e+00,1.92613e-02,6.85602e-01,-5.92357e-01,
7.13719e-02,-7.58402e-01,-7.56785e-01,4.60489e-01,-1.32172e-01,
2.41464e-02,1.49983e+00,5.30464e-02,6.04890e-02,-5.73104e-01,
-2.19376e-02,5.32349e-01,-1.92085e+00,2.06090e-02,1.72437e-02,
-1.49695e+00,1.54194e-01,-7.27022e-02,-1.45406e-02,6.27770e-03,
2.40472e-03,-5.61738e-03,5.30801e-03,9.58687e-04,1.95183e-03,
-8.65045e-03,1.45900e+00,-1.00979e+00,2.51236e-01,-5.61053e-01,
6.19122e-02,1.47220e+00,-1.99453e+00,3.07032e-02,4.27903e-01,
-1.70868e-02,5.12514e-01,1.07374e-01,-1.07303e+00,1.16536e+00,
-1.62666e+00,-1.30272e-01,7.54185e-02,2.69302e-03,1.56449e-03,
6.72728e-02,-1.62925e-01,9.53943e-02,-4.72143e-02,3.94478e-01,
-5.57525e-02,1.14849e+00,6.50898e-01,3.61159e-01,-1.53313e-01,
-1.87316e-01,2.97606e-03,2.43529e-02,7.18898e-02,-1.70942e-03,
-2.20042e-02,-9.62673e-03,5.57746e-04,-3.39875e-03,-1.96170e-03,
2.87455e-02,8.91495e-01,-1.03393e+00,-3.76058e-01,4.60794e-01,
2.59171e-02,-4.44622e-01,-7.23271e-01,-3.19615e-01,1.42042e-01,
-1.52255e-02,5.33251e-03,5.74531e-04,1.58527e-02,9.87225e-03,
2.86305e-01,-2.15640e-01,1.00006e+00,5.95364e-02,2.90382e-01,
3.28935e-02,-1.13188e+00,-3.37509e-01,3.69403e-01,-1.32741e-01,
-3.99008e-02,6.05391e-01,-4.65918e-01,-2.30722e-01,4.84580e-01,
-7.27921e-03,-6.39609e-01,-2.70973e-01,-1.80233e-01,1.17486e-01,
-3.53937e-02,-1.87637e-01,4.19527e-01,-7.55840e-01,7.94477e-01,
1.89609e-02,-7.68859e-01,-9.54933e-01,2.98423e-01,-7.26955e-02,
-7.19477e-02,1.28754e+00,-1.59594e+00,-2.94616e-01,7.82261e-01,
-3.12334e-02,8.83971e-02,-5.68774e-02,-9.82719e-01,7.57841e-01,
4.98841e-02,-9.23113e-01,1.13218e+00,-3.09412e-01,4.02843e-01,
-5.14555e-02,1.05042e+00,5.04624e-01,-3.69694e-01,3.65413e-01,
-2.82468e-01,1.37452e+00,-1.46425e+00,3.28937e-01,-2.42530e-01,
-1.14884e-01,1.14872e+00,-1.00999e+00,-7.30700e-01,5.68655e-01,
1.82482e-03,6.34054e-03,5.20803e-03,6.81263e-04,-7.58300e-03,
6.14395e-01,1.67291e+00,-2.46569e-01,-3.64860e-01,3.82435e-01,
-2.04846e-01,6.68907e-01,-5.11953e-01,-1.48242e-01,-1.75663e+00,
4.56001e-02,-1.33872e+00,1.30397e+00,6.89702e-02,-8.83817e-02,
1.45579e-01,-1.28966e+00,3.59705e-01,8.26189e-01,-1.26945e+00,
-2.35727e-02,-3.42996e-01,2.57365e-01,1.10544e-01,5.13424e-01,
1.29697e+00,5.88885e-03,8.13890e-03,-3.18967e-02,1.63135e-02,
1.58206e-01,1.39804e+00,-1.90860e+00,4.29522e-01,-5.20048e-01,
-1.23113e-02,-2.88208e-01,3.65751e-01,3.67279e-02,-1.43823e+00,
4.09448e-04,1.27385e-02,-2.39743e-03,6.03531e-03,1.78167e-02,
-1.41933e-02,-1.41785e+00,1.88276e+00,-2.89443e-01,6.78841e-01,
-6.37640e-03,-4.75513e-03,7.85782e-04,1.25530e-02,-2.39522e-03,
-3.04327e-01,
-2.38544e-02,
1.68116e-01,
-4.81981e-01,
-4.53403e-01,
2.25309e-01,
-5.04090e-02,
-7.33707e-02,
-4.26856e-01,
8.54624e-02,
-1.52156e-01,
-1.90359e-01,
1.59073e-01,
-2.46386e-01,
-1.66961e-02,
-8.50781e-02,
3.06964e-02,
7.15412e-02,
-2.65109e-01,
1.01957e-01,
-6.56071e-02,
2.55308e-02,
-2.01372e-02,
-5.67216e-01,
3.87789e-02,
-2.36961e-02,
3.80435e-02,
1.42993e-01,
1.99043e-01,
1.42176e-01,
5.75961e-02,
4.31904e-02,
-3.21937e-01,
-1.39160e-01,
-5.08218e-01,
2.47573e-01,
-1.33414e-01,
-5.10299e-01,
-1.48886e-02,
3.66005e-01,
-3.86030e-01,
-3.52377e-01,
-2.18140e-01,
-8.65853e-02,
3.50390e-01,
-4.17902e-01,
-6.22051e-01,
-2.12585e-02,
-5.92538e-01,
-2.02104e-02,
-3.90105e-02,3.42916e-03,-4.41519e-04,5.93085e-03,3.45458e-05,4.90691e-02,-1.03415e-02,-3.01891e-02,-2.51183e-02,-4.71441e-02,6.55374e-03,3.64510e-02,-1.25406e-02,2.24845e-02,-9.40471e-04,-1.20913e-02,-2.82238e-03,9.96990e-03,3.17731e-02,2.01423e-02,-9.06663e-03,-2.00735e-02,-1.94632e-02,2.64335e-02,2.15883e-02,-2.06903e-02,1.89867e-05,-3.98708e-02,-2.52780e-02,-2.53055e-03,3.74003e-02,-6.94601e-02,2.29795e-03,-2.30362e-03,2.81909e-02,-3.01797e-02,-2.62995e-02,-1.28911e-02,3.72079e-02,-4.25053e-02,1.91274e-03,3.00813e-03,2.71365e-02,3.98318e-04,-4.68778e-03,3.08486e-02,1.02299e-02,8.95131e-03,6.50527e-03,3.68808e-02,
-1.15472e+00,-1.64483e-02,3.14996e-01,-3.20634e-01,-2.60245e+00,8.02316e-01,1.04121e-02,-1.82874e+00,-5.43307e-02,6.67068e-02,6.51155e-01,-3.74271e-01,-6.26730e-01,1.80634e-02,-3.71169e-02,1.11889e+00,-5.82100e-01,2.19384e-01,-6.20276e-01,1.69983e-01,2.77595e-01,-1.17019e+00,3.10102e-02,1.44845e+00,1.46657e+00,1.79371e-02,4.71062e-01,-6.81447e-01,-3.56785e-01,-5.14104e-01,-7.64403e-02,-1.08095e+00,-6.27065e-01,6.80814e-01,-1.34459e+00,-4.60743e-02,-3.71265e-02,-2.04091e-01,1.52020e-02,9.33011e-01,1.41163e-01,-1.51535e+00,-5.37812e-01,-7.26252e-01,-4.19665e-01,3.95313e-01,-2.42364e+00,-4.49966e-02,-7.03134e-01,-4.16725e-03,
-1.25954e-01,2.59338e-02,2.22219e-01,-4.65574e-01,-2.40151e+00,-5.14125e-01,1.60005e-01,3.84497e-01,4.90988e-01,-3.58999e-01,6.46831e-01,3.97318e-01,5.33848e-02,-7.51731e-01,-1.73838e-02,1.11154e+00,-2.49807e-01,-1.21292e+00,1.55235e-01,-1.59187e-01,9.14553e-01,-4.50715e-01,-1.05209e-02,-2.28925e-01,4.56284e-01,2.03704e-02,-7.05269e-01,-5.40423e-01,2.83386e-01,5.20421e-01,5.13878e-01,-5.61206e-02,1.94872e-02,-4.33965e-02,5.51186e-01,-5.21162e-01,5.70003e-01,1.01018e+00,-1.46530e-02,-2.67745e-01,5.96012e-02,-8.85763e-01,-2.70983e-01,8.52355e-01,4.41607e-01,-5.05144e-01,8.82756e-01,-4.09351e-02,-1.46906e-01,-9.24615e-03,
2.01170e-01,-2.93716e-02,1.76154e-01,-7.64142e-02,-8.31070e-01,-1.20996e+00,3.47789e-02,9.50334e-01,-2.03498e-01,-2.14184e-01,4.94336e-01,-2.12885e+00,6.11162e-01,-5.89211e-01,-4.64028e-02,-1.13397e+00,7.92693e-01,1.09078e+00,1.31494e-01,-2.09171e-01,-9.53459e-01,-2.02562e-01,-4.07626e-02,-1.42449e+00,-7.63121e-01,4.85367e-03,-3.88205e-01,3.49458e-01,9.28271e-01,-4.74826e-01,-7.68916e-01,6.97194e-01,-1.41433e+00,-3.83748e-01,-1.03489e+00,-2.30164e-01,-1.27650e-01,-1.66146e+00,-2.42388e-02,-9.34045e-02,9.23565e-02,4.85822e-01,5.32675e-01,9.77246e-02,1.54582e-02,-9.64716e-01,2.23687e+00,4.89328e-02,-6.77064e-01,2.10586e-02,
-1.02025e+00,-4.21470e-02,4.39442e-01,-1.58450e+00,-3.46188e-01,-7.93872e-01,1.40633e+00,-1.77015e+00,-1.00685e+00,-7.38727e-03,9.88816e-01,3.38887e-02,-1.62974e-01,-1.32203e+00,4.74079e-03,-5.11074e-01,-4.76828e-01,8.13926e-01,-5.41450e-01,-1.03056e+00,-3.33197e-02,-1.88652e+00,1.44871e-02,-2.39954e+00,-1.92547e-01,-3.22777e-02,1.12394e+00,4.37244e-01,3.15686e-01,-1.22069e-01,8.71810e-01,1.30900e+00,-8.50864e-02,1.19003e+00,-3.14803e-01,-1.27962e-01,-1.31817e+00,-8.24248e-01,-4.31925e-02,3.45474e-01,7.20911e-01,5.94806e-01,-9.39848e-01,-1.60272e+00,-2.55583e-01,-2.09387e-01,-9.22664e-02,-4.98203e-02,-1.08517e+00,-4.56825e-02,
1.16454e+00,-2.39485e-02,-1.91154e-02,-1.53946e-01,8.14187e-01,-4.52106e-01,-2.48029e-02,-1.97035e-01,-5.20577e-02,-7.17840e-01,7.48743e-01,1.79549e+00,1.93623e-01,8.74187e-01,-8.68139e-03,6.51636e-03,-4.49886e-01,1.13417e-01,9.40618e-01,-1.04864e+00,-4.15135e-01,1.70479e-01,4.45062e-02,2.95503e-01,5.24371e-02,-4.73220e-02,6.15324e-02,-6.00799e-02,-6.93294e-02,-4.04443e-01,-3.62604e-02,5.12673e-01,2.71502e-01,-9.69496e-01,-1.06449e-01,-1.92266e-01,-7.94721e-02,-3.08857e-02,3.49499e-02,-2.10100e-01,6.32169e-02,-4.37243e-01,-2.51116e-02,-2.01432e+00,-2.12546e+00,-1.22384e-01,1.22663e+00,-4.55922e-02,5.40682e-01,-4.17945e-02,
-2.63139e-01,4.31210e-02,-4.05602e-01,2.79007e-01,1.61829e-01,1.51401e-01,-3.43445e-02,-1.16026e-01,2.69271e-03,4.48795e-02,-2.21568e-01,-1.56761e-01,-1.17363e-01,-1.42668e-01,4.00337e-03,-1.23606e-01,5.75370e-01,2.62939e-02,2.69053e-01,1.30370e-02,1.73109e-01,5.06170e-01,3.58928e-02,1.96789e-01,-5.36708e-01,2.99964e-02,-3.99286e-04,1.25667e-01,-5.05616e-01,1.74208e-01,5.71010e-01,1.09227e-01,-1.38653e-01,8.55965e-02,-1.77483e-01,-2.71156e-01,-4.63816e-02,-1.91936e-01,6.34228e-02,-2.80361e-01,3.39786e-01,6.97129e-01,-1.87476e-01,4.25675e-02,-1.01610e-01,-1.51782e-01,-9.85440e-01,-8.25170e-03,-1.22658e-01,-2.98513e-02,
2.83559e-02,-6.48108e-03,-1.95526e-02,-3.01826e-02,-1.27476e-02,-5.10068e-02,-4.53442e-02,-8.73386e-03,-2.80269e-02,-3.44413e-02,4.19503e-02,2.89319e-02,2.58264e-02,1.66031e-02,-3.79249e-02,2.81563e-02,1.24857e-02,2.20176e-02,2.68218e-02,-1.65709e-03,3.56994e-03,-7.60130e-04,2.81833e-02,-5.19498e-02,-4.70951e-02,-3.53572e-02,3.54724e-02,-4.30730e-02,2.80917e-02,2.54007e-02,-4.10369e-03,-5.56910e-02,-2.45473e-02,-9.93176e-03,-6.30804e-03,-4.85497e-02,-3.18388e-02,-7.10566e-03,9.46542e-03,-2.69809e-02,-1.55745e-02,-5.61168e-02,-1.50634e-02,3.50866e-02,-4.27593e-02,3.17840e-02,1.76759e-03,2.29803e-02,5.70208e-03,1.15604e-02,
-1.43606e-02,2.29031e-02,-5.60909e-03,-4.38126e-02,-3.99228e-02,3.46856e-03,3.31448e-02,-2.00846e-02,-2.06099e-03,3.06377e-02,2.78924e-02,-3.77882e-03,-2.26732e-02,8.84398e-03,-4.71329e-03,1.52383e-02,-4.28348e-02,1.57099e-02,-7.91111e-02,-4.03461e-02,-1.78351e-02,-1.91846e-02,1.17058e-03,-2.42767e-02,-3.00425e-02,-1.46814e-02,3.53501e-02,-3.83444e-02,-2.90937e-03,1.41586e-02,1.94304e-02,4.69518e-02,-3.42337e-02,-5.99837e-02,-1.33414e-02,-2.80422e-03,-1.76407e-02,-5.58364e-02,1.15673e-02,-3.28424e-02,3.46683e-03,-2.54821e-02,-2.51273e-02,5.42906e-02,-5.08078e-02,-3.50977e-02,-4.66795e-02,2.65235e-02,1.32548e-02,1.00871e-02,
-1.90404e-01,-4.74420e-03,5.42051e-01,6.14683e-01,-1.31545e+00,-5.35602e-03,1.21902e+00,4.36641e-01,-2.57919e-03,2.88339e-02,-2.32313e-02,1.75621e-01,1.40214e-01,-1.61279e-01,-1.41794e-02,-2.51785e-01,-5.73997e-01,6.59789e-02,-8.01107e-02,-1.11437e+00,-5.25100e-01,9.51838e-01,-1.01775e-03,8.83968e-01,2.03901e-01,-4.06637e-02,3.32852e-01,1.08427e-01,1.24421e-01,2.76168e-01,-1.25696e+00,-1.35230e-02,-2.81338e-01,7.90765e-01,9.78509e-02,2.90122e-02,5.42813e-01,-2.14729e+00,-5.14323e-02,8.17753e-02,1.75145e-02,-6.87965e-01,-2.08837e-01,-8.64285e-02,3.31779e-01,-2.31609e-01,-1.24467e+00,3.49505e-02,6.94081e-01,2.99513e-03,
-5.65621e-02,-4.98513e-02,9.16434e-01,5.10295e-01,1.09107e+00,6.16037e-01,-8.45054e-01,1.15529e+00,-3.08128e-01,-7.44332e-02,3.45648e-01,-8.24970e-02,-1.02683e+00,-2.66892e-01,-1.70023e-02,-6.33537e-02,-1.15541e-01,4.94506e-01,-5.48087e-02,8.05877e-01,-3.33912e-01,7.18821e-01,4.29912e-02,1.07431e+00,-1.20829e+00,-2.69653e-02,-8.02565e-01,-7.12296e-02,6.14739e-01,-3.81209e-01,6.22217e-01,9.67994e-03,-8.45558e-01,-8.26544e-01,-2.40113e+00,-5.72706e-01,-6.15697e-01,-1.43542e+00,-1.35684e-02,2.81064e-01,-4.07403e-01,9.41804e-01,2.15069e-01,9.77031e-01,-8.91578e-02,4.08840e-01,-1.73868e+00,-1.82816e-02,-9.68279e-02,-5.05691e-02,
4.49133e-01,1.73533e-02,2.28948e-01,-1.44587e+00,1.04289e+00,-4.91299e-01,-5.61283e-01,-1.09366e+00,-3.07329e-01,-9.73374e-01,4.83501e-01,-1.12738e-01,4.31565e-01,-1.53417e-01,1.39108e-02,-9.72724e-01,1.45945e-01,1.56226e-01,-2.44192e-01,-1.23656e-01,-1.48835e-01,-1.11015e+00,3.50561e-02,-6.67985e-01,-1.15220e-01,-3.55915e-02,-1.75934e-01,9.65033e-01,1.85345e-01,-3.36240e-01,2.69181e-01,6.18546e-01,-7.76290e-01,6.94979e-01,-1.58935e+00,6.03854e-01,-9.44476e-01,-7.59293e-01,-8.19674e-03,1.16242e-01,-6.03693e-01,-6.88999e-02,5.35836e-01,5.31349e-01,-2.81931e-01,-3.63127e-01,6.31656e-01,-8.98270e-03,3.81668e-01,-3.76108e-02,
1.16636e+00,2.73439e-02,-2.48915e-01,-6.48843e-01,9.43763e-01,6.28888e-01,3.65625e-01,-3.98876e-01,5.03092e-01,-5.04700e-01,-1.30795e-01,1.87327e-01,-2.41605e-01,2.10950e-01,3.12391e-02,4.69532e-01,1.81319e-01,-1.82800e-02,-2.89110e-01,2.45294e-01,2.31188e-01,2.23544e-01,2.41076e-02,5.77242e-01,5.49996e-01,-5.83353e-02,2.22495e-01,4.63835e-01,-7.65610e-01,1.11876e+00,5.18458e-01,-4.74797e-01,-1.03018e-01,-1.26196e-01,-5.55326e-01,1.19998e-01,5.70968e-01,7.06358e-01,4.24168e-02,6.52675e-02,-5.21097e-01,-5.42967e-01,1.71345e-01,-2.48842e-02,1.98264e-01,-3.03847e-01,-2.10021e+00,1.50821e-02,-3.90172e-01,-4.38014e-02,
5.83153e-01,-3.81084e-02,4.29553e-01,-1.48198e+00,9.51816e-01,-3.34817e-01,-8.29968e-01,4.92169e-01,-1.56348e-01,2.03789e-01,5.49561e-01,-9.00829e-01,-5.83444e-02,-1.13340e+00,2.63771e-02,-1.62681e-01,-7.26970e-01,3.73120e-01,-6.22890e-01,2.36334e-01,-2.69422e-01,-1.60027e+00,1.10256e-02,-2.55959e+00,-2.25636e-01,-3.18587e-02,-6.87883e-01,6.67903e-01,1.35763e+00,5.52081e-01,-1.14210e+00,5.40951e-02,-4.86550e-01,2.36919e+00,-1.21173e+00,2.37419e-01,1.98677e-01,-2.02006e+00,7.81749e-03,-3.77483e-01,8.37570e-01,-8.24148e-01,-1.93335e-01,-2.84685e-02,4.61061e-01,-3.09513e-01,-4.03929e-01,-1.34244e-02,-2.10930e+00,2.86742e-02,
1.32203e+00,6.14184e-03,-1.08681e+00,9.13456e-01,1.37768e+00,1.90888e-01,-1.33034e-01,-5.99144e-01,1.46451e-01,-1.55401e-01,1.82541e-01,-9.48340e-01,-3.05645e-01,-4.28892e-01,-1.83507e-02,6.17228e-01,-3.29527e-01,6.00256e-01,1.58946e-01,-2.53134e-01,-2.76381e-01,-8.69618e-01,-3.25598e-02,2.43959e+00,5.45183e-02,1.21609e-03,1.99840e-01,7.34205e-01,1.19305e-01,1.10815e+00,-7.67974e-01,7.32564e-01,-1.33259e+00,-1.47372e+00,-5.94145e-01,4.51888e-01,-7.59738e-01,1.10832e+00,-3.93955e-02,1.74889e-01,-4.38803e-02,2.70813e-01,-6.31778e-01,-1.38150e+00,-5.71446e-02,1.57811e-01,5.44165e-01,-3.81553e-02,1.98979e-01,3.79137e-03,
2.21357e-01,-1.73339e-02,6.53434e-01,-2.98620e-01,-8.73014e-01,2.91490e-01,7.81084e-01,-5.96238e-01,4.52185e-01,2.59580e-01,6.17230e-01,-3.87886e-03,1.03760e-01,8.14886e-01,1.98430e-02,1.06976e-02,1.52779e-01,3.58119e-02,1.22166e+00,-5.48198e-01,-1.60125e-01,7.70147e-01,-1.05364e-03,6.49563e-01,2.07678e-01,3.59354e-02,-3.55109e-01,-1.59042e-01,2.85946e-01,1.05233e-01,-1.53125e-01,1.42791e-01,-2.45810e-01,-2.32805e-01,7.24058e-01,-4.02305e-01,-8.42741e-01,2.92942e-01,3.71221e-02,6.59269e-01,7.35643e-03,-1.94061e-01,2.02493e-01,-7.06685e-01,-5.90704e+00,-9.56577e-02,8.33695e-02,3.93676e-03,2.46384e-01,-1.18055e-02,
1.56228e-02,2.14047e-02,-4.70090e-02,-1.13120e-02,4.62913e-03,-2.92127e-02,-3.02881e-02,-3.57983e-02,-2.72642e-02,1.26861e-02,1.93687e-02,-9.40007e-03,-4.07930e-02,-3.61694e-02,-2.07831e-02,1.27469e-02,-4.17966e-02,3.39808e-02,-6.65645e-03,-4.32238e-02,5.55489e-03,-3.02178e-02,4.04062e-02,2.01643e-02,-3.86721e-02,-4.91778e-02,2.26189e-03,2.51269e-02,3.53766e-02,-3.04750e-02,1.27873e-02,-4.37256e-02,2.76484e-02,1.12960e-03,-3.63637e-02,1.92630e-02,-4.91181e-02,1.41958e-02,-2.37881e-02,-4.97985e-02,-6.54123e-03,-4.79215e-02,9.63506e-03,-3.87151e-02,1.47741e-02,4.10731e-02,1.42584e-02,-2.53322e-02,-2.51211e-02,1.48690e-02,
-1.94135e-01,-4.69398e-02,2.14485e-01,1.14151e+00,2.42569e+00,7.93775e-01,-2.66640e+00,-6.42913e-01,2.52243e-01,9.23872e-02,2.72124e-01,1.09622e+00,-7.39308e-01,7.90494e-02,-1.06339e-02,-4.42653e-01,-6.45115e-01,2.75328e-01,-6.70277e-01,-5.48128e-01,6.87853e-01,8.06165e-01,-7.80059e-03,7.89959e-01,1.93484e+00,1.55288e-02,-5.66891e-01,1.29065e-02,-1.72003e-01,-7.08810e-01,-3.04170e-01,1.19168e+00,-1.11449e+00,-8.96035e-01,4.63815e-01,4.85761e-01,1.76676e-01,-4.55215e-01,1.17252e-02,8.34894e-01,8.43791e-02,-9.44290e-01,-1.85058e-01,-2.31444e+00,3.91621e-01,-3.49462e-01,-7.05954e-01,-2.90397e-02,-4.80030e-01,1.29508e-02,
1.75176e+00,-3.91524e-02,7.58757e-01,1.63408e+00,3.55630e+00,9.29577e-01,3.84002e-01,2.72118e-01,-1.04674e+00,-8.38040e-01,1.46569e+00,-2.75322e-01,-8.47895e-01,-2.18021e-01,9.83664e-03,2.86559e-01,-8.46456e-01,5.21502e-01,-4.76867e-02,1.33745e-02,1.17796e+00,-8.26503e-01,5.91621e-03,-2.84577e+00,9.08080e-01,9.65426e-03,-1.95169e-01,7.01599e-01,-6.31398e-01,7.43216e-01,-9.57038e-01,-2.81503e-01,-1.82940e+00,-2.37881e+00,-5.58223e-01,1.42525e+00,-1.00628e+00,-1.83250e+00,-2.49355e-03,-2.06345e-02,2.28978e+00,-1.87184e-01,-1.77428e+00,-3.57748e+00,8.27217e-02,-3.01318e-01,1.33561e+00,-3.58008e-02,4.14056e-02,2.81384e-02,
1.21577e+00,-7.62622e-04,-9.44977e-01,-5.18988e-01,-1.09978e+00,-3.72739e-01,4.82219e-01,-3.60379e-01,-1.98903e-01,-5.80758e-01,-1.25355e-01,1.11803e+00,-2.15429e-02,-1.71066e-01,1.12984e-03,-4.08961e-02,3.20180e-01,1.73122e-01,8.84846e-02,1.59436e-01,-1.02582e+00,-3.77585e-01,5.22020e-02,4.23700e-01,2.10872e-01,-4.02697e-02,1.86772e-01,-1.60384e-01,-4.08024e-01,5.72444e-01,-2.08193e-01,-1.27300e-01,-1.48594e-01,1.27178e-01,1.55000e-02,1.95087e-01,-2.51700e-01,4.52383e-01,5.52436e-02,7.16963e-02,6.02655e-02,6.33471e-01,4.30084e-01,5.76197e-01,-1.76363e-01,6.19468e-01,-1.76702e+00,4.10418e-02,1.95335e-01,4.24430e-02,
4.32857e-01,-4.29259e-02,-1.59192e+00,1.36728e+00,2.10428e+00,1.78144e-01,-8.39396e-01,9.12725e-01,6.39562e-01,1.74721e-01,-2.34178e-01,-9.33028e-01,-1.30291e-03,1.90416e-02,-8.02351e-03,9.44102e-01,-2.21163e-01,-1.30713e+00,-1.42458e-01,1.30552e+00,5.46103e-01,-1.27422e+00,3.81837e-02,3.37614e+00,3.81674e-01,3.74914e-02,2.95323e-02,-1.80060e-01,-6.12353e-01,3.65811e-01,5.49343e-01,-6.45810e-01,6.14993e-01,-2.11780e+00,2.84820e-01,-6.83805e-01,2.03540e-01,1.46665e+00,2.15100e-02,-1.44472e+00,1.84878e+00,-1.89319e-01,1.35199e+00,-4.94387e+00,2.57222e-01,4.45983e-01,1.01630e+00,-3.42034e-02,2.02916e+00,-1.36964e-02,
-1.95551e+00,-3.98027e-02,-5.51032e-01,-1.65960e+00,-3.85463e+00,-1.43217e+00,-5.53085e-01,-4.31391e-01,7.00659e-01,-3.18103e+00,-1.70939e-01,-3.38551e+00,-4.09841e-01,-4.23975e-01,4.62668e-02,-2.73086e-01,5.63893e-01,5.29891e-01,-1.44692e-01,-5.94614e-01,9.76525e-01,-9.19060e-01,-2.55423e-02,-7.57713e-02,1.30829e-01,-3.40940e-02,-1.63843e-01,1.01062e+00,-2.98258e+00,1.31759e+00,-2.52074e-01,-1.54341e+00,-3.50036e-01,-3.62425e+00,-7.41029e-01,-1.24963e+00,2.53534e-01,-4.67248e+00,-3.48544e-02,-3.62683e-02,1.59358e+00,-8.04910e-01,-6.05753e-01,-6.12055e+00,9.09303e-01,5.84709e-01,1.32746e+00,-3.40450e-02,4.77128e-01,-2.51315e-02,
5.83105e-01,1.74559e-02,1.15006e+00,-5.34768e-01,3.96510e-01,-4.26119e-01,9.68930e-02,-1.33884e+00,-7.28053e-01,9.11802e-02,2.30465e-01,-5.88814e-01,1.52537e-01,-2.07515e-01,4.37708e-02,-4.99789e-01,-6.27836e-01,3.37019e-01,-7.03808e-01,-4.46452e-01,2.30883e-02,-3.50346e-01,-2.18999e-02,3.11560e-01,5.36984e-01,3.25766e-02,-3.05415e-01,-5.24304e-01,1.47513e+00,-4.38347e-01,-3.63105e-02,2.28807e-01,-9.41714e-01,-7.18989e-01,1.47859e-01,4.29899e-02,-5.13941e-01,-5.84032e-01,-3.19628e-02,-1.06619e-01,1.82201e-01,9.10624e-01,-4.86229e-01,3.25896e-02,2.52306e-02,2.47320e-03,3.09695e+00,-4.71826e-03,-6.30980e-01,1.87895e-02,
4.68646e-01,-1.73966e-02,-9.64258e-02,-8.16366e-01,4.12060e-02,2.43332e-01,1.69029e+00,1.52719e+00,-1.90654e+00,-5.01404e-01,1.08891e+00,6.10858e-02,-3.26607e-01,5.80091e-02,-1.77274e-02,-9.15299e-01,-7.26089e-01,2.28547e-01,5.80921e-01,8.99956e-01,1.59570e+00,1.01303e+00,-4.55071e-02,-2.02760e+00,1.26096e+00,-3.62826e-02,5.05046e-01,1.16456e+00,1.60944e-01,1.37016e+00,3.15896e-01,1.31640e+00,-8.93488e-01,1.43454e+00,-1.81462e+00,6.82269e-01,-1.41320e+00,-6.52666e-01,-6.33714e-03,-1.02716e-01,-6.94999e-02,8.48470e-02,-4.93221e-02,1.50098e+00,-3.12456e-01,-2.07084e-01,-6.28573e-01,1.59619e-02,-6.11930e-01,-3.97170e-02,
-1.65396e+00,3.86328e-02,-8.81647e-02,3.79902e-01,-8.28044e-01,-9.25203e-02,-8.00731e-01,-1.09526e+00,6.03701e-01,6.53834e-02,9.64201e-01,-8.75825e-01,1.53706e-01,-5.52139e-02,-1.25862e-02,3.35965e-01,2.40443e-01,1.63783e-02,8.96587e-01,-6.70735e-01,-9.77948e-01,-5.24366e-01,-3.60983e-02,-5.14143e-01,1.04805e-01,3.49660e-02,2.30791e-01,-1.62217e-01,-7.07066e-02,6.45197e-01,1.05746e-01,-6.88403e-01,4.41418e-01,6.09532e-02,4.76648e-02,4.90930e-01,-7.05048e-01,6.69013e-02,2.98981e-02,-4.58260e-01,-6.22065e-01,-6.57754e-01,4.00700e-01,-3.79327e-01,3.73630e-01,1.53199e-01,2.00759e+00,3.79460e-03,-2.53347e-02,-3.97721e-02,
8.59890e-01,-3.49974e-02,5.33800e-01,-1.62616e+00,-4.83596e+00,-2.98160e-01,-1.61216e+00,4.16748e-01,-1.18198e+00,5.31055e-01,1.03810e+00,-4.57328e-02,-9.75676e-02,-9.19992e-02,4.14068e-02,-8.93392e-01,-5.10978e-01,6.40806e-01,8.54292e-01,6.26759e-01,1.19501e+00,-4.70702e-02,-3.44703e-02,-1.11945e+00,1.06172e+00,2.88881e-02,5.23316e-01,6.84555e-01,8.96164e-01,1.61098e+00,8.39108e-01,9.38453e-01,-9.36962e-01,5.60929e-01,9.00104e-02,4.01111e-01,-1.42717e+00,-2.21325e+00,3.59151e-03,3.98978e-01,-5.76343e-01,9.77032e-01,-3.76628e-02,1.96431e+00,-5.26439e-01,-4.77956e-01,1.26060e-01,8.99524e-04,-2.52422e-01,-2.30804e-02,
-4.36329e-01,-3.85167e-02,-1.96556e+00,4.40688e-02,3.14707e+00,-1.54857e+00,-7.01217e-01,4.90440e-01,7.08731e-01,-1.15198e+00,3.94091e-01,-1.55934e+00,6.08366e-03,-8.68653e-01,3.31511e-02,-7.94042e-02,-4.82493e-01,-2.31243e-01,-1.59699e+00,-6.01487e-01,-1.14906e+00,2.66469e-01,-3.36711e-02,-9.12316e-02,-1.82708e+00,1.49941e-02,5.79921e-01,6.36865e-01,-8.96833e-01,-1.74772e+00,1.44260e-01,-2.91252e-01,-3.90988e-01,-1.27916e+00,1.44440e+00,-1.64118e+00,1.93613e-01,3.51717e-02,-2.84966e-02,-7.11328e-01,4.95072e-01,1.30379e+00,1.10419e+00,-2.48241e-01,1.81013e-01,4.09353e-01,-3.26967e-01,-5.48616e-03,1.01503e+00,2.75093e-02,
-5.07098e-04,1.84126e-02,1.49465e-02,-6.57304e-03,3.82168e-02,1.16724e-02,-4.08759e-03,-4.96844e-02,-2.27323e-02,3.37322e-02,-2.02664e-02,-3.83542e-02,1.49810e-02,-1.05370e-02,-4.38889e-02,-4.28715e-02,-3.13664e-02,-5.05265e-02,-2.84858e-03,2.36891e-02,-1.74125e-02,-5.40038e-02,-1.24294e-02,3.27360e-02,-2.54007e-02,-2.16710e-02,-9.98906e-03,1.50104e-02,3.03747e-03,-1.71092e-02,-4.45281e-02,-9.57216e-03,1.77469e-03,-4.66834e-02,2.96449e-03,1.91898e-02,4.01995e-03,-1.24409e-02,2.23064e-03,-5.07774e-02,-4.06187e-02,3.51819e-02,-2.58530e-02,1.04174e-03,-1.33239e-03,1.60149e-02,-2.95262e-02,-8.55555e-03,-1.08817e-02,-4.41424e-02,
-1.11636e-01,-3.41131e-02,9.34269e-01,-2.71779e-02,-8.56926e+00,1.34324e+00,-5.74559e-01,-2.29227e+00,-3.10888e-01,4.88947e-01,-1.32839e+00,-1.23214e-01,-3.32003e+00,3.92717e-02,-1.84699e-02,8.21148e-01,-1.48443e+00,6.57124e-01,-4.31679e-01,4.59730e-01,1.17327e+00,3.37345e-01,-1.02325e-02,-4.64968e+00,1.05233e+00,5.01900e-02,4.39951e-01,-8.56125e-01,-4.20990e-01,-2.74290e-01,1.30670e+00,-8.09935e-01,-6.67048e-01,5.49000e-01,-2.20142e+00,3.05519e-01,-8.12919e-01,-8.87324e-01,4.88917e-02,3.32910e-01,-3.69400e-01,-1.54559e+00,-1.06250e+00,2.18576e-01,-1.25870e-01,-2.17624e+00,-1.31063e+00,-1.98734e-02,-2.38154e+00,3.78885e-02,
-7.38290e-01,-4.29452e-02,-2.97754e-01,1.94234e+00,-2.31958e+00,8.40476e-02,-1.18239e+00,-1.08681e+00,3.61797e-02,8.13794e-01,-1.52995e+00,-9.97991e-02,4.43259e-01,-8.82770e-01,3.93046e-03,8.31060e-01,8.26938e-01,-7.73670e-01,-4.81654e-01,-1.17009e+00,-7.15171e-01,-1.33203e+00,4.20531e-02,3.22761e+00,-1.06329e+00,-3.03081e-02,-1.19145e+00,-1.98221e+00,-1.52065e-01,-2.89466e+00,-1.39629e+00,-1.36781e+00,1.05091e+00,-5.58102e-01,1.11094e-02,-1.12720e+00,7.38690e-01,7.98501e-01,3.80615e-02,2.55563e-01,1.17796e-01,-8.92917e-02,-2.16708e-01,-1.33864e+00,8.72096e-02,1.19283e+00,3.03892e+00,4.14685e-02,-2.97627e-02,6.51929e-03,
9.19521e-01,-1.84727e-02,8.30314e-02,-9.85944e-01,7.38591e-01,4.13955e-01,1.85361e-01,4.10180e-01,2.27090e-02,-3.66490e-01,6.34779e-01,5.91146e-01,-1.66697e-01,-8.99682e-02,1.93270e-02,2.31317e-03,-2.10794e-01,-2.48254e-01,-2.23457e-02,-1.49909e+00,-2.16392e-02,3.51354e-01,5.33183e-03,2.39894e-01,-2.47142e-01,-9.87327e-03,6.66344e-02,-3.24180e-01,-2.76633e-01,-8.36273e-01,-6.64480e-01,4.19535e-01,2.30677e-01,6.13028e-01,-2.96048e+00,-4.08707e-01,5.08434e-01,-3.08837e-02,-4.33164e-02,-2.12204e-01,-2.95684e-01,1.36507e-01,2.23352e-01,1.47827e+00,4.82219e-01,-6.78454e-02,1.83592e-01,-2.97375e-02,-2.81727e-01,-2.46835e-02,
3.38368e-03,2.86983e-02,6.41006e-02,-2.44110e-01,-1.09241e-01,-1.81165e-01,1.25548e-01,-6.75603e-02,1.18020e-01,-9.57662e-03,-1.31802e-01,-1.65852e-01,2.16067e-01,-3.03396e-01,-7.64471e-03,-8.38439e-02,3.51720e-01,-3.95870e-02,-3.14780e-02,1.41483e-03,-2.51649e-01,-3.70952e-01,4.46180e-02,-5.54896e-01,-8.13439e-02,-4.07071e-02,4.34253e-01,-2.86621e-01,-2.71923e-01,-6.82537e-01,-1.14763e-01,-1.23195e-01,1.62079e-01,2.42821e-01,-1.92240e-01,-1.79744e-01,1.36256e-01,1.42619e-01,2.52722e-03,-3.23702e-01,6.43369e-02,-4.97492e-01,8.72972e-02,-1.78206e-01,-1.07063e+00,-4.29498e-01,-7.95504e-02,-4.41918e-02,1.26581e-01,2.01030e-02,
1.62115e-01,-5.74592e-03,6.13095e-02,4.36446e-02,-3.56804e-01,4.75599e-01,-8.17536e-01,-9.93321e-02,4.44875e-01,-1.72477e-01,-2.06011e-01,4.34420e-01,6.58426e-01,4.56820e-01,6.21316e-03,-2.29987e-01,-2.02972e-02,-6.24990e-02,-6.81248e-01,-7.82060e-01,3.06907e-01,-4.33228e-01,2.88377e-02,-7.90865e-02,-1.72103e+00,-1.62081e-02,-1.07070e+00,-1.33354e+00,1.67002e-01,-2.08502e-01,5.70516e-01,3.35760e-01,1.88003e-02,9.66616e-02,4.77971e-01,9.65972e-02,5.21095e-02,4.28650e-01,-4.22618e-02,-2.38525e-01,5.89139e-01,-1.63038e-01,6.18278e-01,-1.24382e+00,4.00677e-01,-1.06412e+00,1.51620e-02,2.65645e-02,1.49902e-01,4.22920e-03,
-1.07884e-01,1.02186e-02,-1.42700e-01,-1.97828e-01,-7.74373e-01,1.73375e-01,-6.85750e-02,-4.77140e-01,6.79773e-02,1.32506e-01,2.22701e-01,-2.43678e-01,-1.48693e-02,-3.17371e+00,3.80971e-02,-2.02186e-01,1.25423e-01,-1.20065e-01,-3.19968e+00,3.72982e-01,-1.20143e-01,2.07028e-01,-2.42983e-02,-4.07018e-01,-8.64762e-03,-9.94301e-03,1.19389e-01,-8.29409e-02,-4.58691e-02,-4.43031e-01,2.12445e-01,-2.81638e-03,1.20019e-01,-6.45204e-02,8.33281e-02,-3.07260e-01,1.61377e-02,6.03029e-01,-3.34879e-03,7.49549e-02,3.04095e-01,-2.12279e-01,1.68293e-01,-8.00853e-01,2.66305e+00,-1.28610e-01,3.39544e-02,1.79126e-02,9.57895e-02,-3.55547e-02,
7.92020e-02,2.55606e-02,1.29934e-01,2.60839e-01,3.85411e-02,3.81827e-01,3.78787e-01,-1.92211e-02,-5.26750e-01,1.12116e-01,6.22215e-01,-1.89365e-02,-2.26675e-01,1.55269e-01,2.93645e-02,-4.74135e-01,-6.06921e-01,4.05614e-01,-2.28084e-01,-1.12596e+00,-1.38751e-01,7.54929e-01,4.38281e-02,3.11362e-01,2.20501e-02,-6.81355e-03,-4.07537e-01,-1.29336e-02,-6.04383e-02,-2.34731e-01,2.94690e-01,6.09762e-01,3.62611e-01,4.19024e-01,-2.36220e-01,2.90709e-01,-4.65128e-01,5.09630e-01,3.51925e-02,-5.90643e-01,6.22689e-01,-3.75805e-01,3.07960e-02,2.73041e-01,5.66231e-01,1.92323e-01,6.89420e-01,-2.87847e-02,-3.04587e-01,3.53683e-02,
-6.79703e-01,5.20561e-02,5.94482e-01,5.05955e-01,-1.28007e+00,1.45626e-01,-1.71943e-01,-2.71143e-01,-1.81078e-01,-1.90440e-01,1.37457e-01,-3.41622e-01,-6.65521e-02,-8.79026e-02,-3.07216e-02,2.49929e-02,1.98042e-01,6.18520e-01,1.30609e-01,9.32237e-01,3.47356e-02,-2.58163e-01,-2.02519e-02,2.44999e-01,-2.61813e-01,-2.74881e-02,-5.39854e-02,3.56375e-01,3.22534e-01,-5.22825e-01,-4.56438e-02,-2.32281e-01,-1.81765e-01,-7.64511e-01,8.75626e-02,-9.17491e-05,2.17835e-02,-5.52669e-02,-1.19865e-02,-3.15312e-01,4.57070e-01,1.67273e-01,-5.83201e-02,-9.90456e-02,1.03143e-01,-6.38654e-02,2.86734e-01,-3.68170e-03,4.45973e-01,1.29841e-02,
1.25331e-02,5.10060e-03,-3.56711e-03,-1.86236e-02,1.27059e-02,-2.14581e-02,2.13302e-03,-1.31590e-02,-9.80674e-03,-1.62707e-02,-5.86386e-02,-1.22502e-02,-5.85736e-02,8.70245e-03,-4.62405e-02,-3.90746e-02,-5.45421e-02,-4.70459e-02,-5.03549e-02,-3.95270e-02,-1.67148e-02,-5.40123e-02,-2.37430e-02,3.07320e-02,1.57121e-02,-2.48124e-02,-4.85798e-02,6.70451e-03,2.51630e-02,-1.97492e-02,1.93953e-02,3.10402e-02,-3.59587e-02,-4.95143e-02,-5.07913e-02,1.03684e-02,1.29860e-02,5.06293e-04,1.75262e-02,-2.64767e-02,1.48065e-02,-1.89363e-02,1.04482e-02,-3.82877e-02,-3.05883e-02,-3.59326e-02,8.66974e-03,-3.70456e-02,1.20080e-02,4.88276e-02,
-4.79379e-01,-4.14520e-02,-7.71554e-01,4.24976e-01,2.88684e+00,-3.67620e-01,-1.86379e-01,2.29702e-01,9.77470e-02,-4.24233e-01,-5.01774e-02,2.19190e-01,1.41921e-01,2.30425e-01,6.42508e-04,2.12932e-01,1.66968e-01,-9.17182e-01,-7.24540e-01,-1.95213e+00,1.60942e-01,-4.65288e-01,1.44657e-02,-3.68589e-01,-3.49206e-01,4.02112e-02,7.57050e-03,-7.18570e-01,3.02552e-01,-9.85801e-01,-6.91296e-02,1.35969e-01,-9.35040e-02,-7.02371e-02,4.16092e-01,6.19204e-01,2.53740e-01,-1.20648e+00,4.05201e-02,3.50721e-02,-5.22401e-01,2.56530e-02,-2.16435e-01,2.20165e+00,3.02348e-01,-2.93977e-01,8.38951e-02,1.48779e-02,-1.24646e-01,6.01030e-03,
-2.57877e-01,-5.58771e-02,5.10133e-01,1.26963e-01,1.62758e-01,-4.39082e-01,-1.30613e-01,2.05198e+00,-1.63583e-01,-2.64696e-01,6.82577e-01,1.32041e+00,8.95684e-02,2.22154e-01,1.18492e-02,6.60092e-01,1.25490e-01,-5.73750e-01,1.85741e-01,1.37419e+00,-4.43231e-01,-1.41504e+00,7.56878e-03,-1.91935e+00,-7.25450e-01,3.25763e-02,1.59102e-01,-2.05735e+00,3.23602e-01,-3.25765e+00,2.37524e-01,-4.29336e-01,-1.72411e-02,-3.84093e-01,2.68858e-01,-2.43706e-01,3.30712e-01,7.62989e-01,-3.33440e-02,4.05339e-02,-4.91628e-02,1.74739e-01,5.63454e-01,1.16346e+00,1.13285e-01,-8.04359e-01,-3.01965e+00,-1.55594e-02,-7.99201e-02,2.01571e-02,
-4.37748e-01,4.59966e-03,-1.69305e+00,-1.26414e-02,4.11852e-01,4.00751e-01,-1.14648e+00,1.56039e+00,-1.89052e-01,-7.78054e-01,-1.66648e+00,1.34768e+00,7.10870e-01,7.11237e-01,3.08375e-02,-1.23964e-01,9.56554e-01,-7.02617e-02,-6.35884e-01,-3.30603e-02,-9.20499e-02,-2.60966e+00,2.20150e-02,2.75339e-01,-9.57182e-01,3.55186e-04,1.36713e+00,1.89831e-01,-1.62392e+00,1.48649e+00,4.31854e-01,5.94534e-01,-1.47261e-01,8.25514e-01,8.20297e-01,3.15522e-01,-9.34519e-01,2.24783e-01,-4.38271e-03,3.10817e-01,-5.17519e-01,-1.07614e+00,6.00683e-01,1.24654e-01,-1.53186e-01,7.71628e-01,-1.65052e+00,-2.49522e-02,5.00952e-02,-4.88526e-02,
2.27116e-03,-4.00382e-02,1.97190e-02,-8.09126e-03,2.24060e-02,-1.07820e-02,-2.53099e-02,2.89536e-02,9.29093e-03,-4.85471e-02,-5.29636e-02,5.26482e-03,-2.74110e-02,-3.25583e-02,2.27475e-02,-1.73834e-02,-3.36603e-02,1.41182e-02,-1.52835e-02,5.85262e-03,-3.26870e-02,-2.85784e-02,-3.15231e-02,-4.27254e-02,-5.84187e-02,-5.19114e-02,-1.27832e-02,-6.42476e-02,2.06279e-02,-3.35512e-02,1.18470e-02,-5.31543e-02,4.11619e-02,-4.46420e-02,1.24634e-02,-4.09568e-02,-3.43745e-02,7.72297e-03,2.98029e-02,-3.90403e-02,1.34925e-02,-6.56656e-02,9.72828e-03,3.25674e-02,-2.84432e-02,-5.76247e-04,1.32749e-02,4.25105e-02,3.55555e-02,-4.92711e-02,
3.12171e-01,4.65456e-02,-1.50025e-01,-9.54165e-01,-2.43280e+00,6.78249e-02,-2.34244e-01,-3.81199e-01,-3.14478e-01,-1.81364e-01,5.47712e-01,-9.00225e-02,2.00483e-01,2.11025e-01,-2.87393e-02,-4.45596e-01,1.86440e-01,5.98264e-01,-1.02349e-02,-2.07622e-01,-9.86622e-01,-4.99439e-01,2.33609e-02,-7.89278e-01,3.05529e-01,-1.87889e-03,-1.61264e-01,-1.34050e-01,1.21413e-01,3.58957e-01,5.52893e-01,8.90329e-01,4.17452e-02,8.50194e-02,-1.24743e+00,2.32307e-01,-6.34184e-02,4.38132e-01,-1.17780e-02,2.72960e-01,-2.43682e-01,-4.78649e-01,-1.46163e-01,-1.24101e-02,-1.15460e-01,-1.99268e-01,-1.28087e+00,-3.39976e-02,-2.15129e-01,-2.83411e-02,
-3.93427e-02,3.84017e-02,-5.62343e-02,-4.23846e-02,1.64242e-02,-3.42265e-03,8.34336e-03,-7.22174e-03,2.07383e-02,2.21551e-02,-1.39951e-02,-4.55343e-02,1.83599e-02,-4.91913e-02,-8.08082e-03,-4.09603e-02,2.33987e-02,4.18829e-02,-9.10684e-03,-5.49979e-02,-2.07544e-02,3.70479e-02,2.88893e-02,2.10801e-02,-3.47444e-03,1.50168e-02,-5.33554e-02,-1.98443e-02,3.24507e-02,1.84633e-02,-3.64017e-02,2.53215e-02,-4.85838e-02,-2.12100e-02,-4.50911e-02,-7.62812e-03,-3.78838e-02,-3.28303e-02,3.39566e-02,1.72323e-02,-2.87883e-02,7.84346e-03,-3.03173e-02,-2.94901e-02,1.46989e-02,-4.07538e-02,-3.22981e-02,2.21909e-02,2.55275e-02,2.94755e-02,
1.18983e-01,2.68422e-02,-2.44231e+00,-2.86577e-04,-3.80293e+00,-1.60686e+00,-7.10457e-02,1.76973e+00,1.06411e+00,-1.71975e-01,-3.69376e+00,-5.52455e+00,1.10089e-02,-1.02857e+00,5.25768e-03,2.52993e-02,-2.81304e-03,-6.39397e-01,2.56212e-01,-3.04794e-01,-2.09843e+00,-2.21415e+00,1.98322e-02,-5.11375e-02,-1.95693e+00,-3.98695e-02,5.03429e-01,6.58550e-01,-2.22164e+00,-1.17827e+00,-2.84878e-01,-1.39399e+00,-3.94639e-02,-1.28912e-01,2.76391e+00,-2.05941e+00,1.37842e-02,-1.09009e-02,3.03656e-02,-4.57949e-01,4.93481e-01,2.97034e+00,1.09315e+00,8.04369e-01,3.31538e-03,-1.36829e-03,-3.37272e+00,-4.54574e-02,1.66085e+00,-1.59929e-02,
1.71567e-01,-7.37752e-03,-2.73074e-01,-1.02071e-01,1.02040e+00,4.35105e-01,1.43981e-01,1.55581e-01,-2.63181e-01,-7.89445e-02,8.92377e-01,2.96071e-01,3.30865e-01,2.02977e-01,-2.33755e-02,7.12558e-02,-1.32506e+00,2.87922e-01,-7.93355e-02,1.26542e-01,-1.70737e-01,1.74121e-01,-4.73127e-02,-1.98712e+00,8.08736e-03,3.11142e-02,2.49979e-01,6.85291e-01,-3.23559e-01,-1.15831e+00,-7.72454e-01,-3.78727e-02,6.96571e-01,6.89851e-01,4.85643e-01,2.03962e-01,-6.91910e-01,1.56449e+00,3.68120e-02,-3.79870e-01,3.68033e-01,1.30416e-01,-4.53074e-01,-5.83472e-02,-3.30635e-01,2.96640e-01,9.24029e-01,-4.94544e-02,2.50862e-01,-3.38103e-03,
1.50683e+00,4.95455e-02,7.16422e-02,-1.05646e+00,-5.22989e+00,-2.13331e+00,1.01167e+00,1.98194e-01,-8.68273e-01,1.02406e+00,-5.79345e-01,-8.76535e-01,-5.69296e-01,-3.55696e-02,-4.71109e-03,-1.76769e+00,-4.61308e-01,5.42216e-01,-2.15890e-01,4.46591e-01,-6.37617e-01,-5.95083e-01,-1.53126e-02,-1.45474e+00,1.72833e-01,5.11508e-03,4.21273e-01,4.00793e-02,1.04123e+00,4.33860e-01,2.20244e-01,2.97844e-01,5.88108e-01,8.21536e-02,-1.10920e+00,3.49236e-01,-1.32729e+00,-1.24787e+00,-2.83174e-02,2.33878e-01,-9.81784e-01,6.34967e-01,-4.49439e-01,7.34868e-01,-4.43236e-01,7.51067e-01,-8.52352e-01,4.14617e-02,-6.31622e-01,3.46665e-02,
-4.90906e-02,-3.53849e-02,-2.65075e-02,2.03423e-02,-3.02934e-02,2.83923e-02,-4.07659e-02,-1.83230e-02,2.12116e-02,2.90876e-02,-2.02530e-04,1.25219e-02,-6.58396e-02,-6.05281e-02,1.81432e-02,-7.37374e-03,-1.74500e-02,1.52869e-02,-1.72256e-02,-4.41281e-02,-4.91113e-02,-3.41883e-02,-3.43077e-02,-2.77951e-02,3.82691e-02,-1.75655e-02,-5.10341e-02,2.58130e-03,2.87085e-02,-5.99532e-02,-3.72429e-02,-8.25185e-03,-6.15300e-02,-4.94308e-02,-3.86084e-02,-1.97072e-02,3.14127e-02,2.71725e-02,-2.36738e-02,-2.95245e-02,1.80547e-02,-2.28525e-02,-5.23977e-03,2.26991e-02,-5.79151e-02,-2.58572e-02,-4.91732e-02,-3.51900e-02,2.02385e-02,-1.59950e-03,
2.54875e-01,-3.92772e-03,-3.51325e-01,-3.09042e-01,3.02410e-01,5.46392e-01,-7.12536e-01,-1.58103e+00,-2.88046e-01,-2.11198e-01,3.47478e-01,-5.17398e-03,-3.79204e-01,-9.50686e-02,2.64052e-03,3.20043e-02,-3.18487e-02,-9.89209e-01,-1.52056e-03,1.23335e+00,1.07283e-01,8.95793e-02,-4.50498e-02,-2.24830e+00,-1.49152e-01,-3.53180e-02,-8.84214e-01,2.59330e-01,5.16191e-01,-8.87432e-01,-3.61170e-01,6.31872e-01,-7.17409e-01,-1.30222e+00,-7.55210e-02,-5.00815e-01,3.67569e-01,-3.23330e-01,-1.32283e-02,2.25958e-01,-7.09734e-01,3.18945e-01,4.01569e-01,3.87087e-01,-2.59334e-04,1.10290e-01,1.49574e+00,-4.59449e-03,3.92137e-01,5.42819e-02,
-5.44498e-02,2.14416e-02,1.48472e-03,1.07653e-02,-2.61632e-02,2.30711e-02,3.41004e-02,-2.87800e-02,-8.02153e-03,-3.68923e-03,-3.92981e-02,-4.06760e-02,-7.42722e-03,-5.25991e-02,-4.20683e-02,3.94492e-03,2.41337e-02,-1.88635e-02,-9.81791e-03,3.21485e-02,-4.67000e-02,1.90652e-03,-1.31883e-02,-1.77300e-02,-2.44110e-02,3.14557e-02,5.04663e-03,-3.99156e-02,-2.31730e-03,-1.99855e-02,-1.58834e-02,-3.19342e-02,-2.76502e-02,2.61504e-02,-3.21405e-02,2.13002e-02,-4.26862e-03,-3.31107e-02,7.15049e-03,-2.64043e-02,-2.00217e-02,-8.18750e-03,3.22203e-02,1.60788e-02,-1.07959e-02,-3.96369e-02,8.09404e-03,2.73886e-03,1.23373e-02,5.01327e-02,
4.29025e-01,-1.90393e-02,-1.05710e-02,7.98259e-01,3.32524e+00,1.13599e+00,6.38948e-01,-2.72543e+00,-7.93601e-02,1.90918e+00,-2.09323e+00,9.09988e-01,3.85075e-02,-8.00695e-01,-3.37696e-02,1.15027e+00,-8.83089e-01,-3.62942e+00,-1.87241e-02,-1.46454e+00,1.05752e+00,-6.22923e-01,-3.14192e-02,1.87703e+00,-1.40463e+00,2.12933e-02,4.45968e-01,-1.98048e+00,-1.39691e+00,-3.41611e+00,1.71712e-02,-1.86169e+00,8.90338e-01,-9.95141e+00,-3.34495e+00,-6.16306e-01,8.97276e-01,-2.37093e+00,7.23299e-03,3.04946e-01,9.25477e-01,-6.06872e-01,-1.04177e+00,3.28777e-01,-3.53717e-01,2.10566e+00,-6.72830e-01,-2.15295e-02,-6.04669e-01,-2.55996e-02,
-2.99640e-02,
4.51643e-01,
-2.18150e-01,
1.13004e-01,
7.63437e-01,
-5.32578e-01,
1.08612e-01,
-1.55840e-02,
-2.68862e-02,
-2.04765e-01,
5.26410e-01,
6.30740e-01,
-5.64160e-01,
1.32733e-01,
-1.65643e-01,
-1.77769e-01,
-2.25981e-02,
-3.57563e-01,
1.07408e+00,
-2.07670e-01,
-1.27259e+00,
2.65391e-01,
9.63863e-01,
1.02110e+00,
-6.03989e-01,
2.07180e-01,
3.03891e-01,
-2.07311e-02,
1.50729e-01,
-7.05963e-01,
-2.50362e-01,
5.91416e-01,
-5.92543e-01,
1.06147e+00,
-4.06309e-01,
2.38720e-02,
-1.28420e-02,
6.89514e-01,
-3.14454e-01,
-6.73849e-01,
-1.67744e-02,
-1.20310e-01,
-5.22085e-02,
-6.69841e-01,
1.79826e-01,
5.51450e-01,
-1.23596e-02,
8.20909e-01,
-2.03577e-02,
1.02813e-01,
2.74678e-02,-9.01546e-02,-2.63363e+00,5.73161e+00,-4.74982e-01,3.71475e+00,8.70773e-01,-1.79368e-02,-7.62774e-02,2.40750e+00,-1.99695e+00,5.01604e-01,-1.24713e+00,2.52944e-02,5.27553e-01,1.28217e+00,-6.50315e-03,7.95325e-01,-5.08719e-01,-6.10298e-02,9.94719e-01,2.56581e-01,-3.17382e-01,1.47916e+00,-9.52719e-01,1.01136e+00,3.96809e+00,-1.97213e-02,8.54419e-01,2.54314e+00,-3.83175e+00,1.48107e+00,2.33404e+00,-1.89735e-01,-9.24302e-01,3.11042e-01,1.34764e-02,-6.84678e-01,1.37886e-01,2.23438e-02,3.98376e-02,1.97130e+00,8.79353e-03,2.58772e+00,-2.17556e+00,-1.70765e+00,1.34518e-02,-6.27839e-01,1.04199e-02,-1.52673e+00,
-4.80291e-02,-6.07759e-01,1.73831e+00,4.09460e-01,-8.11594e-03,5.35338e-01,1.89857e+00,2.74610e-02,-3.11757e-02,1.38232e+00,-5.17526e-01,3.04296e-01,1.25553e+00,1.17528e-01,5.17929e-01,1.02055e-01,-2.77674e-02,1.05939e+00,-1.98051e-02,3.77840e-01,2.05185e-01,-5.09949e-01,-7.42780e-03,9.69555e-02,-5.52855e-01,-1.78434e-01,5.00535e-01,2.03438e-02,4.58175e-01,-1.26123e+00,-8.84598e-01,3.35641e-01,1.85068e+00,9.48668e-02,-1.30389e-01,1.38372e-01,-4.47508e-02,9.41671e-02,1.67644e+00,5.64342e-01,-7.53500e-03,5.54140e-01,3.60768e-02,-3.60918e-01,1.36067e+00,-5.65937e-02,3.83096e-02,-5.49570e-01,-4.28522e-02,-1.26369e+00,
3.37278e-02,1.50429e-01,4.28124e-01,7.44819e-01,1.50195e-01,-9.42292e-01,5.49026e-01,1.36121e-02,3.38207e-02,1.30310e-01,-4.29828e-01,-2.97446e-01,1.05400e-01,4.26126e-01,-2.61376e-01,-9.25353e-02,-1.70228e-02,-7.71117e-01,-6.81097e-01,7.29250e-01,-2.70317e-01,-4.13797e-01,-6.99108e-02,-2.26880e-01,1.43349e-02,2.80460e-01,5.67035e-01,3.37417e-02,1.42662e+00,4.34745e-01,-9.47660e-01,2.02940e+00,1.78979e+00,-9.88376e-01,1.32384e+00,4.68195e-01,2.70356e-02,-2.89761e-01,-2.28269e-01,-3.29003e-01,-1.19480e-02,4.80657e-01,-1.71059e-02,7.93529e-02,1.36492e+00,6.32734e-02,-1.74713e-02,6.23446e-02,-9.65942e-04,1.00291e+00,
1.81724e-02,6.50043e-01,3.01071e-01,1.77222e+00,-1.21041e+00,3.80268e-01,6.97049e-01,1.51335e-02,3.91276e-03,9.07525e-02,-2.12800e-01,7.75785e-01,-8.61513e-01,-1.39986e+00,2.87277e+00,1.17890e+00,-1.00994e-02,-8.83959e-02,-4.65294e-01,1.52916e+00,-3.41895e-01,8.58553e-01,8.41935e-01,2.26111e-01,-3.14964e-01,-1.22321e+00,1.22268e+00,-3.46139e-02,7.05111e-01,9.03766e-01,-9.67659e-01,-1.66260e-01,1.60541e+00,5.55524e-01,1.55823e-01,-2.84648e+00,-2.27481e-02,4.28271e-01,8.73925e-01,-3.73700e-01,-9.91946e-04,4.13949e-01,-1.48523e-02,5.98337e-01,-1.55337e+00,-9.11338e-03,-2.10761e-02,-8.90668e-01,3.74011e-02,6.30839e-01,
-4.12621e-02,-2.04533e-01,5.76003e-01,1.20791e+00,1.70120e-01,2.68898e+00,1.44981e-01,1.76363e-03,-2.20961e-02,2.44965e-01,6.43381e-02,-1.21886e-01,8.69368e-01,-3.18483e-01,-2.05489e-02,4.24564e-01,-2.67670e-02,2.36910e-01,3.62087e-01,-4.88107e-01,-7.83305e-01,-7.92786e-01,-3.11314e-01,-7.34686e-02,3.86697e-01,-3.68430e-01,2.58333e-01,7.02887e-03,1.94178e-01,1.76236e-01,7.74203e-01,1.64031e+00,-1.37018e+00,-6.87990e-01,-3.08434e-01,2.19325e-01,-2.42925e-02,1.45833e-01,3.71576e-01,-4.39011e-01,3.55424e-02,3.73457e-01,-2.14441e-02,-4.67237e-02,3.10149e-01,3.90470e-01,3.75416e-02,-2.35802e-01,2.36650e-02,1.65277e-01,
-3.27499e-02,7.80219e-01,1.41153e+00,1.28044e+00,6.24284e-01,1.88986e+00,-1.46258e+00,3.91869e-02,-2.11080e-02,1.38251e+00,2.34540e-01,-5.48922e-01,-1.42292e-01,-7.05543e-01,8.94347e-01,1.85837e-01,-3.92064e-02,2.34672e-01,-4.77481e-02,2.39365e+00,6.37960e-01,1.36795e+00,-4.60649e-01,-2.83488e-01,5.65671e-01,-5.60910e-01,-3.33254e-01,5.56606e-04,-6.56912e-01,-1.43628e-01,2.07929e+00,1.44306e+00,2.16694e+00,1.59251e-02,5.45297e-01,1.31758e+00,3.27888e-02,7.51130e-01,-2.52912e+00,-1.48378e+00,2.41907e-02,-1.45414e-01,3.77950e-02,4.28566e-01,4.63767e-01,1.52824e+00,-2.52522e-03,7.27245e-02,-3.41790e-02,-7.62103e-02,
3.37607e-02,3.10403e-01,-9.21733e-01,2.01896e-01,-4.09025e-01,2.55795e-01,-1.21262e+00,6.83357e-03,1.39591e-02,7.41068e-01,-4.53547e-01,6.10700e-01,-3.96654e-01,-2.14080e-01,-1.22873e+00,-1.90348e-01,1.86719e-03,7.38433e-01,3.67851e-02,1.85524e-01,-3.92525e+00,-1.92501e-02,-4.46335e-03,3.99281e-02,-1.61692e-01,-4.82307e-01,6.26751e-03,-1.29888e-02,6.80474e-03,-6.89568e-02,-9.49985e-01,-3.19206e-01,1.35297e-01,-8.10658e-02,2.48755e-01,2.87068e-03,-1.62848e-02,-1.24087e+00,3.03467e-01,3.99971e-01,3.78653e-02,3.88701e-01,-4.06022e-03,2.77649e-02,-2.42678e-01,1.95119e-01,-3.33293e-02,-6.20808e-01,-1.65501e-02,3.02882e-01,
-4.53298e-02,-5.66078e-01,9.91330e-01,1.09682e+00,-2.00245e+00,4.79525e-01,-7.28045e-01,1.30407e-02,2.11533e-02,2.45469e+00,3.26168e-01,-1.02243e+00,-2.84535e+00,3.00383e-01,2.54411e+00,-1.11295e+00,-1.15295e-02,-1.03310e-01,7.04007e-02,-1.02532e-01,9.62308e-01,2.12189e-01,3.88490e-01,-8.03846e-01,-8.50344e-01,8.66951e-01,-2.51859e-01,-4.98484e-02,5.48663e-01,8.10748e-01,-1.13848e+00,2.99729e-01,-3.67798e+00,1.15327e-01,1.09746e+00,1.67236e+00,3.71640e-02,5.78348e-01,9.73050e-01,-2.01831e+00,2.48706e-02,9.37804e-01,-2.29566e-02,6.63320e-01,9.49529e-01,1.27338e+00,-2.42558e-02,1.12476e-01,-2.59472e-02,5.62003e-01,
2.50563e-02,-3.55791e-02,-1.41390e-01,-5.28383e-01,1.10991e-01,-1.14680e+00,-2.49766e-01,-2.91707e-02,2.69476e-02,1.05861e+00,-5.45020e-01,-2.00987e+00,8.85304e-01,-4.32088e-01,-3.45942e+00,-9.29271e-01,2.04412e-03,-5.18588e-01,2.00138e-02,-2.51940e+00,-6.52403e-02,1.10221e+00,5.12693e-01,-5.59182e-01,-8.55864e-01,-6.62941e-01,-3.83957e-01,4.64949e-02,1.38261e-01,1.84420e-02,-1.24004e-01,1.13112e-01,9.59065e-01,1.19037e-01,5.44848e-01,1.23721e+00,-3.10437e-02,2.06866e-01,-5.07274e+00,1.80088e-01,-2.98465e-02,-5.62243e-01,1.33495e-02,-3.98225e-01,1.09511e+00,-2.03430e+00,-1.03403e-02,6.10421e-01,2.09987e-02,7.63113e-02,
5.30478e-02,-1.54614e+00,7.94990e-01,1.44256e+00,-3.48561e-01,8.42361e-01,-1.52246e+00,-2.65492e-02,-6.70606e-02,2.07108e+00,-1.42950e+00,1.19415e+00,-2.05100e+00,8.77677e-02,1.14362e+00,-5.78623e-01,-1.04272e-03,-2.71005e+00,-4.12039e-01,3.33607e+00,2.70905e+00,8.64523e-01,3.70361e-01,1.43529e+00,9.39033e-01,2.13036e-01,-1.55353e-01,-2.71988e-03,-5.10184e+00,-4.88620e+00,-3.18516e+00,-1.45609e+00,-1.18768e+00,1.50377e-01,3.57702e-01,6.97453e-03,-1.48637e-02,-3.25467e+00,-6.50877e-01,3.09007e-01,-3.47317e-02,-3.92389e+00,1.63514e-02,-1.30924e+00,-9.32568e-01,-8.77867e-01,-1.39140e-02,-2.32824e-01,-2.22461e-02,-6.97963e+00,
-4.98068e-02,9.60034e-01,6.33055e-01,-4.68737e-01,4.35418e-01,1.39797e-01,-3.88151e-02,-1.62414e-03,-5.32695e-02,-1.04174e+00,4.20902e-01,5.74668e-02,-1.60057e+00,2.49436e-01,4.47496e-01,-1.18005e-01,1.89655e-02,-8.39018e-02,-3.83642e-01,1.29839e+00,-2.29460e-01,5.07354e-01,-7.38434e-02,1.92182e-01,-7.91874e-01,4.15735e-01,8.09870e-01,1.44145e-02,8.79963e-02,-2.92786e-02,-1.01615e+00,-3.07981e-01,1.06057e+00,-1.02563e-01,-1.77987e-01,8.92522e-01,-4.75369e-02,2.39070e-01,3.20895e-01,-3.37866e-01,-2.31828e-02,-8.59917e-01,-3.46586e-02,-6.68013e-01,-7.10916e-01,2.35757e-01,5.69016e-02,3.58385e-01,4.58689e-02,2.20150e-01,
1.23718e-02,5.06238e-02,1.45863e-01,4.98002e-02,-1.42529e-01,1.08801e+00,9.73766e-01,1.39910e-02,1.09052e-02,2.93742e-01,-6.11629e-02,3.18484e-03,-1.20364e-01,1.43603e-01,-7.04794e-01,1.87714e-01,-3.16586e-02,-1.81357e-01,-5.22563e-02,-1.31325e-01,2.07176e-02,-1.42269e-01,2.95421e-01,-1.16719e-01,-6.29156e-01,-3.82790e-02,1.66005e-02,4.86972e-02,1.26768e-01,-7.22746e-02,1.57898e-01,1.13247e+00,5.71671e-01,-1.17226e-01,1.86862e-01,-1.48536e-01,-9.86446e-03,2.01696e-02,2.53903e-01,3.54607e-01,2.44846e-02,2.38572e-01,4.65676e-02,1.44865e-01,5.55377e-01,-3.93465e-01,-4.93994e-02,6.51829e-02,2.83439e-02,4.94285e-03,
4.94715e-03,-1.47291e-02,5.75290e-03,5.96457e-01,2.55830e-01,-1.18269e-01,-1.28975e+00,-9.75677e-03,-1.69515e-03,7.49258e-01,-3.52571e-01,1.83616e-01,-2.37300e-01,1.29101e+00,-3.39591e-01,-3.45030e-01,1.36001e-02,8.44611e-02,-9.56735e-02,-1.78557e+00,7.18293e-01,-1.83478e-01,4.28595e-01,3.31075e-01,-3.68725e-01,-1.96653e-01,-4.95149e-02,2.36935e-02,6.30630e-01,9.11838e-01,2.11002e+00,-5.18899e-01,-6.70179e-01,-4.17202e-02,5.84852e-01,-3.48652e-01,-4.67227e-02,3.39549e-01,1.85495e-01,-4.25882e-01,-1.26130e-02,9.48748e-02,3.34355e-02,-1.42990e-01,2.89904e-01,7.17258e-01,-2.68236e-02,9.97753e-01,-2.98681e-02,-3.84723e-01,
-2.65871e-02,9.07454e-02,-6.92817e-01,-8.38518e-02,-3.42655e-03,1.43612e+00,-3.95361e-02,3.90655e-02,-5.38511e-02,-5.73427e-01,-1.05239e-01,-3.19393e-02,-6.76069e-01,-9.35197e-02,-9.69001e-01,1.94368e+00,3.11419e-02,-3.55366e-01,-5.49127e-02,-5.54953e-01,-4.65573e-02,4.34319e-01,2.75418e-01,2.42849e-01,-9.72705e-01,6.39026e-02,4.86857e-01,3.45431e-02,1.61221e-01,2.59687e-01,-4.16023e+00,-5.48430e-01,-1.67313e+00,-4.46675e+00,-3.90802e-01,-3.19353e-01,3.08598e-02,-8.57890e-01,-6.80413e-01,1.13308e+00,1.38728e-02,-7.98785e-01,-1.30822e-02,2.33382e-02,-8.73999e-01,5.54349e-01,-5.71176e-03,-2.25350e-01,3.25938e-02,5.52506e-02,
4.14479e-02,1.18651e-01,-1.28821e+00,9.84098e-01,1.31425e+00,2.25424e-01,-1.01079e+00,-3.16245e-02,1.02050e-02,-1.54843e+00,9.67350e-01,-7.62481e-01,-1.47072e+00,-1.04936e+00,2.20988e-01,-4.81058e-01,1.47321e-03,1.93194e-01,1.76022e-01,-1.95190e+00,2.16426e-01,1.01002e+00,8.28532e-01,-8.77747e-02,-2.00401e+00,-8.10607e-02,-3.36814e-01,-2.76407e-02,-6.14522e-02,1.60620e-01,1.06374e+00,2.28674e-01,-2.51939e-01,3.55729e-02,-4.19457e-01,5.07926e-01,4.04985e-03,-7.42835e-01,-6.26067e+00,-1.49531e+00,3.14316e-02,3.70377e-01,-2.12585e-02,3.72655e-01,7.30656e-02,-8.80690e-01,4.05615e-02,2.80606e-01,-2.34576e-02,3.88518e-01,
-3.57000e-02,8.69865e-01,5.10775e-01,-6.21461e-02,6.79774e-01,2.60503e+00,-2.42886e-01,1.61152e-02,-4.94164e-02,-3.83034e-01,3.09168e-01,1.96178e-01,-1.13694e+00,-7.53113e-01,-2.83850e-02,5.13935e-01,2.50120e-02,6.64689e-01,1.33395e-01,-6.66088e-01,-2.19165e-01,6.37261e-01,-3.54225e-01,-1.38021e-01,1.91203e-01,4.59864e-01,1.00066e-01,-1.37046e-02,1.39554e+00,4.92262e-01,1.10501e+00,6.08942e-02,-2.04062e-01,5.47829e-01,-6.04357e-01,3.66412e-01,-3.22199e-02,-1.03509e+00,-8.37380e-01,-1.13435e+00,5.60760e-03,-8.75683e-01,-4.41216e-02,-1.10099e+00,-3.24274e+00,2.94168e-01,8.64285e-03,-7.72055e-01,-3.97125e-02,-2.94832e-01,
2.08935e-02,6.46480e-01,3.36516e-01,1.13241e+00,-2.76735e-01,3.32206e-01,-8.14291e-01,-5.77479e-03,2.29758e-02,1.57124e+00,4.68418e-05,4.24974e-02,1.73768e-02,3.36848e-02,6.95178e-01,-6.32623e-01,4.47315e-02,-1.14533e-01,1.95465e-01,2.03600e+00,-3.92987e-01,-2.79394e-01,-4.87548e-02,-4.74199e-02,2.54414e-01,7.07009e-01,7.30984e-01,1.27713e-02,4.59413e-01,2.10498e-01,8.18539e-01,-9.58129e-01,5.61531e-01,6.94302e-02,-3.84921e-01,7.21244e-01,-5.62984e-03,-4.29136e-01,1.47519e+00,-4.39467e-01,-8.22993e-03,2.55195e-01,4.96512e-02,1.91869e-01,-2.27687e-01,8.95331e-01,2.63361e-03,-4.45058e-01,2.63096e-02,6.59105e-01,
-4.03001e-02,4.06803e-01,1.39786e+00,7.88026e-01,-3.42465e-02,-1.55442e+00,-1.41691e-01,-1.04589e-02,4.16527e-02,3.75606e-01,4.16840e-01,-2.31828e-01,-1.22769e+00,7.77755e-01,-1.73101e+00,8.09087e-01,-2.61260e-02,4.62332e-01,-2.78527e-01,-9.56162e-01,-4.62927e-01,1.72677e-01,4.28004e-01,-2.27695e-01,6.25515e-01,-9.57778e-02,-1.79077e-02,2.26361e-02,-1.95049e-01,-8.54769e-02,2.45872e+00,8.57191e-02,1.62687e+00,-2.65541e-01,1.36868e-01,9.73938e-01,1.78376e-02,1.14548e+00,-7.05133e-01,-2.10078e+00,-4.01344e-03,3.74412e-01,3.41957e-02,1.37698e-02,8.42618e-01,5.43108e-01,1.64679e-02,-2.45866e+00,-1.09396e-02,3.08543e-01,
1.37718e-02,-1.38735e-02,2.58157e-01,4.75507e-01,-2.52770e-01,-3.02848e-01,1.87087e-01,3.08684e-03,-8.68869e-03,3.21359e-01,7.45564e-03,1.38401e-01,2.20406e-01,-5.27863e-02,-5.56862e-01,-1.48785e-01,4.76568e-02,1.80551e-02,7.55385e-02,-4.79999e-01,-2.04473e-01,4.22220e-02,-1.19581e-01,8.94599e-02,4.60920e-01,-2.40480e-01,1.34073e-01,4.61969e-02,3.97106e-01,1.10047e-01,3.47925e-01,1.31799e+00,1.10862e+00,-1.27809e+00,-1.51213e-01,8.07302e-02,3.98331e-02,-1.18273e-01,-6.07279e-01,1.20952e-01,4.96597e-02,2.56301e-01,2.84996e-03,5.59484e-02,4.32588e-01,3.51062e-02,2.17754e-03,-3.08344e-02,-2.21717e-02,1.24311e-01,
-1.08043e-02,2.88191e-01,-9.84293e-01,6.27094e-01,1.45362e-01,-1.40039e+00,-3.83445e-01,4.52095e-02,3.83209e-03,3.14088e-01,-3.18647e-01,5.34633e-01,-4.32035e-01,-4.96427e-01,3.24681e-01,3.70921e-01,4.30909e-02,-1.05027e-01,-8.82446e-03,2.24101e-01,3.42251e-03,5.24172e-01,-2.32242e-01,-1.40341e-01,6.41572e-01,3.02560e-01,3.59676e-02,2.22262e-02,-2.45185e-01,6.57189e-03,-1.54287e+00,2.66897e-01,-9.30263e-01,-3.59908e-01,2.05018e-01,6.23675e-01,-2.79756e-02,4.96237e-01,1.14879e+00,-4.13799e-01,2.22032e-02,8.97355e-02,-1.49963e-02,3.38758e-02,4.57141e-01,-1.81020e-01,4.67526e-02,-1.90109e+00,3.96938e-02,1.93628e-02,
-2.92124e-02,1.86248e-01,3.89227e-02,8.33308e-01,1.86820e-01,1.98654e+00,-1.59135e-01,-3.11256e-02,3.75613e-03,-4.23060e-02,-8.89553e-01,-4.14585e-01,-2.77563e-01,-1.43681e-01,5.46484e-01,-2.62894e-01,-4.46840e-03,-3.36474e-01,8.07677e-03,-6.29261e-01,3.74680e-01,-9.54108e-01,7.35303e-01,2.23587e-01,2.39822e-01,-1.01052e+00,7.97416e-02,-2.23764e-02,8.69362e-01,-1.07020e-03,-1.88063e+00,6.92715e-01,-6.97520e-02,-1.27281e-02,1.34949e-01,1.43964e+00,-4.29186e-02,-1.14173e-01,4.30539e-01,1.21450e+00,-3.37730e-03,8.11731e-01,-8.65535e-03,2.45233e-01,-8.25752e-02,-5.91845e-01,-1.64616e-02,2.41335e-01,6.85084e-03,1.32816e-02,
-1.91277e-02,7.56442e-01,9.37866e-01,1.09574e+00,1.54332e-01,6.83428e-02,-2.35134e-01,4.93605e-02,-7.22636e-03,2.05419e+00,4.42398e-01,8.02510e-01,6.58973e-01,2.22791e-01,1.23509e+00,-3.15514e-01,-2.36130e-02,3.65353e-01,1.35636e-01,9.62266e-01,-4.19541e-01,3.01174e-01,-3.47246e-02,1.11387e-02,-1.98231e-01,-2.04962e-01,6.27344e-01,1.01706e-02,5.10293e-01,6.60302e-01,-3.30905e-02,2.13098e-01,-4.09953e-02,-9.59131e+00,1.06157e+00,4.86866e-01,2.19611e-02,2.87584e-01,9.45860e-01,2.45398e-02,5.43854e-03,1.07017e+00,-4.06319e-02,4.43699e-01,2.92840e-01,-2.41389e-01,-4.97825e-02,-1.16717e-01,-2.56403e-02,2.60618e-01,
-1.20963e-03,-2.14940e-01,-1.09437e-01,3.41813e-01,8.04505e-02,6.29447e-01,-6.35210e-03,-2.14187e-02,8.17329e-03,5.90662e-01,-7.38945e-02,2.14517e-01,4.59885e-01,-1.85734e-01,-2.69737e-01,-7.82547e-01,-3.24994e-02,-2.37450e-01,4.10200e-03,7.04290e-01,-3.66817e-02,4.57565e-01,4.09896e-01,1.71564e-01,3.06869e-02,-2.69633e-01,9.24726e-01,-3.35073e-02,6.51010e-01,8.17285e-01,5.48444e-01,-8.07974e-01,2.99542e-02,2.83631e-01,-3.61655e-01,2.55108e-01,-3.23118e-02,-2.91338e-01,-7.88881e-01,8.13320e-02,3.77084e-02,3.55542e-01,4.55669e-02,9.86832e-01,-5.01882e-01,-3.70703e-01,-7.17961e-03,3.76495e-01,1.93233e-02,1.14369e-01,
-2.29384e-02,9.17054e-01,1.26063e+00,1.26281e+00,-4.75531e-01,-1.13067e+00,-1.60775e+00,2.02424e-02,-1.87662e-02,2.00544e-01,3.88521e-01,5.02460e-01,-6.29765e-01,8.98496e-01,9.76437e-01,-7.73770e-01,3.13274e-02,4.63890e-01,2.33688e-01,1.32075e+00,-4.25865e-01,4.69865e-01,6.44798e-02,-1.68346e-01,-2.38161e+00,4.35833e-02,8.61985e-01,3.31063e-02,-4.59143e-01,1.90579e-01,4.20778e-01,4.18998e-02,-3.27421e-01,-9.53806e-02,3.85767e-01,-7.07844e-01,3.56503e-02,1.27246e+00,1.51768e-01,5.35603e-01,1.87204e-02,-1.07469e-02,5.12048e-02,-7.09372e-02,7.46293e-01,-1.85468e-01,-3.68172e-02,-4.06307e-01,3.09182e-02,-3.59744e-01,
8.18688e-03,-1.13238e+00,1.69696e+00,4.91061e-01,-1.53561e-01,1.58377e+00,-1.20234e+00,3.86036e-03,-1.07408e-02,2.21492e+00,9.03902e-01,-7.58435e-02,1.38241e+00,-4.94359e-01,2.02552e-01,9.37426e-02,3.19625e-02,8.13174e-01,1.93293e-01,6.36067e-01,3.67891e-01,8.35118e-01,1.02962e+00,-2.44081e-01,2.92473e-01,4.18513e-02,-1.83867e-01,-2.36778e-02,-1.56797e-01,3.45772e-01,2.15846e+00,7.65204e-01,-3.72403e-02,-2.73369e-01,3.16399e-01,8.20358e-01,2.78044e-03,1.64249e-01,-2.57978e+00,7.91096e-02,3.73501e-02,5.39546e-01,-3.37652e-02,3.42582e-01,-1.93216e+00,5.89404e-01,-1.03111e-02,7.04041e-01,-4.22123e-02,-2.36382e-01,
-3.10032e-02,-1.30819e+00,-9.08751e-02,5.36808e-01,2.45099e-01,-4.73893e+00,3.48954e-01,3.48880e-02,-3.84493e-02,-4.96411e-01,-1.37865e-01,-9.21359e-02,-2.42974e+00,4.86383e-01,1.74112e-01,-2.36464e+00,1.70938e-02,-4.84003e-01,-4.91711e-01,-1.86026e+00,5.32434e-01,2.96009e-01,8.68039e-01,6.31157e-01,1.99365e+00,-7.75141e-01,3.62564e-01,3.18949e-03,4.90222e-01,5.68685e-01,-3.66257e-01,-3.79198e-01,1.32755e+00,4.01771e-02,-6.62125e-03,-1.09046e+00,4.87367e-02,-7.51680e-01,-5.36721e+00,-1.06722e+00,-3.82577e-02,-1.23346e+00,-4.59793e-02,1.16338e-02,4.68956e-02,2.02788e-01,-2.02024e-02,-7.04245e-02,4.01388e-02,-5.41142e-01,
1.70410e-02,-6.32191e-01,8.19131e-01,5.24332e-02,-7.29200e-01,-2.87236e-01,-6.17687e-02,-3.68162e-02,-4.96093e-02,-2.64336e+00,-3.52691e+00,-5.92504e-02,1.07267e+00,-5.12580e-02,-3.43711e+00,-1.90252e+00,-2.95476e-02,-4.43738e+00,-6.09766e-01,2.24518e+00,-1.84871e+00,-6.29542e-01,-1.06136e+00,-4.07183e+00,-3.08080e-01,6.07567e-01,-5.45733e+00,4.18916e-02,-2.60532e+00,-1.05496e+00,-2.63252e+00,2.55891e-01,-1.92127e+00,-7.31305e-01,1.59705e-02,4.00920e-01,4.16397e-02,2.72652e-01,7.01073e-02,-2.08144e-01,-2.25198e-02,-7.32272e+00,-3.03456e-02,-1.13594e+00,-3.63104e+00,-4.06784e+00,1.23891e-02,-4.51337e+00,4.87732e-02,1.01796e+00,
-1.02601e-03,7.62123e-01,-3.77617e-01,-7.92138e-02,-6.23962e-02,1.72061e+00,9.51222e-01,-4.77134e-02,-2.33003e-02,-4.32775e-01,-2.10246e-01,6.32662e-01,2.13573e-01,3.81462e-01,1.19489e+00,1.27205e-01,-2.89064e-02,-6.99659e-01,-1.65756e-01,2.26173e+00,5.49214e-01,7.45228e-01,-1.41688e+00,3.06004e-01,-5.36531e-01,-1.25276e-01,2.22472e-01,-1.09994e-02,4.71504e-02,6.38416e-01,2.75671e+00,2.40846e-01,1.37516e+00,3.02619e-01,-8.49204e-02,-4.74867e-01,2.76280e-02,-1.79521e-01,5.98894e-01,4.14927e-01,-2.63011e-02,-2.00172e-02,-1.36097e-02,1.49278e-01,-5.06463e-01,1.03439e+00,-3.11322e-02,-5.89254e-01,-1.55681e-02,1.19606e-01,
-4.24610e-02,9.43292e-03,-1.04573e-02,9.07636e-01,-3.52304e-02,-4.05537e+00,-6.86504e-02,-3.52524e-02,1.08281e-03,1.33040e+00,2.09445e-01,-4.73353e-01,-3.46769e-02,1.95782e-01,1.33259e+00,-4.25831e-02,4.63491e-03,-9.87674e-02,-1.99540e-01,5.24424e-01,-1.55694e-02,-2.74879e-01,2.16962e-01,-3.85460e-01,5.70305e-02,-3.37245e-01,-2.29085e+00,-4.26300e-02,6.30690e-01,-1.57680e-01,8.90111e-01,-1.18422e-01,-8.59927e-02,1.65055e-02,-8.28337e-01,1.63253e-01,2.84424e-02,-1.16471e-01,8.83972e-01,-1.21613e-01,-4.40065e-02,7.35762e-01,-5.06456e-04,-1.43465e-01,-1.63737e-01,-7.93122e-02,-2.10072e-02,-1.14431e-01,1.74651e-02,1.01170e-02,
1.15486e-02,-1.45608e-01,-4.79061e-01,-2.99061e-01,1.14566e-02,2.75721e+00,-4.92876e-02,-1.90722e-02,8.48879e-02,-1.77092e+00,2.95391e-01,4.48251e-01,1.02031e+00,-4.48548e-01,-8.23355e-01,7.08634e-02,3.40509e-03,-2.46936e-01,-2.31236e-01,-8.54875e-01,1.69337e-01,-1.48048e-01,-1.78072e-01,-2.87527e-01,6.69182e-01,1.16013e-01,-1.36362e-02,2.99582e-02,2.56226e-01,-1.32954e-01,-1.35278e-01,-2.61514e-02,7.27550e-01,4.05008e-02,3.44541e-01,9.88613e-01,5.29822e-03,1.72966e-01,1.71264e+00,-2.21601e-01,3.75156e-02,1.26163e+00,3.12487e-02,1.26058e-01,-3.02980e-01,2.37603e-01,-2.39994e-02,7.62241e-01,2.85861e-02,8.72573e-02,
1.36531e-02,1.07017e-01,4.69598e-02,1.28248e-01,-1.52122e-01,-4.39903e-02,3.02266e-01,1.63261e-02,-1.66204e-02,1.05352e+00,-2.03873e-01,6.36613e-01,3.20835e-01,-1.92359e-02,1.70943e-02,9.15604e-03,-4.90779e-03,-5.60561e-02,-6.55896e-02,6.86973e-01,-1.15697e-01,-2.64458e-01,5.33450e-02,-2.02956e-01,5.93393e-01,-1.06899e-01,-2.38851e-01,-3.67847e-02,2.99250e-01,2.40928e-03,2.08150e+00,-8.43428e-02,4.12476e-01,-3.23804e-01,-2.51771e-01,2.44396e-01,-1.34964e-02,-2.22467e-01,2.09242e-01,-1.63606e-01,1.18063e-02,4.24504e-01,2.89122e-02,-9.20493e-02,-3.93164e-01,1.32862e-01,1.88540e-02,1.06144e-01,7.26744e-03,-7.38912e-02,
2.47322e-02,-9.41803e-01,6.77655e-01,1.78477e+00,-9.31501e-01,4.44781e-01,-1.23451e+00,1.29307e-02,-3.25136e-02,1.15421e+00,1.93151e-01,2.49173e-02,-4.14992e-01,1.06185e-02,-1.24329e+00,-4.05494e-01,1.02138e-02,1.03381e+00,2.62440e-01,-1.75277e+00,2.31887e-01,-2.15078e-02,-2.39111e-01,4.12360e-02,-5.51244e-01,-3.33143e-01,-3.12747e-01,-3.15302e-02,-1.73530e+00,-2.54882e+00,-1.87733e-01,-1.53124e+00,-6.03348e-01,-4.53214e-01,-4.08648e-01,-1.58845e+00,-5.43659e-02,2.14675e+00,-4.05081e+00,-2.96717e+00,-3.74832e-02,-1.54791e+00,8.71373e-03,-9.02340e-01,6.49568e-01,1.71285e+00,1.26766e-02,-1.77088e-01,3.70291e-02,1.46144e+00,
5.30149e-02,2.86655e-01,-3.34359e-01,1.86525e+00,-2.75874e-01,1.33847e+00,5.63638e-01,-1.29304e-02,-5.88851e-02,1.38938e+00,-4.97265e-01,1.07302e+00,1.47350e-01,1.37804e-02,5.48555e-01,-1.79367e-01,4.76001e-02,-4.21239e-01,-5.07832e-01,1.15174e+00,-7.32461e-01,-3.74980e-01,6.51297e-01,-1.02693e-01,1.77989e-01,-4.25388e-02,1.05714e+00,1.69567e-03,8.00606e-01,1.05939e+00,3.78870e-01,3.11363e-01,9.43383e-01,3.65671e-01,4.05432e-02,1.48090e+00,-7.64733e-03,-2.01408e-01,1.82149e+00,-1.05252e-01,-5.20049e-02,1.02415e+00,4.14766e-02,4.36738e-01,3.90803e-01,4.92243e-01,3.08696e-02,-4.33491e-01,-5.51790e-02,5.96031e-01,
1.34348e-02,-5.15734e-01,-7.34992e-02,7.01388e-01,-5.59094e-01,1.02361e+00,8.85557e-01,-2.60870e-04,-2.50578e-03,9.05774e-01,3.39002e-01,-2.78431e-01,-1.77704e-01,9.45386e-01,1.41681e+00,-1.23211e-02,-2.44076e-03,7.19412e-01,-1.69728e-01,7.77974e-01,3.31125e-01,8.27302e-01,-5.14934e-01,-1.91379e-01,-2.32769e-01,-1.67439e-01,-2.66506e-01,1.85844e-03,3.03817e-01,1.10892e-01,-1.14638e+00,5.46557e-01,-8.91256e-01,-5.16856e-02,-1.15808e+00,2.69237e-01,-8.94547e-03,6.04819e-01,1.06782e+00,2.68877e-01,-4.33045e-02,1.10183e+00,-2.62811e-02,7.24505e-02,-1.18500e+00,1.49291e-01,-3.82854e-02,-1.07644e+00,-3.40793e-02,6.02184e-02,
4.24477e-02,6.94128e-01,1.17628e+00,1.55490e+00,-2.87665e-01,2.29745e-01,4.99461e-01,-2.70313e-02,-2.98772e-02,-3.40783e+00,1.43735e+00,-2.27016e+00,8.80106e-01,8.21694e-01,2.24641e-01,6.13975e-01,4.80005e-02,5.43947e-01,6.69556e-04,1.26969e+00,4.04048e-01,1.32741e+00,-4.18481e-01,-2.99670e+00,-2.59649e+00,-4.25339e-01,-2.18692e+00,-4.98191e-02,-4.01065e+00,2.31644e-01,1.28809e+00,-3.48880e-01,1.36618e+00,-8.28778e-02,9.82757e-01,5.84018e-01,1.42998e-02,7.02231e-01,7.74167e-02,5.61353e-01,8.43255e-03,5.56053e-01,-7.62124e-03,-1.17151e-01,1.03274e+00,-1.92740e-01,-1.84424e-02,-4.04562e-01,-1.98873e-02,6.37975e-03,
-4.71442e-02,7.14260e-01,-1.25849e-01,-8.16945e-02,-9.62823e-01,4.26965e+00,-3.29296e-02,-2.48232e-02,5.67019e-03,-3.71125e-01,-1.38888e+00,-5.94901e-01,-8.33246e-01,-8.00142e-02,4.43897e-01,-3.47529e-01,2.70168e-02,-5.33163e-01,1.31896e-01,1.64930e+00,3.38156e-01,-1.04277e-01,-6.48264e-01,1.27512e-01,1.03326e+00,2.33837e-01,-2.78330e-01,4.77260e-03,-2.23040e-01,3.10104e-01,-1.51929e+00,-1.67611e-01,8.73381e-01,3.91894e-01,2.17010e-01,-2.46837e+00,2.51698e-02,-2.72840e+00,6.62734e-01,6.14866e-02,-3.55567e-03,4.60961e-01,3.19739e-02,4.96859e-01,-1.55274e+00,8.10589e-01,6.19455e-02,-9.41097e-02,1.01456e-02,3.06060e-01,
4.71519e-02,4.42044e-01,-5.52423e-01,-1.64317e-01,-6.80151e-01,-3.11214e-01,7.35979e-01,6.18037e-03,-2.58956e-02,-5.27787e+00,-3.08622e-02,-3.24263e-01,5.32917e-02,-8.43966e-01,4.70415e-01,1.26628e-01,2.30122e-02,-1.03376e-01,1.45330e-01,-4.58706e-01,-7.99906e-01,7.64788e-02,-6.07352e-01,-1.48001e-01,-2.05541e-01,-2.67903e-01,1.10994e+00,-2.03473e-02,2.40148e-01,3.06006e-01,4.62366e-01,1.50394e-01,-1.43765e+00,1.61375e-01,5.16687e-01,5.05595e-01,-4.23316e-02,-4.34770e-01,-4.64239e-01,-3.98473e-01,-1.50159e-02,-1.12794e+00,4.37685e-02,-4.17649e-01,-1.65268e-01,-2.66016e-01,-8.82890e-03,-9.89400e-02,1.21883e-02,1.19899e-01,
2.73595e-02,3.85765e-01,1.37819e-01,8.86271e-01,-2.99331e-01,3.62912e-01,9.23493e-01,-4.94657e-03,5.23450e-02,5.97122e-01,-6.75900e-02,-1.12938e+00,-4.14947e-01,8.51115e-02,-5.78792e-01,1.10247e-01,1.29188e-02,8.09665e-02,-4.59297e-02,-2.18034e-01,-4.37297e-01,1.67234e-01,4.04924e-01,-2.36667e-01,7.60914e-02,-4.10406e-02,-4.78618e-01,2.17842e-02,-1.18855e-01,-1.67022e-01,2.02678e-01,2.20429e-01,3.73987e-01,-5.57521e-02,2.10437e-01,2.36816e-02,-6.84851e-03,8.34927e-02,4.82859e-01,4.94450e-02,-1.54373e-02,4.52239e-01,-4.00292e-02,-9.86788e-01,3.63210e-01,-9.47246e-04,-1.23449e-02,3.89306e-01,-3.84806e-02,-1.79286e-01,
4.73148e-02,-2.41494e-01,6.91399e-01,-1.63309e+00,-1.29221e-01,1.25395e+00,1.10844e+00,3.67455e-02,4.50797e-02,2.21729e+00,4.25458e-01,5.00459e-01,-6.58312e-02,4.61929e-01,1.05178e-01,2.97260e-01,-1.17789e-02,2.63692e-01,-7.78195e-02,5.96733e-01,4.12817e-01,1.12850e-01,5.76690e-01,-1.10638e-01,1.14179e+00,-3.26180e-01,-8.19526e-01,-1.67511e-02,-1.38780e+00,-1.55952e+00,1.23238e+00,7.87130e-01,-4.32973e-01,5.99497e-01,5.38571e-01,7.51377e-01,4.93948e-03,8.57007e-01,1.27899e+00,4.29358e-01,1.96301e-02,-3.40180e-01,-4.79574e-02,-3.30497e-01,-1.92941e-02,7.29281e-01,2.32571e-02,3.78123e-01,1.72697e-02,-4.91696e-01,
3.84879e-02,-3.00036e-01,1.17006e+00,9.88718e-01,-2.40834e-01,8.62892e-01,8.07187e-01,9.06190e-03,-1.75739e-02,1.83584e+00,1.44879e-01,2.94590e-02,5.44177e-01,-1.41058e-01,2.06047e-02,-5.47171e-01,4.92607e-02,-9.29017e-01,3.46469e-01,2.21325e-02,1.30826e-01,-4.88148e-01,-5.23505e-03,7.53955e-04,-8.15607e-02,-1.61345e-01,-2.00935e-01,3.86332e-02,6.57918e-01,2.48303e-01,1.13208e+00,2.69464e+00,-3.10575e-01,-1.02076e-01,-1.26482e-01,-5.86741e-01,-4.41303e-02,-2.63979e-01,1.40779e+00,1.39195e+00,-4.30323e-02,1.18237e-01,-2.14328e-02,2.66469e-01,7.02994e-01,4.14944e-01,2.90726e-02,1.53428e-01,1.96172e-02,5.00402e-01,
-2.29177e-02,8.52553e-01,1.10617e+00,4.68286e-01,-1.94905e-01,1.13371e-01,8.12007e-01,-2.81813e-02,-1.72598e-02,2.67096e+00,-2.05029e-01,2.03930e-01,5.51347e-01,-7.00418e-02,1.07896e+00,-1.67589e-01,-8.83731e-03,5.22018e-01,1.94857e-01,5.60768e-01,7.83428e-01,9.48384e-01,-5.32165e-01,-1.72332e-01,2.09089e-01,2.36175e-01,4.97067e-02,-3.54353e-03,-1.32614e-01,2.85729e-01,5.91145e-01,-2.20805e+00,-4.38840e-01,-5.18494e-01,-6.08439e-01,-2.79348e-01,4.70712e-02,-1.95075e+00,1.25344e+00,-9.73565e-01,-1.20183e-03,1.42255e+00,3.48847e-02,1.76505e-01,9.02347e-02,7.15255e-01,9.52540e-04,-9.11553e-01,-8.66574e-03,1.79766e-01,
2.22817e-02,-1.56338e-01,6.52238e-01,-1.00368e-02,2.60381e-01,1.79618e+00,8.71074e-01,-6.51995e-03,2.76059e-02,2.35417e+00,6.51661e-01,5.59133e-01,-1.03868e-01,1.64920e-01,5.45938e-02,-2.18524e-01,4.51303e-03,-2.64219e-01,1.75964e-01,-4.81590e-01,2.11425e-01,-4.07459e-01,1.26341e-01,5.58754e-02,-7.97856e-02,-3.72821e-02,-3.24588e-01,1.67364e-02,9.40406e-02,2.45278e-01,1.14578e+00,4.67003e-01,-3.50376e-01,1.77220e-03,-2.70449e-02,1.03383e-01,2.44359e-02,2.15188e-01,2.20464e-01,2.91726e-01,-3.65944e-02,-2.96144e+00,7.00676e-03,2.31214e-01,-6.86637e-02,5.13013e-01,-2.76431e-02,1.93280e-01,-4.62473e-02,-1.37827e-01,
1.51092e-02,-7.76471e-01,-1.20291e+00,3.36662e-01,2.72470e-01,-2.55639e+00,-1.08757e+00,-3.16023e-02,1.81954e-02,-3.58170e+00,7.31900e-02,-2.74873e-02,-6.44127e-01,5.26340e-02,4.96320e-01,7.75398e-02,4.79289e-03,-7.14071e-01,2.49455e-02,-1.01637e+00,1.79632e+00,2.46264e-02,-1.80593e+00,3.46873e-01,-1.85464e+00,3.30251e-01,-6.04185e-01,-4.67187e-02,-5.72477e-01,-1.77771e-01,1.76164e+00,-5.10141e-01,-3.28436e+00,-4.66208e-03,-2.49300e-01,1.95966e+00,3.09471e-02,-2.84623e+00,-1.62441e+00,6.59093e-02,-4.47348e-02,3.91451e-02,-1.10593e-02,3.58718e-01,8.78354e-01,-6.99811e-01,2.89958e-02,8.37473e-01,4.56480e-02,1.28681e-01,
8.60129e-03,1.41583e+00,-8.14026e-01,8.34495e-01,3.74902e-01,5.14582e-01,-2.44986e+00,4.93032e-02,-7.12162e-03,1.71862e-01,3.40866e-01,-6.05817e-01,4.48000e-01,-2.21413e-02,-1.31173e+00,-5.00003e-01,-1.25478e-02,-5.67030e-02,6.28324e-01,2.08866e+00,2.77965e+00,7.43276e-01,-1.65408e-01,1.80523e-01,2.30124e+00,6.47089e-02,8.10626e-01,-1.42674e-03,-2.38340e+00,-3.41354e+00,1.01348e+00,-4.43663e-01,6.07804e-01,-2.54402e-01,-3.67453e-02,1.37189e+00,-5.82664e-03,-3.35658e-01,-1.96651e+00,-4.03003e-01,-7.42417e-03,2.40698e+00,-2.26147e-02,-2.44664e-01,2.84573e-01,1.89230e-01,-1.05388e-02,4.53529e-01,4.25413e-02,7.59346e-01,
7.42143e-03,-7.27095e-02,-3.02477e-01,9.38406e-01,-1.33512e-01,1.27520e+00,1.14962e+00,3.47921e-02,-8.17450e-03,5.39996e-01,-9.66891e-01,3.04484e-01,1.00805e+00,-3.42133e-01,-2.45939e-01,2.56059e-01,-4.68843e-02,6.98413e-02,-8.17253e-01,1.07470e+00,1.18836e-02,7.83162e-01,2.44831e-03,-2.94436e-01,8.73952e-01,2.51494e-01,8.09227e-01,4.37419e-02,1.95933e-01,-9.78214e-01,-1.36740e-01,2.98196e-02,5.42104e-01,2.71708e-03,6.03163e-01,8.39715e-02,-6.43058e-03,6.12391e-01,1.67943e+00,5.89467e-01,-3.43871e-02,6.63047e-01,2.04630e-02,-1.61888e+00,-1.28000e+00,-3.35740e-02,-5.14957e-02,7.52118e-01,-3.92833e-02,-8.01271e-01,
3.53463e-02,8.52688e-01,1.33913e+00,1.83650e+00,3.77815e-01,2.21785e+00,3.68891e-01,1.86254e-02,-4.18842e-02,2.15461e+00,7.50613e-01,2.91614e-01,-7.78276e-01,4.31654e-01,1.16032e-01,5.42325e-01,-3.24992e-02,1.14042e+00,2.16193e-01,1.05667e+00,8.97006e-01,1.70669e-02,-5.23322e-01,4.40864e-01,5.59949e-01,6.49414e-02,3.51576e-01,1.99568e-02,1.51116e+00,1.57344e+00,1.50439e+00,7.21284e-01,2.17764e+00,2.74441e-01,-2.72987e-01,-3.19269e-01,-3.62835e-02,8.50225e-01,1.84752e-01,4.81008e-01,6.43830e-03,1.93631e+00,-5.07305e-02,1.35337e+00,-1.05041e-02,-3.71062e-01,3.13197e-02,7.98670e-01,4.34014e-02,8.31225e-01,
5.47923e-02,1.06906e-01,1.26626e-01,-1.15238e+00,6.53190e-02,4.77488e-01,-1.86889e+00,-3.55593e-02,-4.84776e-04,1.19682e+00,-1.95889e-01,3.70130e-01,-9.95867e-01,1.62843e-01,3.75715e-01,5.94266e-01,-3.49002e-02,3.41603e-01,3.40086e-01,4.69542e-01,9.39062e-01,-4.29547e-01,-1.88725e-02,2.91201e-01,-3.53094e-01,4.67940e-01,-6.91152e-01,-1.64028e-02,-1.45709e-01,6.91512e-02,-1.97450e+00,4.84993e-01,-2.87545e-01,1.65681e-01,-4.60369e-01,-1.02469e+00,4.14044e-02,-1.98564e-01,-9.08527e-01,-2.45654e+00,-2.38736e-02,-1.70717e-01,-1.79447e-02,6.04793e-01,-5.14777e-01,5.46623e-02,-3.11017e-02,-1.78725e-01,-9.23960e-03,-9.34070e-02,
-1.12854e-02,-2.77683e-01,-1.54245e+00,4.06932e-01,-5.13288e-02,-4.60477e-01,-4.63413e-01,4.50750e-02,1.72608e-02,5.84313e-01,1.83324e+00,-4.38554e-01,-3.83324e-01,-8.32518e-01,-3.05737e+00,-3.04623e-01,-2.31224e-03,2.71959e-01,-4.96920e-01,9.26584e-01,-1.00195e+00,1.03775e+00,-6.35665e-01,9.16240e-02,-2.06423e-01,1.09989e-01,6.45228e-01,-1.75155e-02,-1.10462e-01,-6.80582e+00,2.57778e-01,4.21049e-01,1.78171e+00,1.78495e-02,-1.48602e-01,9.79358e-01,-4.46850e-02,9.16947e-01,-6.02715e-01,2.28436e-01,-1.08020e-02,1.25798e+00,-1.80134e-02,3.40619e-01,4.76037e-01,-8.25079e-02,-4.46536e-02,-7.47183e-01,1.17625e-02,-5.25671e+00,
8.68427e-03,-1.62333e-01,2.05265e-01,2.22413e-01,-1.04111e-01,-4.07603e-01,-1.00377e-01,-4.77269e-02,-3.79384e-02,1.48426e+00,7.82738e-03,5.02280e-01,1.66401e-01,-1.89608e-01,-1.71712e-01,-1.35676e-01,2.58900e-02,2.02490e-01,1.04774e-01,6.95773e-01,1.98746e-02,-2.16421e-01,-2.09695e-01,-2.79678e-01,-2.37598e-01,-1.39462e-01,-3.91319e-02,4.72107e-02,-1.51684e-01,-5.23205e-02,2.54253e-01,4.21602e-01,3.10994e-01,-1.88996e-01,-1.17776e-01,3.21973e-01,-8.62822e-03,2.64639e-01,3.80364e-01,1.75462e-02,3.25802e-02,1.42233e-01,6.91837e-03,-6.87419e-02,-5.76899e-01,2.12161e-01,3.72567e-02,3.81041e-02,-9.74493e-03,-5.89272e-02,
-2.72578e-02,-1.17380e-01,2.52633e-01,9.40357e-01,-3.42707e-01,-7.91098e-01,-1.37422e+00,-2.77307e-02,-1.78845e-02,2.18247e+00,-7.89129e-01,1.06660e+00,-1.03206e+00,5.03798e-01,-1.86711e-01,-6.82702e-01,-8.63963e-03,-6.02071e-01,-7.82434e-01,2.50258e-01,2.65114e-01,-5.25156e-01,4.85259e-01,8.16256e-01,-3.10423e-02,-6.52036e-02,-1.75301e+00,2.81398e-02,1.30081e-01,6.87274e-01,-8.58459e-01,-1.03856e-01,-2.17461e+00,-9.28479e-02,-1.55862e+00,-1.75664e+00,-1.52677e-02,8.58339e-01,3.05926e+00,6.69252e-01,4.65150e-02,1.23191e-01,2.75632e-02,-1.09749e+00,-5.64478e-01,1.80864e-01,-1.47748e-02,-9.07175e-01,-4.33864e-02,-3.08461e-01,
1.25237e+00,
-1.82186e+00,
7.06908e-01,
6.77407e-01,
3.20418e-03,
-1.41225e+00,
-1.81590e-01,
-2.06655e+00,
-5.67458e-01,
-2.35666e-01,
-3.74023e-01,
-3.36547e-02,
6.02038e-01,
-8.94056e-01,
-1.51738e+00,
-9.02689e-02,
-4.20568e-01,
-9.31708e-01,
-6.57371e-02,
-3.39210e-01,
-7.52688e-01,
-1.11443e+00,
-5.77256e-01,
3.57165e-01,
-1.90521e+00,
1.09813e-01,
2.24480e+00,
-2.81959e+00,
-2.01252e-01,
-1.23830e+00,
1.43686e-01,
1.13547e-01,
-5.71151e-01,
-5.35462e-01,
-1.13262e+00,
9.00435e-01,
5.63352e-01,
-2.24647e-01,
-1.12698e+00,
-9.32474e-01,
-1.44002e+00,
-7.39376e-01,
-8.35105e-01,
3.87135e-01,
-1.42829e+00,
-7.48561e-01,
-2.96892e-01,
-1.47618e+00,
3.52663e-01,
5.82263e-01,
-5.07897e-01,-4.50087e-01,-1.71696e+00,-1.14600e+00,-2.01077e-01,1.73645e+00,5.29934e-01,-1.81284e+00,7.33713e-01,-1.21281e-01,-1.01086e+00,8.34135e-01,-7.05538e-03,1.35002e+00,2.06863e+00,-1.02010e-01,1.80995e+00,2.48457e+00,-2.22966e+00,6.05453e-02,-6.68583e-01,-1.32205e+00,2.34172e+00,6.09267e-01,3.87784e-01,-1.46501e-02,2.90216e+00,-3.79397e-01,-2.04375e+00,1.00941e+00,-1.70409e+00,2.13019e+00,1.21109e+00,3.88678e+00,1.17479e-01,6.24429e-01,-4.04411e-01,-2.48891e+00,-1.72170e+00,8.75400e-02,1.54639e-01,-1.49486e+00,5.69098e-01,-3.81101e-01,-1.36513e+00,2.05645e+00,6.91705e-01,-1.50436e+00,-1.35911e+00,-1.15439e-02,
1.34270e-01,-1.80186e+00,-6.43438e-01,7.92027e-01,-2.60664e+00,-7.42789e-01,9.36367e-03,4.47907e-01,6.10754e-01,4.99243e-03,1.94369e-01,-4.81009e-01,1.25056e-02,3.61764e-01,1.55489e-01,8.83231e-02,1.48906e+00,-1.85470e+00,-3.19298e+00,-4.62630e-02,-1.31033e+00,1.11479e+00,-1.27568e+00,-3.43961e-01,3.11607e-01,6.83191e-01,-2.26993e+00,-6.23885e-01,-9.73384e-01,-2.35839e+00,-1.27614e+00,-5.65734e-01,-7.67202e-01,-2.73870e+00,-3.25487e-01,-3.33836e-01,1.41544e+00,2.20916e-01,-2.39691e-01,-2.54577e+00,-2.52549e+00,-1.42946e+00,-3.42280e-01,2.96148e-01,-7.32576e-01,7.21798e-01,4.73105e-01,1.58404e+00,-2.18733e+00,6.88366e-01,
-5.40201e-02,-5.77472e-03,1.08503e-02,2.94474e-02,-6.67545e-02,-2.88356e-03,-4.56520e-02,-2.07761e-02,1.68543e-02,-4.90746e-02,-2.74287e-02,-1.91560e-02,-4.43579e-02,3.61411e-02,6.11520e-02,8.96864e-03,-4.11510e-02,3.63992e-02,-5.15739e-02,-4.61821e-02,1.12911e-02,-4.74482e-02,-4.17783e-02,-8.18572e-02,4.40588e-02,-4.44223e-02,9.64487e-03,1.31508e-02,-2.68717e-02,2.08906e-02,1.59861e-02,-3.27051e-02,3.57397e-03,-3.85955e-02,3.52229e-02,-2.40864e-02,1.71106e-02,-1.23741e-02,2.28415e-02,-2.30450e-02,-2.52202e-02,-1.76441e-02,4.06015e-02,-1.47786e-02,-4.13650e-02,-1.10278e-02,-3.90509e-02,2.70646e-02,-6.03208e-02,3.37667e-02,
-1.11686e-01,5.09518e-01,-3.52066e-01,1.76524e-01,-3.58185e-01,6.71133e-01,1.27558e+00,-1.91075e-01,-8.30051e-01,5.73603e-02,-2.54027e-01,3.57021e-01,2.88134e-01,6.47486e-01,7.13667e-01,-2.43140e-01,1.09122e-01,1.18002e-01,-5.90175e-01,7.29591e-02,-7.50360e-01,2.11612e-01,-6.32137e-01,7.38695e-02,-2.46079e-01,-7.05230e-01,-5.68054e-02,6.48719e-01,-6.98856e-01,2.60529e-01,-1.10402e+00,-3.56760e-01,1.38741e-01,3.00643e-01,2.90451e-01,-2.68792e-01,-4.38504e-01,4.31759e-01,-8.31444e-01,1.29874e-01,5.35394e-01,-2.98719e-01,-1.90892e-01,-8.87108e-03,-1.22532e-01,-9.08546e-02,-4.30443e-01,1.29160e-01,1.32784e+00,2.35284e-01,
5.43125e-01,1.05910e+00,-8.81616e-01,-1.35201e-01,1.78761e-01,2.28744e+00,1.19013e-01,-7.96804e-01,-2.88979e-01,1.14296e-01,-2.24004e-01,-8.11678e-01,8.16413e-01,-9.59545e-01,-1.25147e-01,3.10588e-01,-8.43640e-02,-1.97865e+00,-1.66249e+00,7.86763e-01,4.99808e-02,3.84278e-01,-3.94385e-01,-2.02847e-01,-1.22942e+00,-1.89483e+00,-1.31304e+00,-1.00628e+00,-8.54295e-01,1.77765e+00,-2.61525e-01,-5.09946e-01,1.44391e-01,-7.63587e-01,-3.22349e-02,-1.65199e-01,-4.07668e+00,-1.76499e+00,7.03501e-01,-1.30463e+00,-3.35031e+00,-1.00882e+00,2.22533e-01,-7.33029e-01,-1.81328e+00,4.57925e-01,-4.89784e-01,-9.65881e-02,1.50707e+00,-7.58513e-01,
2.68304e-01,-1.17019e+00,-7.42907e-01,-1.67736e-01,-1.52961e+00,-6.39771e-01,-2.83441e+00,-1.79272e-01,2.15320e+00,6.00355e-01,6.78199e-01,-2.59302e+00,8.67322e-02,-2.88949e+00,-1.08530e+00,5.95196e-01,1.00541e+00,-3.09333e+00,-2.58519e+00,2.21095e-02,-6.11472e-01,-4.95101e+00,8.20115e-01,-1.54528e-01,-6.21541e-01,2.91578e-01,-2.03787e+00,-1.24352e+00,-1.86679e+00,-1.49260e+00,2.15382e-01,6.41650e-01,1.23987e+00,-3.27399e-01,-8.51261e-01,-4.67069e-01,1.40288e+00,-5.01441e-01,-2.93467e-01,5.46207e-01,8.45508e-01,-1.53283e+00,-3.51951e-01,-2.20672e-01,4.73015e-01,1.12632e+00,6.98403e-01,1.02048e+00,-1.11554e+00,1.04577e+00,
5.32494e-02,7.55937e-01,5.40946e-01,-7.14865e-01,5.53885e-01,-3.55643e+00,2.79229e+00,7.35788e-01,-1.65196e+00,4.63678e-01,1.19817e+00,2.36084e-01,-1.05476e+00,2.27022e+00,4.20607e+00,1.42265e-01,-9.67458e-01,1.29439e+00,2.78807e+00,-1.00078e+00,-2.19550e-01,4.97824e-01,1.45808e+00,7.82446e-02,-7.34053e-01,-3.92187e-01,1.96915e+00,-3.19227e+00,-1.46627e+00,8.78877e-01,1.20527e+00,2.11208e+00,-1.34092e+00,3.32243e+00,3.17930e+00,1.01790e+00,1.27168e+00,7.05390e-01,2.98755e+00,-8.02339e-02,2.22962e+00,1.02520e+00,9.02398e-01,-2.42201e-01,7.63551e-01,-1.25777e+00,-6.36447e-01,-5.29708e-01,-1.25474e-01,1.22853e+00,
1.07144e-01,-5.96708e-01,1.24455e-01,-2.43387e-01,3.00724e-01,-6.41351e-01,-1.24469e+00,8.71341e-01,1.50591e+00,-5.19425e-03,-5.62135e-01,1.20613e-01,4.38377e-02,-9.52582e-01,2.78641e-01,2.57611e-01,2.15601e-01,1.10153e+00,-7.99409e-01,4.52612e-01,1.77538e-01,-2.83928e+00,4.53760e-01,2.16783e-01,6.36653e-01,3.70465e-01,-9.00786e-01,1.17991e-01,1.04650e+00,-1.81854e-01,-5.17239e-02,2.21281e-01,-5.10651e-01,1.02875e+00,4.41195e-01,-6.62686e-01,8.02787e-01,1.37933e+00,3.07596e-01,2.28544e-01,1.10041e+00,-5.60809e-01,5.56496e-01,-3.53047e-01,3.94149e-01,-3.19414e-01,-2.05986e+00,-2.62996e+00,-2.94095e-02,9.53969e-01,
-2.18683e-01,-3.88533e-01,-4.06282e-01,-5.07332e-02,-2.58790e-01,1.67811e-02,-3.25162e-01,3.55561e-01,7.29230e-01,-1.94710e-01,-2.35469e-01,-9.38688e-01,-3.16572e-01,3.98786e-01,-7.45221e-01,4.00391e-01,-5.32365e-01,6.80292e-01,1.04379e+00,-4.43895e-01,-4.83280e-01,7.15134e-01,-2.27037e-01,-2.89755e-03,-7.19609e-01,6.03488e-02,3.29551e-01,7.67648e-01,3.11281e-01,-2.52648e-01,1.65082e+00,8.60525e-02,-1.17168e-01,9.79710e-01,-3.04505e-01,8.75399e-02,-3.31964e-01,9.60293e-01,-3.52141e-01,4.58243e-01,4.21549e-01,8.11867e-01,-2.51030e-01,2.80159e-01,4.69229e-01,-1.25859e-02,-2.44215e-01,-2.03841e-02,4.24355e-01,-1.81374e-01,
-3.34964e-02,1.48177e+00,-7.74312e-01,-6.16322e-01,8.58887e-01,-5.32300e-01,2.16028e+00,7.83324e-01,3.14260e+00,-6.01721e-01,5.69042e-01,2.72999e+00,2.70340e-01,5.60783e-01,9.38644e-01,-2.05559e+00,-5.82808e-01,-1.84360e+00,1.86359e+00,1.44645e+00,1.59698e+00,7.31186e-01,9.64417e-01,1.40797e+00,1.58484e+00,4.16010e-01,1.83679e+00,1.94577e+00,1.18850e+00,-1.11623e+00,5.28289e-01,-2.78188e-01,-1.42933e+00,2.30563e+00,1.30583e+00,2.76814e-01,4.94594e-01,3.09151e-01,-9.21331e-01,1.08618e+00,9.47106e-01,2.76426e-01,-3.74127e+00,6.12065e-02,-6.33686e+00,-4.91172e-01,2.23904e-01,-8.30170e-01,-1.57023e-02,-2.53211e-01,
1.25496e-02,-1.28204e+00,7.64997e-01,-6.15188e-01,-1.18939e-01,3.97195e-01,-1.65731e+00,-7.00233e-01,9.10847e-01,1.46638e-03,-1.71040e+00,-1.00200e+00,-9.61879e-02,-1.48580e+00,1.39244e+00,-3.02171e-01,-2.86142e-02,1.23526e+00,-7.11460e-01,-1.81249e-01,-1.38857e-01,9.82140e-02,-3.86485e-01,-3.62883e-01,-2.40441e-01,-9.59832e-01,-1.25256e-01,-6.13804e-01,-1.71621e-01,5.84051e-01,1.32623e+00,1.19697e+00,1.94230e-01,8.04368e-01,-1.69972e+00,6.94465e-02,-8.65720e-01,-2.00821e+00,-7.30735e-01,-2.87450e-01,6.07036e-01,-1.19536e+00,-1.19632e-01,-1.17988e+00,8.49902e-02,1.56153e+00,1.14146e+00,-1.05697e+00,8.82572e-01,-4.10102e-01,
7.26546e-02,-1.41317e+00,-2.92263e-01,-4.18130e-01,-7.98172e-01,-3.96601e-01,1.64981e+00,-6.68554e-01,-1.17533e+00,4.98908e-01,1.60875e-02,-1.91687e+00,-9.97973e-01,1.73806e-01,-5.34320e-01,-1.19341e-01,-3.55602e-01,1.80374e+00,-2.99922e+00,1.30993e+00,-1.53899e-01,-2.12623e-01,3.55915e-01,3.52112e-01,1.11455e+00,-6.74456e-01,7.98251e-01,-2.89646e+00,-4.95034e-01,-1.32117e+00,-1.34488e+00,-8.04303e-01,9.66307e-01,-3.19493e-02,-2.08986e+00,-6.99035e-01,-4.76854e-01,-1.89896e+00,-3.52192e-01,-1.51204e+00,6.65082e-01,-1.23386e+00,6.64697e-01,3.90210e-01,-3.37444e+00,6.29931e-01,-4.38712e-01,-1.03296e+00,-9.10924e-01,3.81522e-01,
-3.99912e-01,2.34790e+00,-9.30311e-02,-9.28674e-02,2.07869e-01,-4.08725e-01,4.50264e-01,3.90739e-01,-3.96543e-01,8.62086e-01,5.42085e-01,2.30314e+00,-3.94428e-01,1.19544e+00,6.26177e-01,-4.89731e-02,-3.37338e-01,9.72050e-01,4.11072e-01,4.84410e-01,-2.47915e-01,1.03885e+00,5.29984e-01,7.78470e-01,-3.12096e-02,-5.31324e+00,7.27078e-01,9.11368e-01,1.92864e+00,4.13908e-01,1.65579e+00,9.34496e-02,-1.27562e+00,1.53174e+00,1.58059e+00,-3.22840e-01,2.39918e+00,1.93809e+00,-1.11854e+00,-7.70949e-01,-6.76028e-01,-8.72184e-01,7.79499e-01,-3.00113e-01,3.38773e+00,-3.26877e-01,5.92784e-01,2.34263e+00,-1.77084e-01,1.17939e+00,
3.36842e-01,4.03616e+00,8.75404e-01,7.29647e-01,3.94630e-01,5.88683e-01,4.17716e+00,-1.40686e-01,-1.09954e+00,-1.00237e+00,8.23356e-01,1.61572e+00,-7.60144e-01,7.00209e-01,1.24185e+00,2.97313e-01,-2.26605e+00,2.64009e+00,1.28128e+00,1.30231e+00,9.19545e-01,7.33646e-01,-5.72891e-01,2.66116e-01,1.32344e-01,1.29007e+00,4.31473e+00,6.81709e-01,1.01939e+00,2.37962e-01,-1.83250e-01,-5.83215e+00,-1.42732e+00,2.89575e+00,5.45971e-01,8.83201e-01,2.48268e+00,-2.43668e+00,9.87068e-01,-2.19909e-01,-7.10456e-01,1.04041e+00,2.28526e+00,1.02516e+00,1.41420e-01,-2.27080e+00,1.10541e+00,1.80854e+00,5.25695e-01,2.63443e+00,
3.04159e-02,1.69580e-01,1.57997e-01,-1.23722e-01,-2.67863e-01,-5.92610e-02,-2.46946e-01,5.34940e-01,-2.76089e+00,4.79405e-01,-3.60340e-01,-8.84264e-01,-7.35590e-01,8.62156e-01,3.90047e-01,-1.00681e-01,5.41945e-01,5.48683e-01,2.58285e+00,-1.67730e+00,2.33814e-01,6.97460e-02,-3.36224e-01,1.78710e-01,1.68487e-01,2.66102e-01,7.78058e-01,9.23730e-01,-8.05562e-01,5.23134e-01,8.98395e-01,5.79826e-01,-6.69159e-01,1.01605e+00,7.22186e-01,-2.60900e-02,4.10525e-01,1.96971e+00,1.88842e-01,1.14213e-01,-9.43329e-01,1.66618e+00,-3.35395e-01,-2.21435e-01,-8.08411e-02,8.96179e-02,-3.18527e-01,2.85722e-01,-4.28811e-01,-1.00273e+00,
-3.73422e-01,-4.59847e-01,-9.60164e-01,4.21852e-01,-6.79139e-01,-8.65103e-01,1.73584e+00,-9.28531e-01,-9.47396e-01,6.74404e-01,-3.35157e-01,6.10739e-01,-5.28220e-01,1.19151e+00,-5.24105e-01,1.78775e-01,9.34616e-01,-1.22219e+00,-3.01388e+00,-2.72221e+00,-8.01044e-01,3.34799e-01,1.40736e+00,3.18348e-01,1.20473e+00,4.85478e-01,5.24406e-01,1.21221e-01,-2.94783e+00,-6.28492e-01,-4.20771e+00,-4.49380e-01,2.62695e-02,-1.05092e+00,1.63290e-01,1.81438e-01,-7.81071e-01,-2.40415e+00,9.94081e-02,9.86063e-01,-1.50278e+00,-1.91141e+00,-1.14883e+00,1.56835e-01,-2.14370e-01,9.16505e-01,3.05856e-02,-1.98050e+00,-2.17002e+00,-1.87363e-01,
-1.08970e+00,-4.69968e-01,6.12740e-01,-4.92226e-01,3.84530e-01,-1.53002e-01,2.23844e+00,4.04730e-01,8.35506e-01,2.14535e-01,-1.14024e+00,2.15737e+00,5.20879e-02,2.00527e+00,5.62275e-01,7.87461e-01,2.21999e-01,1.26970e+00,1.10701e+00,7.45947e-01,1.90411e+00,2.39025e-01,-7.19711e-02,5.78584e-01,1.53307e+00,2.70121e+00,-1.24595e+00,1.41269e+00,1.48245e+00,-2.47745e+00,2.08788e+00,2.84568e-01,-8.99768e-02,6.57151e-01,9.46879e-01,-6.65523e-01,9.64323e-01,1.29307e-01,9.50374e-02,3.45165e-01,-2.18929e-01,-1.01780e-01,1.07629e+00,-7.49613e-01,-2.54523e+00,-3.68953e-01,-1.29076e+00,-1.01137e-01,1.87892e+00,9.55083e-01,
3.25960e-01,-4.68055e-01,-2.32001e-01,2.86403e-02,2.69121e-01,9.92924e-01,-2.37331e-01,-1.00777e+00,-3.60342e+00,5.25421e-01,7.31437e-01,-5.54359e-01,-1.78369e+00,-8.61511e-01,-1.44180e+00,-7.92279e-01,-1.83360e-01,-1.60676e-01,-1.14216e+00,-1.85979e+00,1.45256e+00,-2.05188e-01,1.95190e-01,-3.18638e-01,1.51160e+00,-8.39681e+00,-8.17610e-01,4.39775e-01,-1.58298e-01,2.72618e+00,-3.48588e+00,7.55653e-02,-4.09919e-01,-1.63255e+00,-2.74266e-01,-1.68164e+00,-1.47183e-01,-5.26346e-01,2.69628e-01,-6.51387e-01,2.04501e-01,5.61880e-01,2.11340e-01,-3.46273e-01,-3.87913e+00,-7.70242e-01,-6.01192e-01,5.33379e-01,-1.60250e+00,6.15263e-01,
1.52042e-01,-5.94141e+00,2.41323e-01,7.21749e-02,3.57373e-01,5.85205e-01,2.66954e+00,8.61283e-01,3.66263e-02,-7.71338e-01,1.29159e+00,1.53110e-01,6.74595e-01,3.16692e-01,-9.69501e-01,-1.86082e-01,-6.12281e-01,-7.49917e-01,6.30710e-01,-4.91960e-01,8.54405e-01,3.96518e-01,-1.05236e+00,4.50943e-01,-6.65108e-01,-1.14351e+00,-8.80290e-01,-6.43202e-01,6.41829e-01,1.35719e-01,4.15788e-01,-1.79537e-01,-1.78261e-01,-2.71130e+00,5.02008e-01,2.52285e-01,4.78616e-01,2.96918e-01,-9.88643e-01,1.11401e-01,-9.07547e-01,-3.25759e+00,1.21900e-01,-1.83690e-01,-2.02240e+00,-5.38842e-01,8.35807e-01,2.36666e+00,2.40418e-01,1.86728e-01,
-2.06211e-03,-8.81881e-01,4.76790e-01,-4.39767e-01,-1.46729e+00,-2.54544e+00,-5.54875e+00,-1.66396e+00,-6.95808e-01,6.63313e-01,2.89000e-01,-1.20754e+00,3.41272e-01,4.69306e-01,-1.37102e+00,-6.13432e-01,-3.39210e-01,8.71178e-01,6.34176e-02,-4.61740e-01,2.14020e-01,-1.02706e+00,6.40257e-01,-6.32615e-01,-1.95795e+00,-1.35063e+00,-4.00261e-01,-3.21392e+00,5.84136e-01,-4.79346e+00,4.37322e-01,-3.08032e+00,1.24433e+00,-1.95770e-01,-1.47727e+00,-1.70232e-02,2.25297e-01,-1.99842e+00,-2.17979e-01,-4.55067e-01,7.76518e-01,-1.24279e+00,6.90371e-02,1.20714e-01,-1.43062e+00,3.87887e-01,4.06118e-02,-9.42102e-01,-9.69434e-01,-5.31043e-01,
-1.63805e-01,-2.53753e-01,4.56475e-02,8.06609e-02,2.17408e-01,9.24513e-02,8.71561e-01,5.04056e-01,2.47402e-01,-2.80895e-02,1.71890e-01,-4.12689e-01,2.95593e-01,1.85330e-01,3.20781e-01,1.82145e-01,2.06787e-01,-7.09795e-01,2.12019e-01,-6.77472e-01,-2.44767e-01,4.92141e-01,2.98205e-01,-3.33266e-01,-9.77419e-02,8.58276e-01,1.80679e-01,-8.52645e-01,2.45836e-01,-2.93425e-01,4.49474e-01,2.82145e-01,9.46704e-02,-8.90826e-02,3.88644e-01,-1.05543e-01,-1.41994e-02,7.38605e-01,-1.86693e-01,-4.01242e-01,-1.16375e-01,-1.44530e-01,9.40076e-01,-1.80770e-01,3.33257e-01,-2.40152e-01,3.17445e-01,1.46902e-01,-1.51379e+00,-6.15265e-01,
-3.44723e-01,-1.45191e+00,-1.81427e+00,2.36679e-01,-7.70089e-01,7.23713e-01,2.20359e+00,5.17763e-01,8.96421e-01,5.71057e-01,9.50474e-01,-4.10507e+00,1.60176e-01,3.26626e+00,-7.86605e-01,-3.22782e-01,1.43399e+00,-1.27120e+00,-1.85003e+00,-8.42624e-02,-1.14914e+00,2.65257e+00,3.55210e-01,8.20020e-01,-5.97721e-01,-6.17408e-01,-2.56137e+00,-1.61002e+00,-2.21101e+00,-7.39803e-01,-2.99315e+00,-1.32389e+00,6.41188e-01,1.59865e-01,-1.63989e+00,-2.37302e-01,-5.67792e-02,-4.15513e+00,-1.16019e+00,-1.93195e+00,-2.58757e+00,-1.24381e+00,4.13066e-02,2.67104e-01,1.23966e+00,1.23316e+00,1.87408e-01,2.23606e+00,-4.31341e+00,1.62228e-01,
1.32307e-01,-6.50662e-01,-1.79951e-01,-3.46752e-01,-3.29010e-01,4.98045e-01,1.95484e-01,-6.01229e-01,1.51254e-01,-6.66618e-02,2.75355e-01,4.61187e-01,-1.08486e-01,-4.45702e-01,3.27878e-01,1.57530e-01,-1.11033e-01,2.78581e-01,-3.52427e-01,-3.22626e-03,8.64529e-02,2.95504e-01,-8.67417e-02,5.95231e-02,-1.54585e+00,6.84961e-02,3.23913e-01,-3.41840e-01,-4.58636e-01,-2.31941e-01,7.25821e-02,3.34689e-01,-1.97723e-01,1.39271e-01,1.28370e-01,2.24163e-01,-1.27702e-02,-3.48144e-01,-2.52333e-01,-2.48586e-01,-1.51871e-02,1.93965e-02,2.42836e-01,1.54014e-01,7.15990e-02,-8.93458e-02,-1.69978e-01,-3.90837e-01,-1.05356e-01,9.32986e-03,
-4.96471e-03,-2.67341e+00,-1.01638e+00,-8.66310e-02,2.44889e-01,2.81655e-01,-6.13660e-01,-2.73066e-01,-2.51694e+00,7.91385e-02,9.39851e-01,-2.97007e+00,1.24833e-01,2.91363e+00,-2.03035e-01,1.69888e+00,8.29411e-01,-2.05072e+00,-3.32022e+00,-2.40125e+00,-2.16190e+00,-1.05102e+00,5.60173e-01,6.83261e-02,6.26482e-01,5.34183e-01,4.34552e-01,-3.86493e+00,-4.58639e+00,-1.66528e+00,-1.33509e+00,-3.36441e-01,1.27878e+00,2.93726e+00,-2.31139e+00,3.99159e-01,8.97958e-01,-1.07641e+00,-2.64520e+00,-1.83289e-01,-1.18344e+00,-3.25651e-01,-8.66790e-01,5.46029e-01,-3.32620e+00,1.61770e+00,-8.54076e-01,1.52930e+00,-2.77243e+00,2.21768e+00,
-3.13381e-01,1.12069e+00,-1.83444e-01,2.81596e-01,7.31790e-01,7.52363e-01,6.04964e-01,-2.56181e-01,-2.47953e+00,8.77588e-02,-1.49742e+00,4.96052e-01,-1.63545e+00,2.41795e+00,3.61779e-01,5.45910e-01,4.22268e-01,-1.41826e+00,1.85294e-01,-1.15842e+00,1.56152e-01,1.34132e+00,-2.58338e-01,2.87026e-01,9.11549e-01,5.40175e-01,1.46824e-02,1.26558e-01,2.67088e+00,7.82362e-01,-1.30336e+00,1.86496e-02,-1.07522e-02,6.05825e-01,4.31643e-01,7.51144e-01,-1.77263e-01,2.20554e+00,-5.15241e-01,5.55373e-01,5.62224e-01,1.48246e+00,-3.80783e-01,-1.82818e-01,1.34464e+00,-9.67156e-01,1.35026e+00,5.99474e-01,-7.08832e-01,6.87430e-01,
-3.87358e-01,5.06182e-01,6.43692e-01,2.90564e-01,4.95944e-01,-8.10567e-01,1.54153e+00,-1.38562e-01,2.15565e+00,3.67538e-02,1.31362e+00,3.59594e+00,-2.10189e+00,1.77750e+00,1.53692e-01,1.26898e+00,-4.60212e-01,-2.44106e-01,2.26380e+00,3.36628e-02,-1.75360e+00,6.24620e-01,-9.50952e-01,1.24989e+00,2.39203e+00,4.42860e+00,-1.55099e+00,1.24446e+00,8.19242e-01,-7.34869e-02,6.59801e-01,8.94239e-01,3.42808e-02,1.47055e+00,-1.23190e+00,6.18713e-01,-5.56670e-01,4.94038e+00,4.39284e-01,-4.62119e-01,1.94002e+00,2.81074e+00,2.37507e+00,-6.54994e-01,2.91686e+00,-2.00844e+00,5.09841e-01,1.50562e+00,2.21249e+00,2.08546e+00,
6.88952e-01,9.30105e-02,1.40668e-01,-2.86912e-02,-1.67635e-01,-2.03222e-01,9.96245e-01,-9.94019e-01,2.27245e-01,9.97182e-01,-1.09132e+00,5.71081e-03,-4.43925e-01,-1.72035e-01,-1.52771e+00,-2.92709e-01,7.36173e-01,1.69783e-01,-4.88588e-01,-1.04457e+00,3.17351e-03,-2.67478e-02,-6.67198e-01,-4.44658e-01,-1.70951e+00,8.69423e-01,-1.06554e+00,-1.60553e+00,8.36266e-01,-1.31645e-01,2.00568e+00,-6.59413e-01,3.04200e-01,-8.88468e-02,3.08239e+00,-3.65383e-01,1.95268e+00,3.98197e-02,1.16991e+00,1.29057e+00,-2.58501e-01,-6.04608e-01,-1.72473e+00,8.67347e-01,8.70924e-01,-6.08719e-01,-9.14710e-01,-1.86734e+00,5.96075e-01,4.27892e-01,
-1.42007e-02,-1.83764e-01,1.49168e+00,-5.79483e-01,-1.37794e+00,6.71825e-01,2.02047e+00,-2.39820e-01,-1.96243e-01,-5.35835e-03,1.16147e-02,-1.73312e+00,-3.05185e-01,-2.26485e-01,-2.50085e-01,-1.30773e-01,-3.40443e-01,-1.25967e+00,3.94857e-01,-1.25414e-01,-6.92750e-01,-4.31511e-01,-3.00949e-01,-6.74854e-01,5.34328e-01,-1.31825e-01,-1.26727e-01,9.39747e-01,1.31253e+00,1.01944e-01,-7.18114e-01,4.11665e-02,3.48976e-01,-2.35021e-01,-4.47540e-02,4.95530e-02,-1.84709e-01,1.19631e+00,3.79198e-01,-1.33761e+00,1.50198e-01,-8.53730e-02,1.85138e-01,9.90870e-02,7.87968e-02,2.49470e-01,-2.33728e-01,-1.06707e-02,-9.86184e-01,-1.08806e-01,
1.97645e-01,-2.05061e+00,-7.44373e-01,-1.23145e+00,-8.12414e-01,4.92522e-02,7.30273e-01,1.11994e-01,-2.00922e-01,-1.07946e-01,4.44922e-01,1.11317e-01,7.96881e-01,-2.30213e-01,4.41911e-01,3.59148e-02,6.87443e-01,-1.50187e-01,-1.67455e+00,9.33281e-01,-1.14870e-01,-1.45859e+00,6.46049e-01,-8.64831e-01,-1.38930e+00,-2.82447e+00,1.77606e-01,2.48357e-01,-1.70339e+00,4.04793e-01,-1.32200e+00,7.91482e-01,5.40511e-01,-2.79775e+00,-2.41166e-01,6.14190e-01,1.28050e+00,1.60969e-01,-3.83857e-01,-9.71332e-02,-7.64400e-01,-1.61704e+00,-2.94166e+00,-4.31092e-01,-1.60570e+00,1.11273e+00,-2.22379e-01,7.50062e-02,-9.67251e-01,-1.73250e+00,
5.18115e-02,7.22585e-01,-9.89321e-01,8.92981e-01,7.19328e-01,-1.41148e+00,-5.13859e+00,-1.60648e-01,-3.31318e+00,-6.78636e-01,1.36793e-01,-2.05134e+00,2.56832e-01,-1.24910e+00,1.73500e+00,-5.04193e-02,4.35200e-01,-2.73359e+00,-1.69007e+00,-1.88993e+00,-1.32891e+00,-1.60753e+00,3.46694e-01,9.85863e-01,4.80475e-01,2.46677e+00,9.16800e-01,-7.95896e-01,-3.86593e+00,-4.59210e+00,9.68010e-01,3.28943e-01,2.76715e-01,-1.02881e+00,1.27965e+00,-8.56840e-01,-2.16413e+00,-3.83252e+00,-8.47389e-01,-1.03772e+00,2.01574e-01,-9.74230e-01,5.62564e-01,-8.92989e-01,-4.52304e+00,8.48330e-01,6.38737e-01,1.05286e+00,-3.17923e-01,-4.67412e-01,
-1.07897e-01,2.85057e-01,-6.72912e-01,4.03387e-01,1.72282e-01,1.01593e+00,4.98927e-01,4.30627e-01,5.18249e-02,-7.03195e-01,9.50108e-01,-5.39079e-01,6.17295e-01,1.48879e-01,1.35269e+00,-2.31001e-01,-2.17049e-01,1.30171e+00,3.08454e+00,-1.80571e+00,-2.83729e-01,4.94908e-02,1.01728e-01,-1.56583e-01,2.21495e-01,1.85541e-01,2.39905e-01,6.81417e-01,3.61811e+00,1.04136e+00,-1.95466e-01,3.35287e-01,-3.49502e-01,9.76860e-01,2.55613e-01,5.26601e-01,2.91669e-01,2.50789e+00,6.63969e-01,2.06498e+00,-4.85288e-02,1.49012e+00,6.44277e-01,7.27913e-02,2.80405e+00,-1.29907e+00,1.97148e+00,-1.70337e+00,2.37135e+00,-4.37683e-01,
-2.19791e-01,1.99128e+00,-4.44960e-01,3.63597e-01,-6.27363e-01,3.86529e-01,1.10887e+00,4.13642e-01,1.35541e+00,5.95525e-02,6.73030e-01,1.83443e+00,9.47093e-01,1.57883e+00,9.23026e-01,1.37407e-01,-1.98929e+00,-9.73152e-01,-1.14083e-01,2.24998e-01,-2.66869e-01,-6.17949e-01,-1.31263e+00,-9.84966e-01,8.76004e-01,1.56632e+00,1.55821e-01,1.06399e-01,2.36101e+00,-1.41560e-01,2.05335e+00,6.44124e-01,-3.98377e-02,2.38018e+00,-1.01647e+00,-3.46865e-01,1.87914e+00,7.18165e-01,-9.53887e-01,9.43985e-01,2.02871e+00,9.89398e-01,1.16863e+00,-2.32127e-01,2.04439e-01,-2.10401e-01,3.47499e-01,3.22297e+00,8.82977e-01,-4.23261e-01,
1.46619e-01,-1.03125e+00,-1.10126e+00,3.28187e-01,-1.16333e-01,-2.48189e+00,-2.91639e+00,-1.20123e-01,1.09359e-02,-6.48321e-01,6.71445e-01,-1.53456e+00,2.05191e-02,-2.13405e-01,-1.57008e+00,-2.52038e-01,-1.05612e+00,-1.16505e+00,1.94832e-01,-2.39233e-01,-1.88669e+00,2.31755e-01,2.51449e-01,-7.94318e-02,9.05969e-01,-3.51594e+00,-9.33149e-01,-4.90589e-01,-1.35190e+00,-8.09027e+00,-1.11838e+00,-1.13698e+00,7.12718e-01,-4.33621e-01,-5.25132e+00,3.25736e-01,-5.91375e-01,-1.68167e+00,3.24986e-02,1.92786e+00,-1.30837e+00,-8.49767e-01,-4.37901e+00,4.55873e-02,-8.31169e-01,-6.12997e-01,1.07848e+00,-1.23309e+01,2.52439e+00,5.52228e-01,
-1.14182e-01,-1.17747e+00,-2.50462e-02,4.79194e-01,-4.37548e-01,-2.79140e-01,2.32951e+00,2.36366e-01,-3.72096e+00,2.23296e-01,1.50942e-01,1.10699e+00,-8.65711e-01,-7.51781e-02,9.39452e-02,-8.20048e-01,6.01942e-01,-1.06194e+00,-3.57155e-01,-1.90720e+00,4.42080e-01,-3.82343e-01,6.10698e-03,-1.34325e+00,5.56682e-01,-1.31231e+00,-2.85179e+00,-6.22289e-01,1.92602e-01,2.48437e-01,1.93779e+00,-3.09719e-01,-7.96570e-01,-9.47580e-01,5.05265e-01,-3.26217e-02,-2.43546e+00,-2.50251e+00,6.69734e-01,1.10079e-01,-3.58904e-01,5.40335e-01,-1.65178e+00,-3.90700e-02,-3.64343e+00,1.29010e-01,8.13935e-01,-5.06809e+00,6.59211e-01,6.34162e-01,
2.48978e-01,-4.07352e-01,2.17441e-01,-1.13272e-01,6.57489e-01,6.55931e-01,3.72928e-01,-9.29851e-01,1.27285e+00,2.63272e-01,9.34428e-02,-6.22793e-01,-9.23479e-01,-8.78364e-01,-3.56007e-02,3.11008e-01,-6.58051e-01,-2.44327e-01,-2.54208e+00,3.26424e-01,-2.68477e-01,-1.64418e+00,-6.42579e-01,7.10017e-02,-1.79796e-01,-2.10004e+00,-3.03136e-01,1.86068e-01,1.94364e+00,3.47304e-01,-1.84399e-01,-1.15655e+00,5.09401e-01,1.28077e-01,1.14015e+00,-2.07325e-01,4.71312e-01,1.72598e+00,1.37951e+00,1.48207e-01,5.50541e-01,5.48513e-01,-2.24487e-01,-3.17986e-01,-6.58472e-01,-2.63926e-01,-5.76599e-01,-1.69792e+00,1.23652e+00,3.39429e-01,
-6.70452e-01,2.77113e+00,5.50420e-01,-7.16265e-01,3.73464e-01,1.21886e+00,3.17651e+00,4.31367e-01,-1.18609e+00,5.83578e-01,1.07591e+00,4.99567e-01,4.08291e-01,1.22917e+00,9.37326e-01,5.08122e-01,-1.51266e+00,1.36504e+00,-2.52472e-01,1.82026e+00,3.78910e-03,4.15050e-01,-3.38872e-02,-1.35182e-01,1.05491e+00,-3.59864e-01,1.37282e+00,-4.51071e-01,1.04266e+00,-5.89487e-01,1.35334e+00,-8.89876e-01,3.67108e-01,-3.45290e+00,8.44047e-02,8.66009e-01,4.88206e-01,1.95684e+00,9.74372e-01,-3.46731e-01,1.18194e+00,1.16185e+00,-3.18958e+00,5.23006e-01,3.27358e+00,-4.40960e-01,-5.42475e-01,-2.62502e+00,-7.35721e-01,-7.03257e-01,
6.93802e-02,-7.61905e-01,-6.35026e-01,-1.24534e+00,-1.18861e+00,-8.46158e-01,1.50206e+00,-1.10801e+00,-2.62887e-02,-1.26005e-01,-2.54314e+00,-1.44081e+00,7.08163e-02,1.10821e+00,-2.99147e-01,-1.02993e+00,7.74937e-01,-1.22576e+00,-1.15290e+00,-1.09058e-01,-4.73188e-01,-8.33271e-02,4.38544e-01,-2.62580e-01,-1.72072e+00,6.00449e-01,4.15869e-01,-2.64770e+00,-9.28054e-01,9.03933e-01,-1.29848e+00,5.29580e-01,1.93590e+00,-6.00845e-01,7.67857e-01,-6.50419e-01,-9.37795e-01,-1.14845e+00,-1.77714e+00,1.28143e-01,-2.59431e-01,-4.07376e+00,5.65800e-01,-9.56573e-01,1.42939e-01,2.02677e+00,-6.86664e-01,-1.91983e+00,-9.25699e-01,-2.83433e-01,
9.79208e-02,9.33298e-01,2.85798e-01,5.65206e-01,-7.67929e-02,-9.45775e-01,-1.67309e+00,9.25801e-02,-2.49007e-01,1.46871e-01,-1.40067e-01,-1.70705e-01,-2.39709e-01,-4.58409e-02,4.73773e-02,-1.06688e-01,1.39710e-02,-9.52225e-01,1.03380e+00,-3.51565e-01,-5.03043e-01,-1.41955e-01,-3.07473e-01,3.77869e-01,2.92463e-01,-2.72940e-01,-2.35817e+00,-2.80602e-01,-7.36836e-01,4.64697e-01,-2.02270e+00,-1.90316e+00,-8.00153e-01,-6.09995e-01,1.23855e-01,8.63891e-02,-6.86488e-01,5.21856e-01,-2.32396e-01,1.51680e-01,-3.82247e-01,1.93534e-01,-1.02411e+00,-2.67503e-01,9.51772e-02,1.57695e-01,-8.91737e-01,3.71903e-01,2.86311e-01,2.46603e-01,
7.86922e-02,-5.68917e-01,-1.34762e+00,-2.58660e-01,-5.97247e-01,5.07825e-01,-7.07500e-02,-1.74664e-01,-2.12994e-01,5.05098e-02,4.28730e-01,-5.64702e-01,4.35848e-02,4.89459e-01,-1.72195e+00,5.13783e-01,8.09674e-01,1.72301e+00,2.73175e+00,1.48660e+00,6.44771e-01,3.67133e-01,5.04244e-02,2.44281e-01,-7.23331e-02,-1.62629e-01,-4.00771e-01,3.73116e-01,3.49679e+00,-6.06902e-01,1.12875e-01,4.15637e-01,-1.43056e+00,-7.54446e-01,1.13682e+00,4.28719e-01,3.04315e-01,3.10675e+00,8.62502e-01,-3.19920e-01,1.56534e+00,1.34475e+00,6.64901e-01,-8.00358e-02,9.37047e-01,-7.45174e-01,2.39331e-01,-2.09423e-01,-5.23242e-02,1.12026e-01,
5.66879e-02,-7.28516e-01,-4.02561e-01,-2.28873e-02,-5.13030e-01,-2.55480e+00,-9.33626e-01,-1.61416e-01,-1.64766e-01,-2.94850e-01,1.00490e+00,1.25469e+00,3.35859e-01,-6.42393e-01,7.32768e-01,1.58105e-01,8.74652e-01,-5.71205e-01,-1.00595e+00,-1.57970e+00,-2.74374e-01,-3.65553e+00,9.51661e-01,1.30594e+00,-1.39717e+00,-7.57249e-01,-1.86178e-01,7.80553e-01,-2.67330e-01,-4.40241e-01,-1.36143e+00,1.41446e-01,5.84041e-01,-1.83164e+00,4.50523e-01,3.69218e-01,-8.64384e-01,-2.13435e+00,-1.34629e+00,-8.09353e-01,-3.70948e-01,-6.41952e-01,-3.56582e-01,-2.23102e-01,-1.55310e+00,6.61226e-01,4.99223e-01,-1.23351e+00,-6.17913e-01,-4.69463e-01,
-5.18748e-03,2.27626e-01,2.10199e-02,-3.32984e-02,-4.58656e-01,-1.96480e-01,6.14447e-01,-2.43645e-01,2.08604e-01,4.29775e-02,-1.10018e-01,-4.18892e-01,2.14849e-01,1.27702e-01,-1.00951e-01,2.92740e-02,-2.75923e-01,-5.17261e-01,2.19838e-01,3.50530e-01,-3.27717e-01,9.64710e-02,1.85108e-01,-5.69970e-02,7.07839e-02,-2.97783e-01,7.42818e-01,-4.02286e-01,7.18917e-01,-4.38578e-01,-3.94460e-01,-4.40111e-01,1.10212e-01,2.29792e-01,5.32881e-02,-1.30201e-01,-1.32578e-01,-6.71911e-01,9.17726e-02,-1.96324e-01,-2.26188e-01,-3.83594e-01,-4.06869e-02,9.76331e-03,2.12712e-01,1.39296e-01,2.66631e-01,1.82537e-01,1.72799e-01,-2.66005e-01,
-2.73138e-01,-7.06229e-01,2.00679e-01,3.19412e-01,-5.32768e-02,6.95703e-01,-1.63628e+00,4.52002e-01,8.57779e-01,2.81943e-01,1.26371e+00,5.66492e-01,-1.75409e-01,1.44119e+00,6.00059e-01,-2.38348e-01,-4.45106e-01,7.52345e-01,1.90145e+00,-2.10564e-01,-3.89483e-01,-3.10162e-01,-1.69267e-02,5.64158e-01,-2.24466e+00,1.86209e-01,-3.14061e-01,3.78776e-01,1.79865e-01,-3.06732e+00,2.02494e+00,6.35179e-01,-7.59750e-02,2.07516e+00,4.59856e-01,3.87225e-01,-1.81469e-01,6.18052e-01,-1.11576e-02,-6.58396e-02,-4.28386e-01,-1.72173e-01,9.43565e-01,3.50908e-02,-2.24498e+00,-7.43189e-01,5.79730e-01,-1.15993e+00,-1.78991e-01,1.18673e-01,
-1.71300e-01,1.78422e+00,-1.61977e-01,2.24543e-01,1.43157e+00,-7.37082e-01,7.86238e-01,1.84344e-01,5.76459e-01,3.42961e-02,9.13132e-01,3.86045e+00,-9.23577e-01,3.81678e+00,-4.87672e-01,4.42580e-01,-1.53791e+00,-1.17444e+00,2.56562e+00,9.12443e-01,8.18192e-01,-5.81372e-02,-6.66243e-01,-2.62630e+00,4.00772e-01,1.58058e+00,-5.28459e-01,1.01714e+00,8.97783e-01,6.74669e-01,2.90873e+00,5.42725e-01,-8.19132e-01,7.66576e-01,1.67575e+00,2.59179e-02,8.64613e-01,2.35152e+00,5.14154e-01,-4.28183e-01,6.50242e-01,1.86262e+00,1.84574e+00,-1.22923e-01,3.40606e+00,-6.89482e-01,9.83030e-01,2.25696e+00,2.47993e+00,8.19519e-01,
6.66648e-01,-1.38298e+00,2.23275e+00,-1.14704e+00,-1.52340e+00,-1.50200e+00,-1.66245e+00,1.59890e+00,2.13103e-01,-1.20936e+00,1.95643e+00,8.48731e-01,2.50039e+00,5.55270e-02,-7.76156e-02,-4.38008e-01,5.60790e-01,1.15284e+00,9.56888e-01,1.05346e+00,-1.94023e+00,6.79241e-01,-1.65939e-01,-1.17249e+00,-1.37378e+00,7.67723e-01,-1.23260e+00,-7.13202e-01,-3.11213e+00,3.41829e-02,2.87292e+00,2.01478e-01,4.61461e-01,-7.89670e-01,-2.65923e+00,-5.78371e-01,1.86577e+00,-6.52847e-01,-5.33305e-02,7.59343e-01,-5.43460e-01,-1.74318e+00,-1.03140e-01,3.87867e-01,-4.25968e+00,2.18609e+00,5.15619e-02,-6.02021e-02,1.15007e+00,5.00420e-01,
-1.67583e-01,-2.01222e+00,-1.08175e+00,5.71389e-01,-1.23125e+00,-4.26306e-01,1.68878e+00,2.46274e-01,5.49311e-01,8.07180e-01,-8.19401e-01,-1.19206e+00,6.61061e-01,-1.96225e+00,3.45130e-01,2.74290e-01,7.31206e-01,-8.98040e-02,-1.30044e+00,5.31080e-01,-7.48940e-01,-1.38862e+00,6.80918e-01,4.20758e-01,1.59485e+00,1.17682e+00,1.00372e+00,2.82244e-01,-1.08851e+00,1.59352e+00,-1.86563e+00,8.58137e-01,-1.19119e-01,-1.82981e+00,7.76697e-01,7.75256e-02,7.28280e-01,-2.77938e+00,-6.84065e-01,-2.45383e-01,-1.63023e+00,5.87937e-01,-9.63389e-01,-4.16360e-01,-3.09848e+00,2.97005e-01,3.49889e-01,1.19894e+00,5.06030e-01,1.25029e+00,
3.60354e-02,3.69659e-02,1.33451e-01,-1.63772e-01,-4.80191e-01,-1.50002e-01,-2.58030e-01,4.03970e-01,1.68541e-01,2.73898e-02,-1.23597e-01,-3.25391e-01,-1.30500e-01,4.14889e-01,4.43700e-02,4.34174e-02,8.18785e-02,-5.47255e-01,-3.24201e-01,-2.34802e-01,-2.25177e-01,2.95676e-01,1.71748e-01,4.04134e-02,1.81145e-01,9.97656e-02,-2.75991e-01,-3.19473e-01,-1.13187e-01,-6.82845e-01,8.95492e-02,2.82369e-01,1.02690e-01,-6.23386e-01,4.59256e-02,-1.17980e-01,-5.55613e-02,1.33186e-01,-1.04545e-01,-2.14733e-01,-3.81350e-01,2.70971e-01,-6.46526e-01,2.80435e-02,-2.51465e-01,-4.61448e-02,-1.39761e-01,-3.16035e-01,-3.05599e-01,7.70648e-02,
-5.80522e-02,-1.65887e+00,-4.73044e-01,2.42815e-01,-9.33030e-01,-1.92336e-01,-2.61105e+00,-1.11532e-01,-5.23287e-02,5.59412e-01,-8.21382e-01,-3.25488e+00,2.01271e-01,1.61168e+00,-1.54088e+00,-6.43582e-01,1.22621e+00,1.10630e+00,-7.49296e+00,-8.74293e-01,-1.12704e-01,-2.86724e-01,4.52089e-01,-9.14446e-02,-2.67600e+00,1.46306e-01,-2.56910e-01,-1.16736e+00,-3.40248e+00,1.39231e+00,-2.62579e+00,8.65842e-01,6.49252e-01,-1.88106e+00,1.16906e+00,1.71243e-01,-2.82750e-01,-3.46879e+00,1.78086e-01,1.97190e-01,-3.09941e-01,-8.91179e-01,-8.90785e-01,2.31328e-01,2.13243e-01,5.11284e-01,-3.93876e-01,-1.80695e+00,1.97096e-01,1.11656e-01,
-6.50996e-02,2.64277e+00,6.00839e-01,-4.56025e-01,-5.18110e-01,-1.15410e+00,-1.51678e+00,7.74284e-01,4.49041e-01,6.76596e-02,4.13409e-01,8.57171e-01,8.33397e-01,1.55519e-01,-2.80538e-01,-9.33837e-03,-7.29407e-02,1.55369e+00,1.65843e+00,-8.53023e-01,8.30975e-01,6.03502e-01,4.70424e-01,-9.75572e-01,9.88798e-01,-3.64883e+00,1.51330e-01,1.19290e-01,1.47265e+00,-7.11761e-01,-1.42499e+00,-4.26117e-01,-3.08497e-01,2.20363e+00,1.29617e+00,-1.11149e+00,1.10494e+00,-1.00343e+00,3.93197e-01,-9.65833e-01,-3.04073e+00,-9.17873e-01,-4.22982e-01,3.35198e-01,2.72933e+00,-8.24536e-01,-2.01312e-01,1.92168e+00,2.85776e+00,-1.29343e+00,
-5.82729e-01,-1.40556e+00,-3.13949e-01,2.29870e-01,-1.09030e+00,-4.06960e-01,1.78328e+00,6.22978e-01,-9.69101e-01,4.86299e-01,1.24062e+00,1.26068e+00,4.49532e-01,7.44760e-01,6.02328e-01,-1.69671e-01,-4.77273e-02,1.63418e+00,8.66501e-01,1.10436e+00,9.52622e-01,-1.08029e+00,5.66840e-02,-2.92291e-01,4.79279e-01,-6.59271e-01,-1.20687e+00,9.41575e-01,-1.71961e+00,2.13083e+00,1.36656e+00,1.32198e-01,-1.45218e+00,-7.59252e-02,1.83293e+00,7.68951e-02,7.54677e-01,-3.55160e+00,3.10134e-01,1.27015e-01,-2.84479e-01,8.46690e-01,2.25521e-01,-2.77663e-01,2.30706e-01,-3.32872e-01,-2.21328e-01,2.63860e+00,5.10780e-01,1.38529e+00,
-1.57330e-01,-1.65144e-01,-1.34798e+00,1.93422e-01,-1.70895e-01,2.19492e-01,4.09824e+00,-3.26523e-01,-3.45980e-01,4.49944e-01,-1.26454e+00,-3.38766e+00,-2.22926e-01,2.79704e+00,-1.01044e+00,-6.84182e-01,1.86613e+00,-1.14088e-01,-5.55097e-01,-2.74792e-01,3.38970e-02,3.07219e+00,1.11678e-01,-1.35435e+00,-9.07871e-01,-7.35168e-02,-9.63046e-01,-1.34198e+00,-2.11365e+00,-9.17499e-01,-9.24720e-01,7.66350e-01,1.68656e+00,1.07089e+00,4.93129e-01,2.23313e-01,-2.15693e+00,-2.85456e+00,-2.33693e+00,-2.55138e-01,-2.55305e-01,-1.22980e+00,9.53369e-01,-2.98565e-01,-2.73736e+00,5.41635e-01,-4.81847e-01,-1.61687e+00,-2.43507e+00,-4.36885e-01,
-3.33409e+00,
-7.66091e-01,
-4.77768e-02,
1.96611e+00,
-1.51022e+00,
-2.43012e+00,
-1.63106e+00,
3.65655e-01,
1.67392e+00,
-3.28966e-01,
2.84620e+00,
-6.73458e-01,
-6.19345e-01,
-2.51038e+00,
-9.87429e-02,
-3.14091e+00,
2.50977e-01,
9.94143e-01,
-1.05122e+00,
-1.05109e+00,
-1.08909e-01,
-2.93567e+00,
-1.50219e-01,
-2.94877e+00,
8.95547e-02,
1.26013e+00,
2.14989e+00,
5.56227e-01,
-1.41426e+00,
-2.14291e+00,
8.33502e-02,
