// The contents of this file are licensed under the Creative Commons
// Attribution 4.0 International License: https://creativecommons.org/licenses/by/4.0/
// Neural Network File Format by Kyle Julian, Stanford 2016
7,5,5,50,
5,50,50,50,50,50,50,5,
0,
0.0,-3.141593,-3.141593,100.0,0.0,0.0,-3.0,
60760.0,3.141593,3.141593,1200.0,1200.0,100.0,3.0,
1.9791091e+04,0.0,0.0,650.0,600.0,35.1111111,0.0,7.5188840201005975,
60261.0,6.28318530718,6.28318530718,1100.0,1200.0,100.0,6.0,373.94992,
1.38742e-02,-6.82284e-03,-1.78422e-03,6.06939e-03,-7.71071e-04,
-1.28134e-02,-4.57407e-01,4.67988e-01,-1.00724e+00,2.59735e-01,
-1.87531e-01,4.17980e-01,3.07211e-01,8.73464e-02,-1.54665e-01,
6.31706e-02,-1.29855e+00,1.28493e+00,-5.77826e-02,-3.82623e-01,
-1.05037e-02,-1.62315e-01,1.66002e-01,-5.29267e-01,-8.32398e-01,
9.66597e-01,-2.02221e-03,1.11221e-02,1.62402e-03,-5.76006e-02,
8.09889e-02,-5.68449e-01,7.39176e-01,1.40594e-01,-3.27363e-01,
-1.40647e+00,-1.31127e-01,-1.56159e-02,6.95513e-02,4.83789e-02,
1.80840e-02,-2.02600e-01,3.95621e-01,-1.25879e+00,7.07417e-01,
1.85819e-02,3.88211e-01,-2.86756e-01,-1.76082e+00,7.00482e-01,
-4.53303e-02,-1.59087e-01,1.73038e-01,-1.06851e+00,-9.19388e-01,
2.01614e-02,-1.71749e-01,-4.15948e-01,-9.62744e-01,1.17384e-01,
-7.84819e-03,-3.10592e-02,1.91744e-01,-2.03976e-01,1.29969e-01,
1.00002e-02,5.25510e-04,-4.23700e-04,3.87653e-03,1.28640e-02,
4.21334e-02,-3.55977e-02,2.43499e+00,6.39461e-02,-3.15131e-02,
-3.39627e-02,-7.02229e-01,7.51405e-01,-1.48766e-01,2.97653e-01,
-7.37324e-01,-3.29698e-02,8.91638e-03,-1.89925e-01,-3.81396e-02,
-9.04582e-02,6.34258e-01,-6.47477e-01,1.69714e-01,-7.68809e-01,
1.84076e-03,-2.46525e-01,2.68677e-01,1.39402e+00,2.51191e-01,
1.38573e-02,-4.63689e-01,-4.26741e-01,-7.62209e-01,4.28122e-01,
4.35759e-01,-7.21318e-01,-1.60290e-01,-2.68950e-01,5.67964e-02,
8.48856e-04,-8.58098e-02,2.61523e-01,-5.94084e-01,-1.23498e+00,
-8.18883e-02,-8.72663e-02,1.82711e-01,-9.80657e-01,1.63376e+00,
-7.26888e-03,5.16589e-01,-5.54700e-01,-8.99213e-01,1.55223e+00,
-8.67357e-02,4.75355e-01,-3.89466e-01,-3.93153e-01,2.59866e-01,
1.62759e-02,3.57238e-03,4.51968e-04,-8.44468e-04,2.13200e-03,
-4.76219e-02,-1.77042e-01,4.92863e-01,-7.17979e-01,5.26293e-01,
-4.50167e-03,-5.63832e-02,1.09250e+00,2.35239e-02,-1.62601e-02,
8.23485e-02,2.86636e+00,-1.83685e-01,5.53719e-02,-5.95861e-02,
1.66973e-02,9.03909e-01,-9.52239e-01,-1.06632e+00,5.36865e-01,
5.44221e-02,3.34596e-01,-2.90298e-01,-7.77372e-01,-6.01716e-01,
5.85200e-02,-1.33090e+00,8.20987e-01,5.88364e-02,-4.24522e-02,
-1.62100e+00,-1.33032e-01,4.58837e-03,-2.59553e-02,7.50848e-03,
-1.31042e-02,-2.01392e+00,-5.39096e-02,1.04994e-01,-2.37506e-01,
4.23074e-02,4.56853e-01,4.90721e-01,-2.04347e-01,9.02211e-02,
-6.54055e-03,-5.60327e-02,6.60616e-02,7.31028e-01,-3.95497e-01,
1.77103e-02,3.51615e-01,-2.80188e-01,9.39619e-01,-1.15110e+00,
-8.98034e-01,-1.67991e-01,5.50340e-02,-7.21632e-02,-3.42911e-02,
5.26628e-01,-4.41952e-02,-7.84238e-01,1.13325e-01,-6.17570e-02,
1.28558e-02,-8.31286e-01,-1.88750e-01,-1.13197e-01,3.19988e-01,
-1.74570e-02,-2.26772e-01,1.81091e-01,-1.92491e-01,-1.26278e+00,
-1.90702e-02,-1.10056e-01,-7.68722e-01,-4.29233e-01,2.39058e-01,
-2.52536e-01,3.86288e-02,-4.10115e-02,7.52111e-02,2.90827e-01,
-9.51590e-02,-2.47730e+00,1.85835e+00,-6.23731e-02,-1.39755e-01,
1.02190e-02,-4.14110e-05,1.34319e-02,-9.44004e-04,-4.25589e-03,
-3.68926e-01,-2.07022e-01,4.11609e-01,-6.47869e-02,-8.02487e-01,
2.85209e-02,8.24276e-01,7.84282e-01,7.73762e-02,-2.03018e-02,
-1.49515e+00,9.13773e-02,5.49455e-02,1.36257e-02,-6.93288e-02,
-4.47274e-01,-1.77438e-01,-1.79930e-02,-2.32044e-01,-9.99348e-01,
-5.08595e-02,1.24583e-01,3.95906e-02,4.97295e-01,-2.01482e+00,
-1.93208e-02,
-1.08101e-01,
1.66608e-02,
1.61545e-01,
-1.06930e-01,
2.89727e-01,
6.57122e-01,
-1.49265e-01,
-1.42849e-01,
-6.06041e-01,
-5.08617e-01,
-3.15387e-01,
5.60998e-02,
-2.07994e-02,
4.95877e-02,
3.59228e-01,
-1.34949e-01,
-4.80300e-02,
1.13735e-01,
5.52331e-02,
1.87557e-01,
-5.66893e-01,
5.59717e-02,
-4.59244e-01,
1.45341e-01,
-1.93138e-02,
6.92732e-02,
9.53057e-02,
1.01671e-01,
1.15879e-01,
-4.57239e-01,
-4.13837e-01,
-3.32726e-01,
-5.29717e-02,
6.08747e-02,
3.80637e-01,
2.39688e-01,
3.13403e-02,
2.44431e-01,
1.68728e-01,
-1.27395e-01,
4.72091e-02,
9.33066e-02,
-2.05633e-01,
-2.04511e-02,
-3.28547e-01,
6.71233e-02,
-2.74268e-01,
-5.39354e-01,
-6.04291e-01,
3.80392e-02,6.10242e-01,2.00225e-01,1.46577e-01,5.35609e-01,-9.87662e-01,-7.39290e-01,4.47107e-01,5.76686e-01,-4.16906e-01,-4.00812e-02,1.64054e+00,2.84567e-01,-8.16131e-03,-6.62394e-01,-5.46275e-01,2.60560e-01,-7.97755e-01,1.42740e-01,-9.69145e-02,1.13300e+00,3.42186e-01,6.34986e-01,-1.01826e+00,-1.51485e-01,3.15039e-02,6.67829e-01,2.75766e-01,4.21086e-01,9.62965e-03,-4.19823e-01,-4.80666e-01,1.07908e+00,2.29298e-01,7.09514e-01,2.30032e-01,-1.94566e-01,-4.01699e-01,-1.68658e-01,-4.02444e-01,2.35179e-01,6.50167e-01,-1.91203e+00,9.08534e-02,-1.49595e-02,-7.32878e-01,1.39463e+00,2.50983e-01,1.92332e-01,1.05875e+00,
-1.74811e-02,-5.75329e-01,-2.12953e-01,5.63835e-02,-1.06873e-01,-2.77211e-01,-2.53635e-01,-3.57384e-01,8.25746e-03,-1.10275e+00,6.12976e-01,-6.92240e-01,-3.80090e-01,4.28328e-02,-6.45412e-02,-3.41654e-03,8.94722e-01,6.11002e-01,-5.43594e+00,8.53101e-01,1.31362e-01,6.55318e-01,-2.98304e+00,-3.84572e-02,1.11186e-01,1.67610e-02,2.73025e-01,1.16252e-01,-7.20664e-01,4.26675e-02,3.62695e-01,1.34115e+00,1.27300e+00,-2.76734e-01,3.24013e-01,6.02464e-02,2.28080e-02,5.06945e-01,2.87367e-01,-6.79914e-01,-1.62999e-02,-1.08607e-01,-1.58238e+00,-1.87434e-01,1.09123e-03,5.62627e-01,4.31980e-01,-4.51231e-02,1.22775e+00,1.17476e+00,
-3.29600e-02,-1.05687e+00,2.84889e-01,1.25415e+00,-8.94522e-02,-1.06402e-01,3.83934e-02,1.49848e-02,-7.75065e-01,3.87574e-01,2.33677e-02,5.27744e-01,-9.15947e-02,3.74449e-02,-3.52784e-01,-1.47643e+00,5.27329e-01,-9.36912e-02,5.34711e-02,1.79509e-01,-4.33438e-01,1.30024e+00,-1.67230e-02,7.15460e-02,7.70837e-01,-4.15157e-02,-7.80223e-01,-8.61793e-01,2.77630e-01,9.08455e-01,-5.04887e-01,-2.06033e+00,2.56896e-01,-1.16381e+00,-2.38449e-01,-2.97438e-01,4.84680e-01,1.73542e-01,5.04774e-01,-5.92101e-01,-2.58722e-01,4.41804e-01,2.75729e-01,4.58110e-01,1.02919e-04,1.39009e+00,-4.36481e-01,-3.62286e-02,-5.43494e-02,9.87612e-01,
-1.12252e-02,5.80763e-01,-1.65473e-01,-1.92808e-01,5.52947e-01,-9.67602e-02,-1.84704e-01,-4.83175e-02,5.71076e-01,-5.99694e-01,7.79866e-01,7.19787e-01,3.47977e-01,2.34407e-02,-6.74993e-01,-4.06610e-02,-2.59212e-01,-1.62035e-01,-1.00021e-01,-5.46658e-01,3.69205e-01,1.35400e+00,-3.27522e+00,3.06691e+00,3.53687e-01,1.19093e-02,4.19679e-01,-4.79322e-01,2.22695e-01,-6.98006e-03,1.21346e+00,5.77753e-01,-2.74461e-01,-5.05704e-01,-4.30426e-01,-1.03008e+00,-1.28116e+00,3.00208e-01,1.40774e-02,-3.07775e-02,3.71412e-01,-9.70423e-02,-2.27222e+00,-1.81417e-02,1.81672e-02,6.47646e-01,2.65396e-01,3.22165e-01,1.29921e+00,-2.73034e+00,
-2.69562e-02,-1.37866e+00,-3.75639e-01,1.93277e+00,-5.34947e-01,1.65646e-01,-1.63373e+00,-9.06306e-02,-1.32768e+00,7.15886e-01,-4.28257e-01,1.44677e-01,-4.53036e-01,-2.88389e-02,-5.11223e+00,-1.36331e+00,-1.85773e-01,2.54754e-01,5.50138e-01,-1.50403e-01,-6.46593e-01,1.84179e+00,-7.56542e-02,4.81458e-01,5.28645e-01,5.80870e-03,-1.22371e+00,-1.44870e+00,6.85929e-01,8.39725e-01,4.45208e-01,-4.31957e-03,1.42164e-01,-1.09735e-01,-8.12227e-01,-6.11390e-01,8.40622e-01,9.85151e-03,4.91177e-01,-2.79293e-01,-3.90953e-01,3.29307e-01,1.03481e-01,3.75072e-02,-4.01576e-02,2.38456e+00,-4.82822e-01,-1.13959e-01,-6.25054e-01,-6.71666e-01,
1.70177e-02,5.78237e-03,-9.60766e-03,-5.03124e-03,-1.82188e-02,2.99721e-02,-2.46479e-02,-4.03549e-02,-5.26616e-02,-3.95486e-03,1.70437e-02,-2.71571e-02,-4.06539e-02,3.54420e-03,-1.95643e-02,-3.02444e-02,2.10342e-02,-4.58823e-02,-1.69655e-02,-4.24311e-03,-4.51853e-02,-1.46749e-02,4.10694e-03,-5.06159e-02,-1.74972e-02,7.89522e-03,3.99422e-02,8.98374e-03,3.19591e-02,9.16314e-03,1.73040e-02,1.52041e-02,1.09092e-02,1.81494e-02,-5.11059e-02,-4.17534e-02,-1.23438e-02,-5.37743e-02,-5.53720e-02,-2.60048e-02,4.08183e-02,1.66138e-03,4.31401e-02,2.30234e-02,3.40241e-02,2.81029e-02,-4.65242e-02,3.64955e-02,3.52774e-02,-1.85664e-02,
2.87005e-02,-4.67999e-02,-2.60264e-02,2.42143e-02,-3.72303e-03,-4.00661e-02,-2.78290e-02,-8.60742e-04,3.00836e-02,-3.41153e-02,-4.21501e-02,-1.60050e-02,-5.02235e-02,1.38108e-02,-6.23908e-03,-2.84960e-02,-3.86882e-02,-3.51704e-02,8.21881e-03,-3.29911e-02,3.36983e-03,2.25671e-02,1.87728e-03,-2.93387e-02,-1.82299e-02,2.27435e-02,-9.34595e-03,1.08827e-02,-4.28249e-02,4.06489e-02,-5.16833e-03,2.51784e-03,-2.08836e-02,-4.05811e-02,2.87993e-02,-8.10098e-03,2.99716e-02,-5.86486e-03,-2.51218e-02,-4.41450e-02,-1.08472e-02,-3.43787e-02,2.06351e-02,5.50094e-03,-3.31347e-02,-2.31557e-02,3.99025e-03,2.09088e-02,3.94586e-03,-5.05369e-02,
-1.19203e-02,-7.36744e-01,-7.42947e-01,-8.02311e-02,-3.84676e-01,7.42566e-02,-4.93267e-01,-2.22042e-01,6.01064e-01,-2.75356e+00,4.81461e-01,-9.75685e-01,-2.60166e+00,2.33170e-02,-6.35112e-01,-6.34238e-01,6.33464e-01,-1.53153e-01,-2.79431e-01,8.18457e-01,-4.88153e-01,2.00940e+00,-2.57329e-01,-7.78063e-01,4.41482e-01,-3.15803e-02,-6.91110e-01,-8.98130e-01,2.09044e-01,-2.19505e-01,4.61043e-01,1.53165e-01,1.44939e-01,-1.49260e+00,1.44260e-01,4.58617e-01,3.08463e-01,-3.31010e-01,3.66947e-01,-1.38662e+00,6.62016e-01,6.23080e-01,-5.64690e-01,1.08306e+00,2.47901e-02,6.98099e-01,5.71136e-01,-6.63175e-01,-7.14623e-01,3.05733e-01,
-1.49906e-02,-3.18285e-01,-1.15872e+00,-1.64124e-01,5.54226e-01,-2.85267e-01,1.41919e-01,1.15927e+00,-1.33950e-01,4.12054e-01,3.65263e-01,-7.60605e-01,6.05694e-01,1.11488e-03,-3.62615e+00,-1.09118e+00,1.25834e-01,-5.53088e-01,-1.12629e-01,9.80437e-01,-1.28494e-01,-1.66170e-01,-4.83214e-01,1.68874e-01,-2.07569e-01,-2.58578e-02,9.67842e-02,-4.32169e-01,1.00770e-01,-1.87108e-01,1.47009e-01,1.13665e-01,-5.65916e-02,-1.10600e-01,-4.14650e-01,2.71759e-01,-1.86122e-01,4.56753e-01,1.68171e-01,5.07330e-01,-2.96827e-01,-1.02562e-01,1.47026e+00,-7.59773e-02,4.34533e-04,-9.12945e-01,-6.12725e-02,6.24155e-01,-4.17777e-01,1.47297e-01,
2.54232e-03,1.39637e-01,6.00455e-01,-1.61296e-01,1.07647e+00,5.75988e-01,-5.69708e-01,-1.27555e-02,3.91472e-01,-9.39097e-02,1.72805e+00,-1.54738e-01,-1.04982e-01,-2.10416e-02,2.31204e-01,-4.94928e-01,4.07994e-01,7.82821e-01,-1.62924e+00,4.93766e-01,-1.43564e-01,-4.28927e-01,7.47854e-01,-8.22866e-01,-5.32681e-02,-4.75067e-02,2.99561e-02,1.17774e-02,-4.98424e-01,-1.39775e+00,-3.89326e+00,-1.79353e-01,-2.06107e-01,3.31760e-01,6.86651e-01,2.32044e-01,-4.75727e-01,5.40160e-02,-3.41375e-01,3.91398e-01,3.09045e-01,2.87370e-01,6.00992e-01,1.08922e-01,3.50456e-02,3.93237e-01,1.06939e-01,1.59976e-01,1.50649e-01,-1.76786e+00,
-2.25330e-02,3.48795e-01,6.35928e-03,2.98164e-01,3.52393e-02,5.27549e-02,-9.73897e-01,-9.36835e-01,2.39822e-01,6.58475e-01,8.77459e-03,2.50271e-01,8.03105e-02,2.93263e-02,5.76189e-01,3.46935e-01,8.06432e-01,3.80390e-01,-1.11948e-01,9.42813e-02,-3.64169e-01,1.33665e+00,-7.66447e+00,-2.56557e-01,2.52763e-01,-3.35086e-02,3.89959e-01,1.89907e-01,-5.92416e-01,5.08032e-01,3.92419e-01,-9.23397e-01,-8.39227e-01,4.16892e-01,-7.90161e-02,-7.45428e-01,3.84656e-01,1.95865e-01,2.62257e-01,5.44096e-02,9.93940e-02,4.05636e-01,-1.94978e+00,-1.09788e-01,-1.09842e-02,5.34714e-01,-5.37541e-01,-1.26066e-02,1.15687e+00,2.12235e+00,
2.35709e-02,9.76309e-03,6.04827e-01,2.12719e-01,-4.65317e-01,1.66553e-01,-7.51628e-01,3.15300e-01,-8.75355e-01,-9.16183e-01,1.39131e-01,-1.56566e-01,1.01304e-02,-5.77014e-04,-1.05522e+00,3.61054e-01,6.81317e-02,-1.28413e-01,-1.10129e-01,1.38984e-01,6.05224e-01,2.71682e-01,2.61788e-01,-3.69250e+00,1.09165e+00,-4.06175e-02,-8.65495e-01,-6.53629e-01,8.25005e-02,1.28738e+00,-1.21619e-01,1.76869e+00,1.31912e+00,1.25152e-01,1.08393e-01,2.07615e-01,-1.05636e+00,6.43668e-02,-1.08047e+00,-9.22312e-02,1.73062e+00,7.55845e-02,-1.28395e+00,8.42175e-01,4.06043e-02,-1.85742e+00,-5.65649e-01,-9.90751e-02,7.55220e-01,-3.66825e+00,
-4.81645e-02,7.18992e-01,1.43277e-01,-1.79323e-03,6.53658e-01,3.04484e-02,-9.79512e-02,-8.27302e-02,1.68749e-01,4.10620e-01,2.27031e-01,-1.47690e+00,-4.87289e-01,2.14752e-02,5.00876e-01,-6.66664e-01,3.58720e-01,9.53532e-01,9.25839e-03,-1.84642e+00,-1.54697e-01,7.44556e-02,5.68770e-01,-1.14822e-02,-4.67040e-01,-1.16725e-02,-4.69531e-01,3.89728e-01,5.45872e-01,-2.06681e-01,3.71275e-01,-9.50246e-01,2.69922e-01,-5.80809e-01,-7.47543e-02,2.80044e-01,-7.77031e-01,-1.88645e-01,2.72464e-01,1.22692e+00,-4.73402e-01,5.03975e-01,1.47977e-01,-1.93413e-02,-4.41541e-02,-2.61690e-01,-4.14695e-01,-3.08194e-02,-2.56951e+00,1.22819e+00,
-2.21181e-02,-8.80004e-01,-4.74227e-02,6.53976e-01,1.37891e-01,-2.06069e-01,-8.46684e-01,1.41718e-01,-3.65809e+00,4.81775e-01,-1.33183e-01,1.93422e-01,1.38661e+00,-8.08698e-03,1.12883e-01,-8.53234e-01,1.03555e+00,-6.72174e-01,1.26551e+00,3.02873e-01,2.30910e-01,1.06394e+00,-2.66177e+00,-1.45498e+00,3.68644e-01,1.06493e-02,6.62647e-01,-3.17900e+00,-9.67342e-02,4.96015e-02,-6.70133e-01,-2.06432e+00,2.77467e-01,-4.58362e-01,3.22530e-01,-5.11483e-01,3.40971e-01,-1.02383e+00,4.64028e-01,-7.46780e-02,1.62228e+00,-9.29693e-01,8.10661e-01,-4.67646e-01,-2.96065e-02,-7.19620e-01,2.59737e-01,-4.97715e-01,-1.02907e-02,-4.73799e-02,
-5.42273e-02,-5.27174e-01,-4.82964e-01,-4.96065e-02,-2.17753e-01,-2.20938e-01,2.12973e-01,-9.30777e-02,5.14015e-01,-4.90231e-01,-4.33271e-01,-2.88776e-01,-4.02670e-01,-3.38863e-02,-9.02305e-02,-1.07032e-01,2.58047e-01,1.92234e-01,-1.52297e-01,-7.63574e-01,7.74721e-01,3.97887e-01,-6.08251e-02,1.46509e-01,5.81467e-01,-3.94523e-02,-1.16563e-01,-1.16029e+00,-7.75733e-01,2.73309e-01,1.09146e-01,9.25682e-03,-2.14370e-01,1.55609e+00,6.31882e-01,8.34228e-01,-9.81818e-02,-2.19162e-01,-4.17119e-02,2.68023e-01,3.35866e-01,-2.16258e-01,3.47911e-01,7.05640e-01,-1.52372e-02,2.46254e-01,-2.99382e-02,1.94650e-02,2.70983e-01,3.14806e-01,
-2.57354e-02,2.84341e-01,2.47952e-01,-1.36612e+00,7.02423e-01,1.64294e-01,6.03034e-01,-1.53523e-01,6.75877e-01,-6.07767e-01,9.60152e-01,5.44546e-01,3.72758e-01,-1.37368e-02,-5.14623e-01,2.12376e-01,-8.87408e-02,4.10492e-01,-2.72632e-01,5.84015e-01,1.97247e-01,4.90739e-01,5.80079e-02,-8.69457e-01,-1.00033e+00,3.87480e-02,6.70937e-01,-2.56256e-01,-7.11420e-01,3.54694e-01,-8.80963e-01,1.16350e-01,6.84724e-02,-1.03881e-01,8.00776e-01,1.51486e+00,-1.28998e+00,1.76636e-01,-4.67034e-01,-1.39721e-01,-7.90212e-01,7.32996e-01,-4.07029e-01,-1.63078e+00,3.82022e-02,-6.60668e-01,5.02708e-01,2.26442e-01,-1.05117e+00,-4.57029e-01,
-1.57921e-02,-1.35321e-02,1.85863e-02,-1.40477e-02,-1.31249e-02,-3.79719e-02,-3.17143e-02,-4.32816e-02,-3.32043e-03,-2.85153e-02,1.60299e-02,9.55629e-03,7.13987e-03,-4.26890e-02,-4.66658e-02,3.55388e-02,1.68737e-03,3.50043e-02,-3.07341e-02,4.74594e-02,-2.00628e-02,-2.17559e-02,-4.79261e-02,-1.62604e-03,-4.94325e-02,-4.19729e-02,1.84354e-02,1.51685e-02,3.30370e-02,-2.47565e-02,1.61011e-02,2.33535e-02,1.02816e-02,1.20409e-02,-2.04834e-02,2.14421e-02,-4.39833e-02,-6.59902e-03,-5.61168e-02,5.10579e-03,-4.91956e-02,3.66347e-02,2.80560e-02,-8.23949e-03,-3.96840e-02,-2.73508e-03,2.21779e-03,-4.57439e-02,-1.19932e-02,-3.37303e-02,
-2.49917e-02,1.83848e-01,-5.48408e-01,4.13571e-01,8.24986e-02,2.14085e-01,2.05039e-01,-3.35260e-01,6.92153e-01,2.20834e-01,-2.94684e-01,-1.32130e+00,9.07931e-02,-1.31274e-02,-1.06842e-01,-9.46495e-01,-3.00396e-01,7.80631e-02,-3.83833e-01,1.93468e-01,-2.85542e-01,-2.02358e-01,-4.22597e+00,-1.01858e+00,-1.83247e-01,-9.98212e-03,2.76538e-01,-6.69913e-02,-4.26760e-02,-8.17907e-05,3.35436e-01,1.28648e-01,-1.45700e+00,-4.98745e-01,3.46692e-01,-7.06700e-01,2.14588e-02,-1.47562e-01,-2.06612e-01,3.52909e-01,6.78311e-01,8.94274e-02,-2.13315e+00,1.49270e-01,-1.15487e-02,-3.74850e-01,-4.97654e-01,8.97491e-01,-1.11516e-01,6.84420e-01,
8.73351e-03,3.18865e-01,-1.20709e-01,-6.87085e-02,-5.34286e-02,-8.91005e-01,-1.08654e-01,3.60006e-01,-2.93934e-01,-6.87133e-01,1.70589e-02,-7.87344e-01,-6.21379e-02,4.70508e-03,1.90039e-01,3.85414e-02,9.36993e-02,5.89390e-01,-3.99615e-01,7.40311e-02,1.19084e-01,1.27393e-01,-6.93072e-01,-1.04577e+00,5.49313e-01,4.71328e-03,-2.99752e-02,1.05950e-01,1.56232e-02,3.13861e-02,8.38806e-02,-2.02151e-01,5.44265e-01,-4.04157e-02,4.06745e-02,1.88035e-01,-4.99151e-01,-3.03243e-03,-7.09913e-01,-9.72511e-03,-7.15076e-02,-2.45934e-01,2.70526e-01,9.19616e-02,-2.72239e-02,2.77799e-03,-6.73094e-01,5.13931e-01,1.38783e-01,-9.28461e-01,
1.49886e-02,5.61322e-01,2.07587e-01,9.49995e-01,-1.88906e-01,3.91456e-02,2.20063e-01,-3.03251e-01,-4.98559e-01,-1.43923e+00,-1.63757e-01,-1.33048e+00,1.59675e-01,-5.01889e-02,4.56422e-01,-8.52487e-01,-2.18580e-01,1.00881e+00,1.98645e-01,-2.02823e-02,-4.19623e-01,4.50561e-01,-4.38231e-02,-1.26024e+00,-1.12778e-02,3.88267e-02,-1.54797e+00,-1.81900e-01,1.02555e+00,-8.98329e-02,8.51848e-01,-1.89072e+00,1.48919e-01,6.40328e-01,-9.84530e-01,2.87192e-01,-8.76538e-01,-5.02711e-02,1.14560e-01,-4.99116e-01,-7.06331e-02,1.09438e-01,-6.45844e-02,5.05378e-01,-4.59434e-02,2.35569e-01,-1.37454e+00,-4.04772e-02,2.61791e-01,1.08862e+00,
-3.51137e-02,1.15917e-01,4.06985e-01,-9.97631e-01,1.26932e+00,2.91369e-01,1.21825e-01,4.94461e-02,-3.52842e-01,-9.60681e-01,4.38608e-01,9.09676e-01,3.50569e-01,3.60029e-02,1.28717e-01,1.65458e-01,1.19904e-01,-1.37573e+00,-4.52914e-01,4.91460e-01,-4.03619e-02,-1.78214e-01,-1.04396e-01,-6.66435e-01,1.13761e+00,4.10057e-02,1.01809e-01,1.37741e-01,6.73055e-01,1.02541e+00,-1.15351e+00,9.21866e-02,-3.64869e-01,-7.02890e-02,1.64713e-01,6.18364e-01,-2.40037e-01,-9.96446e-02,-1.06329e-01,-2.57013e-01,-1.01074e+00,6.96049e-01,4.36442e-01,-1.28384e+00,-2.83004e-02,2.97028e-01,8.63168e-01,-2.08784e-01,3.21163e-02,8.09005e-01,
2.17555e-03,-1.01705e-01,2.06773e-01,3.08492e-01,5.41059e-01,-2.64548e-01,4.21042e-01,-3.42576e-02,-3.48524e-01,1.82267e-01,1.59826e-01,6.79973e-02,3.95632e-01,-3.04365e-02,-2.05811e-01,2.18964e-01,-3.95685e-02,2.91061e-01,-1.16782e-01,-7.94020e-02,-7.69998e-02,1.16893e+00,-7.38760e-01,-7.77567e-01,2.28038e-01,-5.47914e-03,1.21096e-01,3.06838e-01,-4.16337e-02,4.93453e-01,-4.66736e-02,-7.00513e-01,2.35438e-01,7.55422e-02,-5.89081e-01,-1.04640e+00,-1.65234e-01,4.26322e-02,-1.72039e-01,-3.61734e-01,-2.22356e-01,-1.34134e-03,-1.45376e+00,9.82022e-02,3.61740e-03,-9.55149e-01,-7.93226e-02,-2.55250e-01,3.95621e-01,-2.90730e-01,
1.48748e-02,9.19099e-03,1.54261e-02,-5.27527e-02,-7.10332e-03,-1.28262e-02,-3.40942e-02,-7.70650e-03,2.56784e-02,9.94685e-03,-3.18255e-02,1.34741e-02,-2.37618e-02,-7.63148e-03,1.45623e-02,2.10192e-02,2.15411e-02,-2.79990e-02,2.26520e-03,3.54483e-02,-2.98330e-02,-2.73886e-02,3.14592e-02,-4.75783e-03,-2.34985e-02,4.20497e-02,2.28873e-03,-2.15199e-02,9.49065e-03,-4.17651e-02,2.42810e-02,-2.54330e-02,8.86512e-03,-3.46939e-02,-6.02428e-02,-5.57126e-02,1.28561e-02,2.47829e-02,-5.17105e-02,-6.35324e-02,4.20040e-02,-1.85995e-02,2.80443e-02,7.57401e-04,-4.52283e-02,-1.33834e-02,-2.24883e-02,-1.18092e-02,8.48334e-04,-5.35730e-03,
2.60502e-02,-2.85210e+00,-1.53541e-02,5.13341e-02,1.12828e-01,4.04432e-01,7.50375e-02,-5.35274e-02,1.68173e+00,-1.24087e+00,8.95577e-01,-6.88430e-03,-1.18856e+00,-1.00528e-02,-1.20751e-01,1.05291e+00,6.06881e-01,9.79531e-01,-4.93282e-01,-6.12132e-01,-3.82354e-01,-2.08131e+00,7.72823e-01,6.47496e-01,-1.61948e-01,-5.41008e-02,-1.65567e+00,-2.44576e-01,1.53817e-01,-9.92958e-01,2.07370e+00,1.72608e+00,-6.63493e-01,-1.79233e-01,-5.44815e-01,-9.88710e-01,4.03038e-02,1.44414e-02,5.83533e-01,7.21233e-01,-1.39218e-01,-2.48368e-02,1.34753e+00,-2.26791e-01,3.54155e-02,-1.10723e-01,9.24291e-01,-1.04664e-01,1.72371e+00,7.61070e-01,
-4.26297e-02,-3.41969e-02,6.00199e-02,7.78861e-02,4.84444e-02,-1.85070e-01,-1.18665e-01,4.44975e-02,8.45571e-02,-3.30449e-02,2.13908e-02,1.75253e-02,5.13510e-02,-1.03113e-02,4.51016e-02,-1.75825e-01,7.18662e-02,7.44600e-02,-1.15905e-01,3.79924e-02,-1.34335e-01,1.11968e-02,-4.88346e-01,1.36988e-01,8.18456e-02,-2.79542e-02,-1.95459e-02,-9.57780e-02,-1.55972e-01,-1.24654e-01,5.66763e-02,-1.89878e-03,5.85288e-02,-1.56310e-01,-2.42790e-03,-8.56136e-02,-1.59173e-01,4.12363e-02,-1.85625e-01,-2.60041e-01,8.60187e-02,7.51457e-02,-2.34615e-02,2.66857e-02,2.31576e-02,4.62602e-02,5.34012e-02,1.00740e-01,6.82801e-02,-3.05937e-01,
1.44588e-02,-1.58716e+00,6.70194e-01,6.05438e-01,4.33953e-01,1.88237e-01,-2.09089e-01,-1.21652e-01,1.11355e+00,7.40879e-01,-9.85501e-01,-1.44179e+00,2.86149e-01,-3.46911e-02,5.26280e-03,1.09019e-01,-1.28760e-01,7.26060e-01,3.53855e-01,-1.65256e-01,1.34558e-01,8.61791e-01,-4.58716e+00,1.31516e-02,-6.46863e-01,1.43990e-02,2.96556e-01,4.46373e-01,-5.71667e-01,-5.35222e-01,-1.87251e-01,1.58909e+00,-2.93179e-01,9.59373e-01,-6.42357e-01,-2.81480e-01,1.88941e-01,2.53473e-01,-4.03515e-01,-3.04340e-01,8.17634e-01,8.61711e-01,1.04349e-01,-6.88802e-01,-2.66565e-02,5.31687e-02,-3.89038e-02,5.94369e-01,3.02252e-01,-1.20787e+00,
4.09284e-02,-1.66956e-02,4.09910e-02,4.35171e-03,-3.33275e-02,2.27209e-02,-1.12125e-02,3.31130e-03,-4.17487e-02,3.02877e-02,-8.68014e-03,1.06670e-02,-5.31232e-02,4.18950e-02,-6.88486e-03,2.65596e-02,8.08102e-03,-5.54736e-02,1.58140e-02,-5.02932e-02,-1.05914e-02,-9.75858e-03,-3.07417e-02,8.11108e-03,-5.47223e-02,-1.53640e-02,8.86358e-03,-5.25075e-02,3.22943e-03,-3.69467e-02,-6.30725e-03,-1.51352e-02,1.46309e-02,-4.13109e-03,3.93276e-02,-5.65021e-02,1.15364e-02,-2.10402e-02,-3.41572e-02,-1.57117e-02,2.33727e-02,1.72198e-02,-2.79920e-02,1.30480e-02,1.56787e-04,1.95657e-02,1.88011e-02,2.75616e-02,4.68780e-02,2.14605e-02,
1.95263e-02,5.45799e-02,9.83011e-02,-4.02817e-01,-1.32249e-02,4.96423e-02,3.22774e-01,4.01433e-01,-2.10448e-01,-1.66991e-01,1.03588e-01,-1.01032e+00,6.87685e-01,-1.19218e-03,-1.00972e+00,7.35600e-01,3.25852e-01,-7.38041e-01,2.16634e-01,1.06722e-01,2.36806e-01,2.48052e-01,-6.06461e-01,1.00506e-01,-1.29923e-01,4.71395e-02,-2.58887e-01,-3.03648e-01,2.25336e-01,-2.41139e-01,-3.75637e-01,-1.41635e-01,9.22633e-02,-5.85187e-01,7.70724e-01,-3.64432e-01,-1.13861e-01,2.08453e-01,-2.64663e-01,8.66522e-01,-7.39981e-02,1.14551e-01,5.84320e-02,9.18241e-03,-2.56277e-02,-1.20010e-01,2.29094e-02,-6.24849e-02,-2.39819e-01,-7.37545e-01,
-1.59103e-02,3.14455e-02,2.01237e-02,-2.49178e-02,-4.27166e-02,2.92722e-02,-1.94447e-03,-1.37366e-02,-2.41245e-02,-4.43381e-02,-7.99584e-03,-1.60423e-02,-4.11035e-02,1.28212e-02,1.24724e-02,-1.10202e-02,-4.69383e-04,-2.44955e-02,-3.96917e-02,-1.23541e-02,-1.77478e-02,3.40467e-03,-3.61588e-02,-1.88539e-02,1.05077e-02,-3.24083e-02,7.79505e-03,-3.17113e-02,-5.11916e-03,2.70776e-02,2.74271e-02,-4.14196e-02,3.52302e-02,-2.90386e-02,-2.18893e-02,-3.65858e-02,-2.91927e-02,-1.85271e-02,-8.92184e-03,1.32677e-02,-2.45926e-02,-2.92917e-02,-6.29312e-03,-6.06016e-03,3.71837e-02,1.29368e-02,-3.87320e-03,-2.94483e-02,-9.22812e-03,-2.77258e-02,
1.11132e-02,-7.32055e-01,-2.20138e-01,9.12229e-01,5.27669e-01,-1.74805e-01,3.67758e-01,3.41175e-02,-1.33012e+00,-1.01788e+00,-3.77083e-01,8.60388e-01,-4.56431e-01,-1.28247e-02,4.09587e-01,-2.42827e-01,-1.21134e-01,4.52217e-01,7.11926e-02,-6.27818e-01,2.38482e-02,8.77124e-01,-8.15684e-02,1.26559e+00,-8.09401e-01,-4.84895e-02,3.06541e-01,-2.60862e-01,9.56343e-02,-2.09500e-01,7.03655e-01,-7.77659e-02,-3.42947e-02,3.34181e-01,-2.05526e-01,-3.22789e-01,1.28104e+00,3.64618e-02,3.17405e-01,4.44571e-01,-1.97854e-01,-3.92919e-01,3.07605e-01,1.39857e-01,-3.59955e-02,-1.13252e+00,-2.06979e-03,6.31101e-02,3.28535e-02,5.92576e-01,
-3.56999e-02,-5.68770e-01,7.31730e-01,5.68739e-02,-3.08640e-02,4.45803e-01,5.82979e-01,2.46531e-02,-6.83370e-01,1.92943e-01,5.83383e-02,6.02109e-01,6.63008e-01,9.54932e-03,4.18621e-02,9.10011e-01,-1.95159e-01,8.23448e-01,1.32398e-01,4.01339e-01,7.00948e-01,-5.53205e-01,-4.92398e-01,6.78657e-01,-7.62682e-01,3.99007e-03,8.67969e-02,8.07659e-01,7.15901e-01,-2.41206e-01,-6.75217e-01,1.17253e+00,-5.17833e-01,-4.92454e-02,1.33504e-01,-2.04932e-01,-6.70707e-02,-6.43592e-02,-9.48778e-01,-1.66901e-01,-3.99185e-01,-1.61880e-01,1.01087e-01,-7.83655e-01,4.66592e-02,-6.83595e-01,1.18142e+00,1.56172e-01,-2.49955e-01,-6.53603e-02,
3.99540e-02,-3.83538e-02,1.45243e-01,1.76555e-02,-2.72602e-02,1.84443e+00,6.96917e-01,-1.47436e+00,-1.00474e-01,-3.53344e-02,1.61069e-02,4.72873e-02,2.91795e-01,-2.47429e-02,-1.43710e-01,1.61938e-01,-5.55446e-01,5.32952e-03,-2.82289e-02,6.54584e-02,4.26083e-01,1.55806e-01,-3.36196e-02,1.44937e-01,7.17956e-02,-2.98770e-02,-4.13655e-02,-6.25782e-02,6.82072e-02,5.99727e-02,1.45292e-01,-2.67538e-02,-1.19982e+00,1.19502e-02,1.23695e-01,-1.11734e-02,5.24788e-02,-1.19972e+00,3.40176e-01,-1.99118e-02,1.72416e-02,-3.02143e-02,2.04415e-01,-2.03523e-02,3.81554e-03,-2.88122e-01,6.49622e-02,-1.45328e+00,2.23999e-02,-1.06665e-01,
-3.98490e-02,-5.67912e-01,4.13719e-01,1.76236e-02,2.00155e-01,-1.39756e+00,5.28628e-01,-4.19305e-01,-1.21199e+00,-3.94160e-01,7.85921e-01,-1.97542e-01,-1.76935e-01,-1.50855e-02,-7.94236e-01,-7.78991e-01,8.10158e-02,-1.26982e+00,1.49082e-01,-6.23115e-02,-4.32592e-01,3.54219e-01,-2.49607e-01,-7.77957e-01,-3.14028e-01,-3.49431e-02,8.75214e-01,1.28441e-01,3.29931e-01,-1.27386e-01,-1.61767e+00,-1.27293e+00,1.60105e-01,1.81781e-01,6.38184e-01,-6.36653e-02,-8.38958e-01,-3.66042e-01,-1.83219e+00,7.75691e-01,2.03848e-01,-6.49411e-01,-7.71876e-01,-1.32773e-01,1.97909e-02,-2.21975e-01,2.18065e-02,4.60208e-01,-3.72780e-01,-1.47095e+00,
-2.84179e-02,1.00943e+00,-3.02906e-01,-2.44030e-01,9.46358e-02,4.33175e-01,-3.69327e-01,1.78058e-01,-3.83475e-01,-2.55801e+00,-2.39047e-01,3.27670e-01,4.06475e-01,-2.59228e-02,2.92847e-01,-1.33471e-01,5.55161e-01,-3.33962e-01,-1.32680e+00,5.46468e-01,-8.77434e-02,2.20186e-01,-3.34423e+00,1.84372e-01,6.57881e-01,1.70067e-02,6.94268e-01,3.51979e-01,-3.74559e-01,-4.93810e-01,6.42154e-01,-1.20131e+00,3.14860e-01,3.49224e-01,-1.30292e-01,5.67773e-01,1.00430e+00,2.96249e-01,-4.10966e-01,-8.43878e-01,-4.29726e-01,-3.64058e-03,-3.49180e-01,1.62505e-01,2.46381e-02,5.98226e-01,-5.45359e-01,-2.21661e-01,3.80255e-01,5.01755e-02,
2.81722e-02,6.87422e-01,3.52688e-01,6.06048e-01,4.59416e-01,-3.38677e-01,-6.27656e-01,-1.60633e-01,1.02372e-01,2.43905e-01,-1.18514e+00,3.76933e-01,1.08859e-01,-3.68232e-02,2.44368e-01,-4.73979e-01,2.93704e-01,6.17241e-01,1.29996e+00,9.21916e-01,1.63668e-01,-1.47758e-01,-7.87239e-01,3.84300e-01,-1.74234e-01,2.31211e-02,-5.19490e-02,8.10388e-01,3.32551e-01,1.88491e-01,1.65766e+00,-2.24443e-01,-5.49921e-01,6.33375e-02,1.51955e-01,-1.40490e+00,-3.99535e-01,1.22865e-01,4.19220e-02,9.89248e-02,-8.55629e-01,4.12703e-01,-6.80331e-01,1.08124e+00,-1.49489e-02,-3.93765e-01,4.81323e-01,5.90602e-01,-9.29888e-01,-3.35295e+00,
6.09298e-02,8.21731e-01,-4.16872e-01,-3.66436e-01,7.57507e-01,6.89621e-01,-7.72873e-01,-3.32870e-01,1.32234e+00,4.69982e-01,8.62223e-01,-9.16733e-01,2.76743e-01,2.18489e-02,-1.34927e-01,-7.09654e-01,-6.51860e-01,-1.43199e-01,1.83559e+00,-2.30050e-01,-1.05347e+00,-4.28386e-03,-5.19754e-01,-1.69061e-01,7.14397e-01,1.69515e-02,8.83375e-01,-3.53525e-01,-7.70561e-01,-3.46288e-02,7.43761e-01,4.01094e-01,7.51725e-01,-2.28599e-01,9.96124e-01,-2.94846e-02,-2.66380e-02,3.74934e-01,-2.01828e-01,-7.32108e-01,6.57450e-01,4.90845e-01,-2.64490e+00,4.28872e-02,2.65112e-02,1.32321e+00,1.23370e-01,2.52379e-01,6.08393e-01,1.70547e+00,
-4.42837e-02,-1.32977e-01,-1.72138e-01,-1.58856e-01,-1.04424e+00,1.77393e-02,4.19210e-01,2.14583e-01,-6.45696e-01,-1.05303e+00,-7.77841e-01,-6.03376e-01,2.36334e-01,4.12297e-02,4.27454e-01,1.72527e-02,-5.76775e-01,-6.88607e-01,3.96217e-01,-1.41673e-01,6.10129e-01,5.22249e-01,-4.18766e-01,-4.05980e-02,3.42799e-02,-1.57299e-02,6.45181e-01,-1.37049e-01,4.29836e-01,-1.62117e-02,-1.22890e+00,-6.54107e-03,6.61495e-01,-3.52937e-01,-6.46329e-01,-6.83821e-01,5.23800e-01,-1.64180e-02,4.88618e-02,1.42665e-01,5.04254e-01,2.68678e-01,1.37149e+00,9.15697e-02,-4.54585e-02,2.43982e-03,-1.12411e-01,-5.49105e-01,1.55065e+00,-1.32013e+00,
-3.18820e-02,4.96582e-01,-4.52293e-03,-3.62116e-01,-5.21558e-02,1.02273e+00,-6.40547e-01,-5.57222e-01,1.99836e-01,-8.69076e-01,2.57622e-01,2.00983e-01,-3.05549e-01,8.48435e-03,2.50528e-01,2.70136e-01,8.93204e-01,3.22294e-01,-5.87319e-02,8.72493e-01,-1.20417e+00,6.47441e-01,-4.62232e+00,9.13530e-02,2.85723e-01,2.52604e-02,-1.94763e-01,8.84077e-02,2.51931e-01,1.12222e-02,6.85077e-01,7.93096e-01,-9.01827e-01,-1.53926e+00,-2.05189e-01,-7.34402e-01,-3.51439e-01,7.04103e-01,-1.20115e+00,-3.14256e-01,8.83647e-03,8.07525e-02,-1.62770e+00,4.17160e-02,1.55127e-02,2.49478e-01,-8.79990e-02,-1.73462e-01,8.90777e-01,1.27998e+00,
3.40767e-02,-1.09409e+00,-4.41205e-01,2.76190e-01,9.75092e-01,-2.52255e-03,2.64583e-01,-1.50501e-02,3.49860e-01,4.82950e-01,5.69711e-01,2.35643e-02,-1.53252e-01,-2.61663e-02,-4.83509e-02,-6.90124e-01,-2.32454e-01,-1.77039e-01,-1.43308e+00,7.23894e-03,2.10561e-01,-2.01669e-01,-5.36121e-01,6.39197e-01,6.03299e-01,-9.25260e-03,-1.53943e-01,-2.64305e-01,-3.66337e-01,2.95925e-01,-1.59121e-01,-3.01696e-01,1.24985e-01,-3.70528e-01,-2.11869e-02,3.57945e-01,1.59149e-01,1.52842e-01,-2.28022e-01,-2.39455e-01,9.02301e-01,-5.32738e-01,-4.39607e-01,8.21176e-01,6.65322e-04,-3.38835e-01,2.18988e-01,-3.57756e-02,-5.19736e-01,-6.78646e-01,
9.68191e-03,1.71694e-01,-6.34844e-01,4.64766e-01,5.34453e-01,5.69756e-01,-1.17558e+00,-4.94455e-01,-1.86139e-01,9.34916e-01,1.06072e+00,1.64379e-01,-2.87668e-01,9.52344e-03,1.28442e-01,-1.00778e+00,-1.10181e-01,4.66564e-01,-4.01261e+00,7.28702e-01,-2.24012e-01,1.02967e+00,5.07770e-01,3.41695e-02,-3.04339e-01,1.74929e-02,-3.05350e-01,1.46243e-01,-5.15586e-01,-4.91332e-01,2.90617e-01,1.73391e-01,-4.31403e-01,2.12088e-02,-6.04796e-01,6.12225e-02,4.11099e-01,-4.57013e-01,-6.01617e-01,-5.30149e-01,4.63857e-01,-8.91659e-02,-3.89863e+00,1.32973e-01,-5.68801e-03,1.12107e-01,4.44093e-01,-2.59857e-01,1.05838e+00,1.39146e-01,
-4.53909e-02,1.68882e+00,-3.17881e-01,-1.30979e+00,-3.96497e-01,1.17159e-01,8.79633e-02,2.95556e-01,-1.68911e+00,4.44134e-01,-4.67059e-01,5.12159e-01,1.53467e+00,-4.70664e-02,2.07989e-02,2.52520e-01,6.24942e-01,6.53537e-01,-4.19957e+00,-1.02114e+00,-1.20291e-01,2.75282e-01,-1.10945e+01,-4.55630e-01,8.65000e-02,-2.14369e-02,1.48727e-01,8.84079e-03,-3.34850e-01,1.09099e-01,-8.12766e-01,2.76330e-02,-9.00494e-01,6.04194e-01,3.65928e-01,-2.06479e-01,1.46340e-01,3.16841e-02,-1.37761e-01,-1.65432e+00,2.35195e-01,1.59318e-01,-1.74154e-01,-1.80338e-01,-2.36866e-02,1.24137e+00,-5.57696e-01,2.71957e-01,2.18815e-01,-4.00255e-01,
-3.45086e-02,2.96733e-03,1.81451e-02,-3.29782e-02,-4.37994e-02,1.72604e-02,-2.82481e-02,-4.22508e-02,3.03553e-02,-2.04272e-02,3.84345e-02,-2.34796e-02,-2.44267e-02,8.43765e-03,2.03959e-02,9.15973e-04,-3.73431e-02,-1.28320e-02,-2.08341e-02,-1.51060e-02,-3.53475e-02,-8.63147e-05,2.48444e-02,2.80767e-02,1.11803e-02,2.35523e-02,-3.14989e-02,9.13290e-03,-1.23554e-03,-5.40609e-02,4.22212e-02,-9.30995e-03,-1.28385e-02,-1.52930e-02,-1.82782e-02,9.03122e-03,-3.27686e-02,-4.21345e-02,-3.63188e-02,1.63611e-04,4.46630e-02,1.89448e-02,3.31454e-02,2.83155e-02,-2.90597e-02,2.74015e-02,-1.82885e-02,2.45456e-02,2.47513e-02,-2.25012e-02,
-1.23449e-02,-4.40195e-02,-1.39215e-03,-1.65226e-01,2.05147e-01,-1.50165e+00,-3.06327e-01,7.86797e-01,2.30998e-01,4.00634e-01,6.45819e-01,1.03324e-01,-2.66542e-03,1.31605e-02,4.87565e-02,-4.48745e-01,4.53152e-01,-2.99109e-03,-6.35358e-02,-1.44815e-01,1.52969e-01,3.27487e-01,-1.83344e+00,1.88835e+00,-4.75682e-02,-2.75003e-02,-1.70310e-03,-1.02538e-01,-3.09801e-01,-1.90957e-02,6.75371e-01,7.47602e-01,1.32205e+00,-1.08966e-02,2.70956e-01,-4.96665e-01,-7.76594e-01,9.43689e-02,-4.06148e-01,-3.65720e-01,2.58369e-01,1.02146e-01,-4.60592e-01,-4.51454e-01,-1.09542e-02,1.29168e-01,1.91349e-01,9.69161e-01,7.68455e-01,1.77028e-01,
2.09324e-02,-3.07274e-02,2.01645e-01,1.11725e-01,6.60364e-01,-7.99453e-02,3.41459e-01,-3.70532e-01,2.99584e-01,-3.94786e-01,-4.98954e-01,4.08112e-01,-1.18182e-01,-2.36486e-02,4.10453e-01,-1.78755e-01,4.43143e-01,1.31636e-01,-3.59273e-01,-5.43613e-01,-3.74143e-01,1.42814e-01,2.45142e-01,1.55981e-01,-1.91991e-01,-4.00295e-03,-6.63072e-01,2.94348e-01,-9.69570e-01,5.06118e-02,-2.56375e-01,-1.54834e-01,-2.24700e-01,-5.64458e-01,-5.48048e-01,2.83924e-01,2.53545e-01,-2.14995e-01,2.74581e-01,-4.68852e-01,-2.90646e-01,5.98249e-01,6.11608e-01,-4.43922e-01,-3.89718e-02,4.86914e-01,-2.35285e-01,4.02782e-02,1.41668e-01,5.73551e-01,
-4.27961e-02,3.37067e-01,-1.03885e+00,4.32948e-01,-1.43156e+00,-2.12219e-01,1.81356e-01,-2.58087e-02,2.66122e-01,1.39149e+00,-6.26650e-01,-7.00091e-01,-1.90732e-01,3.84683e-02,1.20046e-01,7.60910e-02,-2.56368e-01,1.62230e+00,5.72824e-01,-5.14898e-01,-8.25611e-02,-2.43551e-01,-2.05448e-01,1.10262e+00,-1.70483e+00,4.11684e-02,2.52478e-01,-1.42232e-01,3.44367e-01,-2.17063e+00,2.02938e+00,8.44857e-01,9.01992e-02,-3.68152e-02,-5.09877e-01,-1.27565e+00,2.48122e-01,7.27347e-02,3.58573e-01,-1.10074e-01,8.71520e-01,-6.57114e-01,-4.25767e-01,1.33464e+00,1.80675e-02,1.83809e-01,-6.46005e-01,-2.52747e-02,8.59906e-01,-6.21333e-01,
2.72534e-03,-5.47202e-02,-1.42087e-02,2.48734e-02,2.65499e-02,3.77550e-02,-1.39288e-02,3.91140e-02,-5.09132e-02,-2.67926e-02,-3.49330e-02,-1.10280e-02,-4.84503e-02,-5.02211e-02,-3.16341e-02,8.75391e-03,-1.98121e-02,-2.24121e-02,8.10318e-03,-2.33447e-02,-3.54406e-02,-4.95183e-03,-7.44810e-03,5.93415e-03,-5.04964e-02,4.17275e-02,3.65868e-02,-2.34102e-02,-4.36744e-03,5.47497e-04,7.95606e-03,-7.35171e-03,-4.85559e-02,-2.79038e-02,-3.82267e-02,-5.27757e-03,-3.60908e-02,1.69591e-02,-2.39239e-02,-5.10240e-02,-5.02769e-02,-5.33390e-02,9.75470e-03,3.87204e-02,-3.10203e-02,-3.83268e-02,-2.72576e-02,-7.91552e-03,3.65539e-02,-2.97952e-02,
1.56785e-02,1.01050e+00,-3.83267e-02,-4.07508e-01,3.42617e-01,-5.86498e-01,-3.08796e-01,-8.89507e-02,4.82305e-01,-7.19923e-01,1.53252e-01,3.33003e-01,-4.87127e-01,-3.62775e-02,2.02593e-01,-5.99008e-02,4.69599e-01,4.07062e-01,-6.21371e-01,-9.90960e-01,-1.11781e-01,3.76313e-01,-1.71922e+00,2.71551e+00,5.91549e-01,2.94920e-02,-9.61845e-01,3.94026e-01,-6.99243e-02,3.16228e-01,-2.33977e-01,4.51589e-01,1.54897e+00,-2.90490e+00,-3.09633e-01,8.85222e-01,1.18486e-01,-3.96574e-01,-3.27300e-01,-5.85553e-01,-2.50862e-01,-1.95032e-01,-2.35158e-01,-4.01570e-01,5.27167e-02,4.63737e-01,6.03889e-01,2.34534e-01,1.01935e-01,2.90929e-01,
1.40172e-03,-8.93391e-01,7.98174e-01,7.26127e-01,1.22813e-01,5.15295e-01,-7.06350e-01,1.59418e-01,-1.00800e+00,4.99732e-01,5.00835e-01,2.71201e-01,1.98227e-01,4.42348e-02,-1.18737e+00,-5.45669e-01,-2.15531e-01,3.41830e-01,2.40784e-01,-3.46374e-01,3.47947e-01,3.97157e-01,4.17088e-02,7.68291e-03,5.99765e-02,5.21152e-02,7.18889e-01,5.45941e-02,7.57041e-01,3.75711e-01,4.38074e-01,1.12763e-01,3.69092e-01,-2.98786e-02,-3.01249e-02,-1.30077e-01,-6.29843e-01,4.71903e-01,-7.91342e-01,1.11710e+00,1.33641e-01,5.52060e-01,6.38442e-01,2.90215e-01,-6.51622e-03,6.40215e-01,4.08673e-01,4.48733e-01,-4.74549e-01,-8.11942e-01,
3.93088e-03,2.45156e-01,2.67088e-01,8.33046e-02,2.87875e-01,2.12706e-01,-5.29309e-01,1.17407e-01,-2.78636e-01,-4.12043e-01,7.61061e-01,2.26780e-01,-1.04150e-01,3.03833e-03,-2.22514e-01,3.55990e-02,8.29591e-01,6.96680e-01,-3.14926e-02,2.98830e-01,-1.96926e-01,4.96166e-01,5.11671e-01,1.17973e+00,-2.10253e-01,-2.58089e-02,-4.00200e-02,-5.12031e-03,-1.27451e-01,-2.16435e-01,1.12961e+00,9.85206e-01,7.83826e-01,-6.79621e-01,-1.40925e-01,-8.29426e-01,-4.82362e-01,7.25986e-01,2.03982e-01,-1.30609e+00,1.85580e-01,-1.91815e-01,-1.63319e+00,1.41709e-02,4.00594e-03,6.78730e-01,-3.78388e-01,2.25375e-01,9.35508e-01,4.50480e-02,
4.28815e-02,-3.63528e-01,3.21254e-01,2.45431e-01,-3.15242e-01,7.78131e-02,3.91218e-01,7.39642e-02,-7.34789e-02,2.34491e-02,-1.95677e-01,6.45205e-01,6.16603e-01,-1.77908e-02,4.49121e-02,6.29066e-01,3.52568e-01,-8.86589e-02,2.55309e-01,3.49580e-01,-1.85138e-02,-4.21832e-01,-3.25581e-01,1.59251e-01,1.16606e-01,1.39236e-02,4.85673e-01,9.41214e-01,-1.91739e-02,1.24961e-01,5.72087e-01,-3.91888e-01,2.31281e-01,-6.02865e-01,2.64080e-01,-6.68487e-03,-8.44190e-01,7.06150e-02,-1.49094e-01,6.33136e-02,-5.43289e-02,-3.30282e-01,-4.14444e-01,7.83358e-04,-2.11608e-02,-7.62657e-01,-2.22199e-01,-1.78501e-01,1.44162e-01,-7.67700e-01,
-8.00762e-01,
-8.57583e-01,
6.59175e-01,
8.08773e-02,
-1.77807e-01,
-6.39029e-03,
-5.80666e-03,
1.04383e-01,
-5.50950e-03,
-8.31490e-01,
-8.65463e-01,
-2.71255e-01,
-2.81195e-01,
2.63590e-01,
-3.17728e-02,
5.76041e-01,
-2.25720e-02,
1.28143e-01,
-1.61534e-01,
-1.18344e-01,
8.31492e-01,
7.16363e-01,
-1.94863e-02,
-1.35067e-01,
-4.35421e-02,
-2.08693e-01,
-1.18736e-02,
6.04152e-02,
-9.02783e-03,
-1.20389e-01,
3.56153e-03,
7.75518e-01,
7.45510e-01,
-4.50915e-01,
-7.27351e-01,
-8.86083e-01,
1.97040e-01,
-4.08814e-01,
-4.89220e-02,
-6.07556e-02,
2.15647e-01,
-1.75498e-02,
-3.28616e-01,
6.12467e-01,
-5.82593e-01,
-1.45021e-02,
-4.04487e-01,
-1.07466e+00,
-6.25060e-01,
-1.86043e-01,
2.14857e-01,9.77035e-01,-2.69825e-01,-5.60542e-02,6.32533e-01,-4.20178e-02,2.08981e-02,1.20172e-01,-4.65637e-01,1.27148e-01,-8.36094e-01,-9.21669e-01,-5.63128e-01,-9.02376e-02,-4.97275e-01,-9.63650e-02,-3.30716e-02,-1.17442e-02,1.19593e+00,1.73235e+00,-2.45055e+00,2.40934e-02,-1.08576e-03,4.10611e-01,-4.89483e-02,9.62284e-01,-1.97292e-03,-5.81229e-02,1.39329e-03,3.73613e-01,8.91398e-01,1.27447e-01,1.01204e+00,-2.12819e-01,6.12778e-01,-1.89160e-01,2.39091e-02,-1.03046e+00,5.82703e-01,1.15290e+00,1.03019e+00,-3.06629e-02,-1.54617e-01,3.65242e-01,1.19183e-01,-2.68428e-03,1.13944e+00,-4.86124e-01,7.65274e-01,4.97112e-01,
1.48205e-01,-1.75067e-01,-2.87809e-01,-3.84149e-01,-1.62926e+00,-2.35281e-02,-3.22278e-02,-6.07469e-01,6.13787e-01,-4.02558e-01,7.61726e-01,-1.53968e-01,-9.51147e-01,2.08521e-01,3.47553e-01,5.90712e-01,1.02384e-02,-6.23947e-02,-1.83870e+00,-3.71953e-01,-2.18596e-01,6.33554e-01,-1.83164e-02,-2.15590e-01,-5.62330e-02,4.83974e-01,-1.15188e-02,8.33746e-01,9.47684e-03,2.87882e-01,-1.05911e+00,5.25061e-01,-9.90588e-02,7.92921e-02,-8.95413e-01,1.62343e-01,-8.35899e-02,-1.01137e+00,-4.31115e-01,1.06773e+00,-4.09250e-01,-2.98670e-02,-5.03919e-01,4.90494e-01,-1.26321e+00,-2.68248e-02,-2.00868e+00,1.95657e-02,-2.05264e-01,-1.18818e+00,
-6.82384e-01,-2.41051e-02,-5.01231e+00,1.50607e-01,-3.44745e-02,3.08158e-02,4.77296e-02,1.94693e-02,7.51134e-01,6.37325e-01,3.34961e+00,8.83056e-02,-1.48033e+00,1.91647e+00,8.08224e-01,-1.85481e-01,6.38975e-03,-5.80822e+00,4.59448e-01,-2.36223e+00,6.59665e-02,-3.47295e-01,-4.83425e-02,7.69822e-01,1.27748e-03,-4.12324e-01,2.55801e-02,1.64243e+00,-9.98584e-03,-7.37656e-01,-7.19025e-01,3.08960e-01,1.16936e+00,-1.03433e+00,3.21608e-01,2.20219e-02,-7.11222e-01,4.09023e-02,-8.14350e-01,-1.30501e+00,3.80701e-02,2.00292e-02,4.18739e+00,-1.86884e+00,-8.95372e-01,2.59442e-02,-3.96262e-02,-2.57992e+00,-1.57178e-01,-1.51560e+00,
-2.87364e-01,9.40607e-01,-9.91349e-02,1.21052e-02,1.70365e-01,-4.53717e-02,3.92997e-02,5.39205e-01,7.72402e-02,8.87505e-01,-7.39503e-01,3.38499e-01,8.63172e-03,-2.30178e-01,-2.30310e-01,3.77935e-03,-9.01902e-04,-3.19475e-01,1.47233e+00,-4.22862e-02,1.65794e-01,1.22499e-01,4.13620e-02,1.16125e-01,-2.29419e-02,-3.03391e-01,4.11418e-02,-5.38247e-01,-5.09998e-02,4.08259e-01,2.98895e-01,-1.33752e+00,2.60322e-01,2.54895e-01,6.16878e-02,-3.56349e-03,2.51802e-01,-1.63287e+00,-4.66341e-01,-9.12452e-01,6.74098e-01,4.43503e-02,-1.49427e-01,3.01386e-01,-7.54199e-01,3.27904e-02,7.50781e-01,-7.31224e-02,-2.12733e-01,-4.08647e-01,
4.91698e-01,2.92536e-01,-4.61571e-01,4.53543e-02,-1.45254e-01,-1.98174e-02,-3.22206e-02,-1.60367e-01,-8.17871e-01,-6.66882e-02,-3.55449e-01,-2.11949e-01,-1.60617e-01,3.46869e-02,2.63534e-01,2.99937e-01,4.44785e-02,-5.67651e-01,-5.13645e-01,-1.66795e+00,-7.22908e-01,-2.80969e-01,-4.81825e-02,7.16199e-02,7.02455e-03,4.17140e-02,9.04590e-03,1.14171e+00,4.60585e-02,-1.77503e+00,1.26655e-01,-1.61351e-01,1.64969e+00,9.95451e-01,-2.96509e-01,1.24647e+00,-6.91268e-01,-1.97850e+00,-4.86595e-01,-6.48310e-01,7.17953e-01,-2.94142e-03,7.25433e-01,-2.21040e-01,3.67134e-01,8.78171e-03,1.19083e+00,2.34209e+00,2.41615e-01,7.90393e-01,
-1.11671e-01,-1.01880e-01,-4.86229e-01,-2.28334e-01,3.89656e-01,5.75148e-03,-4.91619e-02,9.39946e-01,-9.74924e-02,-6.00831e-01,1.01964e+00,6.37695e-01,2.82573e-01,-8.88235e-02,2.78865e-01,2.88343e-01,-6.40948e-03,-2.53096e-01,4.48268e-01,-2.48627e-01,4.38982e-01,-1.03484e+00,2.74208e-02,-2.08023e-01,2.10050e-02,-1.59867e-01,-9.08030e-03,-4.03070e+00,-6.66051e-03,1.54754e-01,6.78604e-02,-3.10164e-02,-8.26627e+00,-1.18003e+00,-4.01320e-01,4.72391e-02,-7.97814e+00,1.75051e+00,2.97489e-01,-1.05630e+00,9.89577e-01,-3.59009e-02,-4.59799e-01,-1.82204e-01,5.24467e-01,-4.16837e-02,-1.00399e+00,-3.50509e-01,7.91831e-01,-9.10986e-02,
-2.69530e-01,-1.71049e+00,-1.54768e+00,-6.00073e-01,-1.68945e+00,-6.53136e-03,-4.66677e-02,2.79833e+00,9.39862e-01,-2.86523e-01,8.08735e-01,-5.28054e-02,-1.37331e-01,2.07342e+00,4.07476e-01,-7.62471e-02,-2.24391e-02,1.50705e+00,3.73546e-01,8.06651e-01,-8.07666e-02,8.86096e-01,8.57512e-03,3.73324e-01,3.52547e-02,3.59931e-01,-3.36477e-02,1.17907e-01,3.41665e-02,-2.11641e+00,4.41671e-02,-1.14743e-01,1.94000e+00,-6.19125e-01,-1.61914e-01,3.91738e-01,9.52688e-01,-2.45552e+00,-7.58178e-02,1.55213e+00,2.17040e+00,-5.26068e-02,1.74721e+00,4.71497e-01,2.33613e-01,-1.37600e-02,2.80234e+00,2.06210e+00,-6.14740e-01,5.03691e-01,
3.31974e-01,6.62303e-02,1.18797e-01,-1.35394e-01,-2.44119e-01,2.84039e-02,-2.11454e-02,-3.72955e-01,-2.21649e-01,7.77674e-02,1.88447e-01,1.14155e-01,2.65149e-01,2.23999e-01,-4.78037e-01,7.94965e-01,-3.35452e-02,1.08859e+00,2.68340e-01,5.56570e-01,4.09419e-01,1.58949e-01,3.93791e-02,1.68045e-01,1.48953e-01,4.69096e-01,3.40345e-02,-1.22630e-01,-8.68089e-03,2.58674e-01,-5.18932e-01,-7.03910e-02,4.05969e-01,4.08424e-01,3.75508e-01,3.18507e-01,8.85832e-02,-4.57622e-01,-5.11285e-03,9.75676e-01,-3.10299e-01,4.61344e-02,-1.98848e-01,3.16721e-01,-2.28592e-01,3.35131e-02,2.17256e-01,3.97123e-01,-8.48592e-01,-1.55017e+00,
2.11793e-01,5.99048e-01,3.22421e-03,4.98036e-01,2.05753e-01,4.16933e-02,-4.02148e-02,5.49112e-01,-4.94026e-01,-5.98937e+00,3.23809e-01,1.79095e-01,5.24377e-01,-8.63943e-01,1.75984e-01,9.53232e-02,3.29015e-03,-2.58054e-02,1.99400e+00,3.29187e-01,4.27241e-01,-4.93619e-01,-6.03175e-04,2.50458e-03,-1.40700e-02,-4.56429e+00,4.01361e-03,5.91276e-01,4.19309e-02,2.10644e-01,2.73883e-01,1.61532e-01,-6.92475e-02,-2.33306e+00,1.05298e+00,-2.62247e-01,-5.27411e-01,6.23990e-01,-4.36893e-01,1.04511e+00,-1.26860e-01,3.46967e-02,9.35583e-01,-5.42747e-01,-7.52472e-01,4.16713e-03,-4.23583e-01,1.34800e-02,-1.52128e-02,-2.60080e-01,
1.82833e-02,-4.44047e-01,6.97196e-01,3.88584e-01,6.11206e-02,6.31464e-03,-2.97891e-02,6.30698e-01,-2.17716e-01,1.56093e+00,4.10041e-01,-1.97816e-01,-4.17109e-02,1.65862e-01,8.16394e-02,3.34895e-01,3.14981e-02,2.34101e+00,6.75058e-01,6.06572e-01,-9.75439e-01,2.22805e-01,-3.74074e-02,1.14199e+00,8.15594e-02,4.89759e-01,-4.43554e-02,1.26104e+00,4.71525e-02,-9.93707e-01,3.60065e-01,-2.76231e-01,-4.65680e-01,9.98280e-01,-9.21063e-01,-2.60999e-01,1.26881e+00,7.19835e-01,9.93886e-02,5.61194e-01,6.58490e-01,1.36905e-02,4.31794e-01,8.84573e-01,7.30108e-01,1.12944e-02,-9.19460e-02,1.24473e+00,9.43432e-02,5.46662e-02,
-2.32427e-01,-2.32917e-02,-9.77570e-01,1.84342e-01,1.19034e+00,1.58296e-02,4.82200e-02,4.99492e-01,-4.02969e-01,-7.81028e-01,-3.96482e-01,-4.01597e-01,5.19371e-01,-4.56307e-01,5.43526e-01,3.91872e-01,-2.72498e-02,-1.95580e-01,-1.96641e+00,7.65081e-01,4.71628e-01,3.34163e-01,1.40413e-02,2.32291e-01,-3.22242e-02,2.34136e-01,-2.97869e-02,4.28040e-01,-2.63004e-02,5.83598e-01,-3.65629e-02,4.20209e-01,8.80224e-01,-5.16251e-01,1.84630e-01,3.24148e-01,-3.17622e-01,5.27009e-02,3.80413e-01,-2.08949e-01,-1.56678e-01,2.85423e-02,-3.35352e-01,-5.79798e-01,-1.00601e+00,2.82123e-02,9.13196e-02,-3.41762e-01,-4.15907e-01,9.58802e-02,
-1.08645e-01,-1.88542e-02,1.18711e-01,8.45431e-02,9.30303e-02,-1.38583e-02,-6.50439e-03,-1.94030e-01,3.63648e-02,1.14013e-01,-6.49206e-03,-9.11528e-02,-1.95852e-01,2.42624e-01,1.91297e-01,1.07923e-01,-4.09381e-02,1.00974e-01,1.12698e-01,-1.44648e-01,1.23960e-02,-1.05174e-01,-3.91084e-02,1.73583e-02,-3.15072e-02,-1.96671e-01,-4.10362e-02,6.70952e-02,-3.76028e-02,-1.35565e-02,1.53581e-03,1.44722e+00,1.53710e-01,1.12083e-02,4.41245e-02,1.86897e-01,-9.62092e-02,7.18389e-01,2.11912e-01,2.54009e-01,1.11129e-01,-4.99518e-03,-4.88644e-01,-6.13366e-02,4.81821e-01,-4.91865e-03,4.00292e-01,-8.55743e-02,-3.46827e-01,2.57236e-01,
1.40024e-02,-1.00211e+00,4.75141e-01,1.22795e-01,-1.03310e+00,-3.18576e-02,-2.92369e-02,-5.49061e-01,5.90400e-01,3.32488e-01,1.98821e-01,-2.55515e-01,-1.13157e-01,2.00827e-01,3.37116e-01,3.31263e-01,4.78523e-02,5.65349e-01,1.68347e-01,1.93788e-01,3.16423e-01,1.29449e-01,3.88050e-02,-3.96674e-01,8.05018e-02,2.22802e-01,-5.20158e-02,-1.14579e-01,-7.72287e-03,3.10587e-01,3.37929e-01,-1.21726e-02,-6.36067e-01,1.22003e-01,-1.66405e-01,-7.05549e-01,2.56162e-01,-6.20198e-01,1.45082e-01,-3.01135e-01,-1.40744e-01,-1.08238e-02,-6.47336e-02,-1.29463e+00,-5.68565e-01,5.09724e-02,-7.10330e-01,-9.75924e-02,9.01792e-01,6.47874e-02,
-8.14506e-02,2.04549e-01,-5.69084e-01,1.21952e-01,6.65394e-01,3.48455e-02,1.55139e-04,-2.54761e-01,5.85204e-01,6.91306e-01,-8.41662e-02,-2.11209e-01,3.83447e-01,4.03861e-01,7.72342e-03,1.89834e-02,-7.58889e-04,-6.52059e-01,-2.75051e-02,-2.31774e-01,2.74662e-01,-1.39850e-01,2.13358e-02,-5.73380e-01,6.33930e-02,-1.11886e-01,-6.27196e-03,-8.25164e-01,4.87289e-04,3.21333e-02,1.16903e-01,-1.04808e+00,2.41873e-02,1.80790e-01,3.15871e-01,-2.96724e-01,-1.12643e-01,1.35917e+00,1.92295e-01,-4.06012e-01,-4.77815e-02,4.25519e-02,-1.58111e-01,-5.56060e-01,4.14605e-01,-3.51494e-02,5.11606e-01,-1.40283e-01,8.53143e-02,-2.85461e-01,
8.87115e-05,1.30017e+00,-4.12036e-01,2.81969e-02,8.20179e-01,-2.26809e-02,-1.30873e-02,-5.48376e-02,7.53775e-01,7.83176e-02,3.39522e-01,1.82003e-01,-5.23078e-01,-3.06431e-01,9.56713e-02,5.29618e-01,-3.64045e-03,8.32373e-02,-8.31602e-01,3.87036e-01,5.34568e-03,1.77250e-01,-7.61380e-03,-3.19411e-01,7.86211e-02,4.78065e-02,-1.07457e-02,6.01408e-01,-1.45876e-02,3.66000e-01,2.13791e-01,-8.16083e-01,-3.57642e-01,2.12754e-02,2.00009e-01,7.35335e-01,-8.37399e-01,-1.32550e+00,3.80913e-01,-1.07249e-01,-7.51073e-03,3.32515e-02,7.57033e-01,-1.54525e-01,-1.21344e-01,1.62991e-02,3.35803e-01,6.41585e-01,-3.41453e-01,-3.40924e-01,
5.59767e-01,-7.43014e-01,3.92511e-02,4.47598e-02,1.18618e+00,3.61592e-02,-2.73477e-02,7.52663e-01,4.42981e-01,1.97912e-01,3.26978e-01,-1.16263e-01,-4.66746e-01,-8.47077e-01,-3.94853e-01,3.29300e-02,-7.23482e-03,-3.20625e-01,3.47251e-01,6.38435e-01,-2.54868e-01,-6.11299e-01,-1.81596e-02,-8.67167e-01,-4.98099e-02,1.65078e-01,-4.64257e-02,2.04574e-01,-2.62222e-02,5.83544e-01,1.81813e-01,-7.17588e-02,-8.82780e-01,-4.72638e-01,6.47106e-01,-2.71258e-02,-8.12785e-02,-2.78699e+00,1.66882e-01,-9.51501e-02,1.36838e-01,2.63773e-02,8.79998e-01,-1.71828e-01,1.12442e+00,-4.69860e-02,3.65782e-01,-5.15174e-01,5.64420e-02,3.51696e-02,
7.61568e-02,-5.59064e-01,-9.26329e-01,3.81426e-01,2.51211e+00,3.45835e-02,-3.68014e-02,4.54146e-01,1.44000e-01,2.09104e-01,4.60054e-01,-4.09466e-01,9.04108e-01,-2.07321e-01,-9.93504e-02,8.11785e-01,-4.94828e-02,1.99370e+00,6.28463e-01,2.76643e+00,8.97759e-01,-4.48321e-01,1.34704e-02,3.38976e-01,-4.71006e-02,2.58893e-01,1.33543e-02,1.67525e-01,-4.46606e-02,6.90917e-01,1.18257e+00,1.08828e+00,1.00904e+00,-3.19219e-01,6.09303e-01,2.41743e-01,1.67694e-01,8.09618e-01,1.04629e+00,1.57906e+00,6.10949e-01,1.02634e-03,6.59362e-01,-7.92298e-01,2.25722e+00,-3.28657e-02,1.09025e+00,-4.82222e-01,8.44926e-01,4.97346e-01,
3.35592e-01,-3.12772e-01,3.85983e-01,2.39973e-01,-7.58175e-02,-7.77259e-03,-4.71329e-02,1.89950e-01,2.01634e-01,1.09849e+00,1.22564e+00,-2.35277e-01,1.03814e+00,9.44275e-01,5.20059e-01,2.62453e-01,-3.04146e-02,-2.27578e-01,-5.11981e-01,3.59875e-02,9.81343e-02,2.70134e-01,2.23874e-02,3.10958e-01,2.69999e-02,-6.54530e+00,3.08683e-02,5.11957e-01,4.27727e-02,-4.04046e-01,-1.58713e-01,-2.84916e-01,7.72876e-01,-1.64670e+00,-2.10364e-01,-2.62974e+00,-1.16451e+00,6.45662e-02,-6.11225e-01,-5.53143e-01,9.03174e-01,-3.05853e-02,-9.95138e-01,-5.77669e-01,-1.31084e-01,1.80667e-02,-2.36434e+00,-4.72261e-01,-1.88987e+00,1.02931e+00,
-1.04184e-01,2.93797e-01,5.11610e-01,-4.60622e-01,1.23987e+00,4.43641e-02,5.88273e-03,-8.52978e-02,6.37878e-01,7.25157e-01,-1.00342e+00,3.49644e-01,3.58738e-01,-1.16412e+00,8.49559e-01,-5.06045e-02,-1.07419e-02,1.70613e+00,-7.78933e-01,2.78567e-01,3.37263e-01,-4.99282e-01,2.47154e-03,7.13572e-01,-2.45428e-02,3.60686e-01,1.78667e-04,1.95142e-01,-3.17293e-02,5.74604e-01,9.35424e-01,8.03330e-02,3.25727e-01,9.82918e-01,5.10873e-01,7.14617e-01,-2.33970e-01,1.79607e+00,7.34887e-01,2.72270e+00,2.40618e-01,-2.92475e-02,1.17647e+00,1.81413e-01,8.76947e-01,-5.07131e-03,-1.20065e-01,1.41367e+00,-5.87029e-01,1.69744e+00,
6.98942e-01,1.03602e-01,2.89312e-01,-9.01154e-02,2.30030e-01,-2.88152e-02,-3.33008e-02,-6.82749e-01,9.49663e-01,2.64858e-01,-9.70625e-01,8.91101e-02,-5.92998e-02,5.13026e-01,1.03736e-01,-9.39549e-02,2.70510e-02,-9.22934e-01,6.85192e-04,8.73539e-02,-4.64841e-02,-4.72044e-01,-7.97446e-03,9.45479e-01,4.02730e-02,1.78969e-01,3.32267e-02,-1.74904e-01,-3.12354e-02,-5.08127e-01,1.09228e-01,1.79945e-01,8.55697e-02,5.92441e-01,-6.07844e-01,-3.75754e-01,4.78176e-01,-2.06775e+00,6.17423e-02,8.40273e-01,1.67607e-01,3.91433e-02,-4.21837e-01,3.49970e-01,1.13190e-01,2.51852e-02,8.03135e-01,6.36762e-01,-6.89064e-01,6.03877e-01,
-2.03338e+00,1.26755e+00,-6.59035e-01,-1.28642e+00,-1.15187e-02,-2.18769e-02,-2.65825e-02,1.86200e-01,8.04723e-01,-4.83543e+00,-7.85790e-01,-1.60784e+00,2.11947e+00,4.44956e-01,-8.98298e-01,3.58724e-01,-4.56247e-02,1.12197e+00,1.03252e+00,1.22726e+00,9.85711e-02,9.55072e-01,-2.54055e-02,-4.38800e-01,3.20793e-02,-3.33472e-01,-4.88976e-02,5.80193e-01,-5.66223e-03,-3.90064e+00,6.14114e-01,3.69687e-01,-8.80477e-01,-4.87748e-01,-1.13004e+00,-9.49496e-01,2.19615e-01,-2.02260e+00,1.69266e+00,1.76335e+00,-2.84585e-01,3.36075e-02,2.82510e-01,6.73821e-01,-4.61446e-02,3.26280e-02,-8.24433e-01,1.38264e-01,1.04847e+00,-2.73175e+00,
-7.47881e-02,-3.56855e-01,-4.63746e-02,-4.73191e-02,2.76512e-01,-2.57024e-02,4.20172e-02,-1.24150e-01,1.42495e-01,1.32368e-01,1.38314e-01,-1.72004e-01,-1.47691e-01,4.27195e-01,2.96234e-01,1.37566e-01,3.90771e-02,8.95722e-01,2.29122e-01,1.06194e-01,1.77658e-01,5.91686e-02,-4.57826e-02,1.31407e-01,6.57339e-02,1.46023e-02,2.65053e-02,3.15888e-01,3.11475e-02,7.83654e-02,1.30573e-01,-1.29409e+00,4.82203e-01,8.67404e-03,3.16788e-02,-1.82278e-01,-1.70383e-01,-1.42171e-01,4.30258e-01,-1.11935e+00,-1.68117e-01,3.97219e-02,1.77589e-01,-6.74025e-02,4.19460e-01,-5.19048e-03,1.46314e-01,1.29920e-01,3.42677e-01,2.96762e-01,
2.15080e-01,-1.65769e+00,7.16378e-02,2.33483e-01,4.72697e-01,-5.08793e-02,1.80656e-02,6.17108e-02,-2.94748e-01,-1.46228e+00,-5.16769e-01,-2.03278e-01,-3.04432e-01,-2.02768e-01,1.00689e-02,-3.70864e-02,-1.67717e-02,-1.06275e+00,1.08114e+00,5.41709e-01,2.00941e-02,3.44512e-01,-1.57155e-03,1.18509e-01,9.54511e-03,-7.53062e-01,3.77994e-02,1.37689e+00,4.40160e-02,-3.36513e-01,-8.80105e-02,2.30546e-02,5.02602e-01,-1.09613e+00,4.21775e-01,-1.26868e+00,2.27051e-01,-3.33747e+00,-2.31509e-02,-2.80365e-02,-2.91769e-01,-4.94482e-02,7.20917e-01,8.99554e-01,-4.91345e+00,2.35636e-02,-8.78298e-02,-1.31713e+00,3.27455e-01,-1.21871e-01,
8.59940e-01,-3.61769e-01,-3.83866e-01,3.56073e-02,4.59598e-01,-2.90651e-02,-6.07989e-03,1.36403e+00,-5.53468e-01,-7.61599e-01,3.48418e-01,6.22426e-01,1.74503e-02,-5.67747e-01,-3.68627e-01,-9.99880e-02,-2.47776e-02,1.11641e+00,-3.55521e-01,-2.57375e-01,-9.05455e-02,3.35214e-01,3.43404e-02,3.97467e-01,1.38009e-01,-4.89335e-01,-3.28559e-02,1.34143e+00,-3.24462e-02,3.50564e-01,6.91246e-01,-2.53750e+00,5.60182e-02,-3.98922e-01,8.03439e-03,-1.49997e-01,-1.06432e+00,1.84166e-01,2.60850e-01,9.09427e-01,4.41545e-01,1.75654e-02,-2.21538e-02,9.43693e-01,3.54099e-01,2.36705e-02,-8.07072e-01,3.22947e-01,7.27669e-01,-3.49308e-01,
-1.61419e-01,-1.40236e-01,-6.74354e-01,-2.59853e-02,7.93468e-01,1.21757e-02,2.05018e-02,8.50534e-01,-1.24049e-01,-2.32512e-01,5.52187e-01,-8.58505e-02,5.07088e-01,1.81555e-01,-5.25887e-01,1.51063e-01,2.16726e-02,4.31973e-01,-4.31992e-01,6.94019e-01,1.63637e-01,2.86935e-01,2.96395e-02,-1.38557e-02,-4.40497e-02,1.88452e-01,-2.87430e-02,9.57915e-01,2.32305e-02,-1.99399e-01,5.11898e-01,-4.59911e-02,6.43376e-01,-6.63379e-01,-1.37370e-01,1.18960e-01,8.86396e-02,-9.99844e-01,-9.64345e-02,9.98358e-01,3.18644e-01,2.46093e-02,4.94572e-03,1.06854e+00,6.78408e-02,3.73639e-02,-1.58757e+00,-1.55661e-01,4.34311e-01,7.05075e-03,
9.11423e-01,1.93751e-01,1.56714e-01,-8.00810e-01,1.15197e+00,2.70398e-02,-3.15997e-02,-4.93398e+00,-1.25970e-01,4.56658e-01,7.87729e-01,-5.11592e-01,1.21012e+00,-1.68772e+00,3.54961e-01,6.11780e-01,-3.37124e-02,-6.52205e-01,-8.61198e-02,9.61173e-01,-2.43626e-01,-7.59872e-01,2.76515e-02,3.40429e-02,2.51995e-02,-1.93304e+00,-2.76978e-02,1.39322e+00,3.49519e-02,5.45828e-02,-3.16442e-01,9.60976e-02,-3.67212e-01,6.38347e-01,1.43131e-01,-1.88706e+00,-1.14508e+00,2.08581e-01,-1.14154e-01,8.17849e-01,-1.65123e+00,1.19210e-02,-4.66090e-01,3.08411e-01,-3.36919e-01,4.40580e-02,-1.66271e+00,-2.47060e-01,-3.01868e+00,1.00390e+00,
-2.34100e-02,-4.67013e-02,1.69471e-02,1.49739e-02,-5.19940e-02,3.88101e-02,-2.98212e-04,6.84007e-03,2.13967e-02,1.25200e-02,4.15865e-02,-1.93655e-03,-2.48093e-02,-1.23001e-02,-3.74040e-02,-3.80597e-02,-1.14007e-02,3.15493e-02,2.67468e-02,1.21347e-03,7.66726e-03,-3.32704e-02,-3.40392e-02,-4.34027e-02,-3.85285e-02,-1.96196e-02,4.66678e-02,2.03256e-03,-2.98644e-02,-4.88296e-02,-1.03304e-02,-4.67739e-02,-1.76316e-02,7.01945e-04,-3.31448e-02,-3.38072e-02,-1.66792e-02,-3.57670e-03,3.83158e-03,4.11873e-02,-3.90638e-02,2.50980e-02,-4.04287e-02,-4.79266e-02,-3.08858e-02,2.68713e-02,-4.81081e-02,-5.20187e-02,-8.20951e-04,-2.16564e-03,
-1.00661e-01,5.86094e-01,-9.95488e-01,2.31212e-01,-8.29391e-03,7.75423e-03,1.88002e-02,7.19677e-01,-9.85757e-01,-7.40847e-01,2.25476e-01,-2.06242e-01,7.10120e-02,-2.27950e+00,1.00710e-01,2.08085e-01,3.64127e-02,-3.57448e-01,4.43779e-01,4.48109e-01,5.89879e-02,-2.02609e-01,-3.17378e-02,-2.18196e-01,-1.87752e-02,1.06644e-01,-3.68593e-02,3.86137e-01,-3.00975e-02,2.94946e-01,-5.22925e-02,-1.29614e-01,4.99661e-01,-6.47642e-01,3.40212e-01,-3.66985e-01,4.59171e-01,1.77262e+00,4.25046e-01,1.89860e+00,2.66233e-01,3.65978e-02,3.74641e-01,8.75951e-01,-1.75471e-01,3.44330e-02,4.08091e-01,-1.31726e+00,-1.27222e-01,1.82973e-01,
1.34538e+00,1.58427e+00,5.84144e-02,-3.08210e-01,2.64848e-01,4.48150e-02,-3.53218e-02,4.61669e-01,3.84869e-01,-3.91458e-01,3.63436e-01,-1.13640e+00,-1.56115e-01,-8.08416e-02,-1.07195e+00,4.59478e-01,4.88419e-02,1.63181e+00,-1.07078e+00,-2.92031e-01,-8.03645e-01,3.95472e-01,-6.35635e-03,-5.67377e-01,1.62175e-01,-5.68248e-01,-2.90438e-02,1.24416e+00,-3.87498e-02,4.32416e-01,8.42962e-01,1.11658e-01,1.45223e+00,-9.65576e-01,8.97115e-01,-3.58668e-01,1.54135e-01,-4.85192e-01,2.21579e-01,-5.41838e-01,4.65425e-01,-4.45930e-02,-1.27746e-01,2.06412e+00,2.89507e-01,2.48833e-02,5.97022e-01,1.76376e-01,1.33573e+00,-9.07401e-01,
6.80663e-01,8.96757e-01,-1.38828e+00,6.82290e-01,-4.31542e+00,-1.71961e-02,9.23566e-03,-1.07070e+00,3.35173e-01,-1.23361e+00,-2.42398e+00,4.21931e-01,8.30170e-01,1.48781e+00,3.43469e-01,1.61886e+00,8.12912e-03,-1.86692e+00,3.88139e-01,-5.64081e+00,5.30707e-01,2.55949e-01,2.05468e-02,1.09420e-01,2.20087e-02,-1.40632e+00,-2.87150e-02,1.95601e-02,-3.41503e-02,-2.03287e+00,-1.35229e+00,4.76687e-01,7.83148e-02,-2.92361e+00,-2.05760e+00,-1.09520e-01,-5.66812e-01,-2.88973e+00,-1.14702e+00,-4.67005e+00,-1.85306e+00,1.16527e-02,-1.03662e+00,1.49381e+00,-7.31317e+00,-3.43360e-02,-9.17872e-01,1.48996e-01,-2.29232e-01,2.25632e-01,
-2.05800e+00,3.84277e+00,-8.47390e-01,-5.83696e-01,-1.12857e+00,-1.22535e-02,2.74987e-02,-1.37826e+00,4.35489e-01,-2.14337e+00,-3.91342e+00,-5.82061e-01,8.90834e-01,7.95995e-01,-6.69927e-01,-3.42224e-01,-7.76030e-03,-2.31523e-01,7.73652e-01,-1.89152e+00,4.22595e-01,2.61940e-02,2.69837e-02,-3.94797e-01,1.28059e-02,-4.13840e+00,4.36865e-02,-1.61916e+00,-2.93359e-02,1.97703e-01,8.21865e-01,1.72002e-02,-1.13033e-01,-3.39708e+00,-9.35567e-01,-5.99386e+00,-7.32162e-01,-6.39965e+00,7.12989e-02,-3.99735e+00,6.81394e-01,-8.44564e-04,-3.86068e+00,5.33654e-01,-1.08666e+00,-1.44961e-02,-1.46421e+00,-2.29862e-01,-2.00226e-01,-9.12061e-01,
2.11840e-01,-4.84581e-01,-5.47906e-01,-3.23575e-02,-9.40554e-03,1.86649e-02,-3.58306e-02,9.16926e-03,-2.69370e-01,3.02039e-01,1.86752e-01,1.88478e-02,-1.31642e-01,1.27089e-03,-1.26512e-01,4.05651e-01,-4.84331e-02,2.45810e-01,1.18380e-01,-1.55088e+00,-5.79896e-01,-1.10254e-01,3.69747e-02,-6.47996e-01,-2.66286e-02,-6.34441e-01,4.00552e-02,-3.78095e-01,-4.02497e-02,-8.41073e-01,2.29956e-01,-4.82970e-03,5.34346e-01,1.01165e-01,2.88696e-01,3.73897e-01,2.00880e-01,-1.42192e+00,-7.35015e-03,-1.19309e+00,1.55614e+00,3.58495e-02,-5.47810e-01,1.66253e-01,-5.20019e-01,4.36567e-02,1.64884e+00,-4.57877e-02,-7.68876e-01,1.27887e-01,
-3.09781e-01,-3.09640e-01,-4.44297e-01,-2.80642e+00,-1.87210e+00,3.06078e-02,3.45165e-02,-1.11842e+00,-2.49570e-01,1.74497e+00,2.14878e+00,-1.04651e+00,5.69955e-01,-8.91361e-02,-3.90681e-01,-1.98106e-01,-1.80185e-02,2.03861e+00,-7.55679e-03,2.17683e-01,1.71507e-01,-1.94167e+00,2.18892e-02,1.46856e+00,-1.08692e-02,-1.28293e+00,-5.00494e-02,-1.39284e+00,-1.17530e-02,1.00671e-01,-2.62424e-01,7.31718e-02,-6.67732e-01,-1.71475e+00,2.66649e-01,-6.46240e+00,-5.29425e+00,1.41971e+00,-2.10868e+00,1.56929e-02,-1.53963e+00,2.97451e-02,-4.55040e-02,-1.09639e-01,-1.19326e+00,-3.81021e-02,-3.01240e+00,-4.96131e-01,9.42315e-01,-1.24641e-01,
-6.12266e-01,-4.17597e-01,-2.16338e-01,3.09196e-01,-2.97576e-01,-1.94173e-02,-4.10088e-02,4.84378e-01,-6.87321e-01,-2.22891e-01,4.76098e-01,-5.16547e-02,-7.78186e-02,2.50053e-02,-3.06258e-02,-3.15192e-02,2.90935e-02,2.65527e-01,-1.74274e+00,-5.18446e-01,-7.36877e-02,2.48988e-01,3.49301e-02,3.39336e-01,8.21821e-03,-3.83088e-01,-6.81738e-02,1.34678e+00,-2.54392e-02,-4.06945e-01,5.91639e-01,6.36545e-01,-7.95262e-02,-1.53996e-01,-2.67184e-01,3.40814e-01,-2.25844e-01,2.35849e-01,2.40182e-01,-3.10745e-01,1.26679e-02,1.51425e-02,-6.15611e-01,2.64948e-01,6.34729e-03,-4.63779e-02,-3.46720e-01,-2.21926e-01,1.64463e-01,-1.12521e+00,
3.87639e-01,2.84911e-01,4.00135e-01,-3.29881e-01,6.93154e-02,3.19139e-02,-3.78748e-02,-6.17229e-01,-6.14911e+00,6.92629e-01,-1.23214e-01,-3.95443e-01,-1.60044e+00,-5.76299e-01,-1.02651e-01,-2.52278e+00,-1.99823e-02,-9.29330e-01,-5.52961e-01,-1.85258e-01,-2.98612e+00,-3.94801e-01,1.87415e-02,8.09000e-02,-4.48806e-02,8.80116e-01,3.02660e-02,-6.43856e-01,5.35458e-03,-3.21968e-01,1.00921e+00,4.35158e-02,-7.28927e-01,9.02077e-01,-4.96038e-02,-7.33482e-01,-2.17925e-01,4.63269e+00,2.38023e-01,7.96274e-01,5.69974e+00,-4.94147e-03,-4.33184e-01,3.59434e-01,8.52264e-01,5.08173e-02,-6.17473e+00,2.26134e+00,1.62594e+00,9.82983e-01,
-4.80984e-01,3.31252e-01,-2.22601e-01,-2.50672e-01,4.08641e-01,1.31465e-02,4.73989e-02,-1.11514e-01,1.22785e+00,-3.81080e-01,-5.53442e-02,-6.34016e-01,-3.35533e-01,-2.68389e-01,-3.15698e-01,5.47592e-01,1.42593e-02,6.75676e-02,2.12348e-01,-5.17919e-01,-5.11306e-01,3.11614e-01,-5.01517e-02,5.94707e-01,3.96853e-02,-4.69669e-01,2.61273e-02,-3.10448e-01,2.23187e-02,8.67412e-01,-5.97607e-01,1.57816e-01,7.78526e-01,-9.00259e-02,9.67543e-01,4.20473e-01,-5.56434e-01,1.53128e+00,2.24935e-01,1.08481e+00,-7.36221e-02,-1.37070e-02,4.69176e-02,1.06747e+00,-7.02482e-02,4.60988e-02,1.27017e+00,-3.20136e-01,1.11387e+00,2.07543e-01,
8.26070e-01,3.86852e-01,-7.07468e-01,2.48732e-01,7.03768e-01,3.18904e-02,2.17256e-02,1.51117e+00,1.32186e+00,-8.53642e-01,6.36711e-01,1.41856e-01,-2.33109e-01,7.55519e-01,9.16207e-02,1.06146e-01,-7.42537e-03,-2.28172e-01,-7.99724e-01,-1.11652e+00,-1.26962e-01,-5.05254e-02,2.89988e-02,6.23164e-02,8.06227e-02,-1.15034e+00,1.80284e-02,-6.19320e-01,-1.69580e-02,-1.70575e+00,8.17519e-01,1.23941e-02,-1.51435e+00,4.16828e-02,-2.45731e-01,7.62383e-01,-2.12342e-01,-1.87948e-01,-2.65433e-01,7.21532e-01,1.17772e+00,1.95674e-02,-4.98167e-01,6.29521e-01,-3.41962e+00,-4.02489e-02,2.43130e-01,9.05039e-01,6.76625e-01,-7.06786e-01,
2.55421e-01,2.88471e-01,1.49145e-02,1.78131e-01,-5.72455e-02,1.47501e-02,-4.80751e-03,2.39147e-01,2.99151e-01,2.34499e-01,1.82509e-01,3.60633e-02,2.42625e-01,6.06956e-01,-5.78642e-02,1.90632e-02,5.86513e-02,-1.36189e-01,-1.50307e-01,1.81888e-01,-3.36412e-01,5.83508e-01,2.65216e-02,-7.49184e-02,1.61955e-01,-1.38788e-01,2.83677e-02,2.36224e-01,4.14816e-02,-7.60045e-01,3.17068e-01,8.95001e-02,3.14826e-01,3.07444e-01,-1.88436e-01,6.22371e-01,-6.93458e-01,-4.84716e-02,2.82753e-01,-9.26318e-02,1.69221e-01,-2.53613e-02,5.39287e-01,1.71172e-01,2.07018e-01,1.55872e-02,4.26255e-01,-5.80983e-02,5.49365e-01,1.06469e-01,
2.09661e-01,-2.16851e-01,9.70856e-02,-4.29580e-01,3.70954e-01,1.27961e-02,1.54438e-03,-8.40420e-02,6.84901e-01,-1.56641e-01,-6.51489e-01,3.55333e-02,5.54658e-02,-2.41260e-01,8.83788e-03,-5.40628e-02,-1.20304e-02,-4.07709e-01,1.94276e-01,3.65286e-01,1.59796e-01,-3.90385e-01,-1.66108e-02,-2.22385e-01,-2.96837e-02,2.34500e-01,-1.38247e-02,-1.28231e+00,4.59167e-02,2.14883e-01,-3.09635e-01,-1.25137e+00,-7.49791e-01,2.81737e-01,8.98256e-02,2.14874e-01,2.11698e-01,-7.27972e-01,-1.27286e-01,-3.90588e-01,-2.84098e-01,-7.05915e-03,5.35311e-01,9.44023e-02,3.46330e-01,3.26711e-02,-7.54488e-03,-3.40558e-01,3.85483e-01,8.17692e-01,
9.67551e-02,1.41825e+00,3.66319e-01,5.54738e-01,3.87675e-01,-3.78357e-02,1.03367e-02,-1.10333e-01,-2.93370e-02,-2.28226e-01,7.15688e-01,-4.32594e-02,1.26283e-01,7.10953e-02,3.16915e-01,1.47881e-01,-3.95886e-02,9.45319e-02,6.11686e-02,4.14269e-01,-2.85799e-01,-1.93788e-01,-2.49590e-02,-7.26778e-01,1.36846e-01,1.12121e-01,-3.61346e-02,2.16508e+00,-3.76229e-03,-2.31905e-01,6.78701e-01,-1.13685e-01,4.65395e-01,-3.25864e-01,-1.90649e-03,4.41755e-01,-8.64336e-01,-6.22721e-01,-1.43046e-01,1.29912e+00,-4.50983e-01,-2.51250e-02,2.08261e-01,-6.00105e-01,5.33703e-02,-2.07595e-02,1.02598e+00,-4.34792e-01,2.45788e-01,-2.59049e-01,
3.36503e-01,3.22137e-01,8.07048e-01,2.55124e-01,2.16788e+00,-9.33189e-03,2.79430e-02,7.38360e-01,-4.84179e-01,-7.45223e-01,-1.48594e+00,1.24033e+00,-9.97787e-01,-3.25939e-01,-1.50266e+00,-9.43344e-01,-2.61659e-02,8.71938e-01,3.09408e+00,-1.91007e+00,-3.59363e-01,-8.86319e-01,4.10570e-02,-1.22451e+00,-1.86635e-02,5.54832e-01,-3.96667e-02,6.99102e-01,-1.21110e-02,-6.95875e-01,-8.49011e-01,1.67971e-01,-2.93582e+00,3.91187e-02,1.45358e+00,4.05826e-02,2.65167e-01,-2.97882e+00,-2.66899e-01,-1.58860e+00,-3.95925e+00,-3.85715e-02,-3.23097e+00,-5.21197e-01,-2.26785e-01,-3.12943e-02,-2.11101e+00,1.20243e+00,-2.63374e+00,-1.51936e+00,
1.56017e-01,2.75701e-01,3.06506e-01,6.19253e-01,-3.64763e-01,-2.65432e-02,-2.05524e-02,2.56844e-01,-2.03390e-01,1.83322e-01,1.15733e+00,3.32544e-02,6.44226e-01,-4.99969e-01,1.37717e-01,-1.35539e-01,-1.63677e-02,-7.14003e-01,1.04909e+00,-1.96443e-01,-9.15135e-02,-1.02144e-01,-4.47441e-02,-3.89783e-01,6.93915e-02,6.92943e-01,4.36852e-02,4.45531e-01,2.46960e-02,-7.35695e-02,-5.19776e-02,-1.21264e+00,6.61848e-01,3.38609e-01,3.83628e-01,6.18427e-01,-9.39725e-02,3.96221e-01,-1.25300e-01,6.13116e-01,1.62630e-01,2.05321e-03,9.52071e-01,-6.48279e-01,-4.19624e-01,1.75118e-02,8.30561e-01,2.39060e-01,7.03496e-02,-1.69153e-01,
-2.42129e-01,4.20221e-01,-4.88564e-01,2.79967e-01,7.86579e-01,1.13510e-02,-3.22621e-02,9.08515e-01,-5.47393e-01,2.28004e-01,5.99273e-02,1.99552e-02,-1.17631e-02,-2.98502e-01,3.35856e-01,-5.52366e-02,8.36806e-03,1.47899e+00,4.58075e-01,1.72145e-01,3.49587e-01,-1.18835e-01,3.48105e-02,-1.19892e-01,-1.27227e-02,-4.20590e-01,1.57332e-02,1.18267e-01,1.35079e-02,3.62979e-01,5.05037e-01,-6.73319e-02,6.37425e-02,-1.83719e-01,1.83490e-02,-1.44569e+00,2.30551e-01,7.28261e-01,-1.85762e-01,1.08386e+00,2.78747e-01,-5.93683e-03,6.72846e-01,-2.18175e-01,3.10651e-01,-1.58090e-02,-3.93967e-01,-7.00883e-01,-1.60403e+00,5.17058e-03,
-1.89025e-01,1.88129e-01,-1.28821e-01,-1.45541e-01,-1.54922e+00,-2.03728e-02,1.57927e-02,-1.91419e-01,-1.11636e-01,1.45135e+00,4.91366e-01,-1.72813e-02,-5.96625e-03,-1.26147e+00,-3.20225e-01,-3.52721e-01,8.28988e-03,-7.53558e-01,7.66589e-01,-2.09171e-01,-3.72604e-01,-5.30377e+00,1.34624e-02,7.66655e-01,-2.15753e-02,-4.60991e-02,-1.87168e-02,2.63093e-01,3.86870e-02,-1.83841e-01,1.68509e-01,-1.02129e-02,-2.23552e-01,-3.08612e+00,-8.30555e-02,8.57322e-01,6.86686e-01,-1.45819e-01,2.03279e+00,-1.43407e-02,7.69744e-01,1.49828e-03,4.41845e-02,-6.23427e-01,-2.50620e-01,-3.72810e-03,-7.57485e-01,6.11670e-01,2.13260e-01,-4.06257e-01,
3.69391e-01,6.95822e-01,-1.72295e+00,-3.03110e-01,4.59481e-01,2.55484e-02,-5.45932e-03,-2.20365e-01,2.08075e-01,-6.59118e-01,-7.62475e-02,-2.67848e-01,-2.17003e-01,6.86669e-02,-3.55522e-01,1.36817e+00,1.32695e-02,9.11315e-01,-3.37894e-01,3.67613e-01,5.27347e-01,6.09414e-01,-2.12362e-02,1.12158e+00,2.67928e-02,1.09135e+00,5.14689e-02,1.72269e-03,1.46525e-02,1.52579e+00,-3.62961e-01,-2.24534e-02,-2.38742e-01,-9.13096e-02,-6.33133e-01,6.85854e-01,5.15946e-02,1.41276e+00,-1.79955e-01,2.85299e+00,-1.76284e-01,2.03808e-02,-1.53532e-01,-1.28727e-01,-1.76459e-01,-8.20067e-03,-5.09354e-01,2.41687e-01,-4.02563e-01,-4.66932e-01,
4.84228e-02,-5.54441e-02,1.37707e-01,-7.20912e-02,-1.05236e-01,-2.38326e-03,-2.86947e-02,-3.03237e+00,-7.36446e-01,-1.14685e-01,-1.14074e+00,-1.13140e-01,1.02931e-01,-1.01666e+00,1.45859e-01,-1.03292e-03,-2.35482e-02,-6.11844e-01,6.99359e-01,1.05797e-02,5.66608e-02,-5.56431e-02,4.92502e-03,4.83694e-02,-4.57755e-02,7.90844e-02,3.50371e-02,-3.83535e-01,3.86491e-02,8.42554e-02,2.54466e-02,-3.91048e-01,2.66288e-01,-2.99038e-01,-3.63366e-01,1.93590e-01,5.04313e-02,-2.18999e-01,2.36596e-01,1.76170e+00,-5.70744e-01,-4.46582e-02,-4.67490e-01,-1.36798e-01,-3.86731e-01,1.06910e-02,-1.58837e-01,4.07187e-01,3.44485e-02,9.16533e-01,
-2.49570e-02,-3.10591e-02,2.57478e-03,9.45799e-03,-3.64641e-02,-1.53623e-02,-1.33766e-02,1.36529e-02,-4.91478e-02,1.97264e-02,-1.66233e-02,-3.60225e-02,3.94704e-02,-1.71999e-02,6.87393e-03,-1.30722e-02,-4.03184e-02,-3.62844e-02,-1.88035e-02,-1.31035e-02,-6.02717e-02,-6.01517e-02,8.11876e-04,-3.84870e-02,2.13225e-03,-7.13393e-03,2.74847e-02,-2.28787e-02,3.50050e-02,-3.11556e-02,-2.60273e-02,6.22347e-03,-1.66690e-02,3.58356e-02,1.98579e-02,-4.82224e-02,-4.10679e-03,-4.83512e-03,3.17515e-02,3.68093e-02,4.06837e-02,-5.29780e-04,-2.93251e-02,-5.63298e-02,-2.28127e-02,2.71244e-02,-4.20426e-02,2.84879e-02,-5.08083e-02,-1.24783e-02,
8.64565e-01,6.69113e-01,-1.61067e-01,4.87763e-01,-2.35455e-02,3.16313e-02,-4.68753e-02,-3.01982e-01,-1.28082e-01,3.41859e-01,6.31429e-01,1.29229e-01,-1.40742e-01,9.05077e-01,-3.06643e-01,-4.67481e-01,4.33746e-02,1.67632e-02,-4.64599e-01,9.67895e-01,-5.17135e-02,9.89927e-02,-2.70317e-02,3.72231e-01,7.08679e-02,-7.82445e-02,-1.48924e-02,7.33294e-02,-1.37712e-02,4.48457e-01,1.84761e-01,-2.12290e+00,-5.92428e-01,-1.98465e-01,-1.20235e+00,-7.45431e-02,-1.04185e+00,1.75499e+00,1.05696e-01,3.16677e-01,1.66869e-01,3.10435e-02,1.28606e+00,-7.45875e-01,2.05606e-01,2.20141e-02,6.40405e-01,5.74988e-02,1.43078e+00,-2.61248e-01,
3.06536e-01,2.65611e-01,1.62045e-01,5.93198e-01,-4.81019e+00,-2.62551e-02,-1.35250e-02,2.10714e+00,-2.01235e+00,-3.05298e-01,-5.56801e-01,-2.12748e+00,1.08188e+00,-5.47476e-02,-3.28717e+00,3.76955e-01,-3.52110e-02,-7.45753e-01,-2.15433e+00,-2.31041e-01,2.86754e-01,4.45873e-01,2.69521e-02,4.09468e-01,-2.69146e-02,-2.51986e-01,2.27435e-03,-4.78807e-01,-1.40648e-02,1.41565e+00,1.04778e+00,-6.83099e-02,1.00176e+00,-1.12113e+00,-1.02010e+00,9.99095e-01,-4.71157e-01,-1.42313e+00,-8.77126e-03,-1.17247e-01,4.07996e-01,-2.68856e-02,-1.62498e+00,-7.28083e-01,-3.31820e+00,3.88295e-02,-1.35105e-01,-7.44859e-02,-1.83480e+00,-1.12399e+00,
-1.36445e+00,-6.05554e-01,1.17859e-01,-8.27106e-02,2.60438e-01,2.99894e-02,-1.60670e-02,8.13413e-01,1.09958e+00,5.27277e-01,2.54589e-01,-5.82097e-01,-1.73935e-01,-3.58508e-01,-6.15933e-01,-3.91993e-01,-1.80286e-02,-1.63129e+00,2.34829e-01,7.60656e-01,-2.37719e-01,3.47598e-01,-3.56923e-02,7.44804e-01,9.45001e-02,-3.21158e-02,-1.61562e-02,-9.24797e-02,-1.17611e-02,5.33867e-01,-1.03561e+00,-6.74140e-01,6.93304e-01,-2.53688e-02,1.10867e+00,-1.35288e+00,-3.24131e-01,-3.39778e-02,4.27139e-01,6.12479e-02,4.34598e-01,8.51374e-03,3.12903e-01,2.52643e-01,6.96717e-01,-1.10054e-02,4.33051e-01,1.63066e-01,5.91520e-01,1.64429e-01,
-5.65798e-01,
6.86399e-01,
3.21735e-01,
7.86226e-02,
-1.96241e-01,
1.22257e-01,
-1.18903e+00,
-8.60009e-01,
-1.40829e+00,
-2.09454e+00,
-1.00807e+00,
-3.42620e-01,
-2.80521e-01,
1.62604e-01,
-1.04299e+00,
6.28734e-01,
5.01529e-01,
-6.07309e-01,
-3.88682e+00,
-3.65017e-01,
-2.51825e-01,
2.10726e-01,
-9.92128e-01,
-2.97251e-01,
3.80685e-01,
-8.20355e-01,
-3.40860e-02,
-9.31036e-01,
-1.34695e+00,
1.17358e+00,
5.59954e-01,
-1.10818e-01,
1.50555e+00,
-2.46102e-01,
-7.29381e-01,
-1.30218e+00,
-2.43331e-01,
7.90511e-01,
1.19928e+00,
-6.37417e-01,
-1.65499e-02,
-6.04099e-01,
-4.60649e-01,
1.17162e+00,
7.01376e-01,
-1.87021e-01,
-2.09538e-02,
-8.85157e-01,
5.01261e-01,
-1.27254e+00,
9.99619e-03,-2.61205e-03,-5.16577e-02,2.86741e-02,-4.33085e-02,-2.00741e-02,-2.33678e-02,2.32175e-02,3.37146e-02,-1.09946e-02,-2.10091e-02,-1.29486e-02,2.92476e-02,-3.26090e-02,-4.53206e-02,2.87071e-02,-4.07449e-02,-3.72493e-03,-4.27120e-02,-4.23677e-02,1.34099e-02,-9.38638e-03,4.20945e-02,8.76271e-03,-3.61358e-02,1.40021e-02,-4.69224e-03,-3.62572e-02,1.06865e-03,3.01672e-02,-6.71129e-04,4.07101e-02,2.74043e-03,2.92405e-02,1.74662e-02,1.29492e-02,-8.17709e-03,-4.74798e-02,-3.38838e-02,1.00880e-02,-1.34507e-03,-1.11330e-02,-3.94839e-02,-3.95319e-04,-3.63132e-02,1.04668e-03,1.25957e-02,3.14589e-02,-3.85483e-02,-4.76188e-02,
2.92866e-04,-1.50597e-02,-1.03319e-02,-4.25698e-02,3.81799e-02,7.57852e-03,3.67230e-02,1.69121e-02,4.43914e-03,2.01570e-02,-5.28381e-02,5.51790e-03,-3.69343e-02,-4.58806e-02,2.34573e-02,-1.13351e-01,-1.45681e-01,1.86962e-02,-4.20264e-02,3.50454e-02,-3.40938e-02,-8.53814e-03,2.29805e-02,1.44451e-02,-4.85161e-02,-5.09057e-02,-2.17490e-02,2.31447e-02,-4.27777e-02,1.79838e-02,-3.63643e-02,2.38290e-03,-8.64097e-03,-2.74485e-02,2.56184e-02,1.68215e-01,9.61447e-03,1.18315e-02,-3.59846e-02,4.61249e-02,-2.39720e-02,5.06008e-02,-8.02599e-02,-2.45550e-02,-2.11641e-02,1.55884e-02,4.86826e-02,-1.47062e-03,-9.25076e-03,2.75238e-02,
7.90146e-02,-4.71986e-02,6.21996e-02,-9.03424e-02,1.61013e-01,5.99754e-02,-4.24436e-02,9.92237e-02,3.46336e-01,5.76317e-02,7.08276e-03,-5.57769e-01,-1.87312e-01,2.93977e-01,1.93164e-01,2.72946e-01,-2.91276e-01,1.84948e-01,-1.08199e-01,5.13895e-01,-4.22501e-02,-6.73357e-02,-4.56271e-01,1.68419e-01,2.44903e-02,1.36506e-02,2.55537e-02,2.76067e-01,1.23991e-02,-1.88026e-02,9.66137e-02,-1.74806e-01,1.39488e-02,-1.86967e-01,-1.26713e-01,5.94270e-03,-1.57746e-01,-3.90241e-01,6.36083e-01,-4.20372e-01,-1.25640e-01,-3.46547e-01,2.03115e-01,-1.64063e-01,-1.07647e-01,5.84478e-01,-4.26830e-02,3.62454e-01,8.49497e-04,-1.97922e-01,
8.71571e-02,-2.66354e-01,-9.25938e-01,5.73467e-02,-1.42520e+00,1.34796e+00,8.03862e-01,1.16377e-01,-1.95024e+00,-3.36754e-01,8.77191e-01,3.40253e-01,1.51526e-01,-8.26889e-01,-1.52012e-01,-9.03667e-01,-1.48133e-01,1.43372e+00,2.96866e-02,2.76076e-01,-9.15704e-02,5.70626e-01,9.24939e-01,1.05102e+00,-1.12070e+00,1.21745e+00,-2.44970e-02,2.93717e-01,-4.14380e-01,1.94657e-01,-7.20675e-01,-2.12063e+00,4.37373e-01,-1.62457e-01,-7.68964e+00,-3.07694e-01,-1.48079e+00,-2.63818e-01,-2.23657e-02,1.59412e+00,-3.09395e-01,-3.33053e-01,-3.71558e-01,1.89846e+00,2.82784e-01,-3.94012e-01,3.18606e-02,-1.16239e+00,1.16491e-01,-1.11081e-01,
-8.57478e-01,-9.81046e-01,8.70301e-01,-1.35997e+00,-6.04589e-01,-1.13946e+00,7.20670e-01,2.32889e-01,-4.69365e-01,-9.42994e-01,-1.45830e+00,-3.87518e-01,-5.37175e-01,-1.10519e+00,2.03237e-01,6.53686e-01,6.28717e-01,-5.71379e-01,-7.75834e-01,2.63321e-01,-1.21075e+00,-1.05331e-01,5.77194e-01,-8.25262e-01,7.18062e-01,3.29297e-01,4.77874e-02,1.96094e+00,-1.55482e-01,-7.66199e-01,1.14506e+00,-1.77725e+00,7.18932e-01,1.60478e-01,-6.37731e-01,-5.25969e-01,3.87323e-01,6.58516e-01,-2.60888e+00,5.45157e-01,5.03412e-01,-3.67231e-01,-7.21725e-01,-9.30186e-02,-3.34708e-01,-1.07681e+00,1.92221e-02,5.53704e-01,9.35333e-01,1.46918e+00,
-1.16770e+00,-1.29672e+00,-1.03439e+00,4.92333e-01,-6.75935e-01,-2.70971e-01,1.88218e-01,8.26533e-01,-6.11135e-02,5.51506e-01,5.36146e-01,1.68841e-03,-1.00008e-03,3.00897e-01,8.52991e-01,5.29230e-01,-7.62471e-01,5.83663e-01,3.44711e-01,6.70096e-01,2.54495e-01,3.86564e-01,4.84674e-01,-4.95382e-01,4.79400e-01,-1.59596e+00,4.40575e-02,1.40196e+00,1.19049e-01,-9.71251e-02,2.78607e-01,-7.77972e-01,4.73387e-01,1.05632e+00,1.51065e-01,-5.50707e-01,-1.68353e-01,3.70064e-01,1.63843e-01,-1.75827e-02,-1.28202e+00,1.44258e-01,4.28451e-01,2.13074e-01,2.58555e-01,1.02122e+00,2.54990e-02,6.80032e-01,2.15268e-01,2.50684e-02,
9.90164e-02,7.29110e-01,1.01386e+00,3.91039e-01,9.21420e-01,-6.66106e-01,-3.93643e-01,-4.35434e-01,-5.69841e-01,-8.56244e-01,6.85465e-01,-3.02863e+00,-5.02242e-01,-2.11375e-01,7.90361e-01,2.22379e-01,5.57221e-01,-6.66306e-01,-3.42192e-01,-1.25796e-01,-1.15013e-02,9.39076e-01,-1.55526e+00,-6.06954e-01,-1.26201e+00,-1.68013e-01,-2.44793e-02,-6.97052e-01,-2.10445e-01,6.61860e-01,1.17633e+00,1.16793e+00,9.27991e-01,-7.87440e-02,9.56954e-01,-9.58832e-02,5.37492e-01,6.56604e-03,2.08806e-01,-9.69284e-01,4.74261e-01,-9.54589e-01,7.98778e-01,-3.45895e-01,7.05871e-02,2.17624e-01,1.04662e-02,9.10391e-01,5.67291e-01,4.28253e-02,
1.94110e-01,-9.30008e-02,4.62128e-01,-5.92795e-01,-3.55567e-02,-2.95552e-01,-9.20753e-01,-2.83845e-01,1.40306e-01,-1.20199e-01,-9.88199e-03,-7.73642e-01,-5.20091e-03,2.31859e-01,6.67328e-01,-3.00671e-01,1.40548e-01,-2.63577e-01,-1.17842e-01,-1.94495e-01,1.89405e-01,1.65074e-01,-1.32819e-01,5.22083e-03,-7.50045e-01,-2.00248e-01,-3.78512e-02,-6.39091e-01,1.93464e-01,3.68943e-02,1.30758e+00,7.69521e-01,7.98715e-01,-8.31726e-01,-2.31905e-01,-6.39830e-01,4.91110e-01,8.06937e-02,-9.37007e-02,-6.89564e-02,5.04953e-03,7.52018e-01,5.45248e-01,-8.48495e+00,3.40385e-01,-6.52431e-02,-6.57442e-03,1.26432e+00,-1.84865e-01,3.05444e-01,
-8.66258e-01,8.53065e-03,-3.08799e-01,-1.13052e+00,-7.69568e-01,1.26554e-02,1.48702e+00,4.36014e-01,-1.90220e-01,1.01038e+00,5.66160e-01,-2.88299e-01,-4.82767e-01,1.28852e+00,2.04115e-01,3.48420e-01,-4.23619e-01,-1.15966e+00,-5.03917e-01,5.21816e-01,2.68132e-01,1.17672e+00,1.28701e+00,3.62916e-02,3.45958e-01,-2.19723e+00,-5.00993e-03,6.81378e-01,3.97437e-01,1.40022e-01,1.35970e+00,1.16995e+00,-2.03317e+00,8.57831e-01,3.08283e-01,7.63865e-01,1.00125e+00,3.79055e-01,-1.30743e-01,2.49801e-01,-7.29417e-02,3.10249e-01,7.08966e-01,9.72746e-01,-3.42557e-01,-8.31163e-01,-1.57247e-02,8.12655e-01,9.13706e-02,-2.71094e-01,
-8.57657e-01,1.00805e-01,1.60024e+00,7.50538e-01,-1.38331e+00,9.80366e-01,-1.71788e+00,-2.80320e+00,-3.11457e+00,-1.18591e+00,-2.02691e-01,-4.80485e+00,2.26959e-01,-7.29481e-01,-1.01599e+00,-1.94108e+00,1.55549e+00,-2.88056e+00,1.65059e-01,-2.05923e+00,9.64351e-01,2.44835e+00,-1.91941e-01,-4.09635e-01,-9.70497e-01,1.61565e+00,-8.95866e-03,-3.26220e+00,-1.61506e+00,6.13362e-01,-2.46975e-01,3.86186e+00,1.02276e+00,-2.05224e+00,6.02305e-01,-1.27429e+00,8.62200e-02,-1.00408e+00,-9.81852e-01,2.94681e-01,5.48838e-01,6.12910e-01,4.82150e-01,-4.09299e-01,7.68519e-01,-2.31395e+00,2.15719e-02,-9.41570e-01,8.81398e-02,5.84733e-01,
1.78653e-01,-4.13834e-01,-1.54793e-01,-6.58714e-01,5.53320e-01,-1.34630e-01,6.74427e-01,4.84959e-01,5.73837e-01,7.30579e-01,4.20943e-03,3.33828e-01,5.84342e-01,-5.75671e-01,5.48885e-01,-2.67268e-01,2.23066e-02,3.79858e-01,-5.92665e-01,-2.72967e-03,-1.69104e-01,1.04741e-01,-1.09399e-01,-5.58902e-02,-4.72229e-01,1.13889e-01,-2.20121e-02,-1.42355e-01,-4.95466e-02,1.35669e-01,3.60870e-01,2.15146e-01,-3.63094e-01,-5.56969e-01,-9.69074e-02,-5.66745e+00,-2.00434e-02,2.77619e-01,-2.02243e-01,3.02871e-02,-3.81605e-02,2.33642e-01,6.15728e-01,1.71823e-01,-9.20713e-01,8.68142e-01,5.40508e-02,-3.67056e-01,-7.99067e-02,-4.59278e-01,
9.13848e-02,2.86278e-01,-2.81419e+00,-3.96671e-01,2.11511e+00,-1.12495e+00,-2.34362e+00,3.00174e-01,-1.50761e+00,-7.19891e-01,6.00651e-01,2.77152e-01,-2.98456e-01,1.98368e+00,1.73839e-01,-2.67968e-01,4.29523e-01,-1.41632e+00,5.46257e-01,-1.54356e+00,-3.87115e-01,-1.23483e-01,-2.08333e+00,1.62970e-01,-3.68240e-01,-1.02395e+00,3.78841e-02,-8.16367e-01,-9.91735e-02,2.13868e-02,-9.37110e-01,1.70749e+00,-5.76419e-01,-5.11552e-01,-9.29089e-01,1.02754e+00,1.01710e+00,-8.71363e-01,4.31835e-01,1.40135e-01,-9.14838e-03,6.47993e-01,7.09085e-01,1.55590e-01,-6.27751e-01,-2.74899e+00,3.59954e-02,1.53406e-01,1.13370e-01,-4.69714e-01,
-5.36676e-01,9.84641e-01,8.99443e-01,-8.70784e-01,3.43535e-01,4.04077e-01,-8.07287e-02,-4.20771e-02,-8.13359e-01,5.44630e-01,5.47301e-01,5.76378e-02,-3.34921e-01,1.19363e+00,9.81587e-03,1.53369e+00,-5.84723e-01,3.51441e-02,2.17546e-01,-1.60995e-01,-3.02088e-01,1.02871e+00,1.17936e+00,-2.16013e-01,-1.80836e-01,-1.46758e+00,-1.12024e-02,-1.54535e-01,-3.09168e-01,-1.86178e-01,1.19569e-01,5.01445e-01,7.39605e-01,3.48358e-01,-3.41598e-01,-3.02659e-01,2.78479e-01,-4.91631e-01,-3.72316e-01,5.94998e-01,4.17802e-01,-4.02250e-01,3.54859e-01,1.30424e-01,4.38433e-01,1.78796e+00,-5.30265e-02,3.48092e-01,-1.20763e-01,-7.07671e-01,
-5.51650e-03,-1.69251e-02,-2.97680e-02,-3.95679e-02,1.31400e-02,3.32013e-03,3.12036e-02,5.20309e-02,-3.47831e-02,1.22635e-02,-5.79377e-02,-7.12055e-02,5.80726e-02,3.27800e-02,6.13457e-02,-2.04713e-01,-1.20261e-01,5.16537e-02,-2.87616e-02,1.67814e-03,-3.87333e-02,5.21890e-02,-4.51463e-02,5.94525e-02,-6.27853e-02,8.33938e-03,-3.79831e-02,-2.37526e-02,6.01085e-03,2.66999e-02,-4.35081e-02,1.80493e-02,-3.59704e-02,-4.14197e-02,3.71855e-02,1.04204e-01,6.09386e-02,-2.22088e-02,-5.94902e-02,-1.05132e-02,-1.89088e-02,2.52400e-02,-4.80709e-02,4.91515e-02,-1.18139e-02,-3.39594e-02,-4.53814e-03,2.09204e-04,1.77816e-02,4.07052e-02,
-1.02886e-01,-6.78122e-01,1.00973e+00,4.68733e-01,-1.66783e+00,1.31563e-01,-1.95862e+00,-5.94801e-01,-1.03842e+00,2.70610e-01,3.99418e-01,-9.89378e-02,6.06949e-01,-6.46729e-01,-4.23757e-01,2.88842e-01,-5.83297e-02,9.30649e-02,4.82831e-01,-1.76827e-01,-4.46694e-02,-1.60556e-01,-1.21545e-01,-4.73491e-01,-4.64801e-01,-1.43330e-01,-2.08180e-02,-1.23899e+00,3.44920e-02,1.82132e-01,-6.68007e-01,1.59061e-01,6.13588e-01,-1.44716e+00,-5.98895e-01,-1.63221e+00,3.96848e-01,-2.92586e-01,4.21538e-01,7.47552e-01,-1.05157e-01,-1.32371e+00,-1.43099e+00,-1.45368e-02,2.62398e-01,2.66529e-01,-1.71105e-02,-1.04575e+00,-1.50446e-01,-1.10116e-02,
-6.36560e-01,5.93289e-01,1.05160e-01,-4.38845e-01,2.41414e+00,8.96765e-01,3.59298e-01,-5.28897e-01,3.52048e+00,6.51628e-01,4.87661e-01,-5.37592e-01,1.84956e-01,1.49538e-01,-4.07822e+00,6.86738e-01,-1.20539e+00,4.01080e-01,6.44291e-01,1.28790e+00,1.58879e-01,4.28159e-01,7.15807e-01,-1.22464e+00,6.46418e-01,1.41311e-01,-3.98687e-03,2.00987e+00,2.02762e+00,7.84878e-01,3.17144e-01,1.68233e+00,1.52133e-01,-7.54739e-01,1.15230e+00,1.58109e+00,-1.77509e+00,1.66380e+00,-9.06197e-01,1.08900e+00,2.64550e-01,-2.57728e-01,1.04441e+00,-4.66691e-01,5.34142e-02,2.42497e+00,3.64819e-02,-9.54011e-01,1.16435e+00,2.75192e+00,
-3.08260e-01,1.44966e-01,-1.39923e-01,-2.80614e-01,-1.35165e-01,-4.17038e-02,4.82034e-01,-2.17293e-01,2.11734e-01,3.24134e-01,-4.92940e-02,-1.89163e+00,1.73905e-02,-2.56172e-01,1.62402e-01,3.33506e-01,1.68784e-02,1.56453e-01,1.42143e-01,2.09241e-02,2.67039e-04,1.39759e+00,-9.07469e-02,-9.66178e-02,-3.25521e-01,-2.36097e-01,3.80120e-02,5.51134e-01,4.09000e-02,2.11068e-01,-2.10528e-01,4.15362e-01,-1.81507e-01,-5.43432e-01,-1.61741e-01,2.50347e-02,6.99644e-02,3.48475e-01,4.24298e-01,-2.65552e-01,-1.51589e-01,-2.09817e-01,3.34583e-01,1.79416e-01,-1.31745e-01,3.94118e-01,-2.82711e-02,-5.26241e-01,1.62704e-01,4.20114e-02,
1.75046e+00,-6.15594e-01,-2.06591e-01,1.80224e-01,1.26235e+00,-2.90023e-01,3.49378e-01,1.06193e+00,1.23034e+00,9.52911e-01,5.25231e-01,4.43182e-01,5.14030e-01,-1.06863e+00,-4.01955e-01,-4.54854e-01,-3.72004e-01,1.39817e-01,1.41513e-01,4.06188e-01,-4.71457e-01,-7.99329e-01,1.94256e+00,-9.91270e-01,-1.86478e+00,-5.94791e-01,-7.13415e-03,1.70536e+00,-2.26781e-01,3.48105e-01,7.57767e-01,1.64854e+00,8.34156e-02,7.19110e-01,-9.55067e-01,2.34678e+00,3.78756e-01,7.73590e-01,1.98539e-01,9.45281e-02,-5.12864e-01,7.24899e-01,1.46950e+00,-7.68254e-02,-8.55439e-01,-2.95056e-01,5.45699e-04,-2.66143e+00,-1.14635e-01,-1.52928e+00,
-5.09690e-01,7.37276e-01,3.20199e-01,6.28842e-02,-1.18445e+00,3.23648e-01,-8.44301e-01,-8.46117e-01,4.39573e-02,-5.20639e-01,1.11293e+00,3.66194e-01,-6.22448e-02,-3.00601e-01,-8.59299e-01,8.85491e-01,6.81162e-01,-2.08747e-01,2.25045e-01,-2.09167e-01,4.03822e-04,-7.47620e-01,9.08693e-01,-7.26596e-01,-3.95569e-01,-1.67470e-01,-3.38253e-02,-9.34087e-01,-4.19287e-01,1.09516e+00,1.28926e+00,4.72455e-02,9.76192e-01,-1.08499e+00,4.10846e-02,-1.91414e+00,-1.26956e+00,4.99171e-01,2.66952e-01,5.86404e-02,5.39524e-01,-7.70989e-02,8.58794e-02,-1.04960e-01,6.16910e-01,-5.69252e-01,3.90842e-02,-3.60962e-01,2.12695e-01,2.61610e-01,
-3.73696e-01,8.03090e-02,-1.24407e-02,-1.78168e-02,-2.79444e-01,-1.38366e+00,-6.01446e-02,-6.35051e-01,5.11187e-01,-2.73652e-01,8.43901e-01,-1.26288e+00,-4.44155e-01,-1.54592e-01,1.13557e-01,-8.85550e-02,1.11342e+00,1.30063e-01,-7.51253e-01,-1.16211e-01,-5.00422e-01,-1.45073e-01,-1.04269e+00,7.17587e-02,-5.70894e-01,1.54489e-01,-4.14957e-02,-1.58551e-01,2.75413e-02,4.90311e-01,-9.49530e-02,-1.17021e+00,1.10114e-01,-3.99346e-01,5.88628e-01,-6.69803e-01,-8.94049e-01,9.08061e-02,2.14880e-01,-1.08633e+00,6.49777e-01,-6.35047e-01,2.82413e-01,-1.07667e-01,-4.21907e-01,1.11946e-01,-2.98002e-02,-1.93124e-02,2.46608e-01,1.02480e-02,
1.11773e+00,4.15045e-01,-1.62865e+00,3.35823e-01,-8.21582e-01,-4.61704e-01,-3.62868e-01,-2.55738e-01,-4.57229e-02,-1.15775e-01,-6.69110e-01,2.42944e-01,1.43655e-01,3.00896e-01,6.68081e-01,-7.50146e-01,-2.45532e-01,4.20405e-01,-4.80606e-01,-5.13879e-01,3.53089e-02,-1.37843e-01,2.39549e+00,-1.58211e-01,-5.24947e-01,3.59108e-01,7.48714e-03,-7.45243e-01,4.31363e-01,-1.19677e+00,-1.58293e-01,1.89500e+00,-2.82868e-01,-8.86486e-01,6.12516e-01,-1.17429e+00,-1.68791e-01,6.78559e-03,6.97034e-01,-3.89100e-01,-1.26462e+00,9.69671e-01,9.21512e-01,3.21828e-01,8.11830e-02,-1.32553e+00,8.43939e-03,-3.56266e-01,1.99887e-01,1.23350e+00,
-9.38676e-02,4.97052e-01,5.64745e-01,-3.84305e-01,1.05706e-01,-9.17264e-01,-7.94404e-01,-3.19131e-01,5.19674e-01,5.43507e-01,3.53728e-01,-5.28063e-01,7.68472e-01,-4.90833e-01,3.57834e-01,-2.27559e-01,-3.09493e-02,-1.81115e-01,9.86027e-02,5.54695e-01,9.80286e-02,-2.35089e-01,-3.45842e-01,3.42692e-01,1.96163e-01,-7.59299e-01,3.90138e-02,-4.10984e-01,-7.84919e-02,1.03554e-01,2.95577e-01,1.46648e+00,4.47255e-01,-1.15082e+00,6.97572e-01,1.57055e-01,-1.64800e-01,1.10242e-01,-2.17345e-01,-2.04719e-01,2.58152e-02,-3.73524e-01,1.47397e-01,-1.91432e-01,-1.58765e-01,-1.43946e+00,-1.79779e-02,-1.94043e-02,-5.85139e-01,-2.13038e-01,
-1.67456e+00,-1.92020e+00,4.72650e-02,-9.07876e-01,3.95310e-01,-6.70196e-01,3.02756e-01,1.02869e-01,1.60931e-02,8.01637e-01,2.20346e-01,1.74271e-02,-2.36046e-01,1.19664e-01,2.21983e-02,9.64238e-01,4.90688e-01,7.69445e-01,-9.04692e-01,-9.60390e-02,-5.12566e-01,-3.93882e-01,-4.37803e-02,-2.39530e-01,2.50780e-01,-3.10591e-01,-2.70303e-02,8.74901e-01,7.35092e-01,9.36600e-02,2.05639e-01,-2.30927e+00,8.75424e-01,-8.11983e-02,-9.24950e-01,-1.11920e+00,8.17895e-01,7.35080e-01,1.05114e+00,-1.34355e+00,4.08015e-01,3.89845e-01,1.45002e-01,-4.00244e-01,1.96116e-01,1.38126e+00,-1.42107e-02,-5.18847e-01,4.00633e-01,4.91324e-01,
4.34037e-01,-2.03530e-01,-1.00096e+00,2.41147e-01,-1.39727e+00,2.57895e+00,-5.65651e+00,-2.27811e-01,-5.46337e-01,6.70643e-01,-7.49648e-02,1.11196e+00,-6.54113e-02,1.57332e+00,-1.52890e+00,1.14289e+00,-8.80783e-01,-6.41584e-01,-1.35546e-01,7.83638e-01,1.35413e+00,3.62552e-02,2.31669e+00,-6.52852e-01,5.15590e-01,9.88460e-02,-5.32158e-03,3.34345e-01,-4.02709e-01,-4.25205e-01,5.04176e-01,1.32142e+00,3.35158e-01,-7.73029e-01,-3.10762e-01,-1.44287e+00,1.61825e-01,-3.82551e-01,3.70764e-01,1.08275e+00,-1.01109e-01,7.23323e-01,3.54971e-01,1.02059e+00,5.58802e-01,4.92614e-01,-9.74525e-03,-7.50739e-01,1.56945e-01,7.02071e-01,
4.45639e-01,-5.31332e-01,-2.73090e-01,1.54343e-01,-1.87780e+00,-2.26937e-01,4.81922e-01,9.43424e-01,-1.07090e+00,1.02159e-01,7.74951e-02,4.73613e-01,-3.81271e-01,3.27308e-01,-3.93036e-01,1.34846e+00,-8.67159e-01,2.55287e-01,2.36475e-01,6.01535e-01,-7.86947e-01,-7.01461e-01,2.35229e+00,-3.65354e-01,-1.09749e-01,1.44766e+00,-1.57489e-02,6.91999e-02,-3.34270e-01,2.99575e-02,1.08178e+00,1.68372e+00,4.06136e-01,3.24376e-01,3.61510e-01,-2.21562e+00,-6.11790e-01,6.89123e-01,-5.42645e-01,3.02022e+00,1.99836e-01,-5.95522e-01,7.75966e-01,1.29364e+00,-4.85897e-01,2.15679e+00,1.91841e-02,6.55274e-01,2.76370e-01,1.53920e+00,
-2.24384e-01,2.92971e-01,2.29402e-02,-4.21595e-01,-4.06642e-01,5.32221e-01,2.68462e-01,-2.75418e-01,-2.45148e-01,1.79649e-01,2.46590e-01,4.84266e-01,-3.82300e-02,-8.48969e-02,1.14218e-01,-1.15928e-01,2.54590e-01,-2.46078e-01,8.84617e-02,-2.08805e-01,6.75885e-02,-3.38075e-01,-1.63943e-01,-5.00217e-01,3.18690e-02,-2.42409e-01,1.34637e-02,-1.95450e-01,-1.31952e-01,1.74342e-02,-4.24528e-01,-3.71835e-02,1.68773e-01,-2.83174e-01,1.38468e-01,-2.65306e-01,2.76848e-01,5.18602e-02,-3.76256e-01,5.03851e-01,1.59592e-01,-6.69362e-01,-1.99563e-01,1.52856e-01,1.51238e-01,-4.52342e-01,-1.58735e-03,1.22516e-01,1.11070e-01,-4.08965e-02,
-2.76610e-01,8.30858e-01,-8.42896e-01,-3.88121e-01,-4.30880e-02,-6.80837e-01,2.67735e+00,3.77348e-01,1.51174e+00,-2.13098e-01,-5.12272e-02,7.81190e-01,6.87047e-01,1.47019e+00,-1.05934e+01,-6.55293e-01,-1.09207e+00,-3.56644e-02,2.10073e-01,2.20761e-01,-1.84594e-01,-1.17561e+00,-2.85988e+00,-1.83127e+00,7.91037e-01,1.36086e+00,2.71334e-02,5.27465e-02,-5.81555e-01,4.78309e-01,9.11677e-01,-1.87403e-01,9.98295e-02,1.00326e+00,3.57757e-01,2.42849e+00,-2.38008e+00,7.12571e-01,9.90173e-01,4.87389e-01,5.25271e-01,-2.67675e+00,-1.33617e+00,1.78932e+00,-1.66236e+00,2.71629e-01,-1.91624e-02,-7.98368e-01,2.96956e-01,-1.63870e+00,
-5.19488e-01,-1.22349e-01,-3.11368e-01,-8.31273e-01,-1.37335e+00,2.33210e-01,-4.35382e-01,-2.96936e-01,-7.86179e-01,-9.58892e-01,-9.14924e-01,2.45441e-01,1.08875e+00,-1.83650e-01,-6.87549e-01,1.44222e-01,3.00369e-01,-1.43344e+00,-6.55555e-03,-7.79795e-01,4.42673e-01,-1.77646e-01,-2.25945e+00,-8.26444e-01,3.80083e-01,-9.30770e-01,-3.99003e-02,1.68250e+00,-7.24964e-01,-6.35988e-01,-1.49100e-01,-9.75071e-01,-7.18945e-01,-6.99497e-01,-6.26652e-01,-7.49153e-01,-1.47430e-01,8.50912e-01,-1.03216e+00,-3.05049e-01,-7.18266e-01,-7.62721e-01,3.17882e-02,4.16289e-01,2.14867e-01,-1.90069e+00,-2.71447e-02,1.26094e-01,-6.99595e-02,4.26870e-01,
1.25439e-01,-1.29908e-01,-4.33316e-01,4.54367e-01,4.19954e-01,-4.68542e-01,-2.87220e-01,3.49265e-01,3.00989e-01,9.00891e-02,5.34550e-01,8.45633e-02,8.54365e-01,1.04718e-01,3.02095e-01,1.76889e-01,-2.07785e-01,1.84535e-01,-1.82725e-01,2.30565e-01,-1.07030e-01,-1.73873e-01,1.68225e-01,2.48092e-01,8.52603e-02,1.23699e-01,1.00291e-02,8.19548e-01,-1.54652e-01,-2.87317e-01,3.09751e-01,5.81622e-01,-4.90405e-02,-2.74718e-01,-2.72604e-01,2.10134e-01,-7.15308e-02,4.06552e-01,-1.56860e-01,3.09713e-01,-6.04049e-02,5.87257e-03,-5.77697e-01,-1.34472e-01,-1.80722e-01,4.87249e-01,4.40322e-02,-1.80893e-01,-2.55210e-01,-1.55387e-01,
-4.96734e-01,4.16053e-01,-4.94480e-01,1.80758e+00,-9.15749e-02,1.06011e+00,5.81951e-01,2.23115e-01,2.13293e+00,8.82481e-01,3.67111e-01,-9.71688e-01,4.47353e-01,4.39513e-01,9.00544e-01,-5.16830e-01,1.88289e-01,1.04104e+00,-9.95426e-01,-5.29261e-01,2.56069e-01,1.38244e+00,1.33546e+00,3.30988e-01,1.91772e-01,6.63531e-01,3.74490e-02,4.83731e-01,1.07302e+00,-1.25860e-01,-2.20771e-02,-2.27010e-01,-3.92040e-01,7.48206e-01,9.07492e-01,-1.11199e+00,-7.38727e-01,6.52108e-01,1.17448e+00,2.59947e-01,5.33193e-01,5.35825e-01,8.98886e-01,1.15936e+00,-8.06049e-02,9.14225e-02,2.65035e-02,-5.73708e-01,-5.07913e-01,-1.73620e-01,
-1.59373e-03,-7.12263e-01,-8.21389e-01,-1.59048e-02,-3.86791e-01,-3.83467e-02,-1.04903e-01,1.39722e-01,-3.02984e-01,7.85102e-02,1.09485e+00,-3.45670e-01,6.21035e-01,9.60535e-01,1.48380e+00,6.45721e-02,-5.51779e-01,-3.48969e-01,-1.39712e-01,5.56494e-01,-1.33247e-01,-1.61658e-01,7.62805e-01,2.88472e-01,2.10035e-01,7.82739e-01,-3.86119e-02,4.69279e-01,-2.66724e-02,-3.17775e-02,1.05561e-01,5.73380e-01,1.97868e-01,4.06475e-01,-5.48105e-02,6.26186e-01,6.50825e-02,-6.82804e-01,4.91054e-01,-4.50086e-01,-2.48917e-01,1.83511e+00,1.63815e-01,4.96736e-01,-8.17734e-02,6.90339e-01,-2.08576e-02,1.87111e+00,-5.56930e-02,-2.12114e-02,
3.28306e-01,-5.45010e-01,1.13439e+00,6.26078e-01,-1.73528e+00,-1.13977e+00,-3.44536e-01,-4.16213e-01,-1.27640e+00,6.39315e-03,3.84910e-01,-5.12113e-01,-3.54872e-01,-3.22028e+00,-3.88597e-01,-1.18087e+00,7.89178e-03,-1.76713e+00,9.51580e-01,-1.82276e+00,3.38175e-01,8.40071e-02,-4.31996e-02,-6.22788e-01,7.42966e-01,1.97357e+00,-9.31617e-03,-1.05062e+00,-1.74505e-01,-3.47360e-01,-9.82656e-01,2.07439e+00,1.47303e+00,-1.55637e+00,-1.59290e-01,5.33574e-01,-8.66077e-01,-1.03475e-01,-3.99027e-01,1.11014e+00,-4.90504e-01,1.54708e-01,1.66283e+00,8.27439e-01,1.60141e-01,1.29323e+00,-4.03064e-03,3.73936e-01,1.58671e-01,2.69881e-01,
6.92017e-01,-2.34670e-01,-4.57040e-01,-1.34887e+00,2.35293e-01,-4.54227e-01,5.17143e-01,1.11094e-02,1.92117e+00,-1.56786e-01,4.62246e-01,7.12774e-01,-6.68580e-02,-1.61725e-01,8.97012e-01,5.45003e-01,-6.13302e-01,-5.15303e-01,-7.43903e-01,-1.22070e+00,3.34228e-01,-5.41217e-03,-7.55262e-01,-9.07821e-02,-1.65560e-01,-8.89292e-01,1.55849e-02,4.82113e-01,-5.01516e-01,5.64423e-01,-6.67299e-01,-9.25214e-02,-8.01813e-01,-1.06706e+00,3.66714e-01,1.21000e+00,1.24016e+00,3.80838e-01,4.35956e-01,-5.91806e-02,7.25300e-01,4.85543e-01,1.54330e+00,-1.53811e+00,-2.26790e-01,6.48450e-01,-5.00140e-02,9.23803e-01,3.69708e-01,3.26638e-01,
-5.12932e-01,3.15312e-01,-3.94354e-01,-1.11443e+00,-1.14748e+00,-7.84648e-01,7.61325e-01,-4.56258e-01,9.85374e-02,1.78400e-01,-1.22945e-01,-8.10107e-01,3.62578e-01,2.94827e-01,-3.04579e-01,4.92699e-01,4.11956e-01,-5.09477e-02,-7.70682e-01,8.65766e-01,-5.45181e-01,3.69482e-01,3.61869e-01,1.14393e-01,-2.13586e-01,1.52992e-01,1.26529e-02,7.90886e-01,2.39063e-01,1.75332e-01,-3.15402e-01,-7.53054e-01,5.44834e-01,-1.00569e+00,-6.79177e-02,1.34867e-01,1.07239e+00,7.24070e-01,-2.07390e+00,-2.56657e-01,6.11733e-01,5.57644e-01,9.23024e-01,1.20164e+00,-5.50354e-02,-1.69546e-01,-5.42812e-02,1.08204e+00,-1.29375e-01,4.68180e-01,
-8.35826e-02,4.99866e-01,-4.63076e-01,2.81217e-01,6.49774e-01,-2.71608e-01,1.26857e-01,-1.78431e-01,1.49377e-01,1.56541e-01,2.05658e-01,1.66876e-01,4.36745e-03,5.92091e-01,1.48997e-01,1.35029e-02,1.66053e-01,5.99251e-02,-3.04290e-01,2.05661e-01,-1.19176e-01,5.78288e-01,5.93440e-01,-2.65598e-02,2.34553e-01,-2.31596e-02,-4.02549e-02,-2.18823e-01,2.65683e-01,1.95671e-01,2.28374e-01,-2.74495e-01,-2.05841e-01,1.52722e+00,2.42511e-01,3.68480e-01,6.12155e-02,-1.74162e-01,4.29810e-01,2.56158e-01,3.00891e-01,1.44076e-01,4.52949e-01,1.63722e-01,-1.02251e-03,1.76657e-01,4.14695e-02,3.51820e-02,4.41002e-02,5.40852e-02,
1.08872e-01,-2.18558e-01,1.22626e-01,2.75477e-01,1.58577e-01,-1.10927e-01,-8.31467e-02,1.01000e-01,-1.14993e-01,1.10222e-01,-2.87341e-01,-1.12287e+00,1.81216e-01,2.17217e-01,4.15059e-01,1.28176e-02,-7.67652e-01,-6.39491e-01,5.32995e-01,-1.85017e+00,5.80026e-01,6.20477e-01,-4.91410e-01,-1.89113e-01,-2.51247e-01,6.98938e-01,3.66961e-02,1.06481e+00,2.95467e-02,-1.36170e+00,-2.43986e+00,1.16758e-01,2.46845e+00,-5.87879e-01,1.85733e-01,-1.07202e+00,2.35249e-02,-1.44804e-01,5.15085e-01,3.30859e-01,-3.26233e-01,1.10179e+00,-4.43456e-01,-1.39300e+00,1.27172e-01,8.39559e-01,-2.96322e-02,1.58621e+00,1.80375e-01,7.98300e-01,
-3.88538e-02,-1.66037e-01,6.71962e-01,1.97708e-01,7.82252e-01,-1.09043e+00,-8.84194e-02,-8.96521e-01,-3.68979e-01,-5.68187e-01,4.86627e-01,-1.35967e+00,-3.26060e-01,4.80221e-01,-1.31457e-01,-5.11895e-01,6.25842e-01,-5.38299e-01,-1.39394e-01,-3.37764e-01,-4.89678e-01,4.75035e-01,-8.38122e-02,2.08063e-01,-3.79028e-01,5.69922e-01,3.12016e-02,-5.58346e-01,-9.69029e-01,5.41524e-01,-2.76683e-01,-2.92748e+00,1.67863e+00,-3.08675e-01,7.15160e-01,-2.37626e+00,4.83907e-01,-5.68362e-01,-7.30370e-01,2.16818e-01,4.40268e-01,5.01808e-02,5.02378e-01,-8.96466e-01,1.04813e-02,-1.21047e+00,-4.41604e-02,7.92936e-01,2.19992e-01,2.82135e-01,
3.53628e-01,5.67439e-02,-1.81852e-01,-1.33850e-01,4.54835e-01,1.62966e+00,-3.64172e-01,-6.33754e-01,-1.54776e+00,3.28440e-01,-2.10122e-01,-3.13686e-01,4.40482e-01,-4.14340e-01,-8.87522e-01,-7.56978e-01,3.26158e-01,3.00392e-01,2.85408e-01,-6.15014e-01,6.15957e-01,-4.66952e-02,-7.50842e-01,6.07912e-02,-7.05916e-01,-3.80282e-01,-4.27148e-02,-1.25193e+00,-4.86676e-01,5.16971e-01,1.00659e-01,1.08093e+00,5.01590e-01,1.10873e+00,4.61256e-01,4.05959e-01,1.35469e+00,-3.56160e-01,-3.19535e-01,6.73642e-01,-9.77826e-01,-8.48667e-02,-5.14633e-02,-1.34627e-01,7.00888e-01,4.64985e-01,-3.35956e-02,7.99854e-01,1.99664e-01,2.70151e-01,
3.99288e-02,1.53613e+00,-3.73572e-01,7.42245e-01,3.08760e-01,4.95479e-01,1.42000e+00,-1.77280e-01,1.28180e+00,-3.20402e+00,3.48569e-01,2.11371e-01,7.65582e-01,3.41590e-01,2.91438e-01,2.74904e-01,-2.14419e-01,-5.78638e-02,3.89538e-01,-1.46938e+00,-7.51306e-01,-4.85908e-01,1.61931e+00,-9.75543e-02,-5.84175e-01,-2.28926e+00,-2.56596e-02,4.46801e-01,-1.58072e-02,-3.97633e-01,3.28702e-01,2.46882e+00,-2.43822e+00,1.20437e+00,-1.09373e-01,2.87349e-01,1.07943e+00,-7.15376e-02,-1.20513e+00,-1.25589e-01,-2.59172e-01,7.01641e-01,-4.15655e-01,-2.98910e-01,-1.33370e-01,6.40052e-01,1.58122e-02,1.62060e-01,-6.63726e-01,1.21109e+00,
-7.26106e-02,3.14573e-01,-2.34189e-01,-1.56709e-01,-5.91539e-01,2.50563e-01,-7.05510e-01,2.23133e-01,-2.44782e-01,-6.86318e-02,1.43744e-01,-4.15338e-01,-5.04136e-03,1.29646e-01,-7.42499e-02,2.66314e-01,-2.11397e-01,-2.23734e-01,7.37981e-02,-4.63099e-01,4.76193e-02,1.80329e-01,5.72685e-01,-5.03328e-01,1.23203e-01,-3.44930e-01,-3.66085e-02,-7.86795e-01,1.51393e-01,-1.33493e-02,1.05113e-01,-3.12218e-01,3.13626e-01,2.40944e-01,2.86830e-01,-6.19173e-02,8.69559e-01,6.24679e-01,-3.71664e-01,-2.80117e-02,2.41739e-01,-2.46652e-01,1.35081e-01,-2.58792e-01,3.79215e-01,2.34889e-01,4.85141e-02,4.77773e-01,-9.93278e-02,2.35797e-01,
-5.86452e-01,-7.66228e-01,-4.31714e-01,-6.37830e-01,4.20690e-01,1.21530e+00,-7.52669e-01,-3.35057e-01,-9.50781e-01,1.25054e+00,9.05237e-01,8.42787e-02,-4.40373e-01,-6.99882e-01,8.09308e-01,5.30951e-01,-5.35396e-02,1.00486e+00,4.27734e-01,7.92724e-01,3.49890e-02,-7.97924e-01,-2.66441e-01,2.00736e-01,-4.06935e-01,-2.09245e-01,1.77365e-02,-6.41530e-01,-1.17432e-01,5.26111e-01,5.04967e-01,-2.76746e+00,1.17010e-02,-1.23534e+00,-2.82780e-01,-7.09346e-01,1.43878e-01,-4.04248e-03,-4.28031e-01,-9.20484e-01,-8.78031e-01,-2.83405e+00,-1.29404e-01,-1.80697e+00,8.74237e-01,-1.01203e+00,-2.21465e-02,3.77653e-01,-2.96350e-01,-6.58520e-01,
3.70806e-02,6.35205e-03,-1.70012e-02,6.59480e-03,2.69821e-02,2.11098e-02,2.91598e-02,-4.53689e-02,-1.44643e-03,2.94378e-03,1.74320e-02,-3.76934e-02,-5.23689e-02,3.41121e-02,-1.05511e-02,-2.52080e-02,8.34086e-03,-1.31046e-02,6.25428e-03,1.36596e-02,-9.47207e-03,-5.99818e-03,2.20890e-02,-4.43176e-02,-4.20692e-02,3.33334e-02,1.39723e-02,-2.39879e-02,6.75232e-03,-9.16091e-03,-5.76362e-02,2.99938e-02,-4.04938e-02,-3.06672e-02,5.29269e-03,-1.31029e-02,7.68047e-04,-2.63461e-02,-4.29471e-02,-2.28618e-02,-9.31514e-03,3.93529e-02,-1.32259e-02,2.60425e-02,-4.41494e-02,2.97176e-02,-4.15686e-02,9.57762e-03,5.91326e-03,-4.07274e-02,
1.37647e+00,1.73476e+00,4.82590e-02,7.84599e-01,-1.89276e-01,4.30192e-01,7.59396e-02,7.97194e-02,3.28004e-01,-8.95927e-02,-6.14008e-01,-2.10226e-01,1.24437e-01,-9.30252e-01,-3.00591e-01,-7.91553e-01,2.11296e-01,1.28487e-01,1.22126e-01,3.93193e-03,4.26653e-01,-1.65071e-01,6.36747e-01,-3.43644e-01,-9.49673e-01,1.05023e-01,4.00557e-02,-3.07326e-01,-3.65398e-01,4.90087e-02,-3.37931e-01,1.47385e+00,-4.22216e-01,-6.07291e-01,1.00200e+00,3.08394e-01,4.87035e-01,-1.30914e-01,-2.43605e-01,5.33981e-01,-1.63919e-03,-1.24706e-01,-5.00827e-01,2.62510e-01,3.99925e-02,-1.06566e+00,1.59774e-02,-4.29074e-01,-5.82227e-01,1.72645e-01,
-1.30144e+00,-6.79178e-01,-3.73752e-01,-3.63561e-01,-4.42887e+00,2.30666e-01,-3.57654e+00,-1.39963e+00,-9.69235e-02,-1.37453e+00,-4.16093e-01,-8.91336e-01,-2.11567e+00,5.58596e-01,-5.24383e-01,-2.69678e+00,9.58900e-01,1.06481e+00,1.92268e-01,1.82966e+00,-4.76663e+00,1.40125e+00,9.50211e-02,-7.81801e-01,-7.23229e-02,-1.80779e+00,4.18004e-02,-5.31203e+00,1.01651e+00,6.16312e-02,-1.70446e+00,-5.47058e+00,-1.02140e+00,-1.27495e+00,1.77937e+00,1.07650e+00,3.36670e-01,-4.43845e-01,1.26101e+00,-4.66740e-01,-6.07205e-01,2.34436e-01,-1.97900e+00,1.03314e+00,1.51364e-01,-1.57072e+00,3.67399e-02,-5.90793e-01,-7.93120e-01,-9.74363e-01,
2.27431e-02,1.27239e-01,4.77892e-01,-6.15667e-01,-1.00475e+00,-5.74172e-01,-2.24611e+00,-1.41790e-01,-6.91399e-01,1.87171e+00,-1.16661e+00,1.03433e-01,-4.20433e-01,4.26948e-01,-4.46739e-01,-5.62588e-01,-2.28309e-01,1.94443e-01,-3.97399e-01,7.54116e-01,8.00113e-01,3.03799e-01,2.56846e-01,8.04571e-01,-6.92546e-01,-3.22789e-02,-2.08673e-02,-6.40672e-01,7.09354e-01,2.26649e-01,-1.78174e+00,-3.06734e+00,-2.39948e+00,1.22966e+00,-3.12020e+00,-1.03243e+00,-1.28798e+00,6.45489e-02,-5.24324e-01,-1.51427e-01,-2.17638e+00,-1.10391e-01,-1.69398e+00,8.58700e-01,-4.95785e-01,1.23213e+00,2.04461e-02,9.23559e-01,6.97859e-02,-3.26538e-01,
-3.76441e-01,2.88247e-01,1.79865e-02,2.36120e-01,-1.95470e-01,1.90637e-01,3.71861e-01,9.80165e-02,-7.91950e-01,1.89006e-01,-2.69422e-01,-1.20646e-01,-2.34783e-01,-5.51866e-01,2.47833e-01,2.99534e-01,4.80121e-02,3.36740e-01,-3.49257e-02,-8.78080e-02,3.02897e-01,-3.43685e-03,-2.42739e-01,-7.69195e-02,-9.77578e-02,4.35912e-03,-2.38566e-02,3.39322e-01,2.30868e-01,-1.91177e-02,2.71211e-01,4.58746e-01,-7.25027e-02,-2.09556e-02,-4.96062e-02,1.76534e-01,-9.47254e-01,-1.83241e-01,-2.25258e-01,1.53038e-01,8.57939e-02,-1.41158e+00,-2.09998e-01,2.78756e-01,-2.25849e-01,-5.26655e-01,3.40431e-02,-2.09193e-01,-8.20290e-02,-5.73187e-02,
8.00532e-02,-5.00394e-02,4.85395e-02,-7.14612e-01,-3.06076e-01,-1.12968e-01,-6.05228e-02,1.03632e-01,-9.80626e-01,3.57330e-01,2.74042e-01,-9.84344e-01,-2.44072e-01,2.68303e-01,-7.77625e-02,-7.11270e-02,6.76848e-02,-2.18711e-01,1.63926e-01,2.54419e-01,-3.83563e-01,1.93087e-01,-4.72148e-01,3.06983e-01,-1.10783e-01,-1.50193e+00,-4.60873e-02,-1.01271e+00,-2.41515e-01,1.39073e-01,8.26954e-02,9.23184e-01,-1.94313e-01,2.89619e-01,-2.71666e-01,5.56416e-01,3.49876e-01,9.73556e-01,-4.18856e-01,5.89118e-01,1.17426e-01,5.62580e-01,2.47817e-01,-1.75414e-01,2.47219e-01,-8.53197e-01,1.11529e-02,4.61001e-01,9.57479e-02,-9.15606e-02,
3.46900e-01,-3.08458e-01,4.12317e-01,3.35445e-01,-8.43644e-01,-2.74078e+00,1.03736e-01,-6.27308e-01,2.08110e+00,1.02090e+00,-2.42691e-01,3.12133e-01,6.93860e-01,-9.22367e-01,-4.28253e-01,-6.51191e-01,-3.76507e-01,-3.63736e-01,7.05228e-02,1.65822e-01,-1.58310e+00,-5.37866e-01,2.75387e-01,2.31708e-01,6.90955e-01,-2.24167e-01,3.73587e-02,-1.28233e+00,-1.90184e-01,3.01351e-01,-1.30999e-01,9.42902e-01,1.99710e+00,1.04323e-03,-1.81490e-01,6.28324e-01,-2.36080e-01,-9.00257e-01,6.27254e-02,2.48281e-01,-1.05748e+00,2.26386e+00,1.58041e+00,5.08364e-01,5.11900e-01,7.15974e-01,2.39973e-02,-1.47222e+00,-3.91758e-01,1.20046e+00,
-4.12379e-01,4.44344e-01,-3.99889e-01,5.85263e-01,-9.76524e-01,2.36639e-01,2.06561e-01,-7.91698e-01,4.70031e-01,-2.66106e-01,2.61452e-01,3.10897e-01,3.52175e-01,-9.15292e-01,1.11177e+00,-4.23524e-01,-3.35001e-01,-1.18666e+00,1.80036e-01,5.24844e-02,2.03324e-01,-1.28499e-01,9.11997e-01,-4.82334e-01,2.93590e-02,-1.46803e+00,-3.97153e-02,6.05738e-01,1.10696e-01,-2.79297e-01,8.82584e-02,4.61491e-02,-3.13224e-01,2.99392e-01,-6.22037e-02,-1.16626e+00,3.49827e-01,3.50366e-01,-1.37658e+00,2.87099e-01,-2.36859e-01,-6.93868e-01,1.10051e+00,5.06170e-01,4.73487e-02,-2.49291e-01,3.55985e-02,-5.72387e-01,-7.80418e-02,-1.36984e+00,
-8.69045e-01,-2.43179e+00,-2.87603e+00,-4.55084e-01,8.16362e-01,-3.18551e+00,1.96251e+00,2.92782e-01,-1.16251e+00,-5.05146e-01,3.42747e-01,4.21485e-02,6.18724e-01,-3.44005e+00,-1.83393e+00,1.03177e+00,7.25830e-01,-1.57007e-01,-1.23922e-01,-5.32759e-01,-1.01022e-01,-6.32011e-01,-3.69933e+00,-9.53202e-01,-1.41609e+00,1.06760e+00,-2.13603e-02,3.88918e-01,-3.02178e-01,-2.50995e+00,-4.01134e+00,6.44350e-01,-5.13022e+00,-3.47907e-01,1.95961e+00,-1.50570e+00,-3.75895e+00,5.33237e-01,-1.29312e+00,-2.62220e+00,4.52031e-01,6.94032e-01,5.59390e-01,2.05369e+00,-1.76202e+00,6.07912e-01,-2.98640e-02,-3.94414e-01,-1.65275e+00,-1.55054e-01,
-1.39097e-02,
-7.52888e-02,
2.07553e+00,
1.00026e-01,
-6.93448e-01,
-1.27075e+00,
-1.32052e+00,
-1.03554e+00,
-1.22031e+00,
-1.75459e+00,
-1.21183e-01,
-2.16261e+00,
-1.43069e-01,
-9.89630e-02,
6.19428e-01,
-2.32844e+00,
-9.35336e-01,
-5.63003e-01,
-3.33244e+00,
-1.34426e+00,
-4.38336e-02,
5.45651e-01,
-1.44573e+00,
-2.84542e-01,
-5.69242e-01,
-5.27671e-01,
3.31887e-01,
-1.16724e+00,
5.99635e-01,
-1.15376e+00,
