// Neural Network File Format by Kyle Julian, Stanford 2016
7,5,5,45,
5,45,45,45,45,45,45,5,
15,
499.0,-3.141593,-3.141593,100.0,0.0,
60760.0,3.141593,3.141593,1200.0,1200.0,
1.9485976744e+04,0.0,0.0,468.777778,420.0,8.2091785953,
60261.0,6.28318530718,6.28318530718,1100.0,1200.0,399.086622997,
1.44730e-01,-1.42178e-03,-1.28327e-03,-7.89436e-01,-4.21580e-01,
-7.56187e-01,-2.93059e-01,3.12114e-01,-2.60486e-02,-2.48499e-02,
-5.83443e-01,2.08045e-01,1.42802e-01,-7.37903e-02,3.40820e-02,
1.31436e-01,4.01199e-01,-4.43278e-01,-2.18817e-01,1.19157e-01,
8.34374e-02,-2.43179e-01,2.75723e-01,4.20118e-01,-7.60721e-01,
-2.18408e-01,2.35466e-01,4.31580e-01,3.98895e-01,-1.18459e-01,
1.57461e-01,-4.78234e-01,-2.31579e-01,2.66473e-01,-4.52591e-01,
-3.74066e-01,1.18034e-01,-8.27787e-02,5.43458e-02,1.06648e-01,
-1.29143e-01,3.74008e-02,5.78159e-01,2.93756e-01,9.22880e-02,
9.90139e-02,4.41849e-01,9.08718e-02,2.98482e-01,-5.19140e-01,
-2.24383e-01,-1.87615e-01,2.28636e-01,-4.25265e-01,2.72258e-01,
-2.00719e-01,-6.07755e-01,-3.68581e-01,2.38661e-01,-9.58640e-02,
4.09794e-01,-6.89345e-01,8.64034e-01,-4.15756e-03,-1.34415e-01,
-2.29624e-01,-9.35616e-01,9.50676e-01,2.20086e-02,2.66977e-01,
7.76325e-01,-2.20154e-01,3.27132e-02,-6.65763e-02,3.01286e-02,
7.86435e-02,-7.74201e-01,1.24832e-01,-1.44194e-02,1.55696e-01,
3.79282e-01,8.27919e-01,-8.72439e-01,-6.96619e-02,7.65178e-02,
-9.64236e-01,-2.14163e-01,-9.75127e-02,2.60025e-01,-1.01440e-01,
-8.60383e-02,1.75748e-01,-1.99485e-01,-3.69787e-02,1.30006e-01,
-8.80839e-02,8.20149e-01,-9.24519e-01,-3.48068e-03,3.02695e-01,
1.09418e-01,-3.12728e-01,-1.41352e-01,1.59271e-01,3.07080e-01,
2.04426e-01,4.53004e-01,4.19825e-01,-6.13632e-01,1.05217e-01,
8.52383e-02,6.82367e-01,8.27018e-02,4.12106e-01,-2.91561e-01,
5.73143e-01,-1.96265e-01,-9.28716e-02,3.03586e-01,-1.16788e-01,
1.27309e-01,1.05575e-01,1.22830e-01,-5.26654e-01,4.01466e-01,
4.92011e-01,6.66822e-01,-1.87932e-01,1.65646e-01,7.45192e-02,
2.31135e-01,1.53330e-01,1.54050e-01,-1.31926e-01,-1.05813e-01,
1.99907e-01,2.77332e-01,6.15296e-01,-1.38873e-01,2.83204e-01,
9.49065e-01,-3.53340e-04,5.30524e-05,5.10795e-04,6.05270e-03,
-1.07631e-02,-4.98723e-01,-6.45857e-01,-1.55532e-02,5.60236e-03,
-8.90657e-01,-2.24699e-01,-8.33978e-02,1.62080e-01,7.38363e-02,
7.79313e-01,3.06389e-01,8.93967e-02,2.13660e-01,-4.44364e-01,
-1.27150e-01,9.49567e-01,-9.74198e-01,7.95642e-02,-1.36014e-01,
1.76059e-01,1.87226e-01,-3.12640e-01,2.38248e-01,-6.00092e-01,
2.28270e-01,2.95299e-03,-4.23142e-03,7.34316e-01,-7.22738e-01,
-3.35963e-01,3.93948e-03,7.31130e-02,5.07501e-01,-8.26599e-01,
-5.17083e-01,4.50342e-04,1.41154e-03,-3.90438e-01,-3.31817e-04,
4.49488e-02,-8.42545e-03,-2.76935e-01,-2.34061e-01,3.31510e-01,
5.88774e-02,-4.37186e-01,-6.41063e-01,8.89626e-02,-4.56677e-01,
-9.80647e-01,1.85348e-01,-5.27035e-02,9.47611e-03,-5.46426e-03,
1.48629e-01,-4.77731e-02,6.83103e-02,-2.50139e-01,-1.07485e+00,
-5.17744e-01,2.83907e-01,-3.65428e-02,-3.53827e-01,-3.33522e-02,
-8.12865e-01,2.47030e-04,-5.47715e-02,-8.70840e-02,4.86597e-02,
2.66825e-01,4.87606e-01,-3.00718e-01,2.70396e-01,-5.23496e-01,
1.38489e-01,1.31071e-01,-5.49170e-01,-1.91790e-02,-7.48901e-01,
-1.25578e-01,
-1.07415e-01,
-8.23070e-02,
2.19185e-01,
2.02638e-01,
-6.82398e-02,
3.34183e-02,
-2.72877e-02,
1.03390e-01,
-1.27447e-01,
-5.80064e-02,
-1.46465e-01,
-5.17418e-02,
-2.68235e-01,
3.39065e-01,
1.86983e-01,
-3.12676e-01,
-1.28663e-01,
9.84380e-02,
-2.70273e-01,
-2.44541e-02,
-2.81100e-01,
8.10234e-02,
3.55837e-01,
-1.12608e-01,
8.24371e-02,
1.30455e-01,
1.58675e-01,
3.05275e-01,
3.13498e-02,
-4.61743e-02,
1.40755e-01,
-1.99460e-01,
1.69785e-01,
-7.66646e-02,
-9.52869e-02,
9.90880e-02,
1.32347e-01,
-2.94601e-01,
-3.34702e-01,
-2.89718e-01,
-1.12636e-01,
-2.06343e-01,
-1.68471e-02,
-2.20147e-01,
4.86399e-01,2.64089e-02,7.21724e-02,6.77021e-03,-3.78153e-02,-1.19229e-01,2.19595e-01,-5.74714e-02,3.46154e-01,6.24507e-02,1.05674e-01,9.07107e-02,1.02571e-02,-2.25095e-02,3.55427e-01,7.13419e-02,-9.79575e-02,-5.09453e-01,1.80750e-01,3.71415e-01,3.40100e-01,-5.44147e-01,2.62469e-02,-5.99504e-02,-3.52847e-01,4.65157e-02,9.53293e-02,-5.57686e-02,3.92448e-01,1.40527e-01,-1.96974e-01,-7.00246e-01,1.89549e-01,6.09384e-01,-5.86217e-01,2.57172e-01,1.55729e-01,-1.64031e-02,-2.42869e-01,-1.31315e+00,1.42898e-01,1.84777e-01,-1.18096e+00,1.51631e-01,3.90008e-02,
2.14353e-01,-4.11082e-01,-9.04737e-02,3.51323e-02,-2.31056e-01,6.20391e-01,-1.25400e-01,-1.22965e-01,1.61844e-01,1.49035e-01,1.71765e-01,6.63027e-01,-3.37356e-01,6.45668e-01,4.40963e-01,-2.06689e-01,-1.16755e+00,-4.11841e-01,-1.49449e-01,-1.88696e-01,-3.07549e-01,-6.36756e-01,2.16176e-01,-3.39194e-01,3.69422e-02,-1.51606e-01,2.37618e-01,5.01746e-01,2.66167e-01,-3.18182e-01,-1.71253e-01,-3.72542e-01,-8.69419e-01,-8.97963e-02,1.22442e-01,-3.72366e-01,3.44197e-02,-1.82401e-01,4.13015e-01,-3.80899e-01,-5.22452e-01,7.81749e-02,2.10720e-01,-4.03239e-02,1.08273e+00,
-2.68194e-01,-3.55002e-01,-1.55689e-01,1.50563e-01,-1.07414e-02,-5.24202e-02,1.61101e-01,-1.84757e-01,-2.60104e-01,-7.89379e-02,-3.29195e-02,-3.09727e-01,1.92687e-01,1.52156e-01,3.24921e-01,3.01942e-01,-8.18468e-04,-6.07382e-01,1.79910e-02,6.79891e-02,-1.69545e-01,-2.11749e-01,2.07535e-01,4.99930e-01,-8.93744e-02,-5.84924e-02,1.88368e-02,1.82868e-01,1.34707e+00,2.69066e-01,-4.56588e-01,1.83045e-01,-2.01631e-01,1.93418e-04,-1.41096e-01,1.09286e-01,-3.64354e-01,2.58927e-02,-3.88046e-01,-4.61682e-02,-7.60831e-02,2.24566e-01,-7.48394e-01,-1.77627e-01,7.89687e-02,
1.61093e-01,-6.83290e-02,-2.43490e-01,8.28255e-02,1.45006e-01,-2.26546e-01,2.66129e-03,3.90485e-01,2.44936e-01,-3.23984e-01,-1.54290e-01,-3.69696e-01,2.64501e-01,2.29034e-02,-3.98487e-01,-3.35021e-01,-6.69492e-01,-3.54382e-02,9.85756e-02,-1.37742e-01,-1.74161e-01,3.35996e-01,-1.97963e-01,1.16878e-01,-3.63248e-02,-5.95371e-01,-2.25161e-01,6.14938e-02,2.42887e-01,9.81102e-02,7.42648e-02,4.95563e-01,-3.08644e-02,5.16086e-01,-4.90453e-01,-2.50738e-01,-1.44782e-01,3.00101e-01,-9.84802e-01,-2.69816e-01,8.78853e-01,-4.64520e-01,-1.26463e-01,1.17822e-01,4.18674e-01,
1.49779e-01,-4.22874e-01,3.96659e-01,-3.64709e-01,2.22700e-01,1.53332e-01,3.73597e-02,-1.01099e-01,3.98306e-01,3.30296e-02,1.25759e-02,1.55301e-01,-1.65167e-01,-6.46687e-01,5.62658e-01,3.24681e-01,-1.09760e+00,-2.99362e-01,-1.14075e-01,-4.47557e-04,1.89638e-02,5.96121e-02,-1.78497e-01,2.73340e-01,-1.34024e-02,-7.65193e-01,5.82134e-01,3.60210e-01,4.04185e-01,3.24387e-01,-1.49253e-01,1.58387e-01,-5.45679e-01,-6.98273e-02,7.02710e-02,-3.05750e-01,7.73494e-02,4.39059e-02,7.75499e-01,2.52938e+00,4.94173e-01,4.00679e-02,-6.77281e-01,-4.09271e-02,-5.30497e-02,
2.05465e-01,-1.92150e-01,7.30440e-02,1.08205e-01,-2.58112e-02,2.58374e-01,2.91526e-01,2.09794e-01,-6.19818e-01,-5.13074e-02,8.12733e-02,2.74392e-01,-2.00625e-01,-8.00490e-02,-8.43567e-02,4.84478e-02,-1.11118e+00,-2.68586e-02,1.92585e-01,-1.12138e-01,-4.56784e-02,3.35132e-01,-3.27534e-01,2.82934e-01,2.32998e-01,2.02772e-01,2.07739e-01,-5.40552e-01,-9.17438e-02,1.01848e-01,-5.01503e-02,-2.47702e-01,-4.20972e-01,-4.94833e-02,3.27177e-01,-4.56915e-01,1.11206e-01,2.97505e-01,8.23066e-02,-2.21631e-01,1.38399e-03,4.11266e-01,2.92229e-01,-1.60764e-01,-4.73266e-01,
1.54626e-01,-1.98757e-02,5.86408e-03,4.22356e-01,-2.84236e-01,5.61168e-01,-4.34107e-01,1.99092e-01,-2.01285e-01,5.95071e-03,1.16799e-01,5.85685e-01,-4.22527e-01,-6.32508e-01,9.41568e-03,-3.11239e-01,-5.98330e-01,-1.22267e-01,2.85443e-01,-6.49676e-01,-6.09084e-02,-4.14753e-01,2.76043e-01,-1.68321e-01,-3.09707e-01,1.25530e-02,2.70508e-02,2.93608e-01,1.87963e-01,6.10556e-01,-1.56810e-01,3.04917e-01,-2.11386e-01,-6.20753e-01,2.68170e-02,1.17477e-01,2.53785e-01,2.21975e-01,-1.49164e-01,-1.78131e-01,-4.43740e-01,-2.73330e-02,-1.09236e-02,4.08836e-01,-6.19272e-01,
-1.41374e-01,-2.89152e-01,1.31962e-01,1.08147e-01,8.82939e-02,1.00256e-02,-4.87963e-02,9.64305e-02,2.96697e-02,3.34176e-01,-2.39744e-02,3.29035e-01,-6.05647e-01,-1.15266e+00,4.50436e-03,-1.97100e-01,-3.38879e-01,-6.73620e-02,2.39016e-01,-9.12555e-01,1.51240e-01,-1.69991e-01,1.93791e-01,-1.02377e-01,-5.01130e-02,6.71348e-02,3.96629e-01,3.99972e-01,1.74675e-01,6.45650e-01,1.35739e-01,1.55527e-01,-6.17992e-01,3.11363e-02,-4.53174e-01,2.18645e-01,6.65997e-02,2.92662e-01,3.17819e-01,7.67223e-01,2.15518e-01,-1.91169e-01,2.16428e-01,1.29275e-01,-5.62775e-02,
-1.81211e-01,-3.18564e-02,-7.06951e-02,-1.23611e+00,1.27649e-01,-4.57547e-01,-7.36560e-02,-1.26042e-01,2.20082e-01,-4.73188e-01,1.66599e-01,-4.48160e-01,5.04957e-01,7.98835e-01,2.29035e-01,4.86570e-01,7.13362e-01,3.28003e-02,-6.79681e-01,-2.05763e-01,2.71903e-02,1.41560e-01,-4.51832e-01,3.09004e-01,3.79377e-01,-1.68372e-01,-8.50355e-02,-1.95508e-01,-3.95619e-01,-1.68811e-01,-1.11804e-01,-6.70977e-02,-1.16011e-01,2.52175e-01,3.60057e-02,2.13802e-01,-9.31021e-02,-4.73857e-01,2.49594e-01,-1.66510e-01,-1.05464e-02,1.40893e-01,-2.81169e-01,5.98699e-01,-1.33706e+00,
-1.23748e-01,-5.97785e-01,1.00125e-01,2.00229e-01,4.43767e-01,6.90973e-02,-2.40698e-01,8.09879e-02,-7.16822e-01,-5.87824e-01,-4.08274e-01,-3.78741e-01,2.11616e-01,-1.52816e-01,-1.80148e-01,-8.25552e-01,-5.51871e-01,3.08542e-01,1.43576e-01,-2.21296e-01,-6.35157e-02,-1.65907e-01,-6.12891e-02,1.83357e-01,1.11803e-01,6.62894e-01,1.49006e-01,-3.39242e-01,-2.35615e-01,-5.66533e-02,1.12125e-01,1.56567e-01,-6.25210e-01,1.88425e-01,-3.63075e-01,5.28430e-01,1.37461e-02,-2.50707e-01,-7.93753e-02,1.17529e+00,8.24333e-01,1.69279e-01,-6.50419e-02,-4.74401e-02,-4.55525e-02,
2.53903e-01,-2.99305e-01,-2.73257e-01,1.59377e-01,7.38275e-02,1.74904e-01,-7.68556e-02,-3.78365e-02,3.93776e-01,-4.28425e-01,-3.50152e-02,2.75353e-01,-5.83579e-01,1.80248e-03,1.93278e-01,-2.23093e-03,2.62619e-01,-5.03896e-01,8.39881e-02,-6.74270e-01,-6.23068e-01,-6.35644e-01,-1.16396e-01,-9.30858e-02,-3.69096e-01,-4.22570e-01,-7.87502e-03,2.32513e-01,-3.28694e-02,-3.66267e-01,-2.64552e-01,1.06078e-01,-9.32045e-02,-4.05668e-02,3.03938e-02,-4.63744e-01,-3.07485e-02,3.53922e-01,3.32945e-01,-1.09629e+00,5.99380e-02,2.92065e-01,2.56072e-01,6.33760e-01,1.15357e-01,
7.45666e-02,3.40591e-01,2.68864e-01,-3.37932e-01,-1.66318e-01,3.56669e-02,2.83284e-01,3.71767e-01,5.68507e-01,-2.21122e-01,1.86607e-03,4.79030e-02,1.52369e-02,6.65919e-01,3.35676e-01,2.93441e-02,-8.59386e-01,-2.83507e-01,-2.22750e-01,2.00268e-01,-2.83050e-01,-9.19688e-02,-2.46027e-01,-1.91316e-01,-4.57978e-01,-2.81068e-01,-3.57384e-01,4.27216e-01,6.69719e-02,-1.17520e-01,1.02751e-02,-3.01216e-01,5.12772e-01,-2.87668e-01,5.22256e-01,-4.61312e-01,-4.02870e-02,1.83365e-02,1.52637e-01,-4.39751e-01,-1.37764e+00,7.03604e-02,1.37330e-01,2.47515e-02,2.39345e-01,
-2.26942e-01,-3.34713e-01,-3.14600e-01,3.90300e-02,5.99602e-01,-2.49811e-01,1.45990e-01,8.74097e-02,-1.30692e-01,1.18651e-01,-5.57505e-03,-1.59010e-01,2.59759e-01,-3.62607e-01,-6.82568e-02,-2.01573e-01,-1.30131e-01,1.99886e-01,-2.19839e-01,4.76168e-01,2.17063e-01,4.08322e-01,-1.29661e-01,7.06800e-01,3.02827e-01,8.05711e-02,-2.20478e-01,-4.28892e-01,-2.66602e-01,-3.02777e-01,-5.14851e-02,-2.27920e-01,4.96544e-01,3.64281e-01,-8.67574e-01,4.40994e-01,-2.65269e-01,-1.46548e-01,3.75464e-03,-5.02142e-03,4.70307e-01,-2.34515e-01,-8.42919e-01,1.96281e-01,-1.60812e-01,
-3.19973e-01,3.37204e-01,-3.30039e-01,4.38940e-01,1.79933e-01,-4.24999e-01,-2.52745e-02,5.44591e-02,2.07568e-01,3.17164e-01,-2.34868e-01,1.61460e-01,-3.86811e-04,-2.38788e-01,-1.36371e-01,1.48565e-01,-1.00342e+00,1.30726e-01,3.85627e-01,1.90172e-01,2.18818e-01,2.05135e-01,1.59114e-01,-2.91712e-02,-2.88515e-01,1.84806e-01,-1.20341e-01,1.63682e-01,-9.71879e-02,-4.25210e-01,3.90063e-01,8.42598e-02,-9.66426e-02,-6.51745e-03,-5.94948e-02,-3.56551e-01,-2.96486e-01,-9.86995e-02,8.98444e-02,1.05643e+00,3.22192e-01,-1.52677e-01,9.66882e-02,4.94117e-01,-2.51885e-01,
1.62199e-02,9.21239e-02,-2.18954e-01,-4.21225e-01,4.33674e-01,-1.19424e-01,9.16654e-01,-2.02922e-01,1.67131e-02,-2.58740e-01,4.84484e-02,-2.50182e-01,5.81885e-01,1.97940e-01,1.67122e-01,2.03732e-01,9.94356e-02,1.70122e-02,-3.22937e-01,-6.24771e-02,-4.39966e-02,8.67094e-01,-1.28516e+00,5.65503e-01,-2.56284e-02,1.11542e-01,-2.92219e-01,-4.41629e-01,1.39439e-02,1.03089e-01,1.82323e-01,-4.98960e-01,8.76794e-02,7.06903e-01,-3.45526e-01,3.50345e-01,-9.15931e-02,4.41589e-03,3.78322e-02,-3.03881e+00,2.68975e-01,-1.50717e-01,-5.70130e-01,-5.07770e-01,-3.37318e-01,
-6.37666e-01,3.76733e-01,4.01495e-01,-1.34851e+00,3.09291e-01,-5.22545e-01,-3.35956e-02,-3.33603e-01,3.98233e-02,4.63265e-01,-1.49830e-01,1.97454e-01,1.39040e-01,3.43259e-01,-2.79394e-01,-2.25520e-02,2.70660e+00,-1.90259e-01,1.95541e-01,-3.07015e-01,6.43641e-01,7.09522e-01,-6.11733e-01,5.36153e-02,-1.70867e-01,-6.13204e-01,2.93519e-01,-3.53495e-01,-4.88331e-01,3.62601e-01,1.22314e-01,1.53436e+00,3.44185e-01,-7.52126e-01,-1.69232e-01,4.35554e-01,1.46113e-01,-1.42942e-02,4.63718e-01,2.95331e-01,8.97135e-01,5.80933e-01,-1.64406e-01,2.46487e-01,-1.28438e+00,
1.05599e-01,5.33804e-01,9.31522e-02,-6.21893e-02,-1.89338e-01,2.27044e-02,-6.47983e-02,-4.62123e-01,-1.41917e-01,2.64659e-01,2.87300e-01,-6.94661e-02,3.82791e-02,-1.37329e-01,2.43784e-01,4.17051e-01,2.37058e-01,3.49009e-01,-6.21135e-02,-1.24849e-01,-1.74793e-02,-4.84954e-01,2.33620e-01,1.13872e-02,7.66140e-02,1.44670e-01,-2.05134e-02,-1.35367e-01,-2.49106e-01,-1.74632e-02,3.86613e-01,8.19476e-02,3.87981e-01,-4.05524e-01,-2.35715e-01,4.03861e-01,4.53331e-01,5.31664e-02,3.74791e-02,5.89467e-01,-2.37771e-01,2.87351e-01,3.38696e-01,-1.30727e-01,-4.28889e-01,
-3.74052e-01,2.93355e-01,4.15893e-02,-6.91795e-02,3.21538e-01,1.78571e-02,-1.56910e-01,3.24756e-02,5.05397e-01,3.10015e-01,-1.28475e-01,-4.66847e-01,-4.57987e-01,-2.57340e-01,-4.05023e-02,-8.95338e-02,8.34265e-01,3.46930e-01,-2.19894e-01,-2.34173e-01,9.47261e-02,-6.48062e-01,-7.13333e-03,9.89010e-03,-1.50337e-01,-1.68807e-01,2.16839e-02,2.40502e-01,-7.25314e-01,-3.83666e-01,1.29008e-01,2.00210e-01,-1.83145e-02,2.93630e-01,-6.68393e-01,3.05930e-01,5.33018e-02,-6.62372e-02,4.05647e-01,-4.92024e-01,-3.25496e-01,1.74023e-01,-4.26169e-01,3.82006e-01,2.15069e-01,
-5.39702e-01,1.90206e-01,6.02074e-01,1.37475e-01,-3.07714e-01,-1.11472e-02,4.05928e-01,1.95497e-02,9.26725e-02,1.19116e-01,-2.65968e-01,2.82834e-03,-9.45340e-01,-2.18425e-01,1.98608e-02,2.36814e-01,-7.50969e-01,1.38818e-01,2.24953e-01,-5.44711e-01,-5.66146e-02,2.66637e-01,-2.88246e-01,2.26409e-01,-2.20960e-01,-3.09239e-01,-3.14309e-01,3.25620e-01,4.61930e-01,-4.12243e-02,2.12886e-01,-4.31177e-01,-5.20597e-01,-1.00525e-01,3.78498e-01,-1.78619e-01,3.82516e-04,2.30696e-01,-3.04977e-01,9.79900e-01,-5.84492e-01,2.03294e-01,-1.42982e-01,6.20650e-03,-1.50365e-01,
-7.47293e-01,-3.05035e-01,-1.58585e-01,-4.04106e-01,2.83486e-01,-3.44846e-01,-3.84502e-01,8.38394e-02,4.32202e-03,-5.93205e-02,3.00129e-01,-9.41838e-01,2.60983e-01,3.40803e-03,1.03617e-01,-1.05893e-01,3.84834e-01,1.91604e-01,1.24689e-01,5.10644e-01,5.05154e-01,3.61366e-02,3.94136e-01,4.65366e-01,7.74291e-02,-1.50148e-02,5.28379e-02,-5.15084e-02,-3.32366e-01,5.04266e-01,1.61472e-01,4.04564e-03,-6.58349e-02,4.48032e-01,-8.73785e-01,5.92435e-01,1.24203e-01,-3.94096e-01,-2.34010e-01,7.64101e-01,4.60625e-01,-2.83600e-01,-3.68028e-01,5.04708e-01,3.10059e-01,
-1.96768e-01,1.09371e-01,-6.93460e-02,-1.44561e-01,-1.82897e-01,-1.37462e-01,1.70069e-01,4.87311e-02,-1.76599e-01,5.79194e-02,1.52668e-01,-8.41492e-02,-2.04201e-01,1.93332e-01,-1.71488e-01,1.10109e-01,-7.50964e-02,-1.80532e-01,-2.44504e-01,-7.75632e-02,-2.45593e-01,2.29460e-01,2.39585e-01,-2.27405e-01,1.33380e-01,-1.49140e-01,-2.80663e-01,-2.56350e-01,2.98886e-02,1.85997e-02,-1.68908e-01,7.41659e-02,-2.17301e-01,9.43180e-02,1.48512e-01,1.31756e-01,-1.51778e-01,-2.86692e-01,-1.28114e-01,9.92937e-02,2.31035e-01,-2.37518e-01,2.22036e-01,-9.70862e-02,-1.84730e-01,
1.30364e-01,3.22434e-01,-3.01592e-01,-2.91967e-01,-4.78984e-01,-3.07774e-01,2.57788e-01,2.60468e-01,-5.15052e-01,6.00822e-01,4.79234e-01,2.05293e-01,5.45791e-01,-2.42347e-01,1.63977e-01,1.62490e-01,1.34246e+00,4.50341e-01,-3.20709e-01,-1.47675e+00,-4.53942e-02,-7.91323e-02,4.41719e-01,-1.12071e-01,-3.25481e-01,-4.47079e-01,-1.52090e-02,5.22669e-02,-2.72098e-01,1.98648e-01,7.86220e-02,2.23397e-01,-7.09818e-01,-3.09633e-01,6.96890e-01,-3.50126e-01,1.59990e-01,2.91980e-01,4.05209e-01,-3.75723e+00,3.33289e-02,1.04708e-01,1.24604e+00,-7.53350e-01,6.12103e-01,
-5.30392e-02,3.33930e-01,2.90589e-01,2.10352e-01,-2.77801e-03,-1.74487e-01,5.54125e-02,-1.28629e-02,1.40522e-01,-1.87122e-01,-7.09151e-01,-8.40526e-02,1.48153e-01,-5.58700e-01,1.83041e-03,-9.08439e-01,1.63235e-01,5.68040e-01,2.14512e-01,2.75424e-01,-2.75690e-01,2.92016e-02,-8.57411e-02,-3.11096e-02,1.54152e-02,-2.51171e-01,-5.40216e-02,1.65351e-02,-1.00573e-01,7.40466e-02,3.12114e-01,4.08358e-02,-1.48865e-01,1.47585e-01,3.14744e-01,-2.09193e-01,3.83850e-01,2.03216e-01,3.34619e-01,2.99950e-01,-5.45191e-01,5.77058e-01,1.06943e+00,-3.34676e-01,-1.67817e-01,
-4.83959e-01,1.07880e-01,1.49158e-01,2.78684e-01,2.47225e-01,2.84199e-01,3.92125e-02,2.79773e-01,1.97391e-01,-2.25468e-01,-2.87999e-01,1.14424e-01,-6.45085e-02,-1.93728e-01,-6.72145e-01,-1.50290e-01,4.51550e-01,3.56135e-01,1.71915e-01,5.59986e-02,-2.83696e-01,-2.84273e-01,2.15387e-01,-3.19723e-01,-7.68920e-03,-3.27004e-02,2.08336e-02,2.90293e-01,-1.75602e+00,-2.71458e-02,5.79009e-01,4.62671e-02,-1.41309e-01,1.86643e-01,-3.98900e-01,2.98115e-01,1.89793e-01,-2.37096e-02,-1.83297e-01,1.19277e+00,-1.38104e-01,-3.21385e-01,3.90619e-01,-1.48514e-01,1.43105e-01,
-2.04582e-01,2.91135e-01,-7.34132e-02,4.80902e-02,-3.53106e-01,2.25010e-02,-4.58135e-01,5.07695e-02,-2.63653e-01,-5.59380e-01,4.26348e-01,-6.01245e-01,1.92198e-01,6.60390e-01,-3.83460e-01,1.33595e-01,-1.65866e-01,2.99072e-01,2.46500e-01,3.27335e-01,-2.49373e-01,-5.45472e-03,-1.50248e-01,6.32173e-02,-3.97074e-02,-7.28333e-02,-2.46108e-01,-2.19965e-02,-1.63153e-02,4.76589e-03,3.59300e-01,9.69007e-02,5.49880e-01,-2.11930e-01,5.15188e-01,-1.46402e-01,-2.30506e-01,2.06792e-01,5.97208e-01,-2.86268e-01,-6.38816e-01,3.94159e-01,7.57529e-01,-5.04714e-01,-3.59285e-01,
3.20652e-01,1.39918e-01,3.43023e-02,1.94658e-01,5.02394e-01,1.21152e-01,2.13019e-01,6.80848e-02,2.96542e-01,-2.35190e-01,-1.60090e-01,-7.72182e-02,2.00833e-01,4.24617e-01,4.90743e-02,1.19427e-01,1.43420e-01,-3.98351e-01,8.71479e-02,2.75716e-01,3.84798e-01,-3.25047e-01,3.55066e-01,-2.77217e-02,-4.37193e-01,5.35061e-01,2.53063e-01,1.55175e-01,-4.26066e-02,1.29009e-01,-4.91760e-01,7.21047e-01,-5.62827e-02,3.49455e-01,-3.27817e-01,-3.02056e-01,-2.42995e-01,-4.61874e-01,5.71114e-01,-1.08423e-01,2.23614e-01,1.25176e-01,-3.55250e-01,1.74888e-01,-1.53498e-02,
1.62580e-01,5.39554e-01,-8.15729e-02,-1.28643e-01,2.33190e-01,4.12264e-03,2.51430e-03,-7.78426e-02,1.96166e-01,-2.19555e-01,-3.44329e-01,1.97674e-01,-7.56024e-01,4.06207e-01,-4.58384e-01,-9.25312e-02,-2.24471e+00,5.20770e-01,-3.92150e-01,8.84240e-01,-2.68174e-01,-3.84078e-01,-6.29249e-02,-7.12301e-02,1.30557e+00,-3.87312e-01,1.96590e-01,-8.74644e-02,-8.86081e-01,-2.23264e-01,-7.44956e-02,5.97695e-01,-7.74603e-01,2.54400e-01,-7.25371e-01,6.75587e-01,2.34308e-01,-7.34966e-01,-6.44951e-01,1.37166e+00,5.10895e-01,-5.94359e-02,-1.02843e-02,-4.90462e-02,6.79784e-01,
5.43173e-01,-2.66409e-02,2.04143e-01,2.48720e-01,-6.09157e-01,-8.35863e-02,8.46952e-02,-7.67102e-02,-3.22183e-02,5.77173e-01,3.37656e-01,1.81707e-01,-8.45729e-01,-1.03686e+00,3.86325e-01,-1.07747e-01,-3.20215e-01,5.80094e-02,1.33535e-01,-9.64204e-01,-5.52003e-02,-8.02717e-02,-2.01712e-01,-5.38928e-01,-5.08325e-01,-3.68935e-01,1.71527e-01,3.21701e-01,2.45352e-01,1.18065e-01,-3.02184e-02,9.50614e-02,-1.07960e+00,-5.75976e-01,8.23611e-01,-1.04535e+00,2.98846e-01,3.45907e-01,-6.50427e-01,1.97838e-01,-5.27862e-01,-1.00928e-01,2.43496e-01,-5.40215e-01,4.65450e-01,
5.30871e-01,8.97013e-02,1.41063e-02,9.69726e-02,-2.38315e-01,1.39815e-01,-4.20745e-02,5.74152e-02,-3.36003e-01,2.29378e-01,5.23932e-01,-6.26786e-02,2.54200e-01,3.94677e-02,-1.89609e-01,-4.45945e-01,-6.40419e-02,3.43252e-01,2.40303e-01,-9.23668e-02,1.28557e-01,-1.03056e-02,3.10808e-01,1.57920e-01,-3.72838e-02,-1.08250e-01,2.72203e-01,9.02580e-02,-4.79074e-01,-2.32185e-01,2.21658e-01,-7.58486e-01,-2.07526e-01,-1.55003e-01,2.31342e-01,1.68352e-01,4.28598e-01,2.62191e-01,-8.87181e-02,6.22501e-01,-3.44548e-01,3.32920e-01,-1.91176e-01,-1.45703e-01,2.24768e-01,
-2.43263e-01,-1.11048e-01,2.77487e-01,-2.03951e-02,-2.00393e-01,-2.75476e-01,-2.24800e-01,3.87540e-02,4.75280e-01,2.52299e-01,-1.56898e-01,-2.87216e-01,-2.00852e-01,-4.50464e-01,-7.08000e-02,-6.53084e-01,-6.55755e-01,-8.60941e-02,1.40268e-01,-2.03528e-02,4.17733e-01,-8.02132e-01,2.43307e-01,1.69456e-03,-2.85536e-01,-2.72573e-01,2.74349e-01,4.49399e-01,2.63776e-01,-5.73531e-01,1.34397e-01,4.68467e-02,-1.23894e-02,-2.98586e-02,1.08044e-01,-2.80356e-01,-2.67734e-01,-1.01745e-01,2.99034e-01,4.92890e-01,-2.69136e-01,-1.00340e-01,-3.77638e-01,-2.72166e-02,5.62605e-01,
-2.07018e-01,-7.19925e-02,-1.19524e-01,1.88603e-01,2.66185e-01,2.82051e-02,-6.20436e-01,-9.19175e-02,2.08994e-02,8.68651e-02,-3.45636e-01,-7.86007e-01,5.47054e-02,1.23651e-01,-3.80600e-01,-1.33203e+00,1.05084e+00,-3.80122e-01,1.46163e-01,7.23525e-01,-2.14517e-01,-2.45727e-01,6.85236e-01,-1.15133e-01,3.14236e-02,1.35285e-01,5.37975e-02,4.37131e-02,-9.91276e-02,-8.72854e-03,-2.27503e-01,1.50089e-01,7.13080e-01,7.30804e-02,-6.44364e-01,3.53707e-01,-1.19463e-01,-2.49486e-01,-8.47469e-01,-2.26465e-01,9.52887e-01,-7.21979e-02,9.08577e-02,6.51733e-01,2.26886e-03,
5.62576e-01,-1.73088e-01,2.44072e-01,2.23998e-01,-8.66193e-02,-7.53581e-04,4.14808e-01,-1.14063e-02,6.67916e-02,3.02011e-01,-6.32715e-01,1.82374e-01,4.09077e-01,2.89549e-01,-1.31934e-01,-3.06123e-01,-4.54129e-01,-5.19302e-01,-1.42612e-01,1.04041e-01,2.87078e-01,2.20213e-02,-4.37943e-02,-5.34086e-01,-5.92512e-01,4.18534e-01,1.57898e-01,9.10620e-02,-7.71550e-01,1.82612e-01,-3.76495e-01,-5.71418e-01,-1.43769e-01,-1.73403e-01,4.26789e-01,2.15041e-02,3.15778e-01,9.20578e-02,2.57632e-01,6.40776e-01,1.25049e+00,5.15889e-01,5.40859e-01,1.33562e-01,6.05157e-01,
2.63495e-01,-5.22206e-02,-5.31147e-02,-1.66442e-01,-3.14352e-02,5.97180e-01,-2.88487e-01,3.09858e-01,8.07666e-02,4.54605e-01,1.89016e-01,6.23368e-02,-7.39083e-01,-6.16780e-02,8.80361e-02,-6.21487e-02,-4.23312e-02,2.74760e-02,-4.28091e-03,-6.66602e-01,1.52450e-02,-1.91438e-01,8.67187e-02,-4.68609e-01,-5.10143e-03,1.88823e-01,1.11120e-01,5.72217e-01,-5.28553e-02,1.04393e-01,-3.09286e-01,-4.35637e-02,-9.64616e-01,9.14221e-03,2.81837e-01,-3.43968e-01,1.79039e-01,3.08759e-01,-6.42078e-01,2.46946e-01,3.56901e-01,1.72356e-01,-3.67737e-01,-2.82561e-01,-8.24682e-01,
1.09326e-01,-1.41346e-01,-2.64155e-03,-1.92371e-01,2.17209e-01,1.46163e-04,-7.01586e-01,5.11325e-02,-2.04034e-01,6.61408e-01,3.42102e-01,-1.61921e-01,-3.21838e-01,-2.29398e-02,1.81161e-01,8.51075e-02,-9.60309e-02,-2.44622e-01,1.45107e-01,-1.12302e-01,-1.10181e-01,-8.44563e-01,4.52211e-01,1.74152e-01,-3.14118e-01,-2.64432e-01,-4.19491e-01,-5.11094e-02,4.00434e-01,1.78241e-02,4.99473e-02,1.88465e-01,-1.00812e-01,-3.74918e-01,-2.18542e-01,3.14010e-01,-2.17033e-01,3.68015e-01,-2.11575e-02,4.15511e-01,7.13989e-02,-2.93367e-01,-4.98529e-01,3.00442e-01,1.82745e-01,
1.23085e-01,-4.41857e-01,-3.42872e-01,3.43189e-01,-9.72157e-02,-4.25207e-01,-1.09458e-01,4.81235e-01,-1.35883e-01,6.14942e-01,-3.32136e-01,1.32664e-01,6.09434e-01,-2.26328e-01,-2.83448e-01,-1.85201e-01,-2.27457e-01,3.99312e-01,3.57521e-01,-5.22733e-01,4.60585e-01,-4.57087e-01,1.20896e-01,2.91072e-01,-4.60882e-01,5.15379e-02,-1.48959e-01,-3.32074e-02,-6.23930e-03,2.19930e-01,4.65935e-01,-1.30082e-01,-5.56683e-01,-1.81573e-01,-2.30487e-02,-4.12347e-01,-2.59464e-01,3.97639e-01,9.50697e-02,1.83080e+00,-9.15784e-01,1.43262e-02,6.15789e-01,-1.57163e-01,-1.71879e-01,
5.92628e-01,2.93549e-01,3.68211e-01,-1.56756e-01,3.93383e-02,1.04150e-01,-3.09360e-02,6.26742e-02,2.09142e-01,7.33078e-02,2.36318e-01,-1.66152e-01,-1.45518e-01,1.17780e-01,-2.24694e-01,-1.46887e-01,-2.20255e-01,5.86455e-01,-7.73208e-02,1.06989e-01,-1.78139e-01,3.49551e-02,9.52548e-02,-2.02722e-01,-4.15520e-01,-1.59677e-01,1.67253e-01,1.15891e-02,-2.38822e+00,1.42654e-01,4.52936e-01,-5.85529e-02,-9.83431e-02,-6.69067e-02,1.89802e-01,-2.99917e-01,5.42151e-01,7.76728e-02,6.76029e-02,7.47068e-01,6.12624e-02,3.19370e-01,8.61964e-01,4.49881e-02,2.81838e-01,
-3.31887e-01,-2.17086e-01,-1.17166e-01,-5.67463e-02,7.47317e-03,-1.45326e-01,-4.26845e-01,-1.47482e-03,2.11576e-01,4.95460e-01,-5.66940e-02,-7.13120e-02,-4.68026e-02,-1.40028e-01,3.20154e-01,-3.18249e-01,-2.59508e-01,6.03750e-02,-1.43157e-01,9.97455e-02,-2.80530e-01,1.35198e-01,-3.84780e-02,4.10472e-01,-3.75894e-02,2.51236e-01,3.64576e-01,1.34373e-01,8.20119e-01,5.04786e-02,-3.80631e-01,-5.18304e-01,-2.81203e-01,-8.39531e-02,-2.04850e-02,-1.04191e-01,2.28395e-01,1.76041e-02,3.60559e-01,-1.02701e+00,8.42981e-02,-9.06617e-02,-5.97805e-01,-4.62188e-02,4.55867e-01,
-3.74341e-01,2.30668e-01,6.05390e-02,4.86420e-02,-1.66648e-01,-4.38350e-01,-3.39486e-01,-2.70817e-01,1.20604e-01,-3.48559e-01,2.44673e-01,-7.15748e-02,9.52294e-02,-1.13722e-01,1.97691e-01,3.20198e-02,-3.69919e-01,-1.87512e-01,1.92336e-01,-3.54389e-01,6.44466e-01,-2.45776e-01,3.83547e-01,-1.37547e-01,-2.60799e-01,-8.79196e-02,-9.65170e-02,-8.13496e-01,2.66682e-01,-1.07102e+00,3.29105e-01,6.57497e-01,-1.02795e-01,1.27651e-01,-1.22746e-01,1.43467e-01,2.73960e-02,3.77694e-02,1.53604e+00,1.20023e+00,-9.26422e-01,9.88855e-02,2.79374e-01,2.19426e-01,-3.73027e-02,
-4.89650e-02,2.80753e-01,2.77839e-01,1.62143e-01,4.89536e-01,-2.11677e-01,2.35316e-01,-7.82158e-02,2.33775e-01,5.14885e-02,-1.94554e-01,4.41996e-01,-3.02011e-01,8.72239e-02,-4.01182e-02,-1.62622e-02,2.40400e-01,1.20279e-01,1.33750e-01,4.95514e-01,-6.89641e-02,-3.14228e-02,-6.52725e-02,2.17680e-01,-1.16176e-01,5.91688e-01,1.02854e-01,-1.40802e-01,5.02063e-01,9.01431e-04,-2.62657e-02,-1.23860e-01,3.07415e-01,-2.34306e-01,2.76155e-02,-1.40437e-01,-3.92011e-01,1.19545e-01,3.64617e-01,-1.91841e+00,-3.51634e-01,1.92081e-01,-7.92679e-01,-3.59373e-01,9.94534e-03,
6.03859e-01,-4.13029e-01,-7.69411e-02,4.00289e-01,1.59771e-02,3.25690e-01,1.58651e-02,-3.97743e-02,-6.09165e-02,-1.10244e-01,1.47639e-01,6.44365e-02,4.39188e-02,-5.78129e-02,5.47381e-01,-1.48630e-02,2.08358e-01,-3.62822e-01,-6.47179e-02,-2.18848e-01,4.54228e-03,2.53373e-01,2.74798e-01,4.20498e-01,-2.62323e-01,-7.61527e-03,8.97332e-02,-2.57418e-03,1.37118e+00,-1.98575e-01,-4.06003e-01,2.50247e-01,-1.87405e-01,-1.10228e-01,4.39379e-01,-2.63690e-01,1.72722e-02,4.92155e-01,1.68938e-01,-1.43510e+00,-5.78173e-01,1.42739e-01,-8.24943e-01,-2.12059e-01,-9.11793e-02,
1.83364e-02,2.33103e-01,-3.81667e-01,-6.46387e-02,2.91513e-01,2.50128e-02,-9.34838e-02,2.14389e-01,-1.17894e-01,-3.19747e-01,1.80562e-02,-9.34132e-01,-8.18919e-02,6.44525e-01,-7.61757e-01,-7.02311e-01,-8.23161e-01,3.84215e-02,2.81428e-01,-1.15590e+00,-1.64949e+00,2.71149e-01,3.59524e-01,7.61830e-02,-8.83725e-01,6.33358e-01,1.82328e-01,-5.23865e-02,-2.23510e-01,-2.52525e-01,2.38357e-01,-4.18729e-01,3.95395e-01,3.39829e-02,-4.37132e-01,4.53170e-01,-1.01582e-01,-5.64512e-01,-5.97678e-01,9.67506e-02,-1.01344e+00,-4.73531e-01,7.26327e-01,1.07971e-02,7.81179e-01,
7.24755e-01,-5.13565e-01,5.34603e-01,7.06866e-02,-3.83278e-01,-2.17967e-01,3.22396e-01,5.34017e-02,-1.86947e-01,6.10255e-01,6.59092e-01,1.96824e-01,-1.16938e+00,-2.44538e-01,-7.87661e-02,-1.10718e-01,-4.69339e-02,1.76783e-01,1.03136e-02,8.82928e-03,-2.47725e-01,1.31366e-01,-2.95447e-01,-1.78810e-01,1.16966e-01,7.66988e-03,-3.50477e-01,1.67797e-01,-1.05091e-01,4.14688e-01,1.65132e-02,-1.03817e+00,-8.88756e-03,-7.44576e-01,5.06876e-01,-6.95637e-01,-2.85855e-01,-2.51602e-02,-7.28494e-01,1.21032e+00,-2.85909e+00,4.95483e-01,5.66924e-01,-6.05783e-01,-1.15409e-01,
1.12825e-01,-6.63664e-02,-6.35923e-02,-2.46307e-01,-2.03119e-01,2.04613e-01,-1.81802e-01,-2.42295e-02,-4.77029e-02,-1.11449e-01,2.54269e-01,2.56587e-01,-2.16446e-01,1.91851e-02,-2.05693e-01,1.96303e-01,1.77537e-01,7.06176e-02,-2.52053e-01,1.78622e-01,9.98049e-02,6.46661e-02,-1.55146e-01,-6.81336e-02,-2.20413e-01,1.26613e-01,2.17355e-01,2.20802e-01,-2.16952e-01,-1.94801e-01,9.78621e-02,1.88540e-01,-2.25528e-01,-1.14788e-02,8.54659e-02,-6.43584e-02,-5.31764e-02,-2.06222e-01,9.32418e-02,2.06127e-01,2.53188e-01,-1.15141e-01,-1.48341e-01,7.36155e-02,1.15322e-01,
-1.78737e-01,-7.50754e-01,-1.35805e+00,-1.40322e-01,-1.00398e+00,-5.71846e-02,-8.82415e-02,4.78642e-02,1.46541e-01,-4.02927e-01,-2.64019e-01,4.53133e-02,-1.75804e-02,-3.74798e-01,6.31704e-02,1.97137e-01,-5.19736e-02,-2.09440e-03,4.71376e-01,-4.62331e-01,5.98949e-01,-2.53784e-01,-7.53695e-02,1.50284e-01,-2.45175e-01,-5.94089e-01,-1.00097e-01,-2.37970e-01,1.27608e-02,4.25429e-01,-6.37667e-02,-3.35724e-01,-1.41209e+00,6.76180e-01,5.67033e-01,-2.89327e-01,-8.06640e-02,4.47802e-01,-3.95808e-01,-1.74204e-01,-1.76466e-01,-4.84302e-01,-8.31501e-01,3.37065e-01,3.09975e-01,
2.00438e-01,3.96949e-01,4.06288e-02,-3.82687e-01,3.02532e-01,-9.32616e-01,-2.58950e-01,-1.58190e-01,-3.56254e-01,6.06473e-02,9.08986e-02,-4.18125e-01,2.54912e-01,-4.34457e-01,3.00425e-01,1.12445e-01,1.13124e-01,1.39124e-01,-4.25090e-01,-9.98009e-02,-4.01488e-01,-1.28101e-01,7.49028e-02,7.61292e-02,-3.46926e-01,-2.92299e-01,3.29427e-01,-4.99653e-02,-3.79753e-01,-1.38749e-01,-9.21929e-02,4.36352e-01,-1.06670e-01,-8.52962e-02,-6.21546e-01,1.21297e-01,2.46839e-01,-1.30032e-01,4.99470e-02,9.90324e-02,4.39346e-01,5.35955e-02,-2.93993e-01,3.05295e-01,8.39470e-01,
-3.28928e-02,
1.63861e-01,
2.64641e-01,
1.83290e-01,
9.96869e-02,
2.91919e-01,
2.03206e-01,
2.80327e-01,
-3.23333e-01,
7.71209e-02,
2.33604e-01,
1.84965e-01,
1.63486e-01,
3.36682e-02,
-2.83541e-01,
-2.28922e-01,
-9.91112e-02,
1.30949e-01,
8.00101e-02,
-2.14925e-01,
4.63822e-02,
-8.33045e-02,
-3.68220e-02,
-2.21465e-02,
-2.51141e-02,
-1.16649e-01,
-1.85156e-01,
1.19683e-01,
-2.09203e-02,
3.86631e-01,
1.01793e-01,
-1.60740e-01,
2.55619e-01,
2.06115e-01,
1.31308e-01,
-2.16119e-01,
3.27135e-01,
1.58185e-01,
-6.67801e-02,
1.58852e-01,
-3.25420e-02,
8.34219e-02,
-2.26970e-01,
-2.50617e-02,
1.28132e-01,
2.68540e-01,4.28544e-01,3.27176e-01,5.97734e-02,-5.81242e-01,6.42995e-01,-2.70667e-01,-1.43035e-01,-2.70298e-02,1.89419e-01,-5.49830e-01,-5.68892e-01,6.17053e-01,-3.30422e-02,-3.47474e-01,1.06962e-01,5.55309e-02,-3.97376e-02,-3.93403e-01,-5.87756e-01,8.40222e-02,2.61741e-01,2.67479e-01,3.91581e-01,2.43276e-01,1.20573e-01,3.66823e-01,4.66325e-01,-1.57314e-01,-4.23004e-02,-2.75881e-01,-2.30704e-03,-4.45798e-01,-1.88276e-01,7.41134e-01,-3.80987e-01,-1.56790e-01,-3.38391e-01,-4.49055e-01,2.37764e-01,-1.33380e-01,-3.11725e-01,2.40146e-01,-2.74255e-01,-1.34106e-01,
1.52834e-01,-5.14623e-01,-6.01726e-01,2.72334e-02,5.36792e-01,-1.91777e-01,-1.66141e-01,-4.29576e-01,-3.57208e-01,4.87141e-01,-2.84098e-01,4.28246e-01,-1.17203e-01,-3.24313e-01,-2.66039e-01,-2.60614e-01,2.49242e-01,6.35078e-01,2.17319e-01,-5.41220e-01,-2.53792e-01,4.42434e-01,-9.67682e-02,2.55569e-01,-5.40040e-02,-2.69826e-02,-5.94243e-01,8.47372e-02,-2.74621e-01,-9.26175e-02,-3.93228e-01,1.86744e-01,6.09062e-02,3.77377e-01,-5.23115e-01,4.40054e-01,9.37110e-03,1.04632e-01,9.53335e-03,-3.35493e-01,-1.93018e-01,-3.81658e-01,-1.69275e-01,-4.07849e-01,1.36588e-01,
2.37541e-01,-5.93037e-02,-1.25797e-01,1.89866e-01,-3.80810e-01,2.78783e-01,-5.00290e-01,-3.91864e-01,-4.93371e-01,4.62103e-01,-1.24150e-01,3.78202e-01,-5.36744e-01,2.79104e-01,2.50408e-02,2.43018e-01,-3.82227e-01,3.16721e-01,-1.90007e-02,5.89459e-02,1.65809e-01,-1.63484e-02,2.99960e-01,5.71369e-02,-1.63918e-01,-1.40737e-01,-5.73474e-02,-3.44754e-01,4.35989e-02,4.66203e-01,-1.95395e-01,-3.19335e-01,5.23905e-01,8.66796e-02,-1.80449e-01,-6.32966e-02,-1.33543e-01,8.92429e-02,5.78969e-01,1.10710e-01,-4.88094e-01,-2.25939e-01,-6.71262e-02,-2.84030e-01,2.60835e-01,
-1.46938e-01,-1.31665e-01,-1.54092e-01,-8.23158e-02,-1.27659e-01,-1.96095e-01,1.00050e-01,2.19562e-01,9.55014e-02,4.72182e-03,-5.34382e-02,-2.23908e-01,1.18473e-02,-1.05674e-01,-9.18523e-02,-2.38796e-01,6.26758e-02,8.78230e-02,-2.73620e-01,-1.08105e-01,-2.16467e-01,-2.10208e-01,-6.97291e-02,1.94547e-01,2.06575e-01,-1.97632e-01,8.08233e-03,-1.35523e-01,-2.00099e-01,-1.01460e-01,-1.54325e-01,6.72464e-02,2.06180e-01,-2.66244e-01,-1.83005e-01,-6.16383e-02,4.47145e-02,1.46215e-01,2.35160e-02,1.84433e-01,3.97326e-02,3.90467e-02,2.50580e-01,-2.27275e-02,1.67363e-01,
-1.42118e-01,-1.02384e+00,-2.70236e-01,1.73714e-01,-3.98542e-01,3.04393e-01,-1.77334e-01,1.20464e-01,-2.69640e-01,7.99310e-02,-6.68800e-03,-5.55216e-01,5.08303e-02,4.99418e-02,2.99554e-01,2.19467e-01,-5.55387e-03,-1.40650e-01,1.24933e-01,5.75308e-01,-1.67092e-02,6.75819e-01,3.81863e-01,3.72985e-01,2.85709e-01,-5.74072e-01,-6.88170e-01,-3.37991e-01,4.35931e-01,-1.42122e-02,-1.81629e-01,8.01310e-02,-1.93811e-01,2.73900e-01,6.44344e-01,-1.72102e-01,-8.48248e-02,-9.25414e-02,2.52505e-01,1.79878e-01,-2.11286e-01,-3.68687e-01,1.41484e-02,-8.86330e-02,-8.77296e-02,
-7.02681e-02,-4.65916e-01,1.16974e-01,-1.98319e-01,-1.22804e-02,2.50852e-01,-8.58585e-01,-1.57120e+00,-3.31740e-01,-1.86946e-01,1.33490e-01,9.56783e-02,-1.15246e+00,2.08253e-01,5.77205e-01,-7.45561e-02,3.41435e-01,9.29773e-02,3.16061e-02,3.93917e-02,1.05051e-01,-4.36305e-02,1.99738e-01,7.07283e-01,-7.86298e-04,-1.12541e-01,6.10764e-01,1.01440e+00,-2.66539e-02,-3.04813e-01,-1.39229e+00,-3.36892e-01,3.31138e-01,1.92796e-01,6.96106e-02,-3.30220e-01,-1.99805e-01,1.44475e-01,-4.38298e-01,2.06008e-01,-9.13434e-01,8.52901e-01,6.20211e-02,3.49741e-01,7.23004e-03,
-2.62543e-01,3.65552e-02,1.01390e-01,-2.65115e-01,-2.27093e-01,-3.86138e-02,-9.36569e-02,2.86107e-02,-6.58814e-02,1.23543e-01,-1.97401e-01,2.20517e-01,-6.90666e-02,-1.76779e-01,-2.60094e-01,-1.40225e-01,1.50510e-01,-9.80797e-02,-8.75654e-02,-2.93397e-02,-4.51412e-02,-8.82131e-02,1.19143e-01,-1.78273e-02,-1.59916e-01,-5.32174e-02,2.48261e-01,-1.52767e-01,1.54295e-01,-2.41285e-01,-4.21037e-02,-1.20906e-01,2.33336e-02,-9.40890e-02,1.43050e-01,-1.27845e-01,1.68581e-01,-3.13218e-02,-1.48029e-01,2.96466e-03,-2.26792e-01,1.71813e-01,1.22715e-01,8.03994e-02,-8.54064e-02,
-1.39703e-02,2.83947e-01,-3.34519e-01,-2.14179e-03,3.10454e-01,-4.13750e-01,1.11107e-01,-4.52670e-01,4.58352e-01,4.11397e-01,1.40626e-01,6.81280e-02,3.47969e-01,1.77318e-01,7.46096e-01,9.31863e-02,-7.01139e-02,4.65507e-01,-1.20290e-01,-2.44072e-01,-1.38557e-01,-7.84521e-01,5.13326e-02,1.16970e-01,-1.35080e-01,-2.29838e-01,9.55678e-02,-3.29854e-01,7.24805e-02,-3.12923e-01,-7.64191e-02,-1.50933e-01,-1.21053e-01,2.31633e-01,4.22576e-02,4.59893e-02,3.70905e-01,1.61962e-01,-2.38908e-02,-2.61975e-01,1.34248e-01,4.66954e-02,7.84740e-02,7.07962e-01,1.90244e-02,
3.32103e-01,1.73452e-01,-4.63378e-01,3.74962e-01,-1.69588e-01,1.62823e-01,2.66612e-02,-2.81423e-01,-4.82211e-01,-4.88065e-01,3.51524e-01,-2.12195e-01,-2.13668e-01,-9.77183e-02,6.97632e-01,1.90824e-01,-4.80672e-01,-2.28587e-01,1.61032e-01,2.08318e-01,-1.23660e-01,-2.30289e-01,-1.27169e-01,-1.76410e-01,8.88250e-02,2.65075e-01,-7.33863e-01,7.52766e-01,-2.61107e-01,4.17959e-01,8.41398e-02,2.20332e-01,3.45047e-01,3.94901e-01,-1.10060e-01,2.34329e-01,-1.76541e-01,8.03468e-02,1.47151e-01,2.98444e-01,5.48267e-01,6.80605e-02,-1.05746e-01,1.18511e-01,2.58593e-01,
-5.80420e-01,3.79201e-02,-5.19622e-01,1.32905e-01,-1.57860e-01,2.11033e-01,-3.42866e-01,-1.31011e-01,7.92678e-01,-1.34313e+00,2.61200e-01,-2.96965e-01,1.01101e-01,4.11116e-01,2.67578e-01,-3.69358e-01,2.78862e-01,4.29279e-01,-9.87120e-02,-1.90941e-01,1.85084e-01,1.72398e-01,-4.76276e-01,-2.34775e-01,-2.03018e-01,-4.92719e-01,-5.94924e-01,-5.37594e-02,1.83059e-02,-3.19625e-01,-6.25630e-02,6.78533e-01,-5.24141e-02,-5.02286e-02,7.28501e-02,-5.13376e-01,-3.14199e-01,1.22840e-01,-9.25161e-02,5.73975e-02,-5.59102e-02,4.57615e-01,1.06281e-01,2.53225e-01,4.99123e-01,
6.57042e-01,4.16029e-02,6.39373e-01,1.93946e-01,4.33961e-01,1.91124e-01,-1.79998e-01,-3.34636e-01,4.88725e-02,4.43209e-01,1.84241e-01,-9.42609e-03,-1.25616e-01,-1.35031e-01,2.85499e-01,-2.38992e-01,-1.20548e-01,-1.06883e-01,3.76457e-01,-2.09377e-01,-1.38515e-01,-3.72200e-01,-2.24098e-01,-3.76468e-01,9.25241e-02,4.16847e-01,7.53630e-02,-1.62068e-01,-2.43707e-01,1.61790e-02,1.19256e-01,3.48430e-01,-1.26172e-01,1.03116e-01,-9.47792e-02,-4.90973e-01,2.57952e-01,1.96236e-02,3.03235e-01,4.09503e-01,2.41528e-02,2.85852e-01,2.24426e-01,1.79676e-01,2.79251e-01,
3.47608e-01,2.37950e-01,-2.50757e-01,-7.09924e-01,-3.53898e-01,-1.31982e-01,3.91932e-01,1.48203e-01,3.07996e-01,-3.21321e-01,9.39042e-02,-3.18216e-01,-2.12601e-01,1.51563e-02,5.11273e-01,9.52675e-02,2.40982e-01,-8.73367e-02,3.78390e-01,2.20483e-01,1.01718e-01,-1.67669e-02,9.85487e-02,-1.56761e-01,2.08845e-01,3.17145e-01,4.10788e-01,2.55100e-01,-1.56417e-01,4.29308e-01,3.29791e-01,6.30268e-01,2.08981e-01,-9.38841e-02,-2.17243e-01,4.79614e-01,-3.00718e-01,-5.12277e-02,7.79347e-02,-7.06992e-01,3.83658e-01,6.41610e-02,1.97075e-01,6.44860e-01,-2.35151e-01,
3.44290e-01,-2.31013e-01,-2.50161e-02,2.18953e-02,-1.83968e-02,-7.62956e-02,-3.61920e-01,2.45785e-02,-1.15663e+00,3.67384e-01,2.87833e-01,2.44472e-01,4.78974e-02,-1.05440e-01,-6.87935e-01,9.21540e-01,-8.44305e-02,4.53663e-01,-4.08837e-01,4.82219e-01,-2.71402e-02,-3.56598e-01,1.98958e-01,-1.96538e-02,3.41780e-02,-3.06256e-01,-5.42759e-02,-9.16616e-01,-7.31366e-03,-9.03885e-02,-1.88449e-01,2.59250e-01,-1.57891e-02,2.11842e-01,-6.44161e-02,-4.53148e-01,1.98117e-01,-2.34208e-02,2.53907e-02,-6.84022e-02,1.01384e-01,4.43530e-01,-1.29414e-01,-4.62936e-01,-7.65056e-02,
1.19828e-01,2.59334e-02,6.66327e-02,1.58057e-01,-2.86839e-02,-1.51267e-02,2.93172e-01,1.40636e-01,-2.37460e+00,-1.12674e-01,-1.95569e-01,3.55039e-01,1.11587e-01,-4.00416e-01,5.46811e-01,4.34436e-01,1.01045e-01,-3.21171e-03,2.04689e-01,1.20446e-02,3.64552e-02,-9.01294e-03,7.52882e-02,3.33361e-01,-4.40303e-02,4.33797e-01,1.82337e-01,-1.02919e+00,-1.10394e-01,2.64511e-01,-2.90835e-01,-3.12613e-02,7.44710e-02,1.33662e-01,5.93876e-02,-2.56008e-01,1.57997e-01,-1.01601e-02,3.68435e-02,-1.29917e-02,-5.24524e-01,3.06422e-01,2.67915e-02,-1.72031e-01,-2.03750e-01,
7.36662e-02,3.23579e-01,1.15111e-01,4.01862e-02,-7.73140e-02,1.96084e-01,2.67217e-01,4.31478e-01,7.34862e-01,-9.00162e-02,-2.80441e-02,-3.85105e-01,2.61626e-02,2.67325e-01,7.80037e-01,-3.19059e-02,1.29957e-01,-6.04975e-02,3.88174e-02,-8.94306e-01,-5.84748e-02,-2.64146e-01,-5.21036e-01,4.23671e-01,1.10982e-01,2.10329e-01,-2.25977e-01,1.56135e-01,-4.87906e-01,-2.70704e-01,5.51378e-01,-4.65316e-01,4.39778e-02,4.28236e-01,9.59770e-03,-9.28015e-03,-3.06606e-02,-6.95715e-02,1.76084e-01,-1.68732e-01,-1.52176e-02,-1.78294e-02,-8.50067e-02,-6.02739e-01,1.42032e-01,
-2.37401e-01,-4.51794e-02,-2.63392e-01,1.87398e-01,4.20617e-02,-5.83604e-02,2.02917e-01,2.28801e-01,1.09214e-01,7.88414e-02,-2.83653e-01,-1.42463e-01,1.16886e-01,1.08678e-02,1.52345e-01,-2.22860e-01,-1.70438e-01,-2.45600e-01,-1.10662e-01,1.01591e-01,8.89739e-02,-2.10647e-02,-1.86080e-01,1.28017e-01,1.36653e-01,-9.34876e-02,2.03197e-01,2.00862e-01,9.39808e-02,-8.09931e-02,8.51213e-02,7.71559e-03,-2.78424e-01,-2.79790e-01,-1.70252e-01,1.71751e-01,-5.70944e-03,-2.38562e-01,-2.49849e-01,1.53313e-01,1.36169e-01,1.54819e-01,2.25957e-01,-1.31757e-01,-1.63074e-01,
1.92904e-01,4.18211e-02,-1.74136e-01,4.70827e-02,-8.01943e-02,8.10827e-02,-8.68477e-02,7.18998e-02,1.82250e-01,-1.01500e-01,-8.22282e-02,-2.30862e-01,-8.58022e-02,7.17078e-02,-4.15388e-02,-8.98719e-02,4.47499e-03,-1.14000e-01,-2.26988e-01,-9.24179e-02,-1.28876e-01,2.24558e-01,-2.29313e-01,-9.60576e-02,-4.78322e-02,-1.88141e-01,3.78636e-02,-1.69402e-01,8.97722e-02,3.67322e-02,1.35879e-01,-1.45314e-01,-2.10891e-01,-1.81260e-01,-2.10802e-01,-1.45600e-01,2.14430e-01,1.90795e-01,-4.69043e-02,-1.10664e-01,9.29743e-02,-6.97272e-02,2.48429e-01,-1.32466e-01,-2.87332e-03,
-1.40191e-01,-1.62538e-01,-2.08558e-01,-1.59692e-01,-1.53246e-01,-5.36125e-01,-1.40275e-01,7.22757e-01,-7.71445e-01,4.22503e-01,3.55057e-01,2.95597e-03,-3.65926e-01,1.26826e-01,-8.28317e-01,5.71042e-01,-3.89294e-01,1.57905e-01,1.51939e-01,-1.92790e-01,-1.58756e-01,9.14285e-01,-4.48427e-01,1.34481e-02,-1.92422e-01,2.41470e-01,-5.09617e-01,-1.07518e+00,1.80257e-01,4.73747e-01,3.78918e-02,1.03533e-01,6.36838e-01,-3.09629e-01,-3.80345e-01,1.32499e-01,2.17940e-01,6.01272e-02,-2.08316e-01,1.43627e-01,5.94438e-03,-3.54100e-01,1.34512e-01,-3.66630e-01,1.86314e-01,
1.45054e-01,-3.48158e-02,-8.21694e-01,9.52197e-02,2.19872e-01,1.75188e-02,-1.27475e-01,-1.39379e-02,2.14619e-01,7.61694e-01,-1.41606e-01,-4.49384e-01,3.89007e-01,4.75149e-02,1.07303e-01,4.22943e-02,2.65455e-01,8.45480e-02,-6.39935e-02,-3.54929e-01,2.69139e-02,2.96485e-01,-2.31157e-01,3.63455e-01,-3.79207e-02,1.51689e-01,-1.10168e-01,-1.68586e-01,1.25516e-01,8.36278e-02,-2.63945e-01,-3.02750e-01,7.96795e-02,-3.71250e-01,8.12889e-02,7.69504e-01,2.01407e-01,-1.69626e-01,6.26916e-03,-7.14183e-01,2.01977e-01,-2.51880e-02,-2.19901e-01,6.53826e-02,2.77464e-01,
3.91068e-02,1.58737e-02,-7.04805e-01,9.18208e-02,4.91408e-02,1.48586e-01,-7.40584e-02,2.20939e-01,2.74981e-01,8.34545e-02,4.95602e-01,-1.84673e-01,-3.78514e-01,-1.31781e-01,-3.78111e-02,3.07507e-01,2.70302e-01,2.79325e-01,2.05810e-01,3.01348e-02,-5.43350e-02,-2.46449e-01,-2.77347e-01,-2.64775e-01,1.25566e-01,-9.38489e-02,1.48055e-01,-8.73506e-02,1.74709e-01,-2.45703e-01,2.09023e-01,6.24967e-01,-8.26425e-02,-1.24942e-01,-2.66876e-01,2.38334e-01,1.22492e-01,2.97491e-01,2.27396e-01,6.75687e-02,5.98296e-02,-8.21822e-01,2.39001e-01,2.44032e-01,-4.45981e-02,
-2.76912e-01,-1.48262e+00,-5.20054e-01,-3.71003e-01,-3.59962e-01,1.93761e-01,2.30278e-01,-2.62777e-01,-5.16636e-01,1.82628e-01,-2.03482e-01,4.10714e-01,-6.96258e-01,4.50899e-01,-6.16184e-01,1.11981e-02,-3.85482e-01,4.10793e-03,-2.39309e-01,1.33615e-01,-1.70546e-01,-4.53147e-01,5.29689e-01,1.09052e-01,-4.51806e-01,-3.41920e-01,6.20455e-02,9.31130e-01,4.24699e-01,3.80237e-01,3.66786e-01,1.33948e-01,-3.59398e-01,-4.22501e-01,-2.92610e-01,-2.72511e-02,-2.53063e-01,3.43776e-01,6.07564e-01,4.09261e-01,-1.54561e-02,-9.25069e-02,-2.51821e-01,-1.93188e-01,-6.21771e-01,
-3.37061e-02,-2.43423e-01,-8.25878e-02,2.21168e-01,-4.74305e-01,-3.17477e-03,2.12449e-01,1.67682e-02,-4.72066e-02,2.33952e-01,1.75679e-01,5.11152e-01,1.69120e-01,9.74197e-03,-2.64016e-01,4.70496e-01,2.58148e-01,-1.89529e-01,-3.60030e-01,5.04366e-01,2.03672e-01,5.29220e-01,-6.86213e-04,9.19097e-02,-5.08961e-02,-7.34528e-02,-3.95345e-01,6.12495e-01,2.15312e-01,1.97309e-01,-1.48470e-01,5.26213e-01,3.63420e-01,1.84396e-01,-5.04791e-01,3.11135e-01,2.26594e-01,8.81497e-01,-4.24524e-01,5.14090e-02,-1.10020e-01,2.38057e-01,9.78114e-02,-8.91716e-01,-1.97341e-01,
3.90202e-01,8.88120e-02,-3.08953e-01,3.55701e-01,-1.18563e-01,3.07830e-02,8.26414e-02,-8.31177e-02,7.85908e-02,-8.83945e-03,-6.03895e-02,-1.12520e-01,-1.81678e-01,-2.88839e-01,5.38525e-01,3.23748e-01,1.11560e-01,1.96962e-01,6.80361e-02,-2.91760e-01,1.85790e-01,2.20319e-01,5.07643e-01,1.24446e-01,-6.30472e-01,2.99509e-01,-3.81424e-01,-2.19644e-01,2.43647e-01,6.03790e-02,1.03526e-01,4.96646e-01,9.11932e-02,-8.28760e-02,1.07815e-01,2.54175e-01,-2.40869e-01,3.07285e-01,-4.13904e-01,3.52601e-01,-5.32693e-01,-4.72398e-01,-1.57796e-01,-1.42945e-02,5.74133e-01,
-5.35804e-02,-2.81268e-01,-6.02525e-01,1.40620e-01,-3.92724e-02,2.24989e-01,2.24881e-01,1.20278e-01,-2.72404e-01,-2.80821e-01,4.50508e-01,4.27409e-01,-5.57419e-02,2.24316e-01,-1.26687e-01,-4.94164e-01,-2.07112e-01,2.05430e-01,1.25399e-01,1.26533e-01,-1.75720e-01,-8.51227e-02,2.47121e-01,6.24479e-01,8.22934e-02,-2.97392e-03,-5.18932e-02,-4.17807e-01,3.83535e-01,1.91358e-01,-8.14821e-02,3.03470e-01,3.43943e-01,1.01725e-01,-1.18772e-01,4.31594e-01,-1.40789e-01,-5.02689e-01,1.61264e-02,-8.15605e-02,1.75010e-01,3.19333e-01,1.05397e-01,-4.02917e-01,2.94916e-01,
-3.90514e-01,1.89765e-01,5.82131e-02,1.01347e-01,-4.71585e-01,1.93312e-01,2.03584e-01,1.37876e-01,-2.53661e-01,-6.82050e-01,9.20079e-01,-1.24581e+00,4.50831e-01,3.66018e-01,9.29159e-02,-1.12861e+00,-6.14417e-01,-2.30354e-01,1.27322e-01,-3.35522e-02,1.33846e-01,-1.71433e-02,-1.04973e-01,-3.35288e-02,3.70604e-01,-1.42223e-01,4.92201e-01,-2.14845e-01,-8.87093e-03,4.53002e-01,-3.36043e-01,-1.18539e-01,-9.28240e-02,-1.25025e-01,5.86775e-01,5.79936e-02,-1.07368e-01,-3.71851e-02,1.15491e-01,-4.96606e-03,5.00332e-01,1.96907e-01,1.43366e-01,1.42573e-01,4.64458e-01,
-1.27385e-01,-6.29294e-02,2.15145e-01,-6.90049e-02,-7.23657e-01,4.30415e-01,4.74206e-01,-7.60952e-03,3.84652e-01,-9.22587e-03,-7.11261e-02,2.34768e-01,-2.17668e-01,3.25827e-02,3.61024e-01,-7.37789e-03,-1.46555e-01,-3.19603e-01,1.43467e-01,1.46858e-01,-9.12901e-02,-2.94964e-01,7.51021e-01,-1.05871e-01,1.20659e-01,9.81219e-02,4.37857e-01,-6.19962e-01,1.22265e-01,2.85751e-01,-1.98486e-01,2.01791e-01,1.44348e-01,3.13339e-01,5.37409e-02,-9.24849e-02,-5.05914e-02,1.36159e-01,9.24636e-02,3.65303e-02,-7.52145e-03,-3.70140e-01,-2.02942e-01,-3.49822e-01,-5.74314e-01,
-4.39002e-01,-2.99825e-01,1.56950e-01,9.05079e-02,-2.67143e-01,-7.24942e-02,-2.81388e-01,1.42393e-01,-3.69152e-01,-1.44859e-01,-7.98272e-02,1.88179e-01,1.08767e-01,1.41452e-01,-1.22721e-01,5.50837e-01,4.04461e-02,8.79807e-02,-3.88392e-02,2.90839e-01,-6.88339e-02,2.46466e-01,-1.04487e-01,3.25259e-01,2.79072e-01,-9.65193e-02,4.84361e-01,6.61378e-01,-1.39046e-01,3.41233e-01,-2.45931e-02,-1.87794e-01,-1.63190e-01,-1.57024e-01,4.26690e-02,-1.16128e-01,4.02937e-01,2.33535e-01,-9.88604e-02,-6.92835e-02,-4.48389e-02,1.27528e-01,2.57347e-01,-7.36876e-01,-3.22598e-01,
-1.00252e-01,-9.12889e-01,-2.34841e-02,-9.32016e-02,-6.92307e-01,2.10994e-01,2.93477e-01,2.79428e-01,-1.11199e-01,-3.26271e-01,2.84940e-02,-2.00894e-01,-1.01979e+00,5.64219e-02,2.51003e-01,4.52200e-02,1.36546e-01,-2.03261e-01,-3.11179e-01,6.57478e-01,1.56738e-01,1.68013e-02,9.53353e-03,1.54697e-01,-4.50644e-01,-2.52071e-01,6.20982e-01,-9.45478e-01,-9.75519e-02,3.39395e-01,-4.16874e-01,2.85068e-01,-2.06525e-01,-4.95274e-01,7.26768e-02,3.85712e-01,3.36547e-01,1.19551e-01,1.27170e-01,2.78415e-01,-9.29674e-01,-2.68866e-01,5.79685e-02,-4.33913e-01,-2.79347e-01,
1.61566e-01,1.82651e-01,5.87394e-02,4.05467e-01,-3.21965e-01,-2.26963e-02,-3.71692e-01,-5.15236e-01,-1.62210e-01,7.25161e-02,3.77923e-01,6.00185e-01,1.34314e-01,3.31901e-01,-2.93962e-01,8.18644e-02,-8.16732e-02,-1.12194e-01,-2.36609e-01,2.65340e-01,2.08142e-01,6.38351e-01,2.88313e-01,-5.00752e-02,2.00513e-01,8.36899e-02,-4.60648e-01,-1.39911e+00,3.27372e-02,-1.14806e-01,-1.42661e-01,2.70237e-01,-9.11785e-02,-5.70287e-02,-1.63125e-01,-3.25077e-01,6.20735e-02,2.88203e-02,7.66200e-02,3.86401e-01,-3.07463e-01,3.09572e-01,6.39231e-02,-4.57756e-01,7.52047e-02,
1.53112e-01,-4.60842e-01,-3.87347e-01,7.78014e-01,-1.97658e-01,-3.52093e-01,-8.46760e-02,2.38454e-01,-1.04852e-01,-1.98726e-01,-7.44382e-01,-3.74414e-02,-1.65622e-01,-4.48238e-01,-5.79105e-01,2.42416e-01,-2.03593e-01,4.49527e-01,-2.56276e-03,2.09342e-01,2.57796e-01,-1.00731e-01,1.00970e-01,-1.01313e-01,2.35818e-01,-2.40787e-02,-1.97316e-01,-1.00175e-01,-1.60601e-01,-4.80654e-01,2.61149e-01,2.61252e-02,4.02094e-01,8.28085e-02,9.61267e-02,1.60845e-01,1.38349e-01,-3.70863e-01,4.82906e-03,-2.46109e-01,4.87608e-01,1.12478e-01,1.74097e-01,-6.50789e-02,-9.12434e-02,
-1.10196e-01,-1.50791e-01,3.43632e-01,-6.63651e-01,5.64541e-01,-5.85510e-02,-1.91983e-01,-2.85828e-01,-9.10085e-01,9.80584e-02,1.76176e-02,2.34504e-02,-4.61584e-01,4.08259e-01,-1.99580e-01,-1.64716e-01,2.12081e-03,-3.39168e-01,-7.16730e-02,3.91493e-02,1.63449e-01,4.81555e-01,-1.13281e-02,4.82848e-02,-7.20298e-02,-1.32171e-01,-3.02213e-01,-4.08486e-01,-4.13723e-01,4.26011e-01,2.37421e-01,-1.14528e-01,2.26289e-01,1.50681e-01,-2.40752e-01,3.29610e-01,-2.36670e-02,-5.17157e-01,-6.16801e-01,1.17191e-01,3.13154e-02,1.86577e-01,2.01201e-02,5.58336e-02,1.04976e-01,
1.66695e-01,7.89859e-02,-4.08503e-01,1.03021e-01,-2.13497e-01,9.15888e-02,-1.00704e-01,-3.58125e-01,-2.33423e-01,2.21645e-01,3.95315e-02,2.26742e-02,-1.29685e-02,1.54727e-01,-8.76388e-02,2.08482e-01,-2.38730e-01,-6.19258e-02,3.91859e-01,1.31355e-03,-1.20199e-01,1.96412e-01,-2.88152e-01,2.22552e-01,2.50729e-01,1.93103e-01,-3.32382e-01,-3.23347e-01,-3.70939e-01,2.65129e-01,-3.01655e-01,-9.96954e-02,-1.32972e-01,-6.79892e-02,2.45275e-01,-1.17860e-02,-1.48396e-01,-3.74467e-03,3.05024e-01,-3.65847e-01,-7.87294e-01,-1.61889e-01,2.32796e-01,-3.35143e-01,-4.93077e-01,
2.36305e-01,-1.07272e-02,2.47886e-01,3.13135e-02,4.61044e-01,4.51281e-02,-2.70295e-02,-1.06725e-02,8.45445e-02,-3.94112e-01,2.52043e-01,1.48925e-02,4.80176e-01,1.30470e-01,-3.76786e-01,2.69947e-02,-3.76379e-01,2.48433e-01,1.21338e-01,-2.62116e-01,8.30350e-02,2.75969e-02,-6.18277e-01,-3.93428e-01,-1.30511e-01,5.35753e-01,6.64633e-02,6.85338e-01,2.44679e-01,-1.70487e-01,-3.33468e-01,4.96399e-01,-3.52989e-02,-6.58999e-02,9.58399e-03,-4.63872e-01,-1.41077e-01,-1.08903e-01,-1.31963e-01,-7.75907e-02,5.98719e-01,-2.39503e-01,-1.03021e-01,-7.09658e-04,3.21901e-01,
-1.77670e-01,-7.20844e-01,-3.14017e-01,-1.80169e-01,1.70853e-01,-2.04998e-02,-1.98137e-02,-1.17012e-01,9.24555e-01,1.89523e-01,-3.05262e-02,-5.48729e-01,1.58218e-01,-5.32019e-01,-6.50448e-01,-1.53138e+00,3.85220e-01,-3.49643e-01,4.20939e-01,6.08383e-01,4.43572e-02,4.88652e-01,2.92698e-01,-2.45035e-01,2.58992e-01,-2.18490e-01,3.92692e-01,-4.29686e-01,1.71754e-01,5.80415e-01,-1.98884e-01,2.12907e-01,-6.67624e-01,-3.59248e-01,7.38606e-02,3.30893e-01,1.64074e-02,-2.34015e-01,3.66110e-01,2.53218e-01,3.04830e-01,2.16260e-01,-1.61106e-01,5.40361e-01,-1.00686e+00,
1.98743e-01,3.66899e-01,2.10624e-01,-1.35474e-01,2.28021e-01,4.56835e-02,4.03048e-01,3.43755e-01,4.94690e-01,-1.25031e-01,3.01016e-01,-1.75489e-01,1.69820e-01,1.39886e-01,1.24658e-01,2.94129e-01,-3.65946e-02,3.96947e-02,1.58995e-01,-2.84764e-02,5.29782e-02,1.35090e-01,-1.58053e-01,-2.74052e-01,-5.85965e-02,-8.60852e-02,-4.40056e-01,3.27340e-01,-2.40912e-01,4.49679e-01,3.83833e-01,-1.46394e-01,9.98356e-02,2.94456e-01,-3.87782e-01,-6.82414e-01,5.04187e-01,4.55009e-02,1.78122e-01,4.41113e-01,5.08243e-01,-3.50951e-03,-1.83203e-01,1.90178e-01,1.24974e-01,
-1.22744e-02,1.81665e-01,-1.20006e-01,1.06803e-01,-6.76948e-03,-2.41739e-01,1.35679e-01,-3.48538e-01,-1.05257e+00,1.29299e-01,-1.88205e-01,1.95649e-01,2.08356e-01,2.22350e-01,-4.86897e-02,-1.33250e-01,6.13735e-01,2.17739e-02,-4.44973e-01,2.65097e-01,-1.11425e-02,3.68859e-01,1.29012e-01,-2.17975e-01,3.03046e-01,-5.10275e-01,2.41027e-01,-3.89765e-01,4.46944e-01,1.57660e-01,2.65035e-01,-2.78153e-01,-1.08531e-02,-1.97119e-01,-2.17850e-01,-5.94742e-02,3.71715e-02,-7.08281e-02,2.25199e-01,1.49576e-01,-4.00497e-02,-1.03256e-01,2.48613e-01,5.62417e-02,-1.34300e-01,
4.29333e-01,-2.87462e-01,1.02805e-01,-2.25157e-01,-2.03187e-01,-3.84959e-01,4.58630e-01,3.40717e-01,5.93261e-01,-1.33249e-01,-1.11548e-01,1.62527e-01,-6.51019e-02,-9.78526e-02,-1.00662e-01,-5.01518e-01,-1.43414e-01,6.21894e-02,6.99947e-02,-1.24306e-01,3.96072e-02,6.21846e-02,2.05245e-01,-1.91991e-01,-8.35430e-02,6.22950e-02,-2.26555e-01,6.94741e-02,1.47233e-01,-9.82107e-02,-2.03341e-02,-5.89060e-01,8.36443e-02,-2.78710e-02,-9.83394e-02,-7.31790e-01,3.99435e-01,-1.89035e-01,3.48985e-02,-3.79179e-02,-5.38451e-02,-2.62326e-01,2.31280e-01,-7.85568e-01,1.71117e-01,
-6.52331e-02,-2.92550e-01,2.05050e-03,-2.36083e-01,2.46571e-01,1.19121e-01,-5.17145e-01,5.67234e-02,-1.07060e+00,2.82945e-02,-1.17994e-01,-3.14679e-01,2.16211e-01,-2.45467e-01,-2.87185e-01,1.90796e-01,3.08173e-01,-9.77306e-02,6.10400e-03,-5.44344e-02,-1.18706e-01,-8.98153e-02,2.75937e-01,-1.70529e-01,-2.86937e-01,8.76034e-02,-3.22824e-01,-6.56166e-01,3.39907e-01,-2.54557e-01,-2.90119e-01,2.54042e-01,2.34815e-01,-2.35024e-01,6.01893e-01,2.12030e-01,2.67462e-01,3.67604e-01,-2.49803e-01,-1.33291e-01,-1.62175e-02,-7.51825e-01,-7.01336e-02,3.67608e-01,1.06399e-01,
-1.34990e-01,-3.10580e-01,2.58598e-01,-4.59638e-01,-5.69009e-01,-4.68727e-01,-1.06576e-01,-8.86337e-01,1.20069e+00,4.00942e-01,-2.48623e-01,1.58385e-01,7.12848e-02,-5.91413e-02,-9.52161e-01,4.21006e-02,-6.20873e-02,-2.41589e-01,2.57221e-01,4.27386e-01,-1.83568e-01,-5.77430e-02,2.14563e-01,3.49817e-01,2.47464e-01,-9.41673e-02,-1.81648e-01,-2.92133e+00,3.78264e-02,4.46761e-01,-6.38637e-02,-6.84705e-01,1.43259e-01,2.66546e-01,5.03610e-01,-2.76736e-01,1.17700e-02,-2.84503e-01,-1.15123e-01,2.92330e-01,1.14446e-01,2.93465e-01,-9.27560e-02,4.23421e-01,-5.50962e-01,
1.47515e-01,5.89769e-02,-2.50381e-01,-2.23762e-01,-2.05541e-01,1.37602e-01,-1.83196e-01,-1.53492e-01,-1.35201e-01,2.44330e-01,3.54238e-02,-1.82117e-01,-6.05672e-01,1.28238e-01,9.31561e-02,3.34087e-01,3.51966e-01,-7.17286e-02,1.48829e-01,2.13424e-01,-1.85862e-01,5.31487e-02,1.79235e-01,-3.80732e-01,-6.95832e-01,-1.58127e-01,5.53195e-01,-7.49592e-01,2.88108e-01,-5.94082e-02,-4.20489e-01,-5.26488e-01,5.52433e-02,1.12633e-01,4.59546e-02,-5.46592e-03,3.75495e-01,5.07427e-02,-5.79606e-01,3.91167e-01,3.55999e-03,2.34486e-01,2.05635e-01,-7.64348e-02,8.25974e-02,
-2.96614e-01,3.27732e-01,-3.79017e-01,-1.28210e-01,7.01478e-02,4.71078e-02,-9.50540e-02,-3.13200e-01,5.98410e-02,5.70066e-02,4.34709e-01,2.77570e-01,-1.37176e-01,3.47785e-02,-2.56378e-01,3.78719e-01,-7.01814e-03,2.18713e-01,2.70082e-01,4.49533e-01,2.19186e-01,-9.38888e-02,4.92679e-02,4.72175e-01,-1.74809e-01,2.36525e-01,-5.65426e-01,4.53030e-01,-9.67352e-02,5.81616e-02,9.67757e-02,-7.73349e-02,-2.39629e-01,1.63909e-01,-4.30104e-02,4.39866e-01,-9.64232e-02,3.16391e-01,-9.52278e-02,-2.19098e-01,1.72079e-01,4.33970e-01,-2.37763e-01,-1.03181e-01,4.44796e-01,
1.01898e-01,4.16885e-01,-5.25096e-02,2.01364e-01,1.51374e-01,-1.28150e-01,-4.66950e-01,-2.12477e-01,1.16226e+00,4.26666e-01,-5.46337e-01,1.03257e-01,2.36884e-01,4.61896e-01,3.59831e-01,-6.29440e-01,2.05545e-01,1.83871e-02,-2.44851e-01,-7.11998e-01,4.28785e-02,-1.17268e-01,1.37621e-01,-1.50100e-01,2.16087e-01,-3.61698e-02,4.85206e-03,8.24949e-01,-9.01665e-02,-4.56444e-01,9.92695e-01,2.62796e-03,-5.57409e-01,-7.09349e-02,2.00370e-01,1.15980e-01,-1.20400e-01,3.61185e-01,2.39861e-01,-4.28085e-02,9.13877e-02,-2.31610e-01,-2.18541e-01,3.10594e-01,-1.61134e-02,
-5.69560e-01,-1.55602e-01,-1.62793e-01,8.75895e-02,2.75353e-02,6.16878e-01,5.59751e-03,1.39705e-01,3.56480e-02,-6.57113e-01,2.96429e-01,-3.25776e-01,-2.46056e-02,-3.61815e-01,-4.07268e-01,-2.54501e-02,7.73072e-02,-5.35586e-01,7.24688e-01,1.06943e+00,1.51059e-01,-1.97403e-01,-2.61586e-01,-4.21287e-01,-3.25928e-01,5.72619e-03,4.28897e-01,-5.15567e-01,1.84449e-01,-2.33449e-01,-1.14665e+00,3.47929e-01,2.63768e-01,-3.22469e-01,4.94959e-01,-8.42764e-02,-3.08785e-02,1.32980e-02,-2.61391e-01,2.89842e-01,-6.01984e-01,-2.89110e-01,-1.89813e-01,-1.54349e-01,1.82497e-01,
-4.64521e-02,-3.44707e-01,1.48564e-01,4.19983e-01,4.58537e-01,1.78504e-02,-1.25570e-01,1.93798e-01,-9.88325e-02,-3.45334e-01,5.78826e-01,-9.17017e-02,-4.37272e-01,-1.21360e-01,4.57766e-01,-5.45316e-01,1.30830e-02,-3.65093e-02,1.12947e-01,-1.15368e+00,-6.93526e-02,2.31862e-01,-1.07040e+00,-5.31319e-01,2.98980e-01,5.69091e-01,5.91513e-01,5.64496e-01,-1.33666e+00,-5.23493e-01,7.05164e-01,1.26246e+00,1.01663e-02,3.37062e-02,3.08026e-01,-1.24304e+00,-4.56331e-01,2.14989e-01,-1.70643e-01,-7.91420e-02,1.10132e+00,-1.43610e-01,-2.47069e-01,1.53186e-01,4.94927e-01,
-1.74443e-01,-1.58558e-01,-2.04969e-01,3.52387e-01,-6.13630e-01,1.80131e-01,2.81039e-01,7.36062e-03,-1.66699e+00,-4.41693e-01,1.25261e-02,-3.17134e-03,3.36599e-01,9.59244e-02,-7.82227e-01,-7.48686e-01,1.19207e-01,5.98939e-02,4.74891e-02,2.18799e-01,-2.46673e-02,2.95540e-01,-2.62207e-01,-5.35647e-02,-4.46378e-01,-3.88185e-01,-1.58873e-01,-4.45548e-01,1.11481e-02,-1.17854e-01,-3.06511e-01,2.32450e-02,-4.49519e-01,2.06645e-01,-3.55964e-01,1.74162e-01,3.38704e-01,2.43181e-02,-8.48471e-03,2.89765e-01,-4.84906e-01,-8.02075e-02,6.48715e-02,-1.82804e+00,-7.53819e-02,
7.37979e-02,
8.89826e-02,
1.50746e-01,
-2.60873e-01,
-1.89882e-01,
-9.39370e-02,
-1.89987e-01,
1.62994e-01,
1.60103e-01,
3.18344e-01,
2.09281e-01,
-2.48867e-02,
3.34225e-01,
-1.26844e-01,
-5.68875e-02,
-2.07057e-01,
-9.52063e-02,
7.95172e-02,
4.51903e-02,
1.51296e-01,
4.09677e-02,
-8.74274e-02,
4.13475e-02,
-7.64996e-02,
-3.48052e-01,
-1.60720e-01,
3.06955e-01,
1.80525e-01,
1.50075e-02,
-2.40104e-01,
1.40752e-01,
-2.47034e-01,
7.06232e-02,
-8.07183e-02,
-4.75568e-02,
1.36900e-01,
2.56518e-01,
3.82055e-01,
-1.97383e-01,
2.56936e-01,
1.81948e-01,
1.90654e-02,
2.79054e-01,
-2.15591e-01,
2.33256e-01,
1.04906e-01,1.76935e-01,1.74197e-01,1.65936e-01,-2.74725e-01,4.57036e-01,-2.13093e-01,3.64679e-02,2.84680e-02,2.92987e-01,1.39956e-01,-4.67543e-01,1.44082e-01,-2.40339e-01,3.38389e-01,-6.77915e-02,-2.13010e-01,2.58606e-01,-2.72091e-02,3.80242e-02,-3.23612e-01,3.94288e-01,-5.50329e-02,-1.08583e-01,-9.82810e-02,-3.11591e-01,9.41238e-02,-9.42185e-02,-1.28017e-01,5.35941e-01,-5.09996e-01,-1.02400e-01,1.56728e-01,1.13543e-01,2.31580e-01,-1.77382e-01,1.76051e-01,-6.68119e-02,2.39603e-01,-1.98402e-01,-2.46048e-01,5.43179e-01,-1.62720e-01,5.20280e-02,-2.47788e-01,
-1.72787e-01,4.11167e-01,-1.31197e-01,-5.85666e-02,-1.08078e+00,-5.05498e-01,-2.43191e-01,2.47155e-01,-3.11471e-01,-6.17243e-01,1.42589e-01,6.60217e-01,5.91327e-01,-5.56623e-01,1.29997e-02,-1.98816e-01,2.35883e-01,-3.37925e-02,6.03025e-01,1.16071e-02,-1.05635e+00,-2.75489e-01,-2.45808e-01,-2.83780e-01,-2.94788e-02,-7.67594e-01,-5.16708e-01,-1.88075e-01,3.04078e-01,4.09097e-01,2.50465e-01,7.18310e-02,3.64065e-01,-1.07529e+00,-4.42703e-01,5.08685e-02,-4.48289e-02,-1.26475e-01,-8.47931e-01,-1.09854e-01,-2.26339e-01,-5.30624e-02,7.51361e-01,-1.25208e-02,-2.05987e-03,
-1.56141e-01,2.08198e-01,-1.07061e-01,-1.06518e-01,-2.16046e-01,-1.57611e-01,1.76551e-01,2.52637e-02,-2.13314e-01,-1.01717e-01,1.70157e-02,2.11735e-01,-6.30221e-02,-1.26742e-01,-2.11226e-01,-2.21229e-02,2.33982e-01,-1.75760e-01,-1.33959e-01,1.18472e-01,1.30387e-01,2.00187e-01,1.09592e-01,-1.54036e-01,-1.66037e-01,-1.42262e-01,1.64532e-01,-1.33089e-01,-1.24678e-01,1.52831e-01,-1.90915e-01,-2.04875e-01,-1.10406e-01,1.18208e-01,-6.48222e-02,-1.92110e-01,-1.66061e-01,-1.18641e-01,1.36808e-01,8.54340e-04,-1.27249e-01,-1.07437e-01,2.30913e-02,-2.49694e-01,1.84656e-01,
6.49038e-01,-2.03479e+00,5.84043e-01,-1.25307e-01,-2.86988e-01,5.53255e-01,-4.41649e-02,-7.48097e-02,1.80519e-03,-1.90848e-02,-3.87795e-01,1.84433e-01,-5.92244e-01,1.18696e-01,1.53639e-02,2.45729e-01,-1.93382e-01,1.64011e-01,7.15028e-02,9.56738e-02,-3.89054e-01,7.54302e-02,-1.28567e-01,3.27103e-02,1.58174e-01,3.47801e-01,-2.29932e-01,5.51529e-01,1.11744e-01,7.32069e-01,-1.45900e-01,-4.90810e-03,1.30344e-01,2.04052e-01,2.41197e-01,-2.34501e-01,1.44870e-01,-2.54555e-01,9.33278e-01,2.95091e-01,-7.25065e-02,2.45727e-01,-1.04342e-01,-5.37700e-01,-1.84342e-01,
-4.29362e-01,-1.82488e-01,4.67279e-01,-9.68455e-02,1.79981e-01,-2.87757e-01,2.12953e-01,-2.91503e-01,3.37635e-01,5.70863e-02,3.31753e-02,-1.21122e-01,-3.58357e-01,-2.15773e-02,-3.98469e-03,7.59436e-02,1.08564e-01,-8.27223e-02,1.40824e-02,1.65820e-01,-9.71928e-01,-9.50143e-02,1.89992e-01,5.75902e-01,1.01384e+00,-2.92616e-01,-3.70637e-01,-4.92968e-01,2.37668e-01,-5.35807e-02,-1.43695e-01,-1.85573e-01,1.65186e-01,4.82679e-01,-5.77096e-01,-2.70986e-01,-3.89097e-01,1.14922e-01,8.10646e-01,3.26184e-01,3.93999e-02,2.41760e-01,-1.92579e-01,-1.28076e+00,-1.77160e-02,
-3.11143e-01,-2.33400e-01,3.89128e-01,-3.32159e-02,1.13645e-01,-7.34451e-01,-2.26913e-01,9.26171e-02,-2.98050e-01,-2.93171e-01,1.58052e-01,4.80197e-01,3.79396e-02,-4.60165e-01,1.24765e-01,2.48285e-01,1.99454e-01,-6.14640e-02,4.16811e-02,4.79395e-01,5.06246e-01,-7.68506e-03,2.45342e-02,-1.20619e-01,6.00684e-02,1.19080e-01,8.31985e-02,-1.30874e-01,3.77089e-02,8.87084e-03,-3.01317e-01,4.93316e-01,4.79036e-01,-6.73698e-01,-2.04280e-01,-2.33785e-01,3.28745e-01,2.07939e-01,4.33052e-01,-1.26078e-01,-7.58201e-02,-4.04730e-01,-4.87031e-02,1.02195e-01,2.70183e-01,
6.92421e-02,4.78925e-01,-6.11484e-01,2.55248e-01,-1.46130e-01,-4.19964e-01,7.35852e-03,-1.54764e-01,5.03150e-01,1.01210e+00,3.66079e-01,-2.33356e-01,-2.53582e-02,-3.00259e-01,-9.21415e-02,-1.75621e-01,2.20314e-01,3.90881e-01,-5.77962e-02,5.55213e-01,5.67689e-02,-4.44709e-01,-2.49136e-02,-7.33306e-01,3.01932e-01,4.39698e-01,-3.49993e-01,4.12930e-01,2.27133e-01,1.64956e-02,-2.10863e-01,3.53184e-01,5.31775e-02,2.89851e-01,-3.65922e-01,-7.39823e-01,-3.12351e-01,1.59934e-01,-7.37105e-01,2.78612e-01,-4.28350e-01,-5.47941e-01,1.37378e-01,-9.89511e-02,2.69482e-01,
2.49982e-01,2.39299e-01,1.26138e-01,-2.44377e-01,-5.06528e-01,4.71304e-02,-1.55606e-01,-1.68381e-01,4.37430e-02,-4.63380e-02,-7.43662e-03,-3.84780e-01,-1.82049e-01,4.56234e-01,-7.84322e-02,2.01958e-01,2.36647e-01,3.03514e-01,-2.53843e-01,-1.69757e-01,3.70793e-02,3.28065e-02,2.22558e-01,-1.75567e-01,6.17415e-03,7.29753e-02,2.18613e-02,3.69180e-02,-1.94683e-01,3.53898e-01,1.75948e-01,9.74101e-02,-1.67856e-01,3.09664e-02,8.86377e-02,3.79507e-02,-1.73115e-02,9.00185e-02,-2.08742e-01,-3.66456e-01,8.85299e-02,4.50516e-01,4.99568e-01,2.18506e-01,-5.66012e-01,
7.31654e-03,-1.53190e-01,-3.04008e-01,-1.58017e-01,2.04724e-02,-4.27080e-01,-1.64564e-01,3.86108e-01,-1.78554e-01,-2.72949e-01,-1.47990e-01,-1.36062e-02,-4.48237e-01,3.32299e-01,-4.75201e-02,3.56953e-02,2.42114e-01,-2.20235e-01,1.20392e-01,3.67526e-01,7.38983e-01,1.32014e-01,1.47180e-01,-2.09411e-01,-1.92540e-01,-3.44860e-01,-8.92026e-02,2.09694e-01,-1.90380e-01,5.61905e-02,-1.62285e-01,-1.90941e-01,2.61807e-01,-4.10374e-01,1.50771e-01,2.63195e-01,2.71890e-02,-5.59410e-02,-2.55421e-01,-8.87236e-02,-6.45447e-02,-2.39525e-01,4.54115e-01,1.06739e-01,-4.14724e-01,
-5.16867e-02,1.03474e-01,2.16491e-01,-4.68315e-02,3.27959e-02,5.36398e-02,8.03237e-02,2.50020e-01,5.44609e-02,5.21107e-01,5.50802e-02,4.19967e-01,1.40824e-01,-1.03081e-02,-5.08698e-02,-2.15174e-01,1.42856e-01,-1.44751e-01,3.77379e-01,1.22401e-01,-3.02820e-03,1.18252e-01,-9.98171e-03,-2.79712e-01,4.61609e-01,2.15159e-01,2.87971e-01,2.54786e-01,1.32527e-01,7.34232e-02,2.84572e-01,-1.51238e-01,-8.68735e-02,-1.98571e-01,-3.31666e-01,-1.24937e-01,2.93341e-01,8.96538e-02,-2.51534e-01,-1.32988e-01,2.22649e-01,-6.40424e-01,-4.34976e-02,2.32530e-01,-1.53731e-02,
-2.64215e-02,3.63880e-01,2.66821e-01,-1.30449e-02,6.63663e-02,3.19377e-01,2.09545e-01,-1.60972e-01,3.46676e-02,4.25696e-01,2.20388e-02,3.01101e-02,3.55940e-01,-8.03543e-03,-5.71788e-02,-9.18524e-02,-2.73329e-02,3.46353e-01,1.43564e-01,3.36296e-01,3.30433e-02,4.30961e-02,5.25535e-01,1.06436e-01,-2.39046e-01,2.96178e-01,1.11709e-01,3.64876e-01,2.89923e-02,-3.46310e-02,3.07760e-02,-2.57059e-02,-6.21251e-02,-1.37168e-01,-2.37166e-01,-9.48289e-02,4.82355e-02,3.78821e-01,6.42885e-02,3.44380e-01,2.25069e-01,-4.47808e-01,-2.48353e-01,-2.80458e-01,2.29114e-01,
2.96966e-01,-1.67636e-02,3.68655e-01,7.51817e-02,8.93221e-02,-2.16420e-01,-1.01884e-01,9.77919e-02,4.94206e-02,3.38247e-01,-7.33866e-02,-2.52151e-01,4.95038e-01,1.53616e-02,-1.12553e-01,2.49938e-01,-2.60263e-01,2.17776e-01,-2.27956e-03,3.30161e-01,2.71488e-01,1.30204e-01,-1.11884e-01,1.75769e-01,1.72494e-01,4.26195e-01,1.13715e-01,4.12580e-01,2.05975e-02,1.24021e-01,1.85220e-01,3.65745e-01,2.50914e-01,-2.92382e-02,-2.04511e-01,3.67960e-01,-7.49257e-02,-2.10408e-01,-3.18691e-01,2.53211e-01,6.46570e-02,-2.31152e-01,-1.77675e-01,-2.85773e-01,5.50313e-03,
1.01876e-01,4.78997e-02,-3.67901e-02,-3.45788e-02,-1.93431e-01,-2.46361e-01,-1.22402e-01,-9.73065e-02,-2.54907e-01,1.25221e-01,-1.56786e-01,-2.20928e-01,2.05226e-01,-1.02310e-01,1.82229e-01,-1.68101e-01,1.90255e-01,-2.10495e-01,1.52022e-02,1.33951e-01,-1.63544e-01,-2.50953e-01,8.00425e-03,2.35776e-02,9.26829e-02,9.75049e-02,-8.36076e-02,2.18192e-03,-2.51404e-01,1.94383e-01,-1.81163e-01,-4.65734e-02,1.69677e-01,-2.41707e-01,-1.64376e-01,-1.77187e-01,-1.24820e-01,-7.50444e-02,5.16136e-02,-1.84609e-02,1.51787e-01,-5.87298e-02,1.77413e-01,3.85863e-02,1.00339e-01,
1.93020e-01,1.49375e-01,5.42420e-01,-2.10629e-01,-6.84898e-01,1.34075e-01,-1.89787e-01,-2.27703e-01,1.68587e-02,3.38965e-01,9.55050e-02,-2.19587e-03,2.62222e-01,-2.92630e-01,-3.32020e-01,1.87223e-01,2.51845e-01,5.72444e-01,-1.99010e-01,-7.91364e-02,-6.47577e-01,-1.87358e-01,1.25092e-01,1.85425e-01,-8.49990e-01,-7.48850e-03,4.00435e-02,1.64370e-01,1.02847e-01,-6.71185e-02,1.08955e-01,-3.48893e-01,-3.22552e-01,7.81247e-01,1.51070e-01,-4.30432e-01,8.98074e-02,-3.38403e-01,3.31148e-01,-9.50132e-02,1.45278e-01,3.38129e-01,-2.34755e-01,3.98748e-02,1.50374e-01,
2.95120e-01,-7.41219e-01,-8.05563e-01,-1.88457e-01,2.35713e-01,1.02271e+00,-1.47343e-01,-1.66309e+00,-2.55879e-01,-6.55923e-02,-3.29528e-01,4.54317e-02,1.21508e-01,-6.42184e-02,-9.79092e-02,1.35824e-01,3.31099e-02,5.06959e-01,-1.68469e-01,3.12135e-01,1.15340e-01,5.90439e-03,-2.55643e+00,1.19719e-01,1.44757e-01,-2.53240e-01,3.52595e-01,-5.27849e-01,-1.07960e+00,1.77732e-01,-4.29268e-01,5.57741e-01,-1.77521e+00,-2.23611e-01,-3.71627e-01,2.04845e-01,4.20616e-01,2.80855e-01,-7.74067e-01,-1.43429e+00,-2.02919e-02,-3.85062e-01,2.67105e-01,-8.55308e-01,-7.70893e-02,
1.01155e-01,-7.14400e-02,-5.17341e-01,-1.31584e-01,1.34816e-01,-4.15500e-01,1.30188e-01,-9.07567e-02,7.19885e-01,-3.55235e-01,-3.32523e-01,8.44805e-02,-1.40885e-01,1.16717e-01,-4.39357e-01,2.29467e-01,1.84751e-01,9.88710e-04,-3.45294e-01,-8.34116e-01,3.21827e-01,-1.77484e-01,3.19868e-01,-1.09040e-01,1.43692e-02,1.02756e-01,-1.73046e-01,1.49905e-02,3.11044e-01,3.08010e-01,6.05771e-02,-1.18790e+00,-2.41678e-01,-6.96248e-02,-8.98198e-02,-3.55248e-01,3.69361e-01,1.47004e-01,-2.04190e-01,-6.13551e-01,-3.85750e-01,4.94673e-03,2.80513e-01,-6.85408e-01,4.16780e-02,
3.30934e-01,1.22797e-02,8.31718e-02,-8.81408e-02,-2.21978e-01,-3.84992e-01,2.56877e-01,1.20448e-01,-6.34355e-02,4.04612e-01,1.25052e-01,-1.92944e+00,4.59771e-02,4.80639e-02,-3.98897e-01,1.50556e-01,1.74909e-01,-2.93603e-01,1.60329e-02,-1.30387e-01,-2.06967e-01,-4.85424e-01,6.92948e-02,-7.83221e-01,-9.83827e-01,-4.36566e-01,1.79767e-01,-2.97235e+00,3.84096e-01,-8.83785e-01,1.29794e-01,-9.28875e-01,5.27093e-01,-8.16346e-01,-4.77053e-01,-3.98033e-01,-3.28313e-01,4.08606e-01,3.54281e-01,1.63303e-01,-1.83903e-02,1.42374e-01,-1.02636e+00,-2.38193e-01,-2.77597e-01,
-1.82987e-01,-4.48180e-01,-1.06520e-01,8.18957e-02,3.36549e-01,3.02411e-01,-2.19457e-01,-8.27968e-02,7.32182e-02,1.82942e-01,6.40658e-02,4.07206e-01,1.98923e-01,2.89742e-01,2.04086e-01,-8.70293e-02,1.48268e-01,-5.50323e-01,3.52255e-03,-2.37876e-01,3.80614e-01,-1.25784e-01,-2.09635e-01,7.05149e-02,2.87553e-02,1.70267e-01,7.72358e-02,6.43782e-01,-3.55428e-01,-7.99658e-01,-6.55897e-02,1.55351e-01,4.45908e-01,-4.89163e-01,-3.58673e-01,-2.72839e-01,-1.21992e-01,7.06617e-01,3.50400e-01,1.70736e-01,-3.73373e-01,-3.76205e-01,2.32368e-01,-3.20965e-01,2.00099e-01,
-1.35263e-01,1.61668e-01,-3.23676e-02,-2.96823e-02,-1.24599e-01,1.39581e-01,7.56265e-02,2.02329e-01,1.64523e-01,-4.87787e-01,6.70971e-02,-2.36396e-01,1.67115e-01,-1.38445e-01,-9.32048e-02,-9.26584e-02,-1.01828e-01,8.04020e-02,-1.97711e-01,-3.85305e-02,2.71940e-01,-1.30156e-01,1.76247e-02,-2.49728e-01,6.06591e-01,3.02216e-01,-6.37129e-02,5.12525e-01,2.22139e-02,4.05841e-01,6.53601e-02,1.82772e-01,1.11867e-01,-2.37908e-01,1.07866e-01,2.67765e-01,-9.13951e-02,2.48370e-01,1.98972e-01,2.92030e-01,-3.11512e-01,-1.87424e-01,-1.79677e-01,-3.12836e-02,-8.71680e-02,
1.21724e-01,3.21349e-01,1.92037e-01,-9.63499e-02,2.33808e-01,-2.26783e-01,-4.47984e-02,1.71116e-01,-9.46553e-04,-2.76636e-01,1.23653e-01,4.06125e-01,7.21535e-02,6.08824e-02,-2.27398e-01,-1.61317e-01,-1.73686e-02,-3.43071e-01,1.66159e-01,-1.82574e-01,-2.57003e-01,1.01223e-01,-1.00190e-01,9.79394e-02,2.25036e-01,5.19379e-01,-1.23876e-01,-2.02444e-01,-4.26118e-01,6.22511e-02,3.32226e-02,4.32619e-01,2.04055e-02,-9.33327e-02,-2.35683e-01,1.87179e-01,9.82871e-02,7.08503e-02,-4.63602e-01,-9.02650e-03,-7.54992e-02,-2.89673e-01,8.12279e-04,2.78441e-01,-6.55730e-02,
4.54605e-01,4.51095e-01,4.90286e-03,1.92095e-01,2.18196e-01,9.41220e-02,1.58453e-01,3.73506e-01,-2.84194e-01,4.40891e-02,-3.50640e-01,3.07192e-02,1.33775e-01,-2.53400e-01,-2.91126e-01,-4.02439e-02,-1.30292e-02,-1.03056e-01,5.57629e-01,4.08647e-01,1.65792e-01,2.98226e-02,-2.85663e-02,4.49404e-01,2.93411e-01,1.88962e-01,1.86429e-01,3.29052e-02,-7.81232e-02,9.38684e-02,5.32683e-01,3.98454e-02,-3.07804e-01,-2.53748e-01,-2.27005e-01,-1.74805e-02,-1.68918e-01,-8.75656e-03,-1.06995e-02,-1.22162e-01,4.57337e-02,-7.86977e-02,-7.74795e-02,-7.29874e-01,-1.75642e-01,
4.59337e-02,-1.10584e-01,-3.07929e-01,1.28280e-01,1.39886e-01,-1.68280e-01,-1.65002e-01,4.18090e-02,-2.96374e-01,-1.15859e-01,-2.27336e-01,-2.84093e-01,1.78252e-02,-8.85664e-02,-5.29250e-03,-2.35573e-01,3.47672e-02,2.10181e-01,-6.92314e-02,-2.15900e-01,1.47521e-02,-2.32045e-01,-2.46426e-03,-3.17818e-01,3.99682e-02,-1.74828e-02,-3.07952e-01,-1.19300e-01,-1.83176e-01,-2.55424e-01,-3.00628e-02,-6.95379e-02,-1.76618e-01,1.56433e-01,-1.08843e-01,-8.23301e-02,3.25518e-02,-1.69888e-01,-1.12303e-02,1.90143e-01,4.06091e-02,-3.15670e-04,1.45042e-01,-2.36335e-01,-2.93953e-01,
-7.48075e-03,2.58094e-01,9.76610e-02,-1.36324e-01,-2.02322e-01,-2.65215e-01,7.47379e-02,3.54643e-01,5.74716e-01,-1.23842e+00,-3.45789e-02,-5.98249e-01,2.28787e-01,6.47528e-02,-1.08442e-01,1.04812e-01,-2.20014e-01,-5.84203e-01,2.51969e-01,3.15202e-01,1.97317e-01,8.17651e-02,3.37592e-01,-8.66800e-02,1.00593e+00,-1.77761e-01,-1.93620e-01,-1.16537e+00,7.55383e-03,1.38700e-01,-1.26945e-01,1.87345e-01,-4.69576e-01,6.86596e-01,-1.78754e-01,-2.95197e-01,8.54800e-02,7.86023e-02,-4.97832e-01,-5.55159e-01,1.81258e-02,6.05893e-02,-4.34390e-01,-6.25133e-01,1.51020e-01,
-1.63361e-01,6.39451e-02,-3.22257e-02,-8.90503e-02,1.49489e-01,3.53444e-01,1.78405e-01,5.17884e-02,-9.49820e-02,4.40814e-01,6.42968e-02,1.82092e-01,1.80459e-01,-5.17722e-01,2.28240e-01,1.33955e-01,2.32229e-01,-5.10773e-01,2.13666e-01,2.58032e-02,4.93791e-01,-3.99927e-02,-2.04626e-01,-1.08396e-01,1.04081e-01,1.84167e-01,-1.25232e-01,4.77177e-01,1.92840e-01,-1.46227e-01,-2.46984e-01,-1.32228e-01,1.10926e-01,-3.41322e-01,1.04721e-01,1.03589e-02,1.18896e-01,-4.93682e-02,-1.46394e-01,-1.07565e-01,2.34728e-01,3.08983e-01,2.02139e-01,2.99448e-01,-8.56952e-02,
-5.74956e-01,-3.50095e-01,-2.99127e-01,-8.88604e-02,1.10139e-01,-1.32285e-01,1.95085e-01,8.82863e-02,1.52341e-01,2.15499e-01,2.44159e-01,-2.09847e-01,-3.02827e-01,3.80715e-03,3.77717e-01,2.98449e-02,-2.38668e-01,-1.51545e-01,-6.28073e-01,2.43977e-02,1.70918e-01,3.39844e-02,2.92678e-01,-1.45515e-01,-4.28028e-01,-3.94482e-01,-1.35535e-01,-4.84509e-01,-2.47481e-02,-6.45957e-01,-4.23183e-01,-3.62485e-01,9.48209e-02,4.27077e-01,2.16098e-01,2.29481e-01,7.35176e-02,2.52080e-01,2.71733e-01,-8.67946e-02,-6.19761e-02,3.72961e-01,6.09688e-01,4.40055e-01,-1.58616e-01,
2.44251e-01,-1.64472e-01,-1.22473e-01,1.67500e-01,-8.01933e-02,-5.57750e-01,3.70387e-02,-1.88066e-01,-5.28485e-01,3.74813e-01,-9.93787e-02,-9.00355e-01,3.66879e-01,-6.99252e-01,-9.71285e-02,2.50475e-01,6.37972e-02,-7.10294e-02,5.45403e-02,4.16484e-01,-1.80073e-01,-3.88139e-01,1.54549e-02,2.50983e-02,2.27314e-01,1.29317e-01,1.99284e-01,-3.35847e-01,-5.71605e-01,-1.21971e-01,-3.57874e-02,-3.75071e-01,2.98079e-01,-1.18684e-01,9.78030e-02,3.66712e-02,4.82493e-01,-7.58959e-02,1.29525e-01,-2.43359e-01,1.65204e-01,-6.78697e-02,-4.16721e-01,3.84060e-01,-6.25458e-01,
3.49796e-01,-1.89757e-01,9.59523e-02,1.72737e-01,-2.21110e-02,-2.10863e-01,-1.94046e-01,-2.10947e-01,2.72839e-01,-2.30436e-01,-3.29693e-01,-2.82915e-01,-1.47980e-01,1.30192e-02,-1.84923e-01,1.94938e-01,-1.73677e-01,3.01791e-01,-1.43495e-01,-3.20689e-02,-3.10704e-01,6.12851e-01,-1.05406e-01,1.51022e-01,2.44925e-01,-1.51709e-01,2.45501e-01,7.70452e-02,-4.62938e-01,7.72522e-01,9.76805e-02,-1.16900e-01,9.03037e-03,-2.64030e-01,4.08483e-01,-4.13825e-01,1.89351e-01,-1.21495e-01,-2.49069e-01,5.64972e-01,2.08184e-01,-2.71556e-01,6.00067e-01,-3.11219e-01,-1.75126e-01,
-1.35281e-03,-2.61360e-01,4.25634e-01,1.81240e-01,-5.86090e-01,3.16826e-01,2.74048e-02,-4.30323e-01,-6.42286e-02,-2.92502e-02,-3.89192e-01,2.51688e-01,1.51510e-02,3.18817e-02,-5.69638e-02,2.23637e-01,-1.41154e-01,5.15083e-01,-3.58119e-01,-3.63625e-01,4.58088e-01,4.67874e-02,2.68621e-02,3.13960e-02,-8.60692e-01,-2.42910e-02,4.58058e-02,8.54694e-02,-3.40607e-01,-4.68791e-01,9.27486e-02,3.70360e-01,1.28913e-01,9.16323e-02,4.18784e-01,8.55750e-02,-5.44572e-03,9.68367e-02,4.96501e-03,5.39650e-01,-2.06809e-01,-1.29711e+00,-6.68181e-02,-6.13170e-01,1.08113e-01,
-8.87612e-02,2.89997e-01,4.49696e-01,-4.55418e-02,-2.45980e-01,3.18385e-01,-1.60646e-01,-9.16815e-03,2.25855e-01,1.61953e-01,2.00224e-01,1.33056e-01,4.07909e-02,-1.27709e-01,-1.70318e-01,-3.35257e-02,-1.36124e-01,1.83009e-01,-1.35254e-01,-2.03008e-01,-1.98153e-01,-1.72972e-01,-1.87939e-01,2.86956e-01,-4.31241e-01,1.04537e-01,2.10695e-01,3.60057e-01,3.61440e-01,-2.36802e-01,1.37390e-01,-1.81772e-01,-9.21645e-03,2.46425e-02,-2.97670e-01,-7.37310e-02,-2.02242e-01,1.35231e-01,9.79913e-02,3.61296e-01,1.52058e-01,4.10513e-02,-1.51088e-01,-1.42379e-01,1.80393e-01,
2.89316e-01,1.82415e-01,-2.29199e-01,6.75042e-02,-4.91412e-01,2.87145e-01,1.68071e-01,2.88065e-01,-6.63454e-02,-3.81386e-02,5.39554e-02,3.31433e-01,1.24264e-01,-2.48490e-02,-2.65010e-01,1.91692e-01,-6.76736e-02,7.13771e-02,-2.02464e-01,2.78840e-01,-5.93055e-01,5.61839e-02,2.74565e-01,2.37191e-01,6.78337e-01,1.08425e-01,3.53730e-01,-3.65331e-02,-3.07952e-02,-4.49095e-02,1.87821e-01,-2.15612e-01,-2.30522e-01,8.89271e-02,-1.04782e-01,-1.90571e-01,-3.17805e-02,-2.43646e-01,5.52617e-01,-1.19127e-01,-2.62672e-01,1.63430e-01,-3.59025e-01,1.08287e-01,4.22913e-02,
-2.59537e-01,-3.11690e-01,-4.58430e-02,-1.79732e-01,-3.55842e-01,9.04519e-01,-2.34689e-01,-3.60377e-01,1.43341e-01,-9.82547e-02,-1.92341e-01,1.68060e-01,5.96257e-01,2.08869e-01,-6.56818e-01,-5.30984e-02,-2.32324e-01,8.52250e-01,3.58230e-02,9.09588e-03,-1.17130e-01,-1.70091e-01,-2.50009e-01,1.25760e-01,-3.81071e-01,-3.75657e-01,-4.75282e-02,-2.59660e-01,-4.15965e-01,-8.72158e-01,2.60846e-01,1.70810e-01,-9.25481e-02,5.71129e-01,1.69504e-01,-9.26549e-02,1.77029e-01,1.24628e-01,-4.88348e-01,2.11423e-01,-3.57934e-02,-2.80784e-01,-1.17669e-02,3.16916e-01,-6.69398e-02,
-8.11875e-01,2.28651e-01,-5.24114e-01,1.19594e-01,8.23456e-02,-5.28387e-01,-2.08596e-01,-3.57363e-01,1.72146e-01,3.24054e-01,-3.78482e-01,4.91305e-01,-2.07340e-01,7.65152e-03,-4.50232e-02,-2.11357e-02,-1.80497e-01,1.81382e-01,3.26830e-01,4.19090e-01,-3.95398e-01,1.49353e-01,3.07002e-01,-1.50679e-02,-2.30782e-01,1.23180e-01,-1.08599e+00,1.73594e-01,-3.46649e-01,2.69724e-02,-1.40523e-01,2.11346e-01,-9.70467e-02,-6.72343e-01,-3.00547e-01,-1.12642e-01,-1.82146e-01,2.54870e-01,-1.31047e+00,1.03749e-01,2.90273e-01,3.01583e-01,-5.69057e-02,3.62254e-01,8.13005e-01,
4.98730e-01,5.22045e-01,1.73900e-01,1.60438e-01,3.46500e-01,4.74279e-01,-2.49179e-01,5.08769e-01,-3.79117e-01,-1.16468e-01,-1.95880e-01,1.77658e-01,2.29090e-01,-2.11776e-01,-5.08360e-01,4.30749e-02,1.38255e-01,-1.24178e-01,2.17334e-01,6.29486e-02,2.63354e-01,1.30399e-01,3.36816e-02,1.97178e-01,6.54434e-01,1.11031e-01,2.66149e-01,2.47014e-01,1.40887e-02,-2.52024e-02,4.60018e-01,1.39010e-01,-2.30032e-01,-4.05247e-01,-3.33023e-01,2.18130e-01,-2.50369e-01,-2.55444e-01,-3.30137e-01,-2.35775e-02,3.66404e-02,-3.27947e-01,-1.93165e-01,-1.12620e+00,1.19091e-01,
4.48182e-01,5.20194e-01,-1.31992e-02,-1.12713e-01,1.63687e-01,5.15262e-01,1.76504e-01,4.02803e-01,3.21604e-02,2.47475e-01,-9.90479e-02,2.82594e-01,-4.91028e-02,2.72246e-01,-3.96844e-01,1.29564e-01,-5.24207e-02,-2.03355e-01,-4.54901e-01,2.10428e-01,6.06581e-02,2.28085e-01,-3.38153e-01,7.64505e-02,2.35075e-01,2.56158e-01,6.03638e-02,2.33969e-01,2.30154e-01,-2.39905e-01,2.54110e-01,2.45835e-02,4.43617e-01,-1.20539e-01,-2.08274e-01,2.76651e-01,-2.01631e-01,-1.83233e-01,-5.38751e-01,1.44226e-01,2.08439e-01,-3.18238e-01,-2.12093e-01,-4.97028e-02,5.64893e-01,
-4.65361e-01,7.73845e-01,-1.43120e-01,1.94855e-01,-1.32592e-01,1.01680e-01,-9.87078e-02,-3.02439e-02,2.74739e-01,-8.13274e-01,2.40645e-01,-4.51047e-01,-2.95628e-02,-2.99727e-03,-4.33457e-02,3.69198e-02,8.21498e-02,1.98077e-01,-7.36006e-01,-4.98435e-01,3.15407e-01,-1.63649e-01,8.51965e-02,-3.96357e-01,-2.26657e-01,8.68830e-02,4.27569e-02,-2.94304e-01,-1.17414e-01,5.24033e-01,-3.40630e-01,2.21051e-01,1.58282e-01,-4.76532e-01,2.15648e-01,-2.69735e-01,1.23607e-01,9.62585e-02,4.28317e-01,-1.61194e-01,-4.02982e-01,1.56689e-01,1.05964e-01,5.54030e-01,-1.08299e-01,
3.90692e-01,3.92686e-01,-1.87361e-01,2.34869e-01,-5.62369e-01,-9.43223e-03,-7.84421e-02,3.44903e-01,-2.01268e-01,1.45536e-02,-5.18809e-02,-4.53506e-01,-2.50402e-01,4.39506e-02,-3.90546e-02,2.20145e-01,-9.18225e-02,5.08379e-01,1.90463e-01,1.38232e-01,-9.56110e-01,6.23091e-01,1.46800e-01,1.56717e-01,1.40829e-02,-2.92260e-03,-1.39981e-01,-3.11236e-01,5.92699e-02,3.60961e-01,4.67885e-02,2.56022e-01,1.78030e-02,8.57601e-01,6.71352e-02,8.89167e-03,2.18820e-01,-6.93816e-01,2.81886e-01,-1.56043e-01,1.51797e-01,2.00720e-01,-6.69561e-01,-1.68000e-01,-5.94415e-01,
4.45459e-01,-1.52370e-01,2.62986e-01,-2.06350e-01,-4.54570e-01,1.72016e-01,-9.90323e-03,-3.50744e-01,2.19152e-01,6.15516e-01,-5.06444e-02,-5.41037e-02,3.90827e-02,-9.32605e-02,-2.10760e-01,-2.20294e-01,-1.59784e-01,5.01260e-01,9.78058e-02,-1.06665e-01,-2.36037e-01,2.10987e-01,3.67111e-01,1.44741e-02,4.71921e-01,8.55225e-02,2.46132e-01,-2.98754e-01,9.33757e-02,-2.44420e-01,1.59289e-01,-4.89334e-01,1.04077e-01,6.73529e-01,2.62239e-01,-1.47506e-02,-3.60641e-01,-9.19380e-02,-2.81378e-01,-1.14494e-01,6.21160e-02,3.95761e-01,-4.99487e-01,-3.86683e-01,9.23101e-02,
-1.01715e-01,-4.52257e-01,1.94186e-01,1.68496e-01,-4.11546e-01,-1.75438e-02,1.47118e-01,-4.84657e-01,4.36941e-01,-4.26796e-02,-6.02795e-03,1.42815e-02,1.02599e-03,-4.40559e-01,-4.26060e-01,1.84542e-01,2.27357e-01,1.20172e-01,1.82199e-01,2.84268e-01,-1.16789e-01,-4.90294e-02,4.47342e-01,1.64454e-01,5.98021e-01,3.23980e-03,-4.15410e-01,4.23583e-01,-5.90322e-02,2.30593e-01,-6.90124e-02,1.30324e-01,-2.90533e-01,1.10132e-01,-4.99239e-01,-2.58032e-01,-2.15198e-01,3.94987e-01,1.24457e-01,3.17345e-01,-5.78193e-01,8.01076e-02,3.76140e-02,4.68199e-01,-6.61076e-02,
-1.32148e-01,-1.19647e-01,-1.25127e-01,2.28551e-01,9.79360e-02,-7.98619e-02,-2.54396e-02,7.19079e-02,4.40651e-02,2.45673e-01,-1.30146e+00,3.87328e-01,-2.66064e-01,-1.03804e-03,4.26227e-01,-1.56128e-01,-1.64699e-01,2.24330e-01,6.15960e-01,4.62119e-02,-3.07246e-01,1.72951e-01,2.61369e-01,5.37973e-01,-2.66261e-01,-5.97377e-03,5.70839e-02,1.88844e-01,-2.92773e-01,-4.31844e-01,-3.90716e-01,1.70914e-01,-3.72306e-01,-4.57194e-03,-8.51649e-01,-3.19436e-02,-7.48783e-01,3.26440e-02,8.43765e-02,-2.19936e-01,5.04819e-01,2.76763e-01,2.30898e-01,7.72984e-01,-4.67741e-01,
3.15648e-01,-2.54816e-02,1.28003e-01,1.57804e-01,-3.35901e-01,4.37049e-01,1.31144e-01,2.51494e-01,6.77219e-02,6.26691e-01,-1.25705e-01,-2.71143e-01,2.42395e-01,-2.70492e-01,-1.93382e-01,-1.72061e-01,1.29874e-01,-7.89590e-02,-1.54010e-01,-1.26216e-01,-1.26208e-01,9.27877e-02,5.67309e-01,1.71985e-01,5.21242e-01,-3.45180e-02,-3.43836e-01,-4.26887e-02,-2.10652e-01,4.80229e-01,3.52834e-01,-3.28912e-01,-1.14265e-01,-7.84277e-02,-1.16281e-01,-1.68126e-02,8.96139e-02,-1.09179e-01,2.86966e-01,1.32094e-01,-1.29501e-03,4.82094e-01,-8.66796e-02,-3.80273e-01,2.37583e-01,
4.53316e-01,-1.94686e-02,-1.11541e-01,-2.45536e-01,-3.99607e-01,4.03921e-01,-2.24645e-01,-1.20697e-01,-3.63991e-01,8.91785e-02,2.47230e-03,-1.01358e-01,3.26043e-02,-2.64277e-02,-5.38388e-02,1.29507e-01,-1.67687e-01,3.62637e-02,-1.66407e-01,1.18900e-01,-2.11884e-01,-1.18704e-01,9.92225e-02,8.04947e-02,-3.74763e-01,-2.39934e-01,1.07035e-01,1.14262e-01,7.70235e-02,-2.11733e-01,1.81233e-01,2.42722e-01,-1.35498e-01,-4.61753e-01,-5.51367e-02,3.05977e-01,1.98630e-01,1.35564e-01,-2.78545e-01,-2.53621e-01,4.00265e-01,-1.19419e-01,-6.20824e-01,8.67104e-02,8.58055e-02,
-3.05982e-01,5.46096e-02,2.28857e-01,2.47248e-01,1.18417e-01,-5.95269e-01,-1.24749e-01,1.70015e-02,9.28330e-02,-3.38203e-01,8.56691e-02,-1.47323e-01,1.04424e-01,2.03969e-01,2.54657e-01,1.43395e-01,2.09360e-01,-5.44825e-02,-3.67085e-01,2.97694e-01,7.00536e-02,1.58803e-03,8.00198e-02,-3.94321e-02,8.46985e-02,-2.54667e-01,7.79647e-02,-5.57091e-01,-3.99056e-01,-7.86980e-01,-3.21066e-01,-1.68108e-01,-1.71516e-01,3.66363e-01,2.03357e-01,5.03909e-01,-4.46888e-02,3.19967e-01,5.29942e-02,-3.30455e-01,-3.41818e-01,5.63256e-01,3.94604e-01,-7.48925e-02,-3.73552e-01,
1.90443e-01,2.54337e-01,3.02512e-01,-1.91282e-01,-3.10379e-01,2.76271e-01,-1.53035e-01,7.47269e-02,4.68965e-01,4.77170e-01,-2.05376e-01,-3.95818e-01,-1.23276e-01,-9.96847e-02,-4.56550e-01,5.41298e-02,1.68567e-01,4.99864e-02,-4.62207e-01,-3.92463e-01,-5.35879e-01,6.64695e-02,-4.22820e-01,7.98977e-02,-2.10547e-01,-1.24161e+00,1.45995e-01,-2.28456e-01,3.16672e-01,-2.05953e-01,-2.72178e-01,-2.73100e-02,-1.18955e-02,-6.82676e-02,-7.04620e-01,1.65204e-01,-1.46314e+00,-1.66566e+00,2.20722e-01,-8.79650e-01,2.62854e-01,-1.85358e-01,-3.67865e-01,1.11722e-02,-1.54939e+00,
-5.25500e-02,1.28837e-01,-2.66266e-02,6.94254e-02,2.16073e-02,2.26816e-01,1.88951e-01,-6.04386e-02,-1.11040e-01,1.39299e-01,-6.31802e-03,6.19823e-02,-4.91758e-02,-9.93104e-02,2.50256e-01,2.21962e-01,-2.20501e-01,3.22563e-01,-5.06755e-02,-1.64661e-01,-1.52609e-01,3.54514e-01,2.94307e-01,1.86933e-01,4.32391e-01,-9.08944e-02,-1.31021e-01,5.82459e-01,4.70604e-02,-9.28672e-02,2.09028e-01,-3.04077e-01,8.36940e-02,8.22757e-02,-1.44243e-02,1.70356e-01,-3.56345e-02,2.89832e-01,8.17185e-03,3.48200e-01,1.37615e-01,-1.57719e-01,-8.25153e-02,-2.50316e-01,-1.73087e-01,
-6.63276e-02,-2.92063e-01,-2.54281e-01,-8.83544e-02,2.14057e-01,-2.73205e-01,1.95405e-01,1.69955e-01,1.37734e-01,-2.39231e-01,-1.43696e-01,-2.33286e-01,-2.22326e-02,3.21275e-01,-4.26645e-02,-2.44734e-01,-5.28295e-02,-3.69625e-01,2.48893e-01,-1.59840e-01,2.81419e-01,-1.29584e+00,2.69187e-01,-1.54955e-01,-2.72086e-01,2.57822e-01,-4.37170e-02,5.31714e-02,9.84691e-02,2.47169e-01,-4.27266e-01,-5.97167e-01,-8.75786e-02,-1.58432e-01,2.62515e-01,-5.38587e-02,-7.41429e-01,5.32334e-01,6.33462e-01,2.99338e-01,-3.82642e-02,1.27611e-01,-4.98109e-02,-3.79248e-01,-1.17543e-03,
8.34104e-02,
-2.09027e-01,
-1.26134e-01,
-4.14186e-01,
-6.45861e-04,
-6.95324e-03,
-1.65461e-01,
1.08039e-01,
4.13085e-01,
8.31357e-02,
1.56429e-01,
-2.59554e-01,
-2.10519e-01,
-2.49860e-01,
-2.30117e-01,
1.93563e-01,
5.69803e-02,
3.09480e-01,
2.68244e-01,
2.82343e-01,
-1.02502e-02,
-4.30250e-03,
-4.28575e-01,
5.78750e-03,
-2.54274e-01,
2.35037e-01,
-1.66655e-01,
-2.42483e-01,
-9.15109e-02,
2.01203e-01,
6.42229e-02,
-5.57520e-01,
-9.70000e-02,
2.08206e-01,
-4.03223e-01,
8.47514e-02,
-2.13665e-01,
-6.48900e-02,
-2.23602e-01,
2.73418e-01,
1.52786e-01,
2.23538e-02,
-3.31175e-01,
9.68992e-03,
-2.27817e-02,
-3.12270e-01,-4.96553e-01,-1.44858e-01,-6.69105e-01,3.16971e-01,3.21123e-01,1.72835e-01,-2.18130e-02,-5.66805e-02,7.80838e-02,-2.63049e-02,-1.26794e-01,3.71557e-02,-1.72533e-01,9.04023e-01,-5.74424e-02,-2.78355e-01,-4.36241e-02,9.85207e-02,-8.93834e-02,4.58506e-02,2.05529e-01,-6.35298e-01,-2.88052e-03,4.04078e-02,-2.45342e-01,7.28050e-02,1.82476e-01,5.83780e-01,-4.69592e-02,-2.19433e-01,-1.01980e+00,1.16885e-01,-1.42282e-01,2.04389e-02,4.83732e-02,-3.42373e-01,-1.08405e+00,6.03335e-01,-1.05791e-01,-1.03241e-01,1.64777e-01,-1.18316e+00,6.82330e-02,8.80295e-02,
-1.37854e-02,1.08798e-03,-3.99538e-02,1.80311e-01,-2.81123e-01,-4.08713e-02,1.40050e-01,-1.33637e-01,8.59967e-02,1.09533e-02,-8.10225e-02,5.28113e-02,-9.80137e-03,-1.94641e-01,1.13257e-01,-2.50157e-02,1.16489e-01,-1.69996e-03,-1.97124e-01,7.48389e-02,-2.08347e-02,9.13063e-02,-1.09171e-02,1.37971e-01,7.30363e-02,-1.58100e-01,6.62917e-02,6.47846e-02,8.96879e-03,-1.33243e-01,1.24869e-01,5.06286e-02,3.37509e-02,-6.19414e-02,-1.77119e-01,-2.13602e-01,1.13699e-01,-1.52922e-01,-7.19658e-02,1.46172e-01,-6.04808e-02,-2.77195e-01,-2.22413e-01,8.79825e-02,-1.48561e-01,
-2.05088e-01,-1.02038e+00,-2.76844e-02,-9.03775e-01,2.64231e-01,-3.21016e-01,3.77828e-01,-1.18789e-02,-1.71645e-01,-2.52843e-02,-2.25738e-01,-5.01131e-01,1.47311e-01,2.91551e-02,-2.75265e-01,-3.54455e-01,-3.41823e-01,3.97425e-01,-6.26369e-02,-1.08023e-01,-3.82789e-01,1.08321e-01,-8.03767e-01,8.80662e-02,-5.16091e-01,-3.35661e+00,1.71650e-01,3.94522e-01,-9.08459e-02,3.99033e-01,4.19888e-03,-7.33554e-01,1.83513e-01,5.10172e-01,5.26753e-01,-7.52289e-02,-3.32862e-01,4.01940e-01,6.96481e-01,1.92160e-01,-5.08773e-02,4.01818e-02,-6.06239e-02,-2.18410e-01,-9.88445e-02,
-4.18630e-02,2.64882e-01,-6.18105e-02,-1.08539e-02,1.53102e-01,6.05456e-02,1.10020e-01,2.07649e-02,-1.47429e-01,-2.62249e-01,2.00086e-01,-2.20093e-01,-2.23181e-02,-1.30164e-01,-5.41638e-02,-1.18248e-02,-2.58341e-01,2.46654e-01,-3.22357e-01,-2.21828e-02,-2.87830e-01,-2.00922e-01,8.06726e-02,-7.98600e-02,-1.89996e-01,3.59461e-01,1.19744e-01,1.46078e-01,2.98244e-01,5.45511e-02,1.80811e-02,-1.06039e+00,-9.76483e-02,-1.26816e-01,1.95978e-01,-2.11503e-01,1.77767e-02,-2.04383e-01,-1.25348e-01,2.16000e-01,1.85608e-01,1.32808e-01,-6.42695e-01,2.47842e-01,7.23201e-02,
-1.34556e-01,6.26545e-01,1.60091e-01,2.04723e-01,2.34230e-01,4.06947e-02,-2.01402e-01,-9.45968e-01,-3.84869e-01,-3.34606e-01,-4.82874e-01,4.18863e-03,1.90957e-02,-5.93423e-01,4.62147e-02,1.18768e-01,3.16180e-01,-4.88420e-01,6.95208e-03,-3.13203e-01,2.55147e-01,-1.92598e-01,4.12938e-01,1.16854e-01,1.00533e-01,-7.26734e-01,-1.84056e+00,-2.69744e-01,2.88013e-01,1.11219e-01,2.51903e-01,9.60986e-01,2.30449e-01,-2.00450e-01,1.16826e-03,1.67194e-01,3.12725e-01,1.34191e-01,7.48472e-01,-2.15130e-01,-2.59253e-01,-2.56924e-02,1.49488e-01,6.89674e-02,5.20739e-01,
1.77240e-01,-3.94057e-01,-1.89233e-01,2.53956e-02,-3.61993e-03,1.63101e-01,6.56337e-02,2.54732e-01,-1.87246e-01,-1.15875e-01,-5.26448e-02,-1.17781e-01,4.12224e-02,-4.63331e-02,-2.88133e-01,3.57409e-02,1.87044e-01,-7.20566e-02,5.69840e-01,5.41644e-02,2.43395e-01,1.14796e-01,1.61532e-01,-2.19417e-01,3.68648e-01,-2.48551e-02,5.86594e-03,7.01283e-02,-1.87446e-02,-1.39507e-01,1.05010e-01,-1.75598e-02,6.23784e-01,1.71400e-01,-5.78270e-01,3.79314e-02,1.09646e-02,3.65836e-02,7.56454e-01,-8.45312e-02,1.41286e-02,-2.01684e-01,-5.91602e-01,-3.37641e-01,1.48207e-02,
-7.92783e-02,4.01435e-01,-2.12788e-02,-4.16601e-01,-1.40070e-01,1.26609e-01,-8.19368e-02,-4.73991e-02,-3.28459e-01,-3.86062e-01,-3.19170e-01,-1.32141e-01,-2.57263e-02,-6.50706e-01,-7.69477e-02,-1.26679e-01,3.82662e-01,2.34055e-01,1.47862e-02,3.65363e-01,-1.35709e-01,-1.21064e-01,-2.24071e-01,3.71798e-01,-4.58050e-02,-4.57296e-01,-1.00288e+00,1.13970e+00,2.95299e-01,1.69239e-01,-1.49594e+00,7.44383e-01,-3.23381e-01,9.86469e-02,-2.30499e-01,2.35682e-01,-1.92502e-01,3.38789e-01,-3.23777e+00,3.85502e-03,-5.42649e-02,-1.17078e+00,1.83489e-02,2.31426e-01,7.75480e-02,
5.85879e-03,-4.37806e-02,9.88319e-02,-2.66994e-01,-1.39316e-01,2.20458e-01,8.95471e-02,1.67351e-01,5.07831e-02,1.62664e-01,-4.02478e-01,-1.09139e-01,2.32026e-01,2.24020e-02,-4.63843e-02,-1.86748e-01,-1.23711e-01,-1.47694e-01,3.84620e-01,7.17987e-02,3.83337e-01,-5.17943e-02,2.99024e-01,-2.37200e-02,-2.11272e-01,1.41082e-01,7.59326e-02,5.18394e-02,1.90046e-01,-2.75274e-02,-6.01584e-02,6.65738e-01,-2.61510e-01,1.00255e-02,-4.89816e-01,-6.85892e-02,1.69544e-01,6.11704e-01,-2.39295e-01,2.54262e-01,-4.04959e-01,-5.65196e-02,-2.30630e-01,3.07186e-01,-5.81529e-02,
3.13070e-01,1.27818e-01,-2.27717e-01,1.96060e-01,4.98882e-01,-4.09539e-04,-3.31539e-01,-9.33597e-02,1.68122e-01,2.74259e-01,-2.51614e-01,-4.44571e-02,-1.06465e-01,-1.78750e-01,8.66049e-03,3.83535e-02,-3.34231e-01,-3.18771e-01,-4.88579e-02,1.66461e-01,7.15322e-02,1.37027e-01,-2.84789e-01,6.21883e-02,-1.85745e-01,-2.07129e-01,-4.28540e-02,-1.29170e+00,1.34489e-01,4.85222e-01,2.05353e-01,2.82599e-01,-1.32399e+00,2.23333e-01,1.01382e-01,-2.67929e-01,6.89175e-02,-1.79991e-01,-9.31173e-01,3.19678e-01,3.07687e-01,-4.70950e-01,-8.12109e-01,-7.44679e-03,5.02775e-01,
1.64425e-01,3.27966e-01,1.29241e-01,-1.67153e-01,7.43458e-02,-4.63553e-01,1.15354e-01,1.72983e-01,-6.29693e-02,1.68010e-01,5.62557e-02,-1.39550e-01,-6.14234e-02,3.58297e-01,-2.20290e-01,-4.39175e-01,1.41157e-02,-1.60378e-01,-3.91890e-02,1.07803e-01,-1.98295e-01,3.58835e-02,-4.32307e-02,8.72223e-02,7.87841e-02,-1.91764e-01,-1.20339e-01,-6.75432e-02,1.40584e-01,-4.43121e-01,-3.36203e-01,-3.82350e-01,-1.56272e-01,-5.76436e-03,-3.10654e-01,1.02053e-01,6.61356e-02,3.56700e-01,1.49421e-01,-2.32945e-01,3.43850e-01,-4.84371e-01,-1.10740e-01,-1.41025e-02,1.07137e-01,
1.01757e-01,-1.32753e-01,3.99400e-02,4.28146e-01,2.75998e-01,1.49237e-01,1.79927e-01,2.23372e-01,-5.28839e-02,-1.26589e-01,-6.52321e-02,2.51757e-01,1.58174e-01,-8.33631e-02,6.13807e-01,9.08542e-02,2.46449e-02,-1.04818e-01,-1.58343e-01,-1.73905e-01,2.85783e-01,6.01910e-02,-3.74761e-01,7.95616e-02,-3.06325e-01,-6.18381e-02,9.81195e-03,-6.30136e-02,1.69149e-01,2.91808e-01,1.76371e-01,1.17015e-01,-1.66133e-01,-1.74288e-01,1.57478e-01,-3.97686e-01,6.38126e-02,-7.85868e-02,-3.05541e-01,9.50615e-02,3.75750e-02,2.41373e-01,5.12947e-01,2.35039e-01,-1.21789e-01,
1.08240e-01,-1.71051e-01,1.05201e-01,1.64115e-02,1.80208e-01,-2.75264e-01,7.10016e-02,-7.69541e-02,2.36481e-02,8.31317e-02,-2.41379e-01,-2.39027e-01,2.15160e-01,1.08880e-02,-7.68343e-03,-2.28513e-01,-6.47743e-02,-2.64270e-02,-4.73542e-02,-3.12761e-01,-2.36583e-01,8.66417e-02,-1.05485e-02,-9.60644e-02,-1.59944e-01,4.22083e-02,-2.51694e-01,-2.02934e-01,1.34466e-01,-7.31476e-02,-8.16176e-02,1.62973e-01,2.50757e-01,-1.28238e-01,9.45017e-02,3.85118e-02,6.18318e-02,-1.79613e-01,1.41992e-01,2.28634e-02,5.30303e-02,-2.39728e-01,5.96296e-02,-1.75100e-01,5.20166e-02,
-1.95529e-01,-4.11231e-02,1.34774e-01,-7.40910e-01,2.82641e-01,3.77703e-01,-1.75657e-01,1.84497e-01,-1.19103e-01,2.19415e-01,2.75816e-01,1.62513e-01,2.33391e-01,-1.72795e-01,2.50159e-01,-1.11591e-01,1.85477e-01,7.78111e-02,1.74386e-01,-8.12224e-02,2.99598e-01,-2.46884e-01,1.58844e-01,-4.02118e-02,-3.56416e-01,1.84973e-02,-4.03266e-01,-1.39712e-02,1.35173e-02,-1.04774e-01,-9.09903e-02,8.04592e-01,-7.15767e-01,-4.25956e-02,-3.26805e-01,-2.88434e-01,-3.20083e-01,3.10158e-01,-6.51123e-02,2.16996e-01,-4.66958e-02,-1.94652e-01,-2.91965e-01,1.92518e-01,-5.18062e-01,
2.37891e-01,-1.00311e+00,-3.48247e-03,8.49109e-01,1.18954e-01,-5.28007e-02,-2.52393e-01,1.80436e-01,-3.71419e-01,-1.28400e-01,1.39457e-01,2.92301e-01,5.93006e-02,-1.99244e-01,3.41777e-01,2.62028e-01,-6.58341e-01,-6.27163e-01,3.84440e-04,-1.50919e-01,2.56603e-01,-1.13416e-01,-3.09833e-01,1.65677e-01,-3.83390e-01,1.79220e-02,6.78989e-02,3.55959e-01,4.18844e-02,2.16348e-01,6.39886e-01,1.81677e-01,-3.76074e-01,1.78571e-01,1.26018e-01,-4.39081e-01,3.97409e-01,-9.77408e-02,3.73829e-02,1.45410e-01,1.86537e-01,1.21768e-01,3.09364e-01,-8.63751e-02,4.76743e-02,
-1.26699e-01,-1.46991e-01,-5.17216e-02,-8.94719e-01,-5.80773e-01,-2.80168e-01,1.70040e-01,-3.48537e-01,-4.48160e-01,-5.15472e-02,-4.18944e-01,4.11120e-02,2.56988e-01,-4.90513e-01,-1.18798e-01,3.30563e-01,2.03118e-01,-4.53560e-02,-7.58977e-02,3.00927e-01,-1.83453e-02,1.33046e-01,-2.48968e-01,-6.27056e-02,-3.13310e-01,-4.46766e-01,3.06435e-01,3.46687e-01,7.71916e-02,1.14967e-01,-3.26983e-01,1.27419e-01,-1.29545e-01,8.86101e-02,-6.98800e-01,-1.82670e-01,3.12918e-01,-3.25940e-01,2.03439e-01,2.71475e-02,-1.43563e-01,1.32613e-01,7.63322e-02,6.88886e-02,-1.81398e-01,
4.00106e-01,-8.39105e-01,6.48014e-02,-7.20022e-02,5.26114e-01,8.85238e-02,-2.71054e-01,2.03153e-01,-3.52441e-01,1.92331e-01,1.03123e-01,4.72457e-02,-7.65685e-02,-3.99821e-01,-5.80101e-02,5.32369e-02,-6.25564e-01,-1.57025e-01,2.24005e-02,-5.32003e-01,3.67401e-01,1.63223e-01,-3.18853e-01,-2.29952e-01,-2.40818e-01,2.42299e-01,-3.86920e-01,1.88522e-01,2.86043e-01,2.49926e-01,2.90908e-01,1.00509e-01,-5.67679e-01,3.40731e-01,-1.10253e-01,-8.13036e-01,1.72369e-01,-2.48758e-01,-1.14264e-02,7.03479e-02,3.67349e-01,-3.37581e-01,-1.03994e-01,1.46967e-01,1.20094e-02,
-1.05860e-01,-2.04209e-01,1.62517e-01,-2.03951e-01,-1.77166e-01,-6.10041e-02,-7.21469e-02,-9.10146e-02,3.78127e-02,-1.08179e-01,3.56379e-01,5.04519e-01,1.86226e-01,4.01558e-02,-3.17708e-01,8.40235e-02,-1.34129e-01,-1.93051e-01,1.14481e-01,4.11684e-03,-1.90576e-01,1.39178e-01,-6.04184e-04,5.12154e-02,-3.36391e-01,1.59452e-01,-1.41793e-01,-3.72763e-01,-2.18069e-01,-8.10780e-02,-1.71079e-01,7.41145e-01,2.08080e-01,8.59345e-02,6.22625e-02,-2.73443e-01,7.32484e-02,5.17556e-02,3.16903e-01,1.52149e-01,5.60992e-03,3.86880e-04,-3.76839e-01,2.80860e-02,2.71814e-03,
-4.25962e-01,6.56246e-02,-5.18201e-02,-7.35918e-01,2.15039e-01,1.37168e-01,-3.74319e-01,2.86489e-01,-5.26732e-01,-1.79547e-02,-6.62278e-02,-1.19891e-01,-2.46950e-01,-1.01615e-01,-1.62234e-01,-4.06624e-01,-1.39548e+00,5.01824e-01,3.27116e-01,3.15810e-01,4.40650e-01,2.09994e-01,-5.04482e-01,-1.02369e-01,4.67199e-01,4.01484e-01,-1.68745e-01,-6.65866e-01,-2.99952e-01,-2.07045e-01,-7.51862e-02,1.82099e-02,3.78631e-01,9.32510e-02,-3.75844e-01,1.97234e-01,-2.31100e-01,-1.88547e-02,1.36536e+00,-5.35278e-02,7.91848e-02,-3.51203e-01,6.97235e-04,-2.12864e-01,-3.61222e-01,
-1.06094e-01,-1.27144e-01,2.21739e-01,-2.69527e-01,-7.70198e-02,1.91533e-01,-2.22965e-01,-9.19973e-03,-3.69380e-01,6.68394e-02,-4.87729e-02,-2.05273e-01,-1.94332e-01,-1.64862e-01,1.42632e-03,3.38995e-01,6.09469e-02,5.63857e-02,3.49241e-02,1.72723e-02,-4.56555e-01,1.00278e-01,-3.55853e-01,-1.42450e-01,-1.38115e-01,8.88258e-02,-3.20965e-01,2.33008e-01,-2.62473e-01,1.33650e-01,1.18864e-01,9.97884e-02,5.14273e-01,8.67993e-03,-3.93529e-02,5.06235e-02,-1.11022e-01,3.61524e-01,5.62104e-01,-1.16032e-02,1.77104e-02,-2.48808e-01,5.92699e-01,1.20803e-01,1.46742e-02,
-8.64562e-02,-7.95428e-01,1.80880e-01,4.37012e-01,6.66019e-02,1.47110e-01,-1.26607e-01,9.32963e-02,1.62344e-01,-4.12310e-01,-2.23658e-01,4.82600e-01,8.41452e-02,3.42648e-01,4.78939e-01,4.41032e-01,-1.14401e+00,-6.65881e-01,-1.01489e-01,-1.74539e-02,2.11001e-01,1.52929e-01,-3.79345e-01,5.55479e-01,-5.04794e-01,-8.68321e-02,1.36492e-01,-1.17944e-01,-2.35104e-02,7.94083e-02,4.55832e-01,3.42799e-01,1.00113e-01,-1.41965e-01,2.54888e-01,-3.27283e-01,4.23447e-01,-1.66522e-01,2.16120e-01,8.81570e-02,4.41733e-02,4.51957e-01,1.21451e-01,1.50196e-01,-8.57194e-02,
9.21342e-02,-3.97526e-02,1.50092e-02,1.12824e-01,-5.43388e-02,-2.66362e-01,-1.10520e-01,-9.18430e-02,-1.03390e-01,1.68108e-01,7.97712e-02,-2.27613e-01,-3.04919e-02,5.82797e-02,-1.49922e-01,6.54932e-02,-3.42130e-01,6.03488e-02,-1.92075e-01,-1.16143e-01,1.22872e-01,-2.08619e-01,2.45054e-01,-7.84536e-02,-1.38269e-01,3.37175e-01,7.00657e-02,-2.55484e-01,2.69473e-01,1.54239e-01,2.18781e-01,2.85922e-01,-1.54164e-01,1.69118e-01,1.60248e-01,-7.49556e-02,9.20964e-02,-7.40125e-02,-8.96230e-01,5.37674e-02,-2.82749e-01,1.51702e-01,-1.46753e-01,-1.94301e-01,9.93437e-02,
-2.30702e-01,1.95203e-01,1.24981e-01,3.63786e-03,1.92576e-01,7.58600e-02,1.22853e-01,-1.25400e-01,-3.08970e-02,-3.81751e-01,1.00711e-02,-1.56274e-01,1.71333e-01,2.62073e-01,2.29435e-01,-2.42888e-01,4.33795e-01,1.28900e-02,1.78511e-01,7.99025e-02,8.86739e-02,-8.15932e-02,3.79104e-02,1.53682e-01,2.15847e-01,-7.23587e-02,3.60141e-02,1.70702e-01,-5.68763e-01,2.04673e-01,4.51013e-02,-1.23719e-01,3.09775e-01,-7.60525e-03,-1.07023e-01,2.33139e-01,-1.71491e-01,-4.95077e-01,-2.64513e-01,1.43307e-02,-1.65348e-01,-4.89841e-02,-1.65676e+00,-9.06947e-04,9.40642e-02,
1.19830e-01,-2.84184e-02,-8.92005e-02,-9.05125e-02,-7.61372e-02,1.27209e-01,-8.26579e-02,-1.16138e-01,1.25359e-01,-2.16284e-01,6.31679e-02,-2.69029e-02,2.27571e-01,-1.75275e-01,2.06439e-01,1.42850e-01,3.11195e-02,-2.20076e-01,-9.87264e-02,-1.06356e-01,-1.65270e-01,1.10568e-01,-1.89279e-01,-3.03383e-02,-1.02575e-01,-1.44617e-01,-1.54784e-01,-2.45125e-01,-1.97432e-01,-2.08654e-01,1.87743e-01,1.99300e-01,5.91761e-02,2.11606e-01,-1.35810e-01,-1.39812e-01,-1.21800e-01,-8.44119e-03,-1.78514e-01,2.03015e-02,-4.45174e-02,-1.01392e-01,-7.86431e-02,9.38677e-02,-4.01982e-02,
-6.92218e-02,6.23502e-01,-1.42890e-01,1.73447e-01,2.56240e-01,-7.31050e-02,-2.41515e-01,-2.24040e-01,1.44716e-01,7.13902e-02,3.24120e-01,-1.93578e-03,-1.53587e-01,-2.45895e-01,6.54106e-02,7.36409e-03,-3.55103e-01,-1.68331e-01,1.99716e-02,1.86769e-01,1.20269e-01,-4.10486e-02,-8.73113e-02,-4.92135e-02,-9.04448e-02,2.52028e-02,-1.87069e-01,-7.76006e-02,-9.67720e-02,2.22837e-01,1.30046e-01,5.57763e-01,-1.45534e-01,-1.02447e-03,-4.34521e-02,-1.79149e-01,2.04619e-01,5.50232e-01,2.57168e-01,2.03802e-01,2.67052e-01,-4.05108e-02,2.51366e-01,1.38654e-01,-3.18023e-01,
3.24943e-01,-6.33753e-03,-8.72368e-02,4.20222e-01,3.40643e-01,-1.54041e-01,4.49970e-01,1.97219e-01,1.11907e-01,2.30322e-01,2.72948e-02,-2.10361e-01,-1.71262e-01,-3.08078e-01,7.58273e-01,-4.55891e-02,6.61737e-03,-3.28012e-01,8.05373e-02,-2.47938e-01,-1.55015e-01,1.15444e-01,2.60259e-02,-3.92635e-01,1.59084e-01,-1.74435e-01,4.93491e-02,5.76582e-02,2.66287e-01,3.73330e-01,2.61741e-01,-3.96720e-02,2.80866e-01,-6.28814e-02,-1.84993e-01,-3.31011e-01,-1.26696e-01,-8.68488e-02,7.15813e-02,1.29599e-01,9.01251e-02,2.47254e-02,6.59508e-01,8.90623e-02,1.49203e-01,
-1.72020e-02,-4.25365e-01,-2.42131e-01,2.17871e-01,8.34328e-02,3.73279e-01,2.58501e-01,1.51258e-01,4.35967e-02,7.41639e-03,4.00027e-01,-1.21569e-01,-2.33559e-01,-3.06499e-01,4.15944e-01,1.24366e-01,5.01947e-02,-1.96129e-01,2.15153e-01,-1.37048e-01,-1.19975e-01,2.24230e-01,3.16563e-01,-1.87105e-01,-5.89012e-02,-5.14105e-02,-1.33987e-01,-8.45485e-02,1.48766e-01,6.95482e-02,-8.90745e-02,-1.58413e-01,1.07176e-01,-1.92483e-01,-4.74995e-01,-1.89251e-01,1.58960e-01,-5.70792e-02,-2.65275e-01,1.12208e-01,-3.06923e-02,4.25806e-02,-8.18748e-01,6.56273e-03,-5.27530e-02,
-1.51405e-01,-1.75108e-01,-1.28420e-01,1.04274e-01,8.89243e-02,-2.54728e-01,1.54007e-01,-2.15304e-01,-1.09531e-01,1.82217e-01,-1.20467e-01,1.26646e-02,-8.07609e-02,-3.52622e-02,-6.68777e-02,1.68000e-02,4.07473e-02,-1.07091e-01,-2.98554e-01,-2.09059e-01,-1.48212e-01,-1.16842e-01,-9.72608e-03,4.61468e-02,1.38258e-01,-1.83526e-01,1.74233e-01,1.58144e-01,-2.62122e-01,-3.07264e-01,3.44906e-02,-1.38460e-01,4.60545e-02,-6.83306e-02,1.18173e-02,-1.28253e-01,1.05697e-01,-6.79426e-02,2.37683e-02,9.23314e-02,-2.54519e-01,-2.14729e-01,-1.48204e-01,2.03948e-02,1.23803e-01,
-2.17917e-01,-6.65107e-03,-1.23086e-01,1.82306e-01,1.10093e-01,-2.31636e-01,9.01482e-03,2.80558e-02,-6.29883e-02,1.03808e-01,-1.84275e-01,-1.06979e-01,1.96350e-01,-1.12930e-01,-1.03576e-01,1.96253e-01,-1.60264e-01,-2.06361e-01,-6.07298e-02,1.37940e-01,5.05013e-02,-1.88725e-01,-1.71484e-01,1.12914e-01,-2.32893e-01,-2.24251e-01,-2.02666e-01,1.62268e-02,-9.36382e-02,-9.77987e-02,4.02699e-02,1.59066e-01,-2.07656e-01,-1.18706e-01,2.36726e-01,2.06639e-01,-3.89575e-02,-2.32950e-01,-1.65487e-01,1.03331e-01,-1.17199e-01,1.01983e-01,1.86128e-01,1.83665e-02,-2.06886e-02,
3.81293e-01,-5.49096e-01,-2.56752e-01,-3.51095e-01,-2.87477e-01,4.08935e-01,2.99494e-01,8.04606e-02,-6.59756e-01,5.69825e-01,4.40858e-01,-2.42924e-01,1.25742e-01,-1.98872e-01,-8.25799e-02,3.66641e-01,-2.83563e-01,-1.58284e-01,2.70815e-02,-4.37332e-01,5.32052e-02,1.24578e-01,-9.41330e-03,-5.85351e-01,-1.24677e-02,-2.34702e-01,-2.73531e-01,3.32042e-01,-1.81506e-01,-3.07016e-01,-3.29898e-01,5.15549e-02,-8.71040e-01,-1.99044e-01,-1.61253e-01,-5.16932e-01,1.61994e-01,5.03271e-02,-7.56016e-01,-3.28794e-01,9.20163e-02,-1.66072e-02,2.26274e-01,1.69883e-01,-1.30439e+00,
-1.81836e-01,-4.15959e-01,7.42355e-02,1.48206e-01,4.20570e-01,1.53650e-01,2.59409e-01,2.07865e-01,-2.62872e-01,1.27508e-01,2.73585e-01,-5.75248e-01,-2.15955e-01,1.98092e-01,4.44863e-01,-4.46273e-01,-4.61584e-01,-2.19568e-01,-1.27030e-01,8.38152e-02,4.71506e-02,2.13928e-01,-5.21996e-01,7.71817e-02,1.61135e-02,1.02899e-01,-4.55220e-01,6.29987e-02,1.06086e-01,-4.10396e-01,2.36091e-02,-3.24275e-01,-2.05076e-01,5.11643e-02,-8.22326e-01,-1.36056e-01,-7.96894e-02,-4.91274e-01,-6.66047e-02,3.43503e-01,-4.78301e-01,-4.15821e-02,-7.87780e-01,2.17469e-01,-4.52272e-01,
-1.72245e-01,-1.55005e-02,2.62471e-01,2.40273e-01,-7.84157e-02,7.87779e-02,1.56941e-01,-8.28279e-02,-3.57011e-02,7.99161e-02,2.61523e-01,-2.21291e-01,1.52941e-02,4.60664e-03,2.69453e-01,-3.45668e-01,5.64946e-01,3.40260e-01,1.38580e-01,-2.89982e-02,3.53752e-02,-6.40517e-02,-7.12880e-01,2.84974e-03,-1.65003e-02,-1.66883e-01,-2.49711e-02,3.51401e-01,-5.48976e-01,-1.59221e-01,-1.70662e-01,-2.82425e-01,1.84960e-01,2.77270e-02,5.68226e-02,2.80674e-01,7.80678e-02,-1.81106e-01,-1.80739e-01,9.03772e-02,-1.85142e-01,1.27723e-01,-3.47994e-01,-1.60963e-01,-2.28037e-01,
-2.41662e-01,-1.98000e+00,9.20046e-02,-1.48252e-01,4.23093e-01,4.85708e-01,1.93073e-01,-4.06232e-01,1.11201e-01,-3.74524e-01,-2.19658e-01,1.40360e-01,3.93252e-02,2.71969e-01,-5.18611e-02,2.89162e-01,-7.02318e-01,-3.71736e-01,8.64617e-02,1.52795e-01,1.02618e-01,1.90230e-01,5.32324e-02,2.24102e-01,-1.77735e-01,-5.92067e-02,1.03685e-01,1.97235e-02,4.67219e-02,-2.27133e-01,2.32041e-01,-3.31264e-01,-1.03948e-01,-8.77851e-02,-8.42124e-06,5.09526e-02,1.36047e-01,-2.68303e-01,6.71985e-01,2.80144e-01,-3.50245e-01,3.45722e-01,-6.47239e-01,-1.71810e-01,-3.29113e-02,
